4,4,96,1,1,-0.037608802,-0.0035164654,-0.06955558,-0.005523443,-0.07762624,0.020185411,0.010327935,-0.043593287,0.0026509613,-0.019833416,-0.029781997,-0.036708534,-0.022957563,-0.0867576,-0.007435441,-0.029290855,-0.015701473,0.02270849,-0.06020683,-0.12467692,-0.008877814,0.008985184,-0.06691301,0.009727716,0.010067821,0.00022083521,-0.044185128,-0.059451252,0.005256653,-0.0473271,0.0017746091,-0.020286918,-0.026071161,-0.058196247,-0.10826373,-0.01234141,0.010020971,-0.035978854,-0.0911594,-0.033411354,-0.16061345,-0.023124337,-0.020880103,-0.041267604,-0.029659867,-0.024202317,-0.031809747,-0.062096834,0.01891534,-0.036420047,0.011589587,-0.035033584,-0.019505888,0.039713018,-0.0037860274,-0.042136237,-0.026518285,0.0037321704,0.012810543,-0.012555599,-0.009391427,0.030761078,-0.013667583,-0.023722,-0.004722774,0.045344353,-0.020405889,0.009277403,-0.018543124,0.027019039,-0.055405498,-0.03177615,-0.022668779,-0.01993084,-0.07684791,-0.031094044,-0.020613015,0.027354345,-0.027308911,0.08475584,0.03847325,-0.08107501,-0.004948139,-0.063514285,-0.071459085,-0.025125623,-0.02453649,0.021474779,-0.105915785,0.0027011633,0.008984983,-0.022302449,-0.055916086,0.0032500923,-0.026779354,-0.10078719,-0.031715557,0.020048976,-0.12262757,0.008810237,-0.03808081,0.07766226,0.02463162,-0.14859511,0.015904725,0.025560677,-0.013018608,-0.011667855,-0.036902606,-0.1976918,0.008315414,-0.04545003,0.012800604,0.13214639,-0.11819923,-0.18512633,0.051338103,0.04949656,-0.045086592,0.035665423,0.055315495,0.05737096,-0.070418626,-0.14934993,0.059464455,-0.041614234,0.024619937,-0.08461648,-0.017515942,-0.09374428,-0.122801006,-0.008458614,0.07815495,-0.050560117,-0.026982307,-0.039316714,-0.16425093,-0.009727001,-0.029440552,-0.080598235,0.023010254,-0.06397712,-0.06926286,-0.044233024,0.09110892,-0.09178215,0.07459843,-0.07259011,0.10850096,0.11113328,0.046349972,0.08023858,-0.029641604,0.0067768693,0.05139625,0.022054851,0.042390555,0.0849573,-0.039579242,-0.050569937,0.011355877,0.11751503,0.0038229907,0.037711263,-0.03766653,0.13242018,0.003479898,-0.01475504,-0.0026944876,-0.109538496,-0.021378066,0.004060909,-0.053421974,0.048630685,-0.0652646,0.09962867,0.04889673,-0.14551726,0.037213594,-0.01552248,-0.12736699,-0.034703225,0.1034646,0.0004248023,-0.18257046,0.011576295,0.042101786,-0.0067638755,-0.16623954,0.14137614,-0.0269956,-0.17168164,0.009567052,0.059326336,-0.2609563,-0.022869557,-0.017167851,-0.049375832,-0.019691467,-0.035904735,0.028012753,0.016800586,-0.015569739,-0.020462692,-0.024837129,-0.016038477,-0.015451081,-0.0051195025,-0.02935603,0.040994704,0.004785951,-0.048968732,0.07320051,0.016140431,-0.02973684,0.017506078,-0.024365693,-0.0109895915,-0.007152915,-0.07394341,0.07410261,0.026315354,0.025210917,-0.01399453,0.0042756945,-0.06338549,0.011510313,0.01535058,0.031336784,-0.0068321824,-0.08334297,0.016199023,-0.17703873,0.004531324,0.024322301,-0.04621923,0.051803708,-0.028345883,-0.005147159,-0.017265141,0.0021507666,0.012057424,0.029119492,-0.017023921,0.05547756,-0.024699748,0.000641495,-0.014036477,-0.0028054714,0.026232243,0.017142504,-0.3008636,-0.0099749565,-0.018613517,-0.05047393,0.004197836,-0.038968027,-0.02098643,-0.014178872,-0.008180559,0.012672719,0.016359031,-0.13892627,0.012812138,-0.011068106,-0.05897057,-0.010502875,0.000395298,-0.04201439,-0.024148948,-0.02155435,-0.14467125,0.020975113,-0.07594219,-0.003730476,-0.028378367,0.018732965,0.012280341,0.01775977,-0.08201039,-0.025734365,-0.029540628,-0.03312403,0.026890904,-0.061810017,0.04681468,0.029112995,-0.13114595,0.0031242967,0.0491167,-0.33104932,-0.014046729,0.0028933287,-0.036721855,0.01779902,-0.07280052,0.061101347,0.058330357,-0.023464441,-0.034082413,-0.049137812,-0.0838263,0.0022562146,-0.0071582794,-0.025925756,0.094560765,-0.020553201,-0.09405321,0.05355704,0.04912755,-0.048379704,0.005795419,-0.0027832687,-0.008148849,-0.015905201,-0.13880146,0.06263755,0.03093703,0.017227098,-0.028800964,0.016666293,-0.10351926,-0.06360327,0.026468277,0.03359738,-0.0016534925,-0.11025241,0.034011185,-0.28846142,0.029566288,0.029039033,-0.12273395,-0.0012790263,-0.077852905,-0.06547475,-0.05494082,0.08443999,0.05333349,0.023942232,-0.058689393,0.13376248,0.023638487,0.03059477,0.082853705,0.006997347,0.046449378,0.039560188,-0.17651503,-0.014634252,0.017612755,-0.054519534,-0.035397768,-0.0034065247,0.02532345,-0.02167987,0.014683068,0.003706336,0.04088044,-0.110848606,0.033125453,-0.015964128,-0.074992575,0.017055541,0.030953825,-0.04365331,-0.021554345,-0.037405968,-0.05822301,-0.03603834,-0.09603697,0.034016967,-0.008793727,-0.036738634,0.014520779,0.06493941,-0.09392202,-0.05656767,-0.008318424,-0.04218322,0.048546433,-0.21259695,0.13283157,0.040873647,-0.2705466
