1,144,2.0774367,-2.0329845,2.0429409,-3.5895052,0.12752616,-0.19626854,-1.5596669,2.3343432,-2.001316,-0.32385346,0.22461395,-2.1457317,-0.6598762,-1.8040577,0.95732266,-0.8580478,-1.2127572,-0.6854581,-0.6177992,-0.07218006,1.9293879,-1.2954524,3.9731104,2.5208247,0.4102733,0.7185596,0.23037222,-1.2927866,-0.27587244,1.6987523,2.48565,0.070459016,-1.6397449,-0.44521952,0.12019949,-1.0597917,1.9269047,0.1448621,1.6930244,2.3288746,6.354139,1.0983734,-0.4574608,-0.418191,2.0931537,-0.70578873,-0.8743013,2.5687613,2.1508741,0.32654142,1.9200648,-1.4237832,0.22632337,0.35813805,0.28506005,-1.0116804,1.5739143,0.65980047,-0.62104255,-0.042861175,0.5235977,2.0075285,-0.9988288,-1.3367045,0.22958721,1.3214082,2.9318142,1.8638421,-0.21933798,-2.5664582,-2.1060083,0.06148733,0.24927832,1.7246883,-0.38301966,-3.9099505,0.46739942,-1.0353073,-1.1957012,-1.3342152,0.117015354,0.4949929,1.233203,-0.31917337,2.6920912,1.0389079,1.268326,0.12226744,1.8992357,-1.001313,-0.045281447,-2.3515334,-1.3453307,0.030238727,-0.44808587,-0.13909195,1.2775385,2.9117265,2.4009938,2.6250837,1.7468684,-0.39491603,1.5614306,0.26868647,-0.194124,-2.6182532,-0.6767001,-1.0285857,2.2941365,0.040963892,3.0662544,-0.34850773,0.098899655,0.17825301,-1.2938231,-1.743121,0.65371096,0.95477897,-1.4783728,0.058744557,-0.91318256,0.037797906,1.7924072,3.8889725,0.003864679,-2.362197,2.6022556,-0.9624782,0.55121493,-1.7599941,1.867168,2.163655,0.48301303,-0.2970122,2.1328957,2.905404,-0.15814067,5.1630697,-2.092618,-1.2925811,-0.078738116,0.20235753,3.3101232,-0.19129655
