1,672,-0.057576988,-0.023882216,-0.0067023505,-0.0014440538,-0.05692007,-0.009184976,-0.014215977,-0.029047742,-0.050788675,-0.07542883,-0.0050474503,-0.017250655,-0.04445572,0.0037060545,0.01894113,-0.049145136,-0.05714396,-0.015341333,-0.052174635,-0.011770899,-0.0103101265,-0.0054193214,0.0036730461,-0.024131974,-0.04787841,-0.09719218,-0.05548178,-0.0317716,-0.07224076,-0.0363735,0.01595709,-0.013395513,-0.031949386,0.025461204,-0.060734175,-0.0030444185,-0.052958798,-0.00024460303,-0.050116133,-0.028215947,-0.03640094,0.03231183,-0.029625557,-0.10596032,-0.030667411,-0.037637543,0.007827341,-0.024167039,-0.014964302,-0.0134658385,-0.016521921,0.008197811,0.008306054,-0.049324382,-0.008242773,0.0040841517,0.0065547405,-0.049678184,-0.0398584,0.0001306496,-0.019949915,0.006922856,-0.004995515,-0.07977366,-0.045453556,-0.011603935,0.010614081,-0.101285934,-0.03185012,0.009455126,-0.012531494,-0.059530005,-0.030428607,-0.035082657,-0.025305636,-0.01374126,-0.031194344,0.0041363183,-0.024144689,-0.041169666,-0.021741137,-0.052237146,0.012411724,-0.047198307,-0.03412646,-0.009519946,0.0024242334,0.010870398,-0.009087868,0.0040602656,-0.02996142,-0.030401366,-0.0027908878,-0.0731409,-0.026376592,0.016552262,-0.010787764,-0.025189877,0.052658495,-0.12512052,0.006925752,0.045870267,-0.047461163,-0.005931578,0.08196098,-0.08411063,0.038330168,-0.05011469,-0.006706341,-0.08174993,-0.0006384565,-0.03936857,-0.041505486,-0.0063768113,0.0050137895,-0.0013914295,-0.07842415,-0.06588341,-0.043809798,-0.034722645,0.011537013,-0.018506821,-0.032457568,-0.01929002,-0.04173787,-0.07355319,-0.004462144,-0.01662241,0.017813427,0.021995528,-0.005550971,-0.047475863,-0.020369958,0.0050379937,0.008111307,-0.015885532,-0.007795402,-0.01975486,-0.01889594,-0.08755976,0.03405385,-0.03859151,-0.049203407,-0.023312312,-0.014939008,-0.0070624375,-0.043220364,-0.015021714,-0.035584863,0.009639924,0.0029136117,-0.014376161,0.022974668,-0.019235494,0.005272826,-0.0040378147,-0.003024708,-0.01400368,-0.04596229,-0.07783914,-0.06223435,-0.04911858,-0.012921939,0.0056815916,-0.033679858,0.010419245,-0.008223269,-0.003967224,-0.03998871,-0.007410762,-0.021240575,-0.03267909,-0.033372607,-0.014697058,-0.03132867,-0.025540989,-0.02977239,-0.036106408,-0.016569851,-0.034142964,-0.0633439,0.0069290637,-0.05350314,0.009569471,-0.053657386,-0.092439435,0.004087179,0.016133027,-0.089160785,-0.0022788432,-0.05523494,-0.037778728,0.010535233,-0.014014323,0.012542021,-0.05756342,-0.016176553,0.029180516,-0.028490957,-0.024934618,0.004569237,-0.062805764,0.019426234,0.029856414,0.007490009,-0.0034069319,-0.014272548,0.034319397,-0.02114191,-0.0914626,0.08241251,-0.008882235,-0.009623145,-0.014510962,-0.047962535,-0.008675705,-0.04981279,-0.015006374,-0.018693913,-0.0048619583,-0.033123016,0.032038204,-0.0096610105,-0.039976563,-0.035539567,-0.042853095,0.027498718,-0.057216387,-0.037090164,-0.056848645,-0.0009375028,-0.042745065,-0.011602193,-0.04704724,0.024734238,-0.031397466,-0.030735897,-0.0064196154,-0.008283227,-0.05720846,0.017818721,-0.093332335,0.0041338196,-0.051917173,-0.026519878,0.02008412,0.05828728,-0.040315233,0.0064888,-0.05002119,-0.101315334,-0.017458552,-0.010359996,0.04172701,-0.024717186,-0.012586668,-0.06262894,0.011924473,-0.07744067,-0.025137069,-0.018795174,-0.006746735,0.029440332,0.002349141,-0.04273124,-0.01889304,-0.0069128475,-0.015754001,0.052824557,0.0012418226,0.010628016,0.0044377,-0.059480097,0.00071152,-0.010207839,-0.03185555,-0.011127343,-0.03264689,-0.004933585,0.02155554,-0.026975885,-0.027270762,-0.027215973,-0.050032075,-0.06641759,-0.03697485,-0.018254459,-0.029407976,-0.011130152,-0.025865322,0.012990967,-0.020295164,-0.0054384926,-0.049539294,0.0047579915,-0.028128602,-0.04140704,-0.039405495,-0.00061232183,-0.040808097,0.016935354,-0.026069244,-0.008648948,-0.06519,0.0009248581,-0.023256943,-0.006918082,-0.019711202,0.018438833,-0.0027337372,-0.0057503623,-0.00729531,-0.07186904,-0.055424087,0.004951815,-0.040611695,-0.010923676,-0.08653119,-0.0069406545,-0.04062889,-0.01749682,-0.005386196,-0.021403234,-0.02431127,0.01799296,-0.013608148,-0.017077789,0.0032688933,0.0101793865,-0.028369045,-0.0093986215,-0.014023599,-0.011792065,-0.03050232,-0.0023896485,-0.0018847472,-0.050028984,-0.036125027,-0.0417771,-0.036863554,-0.024092102,-0.017266002,-0.01483576,-0.028228821,-0.008139271,-0.026015619,-0.03000022,-0.039034642,-0.032965824,-0.004495373,-0.000352088,-0.019694164,-0.035279486,-0.02950892,-0.025161939,-0.028634999,-0.015480469,-0.012963182,-0.034449108,-0.020589292,-0.0138099715,-0.06025182,-0.024587855,-0.020616643,0.00070411124,-0.020866625,0.018973507,0.002832157,-0.046502642,0.0068395613,-0.03477965,-0.016741205,-0.057346754,-0.035369996,0.036061987,-0.021065317,-0.0032243654,-0.008170842,-0.025152737,0.011211869,0.011702906,-0.003696218,0.0041553685,-0.0201801,-0.020412914,0.00028782,0.016149014,-0.017193131,0.006775647,0.0005600339,-0.0060771313,-0.08069392,-0.0120621845,0.0213217,-0.022925911,-0.062492244,-0.0043078125,0.00023191402,-0.025634445,0.012670919,-0.053622488,-0.0419292,-0.030802008,0.0011365992,-0.020552322,-0.028493574,0.011041917,0.020704282,0.008384924,-0.0025330079,-0.013742344,-0.06996018,-0.09183303,-0.07635586,-0.008447,0.03525464,-0.011140018,-0.009144414,-0.0027420314,-0.0074373423,-0.031367566,-0.013106712,-0.026809363,-0.027228154,-0.012637465,-0.069727845,-0.0525422,0.012069361,-0.02104177,0.015509746,-0.03387752,-0.017666472,-0.009003994,-0.07964218,-0.024439307,-0.02721902,0.003984188,-0.045749575,-0.009640747,-0.008930879,-0.03714696,-0.018471116,-0.026565496,-0.04402216,-0.0042867847,0.015755387,-0.06911479,-0.018389674,0.031376082,-0.008860492,-0.014381757,0.018708792,-0.039210368,0.016402652,-0.029585687,-0.008022127,-0.067617714,-0.0133492015,-0.08052142,-0.03233099,-0.0039406144,-0.0287222,0.0017712676,-0.06548871,-0.024338815,-0.0032592127,0.00796786,0.022137146,-0.024912145,0.010826903,-0.045757018,0.050220583,-0.00022382852,0.0013491365,-0.01906895,-0.03174872,-0.02609291,-0.010767908,-0.07886041,-0.0037664906,-0.016113734,-0.017884638,-0.0061377673,-0.012694971,-0.02678009,-0.039430518,0.022504175,-0.03888156,0.013593578,-0.0025457407,-0.04899039,-0.03566856,-0.057004467,-0.01525945,-0.0029704934,-0.044480465,0.031276193,0.0064875535,-0.00044123543,0.02286053,-0.03866728,-0.05732637,-0.014771332,-0.016325634,-0.014664853,0.0073681134,-0.004950782,-0.007816203,0.010042648,-0.05943767,-0.008427962,-0.01056725,0.038249582,-0.044438582,0.00622476,-0.048267026,-0.045269962,-0.015094371,0.0025467055,-0.06546643,-0.015819795,-0.038641553,0.048348956,-0.059183463,-0.02578531,-0.023115275,-0.0023121305,0.0019712462,-0.004644601,-0.049400948,-0.04688359,-0.00874104,-0.0065391846,0.009135189,-0.068946525,0.0023442283,-0.015412874,-0.015153105,0.008979284,-0.0029389032,0.035172258,-0.07950013,-0.024644831,0.011962771,-0.044418193,-0.0020847565,-0.047789093,-0.011811584,-0.03975453,0.0373495,-0.049607947,-0.08811498,-0.0011286286,-0.0056248615,-0.019465623,-0.013734145,0.03633952,-0.03282974,-0.04397566,-0.012463333,-0.06273746,-0.04879152,-0.028653521,-0.04198296,0.021929286,-0.06945556,-0.03242538,-0.06422679,-0.056238588,-0.06135407,0.016875343,-0.008438986,-0.011501227,-0.004728332,-0.03588801,0.0017247767,-0.01159023,-0.040535573,-0.010688706,-0.05633811,-0.018854441,-0.003771913,-0.020917576,-0.09855971,-0.016548663,-0.024669398,0.027922802,0.008351882,-0.031089585,-0.016131464,0.0034071873,-0.057852797,0.014592711,-0.038911946,0.0027661156,-0.007720898,0.010787572,0.012509546,-0.00651475,-0.020723343,-0.007408812,-0.047423452,-0.10399324,-0.013317373,-0.018863374,-0.008379155,0.011240911,-0.028049039,0.023129668,0.058739632,0.016946858,-0.02648754,0.006670112,-0.013223955,-0.025715135,-0.00070897135,-0.065603904,-0.005411496,-0.07422182,0.009726414,0.006730358,0.01728398,-0.02021939,-0.037774906,-0.029301664,-0.025162285,-0.017091243,-0.035080716,0.00439368,-0.01462002,-0.05573542,0.01075682,-0.019612005,-0.005508173,-0.029439105,-0.05459694,-0.010281584,-0.0050671017,-0.06585898,-0.024765074,-0.051993843,-0.074221194,0.012807448,-0.06898417,-0.00054119993,-0.022303429,-0.022936806,-0.05576615,0.018335095,-0.06572069,-0.05055426,-0.011263225,-0.0069772955,0.018251225,-0.019756438,-0.05574827,-0.038262006,-0.043879304,0.027182115,-0.0024619077,0.006037806,0.00092205254,-0.03030244,-0.03654897,-0.018943628,0.02015682,-0.08926973,-0.018328248,-0.021579675,-0.04031171,-0.037180275,-0.039302353
