4,240,1,3,3,0.1458587,0.235932,0.13123563,0.2379793,0.36277658,0.22887507,0.14761792,0.24711329,0.14151865,-0.0894233,-0.1576975,-0.09483476,-0.1634858,-0.2044723,-0.16304235,-0.09771362,-0.16869265,-0.094800085,0.12537417,0.1942368,0.13048524,0.21866411,0.32183546,0.21778351,0.13010281,0.20555651,0.12646785,-0.27090162,-0.276858,-0.17285265,0.19086428,0.12504548,-0.13833362,0.029910147,0.21610777,0.20382577,-0.23417868,-0.07650542,0.08360103,-0.21381208,0.15761352,0.34904593,-0.073577255,0.22149108,0.28803974,0.121192455,0.21250747,0.12585196,0.20748448,0.3721107,0.21698982,0.12969247,0.22313365,0.14240111,0.17145342,0.23375869,0.10300963,0.24044162,0.37746388,0.21449277,0.12577908,0.2042473,0.12619284,-0.108995795,0.20501065,-0.14414532,-0.14873901,0.34370035,-0.19529286,-0.10174619,0.22346464,-0.1244334,-0.17337501,0.30145097,-0.1758453,-0.28281942,0.53997964,-0.2856921,-0.16349787,0.2838133,-0.15726435,-0.16451478,-0.32530934,-0.16152531,0.052101813,0.04859674,0.029926397,0.12815133,0.18028308,0.10765511,0.13265574,0.33288923,0.18878728,0.2263571,0.4859756,0.20851803,0.14498375,0.22652006,0.05436951,0.20017633,0.28763634,0.19949147,0.26316166,0.4026627,0.2838091,0.1825921,0.28077096,0.19779009,-0.09615958,-0.19364575,-0.13824712,-0.19053458,-0.2792964,-0.1923991,-0.1450547,-0.20793486,-0.097055316,0.16997904,0.29573303,0.17408805,0.2636944,0.44933897,0.26901382,0.15310003,0.2641473,0.14803323,-0.13043399,-0.22967996,-0.15917778,-0.23067659,-0.2174464,-0.22832713,-0.1349727,-0.19528319,-0.09984129,0.1747461,0.30050784,0.16178438,0.29719105,0.5183487,0.2760069,0.1549719,0.27703464,0.15135607,-0.00012280047,-0.26212192,-0.10115504,0.19167092,-0.10700028,-0.27707323,0.21556991,0.15183116,-0.061967272,-0.10495528,-0.15299547,-0.15545166,0.18302977,0.30555978,0.1830181,-0.1560548,-0.13574171,-0.089467324,0.102654874,0.16738638,0.094888866,0.16811353,0.27263948,0.1628733,0.105460346,0.16722049,0.094724685,0.13465196,0.20479345,0.12435192,0.21609789,0.32405213,0.22118819,0.14353162,0.20650661,0.13110471,-0.109047614,-0.2701959,-0.18145096,-0.22442144,-0.3316132,-0.20366234,-0.16566801,-0.26352143,-0.08703178,0.0703204,0.11239055,-0.24155623,0.20829631,0.30127615,-0.33376265,0.10035401,0.15649107,-0.26272535,-0.13697259,-0.22856951,-0.1264588,-0.22440241,-0.33540398,-0.21487844,-0.12218797,-0.2158449,-0.117952526,0.14448987,0.22207622,0.1322658,0.21639109,0.31809813,0.21234237,0.14421916,0.20751703,0.13084918,-0.2665477,0.08920753,0.11317068,-0.34290236,0.25221658,0.27935338,-0.28054476,0.12086506,0.1420702,-0.16084337,-0.27211985,-0.14676939,-0.25064,-0.38102674,-0.24519718,-0.13989909,-0.24408114,-0.13658708,0.13993198,0.031659722,-0.22136422,0.22477484,0.11281986,-0.2853125,0.11876786,0.006891899,-0.2246468,-0.09267557,-0.22799844,0.13812423,-0.20890841,-0.059200957,0.3339498,-0.20093986,0.23290372,0.20347156,0.12396965,0.19685358,0.11541355,0.23074768,0.3763709,0.23533612,0.11669353,0.21925718,0.13150251,-0.11873245,-0.2375068,-0.12923965,-0.2374787,-0.41554815,-0.23822968,-0.13845727,-0.2439085,-0.14093581,-0.13115579,-0.22285326,-0.123842716,-0.22614482,-0.3791616,-0.23593396,-0.14748105,-0.24394894,-0.14487669,-0.11692369,-0.20147818,-0.11564252,-0.18959367,-0.27660075,-0.18654686,-0.11578357,-0.19255643,-0.11465747,-0.11202395,-0.16636094,-0.12334135,-0.19590685,-0.16482101,-0.20010126,-0.11133941,-0.15229607,-0.1023097,0.14003617,0.21001464,0.14246836,0.20288973,0.27714875,0.20121902,0.13561246,0.19626015,0.14031498,0.12173988,0.24571018,0.14078192,0.21561694,0.42172328,0.25633737,0.12371868,0.2507249,0.14644462,0.16296113,0.25765043,0.15768361,0.2690187,0.39855295,0.24045274,0.15003859,0.25245306,0.13405311,0.1466003,0.2669872,0.15215951,0.27083716,0.48433083,0.2749223,0.15458517,0.2737241,0.16466433,0.1418336,-0.3486718,0.17460614,0.24247694,-0.52248985,0.2426461,0.15290494,-0.2975621,0.1361304,0.27078718,0.43541127,0.22861296,-0.11702019,-0.108053714,-0.059678614,-0.14782587,-0.11826074,-0.11308758,0.21232569,-0.073548794,-0.14800107,0.111082345,-0.594102,0.07883865,-0.124937564,-0.114635885,0.2093271,0.16883722,0.29429454,0.17935461,0.2774765,0.435571,0.2843982,0.1636619,0.25986314,0.1514465,0.19975251,0.42144883,0.26524517,-0.011442246,0.010359138,0.05527556,-0.24764258,-0.43936855,-0.18674922,0.12888533,0.19172549,0.12528811,0.18925571,0.2748589,0.18996787,0.11708884,0.17687356,0.11584949,0.13887745,0.23533475,0.14470619,0.24918538,0.40030664,0.23594922,0.15272671,0.24646837,0.1268054,0.12706429,0.2099698,0.12650472,0.19218819,0.3107042,0.19079018,0.107045636,0.18267296,0.11333501,0.13475682,0.23904759,0.13699287,0.22860295,0.41365054,0.23178315,0.12840882,0.23388308,0.1324184,-0.108373344,-0.17141104,-0.10941785,-0.1758291,-0.27361387,-0.17659199,-0.12021017,-0.1726461,-0.113351285,-0.12951201,-0.22783467,-0.11898309,-0.21925837,-0.35006434,-0.20627749,-0.12785189,-0.22890735,-0.109200835,-0.1707915,-0.25689435,-0.08491671,-0.20731665,-0.33452713,-0.22455385,-0.060712993,-0.24119525,-0.18933883,-0.115644395,-0.21135773,-0.1120882,-0.23163992,-0.43022594,-0.22474201,-0.12508583,-0.20699579,-0.12707207,0.12778968,0.21772037,0.12902485,0.20556146,0.34743783,0.20295975,0.1209113,0.20179474,0.1214816,0.13891143,0.23574686,0.13804755,0.22260958,0.3821583,0.22776629,0.12724137,0.21977857,0.12683299,0.17217779,0.3038889,0.16882622,0.29889822,0.53712356,0.28344965,0.1550915,0.2746847,0.14790097,-0.09643951,-0.18799505,-0.09476602,-0.18466148,-0.28028467,-0.18432021,-0.09095776,-0.18381351,-0.09663534,-0.18884036,0.085345685,0.2882935,-0.1492542,-0.26475245,0.26293015,-0.06745082,-0.21023035,0.086655445,-0.1621056,-0.2028313,-0.068769425,-0.1931234,-0.25512043,-0.17765844,-0.090741396,-0.20710969,-0.13651624,-0.10011175,-0.15770477,-0.097453594,-0.1730378,-0.21108773,-0.1652655,-0.10127332,-0.15873379,-0.099053256,0.12632507,0.22673038,0.12738504,0.22537702,0.3789539,0.21811193,0.12694338,0.20775747,0.1145072,0.29586703,0.47724134,0.3095529,-0.06352534,-0.11137903,-0.06355274,-0.23255196,-0.33316097,-0.21897209,0.12107268,0.20186561,0.12372746,0.18713105,0.2627083,0.17707588,0.11231965,0.17105687,0.11039436,-0.112815686,-0.19960397,-0.113395214,-0.20582879,-0.3310939,-0.19812614,-0.13069919,-0.21707702,-0.10958797,0.13580737,0.22715965,0.13107598,0.24549794,0.4180377,0.23158349,0.15575853,0.24921256,0.15183434,-0.15325004,-0.2649682,-0.16612625,-0.27703965,-0.52587205,-0.28809154,-0.16754544,-0.29674673,-0.18859783,0.15231887,0.20235378,0.14835167,0.20256929,0.29511538,0.20885274,0.13172002,0.20682514,0.12711325,0.34514976,0.36567146,0.35305732,0.30757704,0.6336206,0.26251638,0.37079287,0.30446672,0.40232065,-0.44156188,-0.36885196,-0.03339535,-0.36199665,0.04625207,0.38359624,0.020340841,0.409292,0.44338936,-0.13818313,-0.24481948,-0.135221,-0.24488415,-0.47073895,-0.24307218,-0.13109729,-0.2094467,-0.11907749,-0.12677589,-0.20895123,-0.11400766,-0.19965659,-0.27881867,-0.19648567,-0.11706132,-0.20513415,-0.11884427,0.08921458,0.17836434,0.11506066,-0.18262196,-0.47193545,-0.20280397,0.12867635,0.21146286,0.11335236,0.12036868,0.19933131,0.12894905,0.20628582,0.34266973,0.1963703,0.103215024,0.16921699,0.10521585,-0.20781124,-0.4111667,-0.18896225,0.010558426,0.0078187585,-0.001726687,0.19826742,0.38321275,0.19248341,0.13100034,0.23430179,0.12597686,0.19261909,0.35371718,0.1919886,0.083311036,0.17216983,0.09583148,0.15817183,0.24098977,0.1525048,0.24619427,0.3407317,0.2445632,0.14818549,0.23711339,0.14498535,0.11951988,0.19683844,0.11744124,0.19565889,0.30594057,0.17937732,0.10269936,0.17151019,0.10717797,-0.13654333,-0.22125226,-0.12683982,-0.21708113,-0.27628285,-0.20119119,-0.12501456,-0.20119855,-0.1141721,-0.12676913,-0.2205798,-0.12593246,-0.21237871,-0.32233,-0.20789035,-0.12362284,-0.20983152,-0.112434864,-0.12189856,-0.19707659,-0.11806136,-0.19474667,-0.28136832,-0.18666612,-0.11999267,-0.2020041,-0.10734758,0.21291961,0.34719974,0.20253026,0.35387465,0.6200801,0.33635864,0.2089991,0.34456038,0.20685297,-0.10320913,-0.18087009,-0.100387834,-0.17711288,-0.24897814,-0.18490285,-0.11255644,-0.19304301,-0.11619635,-0.10772318,-0.2037425,-0.11854601,-0.19798386,-0.28849447,-0.19680369,-0.11232841,-0.19478974,-0.11750728,-0.09800841,-0.16771553,-0.08706975,-0.18755764,-0.3188138,-0.16714881,-0.12765165,-0.1711142,-0.10283294,0.10935119,0.19689131,0.11522253,0.18884,0.31288666,0.1922915,0.12103914,0.18227765,0.10562563,-0.1405779,-0.23938113,-0.13555153,-0.23225534,-0.35642597,-0.2265771,-0.12485576,-0.19346026,-0.118555486,-0.2075236,-0.28804144,-0.09469706,-0.09292185,0.03568849,0.124002516,0.13017231,0.21708736,0.18289238,0.071870625,0.30628002,-0.30024838,-0.22856683,0.37375692,0.19960465,-0.13959771,-0.15636188,0.19412361,0.13983953,0.23622191,0.11972365,0.23135096,0.37523645,0.2075548,0.1221503,0.2103928,0.11754188,0.13519347,0.29224002,0.1490562,0.22374016,0.47400326,0.22831383,0.15074077,0.26734927,0.1291108,-0.122454226,-0.21447968,-0.13358462,-0.20198286,-0.30472767,-0.20445836,-0.12635027,-0.20430297,-0.10712087,0.12239629,0.2158705,0.124258146,0.20075917,0.31943262,0.19509888,0.10455936,0.17545152,0.09702422,0.13949314,0.21938717,0.1276065,0.21690363,0.3416346,0.2080429,0.13341129,0.21095103,0.122468084,-0.10034531,-0.18429783,-0.104548186,-0.18254077,-0.26326066,-0.1824761,-0.101255864,-0.17023529,-0.10087949,-0.09106231,-0.15878083,-0.087613285,-0.16832979,-0.27189398,-0.17091781,-0.08898261,-0.1678665,-0.091169894,0.1514336,0.23867622,0.14867032,0.23988327,0.4211231,0.23132958,0.14098357,0.23371738,0.13561302,0.1621386,0.22976069,0.10669049,0.22335541,0.34530884,0.22659837,0.11321491,0.22059628,0.15454659,0.11955902,0.20737928,0.122589014,0.18927413,0.33613643,0.19475743,0.10175282,0.18699755,0.11071959,0.18144123,-0.1771735,-0.14792472,0.26295835,-0.18518202,-0.18080425,0.24459746,-0.008318871,-0.19149506,0.1484744,0.2683821,0.15684849,0.24756438,0.4272738,0.24864304,0.12984529,0.22897348,0.1339374,0.13275892,0.23844425,0.14515695,0.22368498,0.4036386,0.2347831,0.13505322,0.2473229,0.14833118,0.19246364,0.33321676,0.19392182,0.3373034,0.585789,0.32898545,0.19261432,0.34031832,0.19721693,0.15357783,0.2527356,0.1511302,0.25871623,0.40929765,0.24436766,0.14386183,0.23244609,0.1361888,-0.033019632,0.15283673,0.21851474,0.15411162,0.2321865,0.15796286,0.2037335,0.14145069,-0.03957206,0.18257502,0.31579903,0.18895236,-0.103707455,-0.13537496,-0.08072121,-0.1379751,-0.21117604,-0.15277454,-0.1297462,0.17140204,-0.14687103,-0.20634067,0.26531792,-0.21992657,-0.103943616,0.1432839,-0.12358284,0.12553239,0.21185893,0.11706654,0.21547174,0.3515933,0.20701253,0.13029487,0.22396812,0.12577069,0.12688422,0.21558645,0.120842695,0.21300536,0.34868312,0.20472139,0.114370346,0.20499733,0.12329594,0.13696805,0.078816436,-0.1399354,0.22279835,0.08504703,-0.2618645,0.17650329,0.014093563,-0.208078,0.14428027,0.2409761,0.13898644,0.23146379,0.40681687,0.2269553,0.12207334,0.22376391,0.11547369,0.11570361,0.20519722,0.12237063,0.2138966,0.35763478,0.23118421,0.1373762,0.22273533,0.14550483,-0.11285781,-0.18160522,-0.10607535,-0.18089026,-0.2675802,-0.1793986,-0.10426706,-0.17821413,-0.09312783,-0.14674388,-0.24513915,-0.13431937,-0.23744969,-0.4236201,-0.233643,-0.14554197,-0.25646752,-0.14525235,-0.10620594,-0.18499851,-0.12329693,-0.18673378,-0.23979692,-0.19609785,-0.10960281,-0.17219454,-0.10813141,0.1315397,0.2093271,0.13190556,0.17681408,0.27093574,0.18403766,0.124685235,0.19824567,0.1230602,0.20178767,0.24733232,0.07607491,0.25419784,0.43691933,0.23312522,0.076875694,0.2472321,0.18715127,-0.12078422,-0.19606394,-0.12069178,-0.20344405,-0.339302,-0.20196599,-0.11693227,-0.18900234,-0.12689209,0.14804906,0.22530171,0.13136615,0.18155849,0.30362725,0.1806177,0.118619226,0.19186641,0.12125078,-0.37672856,0.022488058,0.2881474,0.04141563,0.14694567,-0.027519345,0.36772534,0.056104854,-0.4179061,0.29767573,0.017273739,-0.31694528,0.4960277,-0.002699731,-0.47750598,0.2753217,-0.002381146,-0.30943146,-0.12561017,-0.23749454,-0.12566996,-0.21006566,-0.2932617,-0.20631373,-0.12038402,-0.19651529,-0.10681635,0.12112737,0.08650732,-0.21548502,0.17220074,0.12525517,-0.42167455,0.1186637,0.061434433,-0.21978757,0.22321533,0.19287106,-0.03884867,0.21171093,-0.045160174,-0.2870314,0.01951836,-0.22619459,-0.20684475,-0.11218876,-0.18703842,-0.1012547,-0.1875667,-0.23733453,-0.17955196,-0.10770452,-0.18472436,-0.10936675,-0.11810523,-0.2008476,-0.09695196,-0.19971877,-0.32155603,-0.19136506,-0.11666161,-0.20591179,-0.10411815,0.1807414,0.2807551,0.17510186,0.2840821,0.44384038,0.28831673,0.17288345,0.2747505,0.1811105,0.24398354,0.33316535,0.085647866,0.19874048,0.49983495,0.2449409,0.011814833,0.19684994,0.129107,-0.11510342,-0.19611578,-0.103077084,-0.20525178,-0.3400175,-0.20281988,-0.11618677,-0.22240081,-0.11515817,0.15631327,0.2910958,0.1342166,0.27020538,0.48482686,0.2327736,0.15474279,0.28033894,0.1317963,0.12915766,0.26238602,0.18327613,0.2585299,0.37832537,0.23232782,0.18745753,0.23426846,0.11148312,0.12911291,0.24977234,0.15207279,0.23068489,0.41767532,0.23972148,0.12607992,0.22454517,0.12742388,0.14570549,0.24102731,0.14939898,0.22409903,0.3129506,0.23047476,0.14976966,0.23108721,0.15408719,0.12399596,0.1582812,0.10018039,0.16922605,0.22334325,0.16226745,0.10426128,0.1652289,0.11580989,0.1501151,0.28134167,0.15657628,0.27494222,0.4843077,0.2706415,0.13867056,0.25947103,0.14026134,-0.10768454,-0.1972503,-0.11461946,-0.18151978,-0.25166774,-0.18691564,-0.11207867,-0.1772499,-0.08465189,-0.03399515,-0.17614558,-0.05796518,0.1700395,0.37496978,0.17956111,-0.0689058,-0.20859134,-0.04520198,-0.11810136,-0.20181113,-0.12277454,-0.20802796,-0.3579918,-0.2034615,-0.10973102,-0.18820035,-0.10991537,0.016832054,0.21040934,0.23241271,0.20037639,0.3193331,0.19341195,0.22384478,0.19634026,-0.000257127,0.24006397,0.36162096,0.24102092,-0.11408752,-0.019563615,-0.07886374,-0.17752935,-0.17898972,-0.17235607,0.17444381,0.3156614,0.1716803,0.30894583,0.5677148,0.29616416,0.16651112,0.2962152,0.16322207,-0.14540939,-0.2668576,-0.14464498,-0.27348438,-0.4161621,-0.2687243,-0.13485008,-0.23862985,-0.11527604,-0.088406384,-0.15024662,-0.09224746,-0.14766163,-0.22913602,-0.14286804,-0.08910501,-0.16264546,-0.09066868,0.18255544,0.30610463,0.1709564,0.3061153,0.5394529,0.30215174,0.17490861,0.30195883,0.17724894,0.20523056,0.33976233,0.19371778,0.36031404,0.6321053,0.33387285,0.20216787,0.34358376,0.18778545,0.1347444,0.2533282,0.12782836,0.27097556,0.49267727,0.27017486,0.12777469,0.25431448,0.13464528,0.16652441,0.27656323,0.16344118,0.26498726,0.46430394,0.2600844,0.16177505,0.26592237,0.1493637,0.14862487,0.24223402,0.14257021,0.2373518,0.3914978,0.23948917,0.14288682,0.24077424,0.14499204,0.13820943,0.23059043,0.14788124,0.22629417,0.34343857,0.23172575,0.14773321,0.23123232,0.13292754,-0.09462494,-0.20105682,-0.10086211,-0.21101883,-0.4596162,-0.18931979,-0.12103236,-0.20983094,-0.1011976,0.19362491,0.27429596,0.2370389,-0.1309683,-0.064759895,0.01648891,-0.18613319,-0.24824871,-0.13218692,0.1287764,0.23882307,0.12991713,0.22756773,0.3991209,0.22393411,0.13653113,0.21815878,0.13670939,-0.19467452,0.03923416,0.1355703,-0.27601722,0.072442174,0.17063016,-0.19123799,0.046990708,0.12988424,-0.12296867,-0.20507166,-0.11523159,-0.20683019,-0.2620899,-0.19313572,-0.11986035,-0.21706577,-0.118260026,0.14473128,0.22958475,0.122517794,0.23136622,0.32210281,0.2171104,0.13368785,0.22341795,0.13593112,0.05516588,0.2398743,0.20413893,0.2333262,0.4534676,0.24788104,0.19346565,0.25709105,0.07960065,0.099306464,0.11915663,0.09489675,0.034561157,0.031738073,0.064094424,-0.2385298,-0.45659718,-0.29432756,-0.23286182,0.07289386,-0.24024624,-0.38431892,0.17610444,-0.4001545,-0.22941029,0.07388693,-0.19634748,-0.14354524,-0.22889519,-0.1332432,-0.24561381,-0.38656533,-0.21843171,-0.14178018,-0.21885705,-0.12349833,0.20853329,0.2093694,0.04479988,0.18906206,0.32856593,0.22751936,0.024635911,0.18954545,0.20470518,-0.16786346,-0.28798854,-0.17200255,-0.2848551,-0.51597756,-0.2622285,-0.16723031,-0.277328,-0.15369686,-0.13649052,-0.19361979,-0.118809044,-0.19296455,-0.22952268,-0.18773577,-0.12889367,-0.17111284,-0.12562066,-0.12831405,-0.22399583,-0.1176824,-0.21895976,-0.37357494,-0.21021126,-0.11755702,-0.20146082,-0.11897522,-0.10976228,-0.10995804,-0.08717373,-0.11442241,-0.14024112,-0.12294621,0.18004891,0.37568015,0.19455647,0.16028512,0.2746426,0.15695654,0.27140749,0.44267336,0.2706466,0.14523777,0.25651592,0.1497541,-0.2084532,0.28960225,-0.10899943,-0.23700684,0.4657821,-0.21292078,-0.1288011,0.30163243,-0.16001189,0.19827102,0.28863427,0.17794926,0.29365107,0.41786683,0.26096284,0.18358316,0.26291147,0.15966524,0.1635899,0.28896147,0.15971568,0.28498697,0.53074014,0.27348143,0.15070134,0.27739054,0.15774226,0.11242687,0.1936319,0.09937912,0.19066806,0.33981663,0.175228,0.11685905,0.21407254,0.11165154,0.1384055,0.19540858,0.13192351,0.21404585,0.29962334,0.20648569,0.14316589,0.19095641,0.12960619,-0.21127236,-0.3864846,-0.25129658,-0.03309814,-0.080284774,-0.0519194,0.29460964,0.47126848,0.3027402,0.14352328,-0.07175621,-0.2607009,-0.3927828,-0.29931396,0.09617599,0.118859336,0.14019805,0.07800889,0.11602795,0.22744477,0.1732031,0.2198021,0.3542591,0.23382972,0.15140092,0.22209314,0.10998031,-0.14588726,-0.22620094,-0.12395653,-0.22208886,-0.30648655,-0.20854703,-0.13234729,-0.21821731,-0.12503913,-0.09273571,-0.18348938,-0.09421201,-0.1832439,-0.27019376,-0.17173366,-0.10585022,-0.18096721,-0.10347861,0.2251637,0.17956446,0.006056845,0.17173335,-0.03061843,-0.234686,0.010234237,-0.24493013,-0.20370907,-0.12242122,-0.20453708,-0.109921634,-0.19848634,-0.29004952,-0.1949928,-0.10993743,-0.19688267,-0.1052078,0.11880128,-0.25732797,0.108921856,0.25113028,-0.4123987,0.20562366,0.16770077,-0.2937292,0.12226513,-0.02095747,-0.3843751,-0.44107902,0.3774138,-0.0052118003,-0.37472162,0.42738283,0.3709372,0.024079688,-0.15911241,-0.26048368,-0.1861322,-0.06275928,-0.110182285,-0.06166424,0.2306732,0.29625058,0.21557242,-0.14152315,-0.20266406,-0.14091161,-0.026409268,-0.08748102,-0.035317354,0.1510423,0.28541255,0.17456035,0.1464241,0.24308917,0.13266349,0.21852806,0.3744187,0.21104234,0.11318499,0.19014406,0.10646774,0.15415552,0.26326257,-0.20623167,0.33650443,-0.046838768,-0.2372961,0.1214977,-0.20804083,-0.11111468,-0.07660025,-0.14154375,-0.09792108,0.2088635,0.3947171,0.24110287,-0.06751892,-0.10588449,-0.057227075,0.060739696,0.10227408,0.12742633,-0.24929696,-0.47682858,-0.29065037,0.1268123,0.13077928,0.10569811,0.14923729,0.2719076,0.14885303,0.26136017,0.5267825,0.25988165,0.13859645,0.26078326,0.13579321,0.19084603,0.33092988,0.18315405,0.33068156,0.60005957,0.3161361,0.18229604,0.31850526,0.17465127,-0.098715305,-0.20638682,-0.12106615,-0.18842287,-0.22459048,-0.17282003,-0.11306977,-0.1908437,-0.11184439,-0.110007256,-0.19473,-0.106799394,-0.1974318,-0.30031252,-0.19061112,-0.11747599,-0.20429195,-0.112099946,0.18979079,0.31283545,0.17319825,0.31778085,0.55422586,0.30725646,0.1718834,0.30847833,0.17183235,-0.12513804,-0.20079482,-0.118839264,-0.19890362,-0.28047583,-0.18604413,-0.11999686,-0.19673374,-0.11888471,0.12001168,0.200123,0.08915406,0.20202512,0.27305388,0.20158704,0.105376706,0.19911909,0.123406455,-0.12037927,-0.19467063,-0.11202973,-0.2020336,-0.3266822,-0.19850947,-0.1130464,-0.19719793,-0.11763701,-0.20520997,0.08247483,0.09483099,-0.2899654,0.17293784,0.17069077,-0.20061877,0.08211312,0.12359422,0.14149469,0.22622013,0.13132137,0.22694634,0.3291195,0.20559323,0.13823181,0.20747033,0.120453164,-0.14013338,-0.18142478,-0.12699111,0.19677444,0.31796673,0.19092625,-0.1567373,-0.1939896,-0.13713568,-0.14887089,-0.20338541,-0.14429584,-0.21336828,-0.24115933,-0.21043317,-0.12741795,-0.18679225,-0.11273308,0.14044407,0.23597012,0.13719462,0.24824995,0.39268157,0.23690724,0.14034319,0.23536226,0.14256108,0.084964454,0.1681592,0.11262387,0.08921534,0.11995968,0.045255117,-0.098869234,-0.39550465,-0.15443802,0.15537229,0.24364936,0.14626117,0.24476245,0.37774658,0.23409194,0.14279193,0.23011029,0.1262786,-0.10354101,-0.18298727,-0.11801801,-0.16570595,-0.22391321,-0.15635535,-0.11177188,-0.17565912,-0.09854728,-0.1550045,-0.224482,-0.1585174,-0.23198816,-0.4024454,-0.23203397,-0.119221866,-0.18341069,-0.113441885,-0.10884567,-0.17808169,-0.11005896,-0.20058268,-0.34306028,-0.17840293,-0.13305877,-0.19076788,-0.13016734,-0.11184806,0.19253421,0.42156816,-0.5104984,-0.0007662177,0.5175035,-0.4266533,-0.16992606,0.10721928,0.18975782,0.25285876,0.12301216,0.23455763,0.37787157,0.24371421,0.12648684,0.23727155,0.16940504,0.13709445,0.24926615,0.15189487,0.22021222,0.4040688,0.22726792,0.13921285,0.23499721,0.12841856,0.13140094,0.22430426,0.1141817,0.24707523,0.38801387,0.2245853,0.12719561,0.20684019,0.13704345,-0.10016616,0.2375082,-0.14222604,-0.2162399,0.39757305,-0.22354753,-0.13399422,0.25641114,-0.10830192,-0.19069684,-0.21533847,-0.091780365,-0.2449235,-0.29617253,-0.22218457,-0.08972867,-0.227144,-0.16166888,0.13963404,0.2100521,0.12884094,0.1602989,0.27850884,0.17828304,0.101756245,0.17210834,0.11569691,-0.1500104,-0.2311672,-0.16124263,0.30455357,0.48566294,0.28880656,-0.16826785,-0.24150811,-0.14450926,0.11585605,0.20926279,0.13242662,0.23528117,0.40253806,0.23483102,0.13460827,0.2206673,0.11509135,-0.4126833,-0.19142859,0.15994756,-0.47445205,-0.006886184,0.5137918,-0.11214356,0.1642673,0.46942064,-0.22435606,0.07845119,0.14096916,-0.4230598,0.12550218,0.21818265,-0.22611393,0.058598988,0.14355439,0.13926983,0.21902594,0.13763589,0.2207073,0.33473346,0.2130517,0.13790113,0.20867161,0.12737185,-0.101083934,-0.17407314,-0.08645111,-0.17634737,-0.30716246,-0.1715585,-0.09285332,-0.18236575,-0.096649185,-0.15999818,-0.019495353,0.13236225,-0.19982578,-0.2223836,-0.04791665,0.05085431,-0.15401989,-0.2640414,0.1506328,0.24842091,0.16298638,0.2471168,0.41299963,0.2607398,0.12636077,0.22707435,0.14671545,0.14158332,0.22899686,0.1652795,0.03425932,0.086936936,0.04341969,-0.14160933,-0.30037683,-0.16401716,-0.12613761,-0.19645096,-0.11791605,-0.18380493,-0.2466316,-0.17813882,-0.10283297,-0.16923745,-0.10640222,0.15191588,0.24673021,0.16236909,0.24106191,0.3661908,0.26501256,0.15327245,0.25966266,0.17559773,-0.26525703,0.021051705,0.27624357,-0.42614424,0.000111699104,0.4496397,-0.2855499,-0.0061095357,0.23357835,-0.18314031,-0.027232338,0.19586931,-0.26775202,-0.053287804,0.23957643,-0.1891931,-0.067581594,0.14513797,0.22803763,0.18064053,0.07031086,0.16303141,-0.10982442,-0.22750469,0.029332131,-0.23076808,-0.20615596,-0.15258777,-0.2824515,-0.16360804,-0.27237338,-0.52630466,-0.28613192,-0.15282676,-0.28257334,-0.15318501,0.13370676,0.17845994,0.11973219,0.18203887,0.25555876,0.16063637,0.12779441,0.17540973,0.10977867,0.1694932,0.2969454,0.15981159,0.2897057,0.5047371,0.27322832,0.14305347,0.24958701,0.1440987,-0.12062964,-0.22305608,-0.1264467,-0.22236148,-0.400766,-0.21266246,-0.1170879,-0.21328783,-0.11491346,0.20332274,-0.21372665,-0.1020948,0.292918,0.23041849,-0.26223192,-0.20145418,0.32295704,0.012138903,0.19082248,0.32782775,0.20372465,0.32459635,0.61491287,0.33001685,0.17731827,0.3091121,0.17054747,-0.18492678,0.083650425,0.13230436,-0.23264138,-0.08115692,0.24064097,-0.11190811,-0.13505808,0.13246596,-0.13581878,-0.25697687,-0.13304308,-0.2541709,-0.4823932,-0.25631678,-0.14363453,-0.2798454,-0.14599948,0.1335511,0.2106716,0.13303915,0.21909565,0.34938568,0.21178973,0.1400103,0.22797054,0.1317841,-0.15108648,-0.2574108,-0.14348738,-0.27144715,-0.46383417,-0.26343727,-0.15906498,-0.26286048,-0.15231767,0.12044901,0.24643329,0.13084085,0.21007907,0.43367755,0.21878088,0.097372405,0.19703281,0.10661036,0.15672585,0.2630862,0.16064602,0.245247,0.40641722,0.26043102,0.14129463,0.23135439,0.13961251,0.16938323,0.32226992,0.19576028,0.32916117,0.6192017,0.36716083,0.20445397,0.37082934,0.22221638,-0.19048968,-0.28135645,-0.1775643,-0.15189387,0.21114028,0.21550745,0.2567054,0.22677588,-0.00769943,-0.10209918,0.12401396,0.18590035,-0.29869726,0.016577303,0.2170606,-0.18816386,-0.1468493,0.097811714,-0.15377063,-0.2495358,-0.16952527,-0.3108855,-0.49220395,-0.28400755,-0.15820551,-0.23696375,-0.14955786,-0.11264463,-0.19936253,-0.13202882,-0.23107922,-0.28168347,-0.21785557,-0.15593025,-0.20550731,-0.10756835,0.12519479,0.19657993,0.1256172,0.19122699,0.28130496,0.18692997,0.12212396,0.2023015,0.11589092,-0.09467709,-0.1749622,-0.07952869,-0.18095075,-0.29924285,-0.18776637,-0.0917685,-0.19298744,-0.08872737,-0.12078796,-0.2011013,-0.10744572,-0.20038871,-0.34490234,-0.19924526,-0.122398615,-0.20936227,-0.13594942
