4,24,96,1,1,-0.37828138,-0.36469227,-0.07393333,0.35521352,-0.3404377,0.06692441,-0.1304649,-0.44979998,0.077266656,0.21236189,0.535562,0.24774222,0.31156036,-0.19263324,-0.029992683,-0.3853912,-0.14316753,0.0064070225,-0.049792603,-0.11133593,-0.29247436,-0.16015403,0.5388264,0.2712366,-0.14474304,0.086012214,0.1548258,-1.0602156,0.13839462,-0.39074346,-0.049130492,-0.38605282,0.6734613,-0.32977843,-0.59245056,-0.41036537,-0.113631755,0.7363506,0.38656932,-0.3495192,0.3324231,0.2087375,0.11166406,0.70235956,0.044266775,0.016453676,0.026290752,0.0043922774,0.056225747,-0.09111488,-0.1917587,-0.4694913,-0.939821,0.10562731,0.13055499,0.034085006,0.15587159,-0.49847585,0.5188039,0.00022697449,-0.007858723,0.070164755,0.10033566,0.34776694,-0.38659668,0.16415964,-0.34031498,-0.20435908,0.32931614,0.45191917,-0.083677225,0.5574918,-0.17512287,-0.2840459,0.44640818,0.17177927,-0.21398993,0.04856938,0.2633804,0.10640234,0.10411656,-0.11638409,0.6164028,-0.0053263307,-0.100590944,0.25961044,0.2365035,-0.0803121,-0.2280641,-0.15313691,0.3746691,0.039484963,1.1001588,-0.47700974,-0.41303772,0.6338531,0.37700975,0.3736389,-0.013375673,0.3869251,-0.20769516,-0.092840075,-0.36483735,0.039569095,-0.32424167,-0.40132916,1.238087,0.1497375,0.14322183,0.10290843,-0.09968281,0.27915436,0.0559285,0.0017331243,0.16593786,-0.043358907,0.45593774,0.0034920946,-0.34157407,-0.4352468,-0.1298653,-0.08471569,-0.46499732,-0.026528358,-0.014091969,-0.090289235,-0.12303083,-0.024183765,-0.81976914,0.19610699,-0.63192713,0.22722955,0.42461407,-0.92842495,0.33963352,0.34441102,0.41244686,0.062618166,-0.3162334,0.3776371,0.056204855,0.11276567,-0.23095131,-0.08560908,-0.13936836,-0.11652616,0.4620735,-0.62224734,0.020675868,-0.17261368,-0.20869924,-0.065888,-0.1086939,0.09839782,-0.64620954,0.0565494,0.15416127,-0.18776865,0.110416576,-0.47564247,-0.03945291,-0.31710464,0.1128194,0.040864468,-0.41804773,-0.5850947,0.0070982575,-0.60280395,-0.11682159,0.12890515,-0.022391379,0.3744415,-0.31003934,-0.19280829,-0.4752648,-0.09961671,0.00850112,0.0035805702,-0.8319383,-0.36001393,0.38944098,-0.37224552,-0.5278879,0.07338623,1.312103,-0.002141863,-0.13722733,-0.0018478483,0.09028949,0.019901097,0.077602826,0.6172529,-0.25973362,-0.4283729,0.115843974,0.19794309,-0.39637116,-0.029880024,-0.16486318,0.38135508,-0.024228543,-0.638517,0.19462171,-0.12911269,-0.16941525,-0.12906906,-0.06781715,-0.9258975,-1.081836,-0.4509072,-0.7827815,-0.4331167,-0.12768212,0.13731804,0.32601073,0.1426715,-0.30549738,0.50382936,-0.5048727,0.3487156,-0.11414838,1.0145,-0.07475889,0.49369353,0.20295265,0.36250484,-0.00087212026,-0.24683568,-0.17623784,0.26729077,-0.097002044,-0.12219563,0.012393802,-0.19931287,0.023233652,-0.5445394,-0.039701343,0.06294593,-0.0041826665,0.07276693,-0.114118084,0.22084498,-0.185597,0.38561228,0.46380192,-0.014790326,0.17834543,-0.08002636,-0.22064874,-0.4258822,0.20519325,0.031362027,-1.0367019,0.010682449,-0.78531003,0.27810985,-0.00091424584,0.020699501,-0.18734336,-0.032381445,0.31822398,0.30831417,0.08722856,-0.08627242,-1.1700151,-0.2027868,-0.070213735,0.025389552,-0.21262668,0.24428864,-0.03315276,-0.17143118,0.052455604,0.9519123,0.16709526,0.1413186,0.23815683,0.20235103,-0.57782304,0.09510857,0.14380355,-0.06327424,-0.5062703,-0.5326514,0.30473554,-0.19968028,-0.16768444,-0.15353419,-0.050903723,-0.024378046,-0.8259792,-0.1434071,0.019305944,-0.88064027,-0.0147173405,-0.15732676,0.03107316,0.08844793,0.2946688,0.14974093,-0.50055796,0.081294805,0.012895852,-0.0061228275,0.024797559,0.011446029,0.06692405,0.0045846403,-0.05961878,-0.0009481013,0.15948938,0.04023856,0.048462436,-0.061269224,0.07152827,0.19235979,0.10110456,0.22261189,0.0373521,-0.21903932,0.03408073,0.23868367,1.9299468,0.032807738,-0.019706184,0.039714426,0.19966069,-0.018619835,0.4037779,-0.05134973,0.061751187,0.22958416,-1.0094943,-0.14619182,0.0041981637,1.2759749,-0.15708831,-0.17374688,-0.018485278,-0.094066896,-0.025282115,-0.25009432,0.020871311,0.054332286,-0.04173711,0.003972858,0.0056537315,1.1598374,0.041918375,0.01888585,-0.19332844,0.0635677,-0.05229169,0.0017590001,-0.02177989,0.020989545,0.05881244,-0.01689735,-0.9992086,0.00420063,0.07511249,-0.2172307,-0.016216457,-0.022302046,-0.0035586264,-0.13306883,0.05913499,-0.009286717,-0.7503232,0.04896313,0.033011883,0.01883471,-0.04224264,0.0741214,0.025868464,-1.2120941,0.09817368,-0.02513671,-0.15779027,-0.16891119,0.00024747849,-0.1268593,0.035498857,0.4319999,-0.20532757,0.23046556,0.20960988,0.053234003,0.13723595,-0.33755007,-0.20751686,0.19464678,0.04582888,-0.06567395,-0.8893883,-0.14930326,0.6424344,0.28957608,-0.07382973,-0.31764424,0.14941591,0.039088756,-0.19639985,-0.097864695,0.33971837,-0.106946014,-0.20583032,0.017171368,-0.037323922,-0.1763463,-0.077702336,-0.29375583,-0.013762832,0.5958997,0.12376721,-0.1508082,-0.2521559,-0.7448024,-0.11148478,-0.1164349,-0.0009292662,-0.23020439,0.7357705,-0.2516138,-0.6759433,-0.2567461,0.020100981,0.13512507,-0.808261,0.7114908,0.06382733,-0.20670092,-0.19534816,-0.1354657,-0.03531739,0.8906567,-0.0633312,-0.21578345,-0.022183117,-0.20700192,-0.25426942,-0.024881244,-0.22094291,0.69278306,0.19078916,-0.07925887,-0.021558136,-0.0070055053,-0.31127387,-0.09205114,-0.30693284,0.08079519,0.039717555,-0.18165699,0.15949513,-0.26590827,0.07574591,0.07192395,-0.27137795,-0.05930692,-0.25948465,-0.17917907,-0.13456732,-0.07624319,1.0900195,-0.4570436,-0.27099988,-0.18829975,-0.09017375,0.004804328,0.2375588,-0.048303902,0.10015049,-0.08816624,-0.12611985,0.020307988,-0.08297897,0.21471536,-0.06869826,1.5958188,0.12643653,0.07436523,0.9614999,0.110522,0.03769259,-0.84852713,0.024042454,0.17748119,-0.023403674,-7.18236e-05,-0.15800866,-0.091443345,-0.68942475,-0.11206743,0.043792494,0.08480312,0.043586105,0.01615595,0.020748973,0.06377506,0.12892568,0.055837065,0.007825106,-0.0885016,-0.024897622,0.16767497,-0.028737418,-0.24633145,0.587757,-0.15513666,-0.051354986,0.12806024,-0.039765667,-0.17655165,-2.5649436,0.056414366,0.056235045,-0.047465786,-0.9942589,0.115926474,-0.07642433,0.15003203,-0.039014697,-0.21545514,-0.3753214,0.057100743,-0.014097795,1.2450905,0.053235874,0.02980519,0.06533508,0.01879276,0.039543357,-0.09650036,0.051093742,-0.08301547,0.14903177,0.094180405,1.9475818e-05,1.4125394,0.02658768,-0.0025494397,0.038549747,-0.11578199,0.053642735,0.0067023933,0.10025607,0.0023443997,-0.12428799,0.01852002,-1.2467463,0.05985681,0.018163383,0.029262692,0.037145823,0.045074105,0.019411832,0.16351877,-0.044378355,0.042308927,0.18857062,0.0508174,-0.03647551,-0.036683887,0.03575408,-0.1105741,-0.078780144,-0.083484106,-0.11416658,0.08206689,0.049662262,0.0070796506,0.12479755,0.016184106,0.063121274,-0.41219229,-0.4038874,0.22369759,0.0024535656,0.017468404,0.62278575,0.40237564,0.13490236,0.033743232,0.16193946,-0.18011345,-0.034555785,0.3414306,0.13968764,-0.31907275,0.17035806,-0.43227005,-0.033249944,-0.016188607,0.051640026,0.9017344,-0.41268596,-0.034390986,-0.41739225,0.1903316,-0.035645306,-0.22239378,0.081754625,-0.13360834,0.40158883,-0.37855038,0.118934005,0.043581188,0.01366359,-0.008804932,-0.045476437,-0.3547644,-0.20291065,0.042581797,-0.11554579,-0.11079317,0.18462697,-0.21410507,0.26318344,0.3043905,-0.036387064,-0.10365121,0.09400787,0.3064943,0.25625995,0.22316095,-0.20709956,-0.1863891,0.1350281,0.30023202,-0.014374033,0.3154564,-0.20584291,-0.35689637,-0.036455806,-0.40362167,-0.18438551,0.3094466,0.23859352,0.34857553,0.06760275,0.4406891,-0.2041994,0.39045957,0.33679774,0.0985665,-0.3606531,-0.20156898,-0.10241788,0.17099527,-0.18819928,-0.5871079,0.104914814,0.17625307,0.2108791,0.33233345,-0.06376153,-0.132442,0.046184897,0.6402128,0.29567212,0.39621595,-0.10256182,-0.2592566,-0.19693397,0.17948999,0.31583312,0.26090074,0.02348715,0.33587715,-0.2898139,-0.17264211,0.12761968,0.32176173,-0.011011913,-0.17572993,-0.41590968,-0.17092983,-0.28737548,-0.09078607,0.06534446,-0.396232,-0.40237468,0.20673914,-0.29942504,0.031100053,0.0061179698,0.1704651,-0.3122712,0.048796237,0.1865449,0.39902258,0.13301665,0.26435992,1.1549076,-0.066550665,0.0121251345,0.4282506,-0.44039536,-0.44666722,-0.2721557,-0.43020868,0.15752287,0.17167133,-0.4485782,-0.45243362,0.125584,0.17889348,0.40940315,-0.535768,0.2653848,-0.29316923,0.16363925,-0.30714265,0.050225675,0.3110776,0.11647148,0.029931515,-0.011428893,-0.032557666,0.4704728,0.37901157,0.41146252,0.36579293,0.17187645,0.48533887,0.15792854,-0.39890933,-0.2940485,0.14369614,-0.35445803,0.11241527,-0.11818093,0.022488609,-0.17886324,-0.01681912,-0.0999077,0.04315728,-0.080435544,0.17939773,0.07211928,-0.31103528,0.17409995,-0.5126542,-0.41078582,-0.31304115,-0.28450257,0.045378838,-0.27517074,0.6047343,-0.32742316,0.21479943,-0.3998368,-0.11963472,-0.5270635,-0.09873039,0.99415046,0.09052047,-0.7236458,0.019367695,-0.89946026,-0.055309705,0.47670856,-0.18671244,1.178818,0.50902426,0.1914438,-0.40538225,0.4110156,0.006984204,0.103590935,0.23235829,0.7113473,-0.23277858,0.71735376,0.26612264,-0.25639722,-0.1536916,0.34723026,0.0055023655,0.59497076,0.11775912,0.25200266,0.20205617,0.34253293,-0.30428052,-0.028105617,0.64824903,-0.26980737,-0.024156988,0.50824285,-0.1277805,0.4066249,0.09754443,0.027592614,-0.22471757,-0.6597678,0.11795202,-0.057799503,0.47918278,-0.047004074,-0.25643066,-0.6472901,0.23607254,-0.38228032,-0.06697023,1.5701054,0.2059247,-1.1344026,0.123565376,-0.18026419,-0.5764308,-0.98189604,0.095953576,0.0107293725,-0.09596564,0.38316476,0.29306296,-0.338329,0.115216024,0.078503996,0.5113789,0.21048334,0.18236205,0.024745539,0.21213132,0.023928957,-0.0209229,-0.053638607,0.2839771,-0.026463091,-0.23436633,0.41434947,0.2959705,0.40272555,0.30796197,-0.24564742,0.14315157,0.57903194,-0.008061931,-0.021726742,0.27396855,-0.17287165,0.21773571,0.6990395,0.40619192,-0.047525063,0.37123817,-0.16094747,0.2598339,0.04897995,0.33049908,-0.31456903,-0.29005736,0.0017832667,-1.4851569,0.08478221,0.33870757,0.107299045,0.068954736,0.23179922,-0.097956836,0.14838517,-0.20135777,-0.067692846,0.18829739,0.675287,-0.8336123,0.0052056015,-0.05579956,0.027819246,-0.28249466,-0.5813292,-0.14208812,-0.31037644,0.5381375,-0.01853557,-0.16082391,-0.16862723,0.3640343,0.14601092,0.20029062,0.5010671,-0.517702,0.5973518,-0.48145777,0.568957,-0.16961914,-0.03226152,-0.36109346,0.09245579,0.29408646,-0.2604602,-0.54690963,-0.20458668,-0.34365502,0.13225628,0.52858424,-0.46922144,-0.30967882,-0.13651507,0.13737097,0.38419598,-0.5645357,0.1329632,-0.59916675,-0.6339149,0.22475362,-0.20128661,-0.88078153,-0.029328018,0.055024326,0.014863357,-0.21245107,-0.14013442,-0.092761606,0.3665166,-0.018695295,-0.54467523,-0.4890039,-0.5816286,-0.3693369,0.030395001,0.088401765,-0.04559827,0.055217758,-0.17731974,-0.28517643,0.1699125,0.08589948,0.13743758,0.07272363,-0.3005531,0.13093318,0.29821092,-0.3283106,0.23586757,-0.33690235,-0.055288553,-0.034158096,0.03378567,-0.07368069,-0.0006267652,-0.014043845,0.021217309,-0.18999137,0.25639135,-0.5094265,-0.5009732,-0.55346256,0.98160267,0.00019446015,-0.6543894,-0.25822926,-0.024574384,-0.0842091,0.40744835,-0.1525926,-0.40061194,-0.023165941,0.70216787,0.3398136,-0.15210013,0.21478766,0.42913607,0.031503797,1.0827347,-0.05164078,-0.3402599,-0.6507707,0.16121316,-0.17692477,0.16423763,-0.22530906,0.70750904,0.42006844,-0.08122063,-0.01822491,-0.27687752,-0.16808331,0.54916036,-0.088180035,-0.30425346,-0.008891292,0.54348326,-0.020625174,-0.3010081,0.15881737,0.27817118,-0.6342489,-0.10916409,-0.14451565,0.09643552,-0.22710244,0.40877149,-0.6302016,-0.5358302,0.10103792,-0.35075903,0.15836753,0.08946355,0.13361478,-0.31434187,-0.22605252,0.05515422,0.16561969,0.11782864,-0.018231332,0.31403944,-0.23871128,-0.39763302,-0.23459603,-0.1687397,-0.07087986,0.14388157,-0.7099466,0.020987839,-0.50043327,0.266437,0.095576696,-0.4753095,0.79289174,0.040186197,-0.022848815,0.9640682,1.1256822,0.64665276,0.918663,0.07646844,0.6077897,-0.21649206,-0.041508544,-0.68901694,-0.074857146,0.012573734,-0.12934837,1.0571059,-0.005324796,-0.0032352507,-0.0015825033,0.39402062,-0.057820983,0.18346292,0.044502735,0.17175674,-0.11148235,-0.6256914,0.37365112,-0.67628825,0.72657824,-0.0051308013,-0.08837173,-0.07736677,-0.39322096,-0.5557225,0.67270064,0.014576927,-0.4142934,-0.18464449,0.01935345,-0.45401478,-0.14078563,0.29525754,0.1909459,-0.010915786,-0.04369518,0.28517032,-0.06493795,0.10065776,0.057962716,0.11115849,1.0566294,0.3013753,-0.28065124,0.854221,0.17067492,-0.8022944,-0.7231835,0.24355802,0.4813282,-0.15239677,-0.59466624,0.44893065,0.2662655,0.17910074,0.2768956,0.5076527,0.45984027,0.38027975,0.12672299,-0.017448023,0.68562305,0.043400556,0.27939004,-0.24753271,-0.32737273,0.29066113,-0.8308165,-0.13884537,-0.21256477,0.1772263,0.042877495,0.36755586,-0.1111347,0.13420239,0.26771748,0.11041107,0.33733895,0.6788094,0.14296165,-0.6751656,0.6169526,-0.79884696,0.6268328,-0.059023805,0.17792746,0.05441446,0.12516606,-0.12397864,0.5105014,0.544239,0.04906708,0.19067594,0.06326158,0.5468325,-0.14068815,-0.19935784,-0.5547098,0.31968924,0.192862,-0.39129496,0.21431798,0.33726904,0.2783782,0.47982645,0.11828092,0.38454148,0.070234686,0.48665524,0.4774939,-0.01061777,0.35403067,0.48097008,0.5080142,0.3034196,0.02383396,-0.074449494,0.0020941198,0.17727533,0.9693351,0.5271529,0.7149083,0.29870254,0.24376541,-0.20192568,-0.20852324,1.251517,0.20841955,0.4140407,0.1003671,-0.19162144,0.22924799,-0.09262037,0.13966973,-0.102719486,0.16488798,0.11869523,0.16517301,0.4190916,0.12158864,-0.0103311315,1.2551615,-0.67001957,0.32527336,1.0513015,-0.60176176,0.450379,0.40842122,0.12453632,-0.2240889,0.2818954,0.69589454,-0.45993495,0.01734119,-0.30949658,0.014069736,0.2843071,0.11319445,-0.06897828,-0.29413575,-0.7096303,0.1533798,0.49208647,0.44215515,0.030976243,0.12058573,0.5133889,-0.18047151,-0.43114617,0.02064687,0.12524092,-0.08768655,-0.077848226,0.16351235,-0.4333535,-0.023923099,0.50245345,0.9886663,0.3924545,0.043151453,-0.17238437,-0.016578153,0.23296867,0.071508765,-0.15170678,-0.62023926,0.0018410161,0.10108307,0.30851665,0.16474989,-0.7705486,-0.1025323,-0.1941114,0.14990821,0.3476503,-0.29031533,0.22027546,0.0676374,0.39942765,0.2090226,-0.079310976,-0.24264622,0.26480412,0.40528464,-0.21608837,0.88888377,-0.31433392,-0.54865676,-0.040112913,0.744816,-0.21397485,0.33762342,0.123937696,-0.1940434,0.5911142,0.037790373,0.08046422,0.260414,-0.07295674,0.34970024,-0.13859586,0.16250779,0.6531942,0.84519976,0.07056022,-0.11345429,0.24516603,0.14923026,0.052420706,0.039081395,0.22931346,0.24858958,0.8803652,-0.06282964,0.30273056,0.10254753,0.13707031,0.3416407,0.13080466,-0.2638888,0.041928142,0.36055446,-0.072142944,-0.34083676,0.2615187,0.00877744,0.5511104,0.4340273,0.58656025,-0.13207953,0.0341025,-0.06187731,-0.61047155,0.64620423,-0.16174653,0.031807005,0.3273611,-0.09426379,-0.13922058,-0.024466485,0.18018097,0.12112154,0.13650651,0.18414417,0.4787948,0.3819136,-0.48495966,-0.38299412,-0.13549887,0.070813596,0.6305641,-0.5286782,-0.21314724,-0.3249805,-0.047709554,0.7483626,-0.023567677,-0.931038,0.1685313,0.63755155,-0.4376708,0.31013077,0.018942505,0.82644224,-0.06610637,0.70667404,0.37118095,0.079973854,-0.35736495,-0.049800362,0.28358778,-0.33885807,-0.7294079,0.19580379,0.03956443,-0.4616958,0.14194885,-0.6160656,-0.27451313,-0.057750892,0.04471594,-0.037965,-0.26524293,0.34893185,0.38073722,-0.68179333,0.22248232,0.82419574,-0.5393382,-0.4329042,0.3102848,0.16322327,0.57662225,-0.71072054,0.027324095,0.1309955,-0.7024688,0.4617958,0.20065892,-0.18305326,0.0004505217,-0.4551704,0.20422995,0.015459701,-0.085416675,0.33126697,0.032342076,-0.12686582,-0.020515203,-0.17433237,0.022838995,-0.6005764,-0.035905033,0.28701028,-0.15792407,0.27618483,0.20601055,0.03589219,0.020985994,-0.094874926,0.10748861,0.17865774,-0.2012486,0.16409935,0.15324011,0.155076,-0.097237885,-0.22064018,-0.63881195,0.27376574,0.00023275614,-0.116144575,-0.028675452,-0.64464027,0.2273026,-0.15421194,0.32299617,-1.2949228,0.04725203,0.3800257,0.038143262,-0.1602039,0.098532826,0.19379723,-0.021184072,-0.96786946,0.10056324,0.021510817,0.30300486,0.0017405748,-0.15386918,0.31745744,-0.101721324,0.2832061,-0.29380986,0.08898975,-0.48865587,0.018572427,-0.05466354,0.11674225,-0.05864227,0.051593304,-0.008281499,-0.08259776,0.08030481,-0.06767759,0.020079382,-0.36884385,-0.27387264,0.09832215,0.059112757,0.16802901,0.042443812,-0.17874235,0.105262965,0.37901047,-0.07543966,0.03969741,0.105596766,0.10682162,-0.22264285,0.34210488,-0.99825597,-0.073351264,-0.27353907,-0.351417,-0.61653155,0.12218267,0.29460368,0.27726278,0.1670469,-0.007616451,-0.3887956,0.11386335,-0.5307729,0.66682106,-0.75989103,0.12311964,-0.3479902,0.16978139,-0.39507046,-0.0153299235,0.68144983,0.10988471,-0.09604111,0.82129544,-0.5525226,-0.09343478,0.6278655,-0.29869986,0.017901387,-0.1591164,0.3827824,-0.54627657,-0.57174265,0.17298645,-0.043340504,0.23469424,0.6692329,0.27363807,-0.60721886,0.13342664,0.063320786,-0.0841535,0.18801308,-0.054130465,0.6897093,0.031897485,-0.03713101,0.32690653,-0.67660546,0.49673072,-0.37630808,-0.544957,-0.17599744,0.25111878,-0.475397,0.14855027,-0.13535278,-0.04301234,0.6750695,-0.16106558,0.124758475,-0.0921803,-0.41657424,0.4305305,0.51168686,-0.08615918,0.0516306,-0.6268953,-0.15079717,-0.22074287,-0.07001483,-0.48995668,-0.08083835,-0.26933992,-0.066574745,-0.1899424,-0.6436013,0.011570901,-0.5075767,0.30575484,-0.133751,0.01690048,0.44679266,-0.010522746,-0.6402865,0.09830266,-0.03088954,-0.30495653,0.38995036,0.0773136,0.09530437,0.046839535,0.47809544,-0.59079313,-0.06745759,-0.5439921,-0.094604686,0.13173367,-0.08307465,-0.032145083,0.02379337,-0.17982095,-0.025449947,0.235818,0.28841683,-0.42517897,0.6084764,0.0058158636,0.11760821,-0.25129533,-0.21884874,-0.27965835,-0.10997459,-0.2122404,-0.43554825,-0.13050348,-0.3182311,-0.32089755,0.20026726,0.58937335,-0.33156827,0.5129496,0.08378772,0.60433805,-0.8867377,-0.4888079,-0.5585616,0.117594406,-0.36641634,-0.4634908,-0.112861425,-0.08419615,-0.42725903,-0.24061653,0.11168581,-0.45437595,-0.015886664,-0.021449089,0.17973922,0.023498066,-0.0032014549,-0.08839292,0.16641201,0.034281805,-0.048361868,0.1473091,-0.2481692,0.4288804,-0.27973327,-0.06968645,0.15139547,-0.010764619,-0.09695191,-0.2715607,0.08620128,-0.317955,-0.43332273,-0.21961918,-0.6516368,0.47026786,0.16239482,0.28966513,0.035329446,0.329794,-0.27372456,0.22585379,0.044463664,-0.001011163,0.2910813,0.33574116,0.046108052,0.102173775,0.0437031,0.072880164,0.5050957,0.022853449,-0.25486094,-0.17370354,0.02271229,-0.2126945,-0.15836787,-0.421187,-0.08568513,0.04159467,-0.17074502,0.1465439,-0.036127813,0.6831935,0.23811266,0.0033469796,-0.14800812,0.12884253,-0.26409554,0.18856712,-0.21706341,0.0064337794,-0.026605245,0.19853634,0.064965814,-0.025437951,0.18859312,-0.057752326,0.8972864,-0.029714338,-0.9175015,0.13172889,0.2701702,-0.036237434,0.385321,0.52396274,-0.18901876,-0.024404645,0.06461942,0.04880786,0.21488126,0.73528236,0.27495506,0.11004553,0.2136369,-0.9699464,0.28274915,0.3713411,0.03199126,0.1499626,0.27147314,0.07138419,0.5474477,0.16202775,-0.12433791,0.48158738,-0.0037380382,0.17867568,0.39939368,0.318985,0.31893378,0.11701728,0.25123265,0.3996805,0.2721563,-0.055610277,0.60723704,0.28829014,0.45232952,-0.03595661,-0.15227884,0.07853712,-0.0045698285,0.30729398,0.2439778,0.27961338,0.28631672,-0.23064876,-0.956693,0.1466638,0.40957546,0.20901641,0.3000076,0.16504121,0.16323188,-0.18618327,0.11863065,0.0024490952,0.25349134,0.30701658,0.02563709,0.049914315,0.3153463,-0.05249181,0.25280964,0.09277658,0.07873574,0.37629342,0.50662744,0.17037807,0.15344761,-0.23047096,0.3609865,0.17553455,0.5544243,0.067734,-0.24836247,0.7303442,0.40370476,-0.008373618,0.44683045,0.37074104,-0.33109653,-0.17509761,-0.10737984,0.2933572,0.2739171,0.23208985,-0.34615615,-0.1456441,0.21089092,0.09117204,0.33044252,-0.34663397,0.06901786,-0.1107668,-0.74226946,0.67868716,0.5892174,-0.045204427,0.12658074,-0.24083214,-0.11094859,-0.2086087,0.38302463,-0.32410365,-0.77792364,0.5354918,0.32408985,-0.010131441,0.037862122,-0.0061543286,-0.4915778,0.34446448,0.04310569,0.024908848,0.48405558,0.18288334,-0.05508144,-0.42516613,0.4745641,-0.44498754,-0.043218493,-0.61914784,-0.15392703,-0.12743032,-0.24781224,-0.31485516,0.061735332,-0.2218151,0.117425226,-0.34839782,-0.25495946,-0.6798445,0.23174985,0.22931191,-0.120823264,-0.004936494,-0.16940273,0.36744055,0.08650739,-0.402503,0.11270243,0.2554635,-1.1306534,-0.31248748,0.49071336,0.4898572,-0.6084001,-0.39240235,-0.25869098,-0.71829784,0.04305479,-0.5238912,-0.2846508,0.13170795,0.28669542,-0.65625346,0.42378062,-0.5647383,0.16280133,-0.3759131,-0.2868155,-0.576908,0.073391445,-0.70431376,0.37584716,-0.021173775,0.6069291,-0.23350592,0.12164417,-0.44797537,-0.057605118,0.2219463,-0.14551805,0.41383618,0.55122155,0.20970716,-0.81599325,-0.65761423,-0.67953295,-0.8759852,-0.090844154,-0.5028782,-0.15400198,0.6449288,-0.28014398,-0.35474718,0.22202736,-0.19175369,0.045192137,-0.8199444,0.12409724,-0.056800634,0.121457,0.055988766,0.09993121,-0.10207379,-0.3211736,0.37044543,0.069983765,0.655885,0.106839776,0.04730735,-0.569143,0.065757886,-0.105888456,0.34950468,-0.35927013,0.30729228,-0.76061565,-0.1461618,-0.023367047,-0.17994088,-0.1529229,0.4212779,-0.044369653,0.6457539,-0.25439492,-0.0018892288,0.08128826,0.030074209,-0.58818465,-0.38399294,0.056199543,0.07928542,0.2971141,0.02937758,0.5280426,0.6065872,0.22328135,0.40897444,0.11155733,-0.14626402,-0.23814306,-0.011074871,-0.026753604,-0.059155986,0.0809739,0.31632915,0.31041664,-0.021548748,0.1933036,0.40928745,0.5249178,-0.45010352,0.20194685,-0.106165506,-0.6135927,0.1980615,0.25000548,0.02628649,0.3729368,0.18133323,0.20374794,0.031812772,-0.008799747,0.21040164,-0.017904043,0.3589915,-0.48372957,0.36030182,0.31768405,0.71193933,0.1936591,-0.23080543,0.0003824234,0.15109935,-0.14910127,-0.047026247,0.03339708,0.31115407,0.6994087,0.1585893,-0.8263594,-0.068045825,0.66494507,0.20903596,-0.15119676,0.20072985,-0.5021859,-0.5497946,-0.37666667,-0.07415962,-0.12808889,-0.052303314,-1.5388186,0.13363713,-0.0616993,-0.47330397,0.08234991,-0.2751086,0.004753411,0.028461039,0.32964322,-0.103729546,-0.040436864,-0.22813779,0.036191892,0.482445,-0.061918553,0.29414514,0.4666475,0.17857087,-0.4819094,-0.3092534,-0.5698971,-0.06368454,-0.027594581,-0.4194285,0.27302366,0.31963235,-0.4461173,0.28693646,-0.2377325,-0.304053,0.30325675,0.19120567,-0.55396855,-0.5259419,0.12082717,0.3141918,-0.6419546,-0.28107324,-1.5156746,-0.010373652,-0.02583151,0.31184882,-0.020959824,0.2936324,-0.24842569,-0.38287413,0.059101716,-0.06164364,0.1296894,-0.20231274,-0.18706653,0.01155626,-0.32005844,0.7597477,-0.08375651,-0.60132766,0.07695464,0.3826257,-0.23591992,0.1385777,0.19715457,0.19451782,0.26267108,0.23408729,-0.020124003,0.10873876,0.09703955,0.11385706,0.33401212,-0.035058305,0.07176875,0.056604013,0.36501062,0.12509567,0.11302538,-0.16332227,0.3705748,0.26451603,0.23726258,-0.09796443,0.39520538,0.4197286,0.31899863,0.15165463,0.007335782,-0.27100125,0.11651184,0.059283078,0.086382,0.23755723,-0.13533787,0.025263175,-0.5026497,-0.7367209,-0.32295918,0.1412591,0.7964,0.35430333,0.19702563,-0.17712793,-0.08727084,0.31256416,0.14710651,0.21386644,0.054405928,-0.5116994,-0.40160894,0.07951321,-0.2755808,0.38519263,-0.028521236,-0.24909057,1.0335525,1.0847472,-0.2740422,0.14765,-0.13128644,-0.2610224,-0.042789713,0.060433388,0.38957074,0.08990926,-0.23966813,-0.0051546097,-0.3191323,-0.013225406,0.25983614,-0.25373727,0.06530911,-0.25812382,0.3543086,0.30568478,0.64122945,0.265737,0.62042266,0.22131005,0.1867708,-0.66997874,-0.10118858,0.32099703,-0.37408614,0.053518742,-0.15209305,-0.08700609,0.31648505,0.15845843,0.90002394,-0.13144618,0.040595166,0.3228403,0.24609411,-0.48183095,0.0466471,0.24390435,-0.14527166,-0.18139334,-0.2505789,0.058620363,0.15860653,-0.19153464,-0.31763473,-0.01808253,-0.0856342,0.05364518,0.2694253,0.14234062,0.19569409,-0.0670869,0.18378656,-0.13827781,-0.018354796,-0.13117951,0.32588074,-0.12365459,-0.39023152,-0.4575167,0.41063833,0.1647051,0.9414744,0.09533474,-0.1854046,0.24006796,0.50305927,-0.12486406,-0.40403864,-0.09903142,0.018619187,-0.39460197,-0.28871727,0.15967515,0.08536375,-0.21366507,0.33609062,0.097602025,-0.06845264,0.13012256,-0.1141786,-0.2020432,-0.08856894,-0.11390545,-0.23186386,-0.7259125,0.19896364,-0.0136481,0.06743872,-0.024081588,-0.0700658,0.26588365,-0.24305117,-0.23353727,-0.2981588,-0.14982861,-0.24355955,-0.04134874,0.0041278973,-0.06745094,-0.16602519,0.3352536,0.27848065,0.023644358,0.057022333,0.14271326,-0.10356902,0.16017118,-0.021141887,0.089563936,0.0112169385,-0.15213636,0.092779756,-0.37190127,0.41207752,0.053647142,-0.14607607,0.03918244,-0.22457905,0.11076279,0.04089399,0.22957945,0.233728,0.24661751,-0.0021369755,-0.54079187,-0.2778417,0.32414228,-0.124867514,0.3259483,-0.039271742,0.15179616,-0.048594125,-0.21342725,0.124278575,0.07667332,0.27305233,-0.113893256,-0.08917314,0.10907209,-0.0011632591,-0.008250713,-0.08841863,-0.07606673,-0.3147758,0.008591831,-0.025401294,0.19981588,0.15461427,0.44627693,-0.11100694,0.22196886,-0.13167664,0.28389016,-0.08792563,0.2334225,-0.15139829,0.24832037,-0.30527124,-0.13838002,0.10305971,-0.27347428,-0.5637228,0.042987637,0.37048644,0.23245241,-0.1587717,0.17303132,0.041782673,0.040384904,0.23794949,0.014860652,-0.4141391,0.5575212,-0.05559261,0.036564052,0.1035774,0.17189837,-0.5801853,-0.22078314,-0.1607142,-0.076965824,-0.52125686,0.29721186,-0.020987019,0.4840033,0.3294097,-0.2647798,0.17432263,-0.5941287,0.3577881,-0.728788,-0.08761254,-0.136486,-0.03693743,-0.49688962,-0.0287233,-0.63023996,-0.16831796,0.46057087,-0.16439553,0.013321057,0.0066862106,-1.0306003,0.05818516,-0.22215873,-0.17319453,-0.017034344,-0.19607942,-0.08148389,1.0272697,-0.211256,-0.65641767,-0.370759,0.45382732,1.0249025,-0.015636235,0.20926577,-0.06031692,-0.079701684,-0.15336621,0.52149826,-0.46097028,0.04247409,-0.4293841,-0.08790469,-0.350573,-0.12920254,-0.027664661,-0.26215342,0.1628164,0.06275119,0.15641257,-0.30312678,0.078942254,0.030464493,0.033943057,0.1556042,-0.27583075,0.08220586,-0.08429102,-0.21984321,0.010653555,0.22571108,-0.029951513,0.23615292,0.07257565,-0.098614365,-0.07280813,0.12572655,-0.8885006,-0.55354404,0.10307267,-0.26222783,-0.5032698,-0.5527773,0.63210166,0.0793466,0.22293723,0.038260594,-0.04344593,0.17812578,-0.053970277,-0.11117625,-0.29316533,-0.8980566
