1,240,-0.8719236,-0.8952332,-1.3207783,-0.61729,-0.5083453,-2.2376373,-1.6156101,-1.3087555,-0.22182094,-4.087414,-1.4425983,-1.3286335,1.2107716,-0.74516183,-2.7465465,-0.03729121,-0.555182,-0.68481773,-1.1156049,0.51859134,-0.8529648,1.5097132,-0.5758648,-1.2307141,-1.0262908,-0.87238026,-0.8908669,0.5932191,-1.7531626,0.5835714,0.08976273,-1.4643751,-1.1551558,-1.012861,0.35145095,-1.2638226,0.9801434,-0.67403495,-2.0129144,-1.6276406,-1.1728476,1.229121,0.33681372,0.62780184,0.9582659,0.6476501,-0.74326056,-1.5635527,-0.47403073,-0.6659876,0.685938,-0.33502722,-0.6328942,-0.6712933,0.98251635,-1.1074252,-2.9470718,0.6186042,-1.1129624,-0.98625755,-0.19526283,-0.76509994,-1.114984,-0.2973068,-0.42962232,-2.1614997,-0.545246,-1.1578436,-0.5622891,0.72291285,-0.854231,-3.3852453,-1.0535624,0.5475414,-1.0333055,-1.6993775,-0.9709241,-0.6962641,-1.0836631,-1.2059443,-0.76285964,0.6588156,-5.749426,0.14135495,0.030730393,-0.3997775,0.39840513,-1.026014,-2.8068583,-0.56738627,-5.870713,-0.15856782,-2.369024,-0.4868736,-0.48376435,0.7071184,-1.2250061,0.91740394,-0.9335092,-3.5748994,-0.54457575,-1.6990234,-0.6727365,0.82787097,-0.2962775,1.0194407,0.68115264,-1.2487154,-1.5344671,0.30330312,-1.0448738,-0.86590666,-0.8420355,-0.8882862,-1.2294221,-0.2464577,0.9544725,-0.4176535,-0.33731022,-0.844304,-0.38776496,-1.0015327,-2.0368743,-0.86122626,-0.62370324,-1.0700368,-1.3260342,-1.0424312,-1.1301136,0.31498453,-0.34796,-1.2478052,-0.92043,0.9304413,-0.7837455,0.8859242,-0.8695418,-0.64674294,-0.9563409,-1.2863626,0.95115256,-0.53193635,0.78277934,-3.3763142,-1.285312,0.97565943,-0.7960374,0.49445435,-0.7841049,0.8750721,-0.5880701,-1.4999717,-0.55331916,1.4330322,0.38592154,-1.507601,-1.8388085,0.55029625,1.1065004,-2.1463654,1.4930221,0.18733144,-0.752923,-0.25851685,-0.9558626,0.74524945,-0.88117087,-1.3351754,-0.94017506,0.8969563,-0.78189135,1.078249,-0.47717544,-0.50000656,1.0171288,-1.2151502,-0.36508474,-0.84869814,-0.8959442,-0.98418385,-1.533412,-1.27399,-1.0950856,-0.5542135,0.4543725,-2.01727,-0.66079456,-1.2108239,-0.5692578,-1.1668218,0.026662568,-0.91783446,0.994639,0.47015265,0.21764706,1.1005512,-1.042294,-0.6002185,-0.6662838,0.94058245,-2.1029468,1.087305,-1.2200309,-0.49938455,0.7300443,-0.32873014,-0.98210484,-1.2016358,-0.88416946,-0.8982967,-1.2110765,1.5591209,1.6716954,0.93227595,-0.5251616,-0.30542874,-1.1436337,-1.6465969,1.3902608,0.48616412,-2.6300457,-1.7784641,0.7354607,-0.61426574,-1.4194067,0.26145852,-1.6971431,-0.8242533,-1.3935995,0.7086635,-0.5550358,-3.124977,-1.0739982,-0.84173757,-0.8122868,-0.8201657,-1.3443174,-0.6369729,-2.076333,-0.15357168
