4,672,28,1,1,-0.05494372,-0.0073773675,0.03965968,-0.06665084,0.08888317,0.06839011,-0.068130925,-0.007400587,0.010368131,0.0028139614,0.09971523,-0.020790081,-0.07209682,0.054456823,0.012298338,0.042706158,-0.07158344,0.04001023,-0.029788267,0.052816227,-0.032427505,-0.114253215,-0.0035342574,-0.08714415,0.0018413914,0.040167235,0.00470875,0.020379493,-0.01026056,-0.06624351,-0.0013987496,0.023602523,-0.09054024,0.09770438,-0.029523494,0.03812036,0.023128118,0.06298091,0.051884357,-0.019788552,-0.09719468,-0.009955054,-0.012768038,0.029862436,-0.023784947,-0.014319455,0.024853667,0.01957116,0.00543179,-0.02098403,0.0102482475,-0.0110863,-0.014762156,-0.030116681,0.06036369,-0.017558008,-0.010534024,-0.008031607,0.090530284,-0.0019730777,-0.09404071,-0.03317836,-0.052531835,0.024164908,0.2729847,0.06101208,0.14964752,-0.04218933,-0.036260635,0.035812102,-0.0068446025,0.07241568,0.038606707,-0.16759278,-0.0630569,-0.14506552,-0.0077216476,-0.095397204,0.11003173,-0.02804505,-0.055176515,0.05353761,0.06960727,-0.13455276,-0.102786005,-0.1297979,-0.18278962,0.10523634,-0.12162102,0.0022412054,0.16166733,-0.016429517,-0.051564842,-0.03182623,-0.0051145293,0.07568741,0.016847279,-0.11492907,-0.09943325,-0.22196966,-0.1492044,-0.054273747,-0.19316363,-0.16428122,-0.23216897,-0.03070039,-0.20145656,0.14601721,0.26194426,-0.0030165166,-0.021567218,-0.14398599,0.031177174,-0.120504804,-0.072982684,-0.070118636,0.06504056,-0.04020835,-0.1271178,-0.15479921,-0.10521852,-0.07246362,0.04142969,-0.17687362,-0.047641456,0.026555762,0.0008767834,-0.1329673,-0.075136065,0.12913913,0.0067443997,-0.07019555,-0.047959737,0.007275168,-0.22119327,-0.008620324,-0.015859138,-0.0049827844,-0.0704572,0.11011377,-0.07428627,-0.07624979,0.14913139,-0.06698331,0.0117700845,-0.019620225,-0.04468441,0.03617536,0.06832902,0.040941916,0.005282551,-0.072657876,-0.042833865,-0.069546536,0.04720487,0.015126325,-0.011737534,-0.22282699,-0.088758625,-0.09039758,0.016866483,0.0110153165,-0.010805383,0.09383009,-0.07556299,-0.017958112,0.09260436,-0.08823442,-0.0060433103,-0.08411419,0.06867194,-0.06653641,-0.10686911,0.043802813,0.0015227739,0.03345888,0.026644766,-0.07292697,0.058005095,0.011890447,-0.12312853,-0.051991485,-0.09803406,0.11478213,-0.02279769,-0.057160925,-0.060537115,0.046182208,-0.0004908256,0.009322679,-0.069233716,-0.020824857,-0.044427283,-0.04592725,0.024032203,-0.033425342,0.03680312,-0.00557404,0.011925608,-0.042535182,0.08613867,-0.08790238,-0.032629512,0.08402938,0.03233058,0.08483362,0.02704756,-0.051738337,-0.05115965,0.049660962,-0.0043168142,0.0037449654,-0.040730137,-0.0810885,0.088383555,-0.06645948,-0.037228566,-0.001997903,0.017781008,0.0052670874,0.05406373,0.008678063,0.00038341433,0.004748188,0.115510054,0.0017096773,-0.084755555,-0.2222326,-0.06052354,-0.036171272,-0.12361543,0.031909212,-0.058558464,0.17983584,-0.05624471,-0.059298545,-0.05715154,0.13147789,0.01607427,0.17436124,0.026956368,-0.005560249,0.0069066137,-0.06363909,0.01735774,0.013167458,0.022166867,-0.19927944,0.03779581,-0.029514642,-0.10902338,0.031580847,-0.0040721707,-0.058592424,-0.06647012,0.0154252555,0.009399271,-0.02437939,0.01036676,0.0609211,0.028145805,-0.023504734,0.019160978,0.03831793,-0.056564983,0.03145234,0.005501732,0.028415656,-0.0037578344,-0.009397041,0.089190625,-0.04237601,-0.042254824,0.0019839853,0.016613435,-0.013426765,0.02863285,-0.09274189,0.023989547,-0.045811616,-0.086302616,-0.09906289,0.12092973,-0.13093077,0.00032504648,0.011982384,-0.098022915,0.09052004,0.10128499,0.010824919,0.04142824,-0.003384985,-0.014913029,0.06978732,-0.00080880895,0.073059395,-0.043326173,-0.21972734,-0.03278136,0.004683681,0.103454895,-0.04560022,-0.009613164,0.11626175,-0.07529433,0.059839543,0.12192679,-0.16476476,6.688805e-05,-0.028154131,-0.010249652,-0.02476152,-0.031733394,-0.046971034,0.024106355,-0.03859168,0.025919657,0.026071489,0.023977444,-0.051662058,-0.054997005,-0.028461725,0.06621408,0.08088428,-0.1623473,0.031517662,0.09954106,0.087442584,0.06321603,-0.05758825,0.053084414,-0.037965287,0.01570303,0.023593798,0.03977888,-0.038124863,-0.017127197,-0.1008653,0.043907106,-0.02598917,0.036087044,-0.1790569,-0.2008821,-0.29604995,-0.1423999,-0.20474604,-0.2368836,-0.12316111,-0.14131546,-0.012434268,0.0012347624,0.0024905978,-0.019112663,-0.28086272,-0.0006763339,-0.023268007,-0.14629726,0.46356276,0.01050058,-0.12041199,-0.055512574,0.13314725,-0.09864756,-0.036117587,-0.038464643,-0.073286094,-0.095845155,-0.055157874,0.041658264,0.025448026,-0.027018733,0.038901143,-0.10103171,-0.0011350121,0.009013474,0.021577507,-0.17045565,-0.08891996,-0.1277934,0.026742138,-0.032152813,0.029347377,0.024190068,0.06812575,0.018223405,-0.025370516,0.05415676,-0.087247685,-0.045249525,-0.09381358,0.06987985,-0.03803269,-0.20421033,-0.0091595575,-0.17155148,0.039197706,-0.16645876,-0.17305896,0.058747303,-0.08404914,0.025119651,-0.14992785,-0.13197204,-0.116767146,-0.018076323,-0.19252431,0.031044213,0.0629803,0.05304865,-0.032484088,0.18306783,-0.01641746,0.014695603,-0.100046374,-0.040890068,-0.2036549,-0.12671925,-0.0035969168,0.0016167844,0.027387062,-0.07345194,-0.092024595,-0.0048845056,-6.161444e-05,-0.030524371,-0.011169349,-0.049012423,-0.056830905,0.03894101,0.020546313,0.028315896,-0.12944625,-0.09825886,-0.016575575,-0.04569732,0.046329793,-0.11622965,0.031648368,-0.04318672,-0.071930535,0.027926698,-0.110422365,-0.0061701685,-0.060175214,-0.07195084,-0.04001143,-0.015937857,-0.07676671,-0.037659846,-0.052526347,0.08799346,-0.06642636,0.08855829,-0.07459751,-0.023446351,0.06713501,0.0767076,0.0054761767,-0.08188187,0.00012807548,-0.037790924,0.05369328,-0.0010053422,0.029067803,-0.031000696,-0.083841376,0.0055004284,-0.008771785,-0.05825184,0.1499456,0.04819495,0.05378917,0.10778741,-0.0019865334,-0.015761431,-0.06922886,0.011120766,0.006067923,0.011449484,-0.010326672,-0.08297624,-0.08163636,-0.013622109,0.05388368,0.11363277,0.04353474,0.10777841,-0.009954069,-0.08903879,-0.006378833,-0.08477172,0.07669073,0.0039178636,-0.017896079,-0.009507755,-0.101264,0.053145774,-0.033614397,0.023251265,0.11700872,-0.060543068,-0.005080031,0.030793432,0.003534644,0.0139371455,-0.008282289,-0.13740274,-0.3861933,-0.1255868,-0.049300563,0.15612568,-0.1548506,0.12203148,-0.025913626,0.004960521,-0.15241264,-0.24420993,0.107668914,-0.097360015,-0.09155683,0.577099,-0.13894412,-0.28275388,0.28583893,-0.12825501,-0.030600898,-0.290788,-0.06937835,-0.06761912,-0.14673398,-0.013050325,-0.094912484,-0.06152677,-0.0449256,-0.02949541,0.014217045,0.042471014,0.07266318,-0.08800866,0.048098378,0.03410881,0.013031167,0.037427694,0.0230387,-0.09724752,-0.02545285,-0.005718015,0.02763527,-0.003931146,0.04676956,-0.04053226,-0.025126785,-0.02379547,0.0146990325,0.027806068,0.0029816441,0.0077368338,-0.0242429,0.053416826,-0.03618667,-0.089280546,-0.12783296,0.020369548,-0.18131538,-0.039526287,0.18727465,-0.25358725,-0.047101427,-0.05965218,0.027423374,0.12711057,0.061769072,-0.030891396,0.06158568,-0.057393573,-0.08592291,0.015357468,-0.12169549,-0.15229101,0.052913576,0.027844802,-0.029402962,-0.14095677,-0.08385877,-0.02896668,-0.15936731,-0.055304915,-0.21096778,-0.069301076,-0.05717073,0.03664482,-0.05192717,-0.09420459,-0.058319226,-0.08416934,-0.036851943,0.09194603,0.04422866,0.1871379,-0.115078196,-0.21534932,0.052248605,-0.012675883,-0.06911727,-0.0013585377,-0.21196294,-0.14662395,-0.13651831,0.064824685,-0.037966087,0.032991353,0.14272486,0.0032192592,0.013968848,0.028542466,-0.098779075,0.16621041,0.19902895,-0.112193346,0.107838616,-0.10029676,0.08781881,-0.050777078,-0.10863752,0.047447976,0.066297956,-0.17145574,0.18743008,0.37974417,0.05569812,0.06722108,0.043673266,-0.15542142,-0.037499994,-0.18586485,0.04020396,-0.08188953,-0.001193393,-0.107072815,-0.025175877,-0.13716827,0.039466597,0.0565253,-0.09792871,0.114135064,-0.034244325,-0.20834729,0.019180834,-0.1760083,-0.17167595,0.11370271,-0.0130548775,-0.13941042,-0.018401612,0.046052877,-0.18896058,-0.13555337,-0.14976253,-0.032801714,-0.2599418,-0.010151781,-0.07943364,-0.06695068,-0.21784243,-0.12391819,-0.082388304,-0.2165385,0.07721084,0.1849192,0.3888296,-0.23468155,-0.3265253,0.03518396,-0.14497346,-0.1347172,0.074371815,-0.13415067,-0.14612004,-0.064665824,-0.2215696,-0.021221925,-0.009356402,0.105594344,-0.1572822,-0.13062733,-0.18163577,0.09163621,0.12195927,0.105893284,0.04498113,-0.07933974,-0.21124724,-0.07248682,-0.04501957,0.20339657,-0.14223027,-0.07135577,-0.0023015188,-0.05235103,-0.02913554,-0.044757366,-0.027118217,0.0864957,-0.060352933,0.017613083,0.09351925,-0.009550691,-0.0026724879,0.05158671,0.08898455,0.075981915,-0.030188046,-0.053201534,0.0046904143,0.055259906,0.00087690353,-0.06991649,0.07533474,0.030761577,0.13758746,0.08036257,0.13175538,0.08602143,-0.008307162,0.010392375,0.08420134,0.080573134,-0.020810885,0.33158627,-0.020056818,0.009070605,-0.27591065,-0.057947222,-0.03281249,-0.086384445,-0.20074207,-0.052233964,-0.05127214,-0.025598943,-0.022312447,0.03223017,-0.029027032,-0.04796645,0.0085025765,-0.2209613,-0.031174581,-0.0437302,-0.019445602,0.181301,0.119164616,-0.0617951,-0.120454945,-0.022469778,-0.04740923,0.00503172,-0.020192496,-0.06994504,0.021858575,-0.108592525,0.035816696,0.037682403,-0.046862118,-0.063434586,0.065966114,0.07758901,-0.073949404,0.074494876,0.035855908,-0.19685224,0.062204897,-0.060518946,0.090088375,-0.039005835,-0.13912283,0.07296996,0.043578777,0.12912492,0.008881784,0.020882018,-0.0792086,-0.039799027,-0.02276674,-0.006248053,-0.11142033,0.026828557,0.0024129078,0.09723777,0.018385556,0.10763083,-0.024604516,0.04923163,0.016405538,0.0562814,0.03657122,0.16802746,-0.007250229,-0.020230437,0.018437162,-0.02688222,-0.009047389,-0.057782188,-0.0733217,-0.10739938,-0.07885434,0.013916604,-0.31671655,-0.0005827546,-0.0065862276,0.042600073,0.012385115,0.03506436,0.025994133,-0.10883728,-0.008152744,-0.065801,-0.034613002,-0.020342534,-0.008646239,-0.010695576,0.11760414,0.056273684,0.062286165,0.0031888783,-0.12384285,-0.06563485,-0.016156903,-0.029253373,0.04341443,-0.05954639,-0.010049002,0.0676273,0.13649544,-0.049102694,-0.19859336,-0.028445914,-0.09749889,-0.12254734,0.016313866,0.026356077,0.0147552695,-0.103045404,-0.07084033,-0.05425803,-0.08556718,-0.06032301,0.0067235976,-0.07026036,-0.015862443,0.12065284,-0.026792452,-0.025692051,-0.12293789,-0.09628534,0.106507,0.041532174,0.13115221,0.039722398,-0.13167341,-0.017062612,-0.026253806,-0.046911154,0.096306264,0.055889513,-0.0076975673,-0.06602005,-0.011203828,0.04139997,-0.019361213,0.031828444,-0.0026430022,0.08825665,0.00767323,0.15437171,-0.019025762,-0.013385609,0.00902915,-0.00995934,0.054771766,0.051559187,-0.040043566,-0.013291314,0.08233731,0.03331417,0.12691465,0.11259789,-0.018551417,0.016877044,-0.007917896,-0.05568604,0.15726236,0.03135249,0.09124493,0.02077482,-0.048637897,0.042832404,0.029927313,-0.056857955,-0.064342774,-0.011816133,-0.08995309,-0.03190183,-0.052509546,-0.16526677,-0.013611257,-0.03153745,-0.0062607042,0.087077804,-0.009019688,-0.036203444,-0.16522956,-0.06959539,0.0023172796,-0.16639669,-0.025834717,-0.07783825,-0.073938414,-0.12501374,-0.02477448,-0.063828155,-0.13182381,-0.049201567,0.036049467,-0.040887736,0.05798453,-0.03819888,0.13417207,-0.018745556,0.28532302,-0.015811557,0.2717022,-0.14964214,0.015388489,0.033705685,-0.09534406,-0.12001193,-0.46961185,-0.29742756,-0.10206456,-0.21533054,0.1101436,-0.040381562,-0.17103364,0.10581161,-0.24053913,-0.017971514,-0.03252653,-0.049672253,0.023083821,0.42905635,-0.16253841,0.034928687,-0.0427332,-0.025529165,-0.11884223,0.060903814,-0.005125556,-0.07236107,-0.056215916,-0.12717514,-0.026626755,-0.010065986,-0.08992283,-0.08514414,0.044948183,-0.103300646,0.08018524,0.012677453,0.21487467,0.101255305,0.07778759,0.07476609,0.041646022,-0.07486911,-0.0374903,0.053660154,0.037166048,-0.007588473,0.017598726,-0.060396064,-0.028359141,-0.06179362,-0.09829381,0.018821567,0.004806917,-0.16738704,-0.03478672,-0.061581433,0.13145962,-0.029054448,0.012313044,0.113105185,0.011107421,-0.09912364,0.035702236,0.09817139,0.11241859,0.00952602,-0.07578695,-0.08532351,0.030791787,0.06035328,0.06603824,-0.056044728,-0.030904688,-0.00051332265,-0.060628176,-0.039492596,-0.04129037,-0.18678093,-0.06000927,0.07983887,-0.10701342,-0.0165909,0.11287754,-0.12281792,0.04517039,0.082953855,0.06331046,0.024607878,0.010564556,-0.056929592,-0.089978255,-0.019768767,-0.043870475,-0.027598526,-0.11054727,-0.01476775,-0.06173661,-0.019478235,-0.04496811,-0.0059729274,0.04134925,-0.09444635,-0.023841292,-0.03516847,-0.05520919,-0.07747367,-0.048978254,-0.0052393503,-0.07145078,-0.067102246,-0.023976095,0.049880207,0.022406796,-0.041531146,0.0129657835,0.077962294,-0.09946002,-0.11729884,-0.0017115719,-0.009652965,0.035747837,-0.19365624,-0.15298685,-0.011117008,-0.06938784,0.06786421,0.33738858,-0.085703924,-0.08037549,-0.06913632,0.02999611,0.030095987,0.02780753,-0.10057574,0.008032558,-0.0662912,-0.1800724,-0.12627016,-0.10616991,0.100384735,-0.18442993,0.03288621,-0.13018146,-0.04550702,-0.16640165,-0.07511433,-0.04287963,-0.056844883,-0.0041775256,0.15550806,-0.09094216,-0.018258307,0.0328795,-0.16178933,0.022665039,-0.054919556,-0.09746421,-0.20564052,-0.066344574,0.075910114,0.008865323,0.077440545,-0.07416107,0.066215634,-0.14425269,0.030726789,-0.07851216,-0.13518468,-0.004305072,0.053058617,-0.100460514,0.09063308,-0.07918139,-0.06288755,-0.11802684,0.06254178,-0.046878383,0.016466353,-0.019038,0.048444632,0.016097393,0.09194575,-0.11728296,0.01685159,-0.028555758,-0.047020666,0.051158093,0.021157026,0.052846424,-0.020176629,0.19724615,-0.10589753,-0.07288108,0.031622138,-0.13016418,-0.004347153,0.053855862,0.017657254,-0.09733016,-0.018218754,-0.24945027,0.05390908,0.11483264,-0.13904092,-0.034457076,0.05693794,0.2286996,-0.11793303,-0.032519214,-0.112218164,0.0319157,-0.1213457,-0.11667155,0.113559596,-0.32464346,-0.21029027,-0.09656713,-0.112297945,-0.17839353,0.04317192,-0.1187848,-0.06744665,-0.13344839,-0.08886881,0.086606994,0.0005681664,-0.022731647,-0.021551788,-0.11956422,-0.019413963,0.0036707781,0.017491898,0.021522257,-0.06542913,-0.0002617985,-0.047305804,-0.027709693,-0.11599701,0.0186667,0.005139569,0.010400474,-0.058196127,-0.07501547,-0.053404383,-0.10143093,-0.13250577,-0.044421945,-0.03528222,0.0069996044,-0.05298017,0.049345348,-0.02232892,0.049682196,-0.090427734,-0.015404658,0.044515517,0.0344034,-0.052271377,-0.0065449886,-0.005875334,-0.013585161,-0.024895769,-0.039653286,-0.015157592,-0.026847795,0.02791226,0.14965689,-0.024280978,0.07484678,0.081113055,-0.030588673,-0.039862633,-0.053196598,-0.12496261,0.07162581,0.05534204,0.4012298,-0.016439412,0.17304316,0.2208144,-0.10416405,-0.072817735,0.30257618,-0.14756589,0.26992294,-0.3185137,0.12291049,-0.11105672,-0.04617673,-0.27351004,-0.06892827,-0.051784724,0.10579855,-0.07647677,-0.03337641,0.033721354,0.0413668,-0.1757494,-0.28945306,-0.0024670437,-0.38783038,-0.12032392,0.057464667,-0.1891824,-0.006125383,-0.01148434,-0.27393058,-0.516484,-0.064453036,0.1953737,-0.17711386,0.06909327,-0.15629247,0.50382805,-0.39502093,-0.15390041,-0.04746376,-0.12158312,-0.065349,-0.07714621,-0.18922631,-0.036445852,0.026785888,-0.13073535,-0.0058349296,0.034555584,-0.07233565,0.04966566,0.33712524,0.04588642,-0.22017941,0.06814806,-0.07834309,0.20633474,0.020742022,-0.15601993,-0.06145662,0.13690707,-0.15030281,0.03647782,0.012312909,-0.03623631,0.14078435,-0.03328079,0.098819785,0.009257603,-0.003202051,-0.117668666,-0.1742807,-0.1447206,-0.08273287,-0.14906529,-0.08835267,-0.14312921,0.084478065,-0.014413992,-0.054605395,-0.030961499,-0.1264698,-0.06368274,-0.011987124,0.0047975853,-0.011671323,-0.08722071,-0.055847235,0.072252505,0.025823347,-0.092882685,0.05523517,-0.04072901,0.019154148,-0.08278515,-0.012516838,-0.14755721,-0.08726041,-0.11783451,0.060228918,-0.04641342,0.02989923,-0.19309615,-0.1876979,-0.08970754,-0.05607551,0.013075534,-0.0956026,-0.10471738,-0.032323647,0.07379947,0.030650154,-0.20019805,0.060894534,-0.03250746,0.24844883,0.02116543,-0.0001520142,-0.02963221,-0.02645528,-0.124779046,-0.12257169,-0.0032422151,0.13037607,-0.084290765,-0.034201726,-0.05533176,-0.11677972,0.131553,-0.13363266,0.0073337182,0.05688986,-0.14645223,-0.006369125,0.1040632,-0.079295404,0.15704061,-0.121613465,0.068075165,-0.1130258,-0.15240258,0.013754718,-0.09608287,0.079117134,-0.024196062,-0.14004181,0.15901087,0.061250724,-0.002911387,-0.023193758,0.035392858,0.036079444,0.016271155,-0.30715775,-0.07974914,-0.09105065,0.23788649,0.19252264,-0.008788902,0.12149787,-0.059193734,-0.14092812,-0.2544568,0.036197424,-0.0066459253,-0.02522336,0.021269662,-0.035643954,0.09982985,0.02763383,-0.0040670186,0.19828711,0.04195235,-0.0022657365,0.009393098,0.013671584,-0.06473935,-0.027415067,0.015626736,0.02664726,-0.10233343,-0.12582873,-0.03913505,0.022017717,0.018038437,-0.0199752,0.024545144,0.11664492,-0.031953067,-0.027772576,0.008774863,-0.0043946877,-0.34109658,-0.032504782,0.088004544,-0.02584187,0.006607726,-0.18276763,-0.15731905,-0.0814122,-0.107968405,0.060747486,-0.08927878,-0.1251257,-0.04554737,0.23990862,-0.06288014,-0.07526365,-0.06602653,0.034794487,0.23704486,-0.06805897,0.042696234,-0.013120711,-0.043413248,-0.08074299,0.12863272,0.0035215504,0.0024463402,-0.038716223,-0.0033588037,-0.12169195,-0.0046244673,-0.02623868,0.062086537,-0.22299926,0.29149106,0.031583898,0.043920368,-0.10731338,-0.15296699,-0.15559718,-0.14075433,0.09288359,0.0066867284,0.2818873,-0.048865154,-0.0014669616,0.052784614,-0.07875071,-0.20829372,0.030144595,0.16307425,0.044600513,0.008576127,-0.13453789,0.022322576,0.16459034,-0.07390528,-0.10455972,-0.03153559,-0.04815773,0.009735223,0.0016396391,-0.0017835908,0.098883614,0.09974648,0.09998548,0.077012785,-0.068020985,-0.120652415,0.021183494,-0.02367808,0.16733693,-0.06556293,-0.020052329,-0.008083254,-0.043147627,0.021970758,-0.36821553,-0.0033195475,-0.07818744,0.038040884,0.0071946606,0.030508894,-0.030240197,-0.053317897,-0.11194994,-0.043987732,-0.12297174,-0.021880187,-0.27850786,-0.0021898085,-0.02826003,-0.12003042,-0.07098453,-0.01069914,0.009002784,-0.0076232105,-0.07216346,-0.058733944,-0.025118018,-0.10606617,-0.036260735,-0.12889323,-0.05837606,-0.05540839,-0.012354698,0.02781932,0.020580225,-0.008029696,-0.069212526,-0.09964393,-0.064278126,-0.20369649,-0.057694,-0.061624438,-0.064221434,-0.047698677,0.024334475,-0.04846385,-0.007961873,-0.0757504,-0.032003485,-0.024959518,-0.018393878,-0.09713785,0.013076382,-0.03179888,-0.09004047,-0.119327545,-0.05094754,0.14625166,-0.28020498,0.02292029,-0.03200607,-0.09692399,0.16529265,0.005714629,-0.034362912,0.0043905093,-0.1328058,-0.012273567,-0.14039679,-0.13130789,-0.042747185,0.06468936,0.03386597,-0.043203708,0.038059838,-0.009395797,0.038524345,0.024187978,-0.058424525,0.08361041,0.116869286,0.012469711,-0.08398044,0.03760094,-0.0025338568,-0.08124098,0.11157149,-0.09114159,-0.051090173,-0.030277506,-0.12375728,-0.03903279,0.04072079,-0.019545574,-0.043155633,0.07031539,0.052785836,-0.072484255,0.11240775,-0.092125766,0.2818298,-0.21951075,-0.04626723,-0.015605319,0.12055508,-0.17369707,0.21764508,-0.06325201,0.04685392,0.08740601,-0.13899799,-0.18502378,0.05360178,-0.16240522,-0.12959594,-0.07341603,-0.024778284,-0.073729545,-0.104379505,-0.26035127,-0.0052493885,0.07242924,0.033562247,-0.020225953,0.044578742,0.096281365,0.021905906,0.036547728,-0.029983891,0.009017788,0.09311567,-0.020767689,0.091678046,0.06043944,-0.047061693,-0.10389189,-0.0018813557,0.04898762,0.033159953,-0.08490908,-0.0146506,-0.00047141314,-0.01017718,0.12150566,0.14313254,-0.0033633858,-0.018853506,0.13174212,0.009369244,-0.02587356,0.054135926,0.07173246,-0.048248734,-0.20361958,-0.023164771,-0.14001802,-0.014217779,0.062203743,-0.17227045,-0.10122423,0.037390918,0.062218454,-0.109579824,-0.032612916,-0.14401695,0.054920368,0.08713993,-0.006777454,0.13128938,0.11104757,0.026200574,-0.0055382457,-0.0560631,-0.12043773,-0.21071956,0.01964373,0.13938291,-0.067342766,0.028740343,-0.005493626,-0.05186312,0.03090703,-0.016612364,0.06658481,0.028762193,-0.039784133,0.10530566,0.05206961,-0.010416268,0.08330315,-0.013723958,-0.084990546,-0.011515092,-0.0027891658,0.07583922,-0.07550643,-0.0296215,-0.07234922,0.032835495,0.052727446,-0.30728832,-0.04466292,-0.06402333,-0.038305476,-0.020866096,0.060827065,-0.048465297,0.18618837,0.040600955,0.07414681,-0.047823206,-0.077196725,0.02617808,0.21279003,-0.12201433,0.14447251,-0.11344842,0.037671912,0.01623087,0.04006981,-0.15528184,0.077659085,0.020110667,0.107918665,0.1262968,0.0011064112,-0.12708968,-0.274021,0.0491774,-0.02378081,-0.26552555,-0.11195109,-0.09183054,-0.04913843,-0.07513576,-0.082780525,-0.16509287,-0.0582499,-0.120242015,0.14638245,-0.06259699,-0.114783585,0.0031905547,0.07147054,-0.01574918,-0.030818168,0.0002811551,-0.08586564,0.04698623,-0.027005114,0.16286813,-0.055221874,-0.03589828,-0.095815845,-0.015016049,-0.17750402,0.017760111,0.009046443,0.13135992,0.04446562,0.03167897,-0.0049265586,-0.14121723,-0.14095432,-0.1435713,0.08126697,-0.0030606166,-0.07508355,0.025728565,0.07099187,0.22557984,-0.02487586,-0.0406605,0.015917864,-0.11921758,0.066686295,-0.032442857,-0.059761323,-0.19416375,-0.07246208,-0.07656581,-0.08173424,0.20911326,-0.11364073,-0.042066596,-0.06176559,-0.12636206,-0.10798473,-0.06463111,-0.11256768,-0.10011454,-0.16397265,-0.43649822,-0.08810861,0.03389311,-0.06458956,-0.19757251,0.08411586,-0.10881261,-0.036693998,-0.1709395,-0.09313072,-0.28281885,-0.11483484,-0.05671986,-0.031250767,-0.015018912,-0.109207034,-0.26717603,0.080704466,-0.08476007,-0.05189569,-0.045631737,0.054393154,-0.04415902,-0.04026282,0.2255178,0.1786571,-0.088606246,-0.0018011928,0.07513735,-0.052277952,0.09664989,-0.095637776,-0.11977873,0.016431443,-0.15700337,-0.2041593,0.02263207,-0.27256468,0.03324896,-0.173157,0.07142256,-0.026879288,-0.21318772,-0.08096576,-0.2028565,-0.13099194,-0.18434802,-0.11234271,-0.1655341,0.0331797,-0.027336858,0.27682298,-0.014580905,0.075542286,0.07758988,-0.11724016,-0.025639907,0.030414201,0.019084692,-0.14939125,0.0021223128,-0.03263427,0.103873186,0.0727465,0.013513342,0.008990345,0.009604638,-0.049138192,0.03184621,0.021109626,0.020752849,0.065082975,-0.022164878,-0.038576856,0.09316523,0.059551746,-0.0023109186,0.0660669,0.0056013055,-0.063908055,0.09464526,0.094146505,0.060525537,0.025625616,0.09200983,0.12892154,-0.08422265,-0.015466854,0.12737459,-0.15521501,-0.052650973,0.19110438,-0.010529093,0.0074633993,0.048074473,0.072060406,-0.105979696,-0.13284197,0.054112323,0.0384573,-0.06426823,0.062881276,-0.10912775,-0.047837652,0.01151406,-0.22028904,0.07844077,0.08252359,0.0392087,0.14454001,0.01728167,-0.074929275,0.022091372,0.07613128,-0.010076106,0.14905417,0.0012554172,0.0007008761,0.07288686,0.052968472,0.010614958,0.124285564,-0.06707547,-0.08742766,0.019322686,-0.001205951,-0.09068406,-0.025955904,0.029009612,0.039606452,-0.038814735,-0.059626423,-0.05268486,0.042316783,0.11192848,-0.033855118,-0.06069428,0.041483376,-0.009538501,0.06602323,0.36583427,0.12768881,-0.078366004,-0.055317797,-0.1304003,-0.12893292,-0.0982005,0.26937413,0.02576525,-0.15149984,-0.24162064,-0.07933532,-0.27586105,0.09794253,-0.07955584,-0.21824792,-0.094606265,0.10228914,-0.04042725,-0.120909974,0.012709331,-0.021098968,0.0002592164,0.1312267,-0.36526063,-0.3568177,-0.4035234,-0.11027937,-0.06488896,0.13057572,0.0013615419,0.08192173,-0.14364246,-0.05655914,-0.101875916,-0.014211553,0.059432253,-0.043646492,0.2900482,-0.12536885,-0.121973865,0.030617384,-0.0034972467,-0.17371598,-0.23676008,0.007934503,-0.1487317,-0.044257507,-0.029751051,-0.21745032,0.13921954,-0.066647656,0.102738336,-0.1387255,-0.2699074,0.06538893,-0.02704474,0.020067219,-0.0069256313,-0.027819313,0.022840278,-0.091416046,-0.13999341,0.018583931,-0.091121055,0.057801045,-0.038243704,0.059722234,-0.002018449,0.009801947,0.036800493,0.03182168,-0.027782165,-0.06247963,-0.009419153,-0.150826,0.23289526,0.023502283,-0.12430392,-0.007884501,-0.017089143,0.01878699,-0.017632682,-0.13879772,-0.11534542,0.13730931,-0.02605772,-0.064994,-0.13852493,0.026936708,0.117572844,-0.09468374,-0.015266543,0.027815286,-0.09322217,-0.12005089,-0.1083571,-0.04774309,0.087711744,-0.049179472,-0.06140054,-0.15384501,-0.1579444,0.077024765,-0.03327597,-0.029167105,0.21091753,0.052591026,-0.0017558448,0.009627037,-0.119534396,-0.020080307,-0.0006013736,-0.12858985,0.055660285,-0.037755273,-0.09369483,-0.021097027,-0.07916695,0.21438414,0.012917221,-0.035201102,-0.11182251,0.0051156357,-0.021932654,0.03859007,0.058032155,-0.122415096,-0.27992895,0.02118926,-0.014225975,0.04141449,-0.05155842,0.08347259,0.16358829,-0.035532847,-0.082304284,0.07785511,-0.0693899,0.21223746,0.029328242,-0.098302506,-0.025984734,0.016113954,-0.07009306,-0.020662956,-0.1313274,0.03190282,0.015302297,0.014762949,-0.061126437,0.056422316,0.02288989,-0.058055755,-0.13672037,-0.09045826,0.011102586,-0.017367527,0.047850672,0.021102123,-0.0771139,0.0067290105,-0.16342008,-0.049622566,0.07079165,0.001979299,0.0373621,-0.051548995,-0.060537387,-0.084421806,-0.15043241,0.05736404,0.005661864,0.018275015,0.00570341,0.08216608,0.0059302896,-0.12233451,0.06394914,-0.0117342025,-0.088783026,0.027902078,0.042891003,0.028438313,0.036716357,0.037296467,-0.087581165,-0.06827701,0.027324518,0.06655342,-0.17986521,-0.18706325,-0.05921989,-0.108294114,-0.14965808,-0.03177964,-0.0728694,-0.04592191,0.011122802,0.103975095,-0.090591185,0.032142714,0.081295125,0.11062472,0.06601943,0.05144191,-0.06890896,-0.11069438,-0.009405963,-0.018846497,0.10113538,-0.08328901,-0.0018230006,0.06460013,-0.023028469,0.031626802,-0.23497376,-0.025789026,-0.050906878,0.023198156,-0.030557133,0.067009054,-0.03089147,-0.050877616,0.052088477,0.055477362,-0.037908044,0.015112378,-0.046711173,0.02933463,0.12530075,0.03736311,0.03132604,0.022301897,-0.049232103,-0.035892688,-0.033504017,0.016143166,0.06804021,-0.036508165,0.07895018,0.05136306,0.0017638989,0.059482865,0.047660798,0.058569986,-0.015962556,-0.06470928,-0.0060389526,0.041960496,0.03278277,-0.028312735,-0.0825229,0.0838975,0.01345579,0.046664953,0.021632072,-0.024918271,0.040739566,0.015012763,-0.016772792,0.078343354,-0.058996845,-0.07671822,0.015204793,0.027047768,-0.0032296106,-0.038451836,-0.03187004,0.025762822,0.050182752,0.01713634,0.025011957,0.006605465,0.031520646,-0.011037917,0.034604,-0.00782286,-0.060987547,-0.04103089,-0.0264983,0.08626311,-0.064611435,0.03621175,-0.007901866,-0.05534105,0.044528518,0.0042897006,-0.0007465258,0.033883512,-0.033763118,-0.09032419,0.071542785,0.01545977,0.13402602,-0.03957089,-0.046742883,-0.0022786967,-0.0065449215,0.036922995,-0.053616855,0.036230393,0.07726937,0.08221874,0.012456768,0.072473,-0.1403155,-0.10885656,-0.08166814,0.19949268,0.036051102,0.011184853,0.13642702,-0.13829751,0.056289278,0.025148235,0.03680109,0.068628654,0.10451934,-0.1200536,-0.08281908,0.009112192,-0.089658044,0.07940775,-0.0821404,0.073056236,-0.024705756,0.07387763,0.027699001,-0.0866916,0.16679059,-0.073970035,0.077997774,0.06750263,-0.2058954,0.038149588,-0.0038400386,-0.049113937,-0.17656094,-0.119741544,0.03511703,0.08796282,-0.3633173,-0.056640923,0.07455593,-0.17157575,-0.05524617,0.10392219,-0.12154999,-0.11652473,-0.022594973,0.10623039,0.121868156,-0.07403093,-0.007504523,-0.082120396,-0.00035045296,0.09509707,-0.17411453,-0.047811724,-0.047495324,0.06802077,0.012501596,-0.050327044,0.024746269,0.054041546,0.062318165,0.004973743,0.08541127,-0.12837215,0.0052274056,0.020074882,-0.0042093173,0.12550856,-0.09555331,0.037016958,0.074699566,0.025365999,0.03528146,-0.023932293,-0.014839217,0.045789894,-0.07837747,0.027854277,0.0602307,-0.041126665,0.03667561,-0.12015842,0.064672574,-0.0349446,-0.058204666,0.23268941,0.0053817383,-0.09145153,-0.042412683,-0.06906779,0.09520761,-0.24784002,-0.17723343,-0.047877252,0.18977532,-0.030488774,-0.052090343,0.1921603,-0.023748558,0.031418413,0.109962076,-0.038291976,-0.095722705,-0.13701831,0.03669972,-0.078300975,0.008225126,-0.15786709,-0.13246208,-0.20608854,0.09115882,-0.041988645,0.12226607,0.025182186,0.033719063,0.012453213,-0.034025695,-0.09152908,-0.15064988,0.09415028,-0.004516382,-0.054668404,0.0066462816,0.02388297,-0.069798954,0.006172795,-0.0640883,0.0064556524,-0.1029782,-0.043492645,-0.07279287,0.13042447,0.06483305,0.039400376,-0.048318002,-0.055648215,0.0908656,0.07901947,0.043980878,-0.006089803,-0.08849448,-0.15329996,0.002981063,0.061161667,0.073912725,-0.058060676,0.046013013,-0.14292423,0.036659904,0.031444203,-0.075731896,-0.018290553,0.06296528,0.07800955,-0.06342609,-0.0031113923,-0.053582296,0.16952631,0.11668466,-0.06996739,0.13181454,0.042742293,-0.1628903,0.074217245,-0.15983114,0.08053288,-0.050161447,-0.0270056,-0.04621868,0.04055593,0.03552311,0.095414475,-0.011358336,-0.1287985,0.06984349,-0.017607238,0.3412889,0.044524804,0.042755425,0.005811874,0.07084368,-0.0955289,0.0130143985,-0.0035070926,0.08395758,0.044531897,0.007413226,0.0533481,0.01256998,0.12696967,-0.11156592,-0.02819986,0.12201203,-0.0057534575,0.019615203,0.07271837,0.13394678,-0.11112506,0.03545534,-0.07753307,0.029177168,0.01728613,0.026523724,-0.011076009,0.1360458,0.019617394,-1.9945204e-05,0.054658774,0.02120722,-0.14735031,0.06029098,0.018436268,0.09772094,-0.03647357,-0.057033174,0.109842,0.10933622,0.14697364,-0.011507764,-0.09441029,-0.02237393,0.062569566,-0.055455353,-0.008705176,0.069682814,-0.02813498,-0.1266246,0.14690763,0.028393455,0.0026598684,-0.008255057,-0.05933569,0.13550359,-0.08656101,-0.060901985,-0.05387403,-0.09744583,-0.116266705,0.04147661,0.011005575,-0.024328992,0.04793877,-0.030781072,0.0005894229,0.044347025,0.05925292,0.1309177,0.068302386,0.00042222813,-0.058604605,-0.08912568,-0.06330312,-0.15682532,-0.058079932,-0.0017294437,0.08800221,0.063163996,-0.055670995,0.026641391,0.0048525464,-0.0014168322,0.025399841,-0.057494346,-0.010723186,0.04047386,-0.12953949,0.06896252,-0.011230037,-0.021594573,0.022716936,-0.10492775,0.03155162,0.009943169,-0.05804372,0.23690647,-0.02503116,-0.004548803,-0.004646402,-0.08353882,-0.0076933503,-0.05188402,-0.0037361458,0.042434163,-0.12288114,0.00028273836,-0.029982172,-0.050942488,0.04176449,-0.15126917,0.1128366,-0.068131365,-0.05894903,-0.094267346,0.038612258,-0.13303304,-0.00467585,0.020211313,0.018725116,-0.29096532,-0.028816635,0.00205224,-0.12586184,-0.047250677,0.11149679,0.09271149,-0.057969466,-0.06536978,0.13748881,-0.109380335,-0.04218531,-0.1523444,0.15162013,-0.054641724,-0.15189944,0.003741093,-0.05850062,0.053406432,-0.012142066,-0.05452814,0.14281404,0.052280966,-0.17884895,0.22005801,0.0035525402,0.08372632,0.06440217,-0.08853311,-0.075379305,-0.12925306,-0.01837439,-0.010165431,-0.040251054,0.08186154,0.15126368,-0.023392856,0.01954585,-0.09833428,-0.036950655,0.05144579,0.033767737,-0.07526407,0.15883534,0.0043217298,0.08690068,0.027374547,0.04084319,-0.027485121,0.067821406,-0.057218146,-0.096462905,-0.005845774,0.052797418,-0.039975647,-0.09592448,-0.123492084,0.028745778,-0.11596547,-0.10319112,0.014426768,-0.0027697012,-0.053829536,-0.008691359,-0.038029224,0.011565112,0.062704906,-0.0044070445,-0.27579534,-0.2437205,-0.23090246,0.041341417,0.1291618,0.06399997,-0.120872885,-0.026108265,0.048133142,-0.06437146,0.6857793,-0.10922825,0.042046037,0.04924878,0.008100428,-0.08233849,-0.20548643,-0.15690857,-0.06405206,0.048768245,-0.038285706,0.0067048315,-0.12256784,-0.23706345,0.030413358,0.10782398,-0.031763174,-0.012440611,0.008300537,0.018735599,-0.017099088,-0.14076743,0.035385177,-0.06422266,-0.040155888,0.0799001,0.0030833688,0.047040403,-0.03322459,-0.013328671,-0.06821801,0.00360794,-0.061017204,0.016902078,-0.05240675,-0.059492562,-0.007841717,-0.09978757,-0.034076992,-0.094986245,-0.015933909,-0.015927896,0.06999648,-0.10513716,-0.2371246,-0.17970493,-0.22909404,0.33579922,-0.060914192,-0.0053705815,-0.118364386,-0.010276582,-1.802668e-05,0.04554583,-0.074907616,-0.03186952,0.014193822,-0.042374127,0.17848179,-0.027823409,0.01165035,-0.053941086,-0.15400803,-0.014004082,0.014053337,0.014037067,-0.04879098,0.040594753,0.15320076,0.02721112,-0.061348606,0.25118944,-0.17632431,-0.19629174,-0.056701213,0.16139299,-0.061276563,0.2774975,-0.05511794,-0.1674719,0.13162601,0.06516389,-0.12586345,0.14998962,-0.01387468,-0.18856771,0.19595058,-0.088934384,-0.2726176,0.10562913,-0.05791621,0.057538915,-0.08231255,-0.1800749,-0.10709157,0.07113749,0.07325564,-0.10825894,-0.046670247,0.021210667,-0.013865549,0.031857364,0.01697231,-0.05713072,0.011566136,-0.019245531,-0.15258734,0.015887491,-0.10868498,0.096610256,-0.016240114,-0.022522174,-0.061805088,-0.073594436,-0.047047816,0.0007915348,-0.05450479,0.021856928,-0.16621014,-0.026433663,0.00287107,0.014340555,0.016903011,0.08147924,-0.027124174,0.04987677,-0.0069059543,0.025658976,0.010170296,-0.09886259,-0.19681637,0.2718822,-0.11868318,-0.028203417,-0.11590325,-0.20447987,0.021422226,0.2118166,-0.057721417,0.026805943,0.057570785,-0.22906433,0.20930967,0.081962146,-0.10003431,-0.038061906,-0.27808124,-0.1415972,-0.113614276,0.06226909,-0.06704874,-0.08201558,0.1355581,0.006565951,0.09250466,0.1718249,-0.20685987,-0.016069219,0.077050686,-0.122741796,0.022346254,0.05224251,-0.009353494,-0.033903405,-0.07492062,-0.060886323,-0.114388674,0.024595078,0.00070296973,-0.006274089,0.03937678,0.024149034,-0.1172517,-0.0668028,-0.18742429,-0.02894818,-0.052286003,0.062284257,-0.002306234,-0.077525355,0.043311555,-0.02714234,-0.10776426,-0.08538568,-0.106798954,-0.0935044,-0.055877328,0.07624712,-0.06658209,-0.17551576,-0.12775183,0.13105798,0.037723698,0.03140799,-0.1210762,-0.03803787,-0.22803454,0.10923937,-0.15767986,-0.13854206,-0.21790889,-0.29382032,0.14606705,-0.1319947,-0.18920965,-0.0005220622,0.026631549,-0.068159804,-0.043683246,-0.1392374,-0.07277836,-0.101359606,0.17746462,0.03884597,-0.035945747,0.11763659,0.01942262,-0.0049549975,-0.04224149,-0.1432522,-0.018325998,0.059665717,0.0017201747,0.053875305,-0.049494907,0.055772297,-0.03399044,-0.098236755,-0.037290666,-0.036435094,0.002494968,-0.15918052,-0.03686109,-0.061725825,0.07193494,0.012314752,-0.03624706,-0.11121369,0.011107592,-0.029466234,0.06503393,0.17126858,-0.010197893,0.053352788,-0.04624638,-0.06290208,0.031739403,-0.11432439,-0.018120656,-0.007581819,-0.01468527,0.052353315,-0.0580991,0.006616826,0.116499655,0.014079934,0.09361859,0.122154236,-0.072553664,0.0041572936,0.0072709545,0.028669456,0.00512836,0.010532677,-0.10770536,0.020944647,0.033273816,0.01782462,-0.10293971,-0.087907225,-0.0003343923,-0.093491815,-0.008122791,-0.014427992,0.09466573,0.07592663,0.10547845,0.03680639,0.078874156,-0.08401178,0.047611322,-0.03122982,0.028068777,-0.05846494,0.036414098,0.018991485,-0.11553985,0.099554785,0.07072139,0.1545987,-0.06259101,-0.059660807,0.022174925,0.16710055,0.13695039,0.12683477,-0.05361458,0.027871855,0.13206904,0.11936607,-0.31313303,-0.04142998,0.09009216,-0.34699503,-0.05090341,-0.16901293,0.1836383,-0.12505785,-0.15350182,-0.05129647,0.051364657,0.07287391,0.10495881,-0.108033836,-0.116211206,0.14964864,0.013849972,-0.01316268,0.03931555,0.076603115,0.12388447,-0.10181902,-0.23052885,-0.10502668,-0.14198235,-0.012679957,0.0065901503,0.039156593,0.00766851,0.040407088,-0.027682096,-0.049923174,0.016735615,0.030900799,-0.021780256,-0.026878886,-0.052515365,-0.14714655,0.020866573,-0.019371584,0.017037116,-0.06197306,-0.0068696328,-0.028781757,-0.01634273,-0.05522047,0.020003121,-0.0640339,-0.0064018033,0.06689392,-0.0038688956,-0.041016635,-0.0059415353,0.0499446,-0.094050914,-0.09315543,0.058616616,0.08688111,0.014995452,-0.123676136,0.036171015,0.108990505,-0.041780062,0.13317221,-0.074066624,-0.16515905,-0.05507476,0.04263973,0.050034437,-0.120579,-0.041076794,-0.14828327,0.020964744,0.008638791,-0.37692162,0.09868619,-0.032742254,-0.04719922,-0.0579523,0.04596566,-0.010008477,-0.02270446,0.06375881,-0.06515295,-0.020876024,0.17693064,-0.16198578,0.025764175,-0.047707174,-0.050321907,0.022618115,0.086277984,0.05151144,-0.12246665,-0.043853886,0.00869162,0.16482466,-0.0077849124,0.019601641,-0.08778466,0.050669312,0.1077694,0.06313703,0.012337439,0.045644723,0.04255937,0.02810049,0.042480037,0.043483093,-0.12654187,-0.025618464,-0.030308418,-0.090338096,0.17153841,-0.021405779,-0.019677753,-0.03421071,0.018766891,-0.07539331,0.013515937,-0.11265503,0.018243346,-0.007349752,-0.00861174,-0.031334847,0.030148193,-0.07871299,0.09231732,0.06304842,-0.042234167,0.04063446,0.027665645,0.09126997,-0.00019412674,-0.0010842159,-0.0038669035,-0.053541534,0.013345238,-0.026541319,0.050714742,0.026895776,-0.03985201,-0.03276979,0.057864238,0.0965101,-0.09870416,-0.04584012,-0.017405294,-0.060862154,-0.041706666,0.09630436,0.038086995,0.013839495,0.017120168,-0.003815867,0.033468403,0.08481063,-0.023700714,-0.05210068,0.10920805,-0.08965192,0.037245557,-0.014899202,0.046545304,0.05478601,-0.035247155,-0.021720754,0.045025766,-0.035488978,0.028548019,0.0305806,0.00055514276,0.06063135,0.024169486,-0.018714901,0.09782539,-0.015914233,-0.093093276,0.0036520362,0.022436932,-0.019167416,-0.037023854,-0.0036120848,-0.022791868,-0.024358068,-0.050423972,-0.013721761,-0.00029731914,-0.03636182,0.016337767,-0.039207574,0.01647672,-0.0024848983,-0.1032435,0.46749055,-0.26939094,-0.12618454,0.042559937,-0.17443645,-0.18675193,0.09522192,0.11982758,-0.05330167,-0.07409732,-0.24480714,-0.03740942,0.051110197,0.09225677,0.06106192,-0.07597121,0.094538644,-0.21298313,-0.076849975,-0.05661449,0.117327854,-0.021176727,-0.029977767,0.10319398,-0.34302974,-0.1412096,-0.411366,0.047617033,-0.12301247,-0.11995762,0.13256842,0.0063067395,-0.068706624,-0.09527463,0.031337988,-0.06314696,-0.06965406,0.13310128,0.08900295,-0.14692855,-0.056109138,0.02548667,0.18182607,-0.060306072,-0.1375177,-0.17596279,0.026609983,-0.052057244,0.052201632,0.16306421,-0.027914943,-0.025988253,-0.021916501,-0.01650487,-0.018938605,-0.008748993,-0.021570133,0.04442112,-0.023277614,0.0026337365,-0.11636619,-0.011887294,-0.1569552,0.08502706,-0.0010163672,0.059409786,0.02308404,-0.019745097,-0.0068881586,-0.054356694,0.021830235,-0.048998926,-0.0032014665,-0.038529165,-0.12967855,0.038034484,-0.028732585,0.03126624,-0.014466116,0.13338397,0.04177146,0.023553334,-0.028534286,-0.058410246,0.01194444,0.113134526,0.03341873,-0.19487652,-0.013881303,0.04925243,-0.037735604,0.112721086,-0.007029861,-0.028911682,-0.033580363,-0.06978768,-0.18287338,0.04558903,0.13786305,-0.057105884,0.0074911956,-0.10760531,0.05343377,0.07509057,-0.23821342,0.07317157,-0.0146743385,-0.14511818,-0.008791208,0.017755473,0.0711228,-0.09933942,0.020089425,0.110719904,0.00053685904,-0.1798957,-0.010427136,-0.056365803,0.17771703,0.08883974,-0.026737096,0.115772575,0.03508233,-0.04907044,-0.08451227,-0.0037674867,0.066787675,-0.016364373,-0.038234048,-0.008424092,0.041434035,0.13286716,0.089659415,0.12871464,-0.055022217,-0.05538979,-0.02540805,-0.15710732,0.055188682,-0.0340077,-0.15581116,0.118621275,-0.0018451139,-0.01520421,0.062595874,-0.012619639,0.047876064,0.017624456,0.014477998,0.14371797,-0.015512839,0.04154722,0.09779304,0.07754172,0.0134959,0.019710682,-0.0677915,-0.06288372,-0.026900442,-0.04870816,0.012235157,0.10633831,-0.094809555,-0.1401208,-0.07468106,0.0069291927,0.0048970655,0.12234436,-0.033311773,-0.035762347,-0.032455504,0.0586152,-0.014356417,-0.080424085,-0.0055263937,-0.022723049,0.020682678,-0.06664918,0.048688576,-0.12999037,0.03287929,0.09543497,0.19610365,0.038783886,-0.10845757,0.0012357086,-0.07606946,0.02045588,0.02885705,-0.026703738,-0.11212251,0.07012686,0.021544382,0.0020254664,-0.09739296,0.021328047,-0.073815666,0.054000434,-0.01713137,0.12410538,-0.1673719,-0.042064134,-0.044356123,0.05998818,-0.053867027,0.16490029,-0.14084393,-0.094259545,0.04165953,0.011447117,0.06820738,-0.062655486,0.028249368,0.033649866,-0.11958529,-0.16877861,-0.0974451,-0.02972301,0.07509737,0.002146162,-0.049647216,0.0055937544,0.00068775564,-0.11948033,-0.0736649,0.09064633,-0.011188582,-0.08327354,0.05652104,-0.11748299,0.056670457,0.036402304,-0.012452304,-0.0862442,0.015097495,-0.07253921,-0.008989485,-0.0545894,-0.010416569,0.00048672315,-0.18616156,-0.09664407,0.11158118,0.084486745,0.10485265,0.09122349,0.07265561,0.022360936,-0.006117951,0.048269648,-0.11106275,0.16765556,-0.04363069,0.019183718,0.021124784,0.06278917,-0.10549791,-0.034424625,-0.17869222,-0.063170105,-0.055264384,0.020624544,-0.04475994,-0.07215829,-0.00953117,-0.060955554,-0.15111437,-0.041441575,-0.057575904,-0.02739127,0.0021579452,-0.10515147,-0.01402092,-0.004171334,-0.02262011,0.1151448,0.002999097,-0.042121373,-0.060564235,0.046196673,-0.026118077,-0.08201522,0.016778976,0.1104907,-0.037103925,-0.083495684,-0.08289957,-0.0059454665,0.04181455,0.016821282,-0.010593094,0.02724605,0.049618848,0.04456255,-0.06998111,-0.062484905,-0.09748591,-0.049264967,-0.025267899,-0.076185666,0.06256638,0.028049685,-0.052561104,0.12906654,-0.076156266,0.022359656,-0.04162704,0.1362227,0.072509155,-0.07170458,-0.015540287,0.21405521,-0.07508849,0.0028648153,-0.1874074,-0.023026783,0.029258953,0.017427802,0.05558648,0.07578044,-0.06760414,0.061289616,0.035017602,0.026452776,0.0065227114,-0.005195827,-0.07115841,-0.063099384,-0.022100642,-0.052778646,-0.056188982,0.001543805,0.021888651,-0.004086974,0.009916335,0.08915183,0.014996301,-0.13752279,-0.051326,-0.1373994,-0.027425332,0.13619752,-0.033072066,0.06664593,0.039336644,-0.047241084,-0.12753713,0.07113069,0.055707652,-0.03689459,-0.008717574,-0.08455945,-0.025639232,0.06641236,0.11132768,-0.037036214,-0.021656483,-0.021599881,-0.0069424585,0.04338312,0.006978823,0.026529532,0.0729954,-0.2538283,-0.09136911,0.012807278,0.01906047,0.0026935283,0.029011574,-0.024893496,0.0718261,-0.026249653,0.049954757,0.081698805,-0.12865128,-0.12289513,-0.052102778,-0.05359444,-0.2058928,0.015756741,0.13154128,-0.031912677,0.023654053,0.011748586,-0.040697165,-0.01944271,-0.027113624,-0.05839736,0.038171995,-0.01783637,-0.017517336,0.030593988,-0.075213514,-0.08784683,-0.026466465,0.088373944,-0.0788194,-0.2261586,-0.2757861,-0.13966694,-0.023389924,0.12112363,-0.0067030042,-0.111501075,-0.09659172,0.07279635,0.31076545,-0.029553391,-0.16315821,-0.2904726,-0.09391314,0.0033779112,-0.060618486,0.037642397,0.44925088,-0.01737436,-0.016357433,0.04382816,0.055024207,0.10107993,0.013643382,-0.070892155,-0.030416219,0.10355231,-0.11106984,0.036051285,-0.09316221,0.05577985,-0.08299177,0.07022901,-0.017570268,-0.1563905,-0.012672974,-0.03550033,0.0073094107,-0.07649494,0.03986249,-0.13843212,-0.17309496,-0.032521002,-0.10312276,0.06303599,-0.081022255,0.0404704,0.055956557,0.06697075,0.018760532,-0.07650736,-0.07050018,-0.021682136,0.0012877285,0.0688191,0.08010653,0.039738763,0.06825402,-0.09315124,0.04331326,-0.2012907,0.06903578,-0.06999439,-0.02161982,-0.08858906,-0.12436372,0.03575875,-0.032342046,-0.04933151,0.048806306,0.14305292,-0.024286713,-0.06561161,-0.03165321,0.028133363,-0.01948595,0.062118307,-0.06738894,0.10191677,0.039987132,-0.15194063,-0.034845144,-0.14593415,-0.07999033,0.022356026,-0.12390409,0.05372911,-0.03409546,0.027342,-0.07805072,0.030271765,-0.12718746,0.039230913,0.043402676,-0.11684078,0.008641943,0.06982026,0.06255201,-0.0032167397,-0.08853655,0.029542722,-0.0076879114,0.0031288126,-0.044432938,-0.021996928,0.08648212,-0.21291539,-0.049654465,0.06653151,-0.0943612,0.29733166,-0.03236476,-0.059017237,0.22841685,0.08596769,-0.07067996,0.16165294,-0.014094766,-0.1894232,0.12373677,-0.029636106,-0.07207687,-0.061198555,-0.16061772,-0.082503855,-0.1914062,-0.06480441,0.055472795,-0.02217555,0.0148768015,0.04751143,-0.028275058,-0.00030423328,-0.14446321,-0.12212604,-0.16803257,-0.2114661,-0.036947817,-0.045222685,-0.0028590858,-0.095119335,0.07036293,0.0024723783,0.029226683,-0.15558983,-0.11806574,-0.18574715,-0.039443202,-0.09217354,-0.017807532,-0.00050652586,0.10279344,0.11033332,-0.061531264,-0.055017047,0.06102422,0.10878089,0.07939518,0.03213331,-0.3328085,-0.25909716,-0.14360346,-0.07247951,-0.056406252,0.049537532,-0.0091589615,0.008880306,-0.05436697,-0.02834152,0.016456537,0.040218502,-0.015912706,-0.025879167,-0.05218663,-0.064197786,0.04003635,-0.005630646,0.012707159,0.039484143,-0.07050632,0.009824738,-0.049396954,0.025928356,0.025451666,0.062891774,0.044624195,-0.077605486,-0.06329122,0.04254125,0.010718219,-0.06736919,-0.01570404,-0.009496249,-0.014301691,-0.06988497,-0.108134165,0.036819987,0.18958706,0.041288164,-0.08508317,0.12500761,-0.025554046,-0.10307382,-0.0724781,-0.05601759,-0.0021201111,-0.02507192,0.0058463737,-0.07995096,-0.019985909,0.039263166,-0.030112064,0.0048808083,0.05946466,-0.10059699,0.0060507506,-0.015823372,-0.063184656,-0.14908479,-0.09143761,-0.028026018,0.07197137,-0.10632205,-0.07287993,-0.037653305,0.13662453,-0.06349405,-0.037691034,-0.088361725,-0.0039905086,-0.068632804,0.0034111054,0.004761353,0.05717344,0.021093287,-0.17204814,0.12394375,-0.073465355,0.043617107,-0.04565171,0.06425417,0.03255398,0.09969678,0.008138694,-0.037162296,-0.12135153,0.0012886375,0.023114897,-0.10757551,0.018727502,0.06631194,0.061653167,0.042566232,-0.044509687,0.026310649,0.06051189,0.048689514,-0.05392055,-0.043339435,0.0329018,0.049081832,-0.082603425,0.03205153,-0.026515093,0.045990292,0.035279922,0.0057324804,0.0116641335,0.0018735053,-0.09269395,0.08457887,-0.005664747,0.08760693,-0.05160055,-0.058087114,-0.055933833,-0.03568107,0.015321203,-0.2272352,-0.06005857,-0.03468246,0.001432051,-0.0743912,-0.026164541,0.09630308,-0.046405926,-0.05469596,0.036966443,0.009783126,0.049731664,-0.20844126,-0.04134587,0.054337464,0.03997837,0.043509625,-0.023007829,0.093713745,-0.064191975,0.0051528066,-0.03985126,-0.03356783,-0.04639643,-0.17401049,-0.0826988,-0.0075782537,-0.050226595,0.12865968,-0.037243355,0.016572302,-0.048697278,-0.13855238,-0.09341681,-0.056262176,-0.13845804,0.11812642,-0.20166594,0.050681766,0.015769303,-0.017883036,0.09896926,0.009627029,-0.020902716,0.07798675,0.12536985,-0.09599823,-0.07626715,-0.08971352,-0.027308576,0.053291827,0.024988102,-0.109854765,0.034130696,-0.015269635,-0.04279957,0.013464649,-0.06564416,-0.099073514,0.04360303,0.0076899454,-0.045594983,0.081177235,0.0594467,-0.106017746,0.027224705,-0.0107279895,0.03049481,-0.059326187,-0.19399573,0.019950224,-0.16347608,-0.05553148,-0.04859048,-0.03397863,0.41301024,-0.026244482,-0.044128254,-0.024199817,-0.047557216,-0.071159266,0.011262817,0.0069235303,0.054955482,-0.07321156,-0.1191107,-0.050502554,0.1322011,0.11143243,0.019549169,0.07944417,-0.011292119,0.083522215,0.036853563,-0.046374705,0.04301155,-0.08458705,-0.20314834,0.07656815,-0.0039398707,0.18219498,-0.0142851025,-0.055347633,0.119623095,0.02212995,-0.0575148,-0.056224555,-0.09688736,0.13805781,-0.026195712,-0.13558224,-0.011210999,-0.15224952,-0.012770396,-0.014651269,-0.16741845,-0.09172937,0.008537836,-0.019199423,-0.038948122,-0.08130813,0.014980916,0.021909911,0.0022229701,-0.084736474,0.024500618,-0.014374954,-0.11807131,0.0002746815,-0.17712489,-0.20831618,-0.11383082,0.005018834,-0.071513,0.0039894134,-0.0677714,-0.024184408,-0.10261102,0.056584902,0.012272345,-0.05615975,-0.099300794,0.0077780187,-0.04957484,0.034384705,-0.045852378,-0.027662393,-0.17610994,0.01906211,0.0046405885,-0.05662415,-0.12659667,0.08132806,-0.17263453,0.124298,-0.026039472,-0.041167207,-0.08071361,0.059543863,-0.07026927,-0.14929724,-0.11733283,-0.013939075,0.09517543,-0.06309353,0.015892942,0.08273751,0.021801881,0.029677844,0.053405777,-0.030759066,0.09232199,0.030338388,0.09189085,-0.039503757,0.048973165,-0.112968,0.0057367627,0.020740137,0.013079826,0.037511207,-0.16396989,0.028264739,0.035937972,0.036548033,0.19429109,0.13244238,0.016758801,0.02445455,0.013654072,-0.0008023218,-0.045148082,-0.14788939,-0.102607846,-0.0021182299,0.060828224,-0.07180381,-0.2185953,-0.10876019,0.019659422,-0.023056936,0.030729454,0.01839105,-0.009376049,0.06573086,-0.110941984,0.008177087,-0.05499703,-0.6033427,-0.083084345,0.10682531,-0.3443585,0.015979823,-0.031614356,0.43413413,-0.01112367,0.020738628,0.04526058,0.015415855,-0.031816162,0.011141563,-0.08643042,0.024573024,0.026535377,-0.02465819,-0.00080295093,0.048459258,0.07268741,0.010114171,0.052141227,-0.008045606,-0.13221374,0.029008007,-0.019094346,-0.035023063,0.057004068,-0.07517986,0.0937103,0.036726847,0.11779594,0.09559274,0.08459612,-0.054030687,-0.059585355,-0.034562707,-0.065370895,0.015631039,0.051660776,-0.029846929,-0.10300928,-0.04065138,-0.07907152,0.01164435,0.05477217,0.037383042,0.046730265,0.039996944,0.045983404,0.009951904,-0.101681896,-0.01343492,0.043123044,-0.04979647,0.10722722,-0.14065146,0.10989799,-0.07990275,0.07052674,0.0434112,0.076257475,0.050712004,-0.052248765,-0.026795283,0.11530037,0.06428588,-0.13211054,0.015440296,-0.007863469,-0.0856106,0.010025166,-0.026986359,-0.07259332,0.030813113,-0.18000808,0.15304609,0.037414834,-0.008121211,-0.09799166,0.046870902,-0.029896285,0.005636733,-0.034360778,-0.03282717,-0.28184378,0.033018574,0.024668768,-0.055715933,-0.104187794,0.046533555,0.13545443,0.022576101,-0.042251278,0.10101395,0.018960413,-0.06931059,-0.09676573,-0.11893414,-0.16512474,0.10544388,0.13820551,0.018782878,-0.012237862,0.08121114,-0.026294481,0.017197564,0.063094735,0.07420866,-0.021248773,0.052231777,0.1883558,0.0113081485,0.07355237,-0.004801832,-0.16913606,-0.12905683,0.085726,-0.08344115,-0.21940316,-0.041745268,-0.313364,0.021197386,-0.111244686,0.3071504,-0.047346823,-0.21227624,-0.10766231,-0.0489801,-0.1474599,-0.081747964,0.012946867,0.07632264,-0.10920935,0.015928023,-0.00018444285,0.17062728,-0.10355732,0.08979376,-0.048158735,-0.073752314,-0.15339634,-0.06577969,-0.09023554,0.05568388,-0.054925404,-0.10286644,0.07502011,0.013624992,-0.09409433,0.0014659464,-0.051626768,0.10802561,0.15990958,-0.10024853,0.18033046,0.043206185,-0.14173342,-0.1704543,-0.010582771,-0.062810585,-0.15293151,-0.039375536,-0.045978967,-0.12548062,-0.2463335,-0.045153297,-0.004160721,-0.11519939,-0.10849559,-0.093993,-0.21627614,-0.107253306,-0.03467285,0.012871429,-0.08253342,-0.3098651,-0.022492543,0.09550731,0.40394652,-0.10067301,0.0047046505,0.03943,-0.09860733,0.2595967,0.03807889,0.03672521,0.07355867,0.09266678,0.0015568323,0.15682209,0.002461629,-0.11165258,0.095026,-0.060820617,-0.178842,-0.005317241,-0.12032317,-0.058981463,-0.28823966,-0.14017889,-0.005424737,0.012228787,0.028037257,-0.13447654,-0.021782612,0.01948028,-0.011792627,0.049272317,-0.015190782,0.02902434,-0.058666855,-0.026045654,-0.08099333,0.0024764333,-0.046343554,0.09515315,0.033003528,-0.041879997,-0.079933435,-0.012219906,0.020949982,0.041881092,0.03384792,0.0042907065,-0.038713433,0.035158902,-0.089002095,-0.046420418,0.05256165,0.056519043,0.010032427,0.053718142,-0.034117404,-0.036668237,-0.02908025,0.00193201,-0.119114876,0.013326598,0.00547133,0.087842435,0.0022803694,-0.122445725,0.07375655,0.0447742,-0.0055948645,0.1563559,0.013530994,-0.108721,0.12915927,0.0010913536,-0.046906076,0.065591775,-0.10596043,0.0047192425,0.011271391,0.07280816,0.07703395,0.051967084,-0.08587471,-0.01748075,0.023913719,0.02106344,-0.10683714,-0.037666783,-0.025600912,0.06731628,-0.060736112,0.16222787,-0.01089358,-0.034432564,0.058637153,0.04085542,0.005043767,0.12094158,-0.007760808,-0.06306861,0.067502744,-0.03690685,-0.040786337,-0.011943255,0.0074074566,-0.103334546,-0.053452082,-0.09349775,-0.10947444,0.030369328,-0.09650631,-0.09853498,0.019745946,-0.019576289,0.009852767,-0.12215209,0.15411393,0.34713182,-0.0016043782,-0.031206151,0.024389539,-0.19996718,-0.08633694,-0.050259665,0.079448886,-0.092183545,0.44114083,-0.32458693,-0.16475311,-0.09248854,-0.009261556,-0.16119169,-0.09086627,0.13026029,-0.117928565,-0.090859346,0.000636138,-0.10750856,0.19891036,-0.05790826,-0.22359152,-0.16577925,-0.19334792,-0.08006698,-0.10888265,-0.002005905,-0.070041575,0.0028850883,-0.10366204,-0.07074642,-0.030327968,-0.17596458,0.02577437,-0.15625651,-0.13273731,-0.19172671,-0.04797239,-0.007188011,0.17213911,-0.09936487,-0.096936636,0.0364758,-0.20359114,-0.015062161,0.013826032,0.08061086,0.0746681,-0.019118603,-0.02372871,-0.019790094,-0.09084673,-0.13206406,-0.16865909,0.05065793,0.12813923,-0.039913148,-0.07714731,-0.20886457,0.06714228,0.014495514,-0.08979873,0.03465473,-0.1363465,-0.16102561,0.046752937,-0.07105062,0.018218357,-0.13495308,-0.026512094,-0.13036521,-0.2318292,-0.06912529,0.015617326,-0.06492959,0.047939885,-0.050436415,-0.010895982,-0.05025984,-0.2622136,-0.042730473,-0.06771944,-0.06917085,-0.32756656,-0.06134005,0.05887948,0.26513055,-0.14798395,0.014058076,0.07781468,-0.06226924,-0.21229848,-0.35690826,-0.110476986,-0.04555788,-0.046454668,0.6010983,-0.111055925,-0.30719295,0.36119112,-0.13831967,-0.03113046,-0.2925634,-0.032866318,-0.056555785,-0.08759821,-0.00716497,-0.04086724,0.012323999,-0.08359026,0.13860989,0.006351467,0.12325716,-0.028728165,-0.10288811,0.058285214,-0.0013147183,0.04996937,0.14927036,0.022231735,-0.14211568,0.027701735,-0.020563759,-0.043465734,-0.024338836,-0.01659947,-0.08022291,-0.019841718,-0.019276693,0.07329692,0.0444769,-0.03412491,0.0047861077,-0.0018927436,0.011845313,-0.0053649247,0.025688216,-0.04059256,-0.22595564,-0.11207382,0.019353066,0.04381558,-0.014761642,-0.0013916725,0.06479855,0.07211592,-0.10939482,0.14064182,-0.17724393,-0.032210752,-0.042228617,-0.00036210567,-0.11335388,-0.1273211,0.0024745604,-0.067320086,0.02902034,8.877367e-05,-0.0717149,-0.0344768,-0.29990727,-0.043162115,-0.06590243,-0.012789551,-0.07174336,0.0005689226,0.037430793,0.016073814,-0.038076628,0.023906969,-0.021749977,0.01219451,-0.047739167,0.004478218,-0.14614803,-0.10026099,-0.17248812,-0.060308788,-0.15732613,-0.002151642,-0.0892802,-0.12905926,-0.055914357,0.011289302,0.005949769,0.016732648,-0.07544971,-0.014774904,0.14021659,0.005083957,-0.019457385,-0.009137701,0.00908488,-0.06131406,0.035306636,-0.048763387,-0.03429807,-0.017731806,0.07274733,-0.013272591,0.03259924,0.015517496,0.0893313,0.014861675,-0.07385671,0.06435846,0.009677306,0.026536554,-0.011072356,0.014698349,0.020891048,-0.015715133,0.023688119,0.019591428,-0.027485289,-0.056156807,0.07748969,-0.059664354,0.029938906,0.03149466,0.09539055,0.044855773,-0.23929736,-0.085395165,0.09406471,-0.15457834,-0.15387674,-0.06920795,0.1013327,-0.04683833,-0.042360406,-0.02572748,0.04045444,-0.2847798,0.12427355,0.09004415,-0.05398924,-0.18219867,-0.15688409,-0.11444094,-0.22090188,0.031313565,-0.20536424,-0.10782306,0.09104107,0.0045478754,-0.09164865,-0.19497433,-0.012460839,0.08066063,-0.091927424,-0.00976178,-0.022926591,-0.15091553,0.042837236,-0.07570208,0.037260234,-0.12551552,-0.016209595,-0.122062266,-0.08226985,-0.03416575,-0.001888372,-0.09588879,0.11229658,0.010615114,-0.0508626,-0.12348424,0.02534438,0.00942659,0.0007851869,0.012867108,0.031097317,0.19323285,-0.22444344,-0.4479432,-0.19087707,-0.07436959,0.057159863,-0.06871468,-0.087874375,-0.016513817,-0.035383776,0.11734645,-0.036471345,0.060798883,-0.04111747,-0.0017383881,-0.1280408,0.05635224,0.027617848,0.016061531,0.03085456,-0.24243471,-0.0060918257,0.023977906,0.036359612,-0.06038343,0.061487027,0.109561644,0.0070550777,0.029421542,0.006523188,-0.06834254,-0.018151052,-0.14584322,0.05867367,0.019761864,-0.041293345,0.045092955,-0.13546959,0.077399805,-0.013720073,-0.046407375,0.030459257,-0.06263688,-0.14460756,0.025030218,0.011589795,0.009516481,-0.020339519,0.012504708,-0.09938121,-0.040892176,-0.07651107,0.08355897,0.009215191,-0.09791422,-0.1423922,0.06237228,-0.03008073,-0.12292774,-0.20795618,-0.04660899,0.15995383,-0.07101699,-0.1873574,-0.015561938,0.079155356,0.26609066,0.061736774,0.054673105,-0.0076362863,0.0011056578,-0.21013485,-0.028427254,-0.0027292455,0.1694942,-0.025459222,-0.1649638,-0.15321559,-0.20198962,0.12932934,-0.07782677,0.06711416,0.10281712,-0.12466206,-0.1423659,0.018477812,0.029333893,-0.07137081,-0.036531467,0.06640432,-0.048114765,-0.19833973,0.15431811,0.03402523,-0.031778343,-0.1237246,0.023760326,-0.18278222,0.019839834,-4.589185e-05,0.073182985,-0.022135045,-0.06359621,-0.022899166,-0.013884049,-0.08337819,0.06715791,-0.014356341,0.05927544,-0.04257127,-0.27019274,-0.31605837,0.07050699,0.006594697,-0.23519489,-0.15179202,0.03953657,-0.022950523,0.04958548,0.0086698085,-0.08565295,0.015431527,-0.008267116,0.1836923,-0.023958828,-0.0061878897,-0.017208926,0.0058040377,-0.075931124,0.01656077,0.06344566,0.09814806,-0.27514902,0.017839342,-0.00484218,0.04743199,-0.014937997,0.08935857,0.23932628,-0.015618574,-0.076679304,0.023404844,-0.109028846,-0.020459788,0.067138284,-0.14754453,-0.022850588,-0.04984518,-0.010978674,0.098665535,-0.065163046,0.15556417,0.005799814,-0.07798976,-0.05543775,-0.025621805,-0.08031099,0.06467825,0.07301171,-0.10758318,-0.05512414,0.03173017,-0.04932063,-0.06372613,0.058249615,-0.06370182,-0.0064186566,-0.06945834,-0.022166178,0.09807416,0.051842976,-0.08030628,0.0005087033,0.029075265,-0.030155627,0.113394216,-0.053245634,-0.038620234,-0.09301226,0.050281845,0.030401032,0.11360673,0.013311026,-0.0413457,0.033556458,0.011374234,0.0017973408,0.046497725,-0.01332619,-0.031204186,-0.16042714,0.022682834,0.10770344,0.01316222,-0.072346,0.012409514,-0.085660085,0.059094276,-0.06874513,-0.052902877,-0.01015304,0.104926236,-0.03662362,-0.066631444,-0.10749757,-0.07722566,0.1169734,0.01867339,0.06011924,0.031644784,-0.04342985,-0.06328115,0.052079678,0.02840231,-0.03269077,0.015984945,-0.027564036,-0.07175213,-0.057853423,0.028143924,0.02944604,0.0020660479,-0.036252026,-0.054834515,0.003630776,0.13899297,-0.044014577,-0.0015409831,-0.0016335286,-0.069514245,0.076866165,-0.2585591,-0.26942062,-0.24307391,-0.2517169,0.0015579835,0.018914338,0.04580513,-0.0617476,-0.15910898,0.10486302,0.10578576,0.008189596,-0.052422613,-0.030978248,0.05421645,0.06147597,0.06586781,0.19062202,-0.2933467,0.08151788,0.14485216,0.21249714,0.22540459,-0.26127464,-0.064189024,0.25559425,0.4521809,-0.12642202,-0.02884753,-0.07842439,-0.15935403,-0.07340271,-0.041593865,-0.1694658,0.09668194,0.026772127,0.08296396,0.005812615,-0.0037253378,0.07577844,-0.21852972,-0.22133803,-0.07811412,-0.29356894,-0.08614204,-0.029268807,-0.15045002,-0.06435845,-0.11355658,0.1461388,-0.038235843,-0.38120875,-0.058707748,-0.014291659,0.071469076,0.09094763,-0.081126235,-0.07185262,0.034536272,0.17291567,0.018165663,0.050673235,0.077708624,-0.03213728,0.074812554,-0.11105107,0.0066093355,-0.19948576,0.16166052,0.042190462,0.04053431,-0.051640652,0.05111044,0.04320007,0.21513996,0.10913464,-0.078908324,-0.10483118,-0.012214204,0.040183324,0.02845197,-0.03775637,0.05930661,0.010127759,-0.09066723,-0.034891643,0.003460714,-0.04833054,0.0003408268,-0.021851279,0.077977285,-0.029539628,-0.06997442,0.05132292,-0.0047632977,0.013055719,-0.027123518,0.028264735,0.0086898655,0.013009626,0.0968106,0.018990263,0.07922912,-0.035878308,-0.012451337,0.0073629245,0.09253284,0.0173942,0.06794656,-0.13074327,-0.0558796,0.016174966,-0.24656606,-0.11042847,0.009860959,-0.06587552,0.14631817,0.02016952,-0.06998406,-0.06991333,-0.15437168,-0.04282883,-0.0049470626,0.0916244,0.08206398,-0.0715439,-0.049078405,-0.07289377,0.03235654,-0.084546655,-0.026531937,-0.037572686,-0.18657407,-0.13836683,-0.0461784,0.06153661,-0.09771683,-0.30596134,0.049131833,0.051762253,-0.036493573,-0.012934674,-0.15416743,-0.12881537,0.00038816035,0.047748987,-0.09119658,0.013346624,0.10161191,-0.16066977,0.045458555,-0.0633095,-0.15350439,-0.016039267,-0.028021667,0.012220036,-0.055248354,0.0031284243,-0.17223,-0.10097661,0.10515418,-0.38731483,0.42336708,0.056831725,-0.12398063,-0.122512385,-0.20255232,-0.05849775,0.015320811,-0.15375268,-0.14498518,-0.10613099,-0.105128996,0.11836976,-0.04380455,-0.15841578,-0.111726105,0.07059822,-0.14365247,-0.1750872,-0.14937845,-0.21325158,-0.028179146,-0.14021297,0.02233933,-0.09122543,-0.05230305,-0.09853268,0.06289016,-0.012095304,-0.12308335,0.0433101,-0.013505511,-0.11914758,-0.070756726,-0.07855128,-0.027670233,0.06144166,-0.00067584217,-0.0523049,0.11659522,-0.0060120337,0.059759576,-0.21410993,-0.08791077,-0.05277492,-0.025022542,0.019757781,-0.12745285,0.07164385,-0.074780546,0.005130696,-0.045322523,0.032183412,0.052626576,0.06215567,-0.07008145,-0.0064024106,0.0609331,0.04768945,-0.0068249367,-0.0092783775,0.09009235,-0.05252703,0.083185636,0.024063908,-0.00024113059,-0.04845023,0.088621184,0.035403028,0.06777878,-0.0062547103,-0.1010746,0.08079496,-0.015360311,0.036590673,-0.0035903975,-0.06705392,-0.088703975,-0.03909406,0.020796593,0.1108019,0.051295076,-0.009441745,-0.0048991665,0.02196905,0.07259472,-0.033696957,0.022603495,0.050147597,0.05804795,0.032581314,0.054960363,0.020962732,0.064340055,0.08944908,0.05612367,0.03823703,0.052366897,-0.025203234,0.024013368,0.082736924,0.041728836,0.0267881,0.008822412,0.028149089,0.018250018,0.08796856,0.062189113,0.11257836,0.044457477,0.009267278,0.062256277,-0.0051997043,0.042795107,0.016106158,0.022649245,-0.10037302,-0.15615764,0.1258957,-0.121071786,0.025801737,-0.14267555,-0.12931377,-0.04251468,-0.04845842,0.06321007,-0.03521555,0.031876113,-0.15424635,0.008955998,-0.08503878,-0.21963021,-0.13889924,0.0038145073,-0.013511018,-0.07156491,-0.11846969,-0.01808299,0.010994609,0.009371534,-0.09140466,-0.04907786,-0.020342091,0.057121318,-0.1136329,-0.08586948,-0.034411073,0.20800771,-0.091177374,-0.09092875,-0.13976246,0.13005233,-0.12556659,0.18095276,-0.014100615,-0.11078373,-0.06626184,0.08092214,0.11612785,-0.038015313,-0.10273019,-0.07503266,-0.11112901,-0.10149113,-0.048498612,-0.06125083,0.101971805,0.065172635,-0.037719384,0.0266569,-0.013657309,-0.0057144556,-0.014872259,0.00012419932,-0.06321411,0.008499381,0.093801394,-0.0625047,0.008430053,-0.006611027,0.053515624,0.1228519,-0.12920171,-0.10998699,-0.014058287,0.0048614964,-0.058107764,-0.03681857,0.08258851,0.018401295,-0.034571335,-0.005347902,0.097691655,0.014592789,-0.11601989,-0.10552039,0.04793929,0.011314306,0.023022495,-0.067498535,-0.08143278,-0.12036146,-0.016526265,0.16115515,0.026802655,-0.33086142,-0.040842447,-0.19090848,-0.3482231,-0.17214365,0.16618332,0.03215637,-0.34237567,-0.07731881,0.16811985,-0.11201788,-0.22590658,-0.24278814,0.06412014,-0.14190075,-0.03871119,-0.12421353,0.032920856,0.24493413,0.15718003,-0.027285725,-0.062107347,0.039085627,0.025456302,0.053404137,0.011874493,0.054819614,0.036528815,0.043470178,0.05472454,0.02481838,0.030014008,0.049365215,0.035375096,0.020635478,0.08433905,0.03914134,-0.0126243085,0.018450296,0.014392775,-0.03524414,0.06924691,0.09192349,0.11108764,0.044513762,-0.014457479,0.07291373,0.030689517,0.032813706,0.029765124,0.015097623,0.027425498,-0.08044903,0.05380159,-0.060552534,-0.010933489,0.107299514,-0.20102765,-0.055803094,-0.0012106635,-0.006965086,-0.058395144,0.028755736,-0.03089033,0.0015497878,0.05501404,-0.07410168,-0.064696215,0.18693677,0.14900994,0.08761033,0.06422438,-0.000732705,-0.049477622,0.13710694,0.07393496,-0.020854784,0.05188258,0.024288734,-0.04469027,-0.079543024,-0.05173909,-0.075372264,-0.07441906,0.026120953,-0.04449706,0.087538786,-0.079197936,-0.021810668,-0.100104526,-0.011743475,-0.21278396,0.03004321,0.02218857,-0.16630729,-0.004763346,-0.08411059,-0.05189079,-0.02304725,-0.023793906,0.016670555,-0.18858807,-0.087855056,-0.08874517,-0.00083610415,0.03156943,-0.038290367,0.09669596,-0.17840423,-0.037581865,-0.044268776,-0.13403073,-0.12829411,-0.06625066,0.044383146,-0.12447316,-0.020454027,-0.20438436,-0.018029507,-0.24185926,0.015524749,-0.08624361,-0.07024281,0.043980125,0.00014631823,-0.09054501,-0.015100464,-0.030469388,0.012989759,-0.13365398,-0.10398418,-0.08924986,0.04999108,0.28143612,-0.05430248,-0.015568428,0.07693683,0.008759268,-0.043799534,-0.10471849,0.1011716,0.02338276,0.009474208,-0.051133513,-0.07381803,-0.012228252,0.009103421,-0.01175255,-0.01568636,0.0058299825,0.018624077,-0.17305624,0.053923503,-0.019877981,0.0070915073,0.13947782,0.009122508,0.11053637,0.110154554,-0.12565444,-0.005250183,-0.014758253,-0.11206397,-0.10184211,-0.10169868,-0.045232475,0.015137609,0.034592908,-0.034934286,-0.08416808,-0.07109408,0.07928681,0.019340241,-0.11509921,-0.018361688,-0.07115399,-0.035782136,-0.008037787,-0.083899476,0.1095288,0.050736096,0.07514385,0.019060327,0.17778057,0.06622239,0.08605665,-0.15337813,0.0896469,0.013708718,-0.02989274,-0.028064463,-0.03138353,0.06001287,-0.045063294,0.017346801,-0.034566555,-0.0396117,-0.004553374,0.078991726,-0.049847275,0.076747924,-0.06356769,-0.08630962,0.13983923,0.0139288325,0.0035640374,0.008175731,-0.046477407,-0.0023629218,-0.0634103,-0.04764874,0.019421125,0.049577035,0.013137698,0.06706068,0.013804363,0.045187674,-0.001481629,0.014294775,0.021970205,0.018824235,0.013708936,-0.005269356,0.002031181,0.13661836,-0.06758925,-0.044126533,-0.019804284,0.13145103,-0.06885406,0.015443568,-0.11515055,-0.043910034,-0.024786323,-0.063209884,-0.06724243,0.0067432486,-0.002619572,0.053680405,0.0546765,0.033893075,-0.020266578,-0.029012121,-0.0034048818,-0.023829557,-0.008561108,-0.0092321765,0.16897236,-0.020003267,0.07399351,-0.21609607,-0.06002059,0.04193236,-0.18251742,-0.060214683,0.041124556,0.009550804,-0.06281437,0.12834944,0.0020406991,0.038896803,0.08883773,0.00089304894,0.019726224,0.10330553,-0.013106883,-0.029617533,-0.061322052,-0.03588404,0.12251964,0.046661958,-0.0020250678,0.043156706,-0.034212712,-0.17905636,0.07036738,0.08375438,0.07155517,-0.24390584,0.027338548,0.000788074,0.29867256,-0.026125811,0.023096602,0.059160147,0.023770677,-0.102979876,-0.2267809,0.067579456,0.21115278,0.085894845,0.064896666,0.0055431053,-0.07458715,0.14275098,-0.03229969,0.08788058,0.045511194,-0.117138386,-0.102634005,0.11825064,0.11573927,-0.014799658,-0.03308408,-0.061118167,-0.8744222,0.021050535,-0.2988205,-0.046734393,0.028146403,0.107750215,-0.12050149,-0.011920676,0.30182993,-0.012261784,-0.0039333217,-0.021142632,-0.03726031,-0.058489993,-0.020756442,0.0092039835,0.17263389,0.0610811,0.042299706,-0.038944066,-0.013608586,0.0726853,-0.089938015,0.03600238,0.17438595,-0.04221276,-0.046537526,0.07829207,-0.03184464,-0.054393616,0.011047339,-0.025193986,0.05379743,0.0434451,-0.04791101,0.03507199,-0.03195992,0.031383842,0.031943984,0.024881527,-0.029982015,0.015093278,-0.09922567,-0.10529386,0.026165113,0.06449926,0.06648487,0.044963054,0.072164714,-0.10039913,-0.0024305657,0.06931866,-0.014987655,0.06127343,0.03214212,-0.22721878,-0.11090757,0.037759148,0.040263638,-0.079826154,0.15014382,0.15945604,0.24286194,-0.34525907,-0.0051943883,0.002548921,-0.072207496,-0.07420924,-0.03092889,0.24310434,-0.00678242,-0.036782615,-0.1932985,-0.10693765,0.018149965,-0.051929545,-0.13712554,-0.036917336,-0.116756774,0.10888617,0.011091486,0.04844717,0.052786507,0.10026288,-0.021279834,-0.065566525,0.2170012,0.076916896,-0.089366704,-0.1630637,-0.047315016,0.12067448,-0.1794062,-0.12196148,-0.18462025,-0.02397108,-0.06677332,0.038828783,0.05814267,0.1209524,0.16358933,-0.13842463,0.074354574,0.123964734,-0.02196262,0.03410117,0.07760355,-0.12845978,-0.20051903,-0.04435432,0.058916993,0.37274253,-0.012753148,-0.1529541,-0.037324753,-0.20271327,-0.14886618,0.02297943,-0.09819973,-0.052232627,0.03344652,-0.1465815,-0.12591329,0.06854367,0.026436009,-0.22573508,-0.2231108,-0.07359854,-0.17814372,-0.08046453,-0.036821038,-0.14816183,0.088316604,-0.13062835,0.37958682,-0.14415973,-0.42200127,0.07156082,0.057175227,-0.013644993,-0.0015473925,0.029698007,-0.025270239,-0.009045276,0.024623323,-0.035396196,0.11365886,0.001051493,-0.06757969,-0.0513584,-0.02501266,-0.0027585477,0.010534976,-0.04976405,-0.040206924,0.009529039,0.1105082,-0.02856692,0.015628865,0.05845859,0.011005834,0.07950016,0.022110324,0.019509159,0.027177097,-0.09577117,-0.26582426,0.061783567,-0.012982912,-0.012252489,0.11532921,-0.06315909,-0.12530631,0.2766002,-0.11581252,-0.0658496,-0.047576413,-0.19876051,0.030848354,0.0057077464,0.038575795,-0.13981377,-0.051190764,-0.121169664,-0.077776216,-0.06823078,-0.032708026,-0.20858103,-0.11701797,-0.022409067,0.002326048,0.10416485,-0.1699369,0.009739481,-0.0774124,0.00032624602,0.02343962,0.0503268,-0.065800674,-0.05022814,-0.028179236,0.068358146,0.15147349,-0.030187136,-0.01940874,-0.17533237,0.07790086,-0.0012019351,-0.027161874,-0.0086165685,-0.20630486,-0.05966843,-0.14723158,0.014040876,-0.07149537,-0.03563237,-0.101599336,0.036522374,-0.0005376935,0.017530264,-0.053216103,-0.06263586,0.027873548,-0.061338916,-0.07780752,0.008268818,0.050496295,0.09739189,0.06179985,-0.10141504,0.042363267,0.12846966,-0.058463797,-0.14653282,-0.09198339,-0.007112883,-0.035684273,-0.09398255,-0.120778866,-0.00092950836,-0.11009794,0.07428003,0.15497358,-0.026506264,-0.088353336,-0.009964209,0.043550104,0.06252908,0.048939243,-0.122899756,-0.00047411676,0.06616568,0.03883964,0.024448233,-0.011467435,-0.056894787,-0.0039132386,0.06498855,-0.02965915,-0.053717107,0.025497545,-0.1723131,-0.06390616,-0.042281974,0.115019076,0.030611215,-0.03523957,-0.027197689,-0.063985415,0.07530681,0.02974706,0.08639399,0.13928692,-0.10489924,-0.040995255,0.124457315,-0.026407875,0.033279024,0.08478032,-0.07440151,-0.011931203,-0.017029721,0.048082627,-0.038756613,0.017336192,-0.23350494,0.0314168,-0.18428698,-0.03214375,-0.07440815,0.12648043,-0.037353247,-0.043482896,-0.073054165,-0.061072096,-0.047570955,0.12729017,-0.017772095,0.02298033,-0.024659183,-0.14835209,0.013696469,-0.04896211,-0.04903769,0.018958434,-0.042935796,-0.05152006,0.11030835,-0.020860089,0.04069951,-0.019962747,-0.031761855,0.0038978532,-0.019877257,0.03778552,0.10303396,-0.068497814,-0.07679748,0.115478516,0.017346106,0.015413014,0.0065751504,-0.090811335,-0.04705396,-0.07538672,-0.08648373,0.026636407,0.04076334,0.0045855846,0.0022599325,0.003680394,0.014393958,0.005659967,-0.14338839,-0.20865305,-0.10265479,-0.0847244,-0.13010608,0.049926523,-0.061777167,-0.11766815,0.42559683,-0.0013815854,-0.26134285,-0.07310633,-0.14058973,-0.0011004582,0.0354803,-0.19686265,-0.065285735,-0.024417255,-0.011624396,-0.11854231,-0.056000315,0.0018192157,-0.14009511,-0.018851705,0.004074189,-0.14898527,0.075313576,-0.06916996,0.079366766,-0.10694715,-0.14080788,0.0004922077,-0.17948955,-0.07421911,-0.003792651,0.04714475,0.071127795,0.08483183,-0.03500976,0.000941623,-0.0366227,-0.07994309,-0.10574877,-0.042802874,-0.071795754,-0.020531781,0.037775863,0.0688893,-0.09906825,0.03996929,0.15069363,-0.045734435,-0.059318293,-0.10567535,0.006294012,-0.018163098,-0.0077072484,-0.05252474,0.15439126,-0.14588526,0.056794964,0.060427114,-0.009550137,0.08412818,0.07231161,-0.085597135,0.043904778,-0.08396807,0.037359748,-0.041316,0.090071306,-0.031251587,-0.05597604,-0.042923108,-0.0012952462,0.029613,0.085170515,-0.047731023,0.11220154,0.065556526,-0.007963934,0.009280536,0.07024417,-0.08634634,0.09555368,0.036774345,-0.21655023,0.014168207,0.08649583,-0.040438376,0.019047005,-0.16091345,-0.1855984,-0.09072162,0.0020512342,0.1918969,0.07758127,-0.052983493,-0.108779594,0.003113091,-0.043500982,0.096753106,0.025476217,0.18070686,-0.06738115,-0.039754525,-0.2680797,0.12078482,-0.10824104,0.10820158,-0.014696827,0.17677487,-0.012942186,-0.08074769,-0.0005927831,-0.025049184,-0.027941555,-0.026060406,-0.07154733,0.113810875,0.07391854,0.016731925,0.060425296,-0.002735,-0.12102616,-0.02401365,-0.00011631474,-0.059750784,-0.028812975,-0.013673611,0.04480488,0.11176692,0.038958047,-0.009537401,0.020548806,-0.061175156,0.007938191,-0.042809285,0.0054786615,-0.042534232,-0.12565802,-0.04207906,-0.032236524,0.013877861,-0.10068502,-0.12279147,-0.123367794,-0.076227866,0.09469841,0.10112557,-0.04238131,0.03616319,-0.028793087,-0.08228357,-0.029438581,-0.033561353,-0.07739004,-0.13892722,-0.10609227,-0.13361347,-0.013637632,-0.08149344,-0.070003316,0.037078064,0.09745511,-0.042532306,0.0020195693,-0.07219303,0.18782349,0.03373012,-0.15180007,0.038446233,-0.012384735,-0.056674577,0.083992496,-0.07401464,0.06664623,0.011857603,0.07713505,-0.14996101,-0.006045006,-0.11685881,-0.0028128102,-0.08196674,-0.12961501,-0.30971676,-0.07755529,-0.023457894,0.031181663,-0.029798605,-0.026464798,-0.17882456,0.14997524,-0.04792534,0.026391352,0.00970865,-0.083060786,-0.07799887,0.13070509,-0.029572599,-0.011229761,-0.090821356,-0.16235013,0.066435516,-0.1590256,-0.042298257,-0.02787675,-0.062075835,-0.1456242,-0.020223394,-0.05649241,-0.026544295,-0.13938409,-0.11677416,0.019464646,-0.12495103,0.031461757,0.052847058,0.011879347,-0.17862457,-0.07654989,-0.14903796,-0.08707321,-0.23739144,-0.03730396,-0.13337213,-0.2646315,-0.11899385,0.06852299,0.0047157556,-0.16604033,0.082751684,0.033345427,0.17849135,-0.19596317,-0.124386095,-0.075744785,-0.23736864,-0.06163089,-0.05235103,-0.06928117,-0.10541614,0.34095034,-0.03653027,0.06956872,0.005488932,0.02677659,-0.14575492,-0.17798306,-0.08742984,-0.03879739,-0.087511316,0.014120229,0.020580158,-0.02665478,0.06776921,0.06425591,-0.12488056,0.033409655,0.011601239,0.018600628,0.20627758,-0.112593696,-0.14895715,0.014620841,-0.009549439,-0.014267879,-0.010460052,0.16859734,-0.10244605,-0.07518677,-0.1256311,0.05522791,0.012947921,-0.0022427924,-0.23593244,0.05028171,0.008097839,0.012360737,-0.052529078,0.027188074,0.024036847,-0.044218943,0.021820202,-0.06176755,0.029195957,0.07219577,-0.10137199,0.073781185,0.022689007,0.0046430007,-0.037371084,0.043179486,-0.030594485,0.05946663,0.089025766,0.06892392,-0.03037104,0.033782076,-0.002467014,0.14856066,-0.032077357,-0.0026064701,-0.028489754,0.033335466,-0.053333867,0.084759034,-0.018673265,0.027166717,0.038809918,-0.0007610237,0.102780394,0.030135386,0.027425855,0.05980195,-0.09878458,0.007926758,-0.008639326,-0.03972478,-0.08665305,0.0530158,0.121947475,0.012621609,0.02598261,0.05475065,-0.055757735,0.103051744,0.05065398,0.047593426,-0.124944456,0.19637857,-0.010554586,0.013377123,-0.030337363,-0.020387229,0.039701555,0.03545976,-0.040533066,-0.12546268,-0.03369576,-0.0917036,-0.06802248,-0.026368693,-0.06713288,0.06857797,0.008463521,-0.02884603,-0.034206923,-0.032336794,0.11431682,-0.08095588,0.018230498,0.0046415804,-0.10629303,0.07034756,0.040720247,0.0036886372,0.04624986,0.0021206492,-0.22831294,0.029584395,0.041720364,0.012824219,-0.09257845,-0.12823236,-0.04416429,0.12696894,-0.08904543,-0.01655548,0.028770486,-0.035363466,0.22013417,0.019479252,-0.14431478,0.030903475,-0.08640897,-0.17097743,0.030467201,-0.08580139,-0.0006290972,-0.02559048,-0.055920176,-0.05396598,-0.071627945,-0.08158481,-0.02605747,0.113724686,0.15660097,-0.06923419,0.02667629,0.06350381,-0.0016859956,-0.07500379,-0.06500399,0.081453666,-0.03747878,0.10259604,-0.02583059,0.06863828,-0.0065675266,0.046591263,0.049608685,0.06378166,-0.008721642,-0.063407555,-0.0017305091,-0.054386325,0.119424306,-0.104138985,-0.07923174,0.0059721284,-0.049133062,-0.12128024,0.042291112,0.026204832,-0.015589494,-0.09078519,0.085879475,-0.0955355,-0.027389541,-0.04330445,-0.12171828,-0.09288877,-0.004402712,-0.046068944,0.060711965,-0.06350054,-0.026438676,-0.071836546,-0.054537397,-0.044750866,-0.08831555,-0.0826817,-0.117129765,0.063707866,-0.09596455,-0.020619422,0.075870655,0.023418473,-0.02601035,-0.073489875,0.02140712,-0.016928826,-0.21496414,-0.17419405,-0.056074858,-0.007074766,-0.09415483,-0.088552825,-0.047818486,0.07411926,-0.044548027,-0.044461288,0.016195262,-0.08314508,0.0456316,-0.026003942,0.015654266,0.08361709,-0.08843909,-0.0946527,0.021957554,0.095408686,0.021553207,-0.018458577,-0.117570095,-0.048956536,-0.032173052,0.08539962,0.022010457,-0.09739463,0.042026743,0.06264879,-0.020599212,-0.06623709,-0.04215612,-0.08602974,-0.030466292,-0.15492743,-0.053695228,-0.010896265,-0.13894086,-0.06781678,-0.06820342,0.006250687,-0.085391484,-0.052147288,-0.042572103,-0.15848792,-0.2273072,0.043389283,0.01800214,0.013070052,0.020102939,0.04827592,-0.045573242,-0.017335076,-0.10305693,0.017292537,-0.05032354,-0.17894784,0.03249582,0.03874915,-0.06599177,-0.22368646,-0.040184624,0.21943042,-0.03892263,0.055992804,-0.14645535,-0.17089161,0.2710104,0.11538741,0.007510273,0.042963684,0.017123967,-0.23512667,0.17200825,-0.003428937,-0.08078158,0.08104258,-0.14697109,-0.0079141185,-0.21267805,-0.082798764,-0.00546935,0.054815065,0.07305943,0.023546554,0.03388012,0.03717368,-0.08194007,-0.10539742,-0.035268337,0.073655404,-0.029317247,0.33688235,-0.013716873,-0.14175116,0.031302568,0.031904552,-0.05797715,0.123103835,-0.025360964,-0.11407908,0.08521124,-0.045420323,-0.24239194,0.09729695,-0.056426734,0.012860257,-0.06633593,-0.16962816,-0.09548003,0.09368998,0.07353099,-0.05227198,0.0040757437,-0.025208065,0.0023831076,0.21581978,-0.13954765,-0.12697373,0.052606333,-0.031825144,-0.03871287,-0.01377958,-0.0651678,-0.077730425,-0.047596466,0.055444874,-0.18144467,-0.08809013,-0.021739392,-0.05340567,-0.069269255,-0.19417638,-0.026614722,-0.10483422,-0.06213684,-0.08665691,0.022969443,-0.014796734,-0.10380232,-0.091594204,0.07157687,-0.024521861,0.18847749,0.076821774,0.0022204965,-0.05555944,0.011943584,-0.011058761,0.003187336,0.074304655,-0.09085902,-0.016340531,0.055688124,0.011556722,-0.046013735,0.074656084,0.08210618,-0.0139944935,-0.025557479,-0.026994582,0.037780806,0.058364145,0.06857815,0.020628542,0.029753627,0.00081119314,0.080088004,0.09957763,0.0214376,0.021583654,-0.124674514,-0.1506908,-0.088918224,0.11079848,-0.065465294,-0.07303583,-0.02288389,-0.1700164,0.19534795,0.1267716,-0.11987171,0.1185602,-0.113875456,-0.1034646,0.12834018,0.006293334,-0.22130895,0.057648435,-0.038019538,-0.11061412,-0.17387575,-0.06615323,0.06069976,0.06921814,-0.014196634,-0.18044338,-0.13227479,0.010966107,0.005270084,0.0015174765,0.025610335,0.11233328,-0.08486736,0.17891939,0.026434893,-0.026838398,0.13554391,0.046470392,0.020302823,0.11420045,-0.053376876,-0.14387625,0.09642308,-0.030120721,-0.046452187,0.029060673,-0.00073090196,0.0027815439,-0.17970845,-0.11651687,-0.10905508,0.03215887,0.04497462,-0.052961722,-0.05695741,0.007865222,0.09457145,-0.09663742,-0.08690402,0.19430754,-0.074840955,0.10135241,-0.09380779,-0.18340981,0.03927567,0.09687262,-0.032399286,0.040500604,-0.0525136,-0.11210319,0.0737299,-0.051660806,-0.041365825,0.00909869,0.069968015,-0.011233871,-0.07197224,-0.07503927,-0.059733324,0.04678144,0.037692748,-0.16827863,-0.114858925,0.052114673,-0.08841914,0.25541073,-0.0738002,-0.21240276,-0.077384286,-0.09778697,0.10064842,0.09522227,-0.3572835,-0.16548882,0.017069783,0.13357893,-0.015095428,0.0503292,-0.03986458,-0.041666165,-0.031057537,-0.21132953,0.10103286,-0.058785554,0.007291357,-0.027188953,0.03639841,-0.12525158,-0.29880226,0.03408883,-0.046538547,0.006051019,0.12672567,-0.11460776,-0.2111891,0.13675654,0.00017592683,-0.22809568,-0.119252995,-0.07096955,0.005333151,0.0013567954,-0.07650905,0.012267873,-0.05965179,0.06241772,-0.01846113,-0.022139538,0.2958313,-0.11397006,-0.17694081,-0.17860746,-0.11384231,0.1433991,-0.059985563,-0.028163804,0.0792584,0.1671616,-0.058158405,0.028761327,-0.05470463,-0.008965887,-0.03304223,-0.10995763,-0.006611686,0.2241824,0.0026400033,-0.017666725,-0.19312933,0.033024408,0.019912459,0.015129656,-0.04275775,0.0833628,-0.030238483,0.06260021,-0.19659574,-0.047225602,0.11001452,0.029826077,0.051830955,-0.065531895,0.011227429,0.005269289,-0.042032555,-0.04615788,-0.0032049883,-0.046736173,0.009591442,0.07571853,0.002861848,-0.00047313236,-0.015769377,-0.063311934,-0.01835021,0.003128644,-0.08787243,-0.022315368,-0.07602296,-0.04816942,-0.1383076,-0.017848402,0.050132297,0.018405475,-0.029968517,-0.0116854925,-0.18052277,0.015277065,0.012716997,0.017761327,0.005366522,-0.14870808,-0.019397628,-0.0290462,-0.0128413495,0.0121888025,-0.004363116,-0.05789449,0.03195508,0.036221873,-0.012273788,-0.15532671,-0.03721116,0.038202386,0.117120266,0.19206071,0.034762703,0.06654301,-0.05604284,-0.018671414,-0.012137324,-0.023123167,0.115390666,0.030197777,-0.06936479,-0.11119384,-0.032623447,0.1416105,-0.11628031,0.11652464,0.0016767979,0.092999,-0.095594816,0.037580695,-0.062252935,-0.015744526,-0.06563842,0.08043669,-0.06807666,0.16238466,0.006558392,-0.018382607,0.21097781,-0.0055001862,0.0632249,0.13856046,0.03442245,-0.17049742,0.07003022,-0.015860343,-0.11834086,0.026032897,-0.034851834,0.0038357107,-0.13008472,-0.0870922,-0.04884372,0.011619933,-0.012227073,-0.048000187,-0.03261235,0.008292921,6.905198e-05,-0.023065858,-0.11635167,-0.043300554,-0.17820549,-0.07390578,-0.095487535,-0.011647718,-0.2912874,-0.21078926,0.21931064,0.18430243,0.041892424,-0.26771945,0.014167717,-0.05897258,-0.03332062,0.08758888,-0.3160534,0.026087793,-0.2873342,0.058278624,-0.04242397,-0.06029642,-0.16186272,0.22166514,-0.12064691,-0.009818839,-0.20755643,-0.17098999,-0.068636395,0.058988452,-0.07181308,-0.0011753407,-0.28194124,-0.0072445027,0.0717689,0.11938779,0.059062578,0.088274434,-0.04054533,-0.002053067,0.07017503,0.047447093,-0.05411657,-0.17804925,-0.0818917,0.0622731,-0.06270023,0.040297035,-0.042006467,-0.06121328,0.05677328,-0.007973164,-0.055901628,-0.025056683,-0.031176288,-0.042057436,-0.07008301,0.046262294,-0.021766806,-0.05209224,-0.10911414,-0.10292545,0.08863434,-0.03297903,-0.09085895,0.012369173,0.0010284893,-0.098123886,0.09221123,0.07427916,0.08976886,0.038535222,-0.11812233,-0.008130558,-0.061156422,0.072877534,0.055162042,-0.02358263,0.0096350275,0.043215316,0.007134082,-0.027803399,0.055446815,0.081367984,-0.0073791295,0.025821425,-0.07079126,0.06829864,-0.015836693,0.0017947657,0.025326418,-0.008611296,0.057578303,0.12920994,-0.06509341,-0.13127217,-0.014766913,0.047617067,0.08930114,-0.11824829,0.015918974,-0.048728522,-0.14045918,-0.09796989,-0.10855978,0.044362977,0.07454917,-0.039568312,-0.022137212,0.020851273,-0.07039508,0.021586418,0.040983573,-0.22366402,0.031964246,0.010802483,0.121653214,0.0073253214,-0.02494438,0.13712269,-0.015736744,-0.022146083,-0.020269316,-0.13511166,0.07017694,-0.07932695,0.032189235,-0.11366189,-0.07856994,-0.11428653,-0.0564465,0.027905494,0.0043140016,0.067369,-0.08904056,0.06044508,-0.12111288,0.022833994,-0.018068278,-0.105450995,-0.021165585,0.00025013834,0.093499675,0.03089815,0.22239736,-0.18030599,0.010385439,0.052693605,0.08024194,-0.049970184,0.07631183,-0.009530351,0.006199615,0.052895956,-0.062442034,0.023567319,-0.010826886,-0.060464162,0.076176174,0.08372897,-0.03145735,0.03690847,0.017840417,-0.097882874,-0.025868153,0.040250115,-0.040671326,0.13677262,0.19257954,-0.06929508,0.012579046,0.12281602,-0.047279347,-0.030615538,0.00081778504,0.1296564,0.0509597,-0.015270691,0.02944737,0.07809931,0.1678678,0.07693501,0.08160431,0.06633501,-0.113617145,0.0072621554,0.0242548,-0.06859581,0.11789262,-0.18284756,-0.08064484,0.10685734,0.11254209,0.15096824,-0.16501579,0.015450041,-0.037165657,0.0022685463,-0.08520587,-0.059099004,-0.027710352,-0.058756083,0.0025543422,0.039632197,0.057246283,-0.1635455,0.10448616,-0.049054213,0.046350483,0.064224064,0.13777946,0.027554989,-0.21280211,-0.047153562,-0.100965425,-0.010121942,-0.03021856,0.15921962,0.10561059,0.009434424,-0.044122204,0.030184945,0.010067296,0.00921667,0.046521038,-0.0013474528,-0.07342632,0.060120128,0.02418373,-0.029005248,0.07081561,0.1233646,-0.060551904,0.02851289,0.029118277,0.016409114,-0.023679549,0.075754836,-0.013637213,0.06735166,-0.08736465,0.0017258562,-0.14193586,-0.10516309,-0.028344842,-0.0037297532,-0.030929834,0.010624064,-0.03188152,0.06721197,-0.026079768,0.04953588,-0.030491624,-0.12167985,0.004653468,-0.1994988,-0.069144644,-0.13087109,-0.12685889,-0.0645629,-0.06976878,0.026323833,-0.089700796,-0.073517255,0.1406228,-0.13826501,0.013644345,0.10584614,-0.1289543,-0.005790673,0.006038878,0.007652683,-0.0030176006,-0.15672752,-0.11320306,0.11189146,0.06059638,-0.052202087,-0.17092478,0.14109966,0.07283032,0.04348408,-0.047330372,0.07475023,-0.06429068,-0.06469449,0.005479548,0.044880155,0.029388955,-0.020430751,-0.04184777,0.022190701,0.03874168,0.027873792,0.1728207,-0.015109057,-0.013664792,-0.06170627,0.017457291,-0.06144825,0.009296887,-0.06536903,-0.05321944,0.002363965,-0.12546839,-0.06297993,0.043619987,-0.08042877,-0.13865954,-0.13429922,0.19579333,-0.10669821,0.7688074,-0.20481205,-0.02944601,0.102654725,-0.15531904,-0.097975194,-0.4403093,-0.13277961,-0.15276612,0.019877046,-0.09287646,0.08952254,-0.1890993,0.053099595,-0.13034008,-0.052088916,-0.0779375,-0.35595232,0.048090264,0.06959236,-0.16252778,0.1503233,-0.049078755,-0.2517244,-0.26791728,-0.06312494,0.023718148,-0.09222275,0.09002604,-0.15858941,-0.11410896,-0.11866697,-0.038054734,-0.15297322,0.043812264,-0.04546549,-0.1872861,-0.04851581,-0.16247556,-0.15604217,-0.078359075,-0.0891995,0.03407603,-0.08151618,0.01427611,0.02884072,0.049213827,0.13909319,-0.10244683,0.09639371,-0.01440528,-0.10565678,0.030111685,0.03713845,0.002233252,-0.09397654,0.001441773,-0.010629054,0.11647811,-0.0438344,-0.018638184,0.020628028,0.075330466,-0.048671287,-0.057509184,0.037441857,0.07868616,-0.014560375,-0.010591671,0.03282822,-0.09190032,0.15176246,0.044147596,-0.086982846,0.041231796,-0.008920461,0.01306675,-0.040698018,0.074039094,0.056943864,-0.06648191,0.031481847,0.073825195,0.0135972425,-0.10005719,-0.04543234,-0.05785749,0.07300637,0.013038239,-0.03176514,-0.063461296,-0.016071033,-0.04855433,-0.045013085,-0.026294513,0.016841765,-0.09450399,0.03358957,-0.028360419,0.010592114,-0.0033938056,-0.03575971,-0.028984189,0.033493817,-0.032406453,-0.010798328,-0.004201792,-0.19469444,-0.0009628087,-0.0848065,0.019993998,0.034300216,0.0155819375,0.0052024126,0.0141236335,-0.031343132,0.13099948,0.04224486,-0.09504653,0.06170668,-0.0782432,0.036490273,0.078748286,0.025137743,-0.2060014,0.011528648,-0.0510936,0.039389025,0.0024606343,-0.046236813,0.04661905,0.08545537,0.020246029,0.022240125,-0.120283425,0.28888893,-0.07202878,-0.10178699,-0.08002171,-0.05944363,-0.22593321,-0.03903722,0.059600096,-0.021074641,-0.13779214,0.0149990395,0.022359546,-0.14028886,-0.094029725,-0.089956805,-0.099247165,-0.11679814,0.0515923,-0.057020027,-0.11171163,-0.17463335,-0.0011618277,-0.029981017,-0.15439707,-0.19194156,-0.07916635,0.06354511,0.06963875,-0.120823994,0.048360936,-0.057615563,-0.11330709,-0.0069000907,-0.13056305,-0.024664775,-0.061688095,0.051805776,-0.005249914,-0.08768002,-0.15364355,-0.070819214,-0.1661212,0.08729757,0.12569249,0.08476111,-0.10660314,0.10478596,-0.082885146,0.020790968,-0.1062675,0.046506874,0.21079722,-0.13105111,-0.07373189,-0.03066133,-0.03255297,-0.2229454,-0.16926533,0.0162841,-0.0973551,-0.0947545,-0.068859175,-0.16506827,-0.18325517,0.56308126,-0.12502864,-0.12871008,-0.006784916,-0.13316938,0.093290105,0.06593802,-0.09460473,-0.111263126,-0.04748615,-0.1988291,-0.24326517,-0.10422292,0.0013349578,-0.17805803,0.08668395,-0.10885481,0.019585656,0.20974727,-0.17032064,0.04937191,-0.01412,-0.10961809,0.020469004,-0.0021555442,-0.056567874,0.06646804,-0.0023902282,0.015632119,-0.10650508,0.025338707,0.0070984196,0.097545326,-0.10879868,-0.044710323,0.04843443,0.103062734,-0.02179908,0.06344811,0.124917254,-0.07962197,-0.033776443,-0.11975054,-0.04534229,-0.15045969,-0.056704447,-0.016276147,-0.14573173,0.055749327,0.019073129,-0.008094788,0.028380739,0.10710151,-0.05307149,-0.04934399,-0.031260215,-0.007876553,-0.012366436,-0.06968562,-0.030370656,0.09879499,0.02183605,0.028026149,-0.052783385,-0.00071118027,-0.11410854,-0.03976673,-0.028765839,0.029414741,-0.021807402,0.09936219,-0.010452926,0.07589658,-0.053591765,0.0075545814,-0.04208202,0.0017233854,-0.075538434,-0.08439397,-0.120182425,-0.03558462,0.15647933,-0.088874176,-0.03379544,0.1951644,0.042541757,0.056473628,0.09995222,-0.07884046,-0.027801208,0.18415008,0.08808778,0.12063959,-0.03923112,0.021185832,0.16033256,-0.011916434,0.09686618,-0.066078745,-0.037025616,-0.05293241,0.013050795,0.14776249,-0.0914625,-0.033916797,0.060451183,0.03480625,0.05846381,0.016459819,-0.017961401,-0.08324394,-0.02750345,0.018007927,0.011961635,0.100312755,0.05072569,-0.08631836,0.034575038,0.000399407,0.073869705,0.021817552,-0.033025984,0.1052073,-0.068014696,-0.0024638325,-0.028982047,0.1382974,-0.03868466,-0.12415722,-0.0020752512,0.018697828,-0.008006556,-0.11412786,-0.04279764,0.124267794,-0.11692211,0.18269482,0.03114441,-0.11886656,0.16223505,0.020626917,-0.006654255,0.09864585,-0.049249977,-0.14922509,0.043727025,-0.036857598,-0.21251914,0.00046001002,-0.1280283,-0.06281969,-0.16059686,-0.1569517,-0.030203588,0.044095702,0.020740345,-0.07702226,-0.039430387,0.017058413,0.05163771,0.012730405,-0.045022313,0.23662177,-0.01988179,0.06467694,-0.06246727,-0.10821356,0.1502794,0.050094053,-0.016729845,0.11115805,-0.034305345,-0.13072135,0.05791014,0.05625784,-0.29669964,0.095444806,-0.071528144,0.1045014,-0.1473898,-0.14063078,-0.014734551,0.14524801,0.0769731,-0.06187681,-0.07012126,0.04473942,-0.010480214,0.014840713,0.0033495848,0.017374355,-0.15532558,-0.030726023,0.049913086,-0.031376854,-0.047774777,0.030453175,-0.046952065,-0.06881058,-0.106188685,-0.0014499798,0.007801048,0.0552921,0.008252649,-0.09002006,0.08232137,0.12415479,0.10396236,0.06139853,-0.04299235,-0.026880847,0.05785127,0.012432415,0.010284181,0.022714972,0.025413334,0.07952669,-0.00874459,-0.000555329,-0.42001894,-0.16294359,-0.03754448,0.16637745,-0.28499284,0.007130686,-0.03482932,-0.110548876,-0.29519445,-0.27505994,-0.15510672,-0.019829009,-0.021170147,0.33545196,-0.06863895,-0.31689692,0.35722667,-0.088484876,-0.05107519,-0.09842915,0.050360568,-0.10404825,-0.14751472,-0.004866562,0.05689765,0.0037474902,-0.14406367,-0.006414421,-0.14053085,-0.058826506,-0.033069253,0.05020041,0.09022501,-0.011660993,-0.04425819,0.09592515,-0.025937114,-0.105855815,0.02836053,-0.009867724,0.05323127,0.07724398,-0.05540365,0.0449267,-0.058877908,0.041480944,0.043632176,-0.08719675,-0.07995102,-0.005268361,-0.040253237,-0.06075617,-0.19159251,0.116091326,0.27918345,0.017690236,-0.15131614,-0.060654502,-0.118963346,0.020033099,-0.06346703,-0.052233815,-0.08530701,0.016943369,-0.14730628,-0.20540674,0.058384538,-0.18776047,0.077414945,-0.1266122,-0.08239166,0.04636418,-0.08893855,-0.011195179,-0.07509996,-0.02809161,-0.107502006,-0.09706182,0.2417253,-0.2544618,-0.20975208,0.10332284,-0.07373141,-0.08969154,-0.05001118,-0.011363916,0.059856504,0.10932969,-0.1058495,-0.047111176,-0.07549251,0.12549303,-0.042238016,-0.101755396,0.013228901,0.032549314,-0.0051371083,-0.080485575,0.08396241,0.11293241,0.14507282,0.007051071,0.004061945,-0.013528316,-0.05098076,-0.19197275,-0.07990367,-0.1163649,-0.039090693,-0.10642766,-0.05267121,0.0043659806,-0.1455012,-0.0015905565,-0.032450788,-0.15745758,0.085866876,-0.105234064,-0.007849981,0.14675878,0.03807031,-0.12236756,0.06814729,0.036891364,0.13034244,-0.18960702,-0.13041498,-0.13727376,-0.07053683,-0.10549507,-0.04870285,0.039525602,0.09771165,-0.0062143244,-0.1277359,-0.004046386,-0.10272519,-0.056667686,-0.050300043,-0.019501671,0.080290765,-0.05094395,-0.07434673,-0.14514388,-0.060713176,0.048497528,0.01734905,0.0022348105,-0.082863845,-0.062547736,-0.1681419,-0.07426655,0.0060449764,-0.31484807,0.054881997,-0.14253955,-0.24473664,-0.09493538,0.05211748,0.22551422,-0.12860148,-0.08066481,0.040193982,-0.0972918,-0.14453289,-0.101092994,-0.0445822,0.091718316,-0.061163317,-0.10692699,0.022533668,0.012429185,0.07683483,0.003433682,0.013293301,-0.016277442,-0.09800123,-0.029308375,-0.09816291,-0.0055888174,0.14929682,-0.03635606,-0.1232754,-0.07462246,-0.02037207,0.061930675,0.05532006,0.06543674,0.068600714,0.05114554,-0.059807137,0.08431616,0.022875028,-0.09053826,0.040818624,0.070363335,-0.11099715,0.09547675,0.01685385,-0.11722489,0.19477215,0.07176938,-0.017237086,0.058010735,0.055642024,-0.13229929,-0.04283143,-0.028346019,-0.18661574,0.09468276,-0.189893,-0.022450568,-0.07072246,0.017221808,-0.099167965,0.12956685,0.1407162,-0.0035657901,0.024570722,0.015041959,-0.056129053,-0.11847842,-0.057041675,0.062113713,-0.17105673,0.11683122,0.02727643,-0.16691282,0.19071755,0.018828819,0.05505161,0.0046439692,-0.016234174,-0.22207913,0.09394205,-0.0064668413,0.012082882,-0.018429406,-0.19051456,-0.04114935,-0.267909,0.07425727,-0.016439978,0.02524816,0.21276495,-0.014776097,-0.033221222,-0.012867302,-0.09087218,0.05140566,0.0024113506,0.0017103106,-0.01576273,0.14693053,0.04326894,0.007990055,0.06375436,0.055697627,0.13443527,0.12143871,-0.013615303,-0.054950863,0.047713727,-0.004803732,0.09434736,-0.02459467,-0.116676606,-0.037316408,-0.016750686,0.0028355345,0.034963433,-0.032226246,-0.08721298,0.036750045,-0.019195057,-0.013622068,0.07468367,-0.0843302,0.018861579,-0.10544486,-0.1486747,-0.08903727,-0.034755997,-0.13342631,-0.10917122,-0.14351328,0.005822785,-0.19964199,-0.14670303,0.08178632,-0.076365724,-0.10623516,-0.04011825,-0.018825063,0.043739345,0.108878024,-0.055612154,-0.10182273,0.035053313,-0.03573767,0.026587171,-0.047995165,-0.24838486,-0.18373762,-0.011710912,0.09070206,-0.0144513175,-0.026134681,-0.022039976,0.035502832,0.016707905,-0.0069577806,0.09672215,0.004538916,0.0484714,0.08470163,0.02401875,-0.052043438,0.0034648217,0.008319482,0.019751767,-0.090130955,0.095802315,-0.10827434,-0.05238574,0.106051244,-0.02160948,0.05754808,-0.05189961,-0.005036244,0.00033523887,0.012101069,0.034807388,-0.14286524,-0.061856452,-0.040714186,-0.08277087,-0.15684795,0.13694292,-0.051306747,0.06008475,0.20276801,-0.1265129,-0.09704733,-0.12833263,-0.04238201,-0.0034980588,-0.06946309,-0.0900763,-0.08342957,-0.15887707,0.08643682,0.13902372,0.032618243,-0.13929312,-0.052781787,-0.03208389,-0.045540065,-0.13727403,-0.0122002475,-0.0786778,-0.1581344,-0.15135984,-0.07401953,-0.07773954,0.14186502,-0.068500176,-0.0077370927,0.036065705,0.050362166,-0.0762418,0.066527374,-0.007150978,-0.084553845,0.033026427,-0.03387208,0.0108884815,-0.110618345,-0.018261578,-0.08966417,0.027310826,0.0049172565,0.019773394,-0.021694068,-0.06508824,0.08291231,-0.04198545,-0.055300873,-0.07348574,-0.09907438,0.041635767,0.05244559,0.0073095504,-0.024760468,0.06513979,0.060002856,0.11620567,-0.0055740923,-0.14309847,0.045839168,-0.08696501,0.087611064,-0.086822085,0.089965194,-0.064391874,-0.04621539,0.12782393,0.12277882,0.1461635,-0.07683268,-0.036546856,-0.011847515,0.04183593,-0.17622682,0.04042206,-0.008055855,0.08935647,-0.10601696,-0.056013558,-0.022730991,-0.1729478,-0.022021897,-0.098957576,0.012055716,-0.015190063,-0.049153194,0.0044962764,0.044738162,0.069687,-0.0474316,-0.07239878,0.027933395,0.020187551,-0.031408563,-0.0970874,-0.09621079,0.036630206,-0.052775994,-0.08530845,0.07586245,0.06324218,-0.02901242,-0.120671585,-0.03400173,-0.031367444,0.12227403,0.03469821,0.10407568,-0.12875648,-0.013519555,0.06881634,-0.27232185,-0.06531549,0.1072368,-0.044878997,0.0066684186,0.03534215,-0.21957144,-0.060405437,-0.011693858,-0.0040637627,0.013617583,-0.045208193,-0.10826624,-0.02352123,0.06057364,0.0012767501,0.076672554,-0.13401219,-0.09364991,-0.012516141,-0.10050656,0.020824403,-0.06147998,-0.0027122572,0.05436604,0.036726333,-0.0204271,0.0993345,0.047063276,0.017679987,0.09862377,-0.41454276,0.14662413,0.05571709,-0.025739707,0.030402211,0.06913775,-0.015202751,-0.19386077,-0.22494143,-0.1890671,0.04806921,0.00591626,-0.044739578,-0.22337756,-0.15273674,0.028438576,-0.34814465,-0.045384713,0.08308117,-0.115285784,-0.050887443,0.13987544,-0.031084375,-0.082209595,-0.008886769,-0.1836206,0.003912758,-0.0016227625,-0.14887977,0.03607459,0.056276385,-0.073186085,0.07232306,0.06759592,-0.038654387,0.10658225,-0.08942903,-0.03904255,-0.02190136,-0.037134532,0.23833528,0.049617607,-0.0068643615,0.014891496,-0.0823801,0.032546658,0.0029615927,-0.0015690513,0.020674132,0.022542834,0.012454894,0.015179373,-0.0077621806,-0.083577536,-0.040764675,0.02870718,0.06340535,-0.028106019,-0.026279256,0.09013445,0.06083029,0.11840326,-0.021639526,0.05814753,0.057663083,0.018168569,0.038761582,0.015636753,0.008895588,0.0589809,-0.06491791,-0.032515686,0.08974603,-0.020725332,0.018905975,-0.08538824,-0.19462317,-0.31887668,-0.14823169,-0.11723219,-0.1310465,-0.039478958,0.055827267,-0.17614281,0.15403202,0.0568329,-0.24331835,0.14948729,0.17340219,-0.10950355,0.06200999,-0.0431517,0.043918297,-0.067307435,-0.06754143,-0.024055503,0.03556918,-0.042050548,-0.05507386,-0.030641183,0.08005278,-0.10583343,-0.20564564,-0.096402735,-0.08284121,0.13539305,-0.15769865,-0.08729681,-0.122246094,0.12445481,0.15078959,-0.13439824,-0.025088385,0.06069781,0.05270444,-0.19914633,0.13884923,0.62463367,-0.09310126,-0.14385186,-0.112598985,-0.13766049,-0.15857413,-0.081293255,-0.059080638,-0.021984614,0.092886046,-0.0070650727,0.08142001,-0.07969194,-0.10438344,-0.12699598,-0.08670623,0.010699742,-0.10093492,-0.03942047,0.13269512,0.059804313,-0.039643362,0.00778572,0.022787578,-0.021414697,-0.117089584,-0.051144835,0.0035608336,-0.02180735,0.0070756413,0.31148267,-0.079246394,-0.26111883,0.14052476,-0.027701333,0.07375089,-0.10626084,-0.12657072,0.014764336,-0.0796046,0.021657653,-0.06509559,-0.17181236,-0.005951144,0.060805574,0.0039227232,-0.019036725,0.0046014283,0.036280423,0.028792216,-0.013232914,0.0036956444,-0.0040581636,-0.04269967,-0.05544545,0.07651735,-0.023315394,-0.028587945,-0.07661596,0.056088924,-0.089393124,0.033652764,0.059688814,-0.08646814,0.05888816,-0.10335944,-0.037199378,-0.012682602,0.05554899,0.003379427,-0.11524368,0.034324095,0.105641164,-0.05309066,0.067008704,-0.007827055,-0.00020693056,0.12024051,0.04696163,0.0615945,-0.030072868,0.035816103,-0.061937302,0.041411128,0.009468477,-0.017161705,0.008952942,-0.017456776,0.06378082,-0.09587788,-0.011939053,0.051376306,0.07449624,-0.0810851,-0.050072223,-0.065587305,0.03481751,0.012667082,-0.16496441,-0.023923894,0.049021926,-0.05415411,-0.011329403,0.18214272,-0.044791378,-0.0055600833,0.05033714,-0.09796743,0.10031534,-0.0051462217,-0.18279867,0.09644076,-0.031916488,-0.014350608,0.14099135,0.052945524,-0.105747074,-0.16819932,-0.025096599,0.060635276,-0.03409733,-0.025426418,-0.09894471,-0.05416546,0.027071422,-0.14368044,-0.013038069,-0.22279403,0.077740364,-0.14966355,-0.043880127,0.010306537,-0.066970915,-0.1494216,-0.38203645,-0.21077818,0.15374967,-0.09091798,0.07462411,-0.19286692,0.33127832,0.02596473,-0.11697553,-0.10892403,-0.0920435,-0.14055537,-0.14489646,-0.057505954,0.0038923174,0.05651079,-0.0016548925,-0.212923,0.64832616,-0.12362118,-0.03246553,-0.028618768,0.038124703,-0.017282112,-0.028334796,0.012597006,-0.03060171,0.04934841,-0.022696054,0.08117234,0.104789,0.00436111,-0.05763947,0.07113166,0.019624963,0.016161447,-0.0691252,-0.033458956,-0.018357992,0.030597938,-0.04954947,0.024026059,-0.017218757,0.016133945,0.007553622,0.013851171,-0.025932774,0.0013098763,-0.06499457,-0.03007249,0.011080848,-0.051259432,-0.12590641,-0.13780767,0.011931569,-0.038701765,-0.12067705,0.1201187,0.05969958,-0.023752712,-0.13660261,-0.03787642,-0.014322208,-0.21853617,-0.077792056,-0.32334954,-0.009227845,-0.18987855,-0.053931993,0.010648042,-0.16544034,-0.10231232,-0.05392975,0.054869916,-0.16036248,-0.18283653,0.034573603,-0.09041318,-0.10138495,-0.056422744,0.0074674785,0.094038114,0.0507084,-0.22544476,0.014064429,-0.026355686,-0.016558059,-0.03006045,0.038702726,0.023942143,-0.04391123,-0.080090314,0.04995525,0.07040266,-0.06918053,0.012313791,-0.0546697,-0.02647502,-0.056827158,-0.1304386,0.05970638,-0.019051218,-0.026409918,-0.09437328,0.20641209,-0.110817075,0.114220835,-0.14939468,-0.10689548,0.11907306,-0.48740685,-0.051130183,-0.031035637,-0.200005,-0.08511292,0.0005815122,-0.10592215,0.3925746,0.0028767288,-0.12039793,-0.028911822,-0.16769958,0.14017762,0.01485182,-0.061761938,-0.024385791,0.13060303,0.043701917,-0.12700579,0.04233721,-0.05465231,-0.061327085,0.0032754317,-0.039617863,0.050773494,-0.043357547,0.07731418,-0.13063125,-0.018357076,0.021669094,0.071016446,-0.04535687,0.06981824,-0.019387849,-0.12679003,0.06791592,-0.017089909,-0.0073671606,-0.031273633,-0.06155305,-0.037960783,-0.08736323,-0.009606093,0.17977005,0.038697865,-0.050258018,0.14409581,-0.01728083,0.045373425,-0.07768746,0.029185291,-0.05250703,-0.08715727,0.045621127,-0.062110253,-0.11692399,-0.042799316,-0.047947366,0.06456856,0.048180766,-0.14140178,0.03699152,-0.05901415,-0.03593042,0.13748293,-0.07340358,0.045067605,-0.068405636,-0.011087492,-0.086974934,0.033056706,-0.027402783,-0.103381924,-0.078158915,-0.04705398,0.017665207,0.017254826,-0.013429595,