4,144,1,3,3,-0.0113588385,0.12676205,0.024619192,0.04655865,0.5826431,-0.015178442,-0.066271394,-0.45675033,-0.0049461126,0.012613773,0.03579223,0.0018669963,0.05647582,0.46857554,0.06339407,-0.0021423697,0.062101692,0.0080809,0.048531055,0.06272149,0.064421296,0.14124507,-0.826032,0.019177929,0.003171116,-0.036735803,0.037314266,0.0037013441,-0.118176855,0.04927984,-0.05814314,1.1773622,-0.16885106,-0.021024257,-0.13704145,0.0451968,-0.11243197,-0.556124,-0.005322164,0.80160767,-0.34016025,-0.52245057,0.28341916,0.46907854,-0.16038139,-0.057740986,0.22134607,0.16759664,0.24663216,0.018148124,0.25353444,0.12409282,0.24596567,-0.06868672,0.014422864,0.22242814,0.005409971,0.04988168,0.43018678,0.07573819,-0.025172174,0.25793222,-0.00073465705,-0.033290066,0.13139781,-0.14185482,-0.24934351,0.69179535,-0.34983587,-0.027497157,0.15345407,-0.13469031,0.084361434,-0.04756236,0.17974345,0.083880246,-0.76151407,0.082797706,0.13555527,-0.004135981,0.051973373,-0.13936073,0.06186928,0.042010307,-0.79905456,0.7554479,-0.0543285,-0.26244566,0.28495318,0.018230438,-0.09938788,-0.08852798,-0.04631439,-0.34191722,0.78438413,-0.07852873,-0.15885901,0.103150725,-0.13413906,0.107695706,0.14335722,0.09570934,0.14327848,0.1577499,0.09640509,0.038549975,0.33988434,-0.039984163,0.031852406,0.31302747,0.018199712,-0.11950743,-0.71713704,-0.10574065,0.12005752,0.4356398,0.11873386,0.026073456,0.020225167,0.0063055754,0.053219825,0.5658641,0.031589746,-0.054208815,0.053782463,-0.047137506,-0.08192753,0.15801056,-0.035642974,0.1699177,0.0715819,0.1979051,-0.03599833,0.20477265,0.0264875,-0.18535987,-0.11777839,-0.18073067,0.0027801394,0.32387757,-0.012985766,-0.17657202,0.089423,-0.20724738,-0.047874153,0.010416806,-0.050931916,0.0484944,1.0343049,0.057313934,-0.03988895,-0.048874363,-0.068418935,0.0058252513,-0.051522523,0.012464464,0.01978308,0.7570321,-0.0025259852,0.037771925,-0.017599761,0.028362483,-0.04803863,0.20524722,-0.047483243,0.16306935,0.45639592,0.14947417,-0.020841174,0.1359214,0.0062151775,0.05257675,0.31240058,0.063166976,0.3100189,-1.0171412,0.2902475,0.16994725,0.24875289,0.09395978,-0.1809446,0.18186602,-0.18535054,-0.29210603,-0.12826109,-0.26287943,-0.14949459,0.18319707,-0.14135516,-0.11233502,0.025010325,-0.008684605,0.076984406,0.96840864,0.06357145,-0.04537992,-0.036071774,-0.11810373,0.1736007,0.046224922,0.22548006,0.32345593,-1.4960705,0.36315066,0.16503298,0.12980127,0.14872864,0.08337954,0.36229366,0.018084615,0.2948703,-1.3411007,0.36715075,0.04424408,0.29679668,0.05892554,0.017879367,0.2786978,-0.023771048,0.09419063,0.06434966,0.13813245,-0.062194616,0.28661248,-0.013359323,-0.12109262,-0.016504318,-0.1023461,-0.059194535,0.97592115,-0.044624258,-0.13258651,0.0013148785,-0.16301818,0.13709503,-0.097127944,0.08939407,0.5102868,-0.9588591,0.39534202,0.095477864,-0.1786704,0.08261478,-0.03245154,0.24668652,0.086154014,0.11342794,0.33535784,0.1704998,0.050138712,0.21002641,-0.03312861,-0.0134783685,0.1784059,-0.0852015,0.206051,0.4890113,0.1456353,-0.100512706,0.20391035,-0.029389903,-0.034039468,0.3749807,0.07615298,-0.45544052,-0.042274624,0.61064106,-0.085932225,-0.6066716,0.09240547,-0.5990035,0.05011338,0.5173578,0.031160615,0.08771417,-0.08232093,0.48517725,0.07921392,-0.5957469,-0.06925219,0.42440736,-0.06559408,0.59498227,0.14028895,-0.58614707,0.2645285,-0.4882943,-0.24222839,-0.24878338,0.13679683,-0.09454155,0.20856836,0.66043866,0.04098159,-0.1498482,-0.04133284,-0.14535272,0.07595606,-0.2264174,0.0029488802,-0.15780395,-0.29723617,-0.121022105,0.044287026,-0.115856804,0.117199875,-0.057636797,0.11290113,-0.032420963,0.12088174,-0.7358637,0.1321881,-0.062485278,0.14203596,-0.05454427,-0.260779,-0.03779161,0.2317965,-0.065957546,0.67815304,-0.26292527,0.24508013,-0.23951675,-0.16096199,0.22072087,0.5570551,0.25552663,-0.4714247,-1.0178583,-0.5930093,0.15633497,0.5721498,0.2167063,-0.12556085,-0.091052055,-0.07762493,-0.14743173,0.7956095,-0.21628259,-0.12962368,0.08244082,-0.1615724,-0.022079945,0.022564411,-0.06518406,0.05281938,0.464047,0.13367376,-0.087257564,0.1879367,-0.05435434,0.27149606,-0.37951222,0.07676309,-0.16331935,-0.84386665,0.6644633,-0.0631783,0.050949343,0.38353246,0.037729025,-0.17831904,0.027581468,-0.39990565,-0.6962566,-0.10464215,0.027772143,-0.098436385,0.03303823,-0.070663005,0.11008334,-0.078492224,0.20093718,0.3911776,0.22913548,-0.080051005,0.15701625,-0.09308075,0.101263665,0.39294747,0.08486563,-0.1541318,-0.66528225,-0.09817296,0.066772915,0.3299474,0.04564011,-0.011002883,0.06808059,-0.019377261,0.13758844,-0.75860155,0.058098897,-0.0022462606,0.07513037,0.008200198,0.0006003976,-0.13401622,-0.04313898,-0.16772532,-0.0672887,0.6378955,-0.05390312,-0.110079825,-0.077601634,0.08299762,0.29577777,0.047328144,0.22280017,-0.3967135,0.24122292,0.0647642,0.25152358,0.06325814,-0.09796738,-0.06933141,-0.014270812,0.1835928,0.9649433,0.17232567,0.012934625,-0.07547355,-0.1380429,0.04016441,-0.33201358,0.19770736,0.5766058,-1.1286026,0.495803,0.16533835,-0.37216085,0.016386747,0.07634431,-0.44562566,0.008394778,-0.37360054,1.0122907,-0.22680302,-0.028476536,-0.20016992,-0.08891348,0.28712118,0.1530897,0.16213094,0.1991902,-0.39037675,-0.101791695,0.22608799,-0.086387336,0.11558434,0.074900284,-0.023559034,0.016040802,-0.72902715,0.14855929,0.27845448,0.016754031,-0.02356793,0.042571366,-0.15037057,0.078373626,-0.005016029,0.3664003,0.34862354,0.038591743,-0.07427189,-0.013440222,-0.1273019,0.013296723,-0.5725862,-0.017806947,0.48487705,0.023938358,-0.61758786,0.026075661,0.63498867,0.004851559,1.1175871e-07,1.1920929e-07,1.4901161e-07,-7.450581e-09,0.0,1.6996637e-08,-5.9604645e-08,-2.9802322e-08,-3.7252903e-08,0.23309666,0.037793875,0.2833993,0.07252383,-0.7261012,0.053495765,0.24161014,-0.07118356,0.22918957,0.016331658,-0.14020367,-0.0057231784,-0.043073922,0.52507955,0.0073400736,0.10226838,0.081519365,0.07584869,-0.07838382,0.059957683,-0.083808556,0.08863044,-0.5703425,-0.067591846,-0.0139606595,0.06233132,-0.1112559,-0.047604963,-0.06285812,-0.067724414,-0.28890225,0.73113817,-0.23070735,-0.14606926,0.11218798,-0.16233113,0.36894014,0.0076393187,0.11439802,0.04604352,-0.9178316,0.09757358,0.10909349,0.05379069,0.37195185,0.14221281,-0.06647465,0.099197045,0.32988384,-0.7013933,0.14914262,0.1187353,-0.107103996,0.10511646,0.010035172,-0.14667468,0.06536186,-0.13622165,-0.26587844,-0.075868666,0.07057536,-0.14080504,0.11913012,-0.0017700195,-0.48165196,-0.13659304,0.043618917,0.50298965,0.16067088,-0.059984118,-0.07348263,-0.04333561,0.048991024,-0.12553664,0.021869957,-0.029790819,-0.8184557,-0.058820754,0.012906492,-0.07846731,0.043468714,0.0915301,-0.15179317,0.1132741,-0.17481966,-0.52213424,-0.16844101,0.13255468,-0.16874391,0.11753213,0.091658585,0.40672365,0.035438657,-0.14176469,-0.9087696,-0.07349811,0.080720305,0.45714003,0.10799675,-0.057662606,-0.094282515,-0.06437452,-0.20377018,0.011512876,-0.14890647,-0.06787436,-0.11079571,-0.073192924,-0.0186809,-0.11115354,0.17814034,-0.063372046,-0.7474042,0.78243643,0.076515675,-0.34889507,0.21467341,-0.06251392,0.3849676,-0.025541423,-0.008558154,0.6023164,-0.029586628,-0.046328545,-0.37300017,-0.006097555,-0.0001617074,-0.03177081,-0.034686297,0.00082439184,0.7114178,0.02978596,-0.063465744,0.062111214,-0.08968229,-0.059071124,-0.05950594,-0.049691737,0.12936443,0.08636893,0.046664745,0.09801425,0.3323824,0.021245174,-0.26880756,-0.05696574,0.24128675,-0.028895348,0.505974,-0.25114188,0.23585993,-0.22123662,-0.10079217,0.0,0.0,1.4901161e-08,0.0,3.7252903e-09,0.0,0.0,0.0,0.0,-0.048434198,-0.4937718,0.07780433,-0.6724242,0.088584155,0.6867159,-0.08852798,0.53901684,-0.112636864,-0.06357008,-0.19342637,-0.06956759,-0.12627622,-0.12575346,0.5938348,-0.04283017,-0.019409478,-0.002850473,-0.13411032,0.31857604,-0.108854264,0.47492975,-0.9530047,0.26634255,-0.12293255,0.34966207,-0.102208346,0.05185932,0.0532856,0.022951305,0.3085147,-0.7802911,0.308573,0.028691888,0.03341554,0.027381063,0.061449528,-0.19301312,0.044584334,-0.14955431,0.7921273,-0.10564268,0.0113437325,-0.06623423,0.007244096,-0.035099953,-0.15309197,0.011462651,-0.08161473,-0.037908614,-0.14107698,-0.01868391,-0.27228954,0.01063548,0.13584903,-0.2975264,-0.042261183,0.22561972,0.51507187,-0.2621321,-0.28705168,-0.08604169,0.28400627,0.06512201,0.08459617,-0.10520911,0.057413936,0.4894572,0.016840637,-0.08441064,0.13702875,0.059773922,-0.15005535,0.6606102,-0.16562758,0.16949287,-0.83240354,0.21969043,0.039695024,0.063841134,0.0045622624,0.46708453,0.00942412,-0.16890925,-0.22337276,0.34798026,-0.24603596,-0.17148976,0.014304768,0.45654005,-0.10926121,-0.34279594,-0.004006505,-0.2741326,1.066607,-0.33910728,-0.054236293,-0.3435672,-0.10138664,-0.07970771,0.34814143,-0.23450363,-0.36740634,0.24100327,0.15086132,0.298182,-0.52314687,0.14674345,0.030718692,0.16676712,0.060357314,0.16369654,0.35361236,0.19547778,0.03172283,0.15471101,0.068594396,-0.074110776,0.11293173,-0.029845595,0.13464056,0.2584972,0.10026583,-0.043568075,0.18149948,-0.020275652,-0.095697105,0.6510394,-0.02920577,-0.079615295,-0.12373459,-0.22991058,-0.03967774,-0.12288393,-0.07011882,0.16634108,-0.48051906,0.12785667,-0.39311093,0.93819827,-0.2702406,0.039731562,-0.18379587,0.03882904,-0.033433646,0.15942062,-0.018583387,0.023412662,0.46749735,0.043854803,-0.018834472,0.15882856,-0.00847852,-0.099963665,0.11569592,-0.1422959,0.015518069,1.1520888,-0.028000236,-0.07577941,0.008116335,-0.092141524,-0.295248,0.64431465,0.042111874,0.603974,0.36950204,-0.48452926,-0.0026611388,-0.68407977,-0.22233662,-0.080970526,0.11756716,0.14264165,0.2665171,-0.0561485,0.25509366,0.17229854,0.14188586,-0.086393386,0.011534423,-0.038289905,0.14523323,0.269327,-0.82358205,0.24235356,0.09089738,-0.04093966,0.037460566,0.20427786,0.1832521,0.21021833,0.04311556,-1.170611,0.023148982,0.17060605,0.20451546,0.20703915,0.12523821,-0.011872649,0.38371733,0.06501729,-0.88296795,0.074145325,0.38803554,0.03760177,0.15034012,-0.23253092,-0.08682561,-0.060930848,0.016306967,0.98644775,-0.08699989,-0.06379363,-0.12854892,-0.16766793,-0.05754052,0.71842015,-0.2520535,-0.25908536,0.15459311,-0.19421446,-0.2064189,0.7255225,-0.09709379,0.122769594,-0.19251151,-0.061296813,-0.35047054,-0.66699356,-0.1585412,0.17448375,0.7782321,0.33627287,0.32160598,-0.15047568,-0.35191715,-0.11492261,0.7659562,-0.17095637,-0.3801704,-0.12833917,0.2674228,0.063079126,-0.06615246,-0.067028165,-0.27131686,-0.8231616,-0.1391893,0.16418934,0.83978045,0.30856067,-0.124168634,-0.1521256,0.025847763,0.2734626,0.51940054,0.035379767,-0.15111884,-0.3384554,-0.05753815,0.32287726,-0.12492722,0.31512633,-0.072916985,-1.1495702,-0.066818744,0.30090916,-0.03264375,0.30759007,0.1339126,-0.2539533,-0.09367329,-0.36261874,-0.61903083,-0.062253654,0.1512382,0.78563493,0.30205855,-0.21125247,0.061518654,0.49731767,-0.20928967,0.30986047,-0.22250119,0.47788844,-0.04846631,-0.19992858,-0.01725778,0.46482444,-0.21171036,-0.39636853,0.46527857,0.50225675,-0.19934118,-0.59404397,-0.00034487247,0.20294218,-0.28854057,-0.02771604,0.021428108,0.5552298,-0.34067878,-0.26179954,-0.07831776,0.28809822,-0.076839685,0.3191868,0.09539371,-0.38215923,0.3549822,-0.046949085,-0.21713875,0.21520525,-0.06702057,-0.015567422,0.06477928,-0.10162687,0.040884733,1.0752778,0.068184644,-0.16285384,0.015921775,-0.051639732,0.044221163,0.08625982,-0.04952353,0.07019375,0.7962676,0.12763911,-0.026258782,0.076412596,0.0029697865,-0.14879352,-0.35723716,-0.14759296,-0.0774596,1.2192086,-0.112525396,-0.2115021,-0.3047645,-0.19161038,0.07801153,0.6899501,0.026825603,-0.02439329,-0.69384515,-0.02305922,0.024381518,-0.14824241,0.06920028,0.025540262,0.26808918,0.012533762,0.1513885,0.34449306,0.115962625,7.751584e-05,0.21942675,-0.002701223,0.038167693,0.5067973,0.055741668,-0.5844404,-0.0017636418,0.7556394,-0.02873584,-0.88297325,0.113446906,0.089228734,-0.50377643,0.10527837,-0.4452358,1.9557986,-0.49583426,0.064189404,-0.57816696,0.07320302,-0.122398116,0.1794871,-0.08188622,-0.1838963,0.55480325,-0.1742298,-0.09733036,0.11716765,-0.073623896,-0.053302757,-0.106642805,-0.057320356,0.15734223,0.55348337,0.17010348,-0.10318631,-0.25684726,-0.11593488,0.10442116,0.24612986,-0.06851189,0.26040062,0.1876353,0.28229305,-0.067104995,0.24825329,0.12395418,0.12229782,-0.17921951,0.14507173,-0.17449045,0.52058625,-0.05925036,0.12101269,-0.06446999,0.122451276,0.040846825,-0.07489559,0.07603687,-0.11445022,-0.5581874,-0.010414323,0.08144963,-0.08036047,0.0753054,-0.06367612,0.58946776,-0.0167306,-0.5584881,0.08251351,0.70853674,-0.11208159,-0.73868567,0.04741296,-0.11200233,-0.14739047,-0.0038276315,-0.15762946,-0.057519794,-0.24490662,-0.018080115,-0.2344855,-0.121649384,-0.012317181,0.07966322,-0.048047364,0.39760318,-0.9836793,0.47138962,-0.17030255,0.28424114,-0.084267735,-0.0038699508,-0.14133674,-0.18654585,0.7449805,-0.15344179,0.6897713,-0.22905979,-0.18527144,-0.018358976,-0.08754337,-0.29901809,-0.065859795,-0.3546538,0.57639533,-0.3910488,-0.05002731,-0.3679564,-0.042193163,0.14044213,0.0588558,0.13886642,0.30861044,-1.0663499,0.3679909,0.20614082,0.114636235,0.10975492,0.049669176,-0.122244835,0.054584235,-0.16900635,-0.39327094,-0.1214385,0.060141027,-0.077319026,0.082392946,0.04605496,0.45830563,0.1665012,0.16262676,0.10220957,-0.24497819,-0.19985557,-0.5135736,-0.08873971,-0.028622866,0.018342495,-0.036460012,0.12285917,0.51189303,0.08607721,-0.028398871,0.07336569,-0.018774807,-0.03681141,-0.106913,-0.113349974,-0.101555154,-0.15377969,-0.46740165,-0.0905927,-0.091030255,-0.07115166,-0.023126006,-0.20395875,0.05954337,-0.21154949,-0.3161044,-0.11566234,0.06702381,-0.090368465,0.020461487,0.10969338,-0.31512815,0.005140096,-0.31855834,0.8838165,-0.18130124,-0.01969567,-0.24180275,-0.011407934,-0.05891711,-0.15023537,0.019843608,-0.071339786,0.72268885,-0.08560836,0.010509521,-0.15277195,-0.061538786,-0.004593432,0.3763357,-0.22977075,0.31118026,-0.96954614,0.3697336,-0.2681297,0.38000998,-0.013051003,-0.048320293,0.11369082,-0.052453756,0.07648198,0.47827405,0.07644647,-0.032212455,0.11895403,-0.0019951016,0.009930562,0.21243483,-0.0345788,0.5792184,0.068398714,-0.5231119,0.28461695,-0.45105457,-0.16041303,-0.12507185,-0.38317317,-0.09190002,0.14462638,-0.15790802,-0.3885656,0.23971936,0.58362806,0.166543,0.09281838,-0.11585665,0.106583685,0.3084086,-0.853455,0.46531636,0.07590388,-0.18724316,0.14403865,-0.043762207,-0.54060745,0.012258805,-0.5926686,-0.09694433,-0.663714,-0.050917566,-0.51526713,0.05986854,0.18630797,0.14414343,0.19876307,-0.020176113,-0.8632256,0.074995756,0.19729032,0.18172401,0.12640202,-0.015532851,0.031506002,0.019510448,0.13871032,0.43170863,0.17758907,0.019034442,-0.026892215,0.022723228,0.008517474,-0.2489559,0.019458964,-0.17582223,0.6097764,-0.010546451,-0.042502373,0.0760704,0.11282888,-0.10084608,-0.021492302,-0.13897339,-0.16044384,0.7361144,-0.123895764,-0.13327762,0.015095986,-0.1340189,0.24043298,0.6995205,0.22942783,-0.31917965,-0.86464256,-0.16121662,0.087706566,0.080425926,-0.023130834,-0.028386503,0.3500075,0.037299037,-0.042384773,-0.8693532,-0.11810991,0.06739795,0.49471715,0.105307326
