4,144,6,1,1,0.0036051422,-0.033594508,0.034166098,-0.033312008,0.03979577,-0.052943245,-0.0101453215,0.11416796,-0.056390315,0.083272174,-0.08612558,0.1684915,0.0015514493,-0.03674075,0.059568897,-0.03743106,0.04052651,-0.05581545,-0.013012171,-0.17114756,-0.105297625,-0.017921478,0.0036885291,-0.1254366,-0.0111720115,-0.043917198,-0.050476193,-0.037537813,-0.16253601,-0.15076363,-0.06747249,-0.43824986,-0.15424734,-0.29666895,0.0013063252,-0.36777493,-0.050920896,0.065374315,-0.03342357,-0.2585795,-0.15094413,-0.04944373,0.0039185584,-0.08902074,0.018956318,-0.006971252,-0.005606182,-0.043633252,-0.048224993,-0.018544452,0.110088125,-0.04371501,-0.27417442,-0.13270198,-0.003654033,0.02091249,-0.019828731,0.011911631,-0.050631374,0.03348241,-0.019628495,0.012688967,-0.06661312,-0.14549835,-0.05597897,-0.120192,-0.001240842,-0.06688482,0.0064413697,0.025261521,0.07573947,-0.008692179,-0.0037694126,-0.03403992,-0.04009624,-0.037248317,-0.028714556,-0.040050477,0.00064240396,0.030664258,0.01621002,0.029740218,0.008808129,0.09540135,-0.001621291,-0.038839176,-0.01778178,-0.011028726,-0.019435734,-0.047126576,-0.0021136515,-0.030737162,0.038689118,0.062237054,0.062127262,-0.053517252,-0.0071048676,-0.056012407,-0.08873999,0.12564115,-0.012921173,-0.16617401,-0.00052782893,0.007918417,-0.09333101,-0.044583768,-0.011874355,0.056582555,0.010799766,0.081970215,0.107783005,0.24365729,0.081656046,0.18615028,-0.0006054044,-0.031934276,-0.0053590536,-0.008753136,0.023698788,-0.028249085,-0.010451131,-0.039362,-0.02081736,-0.064534895,-0.10818324,-0.07885314,-0.0010054186,-0.0018105209,-0.0005634725,0.01369836,-0.029448714,-0.017102756,0.0069323964,-0.010927323,0.019735534,0.06396065,0.060675457,0.033173967,-0.001401376,-0.0009380132,-0.009228691,-0.02253969,-0.0110785365,-0.01933828,-0.0034787133,-0.009057671,-0.0044660196,-0.04968963,0.006761804,-0.043972675,-0.0032594167,-0.047230825,-0.0028037652,-0.014793828,0.059689224,-0.035332397,-0.0056473613,-0.029860288,-0.04513305,-0.039708987,-0.025094654,-0.04540609,-0.018846191,-0.18281776,-0.036416445,-0.18817443,-0.013467729,-0.19360653,0.00043331832,0.007937068,0.005577039,0.027919441,-0.045587935,0.013696045,-0.0034221038,-0.029206194,0.058510497,0.0028809905,-0.069441244,-0.054989528,0.0007921457,-0.019644588,-0.017714746,-0.009711221,-0.0035169423,-0.025026472,0.007900469,0.098387405,0.060580693,0.04679914,0.17208526,0.32470638,0.0026458204,-0.0036378615,0.029261887,0.009101607,0.07068433,0.009270877,-0.019668207,-0.18305805,-0.038490545,-0.14577274,-0.07026801,-0.19486783,0.0012920275,0.0026783198,0.0067142695,0.03076841,-0.012316428,-0.023855463,-0.0011812598,0.012305707,-0.038947374,0.034642667,-0.030571576,0.013606131,0.00065804645,-0.00976526,0.00470452,-0.024124704,-0.0113672875,-0.05208105,-0.005839413,0.018335283,-0.0064128786,-0.009646773,-0.09890942,-0.017439201,-0.0032532327,-0.013837177,-0.018121574,-0.004284218,-0.006098181,-0.024331603,-0.009397373,-0.07241945,0.01759445,0.060253203,-0.195233,-0.05870943,0.0012098812,-0.0106118545,-0.0021322072,-0.031822864,-0.0015506446,-0.016776096,0.0019561425,-0.03721744,-0.048428357,-0.0127055645,0.14849627,0.04605816,-0.005936995,-0.060578417,0.004104674,0.02709651,0.011864074,0.010688525,-0.11570883,-0.033414334,-0.51080453,-0.11815864,-0.36361077,-0.19501147,-0.0071302503,0.059247628,0.019320495,0.03981193,-0.058543634,0.03972947,-0.012754865,-0.05027815,0.022298709,-0.018020555,-0.16022983,-0.11766575,0.002467379,-0.10157203,-0.016108949,0.044852108,0.10802377,0.091609366,-0.015811592,-0.13673967,-0.08314771,-0.3902803,-0.061120845,-0.2943106,0.0037050769,0.009275869,0.025957244,0.005740136,0.045718797,0.022775635,-0.030483559,-0.018205985,0.11938032,-0.021460649,-0.092154354,-0.090836614,-0.0032284572,0.0018076748,-0.0037142336,-0.016678391,-0.0011115521,-0.0025478676,-0.001460813,0.00250078,-0.04108659,0.04586132,0.021107621,0.027610362,-0.00020125508,-0.031148948,-0.003821209,-0.019454964,0.046502337,-0.012837887,0.024491593,-0.09983497,0.15519626,-0.07980372,0.06495119,-0.07680323,-0.0057451054,-0.020838346,-0.032509506,-0.05108574,-0.019920304,-0.0470393,-0.0048168264,-0.0062098056,-0.035089567,-0.034743972,0.0023604631,-0.031142667,-0.01239901,-0.027788192,0.06627032,-0.07249497,0.028085805,-0.08517429,0.0035603344,-0.11335562,0.018537238,0.046810217,0.076214924,-0.042152554,-0.016073301,-0.14066559,-0.10186313,-0.037053637,-0.05837809,-0.23584333,-0.0036018193,-0.022194639,0.010158071,0.015548281,0.005972024,-0.014278151,0.00030207634,-0.014673483,0.006134644,0.051437333,0.027899742,-0.03165765,-0.0052987486,-0.033865392,-0.03854485,-0.028279968,-0.01828906,-0.045440093,-0.0026894882,-0.02091863,-0.01137206,-0.011862953,0.048866965,-0.01241263,-0.0028800964,-0.035713747,-0.021880172,0.02326915,0.030624293,-0.040456906,-0.003238283,0.0064040944,-0.025604174,-0.006247515,0.028263688,0.0021404624,0.0010898188,-0.09644102,0.04203555,0.012009077,0.08307331,-0.08908783,0.009579055,-0.015639894,-0.0010701269,0.06472494,0.10712361,0.018370315,-0.052899394,0.086273,-0.22284038,-0.1331935,-0.22847028,-0.05056204,-0.0102116205,-0.093237124,-0.022230163,-0.15989642,-0.07024701,0.07661924,0.0004222244,-0.06645322,0.052100644,0.016871326,-0.061803907,-0.06900777,0.0073048184,0.005009204,-0.015985623,-0.13749044,-0.0077116787,-0.06573354,-0.001302883,-0.0601703,-0.024414696,0.016796965,-0.00094783306,-0.06471467,-0.011743784,-0.14669184,-0.0042615533,-0.047831614,0.11963901,-0.10441665,0.0019315667,-0.0020284206,-0.011150166,-0.026753262,0.024613589,-0.012210868,-0.004757203,-0.023597037,-0.024618737,-0.009581938,-0.033877842,-0.061747745,-0.008155277,-0.028398708,-0.0232616,-0.09033114,-0.06115393,-0.08117005,-0.001703918,0.00218679,-0.0038370937,0.011514384,0.0055549666,0.0010515191,-0.0030150749,0.0073805675,-0.01322896,-0.026568249,0.014298044,-0.0039058328,0.0019296855,0.008570146,0.008185188,0.101712875,0.021922931,0.055772185,-0.00283885,-0.0020356514,-0.04576592,-0.038894296,-0.0807296,-0.008614473,0.036625408,-0.020297725,0.07941804,-0.21935022,-0.05756657,-0.20729254,0.01256302,-0.0296014,0.0422469,-0.13087267,0.021644011,-0.0648576,-0.005161258,-0.09213655,0.12677065,0.08166013,-0.07429253,-0.2030415,-0.00011007488,-0.008291371,-0.0020201802,0.009859771,-0.0011052936,-0.017137468,-0.013556123,-0.05325491,0.13236475,0.35617226,-0.10669241,-0.32974106,0.00019310415,-0.020873219,0.018183995,0.077731855,0.079991,0.00013302267,-0.0017250553,-0.004909843,-0.04486336,-0.054937005,-0.01496774,-0.020067416,-0.017778084,-0.0056087,0.096370816,0.10072799,-0.19384274,-0.04932765,-0.0025231093,0.039442733,-0.003400106,0.03608511,0.017299838,0.043715555,-0.0010018572,-0.01922556,0.0052149,0.005046442,-0.019221574,-0.021708451,0.0112507865,0.015288113,0.11575297,0.0263018,0.053814523,-0.019897155,-0.0033319592,-0.029327892,-0.011429749,-0.019515395,-0.007860314,-0.031961724,-0.0026268028,-0.06543429,0.05930552,0.072567105,0.11734824,-0.07784331,-0.009474397,0.011600878,-0.17579271,-0.27296215,-0.13603331,-0.09924885,-0.0009563267,-0.13722864,-0.06116262,-0.054977566,0.07719642,-0.10574553,0.001457803,-0.005272135,-0.0042816624,-0.09589194,-0.04196441,-0.033324003,-0.001285106,-0.0512529,0.04996679,0.05146128,-0.098288015,-0.21466048,-0.0135206,-0.061664216,-0.09641136,-0.5513528,0.17736706,-0.15448849,0.004674576,-0.10900004,0.10795018,0.08098719,0.080230705,-0.091937765,0.003206253,-0.0026240945,0.0106764585,0.08074647,0.06749932,0.043341354,-0.0033067018,-0.012346178,0.004766971,0.05407928,0.017615415,-0.021039214,0.040873,-0.08495315,0.38466203,-0.031311978,0.029546618,-0.026862249,0.024619203,-0.017935123,0.20178968,-0.31884468,-0.043727122,-0.18253466,0.0008334145,-0.08366427,0.04900941,0.016882988,0.01610148,-0.093049616,-0.0018884167,-0.013421208,0.00087863207,-0.006250888,-0.008586334,-0.01782237,-0.0036733653,-0.010757178,0.0062030144,0.055346847,0.010055825,-0.040952686,0.0019376874,-0.08940828,0.03876482,-0.049241662,0.07104256,-0.06824912,-0.00061279535,0.008845001,0.009787582,0.09072073,0.08967433,0.007510461,-0.0075074434,-0.05380714,-0.014697224,-0.075920634,0.0025204793,-0.10956026,0.021565333,0.13018408,0.04771704,-0.16895942,0.23245473,0.118414626,-0.014598891,-0.028899752,0.011895511,0.09421105,-0.104469076,0.0032939203,-0.0073040924,0.024784556,-0.008552104,0.04460202,0.017299563,0.021343905,-0.0045805424,-0.037641186,-0.0104970485,-0.016008355,-0.015945338,-0.061580792,0.00020296499,-0.019121021,0.01263031,0.011049699,-0.0019314438,-0.014391124,-0.004136443,-0.04720645,-0.07973205,-0.034794148,-0.090360075,-0.0406958,-0.007871866,-0.017212868,-0.062373377,0.019709408,0.06395389,0.017886221,-0.02098354,-0.0432188,-0.02204208,-0.12389719,-0.17515248,-0.1824491,-0.005017951,0.012399748,-0.06393705,-0.030101009,-0.09665311,0.025555909,-0.018464439,-0.16645077,-0.05191544,0.06839463,0.004195839,-0.19076851,-0.006430194,0.008154973,0.0015423931,0.03370888,-0.014153264,-0.004894793,-0.0064846873,-0.010021042,-0.018614784,-0.022274777,-0.026524916,-0.024656594,-0.00047443807,-0.013088867,-0.010662489,-0.004747778,-0.018549196,-0.046225935,0.0013554841,0.040974036,-0.030413643,0.13084196,0.0076529607,0.104815304,0.009601876,-0.003770426,0.015765563,0.039745037,0.09025396,0.022135183,-0.0038439631,0.15054323,-0.0144805685,-0.099936545,-0.17193832,0.045681685,0.00010250509,-0.021507196,-0.02419348,-0.062266476,0.038160056,-0.0179732,-0.05929971,-0.07701066,-0.26588076,0.115684584,0.1298013,0.024774514,0.003488712,0.023394376,-0.01903595,0.013113239,0.03888862,0.00824333,-0.008700823,0.0030448884,-0.044131897,-0.03033477,-0.01450745,-0.014098719,-0.003293097,-0.028886633,0.055422843,0.08210634,0.055598576,0.0145140365,-0.0016749278,-0.00042578578,-0.0018952042,-0.029751908,-0.0059111267,-0.007254716,-0.00075938646,-0.0056099556,0.010217935,0.013374567,0.012928203,-0.0075097233,0.002130285,-0.02501079,1.8724706e-05,0.052225977,0.03152176,-0.05808978,0.0013597012,0.033209756,-0.008571669,-0.033655226,0.06824629,-0.02667556,-0.008378759,0.052430347,-0.04138934,0.08364525,-0.04135357,0.07885344,0.012233816,0.027623564,0.095943555,0.2017694,0.03502384,0.041346885,-0.0054485053,-0.03363541,-0.04249291,-0.2203801,0.12484754,0.0061859637,-0.0023453087,0.008359656,-0.010499708,0.029037397,0.036766022,-0.0020474792,-0.0031532422,-0.0040925145,-0.0070691034,-0.040130384,-0.035066217,-0.04865349,0.0043386444,-0.10065123,-0.03718333,-0.12101587,0.007309716,-0.17364892,-0.0421541,0.0652054,-0.2195584,0.068898655,0.14352076,0.16505209,-0.0038883984,-0.008128576,-0.016428202,0.010849483,-0.03561233,-0.02185595,-0.03605183,0.049789175,-0.09363976,-0.36529705,-0.34367204,-0.0044405013,-0.005198844,0.015911281,-0.031806976,-0.0011581406,0.0010421909,0.002410084
