4,16,32,1,1,-0.070049286,0.010476321,0.13031572,-0.39153725,0.18534133,-0.5593982,-0.117915355,-0.08058356,0.08241749,-0.15949428,-0.011658728,0.61665344,-0.016444996,0.018780708,0.2428619,-0.07367545,-0.82782173,0.07782274,0.26819387,0.6881617,-0.17407508,0.15466219,0.0055291057,-0.11869778,-0.91143644,0.43575257,0.56505626,-0.38364315,-5.90086e-06,0.41721046,-0.10715516,0.59609026,-0.06889346,0.06715689,0.056664944,-0.50144964,-0.21314721,0.108291835,-0.2372832,-0.58393484,-1.5183978,1.3802757,0.15014347,-0.2816651,-0.20874304,0.7478311,0.069747016,0.13310066,0.091840014,0.15413521,0.00242877,-0.15298076,-0.4054761,2.224168,0.6563905,-0.04365295,0.15727174,0.38116,-0.36343044,0.02154985,2.4810433e-05,0.012159826,-0.49561805,0.007254012,-0.64844155,0.26632068,0.012663901,0.17693995,-0.7455266,0.9531804,0.05107236,0.16057663,0.05397244,1.5441257,-0.07183844,0.94376695,0.016216666,-0.013227671,-0.057094127,-1.1957242,-0.0045247525,0.08656058,0.25871328,1.0228223,0.36125842,-0.10818657,-0.09183924,0.5031225,0.59866226,-0.4396278,0.34947032,-0.4733749,5.173683e-05,-0.09334332,0.25753373,0.13438042,0.055009946,0.9230176,0.5401912,0.15838167,-0.8265198,-0.05552166,0.29612562,0.20310177,-0.019830376,-0.07377249,0.1451952,0.21477047,0.10646489,0.071696326,0.31209385,0.5697047,0.41427594,0.19202739,-0.05573705,0.078190476,0.75430006,-0.05617246,0.3482794,0.6008558,-0.63778955,0.75759554,0.08826703,0.3521616,2.4214387e-06,0.19786976,0.6365323,-0.29403138,-0.28210315,0.16315779,0.31634143,-0.16234146,-0.25826547,-0.67056245,0.06618236,-0.1982071,0.56115973,0.04218176,0.36170387,0.30641904,-0.1829215,-0.11482762,-0.02762121,-0.113904715,-0.09143084,0.26178962,-0.48104918,0.41634429,-0.32475686,0.42143357,0.053539563,-0.42243266,-0.34814727,-0.36990178,-0.47642004,-0.42288104,1.579523e-05,-0.87330943,0.031708196,-0.6282161,0.15946151,0.33673626,0.095069855,0.28534845,0.08151499,0.4569835,-0.42134732,-0.31612688,1.0742093,-0.13951951,0.29095545,0.22966534,-0.13034886,-0.24941021,-0.3457073,0.36509952,-0.2138279,0.5633591,-0.10727318,0.020854995,-0.19614984,0.38900962,0.19813775,-0.07844586,0.19370781,0.49593472,0.73661953,0.42177722,8.660555e-05,-0.1577782,-0.4833352,0.032510657,0.024748921,-0.090891674,-0.11548213,0.46015525,-0.045554414,-0.15691994,0.1405473,0.46680796,-0.42457938,-1.4435487,1.090925,0.28246605,1.5080293,0.7182865,-0.15905619,-0.1314122,-0.09571581,1.7507079,-0.05268058,0.17042804,0.071632236,0.16462465,-0.62239045,-0.06371864,0.0034130812,-0.48465544,0.3800857,-0.005847022,-5.77569e-05,0.016229525,0.34922096,0.039873958,-0.06440983,-0.2798041,-0.1627716,-0.08583313,-0.35734215,0.24906376,0.11854899,-0.022062177,0.28367653,-0.019262865,0.077882044,-0.7141124,-0.034553654,-0.04603225,0.030547468,-0.7549618,-0.40675002,0.22053868,0.6670399,-0.46013367,0.4261525,0.1701493,-0.32218885,0.29276398,0.38195038,1.1608638,-0.43388784,-0.41539198,-0.00010937452,-0.6199706,-0.03999132,-0.011415482,0.12196344,-0.21393082,-0.2804717,-0.106554165,-0.21049345,0.5590617,-0.27429733,0.053958356,0.0025402904,-0.18801565,0.09510094,-0.25164935,0.008346755,0.04603815,0.29929906,-0.05951356,-0.31374353,0.03150934,-0.20744908,-0.48886162,0.049693525,0.017537206,0.3878411,0.23233117,-0.6329951,-0.7278805,0.43701655,0.42829388,-4.887581e-05,-1.0350212,0.017904878,0.35813883,-0.03426218,0.71425855,1.1724317,-0.23264298,-0.25624517,-0.20724054,-0.17255259,0.0036913157,0.053861294,0.060510054,-0.052444555,-0.60159665,-0.08462052,-0.03162408,-0.15107068,-0.17172787,-0.21112597,-0.054950356,-0.64682686,-0.6100287,-0.22052231,-0.0017167628,-0.057294793,-0.026144862,0.57569665,-0.2965922,0.17251867,-0.05265835,9.346008e-05,0.51992613,0.1671451,0.48824915,-0.273617,0.3953649,0.69122195,0.31008986,0.8507583,1.4821086,-0.049112856,-0.09246115,-0.3842005,-0.9414258,-0.015848413,-0.25315753,0.03617829,0.09974168,0.1486253,-0.7085808,-0.5496052,-0.21849298,-0.06188783,-0.1605832,-0.28961498,0.0198012,-0.23520368,-0.6685658,-0.7306802,0.38098255,0.23731291,-0.22584039,4.8339367e-05,0.16858038,-0.14469777,-0.8743469,0.19018295,-0.01836133,-0.16666724,0.77005446,-0.2837254,-0.16466314,0.17228034,-0.73825634,-0.7529426,-1.3679148,-0.20035289,0.30625203,-1.2199183,-0.074716285,-0.16031659,0.019055977,-0.16911808,-1.1616348,-0.014989436,0.18475775,0.81744325,1.275785,-0.79432315,0.016453266,0.09174213,-0.47660238,0.73586905,0.0038253665,-1.00284815e-05,-0.028059285,0.49393305,0.135693,-0.048267066,0.34698266,0.20054707,-0.08580463,0.26811284,-0.6188155,-0.07031518,0.16861568,-0.59874576,0.051981956,-0.35667014,0.47552615,0.14904284,0.07884967,-0.24592894,0.1768218,-0.31101084,-0.33880454,-0.038739793,0.49292898,0.056222353,-0.42563182,0.1160267,-0.14990541,0.71311307,0.66620576,0.18383256,0.16447276,3.838539e-05,-1.1943489,0.22851016,-0.04791923,-0.0039718635,0.63205713,0.2441465,0.28814748,0.33370775,0.0020681918,0.25373942,-0.07679482,-0.014195412,-0.0038385242,-0.06336272,-0.103478044,0.068289325,0.0081335455,0.109897055,0.002716221,0.92930543,0.061287463,0.3956818,-0.074875034,-0.35491353,-0.020520687,-0.16512603,-0.25078827,-0.5304464,-0.2285772,-0.27400813,-0.9166264,5.452335e-05,-0.7174101,-0.050034165,0.6436723,0.031485826,0.07133316,0.17949332,-1.3111181,0.23538403,0.6685525,0.543696,-0.14688072,-0.024790801,-1.8483368,0.07493895,0.3268618,-0.15275663,-0.060572013,-0.18621945,-0.42583123,0.3661107,-0.1500078,0.18635863,0.31145775,-0.026632458,0.08698673,1.2822331,-0.17840236,0.21639119,0.04645309,-0.6901135,-0.02561441,-5.914271e-05,-0.08447376,0.25576717,0.39909682,-0.20577922,-0.22477567,0.17028098,0.0055330843,0.12880518,0.03541343,-0.2744467,-0.09911784,0.04230538,-0.052333146,-0.14402723,0.2815269,-0.045138896,-0.0057010893,0.17829221,-0.7694786,0.7222205,0.010995477,-0.6653704,0.3659016,0.18734182,0.13991073,-0.28238928,-0.3176214,-0.06632972,0.38773423,-0.48756936,1.2341162,-2.965331e-05,0.02692052,-0.17278185,0.35380402
