4,240,10,1,1,-0.0011058003,0.064522475,-0.15937015,-0.016306102,-0.04411587,-0.11997606,-0.014088325,-0.0014243647,-0.0232974,-0.15892844,0.0050616562,0.010292463,0.009586886,0.013833165,0.017647348,0.008023538,0.0123036355,0.017416924,-0.009319986,0.00088584423,-0.021418758,-0.059715122,-0.1185928,0.036359623,-0.018462792,-0.10916263,-0.030943125,-0.13515885,-0.021875845,-0.1528292,0.00069440156,0.008674152,-0.012012731,-0.0010016896,0.0022714585,-0.009246003,-0.00915583,0.0015499145,0.0017021596,0.0059542954,-0.0075496854,-0.018971488,-0.03051423,-0.03570448,-0.05768268,-0.02854456,-0.027674973,-0.022665098,-0.017505333,-0.057249464,0.001957789,-0.04055187,-0.018212035,-0.090170935,-0.01818467,-0.0183856,-0.04584537,-0.018222097,0.0015351381,-0.051259093,0.008542746,0.02297794,-0.062306702,-0.02319803,-0.06424244,-0.0031770277,-0.004295215,0.027742332,-0.014901175,-0.033392,-0.0013947263,0.010097701,-0.004745951,-0.0017357916,-0.0050922334,0.0043790787,0.008410569,0.0087329615,-0.0036100745,-0.016948447,-0.004184939,-0.016427062,-0.020280898,-0.006883447,-0.018185362,-0.01722204,-0.00447876,-0.025938466,-0.015123107,-0.02720621,-0.0045570284,-0.017149836,-0.022797178,-0.016702205,-0.010625303,-0.015339643,-0.019852646,-0.023906931,-0.012601182,-0.018448945,-0.0146124065,-0.0442784,-0.032791376,0.033083487,-0.06407874,-0.07309126,-0.08473833,-0.019268513,-0.0360772,0.05488375,-0.035299994,-0.12110766,-0.06575016,-0.04082493,-0.14394519,-0.0933967,-0.079741485,-0.17722243,-0.06897808,-0.12879924,-0.002351549,-0.004301846,-0.008404925,-0.010453867,-0.0065513626,0.00014279038,-0.016300185,-0.009163842,-0.011804434,0.024818141,0.0010227449,0.10028559,-0.19236124,-0.09889144,-0.00451928,-0.18587792,-0.019601002,-0.034956627,-0.025917508,-0.076144286,0.0044387244,-0.049076594,0.002888903,-0.020054197,0.014299996,0.0046128817,0.0035530478,-0.039716247,-0.006092202,0.003543064,-0.029075138,0.055063397,0.0794061,-0.13978691,-0.38050056,-0.031946987,-0.33914447,-0.20180038,0.030939788,-0.2695067,-0.0004119575,-0.0034086248,-0.01929532,-0.0084275715,-0.00022506714,-0.010992605,-0.00032422692,-0.003074944,-0.0037807077,-0.0046035796,-0.0037588477,-0.021457195,-0.0071109906,0.00010818243,0.00083426386,0.005794106,-0.00015738793,-0.021608153,-0.003397037,-0.0019416945,0.019758731,-0.02818501,0.08581106,0.03713113,-0.035406165,-0.010230701,-0.08990211,-0.047113016,0.029347084,-0.012944296,-0.012522761,0.002533555,0.02175734,0.0650063,-0.0994829,-0.052082166,0.022590399,-0.03379879,-0.033003047,-0.048807744,-0.008692957,-0.043963343,-0.030787222,0.03388535,-0.02555744,-0.02872372,-0.05292987,-0.04661125,-0.033459663,-0.023406632,-0.00048477203,-0.003892839,-0.012090817,-0.0014285017,-0.008855343,-0.009816714,-0.0023597702,0.00591971,-0.010257378,-0.015618181,0.007230237,-0.011463575,0.037194777,-0.057970837,0.030113524,0.08161925,0.042255357,0.039577052,0.0060457233,0.029941183,-0.0074515864,0.07086282,-0.082249805,-0.013682902,-0.0041297227,-0.119884014,0.17746769,-0.046770133,0.020138577,-0.029275432,0.0019663395,-0.005013451,-0.013975881,-0.008398671,-0.00090374146,0.0037503373,-0.0053174947,0.012140721,-0.005523725,-0.015855469,0.0026615486,-0.0092280805,-0.1711505,-0.18813671,-0.04772757,-0.13330543,-0.09731451,-0.09628687,-0.0013667829,-0.03610457,-0.0017348379,-4.927069e-05,-0.0014560819,0.0036419686,0.014607333,-0.0034781322,0.012286305,-0.0064074546,-0.0010849871,0.009119004,0.004505843,0.03372237,-0.0087164305,-0.006190121,0.022798587,-0.00066800695,0.015387215,0.030626088,0.014681277,-0.003271848,-0.008012466,0.068446316,-0.14635088,-0.07993651,-0.09378539,-0.06381258,-0.011515595,0.03208124,-0.04146798,-0.18426663,0.005322613,0.012878617,0.0597608,-0.036327586,-0.04285355,-0.0010705888,-0.101180375,0.018152647,-0.004669428,-0.1211435,-0.019009657,-0.017656865,-0.13575687,-0.24185678,-0.007880151,-0.055475872,-0.08294355,-0.09217407,-0.013249461,-0.035873063,-0.012952849,-0.03700995,-0.08602373,-0.082396224,-0.09411656,-0.069035634,-0.04963923,-0.085231155,-0.03025528,-0.07956407,-0.004310757,0.02544295,-0.05544527,0.022079341,-0.030012943,-0.04530868,0.013441905,-0.00080726296,-0.019432325,-0.02733218,0.005860105,0.018858839,-0.00857576,-0.018172912,-0.02841326,-0.078383714,0.026197504,-0.0147931725,0.007824056,-0.012567084,-0.0063104182,0.01689373,-0.037429377,0.046047933,-0.05589796,-0.0999266,0.033628542,0.006235957,-0.04011975,-0.124271184,-0.015307128,-0.056678887,-0.076269135,0.027488485,-0.125499,-0.068850085,-0.058675133,-0.15991862,-0.025129765,-0.28152508,0.007269047,0.107825644,-0.18532959,-0.11557774,-0.11345401,-0.20479937,-0.054320544,-0.065957405,-0.05324702,0.059690423,0.001760006,-0.0008616075,-0.012171917,-0.017379075,0.011188045,0.01090163,0.014753012,0.006965041,0.006503407,0.023683742,-0.0009886473,0.00044229627,-0.017168172,-0.013001688,-0.0018228199,-0.025720045,-0.009545482,-0.0038237125,-0.004944697,-0.06672789,0.0022469237,0.0056664795,-0.008470885,-0.019357244,0.012059398,0.0009541672,0.008354772,0.012475425,0.006473154,0.0047177635,0.014541313,0.104924306,0.06552342,0.04743755,0.011121742,-0.06465215,0.0036377702,0.05518399,0.06563512,0.097630024,-0.016236857,-0.037597746,-0.060145006,-0.06508219,-0.11898697,-0.06074112,-0.08362126,-0.08172363,-0.026790626,-0.101222426,0.0022013783,-0.042292506,-0.054491162,-0.065862946,-0.052349646,-0.05658882,-0.09369336,-0.055952035,-0.0040271506,-0.051781446,0.023370937,0.12090154,0.074463174,0.09995518,0.2872615,0.07790348,0.08907125,0.20536181,0.08153039,0.17188963,-0.004911065,0.07409573,-0.011111826,-0.012637542,0.03571567,0.031249784,-0.008648348,0.06578627,0.059968807,-0.05723135,-0.04092961,-0.31807888,-0.12654655,0.0191607,0.14263381,0.1347799,-0.02679199,-0.24405779,-0.13452177,0.024397552,0.0031507611,-0.009315118,-0.056339364,-0.0056885257,-0.00697154,-0.027083997,-0.008025308,-0.0019533336,-0.02081187,0.004795745,-0.014827702,-0.06585116,-0.09787845,-0.039729744,-0.0629914,-0.049748845,-0.07056117,-0.06911517,-0.026878517,-0.0506717,-0.010157594,-0.056743145,-0.071205765,-0.019841142,-0.055068288,-0.05497937,-0.064775065,-0.05407484,-0.04518905,-0.04828489,-0.0011404827,0.016123183,-0.0804182,-0.08958016,0.029233709,-0.031271607,-0.0051838756,-0.00827387,-0.0035287216,-0.007245511,-0.008600285,-0.029934227,0.03022447,-0.05264464,-0.030679494,0.062931255,0.04144963,-0.013249569,-0.0036807768,-0.025362648,0.014848113,0.06591221,0.06450787,0.016307715,-0.06847604,-0.015403889,0.007590987,0.052435357,-0.029082954,-0.06643537,-0.0395296,-0.014208503,-0.1231246,-0.20850892,-0.16977587,-0.1477016,-0.15333746,-0.11908366,-0.056374565,-0.07871805,-0.010232173,-0.023451472,-0.06252938,0.0077083446,-0.022735454,-0.061959296,-0.017190032,-0.054376274,-0.03603401,-0.025120623,-0.0017763244,0.01687107,-0.019104369,-0.011862442,-0.008451469,-0.022265293,-0.0057218894,0.0025314912,-0.0032788813,-0.018120125,0.00499288,-0.0143972635,-0.03578451,-0.02708802,-0.027026102,-0.012337029,-0.029106185,-0.0033522248,-0.0133716315,-0.0033059232,-0.015285535,-0.04425072,-0.044167407,-0.012839124,-0.086551495,-0.04897432,-0.028752673,-0.058352187,-0.04565322,-0.064315625,-0.024690472,-0.16621742,0.021224774,-0.09592506,-0.004247397,0.101208456,-0.023516137,-0.12121728,-0.013955101,0.08000789,-0.010523155,-0.036081925,-0.02987783,-0.010092609,-0.03529253,-0.016228586,-0.01646981,-0.034704432,-0.02099578,-0.049390897,-0.0014006426,0.03713662,-0.131697,0.025131032,-0.01458668,-0.11723397,0.037468284,0.0030562952,0.01043722,-0.040297523,-0.0065375194,-0.037289713,0.0043246523,0.056766942,0.014743414,0.0071306955,0.04860685,-0.046598345,-0.012746111,0.020101115,8.34018e-05,0.106856525,-0.1596209,-0.2045874,-0.20114988,-0.2417328,-0.06767809,-0.02121254,-0.0010933727,-0.059040636,-0.09762404,-0.34759763,-0.0056129843,0.2770396,-0.20999661,-0.117185995,0.0035151988,-0.30796194,-0.20664181,-0.10722166,-0.015656143,0.054306947,-0.23670988,-0.17811358,-0.111836284,-0.19401099,0.010817021,-0.031305026,-0.0068875793,-0.05831702,-0.0025576353,-0.06076102,-0.04612853,-0.05061451,0.020542845,-0.02438573,-0.06722604,-0.027602673,-0.043650705,0.04905343,-0.0059520975,0.020871202,-0.121831805,-0.028979782,-0.027684584,-0.07514687,0.03115477,-0.06253945,-0.037638754,0.0014412012,-0.004196601,-0.061051536,-0.029856846,0.0817916,0.012447428,-0.04178869,0.014611375,-0.046101134,-0.028102797,0.019448332,-0.011439817,-0.076049104,-0.027666472,0.027098998,0.044662304,0.02457022,0.016557323,-0.044929035,-0.012323663,0.0062531345,-0.0038591102,-0.010219887,-0.010565542,-0.008262318,-0.011644512,-0.014833108,-0.0025759873,-0.010521457,-0.006874889,-0.014935874,0.0041891495,0.031221874,-0.10551062,-0.022888944,-0.033042744,-0.062560394,0.02603335,0.008270559,-0.026187556,0.026225844,-0.0048402697,-0.04282725,-0.0057971925,0.00043682754,0.0687511,-0.0067233816,0.016997911,-0.035764728,-0.013488114,-0.0028537028,-0.004216697,0.00097001344,-0.012663949,-0.03217964,-0.010385171,-0.03942477,0.012367681,0.011863589,-0.0067236796,-0.035297886,-0.005004443,-0.112524964,0.07702445,0.032956824,-0.08923638,0.091969065,-0.04279496,0.016973428,-0.0065817544,0.012803778,0.0075526386,0.051660374,0.026770921,0.010460123,0.033814017,0.0007044375,0.022130132,0.039914936,0.0075431094,-0.029470421,-0.027544204,-0.10560725,-0.1042511,-0.14344624,-0.20013407,-0.07255717,-0.15269604,-0.1821159,-0.085578375,-0.15095486,-0.010473795,-0.07113947,-0.06651657,-0.053607494,-0.079808064,-0.02553621,-0.069282405,-0.11628304,-0.029791579,-0.023271417,-0.01625748,-0.09256755,-0.12278539,-0.09466582,-0.061246924,-0.07696051,-0.05664469,-0.10797691,-0.045089647,-0.07332739,0.013227103,0.16184306,-0.06825237,-0.34760803,-0.074323595,0.048170492,-0.10679156,0.13868572,0.08405945,0.20670654,-0.0071535036,-0.039937213,-0.015686497,-0.08586269,-0.0076828934,-0.0025896728,-0.04569621,-0.054292083,-0.0056165904,-0.04089403,-0.010508092,-0.10436847,0.04894199,-0.008274052,-0.1075331,0.020584226,-0.15198201,-0.06237589,-0.018683653,-0.07045987,-0.0118135065,-0.020067811,-0.14944775,-0.07952244,-0.09279228,-0.1329822,-0.027101569,-0.047603637,-0.043054536,-0.06692976,0.023014985,0.060359687,0.06823793,-0.05163719,0.09111512,0.029771104,0.0045267045,0.089162126,0.062948816,0.0008750316,0.01544851,0.050273113,0.0923577,0.056502804,0.061559618,0.07623529,0.05440537,0.11995321,0.04946336,-0.04495301,-0.0020739809,-0.018667646,-0.013687745,-0.016610406,-0.0029489696,-0.008278291,-0.012448445,-0.021206426,-0.0044087395,-0.017727174,0.007551644,0.026828125,0.018164992,0.0015147962,0.015026163,-0.00035550445,0.004842013,0.02577415,0.006986607,0.018329076,-0.02183055,-0.067463264,-0.17042866,-0.13644868,-0.07678293,-0.12294536,-0.097150795,-0.05945869,0.024629027,-0.15165251,-0.01624737,0.0037812516,-0.08221024,-0.1155911,-0.066152744,-0.18175885,-0.07292266,-0.10335849,-0.0022513047,-0.12235243,-0.0068829022,-0.030439682,-0.048858263,-0.11586809,-0.070493184,-0.03223627,-0.11109074,-0.081034094,-0.032674585,-0.07995447,-0.008157689,0.005351424,-0.14943893,-0.06989792,-0.16910814,-0.078052014,-0.06576804,-0.08204837,-0.06962819,-0.14086436,-0.008139443,-0.17289752,-0.098696545,0.124854416,0.13913745,0.14856988,0.017555969,-0.00040822476,-0.0132113155,-0.016306415,-0.0006294474,-0.018737756,-0.026812062,-0.042736813,0.004419446,0.0047035916,-0.01814657,0.0030349046,-0.0054748207,-0.053636316,0.005042687,0.0057112006,0.12765397,-0.06662187,0.10759222,0.17861441,0.0051762834,0.08752355,0.039266884,0.04881218,0.011534197,0.27396134,-0.21435289,-0.0015989915,-0.19326341,-0.27714896,0.02658768,-0.01337038,-0.0075907484,-0.23870207,-0.015544342,-0.05126872,-0.03972271,-0.041449733,-0.17896003,-0.06825581,-0.12251678,-0.076256484,-0.040703386,-0.07850985,0.027696773,0.07552769,0.09754663,0.044724293,0.048095338,0.083220854,0.087663785,0.07942906,0.04481666,0.028853402,0.00035344064,0.011912717,-0.01192297,0.0013136566,-0.0039096773,-0.027195137,0.0025201193,-0.0015019961,-0.0069684163,-0.035796866,-0.022014081,0.06538077,-0.106507644,0.05401758,-0.30939972,-0.15888008,0.0037675053,-0.084090285,-0.038822565,-0.2539058,-0.020657213,-0.08324059,-0.04507486,0.024073713,-0.09495011,0.012146935,-0.055067968,-0.097471625,-0.069592744,-0.1793046,-0.012319904,0.02585581,-0.087004155,-0.13873889,-0.059368476,-0.19744346,-0.116337836,-0.06527512,0.04755695,-0.014609367,-0.008606854,0.04807239,-0.16037546,0.016036004,0.012519959,-0.078168005,0.040370837,-0.010164544,-0.013423234,-0.09925509,0.0018724147,0.0042503066,-0.013300054,-0.010287344,-0.024762265,-0.01786676,-0.02266362,-0.009570748,0.000381805,-0.0030862568,0.002723068,0.030141579,-0.03970427,-0.014667809,0.013804425,-0.038817793,0.0159221,0.007191494,-0.00244987,-0.00501132,-0.0014204755,-0.01591079,-0.016882826,0.011767594,-0.0043375045,-0.00977245,-0.00037118793,-0.005685158,-0.013277327,-0.014467673,-0.015012778,-0.045120116,0.02667132,0.21831097,-0.017927155,0.11910645,0.057698995,-0.02875613,-0.0029774867,0.030828685,0.00811366,-0.07254976,0.072722495,0.18739192,0.000618808,-0.004832059,-0.023780212,0.023514135,0.0053096805,0.025536269,-0.0043962486,-0.016120926,-0.008221049,-0.017443497,-0.015365618,-0.0012423685,-0.009070714,-0.009922147,-0.0040099323,-0.015715405,-0.033063777,-0.19686736,0.038664114,0.050336476,-0.1350173,-0.051684625,-0.22102457,-0.22074811,-0.076433435,-0.12591814,-0.01506342,-0.050255083,-0.147247,-0.03041469,-0.10667149,-0.13411221,-0.09458208,-0.12051864,-0.053449765,-0.112173714,0.0031537814,0.0025037304,-0.026317395,-0.052474193,-0.009414606,0.0033748262,-0.030744292,0.0038877353,0.0006761849,-0.043315247,0.022455951,0.0029491968,0.014597902,-0.043861385,-0.054600924,-0.010888815,-0.004727587,0.07518625,-0.008186407,-0.09250879,-0.005337745,-0.025301613,-0.027234104,-0.0055932216,-0.025882266,0.025883898,0.0048958827,0.0057246387,-0.01708372,-0.05359812,-0.0024727583,-0.038144648,-0.028071556,-0.025802415,-0.022666743,-0.011593863,-0.013681389,-0.024749786,-0.026906192,-0.048396837,0.008020226,0.0882927,-0.07691705,0.031816904,-0.019579925,-0.14268972,0.010878592,0.019694481,-0.046397142,-0.07565103,-0.032028973,-0.14807421,-0.025316758,0.0048552305,-0.024744228,-0.07632326,-0.100712754,-0.12390627,-0.022945639,0.00078844465,0.0037057288,-0.05206625,-0.017470926,0.00076108426,-0.036542434,-0.047922656,-0.019408485,-0.08456968,-0.027114347,-0.0054215416,-0.012300849,-0.0043859035,-0.03413205,0.06561026,0.0069348663,-0.023744281,0.032352474,-0.023764309,-0.010314941,0.0258739,-0.013204523,-0.040016882,-0.03528925,-0.01655154,-0.053550415,-0.027905144,-0.022292703,-0.057163868,-0.025899231,-0.025828894,6.6019595e-05,0.023977794,-0.025575556,-0.0018223971,-0.047456294,-0.05739084,0.017546684,-0.009680435,-0.023578878,-0.076728135,-0.0028863102,-0.0019415878,-0.03386722,-0.022286147,-0.00488922,-0.014829526,-0.011977731,-0.010698916,-0.0024968982,-0.012180828,0.0013329163,0.007268101,-0.017310033,-0.008375511,0.0036582872,-0.015341021,-0.0010506548,-2.8794631e-05,-0.004944116,-0.001736559,-0.0078105275,-0.020986341,-0.025889067,-0.031224914,-0.06751075,-0.039675668,-0.0146164745,-0.042271513,-0.025922224,-0.06444527,-0.004959069,0.0006781295,-0.06183796,0.013727084,0.011716854,-0.08874746,0.013119094,-0.04356304,-0.0074805915,-0.014830254,-0.02074048,0.0061679482,-0.0006004423,-0.00049962103,-0.014676683,-0.032093145,-0.0029555485,-0.004826851,-0.02865617,-0.031898834,0.002947349,0.029027224,0.009186935,0.0030845404,-0.0081933495,-0.006362699,-0.07493184,-0.0144637115,0.022599224,0.047183663,-0.003707245,0.0020487737,-0.07793031,-0.118070476,-0.05906968,-0.044874415,-0.101336405,-0.060815133,0.0023019537,-0.020498276,0.026560498,-0.064365275,0.19283372,-0.10869738,0.064793155,0.14296064,-0.021899268,0.061870202,0.029195353,-0.106534034,-0.011753861,0.00817167,-0.0007736981,-0.019192643,-0.05307757,0.035651393,-0.005576849,0.034825213,-0.0040466934,-0.040181495,-0.034645222,-0.08600743,-0.11016464,-0.017284546,-0.08617188,-0.039887384,-0.049446803,-0.11570428,-0.07973399,-0.10416007,-0.019522682,-0.0895623,-0.12624696,-0.03944362,-0.069008514,-0.05918558,-0.050450236,-0.084465414,-0.04325751,-0.073507994,-0.0032395497,-0.005728501,0.04385362,-0.047853343,-0.029162392,-0.007656019,-0.0033808732,0.012947813,0.0149322925,-0.01871173,-0.00029378664,-0.08204836,0.03706681,0.009368959,-0.058721147,0.068490244,-0.10196112,-0.092742465,-0.09915605,0.06633268,-0.0017902278,-0.019252822,-0.03204997,-0.0021595918,0.010698043,-0.04437375,0.070157446,-0.030993976,-0.02976406,-0.03261487,0.0031507313,0.0031776652,-0.010714918,-0.018099219,0.007322667,0.004575018,0.013304504,0.007711768,0.006816961,-0.01807466,0.007664092,0.03246749,0.0308128,0.016879093,0.085553855,0.059303354,0.085409045,0.12845315,0.011793804,-0.02881433,0.015231743,0.029928673,0.018001221,-0.009172738,-0.037317216,0.00027592666,0.001333639,-0.0145105235,0.009549072,-0.06596804,-0.00238581,-0.014218092,-0.021994524,-0.02952691,-0.011702567,-0.03232427,-0.023196988,-0.03239965,-0.012674009,-0.03031893,-0.026794955,0.12348823,-0.16412991,0.05979979,-0.17177776,0.05296632,0.012261987,-0.076735824,-0.027159633,-0.20834664,0.008033596,0.011991243,-0.009492936,-0.044999786,0.03369547,0.023615979,0.0069127306,0.038450494,0.008991264,0.00028596818,-0.0079576485,-0.029334148,-0.031618774,-0.019086398,-0.031098805,-0.029178023,-0.010879628,-0.032129835,-0.009650871,-0.0085403025,-0.01967151,-0.1748839,-0.25264347,-0.07663664,0.10247037,-0.05357761,-0.12113756,-0.081648916,-0.052502364,-0.033112198,-0.040888604,-0.17350927,0.19088283,-0.13334239,-0.19329116,0.11154459,-0.34178054,-0.12871766,-0.031718716,-0.014949396,-0.017952297,-0.12935391,-0.10334885,-0.03498972,-0.01511772,-0.01258412,-0.073526815,-0.058731824,-0.01885274,0.030176029,0.0351523,0.06752571,-0.027408287,-0.37253857,0.23576915,0.09761463,-0.024243629,0.19159742,0.06886624,0.23419328,-0.023620788,-0.06794977,-0.31644297,-0.07567851,0.033179466,-0.042019807,0.015059844,-0.07031809,-0.036803424,0.06873114,-0.016460285,-0.015370827,0.08132152,-0.013820894,0.015094563,0.032205764,0.089552164,0.06205964,-0.037576817,-0.05419462,-0.012145095,0.035004,0.055203255,-0.18931144,0.15974547,0.21149188,0.09611311,0.117576376,0.103890225,0.0016694926,-0.0029771328,-0.010388546,-0.010199299,-0.010530658,-0.013755392,-0.014918882,-0.0040595364,-0.023640532,-0.005382523,-0.015812524,-0.033448488,-0.08994098,-0.13642988,-0.19307786,-0.109136224,-0.033223063,-0.093236916,-0.06320301,-0.097494744,-0.29617307,-0.0031856447,-0.012709513,-0.025357924,-0.0110042915,-0.013804384,-0.017960012,-0.011428423,-0.01604174,-0.00708165,-0.015472323,-0.01660034,-0.031165594,-0.088434994,-0.01945816,-0.06206578,-0.07454124,0.007901784,-0.027032888,-0.046641767,-0.10436259,0.014869124,0.011324011,0.02091029,-0.09699261,0.05329109,0.08796014,0.024628505,0.059507005,0.05922494,-0.030283194,-0.020602494,0.064118735,-0.062377334,0.041785598,-0.096480146,-0.162357,-0.031970702,0.013789684,-0.09160805,-0.009433389,-0.010512564,-0.0066820085,-0.059496526,-0.025942884,-0.04317847,-0.060323577,-0.025894247,-0.02843117,-0.02102537,-0.06068767,-0.0031803623,-0.01784221,-0.025718685,-0.004292302,-0.01967413,-0.033385027,-0.012610249,-0.023121186,-0.009391254,-0.0039454885,0.011147814,0.028734844,-0.016723441,-0.16515039,-0.056805745,-0.06853955,-0.057834953,0.012281381,0.007931862,-0.112525195,0.010803942,0.00044865906,-0.007577831,-0.040635653,-0.013890825,-0.009531267,-0.03578013,-0.045032367,0.01653795,-0.0023039132,0.010950917,0.07133107,-0.018807173,-0.01482562,-0.1383144,-0.06018585,-0.07690652,0.13281284,-0.024042748,0.24367896,-0.0029995516,-0.0020958441,-0.0048401803,0.0049303337,0.0152388625,-0.025403926,0.046492003,-0.013225481,0.005089581,0.033486575,-0.026913367,-0.21517819,-0.0156899,-0.06825361,-0.036538,0.1024289,-0.096209146,-0.15701018,-0.03913474,0.071606636,-0.0033521987,0.008006223,-0.015099291,0.0025306866,-0.01284416,-0.028748706,-0.011726782,-0.014000438,-0.006567523,-0.014997676,-0.030980544,-0.06543392,-0.057751387,-0.029474389,-0.03211929,-0.075824335,0.014546134,-0.08513589,-0.05753743,-0.15452844,-0.002043046,-0.003371328,-0.042721286,-0.023864323,-0.012119755,-0.031056754,-0.007760994,-0.02345632,-0.008037066,-0.005232442,-0.019105375,0.0020772628,0.022022158,-0.049364462,-0.0833285,-0.038542144,-0.027181372,-0.103112355,-0.032259114,-0.02818887,-0.02617167,0.06541097,-0.112278834,-0.17524408,-0.17327137,-0.09087125,-0.2093732,-0.12134551,-0.08926721,-0.02711089,0.023196459,0.04336702,0.030926898,-0.013722513,0.08344418,0.07069138,0.028317064,0.08798008,0.033278584,0.020194635,-0.0027879477,-0.05280177,0.023384899,0.018786088,-0.022198198,-0.018219009,0.003927732,-0.01974377,-0.002292119,-0.004919164,-0.009151794,-0.043553457,-0.017660946,-0.033899322,-0.022846937,-0.016753368,-0.019461595,-0.032616176,-0.024022259,-0.04933679,0.0006467998,0.0024386048,-0.010860477,-0.016114235,-8.08835e-05,-0.012025894,-0.007457637,0.0052954666,-0.0014323387,-0.007478781,-0.008039697,-0.016380385,-0.016498955,-0.030034997,-0.07152713,-0.065323785,-0.06749608,-0.05384734,-0.027910516,-0.022071525,-0.007313393,0.01549539,-0.009901408,0.028422162,-0.040400483,0.0058410317,0.002786016,-0.021893982,-0.009791285,-0.07122942,-0.009534953,-0.059519652,-0.037360735,-0.0022649243,0.008283174,-0.015495695,-0.018475167,-0.051531967,-0.028066497,-0.01123587,-0.0010514408,-0.0052585676,-0.012944907,-0.003642343,-0.0027054064,-0.0014905594,0.0020139366,-0.0071958005,-0.0019116178,-0.0037124828,-0.014340018,-0.023156822,-0.08606661,-0.023941955,-0.035766363,-0.049338356,-0.014890417,-0.057000373,-0.030600451,-0.08056335,-0.003471084,-0.011954382,-0.016189925,0.0036961362,-0.018461946,-0.020846896,-0.007913584,-0.014159486,-0.016727978,-0.03456665,-0.0056446567,0.03706486,-0.0840014,-0.03534916,-0.008864693,-0.040267617,0.05120578,0.0058391057,-0.04687409,-0.019231677,-0.0029494613,-0.011275694,-0.03515214,-0.005335465,-0.0027359426,-0.009447053,0.0075188503,-0.033578068,-0.009510273,-0.007000126,0.003108034,0.03635551,-0.0107178325,-0.013116688,0.0364341,-0.007017309,0.02039095,0.029078756,0.01777143,0.012559487,-0.023276433,-0.05816737,-0.07974032,0.14940047,0.005603373,-0.102660626,-0.03808906,-0.06420998,-0.01063925,-0.064927325,0.0030606277,0.008508597,0.006112583,-0.01896593,-0.00049936026,-0.006564267,-0.00976669,0.009186178,0.0023709908,0.0010392927,-0.0022762436,-0.012094364,-0.011861745,0.01219321,-0.009168363,-0.012510356,0.002656065,-0.010578325,-0.008374854,-0.012106027,-0.002328217,-0.004041777,-0.03409768,-0.043337733,-0.0032059625,-0.028235484,-0.0032455549,-0.010022694,-0.002561341,-0.016132038,-0.061468612,-0.2609025,-0.03322714,-0.14222111,-0.15821081,0.024589859,-0.21117651,-0.10071318,-0.046662584,-0.07935838,0.028867137,0.1265716,-0.09024938,-0.12454978,0.09937198,-0.22099572,-0.014879009,-0.007924728,0.06621863,-0.08297545,-0.010965727,-0.030956749,-0.053443424,0.006507069,-0.06299155,-0.08019245,-0.025246054,-0.07487489,-0.029529626,-0.06629572,-0.005572766,-0.042263288,-0.06463701,-0.092453934,-0.06929479,-0.061326496,-0.08617946,-0.06615457,-0.03177108,-0.041682526,-0.020200625,0.028513953,-0.26632988,-0.2301601,-0.1631709,-0.17283227,-0.098134205,0.0032340512,-0.053662978,-0.0537019,-0.0085233,0.025692351,-0.13091166,-0.05195421,-0.0634106,-0.07800552,-0.023280583,-0.032476388,-0.016713958,-0.14761278,0.008868761,-0.05430226,0.049574867,-0.12965183,0.09212184,0.13363987,-0.023057241,0.116090834,0.054274343,0.09223946,-0.0014177561,-0.04019208,-0.030975536,-0.058300234,-0.019610807,-0.00959532,-0.03955922,-0.03337106,-0.0072769895,-0.03734764,-0.0043442734,-0.006107837,-0.0018517785,0.0024087355,0.0027727187,0.0005427599,0.0037489384,-0.010985855,-0.001999855,0.006142361,0.014834739,0.10336551,-0.10896014,0.03247681,-0.00888744,-0.021606386,-0.020253897,0.03208363,0.0068129525,0.0048444085,0.0021742955,-0.011001848,0.013788509,-0.0015953779,0.0042404234,0.012892712,-0.0048143417,0.014779784,0.0052747317,0.012064122,-0.0005854517,-0.011297523,-0.04406889,-0.0020332038,0.0062084347,-0.010536991,0.002768585,-0.008814065,-0.01751823,0.022522345,0.058840718,0.005655311,0.28038093,0.21146315,0.29940456,0.09595441,0.09039054,0.13022622,0.0671876,0.36389613,-0.00074766576,0.0027647004,-0.012387801,-0.00048306584,0.0110011175,-0.013024487,0.0040602237,0.0010926761,-0.0013102219,-0.007621905,-0.02398612,0.02658026,-0.29537925,-0.07364376,-0.085794926,-0.12119746,0.053532798,-0.19469726,-0.055138446,-0.10317572,-0.009272324,-0.042278267,-0.093556024,-0.03430858,-0.07389271,-0.08623802,-0.018468812,-0.09844926,-0.040113315,-0.0692551,-0.00042091496,-0.0076797837,0.03435354,0.0065777004,-0.0033342652,-0.029189248,-0.017405786,-0.013455709,0.012533739,-0.023944877,-0.018359382,-0.039501417,-0.14232984,-0.13739271,-0.109908484,-0.04716335,-0.025970861,-0.041010663,-0.06860124,-0.014555678,-0.008394577,-0.009177305,-0.026291378,-0.036522795,-0.108849876,-0.07326153,-0.0401986,-0.039861716,-0.040229842,-0.05998667,-0.01114366,-0.009858184,0.0017259866,-0.0025189668,0.0039917068,0.048528522,0.00443602,0.03881854,-0.0047082826,-0.034466643,-0.017769888,0.10363288,-0.4899269,0.048561573,-0.079614066,-0.3168025,0.16720901,-0.20477776,-0.0392977,-0.07059339,-0.054946244,-0.1692604,-0.10157772,-0.004270613,-0.1510518,-0.05977591,-0.11115549,-0.17574134,-0.12148146,-0.22425653,0.0027662367,0.033826664,-0.030932562,-0.008859478,0.01510051,-0.0078011826,0.017829385,0.022212021,0.007500708,-0.020225126,0.0003104359,0.000941135,-0.013542943,5.8069825e-05,-0.0052187815,0.008422166,0.0036356822,0.021046162,-0.011720564,-0.02394603,-0.010554358,-0.05533847,-0.044353217,-0.08048828,-0.090160996,-0.009603135,-0.07709174,-0.036834754,-0.050620344,-0.15006351,-0.0047294423,-0.025234953,-0.020573243,-0.0035362467,-0.018486552,3.9562583e-05,0.0011756383,-0.016938817,-0.01791862,-0.027371861,-0.013813172,-0.086212136,-0.070191436,0.0030019614,-0.08694417,-0.04410217,-0.051055584,-0.0990183,-0.040463746,-0.033444367,-0.01808852,-0.045547,-0.03480096,0.025626704,-0.0178368,-0.03802246,-0.0072233565,-0.08996445,-0.028411333,-0.0018455363,0.0010834718,0.010194447,-0.022554882,-0.023493288,0.011566073,-0.0146561265,-0.013617709,0.002207242,0.0009356141,-0.009808049,-0.01465809,0.010026637,-0.050732624,-0.12987117,-0.15989807,-0.14630333,-0.11879651,-0.10118537,-0.02526555,-0.12083319,-0.00018016249,-0.023961253,0.008918789,-0.054359026,-0.054359473,-0.004623443,-0.07181546,-0.030050877,0.001300606,-0.001626119,-0.0022165664,-0.019811198,-0.0075679272,-0.0039441288,-0.018872678,-0.0017962083,-0.010847241,-0.025179977,-0.006895572,-0.0052495804,-0.031066135,-0.046631332,-0.15018064,-0.029096939,-0.10219187,-0.12352906,-0.08522112,-0.13637905,-0.045721732,-0.08480457,0.00023298245,0.0052908026,-0.0046297275,-0.005448984,-0.0067756437,-0.00348619,-0.0026024505,0.0014540628,-0.0022999048,0.0004249066,-0.006990198,-0.064984106,-0.05942581,-0.035866093,-0.00078738853,-0.029357865,-0.040664986,-0.07997012,-0.036504336,-0.08084842,0.002474092,0.010270502,0.06597331,-0.038719896,-0.022169247,0.11330825,-0.016277596,-0.013333216,0.056858916,0.008018298,-0.0076536387,-0.022275615,-0.011799395,0.00068933144,-0.02571404,-0.0073705763,-0.0018566325,-0.022142727,-0.016013265,-0.007605981,0.0014888495,0.0051591694,-0.0068697017,-0.004112743,0.0076249093,0.0008674413,0.010001613,-0.008754477,0.003270112,0.0064520687,0.00067958236,-0.018323233,-0.025396492,0.0004899651,-0.0001103431,0.011580391,-0.004709412,-0.01739492,-0.0041822568,-0.0024404302,0.000117305666,-0.102872476,-0.14791436,-0.5072488,0.15513296,0.07951486,-0.103337824,-0.053015858,-0.011849802,0.2636602,0.00470379,0.057551757,-0.029809698,-0.0014562011,0.012175295,-0.017576642,0.06655178,0.04178714,0.0076800883,-0.0065607056,-0.0009885319,0.13255054,-0.17416933,-0.09148666,-0.114859946,-0.24479929,-0.01617709,-0.10970317,-0.08065257,-0.017836004,-0.02184312,-0.14283456,0.03843702,-0.009334445,-0.058301605,0.026887506,-0.16688342,-0.07648704,-0.10921423,-0.00083565153,0.0012815148,0.01641275,0.011459233,0.008851141,0.015481789,0.008380987,-0.0013983101,0.0181031,0.0031831935,0.0014537051,-0.103456214,-0.09356496,-0.37857747,-0.22156662,-0.13447833,-0.22489037,0.05047232,-0.4031891,-0.13170496,-0.24668048,0.0021102466,0.0031117126,0.0037653092,0.0019244179,0.004910376,0.0049735364,-0.0005884394,0.009163514,0.005296382,-0.006342396,0.016326275,0.10750404,0.045878664,0.0127161,-0.038999796,-0.019665942,0.06302524,0.060321465,0.05951858,-0.0007684827,-0.041009486,-0.03841251,-0.23742425,-0.19700038,-0.097354375,-0.16353923,-0.04547006,-0.22445717,-0.038828537,0.033008873,-0.05341603,-0.039570987,-0.13259275,0.01539951,-0.11995697,-0.21723226,-0.2040529,-0.24121472,-0.053313248,0.07275181,-0.0023352206,0.19038442,-0.11626843,-0.08295639,-0.10678959,-0.10874586,0.08818084,0.07552609,0.047372885,-0.11592043,-0.016453609,0.01635634,-0.04041913,-0.1269345,-0.11693109,-0.06610382,-0.0052157342,-0.04462325,-0.09558976,-0.18459642,-0.0027487576,-0.18745427,-0.18921034,-0.10321127,0.04830587,0.2064791,0.034310967,-0.018520575,0.010580067,-0.05066096,0.006153047,0.016840354,0.0070617273,-0.008471027,0.015294781,-0.0033048466,-0.011399664,0.015382275,0.010249414,0.0037180856,-0.001637999,0.009311082,-0.009973124,0.0009503756,0.0042147785,-0.005563192,0.008753192,0.006239096,-0.0035572723,0.003655754,-0.017981507,-0.075703874,-0.08347982,-0.062934235,-0.018203681,0.05540595,-0.00745105,0.083831765,-0.096854866,-0.21181232,-0.0074824933,-0.034954622,-0.038637944,0.01668071,-0.039259505,-0.03212834,-0.0071404725,-0.007833175,-0.047283106,-0.048822977,0.0077832043,-0.06942202,-0.008317191,-0.07382375,-0.053346932,0.046884984,-0.09683202,0.0020351745,0.008880954,-0.061898086,-0.0022516726,0.014900409,-0.04448401,0.0056200847,-0.018106744,-0.050460674,0.008040629,-0.030329008,-0.015957788,-0.028458951,-0.013956614,0.004528895,-0.05762835,-0.0025788601,-0.035654016,-0.07021371,0.026848812,-0.018502314,-0.026277829,-0.048911937
