1,480,0.022163387,-0.015165319,-0.0056411545,-0.001208187,0.025120368,0.029677693,0.009140676,-0.01850445,0.014477992,0.015425615,-0.07562596,-0.020114262,-0.0043834317,0.028368952,0.0025363034,0.015860243,-0.008866165,-0.077588685,-0.054856475,0.00102382,0.017316146,0.045575436,-0.07267341,-0.023714617,-0.040728733,-0.010083718,-0.0037195939,-0.10317441,-0.026150985,-0.0155929,0.018521078,0.034312937,0.0070941243,0.027181404,0.019856729,-0.016408522,-0.03593815,0.01240395,0.057419542,0.019295393,0.00016066659,0.004298905,-0.030782027,0.003060741,0.027457643,0.006193148,0.012829125,0.03694118,-0.01985102,-0.024399055,-0.060184747,0.0033125277,-0.020854492,0.0057947477,0.009095015,0.024534002,0.033348072,0.059685282,-0.0032683,-0.03440698,-0.008844817,-0.0021503374,0.008992891,-0.046647135,-0.0038447499,0.017301612,0.025813924,-0.046603635,-0.027789233,-0.00064070337,-0.042120915,-0.048271757,-0.059415758,0.0010185974,0.023015019,0.008143535,-0.09558443,0.010676768,0.028895397,0.030573463,-0.08912869,0.011814868,0.005895139,-0.0024915296,-0.03838468,-0.037312653,0.0066135316,-0.025348578,0.024449637,0.002828302,-0.015040668,-0.03871341,0.0012912059,-0.049947973,0.04710229,-0.048055112,-0.017242983,-0.009664589,-0.0018033037,0.006190838,-0.09578144,0.03003018,-0.07489324,-0.012760923,-0.03460235,0.006691759,0.0042562224,0.00834552,0.034418747,-0.016497424,0.017068677,-0.0852316,-0.11665403,-0.039476257,0.023399891,0.010351248,0.014188146,-0.07442688,0.022500776,0.029418629,0.01439689,-0.022317557,0.005233364,-0.0071664234,-0.033173617,-0.005417468,-0.10013676,0.021856386,0.016708458,-0.03627625,0.005756986,0.010175804,-0.08118235,0.019057235,-0.050328862,0.003172474,0.0024474345,-0.06834293,0.027435958,0.01180529,-0.04003549,0.027567087,0.029406838,-0.02335986,0.0050890087,-0.04921086,-0.04426215,0.021123452,-0.02519244,0.021274688,0.029103456,0.022607198,-0.007037895,0.021753863,-0.021028789,-0.020725098,-0.018063396,-0.038807817,-0.0113588385,0.012637077,0.043515928,0.0071368744,0.004290163,-0.007567584,0.025233211,-0.065491855,0.03324789,0.00053604215,-0.06977524,-0.024694009,0.010740011,-0.024870832,0.018885802,0.011986592,-0.03349863,-0.021858957,-0.010365252,0.0070620133,0.033757515,0.00057905755,0.006055139,-0.018896377,-0.027916266,0.007846457,-0.05650334,0.0097493995,0.009592972,0.017849661,-0.0007277005,0.028195493,0.0006035186,-0.087517865,-0.016768733,0.011917141,0.013549778,0.020595727,-0.0046942113,0.009016983,-0.006756672,-0.042656876,-0.05400536,-0.04449392,0.002533684,-0.018831503,0.013639561,-0.16999802,-0.052609786,-0.007082791,-0.028497444,-0.044951733,0.032075267,0.022658939,0.01827309,-0.013554173,-0.040318437,0.01855478,-0.073631525,-0.024529416,-0.13047202,-0.0049536075,-0.00868632,-0.000623408,0.0075311037,0.018026551,0.01629865,0.013287691,-0.061903007,0.0027413885,0.0285653,0.010054445,-0.0003576788,-0.014757914,0.013702467,0.0088894,-0.08825446,-0.03346243,0.0077881287,-0.028017841,-0.013569094,0.016983261,-0.022812223,-0.08241595,0.034153517,0.025499295,0.014037701,-0.0018296151,-0.058545396,-0.008842891,-0.05835446,-0.026811542,-0.01786474,0.023451198,-0.0023939167,-0.008866986,0.009273958,-0.058265522,0.0022435717,0.008603523,0.004090455,-0.022626739,-0.00015569515,-0.0064937454,-0.0043231654,-0.050275557,0.010281856,0.008871469,0.003693405,0.03160233,-0.04366804,-0.0123157855,0.02457602,-0.025273556,0.027769653,-0.12835024,0.017203934,0.023556683,0.023109147,0.030202912,-0.009060159,-0.0857875,-0.018385544,-0.034617756,-0.07352149,-0.08446405,-0.112007625,-0.0071352473,0.00071054156,0.018116185,0.0072107962,-0.041132998,0.029234044,-0.03259301,-0.02147964,-0.06585018,0.025131255,0.0019039073,-0.011217293,-0.058022488,-0.042085037,0.0061354577,-0.011331094,-0.004143873,-0.033994865,-0.03568223,-0.103216246,-0.07771347,-0.06118533,0.03839282,0.0014862564,-0.028966378,-0.06951792,0.011924847,-0.0027331912,-0.061282415,-0.025598587,-0.033280075,-0.024469089,-0.013622248,-0.059525922,-0.013286646,-0.030099874,0.032240324,0.062214475,-0.023835268,-0.0028834601,-0.041191638,0.0030743834,-0.050022483,0.015951466,0.0024660435,0.07827233,-0.0019176728,-0.044392362,-0.023068158,0.030762127,0.013658834,-0.035704397,0.020463752,0.014418139,-0.00056639354,-0.0039259335,0.02712314,-0.0018348416,0.031888027,0.025012674,-0.09047895,-0.0031148954,-0.06047684,0.024913251,-0.019517286,0.012301064,-0.05006279,0.01224745,0.015964398,-0.007266397,0.013607334,0.018642947,-0.009485455,-0.05352712,0.011269993,-0.0044131824,-0.03506725,-0.01005053,0.015902463,0.0014987359,0.01882571,0.033144426,0.023593139,-0.098820694,0.024965601,0.02403748,-0.053285155,-0.014176968,-0.0009781366,0.0049263197,-0.034827407,0.016968323,0.019163756,0.008391643,-0.10562268,0.013705768,-0.022501525,-0.005185533,0.014928139,-0.0070075137,-0.06770019,-0.00091308705,0.03310022,-0.016836688,-0.028954728,-0.032694668,-0.061701145,0.02443281,0.0044961837,-0.094687104,0.023167908,0.0011314893,0.018633945,0.008288072,0.014711169,-0.073104024,0.0043931752,0.03262744,0.00023080238,-0.05938437,-0.018706245,0.030965555,-0.028260037,0.002451259,-0.04677151,-0.008412898,0.015704643,-0.02925803,0.07702837,0.009057294,-0.019973522,0.04561411,0.06007002,0.014916952,-0.021789536,0.011099144,-0.0100835925,0.032027747,-0.0017261398,-0.050416935,-0.022114068,-0.024891062,-0.025951484,0.027022386,0.012295695,-0.018996764,0.014385991,-0.032126434,0.018414045,-0.015334268,-0.01306676,-0.10902224,-0.032024648,0.003253084,0.03985047,0.009249731,-0.0023507532,-0.030465392,0.014761399,0.034804758,-0.006872939,-0.05904885,-0.0032951452,-0.025866488,-0.019622367,-0.05691588,0.0037335267,0.022755554,0.011870772,0.028263185,-0.031174751,0.018834177,-0.05195145,0.016618673,-0.0061944397,0.007427186,-0.0163676,-0.06806024,-0.022251587,-0.040163994,-0.013019838,0.009708098,-0.0055455556,-0.025532922,0.015511998,-0.0078035058,0.056991428,-0.071624376,0.02109041,-0.02530872,-0.055731073,-0.0077485386,0.0013641181,-0.01932206,-0.06842252
