1,480,2.0641062,0.05027669,0.7070304,0.17344098,0.16246338,1.6323667,-1.4737434,0.4014919,-0.63817966,-0.09482939,0.009586437,1.0023981,0.9438182,0.020156374,0.97395927,0.08791468,2.3136153,-0.14160058,0.2637064,-0.07791503,-0.056696653,0.030993866,0.033346917,0.2933116,1.6627901,-0.66281027,0.39129665,1.1944495,0.7459926,2.1906226,0.8255942,0.87625176,1.0907974,0.85499406,0.17288311,0.074793845,0.7468465,0.72969,0.36122903,-0.18894081,0.30355155,0.020551478,-0.14593498,0.8208575,-1.4271466,-0.016210005,-0.22145616,-0.035633393,-0.26237994,0.43925813,-0.44122344,2.834377,0.58013713,1.0657182,0.6158459,0.03575711,2.038385,-0.47396,-0.9480366,-0.18860553,0.10809998,1.9805169,0.14784384,0.33740973,-0.85702044,-0.5557892,0.42581034,0.9500693,-0.6274329,0.3982575,0.038412105,-1.0135413,-1.2182493,0.73541814,0.16889153,-1.4225262,-0.15003365,-1.0022539,0.45202196,-0.028486062,0.41275188,0.9462278,0.11896532,0.9839918,0.06442932,1.4288975,-0.058251373,-0.0017785822,0.3391589,-0.44615313,0.05999143,0.41440234,0.11050253,-0.6528918,0.9133623,-0.12574129,0.042107474,-0.5408307,-3.0419457,-4.851012,1.0969748,0.004706294,0.0014002575,0.03970603,1.4642467,-0.019746428,-0.7002777,-0.35047516,2.4286065,0.8265557,-1.8857145,-0.3857607,0.36283323,-0.031073965,-0.06913782,-0.018953292,-1.2432832,-1.3132598,0.051444072,-0.22113077,-0.17243938,0.40365568,-0.491153,0.23167256,0.8240731,0.61897594,0.025050718,-0.41449788,0.79311055,-0.6327899,0.15328288,0.47107896,0.1030567,0.6949092,0.048622344,-0.012844223,0.07146583,0.9185592,-1.1122444,0.025322005,1.2792134,0.53492725,-1.970386,0.1265765,0.34641004,1.4671783,-1.4500057,-3.001454,0.029136853,-0.08421687,0.7641891,-0.59860015,0.3789636,1.0275835,3.9089556,-2.3771434,-0.25591168,1.0019395,0.17184973,-0.3567735,-0.17145126,-0.27570522,0.71186066,0.6931578,-0.36508912,-0.48286197,0.27652824,0.37466297,0.7422111,-0.011344043,-0.053709112,0.08013757,1.5927544,-0.403996,-0.1909792,0.8937339,0.10552808,0.09099355,-1.0637335,1.1037362,-0.9011663,0.1312849,0.36061117,-0.07962427,0.02255977,1.2638589,-0.53093773,-0.016181659,-0.06373031,-1.0606785,-0.14069952,0.0602443,0.13580786,1.5899845,1.3273624,-1.4927636,0.6445875,0.630328,0.3049112,-1.1175925,-0.09231381,0.69593734,-0.04866226,-0.39686778,1.4071375,0.17515585,0.42220134,0.1917353,0.48639688,-0.22339107,-0.05123645,1.3291655,0.26564145,0.23731579,-0.09931173,2.062218,1.3099024,0.46913904,2.1580484,-1.4194306,1.1035918,0.10096659,-0.26179755,-0.05491553,-0.073330946,1.6115594,1.6896685,1.6377783,-0.033962924,-0.03855363,-0.43248284,1.4189982,0.27433157,0.040420994,-0.10577191,1.3541915,-0.17730893,-0.010610338,1.0551305,0.024648257,0.554845,-1.3631445,1.5499456,-0.33180094,5.500358,-0.175756,-1.7718812,2.326841,0.006777538,1.6549691,-0.90023917,1.0198146,-0.020538589,0.90718096,1.4833628,-1.4574791,0.2645179,-2.0658867,0.4377362,-0.0048529455,-0.24644908,-0.24478045,1.8379033,-0.10897095,1.5257844,-1.0291884,0.058442775,-0.00975452,0.17353794,-0.91243213,1.3093606,1.0887723,1.4614269,1.5833997,0.4417079,0.28299034,0.38479662,0.8679378,0.2788951,0.062276386,-0.323105,0.08184812,0.060854193,0.08205172,0.4122965,0.08022806,0.64288616,0.28412887,0.07468722,-0.14473556,0.08855788,-1.2526853,1.3024874,-2.8096852,1.3416306,0.16078301,-0.35974208,0.028254112,-0.31410432,-0.61894083,0.16637787,-1.165973,-0.32140684,-0.43177298,-0.5944769,0.33239877,0.58005154,1.0570792,1.2571187,0.71351385,0.2933085,0.37058985,0.5042773,-1.0951147,1.7800393,1.5408489,-2.1258066,0.28770778,0.16424058,-0.83555526,0.016809909,-0.0019890184,-0.0022658166,1.1311344,0.1531163,0.3264244,1.2605789,1.3509101,0.60113466,-3.2043931,0.3956225,0.00035389434,-0.858441,1.9014468,-0.9454522,-0.023328876,-0.038328834,0.058296394,0.14774266,0.9059593,0.02811444,-0.5564746,0.33021256,0.06449861,-0.13984628,0.41619828,1.3296765,2.3618226,-0.7032825,-0.45753884,0.17322326,-0.5478006,0.045516055,0.16889231,-1.2854382,-0.8822297,-0.57598287,1.63831,0.6145487,0.05597305,0.9571261,-0.017610095,1.5171926,0.4449907,-0.111509465,0.24663348,0.1733069,-0.6175284,-0.3604971,-0.23575847,-0.32780904,0.027723864,0.03515151,0.17919396,-0.09035505,0.52129644,-0.15836506,0.07495743,-0.15292214,0.039376922,-0.28240916,0.120309524,-0.4480506,-0.0587672,0.018371046,0.22076163,-2.4554226,-1.9373033,-0.050380953,0.32470796,0.8965392,0.02454243,-1.4907521,-0.43142843,0.11600369,0.052286655,1.3591312,-0.064317346,2.534349,0.98306483,-0.91138047,0.08250548,-1.2779819,1.2729079,2.464736,0.014749364,1.5919805,1.2302228,-3.026332,-0.21814482,0.06114909,0.17193592,-0.18344438,0.099661335,0.047707375,2.0129004,0.22543436,0.46293774,2.4826121,-0.009474122,1.0778826,0.14721051,-1.1992422,0.90992844,-0.9673781,-4.816193,1.9977757,0.51282436,0.45881423,-1.49972,-0.2810919,1.4445553,0.52190125,-0.16881043,0.094647765,-0.116265714,1.5390227,0.6591289,-0.12885985,-0.4884029,1.8012153,-0.92198235,-0.03529412,2.3214445,-1.1806092,1.080642,0.21467113,0.0013417763,0.30778024,-1.4671218,-0.015632639,-1.3924825,-0.2698176,-0.042151302,0.3637387,-0.45106965,0.53540695,-1.2179598,0.12370463,-0.74323785,0.16325991,-0.37434202,0.124938674,0.13434392,1.8581338,-1.3750739,0.119391784,-1.2684505,-2.8412712,-0.70223093,-0.4500135,2.0084884,2.3110669,-0.035133835,-0.087820865,-0.57101107,0.09365209,1.6869173,-0.1321233,0.014962396
