1,112,-0.0004032762,-0.00085629115,0.0023839448,0.0005634268,-0.0020284138,0.0014435486,-0.0035003913,-4.4728847e-07,-0.002208287,-0.0027768456,-0.0025085036,-0.00040657754,-0.00089159654,0.0016678573,0.0010707296,-0.003424863,0.0002973757,-0.0049799066,-0.0005155902,-0.0013824474,0.0010087492,0.0030474572,0.00048508972,0.0014443082,-0.00064570433,0.0022700166,-0.00035115104,-0.00048038026,0.002116907,0.00086498033,0.003488005,0.0035813134,-0.002485178,-0.0017374293,-0.00089439837,-0.001811708,0.00041049346,7.952654e-05,0.0012661163,0.00021307786,0.0018205428,-0.0031926178,-0.0049786367,-0.002623824,-0.0009279081,0.0013929994,-0.0016641358,0.0006332357,1.6890215e-05,-0.0026939367,0.0037117498,-0.0016264295,-0.00066371576,-0.0025254395,-3.895534e-06,-0.0015281261,-0.0024141157,0.000978801,-0.0004771562,-0.002863006,0.003311251,0.002261595,-0.0022047884,0.0037722785,-0.00074293045,-0.0008380607,0.0006253258,-0.0011095513,-0.00046913562,-0.001341757,0.0019860938,-0.0011441053,-0.0020882983,0.00094413257,0.005871925,0.00076921773,-0.0005267126,0.0014194555,-0.00044394823,4.4979963e-05,0.00025679334,0.003415951,0.0006288447,-0.0028194524,-0.00055061164,-0.00072876265,0.0023093827,-0.0014564489,0.00026780198,-0.001182581,-0.00014546301,0.0031173348,0.0031960348,0.0014818342,0.0015396972,-4.980041e-05,0.0046833204,0.0009060634,-0.00013762612,0.0013728667,-0.0019528251,-0.0010331805,0.0005138214,0.00024876808,0.0017342089,-0.0015011991,-0.00049910357,0.0020731199,-0.0041136174,-0.0031194163,0.0019290877,-0.00064955204
