1,144,-0.8144918,-0.03632361,-0.78983843,-0.11480005,0.310916,0.023820808,-0.010361594,0.77605444,-0.18557894,0.22829048,0.13435781,-0.48854446,0.41398236,0.14437188,0.15354311,-0.56543326,-0.06567404,-0.13948554,-0.075234234,-0.5144149,0.28860405,-0.1133547,0.367017,-0.5715193,-0.0052764746,-0.47397706,0.38448882,0.16982841,0.05821139,0.08478987,0.3058512,-0.12517585,-0.28380296,0.10943891,-0.10918098,0.5254592,-0.022536926,0.0038579025,0.113283,-0.24404149,0.018977374,0.20142463,-0.5018512,0.3758443,-0.06054772,0.023562193,-0.052102502,0.26828915,-0.36593127,-0.027569044,-0.13815267,0.46080953,-0.45011747,0.43694463,0.2550213,0.2483506,0.25197208,-0.48661247,-0.109255515,-0.35876718,-0.29384273,0.4116917,-0.5088585,-0.44438785,-0.03983551,-0.7221884,-0.12189519,0.36643213,0.19637418,-0.047385056,0.016187472,0.25031334,-0.38240433,0.03346998,0.3031621,-0.05257811,0.1650993,-0.09855499,0.3017486,0.2680376,0.34293425,0.28086382,-0.051746756,0.1435445,-0.029092176,0.302946,0.09032177,0.07123372,-0.33486646,0.036887597,0.066476956,0.1076695,-0.6885052,-0.14413649,-0.30078298,0.3197735,0.2610655,0.088262655,-0.1334215,0.002068179,-0.32864505,-0.0977663,0.2212962,0.65187013,0.0012520555,-0.40132117,-0.6949257,0.04402528,-0.6662278,-0.003154255,0.07564054,-0.5808153,-0.040637217,-0.06792996,0.6052995,0.14991592,0.09391289,0.7402225,-0.04468265,-0.11174701,0.32136998,0.15832528,0.11613752,0.054679103,-0.10255791,0.4349288,0.32349575,-0.32235584,0.019693758,-0.60217184,-0.07059688,-0.31783018,-0.55855674,0.02527049,0.17231758,-0.07551163,-0.0720788,-0.2506358,0.046227865,0.072124936,-0.13851854,-0.15724184,0.050549194,-0.25140968
