4,96,1,3,3,-0.45396093,-0.4077723,-0.11958066,-0.66859424,-0.5292266,-0.1888563,-0.17845652,-0.14950049,0.029491074,0.26610935,0.43021536,0.19985163,0.31037164,0.5171624,0.24659994,0.11424106,0.19836353,0.095353305,0.19801813,0.30569175,0.1006883,0.4213079,0.4974353,0.23918973,0.23399532,0.3046872,0.10825529,-0.18121304,-0.34475052,-0.18078107,-0.12526388,-0.4362666,-0.34209678,0.0519035,-0.18907495,-0.2009058,-0.23175463,-0.332276,-0.16193734,-0.33973062,-0.47030264,-0.16204569,-0.10640676,-0.12861468,-0.06696366,-0.17569089,-0.17933029,-0.12901409,-0.22889261,-0.23697624,-0.14379984,-0.13516703,-0.17666507,-0.05930887,-0.31182313,0.4211462,-0.16495448,-0.5099819,0.72578293,-0.26735336,-0.25645664,0.39480487,-0.098324955,0.40170884,0.61424786,0.35845685,-0.05395049,-0.2443425,-0.25268537,-0.22160548,-0.4302011,-0.22469676,0.4375358,-0.4542414,-0.00464499,-0.20973158,-0.3123458,0.3586962,-0.34795386,0.50822544,-0.10790616,0.443733,-0.2958835,-0.24815997,0.051303327,0.57694644,-0.41613925,-0.579989,0.13385865,0.4149074,-0.1444306,-0.3031281,-0.12005362,-0.26866645,-0.5982524,-0.23546836,-0.1600627,-0.28941098,-0.109650075,0.2222593,0.051184237,-0.34844714,0.3248927,-0.059485257,-0.72943145,0.11869612,0.02063948,-0.22761917,-0.14317973,-0.18587397,-0.14434783,-0.18284215,-0.24153738,-0.18894276,-0.10327041,-0.15712859,-0.068343684,-0.44280618,-0.68194485,-0.35727644,0.13221022,0.06385422,-0.044164985,0.32671008,0.6639822,0.32242733,0.024764836,0.03407456,-0.026009798,-0.33054602,-0.54935235,-0.23843053,0.23884693,0.53537685,0.22197029,0.29942632,0.5014727,0.29035068,0.2588205,0.6557468,0.30434188,0.079485,0.21134333,0.13452902,0.10764098,-0.4865415,0.31185657,0.3189672,-0.962674,0.6527744,0.20982476,-0.5739992,0.32784173,0.10271912,-0.07673242,-0.573177,0.44479486,0.26557228,-0.24963138,0.29233333,0.16096234,-0.09045684,0.21746883,0.2553118,0.08486158,0.30828154,0.47353402,0.3393124,0.09841034,0.25801733,0.19872165,-0.23379856,-0.4124142,-0.20868923,-0.32060927,-0.5122579,-0.31202978,-0.12468163,-0.22009063,-0.09329748,0.18194087,0.23953962,0.088255525,0.3382734,0.55929726,0.30445123,0.19215536,0.324901,0.17183644,0.4839363,-0.42357492,-0.0933686,0.61670923,-0.88154113,0.23233968,0.17131732,-0.39974654,0.21675992,0.17977506,0.39149594,0.33702856,0.19987501,0.45052844,0.33440876,0.121865064,0.19371516,0.13806835,0.3100209,-0.08465588,-0.22277302,-0.7166072,0.4067626,0.2694568,0.42390028,-0.32034022,-0.082865596,0.2686915,-0.2115187,-0.20339231,0.61440223,-0.23630054,-0.27982718,0.3958124,-0.16073683,-0.15019652,-0.46484923,-0.089332685,0.40823218,-0.5109552,0.036048353,0.53665364,-0.27360564,0.19218788,0.17099637,0.570557,-0.78806585,0.3034944,0.22481358,0.03487405,-0.24853587,-0.32164222,0.5259086,-0.23463604,-0.2020945,-0.3130838,-0.20200089,-0.23906362,-0.34439993,-0.18196063,-0.055262208,-0.165611,-0.069373235,-0.15135503,-0.22698157,-0.109259464,-0.0956994,-0.23003922,-0.13619399,-0.0937815,-0.124262996,-0.043341964,0.34332773,0.39226794,0.24325483,0.34647077,0.43215257,0.3209565,0.1041103,0.09343222,0.10947725,-0.3109926,-0.37730962,0.2921131,0.67988217,0.37293345,-0.43693033,-0.3957233,-0.054436292,0.19070172,-0.981005,-0.7556705,-0.18591374,0.1712465,0.7722506,0.40423658,0.31377858,0.278378,-0.01963456,-0.007040143,0.079674415,-0.071692765,0.18334298,-0.75915456,0.51624715,-0.13394162,0.5988782,-0.46332788,-0.16582961,-0.30934227,-0.15951228,-0.33617806,-0.46288028,-0.17845619,-0.17649114,-0.21655008,-0.03398007,-0.35191256,-0.416907,-0.116193384,-0.4277402,-0.57132214,-0.16287893,-0.14304507,-0.15242626,-0.0632745,0.3184426,0.7965889,0.45073748,-0.039533198,-0.6201801,-0.59121597,-0.26846483,-0.15614393,0.14644635,-0.0020256042,-0.05514197,-0.032496616,-0.28843325,-0.456163,-0.28083357,0.23792186,0.4786756,0.2902231,0.29124793,-0.3937499,0.070030734,-0.52005666,0.8822056,-0.37134454,0.2624953,-0.54739964,0.3097675,0.1993039,0.37266862,0.19199997,0.34815267,0.57490456,0.25204343,0.13627112,0.17388724,0.0700897,-0.20895982,-0.4840485,-0.28547502,-0.065624654,-0.15053761,-0.13156773,0.33433345,0.5567901,0.38320202,0.28787908,0.39882988,0.18420416,0.39002857,0.59465104,0.26784623,0.13695455,0.21027982,0.10515565,0.36680597,0.7196075,0.33040386,-0.59635353,-0.9398198,-0.28586197,0.23756716,0.20119995,-0.053584293,0.12691212,-0.65090114,0.4765784,-0.4093737,0.41976458,0.10794994,0.006747186,0.38788763,-0.44697976,0.27092302,0.45677933,0.37778354,0.27510232,0.5116943,0.41828167,-0.075700104,0.24653375,0.16278683,-0.14489523,-0.21380395,-0.14615524,-0.2675025,-0.33843994,-0.18629491,-0.12774803,-0.17957862,-0.10728982,-0.15637973,-0.33992606,-0.21013436,-0.23307341,-0.46746385,-0.15348245,-0.07538994,-0.12101184,-0.028140187,0.24284622,0.010395531,-0.19903025,-0.6630711,0.29005563,0.29123423,0.37848374,-0.3475846,-0.084384486,-0.16634023,-0.23668155,-0.08226983,-0.25646994,-0.36846012,-0.14089751,-0.10987055,-0.1326465,-0.07099283,0.4184023,-0.5770949,0.14422116,0.56759125,-1.0205008,0.43418372,0.17457855,-0.49827433,0.3337539,-0.6088369,0.47245944,0.13486588,0.5139129,0.44429225,-0.32672647,0.24333456,-0.49762517,-0.33068347,0.24998617,0.5149092,0.2959015,-0.26201335,-0.5655169,-0.32015687,0.0027288795,-0.027495027,0.012938775,-0.13473733,-0.35007656,-0.13391921,-0.28564733,-0.5471364,-0.2013045,-0.18387257,-0.40489104,-0.08660427,-0.2591063,-0.4685874,-0.2123428,-0.2967214,-0.55272,-0.16998278,-0.181683,-0.313632,-0.10236728,0.5534901,-0.020170107,-0.17973942,0.84496176,-0.68775123,-0.3538379,0.35152304,-0.39414543,-0.11020002,-0.27901146,0.78933483,-0.41943556,-0.059154898,0.7300085,-0.6713131,0.09938987,0.14483318,-0.25863206,-0.15694162,-0.2290047,-0.13632554,-0.48284885,-0.45759088,-0.119844764,-0.24406159,-0.29178607,-0.043555945,0.10334805,-0.19448017,-0.30237296,0.20690873,0.82071036,0.5433861,-0.28681698,-0.6776742,-0.16832685,-0.4020829,-0.54943526,-0.08833179,0.48811626,0.9761639,0.46741706,-0.034366906,-0.44092155,-0.31888562,0.52379966,-0.015264762,-0.21984252,-0.6022635,0.12922472,0.42910045,0.11313016,-0.045575537,-0.15111311,0.28683782,0.28043535,0.12018156,0.46539187,0.4098912,0.15135401,0.17603694,0.21868789,0.09444767,-0.3792702,0.08099407,0.26733267,-0.38765293,-0.20598294,0.642104,-0.0821771,-0.40065074,0.4384538,-0.073732704,-0.14447278,-0.10963226,-0.28111205,-0.38466448,-0.14748347,0.45131123,0.54013795,0.19636863,0.12509567,0.9395777,0.23033357,-1.1456885,0.1215561,0.2910967,-0.4697631,-0.22276294,0.15126519,-0.075240165,0.47073865,-0.4463781,0.10403019,-0.67181724,0.55466926,-0.033405036,0.20054837,-0.11485362,-0.14104477,0.36262083,-0.22406127,-0.31774205,0.5710142,-0.3284723,-0.22063267,0.33720398,-0.070984095,-0.19311912,-0.43236554,-0.23772572,0.3677414,0.7473511,0.4597621,-0.079628885,-0.2897338,-0.23391843,-0.21972007,0.23142934,0.26285845,-0.33364338,0.3027267,0.5744977,-0.1517054,0.15307733,0.31163204,-0.45162058,-0.68369436,-0.34501642,0.27597654,0.4162111,0.11585593,0.058135584,0.11159283,0.18568599,-0.28036535,0.57535774,-0.1313847,0.47058344,-0.8898393,0.20659588,-0.18797876,0.30928016,-0.12628885,-0.36731043,0.33270064,0.34150475,0.5080858,0.022024825,-0.6155905,-0.17484823,-0.25522485,0.3488347,0.24721669,0.32216376,0.10673523,0.32738703,0.38061675,0.14155482,0.117075734,0.14299655,0.08563508,-0.65481496,-0.41958976,0.2175782,0.9482845,0.108629204,-0.45687371,-0.35757768,0.24078178,0.27696806,-0.21988809,0.7282766,-0.35896644,-0.8630799,0.77003986,0.085380495,-0.20164846,-0.100146405,0.2778865,-0.28875047,-1.1769689,-0.60383576,0.6581069,0.5839088,0.17122549,0.0007445812,0.34762508,0.31428576,-0.06442612,-0.29124653,-0.20747414,-0.2605037,-0.35810903,-0.21861732,-0.14587748,-0.23643173,-0.11826378,-0.29730976,-0.55530536,-0.2608953,0.03705454,0.056654394,0.02563723,0.23342454,0.37573025,0.21499163,0.18491954,-0.58402216,0.34038886,0.23587054,-0.82317805,0.6760268,0.089990795,-0.39007375,0.31225574,0.6757191,0.39100486,-0.14496925,0.68215334,-0.6628833,-0.5093632,0.27053338,-0.5952506,-0.11599022,0.3350008,-0.7145946,0.41861376,-0.14280878,0.26897794,-0.17971627,-0.13440739,0.36072215,-0.2315244,-0.10038328,0.589115,0.088498384,-1.0794778,0.42753708,0.29748446,-0.3062945,-0.08347356,0.14565353,0.15195993,0.26003182,0.15278475,0.2681056,0.36636838,0.18612021,0.1498372,0.21357936,0.111629516,0.17909187,0.33296555,0.22532627,0.3341051,0.33203167,0.20111373,0.18028109,0.15888509,0.06924826,0.3954597,-0.7040531,0.20082505,-0.5997745,0.843372,-0.27421546,0.19710557,-0.2637701,0.08329034,-0.26546487,-0.22932291,-0.044971943,-0.42673862,-0.45060426,-0.092179894,-0.17831844,-0.2114268,-0.06219977,0.077855274,0.20867722,0.17210338,0.33792967,0.53890014,0.2771518,0.2544725,0.39266038,0.1265309,0.057671487,-0.3244226,0.2789839,-0.5144836,0.75479996,-0.285254,0.44544277,-0.42613655,0.044609547,-0.19659755,-0.40972197,-0.24242349,-0.26074624,-0.5088634,-0.29927897,-0.15534317,-0.19402106,-0.11011666,0.2532761,0.28828478,0.09499668,0.3147763,0.4742865,0.20068124,0.13404246,0.21993747,0.09142958,0.34828964,0.47930753,0.26004034,0.41212058,0.5393412,0.3154487,0.13969156,0.19820389,0.111500874,-0.36477086,-0.58144784,-0.33058745,0.3834334,0.6002171,0.3196639,-0.01642716,-0.060148507,-0.012806699,-0.58550507,0.05670671,0.64383173,-0.6854832,-0.21959186,0.7981217,-0.20543294,-0.17577302,0.37849957,0.23002896,0.05910206,-0.6454108,-0.14102405,0.974421,0.03878869,-0.5860679,-0.024112001,0.16591564,0.2943681,0.39019164,0.29277954,0.45399553,0.57306737,0.47856566,0.071383,0.0825813,0.05064541,-0.28949767,-0.36168694,-0.06728539,-0.4000757,-0.30835396,-0.13575166,-0.03086453,-0.19997723,-0.1544914,0.108662486,-0.31228235,-0.291181,-0.5083028,-0.48240113,-0.030972302,0.3533749,0.7109511,0.3643825,-0.28977263,-0.3888413,-0.15929602,-0.41685,-0.6036488,-0.2238256,-0.17259309,-0.2462219,-0.11161138
