1,240,-0.11112076,0.0028282877,-0.12085706,0.002935515,0.05010443,-0.068929985,-0.13373375,-0.053401448,0.016084943,-0.02239001,-0.11528173,-0.105341464,0.16845044,-0.14501816,0.39118868,-0.27119994,0.0041429205,-0.08706927,-0.161722,-0.13780186,0.4558894,-0.17650181,0.28246847,-0.11130818,-0.109031,0.5400272,-0.10866393,-0.036126554,-0.1301585,0.30414453,0.42105845,0.3605897,0.02015298,-0.0073184283,-0.12725733,-0.20038678,-0.08717285,-0.02851193,-0.01304379,0.20086709,-0.09533225,-0.029957252,-0.08059884,-0.07844021,-0.1349318,-0.1864358,0.33146527,0.45930552,0.3819355,0.21254878,-0.12231138,-0.1290987,-0.18131085,-0.053387027,-0.040525123,0.18155985,0.11326224,-0.18473187,-0.051190663,-0.0959845,0.3286507,-0.1986751,-0.109241806,-0.2009586,-0.32813445,0.11422309,-0.0050889603,0.28576538,0.036573812,-0.11663078,0.06662461,-0.14807677,-0.108957954,-0.08898314,0.20534079,0.34726545,0.27416286,-0.14509904,0.1764787,0.26872423,0.12342085,-0.11140118,0.11284119,-0.09474748,-0.043847464,-0.16050757,-0.1680816,0.3398788,-0.13588147,-0.1708144,0.16200024,0.061730985,-0.14462207,-0.0853408,-0.08280665,-0.12643646,-0.19099337,-0.101242855,-0.11210159,-0.21125087,-0.21776491,-0.13513577,-0.06266543,-0.17092814,-0.12762605,0.028032064,-0.18746684,-0.14496934,0.20023173,0.19980444,0.1174983,0.15104036,-0.2317018,0.15220483,-0.1116108,0.07111235,0.010512098,0.26303485,0.06535179,-0.1812347,0.18293472,0.43315125,-0.099365875,-0.40529758,0.1960671,-0.1296333,-0.4098361,-0.15377729,-0.107988074,-0.055658262,-0.03307307,0.21657647,-0.12129024,-0.106431805,-0.08174884,-0.053548507,-0.18769352,0.2807078,0.081876665,-0.17033453,-0.15990643,-0.15292162,-0.23296966,-0.20554264,-0.10916766,-0.017299673,-0.09732498,-0.15913533,0.13458294,0.31415442,-0.10115491,-0.11155511,-0.038353376,0.2288394,0.36522675,-0.088618964,0.29340097,0.2071727,0.021938156,-0.08358312,-0.14097883,0.16914336,-0.1548354,-0.1781512,-0.14288265,0.022470891,-0.124200985,0.11564563,-0.08940596,0.5017446,0.28929007,-0.09489758,0.3435033,-0.1636339,0.10565894,-0.20019841,-0.15874831,-0.17248334,-0.057376884,-0.04494705,0.08387875,-0.23437256,-0.19487093,0.19173059,0.26013058,-0.19324169,0.2277885,-0.11100917,0.28824633,-0.063172236,-0.1402187,-0.00593303,0.38665146,-0.23452641,-0.016322462,-0.15933284,0.19126362,0.0888884,0.043138552,0.07073558,-0.33846018,-0.26814425,-0.16093218,-0.12282097,0.29607743,-0.14250869,-0.015081535,-0.10448923,0.055279102,0.13795777,-0.1419389,0.26234898,0.039035466,-0.101475716,-0.12677518,0.12611714,-0.12198453,-0.06453233,-0.114963554,-0.13292857,0.28922552,-0.06241361,-0.16448936,0.055177372,0.026020795,-0.33254,-0.055729453,0.29405198,-0.2428109,0.02868654,-0.14223145,-0.21837282,-0.24020442,0.03046546,-0.17381066,0.1454944,0.37508756,-0.09453286,0.2729764,0.27820092
