4,480,1,3,3,0.04543656,0.20577082,0.023377657,0.22868334,0.07039726,-0.22676295,0.012912177,-0.24315977,-0.17739412,0.00906992,0.06858596,0.0074073076,0.07522434,0.2842694,0.06869686,-0.043858707,0.10561733,-0.022269202,-0.09191102,-0.10982665,-0.112249374,-0.114606656,0.59793144,-0.14248353,-0.10960889,-0.111349165,-0.097614735,0.024467528,0.008970737,0.02030623,0.020081058,-0.5041825,0.039871693,0.021993935,0.027275652,0.02675651,0.0194484,0.014544576,0.005312115,0.019379437,0.35680932,0.016584039,0.0032497048,0.0034513175,0.013173282,0.03946203,0.058314845,0.035603136,0.09790375,0.20622021,0.08217299,0.03565198,0.10907301,0.06618407,-0.41393858,-0.14046496,0.042811006,0.10416698,0.33795738,0.068927936,0.0046439767,0.09727508,0.025015742,0.20986381,0.12221962,-0.047641456,0.24083859,0.18238455,-0.2549727,-0.0053395033,-0.021637917,-0.23716736,0.081384,0.046976328,-0.07857525,-0.0071066394,0.32361132,0.025301337,-0.019316852,-0.044475667,-0.13126081,0.025821328,-0.22861123,-0.09571624,0.17095551,0.096511155,-0.2246323,0.06535615,0.16888285,-0.02344945,-0.031335384,-0.14132488,-0.015080929,-0.15352048,0.057037607,-0.15203053,-0.010688089,-0.15693234,-0.021927595,0.037711248,0.06946413,0.041536868,0.09009228,0.18271466,0.086725,0.021940202,0.09075263,0.005864337,0.055723608,0.114459634,-0.15595075,0.083687365,0.13233322,0.112819314,0.026816279,0.065556034,0.053648293,-0.0014694929,-0.008765321,-0.009894013,0.0069327317,0.43961954,-0.004556328,-0.019250602,0.043597937,-0.010431483,-0.02942422,-0.10518248,-0.03527674,-0.10588126,-0.18245788,-0.1035738,-0.030485868,-0.10169077,-0.027426288,-0.012092173,-0.006207715,-0.0057674944,0.017171472,0.36145622,0.013810853,-0.009279802,0.036711186,0.008729629,0.01870972,0.14760822,0.028452843,0.075877935,0.23094818,0.093334705,-0.0027264208,0.10963911,0.00546477,0.031415403,0.031105965,0.035719037,0.067623556,0.23237604,0.07644966,0.06267297,0.050188676,0.06534365,0.109041326,0.10332236,-0.003984239,-0.09973731,-0.39406374,-0.032298803,0.0100339055,0.18226396,0.07743937,0.08574051,-0.17973483,0.0802761,0.14328007,-0.31988773,0.17112684,0.07196975,-0.18613487,0.06861801,-0.0014075339,-0.17607093,0.0031225085,0.27209067,-0.052198768,-0.033097062,0.06472528,0.14626119,-0.09998289,0.0431509,-0.009800971,0.034835458,0.004221916,-0.5507193,0.0025814548,0.018673144,0.010366261,0.027632773,-0.091599345,0.07522151,0.0087022185,-0.5453286,0.49045196,0.32838517,-0.1023567,0.023500364,0.035984695,-0.04583158,0.08165583,0.18339856,-0.045336634,-0.30991074,-0.19899336,0.031313803,0.13851736,-0.07335228,-0.012808591,0.19945234,0.26436722,-0.031252384,0.18250239,0.06732502,-0.21397263,-0.15217668,0.02278632,-0.07045603,-0.115743995,-0.06329006,-0.116360486,0.34803835,-0.12139362,-0.06419855,-0.11183989,-0.064321846,0.15907271,0.1919576,-0.031169176,0.24383134,-0.089475125,-0.2685871,-0.009743478,-0.21884584,-0.07932058,-0.019071817,0.021790475,-0.0125929415,-0.012915254,0.48857594,-0.015880883,-0.00084626675,0.008398697,0.0018089041,-0.086259484,-0.08122912,-0.10620773,-0.0938963,0.37613052,-0.08554844,-0.09736422,-0.08946121,-0.07888356,-0.00802207,-0.0064975023,-0.0078724325,-0.020712793,0.38663274,-0.03340556,-0.0002925992,0.0047199056,-0.0022001415,0.04975745,0.12667944,0.05571246,0.10366793,0.1845252,0.10754217,0.05872594,0.116689146,0.054996014,0.061775446,0.10531339,0.051310796,0.13998514,0.22654215,0.16048643,0.062354088,0.015631735,0.058488235,-0.015942939,-0.08195749,-0.03344651,-0.09254509,-0.16552699,-0.07452595,-0.021342427,-0.091727346,-0.030748487,0.22734922,-0.040717307,-0.052634716,-0.0015971959,-0.4199869,0.03484592,-0.03238106,-0.013820052,0.25628316,0.05589795,0.04604754,0.05841668,0.15548995,0.2924714,0.12075734,0.0612085,0.02721829,0.045879662,0.0017582327,-0.07845232,0.001992941,-0.08743721,-0.28186667,-0.11136794,-0.021491349,-0.0601061,-0.013382226,0.046314865,0.11112687,0.06325182,0.12696232,-0.06667632,0.12357564,0.07680157,0.11290288,0.06366721,-0.07737176,0.12098062,-0.074085444,-0.026485503,0.3452287,0.10766274,0.08641636,0.04240495,-0.10302243,0.13469449,0.098617196,0.13352028,0.09630418,0.08719003,0.1213578,0.102856636,0.095885366,0.1303553,-0.05943182,-0.048901975,-0.061231714,-0.04520917,-0.05037248,-0.052651078,-0.06528962,-0.04831183,-0.0649909,-0.008287832,0.044324994,0.0004297495,0.05318305,0.31875747,0.04892093,-0.0043056607,0.03818114,0.0071599483,0.029771447,0.08274606,0.02920729,0.15640455,0.1873183,0.14647013,0.016134255,0.06641042,0.02744519,0.036738485,0.09240924,-0.034212425,0.10557431,0.25204298,0.10649723,-0.07732743,0.13337977,0.025869876,-0.02560687,-0.05651632,0.24361716,0.010868013,-0.41147986,0.0130547695,0.29370683,-0.047685355,-0.0137575865,0.0058261156,0.009329094,0.008051477,0.0046966076,0.48215374,0.004750371,0.0013227016,0.016322806,0.0019313097,-0.026828498,-0.05859123,-0.026682913,-0.05766517,0.41666007,-0.059298992,-0.04752943,-0.034395248,-0.06724133,-0.028167844,-0.19780526,-0.0033322573,-0.21487588,-0.20064989,0.1455775,0.004891351,0.19917548,0.20623541,0.0060115457,0.033638746,-0.010124028,0.06382191,0.4079879,0.06318716,0.0011797771,0.016680464,-0.009512365,0.03309056,0.061332688,0.023946315,0.05969217,0.28114367,0.07344166,0.04291808,0.045766972,0.036959764,0.025789632,0.13214856,0.026443392,0.041877255,0.23733163,0.040724277,0.035762966,0.15336509,0.033393398,0.015019327,0.25876445,0.014708877,-0.046218514,-0.5231974,-0.020404696,0.051208913,0.2597744,0.04584697,0.021457255,0.00968352,0.027559876,0.046554863,0.32022765,0.03545049,0.032023042,0.051709726,0.027033925,-0.018209219,-0.06338556,-0.008590907,-0.06096843,0.54151905,-0.058932662,-0.0032409728,-0.00815618,-0.022161394,-0.03677258,0.029971689,0.1181266,0.25142503,0.1784105,-0.19789687,-0.19972464,-0.058998093,-0.05858082,0.046791688,0.06663227,0.03802225,0.18281093,0.011307299,0.16939697,0.057512864,0.11346918,0.04997021,-0.019091696,0.11018625,-0.03791295,0.101634435,0.2792806,0.10512221,0.0023678243,0.08098149,-0.0101925135,0.030935347,-0.06856319,-0.05989176,0.4051513,-0.47730368,0.051274583,-0.03888017,-0.022523046,-0.01689589,-0.008485138,-0.13653678,-0.027741462,0.29662454,-0.25564915,0.35623288,-0.049846053,-0.1261665,0.035676792,0.051086128,0.07160056,0.06133902,0.06500861,0.39879385,0.085142404,0.04587251,0.079062596,0.043361023,-0.2311881,0.065609306,0.12676468,0.013320386,0.44759524,-0.034138262,0.13467145,0.03123486,-0.2627923,0.013622493,-0.034217775,0.007894009,-0.0129407495,-0.5013987,-0.017560683,0.021270197,0.0026297867,0.019577026,0.045826077,0.14673144,0.046338946,0.13399285,-0.18828487,0.13722686,0.06392804,0.1329431,0.059561133,-0.03454098,0.05982931,-0.011685103,0.10243666,0.31803393,0.08739114,-0.026036292,0.06901981,-0.03036493,-0.055201948,0.088148475,-0.01760915,-0.22295791,-0.39468104,-0.20750631,0.0074358024,0.06384186,-0.020045578,0.0023247004,-0.05866164,-0.0007343888,-0.042278543,-0.5185057,-0.04160258,-0.008848786,-0.03990391,-0.0027661324,0.034596026,0.18612885,0.024911582,-0.23133247,0.17470044,0.21987486,-0.16409948,-0.28386223,0.010439098,0.008244395,0.16121411,0.022950158,-0.12048817,-0.42526734,-0.120056786,0.037167847,0.12669984,0.034520626,0.020011276,-0.07787818,0.026744246,0.26396346,-0.549979,0.23103595,0.03187871,-0.0052114874,0.040393203,0.09067643,-0.21055962,-0.07715672,-0.29162973,-0.09435529,0.22892775,-0.034717917,0.22851649,0.06008935,-0.09795059,0.11992495,0.059902906,-0.27819204,0.25640827,0.067789376,0.0066750646,-0.2811235,0.018845335,0.02233088,-0.056126863,0.019110918,0.3231486,-0.38728374,0.318819,0.017018735,-0.06614912,0.018542204,0.012753893,0.06604234,0.008706987,0.046365857,0.430709,0.05421877,0.013412014,0.046617508,0.01510185,0.020665765,0.09922466,0.025956511,0.09323219,-0.5520956,0.08745864,0.022052202,0.079189,0.02229619,-0.018963292,0.010482669,-0.013239875,-0.014866054,0.44984072,-0.009407401,0.023267597,-0.023863792,0.03989698,0.036321044,-0.10616785,0.042148188,-0.20533225,-0.16940714,-0.20211539,0.099454105,0.21128051,0.115740925,0.04574099,0.12908205,0.050349534,0.06246391,0.0652979,0.07434866,0.016250528,0.15503389,0.023875326,-0.05282858,-0.08225949,-0.0634179,-0.10252446,-0.09685916,-0.10734269,-0.06633416,-0.09432143,-0.051273234,0.12129158,-0.27391705,-0.05370426,0.096451044,-0.34557566,0.090834185,-0.07779529,-0.2208777,0.11384784,0.116290465,0.14286591,0.11934174,-0.16603896,-0.22153269,-0.16377491,0.008222699,0.021455497,0.0076023936,0.042876184,0.09388282,0.043516695,0.099605605,0.46364766,0.08952578,0.042522907,0.09854018,0.026270807,0.07085553,0.22226556,0.06855726,0.13862032,0.17126317,0.15312093,0.08527237,0.2099525,0.06405002,-0.010357112,-0.029275626,-0.0061293393,-0.033466995,-0.574816,-0.040099233,-0.0047141314,-0.04363382,0.00033412874,-0.006998986,0.07422033,-0.0051833093,0.060804725,0.4483724,0.05806014,-0.0012225807,0.022673368,0.004930526,-0.034685373,-0.0828208,-0.034232333,-0.090006754,-0.2597327,-0.101256154,-0.042921215,-0.103551954,-0.03695029,0.029319167,0.06482813,0.030006468,0.048225164,0.2704998,0.057051584,0.050528407,0.08373444,0.038027346,0.11243098,0.0030316338,-0.18707223,0.03023547,-0.2841316,0.037787378,-0.19553775,0.00027149916,0.13508801,0.014784962,0.007992295,0.024701282,-0.01527828,-0.47807056,0.0063833296,0.023193002,-0.022757947,0.016524792,-0.01498089,0.03499198,-0.012627065,0.014073491,0.31882083,0.03686142,0.008797467,0.008793205,-0.002264535,0.018339187,0.094884165,0.022153223,0.09296335,0.25312322,0.091701776,0.017109275,0.10484691,0.029103113,-0.035152,-0.026138335,-0.04083754,-0.012579758,0.36907405,-0.0017395169,-0.045101404,-0.020889878,-0.040762007,-0.039211713,-0.10150647,-0.032188118,-0.103987455,-0.123106055,-0.09963119,-0.037876375,-0.08513674,-0.040531814,0.082276925,0.14917135,0.08196441,0.1094833,-0.2863446,0.08933622,0.070771486,-0.011380538,0.06267314,-0.009372443,-0.014910519,-0.014235854,-0.02406454,0.48388848,-0.02409929,-0.0071498933,-0.021177948,-0.0031880438,0.032823265,-0.043957055,0.0132882595,0.05103624,-0.43250155,0.06208542,0.15069598,0.16750747,0.1445034,0.05138108,0.1969487,0.057178557,-0.13498822,-0.40187806,-0.15146828,0.05727938,0.17496231,0.07099864,-0.035188496,-0.017731845,-0.011467516,-0.2357148,0.41944999,-0.21309826,-0.013480617,-0.062263727,-0.033664733,0.017019749,0.022581682,0.0028658956,0.021552756,0.36096668,0.012148857,0.01863709,0.02756077,0.009187639,-0.0011538267,0.001811266,0.0013965326,-0.01445502,0.4949225,-0.02126956,0.0010953546,-0.01584369,0.005054176,-0.033345044,-0.4122354,-0.037624657,0.0606492,0.59696573,0.029853344,0.01331608,0.16111739,0.0127057135,-0.0035272539,-0.029350221,0.00080764294,-0.034018546,-0.40868807,-0.03447681,-0.011377215,-0.038764358,0.0014750361,-0.0039957203,0.011005845,0.0028470177,0.015546158,0.38425556,0.05184698,-0.034359545,0.05697739,-0.017882764,0.02295971,0.04484193,0.02375403,0.06226778,0.34640926,0.052207172,0.022640578,0.042108193,0.026482046,-0.07304737,-0.086348295,-0.04958661,-0.11014962,-0.1322962,-0.12913872,-0.086463004,-0.11806747,-0.08439855,0.09663147,-0.11285284,0.09580231,0.19766968,-0.49350154,0.21328616,0.06606832,-0.09265825,0.07856026,0.009340234,0.1169157,0.050738752,0.13449162,0.36408797,0.16482446,0.04750696,0.10102534,0.01578319,0.10318607,0.15834224,-0.013800979,0.13793859,0.029162705,-0.24099931,-0.02308938,-0.17555147,-0.068981916,0.07644279,0.15339512,0.012533724,0.1718347,0.04933636,-0.24318838,-0.0010872483,-0.20306721,-0.07985617,-0.018084884,0.096824646,0.21095872,-0.23000222,0.25602385,0.26173702,-0.2365734,-0.008523822,-0.010683447,0.039070725,0.15696146,0.047678977,0.009012655,0.23952718,-0.033215642,0.043715335,0.12178427,0.0490368,0.068241656,-0.1436315,-0.20350316,0.12925817,0.2539286,-0.15764898,-0.08492851,0.12409547,0.08404249,-0.0586901,-0.22828043,0.10032726,0.23800229,-0.16759607,-0.2622937,0.090880305,0.2228927,-0.050490696,-0.03995858,0.0047852695,-0.049210757,0.065151036,0.33412796,0.046456307,-0.05008108,0.0063855127,-0.04640889,0.021457449,-0.020643435,-0.008040138,0.2294904,-0.57700276,0.23315333,-0.0049124993,0.053923815,-0.005719781,-0.01944673,-0.037741564,0.011479616,0.02382034,0.35815483,0.054523528,0.0077943504,-0.011276692,0.017091941,0.061806172,-0.19743688,0.04842788,-0.15524107,-0.07170808,-0.1758781,0.030697107,-0.12218809,0.028528396,0.01985228,0.022686865,0.022604644,0.023710549,0.34321797,0.032612786,0.023751274,0.029524803,0.027003288,0.0075917095,0.112032354,0.015329063,0.114432216,0.21194571,0.10487598,0.018406495,0.09664424,0.019192606,0.012793481,-0.25335076,-0.14684099,0.25061113,0.042009205,-0.2933342,0.09032461,0.2276827,-0.0023536682,0.05783236,0.18965912,0.07550837,0.119422376,-0.39020193,0.07533121,0.055336416,-0.007770911,0.02738002,-0.0047033727,0.017329395,0.000757277,0.0015027821,0.44114205,0.009316802,0.0057334676,0.024147779,0.004380379,0.060757767,0.19368929,0.015285611,0.16267651,-0.387071,0.023700025,-0.010257557,-0.050950333,-0.07106113,-0.06545079,-0.051103592,-0.049942784,-0.056711882,-0.112574875,-0.04342202,-0.04819435,-0.07495117,-0.04201767,0.032945544,0.08529794,0.043794036,0.06536555,0.30967334,0.070213795,0.03307718,0.096601725,0.038794607,0.061486706,0.07382402,0.054134578,0.09879956,0.27760702,0.10127097,0.050185055,0.104573555,0.062839985,-0.023713017,-0.051403463,-0.01205188,-0.047620356,-0.4400307,-0.0559092,-0.02570349,-0.03764057,-0.04236415,-0.03758645,0.22627951,0.18270968,-0.19876921,-0.2441532,0.20955682,-0.034701914,-0.18661925,-0.049920548,0.038489223,0.07309134,0.048514068,0.048045218,0.29114538,0.067246616,0.06876886,0.022285521,0.072458446,-0.0149796605,-0.09616637,-0.023058861,-0.021378368,-0.3409069,-0.0013217926,0.0487895,0.33926126,0.07329702,0.022976369,0.03959903,0.028253108,0.032527834,0.3297492,0.0359828,0.030687787,0.025427043,0.025883645,0.035852253,0.0990654,0.054949522,0.10946643,0.16269574,0.09920145,0.053469986,0.110994905,0.054602385,0.05737859,0.08910081,0.054013133,0.088384554,0.20497957,0.08398926,0.026862608,0.073818624,0.034775916,-0.016878039,0.18291318,-0.023626268,0.022527456,-0.49199545,0.030523121,0.011024237,0.24258485,0.013435543,0.0010779798,0.02771905,-0.0011727214,-0.009548843,0.49881488,-0.0009954572,0.005208075,-0.00197348,0.002211213,-0.060805574,0.098216295,-0.028501645,0.07780859,0.29669696,0.082342714,-0.03844291,0.13001929,-0.023390174,-0.01898402,-0.10337168,-0.026415288,-0.10183546,-0.15685046,-0.093443155,-0.014357798,-0.108680815,-0.009962529,0.021503657,-0.10040566,-0.0020999163,-0.19553019,0.4365224,-0.19875282,0.07041627,-0.13004676,0.07273188,-0.06793243,-0.006075144,-0.05454062,0.38930702,-0.3958634,-0.01220274,0.04007399,-0.15683743,-0.012378126,-0.00019142032,0.03339569,0.0040234625,0.011797994,0.49707782,0.01866708,0.005454853,0.0025616288,0.004158497,0.036847673,0.12784758,0.0460376,0.14667699,-0.031892568,0.14617203,0.046060026,0.13216864,0.049724817,-0.032097656,-0.089463785,-0.04074326,-0.0893305,-0.22084683,-0.09029146,-0.049713753,-0.11570693,-0.035229772,-0.075284414,-0.13799857,-0.09107432,-0.13104558,0.2365104,-0.11950728,-0.09609616,-0.122679636,-0.10130967,-0.0004889667,0.07422501,0.011167765,0.07346165,0.32555288,0.07189494,0.015684627,0.079633184,0.025687426,0.0023516864,0.018845916,-0.2169092,0.24070728,0.38890815,-0.30835846,0.14975247,0.11780375,-0.026248276,0.016216733,-0.06619036,-0.052838385,0.23850718,-0.33294904,-0.100066364,0.042182826,-0.035062984,-0.048455,-0.0012363195,-0.1227085,-0.027557403,-0.06169626,-0.2956122,-0.024572663,0.067494564,0.32184494,0.07345325,0.18806316,0.042897247,-0.09114747,-0.2054168,0.27880245,0.052579746,-0.046951175,-0.1373964,0.15050402,0.07983998,0.05243613,0.077396154,0.064746544,0.10931271,0.071309686,0.08760156,0.0486601,0.0692096,0.07368454,0.029322296,0.04914851,0.17156214,0.06363951,0.16890231,-0.023879413,0.1387918,-0.010057598,0.06809055,0.10832148,0.07367906,0.048239574,-0.4589278,0.051106334,0.06073177,0.09327543,0.073709995,-0.19512823,0.058983445,-0.015478,-0.27132243,0.28514484,0.24870852,-0.041919533,0.058280304,0.16183022,0.046530083,0.08026025,0.03769362,0.01505807,0.48783484,0.019450128,-0.07331553,-0.024969578,-0.041254938,0.029978529,0.08202177,0.023143351,0.048439503,0.2727692,0.06425297,0.03051044,0.061413825,0.02950181,-0.007439494,0.0539591,-0.0098269135,0.053313553,0.38786268,0.058292605,-0.00079780817,0.060129613,0.009023026,0.043435603,0.14564407,0.051215112,0.12970245,-0.48279274,0.15590268,0.05289956,0.13020614,0.044605486,0.0060519576,0.018886,-0.0023223162,-0.0012595057,0.40580535,0.010649532,0.005695164,0.03651163,0.0017577112,-0.066771924,-0.054202378,0.030689806,-0.30074647,-0.28143534,0.068125516,-0.017932974,0.05028397,0.070181996,-0.018207222,0.053044923,-0.031103164,0.18105465,0.38876417,0.1562692,0.010191262,0.07138106,0.0018734932,0.0163005,0.05121553,0.010879874,0.05400917,0.35716444,0.034702927,0.01078384,0.0645138,0.006680727,0.03643006,-0.016613208,-0.058383014,0.26324916,-0.29876867,-0.02358821,0.047910094,-0.04550805,-0.051726967,0.039626837,0.07881361,0.044010624,0.08964111,0.29337955,0.092908055,0.037496135,0.09146382,0.03683254,-0.03738123,-0.09339415,-0.021272153,-0.11021725,-0.19853228,-0.09537065,-0.025241911,-0.11035295,-0.021357685,-0.029097915,-0.026465602,-0.038097564,-0.052550554,-0.3589554,-0.038731173,-0.049094737,-0.035320386,-0.06437577,0.017055452,-0.062452674,0.019456476,-0.07309127,-0.4811741,-0.056889176,0.0062789917,-0.07008055,0.009249568,-0.071097255,-0.10473025,-0.063706815,0.0786607,-0.14984941,0.052438587,0.05609812,0.29765677,0.054220796,-0.055730864,-0.09566355,-0.07865828,-0.08275801,0.3871665,-0.102311626,-0.05929333,-0.10656065,-0.046407163,0.057661653,0.164364,-0.004932344,0.0995338,0.27804872,0.15652812,0.029228419,0.13617298,0.04606395,0.035781354,0.14735287,0.04783553,0.12864283,-0.4879507,0.14147821,0.058136314,0.11552681,0.043744624,-0.0024155974,-0.20891023,-0.05795948,0.17286277,0.06257902,-0.2389101,0.05020535,0.16744806,-0.011131972,0.07183626,0.18120846,0.053769767,0.13009065,-0.44875807,0.13032891,0.08599497,0.14522813,0.07419002,-0.008242726,-0.2402482,-0.061632335,0.21795571,-0.0883145,-0.27577382,0.12743773,0.19872528,-0.009465665,0.026369989,0.07251209,0.037302017,0.075977296,0.21328954,0.07470418,0.046525747,0.112055495,0.050885443,0.065873325,0.0664984,0.055177778,0.09749988,-0.588146,0.08010751,0.04792458,0.07440299,0.05628687,-0.11463553,0.098139286,-0.14156637,0.056513786,0.2515225,0.118173,0.081623286,0.11230677,-0.07851124,0.031147704,-0.06266755,-0.08012858,0.111452684,-0.2513193,-0.23507512,0.06873557,0.07125914,-0.07149041,0.019707233,-0.111247025,0.076898366,-0.32130623,-0.49983492,0.42390984,-0.003952831,-0.047011733,0.12683904,0.014728308,0.02989009,0.0130854845,0.057455778,0.28216767,0.05093956,0.011194468,0.08033838,0.008037955,-0.030240178,-0.09602368,-0.028151244,-0.10499776,-0.24406868,-0.09560609,-0.041026905,-0.08418119,-0.024418347,0.015764132,0.18584645,0.0048466325,-0.116299324,-0.29715338,-0.09374711,0.038479447,0.20147312,0.040411696,-0.040686607,0.09994024,0.068969905,0.049877286,-0.169079,0.26981717,-0.047462646,-0.13573457,0.09331958,0.0060886443,0.074364126,0.016852692,0.056225,0.31719095,0.03666237,-0.007893428,0.0453991,-0.019428581,0.010204911,0.039438065,0.025034219,0.021086007,0.3112713,0.030939758,0.033119887,0.011962235,0.030434929,0.07321283,0.31974435,0.07094388,-0.08582923,-0.1382162,-0.08783737,-0.018911451,0.022037879,-0.017473757,-0.04018247,-0.10721946,-0.046279043,-0.014443032,-0.34878713,-0.016007736,-0.0007805079,0.37081555,0.0020796955,0.022745505,-0.007884741,0.01068487,0.104757994,0.2875349,0.1081129,0.0163216,0.13083048,0.022176713,-0.00550282,0.016751945,-0.0070409477,0.00650993,0.48482573,-0.01624858,-0.0033305883,0.0071722865,0.0011295972,-0.07905519,0.16531658,-0.060387433,-0.08341093,0.37359086,-0.11150373,-0.085379615,0.19084567,-0.048349023,0.002175033,-0.003932953,0.0054401755,0.0034985542,0.44831622,0.010321036,0.007323562,-0.019598424,-0.0016477462,-0.026678085,-0.09983185,-0.027994245,-0.12394774,-0.27909404,-0.12667114,-0.049101353,-0.13337474,-0.063150644,-0.1873481,-0.20815694,0.052233994,0.3659392,-0.1694218,0.008014739,-0.029663593,-0.048735887,-0.04911511,-0.06394133,-0.12467137,-0.06169802,-0.12301314,0.49375564,-0.10720742,-0.07030004,-0.10541323,-0.067684084,0.01282692,0.02925855,0.00787425,-0.15125483,0.4278556,-0.22926009,0.050263166,0.0082632005,-0.06677466,0.010894783,-0.07449356,0.029290974,0.2897662,-0.5129652,0.30405873,0.020095885,-0.053543985,0.042234987,0.05676566,0.2846295,0.06215921,-0.0031974614,-0.37947136,0.022316843,-0.04025054,-0.0535931,-0.039474167,0.018604279,0.039283335,0.013758779,0.0233026,0.32386944,0.036151826,0.050180763,0.020871952,0.03876257,0.0105828345,-0.11594772,0.0208655,0.110088766,-0.2828849,0.14257048,0.07767984,0.20329845,0.057390988,0.014782965,0.13592449,0.050656673,0.12605496,-0.009575039,0.12832627,0.0139608085,0.12729552,-0.004561782,0.07324952,0.04581225,0.07296826,0.034419417,0.24909824,0.02344358,0.060551815,0.067665055,0.07518034,-0.034887597,0.09534508,-0.051516145,-0.25613365,0.37472895,-0.24551213,-0.054635882,0.13088065,-0.030591488,0.03017193,-0.05934097,0.019961417,0.17649084,-0.3673453,0.1946151,0.033554465,-0.1071381,0.05592227,-0.024641424,-0.006300986,-0.03645453,-0.031019524,0.46617395,-0.034683093,-0.021677792,-0.018522639,-0.033239573,0.059676766,0.049966402,0.05233115,0.077984996,0.21063593,0.070860386,0.049066238,0.073963,0.05076751,-0.0050950646,0.04776801,-0.005454868,0.024868399,-0.66159976,0.018777251,-0.009299427,0.04453307,-0.007866472,0.028256834,0.20772922,0.019495666,0.17143166,-0.0065212995,0.16177794,-0.050437763,-0.18795073,-0.018413983,0.024572998,-0.007130921,0.025283903,0.0062652826,0.39128876,0.0139555335,0.0143998265,0.021217711,0.017138124,0.027848482,0.048392475,0.033455327,0.06269153,0.324505,0.083135664,0.028718278,0.08217335,0.022389345,0.13194372,0.0150992945,-0.05783546,0.07485856,-0.05651048,0.2337505,0.06484145,0.1279644,0.04667078,-0.10393062,-0.3467945,-0.02530931,-0.03583795,0.22002336,0.09549105,0.020866036,0.13100773,0.047471672,-0.023218304,-0.24021305,-0.029438674,0.23151627,-0.11764714,-0.2691398,0.17531273,0.19432968,-0.0041759014,0.027341962,0.061741874,0.021307528,0.055685773,0.26639944,0.07095939,0.066468716,0.06498703,0.044752456,0.004299104,0.074671745,0.003927691,0.055168927,0.32679152,0.044487536,0.006475568,0.0537045,0.021752834,-0.008579731,0.18436596,0.01476562,0.09718892,-0.577167,0.11518584,0.060925603,0.19991802,-0.021034628,0.07622588,-0.13903242,-0.072348304,0.380076,-0.29177558,-0.03288792,0.07502073,-0.1522392,0.03804197,0.026729658,-0.012206331,0.015546769,0.00035251677,-0.53108764,-0.015878528,0.014508009,0.008519754,0.020574927,-0.08377972,-0.100496724,-0.1003685,0.014064133,-0.4357726,0.012397975,0.123019785,0.19738612,0.119781286,0.058270693,0.13019854,0.0445441,-0.038780987,-0.43680853,-0.064098775,0.035589576,0.2283223,0.068277955,0.012796223,-0.27205557,0.01497215,0.1999787,0.12097669,0.20078154,-0.017080426,-0.219241,-0.025567055,0.08005944,0.0779196,-0.030745372,0.08733192,0.27568138,0.09765881,-0.009515196,0.078341395,0.07650325,-0.010998309,0.0027128002,0.0043279678,-0.0031717569,0.4257545,-0.0076891184,-0.017528206,0.0010768175,-0.014666364,0.15941916,0.19734238,-0.09988261,0.18580213,-0.23173016,-0.19014192,-0.117501944,-0.187372,0.102393486,-0.0044228286,0.11079037,-0.055066347,0.12699161,0.24893802,-0.09781939,-0.118505806,0.020914584,0.07823194,-0.034695476,0.112056404,-0.023447216,0.10009003,0.31683695,0.08982724,-0.0030304193,0.07278386,-0.007909372,-0.04809612,-0.055734694,-0.046258256,-0.06778754,-0.22478497,-0.063281,-0.056463182,-0.06308296,-0.054337084,-0.068920895,0.014997184,0.01889655,-0.10179487,-0.33067888,0.2936198,-0.08456487,-0.007146269,0.07119522,0.06421733,-0.14755014,-0.012513727,-0.05104379,0.44440728,-0.09025821,-0.29947472,-0.008042544,0.038271844,-0.022259772,-0.026235655,-0.016133785,-0.053089384,-0.3932455,-0.05128821,-0.007448077,-0.09125568,-0.011797383,0.08180902,0.04350573,0.07712656,0.16114536,-0.022900462,0.16655704,0.038955897,0.11649138,0.02472186,0.018975839,-0.019215584,0.022649365,-0.032984346,0.5241743,-0.04363859,0.028643578,-0.045193553,0.036326066,-0.03547597,0.035768628,-0.039040208,-0.09271455,-0.22895467,-0.08036753,0.043446794,0.361512,0.032959253,0.009908622,0.02219972,0.018832684,0.04666501,0.33471167,0.04182887,0.0046556806,0.04962551,0.008380115,-0.15259838,0.08386278,-0.10408127,0.12559119,0.36302558,-0.08257216,-0.037524566,-0.027466662,0.15313894,0.05929503,0.08599534,0.04774183,0.10107774,0.16245355,0.09024441,0.08706188,0.116745465,0.07744619,-0.03480448,-0.068442784,-0.040290117,-0.093015045,-0.2805858,-0.08199348,-0.036948085,-0.059708767,-0.048832655,0.009863153,0.033812612,0.007457435,0.03716502,0.35376033,0.047552586,0.0012413654,0.053783536,0.009116709,0.061060578,0.013411522,0.061242484,0.0021730848,-0.47025666,0.016328365,0.06921077,-0.020902932,0.043918073,0.023901671,0.07078026,0.019076668,0.05477354,0.35337234,0.05209151,0.0156136155,0.035368457,0.016994476,0.067873836,0.29436654,0.097677946,-0.039108098,-0.30423597,-0.17235743,-0.088342845,0.018298425,0.019146204,0.014657319,0.02282679,0.0077329874,7.414818e-05,0.49339572,0.011563465,0.0065946504,0.008035123,0.011172958,-0.010225087,-0.084013455,-0.0044706464,-0.08845679,-0.3829891,-0.07733402,-0.020636216,-0.0733975,-0.01710537,0.0117042065,-0.1170007,0.019563735,-0.16380554,-0.04030657,-0.16241676,-0.019884467,-0.17293766,-0.028455138,-0.039827555,0.12644058,-0.12760675,0.13448507,0.26778066,0.14542532,-0.1357935,0.13088238,-0.08575541,0.1427306,0.20374638,0.12315389,-0.14095058,-0.2720306,-0.1619921,-0.018812925,-0.029978126,-0.022613326,-0.05923575,-0.11155787,-0.08009699,-0.10983887,0.49364507,-0.08447909,-0.05815126,-0.098875314,-0.089128345,0.091323376,-0.13780124,-0.006690681,0.41480303,-0.30498666,-0.09171346,0.052726164,-0.16213724,-0.020956606,0.052376032,0.072748095,0.05488646,0.0612572,0.27641582,0.06586215,0.02382496,0.060871188,0.03370747,-0.014133096,-0.19867021,-0.0023322701,-0.2110407,-0.04052475,0.18226439,0.0016428679,0.16805165,0.0793715,-0.021381378,-0.08591065,-0.023642346,-0.098890975,-0.26388812,-0.07862431,-0.041994274,-0.04990524,-0.037213743,-0.016917229,0.0023252368,-0.012095809,0.021462359,-0.5797945,-0.00423193,-0.01055114,0.0020632613,-0.008844852,0.031507432,0.043335736,0.018143594,0.029865727,0.31408155,0.0461846,0.06950021,-0.0041568875,0.053919613,0.041434944,-0.034963124,0.041086763,0.17938697,-0.4299205,0.18649381,0.07868986,-0.08539507,0.07310946,-0.10864394,-0.24817702,-0.006267652,-0.24300346,0.02141911,0.23023516,-0.002909273,0.18457407,0.09463379,0.022466376,0.045513302,0.0107631385,0.03561586,0.4732029,0.03683138,-0.0025963075,0.025843486,0.0025450587,-0.04559049,-0.010250866,-0.049179792,0.044146672,0.4027494,0.034341484,-0.012706615,0.02640909,-0.00847806,-0.0053132065,0.041375667,0.013354629,0.0074256733,0.34195265,-0.010855727,0.011281431,0.008998066,0.0024122,0.06527746,0.018993959,0.051277608,0.1280626,-0.51247823,0.14139268,0.04898882,0.007786423,0.056276083,-0.011425182,-0.24771479,-0.026924789,-0.16752464,-0.13075796,-0.11774312,-0.042553563,-0.084280536,-0.0501889,0.040302098,-0.07225393,-0.14659214,-0.10660006,0.47505808,-0.019214004,-0.1632073,-0.13875353,0.027202368,-0.050726116,-0.22208557,0.07965253,0.2835762,0.20621789,0.22851923,0.02061987,-0.23072076,0.004037857,-0.010266542,-0.13348481,-0.007034451,-0.121383205,-0.10405857,-0.12677073,-0.02244268,-0.13950084,-0.023390055,-0.08149458,0.14673145,-0.10161181,0.12212036,0.28529727,0.117186606,-0.072174236,0.11941439,-0.032814335,0.0073015243,-0.20181835,-0.1922274,0.13089767,0.37979466,0.006224215,0.10847625,0.1705705,-0.020808011,-0.027858794,-0.2629478,-0.07119113,0.23328607,0.0049182326,-0.23765863,0.08599055,0.19009927,-0.009519696,0.023127198,-0.02950345,-0.026757598,0.2891966,-0.09933014,-0.20055008,0.04007516,-0.014747709,-0.017927002,-0.114562124,-0.10109082,0.008943915,-0.24404247,0.42570788,-0.07318264,0.047854587,-0.0011537299,-0.06807539,0.190225,-0.19845885,-0.15250313,0.15804774,0.2507689,0.1930746,-0.05393462,-0.12151269,0.08626115,0.013144836,0.045277774,0.016383708,0.031916235,0.47211355,0.032102168,0.02113679,0.029066026,0.01099067,-0.0057251453,0.0035112305,-0.015516102,0.0037031882,0.4258144,0.005891338,0.0068089664,0.026500672,-0.00046990067,-0.0058257505,0.008583486,-0.005705327,-0.035880387,-0.5750825,-0.0400452,0.0053361654,-0.041589305,-0.020483572,0.056091845,-0.043478385,-0.40612313,0.0065698884,0.35973054,0.018479288,0.047668576,0.038933992,0.019238308,0.022453964,0.3537537,0.020057917,-0.03654796,-0.25574774,-0.030046925,0.0071365833,-0.10049917,0.0059973523,0.07953566,0.15849984,0.06782806,0.11337882,-0.6043188,0.11382937,0.077819124,0.15132162,0.067634314,0.07584302,0.12153937,0.06418514,0.053292766,-0.4616449,0.025588617,0.05160582,0.10081756,0.04748431,0.037234187,0.08178636,0.0358049,0.04397565,0.34202608,0.048216194,0.037477195,0.0676909,0.02919121,0.008122057,-0.21934296,-0.18089113,0.21595313,0.1467458,-0.24881208,0.027628891,0.18749475,0.0041719005,-0.021622933,-0.04755278,-0.013164312,-0.027281404,-0.43682072,-0.020980954,-0.009989858,-0.025986373,-0.02536299,-0.05520287,0.059945107,0.16427617,0.24495858,0.20349145,0.013023496,0.02565965,0.03498844,0.01335752,0.074536264,0.07561177,0.061019838,0.073759794,-0.5507772,0.098173976,0.06141162,0.109327495,0.05361817,-0.065268636,-0.11742145,-0.059316754,-0.11306147,0.43327504,-0.10478614,-0.0620009,-0.124166705,-0.07773805,-0.017383218,0.16192763,-0.024020031,0.19499631,-0.51537144,0.19358325,-0.07623246,0.23631921,-0.065400034,-0.048419923,0.04276216,-0.030996941,0.016591579,0.44285512,0.003748387,-0.047390494,0.00144732,-0.05883201,-0.006333383,-0.00075373054,-0.0028695464,0.012886643,0.46539986,0.02137044,0.002592776,-0.00033450127,0.00023064762,0.1767199,0.11456367,-0.09006952,-0.19887999,-0.3471084,-0.18707883,-0.12490472,0.037805647,0.11182147,-0.020964772,0.10348697,0.020422697,0.07929446,0.32186848,0.079797894,-0.34252292,-0.25983417,0.03669341,-0.0362958,-0.025526538,0.030577838,-0.029148817,-0.47308534,0.36970145,-0.026423529,-0.07514914,0.022484869,-0.016974181,0.21005395,0.047863424,-0.24768147,-0.026389152,0.191051,-0.047477722,-0.23217821,-0.018585682,0.030739129,0.07062563,0.039181054,0.08125709,0.19953275,0.07782141,0.04525799,0.07369554,0.04465276,0.042989254,0.055811346,0.05058503,0.012448072,-0.48722425,0.014649376,0.04181011,-0.0036765933,0.03340444,-0.19827105,-0.051403165,0.24754572,0.038565397,-0.07125324,0.024507537,0.23026204,0.031040298,-0.2187429,0.064856626,0.15815462,0.08293593,-0.16094303,-0.35911575,-0.18021129,0.08569012,0.21633045,0.09584874,0.051284075,0.13389198,0.041751295,0.13851403,0.119207084,0.16891316,0.05250919,0.11741519,0.04922893,0.023968041,0.014887512,0.021781981,0.037742257,0.2245486,0.04533553,0.024544984,0.03500604,0.01878433,0.02122116,0.16223386,0.025718391,0.18417358,-0.2840349,0.18786874,0.03112799,0.14878461,0.022956312,0.03217931,0.10992193,-0.16915178,0.13608956,0.3324741,-0.06391075,-0.15264589,-0.03618119,0.1812293,-0.020317793,0.065424666,-0.03689158,0.080394685,0.362967,0.08331105,-0.059812225,0.11967778,-0.054410696,-0.028396726,0.23441829,0.026870815,-0.2599513,0.052649133,-0.25604987,-0.016442746,0.24845397,-0.046626627,-0.0026957393,0.076137535,-0.0013440549,0.057303444,0.3212407,0.055767953,0.031096756,0.081189126,0.026017576,-0.0059631467,0.023732778,-0.0038941205,0.046294354,-0.6005412,0.034319162,-0.0018625557,0.030030191,-0.0058820397,0.05782122,-0.15569691,-0.20610833,-0.00980702,-0.21625039,0.4221304,-0.036109447,-0.050474137,-0.004314147,-0.05332601,-0.02779746,-0.06269333,-0.051496357,-0.22957101,-0.05413549,-0.048300207,-0.042897247,-0.042936444,0.027358294,0.14494377,0.03642136,0.15785295,-0.30984992,0.12964723,0.048129916,0.13826543,0.035840467,0.010593742,0.22321922,0.014152128,0.07899898,0.45352522,0.05779297,-0.030630551,-0.30606964,-0.043894365,-0.019231692,-0.0164527,-0.00944449,-0.01935196,0.504864,-0.0024559796,-0.013054192,0.021402478,-0.01702407,0.023935914,-0.024009913,-0.04977632,0.36885428,-0.3024898,-0.00929445,0.057985604,-0.076256365,-0.08033231,0.05041021,0.36089033,0.038838744,-0.036492974,-0.25346974,-0.023669582,-0.050080597,-0.12707317,-0.04940784,-0.0019390583,0.014896512,0.0039256215,0.019846976,0.3991111,0.01886195,-0.0026885867,0.01835227,-0.006017804,-0.031365186,0.029263198,-0.031823754,-0.0029324703,0.44981143,-0.0052456856,0.009292951,0.037601486,0.00073575974,0.03600049,0.014462233,0.029298961,0.00929141,0.36928996,-0.008494914,0.03736043,-0.009384483,0.04959169,0.064641714,-0.19382854,0.06604886,-0.1509116,0.36700392,-0.14366917,0.03007707,-0.13719589,0.002916664,0.020403445,-0.014747362,0.013511851,0.00400427,0.43432236,0.017680347,0.006689012,-0.020416439,0.0074201524,0.06336667,0.04997611,0.029744722,0.083317995,0.22980893,0.17911159,0.045684457,0.038476646,0.013044983,0.083387315,0.16159993,-0.031509787,0.050231025,0.4611776,0.034616232,0.017186284,-0.12526184,-0.27813882,0.009223223,0.06465596,-0.021231294,0.08992122,0.31497955,0.06441152,0.0010441542,0.08170171,0.011948973,-0.10518773,-0.016723737,0.18818378,0.0053263754,-0.39882073,-0.025546163,0.21905138,0.012327202,-0.13499989,0.21652687,0.009644568,-0.14519382,-0.003031969,-0.3487167,0.013811082,-0.19044605,0.0263623,0.24024333,0.11263132,0.23913603,0.12536716,0.07454656,-0.31823125,0.08269036,0.021905094,-0.016318994,0.0229588,0.10931367,0.011570036,0.015496254,0.09963089,0.26407105,0.08203195,-0.06275079,0.07125771,0.12642638,0.021318793,0.04758662,0.02149804,0.04052484,0.41255736,0.0438357,0.020550355,0.030534565,0.018439353,-0.0015099049,-0.11439842,0.016463399,0.11819422,0.10532061,0.13156235,-0.079122245,0.26781985,-0.109589174,-0.017357498,0.051604435,-0.013099685,-0.055588603,-0.36593056,-0.045530677,0.061686337,0.23676468,0.06593993,-0.050315917,-0.073396474,-0.041974902,-0.052773878,-0.30263627,-0.042395502,-0.046082377,-0.06394152,-0.050328385,0.049696296,0.12548254,0.026182197,0.069530085,0.19908112,0.0311082,-0.07150248,-0.37613535,-0.08154595,-0.018324405,-0.036279052,-0.013720211,-0.020674169,0.450413,-0.036007345,-0.061510473,0.028063923,-0.03684561,0.018121421,0.07022816,0.018349573,0.08285391,0.4376129,0.081460804,0.009285033,0.075231075,0.018187754,-0.029990017,0.06405622,-0.08983803,0.075349875,0.3359868,0.087884724,-0.07045242,0.15242115,-0.059556335,-0.029578656,0.16726774,-0.06628126,0.12076068,0.12970978,0.14649752,0.022807553,0.11755374,-0.07876289,0.0044863224,-0.18545836,0.10820496,-0.041018426,-0.31277266,0.34690177,-0.03490877,-0.11670321,0.07541901,-0.0014849305,0.10993391,-0.009468474,0.03828278,0.3704104,0.03968215,0.00023766235,0.111905694,-0.006241858,0.021249354,0.0040581226,-0.002133727,0.00032639503,0.363235,-0.0072110295,0.003417313,0.007549584,0.01171574,9.894371e-06,0.011940196,0.00770521,-0.026306778,0.32070217,-0.024643458,0.0034926236,0.032472074,-0.0027331114,-0.022699997,-0.018063247,0.1305581,0.13666512,0.29141355,0.14002264,0.11243552,0.022028923,-0.05987668,0.05071844,0.13116245,0.057755947,-0.08285119,-0.4192021,-0.10914379,0.04508859,0.14672561,0.04208973,0.042701155,0.11809939,0.044878423,-0.13486838,-0.3431988,-0.1315189,0.08975782,0.2024718,0.07769579,-0.24359864,-0.15671574,0.04248932,-0.09027004,0.48834008,0.006434813,0.034593105,0.0474431,-0.114097536,0.17137358,0.014528975,-0.19374764,0.002746433,-0.37522995,0.047384024,-0.18702084,0.051414214,0.15779932,-0.087607,0.14684916,-0.11856805,0.09090839,0.29109782,0.1108588,-0.11201626,0.13207608,-0.085083716,0.056225896,0.3265945,0.057300925,-0.06319745,-0.29190978,-0.0663647,-0.007782005,-0.05133483,-0.0032638311,0.06334978,0.20661849,-0.15171498,0.23726173,-0.3751798,-0.06746025,-0.1889871,-0.018091232,0.0071101487,0.0030234456,-0.0043410286,0.008080274,0.0043524504,0.5194016,0.0032895803,-0.014198646,0.0053800493,-0.00047551095,-0.01021044,0.023096919,-0.0005091429,0.031506516,0.3711911,0.042929173,-0.02169706,0.038861573,-0.005758792,0.021544695,0.03786868,0.012571335,0.064728715,0.2957971,0.055826157,0.030814469,0.040385935,0.022738412,0.11957997,0.00088867545,-0.19298145,-0.0035319328,0.33082005,-0.02412188,-0.20567864,-0.0405097,0.14134519,0.025425851,-0.03150332,-0.02550003,0.3094899,-0.19585855,0.007411897,-0.1519033,-0.16653791,0.017551243,0.14736873,0.17267126,-0.007027447,0.23664391,-0.093362,-0.23405206,-0.00344491,-0.2336486,-0.06275359,-0.044136927,-0.09679198,-0.046068326,-0.13422316,-0.16053404,-0.13936563,-0.01109463,-0.13006426,-0.012188911,-0.05107963,0.0040255785,-0.06904304,-0.10534684,-0.30730203,-0.05259557,0.03472364,0.36146754,0.011752665,-0.01189208,0.016882718,-0.012639284,0.009610176,0.5791652,0.0068972707,-0.02721674,-0.007870689,-0.026829839,0.07958013,0.03746982,0.098424196,0.08843246,-0.48666435,0.099497914,0.11709108,0.09612335,0.116386846,-0.033624828,0.014208347,0.077525206,0.09577155,0.27480233,0.054089695,0.046268284,0.10271133,-0.0956783,0.29233485,0.20900327,-0.018589452,0.06937033,0.25324965,-0.015484918,0.02818036,-0.1519829,-0.29774392,-9.5784664e-05,-0.0033689141,-0.00021767616,0.022329075,-0.4962957,0.018179178,-0.006994486,0.016325444,0.0067518353,0.0008150041,-0.032002687,-0.00936943,-0.0411613,-0.50845295,-0.038163956,-0.0070956647,-0.05722396,-0.0027677566,0.012785375,0.023058057,-0.005532533,0.019496128,0.3838395,0.018387694,-0.011502281,0.02631104,-0.0022516549,0.0534963,-0.020145357,-0.058553025,0.05063486,0.25016084,0.07850243,-0.029190287,0.09299743,-0.06116706,-0.02435425,0.111338854,-0.022163913,0.0063208416,0.32336637,0.0021051466,0.004075557,0.10498664,0.012392491,-0.033518374,-0.110421024,-0.025749296,-0.10386431,-0.24766514,-0.10718034,-0.028580524,-0.13454622,-0.017460853,0.008844495,0.31716037,-0.042925343,-0.16094607,-0.23019381,-0.14242138,-0.014753252,0.35676906,0.019596606,0.00034499168,0.025983125,0.011598885,0.032414377,0.4884426,0.01042144,-0.014157027,0.019559383,-0.0040477514,0.0031698048,-0.08934757,0.0006815791,-0.06818199,-0.41729614,-0.07875663,0.0020727515,-0.08250153,0.016693383,-0.0015518069,-0.0959306,-0.12079492,-0.07794812,-0.12849592,-0.094647765,-0.09054333,-0.101997435,-0.0100675225,0.03207344,0.032712534,0.030989408,0.044762507,0.37155998,0.0498984,0.027831376,0.048913002,0.014716625,0.033099055,0.06817961,0.04993075,-0.024389312,0.37554225,-0.029039979,0.031109244,0.07391465,0.019473583,-0.055410564,-0.21041772,0.013950422,-0.21524642,0.24783662,0.083679676,-0.059382737,0.110872746,0.07679261,-0.0027132407,0.023603022,0.006951332,0.0235174,0.4864753,0.0109755695,-0.010615885,0.044309646,-0.012553811,-0.23731078,-0.08932006,0.005960554,-0.18343417,0.29753256,0.17543976,-0.0075983405,0.095844716,0.25537395,0.034838483,0.03660348,0.04176849,0.016849115,0.3206821,0.037349403,0.057643726,0.052916184,0.043390684,0.033384264,0.11804366,0.044792846,0.09618089,-0.5830104,0.0968869,0.047400683,0.14976186,0.021361887,0.13543761,0.2353465,0.0016377307,0.25303742,-0.06117422,-0.3044917,-0.017093346,-0.2540314,-0.06882048,0.055184573,0.010069352,0.050112486,0.00540936,-0.49278823,0.008351967,0.021774769,0.034142792,0.019886434,0.028022945,0.07205525,0.025314271,0.07818915,0.42267346,0.08577692,0.020552754,0.061791647,0.027249917,0.038220406,-0.24278696,-0.18826658,0.21375704,0.1818806,-0.19190718,-0.02254337,0.17552033,0.014013141,0.026131153,0.21205011,0.021636903,0.22909975,0.06880173,-0.26721698,0.0056007355,-0.25480425,-0.10235433,0.04222724,0.16242544,-0.05414492,0.27455425,-0.15557271,-0.11822337,0.011443466,-0.13721934,-0.04457599,0.044272374,0.02153337,0.047429785,0.0190095,0.4063558,0.008922726,0.060120344,0.002532974,0.059452146,-0.062454272,-0.12173234,-0.036937058,-0.04646939,0.50387806,-0.009736568,-0.033299677,-0.135728,-0.09815967,-0.06559503,-0.065722145,-0.09338814,-0.061751403,0.5534382,-0.07195616,-0.07765347,-0.008622438,-0.07450171,0.042669713,0.05079238,0.04302849,0.043222785,0.29899073,0.049753457,0.03956732,0.019513965,0.039309084,-0.047841966,-0.11919266,-0.048554022,-0.12725778,0.14046235,-0.13424258,-0.047093123,-0.16225132,-0.054525137,0.05429824,-0.012493789,0.027696878,0.14321122,-0.41978592,0.12148875,0.04245937,-0.044385165,0.04055184,-0.0010988563,0.01325435,0.0058320165,-0.14524102,0.31651837,-0.14255874,0.013300329,0.003270328,0.0040026307,-0.040537745,-0.07045084,-0.03598716,-0.07924144,-0.33763945,-0.09466474,-0.047510892,-0.0814293,-0.05609709,-0.031536512,0.12019268,-0.025213227,-0.06591232,0.3893541,-0.06656526,-0.06837064,-0.13036862,-0.04298073,0.070571184,0.02876763,0.074526966,0.080661535,-0.5267655,0.07155508,0.080830544,0.07209182,0.07279295,0.049421024,0.1320368,0.057349503,0.10869084,0.2583591,0.11511326,0.033089735,0.1438865,0.03471586,0.010128967,0.045096397,-0.001975,0.03566873,0.39938048,0.04652042,0.013163358,0.05539904,0.0108293295,0.067507505,0.20336139,0.055282682,0.026731253,-0.42634645,0.027689412,0.061154988,0.19901156,0.078252554,0.017322782,0.048563927,0.025731146,0.09603155,0.26082703,0.114539415,0.03827727,0.083420455,0.045543164,0.026137024,0.055558324,0.021755517,0.05136019,0.3318702,0.040943246,0.0150482245,0.055676684,0.023746192,0.053678565,0.06905311,0.043342844,0.03615296,-0.57831496,0.035070837,0.03126794,0.081456065,0.039014228,-0.03133595,0.20613274,0.12643641,0.07905877,0.42740372,0.06944004,-0.23733926,-0.06904434,-0.01996079,-0.18103486,-0.22209454,0.027133763,-0.30743593,0.1497497,0.22976059,0.030548442,0.18759874,0.032930553,0.027800858,0.068062656,0.024524048,0.066844344,0.2633484,0.067046106,0.0455606,0.064916015,0.037648857,-0.08190441,-0.18185167,-0.07453033,-0.17592722,0.20082472,-0.15556991,-0.065932155,-0.14974177,-0.06910258,0.037449703,0.043920994,0.02378729,0.043352127,0.28617108,0.07659447,0.013997763,0.06020534,-0.0011741221,0.03715446,0.14607012,0.026676476,0.09638411,-0.5615645,0.10353979,0.028615743,0.11935664,0.033548623,0.027771324,0.024584115,0.0012919903,0.17752919,0.29583234,0.15892822,0.041559935,0.09486109,0.064906076,-0.024602607,0.03792402,0.07698192,-0.079131275,-0.27694544,0.21982485,-0.03910786,-0.04089558,0.07676959,0.06567426,0.096414,0.052259475,0.11441642,-0.55332685,0.11046836,0.06245765,0.11301565,0.058536407,-0.011917651,0.13583115,-0.06384653,0.17345795,0.08836964,0.1679284,-0.1087079,0.10458277,-0.029473498,0.024470389,0.10336742,0.029781215,0.094570935,0.19749337,0.09672403,0.0051721334,0.058929272,0.020240277,-0.0758661,-0.06709038,-0.057624236,-0.031919777,-0.21748328,-0.049604416,-0.028081775,-0.06410489,-0.042305987,0.109405905,0.068677485,-0.18605816,-0.044661447,0.4709823,0.011823833,-0.21386635,0.04032185,0.13126963,-0.01893866,-0.21059643,0.0026376545,-0.2569394,0.07927817,0.19723135,-0.0045694113,0.17011154,0.012809098,0.010435224,-0.018192187,0.020606935,0.05560124,0.35777348,0.04905936,0.011031866,0.0016127378,0.013727546,-0.083177924,-0.10702586,-0.06858733,0.20217833,0.32412803,0.1749981,-0.14556956,-0.14464867,-0.16795535,0.0050236434,0.16094148,0.012760423,0.174144,-0.63023,0.16095123,0.00012801588,0.11745414,-0.0030521452,-0.09863612,0.028077185,0.042067528,-0.011509575,-0.32479638,0.22374412,0.0146282315,0.12556064,0.07266823,-0.0033448488,0.016484499,0.012598325,0.029840529,0.4013258,0.012255251,0.016863994,0.008361816,0.006750077,-0.11102333,-0.11228488,-0.07666558,-0.076768264,0.5702319,-0.049783587,-0.04805845,0.009937108,0.0054584444,0.014104128,0.024314463,0.005877793,0.007089615,0.34749958,0.021755397,-0.0012910962,0.0182289,0.004483223,-0.032779887,-0.051424235,-0.045995466,-0.053973436,-0.24060535,-0.044048607,-0.03077671,-0.045206726,-0.032619774,0.011160195,0.11253768,-0.004653923,0.030178621,0.3368877,0.023845412,-0.003385853,0.09015435,-0.0043669343,-0.00022613257,0.06471333,-0.014160961,0.065638244,0.30344546,0.06570476,0.024379767,0.073823914,0.01438785,0.07193778,0.03286928,0.073928356,0.059578657,0.20774281,0.07333492,0.07722783,0.05305122,0.060743675,-0.038491756,-0.08310771,-0.035058483,-0.09566967,-0.1652013,-0.08812466,-0.034556102,-0.07894081,-0.039728194,-0.041917562,-0.40421942,-0.14242914,0.0035194755,0.3305033,0.19798355,0.014971137,-0.015665352,0.07133095,-0.022021472,0.103303015,0.038227428,0.09106309,0.45646614,0.029139936,0.058719605,0.11101978,0.014023248,-0.06928243,0.04826253,0.090925634,-0.16759467,-0.15488183,0.28891203,-0.020847902,-0.07624155,0.008151099,-0.0056310296,0.042682797,0.014707565,0.03487943,0.49701568,0.031519175,0.00879322,0.012018975,0.011709392,0.06408255,0.10378,-0.09102872,0.120829105,0.34337208,-0.18811214,-0.11355722,-0.04419223,0.17328972,-0.003078699,-0.19758712,0.08601385,-0.089137405,0.22020876,-0.02474343,-0.24067868,0.24039781,0.031556785,0.0018160939,0.008117318,-0.0025072098,0.024276137,0.3567556,0.01963067,-0.0025560856,0.02468213,-0.005344093,0.036545396,0.06367266,0.053128004,0.049593076,0.259783,0.052198403,0.05997619,0.061305523,0.06965107,-0.10448237,-0.15375386,-0.08855122,-0.14004956,0.12939064,-0.17864007,-0.104888454,-0.14722836,-0.088281006,0.19220331,0.026299745,0.206627,-0.008686483,0.11208928,-0.008144975,-0.07604638,-0.0926097,-0.115527436,-0.035317987,-0.065837085,-0.0419752,-0.071465135,-0.19878918,-0.06794332,-0.037727192,-0.066299155,-0.052388996,-0.0077526346,0.031633735,-0.011156753,0.02431029,0.40404323,0.03402423,0.004251063,-0.0095131695,-0.002921939,0.06652522,0.09105259,0.053558886,0.07863113,0.17762704,0.0553002,0.05077499,0.10156687,0.055994153,-0.0011101663,0.06768027,-0.0032462478,0.07564068,0.31478912,0.07685858,0.0088428855,0.0518139,0.0110343695,-0.008227825,0.05124232,-0.0030336976,0.04407808,0.28048822,0.059601173,0.0081560165,0.05561255,-0.004513502,0.010523774,0.043037176,0.031929478,0.023216978,0.36463445,0.016960323,0.027299523,0.04698822,0.016103985,0.016457357,-0.007954478,0.0045570433,0.040160686,0.34284222,0.0392157,0.011057019,0.026639163,0.018474966,0.07979351,0.20425405,-0.046641298,0.26235956,-0.031563565,-0.26477197,-0.0063825846,-0.19975138,-0.08006883,0.103292674,0.18629247,-0.09430328,-0.17603119,0.30892998,-0.1953992,-0.03215814,0.19099051,0.09581157,0.05963838,0.0826689,0.04291625,0.11402266,-0.5792839,0.10380834,0.049104393,0.056957334,0.047625154,0.0070037246,0.063515306,0.026096702,0.06080705,0.302521,0.05911559,0.0014114678,0.06635481,0.015275057,0.015465498,0.0037861466,0.007114291,-0.0027405024,0.45059702,0.0041615963,0.007696718,0.0059922636,0.012386113,-0.19147217,0.019854635,0.26030546,0.00945884,-0.33279526,-0.003539443,0.2275114,0.039282322,-0.20846072,0.0006162822,0.042921066,0.0055964887,0.034285292,0.49504647,0.03688264,0.008825928,0.047223866,0.00050324947,-0.035963416,-0.09290221,-0.023109734,-0.073317364,-0.1095873,-0.07363576,-0.055145714,-0.06111361,-0.051286012,0.035607494,0.09914726,0.040452696,0.08122203,0.3136808,0.090407625,0.046078816,0.07382036,0.041921332,-0.010407403,-0.020808816,-0.008326665,-0.03149736,-0.33771518,-0.04467705,-0.0031615049,-0.04511845,-0.014212757,-0.13961387,0.11857751,-0.05022836,0.05499053,0.3054981,0.12013,0.07025025,0.04157234,-0.07064065,0.013861954,0.0603348,0.004210785,0.052176833,0.33471757,0.026965126,-0.015579879,0.041550994,0.0040500164,0.035743535,0.10125011,0.037853062,0.061249897,0.37744123,0.10315323,0.058065902,0.040730476,0.058344506,-0.0010636449,-0.0944286,-0.20231241,0.16994241,0.2762282,-0.14409731,0.25217977,0.12437695,-0.022785544,0.023940086,0.051541083,0.0068879277,0.03292005,0.2885503,0.04794848,-0.000491336,0.059404656,0.016458869,-0.004736662,0.043258697,-0.01508224,0.008121818,0.5002424,0.0029127002,-0.008833617,-0.019074082,-0.012763355,0.0039263703,0.04135886,0.0027869046,0.040161088,0.40925884,0.059266567,-0.00021237135,0.034429103,-0.002123475,-0.014956192,0.047233224,-0.0025585294,0.03135703,-0.5179007,0.019463241,-0.008298129,0.03609392,0.009283066,-0.13926494,-0.20223354,0.024040658,0.20180124,0.17666975,-0.28019035,-0.025239095,0.085859776,0.05778137,-0.054279983,0.024254486,-0.03051123,-0.0055982172,0.44355097,0.008844852,-0.032148257,-0.020374596,-0.054403722,0.036461264,0.29922774,0.07534729,-0.008157074,-0.5418218,-0.009892017,-0.011122182,-0.014397979,-0.020587295,-0.086412,-0.12718365,-0.066363245,0.054580472,-0.135457,0.07557705,0.0588696,0.2882454,0.048505485,0.06923661,0.13909346,0.06969311,0.10066353,-0.16726846,0.10180107,0.079452634,0.1004104,0.09410077,-0.014475644,0.10836761,-0.016608298,0.1148597,0.39311576,0.10612771,0.0007607043,0.021046132,0.014549613,0.037152424,0.10231167,0.029071495,0.09709957,0.296291,0.09001988,0.015684694,0.048311353,0.024526775,0.03555488,0.051862344,0.034781605,0.023164272,-0.3188409,0.004386112,0.021378458,0.24274513,0.035355527,0.0252648,-0.016389966,0.038398087,0.059365794,0.3544581,0.048933923,0.020812541,-0.023761213,0.010968436,0.052291423,0.27419364,0.04991898,0.019516349,-0.31555682,-0.009239048,-0.014558673,-0.14178759,-0.044754565,0.014926374,0.015086353,0.02023983,-0.022078484,0.41649184,-0.021713316,0.025830388,0.018383741,0.018588245,0.051611237,0.11618699,0.055050433,0.08248997,0.13132462,0.109239936,0.063599825,0.078776,0.036780685,0.0057469606,0.018964604,0.011690527,0.08048174,0.28912047,0.055222988,0.08556861,0.047237962,0.08849475,0.020097196,0.04894471,0.014969707,0.055230916,0.2656484,0.058894902,0.026352463,0.07661104,0.026141167,-0.0014513731,0.18743075,0.07318422,-0.20154797,-0.052170552,0.18867779,-0.083494306,-0.21936361,0.02992618,0.010647342,0.101158045,0.005278252,0.09123114,0.2629845,0.087043814,-0.006862551,0.05258779,0.006195396,0.008655002,0.036087736,0.010337651,0.04351318,-0.5319246,0.039643187,0.0055998117,0.030846566,0.004903972,0.01871118,0.058888674,0.026374817,0.05675581,0.350045,0.05571434,0.010213107,0.062092032,-0.0002874136,-0.076512985,-0.15013295,-0.08121526,-0.24135399,0.29093954,-0.2226497,-0.056057215,-0.18540758,-0.04507953,-0.009010494,0.0047107562,-0.0152727,0.0015697479,0.42132127,-0.0033106133,-0.023722917,-0.021172404,-0.018439353,0.0027470589,0.09624219,0.0077788085,0.071971536,0.25843558,0.08834851,0.0033508092,0.07155031,0.02187562,0.0035467148,0.07395482,0.025923908,0.09563172,0.19703138,0.08658086,0.014595121,0.09984513,0.01901818,-0.19789761,-0.039234936,0.13164023,-0.0533247,0.28793174,0.053187013,0.12873396,0.031182334,-0.21462516,-0.005930841,0.07452938,0.0069720894,0.07422525,0.38065985,0.056833863,0.011771202,0.08857755,0.024306715,-0.06401712,-0.05054468,-0.05293599,-0.120053165,-0.14227107,-0.12118566,-0.057766564,-0.060993582,-0.032912046,0.04483445,0.15769354,0.041418612,0.15160044,-0.44746813,0.14892788,0.06749822,0.1612654,0.055131257,-0.030922592,0.032765787,-0.03707803,0.04582216,0.3399808,0.06415714,-0.023072273,0.05416365,-0.026898503,-0.068659246,-0.13134857,-0.069694966,-0.14076124,0.024101943,-0.14085734,-0.08441818,-0.17062244,-0.096928224,-0.014404297,-0.02727285,-0.013049543,-0.02797122,-0.45324275,-0.015558392,-0.048871726,-0.019189358,-0.018679976,0.018433496,0.06022775,0.023950607,0.06976831,0.24576837,0.059071213,0.015483931,0.06330806,0.028611137,0.0016592145,0.023945391,0.011843562,0.027351022,0.33215773,0.018845841,0.022822022,0.027154356,0.019062161,-0.09092468,-0.1616757,0.11381686,-0.0125275105,-0.25494382,0.33260107,0.023915768,-0.18482345,0.08999896
