1,192,-0.50060415,-0.33344433,-0.5683245,0.034590185,-0.1975552,0.024128791,-0.11382901,-0.4093994,0.42568788,-0.18053555,1.3431373,0.4504806,0.17394504,-0.17977317,0.5067542,-0.2948213,-0.056236263,0.19946884,0.37272313,0.98963606,-0.7673428,-0.21839213,0.75183725,-0.083647415,0.287485,0.67404497,-0.026959162,-0.16447048,-0.16748036,-0.2847853,-0.103292726,-0.24538493,0.27767,-1.4344265,-0.5057185,-0.07324647,-0.041877557,0.053013068,-0.18111542,-0.02221442,-0.040636778,0.24848574,-0.92893165,-1.1227491,-0.1118044,-0.22785889,0.85437465,0.27819943,-0.41242462,-0.4872909,0.2947146,0.12587494,0.15421918,0.13444832,0.08097088,0.5074817,-0.6970042,0.20336027,-0.6879759,0.31551152,-0.38630202,0.24885419,-0.72632605,0.6795437,-0.5914929,-0.32023308,-0.036986142,-0.07193651,0.4487364,0.605577,-0.041679747,0.06404048,-0.109413445,0.26330605,-0.34000474,-0.31652662,-0.39380893,-0.03587855,0.2270222,0.056042414,-0.113092124,0.4167512,0.51721966,-0.28391454,-0.16435067,0.12639584,-0.18293509,-0.26688617,-0.26389223,0.09557695,0.36870974,0.76246434,-0.041784946,-0.40282932,-0.4464051,-0.3592846,-0.14971957,0.1864157,0.5417898,-0.13403007,0.27442667,-0.29804263,-0.513222,0.014324437,0.41724133,-0.088398956,0.08568443,-0.24508803,1.3853406,-0.24166314,-0.013035223,0.14611226,0.06758655,0.19132036,0.13341683,-0.33652082,-0.08174634,-0.38003632,-0.023611845,-0.2648581,0.2813805,0.15072866,-0.19484638,-0.020916242,-0.0879743,-0.13459457,-1.0216199,0.14569327,0.022202173,0.0641478,0.023224564,-0.26211503,0.21552005,0.8563808,-0.6805185,0.7892753,0.55276227,0.6837675,0.018912617,0.19480723,-0.7283014,0.11545903,-0.16352376,0.17574982,-0.45269322,0.8873173,0.33740953,0.06653238,-0.2985721,-0.20998745,-0.3533867,0.5825149,0.05322773,-0.15354124,-0.24007307,0.15073189,-0.591115,-0.0359728,0.95720685,0.3685288,-2.0094209,-0.015294383,-0.18670331,0.022923687,-0.58389485,0.5999604,-0.2998191,-0.6551543,-0.31157562,-1.1404114,-0.10166605,0.045135614,0.16880667,0.22094442,-0.29155108,-0.25667748,-0.47073445,-0.102505445,-0.6304915,-0.19215004,0.17973854,0.12204798,-0.69898444,0.38409048,-0.11266031,0.012017479,-0.20411,0.4016488,0.21812814,0.59174716,0.13202572,-0.32651287
