1,480,0.08486483,-0.71936536,-0.7408233,-0.012853371,-0.9601422,-0.0966853,0.89629555,0.45512816,-0.6617429,-1.0817736,0.96982133,0.56754315,-0.8085049,0.3720341,0.2856098,-0.64939374,0.6757548,0.121721126,0.19411446,0.31961673,-1.4041849,0.7913207,-0.4009518,-0.89829206,0.42781886,0.0658835,0.9309951,-1.4402962,-1.5524626,0.51252717,-0.8434712,0.7039073,0.4049174,0.1837437,0.5310851,0.7801002,0.337813,0.99130946,0.4597854,-0.09275205,0.592704,-1.2849402,-0.28945625,0.4483338,0.38745764,-0.6652245,0.69508797,-0.20311674,0.20691667,0.38313892,0.15610915,-0.31852993,0.18702431,0.7274168,0.7148128,-0.4207159,-1.229017,0.35320342,1.0387878,-0.3812839,0.6734328,-0.77540195,-0.59965307,0.25748864,0.7202727,-0.69839984,-0.70144665,0.18779361,-0.20556629,0.1653073,0.37959558,0.26927534,-0.57638305,0.8064503,-0.6502383,-0.73020387,0.3375781,0.05156917,-0.067493804,-0.6157439,-0.009396269,0.3913072,-0.863428,0.38561115,-0.73818797,0.026852142,-0.870715,0.5816816,0.008523266,1.635639,0.48919684,0.21859407,0.34139344,0.038635626,0.34014592,0.16867147,-1.0974196,0.35289845,-3.371614,-1.2923282,0.46039164,1.6113478,0.43266064,0.699399,-0.5780505,-0.9411028,-0.2973809,0.39129314,-0.94510055,0.37754285,0.2238717,-0.30019936,-1.0815072,-0.8042295,0.95194286,-0.5681949,0.94379556,0.2602654,-0.8848447,1.1629003,-0.68568754,0.58292735,0.3472226,0.21117161,0.44440672,-0.7616252,-0.77900606,-0.7693518,-1.5745091,0.2612254,-1.3733463,-0.983714,0.17858826,-0.25734338,-0.056723095,-0.6496937,1.1475673,0.39911807,0.17697795,0.8092126,-0.13253795,0.22154596,-0.69070816,-0.84973264,0.49579328,0.714108,-0.12452363,-0.91266525,-0.7853818,0.2931412,0.5725074,-0.0757888,0.28159568,-1.9085763,-0.28582677,-0.0013720914,-0.41367835,0.34723625,0.5464624,0.36754182,0.7857451,0.36811408,0.399463,-0.38217992,0.4455529,1.3152059,0.21825084,-0.69419295,0.4249628,-0.9338135,0.44072917,0.7151805,0.3926229,1.5844699,0.5767494,-0.97261703,-0.6748377,-0.52205575,0.25186467,0.6104781,0.0934836,-0.18028507,0.36268777,-0.8883983,-0.31075177,-0.8734014,-1.843478,-0.0057181558,0.8328677,0.777553,0.99566144,-0.8381593,-0.8691926,0.8664455,0.43032825,-1.19806,0.36368638,-0.71508986,0.80798775,-0.52820987,-0.648943,1.0273689,-1.9390891,1.303053,-1.6071972,0.03492245,0.25169736,0.40298483,0.04061968,0.50123566,0.724882,-0.5149565,0.63492775,-0.05643637,0.3006097,0.31010017,-0.44090515,0.6660761,-0.72258687,0.40277317,-1.5363913,0.06028943,-0.059040595,0.040075958,0.268758,-1.2376539,-1.0935724,-0.18638511,1.0629781,-0.86053914,0.43478268,0.03298258,1.0721134,0.036045983,0.34498727,0.36031184,0.15043007,0.33932355,0.42242193,-0.18281636,-0.99739474,0.9596521,-0.7611402,0.16915053,-1.1449697,1.0908655,1.0608021,-0.16353181,-0.5064108,0.4036092,-1.0392965,0.40801626,0.5800193,0.23880665,0.9721966,0.6551392,-0.6280869,-0.42159724,0.30028334,-0.6907049,0.3076109,0.23959155,0.9877602,0.8768809,0.96034765,0.8820576,-1.12051,-1.064654,0.39696273,0.28367904,-1.4938883,0.28704315,-0.55157775,0.4961863,1.1163859,-0.95682365,0.46632335,0.60214174,0.2911378,-0.5995438,0.30123898,-1.2187595,-0.27383006,0.08590451,0.9937174,0.3813121,-0.48864517,0.373669,0.673899,0.27139693,0.056267835,0.6370578,-0.30269465,-1.7892566,-1.6356881,0.25160518,-0.00047509346,-1.2002231,-1.7129793,0.27952182,-1.5013226,0.44336903,1.5220214,0.8066872,0.6559024,0.0654896,1.0759597,-0.11917984,-0.66904384,0.18987726,0.15734188,-0.63009936,0.10215639,1.4950817,-0.84545743,0.58240694,-0.3294091,1.1761444,-1.5636349,0.7700099,-0.71870476,-0.58797777,0.5344613,0.26157346,0.8627622,-0.57966787,-0.9743997,0.6581077,0.30741963,-0.6309901,-0.67216456,-0.6975119,0.34202763,0.0052532596,-0.32559797,-1.0827851,-0.266535,-0.7796605,0.09884717,0.8029162,-0.24759679,0.4699406,0.06677017,0.26361972,-1.2389886,-0.030686384,-1.4412869,1.1624819,0.5606685,0.110764876,0.44729495,-1.1636288,0.541141,-0.64342046,0.6781179,1.4554826,0.3495704,0.45062652,0.7196828,-0.05524622,-1.5408442,0.32964697,-0.2012947,-0.20583558,0.27581826,-0.47960716,1.0283355,0.10351638,-0.67396057,1.1526061,-1.2249303,0.66964465,-0.024709528,0.27895293,1.1882175,0.85650605,-0.9527003,-0.39894575,0.0029091903,-0.6319678,0.18283668,-0.6555747,0.60208267,0.5666504,-0.810188,-0.64094204,0.33925802,-0.45187396,0.57227606,0.9236127,-0.16450447,0.047344647,-0.20610563,0.45644125,0.25643376,-0.8646921,-0.27383322,0.27101403,0.30519956,-0.22881679,1.4690635,-0.6266154,-0.96700186,0.48162934,-1.4286132,-0.23982158,-0.47450608,0.643365,0.10240733,1.4278293,0.04489162,-0.5551195,0.2728593,-0.0077737058,-1.0534868,-0.85118353,0.40497765,0.7943804,-1.445379,-0.44443092,-0.7042599,0.8204742,0.6863159,-1.8709537,0.46015313,-2.576579,0.14205396,0.007376626,-0.7207209,-0.081816494,0.7572015,0.51989293,0.6701229,-0.07959706,1.2492595,0.55040526,-1.4340483,0.67482203,-1.0428122,0.2832835,0.5952602,1.032262,1.2213928,-0.31642845,1.0945733,0.6637211,0.8946103,-0.65387017,-0.7409997,0.61197513,-0.14404614,0.2596975,0.71876085,-0.67574084,-0.38362545,0.2848346,-0.08037464,0.4788237,-0.73338366,-0.456277,0.94212747,0.051496327,-0.7639968,-0.004251113,0.056441385,0.78334916,-0.6102515,-0.31931418,0.8131044,0.7862357,0.034717046,-0.621541,-1.3711294,0.6883963,-0.4008751,-0.13226071,-0.55910915,0.7946979,0.13199756,0.83752894
