4,24,144,1,1,0.16658983,-0.18857038,0.29342973,0.0055564344,0.17324752,-0.11995584,0.29934075,-0.1483124,-0.09737264,0.49278486,-0.045620665,-0.32385463,-0.10549634,-0.30033606,0.0122255385,-0.16415545,0.41307548,0.09427063,0.24671562,0.3357388,-0.24368909,0.047641568,0.059090972,-0.16830644,0.09881598,0.11597432,0.3715586,-0.2300095,-0.052338153,0.21084206,-0.026754223,0.38295949,0.011300445,-0.13177975,-0.04387064,-0.054163396,-0.31286803,-0.291779,0.03034079,0.33106387,0.061823025,-0.086972564,-0.05485424,0.419281,0.06359488,-0.105191484,-0.21915835,0.21869701,-0.014417645,0.19572993,0.5705016,0.35020158,0.16236539,-0.0009314716,-0.022890508,0.341523,-0.10508455,0.008159488,-0.046765044,0.11772108,-0.320222,-0.18278289,-0.35924137,0.14078276,-0.1288185,0.028892089,0.49706116,-0.09881927,-0.400022,0.22681558,0.019741226,-0.041793473,0.40467358,0.23201634,0.3290678,0.1932047,-0.009484984,-0.010210633,0.14975472,-0.21772099,0.20484662,0.31727332,-0.14488614,0.09496093,-0.3442349,0.10010104,-0.02081889,0.033149004,0.07091397,-0.49892554,0.01356262,0.0161317,0.28415552,-0.0057395766,0.04264033,0.2841298,0.06097406,-0.27705353,0.11140144,-0.20285814,-0.3165359,-0.14654723,-0.23050141,0.31384575,0.15556483,0.1070769,0.27617735,0.09474708,-0.1882956,-0.29246104,0.12969358,0.054917365,0.22669291,-0.3721038,-0.002427727,-0.11817558,-0.27109367,0.124364704,-0.06983803,0.21785605,-0.10131252,0.18216267,0.026053503,0.42587763,0.15462503,-0.19366053,-0.095154494,0.063865826,0.21863392,-0.19841206,-0.23767649,-0.12357572,0.08240485,0.037015855,0.3759447,-0.053302202,0.14017689,-0.6450582,0.2645511,0.031153828,-0.019636214,-0.010829821,-0.18985903,-0.22434667,0.21999356,-0.059296995,0.13065618,0.32962626,0.25113973,0.043412227,-0.14203596,-0.19182537,-0.4286285,-0.019907255,-0.2443713,-0.68009,-0.03830667,0.01006943,0.08611366,-0.08188748,0.16862257,0.06080885,-0.5370326,-0.34102213,0.2209558,0.12693483,0.34182498,0.459437,0.00095671415,-0.15299763,-0.031988323,-0.5847412,-0.2029635,0.30040732,0.055373967,-0.115337566,0.13300064,-0.12159097,0.0022674203,-0.14048943,0.1459734,0.030935466,0.1278922,-0.1846872,0.033376265,-0.3467273,0.07394412,0.24207187,-0.084057,0.031643987,0.20224336,0.107418954,0.1253491,0.070305735,0.13116845,-0.107509196,0.37817723,-0.050385416,-0.0629723,0.13483691,-0.046540797,0.15865913,-0.07892731,0.11142556,-0.13076842,0.28190038,0.51304305,0.14060873,0.22814517,-0.36648193,0.0754388,-0.07215909,-0.071433544,0.40616906,-0.01814033,-0.11841912,-0.16145484,0.13311195,-0.06458151,-0.06279828,0.013998851,-0.0021539181,0.017447546,0.114417166,-0.07393369,-0.1281972,-0.46882844,0.025123298,-0.06799489,0.09199556,-0.111254394,-0.09675449,-0.2726602,0.52134264,-0.19368735,0.058414698,-0.1556185,0.057017043,0.10538092,-0.03982534,0.03787802,0.16996697,0.06607809,0.20688197,-0.00429374,0.2749397,0.16407709,-0.17678626,0.3153113,-0.05974909,0.06579576,0.32423902,0.18033594,0.18279338,-0.09426947,-0.21835996,0.38384107,0.0703927,-0.06809398,0.092439674,0.260682,0.011729181,-0.065905005,0.32822347,-0.47510967,-0.22535597,-0.09764996,-0.51463294,-0.17845076,-0.12799019,0.1334398,-0.15908536,0.15978324,-0.10466999,-0.11756694,0.031609736,0.008584753,-0.065580405,-0.12233892,0.36332795,-0.051522195,0.2906085,0.39871442,-0.009772986,0.037038893,0.39246488,0.20692936,-0.034545723,-0.11019278,0.09899156,-0.10471818,0.1291343,-0.034460835,-0.14493138,0.38514313,-0.2830701,-0.2368684,0.01827833,0.43009895,0.020032436,0.05656109,0.13173583,-0.0078834,-0.18397951,0.44032022,-0.61626804,0.09898412,-0.16790286,0.06995298,-0.2551135,0.41840035,0.36387584,0.42593044,-0.3990962,-0.049773514,0.06977597,0.03214027,-0.27374908,0.33504397,0.30486345,-0.13052884,-0.039530117,0.049136102,0.21595992,0.15520269,-0.41395485,0.07365139,0.18333119,0.033425257,0.1891945,-0.0563958,-0.0756042,0.09783742,-0.36383724,-0.074199535,-0.003831923,-0.047067255,0.11366761,-0.098203726,-0.011373408,0.04643771,-0.007963181,-0.09131396,0.0020673722,0.058080554,0.3140321,0.09246299,-0.23690957,0.056647625,0.071106136,0.38622004,-0.03005886,0.21020018,-0.214351,-0.15956181,0.15542546,0.19134544,0.12218318,0.15708032,-0.03993307,0.53034616,0.11595613,-0.03665334,-0.2289556,0.048409395,-0.09476945,-0.12275066,0.3511015,-0.15525238,-0.26426575,-0.3610646,-0.28422067,0.08842522,-0.023040742,0.004179165,-0.039878376,-0.12557743,-0.23070237,0.5638239,-0.092647165,-0.27280095,-0.05729837,-0.45197752,0.16948628,-0.36055803,0.4285995,-0.38358736,0.41725144,-0.041205764,0.32628602,0.45377934,0.15319066,-0.027878195,-0.25055337,-0.1073648,0.7785714,0.02661224,-0.34683132,-0.07123575,0.045944273,-0.20020671,0.31137443,-0.20970972,0.06180091,0.5880504,-0.08815044,0.33271793,-0.25081205,-0.10889453,-0.09819022,-0.10435167,-0.45674857,-0.5043336,-0.030502796,0.49797285,0.21655634,0.006539136,0.017414749,-0.06453255,0.4745396,-0.083666295,-0.095332876,0.22715893,0.064223915,-0.37540358,0.64770144,0.020899236,0.11607438,0.06447303,-0.36794087,0.29498386,-0.053765386,0.4440871,0.044442043,-0.14915062,0.103926376,-0.0006987527,-0.011058204,0.11993703,0.014858633,0.14664908,-0.13554473,-0.21277717,-0.049604427,-0.10622534,-0.16178752,0.598106,0.5405652,0.090996236,0.16309665,-0.006636262,0.036818966,-0.003369689,0.060094565,0.14437194,-0.056648493,-0.0075420216,0.099549234,0.0051746964,-0.110431015,0.08012749,-0.07594833,0.07213542,0.10647157,0.08666596,0.15347001,-0.8889262,-0.04390723,0.0549485,-0.023926185,0.30477,-0.12864816,0.06789996,-0.0029761791,0.040840715,0.25561395,-0.13562065,-0.10050408,0.06576221,0.07897714,-0.36879572,0.06865751,0.04274822,-0.24473834,-0.047967345,-0.063314125,-0.65178716,-0.11551279,-0.45961928,0.17894863,-0.03403931,0.094600946,-0.07765673,-0.08996767,0.0051439404,0.10315764,0.04450141,-0.07659516,0.038206577,-0.5635255,0.52377915,0.046089083,0.06563848,-0.036162596,-0.0036735535,0.21860024,0.15144897,0.07636088,-0.24931929,0.22076169,-0.050574094,0.07566473,0.0030973721,0.06651321,0.05925943,0.09216574,0.17835437,-0.5229233,0.119367875,-0.24234617,-0.037743226,-0.011739358,0.13643007,0.020045638,-0.05453345,-0.0070494562,-0.0276431,0.0071810856,-0.054538384,-0.18337718,0.03860581,-0.04015231,-0.039108872,-0.06631396,0.043560445,0.024759129,0.14366567,0.040492266,-0.2509588,0.055114806,-0.030179739,0.008633077,-0.29707715,-0.011861563,0.14044237,0.106008835,-0.020200491,0.12247512,-0.032576397,-0.045060903,-0.0822128,0.05738353,-0.2144745,0.0036863983,-0.04521033,0.24689752,-0.035287373,0.14400077,0.09141361,-0.016969964,-0.30210578,-0.2763552,-0.16351414,0.124162346,0.0852064,0.025797233,-0.020279767,0.019839346,0.0451276,0.048621714,0.11729583,0.023255289,-0.73303425,0.076710224,0.09293243,0.061044864,0.10497126,-0.04295592,0.136245,0.1307901,0.035779953,0.1564988,0.19355297,-0.0061143637,-0.14905223,0.052227553,0.11173118,0.5423696,-0.0034912527,-0.062055126,0.4913441,-0.05756575,-0.013402969,0.15975359,0.090423554,-0.055226207,0.11948091,-0.0266639,0.3018592,0.35676157,0.079776585,-0.35483667,-0.07474466,0.45894414,0.02926685,0.10658596,0.25453132,-0.14540683,-0.37677336,0.012957513,-0.38715512,0.09474951,0.20020628,0.1778292,0.44490236,-0.26202846,0.09824368,-0.043793514,-0.02717667,0.2752582,0.06333628,-0.19957547,0.14089046,-0.004064411,0.19827113,-0.002854377,0.14386232,0.37909928,0.21396095,0.21476853,-0.14615162,0.21384342,-0.24851823,-0.16114882,-0.35483855,0.03818533,-0.19226755,-0.21847163,0.028482288,0.74709535,-0.027303547,0.2327305,-0.092589945,-0.0837221,-0.25712192,-0.35019648,-0.085982054,0.118162155,-0.09382331,-0.09581286,0.01296879,-0.02834652,0.14636643,0.57358474,-0.008924782,0.1330875,0.07037333,-0.24499987,-0.24138787,0.03705448,-0.05546246,0.69002986,0.32077402,-0.07622339,-0.12484869,0.12508059,-0.22865537,-0.041540384,0.017700367,-0.26448283,-0.20184368,-0.057952,-0.37659034,0.010799438,-0.026231617,0.20480403,0.058811866,0.35016853,0.075838506,-0.34377235,0.04369376,0.00083583593,0.11511035,-0.019944435,0.2859866,0.27171344,-0.009116173,-0.17388767,0.18693747,0.263989,-0.05129797,-0.018915415,0.17263639,0.5145442,0.1480517,0.088960975,0.7870959,0.11500859,-0.11887114,-0.48732343,-0.18619621,-0.22747096,0.055903748,0.22110987,0.18903226,-0.5410567,0.09639539,0.07547887,-0.22973448,0.008135229,-0.11370602,0.15827526,0.085260406,0.41316873,-0.55960286,-0.0026273131,0.004168853,0.039880335,-0.06483041,0.09849421,-0.36645907,-0.14235702,-0.049432367,-0.11557768,-0.023975998,-0.035913497,-0.1445213,0.0043081865,-0.047787458,-0.031676963,0.18839091,0.023353968,0.090821646,-0.1331547,0.8226953,-0.85735655,-0.091218024,-0.19795416,-0.04850313,-0.0634195,-0.17885911,-0.05148387,-0.0451352,-0.1501483,-0.078555524,0.1853329,0.09738773,-0.020127252,-0.14764488,-0.17833637,-0.16654879,0.2131401,-0.11901918,0.11544319,-0.64676666,0.07550219,-0.050762817,0.007836193,0.2592865,0.14145823,0.0014243126,-0.09163936,0.024360612,-0.56359655,0.1055547,0.15851757,-0.08861661,-0.07604803,0.09995118,-0.0049047843,0.028763384,0.0010292381,-0.05461438,-0.0027427822,-0.7001877,-0.15829828,0.099015675,-0.11003664,0.2100594,-0.070678696,-0.44788074,0.16598356,-0.049980015,-0.26974756,0.028149877,-0.03742734,0.0059624687,0.38411188,-0.39879692,-0.08959838,0.030264925,-0.047608152,0.054662675,-0.09258425,-0.14072868,0.049813733,0.6421482,-0.030399764,0.03550458,-0.10956037,0.04310435,0.010910004,0.18797252,-0.026418328,-0.18212189,-0.6182951,-0.04676546,-0.45860377,0.03518291,-0.012121581,0.024270833,0.0068130866,0.086706966,0.092073634,0.11077765,0.012724069,0.09851041,-0.1878467,0.010197908,-0.00835377,0.05160275,-0.18062028,0.11443049,0.07709676,-0.07084371,-0.012598313,0.24415505,-0.057315767,-0.16084072,-0.018597156,0.44318408,0.00771223,-0.098481454,-0.17207181,0.025585525,-0.07376413,-0.05953757,0.24987409,0.013117805,0.03383968,-0.040853098,-0.011741608,0.03997402,0.047344208,0.15923256,-0.63642436,-0.07135278,-0.10859041,0.23562063,0.10950561,0.18275627,-0.07587544,-0.010442719,0.12700604,-0.03337706,-0.090428054,-0.03851527,-0.10039753,0.04269883,-0.14100577,-0.078335494,-0.0446052,0.047264427,-0.034348384,0.001937598,-0.24945249,0.055433482,0.16178149,0.24623978,-0.23721913,-0.053150177,-0.11354488,0.043588646,0.1072535,-0.18799795,-0.019635662,-0.30835342,-0.057650812,0.13574594,-0.09324672,-0.3733301,0.1203765,0.4441984,-0.43973517,-0.50261354,0.3755096,0.33206004,0.089941636,0.056803048,0.1222195,-0.065454006,-0.03352945,0.13294835,0.17203578,-0.014087684,0.017344624,-0.09943886,-0.14326847,0.12223077,-0.12722033,0.10571253,0.07074982,-0.0145249665,-0.02437757,-0.12617385,0.41134945,-0.25198498,0.1417533,0.04186341,-0.19376509,-0.31538284,0.07788806,0.061894596,-0.05865252,-0.045640722,-0.1063277,0.1843828,-0.13619852,0.20171377,-0.14853892,-0.045520112,-0.109318376,0.15668152,-0.0864259,-0.06412268,-0.26784962,0.15340641,0.011793569,-0.18430477,0.14187002,0.2646894,0.0024560303,0.101398766,0.038153082,-0.14057434,-0.12629324,-0.076360375,0.040993333,-0.1894933,0.055796407,-0.07489029,-0.00927157,-0.14991698,-0.46859163,-0.11986461,-0.36043182,0.035447985,-0.0664934,0.0051915646,-0.014524654,0.05421582,0.15494312,0.23789078,-0.013979375,-0.054681525,0.24389285,-0.02352495,-0.55874324,0.16779417,-0.40818655,-0.3304237,-0.18473536,0.18516113,-0.23052001,-0.20487118,-0.103924796,-0.16808662,-0.36922836,0.30207396,-0.1853073,0.12891531,0.37405163,-0.4116169,0.15514508,-0.084305465,0.20139799,0.17705767,0.22279112,0.0034591667,-0.08068727,-0.08057952,-0.04508382,0.0602417,0.17925645,-0.0072548985,-0.11601591,-0.1139009,-0.30280796,0.7273644,0.1166119,-0.061375264,0.073229015,-0.027907446,-0.02197422,0.14053532,0.31787077,-0.19115719,-0.14746428,-0.014751043,0.04807467,-0.16273835,0.87379736,-0.08474158,-0.4022035,0.015179884,0.07501924,0.066129774,-0.41655463,-0.12014416,0.08383742,-0.23621911,0.2930643,0.084291756,-0.40497547,-0.09159383,0.2323024,0.09875697,0.46639195,0.06994787,0.44888163,-0.010262549,0.037667327,-0.0057903826,0.082856715,-0.13645837,-0.031894743,-0.36305675,0.20730579,-0.13391775,-0.27271783,-0.19008513,-0.07235706,-0.0734885,0.2940497,0.2722912,0.33394587,0.31522474,0.11739734,-0.16540456,0.42121392,-0.34311035,-0.07405377,0.18465644,0.14156078,-0.101649895,-0.15172806,-0.22891863,0.43945718,-0.33358148,-0.21474396,-0.03113769,-0.1652081,0.04603941,0.005822398,0.4614982,0.29750538,0.05682145,-0.066724315,0.06989014,0.12562579,0.008633971,0.067784876,-0.045328617,-0.08492412,0.028016701,-0.13841626,0.33947617,0.13063091,0.05309798,-0.1743376,0.4901068,-0.21946417,-0.2096243,-0.22283623,0.49242115,-0.1742147,0.032797575,-0.11334108,0.11979762,0.025520742,0.17342374,0.091575,-0.00705152,0.22973762,-0.11110082,-0.10906027,-0.15563112,-0.10996714,-0.015599385,-0.0031778216,-0.018690348,-0.10679497,-0.10899699,-0.11507732,0.06814511,0.2014318,-0.107507974,0.27130067,0.05212751,-0.11678475,-0.01546827,0.08063415,-0.03053911,0.3000627,0.22817533,-0.30922043,-0.21827139,-0.38669643,0.08508537,-0.14949909,-0.28699782,0.07731533,0.119084954,-0.14313519,0.2586374,0.6302912,-0.37812665,0.1809122,0.21639578,-0.28101808,0.028201729,-0.46295515,0.06110874,-0.053445727,0.16374457,-0.16097009,-0.1626024,0.08911675,0.33727878,0.08582656,0.0699189,0.10695866,0.46981248,0.05601996,-0.14139464,-0.28801993,-0.11614479,0.027698144,-0.14460401,-0.49686366,-0.018227939,-0.34424403,0.4634699,-0.24614218,0.1933586,-0.76412964,-0.27355424,-0.21968988,-0.15369752,-0.25627452,-0.33981675,0.023654103,-0.037647273,0.07933841,-0.2945007,0.036307007,-0.08183551,-0.0051916502,-0.37146822,-0.0059048533,0.05040084,0.061515488,0.14729755,-0.18973751,0.11855048,0.044142097,0.2508576,-0.30204117,-0.114778936,-0.44161603,0.04733795,0.19917713,-0.12203836,-0.04579697,-0.06881076,-0.4651715,-0.2596898,0.3707922,0.042613193,-0.24246019,-0.11932981,-0.25764164,-0.19279549,0.23784722,-0.04878719,0.11628024,-0.25870723,-0.02384357,0.045494616,-0.10254964,-0.07469234,-0.07802284,-0.5474574,0.07593228,0.16321285,-0.497905,0.014045179,0.13409042,0.014163777,-0.060665164,-0.06921006,-0.17360146,0.15972574,-0.09778167,-0.15120576,0.195119,0.1999025,-0.14219067,-0.5732749,0.10441622,0.42314196,0.13673368,0.017460585,0.19001466,-0.12807736,0.48032793,0.25892994,-0.15445656,-0.044984974,0.066923164,0.0004092455,0.13188198,-0.02732225,0.19661482,0.25067717,-0.0735694,-0.21855386,0.049708083,-0.6343414,0.6164348,-0.16320571,-0.14823472,-0.24967554,0.07700044,0.47228688,-0.14714694,-0.2157825,0.46787864,-0.048455477,0.31898522,0.20790616,0.41607824,0.42512047,-0.06422125,0.11999726,0.35628298,0.15230097,-0.08009739,0.31058294,0.22617126,-0.18360585,0.2921223,0.07934268,-0.4298246,0.16769615,0.16631082,-0.025459647,-0.18414328,0.16886698,-0.09676686,-0.45513868,-0.032869235,0.3267707,0.22906306,-0.1085694,-0.3005174,0.1099239,0.14833415,-0.07968063,0.31018135,0.1294433,-0.3149787,-0.14694968,-0.25380307,0.19913384,0.3514808,-0.03228858,0.18912534,0.20673372,-0.08880404,0.16647227,-0.7010691,-0.29612756,-0.3301108,-0.112276465,-0.46392983,0.21136455,-0.13405398,0.103037216,-0.33790514,0.2597183,-0.043702662,-0.55166197,-0.02763486,0.33757517,0.083752714,0.036574036,0.12604389,-0.016535997,0.121541664,-0.20657259,0.4473588,0.017832987,0.27461475,0.32721093,0.10215278,-0.11391766,0.06931108,-0.22418329,0.09714244,0.020534739,-0.10949202,0.3728024,0.35772216,-0.024350923,-0.1625312,0.035860986,0.39440435,0.45018533,0.29942173,0.16088146,-0.21416159,0.012512296,0.28249106,0.42541552,-0.20576239,0.15550324,0.2010549,0.4470809,-0.12907612,-0.014262199,-0.32228875,0.01988931,0.009153128,0.058471113,0.12910149,0.032215208,0.14181244,-0.1815989,-0.050521195,-0.32358515,-0.2605326,-0.040291697,0.08052508,0.11529646,-0.015347749,-0.248707,-0.23183784,-0.17486766,-0.14931682,-0.06233345,0.13256204,-0.11803897,0.02424156,-0.13142009,0.06673998,0.027335837,-0.2508021,-0.41336167,0.066804975,-0.12785363,0.03851819,-0.07518652,-0.012321025,-0.11884547,-0.04616572,-0.15241858,-0.2154985,0.3633334,0.36477387,-0.057981312,-0.06517702,-0.04328841,0.046671145,-0.27456412,0.20295285,-0.24210647,-0.10908876,-0.23552299,-0.035329446,0.4323891,0.044793606,0.13585293,0.019818276,-0.25213262,0.07436153,0.23658144,0.14853403,-0.25638655,-0.077478796,-0.16457519,-0.11431247,-0.27867457,-0.099579275,-0.21079756,-0.05352071,0.01454407,0.30885613,-0.081234425,-0.27546293,-0.21723345,-0.10460379,-0.0044753253,-0.5721469,-0.15921843,0.10986915,0.15349132,-0.54431,-0.2242445,0.061980367,-0.08252314,-0.18981814,-0.18826208,-0.07207985,-0.022414625,-0.21214035,-0.24006125,-0.17711931,-0.12569085,-0.54352134,-0.17597826,-0.020070285,0.101567425,-0.006438695,-0.6415729,-0.050673753,-0.28960234,0.112979054,-0.18245305,-0.06315513,0.1663087,-0.035017535,-0.029582933,0.5834719,-0.29352054,-0.22645131,-0.0037173107,-0.12147084,-0.14023471,-0.2819044,0.1095621,-0.13572884,0.24936031,-0.38022155,0.13398305,0.022834167,-0.6034584,0.15704077,0.029143576,0.17517854,-0.008589596,0.07770136,0.12797862,-0.17451766,-0.013890982,0.19212984,0.24975723,-0.20567027,-0.35941717,-0.23046866,-0.0633547,-0.2725864,-0.2619317,-0.28545693,0.16489618,-0.121545054,0.14361808,-0.029585987,0.14938107,0.025261242,0.022390112,0.09648148,0.08228615,-0.30724987,-0.13216975,-0.30929133,0.021955937,-0.0811076,0.13960281,0.13895959,0.21542147,0.5367598,0.17418134,0.29031625,0.085659124,-0.12513712,-0.30713183,-0.070639536,-0.0061600804,0.17395677,-0.12269974,0.10777524,0.07441604,-0.10437291,0.022554457,0.2450211,0.06543785,0.002355896,0.29182455,0.19022797,-0.22888054,0.13360704,0.12207234,0.023554802,-0.07827604,-0.28788698,0.15329695,0.099452615,-0.19642444,0.15274586,-0.31050682,-0.078507185,0.07216793,-0.1811517,-0.569047,0.058873862,0.26199257,-0.021822006,-0.15755594,-0.5162437,-0.6353956,-0.29641953,-0.08024037,-0.38675332,-0.117759265,0.08546065,-0.29111183,-0.32002813,0.10186362,0.2357877,-0.049551032,0.17650084,0.11776012,0.29082125,0.24122949,0.08647788,0.2954597,-0.14243346,-0.19236092,-0.088613376,-0.19416729,-0.11509237,-0.118352026,0.0015589595,-0.021229953,-0.27721325,-0.017882332,0.014209926,-0.016043514,0.25993887,-0.23271629,-0.023766428,0.0086182,-0.14903273,0.2498003,0.0060248077,0.3122233,0.21542118,0.25374117,0.05914639,0.12453446,-0.6335925,0.28478318,0.4027041,-0.058671474,-0.14565873,-0.033859074,-0.3203865,0.13617952,-0.06391185,0.014843389,-0.095721036,-0.47303712,0.24700959,0.06609795,0.020332634,0.20753986,-0.6341074,0.14024927,-0.4831674,0.12022721,-0.055036068,-0.045698896,0.040483534,0.20443591,-0.2841613,0.36366156,-0.10854772,0.050156243,-0.085847795,-0.18182166,-0.21239701,0.035014614,0.11538342,-0.1792606,0.043282773,0.12379938,-0.2670504,0.1782981,0.03900981,-0.4700225,0.09580779,-0.30527076,0.14213058,-0.0027763247,0.3137209,-0.1550056,-0.17124265,-0.030072391,0.09514961,-0.06928094,0.10807992,-0.1196661,-0.065386005,-0.015063554,0.2648937,-0.0694177,-0.20742197,0.0906613,-0.02499102,0.09472932,-0.0068618953,-0.0041662753,0.13608868,-0.12059137,0.3814839,0.108102106,0.49815217,-0.13242447,-0.059053473,0.72963035,0.16628996,0.068387866,0.106347494,0.064006254,-0.029825993,0.2244195,0.013330877,0.0015649796,0.274626,0.0947514,-0.218701,0.3890825,-0.028415069,-0.32608613,-0.023524076,-0.24559717,0.039619878,0.25747913,-0.36199194,0.0009994656,0.057203528,-0.3552949,0.07554105,0.071078956,0.018434584,0.32087442,0.019332498,-0.014847251,0.054273844,0.23186874,-0.049096882,-0.268435,0.21117792,-0.14566255,0.40410703,-0.1364359,-0.01014401,-0.019833483,0.05970326,0.22712982,-0.012179665,0.35113016,-0.39991012,0.29925978,-0.36469448,-0.13949575,0.1797004,0.11963144,-0.6208032,0.25416458,0.28658414,-0.1181286,0.34172955,0.3402465,-0.232586,0.4169825,-0.02516076,0.06638392,-0.13963953,-0.13353194,0.034740657,-0.48107433,-0.52906495,0.059993923,0.38921395,0.0003656,-0.32389876,-0.07014752,0.07473008,-0.5389901,0.15620516,-0.3028895,-0.019572752,-0.03675157,-0.03870799,-0.19980216,0.47899285,0.067043036,-0.12856282,0.27935368,-0.28895023,-0.12946314,-0.064185426,-0.026773304,-0.08264385,-0.025486141,-0.14709224,0.23126057,0.11202872,-0.25634977,-0.63663185,0.12580074,0.32733226,0.12837261,-0.08104494,0.3038381,-0.03896752,0.1171151,0.014346749,0.12889753,0.4465097,-0.09074212,0.15055051,-0.3294628,0.24381356,0.0423384,0.24096613,0.47107378,0.06732533,-0.0047138743,0.011577293,0.00039689243,0.13298833,-0.5499156,-0.24984537,0.021417897,-0.12827331,0.0472707,0.45463434,0.288222,0.47963834,-0.26071846,-0.3637547,0.2932639,0.1560645,-0.012437014,-0.1015414,-0.0033325404,0.28603885,0.10374163,0.3739493,0.24349324,0.15455002,0.009015232,0.108498186,0.12341312,0.38664237,0.2541518,-0.44104388,0.10132153,0.32264245,-0.011284679,-0.19910339,-0.33928663,0.19192532,0.051166847,0.20898259,-0.0627953,0.042635217,-0.120377034,0.17167702,-0.069907695,0.053015903,0.26185298,0.4048591,-0.0014450103,0.28412622,0.026960505,0.11086595,-0.32287884,-0.117771655,0.28143942,0.061052084,-0.0049263393,-0.03332907,0.009243071,-0.126473,0.06303786,0.23199737,0.2552709,0.15379944,-0.062987514,0.066826165,0.2675146,-0.2799573,-0.022824883,0.049116433,-0.0102381855,-0.4001834,-0.4502124,0.08630237,0.16490664,-0.14051233,0.21175985,-0.13043614,0.469145,0.8617249,0.2175009,0.30187052,-0.00052796304,-0.08997145,-0.16278294,0.29388872,-0.09345433,0.16298185,-0.40542403,0.19488104,0.11410344,0.35937527,0.23561525,-0.2291052,-0.34278035,0.038557462,0.06742604,-0.029313412,-0.17444499,0.455284,-0.18351933,0.5826999,-0.25928807,0.53603196,0.24105376,0.21061471,0.0037927628,-0.22055799,0.02879563,-0.119425535,-0.0012548515,-0.15797435,-0.02955255,-0.62055635,-0.17747134,-0.1245675,0.04153353,0.23590408,-0.04675275,0.3047578,0.030199587,0.03760612,-0.19107413,0.11395044,0.25767985,-0.12266669,0.24499762,0.4000591,-0.16875692,0.33737776,0.27775693,0.07075477,-0.10315777,0.15762061,-0.024311364,-0.0005379617,0.1807158,-0.024151474,0.0891982,-0.13134809,0.013679475,-0.03487271,0.026906997,-0.047587186,0.10885197,-0.1437936,-0.21756281,-0.13583988,0.66309595,0.15235955,-0.008985758,-0.16738096,0.028021276,0.0018214807,0.09665087,0.51925576,0.26609278,0.004675284,-0.41412055,0.16936587,-0.23372927,-0.12911665,0.33394915,-0.10643992,-0.026351964,-0.029288605,0.067213446,-0.17211819,0.35019794,0.09746504,-0.17136988,-0.07978071,-0.043408528,0.032775998,-0.86567587,0.16623288,-0.23436785,0.32967114,0.008461751,0.3988755,-0.8205179,-0.01911524,0.38769528,-0.65691704,-0.026125431,-0.049456716,-0.025559828,0.0023917258,-0.028415658,0.0958105,0.18810716,0.21159576,-0.012135506,-0.052693874,-0.21981688,-0.089634776,-0.13659647,-0.010437055,-0.04617842,-0.04579111,-0.043953836,-0.12345825,0.018940581,0.048467994,-0.080541015,-0.03508015,0.032653093,-0.12881225,-0.08861295,-0.037095755,0.41834223,0.084076166,0.061703026,-0.27455175,-0.015807241,-0.07104474,0.31226802,-0.030195788,-0.037321478,0.2466124,-0.10588288,0.35890222,-0.112482525,-0.21876708,0.094177485,0.4372775,0.021799654,-0.2606203,0.008893266,-0.12813337,0.006070465,0.072538674,0.16471615,0.08451449,-0.23217899,-0.0699753,0.13479462,0.17912947,-0.07718396,-0.0057474226,-0.06701957,0.17931567,-0.08010951,-0.21994494,-0.2532364,-0.37301067,-0.19692266,-0.0055538416,-0.031968236,-0.11581016,-0.017085314,0.21314031,-0.2550084,-0.08512476,-0.089099765,0.08995247,-0.14999232,-0.41836685,0.1774025,-0.20199609,-0.08778138,-0.2227395,0.006152928,0.058378696,0.19009556,-0.25235534,-0.0129895955,-0.60603195,0.024915338,-0.015806854,-0.005481462,0.6259892,-0.077738926,0.03425815,0.09351824,0.0062351823,0.14733425,-0.16998918,0.45019412,0.065347165,0.06738001,-0.13180256,-0.40075046,-0.04447259,-0.0698851,-0.084127605,-0.24665847,-0.17881271,-0.10029575,-0.40060675,-0.21794164,0.12876573,0.06278407,0.090574294,-0.2578722,-0.009381622,-0.0023524761,-0.47076935,0.094016075,-0.12531292,-0.0075755827,0.017562859,-0.093173966,-0.25126338,-0.3396931,-0.25045195,0.34684682,-0.4907896,-0.0099104345,-0.09426662,-0.14056104,-0.031871155,-0.040368527,0.08690969,-0.22720179,-0.52648073,0.1281251,-0.029966757,0.1247153,0.12766045,0.04862435,0.004093051,-0.35657194,-0.10739552,0.13494338,-0.13622835,0.15784869,-0.1757303,0.51400495,-0.012156457,-0.5305372,-0.0019788146,-0.036821816,0.07323086,0.060855925,0.1452437,0.045945317,0.11777486,0.07657641,-0.16504048,0.29699662,0.09970352,-0.36679053,0.20011044,-0.44264796,-0.4121808,0.1815287,0.078570455,0.052847594,0.015726715,-0.12881514,0.07702419,0.20805821,-0.09457908,0.10048037,0.03404379,-0.2106215,0.46199065,0.11517755,-0.1434783,0.34874237,0.068608314,0.028233394,-0.012523353,0.068262964,0.079276234,0.18215714,0.06296287,-0.14375906,-0.09459876,-0.05168599,-0.14889896,-0.21986306,0.14084634,0.0001944676,-0.23004752,-0.26751566,-0.2096409,-0.08677237,0.1516239,-0.07980639,-0.09242869,-0.61979485,-0.14295815,-0.04077573,0.12901138,0.019283041,0.12968428,0.19159682,0.1452235,-0.59766716,0.52046216,-0.18377101,-0.17006254,0.18922237,0.010350198,0.069443345,-0.56893694,-0.09111069,0.026313528,-0.03135909,-0.32125005,-0.019019568,-0.0072891116,-0.18411072,0.13483778,0.04905597,0.12847319,-0.094343655,0.15012822,0.08520995,0.16190028,-0.041965544,-0.4228247,0.17316227,0.68464136,0.023778588,0.037565008,0.03943616,-0.27398396,-0.504228,0.033393394,-0.036261413,0.34494188,-0.11568594,0.032280207,0.028772984,0.073779106,-0.06766814,0.2623107,0.14788562,-0.24202901,-0.16065255,-0.034580708,0.018405199,-0.0858714,-0.011498839,-0.07087988,-0.34195527,0.31290868,0.5256314,0.32831162,0.17632951,-0.45215517,0.04727558,-0.3935624,-0.085762106,-0.019541442,0.11436173,0.018429577,0.050570384,0.17925702,0.31050467,-0.29421902,-0.008071601,-0.100326955,0.27030835,-0.14672016,0.2296637,0.16490948,-0.16114497,-0.24911022,-0.21057782,0.14573763,0.010338437,-0.03957105,-0.080726504,-0.27905396,0.46054384,-0.051804066,0.056386925,-0.22695084,0.036567524,-0.02173379,0.34450355,0.03355647,-0.11308568,0.15806998,0.26101267,-0.0397543,-0.22757548,0.23979464,0.07688844,-0.112484455,0.20251253,-0.30364013,0.1298019,0.4494178,-0.09851685,0.1815434,-0.24666218,0.17695828,-0.0149540305,0.006916456,-0.1913597,-0.036723882,-0.029456824,0.060081214,0.16463652,-0.28035608,-0.040865794,0.049729556,-0.17259589,0.046316728,0.21124062,-0.088477,0.077981144,-0.24502197,-0.043219805,0.11104833,-0.003982693,0.21004045,-0.2625572,-0.22796127,0.19078882,0.041879296,-0.14301735,-0.05028371,-0.039368004,0.12146064,-0.008910842,-0.03947842,-0.04766687,0.06046626,0.057325974,0.017645657,0.34105444,-0.051944684,0.13536239,0.36837855,0.20681721,0.25391454,0.1805172,0.019759342,0.32042545,-0.32098627,0.18535666,-0.07897502,0.3426938,-0.2569347,0.1011228,0.32881397,0.06574315,-0.1257617,0.13846582,0.1753963,-0.28472012,-0.16367629,0.123554595,0.58854765,-0.08437804,0.3200425,-0.34903848,-0.33600694,0.03711444,-0.3183213,-0.22115974,0.20522642,0.4066149,-0.61953086,0.12331477,0.13506286,-0.055528514,0.17691667,0.22243667,-0.20629604,-0.118863404,0.2631661,-0.12746164,0.14566694,0.023414299,0.11211415,-0.0097899735,-0.21002506,-0.20177945,-0.0039720535,-0.22075224,-0.062136948,0.0064805,0.086087525,0.0061657354,-0.048812687,0.21300751,0.17901377,-0.12044102,-0.32491758,0.092861116,0.010735124,0.6268912,-0.13370936,0.27263778,-0.3084602,-0.045663398,-0.08940531,-0.023977235,0.07987045,-0.25018182,-0.19273317,0.14695287,0.09669575,-0.013864383,-0.1356024,-0.5628232,0.0443066,0.042510048,-0.14885171,0.0067938417,0.012029231,-0.028349638,-0.16025592,0.23028718,-0.40724456,0.16022341,0.1947363,0.04969544,-0.09566486,-0.020550579,0.14088717,-0.006444782,0.036219,-0.057292446,-0.08172351,0.034282245,-0.33299232,-0.22723235,-0.27200913,0.06919957,0.1017797,0.38839597,0.01221846,-0.27796203,-0.3141086,0.003457263,0.06643927,0.108018026,-0.08167179,-0.1625295,0.005415261,-0.16543439,-0.02633673,-0.007646084,-0.31110588,0.06533122,-0.0007326007,-0.00034815073,0.18422945,-0.16779697,0.27761766,0.080605865,-0.15369168,-0.0016831765,0.04035224,-0.15325809,0.07614213,0.43345135,0.10566932,-0.33019182,0.04167202,-0.14450549,0.24144742,-0.06949093,0.0052649975,0.2205906,-0.30537564,0.034277946,-0.35321587,-0.003629893,0.19960602,-0.34843,0.21736984,0.031272754,0.03665024,-0.2332679,-0.27425796,0.36505485,-0.5206241,-0.18992496,0.5979006,0.070469946,0.5219774,-0.21592098,-0.01032456,0.13668157,-0.072641715,0.12981202,0.08817291,0.1663106,-0.040353358,-0.30851424,-0.87526095,-0.45225057,-0.09162414,-0.2513912,-0.06852747,0.07667422,-0.002106607,-0.012081042,0.042352557,-0.11142914,0.018280566,-0.12922084,-0.088459864,-0.3441759,0.83862865,-0.027163714,0.4474128,-0.060302854,-0.10464532,-0.3103332,0.09496731,0.06243424,-0.20317493,0.2529706,-0.22344983,-0.056260258,-0.051257476,-0.046480805,0.27190253,-0.0141917765,0.04038169,0.13668805,-0.025137812,0.10225935,-0.17123505,0.023017228,0.11726101,-0.42084247,-0.04255292,-0.4809976,-0.8760841,0.45031112,-0.19394375,0.5399109,0.0018067062,0.037751675,0.08281831,0.022755899,-0.0016154647,-0.037374258,0.062360406,0.02329816,0.0195309,-0.08805918,-0.85439444,0.12930568,0.30390552,-0.2441924,-0.032841563,-0.11487123,0.13994306,-0.24584803,0.18959439,0.12856653,0.2475737,-0.04663983,-0.6779996,-0.18355888,-0.05249107,-0.048572123,-0.19470531,-0.057167977,-0.0819943,-0.044352517,0.13472869,0.02439811,0.19308579,-0.011223741,0.046218663,-0.16557972,0.14723676,-0.15720901,0.029772803,-0.09613524,-0.10090098,-0.05573073,0.10238898,0.004976094,-0.11961718,-0.31155884,0.0096152425,0.24199685,0.036129825,0.11143821,-0.06261963,0.1781494,0.17562835,-0.04470487,0.001881823,0.24810366,-0.03142417,0.25800872,-0.10861345,0.019020015,0.28051415,0.071513206,-0.0629541,-0.06425661,0.17352618,0.04771972,-0.3069729,0.16403934,0.044474594,0.04612921,-0.1071555,-0.15502399,0.061583415,-0.36949542,0.11896807,0.15544763,0.08183329,0.0017697811,0.3221072,0.07266453,-0.13769239,0.07103497,0.20927396,-0.04319705,-0.1429406,-0.109045595,0.08858913,-0.15128869,-0.1224979,-0.04213822,-0.08275381,0.111008674,0.057615817,-0.061975624,-0.14651635,-0.2883024,-0.02986809,-0.033176184,0.21441388,-0.33127707,-0.08532676,0.031140847,-0.024675999,-0.34650925,-0.19396845,0.101120725,-0.02835825,0.12653431,-0.31078625,0.17852975,-0.1950982,0.10694054,-0.22688691,0.29440248,0.052716464,-0.13899165,0.083097465,0.013006091,-0.0077191293,0.16915376,0.1746825,-0.14038281,-0.016163997,0.0011049658,-0.17154363,-0.0060198903,-0.24458757,-0.34503013,0.113806784,-0.04735426,-0.12441185,0.21027341,0.120839,-0.16621512,0.018918164,-0.3821319,-0.16424581,-0.80494964,0.4229234,-0.3761516,0.19941306,0.20481971,0.47642177,-0.08239889,0.26014632,-0.55321604,-0.15331726,-0.045694225,0.15935317,0.5849973,-0.10783166,0.17349347,-0.1452659,-0.22416016,0.35190952,-0.32051614,0.11954892,-0.16645625,0.08638996,0.12291656,-0.14410605,0.5523814,0.20672065,-0.27026916,-0.13976023,0.063092515,0.10878348,-0.3314044,0.12834156,-0.26553792,0.29869136,0.07338376,0.028882354,0.07895431,-0.14359125,0.014320552,-0.06875561,-0.23605023,0.08258586,-0.006493956,0.13862422,0.08613616,-0.17289932,0.004346924,0.14988284,0.12583336,-0.023744538,-0.11859204,0.07148641,0.18154342,-0.0075264275,-0.008881301,-0.09189023,-0.21984358,-0.08224861,0.005366951,-0.08458093,-0.206581,0.05912877,-0.036921218,0.12074095,-0.025627308,-0.049253497,-0.12388709,-0.060359135,-0.009605803,-0.02749775,0.062553674,-0.33592695,0.31583187,-0.21971042,0.034947768,0.32216206,0.14714794,-0.38208023,-0.15613142,-0.22818063,0.0030097216,-0.089806795,-0.014902264,-0.08588437,-0.056106403,0.14973234,-0.15071785,0.11478661,0.109460145,-0.15041706,0.21764097,0.77166665,0.038680807,0.017704295,0.095547974,-0.21187213,-0.018907761,0.26524857,0.15593946,-0.2413106,0.12540713,-0.011134502,-0.5997085,-0.09460343,0.117356285,0.051152885,-0.3914142,-0.15783711,0.049284104,0.096365824,-0.089751296,-0.07764077,0.1419943,-0.14973676,-0.04658217,0.5249107,-0.09506371,0.49902743,-0.23135108,0.078345254,0.22691935,0.6912543,-0.26717916,0.35623538,-0.0044986755,0.0720194,0.12245546,-0.34686384,0.30741626,-0.18987104,0.21067479,-0.017992709,0.006886184,-0.352172,-0.074414104,-0.14935063,0.37265804,-0.19369984,-0.14378828,0.2223159,0.13255236,-0.20432675,-0.035466343,-0.16175368,0.45879185,-0.3690297,-0.3450345,0.10009056,-0.06797457,-0.05339414,-0.30909112,-0.3408937,-0.19100174,0.24628176,-0.19931808,0.4023099,-0.45781943,0.19342455,-0.06357496,-0.25368404,-0.081441715,-0.07510005,0.04855129,-0.17435749,-0.073390014,0.06965479,-0.14485233,-0.30880374,-0.025722682,0.02807387,0.3343366,0.2646759,-0.55837816,0.2913405,-0.36153,-0.028165355,0.023771107,-0.056188155,0.24605331,-0.01893653,0.28466696,0.025079265,-0.039395846,0.20896962,-0.057776213,0.11494881,0.051430903,0.06268746,-0.13998094,-0.03183759,0.14194019,-0.036379322,0.19082274,-0.28147307,-0.06974224,-0.42013362,-0.33845615,-0.010884717,-0.096455865,0.091437966,-0.17888145,0.3589125,0.1492676,0.104602695,-0.09952474,-0.07591143,0.062388495,-0.30399367,-0.08448592,-0.051564157,0.17986755,0.028867714,0.09580022,-0.12822244,0.4904193,0.009986341,0.15188223,-0.043147117,-0.15770516,0.1930384,-0.19955446,0.008640766,0.24491774,0.22171585,0.17679247,0.12223028,0.18591529,0.119412124,-0.23308672,-0.25226727,0.105651945,0.2257333,0.3492892,0.079553306,-0.100216925,-0.0023691878,0.32931682,0.0068702996,0.44887906,0.27986068,0.2732248,-0.2544921,-0.08985642,0.15545727,0.07317568,-0.08898363,-0.15677036,0.22595957,0.17371297,-0.011448264,0.119481795,0.43714553,-0.07777986,0.035334498,-0.030384492,-0.2831383,-0.53201145,-0.008380413,-0.20806703,-0.16726351,-0.058693677,-0.119873494,-0.23101118,0.15287384,-0.20585212,-0.4279804,-0.12737958,0.058342546,-0.0384686,-0.07894126,0.2505489,0.4108715,-0.023555301,0.26008505,-0.7558382,0.10958131,0.018699333,0.09473708,0.06339967,-0.040466733,-0.08666892,0.15930006,-0.15513259,0.07897705,-0.057612915,0.7273288,0.26389045,-0.03694135,0.023977347,0.3094833,-0.31246635,-0.2175862,0.30950204,0.6748148,-0.17996036,0.25790197,0.2725053,-0.5385124,-0.02790673,-0.05154383,0.2754948,0.26034343,0.29608238,0.006133333,0.13754016,0.4862707,-0.039354682,-0.10301639,0.2353321,-0.10315913,0.13453965,-0.04207009,-0.2153313,0.30319214,-0.044063777,-0.9212344,-0.052472413,-0.72491854,-0.25050995,0.3144486,-0.09458658,0.0048516393,-0.02202402,0.036922514,0.123462915,0.039756536,-0.15028128,-0.48404348,0.09552912,-0.17273393,-0.30917948,0.07678744,0.37100583,-0.103149176,-0.17118344,0.038761258,-0.012783915,0.08209282,0.10322678,0.07228869,0.7960585,-0.022618935,0.00084087625,-0.04698199,-0.13033551,0.072674856,0.05341223,-0.07198197,-0.077634156,0.25145465,0.13573128,0.1129667,0.0038502365,-0.153476,-0.5246641,0.103640646,0.070626125,0.10102451,0.02942717,0.19291206,0.07843113,0.12389526,-0.16322222,0.2977028,0.0032584667,-0.33476877,-0.044466063,0.031083703,-0.06509516,0.055333193,0.013211101,0.12229208,-0.19021241,0.36780858,0.11454132,-0.29080033,-0.035261825,0.14640933,0.05797845,0.15852465,0.41262436,0.24578834,0.13699119,0.13636194,0.26979527,0.73348546,0.020487145,-0.04902558,-0.09998667,0.060856752,-0.13359746,0.26438123,-0.015118092,-0.15583222,0.024148922,-0.25183842,0.040545925,0.23563156,-0.064818166,-0.07364115,0.06226392,0.037668817,0.002137065,-0.21912546,-0.0302732,-0.35378814,0.09772022,0.15737008,0.013434157,-0.3185726,-0.009126276,0.2831028,-0.10842138,-0.035825342,-0.101286136,-0.14401458,-0.16642678,0.24893028,-0.009901553,0.24546129,-0.119807094,-0.020780474,0.13806283,-0.13548996,-0.03621584,-0.2944197,-0.014799699,0.0148932785,-0.030391257,-0.23068717,-0.17871326,0.14967865,-0.23138028,-0.062124595,-0.3715685,0.5695056,0.3409299,0.35434452,-0.2280255,-0.14291853,0.046019793,0.020042956,-0.077837944,-0.059877034,0.011215635,-0.2462717,0.3286276,-0.11550832,0.19159807,-0.25574765,-0.0073544756,-0.14764506,0.4729519,-0.23815738,-0.01253736,-0.23739785,0.1977428,0.24333154,-0.21438822,0.095819846,0.07625602,-0.26379287,-0.34551558,0.2044231,0.13212913,0.104475886,-0.07289345,0.10948746,-0.11693482,-0.15934108,-0.031399634,0.03511724,0.035657525,-0.06023532,-0.026910484,-0.17564388,0.037383795,-0.072392285,-0.1312978,-0.04216987,0.05269846,0.35047066,-0.30579525,0.36650717,-0.4496283,0.16199343,-0.13468927,-0.12672108,0.08715397,-0.4197483,0.02701351,0.032465786,-0.02958085,-0.11712903,-0.044401318,0.12083334,0.048948377,-0.25636643,0.117621735,-0.077848196,-0.21368504,-0.1032902,-0.18511653,0.05307258,-0.054421812,-0.00086921453,0.12343612,0.14612557,0.072052956,-0.36787418,-0.008429244,0.29601598,-0.11111003,0.06540114,-0.09925656,0.024705648,-0.121668525,-0.117046684,0.04046549,-0.33389306,-0.13093713,-0.039775953,-0.20475824,-0.07282638,0.37384936,0.56581724,0.042227972,0.2178959,-0.22245309,-0.6836164,-0.12937026,-0.15991639,-0.18185735,-0.15358418,-0.3801705,-0.24396946,0.08259679,-0.121663064,0.13160264,0.03584832,0.24049115,-0.16506438,-0.06623536,-0.4842073,0.20570883,0.19560304,-0.14280212,-0.37470746,0.10574065,-0.016888455,-0.122918874,-0.23001328,-0.009427875,-0.3228016,-0.021272764,-0.018530577,-0.14129706,-0.23103237,0.02786541,-0.15087748,0.026638389,-0.17394906,0.1886365,-0.19019902,0.03244266,0.22433728,0.2975513,0.032703802,-0.06523221,0.073359236,0.1016714,-0.14054355,0.11711311,-0.2125668,-0.011707988,-0.047606796,0.08852473,-0.0010790378,0.05181078,0.19778563,0.6275152,-0.100159355,-0.47275785,0.16855463,0.1471664,0.032989666,0.1490555,-0.036150683,-0.010694563,-0.09080483,1.0989264,-0.020766776,0.020597436,-0.096339494,0.01759994,0.03320867,0.6644513,0.1857709,0.054892443,0.08665507,-0.10618548,-0.093415156,0.09244023,0.16714448,0.07925507,0.66335446,-0.13528109,0.9302075,0.034012746,-0.06501465,0.039242595,0.002061665,0.0038852692,-0.17457885,0.047359273,0.021727644,-0.029381886,0.1347009,0.13659151,0.04857403,-0.051250726,0.1730048,0.024982095,-0.008107877,0.039670363,-0.13044184,0.08020755,0.01905772,-0.20399983,-0.040921926,-0.032696754,-0.062936336,0.111726195,0.031417906,-0.09036428,0.055804696,-0.00808068,0.06939218,0.033825003,-0.011581197,-0.0686707,-0.58198595,0.16495937,-0.06522289,0.04215677,-0.06495177,-0.041353136,0.046520784,0.0715937,-0.06853023,0.0045784786,0.026535034,0.0031609265,-0.14584428,0.06573707,-0.14698797,-1.090599,-0.07999438,0.03663366,-0.08018463,0.08012337,-0.053772278,-0.15364408,-0.85216725,0.035111547,-0.04176572,-0.02468352,-0.084807694,-0.09029062,-0.17642635,-0.01602289,-0.036958963,-0.12175955,-0.26029065,0.08022459,0.023534179,0.26298258,0.0770573,0.085845605,-0.064614624,0.090934634,-0.042681515,-0.94017917,0.4301127,-0.32910293,0.0133251175,-0.17779009,0.0125647085,-0.049093086,-0.027153112,0.0117025655,-0.21716397,-0.03883204,-0.18570235,-0.06485997,-0.109449424,-0.008279361,-0.2515037,0.086061716,0.25506324,0.056468874,0.19614707,-0.062322825,0.08449577,0.28002936,-0.02430597,-0.023438033,-0.012611002,0.01609242,0.29424667,-0.016457364,-0.28996193,-0.35903338,-0.21878746,0.03892988,0.027152725,0.006882999,0.017669976,-0.19034132,-0.043878376,0.47069117,0.015151113,-0.11687029,-0.118491106,-0.06825818,0.3001336,0.2595107,0.04829067,-0.06551331,-0.044542156,-0.16130897,0.0325412,0.03725028,-0.05623546,0.012141641,-0.07177216,-0.3570633,0.1634011,0.39068514,-0.08022914,0.12164514,-0.0015387535,-0.22831064,-0.000735417,-0.15809801,0.095292255,0.09713638,0.010135502,0.0782412,0.034262657,-0.06346041,-0.05046601,-0.0474191,-0.11857842,0.5200046,0.4413811,0.017581508,0.023417085,0.03732399,-0.14067486,0.26924843,-0.21917622,-0.12678677,0.11037625,0.16997015,-0.047691178,-0.3973154,-0.50620294,0.1076338,-0.24319509,-0.030510426,-0.21133867,0.30704913,-0.18329504,-0.23879245,0.084209196,0.15090702,-0.10291165,-0.097346835,-0.05202809,-0.053204387,-0.41409987,-0.0792664,0.028174281,-0.10044095,0.104604244,0.03720604,0.011385322,-0.3929645,-0.49453646,0.30698866,0.074543804,-0.15711716,0.07396263,0.19344188,0.03661108,0.13912416,0.094611645,0.067136556,-0.40129414,-0.037516516,0.23301943,0.005788073,0.08011328,0.031682182,-0.02595979,0.15827093,-0.118089765,0.12736331,-0.13362205,0.29317036,-0.48268428,-0.035535008,-0.1611799,0.20941257,-0.36988798,-0.033180296,0.19684425,-0.11063982,0.114746265,-0.23516348,-0.4866705,0.11328439,0.011873305,0.5101158,-0.089101024,-0.08872059,-0.22376284,-0.29441392,0.09980828,0.2817103,-0.09936856,0.5441742,0.4897339,-0.11669087,0.05344879,-0.41566864,-0.22616702,-0.06336427,0.19846709,0.01983346,0.5242952,-0.21211696,-0.09493633,0.027589798,0.10912594,0.28671628,0.122337386
