1,672,-0.066477865,-0.0021450503,-0.823018,-1.150514,-0.14765513,-2.030566,-0.258328,-1.9379331,0.4106388,0.27479577,-0.04396977,-0.95071137,-0.12595299,-0.9847398,-2.2485633,0.46883416,0.40397328,0.18492454,-0.24833554,-0.13957465,-0.9701107,-1.1700068,0.2276045,-1.0531555,-0.5054756,-1.7685406,-0.88326156,-0.86875963,-1.2710228,-0.19140173,0.5919016,-0.73391896,-1.4315536,-0.39811313,0.39696985,0.91085935,-1.6508362,-2.1918464,-0.6267852,-0.3795553,-1.3655069,-0.3109883,-0.21974875,0.68394524,-0.43861088,-0.62852246,-1.8210617,0.40824127,-0.85449016,-0.5277683,-0.2120976,-2.026348,0.22230053,-3.1217017,-1.4997114,-0.5074879,-0.2873794,-0.98535913,0.2591831,-0.00656349,-0.13375767,-0.42802468,0.124008596,-0.986348,-0.56431216,-0.8024947,-0.5740536,0.8453109,-0.30700967,-1.089989,0.04201259,-0.21870613,-0.7787784,-0.5229071,-0.6867317,0.026354846,0.090214916,0.09445369,-0.032403056,1.0321268,0.2983689,-1.5249739,-0.033204842,-0.2623199,0.50962174,1.772334,0.79973,-0.9377761,0.9669346,-2.00718,0.21594416,-2.2719526,-0.1570779,-1.436096,-0.34724918,1.1594356,-0.98208326,0.45633662,-1.6394126,-0.5082374,-1.573488,-0.25982276,-0.047682058,-0.28739816,-0.07999071,0.8493231,-1.083742,-0.37192813,-0.6939406,0.082986146,-0.35448283,-0.42691258,0.62412494,1.0596248,-0.46740967,-1.2218554,-0.28609192,0.6155861,-0.1762216,0.20780174,0.35661936,-0.5545231,-0.08962766,-0.22062649,-0.047703184,0.2612905,-0.49380532,-0.5023532,-0.4770297,-0.92332244,0.4186991,-0.8301335,-1.639674,-0.2597258,-0.096989006,-1.1266325,0.17770721,0.4113751,-1.082186,-0.27662835,0.3794106,0.028402021,-0.6143174,-0.7359928,-0.21039501,-0.46732676,0.30460414,-1.0714756,-0.33428416,0.36082014,0.20141432,-0.27002084,-0.56869334,-1.8966621,-1.547204,0.051820785,0.050909683,-2.4168632,-1.2455674,-0.028366785,-0.9962908,0.57249784,0.14850707,-1.5628875,0.497954,-0.6662564,-1.453526,-0.6231083,0.07533008,0.29141492,-2.0048568,0.15295137,-0.5005478,-0.07836526,-0.6382205,-0.12103693,-2.4194098,-0.2847016,0.49683738,1.0645882,-0.65277493,0.41554523,-2.3462193,-0.99136376,0.8373543,0.015237039,-2.4606764,-0.9223474,-0.4414174,-0.11779698,-0.07266142,-0.17271395,-2.0121424,2.1866422,0.22562192,0.08574641,-0.16598968,-0.8119722,0.33823007,0.12204742,-2.0057297,-0.829913,-1.1708956,0.21370564,-0.47981492,0.21883103,-1.1491991,-0.102156006,-0.041494653,-3.5411522,0.5704374,-1.1629592,-1.0633247,-0.8585245,-0.7624623,0.3650313,-1.2679331,-0.639837,-0.15089068,-1.3673029,-0.20494474,-1.8023975,0.24500173,-1.2921759,0.26168615,0.867787,-1.2568951,-0.41728535,-0.7269279,0.6197123,0.98531264,0.05326472,0.083132334,0.35954264,-1.2848116,2.220167,0.011272364,-0.9491383,-1.0873849,-0.921065,-0.39343166,-2.1926334,0.4049189,-0.05122681,-0.65230036,-1.1829988,-1.8331108,0.34560198,-1.0181336,-0.94237036,-0.35294893,-0.21131913,-0.7897308,-1.4289579,-1.6617122,-1.0191622,-0.6747122,0.2586115,0.4181889,-0.09105122,0.8438785,-0.16184816,-0.111834995,-0.27328524,0.07580471,0.7425103,0.31874126,-1.7859979,-1.4671692,0.17261875,-0.09993587,-0.5790223,0.44539347,-1.0297536,-0.7213656,-1.5090832,-0.4179298,-2.089743,-1.7733407,-0.4616385,-0.015001286,-0.11774819,1.170478,-0.7602666,0.5174577,0.15248767,-1.1106446,-0.80525243,1.7731202,1.1015177,0.05133101,-1.4076208,0.3000012,0.57612115,-0.7937783,-1.6025198,-0.26428875,-0.31850272,1.2183636,-2.1495273,-0.38193953,0.33481038,-0.08974716,0.07596519,0.08351396,-1.0938449,-0.5693068,-0.68969494,-1.5586126,0.19297697,0.2611862,-0.90680027,0.01723447,0.071102604,-1.7422872,0.05028434,0.18647406,-1.1480639,-0.6645985,-1.4071634,-0.10705653,0.23688966,-0.30847988,-1.2905415,0.8612946,-0.1111665,0.11623015,-1.0951216,-0.039138585,0.10898684,-1.8591357,0.840947,-0.39206496,0.23301539,-1.3313711,-1.3225379,-0.48504946,-0.4099382,-0.76867133,-0.27589798,-0.3959435,-0.52212673,0.42759728,-0.1340499,-0.5297766,0.54640055,-0.5015451,0.7597404,-1.7034829,0.38784307,0.34456494,0.3691877,-0.2330412,-1.8075271,-1.0578771,-0.05748844,-0.4375193,-0.35730264,-1.521219,-0.55165917,-0.27473122,-1.9298259,-0.23945077,-0.36744705,0.19622052,-0.07506939,-0.3287553,0.069721505,0.67648214,0.14993623,1.4090302,-0.98464555,-0.8452837,-1.3569344,0.0033561557,-0.23649645,-1.2231628,-0.65182006,-0.63867724,-0.8726103,-0.1892749,0.22783335,0.16099836,-0.57553685,0.07812245,0.02605829,-0.38629454,-0.26755244,-0.26729897,0.4148567,0.12063195,-1.7452862,-0.9963473,-0.5024776,0.1207038,-0.08786075,-0.5384252,0.19268067,-0.013724489,-2.2419987,-0.6573774,-0.3711528,-1.2439965,-2.220048,-0.46686545,-1.3472825,2.3504858,-0.44206622,0.8414618,0.9618398,-1.5223157,-1.7814196,-1.0510246,-0.8653045,-2.9802787,-0.9163088,0.459691,0.003964567,0.6145679,-0.41708818,0.058638033,-0.44695866,-1.0331011,0.24788913,0.3174818,0.04680126,0.99141043,-1.0693328,0.4102389,-1.4682517,0.34095967,0.52130616,-1.1161277,-2.406044,0.8609851,-0.45091107,0.7236487,0.5916946,-0.012576762,-1.521199,0.23510277,-1.5968237,1.0140204,-0.45252204,-1.8125018,-0.8700633,0.5796284,-2.0486226,-0.808488,-0.5242291,0.51470375,0.09339299,0.6673695,0.011588736,-1.2286128,-0.0068111066,0.27960083,-1.8649522,0.44256386,-0.11552055,-0.5308531,-0.21629661,0.0069859875,0.18161128,0.09168295,-0.12410475,0.23580834,-1.3635154,-1.0650659,-0.52422667,-0.23995279,-1.0613987,-0.744792,-0.46845695,0.34800693,-0.5757699,0.05406356,-0.89522153,1.0647261,-0.37967223,-0.46908408,-1.7387054,-0.5126692,0.067517065,-0.052554928,-0.37370557,-0.7049079,-0.036475755,-1.3152087,0.39476278,0.112448946,0.6528588,0.28135702,-1.1719364,1.3653377,-1.4459324,0.1025377,-0.601349,-0.54470795,0.25033972,-0.19494446,-1.7077324,-0.8849876,-0.4621603,-0.024875527,0.26643905,-0.320828,-0.3645619,0.05831658,0.09215244,-0.39333183,0.88842505,-0.35138687,0.48628813,-0.8259331,-0.8644021,-1.6023691,-1.559331,0.09743683,-0.7179165,-1.0954242,-0.047020182,-1.0127935,0.2984652,0.14985034,0.76556605,0.07257972,-0.10625045,-0.6283278,-0.10204753,-1.4753804,-0.68345124,-0.6463535,-1.0584428,-1.8285799,0.19297636,-1.265185,0.008826021,-0.93151194,-0.2691807,0.49701107,0.1308489,0.32288525,1.1664063,0.74246556,-1.8352424,0.69478774,-0.17618519,0.7703449,-1.6819607,-1.1497699,-1.2528713,-0.22234824,-0.51600385,-0.7525,-0.059743866,0.043762214,-0.56109804,0.17421284,-0.80972326,-0.4443606,-0.12978324,0.65794253,-0.074296966,0.18450354,0.9416063,-0.37313074,-0.24501666,0.1795429,-1.6384324,-0.38442573,-1.8435135,-0.68170017,-1.336627,-0.9694349,-1.5008346,-0.047913823,1.0251386,-1.9339985,1.3133382,-2.1142917,-0.5277992,-0.2093678,0.5923002,-0.8607264,1.2823299,-1.0783933,-0.5567642,1.0494307,-0.18071009,0.5641638,-1.3194135,-0.49359733,-1.6566591,0.7549004,-0.51427835,0.52398723,0.4866889,1.9011722,-1.4431672,-0.69554174,-1.9301523,-0.6876722,-0.25059637,-0.34814006,1.2386321,0.20324923,-1.5805372,-0.88857526,-0.28331655,1.6236914,-0.446668,0.35432464,-1.430315,1.9425517,-0.0829021,0.039797213,-1.6428096,-1.0486727,-0.6328015,-0.25505376,0.06695629,1.201422,-0.26906952,-1.6185219,-0.20757903,-1.6977804,-0.21173567,0.54860854,-0.5754961,-1.1243376,-0.15569572,-0.50621146,-0.76713115,-0.23601979,-0.07310294,-0.5010602,-0.1555442,-0.59600264,0.040742386,-0.49225122,-0.36641276,-0.6095501,0.06476267,-1.3362095,-0.017170232,-0.53726965,-0.4351364,0.72043496,0.28331703,-0.6189347,-0.43488792,0.025343085,0.26357248,-0.33677343,-0.49668908,-1.9198269,-0.7593191,-0.44141975,-0.077304326,0.42210665,-0.4214491,-1.4137913,-1.0516694,-1.6170969,1.4722842,-0.233938,-0.033551313,0.011210005,-1.6071776,0.12608299,-0.17962267
