1,112,0.419677,0.08282355,-0.4045468,-0.29008535,-0.21461724,-0.35407513,-0.3345626,0.60112095,1.0262694,0.7784473,0.63943046,-1.1284996,-1.3343813,0.39180768,-0.42372435,0.18826094,-0.64918214,0.9423302,0.95817673,-1.2365861,-0.45698422,-0.061641145,0.7519858,-0.050007943,-0.08523883,-0.19874445,-0.33879644,-0.17593257,-0.19219089,0.2587114,0.3897892,-0.35835063,-0.04132674,-0.2383891,-0.46566758,-0.484223,0.5764456,0.78169173,0.8655535,0.98854446,-0.5872427,0.63318586,-0.12577732,0.58763385,0.021394728,0.8408198,0.7689025,0.043251473,0.43495727,-0.19310284,-0.39572605,0.1180808,1.3274919,-0.32734329,-0.05286963,-0.91136473,0.07179911,-0.76346105,0.32701486,-0.19313814,0.77468306,0.5079489,-0.6515609,-0.21722658,0.86549544,-0.15991758,-0.3745574,0.4972337,-1.0595361,0.07364377,-0.34583175,-0.12011109,-0.8245062,0.32279646,0.45869452,0.06569209,-0.76991695,-0.7727152,-0.13959736,0.2804293,0.17310315,-0.25350338,-0.026140705,-0.82442987,0.7428735,0.340494,-0.8525396,-1.1983913,-0.48390925,-0.6324633,-0.11492209,-0.056281675,-0.07205791,0.9378236,-0.19049008,0.67125887,0.3146125,-1.1501293,-0.119994156,0.7517043,1.3957837,0.10028021,0.29405987,0.18010038,-0.170995,0.25996038,0.037758913,1.4084575,0.089785345,-0.45726663,-0.92194605,-0.6676433
