1,672,0.21326566,-0.87492347,-1.2110593,-0.64476854,-0.40883726,1.3141204,-1.7023879,0.09501309,-0.62269694,-1.309414,0.15603568,-0.007725233,-2.7004719,1.4282165,-1.1593958,-0.7540053,-0.67689264,-0.26911473,-1.2191476,-1.7096431,0.011283743,0.5135217,-2.1746812,-0.23318751,-0.9729097,0.34261283,-0.24885978,-0.57022613,-0.43251303,0.23802549,-0.81085396,-1.2684256,-0.38144764,1.3864172,-0.7260881,0.03300062,-0.32074305,0.6360129,-1.0266542,-0.13617496,-0.0029280165,0.16093065,-0.2383699,0.4789418,-1.4605802,-0.2110832,-1.5688453,-0.0096254125,0.0055776085,-1.7476903,0.03904943,-2.0103807,-0.23743504,-1.3326933,0.3493778,-0.0035855973,-0.59206724,-1.5112327,-0.7900164,-0.17898612,-0.42408624,0.7225366,0.5235197,-1.6808475,0.13053064,-0.2209501,0.34341562,-0.57937306,0.11901923,-2.0092843,-0.24234267,-0.025437163,-1.2293351,-2.045939,-0.66836375,-0.78027153,-2.03234,-1.0601537,0.60767776,-0.2794674,-0.93570936,-2.7509217,0.53804463,-1.4690784,-1.0776066,-1.2680336,0.9588924,-0.648474,-0.4744392,-0.98204494,0.07764892,-0.30992562,-0.35887694,-0.9032023,0.012905824,-0.7742709,-1.0043609,-0.8758613,-0.13594864,-0.14645146,-0.6489176,-1.2991283,-0.41379753,0.9429599,-1.8034242,-0.004781753,-1.5756745,-1.3046951,-0.13550043,-1.5792668,-0.03830398,0.11072421,-1.4562414,-0.9159193,0.5642851,-0.5245196,-1.3839004,-0.98253185,-0.865367,-0.061185833,-1.2906367,-0.50497913,-0.71830827,-0.1114395,-0.6885415,-1.9636784,-0.15869021,0.37469348,-0.12412473,0.1394252,-0.7255123,-2.1730134,-0.8901693,0.644723,-0.22910292,-1.1982839,-1.2802474,-0.44302464,-0.545228,-0.46436727,-0.98682976,-0.5837504,-0.007853101,-0.52943254,0.5235009,-1.9713507,-0.09088052,-0.34478387,-0.40414312,0.50245756,-1.5187007,-0.09586686,-0.99000883,-1.1895549,-0.2351005,0.36140898,-0.33160263,0.1851046,-1.1489835,-1.936124,-0.8588613,0.18280151,-0.45690718,-1.682222,2.0164633,-1.2838404,-0.6214039,-1.0556817,-0.41473877,-1.9793887,0.15532137,-0.49713877,-0.13348126,-2.5645897,-1.176005,-0.8030495,-1.5009038,-1.0420101,-0.35002136,-1.4575076,-1.127421,0.22727862,-2.0227551,-1.1265975,-0.065744124,-0.4542144,0.59224623,-1.1720493,-1.0327563,-0.3789763,0.9080473,-0.5902839,-0.57659185,-0.9638629,-1.4390036,-0.91942424,-1.3662392,-0.15512201,0.5132862,-1.149685,-1.3268147,-1.3893827,-1.8005302,-0.86259824,0.027074143,0.068317376,-0.19970727,-1.3611008,-1.5819111,-0.7082078,-2.924972,0.387387,-1.3479284,-0.9405919,-2.1761596,-0.16560844,-1.7238468,0.26523465,-1.196332,0.16083902,-2.589032,-2.005557,0.43421283,-1.9208292,-1.3068844,-1.1219546,-0.0979924,-0.8030188,-0.5380692,-0.49627817,-1.5142498,0.33740798,-0.5381699,-0.0070628747,0.07151565,-0.86380875,-1.0378484,0.60685724,-0.00821868,-0.67796034,-0.9660088,-0.7988927,0.98402786,-0.6369281,0.8577896,-0.14051624,-0.8008925,-0.9298458,-2.1418557,-1.1883016,-1.7815222,-1.480982,0.24062248,0.018262865,0.31843922,0.7929939,-1.5242167,-1.3262638,-0.15912999,-0.56866455,0.5168445,-1.2777411,2.4829,-0.5173846,-0.9048315,-0.78342575,0.1991718,-0.56283075,-1.6003762,-1.1842918,-0.76851654,-0.16120735,-1.0803323,-2.185387,0.25809777,-1.953752,-2.1222649,0.121387,0.9792474,0.081498966,-0.52436,-0.19444472,-1.0512186,-0.5642133,-1.0292261,-1.821426,0.14830844,-1.201192,-0.28636366,-0.24245845,-0.030325448,-1.7638941,-0.1937976,-1.904555,0.16023003,-1.3096596,-3.5587182,-1.5833132,-0.27187604,-2.0081134,-0.48531944,-1.5035605,0.004584371,-2.0859551,0.3049369,-0.3827243,0.3751236,0.321065,0.81322145,-0.16527776,-1.5445906,-1.0762666,-2.0620542,0.6645752,0.08782457,-1.554077,-0.31876585,-1.2656403,-0.65576655,0.2385103,-0.051731024,-0.31260407,-2.8452294,1.5255117,-0.48716745,-0.6451313,-0.7549744,-0.118550085,-0.36380857,-1.2495424,-0.8155112,-0.339743,-0.13197628,-0.0049475655,-0.044783212,-1.9463258,-0.887279,-1.3536676,-1.2345904,0.92065907,-0.09986827,0.010490594,-0.35187492,-0.17772652,0.9497854,-1.6727672,1.5212016,-1.2639024,-1.8343298,-0.28879574,-0.86992353,0.32551593,-0.6181198,-0.6622399,-2.0972605,0.1714051,-1.7122146,-0.99457294,0.40218607,0.16115431,-1.9517287,-1.028825,0.028883994,0.542546,-0.0055225724,-1.6271156,-0.8670158,-1.453196,-0.32154584,-2.031411,-0.6045278,0.4667033,0.13851517,-1.2697473,-1.7204511,-0.7500096,-0.72327477,-0.577817,0.08025118,0.82193965,-0.6821891,1.4275367,-1.9825058,-0.90247816,-0.34741986,-0.5570756,1.9932537,-1.2127868,-2.1764913,0.100545466,-0.3913056,-1.1989565,-0.12476826,-0.24662085,-0.023234213,-1.026668,-1.6180419,-0.7065852,-0.72366244,-1.5390025,0.021450402,0.11585712,-0.90441316,-0.09504957,-0.4771013,-0.40735,2.4853814,0.5925682,-0.8834346,0.28023413,-0.46999112,-1.1098229,1.0865557,-1.1154895,0.32578424,0.75966465,0.099121474,-1.6859428,-0.55911815,0.4991035,2.000397,-0.048024066,-0.8155714,-0.10994679,-1.1968346,-1.1625658,-0.113312304,1.423377,-0.45776433,0.9186944,0.35502413,-0.16533145,-0.010591921,-2.2101653,-0.30917504,-0.21732739,-2.2964642,0.2230605,-0.6569067,-0.99752444,-0.4354753,-1.0244955,0.034599934,-0.21156543,-0.33295053,0.15035735,-2.7939892,-0.027972853,0.37716675,0.6128805,-0.17010345,-1.3081737,-0.9632115,0.2648017,0.20001496,-0.0037820109,-2.3473506,-1.2908841,-2.5949247,-0.9011456,0.9086871,-1.2007834,-0.29324132,-0.95106477,-0.81357294,-1.4567819,-1.9584286,0.9210169,-1.5194836,0.29482207,-0.1283986,-0.012143051,-0.13698198,0.046100594,0.5127301,-1.2756035,-1.2261168,-1.184222,-3.7342508,0.4226933,0.05663812,-1.0967228,-0.99168086,0.17638919,-0.80398554,0.3135323,-1.5481491,-0.1043603,-0.1346469,-0.73072255,0.2759499,-1.6015234,-0.60056967,-0.6795979,-0.24866287,-0.8695824,-2.1243062,0.07922627,1.7686653,0.15305111,-3.4256802,-1.4627609,-1.1969647,0.13001977,-1.4600545,-0.7416043,-0.7700627,-2.0387666,0.34634057,-2.022577,-0.427648,0.5709422,0.05983458,0.070522554,-0.6537709,-0.7229023,-1.3865826,-0.7512321,1.0979478,-1.8970127,-0.29281425,-0.4356939,-1.6451048,0.057797626,0.9965728,0.090933956,-0.45251006,-0.47849447,-1.0980195,-0.9816933,-0.1342063,0.0028711439,0.103626505,-0.009281973,-0.15628487,-1.3531109,0.2901855,-0.8591535,-1.3447547,-0.3964351,-0.48067525,-0.5089674,-1.6580971,-0.6352284,-0.66124994,0.12125007,-0.3080754,0.22130698,-0.08588695,1.192155,-2.0919368,0.11103658,-0.3994124,0.4815979,-2.509793,-1.7642629,1.4932044,0.09823771,-0.28001213,-0.7344522,-1.510935,-0.3953647,-0.7593525,0.29805958,-0.84044755,-1.1824354,-1.6614759,-1.2044393,-1.7193263,0.032831956,-1.0269055,-1.1673424,-0.4952393,-1.921388,-0.7109432,0.43208876,0.0839333,-0.8730926,0.13622439,-0.42686027,-2.524813,-1.0697155,-0.7502086,-0.23084463,-0.60032624,-0.6672945,-2.1145654,-0.9985338,-0.40300852,0.0551775,-1.3314952,1.342613,-0.30532795,-1.5220044,-0.46394897,-1.1693497,0.27466738,-1.0634652,-1.2365289,-0.53791994,-1.5296048,-0.28218454,0.40931043,-0.9465906,-1.6747315,-1.458081,-0.9146399,0.19090128,-1.7277395,-1.5722214,-0.9971339,-2.6101596,-1.5828131,-0.85781205,-0.114368774,-0.6413422,-1.1828359,-0.7204746,-1.9288838,-1.5304029,-2.0593145,0.6669179,-1.9082289,-0.97294044,0.24367023,-0.65784824,-0.7559989,-0.43388814,-0.14553578,-0.2496676,-0.5031782,-1.677253,0.16875388,0.03197292,-1.0816858,-1.5211253,-1.3955657,0.26885587,-1.1497091,-0.7524249,-0.35765952,-0.6232466,0.48189926,-0.7782951,-0.76041406,-0.8469427,0.17650093,-0.69865626,-0.90582824,-0.36771607,-1.2168657,-0.2323819,-1.6822541,-1.5045623,-1.3962361,-1.1194243,-0.38387874,-0.71059793,-0.71669126,-0.53445977,-0.9327989,0.7194867,0.6016353,-2.5095506,-0.7243463,1.2879634,-2.7260065,-0.50072443,0.006698117,-0.023693366,0.80643564,-0.92144763
