1,1152,0.01540986,-0.020413846,-0.0040405807,0.013583325,-0.017929373,-0.02018435,-0.0075868196,-0.012080947,-0.015678912,-0.016186273,-0.012219622,-0.018590631,-0.005350641,-0.03035278,-0.05568092,-0.009693892,-0.022413436,-0.051433142,-0.03824721,0.009816469,-0.06463376,-0.033955004,-0.063239165,-0.017331826,-0.021941962,-0.008157755,0.012067782,0.048322,-0.031745665,-0.020488234,-0.032378923,0.0046315547,0.008738874,-0.04603948,-0.013029981,-0.022458863,-0.0021065641,-0.042129774,-0.03271888,-0.01042556,-0.018992227,0.010142944,-0.04119361,0.019860175,0.0068425997,0.001991003,-0.011072472,0.017705724,-0.02220233,-0.012202267,0.006335533,-0.013553662,0.0052732206,0.014763568,-0.059890483,0.01044501,-0.042300474,-0.0055969856,-0.025348237,-0.034314357,-0.011743953,-0.070501715,-0.012574815,-0.056987114,0.0064478302,0.011179666,0.021190675,-0.03956275,0.013750512,0.029732382,-0.0034461448,0.0081038745,-0.003594148,-0.04323732,-0.014471738,-0.06337101,-0.006552283,0.00639993,-0.01004048,-0.003592686,-0.05368943,0.0014844915,0.034490403,-0.0142871225,-0.0028148426,-0.029086547,-0.008483636,-0.0028321503,0.0032547826,-0.045057952,0.009518968,-0.0120410165,-0.06598762,-0.00031341292,-0.026400799,0.027492797,0.016054176,-0.034376208,-0.03134607,-0.0029921206,-0.049453467,-0.0027786605,-0.00055677217,0.008734668,0.025067208,-0.040932357,-0.013592066,-0.037834793,-0.03267761,0.014762618,-0.021377018,-0.00781742,0.02535788,-0.030580888,-0.05398608,0.00045391737,-0.028936895,-0.0489395,-0.05042598,-0.019065075,0.024846425,-0.0004526082,-0.05451761,-0.05997145,-0.029790018,0.018224364,-0.03711465,-0.04788379,0.0027656744,0.006638304,-0.029575411,-0.034296114,-0.00115836,-0.04937986,0.029537247,0.031004073,0.0067210593,0.001028206,-0.060164884,-0.03298338,-0.023684813,-0.0006143737,-0.029408244,-0.04489252,-0.018711759,-0.078805424,7.2034745e-05,0.0059252367,-0.029576413,-0.07169108,-0.019682428,-0.029163023,-0.01722943,0.0040982785,-0.022231443,-0.04217657,0.027251193,-0.022460194,0.001346642,-0.0049451455,0.032696754,-0.027712723,0.0005807859,-4.88741e-05,-0.009637684,0.0024153674,0.005488189,-0.00909981,0.011387796,-0.018270452,-0.014145368,-0.0839716,0.0072855097,-0.08371675,-0.0351246,-0.026775174,0.0031055075,-0.0010494412,-0.006944559,0.009102389,-0.026444586,-0.03633214,-0.03984283,-0.04479926,-0.022344342,-0.04995548,-0.024819843,-0.013096562,-0.0058277515,-0.008867749,-0.009626097,-0.008072548,-0.021562401,0.01232215,-0.051068567,-0.033790603,-0.028165424,-0.039326206,-0.027882552,0.005672399,-0.009845723,-0.0007553668,0.010514139,-0.010541,0.008774799,-0.12956965,-0.087959126,-0.006486783,0.04795813,-0.038594596,0.011162831,-0.005296201,-0.0069426335,-0.073876776,-0.035259187,-0.02402889,0.017112529,-0.048919983,-0.010540559,-0.06949854,-0.03862457,-0.06689658,-0.043373022,-0.09776895,0.0014597289,-0.01968701,-0.016065558,-0.02124596,-0.01341833,-0.02437512,-0.0044464134,-0.021203367,0.00816009,-0.0025350817,-0.031816285,-0.020630224,-0.050292067,-0.01736268,-0.009725623,-0.05015092,0.0016233185,0.0042583793,-0.013128357,-0.0087007275,0.008224146,-0.05121256,-0.018998023,0.018014524,-0.00096921256,0.016677655,-0.030615186,-0.008353463,0.017701145,0.008436602,-0.017885001,-0.031910535,-0.06292624,-0.021132898,-0.019340342,-0.004286666,0.001731054,-0.05640301,-0.044341877,-0.012346247,-0.04915931,-0.013431194,0.0051040375,-0.01943183,-0.021683887,0.014543795,-0.08207254,-0.045041077,-0.0024151404,-0.041334618,-0.031631075,-0.023910569,-0.056648307,-0.036612872,-0.005604392,-0.0077214525,-0.011673583,0.009936106,-0.013930566,0.012778513,5.374101e-05,-0.053909197,0.017169774,-0.046063464,-0.030570636,-0.07113452,-0.013748159,0.03430618,-0.003993366,0.0019264866,0.009887981,-0.08110822,-0.054291055,0.022448188,-0.014255211,-0.0023353023,0.0070512127,-0.011300742,-0.009652047,-0.06106967,0.014249618,-0.059243098,-0.019873014,-0.026079964,-0.0046887523,0.0075798444,0.0046654944,-0.005251188,0.044255216,0.013382286,-0.0068563535,-0.0016946944,-0.04594184,-0.020244766,-0.02017758,-0.024013367,0.0071889283,-0.027696373,0.042511523,0.0037167568,0.00548937,-0.043129925,-0.026419383,-0.027344642,-0.027931666,-0.009667842,-0.0003719974,-0.017444406,-0.013078496,0.044128094,-0.054938182,-0.07009703,-0.10501029,-0.018875742,-0.0034551085,-0.04840631,-0.059732728,0.011989556,-0.043342672,-0.05211623,0.017310748,-0.0046254178,-0.009108136,0.009556618,-0.008951344,-0.037710838,-0.030443273,-0.041704975,-0.023947163,-0.015715493,-0.02620776,-0.018807616,0.040321626,-0.012562174,-0.028478645,-0.07673164,-0.020240258,0.0034099673,0.00023679838,-0.004037977,-0.023411177,-0.05337213,0.015755912,0.015926084,-0.04563692,0.01521417,0.01113208,-0.040077467,0.00255617,-0.019518174,-0.043932136,-0.060773313,-0.029975181,-0.05349592,-0.017603729,-0.03555022,0.0011975594,-0.010389484,-0.016928514,-0.013678991,-0.014921616,-0.016001938,0.002797602,-0.0015436058,-0.042665686,-0.042067017,-0.030768255,-0.019774018,0.008413891,-0.002787105,-0.031599645,0.008659175,0.021690547,-0.02867871,-0.020200146,-0.0019662408,-0.06200371,-0.06656531,-0.0051158727,-0.06867426,-0.03936901,0.0005201132,-0.019701205,-0.012771397,0.015373825,-0.02196602,-0.033844132,0.0015617417,-0.059937052,-0.058721874,-0.009869024,-0.024628127,0.003890997,-0.000866487,-0.039608672,0.04771033,-0.02654598,-0.030228913,0.018041251,-0.009919055,-0.011802956,0.016790757,-0.016934106,-0.0060244664,-0.023978831,-0.066936694,-0.027666587,-0.045880754,0.0018664963,-0.016704949,-0.016715636,-0.013605818,0.009517319,-0.033594556,-0.02011511,-0.00089378393,-0.01688969,-0.009221826,-0.08032991,0.051361058,-0.0282118,-0.026860239,-0.07066313,-0.015776355,-0.013713426,-0.038960323,-0.0009995025,0.01692267,-0.0053020837,-0.014729489,-0.002808973,-0.0075617805,-0.018586664,-0.021615941,0.022426052,0.004808629,-0.010742359,0.012588812,-0.068604894,-0.0002292702,-0.029854193,-0.013876073,-0.036410436,-0.039201703,0.010570137,0.005448202,-0.026767531,-0.068164036,0.010327111,-0.016232818,-0.005539449,-0.048524357,-0.04634334,0.013943322,-0.01974478,-0.033679083,-0.021524332,-0.07151561,0.010639425,-0.018370036,-0.110757425,-0.018596616,-0.02334844,-0.006732781,-0.016380839,-0.008151388,-0.010117761,-0.04720685,-0.0031727834,-0.0236084,0.0012875805,-0.020957343,-0.0005534357,-0.018984217,-0.024191022,0.0039383345,-0.00859056,-0.024596369,-0.008048863,-0.048647933,-0.029169062,-0.01770468,0.00072136713,-0.029442204,-0.052393414,-0.048703328,0.0034725347,0.015627094,-0.022302052,-0.0051427283,-0.0002361039,0.010390907,-0.019347847,-0.008234114,-0.007200023,-0.019526657,-0.040067088,-0.0346948,-0.025533898,0.006748795,-0.011320939,0.006688318,-0.02108295,-0.03636632,-0.018335491,-0.025268478,-0.04435015,0.01274204,-0.00871589,-0.027295351,-0.02704437,-0.03646775,-0.05014875,-0.04565562,-0.030465696,-0.012315459,-0.0008849566,-0.022910628,0.05464418,-0.050362095,-0.011878342,-0.033000086,-0.008712734,0.0044664694,0.010463937,-0.021027401,-0.113772534,-0.031373583,0.008636404,-0.008146705,-0.00051640737,-0.026657952,-0.04005563,0.035816416,-0.0039531477,-0.042829394,-0.018083405,-0.025509022,0.00045258133,0.0047663064,-0.0050475835,-0.047003187,-0.026872154,-0.0140002,-0.05631114,-0.00017117454,-0.022288892,-0.003580301,0.002535492,-0.040063176,-0.029990084,0.005388235,-0.0109416265,-0.037522156,-0.013432937,-0.022204248,-0.03210056,0.030559734,-0.009098526,-0.047106422,-0.008127832,0.00071941264,-0.02444028,0.0023591113,-0.009726161,-0.02553552,0.028166002,0.001064967,-0.029778345,-0.05653888,-0.042872485,-0.049360797,0.004716889,-0.013128953,-0.03447055,0.009380172,-0.036357783,-0.04159548,-0.019919956,-0.042572964,-0.029042903,-0.036000352,-0.03137063,-0.011140013,-0.003302269,-0.054732054,-0.03162518,0.002972441,-0.00740344,-0.031887796,-0.032845847,-0.024532596,0.027283786,-0.021274645,-0.007108877,-0.03201491,-0.009709606,-0.006540504,-0.024611067,-0.04575585,-0.04106252,0.021101497,0.034550566,-0.0023305954,0.0066316403,-0.017001329,5.7149286e-05,0.0043779993,-0.012592762,0.015285204,0.012476262,-0.007997912,-0.0073959115,0.0027792603,-0.11610381,-0.022802254,-0.058584835,-0.06008398,-0.024657,0.016831525,-0.010781927,-0.0053666173,-0.021222502,-0.039418817,-0.026244322,-0.07231014,-0.034927625,0.008315448,-0.018862115,0.0009914536,0.0034353654,0.030282691,-0.015334454,-0.037551105,-0.074632615,0.002535708,-0.018020969,-0.07499362,-0.00030481382,-0.037728343,-0.011567492,-0.020560255,-0.024803309,-0.019729529,-0.028495958,-0.035794042,-0.0034804295,-0.046708662,0.01433642,9.288082e-05,-0.022157317,-0.009110061,-0.0543011,0.0001945001,-0.0010757513,-0.031524025,-0.07335176,-0.06235039,0.015884943,-0.018748887,-0.02868479,-0.038314942,-0.03836665,-0.041013718,-0.034773525,-0.052641727,-0.014918144,-0.016308,-0.017396998,-0.083056584,0.010572208,-0.049107965,-0.063617855,-0.024835967,0.04553068,-0.020429444,0.019834027,-0.016029954,-0.032204323,-0.014086554,-0.056874022,0.031393398,-0.04931702,-0.021758785,-0.011978906,-0.025438707,-0.018463673,-0.029665787,-0.018271752,0.028794093,0.013324487,-0.065794215,-0.021715825,0.011426767,-0.011713792,-0.029068828,-0.051053256,-0.046515368,0.011536182,-0.0072138608,-0.0060864077,-0.012482066,-0.02784761,0.03602568,-0.046081223,-0.057301383,-0.048550144,-0.01994165,-0.030318558,-0.074144825,0.007072613,0.029575499,-0.019552816,-0.025461601,-0.05660899,-0.010743695,0.018329563,-0.030573962,-0.022006778,0.026459584,-0.02263616,-0.00916225,-0.032351457,-0.049520645,-0.010454857,0.0082570575,-0.0029297185,-0.03821558,-0.016362889,-0.005942883,-0.01546045,-0.059406392,-0.06396127,-0.02205008,0.0048818598,-0.021663051,-0.017271522,-0.023777874,-0.052126482,-0.020404164,-0.01625251,0.013460323,-0.061310917,-0.0067662094,-0.063662976,-0.057305265,-0.0072388686,-0.011560716,0.013155245,-0.07717444,-0.03491418,-0.041010186,-0.05434189,-0.04113045,0.003895531,-0.0032790236,-0.014568079,-0.042886153,-4.5185232e-05,-0.012040046,-0.003866917,0.0074366597,0.02229432,-0.04598968,-0.07123573,-0.014522703,0.0048606843,-0.05144155,-0.041589648,-0.040335998,0.019713465,-0.011170553,-0.044029694,-0.004276933,-0.028381715,-0.025390113,0.001919653,0.0027667256,-0.007160459,-0.03321866,0.0039444095,0.008832881,-0.056760088,-0.034653265,-0.004924476,-0.04859481,-0.04552668,0.050155785,-0.013873206,-0.07260619,-0.028495843,-0.010348361,-0.005994253,0.01843133,-0.036215812,-0.045315836,-0.04817183,-0.049100198,-0.041468717,0.015731798,-0.027766533,-0.015667997,0.001713365,-0.0070624202,-0.05697909,-0.017658845,0.0016701915,-0.01565009,-0.013846245,-0.055332586,-0.02496283,0.029717373,-0.041514255,-0.032919034,0.009639399,0.009176748,0.0117600225,-0.07123537,0.011525833,-0.016809888,-0.020368798,-0.014603669,-0.017444428,0.0051963353,0.04283919,-0.08046119,-0.0014172789,0.05875908,-0.0903933,0.0064179893,-0.019875584,-0.02576827,-0.045780633,-0.068932146,-0.05315771,-0.024286158,-0.0003927353,0.0044462928,-0.013512526,-0.006854288,0.020429008,-0.028664276,-0.01617075,-0.019624814,-0.0029252346,-0.024730925,-0.023443367,-0.014879014,-0.049281407,-0.019728146,0.014133669,-0.021303281,-0.036043525,-0.018142793,-0.044432435,-0.030451925,-0.041994788,-0.011472767,-0.00029988855,-0.0061476016,-0.048922762,-0.03242024,-0.0051025767,-0.024291947,0.017546436,-0.026476592,-0.019986283,-0.006417074,0.049171075,-0.0073008956,-0.0072174137,-0.054532517,0.008740888,-0.032646105,-0.034375373,-0.03475711,-0.03488298,0.031378314,0.0062613813,-0.009812287,-0.028493278,-0.068015546,-0.0019171688,-0.018527789,-0.018972209,-0.04517856,-0.023928637,-0.0080807125,-0.031936407,-0.05145016,0.022720585,-0.029969055,-0.06365046,-0.00720356,-0.022577656,-0.030989466,-0.003811242,0.022453243,-0.01426714,-0.0419389,0.009745727,-0.008425846,-0.08993446,-0.043284122,-0.033166267,-0.016971987,0.006853528,0.040176712,0.0036211316,-0.05211148,-0.007486143,-0.0070439563,-0.0071390397,-0.036988135,-0.0023481345,0.012721391,-0.0225839,-0.03987507,-0.035715815,-0.014873258,-0.0008159613,-0.0032306886,0.0083568385,-0.007563583,-0.0018474223,-0.001564925,-0.010478318,-0.054244813,-0.0028074584,-0.018065967,-0.03301514,-0.0005299829,-0.021778924,-0.032139864,-0.024345782,-0.009679674,0.018180566,-0.022441834,-0.03283975,-0.028571174,-0.037793808,-0.023802511,-0.0044897706,-0.01277045,0.0075961635,-0.003775117,-0.01682151,-0.067109354,0.008884634,-0.016371222,-0.021050142,-0.03653943,-0.016673146,-0.05331264,-0.008672501,0.013175328,0.001769194,-0.015296459,-0.030934079,-0.01782128,-0.007652275,-0.03925362,-0.05539439,-0.025102695,-0.024735978,-0.026572017,-0.0031128342,-0.008608036,-0.050362207,-0.042713784,-0.048466697,-0.008689808,-0.012596354,0.013003063,0.017882617,-0.027420737,0.0046765297,-0.023700068,0.0012678475,0.0019435155,0.00543809,-0.026035167,0.019725574,-0.020737259,0.013174809,-0.08425731,-0.030443506,-0.025524355,0.00010523795,-0.04865745,-0.08349905,0.001990672,-0.040799066,-0.056764644,-0.0005756854,-0.037338857,-0.06490203,-0.03281646,-0.0054037464,-0.0105678635,-0.002678931,-0.010158569,-0.002497381,-0.006323397,-0.021760413,0.01003663,-0.0076927496,-0.037776574,-0.018332483,-0.012775442,0.013290077,-0.0029995565,-0.005177184,-0.002586878,-0.012667166,-0.03685235,-0.028312324,0.0038527066,0.032856587,0.018779665,-0.049906205,-0.014631579,-0.027706925,-0.029580738,0.026324516,0.022046134,0.0048203343,-0.04438339,-0.0003098782,-0.022315955,-0.040047236,-0.008071696,-0.025192644,0.011376108,0.00010447294,-0.035942312,-0.0038892718,0.0080356095,-0.00289856,-0.010705224,0.007966077,0.0084354,-0.009324064,-0.03218829,-0.044870786,-0.026615517,0.002201913,-0.019007768,0.008803159,-0.07672703,-0.03134593,-0.03605627,0.012181727,0.0035878806,-0.02877563,-0.0037248323,-0.029706527,-0.064173594,0.009906338,-0.020756144,-0.011658857,-0.017258799,-0.02111811,-0.009174806,-0.032389306,0.0015539522,-0.08808559,-0.055782594,-0.0033087211,-0.03160238,-0.0028549663,-0.020345826,-0.011222487,-0.024249313,-0.00079292856,-0.050530482,-0.0064960234,-0.0025587662,-0.0065957285,-0.008947578,-0.013570058,-0.008231622,-0.022942677,0.006998324,-0.011287195,0.040312618,-0.0003851984,-0.025618106,-0.009464259,-0.040893674,-0.025125923,0.013166123,-0.03252935,-0.020769121,0.004193329,-0.019533284,-0.0046220054,-0.017437765,-6.591541e-05,0.02442844,0.011481803,-0.030302517,-0.033053096,0.0036120063,-0.015279908,0.0061413916,0.0027307859,-0.06542156,-0.008761553,-0.026706422,-0.024598256,-0.058174334,-0.02525521,0.005492435,-0.028751904,-0.0069523663,0.0051021376,0.04908835,-0.013563161,-0.015156053,-0.022729956,-0.008144478,-0.0104175,-0.010472953,-0.026166866,-0.0371699,-0.040696956,-0.034937974
