4,1152,1,5,5,-0.025960237,-0.0633702,-0.032588318,-0.057874292,-0.037968457,0.022158679,-0.0011283811,-0.15020971,-0.0023089796,0.037457198,0.21386243,0.19808725,-0.2172415,0.1840394,0.20053396,-0.026877612,-0.026811242,-0.055710033,-0.03855349,-0.03323798,-0.04015874,-0.071466446,-0.10060288,-0.080652624,-0.055473298,0.04695615,0.018115478,-0.041114256,-0.028511316,-0.056425452,0.030346029,0.07609218,-0.008708149,-0.05687298,-0.04180011,0.09096426,0.19024467,-0.120824665,-0.14987803,-0.09496574,0.004322633,0.059925795,-0.008086354,-0.0845641,-0.035851464,0.040961742,0.03545621,0.0052730553,-0.05428785,-0.026029289,-0.02671849,-0.044172257,-0.06408529,-0.031148005,-0.03538233,-0.05829622,-0.02290156,-0.03568825,-0.042389333,-0.025876045,-0.08728601,-0.03570864,-0.020531215,-0.03565602,-0.0979653,-0.055208944,-0.027547434,-0.03601387,-0.017536763,-0.059758678,-0.06028557,-0.045717686,-0.07954475,-0.043221593,-0.04908632,0.018446095,0.0076189637,0.08427306,0.006653607,0.03570437,0.03420669,0.09134486,0.091056764,0.09739047,0.018425673,0.06293075,0.06557256,-0.4919505,0.079320654,0.065697044,0.027865998,0.07072657,0.046224803,0.073595196,0.01977506,0.0038037747,0.022285294,0.05343786,0.015764773,0.0043821335,-0.024222458,0.029124543,0.13175626,0.032081544,-0.008833468,-0.0059799105,0.023755375,0.1202921,0.023030177,-0.0053243637,0.066639215,0.061742343,0.20463674,0.047825597,0.06761166,-0.0052587762,-0.0039037913,0.05037447,0.007622227,-0.001948256,0.029012382,0.009599149,0.03781486,-0.015187144,0.02849418,-0.058576405,-0.07041988,-0.092199124,-0.057767272,-0.04988748,-0.031734303,-0.03674066,-0.06068717,-0.053406954,-0.022864401,0.18435742,0.12506431,0.1311379,0.099810876,0.17700253,-0.082799256,-0.0541538,-0.097220466,-0.065561086,-0.043265194,-0.027101904,-0.02467677,-0.10209842,-0.033919573,-0.023000807,0.019053757,0.055411063,0.11578575,0.048484728,0.036367238,0.04718405,0.06666118,0.25376952,0.06301361,0.04787132,0.01673901,-0.07409522,-0.013538924,-0.06211347,0.01491487,-0.04000792,-0.04448983,-0.06566225,-0.040761493,-0.039244026,-0.033887893,-0.042616043,-0.03383948,-0.025848433,-0.061806202,-0.025536463,-0.022396892,-0.030818086,-0.01585485,-0.030774875,-0.011963643,-0.021807998,0.032081693,-0.016507365,-0.01571709,0.020811439,0.037532866,0.44118732,0.03324322,0.023504838,-0.00426051,-0.029536366,0.0036296546,-0.034121424,-0.007460475,0.0070250295,-0.014373355,-0.004362762,-0.009323448,0.012706295,-0.008408356,-0.0023486018,-0.0017991383,0.014526695,-0.011591952,-0.045905754,-0.017711073,-0.10011215,-0.012144988,-0.051484093,-0.0154314935,-0.07806407,-0.30792072,-0.06614411,-0.018026177,0.0096739605,0.050991893,0.2315849,0.06647495,0.0035971086,0.04323873,0.05369766,0.1707522,0.027200282,0.05394894,-0.053367212,-0.031172037,-0.058487654,-0.026044875,-0.046522677,-0.035919026,-0.018126309,-0.034471177,-0.016916372,-0.03496039,-0.07078396,-0.044205934,-0.06602073,-0.0430301,-0.05978024,-0.0491966,-0.02727069,-0.04563628,-0.028509706,-0.044747025,-0.052907586,-0.027549323,-0.038032427,-0.02441296,-0.045522086,-0.0014490187,0.00029850006,-0.007921264,0.011792183,-0.004686311,-0.020596778,0.015781462,-0.068288475,0.009064168,-0.015120268,0.15892148,0.07812813,-0.38880736,0.07648361,0.13396978,0.07226646,0.050670862,-0.09710754,0.05281791,0.10312109,0.06879556,0.059958786,0.049540758,0.03709372,0.05969864,-0.075563975,-0.046045423,0.008927636,0.047617517,0.051832438,-0.068529,-0.07028081,-0.02059725,0.08294958,0.037107468,-0.12945957,-0.10299197,0.013634086,0.11069851,0.0931589,-0.07951541,-0.08600136,0.009249248,0.067393735,0.05415927,-0.07672161,-0.06077856,0.056646824,0.06982973,0.088503,-0.014171511,0.0015331209,-0.03151165,0.008347675,0.009497017,-0.053933106,-0.09013951,-0.006388366,0.08348551,0.032187015,-0.16686669,-0.15353668,-0.089200296,0.18464263,0.10908073,-0.068069026,-0.044104457,-0.038265288,0.042862564,0.050350428,-0.041187197,-0.002896309,0.0070877373,-0.0025540255,0.026393116,0.04090655,0.005092472,0.04283519,-0.0019999845,0.03567615,0.03571286,0.020338535,0.0855899,0.025999445,0.042201854,0.05697544,0.077670455,0.32667905,0.074182466,0.04932362,0.015106857,-0.010857157,0.06018614,-0.0058871955,0.010251695,-0.0072763264,-0.010140572,0.008621827,-0.015765741,0.0041080117,-0.061991528,-0.014459461,-0.049532056,-0.0217558,-0.06065692,-0.020258546,-0.05402657,0.0065360367,-0.06405155,-0.018393438,-0.052317888,0.06298888,0.35171187,0.08067645,-0.038536765,-0.021875605,0.072286665,0.18687406,0.06969297,-0.031172216,0.0060183518,0.011247277,0.04475348,0.03565193,6.41644e-05,0.025202164,0.054227084,0.19688144,0.044529736,0.038889065,0.026057936,0.015887186,0.29059303,0.030037388,0.007402912,-0.01903671,-0.09233497,-0.3171571,-0.101641655,-0.0060151666,-0.03379461,0.025664777,-0.032748718,0.01636716,-0.0382286,0.019944549,0.010961292,0.011253417,0.014472112,0.012924822,0.057500586,0.013753355,0.11056076,0.021741778,0.04196146,0.03542371,-0.0022090673,0.060257334,0.0052161724,0.03364417,0.07035676,0.0768014,0.21780066,0.06561671,0.069138795,0.014079541,0.014417775,0.054504693,0.0072092935,0.009838328,0.046888933,0.024474025,0.076005496,0.021621943,0.04279396,0.027645633,0.017971724,0.034150228,0.014985502,0.019337215,-0.029429272,-0.041668653,0.15355271,-0.024868429,-0.04166045,-0.007183373,0.12687047,0.19035532,0.12895532,-0.006859325,-0.011832684,0.019400049,0.08094118,0.035968162,-0.0068166554,0.00089374185,0.0058956053,0.04138045,0.0090487,-0.009765804,-0.049146786,-0.028996058,-0.016462967,-0.041397057,-0.042962074,0.0034279376,-0.061816335,-0.0812759,-0.052084684,-0.006793827,0.016912863,0.06722918,0.14021352,0.040167794,0.032847524,-0.06819174,0.03319052,0.23218474,0.042669296,-0.079831444,-0.032298684,0.01038681,0.065396085,0.024092019,-0.042129565,-0.031362176,0.06466681,0.06722197,0.05671034,-0.01062645,-0.03167629,0.010446684,0.085317634,-0.0033577047,-0.028647542,-0.04730299,-0.045720033,0.26682684,-0.016827784,-0.054748952,-0.008227885,0.012978267,0.11419942,0.0022930056,-0.026989251,-0.012673259,0.06979254,0.07486555,0.05567172,0.015663102,-0.082411885,-0.03980741,-0.065558076,-0.03919036,-0.06287944,-0.020128652,-0.010065302,-0.031497315,-0.008503314,-0.027881503,-0.07542759,-0.044558346,-0.057498246,-0.03275472,-0.090262525,-0.023086995,-0.012317926,-0.04014244,-0.008861363,-0.01577264,-0.043041788,-0.033560455,-0.068645515,-0.04579051,-0.0310684,0.029441565,-0.05124326,-0.028564185,-0.049625367,-0.0066885054,-0.024716139,0.030295044,0.07161177,0.020806462,-0.027919259,-0.057638586,0.066734016,0.28548265,0.071618035,-0.06442642,0.038935855,0.028126895,0.111563675,0.03615239,0.018840656,0.015436709,-0.031791866,0.0014854968,-0.043228686,0.05288391,-0.05616699,-0.02394902,-0.080783874,-0.025193006,-0.04043983,-0.024074793,-0.027279913,-0.057220094,-0.006364912,-0.019176304,-0.062470496,-0.06265342,-0.14927557,-0.08319335,-0.058860242,-0.03678137,-0.028523952,-0.09718722,-0.03845468,-0.03209125,-0.046975017,-0.016634554,-0.06985545,-0.027155004,-0.04450171,0.004587576,0.017191052,0.036123753,0.025689553,0.024520576,0.0294974,0.0086568,0.060790017,0.0043620765,0.04072207,0.044599712,0.07081756,0.27443212,0.07162346,0.03997925,0.0027030408,-0.0083343685,0.06976792,-0.008320004,0.012770571,0.020852238,0.036806643,0.047985807,0.023813859,0.030242592,0.02782777,0.057211846,0.039654195,-0.05087191,-0.017386824,0.0256138,0.12075642,0.084586926,-0.08150235,-0.03768593,0.078470066,0.15825108,0.068612576,-0.1530627,-0.05151464,-0.058867946,-0.09879994,-0.12789306,0.10021194,0.076440066,-0.017108127,-0.03399044,-0.027284956,0.051221356,-0.012807757,-0.005404085,0.006709188,0.005682051,-0.011336654,0.012010872,0.0022125542,0.018337786,0.08865318,0.028799713,-0.0069640577,-0.0015184432,0.016178742,0.3707081,0.031845383,0.006241277,0.0135733485,0.008020829,0.01676704,0.0056521446,0.0128646195,0.024172306,-0.005471945,0.0049595293,-0.0029239655,0.023675114,0.08314955,0.053598702,0.13252136,0.05306101,0.085389614,0.011496927,0.04840004,0.13351199,0.03401821,0.03590908,0.07822244,0.07312891,-0.061710827,0.06520253,0.07172914,0.011978775,-0.03343852,-0.014879614,-0.030596368,-0.0120802075,0.0020652413,0.02725172,0.10481402,0.03944935,0.005545616,0.040449172,0.08496377,0.16407245,0.071621105,0.0532915,0.00823683,0.049615473,0.20745684,0.0608204,0.010309763,0.028949007,-0.055230677,-0.32927442,-0.059019685,0.019815154,-0.031627916,-0.04032883,-0.067661844,-0.026961055,-0.028978586,-0.0012610741,0.0024655163,-0.020423472,-0.0027767718,-0.012091306,0.03454552,0.038793094,0.074659884,0.028376337,0.026972264,0.065543786,0.0642623,0.013075814,0.06272814,0.06363245,0.110086076,0.043042988,-0.0988327,0.053478703,0.100678705,0.058331102,0.06507616,0.025292248,0.057905048,0.05613967,0.056008592,0.04176651,0.102563396,0.055021062,0.059014976,0.005750954,0.01923725,-0.036872476,0.040740877,-0.0003274195,0.0051630884,-0.016542178,-0.112511255,-0.028038725,-0.01045236,-0.00093999505,-0.008436739,0.04687333,-0.0016948581,0.008992672,0.006339669,0.090724535,0.19816142,0.073516995,-0.02016082,-0.0050279945,0.034495905,0.18155676,0.02939348,0.033940703,0.0109478235,0.0300771,0.03756401,0.025136173,0.022430599,0.031024337,0.057089724,0.07805331,0.050551116,0.03148011,0.06725302,0.049367215,0.19170314,0.041487783,0.06403304,0.030980036,0.013934165,0.09888506,0.022230312,0.02442041,-0.004986942,0.0031845272,0.021509938,0.015016347,0.0074255466,-0.022065222,-0.0055714548,-0.016678527,0.0010864511,-0.017236486,0.004192695,0.020788342,0.07496159,0.03267045,-0.010320067,0.0071656704,0.05475384,0.27937806,0.05925235,-0.0067976713,-0.007430874,0.010414466,0.10064009,0.014055647,0.007883638,-0.012135893,0.013915099,0.031230755,0.008079853,-0.019220501,-0.069423944,0.0050410926,0.21889025,-0.0014381409,-0.058461905,-0.0396035,0.0030272007,0.08146536,-0.01791562,-0.01610376,-0.021540552,0.038782798,0.071593136,0.023470312,0.0048714876,-0.040127695,0.005100809,0.06871545,0.009465814,-0.05525729,-0.06551537,-0.0152053535,0.25330347,-0.008348167,-0.06914602,0.09926167,-0.030828595,0.13971353,-0.0071324557,0.08733137,0.070017844,0.0626346,0.07952502,0.04121044,0.078977294,0.06506199,0.041939605,0.11372405,0.041173406,0.06073735,-0.004591932,0.008977942,0.0014086664,0.025740474,0.026571795,0.005384147,0.009695679,0.018213123,-0.011218548,-0.013564602,0.04970463,0.017296672,0.03734386,0.02091828,0.03841099,0.041122437,-0.0003232956,0.05078119,0.021201096,0.022205995,0.052901357,0.070100784,0.24170092,0.06927867,0.06493159,0.049047783,0.037722975,0.057686865,0.017261803,0.038718194,0.027869686,0.03462059,0.04714611,0.031257115,0.035086483,0.04303725,0.047630012,0.062301934,0.041445304,0.055318806,-0.011925966,-0.011905856,0.01726532,-0.029771283,-0.008277744,0.11566597,0.054677352,0.18087889,0.05477512,0.111357,0.0411933,0.042458266,0.1280927,0.041762352,0.04582928,0.062123954,0.041039973,0.13632649,0.021630287,0.0619694,0.024132252,0.014865398,0.042896204,0.023957372,0.019980408,0.029497296,-0.0076016188,0.05739489,-0.00288181,0.019242644,0.043886587,0.03866201,0.23549503,0.034211814,0.046950936,0.03699416,-0.00652086,0.058715284,0.012222257,0.024120038,0.020889848,0.010801762,0.043564424,0.029934153,0.011200517,0.02714783,0.024367705,-0.016015127,-0.05354116,-0.034905016,0.046029,0.07685001,-0.025066571,-0.09471059,-0.059791192,0.10724211,0.1597391,-0.057710588,-0.14978684,-0.12662928,0.036354035,0.070622206,-0.034804173,-0.09984267,-0.05325434,0.04882157,0.016654126,-0.0071853697,-0.05311203,-0.06200567,-0.013896957,0.06106399,0.08851564,0.0577178,-0.035741627,0.0058125556,0.0609483,0.040141493,0.057466358,0.0011035949,0.06162995,0.054513454,0.2617412,0.046775505,0.04803376,-0.030313909,0.012489647,0.059712082,0.035727255,-0.022653129,-0.028526083,0.016611993,0.025476903,0.008384228,-0.037322167,0.009038225,0.00756523,-0.0070147663,-0.0053818524,-0.043473437,0.02862215,0.06298639,0.0035212636,-0.058006465,-0.061538737,0.14477274,0.16415676,-0.10764974,-0.15474567,-0.17416811,0.031789005,0.099693626,-0.0037495494,-0.09070885,-0.10888373,0.008817777,0.011149108,-0.021320552,-0.047382325,-0.028753087,0.010165244,0.015770823,0.054766715,0.032666676,0.00027659535,-0.01608362,0.01990953,0.07366228,0.027619705,-0.018431753,0.065154545,0.06425962,0.28462678,0.07971993,0.046767794,0.006768588,0.0033026636,0.0681215,-0.01342538,0.023137033,0.0064760298,0.018987179,0.0700982,0.013083376,0.0012866259,0.019150078,0.031082235,0.02619797,0.019152224,0.020082466,0.014443681,-0.0045729987,0.008712037,-0.013175607,0.012844838,0.020569578,0.03813666,0.32088423,0.04304695,0.014631212,0.00023853779,0.0068483353,0.051992074,0.0048149824,0.0054253004,-0.011019349,-0.0047744513,-0.006157983,0.0033486895,0.00048483163,0.028919116,0.027006894,0.07826584,0.032838926,0.022809207,-0.0075101107,0.013617218,0.17066815,0.014689513,-0.014122564,0.024700485,0.09740427,0.25670856,0.092605114,0.032514706,-0.009976506,0.0039791316,0.07351121,0.003457576,-0.0039323717,-0.018582553,-0.0052952543,0.04444888,-0.01887802,-0.02865751,-0.020539984,-0.0014394075,-0.02139619,-0.006721254,-0.009109043,-0.007262811,-0.020365514,-0.029541492,-0.011720025,-0.011700779,-0.018484063,-0.009691834,0.46316552,-0.0086042285,-0.0092531,-0.014093597,-0.024234869,-0.020497903,-0.019487273,-0.02050256,0.01257737,0.0126455985,-0.019091636,0.0040863752,-0.0014988184,0.042192817,0.0013302974,0.042482316,-0.005596921,0.042368174,0.010972321,-0.025340028,0.08178848,-0.0017681271,0.011101186,0.023669317,0.05780221,0.26856503,0.050564438,0.018853754,-0.0074515864,0.024479374,0.068855405,0.022243753,-0.009657204,0.03288716,0.0059874654,-0.00044722948,0.0034247935,0.031142175,0.03797269,0.02914542,-0.0130042825,-0.035351485,-0.031562194,0.009093173,0.040817693,-0.029048868,-0.035858113,-0.028050046,0.09417096,0.22070977,-0.065168604,-0.13549334,-0.1343986,0.031750057,0.05518587,-0.02972558,-0.07006279,-0.06835786,0.049390584,0.045793444,-0.007911563,-0.029154897,-0.054523826,0.008228719,-0.0066212043,-0.033821747,0.006942276,0.0008057654,0.028301299,0.03680697,-0.19588393,0.027439803,0.02834344,0.15707812,0.1667836,-0.37058052,0.1250324,0.17533398,0.0027405778,0.005520582,-0.10890579,0.005101353,0.009021699,0.03128889,-0.034781888,-0.04988824,-0.034631383,0.028518677,0.056613714,0.018238716,0.023384273,0.023048624,0.042684615,0.038630188,-0.0017546415,0.07379506,0.0057248473,0.027143858,0.050674736,0.08327699,0.2923237,0.076871306,0.050834365,0.035164684,0.01827392,0.058099933,0.01818341,0.03375624,0.058116317,0.025143296,0.042925358,0.045050442,0.05136113,0.010794401,0.006168872,-0.008604109,-0.009601116,-0.013942838,0.007978901,0.07630643,-0.05252061,-0.04749804,-0.046498314,0.11796647,0.18045864,-0.18266761,-0.13679299,-0.15523177,0.01064086,0.057821155,-0.0014421344,-0.08092752,-0.06282115,0.05172521,0.012708455,0.012178004,-0.03556688,-0.034516335,0.03254971,0.055510327,0.38477424,0.038071603,0.049776256,0.025220156,-0.014676839,0.030649543,-0.00547155,0.006126508,-0.024740547,-0.09981334,-0.29215232,-0.08278072,-0.013327748,0.023056567,-0.00026153773,0.021707416,-0.015156895,0.015177041,0.015334142,-0.056192234,0.010283589,-0.035197824,0.026850007,0.0018949881,-0.01384148,-0.06791045,-0.016268082,0.012298599,-0.039043352,-0.045672797,0.041686088,-0.034635365,-0.051283836,-0.053456575,0.022410236,0.37356153,0.019645914,-0.063875206,-0.053349167,-0.020897457,0.018268168,-0.015510317,-0.0485911,-0.0026750548,-0.014987715,-0.064914554,-0.016407743,0.00727167,0.025787652,0.026720032,0.041676596,0.03182601,0.01756641,0.021477252,0.019786842,0.024804458,0.027059868,0.018550575,0.045767143,0.01908812,0.24311368,0.030517774,0.04943137,0.012738943,0.026939034,0.050227404,0.029267758,0.0153147355,0.015417438,0.0022150576,0.0016498566,0.0077011622,-0.0069550863,0.025786102,0.029914334,0.05747971,0.04064644,0.035251074,0.036304906,0.032113187,0.008487932,0.03657931,0.03889022,0.039556235,0.034958422,0.371413,0.047418296,0.023872226,0.0019802004,0.006900519,0.06891793,0.020284355,-0.0137679055,0.013265371,-0.003168404,-0.0076045915,-0.016233131,0.022122025,0.05902195,0.022186965,0.110825926,0.043360084,0.0621538,0.02853188,0.106780626,0.16846648,0.09105185,0.016422987,0.09331715,0.058119733,-0.13720538,0.056298245,0.09994304,-0.029553995,-0.07643859,-0.07377964,-0.07632843,-0.040708117,0.016503155,-0.0037196167,-0.024936207,-0.019660056,0.008069277,0.008379415,0.001494363,0.008633539,-0.005846508,-0.0062205493,-0.003729023,-0.0060267,-0.02904778,-0.0059515387,-0.00793051,0.0009965152,0.02038166,0.38343695,0.031870335,0.0063601136,0.0041034743,-0.0047894716,0.061321065,-0.0036885887,-0.00094472617,0.009007921,-0.031854272,-0.013057031,-0.017854184,-0.014893663,0.0064063407,0.0112473415,0.1209681,-0.0016130209,0.01181319,0.05065357,0.14783129,0.091064066,0.13947815,0.050489366,0.11681135,-0.024277747,-0.221011,-0.048315182,0.124013394,-0.024319172,-0.06807075,0.06002579,-0.07186031,-0.011995822,-0.02398014,0.013902128,-0.0002542138,-0.0014238358,-0.030566908,0.027877763,0.039436087,0.026134491,0.016825527,0.045101836,0.0019411147,0.0016763955,0.06869549,0.025976434,0.011086732,0.004328117,0.092328,0.3228358,0.079603255,-0.019734874,0.0032068044,0.018672734,0.071384296,0.03897655,0.006507228,0.042697042,0.023396403,0.023457617,0.037965804,0.041938245,0.0044282377,0.0014306903,-0.012021586,0.0012294091,0.012129039,0.018519491,0.02603966,0.032046974,0.006062329,0.026965886,-0.033654027,0.09422273,0.34183168,0.080227114,-0.0046025813,0.028589815,-0.0013892949,0.051181413,0.011305574,0.0074755065,-0.012354389,0.009596884,-0.021705806,-0.0015378594,0.004844308,-0.014957458,-0.012641251,-0.05233828,-0.014584435,-0.034916624,-0.010796465,-0.01392138,0.024074107,-0.024289418,-0.004099996,-0.10852576,0.028243855,0.3976404,0.025362432,-0.09907611,-0.06292019,-0.044146836,0.07142657,-0.042034894,-0.07629493,-0.009442002,-0.037792306,-0.07776305,-0.033452336,-0.01261346,0.014935017,0.035245433,0.108693,0.012448441,0.025822975,0.029961929,0.011248529,0.07887721,0.019311026,0.023109078,0.019706666,0.07724329,0.21746981,0.066971794,0.01773623,0.006851703,0.031809673,0.10018911,0.020930633,0.026299939,0.040388882,0.0013529062,0.0053846836,-0.00412485,0.027937174,0.0030515045,0.037972927,0.050121307,0.035584204,0.025905974,-0.019167677,-0.019079253,0.02243054,-0.002451837,-0.026027903,0.0050138086,-0.10519682,-0.32936963,-0.12599385,0.017356753,0.015986077,0.02285868,0.2522739,0.046714693,-0.0010460168,0.063866146,0.022952497,0.16225687,0.015308499,0.06341472,-0.008649116,-0.039114,-0.050836485,-0.030377664,-0.009892806,0.036120653,-0.012278926,0.019353181,-0.019208878,0.03526941,0.030585038,0.048642173,0.3447847,0.046860754,0.029774081,0.0018329918,-0.007633114,0.0050970167,0.0035850704,0.013453484,0.010831352,-0.04321918,-0.08019444,-0.04797882,0.0025646985,0.040832065,0.028842084,0.122101694,0.04127106,0.012302056,-0.02660203,0.047903866,0.16546726,0.042817503,-0.0011511445,0.075309545,0.00306952,0.1797609,0.01280424,0.05926186,0.005899838,-0.038417734,-0.07694888,-0.029800236,0.010643899,0.008143574,0.008702248,0.0327031,0.005757004,0.014312565,0.015712962,0.009249538,0.12285265,0.023560852,0.020008966,0.012941912,0.047775984,0.2593321,0.04345067,0.03159964,0.043228548,0.046303913,-0.13558619,0.034888946,0.024228767,-0.0062331855,-0.019785646,-0.069588035,-0.008627027,-0.010205403,0.0063772947,-0.005360365,-0.03561689,-0.011268616,0.0134791285,0.0005123913,-0.018824682,-0.0027276874,-0.02573973,0.020275861,0.016135424,0.03283728,0.16275337,0.037835985,-0.007055849,0.046507776,0.06758267,0.20609602,0.06632665,0.05160883,0.018928505,-0.054258898,-0.013430625,-0.04377728,0.0021286905,-0.005654484,-0.022940218,-0.055740718,-0.013701953,0.012410708,0.014219064,-0.0017937124,0.04169121,0.013084067,0.038385153,0.023790084,0.022491373,0.113603726,0.0035862215,0.022541806,0.05358535,0.0988558,0.27462873,0.08979909,0.03571558,0.018749267,0.008211553,0.059415422,0.020703286,0.03751427,0.041792598,0.018880874,0.08580876,0.0094996095,0.027135834,-0.028255865,-0.020795532,0.05748017,-0.021467395,-0.0052449703,-0.006700635,-0.025850996,0.061201274,-0.013015151,-0.011774905,0.0231013,0.06700513,0.34549427,0.06640297,0.0054339767,0.01731193,0.005450487,0.055801943,0.0240504,0.00801757,-0.008376613,-0.029824913,0.040584974,0.008147173,-0.0126416385,0.009328738,-0.034075834,0.06605771,-0.023076927,-0.0021741986,-0.009835839,0.07829398,0.31953102,0.07535402,-0.0074986704,0.027753174,0.06479946,-0.004640192,0.059075385,0.040423274,0.022419944,-0.0017096698,0.019350097,-0.0030733943,0.021639593,0.038989723,0.006867677,0.06449443,0.010990158,0.024959266,0.009718895,-0.030037344,-0.015053302,-0.016168743,0.006919384,0.008817613,-0.011064902,-0.007877372,-0.0060406923,-0.0030417237,-0.014503598,-0.030285627,0.456613,-0.03747773,-0.00063060224,0.033465967,-0.036130965,-0.036728606,-0.016067656,0.0046560764,-0.015341587,0.0041938424,-0.019132897,-0.00042368378,0.0059993938,-0.051122546,-0.047915757,-0.0958018,-0.046888832,-0.024485357,-0.0040269755,-0.039787352,-0.15487811,-0.041353703,-0.013125986,-0.012861133,-0.035850078,-0.1635352,-0.0026941597,-0.017458051,-0.04526633,0.0507437,0.24463868,0.02232784,-0.042111043,0.03349793,0.05691336,0.21502143,0.05326718,0.038752317,-0.027399689,-0.012314916,-0.10531698,-0.03935776,-7.069111e-05,-0.039239332,-0.07225579,-0.1530488,-0.047891647,-0.051083207,0.08142275,-0.037226975,-0.09751758,-0.030897945,0.07294281,0.05293277,0.03883643,0.22035313,0.04038408,0.04621607,0.053876627,0.03656873,0.1543026,0.045878336,0.053596154,-0.020002604,-0.0051481426,-0.08631635,-0.0053538084,-0.0070787966,-0.017853856,-0.027254313,-0.06700216,-0.033979014,-0.02944927,-0.06672975,-0.08680688,-0.11058164,-0.08094848,-0.07756415,-0.01830028,-0.050754026,-0.05806291,-0.0637575,-0.015140921,-0.03825715,-0.016703159,-0.08493501,-0.022001699,-0.03176573,-0.034913898,-0.008925319,-0.07221501,-0.021258235,-0.030901164,-0.037594646,-0.018035382,-0.062341362,-0.0357873,-0.029412717,-0.08076677,-0.06454085,-0.13727711,-0.0636729,-0.07932894,-0.010302067,-0.004315391,-0.06511831,-0.010702208,-0.031883806,-0.054150045,-0.01888968,-0.070475996,-0.017993957,-0.04441841,0.049615413,0.028141141,0.073990345,0.028796285,0.054429695,0.03464465,0.004400328,0.069886744,-0.013567507,0.063978225,0.028576123,0.062747784,0.1908952,0.05786945,0.0368542,0.029912889,0.009885937,0.09181239,0.009040594,0.016319513,0.068718895,0.04533577,0.065530434,0.043150127,0.068321586,0.03038019,-0.02471891,-0.009729862,4.118681e-05,-0.049022637,0.022632785,0.0123083,0.03107789,-0.054440573,-0.06805575,0.13118087,0.2098908,-0.08338222,-0.18657325,-0.23911953,0.017779209,0.02573657,0.0062117577,-0.034583278,-0.034697518,0.0043175146,-0.033218674,-0.009437434,0.014342107,-0.012126058,0.05246962,-0.07190871,-0.09216952,-0.08282628,0.0613864,0.10373981,-0.027030185,-0.27678627,-0.0029430632,0.09773746,0.04933411,0.21944353,-0.2130827,0.2122663,0.04479316,-0.04461807,0.011876345,0.013615094,0.010014787,-0.06469801,-0.022639662,-0.035946757,-0.07100505,-0.03401696,-0.014772177,0.056671217,0.013386607,0.15112953,0.016648471,0.05491876,0.018756837,0.07615023,0.2072027,0.08434957,0.0039137714,-0.03379421,-0.012954116,-0.1006583,-0.022732139,-0.029315077,-0.030165762,-0.09584963,-0.20774168,-0.10239804,-0.025981784,-0.03208545,-0.05373834,-0.15913627,-0.050637767,-0.02579993,-0.016144976,0.0075882077,0.022758484,0.012800097,-0.013290331,0.0017346181,0.0031214803,0.04701753,0.012482196,-0.015817702,-0.027478717,0.0006686449,0.27018467,0.008661747,-0.032092348,-0.03389901,0.009068541,0.10448483,0.012834966,-0.04438907,-0.024387985,0.069833755,0.051814646,0.05655317,-0.019452825,0.016820624,0.02086851,0.09545326,0.0073871613,0.036109567,0.0060013384,-0.0070102215,0.06413239,0.0074125454,-0.01883848,0.024932444,0.07250426,0.22735275,0.0660477,0.043529022,0.047347635,0.006219983,0.0709158,-0.004361853,0.035066843,0.02715516,0.024690734,0.08193626,0.028488249,0.038444668,0.0072339065,-0.009836793,-0.030179411,-0.01857081,0.006187465,-0.017548174,-0.044748068,-0.025619864,-0.044923723,-0.015568036,0.05245924,-0.004729569,-0.20681995,0.007922523,0.062122643,0.03778407,0.040122896,0.21236551,0.04567134,0.019206047,0.024542056,0.036338866,0.19408649,0.03524062,0.025167957,-0.010360472,0.042424623,-0.13314801,0.022311721,-0.007391244,0.036681414,0.0024647266,-0.26369524,0.012470186,0.025673158,-0.13858902,-0.15956101,0.08544767,-0.16748953,-0.1244511,-0.028894588,-0.035345018,-0.10139629,-0.028045863,-0.031128127,0.0105231255,-0.010676596,-0.08661318,-0.018212445,-0.0056445003,-0.04086882,-0.053512275,0.037169114,-0.0534487,-0.043215573,-0.016997512,0.02675882,0.08451891,0.029843543,-0.023343008,0.03510632,0.085260294,0.30043903,0.08832065,0.052079022,-0.017308451,0.010488138,0.053084552,0.0008663982,-0.033541,0.011241376,-0.017920554,0.049532175,-0.011521317,0.024773188,0.036175728,-0.0022582356,0.022041395,0.004255712,0.03263472,0.067092165,0.021499813,0.044627443,0.026671425,0.05349785,0.07752237,0.07927934,0.33170605,0.07791119,0.08112061,0.015976436,-0.028578907,0.12369239,-0.030391054,0.011533707,0.017293166,-0.016317783,-0.02115035,0.0108675435,0.0036655068,-0.02429396,-0.018790662,-0.08659193,0.035259664,0.016139388,-0.090039596,-0.06028545,-0.05239875,0.05972001,0.03805534,-0.1770521,-0.12577024,-0.06885524,0.1474635,0.14642632,-0.10307123,-0.07627305,-0.036960155,0.05962333,0.077727854,-0.051150154,-0.016916528,-0.07910074,0.054262504,0.017494291,0.016168948,0.0012600869,0.010666698,-0.0042919517,0.026587576,0.020778596,0.021989904,0.059712958,0.022004098,0.018770337,0.03464237,0.07272568,0.32504594,0.08153401,0.051859938,0.00055823475,0.014455155,0.098376736,0.0119642615,-0.015239134,0.066277355,-0.004845582,0.049422815,-0.03623177,0.070475474,0.07251697,0.061617374,0.12930122,0.05686669,0.07146603,0.034976944,0.027440429,0.13918245,0.017167062,0.02831459,0.07210827,0.059526622,0.19566742,0.036472976,0.079589605,-0.012436688,-0.06270769,-0.02358872,-0.06949041,-0.00020769238,-0.02212827,-0.031638876,-0.05161938,-0.027735293,-0.028607566,0.004995335,0.0120328665,-0.18980502,0.00976941,0.02064693,-0.022010908,-0.023965135,-0.06883484,-0.019996941,-0.037845768,-0.14726448,-0.09225308,0.0021622777,-0.09338474,-0.14304626,0.015131533,-0.028930128,-0.12894824,-0.045716546,0.0070465207,0.0008626878,0.010314956,-0.18800844,-0.008763066,0.020790815,0.021917176,0.06457675,0.07885182,0.07135835,0.00025108457,-0.030346677,0.035702035,0.079557955,0.020708166,-0.0107749775,0.012487471,0.069877625,0.23643053,0.04829526,0.016425095,0.02875331,0.012582928,0.08413051,0.0231229,0.030598164,0.035120785,0.08479628,0.07950104,0.05595064,0.031994343,0.014995098,-0.017328858,-0.0074653924,-0.010327575,0.009233855,-0.115136445,0.09774226,-0.10003039,0.10736922,-0.13488477,0.18187256,0.11721259,-0.22549152,0.13402075,0.16800345,0.10417268,-0.15054533,-0.1260133,-0.12745817,0.09946397,0.011933446,-0.07407285,0.011946142,-0.06272704,0.02757074,0.0480933,-0.019629277,0.024286672,-0.031402245,0.033893645,0.03681603,-0.033352584,0.03912881,0.0008440688,0.043230236,0.05015683,0.061032265,0.24045554,0.049558874,0.032954156,-0.005515352,0.019861162,0.084025264,0.005668044,0.014196008,0.07100599,-0.023768716,0.07930212,0.013120636,0.048591554,0.053334415,0.0186764,0.011280643,0.017416239,0.049991902,0.016552538,0.009599403,0.03309542,0.0022789538,0.019727424,-0.0071206093,0.094849706,0.26560506,0.10401946,0.009005293,0.02642849,0.012683794,0.083789274,0.026730277,0.010261416,0.058766186,0.00168401,0.011747394,-0.012357849,0.060189113,-0.021176517,0.043159515,0.068398654,0.051512223,-0.013548404,0.06702691,0.024696402,0.05432012,0.019462332,0.059981197,0.09549372,0.099541724,0.032699816,0.08861041,0.09818313,0.06179181,0.041393533,0.047132377,0.055333942,0.055521764,-0.10446325,0.020828903,0.14652932,0.0318442,-0.1023135,0.05704099,0.0011471808,-0.009284541,-0.018022984,0.0661324,0.027616411,-0.00882056,0.07219618,-0.014221996,0.032690518,0.068519235,0.06364452,0.30997008,0.06335032,0.0750905,0.05048099,-0.0032384098,0.03221097,-3.193319e-05,0.024770766,0.037611216,-0.014336556,0.007755026,-0.0054057688,0.03581196,0.027007554,-0.019221008,-0.054120027,-0.025410965,0.029801514,0.014652878,0.06068434,-0.08592843,0.053069413,0.010487825,0.0900378,0.17351396,-0.33499053,0.18972391,0.123654515,0.026119716,0.049304456,-0.073638886,0.028377756,0.008267283,0.013892777,0.010893524,-0.010297969,0.011777379,0.02461958,-0.05170895,-0.030786602,-0.08339688,-0.016363904,-0.05405277,-0.03497892,-0.030904554,-0.03125731,-0.026181743,-0.034108236,-0.07560778,-0.0456438,-0.07312834,-0.04673409,-0.06868214,-0.029319927,-0.022718951,-0.04279089,-0.019018948,-0.039727822,-0.08084361,-0.016561978,-0.076575264,-0.05416031,-0.083054096,0.015926719,0.017014027,0.032540977,0.01440122,0.020202667,0.013928771,0.002367705,0.042395756,0.0029200912,0.025158197,0.022904918,0.06821035,0.29371068,0.06335932,0.009693518,0.0021120757,0.044133723,0.051703036,0.038391665,0.016374622,0.004630845,0.006580401,0.012791365,0.0062744617,0.027279645,0.056166977,0.048666444,0.07327917,0.023710743,0.065582246,0.026046567,-0.004388243,0.058422208,0.016330078,0.022769153,0.063529044,0.05560398,0.22047491,0.04335329,0.042694718,0.006681949,0.0029872656,0.053415038,-0.007926971,0.04461062,0.0506974,0.04944913,0.061172456,0.03199795,0.05495497,-0.0051993653,-0.017086089,0.00091766566,-0.014883101,0.0015785247,-0.02094077,-0.00598,0.015979588,0.008789584,-0.016441643,0.014067978,0.02301969,0.42862827,0.017556489,0.013807729,-0.004930407,0.007386148,0.028635979,-0.0061674304,-0.0019565672,0.008662641,-0.013822917,-0.025554925,-0.0014018416,0.012859657,-0.036883056,-0.017135099,-0.08154428,-0.028061166,-0.03646677,-0.06028214,-0.021600783,-0.040095747,-0.026257887,-0.056298517,-0.08313644,-0.04893905,-0.04893917,-0.05848694,-0.08486718,-0.066833705,-0.022199377,-0.021037655,-0.031257123,-0.040147692,-0.047460295,-0.022734731,-0.073451936,-0.033064187,-0.06102343,-0.009873897,-0.018655628,-0.022383854,0.016124696,0.014355287,0.0003177896,0.03662604,0.06504239,0.01697123,-0.02080796,-0.04740168,0.067900516,0.20075087,0.16655596,0.04827856,0.015750542,0.0084668845,0.021298356,0.036318377,-0.0033271313,0.013840586,-0.01668052,0.049921498,0.019644856,0.029758438,0.08762937,0.02102077,0.102538854,0.0020605028,0.08676681,0.07664946,0.017473288,0.09562144,0.027095452,0.063415915,0.0010709167,0.074382186,0.24378352,0.09009258,0.010014489,-0.07426861,-0.057976186,-0.14975552,-0.07100155,-0.06922291,-0.06650865,-0.02944678,-0.13936035,-0.025278505,-0.094217956,0.095508724,0.053879872,0.15846829,0.06688136,0.07335767,0.030491035,0.035274565,0.112195626,0.027537882,0.035309598,0.056595653,0.033899963,0.13802484,0.023602352,0.04932162,-0.02780513,-0.0043317676,-0.036253303,-0.0025534704,-0.008878499,-0.033362627,-0.004529819,-0.05271357,-0.019277811,-0.045900732,0.038609236,0.020812646,0.054923907,0.02883482,0.056754127,0.03632634,0.017083969,0.07663244,0.011269212,0.026814759,0.07452527,0.06210728,0.12311886,0.051260382,0.061369866,0.014592424,0.02164948,0.047524758,0.0079319235,0.03574744,0.050442666,0.029397637,0.08217426,0.026091404,0.054494668,0.0021641105,0.007573694,0.1148315,0.03358543,-0.005522728,0.060824722,0.16626236,0.068055704,0.15975565,0.059046052,0.14072809,-0.01038605,-0.38196334,-0.023980856,0.14738922,0.022094995,-0.04927349,-0.110758126,-0.036046147,0.03952846,0.07359499,0.001446873,0.044933587,-0.0008292794,0.06859537,0.063752726,-0.0074489713,0.034150273,-0.01936227,0.06479199,0.049064964,0.0025069118,0.072364934,0.00067493133,0.036304414,0.0330842,0.064831376,0.2009621,0.06551026,0.038576756,0.024607867,0.020944633,0.053962238,0.017928302,0.02546139,0.059071735,0.010770969,0.057237,0.01790284,0.052304924,-6.2286854e-05,0.014930531,0.009437576,0.020767739,0.0023791492,0.008449383,0.030842185,0.027889252,0.010936424,0.022206888,0.025189042,0.046959378,0.32520598,0.0608169,0.03669113,0.009051032,0.012366645,0.066312544,0.000881806,0.009573132,0.005909741,0.013811186,0.014840394,0.026762564,-0.0052467585,0.0056304527,0.017170727,-0.0047289133,-0.008583993,-0.005057294,0.032627143,0.022800028,-0.023671567,0.027133822,0.053716198,0.07887697,0.07639004,0.1559894,0.08627364,0.071094304,0.029547825,0.040162668,0.14854991,0.018817171,0.052782953,0.023240104,-0.005421266,0.026836578,-0.0032591224,0.025022328,-0.034794956,0.022540461,-0.012261838,-0.00911811,0.04309933,-0.08900303,-0.027757801,-0.04879421,0.03957308,0.09833366,-0.21203735,-0.17607635,-0.016378254,0.19712518,0.09218441,-0.050250962,-0.024318874,0.018772714,0.0065859035,0.006068211,-0.056369305,0.014911965,-0.035500914,0.011190951,0.053142875,-0.021208704,-0.014244646,0.04703981,-0.023919307,-0.026012339,-0.0054285377,0.007360518,0.082886025,0.012089208,-0.015357107,0.009604275,0.1717388,0.1914793,0.17817003,-0.0029324729,-0.024096996,0.015114665,0.16129981,0.0149296485,-0.024271011,-0.010653377,-0.049836665,-0.03743559,-0.04018286,0.003482651,0.06188175,0.011418123,0.07802942,0.021226823,0.049126774,-0.0110114515,-0.018256962,0.068389446,-0.012265772,0.008857459,0.073566556,0.0856754,0.22579926,0.06695485,0.0757624,0.019251764,0.016640918,0.048173502,-0.0052490197,0.02861923,0.028959483,0.012583822,0.02249679,0.038078398,0.006302707,0.041943505,0.059607774,0.10459389,0.036373705,0.057149276,-1.0408461e-05,0.031511992,0.20419589,0.039322555,0.009501129,0.014016092,0.04063803,0.08784475,0.03113538,0.006834045,-0.0027208924,-0.037085384,-0.12670043,-0.03696373,0.015588909,-0.0013278276,-0.02916313,-0.11831517,-0.052088212,0.018623918,-0.056870915,0.056721896,0.062319003,0.030696161,-0.07497102,-0.01835391,-0.0004839301,0.08225261,-0.010055393,0.021765634,0.047774002,0.07160245,0.20066404,0.07722229,0.013155431,-0.011307899,0.021030232,0.1381423,0.017201107,-0.004855633,0.06509876,0.03174746,0.04988378,0.03612204,0.06029123,0.013709918,0.029685944,0.06640506,0.029479202,0.022267103,-0.00065093115,-0.00077593327,0.062205315,0.012823254,-0.00055736303,0.061207995,0.0550476,0.22571677,0.061500326,0.043828487,-0.012648076,0.011692501,0.06556476,0.013670057,-0.0076978803,0.03258367,0.01647824,0.06699706,0.043909073,0.032833792,0.04814726,0.00576099,0.06340122,0.015611738,0.046179056,0.02732405,0.030294033,0.12294093,0.024361134,0.017976105,0.06353238,0.07401031,0.25753582,0.08724064,0.06179893,0.024673186,0.02045238,0.07873955,0.00026983023,0.02505982,0.021328643,0.027560607,0.08288434,0.014877666,0.018042326,0.019182593,0.0408504,0.018704034,0.020232812,0.024701193,0.022850232,0.04435441,0.10334006,0.046180293,0.0075787604,0.0144455135,0.046691447,0.27131456,0.051390454,0.01737164,0.0051672906,0.026182026,0.016357541,0.030187309,0.018455416,0.013185322,0.022250831,0.082867384,0.024820555,0.0047926307,-0.006322652,0.010811616,-0.0082812905,-0.02196597,0.014887378,0.030177921,0.032938078,0.04669819,0.018745154,0.048225433,0.08363858,0.05022095,0.19559863,0.05883342,0.07102296,0.05883506,0.061121322,0.10689896,0.052182503,0.045104086,-0.053935196,0.0046860105,0.03859371,0.006286815,-0.048006132,-0.022589065,-0.04037859,-0.07490723,-0.03255862,-0.018997416,-0.0050020665,-0.057061404,-0.13768369,-0.06901289,-0.010235846,-0.019342482,-0.05978757,-0.022727445,-0.054106683,-0.038181603,0.019068986,0.07130684,0.15447854,0.08234559,0.012534168,0.07200891,0.08819475,0.15634322,0.087654024,0.059521466,-0.024589837,-0.028611846,-0.07236606,0.05413491,0.042308394,-0.042104572,-0.043193042,-0.08847034,0.09507841,0.013749123,-0.17817804,-0.16680181,-0.11414656,0.24149686,0.16599289,-0.033334937,-0.050942555,-0.053898044,0.08821283,0.017090872,-0.03450863,-0.034175128,-0.03681336,0.05150932,0.039109826,-0.04052794,-0.02659659,0.018084297,-0.02908969,-0.023753665,0.012038752,0.034561694,-0.022549454,0.02855295,0.0031594932,0.024619207,-0.0008333102,0.30815303,0.01017797,0.015257277,0.0043278337,-0.0030671507,0.15733755,-0.0164285,0.012807585,0.043235477,0.025851328,0.02212575,0.022714276,0.052687734,0.06790349,0.015669554,0.10686527,0.018363059,0.038845837,0.06282854,0.08670884,0.1991309,0.08653048,0.047003657,0.06159973,0.051764805,-0.03005884,0.045356452,0.08461836,0.010600962,-0.027473934,0.016204089,-0.039445728,-0.015600413,-0.023314,-0.015901744,0.0046881214,-0.004508555,-0.034220032,0.048354015,-0.014459461,0.08932087,-0.014549427,0.0697671,-0.025614142,0.04495732,0.20792463,0.07081811,-0.023046345,0.08764076,0.09607667,0.07524179,0.09492144,0.088196754,-0.023633601,-0.07159977,-0.13150585,-0.07742295,0.0063486546,0.022511538,0.0029398203,-0.08529529,-0.025163114,0.017528564,-0.047294006,-0.012752265,0.0045132637,-0.02890791,-0.018749595,-0.018099653,-0.07454346,-0.1017693,-0.059326023,-0.01627639,0.0034712888,0.0024804175,0.21737672,0.005447626,-0.0030384958,-0.0033223503,0.021659315,0.21514446,0.0052926373,0.0135445,0.022903174,0.010130972,0.09376143,0.019567426,0.016862407,0.036061876,0.05393763,0.09299652,0.059292972,0.01457341,0.038559288,0.06939694,0.08098003,0.07523307,0.034983873,0.086002454,0.061444014,-0.09079689,0.041290745,0.09862554,0.07351652,0.053785384,0.029935699,0.054498855,0.05856356,0.022460997,0.06981614,0.08036134,0.05937335,0.02905216,0.021919876,0.027021341,0.070599705,0.019794464,0.021404698,0.011480182,0.034411486,0.30720818,0.036194284,0.00095767714,0.013834417,0.016101003,-0.009680644,0.018059373,0.0202057,-0.019576043,-0.05147451,-0.08217253,-0.038963944,-0.030350462,0.0012399405,0.009781741,0.022852607,0.008342601,0.013099164,0.009921491,0.029692888,0.20577508,0.007420033,0.0013376605,0.025880497,0.029926375,0.22977956,0.03505093,0.02824223,-0.054359764,-0.053949207,-0.12627572,-0.052147433,-0.034323096,0.002713263,0.066915035,0.15906069,0.044710606,0.004813105,0.0052762926,0.015364543,0.20063023,6.940961e-05,0.0025646985,-0.016061805,0.014714479,0.081109226,0.026466496,-0.0020860145,0.016920194,-0.027593374,0.028032422,-0.02061444,-0.014921144,0.025820017,0.031982005,0.26440632,0.042405277,0.042358607,0.034158885,0.006228626,0.07993361,-0.023656793,0.035283327,0.0052789226,0.019967243,0.093845755,0.040242612,0.019085184,-0.0378306,-0.014430225,-0.064246446,-0.021031573,-0.020362668,0.012832135,0.0048226863,0.085617274,0.0037087202,-0.003954336,0.0108599365,0.03363183,0.36709693,0.05086162,-0.0022818893,-0.0049176663,-0.021420993,0.08924671,-0.033881046,0.0019934475,-0.0068748295,-0.01684931,-0.030096918,0.0043616593,0.0071936846,-0.00233303,0.007825166,0.0018863678,-0.0015411079,-0.01568558,-0.049530283,-0.065123014,-0.0012931824,0.058634028,0.03166747,-0.17727858,-0.15840197,-0.098479964,0.19689955,0.13801831,-0.06075111,-0.079342455,0.017434373,0.023166716,0.046445668,0.003751129,0.0008581579,0.009091437,-0.0032236874,0.03433241,0.0196729,0.01923769,0.062145337,0.024417609,0.014321312,-0.020770133,0.08050055,0.22055519,0.08898023,-0.013570994,0.05499655,0.12041943,-0.41725457,0.08879257,0.05182661,0.0028299093,0.008106768,-0.07431945,-8.368492e-05,-0.003119722,-0.02357778,-0.008827597,-0.07622209,-0.0046943724,-0.027211785,-0.032393068,0.005307257,-0.043939024,0.014511585,-0.020969093,-0.0165438,-0.021024615,0.01292257,-0.03574854,-0.03159856,-0.03800857,-0.012513816,0.43545562,-0.0078053176,-0.014023244,-0.0055044712,-0.040303577,0.041636765,-0.035168365,-0.0066874716,-0.007973701,-0.0059431493,-0.027572632,-0.00981576,-0.011210263,0.045821786,0.01701501,0.028817452,-0.009054586,0.041736275,0.011728764,0.0115351975,0.09453505,-0.002427727,0.024422467,0.11219253,0.089894295,0.23124388,0.07872797,0.12320262,0.062065713,0.010657877,0.044514902,0.021864802,0.044819534,0.040572077,-0.0029288158,0.017095268,0.0013854206,0.047438323,-0.03020759,2.2545457e-05,-0.06755319,-0.017228737,-0.016688384,-0.0060611386,-0.03824234,-0.16607153,-0.047727942,-0.014998704,-0.044060975,-0.08321686,-0.071198046,-0.070920214,-0.024142295,-0.010685474,0.032740332,0.28258643,0.044960737,-0.030425623,-0.016295403,0.074241936,0.1174494,0.0581956,0.012510836,-0.0366998,-0.046952993,-0.12705965,-0.031991675,-0.04026693,-0.08276884,-0.1338637,-0.22766113,-0.115564525,-0.10084,-0.070161596,-0.076788545,-0.0809661,-0.05085136,-0.06768593,0.009828329,0.011998296,0.037209332,0.0210689,0.016307697,0.013066784,0.050469294,0.037510633,0.049039602,0.01153475,0.048909366,0.020116374,0.08359604,0.027766846,0.045181576,-0.0004976988,0.059825744,0.30582973,0.07345894,-0.0003786385,-0.0027151257,0.011364996,-0.15103969,0.0013161823,0.0006734133,-0.0330716,-0.040254295,-0.10445564,-0.044923306,-0.02429153,-0.02939424,-0.010637701,-0.039236516,-0.0030622557,-0.04014072,-0.0518661,-0.028065294,-0.050649315,-0.035201304,-0.06072846,-0.027620524,-0.008053243,-0.06327894,-0.006319985,-0.028215915,-0.067994535,-0.07272329,-0.21756288,-0.06457394,-0.06200365,-0.019492924,-0.01692546,-0.107388064,-0.005238652,-0.020648777,-0.015555322,-0.010047749,-0.057014007,-0.020104706,-0.02727072,-0.017297342,-0.002388835,-0.023145549,-0.013366051,-0.014756091,0.0032901764,-0.010007009,-0.0834808,-0.010279089,0.006723091,0.03389611,0.013134144,0.076566756,0.020589538,0.026955202,0.002407819,0.054463714,0.19421887,0.042916685,0.016611338,-0.001484151,0.01736065,0.163452,0.008259952,0.0024602003,-0.018551486,-0.015060179,-0.09455335,-0.03709522,-0.01162298,-0.031112041,-0.030889899,-0.09712621,-0.020995975,-0.030098304,-0.082075775,-0.053264417,-0.22606519,-0.055033714,-0.080608666,-0.041374862,-0.0100034475,-0.065362625,-0.012822986,-0.021020599,-0.018554866,-0.036476493,-0.10906887,-0.05359149,-0.026459515,0.049294893,0.048164904,0.0680403,0.048119023,0.040287256,-0.00401932,0.025938287,0.056734532,0.018795192,-0.004877836,0.050247252,0.053045884,0.20171458,0.05806318,0.038474046,-0.0060679913,0.026631441,0.10675807,0.023878515,0.008468481,0.0327314,0.03051883,0.10146904,0.03927451,0.035253435,0.0001039356,-0.027441042,-0.026973456,-0.036268234,0.0140898,-0.021681607,-0.010275938,0.049793832,-0.02954708,-0.011253446,0.006737262,0.038994126,0.37457138,0.040837467,0.008087307,0.013703808,-0.017494261,0.04274839,-0.011791967,0.008918673,-0.0039479136,0.0017821789,0.041834217,-0.02005975,-0.006590903,0.024783075,-0.0030489564,0.005786285,0.0023323298,0.031851962,0.017794251,-0.014548138,0.014325142,-0.0013554394,0.00021142513,0.058025718,0.10455641,0.121725135,0.09135683,0.053730786,-0.032620557,0.034345,0.17584375,0.048787296,-0.029435083,0.054274708,-0.011300029,0.15252909,-0.020042062,0.039664537,0.04817584,0.07362771,0.20304225,0.056943744,0.06265926,0.011798382,-0.013665721,0.22576442,0.017204389,0.0025237799,-0.03744058,-0.05823347,-0.18032895,-0.09940996,-0.018862117,-0.034659646,0.009081125,-0.06751537,0.023687124,-0.024084851,-0.033398706,-0.01040934,-0.06411874,-0.013993889,-0.038661666,0.030532047,-0.006147057,-0.04458429,0.010322243,-0.060899373,0.042156935,0.070564136,-0.024801955,-0.055158246,-0.06346329,0.09633395,0.24238864,-0.08259842,-0.21319985,-0.11281213,0.040013097,0.115745105,-0.14053275,-0.072621435,-0.02254115,0.011388451,-0.00036920607,-0.07363333,0.06337041,-0.0366538,0.041274365,-1.9693747e-05,-0.05943802,-0.021603446,-0.061764687,0.031585038,0.056821704,-0.031183362,-0.041467182,-0.08611429,0.16984555,0.16737965,-0.065815255,-0.11952439,-0.20671473,0.019696772,0.035494193,-0.04059869,-0.08024137,-0.06870295,0.04674208,0.021727413,-0.028350042,-0.0181368,-0.05720596,-0.04031709,-0.014523648,-0.06314129,0.024966896,0.03601294,-0.0638334,-0.017626733,-0.12272613,0.026786119,0.036863543,-0.14955083,-0.13505891,-0.08643685,0.2005531,0.11656465,-0.055093408,-0.0875981,-0.02332095,0.07826391,0.01485002,-0.029323786,-0.014742717,-0.038614884,0.018342644,0.04038489,0.011031359,-0.0404052,-0.0142095685,-0.031113118,0.0024911761,-0.013106257,-0.037242904,0.31867918,-0.024111807,-0.025630772,-0.018115327,0.05580899,0.18241769,0.061793,-0.03816943,-0.005099684,-0.005177498,-0.12526886,-0.007028483,-0.011907384,0.000594873,-0.016724844,0.010018766,0.009286899,-0.0094828755,-0.027080253,-0.00873208,-0.08959948,-0.006947428,-0.025917351,-0.016199678,-0.048602447,-0.23169622,-0.042646542,-0.020817384,-0.14518626,-0.09571782,-0.11477834,-0.119752645,-0.12701775,0.08026092,0.10479665,0.27569172,0.11023691,0.07956295,0.06904613,0.046764076,0.18719326,0.0484401,0.0676949,0.038575698,0.04151702,0.040206894,0.024779648,0.021167219,0.005835116,0.012649298,0.06054295,0.009731337,0.029761866,0.04255195,0.06339127,0.21905085,0.052850038,0.036466837,0.0069995522,0.042358644,0.056791857,0.058087118,-0.0061364174,0.010187507,0.012212649,0.020407245,0.0117601305,0.004520446,-0.050455153,-0.035542995,-0.04448975,0.024268731,0.038646817,-0.07407356,-0.07798505,-0.007689908,0.079365164,0.017519243,-0.1001179,-0.108190335,-0.13137604,0.17664415,0.096245006,-0.070317805,-0.04505822,-0.032474697,0.11698851,0.033021122,-0.003995687,0.0048326254,-0.052041374,0.0101493895,0.046012387,0.060054332,0.016087681,0.12928236,-0.0043693297,0.06687495,0.017142862,0.055599757,0.16338253,0.05906701,0.035714746,0.086344965,0.112014204,-0.09356238,0.09661299,0.06591445,-0.007890675,-0.051809918,-0.19265535,-0.055267274,0.020303488,-0.039717864,-0.053354442,-0.20101225,-0.05311082,-0.052592963,-0.02478677,0.00930503,0.050233554,0.006629914,-0.013483733,0.038350083,0.023741692,0.047427565,0.029877007,0.028289974,0.10030508,0.10185677,0.15913306,0.10565302,0.09524417,0.023515105,0.04823056,0.103923894,0.039888173,0.018683195,0.005446583,0.028971218,0.06153688,0.020350676,0.019589875,-0.014140278,0.02320692,-0.081682,0.039883874,-0.019535065,-0.04996327,-0.036746077,-0.12849247,-0.04236463,-0.05802857,-0.007895611,0.03305787,0.2149021,0.025091797,-0.0043469667,0.031362385,0.0021524578,0.23130712,0.025805116,0.018010847,0.04755588,0.018518731,0.07407066,0.0046497285,0.0446631,0.0039969683,-0.013664246,0.015334934,-0.026040241,0.0066069365,0.011277914,0.05202812,0.13054699,0.05342099,0.019845992,0.029029608,0.10033673,0.20134303,0.050004978,0.074818194,0.0084120035,-0.019632854,0.082915485,-0.0053178594,-0.002475787,0.029310927,0.026100814,0.06839788,0.009250425,0.05175793,-0.030608209,-0.006877914,0.028521389,-0.060212046,-0.036236554,-0.029101506,0.011915475,0.06365397,0.012386158,-0.010033578,0.12946762,0.08362214,0.17876509,0.09368311,0.119892314,-0.007750042,0.045302913,0.072503954,0.02997601,-0.015499502,-0.010456681,-0.041896984,0.033409536,-0.021022007,-0.010413721,-0.04005651,-0.08742561,-0.1450394,-0.09110207,-0.046899036,-0.09459272,-0.044463426,0.0562872,-0.038580894,-0.097925335,-0.10377191,0.016725436,0.31146306,0.040505767,-0.12518845,-0.08643081,-0.032087192,0.020983845,-0.039771765,-0.10359058,-0.058300372,-0.12120904,-0.16490623,-0.12395654,-0.04380705,0.10623545,0.038175702,0.08251562,0.04413998,0.09519482,0.035024256,-0.020762306,0.037081286,-0.014057338,0.03825665,0.06824955,0.04553153,0.21423024,0.057807017,0.040892005,-0.0012390316,-0.0281066,0.09644273,-0.0081573725,0.008075073,0.03856489,0.037698135,0.06203331,0.03142494,0.03922698,-0.0779773,-0.03530544,-0.09259296,-0.052691676,-0.088263,-0.04486555,-0.029783338,-0.039667815,-0.028722465,-0.03908874,-0.04941602,-0.033150807,-0.050639283,-0.047439292,-0.046907637,-0.012315601,-0.034584507,-0.07808265,-0.032874234,-0.013480157,-0.031251222,-0.033012062,-0.08396295,-0.045372114,-0.03416554,0.022916168,0.021282494,0.028185591,0.013241649,0.013189346,0.030867625,0.017978132,-0.00059296563,0.0015586615,0.03217663,0.015219003,0.08568919,0.29819924,0.08620983,0.015997387,-0.024490267,0.017334208,0.14459819,0.020804211,-0.02529189,0.007886052,0.028871007,-0.010925528,0.02698204,0.02395463,0.017730027,0.035603985,0.047658026,0.057679355,0.022955664,-0.006133057,0.059674423,0.18691564,0.047891296,-0.008191466,0.016657889,0.0888319,0.19181156,0.08575632,0.013055444,-0.009841889,-0.045580737,-0.1256032,-0.034047745,-0.008002967,-0.06351429,-0.007950246,-0.033272147,0.0023386478,-0.05887556,0.024145246,0.039197356,0.14713907,0.039792642,0.021478206,0.014646471,0.042275682,0.24757764,0.057155386,0.013001509,0.0313645,-0.08626048,-0.41271266,-0.07856793,0.0151307285,-0.005514562,-0.025745928,-0.082497984,-0.031837076,0.011888083,0.012350649,-0.00062401965,-0.03740392,0.016660094,-0.01693526,-0.03935629,0.016984195,-0.049517,0.019237518,-0.049107544,-0.086372524,0.016897678,0.09606919,0.028598756,-0.09370242,-0.072789684,-0.20142438,0.12827225,-0.18782389,-0.08922356,0.09540498,-0.07234572,-0.24843997,-0.09380609,0.10266031,0.05551207,0.08352829,0.07665697,0.09510253,0.048309118,0.071584165,0.034042586,0.19475871,0.02147597,0.04497303,-0.0332783,0.05801335,0.26431453,0.06286152,-0.028945386,-0.026993394,-0.046431832,-0.06804189,-0.05640024,-0.02940172,-0.026340812,-0.040323228,0.019918948,-0.02432108,-0.01284326,-0.009806156,-0.00089851767,0.0967356,-0.009781502,-0.0025039911,-0.006669879,-0.08082919,-0.17813317,-0.07158512,-0.025344446,-0.06189569,-0.10729437,-0.04884775,-0.097284436,-0.061689228,-0.08059138,-0.15817359,0.032048076,-0.1414918,-0.0910827,-0.046199817,-0.055974633,-0.10730201,-0.06929815,-0.04301785,-0.030655745,-0.07567197,-0.14079854,-0.05895264,-0.028871477,-0.038543448,0.0061350167,-0.016783297,-0.009261807,-0.030495882,-0.01897201,-0.02728348,-0.1651407,-0.030355215,-0.026789367,-0.042216882,0.08010331,0.08491635,0.084771976,-0.027726978,-0.012303665,0.03670031,0.2843699,0.04372281,-0.014005318,0.05913201,0.021772444,0.08006772,0.029731065,0.06507903,0.026081264,0.032592,0.054363623,0.03372261,0.036763903,0.016720131,-0.0060390495,0.06641706,0.0058175027,0.015283448,0.07494126,0.08467087,0.26813108,0.08522862,0.051285133,-0.0035595149,-0.017204452,0.10432985,0.00788807,0.00012571923,0.050911814,0.008460672,0.053129897,-0.002801925,0.033107396,0.0033138692,0.0043787584,0.023956865,-0.02112946,-0.024487555,0.07059257,0.13242322,-0.04778883,-0.15228154,-0.05927241,0.052652687,0.21922718,-0.013006285,-0.24695638,-0.11757754,-0.017966427,-0.03597267,0.0466038,-0.009743512,0.027639009,-0.0116580725,-0.008659184,-0.0028448403,-0.022513203,0.017220914,-0.07009223,0.029706776,0.2158964,0.026544452,-0.061256588,-0.08511395,-0.11366579,0.27245954,-0.12180964,-0.07900663,-0.037609994,-0.12183255,-0.16475543,-0.13493675,-0.05495898,-0.04194486,0.015375443,-0.022864595,0.0041024983,-0.021376401,0.030125529,-0.019692868,-0.018388703,-0.0007761121,0.003461063,0.03278184,0.023940029,0.06732212,0.009354994,0.021987975,0.023550667,0.040613845,0.102885775,0.04148017,0.02562046,0.035296053,0.10950933,0.06993796,0.112844944,0.039420962,0.009886533,0.07103561,0.15224192,0.0661841,0.00856632,0.0038603544,0.02833119,0.0676858,0.012894928,0.018606264,0.026869152,-0.0024697185,-0.05063346,0.0043729693,0.01477544,0.05105789,0.038172357,-0.21251169,0.032822922,0.06394602,0.119860396,0.19762936,-0.2770966,0.1906864,0.12689632,0.009840071,0.011183783,-0.07210536,-0.009361029,0.0046485364,0.008829281,-0.024618387,-0.061922014,-0.019800901,0.027733326,0.023651063,-0.020693704,0.02642595,-0.024334133,0.028620422,0.046436846,-0.015022136,-0.15393732,-0.020435989,0.051834673,0.13348489,0.14333884,-0.38419625,0.12102106,0.13394791,0.047117352,0.0077881385,-0.11582968,-0.0077000856,0.046891093,0.034639325,-0.0035029054,-0.005159907,-0.00055254996,0.027015656,0.04279846,0.049286313,0.052572682,0.04456675,0.03831674,-0.011170104,0.08782161,0.19562182,0.08758755,0.0048269,-0.03581184,-0.016921729,0.11151923,-0.004924327,-0.02365335,0.004915178,-0.012440801,-0.061941702,-0.02909083,-0.0076297224,0.0022758767,-0.028378963,-0.0018869191,-0.03445746,-0.021886855,0.0013036579,-0.024690121,0.03579563,-0.010809064,-0.0029533058,0.03776568,-0.014039576,-0.10277116,-0.011599809,0.025074631,0.093133256,0.13804245,0.05108407,0.16737975,0.10368362,0.01489928,0.045042083,0.13686463,0.02734086,0.008566573,0.011530027,0.005863726,0.037932873,0.0069490746,0.029334456,-0.004163161,0.00067690015,-0.0025772154,-0.010985792,0.0028849095,-0.022484094,0.005788088,0.17920637,0.0046751625,-0.010289103,-0.1227082,-0.0641618,0.4132953,-0.070239276,-0.11041537,-0.0063720345,-0.055655714,-0.08519027,-0.057938635,-0.008586102,-0.012781441,-0.018479124,-0.1510734,-0.021067798,-0.024562523,0.036367923,0.0044809803,-0.014853746,-0.021079078,-0.0063165426,0.033775896,0.048969,0.023399381,-0.064765,-0.048170775,0.1650187,0.17758828,-0.04224304,-0.15676403,-0.2031557,0.016787887,0.03557408,0.0145872235,-0.045871045,-0.03413248,0.05281797,0.016500562,-0.01158458,-0.020249993,-0.033546478,0.057035416,0.01776141,0.054203495,0.027496994,0.055888213,0.027109146,0.016907018,0.048098058,0.0070872903,0.028017253,0.066575766,0.10522013,0.093957976,0.088326514,0.073709026,0.04473108,0.019769771,0.09268215,0.03207302,0.03333664,0.040220104,0.018368512,0.055888575,0.031246938,0.035027586,-0.0055377185,0.012741124,0.050159566,-0.0005991906,0.016174309,0.026892746,-0.042555775,-0.0058039725,-0.03412181,0.019916639,0.06433052,0.162919,-0.23885497,0.15116559,0.0647661,0.049408257,0.09691012,0.093687,0.09812367,0.05239378,0.04872729,0.030742243,0.06528554,0.017391875,0.056948386,-0.0756762,-0.06417501,-0.11524484,-0.06339601,-0.069776,-0.0659491,-0.030102521,-0.057172015,-0.05316782,-0.057992965,0.036905915,0.045751423,0.13748302,0.02944167,0.03261447,0.05945161,0.037974358,0.13039878,0.029967487,0.045757353,0.041003704,-0.008595139,0.18795642,0.021424089,0.030972376,0.06007499,0.026516333,-0.012080595,-0.038613543,-0.020586938,0.10035154,-0.01406762,0.10999795,0.0151281,-0.056980312,-0.20782655,-0.2547848,-0.10794363,0.18491514,0.13407968,-0.098446354,0.024558604,-0.037602678,-0.0068631396,0.03787279,-0.08875457,0.004974097,-0.04416555,-0.0058364943,0.040056527,0.014258981,0.0024645329,0.025896728,0.0070299357,0.008864537,0.03524123,0.00016131997,0.06703537,-0.002010882,0.015305325,0.030396044,0.043713085,0.3410499,0.058424056,0.04656285,0.012832314,0.0020298064,0.029381514,0.0031592548,0.0064234734,0.03662981,0.0147616565,0.021881506,0.01089552,0.03490916,-0.05965639,-0.033194005,-0.016143963,0.036065206,0.02977784,-0.05456558,-0.058833987,-0.0009289086,0.03559141,0.028935045,-0.16002113,-0.14046393,0.03321954,0.17573479,0.13168573,-0.05477667,-0.08797279,-0.052960396,0.061547056,0.002232492,-0.05221524,-0.04447609,-0.012325868,0.046503138,0.04983732,0.029404297,-0.025578886,-0.027438045,-0.014471233,0.0163318,0.0020331852,-0.024144314,0.00010612607,-0.00089021027,-0.007928848,0.100301236,0.1955095,-0.08155139,0.1872979,0.09448742,0.00902915,0.09846786,0.035633694,0.09927559,0.03172742,0.0030092597,0.0036350563,0.011288196,-0.00074506924,0.0012897998,-0.035910368,-0.018759146,-0.06121722,-0.0027472675,-0.034747303,-0.058677733,-0.028022632,-0.08461106,-0.037747264,-0.05254434,-0.003076166,-0.07522716,-0.20854019,-0.07160071,0.013477035,0.049582794,0.04821137,0.24902156,0.04925058,0.043771923,0.030915886,0.04429692,0.18755609,0.021580517,0.04896194,-0.0161663,0.020478904,0.039913982,0.018009722,-0.011589494,0.009898022,0.004694253,0.098731995,-0.00031641126,-0.006836593,0.004989814,0.05650139,0.321697,0.063434795,0.016975425,0.03245023,0.013975602,0.074655175,0.0011475831,0.029564261,0.018145407,0.024675041,0.035207108,0.030336648,0.015591413,0.030803582,0.029081494,0.0013333708,0.013667021,0.054666862,0.038138233,0.017658088,0.05988854,0.035955124,0.028939582,0.033393204,0.068097055,0.25950608,0.05948472,0.04104078,0.024549931,0.0011416674,0.0061642528,0.0053207874,0.03902311,0.0334711,0.027605541,0.041332096,0.009554446,0.03486316,0.018017769,0.009482682,0.053907737,0.009716916,0.012210131,0.00058478117,-0.023249507,0.09147136,-0.03206417,-0.013682634,0.021748405,0.055775374,0.40879458,0.065611064,0.029631741,0.027519718,-0.02491568,0.049516425,-0.0045431703,-0.017058969,0.032473862,0.009750366,0.045790017,-0.0064081037,0.06290591,-0.07043171,-0.06333496,-0.13345382,-0.06021647,-0.07417542,-0.06723511,-0.018555015,0.06076546,-0.014815927,-0.06546165,-0.052120864,0.060400814,0.34331638,0.0652742,-0.059497863,-0.04511568,-0.035256386,0.0027981028,-0.05270621,-0.036475383,-0.03306066,-0.04131791,-0.09904802,-0.045408398,-0.05278015,0.035154745,0.010045834,0.094009936,0.010296732,0.02291802,-0.0004390478,0.098235756,0.075440705,0.09829913,0.011200309,0.087253936,0.06441065,-0.5415315,0.052663147,0.0803335,0.011782888,0.03646779,0.023396604,0.027853787,0.021369115,0.044504702,0.0041829944,0.051669676,5.147606e-05,0.04060769,-0.002930656,0.002394326,0.00015860796,-0.0012667775,0.016835123,0.03562276,0.026185602,0.20655921,0.043021828,0.01231721,-0.014360249,0.09553268,0.29078466,0.082771584,0.005338192,0.00841777,-0.002851963,-0.031720787,0.0023658574,0.009229757,0.0018186122,-0.008366227,-0.047537148,-0.01022023,-0.0037228838,0.008767292,0.0153414905,-0.017566688,0.017047144,0.026266616,-0.019100748,-0.0058642216,0.10729203,-0.011396073,-0.019041464,0.015664281,0.044531193,0.276252,0.051916674,0.009395868,-0.005805105,0.045194365,0.050106958,0.043506965,0.010154545,-0.0024304986,0.017834768,-0.04947997,0.018247098,-0.002882123,0.024591811,0.0102710705,0.060166985,-0.004084468,0.032440692,0.05494082,0.00016671419,0.12042424,0.021044567,0.043848753,0.058495432,0.09011047,0.24637039,0.07183786,0.057359755,-0.012660563,0.0057441564,0.059867308,-0.0009094775,0.002556175,-0.009279791,0.016656488,0.03164693,0.032370508,0.012000501,-0.0042723566,0.021874323,0.001455415,0.00941056,0.022060126,-0.0024709702,-0.005154997,-0.023598015,-0.013604134,-0.010412991,-0.016382843,0.004833482,0.35499638,0.014113069,-0.0249504,-0.030202448,-0.005985964,0.055537514,-0.0062072724,-0.021783821,-0.025745146,-0.0024563074,-0.022480398,-0.011623383,-0.04366079,0.018335134,0.011481455,0.044327736,0.017769188,0.027773127,0.008046955,0.015602887,0.12718779,0.028634403,0.006955087,0.026635595,0.12518184,0.291236,0.10365051,0.030126423,0.034036726,0.029317379,0.11513305,0.025094712,0.03867781,0.010023095,0.023030072,0.05215528,0.03310266,0.023013383,0.00457751,-0.016435504,0.11191726,0.0016761199,0.014105856,0.017246097,0.028185256,0.23320559,0.01228562,0.0061552674,0.02306953,0.08234197,0.17186375,0.08716098,0.043103933,-0.00380902,-0.061680168,-0.23276637,-0.06434688,-0.03241275,-0.023149848,-0.058233112,-0.099171236,-0.030751765,-0.019308865,0.03298679,0.007945269,0.03472501,0.0025520772,-0.021255732,0.019107163,0.065143175,-0.02001977,-0.088197134,-0.059010547,0.06994301,0.210289,-0.17524001,-0.16975605,-0.11566608,0.027698874,0.08990961,-0.0013720905,-0.07168427,-0.03467049,0.053276554,0.016082464,0.02784212,-0.030534692,0.011478096,0.099040605,0.03182234,0.1011194,0.027275115,0.095744126,0.044036627,0.06845171,0.19998209,0.065760374,0.056406856,0.07661793,0.11078,0.04677546,0.0987052,0.07407859,-0.039485484,-0.043240435,-0.010396235,-0.053684294,-0.052265674,-0.06815831,-0.017982423,-0.028522462,-0.008764297,-0.057891846,0.05577752,0.043182075,0.13248551,0.033075273,0.049951047,0.0100752115,0.026025776,0.20798522,0.03471878,0.01818508,0.0489749,0.03697011,0.15038496,0.060369074,0.039135784,-0.04613901,-0.038025975,-0.11149368,-0.05270329,-0.03140988,-0.020031005,-0.039150022,0.0097231865,-0.02021718,-0.03440532,0.031760238,-0.004205227,-0.018816322,0.010514826,0.023552459,0.004357025,-0.0023573935,0.057157487,0.0072171986,0.0062659755,0.017123193,0.040508002,0.5016348,0.061257042,0.009803498,0.005559325,-0.0015361309,0.064583704,-0.02735734,0.0069544017,0.026643649,0.002691254,0.01446414,0.009084165,0.037852734,-0.015910923,0.01633048,-0.021709442,0.01790446,-0.0159107,0.025446355,0.017592788,0.05025512,0.02908121,0.013985559,0.024132907,0.06310402,0.29028428,0.051064674,0.02470994,-0.006611109,0.031718194,0.078721955,0.02142104,-0.008919388,-0.019044073,-0.010381773,0.010324985,-0.011390135,-0.011637211,-0.0039922297,-0.02306509,-0.0065811016,0.014554016,-0.009327352,0.014886618,0.031220943,0.102002785,0.0009608641,0.008217961,0.024815217,0.07507697,0.23683712,0.09071553,0.026264668,0.016843706,0.06294012,0.08984056,0.06194696,0.013800919,0.030110493,-0.00843858,-0.076506,-0.0066535324,0.014054452,0.061267793,0.05133179,0.09435403,0.037717,0.045007985,0.0146692395,0.028470598,0.09307501,0.006660737,0.036578134,0.070126295,0.07803138,0.15031834,0.07118389,0.044725753,0.005189821,-0.0046723783,0.13109933,0.024995625,0.0046622604,0.029799476,0.011925131,0.044008806,0.01773387,0.025655806,0.03425943,-0.07823326,-0.135907,-0.06772998,0.03835423,0.0043975115,0.037693195,-0.0749952,0.041033823,-0.0013668905,0.055006176,0.13008541,-0.24891645,0.14361678,0.058876485,0.04514598,0.037872463,-0.20999293,0.05209951,0.049699694,0.058833733,-0.016715229,-0.17081147,-0.030786633,0.051033076,0.06508598,-0.0018083826,0.027803153,0.0041208416,0.06531447,0.037274763,0.017266959,0.052209884,0.012783736,0.031211972,0.050292492,0.06757432,0.23579095,0.053684294,0.048972636,0.013147488,0.02100858,0.07447517,0.019634388,0.02845937,0.060231023,0.027531132,0.045127288,0.027185988,0.06413388,0.0063894987,0.011723921,0.008879133,0.025836885,0.022303224,0.011584863,0.0073775947,-0.0058746934,-0.012185514,0.020603806,0.015417196,0.06337679,0.23686819,0.050061226,0.02204132,0.03856057,0.0337457,0.11353488,0.051086098,0.028602382,0.017636687,0.030079141,-0.028088078,0.016095899,0.01707948,-0.03318034,-0.016864702,0.0029516816,-0.015562337,-0.04038337,-0.025362283,-0.057412215,-0.061591893,-0.056363016,-0.010339558,0.038012892,0.032794923,0.33791247,0.039735757,0.023985758,-0.008574456,0.013872996,0.15285735,0.0070856363,0.0021879375,-0.007823989,0.028819382,0.041529577,0.016467273,0.0071116835,0.0042595305,-0.014392674,0.0054359585,-0.02943185,0.0060436963,0.03609766,0.045791388,0.015120049,0.065273255,0.03853631,0.15013683,0.13996394,-0.2787358,0.12901203,0.14914492,0.0392638,0.08663715,0.078894146,0.08328229,0.0531774,-0.015945077,0.008812815,0.04469481,0.0038671792,0.00022479892,0.022277355,-0.019239185,0.02886051,-0.02048695,0.008905204,-0.004729271,0.008879602,0.0814384,-0.010257609,0.010381632,0.049257338,0.08547081,0.35315096,0.09469843,0.04575804,-0.00534603,0.0073780827,0.09550822,0.0049131513,0.0014780052,0.01102826,0.018893331,0.010126114,0.018340796,-0.00531815,0.039939433,-0.003718853,-0.0724885,-0.025190314,-0.048110917,0.043451875,0.06477949,-0.075985014,-0.07884434,-0.0701582,0.14423221,0.16875544,-0.09119354,-0.13543653,-0.16496393,0.05884087,0.048472315,-0.0860158,-0.07096064,-0.08461033,0.023514986,0.039405875,-0.05395926,-0.032312527,-0.04655218,0.00026746094,0.010677606,0.0312885,0.0024540424,0.021772891,0.021702632,-0.010230869,0.01680028,-0.00053295866,0.004490733,0.121879056,0.123366825,0.17210117,0.13507585,0.10707584,0.07084021,-0.02868779,0.013115287,-0.0065630525,0.056925118,-0.014057547,0.035146564,0.060185462,-0.01167579,0.0030335784,0.0719198,0.024638057,0.06292194,0.024610296,0.07054919,0.05192606,0.004786223,0.053175807,-0.0035931766,0.07244894,0.09557543,0.06089051,0.13844432,0.06260677,0.09011561,0.0561495,0.023759723,0.054266125,0.01991427,0.032868207,0.026498526,0.03972417,0.030705769,0.027425155,0.0371492,-0.03064754,-0.03168714,-0.08968526,-0.031335384,-0.027807772,-0.028407067,-0.002708435,-0.07960212,-0.00022339821,-0.03163892,-0.084308915,-0.06424279,-0.22897694,-0.07322061,-0.08875945,-0.012674246,0.012116358,-0.066296756,0.015971512,-0.013517588,-0.036245316,-0.021756947,-0.04708773,-0.0245035,-0.024292283,0.0066981018,-0.026362017,0.021175325,-0.034409523,0.0075311214,-0.026587725,0.015230507,0.09720817,0.0094899535,-0.015362307,0.0017769039,0.062014163,0.25737414,0.064051956,0.006995905,-0.015270658,0.011141688,0.08114583,-0.0013593342,-0.02752912,0.019288331,-0.023742735,-0.056886405,-0.0022667795,-0.0015777051,0.018765628,0.022053592,0.07271588,0.019708604,0.017275851,0.02595067,0.023306802,0.08383739,0.01566413,0.026701823,0.107724726,0.06319344,0.16942686,0.047961667,0.103063084,0.032904565,-0.0008854084,0.056537986,0.0029538274,0.025365219,0.036913335,0.016509619,0.058048964,0.018715635,0.027039677,0.05415839,-0.003109932,0.015972435,-0.0053342134,0.037520804,-0.0071955994,-0.014959779,-0.046982795,-0.006842889,-0.0025101732,0.0016818792,-0.0680559,-0.47276944,-0.06730254,-0.01716648,-0.011623979,-0.007575661,-0.031744093,-0.009129614,-0.015242964,0.01889798,-0.017549127,-0.0015076697,-0.023332864,0.027339278,0.0038529634,0.01885786,-0.018119432,0.011555076,0.014159987,-0.004827574,0.010913342,0.020879954,0.0033330917,-0.001769796,0.073768035,0.09300201,0.14656506,0.10099518,0.05484677,0.02742955,0.021186002,0.087897226,0.03052628,0.014976174,0.056751758,0.031461567,0.09910834,0.023947656,0.052190155,-0.023559928,0.0021028519,0.14208536,0.0012356639,-0.011942744,0.00458391,0.02438996,0.12823892,0.021270804,-0.0023139715,0.00927788,-0.04685089,0.20187129,-0.04275722,0.014916316,-0.011388779,0.04151386,0.0904615,0.028155833,-0.007598065,-0.01200375,0.025770836,0.11720389,0.04628122,0.0035127848,-0.061632037,-0.06519193,-0.28418058,-0.07889505,-0.042604577,-0.04978147,-0.11889517,-0.12910289,-0.13186166,-0.061568707,-0.08202649,-0.038009405,0.4412599,-0.011833191,-0.07259464,-0.010859484,-0.014317751,-0.044279665,-0.028001457,-0.025027514,0.0161433,-0.0055053234,0.01577352,-0.004742399,0.027582288,0.025722735,-0.009727418,0.09353815,-0.020195276,0.04563269,-0.0056559667,0.0030670464,0.0056097507,-0.0080290735,-0.017402478,-0.064715296,-0.101637706,-0.33807904,-0.110311545,-0.051614374,-0.028352229,-0.049629994,-0.17803325,-0.029466331,-0.015659139,-0.027419716,-0.034661192,-0.18502353,-0.05461556,-0.054162204,0.05339838,0.044432785,0.24938491,0.05028078,0.03817165,0.08698447,0.026112229,0.14927591,0.037377194,0.060230806,-0.058361337,-0.10764304,-0.1797098,-0.091079295,-0.058766574,-0.07974115,-0.033553407,-0.091314174,-0.022873163,-0.06982376,-0.08455953,-0.06918946,-0.14168867,-0.062430203,-0.092994735,0.022871345,0.019267611,0.13689238,0.015953276,0.023315817,-0.017243639,0.048802637,0.29433957,0.039991736,-0.00084230304,0.027111083,-0.018967085,-0.12773548,0.00067573576,0.024431705,-0.00030558556,-0.035019845,-0.10390735,-0.033919066,0.0006043911,-0.025074974,-0.010595635,-0.00847215,0.003577659,-0.024689972,-0.016385436,-0.014190108,-0.035147548,-0.0071267188,-0.02637321,-0.012790367,-0.036125667,0.052183904,-0.017753877,-0.020666974,-0.03254707,0.02045241,0.30273908,0.035789393,-0.039054133,0.0025947392,0.05065854,0.07024218,0.032572806,-0.011660874,-0.023441732,0.04677716,0.047631677,0.043923732,-0.011952568,0.046738267,0.012493379,0.0028122365,0.013748851,0.050712295,0.060276624,0.023483515,0.017011601,0.02589801,0.053789526,0.048879385,0.10214127,0.2868969,0.093646646,0.058139056,0.011588529,-0.0057855546,0.031652942,-0.021348458,0.032528855,-0.0034468174,0.0053073615,0.0638051,0.0034356713,-0.018216565,-0.041684777,-0.015954658,-0.119394526,-0.02367416,-0.035430588,-0.047158062,-0.02426216,-0.15383852,-0.04972907,-0.039670914,-0.049369276,0.02345036,-0.045659613,-0.022610337,0.0077237673,0.0777607,0.08044839,0.23382056,0.089170024,0.047657356,0.082041435,-0.02882687,0.1535567,-0.0073734075,0.059763536,0.024856642,0.0023494437,0.06730759,0.0148741305,0.028642803,0.025455035,0.01897113,0.080991924,0.022835255,0.011969134,0.078664325,0.063847795,0.17897838,0.081159994,0.040131226,0.0038166046,0.02952253,0.048292294,0.023713328,0.03275255,0.0108015,0.040448457,0.0770082,0.046650946,0.04622019,-0.009604335,-0.023370698,0.025873266,-0.011076391,-0.009859085,0.047830433,0.05521798,0.073396616,0.049915656,0.033858165,0.07047677,0.2028506,-0.08516148,0.21341494,0.06678051,0.06830476,-0.010678444,-0.15709917,-0.017287076,0.07325794,0.049069062,-0.04165283,-0.056783378,-0.042535007,0.05448574,0.0625346,0.053671263,0.07450572,0.041029185,0.060107067,0.020881519,0.082187995,-0.019821197,0.0730412,0.046170708,0.11313992,0.020372018,-0.41166657,0.02518183,0.114183605,0.056474656,0.067734376,-0.001004301,0.06983456,0.043759376,0.045692146,0.012797445,0.102246255,0.030144602,0.050051153,-0.052211888,-0.03358452,-0.061602324,-0.037532836,-0.04732263,-0.071253926,-0.025270384,-0.024273276,-0.030007362,-0.05760549,-0.08308973,-0.031330436,-0.04386115,-0.035858616,-0.083470196,-0.06319983,-0.021100834,-0.028970212,-0.013312761,-0.037435085,-0.052367542,-0.02689739,-0.07433197,-0.03591177,-0.048669238,-0.074087024,-0.04261282,-0.060571715,-0.052482426,-0.093075514,-0.03931552,-0.018302076,-0.050278895,-0.013710439,-0.036863953,-0.06594417,-0.027868092,-0.07600057,-0.03035517,-0.050133232,-0.017401785,-0.016774118,-0.033585846,-0.025854975,-0.027903695,-0.077236146,-0.024578854,-0.07684623,-0.008006576,-0.08581996,0.0514777,0.03290817,0.048127227,0.024867773,0.060645744,0.02681309,0.009988084,0.09410909,0.008445352,0.023591924,0.041266374,0.09018317,0.09274018,0.073465705,0.054038666,0.054506093,0.007110905,0.044975538,0.019482255,0.040716052,0.039377477,0.02391512,0.057002515,0.033946306,0.035725206,-0.012721539,4.220754e-06,0.050517157,-0.0076245144,0.006049171,-0.017553769,0.003711857,0.06472095,-0.018171728,-0.026237845,0.026753962,-0.007149875,0.16399656,-0.0035591424,0.02863796,0.012847424,0.013214558,0.15745977,0.0027272142,0.0029756576,-0.0024336241,0.034523904,0.16278532,0.04466164,-0.011819541,-0.047700375,-0.01598575,-0.10060647,-0.00866119,-0.043516334,-0.016363353,-0.047857795,-0.16837528,-0.058039665,-0.030194104,-0.025716603,-0.030433267,-0.27495888,-0.05321522,-0.026091069,-0.0062016547,0.06975729,0.109705865,0.06697413,0.008853447,0.010703139,-0.007373266,0.012384227,0.0026343316,0.0029312223,-0.012609247,-0.023097038,-0.06582927,-0.031638727,-0.009653814,-0.024129286,-0.029102141,-0.047928542,-0.040510744,-0.026157215,-0.09012765,-0.052177787,-0.037147205,-0.039907992,-0.08756544,-0.0467564,-0.033948276,-0.05666125,-0.03258191,-0.045842424,-0.044068784,-0.058702633,-0.10118115,-0.049312353,-0.05740581,0.048810422,-0.0137795955,0.043327153,-0.03572949,0.04669055,-0.004134536,-0.12452208,-0.07204473,-0.15398408,0.018423319,0.1289119,0.048740797,-0.22051302,0.07291799,0.10128917,0.0072282553,0.05876088,0.15749826,0.05859056,0.007635355,0.06365288,-0.015692074,0.1643141,-0.0024043322,0.049974397,0.022348374,0.026936933,0.085216284,0.014542803,0.03795734,0.02542071,0.0012629926,0.1108118,0.007949233,0.015844971,0.054994136,0.09787053,0.24549368,0.09812084,0.05611514,0.03754632,-0.011294893,0.12478942,-0.013617605,0.050961167,0.007998794,-0.02595529,-0.004849449,-0.03803297,-0.007008314,0.030200373,0.0045949966,0.066150084,0.014683306,0.032180578,0.03364663,0.047957346,0.11807887,0.05223143,0.024596304,0.097153276,0.12040867,-0.46477288,0.10415435,0.10472424,0.06651655,0.065524995,0.08610004,0.058661282,0.0625325,0.04549937,0.03226915,0.113123946,0.04755032,0.053042054,-0.059204683,-0.03804536,-0.12950999,-0.043511182,-0.063750066,-0.02751568,-0.084111236,-0.23330024,-0.094623655,-0.01008305,0.0015663803,0.0054920614,-0.031289175,-0.00475771,-0.0017228052,0.0068532825,0.074798115,0.2092202,0.07708001,-0.006297834,0.054101817,0.0423152,0.12064679,0.04446894,0.04241687,0.023712173,0.012655586,0.07197745,0.039362147,0.028746113,0.026300417,-0.00039222836,0.10202755,-0.010316536,-0.001190193,0.071942315,0.069582395,0.16260305,0.063231096,0.07876107,0.020120453,0.016319275,0.07239315,0.00848487,0.02566835,-0.009139121,0.048476815,0.060435742,0.03793043,0.021304395,0.003041191,0.0012078881,0.0065176785,0.0010702312,-0.0015935004,0.015952438,-0.009506853,0.050209716,-0.0031542033,0.019804895,-0.017481491,0.04238075,0.38956103,0.05312541,-0.016352259,0.013437614,-0.015542924,0.047890663,-0.009424277,0.010991424,0.010715365,0.036643893,0.005724624,0.0212527,-0.001891762,-0.026554555,-0.031050587,-0.11122495,-0.029801492,-0.026295444,-0.044567272,-0.06006509,-0.03806831,-0.06269443,-0.04203097,-0.10091803,-0.05877266,0.07841629,-0.041596264,-0.11431247,-0.045238122,-0.053652942,-0.05974661,-0.067014456,-0.04758625,-0.027757347,-0.05164826,-0.103974074,-0.04362744,-0.0166139,-0.071536645,-0.055207472,-0.0074374527,0.031744823,0.034590185,-0.06445138,-0.06952233,-0.01802811,0.043851763,0.033895575,-0.16924822,-0.1398823,-0.02466242,0.14634413,0.14352275,-0.04166563,-0.07986164,0.011651151,0.0729326,0.044212937,-0.07486156,-0.077781454,-0.023532748,0.050026387,0.044432163,-0.0026203245,-0.007647544,-0.0018250495,-0.018561438,0.0012125075,0.044170648,0.04149425,0.04659719,0.04827875,0.04324568,0.0752026,0.04192853,0.27946037,0.05209811,0.06321585,0.037217334,-0.023417488,0.02629415,-0.011822879,0.028990746,0.0064454973,0.0031238422,-0.014074549,-0.008633882,0.015804922,0.024887592,0.02464898,-0.013593465,0.029582575,0.019499894,-0.031355977,0.013241798,0.1816841,0.01312232,-0.039708078,-0.063418895,0.05224627,0.2928071,0.03983265,-0.101153105,-0.052530736,-0.08004393,-0.050912082,-0.062273696,-0.060993195,-0.002535686,-0.009371132,0.008607939,-0.030107632,-1.9297004e-05,-0.028823378,-0.031324252,-0.03611818,0.030973703,0.036199108,-0.044202954,-0.064064234,0.012335986,0.025638983,0.04137838,-0.17435846,-0.17476535,-0.05114582,0.17075966,0.1454778,-0.06515923,-0.073402986,-0.03018856,0.078170374,0.045318417,-0.035807952,-0.049483236,-0.0016631149,0.020564146,0.028211787,-0.030526243,-0.018380463,-0.026587762,-0.021577492,-0.022498965,0.019126918,-0.0001895614,0.08871716,0.0137581825,-0.008004695,-0.07115489,-0.0021992028,0.4440143,0.009945203,-0.059039608,-0.0037445277,-0.04357499,0.0008905828,-0.04952559,-0.014882788,0.0017596846,-0.030885413,-0.034426063,-0.01814808,-0.008100998,0.011381253,-0.004772544,0.007614091,0.011819813,0.0036671553,0.0017645722,-0.00657779,-0.021487221,-0.018394232,-0.0057878494,0.017737716,-0.018939957,0.11429668,0.008779928,0.0037291422,0.02795969,0.05931276,0.22391355,0.04385972,0.024326991,0.033698164,0.03406489,0.16995807,0.024628889,0.042724162,-0.026548818,-0.017632663,-0.044260547,-0.026596606,-0.029961191,-0.021703541,-0.0111342,-0.077708304,-0.0014753938,-0.01828137,-0.057103932,-0.072321475,-0.34407523,-0.06888497,-0.04996726,0.015643656,-0.014214814,-0.13334438,0.012082033,-0.01498346,-0.047154397,-0.02606792,-0.050574273,-0.015851408,-0.06004721,0.030343987,0.030594662,-0.055090874,0.009326965,-0.059448555,0.019726992,0.017931089,-0.0016853064,-0.114767104,-0.062229216,0.10953133,0.2312639,0.09997645,-0.30403644,-0.08596519,-0.009191155,0.004268959,0.015649663,-0.086910605,-0.007967055,0.022093207,0.019390738,-0.06309715,-0.0064284205,-0.055456996,0.041406363,0.024777852,0.025031105,0.005015135,0.05514279,0.0228661,0.035612106,0.055387184,0.023944765,0.04465747,0.055080876,0.04055585,0.22381784,0.057167426,0.060255,0.015401423,0.020984292,0.07567161,0.01552853,0.011088013,0.025481261,0.023918986,0.06093335,0.021532118,0.029958442,0.035066947,0.034457922,0.0479583,0.039393894,0.026787698,0.031774394,-0.0015372168,0.061591893,-0.008671224,0.032212675,0.040325537,0.05073157,0.2663578,0.03564313,0.05270727,0.028083242,-0.0095359385,0.06430948,-0.0005456805,0.022339277,0.042210683,0.03795854,0.040658444,0.026262328,0.05518961,0.03755355,-0.0017317459,0.033898294,0.01437442,-0.028868705,0.04181789,0.03174725,-0.017183572,-0.056858778,-0.036382683,0.057501853,0.22380508,-0.020996362,-0.17865245,-0.1662205,0.07997086,0.043422066,0.0042809844,-0.0990701,-0.052146867,0.019108057,0.0077765584,0.019877367,-0.02338332,-0.01732187,-0.03283727,-0.0459007,-0.12103334,-0.04368019,-0.040087733,-0.0073213726,-0.038288936,-0.15722121,-0.045530535,-0.0066918135,0.040385395,-0.03243009,-0.2500362,-0.051832825,0.024698325,0.052311003,0.09741145,0.1683906,0.091733456,0.049801588,0.05261129,0.017033994,0.13441613,0.027815491,0.05562061,-0.05785434,-0.03390079,-0.059507236,-0.032985955,-0.07974267,-0.051558703,-0.02238369,-0.054979727,-0.030555427,-0.038554728,-0.07371831,-0.055651724,-0.13400911,-0.051755786,-0.07368087,-0.034065343,-0.04019788,-0.06341919,-0.034239054,-0.03245583,-0.04538971,-0.037553243,-0.056937754,-0.052495766,-0.06793596,0.00012599304,0.009850502,0.022438109,0.00458318,0.0030245334,0.026229724,-0.018092185,0.030040532,0.009334356,0.025839709,-0.024698913,0.06127435,0.45749956,0.028142754,-0.026680052,0.0084462315,0.013573423,0.06914472,0.010769861,0.023876071,-0.018557608,0.019297779,-0.018179476,0.020916313,-0.014334887,0.0125838965,0.03593009,0.043596983,0.024012774,0.017423391,0.048614472,0.035658836,0.0589184,0.048002332,0.045852497,0.06898019,0.070940375,0.049625397,0.081515014,0.058187127,0.04446543,0.07110876,0.08706628,0.084620945,0.030338671,0.03092897,0.03608258,0.08827028,0.033257812,0.030635834,0.08540055,0.038672745,0.088345006,0.0443319,0.078511216,0.055920295,0.058946878,-0.07777459,0.049149007,0.06503104,0.096016705,-0.08719212,-0.39515436,-0.06391761,0.07284479,0.04259316,0.057716973,-0.06538726,0.055873815,0.04352819,0.068608366,0.0656931,0.074100114,0.058189206,0.077151835,-0.05885157,-0.072702706,0.025473595,0.023692533,0.083917916,-0.06283224,-0.22546884,0.05267492,0.14423484,0.049152885,0.0056665316,0.049675792,-0.12785545,0.007429257,0.039025582,0.025927365,0.13621402,0.022242628,-0.23794483,-0.06778252,0.10429093,0.03133005,0.0019364916,-0.07745585,-0.07856654,0.057453945,0.014799088,0.087463625,0.04529095,0.029036194,0.020937562,-0.023682788,0.051030874,-0.05934132,0.026685566,0.039410878,0.047835022,0.28276816,0.08366048,0.039069775,0.031028658,-0.004655391,0.024663955,-0.023267388,0.025250018,0.059933916,0.012629442,0.030550912,0.027199255,0.06631446,-0.0025046524,0.006595254,0.02897188,0.011288855,0.00041639805,0.010042518,-0.022010267,0.061849818,-0.009450033,0.00044250488,0.031227976,0.044708103,0.3045146,0.041870117,0.04858668,0.022174612,0.0025529265,0.055538997,-0.0028693974,0.016064137,0.037025668,0.012239158,0.02061218,0.01643183,0.028897896,-0.017584264,-0.019669443,-0.053489476,-0.021089073,-0.023978382,-0.025286615,-0.000928998,0.04179292,0.0027265698,-0.02166617,-0.013469614,0.0753732,0.42967775,0.06835881,0.0006875992,0.005063016,-0.014932364,0.014814526,0.0053734034,-0.001999855,-0.027004898,0.004976094,0.0010643005,-0.027914764,-0.0062448233,0.035797507,0.012263298,0.12762928,0.01702369,0.025401473,-0.0049032867,0.050597876,0.09598446,0.056475654,0.003695935,0.06345576,-0.00419499,-0.47189802,-0.026537094,0.05991918,0.009111628,0.10260301,0.11804277,0.10206801,0.018990628,0.039576083,0.024029464,0.15844947,0.02467215,0.02913633,-0.0616495,-0.027178872,-0.08659816,-0.048392907,-0.04253453,-0.035069823,-0.12499015,-0.35819733,-0.12728545,-0.036883608,0.008579224,0.055029675,0.26726687,0.04789807,0.02442187,0.000105410814,0.018327132,0.23074275,0.014512189,-0.004017018,0.009618372,-0.008174449,0.021439195,-0.007455915,0.0055671185,0.012417257,0.011195622,-0.021639818,-0.025543362,-0.06446579,0.04677421,0.020233892,-0.042793028,-0.034872174,-0.08394694,0.1302763,0.18461634,-0.09246685,-0.11880688,-0.199775,0.027666956,0.054287,-0.061195433,-0.076783195,-0.07389659,0.032256003,-0.010819573,0.0053288825,0.0044566393,0.008029178,0.03057277,0.0410603,0.017824484,0.021528155,-0.044270054,0.066823676,0.059215456,0.039001197,-0.030069843,-0.03997983,0.11300965,0.2076244,0.024124771,-0.22436532,-0.1541931,0.003036186,0.019818716,0.0545659,-0.080653474,-0.023875594,0.018675113,0.037680924,0.0065708905,-0.023252487,-0.031191543,0.017347064,0.034184247,0.095406204,0.030556023,0.016013458,0.03253919,0.07171862,0.1165923,0.07923952,0.020547256,0.10843669,0.117915064,-0.053250767,0.11071356,0.08698726,0.03496438,0.048554383,0.07949981,0.047783416,0.06168629,-0.0011852086,0.035287727,0.050356477,0.036742758,-0.024854124,0.011241697,0.016417861,-0.0014461875,0.018893763,0.013938576,0.028532326,0.04155749,0.049218237,0.04959096,0.026309475,0.03690571,0.024467602,0.34345248,0.03530951,0.035590366,0.023245126,0.023748249,0.038902685,0.022486135,0.032625735,0.024587046,0.025230974,0.028367244,0.0270046,0.018751413,-0.026482016,-0.0012263358,-0.006208226,0.0029629916,-0.0213468,0.022128046,-0.010889418,0.10081908,-0.027348518,0.012575045,-0.062443763,0.13925081,0.3010567,0.12608294,-0.03876853,-0.010706425,0.03522426,0.113756746,0.044407785,-0.009815052,-0.012933239,0.0089489,-0.029307574,0.0008621812,-0.006539583,-0.03123051,-0.006415598,-0.076890945,-0.02050531,-0.02401629,-0.009407669,-0.07762257,-0.34190997,-0.0719624,0.00021474063,0.024576949,0.020123422,0.004257858,0.020794302,0.01941026,-0.012493789,0.07372074,0.2834166,0.06630188,-0.016298197,0.03138742,0.03031315,0.04752078,0.034659028,0.03340462,0.019256502,0.014767021,0.002504535,-0.024532303,-0.05806163,0.059937716,0.049007967,-0.08313634,-0.06756514,-0.048719436,0.099893644,0.24881116,-0.15722826,-0.17151205,-0.10372301,0.020751178,0.04289361,0.01960522,-0.050183736,-0.024200395,0.011836886,0.007312715,0.0072307587,-0.017343424,-0.032155782,0.058351897,0.021135092,0.06266046,0.03069463,0.051000446,0.030626774,0.022379033,0.06681654,0.02209311,0.028369963,0.046592012,0.049376674,0.22139606,0.042079534,0.0513954,0.025032405,0.017345518,0.045680493,0.012095079,0.03807068,0.05588545,0.037228882,0.07105069,0.03679887,0.0523178,-0.03620386,0.012012497,-0.02586703,0.0036628842,-0.04463598,-0.06835541,-0.039427772,-0.07009345,-0.036019593,-0.06379942,0.035458967,0.04543993,-0.016026318,0.031203657,0.032994807,0.042479586,0.08171837,0.27178085,0.07143518,0.051847845,0.017311275,0.014841825,0.16710614,0.027957141,0.013398558,0.052751586,0.0067396387,0.043798055,0.006711267,0.056179866,0.04491006,0.014150508,0.08927449,-0.004851073,0.046830647,0.045786973,0.051128365,0.17697366,0.053055376,0.055115163,0.011472583,-0.01308528,0.06557448,-0.025004327,0.020243108,0.07745844,0.029647857,0.0831698,0.02899924,0.074370086,0.058772266,0.04088354,0.0832901,0.051137816,0.055172525,-0.003972523,0.03764408,0.20534007,0.028951973,0.011490978,0.0829005,0.10559441,-0.031996936,0.10343527,0.062421173,0.03835067,-0.02951169,-0.08687025,-0.0074176937,0.055854887,0.03961125,0.0069304127,0.03664303,0.00025233626,0.019506145,-0.030938506,-0.0049764514,0.033637412,0.023419887,0.021335855,-0.022808129,0.019987047,0.012814671,-0.07341111,0.0016563684,-0.09332177,-0.25123233,-0.036563948,0.24776533,0.03402871,-0.022935525,-0.13820109,-0.10323488,0.13915324,0.08596931,-0.040566683,-0.02654475,0.019680828,0.033646356,0.030692697,0.03858253,0.017661538,0.12819926,0.013206661,0.04326068,0.046079904,0.060191557,0.25491303,0.070620656,0.031335395,0.027677953,-0.03220728,-0.15045843,-0.020176023,0.03188646,-0.0026042163,-0.005557388,-0.025413066,-0.009873584,0.0040959865,-0.020537794,0.0017619208,-0.031751078,0.0075591803,-0.026674032,-0.024419598,0.01747837,0.06889467,0.031552076,-0.02455099,-0.030521497,0.0032610595,-0.01614412,-0.010884538,-0.030136531,-0.02998336,-0.09753594,0.14756724,-0.11619768,-0.04379505,-0.033453725,0.11315721,0.23074818,0.114907295,-0.030539207,0.043825448,0.036628664,0.091499634,0.038684726,0.037477314,-0.07321215,0.011371374,0.018162519,0.00913465,-0.08023676,-0.069511,-0.025519788,-0.04084827,-0.034147054,-0.07337322,0.039771065,-0.012362972,-0.06409645,0.007099837,0.04053408,0.076079264,0.08827104,0.10590384,0.083446234,0.08461335,0.1216219,0.044775978,0.15633596,0.055689946,0.10267943,0.053775713,0.034924217,0.107292295,0.029458888,0.07099703,0.010421127,0.0780961,0.21373518,0.071084805,0.001243215,-0.021185428,0.011184299,0.047926918,0.03125368,-0.0015592575,-0.016474426,-0.06645423,-0.16919124,-0.08159528,-0.01985985,-0.054516196,-0.066574186,-0.1471249,-0.04384604,-0.06100815,-0.0006363988,0.0029281974,0.109845124,0.01322934,0.003520608,0.009879753,0.014047086,0.031353228,0.010704916,0.023788273,0.07928231,0.07055474,0.24540234,0.0851934,0.05085793,0.009844959,0.0016697608,0.108584374,0.0074773133,0.02170664,0.033438094,0.02424103,0.03681641,0.020302966,0.02750519,0.007317275,0.0010726452,-0.013463169,0.009141028,0.009369347,0.020739347,-0.03209714,-0.018164888,-0.03349805,0.009684734,0.00058811903,0.0064555295,0.48106748,-0.005995229,0.016284125,0.02580607,-0.020829901,-0.016498357,-0.012633637,0.022677511,0.017693713,-7.136725e-05,0.0061356127,0.012826234,0.009794056,-0.02548419,-0.031761065,-0.12856719,-0.046854913,-0.046756573,-0.033985317,-0.091010444,-0.23309314,-0.0868077,-0.039671198,-0.030508168,0.00538864,0.046104535,0.0047270954,-0.027366608,0.010682076,0.09140977,0.20338646,0.08053213,0.00077468157,0.041070282,0.015694588,0.13200784,0.019717932,0.0423519,0.01019147,0.009014726,0.06103737,0.012734145,0.027194755,-0.0117515065,0.041072622,0.20102453,0.06430112,-0.015653014,0.033932,0.16601565,-0.49454233,0.16928938,0.029996067,0.0046041235,0.08502277,0.22379872,0.08997696,0.007451862,0.0048367083,0.004593998,0.049077865,0.011765264,0.004760504,0.030171856,0.020959228,0.10125086,0.030656964,0.027377546,0.02278936,0.093402326,0.1401652,0.09567012,0.024592444,0.04530084,0.10298157,-0.52766395,0.088937156,0.06757693,0.0074995905,0.007748693,-0.039602816,0.00640939,0.013036333,-0.006433606,0.005761467,-0.044436365,-0.0029126704,0.0042153,0.020905316,0.035308003,0.07298977,0.042360604,0.014210641,0.013194196,0.033213735,0.056935858,0.044125814,0.014254421,0.038256407,0.10242599,0.11994504,0.105322756,0.04465441,0.04702577,0.051058896,0.08029905,0.0677228,0.031908453,0.016901644,0.024857644,0.066058606,0.022323169,0.021966904,0.020793848,-0.040984344,0.0031495392,-0.019951813,0.025746226,0.039351463,0.014599532,0.066055425,0.009899095,0.027477473,0.03862484,0.06933568,0.29429457,0.07691279,0.033782996,0.0028806627,0.013727568,0.0045720693,-0.008312672,0.008977167,0.033450574,0.012576599,0.012418069,0.011568822,0.035260532,-0.0047869533,-0.029848993,-0.031140476,0.03040424,0.0052606743,-0.073373884,-0.038546592,0.015582204,0.063756816,0.0065193176,-0.20664605,-0.16128302,-0.08628051,0.22784358,0.10205443,-0.014114216,-0.021888196,0.019934356,0.023606285,0.0039838254,-0.038191453,-0.04340367,-0.055983067,0.046992242,0.032627195,0.019276336,0.004719019,0.021830475,0.011508346,0.0065151155,0.00674206,0.029820897,0.033046767,0.034224655,0.002000615,-0.0052087307,-0.026133273,-0.042160094,-0.037415687,-0.009136736,0.02907525,0.05242026,0.16425279,0.025571808,0.036819182,0.02473642,0.059579194,0.26017672,0.069179825,0.02875726,0.017275771,0.021063589,0.04675573,0.02093324,0.03200434,-0.017122,0.031591892,0.04165134,0.04041433,-0.0057303905,0.07766246,0.066884756,0.19744107,0.06741221,0.06192302,-0.0017327592,0.021315306,0.11345221,0.018233359,0.0017644502,0.00994727,0.011822134,0.10829978,0.02730402,0.025020462,0.043890476,0.035532176,0.10328537,0.05603385,0.038244754,-0.010912001,0.06275311,0.029296882,0.03051424,0.0032171104,0.020631522,-0.09261921,-0.4947536,-0.11088526,0.022063166,0.021879487,0.0026756525,-0.09972297,-0.0010084659,0.020589538,0.008550316,0.023435026,0.06292722,7.8715384e-05,0.027750373,0.006303698,0.0789839,0.18681794,0.085665345,-0.0006110072,0.032149933,0.061223805,0.19278687,0.052686483,0.031704918,0.0029688776,0.01041393,0.053340174,0.008179188,0.0026608706,-0.02766484,-0.030327663,0.04051289,-0.021249726,-0.016458943,-0.027789056,-0.007016316,-0.0012316406,-0.020132259,-0.038856804,-0.022164144,0.012387097,0.047194317,0.007960364,-0.026309632,0.038131654,-0.02184178,-0.053762794,-0.03206484,0.035906672,0.19429347,0.031886738,-0.4190921,0.021874785,0.20291543,0.10330048,-0.0131822005,-0.18010543,0.0013522543,0.09840976,0.031656727,-0.053637683,0.0374581,-0.050553754,0.03751879,0.010285862,-0.014699038,0.027684487,0.005082378,-0.016515672,-0.032194853,-0.11279896,0.031813666,0.07502675,0.0014146268,-0.12085697,-0.1891802,-0.12085116,0.20020437,0.11294699,-0.05090636,-0.032929543,-0.040277272,0.019737333,0.04112166,-0.043272614,0.008502379,0.00038194656,0.01942879,0.05742216,-0.017787285,-0.00025667995,-0.069077045,-0.012960233,-0.0029256344,-0.026214026,-0.04831299,-0.025303047,-0.0562087,-0.007902518,0.05533035,0.08060704,-0.28638276,0.069663495,0.049868718,0.00020394474,0.115707755,0.17188245,0.11404502,0.014368057,0.022455946,-0.019166045,0.20598575,-0.015656829,0.009083707,0.004917508,-0.039688766,-0.04607101,-0.0337255,0.0016188622,0.0026426315,-0.061316155,0.04533118,-0.05252411,0.0011471733,0.13956921,-0.15793183,-0.21303532,-0.1776515,0.14293784,0.09654194,0.11595272,-0.17407541,0.11037716,0.10120233,-0.025585398,0.08293925,0.04908514,0.09948933,-0.021976143,0.013565019,0.0066963434,0.055279896,0.0037359,0.019476749,0.009132832,0.005204499,0.09173072,0.01535964,0.0011932403,0.08259043,0.07239576,0.33555573,0.084115654,0.073184706,-0.00048094988,0.010582134,0.07598528,0.01148922,0.009661317,-0.015725823,0.00076788664,0.059918262,0.00870645,-0.018282235,0.023815274,0.021323904,-0.015368983,0.029650569,0.02562666,0.035424486,0.0125189535,0.0835617,0.016788565,0.034422807,0.016753972,0.062234014,0.3151471,0.055051655,0.02030024,0.03443228,0.021566272,0.049672395,0.028965428,0.05040651,0.03357084,0.014381856,0.04046023,0.012652993,0.02707515,0.046710283,0.033012196,0.08976567,0.038406283,0.0430268,0.004945934,0.07321583,0.12441538,0.062433153,-0.0002265796,0.08352208,0.042010635,-0.006231189,0.048677623,0.0987072,0.05155629,0.079039596,0.05931069,0.061983764,0.055132255,0.04016914,0.049334228,0.11436048,0.056691393,0.03286001,-0.051546466,0.029708005,0.11391452,-0.025932997,-0.042718016,0.025165826,0.12637831,0.17646925,0.12609226,0.03781192,0.049333513,0.0792455,-0.012467742,0.07723944,0.026700936,0.010277301,-0.042780727,-0.049865723,-0.04145989,0.00496877,-0.0015468001,-0.014883101,-0.01580131,-0.007919539,0.005831003,0.0241168,0.030700922,0.042129148,0.018186957,0.032334924,0.053787727,0.0026169717,0.031062633,0.013044268,0.045962736,0.10121058,0.08518118,-0.15153778,0.07962477,0.098909825,0.040504098,0.1244849,0.051965885,0.118467964,0.060412154,0.028640807,0.01612018,0.17104454,0.033959925,0.017646894,0.018383354,0.009748936,-0.0072129667,0.0036967099,0.008090913,0.004473135,0.0038815439,-0.18250287,-0.0054658614,0.014772892,0.037089273,-0.23697415,-0.3379929,-0.22736844,0.022412866,0.011119649,0.038060248,-0.23680395,0.038735732,0.011123896,-0.018730387,0.014991358,0.013126671,0.0064320117,-0.018422484,0.022641629,0.012217537,0.0010328591,0.028746039,0.017332286,0.009951934,0.0096260905,0.023457363,0.016961783,0.010116562,0.032104705,0.04768768,0.33203876,0.036709502,0.029513508,-0.007044226,-0.004581228,0.0569975,0.0110946,0.004844241,0.002381757,0.0005069375,0.006529689,-0.0070851,-0.005118862,0.006828189,-0.042642653,-0.111754626,-0.042380095,0.010981917,0.0525558,0.014947243,-0.12655446,0.041738465,0.04646924,0.1388968,0.14618604,-0.28143215,0.16598544,0.13057344,0.05061829,0.038532436,-0.1357282,0.058582336,0.051559042,-0.011837661,-0.05756849,-0.09284878,-0.05676043,-0.005312741,-0.03053005,-0.046545267,-0.034645334,-0.022751756,-0.019685132,0.045357138,-0.043553457,-0.13979405,-0.057463475,0.0264294,0.09737879,0.0037227664,-0.36385977,0.0121085495,0.09976711,0.07063253,-0.0033652782,-0.25057426,-0.012264401,0.07475841,-0.0032203197,-0.032634348,-0.07440573,-0.038239256,-0.02265501,0.03443548,0.0062657893,0.010552138,0.019400686,0.04704389,0.046282023,0.02117747,0.076805405,0.009633153,0.041363537,0.06117052,0.01231572,0.28942004,0.013892919,0.047942076,0.05472432,-0.009890746,-0.08395056,0.029405717,0.012778848,0.019109994,0.014863998,0.101669334,0.0065506697,0.035345163,0.025125563,0.030177727,0.10806518,0.024667926,0.017076492,0.020619899,0.030027807,0.043042473,0.016281713,0.00952059,0.09679818,0.14283542,0.051332086,0.13531926,0.089577675,0.017480195,0.02719926,0.08111579,0.05544582,0.015736893,0.036105454,0.004178621,0.116114736,-0.0029836,0.037812352,-0.027978584,0.018762529,0.018007427,0.011718176,-0.007406831,0.0023760647,0.020665519,0.09330976,0.026103478,0.0009721145,0.0008839965,0.04746647,0.32073355,0.030458614,0.00048705935,0.01046443,0.011640452,0.044702753,0.011917412,0.020694077,-0.011669047,-0.00417912,0.016319096,-0.014576033,0.002984941,0.016118968,0.01810266,0.009757191,0.022571057,0.026224285,0.008239061,-0.0037826747,-0.009204015,0.013919711,0.00019550323,-0.009735972,0.01566606,0.35662186,0.016396716,-0.019166492,0.0066912174,0.0066530295,0.030855663,0.005689949,0.009984255,-0.00471583,0.009457722,0.008128718,-0.00034460425,0.005156532,-0.0050613284,-0.010942012,-0.0029111207,0.006173253,-0.018769354,-0.0050487816,0.010148555,0.009816801,-0.005393686,0.0014412701,0.0051793456,0.023533106,0.4599028,0.016168086,0.029074132,-0.029796883,-0.02714473,0.047929354,-0.030507386,-0.023578703,0.007868033,-0.005175352,0.019977033,-0.0022887588,0.013770461,-0.013784289,-0.02960658,-0.08164492,-0.029774725,-0.0007198006,0.0062725544,-0.01947552,-0.11600794,-0.009526849,-0.014490083,-0.09329221,-0.091725975,-0.14023948,-0.07507664,-0.0806167,-0.015121907,-0.049294055,-0.083074205,-0.058906466,-0.024406224,-0.0036130846,-0.031855375,-0.085933015,-0.017774805,-0.0075600147,-0.06170793,-0.023034006,-0.06789029,0.08093882,0.060672704,-0.05187723,-0.046553984,-0.084409356,0.063668944,0.026896453,-0.15218075,-0.14300263,-0.09072858,0.2002624,0.12343387,-0.034069687,-0.05088301,-0.0940156,0.07811424,0.02540776,-0.060154848,-0.020027086,-0.091993436,0.046969026,0.06857106,-0.03238006,0.040700614,0.041547798,0.034634493,-0.049685776,-0.063746095,-0.011051498,0.088504516,-0.004039742,-0.067884125,-0.15576927,-0.11233777,0.36534816,-0.09078306,-0.14346893,-0.06031152,-0.024086215,0.08117565,-0.017882347,-0.08202237,-0.0023912787,0.006038308,-0.0017334968,0.023808166,-0.0075143576,0.0012982488,0.011000201,0.058389425,0.031791776,0.0031065568,0.007817827,0.023018897,0.10974944,0.015228286,-0.006458342,-0.0026772078,0.046940327,0.38828635,0.0646041,-0.0066425204,-0.098153174,-0.061988056,0.014456868,-0.08431352,-0.092202276,-0.039045498,-0.05954109,-0.1066006,-0.05012241,-0.032729834,0.02695547,0.0005699955,0.0038660057,0.0109990835,0.02415431,0.042314664,0.0032051802,-0.06306735,0.0022382438,0.050144076,0.0749505,0.13037083,-0.063330576,0.13029262,0.04595402,-0.07377133,0.046812907,0.17154239,0.044552073,-0.062420115,0.04048112,-0.04296547,0.14432931,-0.025100762,0.03359905,0.04108741,0.034741625,0.095296204,0.051016744,0.025338477,0.0451188,0.063454896,0.095354825,0.06423905,0.0548376,0.07818368,0.10146609,-0.015162531,0.09659611,0.08212337,0.05144997,0.008102745,0.032985374,0.03457886,0.047878206,0.03434878,0.017610878,0.07567644,0.035223097,0.032514542,0.0059161186,-0.0012589172,0.113695554,0.00050568767,-0.012076288,0.0031968057,0.07502709,0.27877232,0.08092022,-0.0061111003,0.017270908,0.07006252,-0.04189031,0.03629028,0.025320083,0.0039663576,-0.058969036,-0.10142115,-0.040703773,0.0031185746,-0.0072439164,0.0035452545,0.02705592,-0.0020543337,-0.0028370172,-0.07521319,-0.036013678,-0.060995173,-0.030461311,-0.07285934,-0.037788518,-0.016652405,-0.03648065,-0.024144918,-0.03669505,-0.055742204,-0.031560443,-0.04982686,-0.0402053,-0.05619636,-0.033850938,-0.009057936,-0.015573993,-0.002770301,-0.020540714,-0.06085167,-0.046663225,-0.049557164,-0.046594396,-0.07128514,-0.024748176,-0.049841225,-0.05100347,-0.03185314,-0.046167642,-0.02652182,-0.06155011,-0.08677696,-0.061459333,-0.022893935,-0.11039314,-0.10253712,-0.019184425,-0.10055974,-0.11286226,-0.03130897,-0.024707496,-0.058719404,-0.019001536,-0.041519538,-0.021150053,-0.0026326627,-0.03303829,-0.014279291,-0.028551906,0.039649904,0.035037756,0.042232454,0.03252299,0.03882411,0.021673014,0.017374337,0.056023262,0.024510905,0.019038692,0.01684168,0.056879718,0.33673504,0.04636228,0.029011503,0.021908304,0.008360991,0.074059755,-0.0067905486,0.04449731,0.03593117,0.010455772,0.027866483,0.005829528,0.030612022,0.03945242,0.049118966,0.1873823,0.04409914,0.045910403,0.03775376,0.04992516,0.19978958,0.03729312,0.020378936,0.11685297,0.01760456,-0.07100863,0.053949393,0.11157179,-0.01888293,-0.034798294,-0.09047234,-0.024532124,-0.003329873,-0.020972043,-0.0138786435,-0.029738538,-0.01680144,-0.029571801,0.014263973,0.01289463,-0.021414518,0.029668577,0.023616448,-0.017262816,0.05497177,-0.047674388,0.04409574,-0.021868467,0.24695317,0.15964979,-0.12697142,0.17746739,0.2436055,-0.022535294,0.027792811,-0.0067828745,0.0319373,-0.009269945,0.03447757,0.048997104,0.0012567043,0.05172261,0.018629888,0.0046768486,-0.0066919923,0.014478777,0.016677558,0.0041930377,0.016325533,0.023014277,0.1290812,0.0100002885,8.995831e-05,0.02407527,0.09281695,0.24954927,0.092341356,0.029679703,-0.0059868693,0.01983268,0.08010411,0.033933833,-0.016306963,0.027908355,0.017928421,0.010920465,0.02500981,0.03207414,0.04566969,0.022986934,0.0023715794,0.019074947,0.042672515,0.03219369,0.032716736,0.06834624,0.05327699,0.022235854,0.028931983,0.09154344,0.20810798,0.093503684,0.026056092,0.009534895,0.029644102,0.11229405,0.035231464,-0.0061835945,0.01514677,0.004833944,0.045405157,0.0024707913,0.03251499,0.07242862,0.056569546,0.027924001,0.054172616,0.076571584,0.0025422722,0.039168,0.05294428,0.058115803,-0.0147975385,0.08480662,0.053162344,0.19791806,0.03386794,0.09417947,0.038908392,0.034297705,0.06735501,0.037001505,0.035820715,0.054155797,0.04107774,0.07853152,0.055124044,0.029528163,0.010730982,-0.0061538815,0.044479445,0.005365193,0.027162284,0.028605327,0.039376903,0.26981914,0.029142693,0.012973309,0.0177789,0.06059501,0.0963034,0.08160724,0.0064440668,0.019605875,-0.027322501,-0.045041054,-0.033161484,0.021868736,0.0007452918,-0.0057970565,0.008896194,0.018291771,-0.008980259,0.037818164,0.01915507,0.004968833,-0.016198069,-0.024929307,0.015414089,0.046104573,-0.01164785,-0.06123285,-0.028519124,0.11036563,0.18122968,0.0052044094,-0.17646468,-0.15531185,0.05804764,0.09036053,-0.019286603,-0.074659675,-0.07624787,0.018667802,0.023771983,-0.030653618,-0.027505599,-0.030117825,-0.019855555,0.038134933,0.08775911,0.03760898,-0.00899896,-0.012356952,-0.015877485,0.05097416,-0.0067082886,-0.014434949,0.022290122,0.07827255,0.22533682,0.07936527,0.011161387,0.02703835,0.028256707,0.12422621,0.039753467,0.0023813397,0.010112774,0.020290345,0.07847451,0.015712798,0.020879995,0.010867752,0.02084449,-0.0065889955,-0.029885978,-0.022272661,0.030495405,0.07725292,-0.07756218,-0.10578418,-0.059199095,0.07289798,0.16699149,0.019882575,-0.12985334,-0.09470483,0.026764601,0.072659045,0.05867827,-0.11628246,-0.056311987,0.052499548,0.026584357,0.005131483,-0.061263252,-0.039242893,-0.017171338,-0.030017056,-0.09666507,-0.03624648,-0.030149668,-0.059619606,-0.032811686,-0.0599463,-0.018497638,-0.050983816,-0.086768985,-0.02338314,-0.053641006,-0.029530406,-0.08621952,-0.02899757,-0.009360842,-0.029806033,-0.020064011,-0.02494654,-0.059172906,-0.04754296,-0.06535432,-0.055945635,-0.048394203,0.0071466267,0.04196419,0.09659463,0.044400454,0.007028207,-0.011524379,0.024719335,0.20775956,0.042975396,-0.01019147,-0.00044036657,0.014888354,0.19105947,-0.00037235022,-0.013748556,0.010262132,-0.010322571,-0.12064451,-0.028944582,0.0077044517,-0.01034981,-0.015290208,-0.052967727,-0.0044112615,-0.0051707784,-0.033717036,-0.0151108615,-0.020831645,-0.012763783,-0.03748691,-0.045787666,-0.10578959,-0.21406154,-0.10770884,-0.03901738,-0.039841056,0.004810261,0.114613,-0.009863511,-0.04291504,-0.017599046,0.091890655,0.21631406,0.09282297,-0.0021926612,0.045841858,0.04749286,0.033416554,0.033659533,0.043849647,0.031891465,0.0056726336,0.017687136,0.0042623878,0.02438283,0.007969394,0.009250373,0.0691514,0.016921192,-0.0009047985,0.015539885,0.079885334,0.29313192,0.081617,0.0079014,-0.012574494,0.003636241,0.05664864,0.003831178,-0.00021487474,0.010736991,0.0074712336,-0.021550827,-0.0022746623,0.035609663,-0.005612433,0.020889103,-0.00979628,0.01984331,-0.008806676,-0.022801995,0.0028219149,-0.06416426,-0.004605949,-0.018549785,-0.11583782,-0.16552214,-0.17606379,-0.16529483,-0.10280303,-0.032586083,-0.010087945,-0.07214275,-0.017833486,-0.034001827,0.0017422289,0.01031889,-0.077827364,0.005894363,0.009690613,-0.018216044,0.012089126,0.0052868947,0.0067634378,-0.008777097,0.018720442,0.025071308,0.036959067,0.026789933,0.0039085597,0.0043459833,0.02086024,0.4684531,0.015620489,0.016471058,0.0125888735,0.042745814,0.031297535,0.046519876,0.0118842125,-0.008965224,0.024356276,0.0067385435,0.024226338,-0.011215338,0.025025904,0.040786374,0.15314025,0.044981554,0.030111834,0.02080214,0.073264614,0.21732007,0.08427566,0.009330153,-0.03156835,-0.006255001,-0.060781956,0.0031182915,-0.02490452,-0.016836524,-0.064460695,-0.20648137,-0.07570355,-0.023252517,-0.070448935,-0.06929968,-0.1914873,-0.074544504,-0.073484756,