1,192,-0.5505163,-0.24886666,-0.8266258,-0.02111393,-0.045696955,-0.047486145,-0.23106015,-0.32599846,0.35219777,-0.12648962,1.5039302,0.3357703,0.17420495,-0.27900022,0.70512843,-0.21529466,-0.04058442,0.16882467,0.32369345,1.1260562,-1.1536887,-0.3073404,0.7771014,-0.2107971,0.26559365,0.6314362,-0.08671098,-0.055577897,-0.49272817,-0.22154668,-0.11677848,-0.47201324,0.25334564,-1.6521224,-0.4085896,-0.0317524,-0.09629155,-0.032261707,-0.110238016,-0.24898821,0.14176443,0.22632238,-1.1891744,-0.98961145,-0.4072977,-0.3933432,0.98743606,0.47712877,-0.44619703,-0.47595057,0.36896902,0.02665042,0.08171289,0.16091163,-0.20680611,0.41699848,-0.87270504,0.46229875,-0.60839003,0.44872254,-0.50436777,0.38730744,-0.61859745,0.6954341,-0.6427408,-0.67082196,-0.01746882,-0.064485945,0.5152149,0.70929736,-0.14520037,0.08483278,-0.1438007,0.22444628,-0.34734565,-0.46049294,-0.47259274,0.1439942,0.4615653,0.044324763,0.018066525,0.36722627,0.7327003,-0.43976495,-0.31798005,0.3061239,-0.018132137,-0.14135244,-0.46034405,0.07198247,0.50726366,0.7623058,-0.08635659,-0.17255268,-0.6186405,-0.64520186,-0.12230707,0.20725329,0.47608602,0.015660284,0.49064058,-0.30120423,-0.302138,0.05866259,0.47281694,-0.19722964,0.114228405,-0.098301336,1.6050705,0.045647133,-0.047911126,0.44943908,0.14612934,0.40886575,0.33124334,-0.2840829,-0.114864975,-0.51248914,0.11179287,-0.33515632,0.3751107,0.08876965,-0.030587804,0.39008853,-0.13999593,-0.1506473,-1.2659758,0.0043302816,0.12866512,0.027566707,0.17087045,-0.30123731,0.24323118,1.1318578,-1.0104662,0.71002585,0.6262754,0.9222659,-0.46277702,0.30426228,-0.4109463,0.17639792,-0.058015626,0.17052627,-0.45351824,0.94383985,0.39876968,-0.21430844,-0.39036107,-0.1554653,-0.4791898,0.8417871,0.18368804,-0.32431692,-0.14334092,0.18358517,-0.8089822,0.06995968,0.9666353,0.521208,-1.8231473,-0.17778015,-0.05527783,0.13632579,-0.7933351,0.4919112,-0.31705877,-0.65359855,-0.568727,-0.9681694,-0.119753055,0.31202167,0.28503743,0.26988778,-0.3372862,-0.2507641,-0.693955,-0.28661045,-0.55091685,-0.2267032,0.13482161,0.12271079,-1.039235,0.3021417,-0.19319825,-0.03778569,-0.3243837,0.46882847,0.4067807,0.7565763,0.16827795,-0.3252783
