1,672,-1.2411711,-0.93556607,-0.1391027,-2.0624652,-1.0833386,-0.6262479,-1.407901,0.31849584,-1.741281,-1.3396255,-0.7173378,-0.5884783,-0.13657492,-1.1210808,-1.0087426,-1.7619073,-0.6966653,-0.90014523,0.08388496,-1.0485468,-0.09396853,-0.93083024,-0.8680918,-2.5538917,-1.5076183,0.65750825,-0.47270432,0.19389607,0.5800452,-1.5514328,-1.3690459,0.73139006,-1.1699846,0.39966613,-0.5690738,-1.9470578,0.05394644,0.078133814,-3.0582747,-0.67518145,-0.019190822,-0.78472793,-1.6769531,0.43333235,-1.147052,-0.042387463,0.7561225,-0.53762096,0.784933,0.081619196,-1.2091748,1.0402703,-1.4772146,-0.8040411,0.42100915,-1.7431959,-0.24877039,0.38305452,0.04090063,-1.0721531,-0.08379841,-1.5196819,-1.3329751,0.039251465,-1.7490066,0.4833458,-1.2187216,-1.4992533,-1.1332519,-2.1303442,-0.68447113,-0.084140375,-1.4310346,-1.5025356,-1.8292168,-1.0968331,-0.1719985,-1.0532526,-1.6694974,-0.7695426,-0.20108666,-0.48948604,-0.38985258,-2.0618804,-2.1235802,-1.9685493,-0.1096686,-0.63716835,-2.3986263,-1.0652626,-0.067281485,0.17898037,0.14300393,-2.3025002,0.2782822,-0.30664462,-1.728345,0.19350415,-0.018486643,-0.6100286,0.15694822,0.2211953,0.5335163,-0.2729694,-1.6493939,-1.1848006,0.6034251,-2.1678667,-1.896083,-1.0469472,-0.49895284,-1.4085212,-1.1855952,-1.0071332,0.67073476,-1.2286731,-1.019308,-1.6418881,-0.41940913,-1.615785,-1.2072508,-1.9170003,0.049672775,-1.3120447,-0.064886175,-1.0100472,-2.3586195,-1.6338915,-0.32380706,-1.4313413,-1.0651103,0.31184983,-0.22847718,-1.7059469,-0.32958317,-0.10490187,-1.4119114,-0.49050868,-0.45162746,-2.2069497,-3.4435647,0.3657798,-2.6788633,0.4023111,-1.6875759,-1.5671179,-0.4922993,-2.7516382,-1.4020725,-1.675433,-1.4415135,-1.2275637,0.41252378,0.3454598,0.2108333,0.4018054,-1.6349216,-2.4775414,-1.6907629,-1.0087229,-2.0721128,-1.940486,-0.94373846,-0.15124944,-0.25166467,0.12188843,0.11166229,-0.5914588,-0.80574816,-1.6940461,-4.3395724,-1.8831742,0.82811725,-1.0945286,-0.73621315,-0.67383814,-0.9629271,-1.5510231,-1.0638508,-1.5406644,-0.7724738,-1.3287077,0.14742403,-1.4016764,-1.4295963,-0.38136977,-0.2740805,-3.0767486,-0.7189688,-1.5763378,-1.4314692,-1.5744739,0.2347655,-2.7343943,0.15082671,-1.1966625,-0.8313057,0.22718878,0.07578021,-0.598344,-0.2807661,-1.6176229,0.017679136,-0.0945986,-1.7246048,-1.4057285,0.3991685,-2.4986649,-0.5486665,-1.5615219,-1.1716366,-0.58492917,-0.83198214,-1.7813148,-1.5985687,-1.0284543,0.3716827,0.6258617,-1.0126679,-0.11607433,-2.0747616,-0.2691319,-0.947045,-1.3399712,-0.20214798,-0.3096325,-1.743303,-1.455438,-0.14481089,0.19632208,-0.5708209,-0.30074626,-0.351469,-1.0934789,-0.15612267,-0.2261093,0.18597329,-0.3253303,0.3926256,-1.1574794,-1.1721159,-1.1998137,-3.5723875,0.934814,0.2906379,-0.5685518,-0.0538002,-1.3716042,-0.79457676,-0.18650414,-1.2872691,-0.9643403,-0.17111506,-1.4557294,-3.4999607,-1.074184,-2.1925976,-1.4910449,0.6967245,-1.4943538,-0.24254656,0.24991566,-0.82246363,-0.42044038,-1.0358262,-0.028298786,-0.22128186,0.050385065,0.15148546,-0.9836772,-0.36925918,0.16468698,0.18435872,0.097694345,-0.20103909,-0.4958663,-0.86537296,0.22763847,0.3512524,0.07566475,-0.58662367,-0.3281186,-0.34948292,-1.6727349,0.54137665,-0.037498973,-2.3964047,0.42863074,-0.94510597,1.3867797,-1.0111475,-1.162497,-0.8835817,0.09985215,0.30355102,0.025094368,-0.39351827,0.69064313,-0.6598583,-0.20922956,-0.6516891,-1.1755625,-1.1937389,-1.3690964,0.012370005,-0.105445825,-0.91903114,-0.89651126,-0.45183328,-0.8515195,-1.484258,-0.74546725,-0.83630854,-1.1067507,-0.39975998,-0.9423258,-1.1874691,-0.6687395,-0.819803,-2.4701366,-0.91486335,-0.5002168,-1.3687297,0.74366903,-1.0565975,-0.9004831,-1.7303201,-0.7452049,-0.5257024,-1.2415911,0.04560398,0.10156856,-2.1002712,-0.46784806,0.47385448,-0.6109741,-0.30627042,-1.2978116,0.3020086,-1.9477913,-0.7900593,-0.42260224,0.45863855,-1.7867907,-0.27286422,-1.5117849,-1.3395611,-1.3023564,0.5632806,-1.3388134,-1.3011785,-0.7059392,-3.5649602,0.43423727,-3.3748298,-0.8809689,-0.9625311,-1.0377048,-1.5073047,0.81967175,-1.9409195,0.47232804,-1.9406008,-0.41625142,0.10258201,-3.1165214,-0.45484662,-1.3384113,-0.9131747,-1.1406474,0.012282639,-0.48256746,-0.16790381,1.0321681,-1.826144,-2.0879986,0.46588454,-1.8524454,-1.6313944,-0.084327966,-0.49877638,-1.0639421,-1.2639731,-0.4841919,-0.35070047,-0.88617086,-1.4665232,-0.823043,-0.22595869,-1.2622631,-1.2208427,0.7664588,-0.5219414,-1.7131796,-1.3152444,-1.0469198,-0.3457177,-1.3626271,-0.8083431,0.76530105,-0.4472561,-0.51634413,-0.21956353,-0.16075495,-0.09755844,0.30913606,-1.7157602,-1.458472,-1.0061493,0.56599724,0.13023515,-0.63134265,-0.040066224,-2.0911405,0.30800602,0.5769185,-1.2926902,-0.043107435,-0.6638502,-0.25972304,-0.5387707,-0.73310655,-0.14099096,0.35820946,-1.491879,0.28054526,0.5927291,-1.0108852,-1.4117913,0.67080647,-1.0516833,-0.35791802,0.26147264,-3.4258757,-1.542513,-0.34344414,0.5412754,-1.7314541,-1.3879358,0.2627699,0.7668114,0.13737291,-0.58082515,-1.1335233,-0.10503078,-1.0490869,-1.2076306,1.3082215,-0.78261054,-0.81648076,-1.4559362,-0.8843755,-2.756505,-0.4521596,-0.07741361,-1.2738913,-1.3982003,0.3056938,-1.9109789,-0.4331936,0.016311502,-0.044296265,0.33786064,-1.6644197,-0.3758974,-1.0825758,-0.75504404,-0.2563957,-1.2170291,-1.3004205,-0.7491476,0.08894439,-0.99477774,-0.11342876,-1.4787807,-1.6130401,-1.2937678,0.41718718,0.71053934,-1.0995837,-0.61590344,-0.20846143,-0.8121011,0.3194835,-1.3902948,-0.64767253,-0.36627212,-1.1929858,-2.4971943,-1.1129216,0.061594825,-0.6517261,-2.0872529,-0.4914184,0.02747826,-0.21048419,-1.558569,-0.33725417,-2.4705236,-0.26442632,-1.3068769,0.13610378,-1.9606853,-0.08491637,-1.0361831,0.40625167,0.64147294,0.12433374,-0.007781708,-0.8783408,-1.4302824,-0.77567786,-2.5131068,-2.0865028,-1.0154927,0.5879676,-0.46826717,-0.018437099,-0.19079526,-0.7478665,-0.8205381,0.30551323,0.22921415,-1.0281106,-1.1275952,-0.48715279,-2.1773148,-1.2563553,-0.41576758,-0.26331562,0.6571404,-1.6168745,-0.19854262,-0.22457267,0.48568282,-1.3180803,-0.33662096,0.3034797,0.51344097,-1.6175771,-1.3363597,-1.2846214,-1.1992487,-1.3164464,-1.1800792,-0.960328,-0.34198,0.79693615,-0.38451263,0.10408488,-0.14420062,0.09706387,0.37858337,-0.6928485,-0.57130396,-1.4790596,-1.19992,0.13001479,-0.5886304,-1.023191,-0.48958305,-1.5438399,-1.6192466,-0.05981457,0.23509729,0.34894606,-1.103091,-0.25885934,-1.5793048,-1.5718644,-0.66869354,-0.30155507,-0.43225265,-0.8444379,-2.460315,-0.14679554,-0.9015572,-0.44967383,0.6175016,-2.0705616,0.83286273,-1.0417773,-1.2962688,0.5340786,-2.1085627,-0.6277492,-1.5553746,-1.2218748,-0.95213896,-1.2398889,-1.4680176,0.08825917,-1.0857131,0.17057145,-1.2767589,-0.33321217,-0.5759576,0.52323455,-0.33682394,0.7812722,-1.2163934,-1.765884,-2.1228824,0.105350085,-2.1204169,-0.37739718,-2.1443968,0.11547403,0.53700924,-0.94270015,0.5554344,-0.34407502,-1.4855033,0.66604775,0.9369292,0.5525149,0.36203626,0.022697678,-0.07424149,-2.1454425,0.33870637,-1.9914538,0.6575102,0.6755528,0.13171494,-0.9203942,0.3823771,-0.998066,-1.3344114,-0.5327093,-2.4279616,-0.8011144,-3.049181,-1.2093027,-0.20135716,-1.3230885,-1.4208992,-1.328711,-0.44653082,-0.48731408,-2.3504417,-0.21810274,-3.3834486,-1.1841803,-0.3376959,-1.3192418,-1.6493294,-0.06078912,-1.7370062,-1.4075292,-1.7129676,-1.3903259,-0.32486126,-0.24731268,0.7921288,-2.1921072,-4.5883894,-1.2112232,-1.0065504,-1.0614003,-0.6961055,-0.11138227,0.33373654,-0.939704,0.00042085303,-0.25138217,-2.3993354,-0.9926785,0.08262425,0.26071933,-1.3507746,-0.46666017
