1,240,0.029543983,0.0108791115,0.88819414,0.12396101,0.115255274,3.134937,1.2558595,0.031705715,1.9344438,0.6057014,0.9317603,0.22648564,-0.48432463,1.9217461,-1.0176157,-1.5489144,1.84404,1.7658685,2.4269764,1.8072832,0.68487686,-0.8996377,0.018349791,0.037420165,0.48576012,0.08051335,1.2519327,0.59232795,1.1389773,0.7873638,0.8655895,0.5589897,-0.058350667,1.5813576,0.32703692,1.0729872,0.46209157,1.1083827,0.27075773,-0.99335104,1.0378892,2.2764106,0.17651883,2.2557485,-0.91318107,0.18620808,0.8507159,2.0550942,0.91597116,0.47689953,0.0020535905,-0.89292353,1.3726851,-0.0040972726,-2.5769522,2.2983449,-0.33003598,-0.025274904,0.045420356,-0.08634665,0.0052874065,2.084225,-0.018251657,-0.3316976,-0.33792236,-0.43061408,-0.021099936,1.2551454,-0.025767017,-0.3216124,0.042909164,-2.8746362,-0.10325286,0.5502111,-0.033961397,0.06723055,0.99817467,0.032955736,0.7716647,0.90052164,1.5615538,0.28278553,-3.1677904,0.28009644,1.6376626,0.013436181,-0.5742448,0.029319089,0.12359175,-0.006197406,-4.3924584,0.24609566,-0.6465937,0.055212762,0.9998489,1.6300944,0.4581107,1.188935,1.5568516,-5.0576496,-0.00019024336,0.67770386,1.2486632,1.0360012,0.30804878,1.5923129,1.4712162,1.522818,0.23160888,0.8205213,0.60343665,-0.015695455,0.9346284,0.972511,-0.07572403,0.017676532,-0.02389567,-0.48176667,1.404897,1.4555833,-0.16421099,2.068575,1.0117365,1.2043188,1.3256782,1.218537,0.33262128,0.10634698,0.4703721,1.6062447,0.10489169,0.16451699,1.2776811,-2.4981353,0.06252593,-1.2953722,1.1442094,0.92840016,-0.16642256,0.2649428,-0.8368486,0.020373331,1.2887014,-1.4924442,-0.089275695,-1.1943384,-0.21226576,1.794432,1.7470474,1.7109804,-0.0022650089,-0.44135216,0.019797528,-0.65219796,1.1226336,-0.077575214,2.7685697,-0.943705,0.26577273,2.8061154,-1.7762759,0.7700528,0.45275086,0.034705654,1.3336341,1.6747162,0.06666052,-0.16795327,-0.1606868,-0.3511526,0.0041447235,-0.6465956,-0.33244404,-1.002715,-0.07136472,0.0889011,-0.23113427,2.875372,0.86405116,-0.44781926,0.47428545,-0.58313066,0.1288252,0.08266623,1.0301459,-2.3767917,0.25330833,1.4170423,0.010808611,-0.4268424,-0.17654347,1.276333,0.91425294,-0.32955348,0.1861354,1.3457525,0.0480231,2.2281723,0.2440369,-1.6346345,-0.36240238,0.05492113,1.2294143,0.026650138,0.10597905,1.6385686,-0.4910909,-0.3715668,1.2766435,0.06114358,-0.32596937,-0.9314374,-1.4713733,0.12890442,-0.14686833,-0.23466294,2.0296278,-1.1608578,-0.59706205,0.9577195,0.6988593,-0.6956579,1.1142443,1.0948601,0.9141815,1.5697947,1.0354897,-0.22497515,0.7488261,0.53763336,0.01263968,0.28863177,-0.20779331,-0.00992504,1.1408159,-0.024887534,1.0122296,2.1030557,-0.20994088,0.49746713
