4,8,32,1,1,-0.014507242,-0.100206375,-0.021837562,-0.115026176,0.07781607,-0.08090055,-0.0318529,-0.13986601,-0.14829025,0.06418346,-0.17885715,-0.047071546,-0.021586984,-0.009517521,0.006194651,-0.047683805,-0.021072209,-0.5680856,-0.037398413,-0.039555266,-0.02570349,0.062451035,-0.058294028,0.11589077,-0.014552981,-0.004062712,-0.07526085,-0.028100498,0.0023876429,-0.024864048,-0.030819118,-0.018889636,0.0091035385,-0.078759976,-0.038368315,-0.08822596,0.086897135,-0.083873756,0.0048763454,-0.17171207,0.094358,0.031711966,-0.18615088,-0.061113417,-0.089677215,-0.04029894,0.036005788,-0.06282699,-0.010598913,-0.2809717,-0.011591539,-0.027108312,-0.0023204088,0.16233483,-0.042072892,0.082773924,-0.014161371,0.007843316,-0.05745539,-0.041282713,0.0029524565,-0.02424036,0.027524412,-0.036793888,0.009388208,0.015007049,-0.048638247,-0.2530269,0.45380822,-0.27150702,-0.17397451,-0.25089204,0.0676316,-0.5479668,-0.030530512,-0.062322125,0.03559086,0.006615624,0.034800008,-0.16675615,0.030928433,-0.048741937,0.065119304,0.028865844,-0.15031949,0.117539436,-0.1356874,0.21007602,0.009371936,-0.014059395,-0.10891527,-0.09070961,0.0035994053,0.04928404,-0.006640002,0.021630894,0.074534476,0.09585863,0.117218554,0.07175842,0.07977742,0.08999577,0.13936439,-0.39349803,-0.46997538,0.07840875,-0.24355774,0.03730762,-0.37443906,-0.07372478,0.115844175,0.065635145,0.051021546,-0.10302265,0.07387793,0.058082223,0.11624175,-0.23131943,0.039643943,-0.101894915,-0.026173294,0.07011211,-0.0014702827,0.024421126,-0.0016682148,0.047921836,-0.023574004,0.06543635,-0.05121053,-0.0643352,-0.25662467,-0.19293937,0.24016345,-0.16502559,-0.017210454,-0.055473506,0.091080785,0.049794793,-0.44945458,-0.20747972,0.4180822,0.27196398,-0.17433232,-0.19001389,-0.10406926,-0.36147034,-0.093204245,-0.03977233,-0.075551875,-0.37879905,-0.22563332,0.20476958,-0.023292288,0.011457205,-0.15375131,-0.059827633,0.010246091,-0.13573228,0.1069884,0.007108927,-0.09861945,0.078197,-0.18159983,-0.036931932,0.17410748,-0.059500635,0.019378453,0.05099964,-0.8446914,-0.012318294,-0.32915413,-0.15495381,0.24559885,0.019853055,-0.10279417,-0.03849058,0.034276187,0.012123883,0.12712552,0.0031440258,-0.07975191,-1.1878772,-0.06384349,-0.0226084,-0.00060129166,0.078712285,-0.067358315,0.015424162,0.011245936,-0.076070696,-0.11475375,0.072971165,-0.063883305,-0.36354104,0.13650668,-0.46728086,0.1306703,-0.14083338,-0.12973633,-0.066075295,-0.06673193,0.13933364,0.047835022,-0.06939596,0.03446442,-0.008554637,-0.030245304,-0.2292391,-0.23310947,-0.024316505,-0.39815006,-0.061477005,-0.04198587,0.06275846,-0.33043617,0.14947061,0.0022815317,-0.048266858,-0.3250935,-0.06818135,0.0022532046,-0.08889511,0.059659693,-0.065650575,0.13650846,0.06387839,-0.31067082,0.19768459,-0.24474609,0.14660959,0.19034685,-0.15225178,0.19079275,0.12507296,-0.5994396,-0.18145113,0.2749817,0.20516606,-0.0009714365,0.08666975,-0.06966636,-0.3550858,-0.019569457,0.025926694,0.056830525,0.15850627,0.060302973,-0.047124147,-0.032335564,-0.06122613,0.07778497,-0.002934575,0.009815812,-0.08457711,0.08071542,0.00800579
