4,10,240,1,1,-0.019032389,-0.0013739765,-0.019007325,0.0006709695,-0.0070854425,-0.015424117,-0.015898883,-0.0034131706,-0.0039884746,-0.0007337332,-0.012990415,-0.019358188,-0.0054824054,0.008307487,-0.002939865,-0.04238665,-0.0056450963,-0.0011925399,-0.007681221,-0.015579879,-0.01578641,6.54906e-05,-0.008724697,-0.031046703,0.0008098185,0.025028639,-0.006064594,-0.008214235,-0.01932007,-0.00035706093,-0.012782395,-0.018594861,-0.0071612,0.0020632446,-0.01503548,-0.053175718,-0.009977207,-0.006924689,-0.004371345,-0.0040940642,-0.027202249,-0.027011745,-0.013313115,-0.03918034,-0.05325091,-0.008735657,-0.026506424,-0.006605983,-0.011218995,0.006516181,-0.005439639,-0.008440556,-0.042426765,0.0015167594,-0.00558801,-0.009764135,-0.012567341,-0.04546138,-0.0027433336,-0.009492129,-0.007595308,-0.009734184,-0.04884225,-0.036417536,-0.008988023,-0.035481915,-0.040100306,0.008126408,-6.0923398e-05,-0.014802828,-0.02245614,-0.019682653,-0.0073983073,-0.011089828,-0.010401882,0.007620342,-0.0060280263,-0.019147046,-0.000510633,-2.026558e-06,-0.009388819,-0.0068288743,-0.017037503,-0.0052110553,-0.0027735084,-0.031113833,-0.024360359,-0.0075649396,-0.040978655,-0.01365447,-0.0031064898,-0.007369846,-0.02927053,0.0050005913,-0.027464792,-0.0076846182,-0.0098633915,-0.0065461397,-0.039105356,-0.024758905,-0.012869954,0.0014612526,-0.0017597079,-0.022041455,-0.019425243,0.00092336163,-0.014552325,-0.0100316405,-0.005139217,-0.012518048,-0.007524386,-0.011880934,0.009861942,-0.033908665,-0.0131800175,-0.019819478,-0.010702625,-0.015311599,-0.0047845207,-0.0058773756,-0.01329004,0.004832085,-0.029067129,-0.00062966347,-0.004323393,-0.01982984,-0.011840582,-0.0019537508,-0.014898896,0.0028453222,-0.021315787,-0.01655513,-0.0040447414,-0.01680094,-0.019696683,-0.0017220229,-0.028131515,-0.019000411,-0.013278961,-0.016966224,-0.055215895,-0.010553967,-0.0085304305,-0.03964922,-0.020972878,-0.03514269,-0.009929747,-0.0039444566,-0.0004273206,-0.0032501817,0.006202638,-0.009634644,-0.0050901175,-0.014723659,-0.016279422,-0.020800352,-0.0032964647,0.004648179,-0.049926877,0.0016412139,-0.010251626,-0.0014619678,-0.05716209,-0.028217703,0.014792018,-0.018611431,-0.0053014457,-0.0016643181,-0.0009279251,-0.0028620064,-0.002892673,-0.010300219,-0.0106166005,0.008407563,-0.03677398,-0.012443649,-0.009178698,-0.03369063,-0.009203255,-0.001102969,-0.0025780797,-0.05529163,-0.028047025,-0.0055912137,-0.012344778,-0.018683195,-0.01667875,-0.014992952,-0.008028865,-0.0069681723,-0.022567242,-0.0015479177,-0.015864253,0.02618128,-0.0018571764,-0.042867333,-0.019670647,-0.014137341,-0.017174304,-0.037741274,-0.0012495816,-0.009216905,-0.033038765,0.0021259785,-0.012469351,-0.025892884,0.0015715957,0.0009739101,-0.03459689,-0.0035850406,-0.0100899935,-0.014509022,-0.00882335,-0.028369263,0.0018113106,0.0097332,-0.030214787,-0.010060825,-0.0060313493,-0.007966042,-0.038971554,0.012456179,-0.00931561,-0.0013492107,-0.0054381043,-0.11023046,-0.0047084093,-0.027103841,-0.044559658,-0.05183636,-0.021800771,-0.026636966,-0.04065819,-0.001327604,-0.0022416115,-0.006812766,-0.019569337,-0.012041613,-0.020393312,-0.008895025,-0.037950054,-0.074045606,-0.03228879,0.011912823,-0.0042625964,-0.03749326,-0.028378546,-0.0023576617,-0.04109286,-0.0074546933,0.042142957,-0.03134267,-0.016260508,0.026316047,-0.03109029,0.09263877,-0.0014917254,0.0039161146,-0.0282057,-0.023064852,-0.013437986,-0.00038018823,-0.03133601,0.026103862,-0.0030300915,0.07138306,-0.0017774999,-0.020324498,0.022346497,-0.026641607,0.010565549,-0.024877846,0.021467818,-0.062258095,0.03532788,-0.07755398,0.059537917,-0.011488229,-0.012326896,0.0037664026,0.03627056,-0.0112400055,-0.082642555,-0.10463756,-0.01406914,0.027801145,-0.048252106,0.024882913,-0.009010941,0.05898056,0.05763197,0.0093547255,-0.09452242,0.059020154,-0.027729109,-0.0194017,-0.01896298,-0.05671461,0.0020736903,-0.018024266,-0.008051336,0.1196872,-0.05186841,-0.0052788407,-0.0042061917,-0.011444271,0.024749756,0.0012489259,0.03652215,-0.025386333,-0.0059570074,0.0041959286,0.053549334,0.043951973,0.012408614,0.03906995,0.09915969,0.01967834,0.05695607,0.0005605072,0.057734847,-0.100827396,0.024524868,0.013867974,-0.008439988,-0.0025035143,0.0033628345,-0.040255427,-0.055261105,-0.13721663,-0.039575383,-0.0061552078,0.14157864,-0.009099096,0.015039355,-0.062190294,0.05559653,-0.010321856,-0.07959245,-0.029706918,-0.025001734,0.026151374,0.00061023235,0.0024781227,-0.07764208,0.026876181,-0.07395673,0.008192837,-0.013720036,0.03481537,-0.0004921481,-0.019167215,0.02423051,-0.046765685,0.03731146,-0.008302957,-0.014004648,0.0038058832,0.0036145598,0.0010933429,-0.0037052482,-0.052666787,-0.08094382,0.030733645,0.027645916,-0.036764707,0.05946642,0.10803047,0.022991635,-0.019531518,0.06769362,-0.04814619,0.014703723,-0.04904139,0.026764154,-0.022908539,0.032910883,0.039174676,-0.013430923,-0.030483037,-0.19748558,-0.04981137,0.062181115,-0.16939643,-0.067733824,-0.039389793,-0.037833586,0.044879317,-0.0024992526,0.017230093,0.08404824,0.019238114,-0.026157498,-0.021773502,0.0062602535,0.00427109,0.09871271,-0.013379812,-0.08112174,-0.0089643,0.028882086,-0.0077851266,-0.066387594,0.059506714,0.0008997917,-0.0194906,-0.00060367584,0.010578871,-0.00089231133,0.058311045,0.018084407,-0.039565593,-0.015777187,0.0063333213,-0.012163073,-0.050671875,-0.008536965,-0.14974064,-0.014140293,0.021141827,-0.015143216,-0.20838872,-0.007896155,0.004401058,-0.021113157,0.042275906,-0.107405305,-0.07581784,0.020699972,-0.026493683,-0.044301063,-0.0009469986,-0.052801177,-0.09123695,0.009939671,0.022044778,-0.058968723,-0.014170468,0.005219184,-0.012485206,0.047901154,0.12949416,-0.062499702,0.034603387,-0.019232884,0.0033682734,-0.005537659,0.029934466,-0.0121228695,0.002706647,-0.0060121715,0.07591632,-0.02224344,0.01038909,0.003566198,0.04335782,0.03357327,-0.014031768,-0.031758707,-0.093010604,-0.09176862,0.12886679,0.12095922,0.09479971,-0.013541341,-0.13716237,0.00030764937,-0.0069625974,-0.08005592,-0.06955089,0.046704292,-0.03179979,-0.089984775,0.0077134967,0.022432638,0.05093826,-0.028282702,-0.057035223,-0.022299767,0.028354466,0.025524467,-0.05681761,0.10144598,0.016762987,0.008203715,-0.061288685,0.052396044,0.029231548,0.032627523,0.007969856,-0.006608844,0.060679525,0.026167154,0.13576642,-0.02655223,-0.15644397,-0.012957633,-0.022898495,0.11538684,-0.010833114,0.008109182,0.01621306,0.080605,-0.09081152,0.019827485,0.14554447,-0.012887754,0.02573955,-0.04240331,0.06753537,-0.011045635,0.058088683,-0.064895555,-0.020890772,-0.023805737,-0.047085524,-0.110652626,-0.008802131,0.039804548,0.0008583963,-0.045581445,0.020430654,0.026457518,-0.00066557527,0.010312304,0.15392606,-0.05693175,0.04876724,-0.0025525093,-0.032199085,-0.076304734,0.08068061,-0.10599086,-0.059250355,0.013434231,0.018672869,-0.060144022,-0.17416325,0.00063183904,0.037725538,0.014281377,-0.028987154,0.16855012,-0.255126,0.0033538267,0.02737829,0.089207135,0.16688347,-0.0050342083,0.06706205,0.012566976,0.027202785,-0.028418243,-0.1026977,-0.077336416,-0.02219826,0.008994639,0.02606842,-0.005811304,-0.02484414,0.0243866,0.02291623,0.036100566,-0.041194744,-0.016810179,-0.15359795,-0.04455182,-0.0025945455,-0.052773714,-0.071715325,0.06469867,0.16865933,-0.13912576,-0.0956783,0.0902805,0.021711105,0.081088506,-0.0925917,-0.059090495,0.09153879,0.06485503,-0.010256253,0.063085794,-0.046518296,0.04735209,0.023299426,0.110732436,0.042934775,0.030284882,0.011856616,-0.015003562,-0.00037652254,-0.105760336,0.036419943,-0.040531315,0.009342194,0.0037441999,-0.107129216,0.00802242,-0.07122034,-0.060189374,0.10009247,-0.004713297,0.018170357,0.048206985,0.02018024,0.02377975,0.033147708,0.05412191,0.051484644,-0.059520602,-0.0279786,0.004051,-0.09506267,0.062293388,-0.008693159,0.017720968,-0.0081515005,-0.051475544,0.026787117,0.080323674,0.024654686,-0.033509225,-0.15450853,0.013386477,-0.030134827,0.0028850436,-0.0060174465,-0.012986779,0.0025812387,0.06389819,-0.1008223,-0.0052087717,-0.033851624,0.015188634,0.08414491,0.052077875,0.022641405,0.03270343,0.052954793,0.10570157,-0.004790485,0.14925513,-0.05284821,-0.009083003,-0.032727957,-0.0025132447,0.013758965,-0.08926749,-0.047332883,-0.015106231,-0.024903834,-0.02398184,0.04062745,0.03216852,-0.04724586,-0.00903146,-0.034686714,0.010096669,0.028505564,0.0076919794,-0.07554072,-0.040637717,-0.057198055,-0.04240489,-0.015114874,-0.14596497,-0.03259945,0.05291879,0.012369666,-0.06710258,0.008887589,-0.006288916,0.017189786,-0.024477184,-0.075212955,0.05047089,-0.03583926,0.004501706,0.030425504,0.002605319,-0.32748136,-0.03542927,0.02136439,-0.019911002,-0.029441968,0.015329123,-0.042761415,0.030098699,-0.010023057,0.0024377555,-0.011449277,-0.04853268,0.039923012,-0.00430578,-0.040535033,0.14621268,0.0049304515,-0.026489347,-0.07756573,-0.1521124,-0.12719867,0.017445862,0.0028774142,-0.0033853352,-0.3037098,-0.03586462,0.033115804,-0.23457961,-0.04420659,-0.05865699,0.0301812,-0.16440481,0.025857523,-0.05861914,-0.01742293,-0.022636771,0.05022408,0.03739077,-0.042697832,0.0875479,-0.12742881,0.03512734,0.0046926625,0.0031766295,0.055933163,0.04887478,0.008292973,-0.009619682,0.020382106,0.0066313297,0.06783533,0.014382541,0.110306315,-0.08810209,-0.06367609,-0.020087034,0.0069865324,0.089748204,-0.034612685,-0.019185245,0.035567015,0.12837689,0.006031871,0.0264844,0.08286638,0.00020986795,-0.0074208565,-0.069104105,0.052561626,-0.07413089,0.01528132,-0.04196401,0.112607814,0.007153988,-0.058513403,-0.06463426,0.007440269,0.01771792,0.0036052354,-0.081377536,-0.009608686,0.020708084,0.095902145,-0.18658003,-0.026376903,-0.04443893,-0.084904075,-0.026357502,0.027243555,-0.029113322,-0.07955888,-0.09987414,-0.039780915,-0.014385238,0.019263506,-0.03960848,-0.07014722,0.017367154,0.00954923,-0.058187783,0.010976851,0.07598084,-0.20048809,0.0014085323,-0.01382868,0.055714846,0.0013665557,-0.006882537,-0.017910242,-0.010781288,0.05245585,0.029580355,-0.03141281,-0.031590104,0.01903671,-0.089187145,-0.18201922,-0.045166433,-0.024463296,0.019437551,-0.013186812,-0.09648472,-0.04669641,-0.00845477,-0.09193732,0.016127422,-0.052841395,0.07321796,0.050893277,-0.037446946,-0.0445489,-0.04531586,-0.045119345,0.032325625,-0.014898598,0.1905278,-0.012804031,0.027666345,0.09805441,0.013483584,0.0014350414,0.05123864,0.16199514,0.15647766,0.01613602,-0.014443062,0.051133364,0.025202215,0.07896628,0.0095104575,0.059825838,-0.100578666,-0.08982843,0.056492314,-0.009068638,-0.005757451,-0.056322515,0.019882262,-0.12525797,-0.004479021,0.008389711,0.018928707,0.042300433,0.061390996,0.011351138,0.029115558,-0.026133157,-0.06835806,0.06333619,0.073391855,-0.039109714,-0.0009203828,-0.032610774,0.022203624,0.009659976,0.100559175,-0.03684622,-0.042265534,0.010130301,0.04908037,-0.02163016,-0.38404793,-0.09119022,-0.042716384,-0.07827316,-0.01590591,-0.00042811036,0.003967479,-0.04929635,0.097681165,-0.07223377,-0.0035802089,-0.001699701,-0.04637917,0.03205526,0.03843689,0.028232753,0.00052791834,0.03887498,0.046674855,-0.0051776916,-0.0073087662,-0.031953514,0.021279514,0.013445646,0.028137073,-0.008271515,-0.06602083,-0.04619381,-0.017476901,-0.025080085,-0.07970457,0.016206801,-0.015201807,-0.06943223,-0.048235655,-0.029981941,-0.0026613772,0.038754046,0.0016544126,-0.093211904,0.06422502,-0.052455336,-0.049090236,0.045034647,-0.068555675,0.04184532,-0.00749141,-0.00024620444,-0.011279926,0.028265607,-0.038790084,0.16861826,-0.00305143,-0.062050074,-0.01767385,-0.010897338,-0.10450557,-0.012141198,0.040732622,-0.009895563,-0.02091816,0.023334423,-0.0144800395,0.014419608,-0.0130071975,0.061019227,-0.0069435984,0.016679808,-0.05078689,-0.015899539,-0.030786008,0.11580178,0.002126649,0.016140938,0.063192844,-0.0054831803,-0.05215174,0.021037728,-0.2298528,-0.04478225,0.03609997,-0.07891509,-0.011797279,-0.1923903,-0.018337175,0.039743006,-0.0908113,-0.03659123,-0.07900262,-0.0006182343,0.055807278,-0.0047625303,-0.095855385,-0.010880306,-0.032417774,0.046649918,0.01138708,0.01166828,0.040591642,-0.058201134,-0.018240511,0.015421331,-0.0119766,-0.022080839,-0.06373751,0.003471285,-0.03065437,0.007989407,0.005849004,-0.017600656,-0.017610967,0.11765455,-0.00809969,-0.21060094,0.0063883364,0.022058249,-0.084811196,-0.011733383,-0.0041121244,0.0028190017,0.11426273,0.027589351,0.0036977082,0.027412474,0.011391848,-0.012627128,-0.03572607,0.050581753,-0.038509734,0.022279292,-0.0019130334,-0.01614356,-0.04682246,-0.0702969,-0.101818435,-0.040335506,0.0065534506,-0.0021955073,0.058943927,-0.005870551,0.0010321438,0.010927107,-0.14610237,0.024436504,-0.03922665,0.055238605,-0.0006522536,0.0063735396,-0.07263267,-0.018226013,-0.0973725,0.081744514,-0.019197673,-0.030358166,-0.029275894,0.032604456,0.0031390637,0.04613073,0.0035635233,-0.059488624,0.0145992935,0.030724615,-0.009560838,-0.0082316995,0.085613385,0.021299899,0.021524414,-0.010884702,-0.006091431,0.03588766,0.014405847,0.015802145,0.021446228,-0.019530773,-0.058392957,-0.12641793,0.028616205,-0.028450549,0.029999852,0.057245582,-0.026156127,-0.03702849,-0.015709102,-0.119979784,-0.06086096,0.023166537,0.005738914,0.1588538,0.0018559694,0.048481435,-0.13916916,0.0041917413,0.018701397,-0.027915373,-0.04040286,0.036355644,-0.08857794,0.16186054,-0.04688835,0.0011901036,0.039337195,-0.05616507,-0.00756824,0.040891904,-0.14286546,0.04649675,0.074463695,0.03620357,0.0009932518,-0.06381017,0.04639022,-0.034764886,0.07335073,-0.0072614253,-0.023445763,0.033215653,-0.015336454,-0.039292976,-0.0036925077,0.029750437,-0.074917465,0.018947795,0.04693216,0.03783849,-6.2823296e-05,0.10016677,0.026712954,-0.028477922,0.03525693,-0.030661628,0.015672922,0.10329655,-0.034147464,0.035309374,-0.09171283,-7.1823597e-06,0.025011882,0.02733747,-0.17661929,0.00522542,0.0724664,0.0057784617,-0.023424543,0.040706113,-0.0007120073,-0.01071462,0.024077535,0.01194356,0.105648756,-0.012046039,0.0026428401,-0.015301853,0.032182187,-0.054921288,-0.0023615956,-0.036475353,-0.090357035,0.0136579275,0.026130721,-0.015892029,-0.08973333,-0.07790216,0.010512173,-0.024933249,-0.007265225,0.0024299622,0.0703937,0.032701172,0.016252264,-0.016181976,-0.046917617,0.043498084,-0.008756012,0.00039184093,-0.05505675,0.05423358,-0.013296664,0.008493006,-0.012973502,-0.18071383,0.009820402,-0.024722248,-0.0022774339,-0.06990713,-0.03345847,0.034580022,-0.007603824,0.0024859458,-0.051454484,0.029221103,-0.011547677,0.2844361,0.00992614,-0.054059297,-0.04940497,-0.00904718,-0.007933132,-0.009268716,-0.014031291,0.043953717,0.008930594,0.040112913,0.0063776374,-0.018563133,-0.037305832,0.057920218,-0.01049885,-0.011577114,0.009377897,-0.012430608,-0.023715079,-0.04538858,0.02015882,-0.030248582,0.019875944,-0.029013216,0.00030720234,0.00886035,-0.0015256405,0.007448077,-0.0798275,0.10472064,-0.026655674,-0.12751359,0.00079512596,0.018172264,0.0527284,0.0013990998,-0.11395633,-0.061421186,-0.063117996,0.0057124197,-0.03196478,0.03534068,-0.047435522,-0.032285184,-0.04473394,-0.0011278391,0.023691762,0.00066131353,-0.027656317,0.017170876,0.00045149028,-0.06270063,0.043816537,0.0076407194,0.032357916,-0.0014037192,-0.029929776,0.018568754,0.018177107,0.053632855,0.003421843,-0.13589561,0.0058655813,-0.0042793155,-0.032176103,-0.013315856,0.01895076,-0.010451555,0.038377583,-0.03255567,-0.010285497,0.03763917,-0.009086326,0.012916528,-0.027951911,0.05675584,0.00011610985,0.07031863,-0.060592413,-0.008458883,-0.09735957,-0.018824875,-0.12296057,-0.01780963,0.013239056,-0.0014046431,-0.06641576,-0.0013436228,-0.013532817,-0.03506565,-0.108145654,0.031573907,-0.017435908,0.035898447,0.013701081,-0.012748398,-0.076158136,0.056070883,-0.017672956,-0.060033925,-0.00047641993,0.0017600656,-0.022411227,-0.07223761,-0.00019613956,0.0028806627,-0.009093523,-0.13155848,0.06396776,-0.11805105,-0.0021194518,-0.00426656,0.13267916,0.107618816,0.0055681467,0.012434155,-0.005497955,0.05437225,0.011559874,-0.08510199,-0.07044342,-0.049414396,-0.074792415,0.04521559,0.07012418,-0.027131587,0.053464353,0.04235524,0.04302001,-0.02496247,-0.013896853,-0.14307915,-0.07000108,0.03277117,-0.03954184,0.058880255,0.0077004135,0.063360184,-0.18492454,-0.09043768,0.007949412,-0.004603982,0.012355477,-0.044300705,-0.03161935,0.069690526,0.024724543,-0.007069111,0.025923371,0.10077882,0.04381632,0.026475608,0.07184752,0.007872149,-0.062048018,0.048374772,-0.00739789,-0.026551068,-0.056181014,-0.026402235,-0.0078074634,-0.007982507,-0.0067227185,-0.023719653,-0.027206242,-0.006008029,-0.027025647,0.070532046,-0.021448568,-0.0012298822,0.052115798,0.028459013,0.021086335,0.07549137,0.038095564,0.04700443,-0.008426666,0.02812773,-0.0032447577,0.049827754,0.030334711,4.6283007e-05,0.12161334,-0.004583299,-0.0044529736,-0.037042663,0.058680296,0.019185841,0.009421334,0.016320229,0.024163336,-0.0032575727,0.011163041,-0.013641939,-0.0034185648,0.02112016,0.0061098337,-0.054418683,-0.003439732,-0.013577849,-0.020047635,0.027195692,-0.047916986,-0.011134207,0.03927262,0.01994303,0.04217252,-0.016629532,0.08406556,-0.04887093,0.029298507,-0.030465394,-0.008122861,0.004700184,-0.09133905,-0.030873,0.0021040235,-0.0097243935,-0.009336233,0.034116916,-0.0016045272,0.014144838,-0.017371297,-0.047248542,0.00427413,0.010596603,0.0059213564,0.025969803,-0.27145454,0.007214844,-0.03420058,0.010857776,-0.08401275,0.045654,0.018636048,0.0034502149,-0.0665288,0.01164788,0.0051871687,0.06291188,-0.014248401,-0.12907031,0.05798217,-0.04982041,0.019711912,-0.0025562271,-0.0070146024,-0.18167393,-0.035170227,-0.00053310394,-0.005480688,0.017823558,0.0054938793,0.0010351539,-0.005666539,-0.030113846,-0.020940244,-0.01550889,-0.03457712,-0.027629882,-0.0036441982,-0.040589303,0.05460465,-0.009391479,-0.010633826,0.021582305,-0.04678911,-0.05632578,-0.10627484,0.11315879,-0.008405566,-0.097979665,-0.012713075,-0.022416204,-0.0043560714,-0.058045506,-0.095962465,-0.0769431,0.06653604,0.010604739,-0.004687488,0.012126759,0.00037356466,0.054392993,0.024722338,-0.051593393,0.043779947,-0.056204915,-0.061790347,-0.006548047,-0.0073562562,0.01987791,-0.015221417,-0.01953246,-0.029750735,-0.007062681,-0.041081086,0.005038023,0.010055423,0.07380244,0.0055649877,-0.14767192,0.0029628724,-0.0028309748,-0.060397744,-0.04167223,0.0038939714,0.0028016865,0.035679795,0.09555268,-0.0034770072,0.032075822,0.008277833,-0.031008244,0.0036440545,-0.1321288,-0.017225087,0.026408315,-0.03161803,-0.017390981,-0.028433383,-0.030931234,-0.04731834,-0.020372272,-0.02058798,-0.00825125,-0.074403055,-0.0035218298,-0.073019914,0.015665948,-0.14755309,-0.019916631,-0.013725653,0.0051261783,0.011253729,0.068032235,-0.01960069,-0.011849701,-0.072660655,0.072120234,-0.020585567,-0.007016152,0.023355007,0.0011218935,0.0067889355,0.04981196,-0.020579249,0.0143408775,0.082963854,-0.01327109,-0.0014443547,-0.004448116,0.07928465,0.015687412,0.009008125,0.029109677,-0.0038471222,0.048168942,0.06325247,0.012875825,0.058641285,0.025094151,-0.008107677,-0.12684524,0.026973194,0.031661868,0.08533639,-0.03314951,-0.016585276,-0.022934243,-0.023988158,-0.013274789,0.004083723,-0.046158805,0.087789476,0.0733456,-0.006089274,0.0021130443,-0.044454336,-0.057945576,-0.046124816,-0.04516892,0.09405679,0.045202613,-0.03963167,0.09439348,-0.032826036,-0.0024081767,0.0038542747,0.027761012,0.008288085,0.036609244,-0.21040694,0.025413856,0.054891855,0.0976913,-0.026881903,-0.0068278313,-0.0028214902,-0.06827006,0.045935906,-0.0049587786,-0.022379905,-0.0082497,-0.0091312975,-0.03258701,0.010768831,0.0017024279,-0.044327766,-0.028671443,0.06927866,0.074346125,0.012060076,0.006504029,-0.018388256,-0.028242722,0.02835335,-0.035101324,0.009566903,0.049044967,-0.017522804,0.006924629,0.015077248,-0.019811094,0.045864005,-0.097596556,-0.21123192,-0.010318756,-0.0932522,-0.030085772,-0.0153512135,0.07334095,-0.015502214,0.004933417,-0.004165143,-0.0010835826,0.07207203,-0.018297926,-0.009872615,0.01597774,-0.027188241,-0.032782886,0.029826164,-0.015598714,0.037079453,-0.0057235956,0.023452532,-0.0074566975,-0.08775562,-0.014223158,-0.032266803,-0.005768746,0.0090583265,-0.013213456,-0.040224284,0.05512008,0.014170915,-0.009286493,-0.007383257,0.0055664815,-0.0040205717,-0.012117863,-0.05204518,-0.08752923,-0.02655214,0.0044271946,-0.009212092,-0.1622284,-0.01648064,-0.0051190853,-0.0012120903,-0.05112973,-0.02063644,-0.0014261603,0.04358393,0.0027509658,-0.17280884,0.010829866,0.010611594,0.1579271,0.003667146,-0.0112707615,-0.029805541,0.009689122,-0.024498636,-0.0034845173,0.014307005,0.1490173,-0.010279283,0.015223503,0.013879389,0.015690073,-0.030930936,0.06976316,-0.0051928163,-0.008501768,-0.0013891459,0.13716984,-0.010075778,0.014523938,0.002745986,0.010919854,-0.010739684,-0.02102938,-0.028106377,0.014855117,-0.08951385,0.08149451,0.0019242764,-0.1516568,-0.032459714,0.029230684,-0.0068191886,0.02294139,-0.0134314895,-0.041175425,-0.039786875,-0.041696668,-0.0054470897,-0.021350458,-0.020962358,0.07279365,-0.01194559,-0.109260075,-0.048033,-0.019863605,0.0038459897,-0.03395176,-0.037703723,0.009653322,0.0017902553,-0.0033230186,-0.012531519,-0.008822143,-0.03936404,0.014391247,0.016206026,-0.0037183166,-0.020577013,0.113961205,0.042243093,-0.108278334,-0.0039854273,-0.0034470558,-0.07720631,-0.029785722,0.010870367,0.009037137,0.007977128,-0.0031311885,0.013554901,0.13972823,0.009357244,-0.0110554695,0.036810435,0.031750463,0.024268806,0.004636407,0.03277576,-0.059573367,-0.003643833,-0.13906702,-0.054536097,-0.018738627,-0.012789369,-0.0025337338,-0.028213441,-0.006734282,-0.073046416,-0.12076537,-0.11577833,0.12928352,-0.048861355,0.036287367,0.0065927804,0.16583511,-0.018844187,0.08271611,-0.12887323,-0.025002122,-0.032481134,-0.034282237,-0.02325727,-0.19541651,0.00759542,0.0040465742,-0.0117661655,0.06987387,-0.021761775,-0.14351551,-0.004658848,-0.0110616535,0.012862502,0.040045604,0.032215625,-0.008273482,-0.005830765,0.060626194,0.19860744,-0.033658147,-0.044443484,0.07665006,-0.017826557,0.0097268075,0.058173537,0.0041810013,0.03938607,-0.019750118,0.051558256,-0.003421329,-0.034534752,-0.0924423,-0.018099308,-0.047489896,-0.05200258,-0.03710994,0.007283956,0.07981622,0.023944676,-0.0025803298,-0.07321179,-0.060598478,0.036382318,0.026477247,-0.091663934,-0.027031079,-0.030206531,0.057071447,0.020050973,0.108592615,-0.070151374,0.06127608,-0.12908843,0.015903056,-0.040593803,0.06023431,-0.008385099,-0.037883103,0.009086549,-0.09638527,0.07775486,-0.010010868,-0.02089343,0.005860868,-0.004751645,-0.025060236,-0.032699406,0.036640286,-0.10049969,-0.0036365278,0.045002792,0.0887045,0.030451968,0.108328104,0.019793808,0.004255414,-0.043075502,-0.022975177,0.008162141,0.05892694,0.0071260333,-0.0036292672,-0.019041419,0.028208703,-0.0036935546,0.052393682,-0.07710923,0.0155509785,0.13798362,-0.08034456,0.011308134,0.0021864176,-0.023562342,0.06151757,0.014758259,0.01798658,0.10200088,0.029298961,-0.014436521,-0.01421234,-0.00920003,-0.037896633,0.096071094,-0.022368371,-0.12175912,0.009719843,0.08903092,-0.017422557,-0.00021106005,-0.010934368,0.038869143,-0.019110233,0.0062218904,0.0026311278,-0.024124026,-0.02218154,-0.004889816,-0.053026676,-0.0069798827,0.060043633,-0.008731669,-0.04118749,-0.009927988,-0.08096716,-0.009836048,0.006055206,-0.01236856,-0.09892443,-0.05530083,0.024811506,-0.07197687,0.1241308,-0.08337967,0.032049417,0.053621113,-0.022794835,-0.07438648,0.017945796,-0.02195692,0.07191735,0.0070205927,-0.14110518,-0.029201955,-0.025625348,0.0024428964,-0.008710623,0.06306973,0.01621586,-0.052766267,0.072196156,0.0140508115,0.031458497,-0.018684477,0.083565325,-0.012271754,-0.009563446,0.0865601,0.016969353,-0.019857675,-0.004640907,0.00016471744,0.059560657,0.04471703,-0.02438885,-0.03655559,-0.042125963,-0.12803876,0.12654652,0.072711475,0.17745924,-0.036496438,-0.33033234,-0.012313331,-0.059578016,-0.1548712,-0.07824683,-0.08096944,0.03409919,-0.106740505,0.0026896,0.0041960627,0.0491755,-0.02328769,-0.005216688,-0.043941066,0.026356071,0.04532975,0.021427184,0.007914305,-0.0022565126,-0.01565811,-0.008059233,-0.037582338,-0.009150077,-0.014360301,-0.0026745498,-0.016977996,-0.034431145,-0.016324818,0.008475184,0.03874266,0.02163203,-0.004762411,-0.004863143,0.058344617,-0.005534783,0.005079299,-0.012436479,0.0381976,-0.02937162,-0.013225257,0.037160955,-0.009920239,-0.008622766,-0.020399466,0.013065577,-0.0003899336,-0.008480098,0.045244128,-0.0031709075,-0.022524834,-0.03668198,-0.004050672,-0.012888163,-0.0071472526,-0.003452748,0.015590727,-0.0007329881,-0.025145322,-0.056194067,-0.029035956,0.010790154,-0.00022912025,0.0072856285,0.0034167469,0.011055231,-0.016646259,0.008830488,-0.043732762,0.02275595,-0.009271681,-0.019853711,0.023422718,-0.037076294,-0.012414396,0.0041814744,0.022095427,-0.016946614,-0.022531599,-0.01973468,-0.00076159835,0.0010502934,-0.008726791,0.018033922,-0.0016894639,-0.018795073,0.0017462969,-0.028377146,0.029133141,-0.00018364191,0.011838943,0.037656453,0.027286768,-0.052181482,0.004817553,-0.028935999,0.013154745,0.010157794,0.030421793,-0.010706797,-0.017183095,-0.028012753,-0.022181451,0.035406407,-0.046866767,-0.033306886,0.00012268871,0.01947689,0.005128138,0.009095252,-0.0051514804,-0.020172298,-0.025059044,-0.020958483,-0.046864763,-0.033202168,-0.0093306005,0.000103354454,0.0055016875,-0.000184834,-0.051065892,0.0010663979,-0.037550434,-0.000320971,-0.004583776,0.04086376,0.034394786,-0.0138044655,-0.011048935,-0.008956164,0.0075255632,-0.0016130432,-0.012126043,0.04157719,-0.004487671,-0.012009829,0.024802089,0.014906113,-0.07483308,-0.0102778375,0.017476678,0.025663475,-0.008977413,-0.008030534,-0.0067117848,0.011473447,-0.013702601,0.034083694,0.00013124943,-0.050792202,-0.006055981,-0.015381306,-0.027288496,0.03155917,-0.013354123,-0.0037079155,-0.018956631,-0.015403613,-0.008153141,-0.058927204,-0.06304145,-0.02464652,-0.015910268,-0.03228282,-0.0039656907,0.0094102025,0.0028102547,-0.014524341,-0.013652369,-0.0029331893,-0.001813218,-0.017062545,0.040029824,0.023430288,-0.03243804,-0.0038730502,-0.008052826,-0.0070386454,-0.0540877,-0.026834134,-0.011504605,0.009383757,-0.014921635,-0.0047427863,0.021999449,0.013672188,0.022399187,-0.01902473,-0.013591051,-0.0097222775,0.0025225878,-0.01679194,-0.012770474,-0.013002396,-0.0071718693,-0.0015830994,-0.009390533,-0.07559456,-0.017058551,0.010730132,0.020515844,-0.033716463,-0.036170483,-0.047331482,0.009689566,-0.014083326,-0.013354823,-0.0039344355,0.009531379,0.019005492,-0.0005338788,0.027635103,-0.011924624,0.0255301,-0.009096637,0.0018283129,-0.03979069,-0.018770278,-0.041673254,0.009171963,0.014554262,-0.005290456,-0.0146507025,-0.0069124103,0.0018761754,-0.005041808,-0.015647143,0.013005771,0.02119632,-0.030165076,-0.0022978634,0.030958503,-0.017410219,-0.013112307,-0.010592282,-0.022123605,-0.010201544,0.0056967586,-0.02042228,0.053225905,-0.017362282,-0.13816723,-0.004152,0.050725773,-0.035206243,-0.018006593,-0.010906756,-0.048463464,-0.04587683,-0.0060697794,-0.0104212575,-0.026273578,0.019040465,-0.020140886,-0.017345667,0.012099138,-0.031762183,-0.04805634,-0.010670006,0.0062262863,-0.0084065795,-0.039459944,-0.020539701,0.012573361,-0.01957199,0.03934023,-0.011911869,0.007179901,-0.005637765,0.0621922,-0.023143947,-0.25450256,-0.0100322515,0.0013405383,0.07731849,-0.009911865,-0.01443851,0.007102251,0.03415072,-0.008300513,0.0034281127,0.050443053,0.01028204,0.0049883723,-0.05094844,0.05171579,0.021760106,0.0029095411,-0.042493343,0.12904629,-0.08802009,-0.05880794,0.011312783,-0.0059042033,0.0042231977,0.007083833,0.06977393,-0.023703009,-0.022251248,-0.01017274,0.05762568,0.16390015,-0.103516266,0.02697301,-0.0109449625,-0.03984651,-0.017858744,-0.027660847,-0.106523156,-0.00801146,-0.014341098,0.0024107248,-0.04671383,-0.009093459,-0.01235196,-0.07345928,0.0031119883,0.06309688,0.10226238,-0.12173885,-0.011699721,-0.026853621,-0.014320896,0.0010018274,0.015464246,0.050065473,-0.019965768,-0.00643602,0.12478489,0.04667121,0.07534438,-0.043241143,-0.09452498,-0.055723846,0.027208984,-0.048266966,-0.098390564,0.013805836,-0.027297914,-0.009545757,-0.0024536252,-0.121842325,-0.11053115,0.016662449,-0.04307109,0.15922451,0.026672572,0.07646625,-0.05620625,0.0110607,0.0034328913,-0.013659,-0.0782305,-0.10815038,-0.053202197,-0.05829361,-0.01470457,0.02093935,0.062388584,0.05566609,0.027132615,0.033314288,0.0068272203,0.007584542,-0.035581887,-0.0021871529,0.0004146397,0.0039737895,-0.047002323,-0.068007156,0.010535512,-0.01217711,-0.019539386,-0.016408399,0.029144987,-0.015991122,-0.03530872,0.03589505,-0.15904176,-0.018323988,-0.033805784,-0.03424692,0.02200824,0.0437427,-0.035037756,-0.045640107,0.120909095,-0.017897755,0.057329252,0.08549264,-0.017328963,-0.013368234,-0.14230275,-0.004442498,-0.051399946,0.0023710579,-0.11459243,0.05501628,0.1654355,0.08805591,-0.046100304,-0.0025662184,-0.0088811815,-0.050834358,0.008191228,-0.030102938,0.024257243,-0.037765592,-0.023118883,-0.016084261,-0.013317987,-0.021195251,0.110139534,-0.050376892,0.009707034,0.012282968,0.062054694,-0.0061842203,0.08812097,0.04911375,-0.0080834925,0.0010553598,-0.023675747,0.0056547523,-0.0020118728,-0.029349357,0.023618687,-0.028491303,0.015246183,0.026130855,-0.028675131,-0.00826776,-0.0038987398,-0.057238013,-0.0048858523,-0.00025725365,0.0049411654,0.075204164,-0.015914679,-0.054961275,-0.035335302,0.0400005,0.025992095,0.10635716,-0.019053131,0.0078369975,0.00081819296,0.04197374,-0.0074848235,0.16089585,0.042713314,0.0012638494,-0.05292964,-0.007936478,0.01730366,-0.028639138,0.036070555,-0.054712117,-0.043252587,0.052458644,-0.0039353073,0.035580724,-0.021998048,0.028459638,-0.026858151,0.030623287,-0.08250662,-0.010781646,-0.014248222,0.009510696,0.019091517,0.066657566,0.055600557,-0.022211492,0.00796926,-0.0031318665,0.013479948,0.02787514,0.10597509,0.054644734,-0.0039002597,-0.26507288,0.0012164861,0.023937255,0.05523853,-0.01869101,-0.06398134,-0.07192469,-0.29707092,0.002521813,-0.0058644563,-0.047197133,-0.036080062,-0.071458705,0.020526975,0.056966662
