4,6,144,1,1,-0.015095353,-0.042859524,0.0010513067,-0.039430674,-0.004739672,-0.08404958,-0.0604769,-0.006289847,-0.07327931,0.0010514334,-0.05539401,-0.007906795,0.005874872,-0.027310044,0.0052909255,0.0008253306,-0.030179024,-0.027213112,-0.029180333,-0.0058658123,-0.018467546,0.0014809109,-0.008584231,-0.008467078,0.010059297,-0.010386959,-0.0024590306,-0.03189957,-0.004482925,0.00092977285,-0.0054218173,-0.020229936,-0.0041685104,-0.034609377,-0.00017994642,-0.016454577,0.0018615872,-0.00795275,0.001494363,-0.038776517,-0.007850409,-0.017023683,-0.008944929,-0.1394226,-0.030776322,-0.020399868,-0.042089462,-0.041950256,-0.019050896,-0.088704675,-0.0052034855,-0.016729504,-0.0050848946,-0.011585653,0.001531601,-0.0067608953,-0.044751942,-0.0057498515,-0.024983644,-0.0058885217,0.0035131872,0.0031614304,-0.0144607425,-0.00856024,-0.0057814866,-0.01243341,-0.031878345,-0.026329782,-0.038002953,-0.009022772,-0.01249975,-0.014228549,-0.019204676,0.0052260756,-0.0017736852,-0.00543114,0.006343581,0.0011842251,-0.029776528,-0.009714901,-0.026183426,-0.025767684,0.011929333,-0.0041330457,-0.03912133,-0.019138575,0.0026040673,-0.045077085,-0.009216189,0.0047278404,-0.05704236,0.004056573,-0.010403842,-0.052098274,-0.014565455,-0.021708395,-0.046235144,-0.038527012,-0.01748775,-0.018883474,-0.002145946,0.0069420934,-0.011111915,0.006569162,0.003078252,-0.0028147548,-0.0074293315,-0.041322865,-0.03930527,-0.041049108,-0.051344976,-0.0067850947,0.004524708,0.006066665,-0.010909021,0.0022039264,-0.039760172,0.002437055,-0.025359187,-0.0018110275,-0.020672694,-0.014673114,-0.0413758,-0.040372133,-0.036801502,-0.018025845,-0.09263561,-0.0048035383,0.0028223917,-0.00801903,-0.004637778,0.00069734454,-0.0039276183,-0.012225628,-0.048015922,-0.030745171,-0.010824025,-0.005784869,-0.005386293,-0.02211745,-0.16025747,-0.0008299053,-0.06532204,-0.017438523,0.0016804338,0.025156055,-0.005723655,-0.118358195,-0.01711052,-0.21794888,-0.043669224,0.024752438,0.0005584359,-0.055199742,0.029145986,-0.055940323,-0.012710333,0.019745648,-0.0010320544,0.04560995,0.016835213,-0.019088507,-0.044775963,-0.0147306025,-0.007198021,-0.0059411526,-0.043807805,-0.0005103946,0.019163728,-0.051864028,0.01486145,-0.034218162,-0.028464735,-0.026545763,0.0054635704,0.07698393,0.028267056,-0.07692784,0.0023792982,0.039818585,-0.01322937,-0.029551744,-0.0065249205,-0.00744617,0.0206483,0.0062152743,0.007638812,-0.048244417,0.13117559,0.004311323,-0.05156985,-0.36192077,0.088728115,-0.02981332,0.05240929,-0.0040382743,-0.02297604,-0.058076084,0.0017582178,0.018345565,0.017901078,-0.0087301135,-0.06962943,-0.033870637,-0.017966747,-0.013150487,-0.040000554,-0.01859551,0.020798743,-0.04351049,-0.06400639,0.0076906085,-0.08447486,-0.04097505,0.04738,0.025856256,-0.06525719,0.024485946,0.036372084,0.1396836,0.028041258,0.02339542,0.1274035,-0.029845655,0.017353222,-0.038181186,-0.052836865,0.00885874,-0.059555054,-0.06479742,0.0056572556,-0.055090696,0.08961041,-0.0039642453,0.034929276,0.0035825055,-0.048026443,0.09046199,-0.08843495,-0.19401938,0.017338991,-0.07705352,0.01918453,0.02282542,0.02242577,-0.09788136,-0.0840134,0.013513505,0.050430566,-0.008322954,0.0157623,-0.005785957,-0.23496044,0.060403585,0.026698258,-0.005615413,0.011998296,0.005773604,0.012440205,-0.032580346,-0.014039159,-0.11044848,-0.09688765,0.0053112507,-0.013759553,-0.057953596,-0.070283175,-0.0025905222,0.0408637,0.026818871,-0.002466768,-0.055872887,0.027880535,0.0014834404,0.031569064,-0.04150313,-0.08131483,0.03940898,-0.06548652,0.013259113,0.026840955,-0.010524213,0.012465894,0.04798788,-0.013530076,0.006308466,0.034176946,0.03795749,-0.0792951,-0.17085385,0.05134246,-0.06887388,0.031440318,0.03646791,0.014643908,0.006601393,0.098570675,0.08726156,0.038078666,0.028734952,0.007055789,-0.043824792,0.03675793,0.062349543,0.048147216,-0.022950212,-0.03884548,-0.024299443,0.17544416,-0.0039783716,0.021458983,0.04253288,0.096616864,-0.057090133,0.0074655563,-0.023204148,0.0020626187,0.08653849,-0.041117538,-0.01690005,-0.06483269,-0.053325713,-0.013121039,-0.04948157,0.07367263,0.010215402,-0.025208592,-0.072737694,0.008451045,0.082983285,0.017223746,-0.20725942,0.012850836,-0.02948162,-0.24851796,-0.15726137,0.038609877,0.0052202344,0.032231227,0.022438169,-0.0062737614,0.15924773,0.021646217,0.0044503883,0.010605466,-0.00147596,-0.03011465,-0.04990107,-0.05633633,0.0033307523,-0.029219925,-0.039453685,0.018308282,0.058553964,-0.047657453,-0.018156528,0.18509834,-0.017012093,0.013014138,0.08206318,-0.04067433,0.039865345,0.06613284,0.033907413,0.059955657,0.005303681,0.035499066,0.10548943,-0.09688109,-0.09194462,0.15076709,0.025375247,0.11927155,0.023276512,0.0036413223,-0.026345372,-0.0034390911,0.007170677,0.038161814,0.042981174,0.02428341,-0.040115714,-0.047878608,-0.088448524,0.009312831,0.043860376,0.064652145,-0.056082428,-0.005928755,0.010216236,-0.11268103,0.025434189,-0.079414606,-0.016016174,0.045291014,-0.0799917,-0.15246136,-0.081186295,0.036911488,0.005731672,0.027292997,0.060361326,0.04565671,0.15374388,0.021508932,0.079056084,0.0512045,-0.05081594,0.01681146,0.057585537,-0.20022225,-0.024247319,-0.052019835,-0.0793426,-0.055321008,0.014107347,0.066224694,-0.0080836415,0.08706355,-0.023164734,-0.0084426105,0.010962233,-0.011822666,-0.07105407,0.1377604,-0.010519385,0.007648617,0.017335862,-0.59875077,-0.01897055,-0.06831362,0.005173683,-0.09317461,-0.06285709,-0.12028099,-0.10550579,0.028244019,-0.076797485,-0.14136513,-0.01925993,0.026600063,0.1427801,-0.026234627,-0.017356455,0.027444065,-0.119535916,0.059325337,0.017410427,0.08018476,0.012434661,0.0999739,0.023884594,0.02758354,0.037065588,-0.01262188,-0.06331356,-0.060265213,0.037095606,-0.011686742,-0.04769236,0.07003033,0.14581329,-0.039393388,-0.06309451,0.027535446,-0.06997159,-0.003356278,-0.14412592,-0.088044226,0.009720877,-0.018096685,0.029785395,0.030714035,-0.06686103,0.010963261,-0.010098875,0.014253229,0.034370627,-0.13003218,-0.3388729,-0.09795379,0.11947961,-0.01562944,-0.04189095,0.026391141,0.058760688,0.10263559,-0.031760335,-0.03242618,-0.061826646,-0.07907879,-0.017802387,0.021808997,0.027531326,0.024053007,-0.0028645992,-0.050373618,-0.020797372,0.10978787,-0.008875448,-0.058684826,0.05581823,-0.078250825,-0.03533137,-0.0802646,-0.022076406,0.008102179,0.08889718,-0.042950094,-0.03992316,-0.06546304,0.026263833,-0.048526376,0.03547457,0.21772474,0.041838408,0.25581905,0.023361683,0.09871146,-0.07689333,-0.15809697,0.017565906,-0.009434938,0.072904706,-0.07132819,-0.31810823,-0.09232199,0.028389215,-0.009189829,-0.2596376,0.17132556,0.018441983,-0.015057415,0.085150585,-0.1293861,-0.048505515,-0.04374051,-0.008666545,0.018450856,0.12358686,-0.4349544,-0.00029492378,0.11672884,0.021858275,0.040605962,0.045271605,0.26517016,-0.0584293,-0.016718239,0.10428685,0.02060324,-0.04268655,0.03043449,0.16902673,-0.087857604,-0.037974745,0.13626224,0.0024388433,-0.14337444,0.075155646,-0.06874657,0.03816271,0.090638325,0.053678155,-0.069554806,0.015062466,-0.037687987,0.10834402,-0.13894862,0.12549463,0.039575458,-0.018548688,0.03563142,0.020360053,-0.08143143,-0.010676891,-0.071600884,-0.18023783,0.015878618,-0.027658463,0.13218604,-0.060147196,-0.057326615,0.022257328,-0.40499133,0.08332014,0.025332242,0.015173137,0.034465462,-0.069040775,0.044890523,-0.006187424,-0.06619775,-0.015504599,0.03461507,0.029545581,-0.114769846,0.05268363,0.029316112,0.024381459,0.0056581497,-0.023357153,-0.038035534,0.01581154,0.111809604,0.11780226,-0.056011975,0.125471,-0.048250467,0.0076847672,0.0075991154,-0.074949056,-0.009659708,-0.044635832,-0.007891312,-0.058065116,-0.042663693,-0.028201163,0.020651102,-0.109406084,-0.12263203,0.008075237,-0.078713536,0.040275574,-0.07150182,-0.01955834,-0.05118555,-0.025043309,0.0013616681,0.030461043,0.032763917,-0.04802674,0.005784273,-0.009080231,-0.008833136,0.0047602355,0.015590191,0.04193306,-0.0024545789,0.027503252,-0.00805831,0.07173145,0.09150526,0.021842659,0.07826054,-0.01140669,0.050336197,-0.030971527,0.003442691,-0.01293388,0.04118848,-0.005334854,-0.020261735,-0.02252698,-0.04177826,0.0705328,-0.080845,0.023110509,0.17952228,0.038119674,-0.088813305,-0.043076217,0.041941464,-0.10833655,-0.10139785,0.015435755,0.04249406,0.03857875,0.026386984,-0.24680217,0.0030968152,0.10682905,-0.0009771287,0.002096355,-0.031223413,-0.044930547,0.048181415,0.045828193,-0.12922001,0.025302373,0.080838494,0.0017905235,0.049099416,0.0017586425,0.007027924,0.046252012,-0.08586389,-0.04634285,0.050842643,0.02964729,0.078039825,0.069169015,0.028774083,0.14696106,-0.023213148,-0.0066624284,-0.023389157,-0.018103577,-0.08520147,-0.015919626,0.12478173,0.058487784,0.1422348,0.031199276,-0.036179185,-0.0004990408,0.044120044,0.018432349,-0.030087411,0.0051138997,0.0072805285,-0.01962883,0.028789163,-0.008244544,-0.0033215955,0.012649655,-0.15492737,0.04353732,-0.061618328,-0.010947034,-0.048945963,0.019327879,-0.042410847,-0.10163806,-0.07020241,-0.13827638,-0.05973348,0.015677944,-0.13709645,-0.022324622,0.029094368,-0.056830943,0.031254888,0.015633821,0.05050832,0.0550313,-0.08870413,0.0017184019,0.13883066,0.0036836863,-0.09110246,0.016521417,-0.06179923,-0.044801563,0.010210782,-0.008878801,-0.002141714,-0.03310096,0.042836368,0.008799296,-0.038528472,0.22526051,0.044253048,-0.07236436,-0.011679351,-0.05841811,-0.03631851,-0.06375228,-0.00978595,0.04012835,0.064082325,0.045981497,0.066640496,-0.0960848,0.11802292,0.008091435,0.1244449,-0.43053937,-0.0031532645,0.021236222,0.07082194,-0.11400896,0.02821283,-0.026995897,0.03740935,-0.03040719,-0.0023191273,-0.0029593706,-0.08876836,-0.0011142045,-0.0060337186,-0.0022726208,-0.01724875,-0.0026670098,-0.003931284,-0.0042054057,-0.013359219,-0.021909237,0.13259195,-0.025247134,-0.006135799,-0.015457869,-0.03551936,-0.0017834306,0.003969133,0.14030233,-0.00042438507,0.008320052,0.026538193,-0.02351442,-0.13114655,0.048560023,-0.024513632,0.029587597,-0.18802953,-0.037935138,0.022692632,-0.0546114,0.0004119277,0.012476966,0.05226946,0.017285585,-0.017473161,-0.007840812,-0.04881531,-0.09003091,0.0031761527,-0.17483284,0.04880926,0.032508045,0.036389887,0.009150714,-0.2339476,0.0071009398,0.05529827,-0.017594755,0.05504659,-0.060815632,-0.4287568,0.051038444,0.050749302,-0.006767392,0.009948999,0.03440678,0.09344649,-0.12982786,-0.020688534,-0.072348535,-0.101208806,-0.013495654,0.047514617,-0.028651439,0.009869851,-0.03762062,0.11285729,0.10725045,0.039747052,-0.045661904,-0.003612876,0.016968906,0.1332699,0.0074379724,-0.09427029,0.02532506,-0.1324088,-0.05820054,0.050010532,0.029398799,0.022123644,0.030383661,-0.062399607,0.030149996,0.0020733112,0.056329787
