4,144,24,1,1,-0.017146707,-0.024408445,-0.013307429,-0.19718596,0.25823224,0.16362688,-0.046571426,-0.07051623,0.72539693,0.08555571,-0.18266645,-0.20930643,-0.32804582,0.22175172,-0.08093123,0.22454615,-0.0041154847,-0.15934415,0.25734797,-0.04022765,0.32440525,-0.114613205,0.022545323,-0.29283112,0.43674573,0.1380167,-0.3221743,0.37881723,0.04132801,-0.2764026,-0.12902534,-0.0015236139,0.09130351,0.032846123,-0.027595587,0.24641997,0.19159073,0.07759056,0.44301915,-0.15133357,-0.34073105,0.23739174,-0.045853883,0.63339984,-0.5574074,-0.028571315,0.28204754,0.11523523,-0.13162021,-0.08714318,0.07298124,-0.38579783,-0.59854317,0.35490125,-0.014732972,0.059070453,-0.51702493,-0.054035876,-0.118438326,-0.028819378,0.2273121,0.07132669,-0.018989787,-0.27916726,-0.006576378,-0.10797876,-0.015531212,0.046703372,0.033116013,0.022891276,0.013905391,0.382907,-0.065507576,0.63531387,-0.04253794,0.11995375,-0.87437326,-0.062137224,0.18172595,-0.7039336,-0.018707601,0.32369527,0.099066764,-0.0067029353,-0.015020601,-0.31793517,0.21013057,0.14899991,-0.118739985,0.18174566,-0.044270586,-0.30945516,0.15031987,-0.10411006,0.09722067,-0.6048857,0.4282321,-1.0378757,0.40089625,0.14531107,-0.23735839,-0.1379104,0.45406654,-0.53473705,0.32521373,0.0033067837,0.8461726,0.48128518,0.036808714,0.5327023,0.19020309,-0.6532676,0.35148808,0.30315143,-0.015606232,-0.04280883,0.48513004,-0.07033461,-0.018124487,-0.06603088,-0.362966,-0.32178992,-0.08444476,1.6071335,0.10057244,-1.6088977,-0.10219375,0.017091691,-0.4960345,-0.6093678,0.5419963,0.15386084,0.20127942,-0.6104797,-0.14936113,0.21230033,-0.019294843,-0.06625914,-0.29521325,-0.46758473,-0.1520266,0.021916434,-0.006790111,0.1349786,0.18145752,-0.18101531,-0.23510335,0.06034261,-0.13837864,0.19425404,-0.39242655,0.16249147,-0.106981486,-0.32081696,-0.035603337,0.1790212,-0.052454628,0.21190834,-0.19463213,0.1034425,-0.5470106,-1.8270601,-0.019858047,0.16333774,0.28907955,0.0009245053,0.18338637,-0.20837152,-0.12547931,-0.06665223,0.89399606,0.019249573,-0.016257327,0.02173172,0.10743712,0.6629652,-0.0155635355,-0.63722724,-0.22883427,0.095383205,-0.043366786,0.02439773,0.5433442,-0.38027737,-0.2752338,0.27573273,0.64988184,-0.10105414,-0.4141124,-0.35822913,0.06127722,-0.6003653,-0.044650458,-0.04466991,-0.056363307,-0.0018750639,-0.042732574,0.18809028,0.3322045,-0.3271376,-0.054431334,-0.54275846,-0.058106128,0.16792348,0.5953728,0.16955566,-0.23101479,0.5143138,-0.46492887,1.7263585,-0.025249757,-0.09591869,-0.100881964,-0.8994072,0.16161491,-0.02003254,0.081437275,-0.33930224,-0.113234535,-0.02731479,-0.115735725,0.038487025,-0.01565355,-0.10284359,-0.08312696,0.09434988,0.54452175,-0.27164382,-0.28508562,0.366901,0.3208022,-0.02914786,0.2979177,0.4365806,-0.2651008,-0.19368733,-0.14245379,-0.61748123,0.2744493,0.01169892,-0.09527003,-0.17886358,0.57787395,-0.0016221553,-0.13259444,0.022958115,0.003154859,0.38132656,0.12663262,-0.14735815,-0.24166979,0.18478598,-0.104426265,-0.087377906,0.41923845,0.122559376,-0.1195318,0.001348149,0.18532346,-0.20306292,-0.4083223,-0.11534099,-0.18111083,-0.16651142,-0.118720055,-0.44997197,-0.16816022,-0.20656642,0.50167555,0.14420041,-0.012568354,0.06246328,0.027325273,-0.19012041,-0.029418183,-0.20049247,-0.05143684,0.019020021,-0.0011856854,0.13927993,0.2636166,-0.10117191,0.2438211,-0.011559784,0.0010534674,0.15887113,0.07823548,0.48574644,-0.1750326,0.1251896,-0.076375924,-0.071744785,0.2937715,-0.056731522,-0.15177722,-0.38319117,-0.21097772,0.21149483,-0.043243587,-0.011643842,-0.18563378,0.18722254,0.008198172,-0.13064346,0.07598984,0.088120945,-0.2367154,-0.14249162,0.16727656,-0.023031823,-0.0154375285,0.10390352,-0.1979006,0.17313492,0.26025972,0.048219293,0.1156764,-0.029360294,-0.03822565,0.42436832,-0.06631367,-0.44357327,-0.32245672,0.50750417,-0.44915202,0.47864896,0.112472326,-0.44358104,0.18844509,-0.30424193,0.10010928,-0.19703437,-0.4476481,-0.6032384,0.23095627,-0.17300177,0.153377,-0.0902531,0.1728279,0.05995772,-0.29601687,0.08330247,0.21573083,0.42836308,0.21669397,-0.19510962,-0.016698837,0.1296654,0.12101585,-0.122468,-0.041004896,0.20306998,-0.17265336,0.07606885,0.193616,0.090491,-0.28035393,-0.023037799,-0.08198344,-0.13034971,-0.4005703,-0.45813042,0.1298762,0.09177967,0.21022652,-0.10469103,0.13454859,0.16923429,-0.2651968,0.39698267,-0.11297473,0.096809015,0.14096758,-0.037611704,0.119733475,0.07705045,0.015455365,-0.06758017,0.12253569,0.37807125,-0.16167212,-0.19657686,0.089646384,-0.2425487,-0.4067444,0.434309,0.32064933,-0.004758954,-0.21086884,0.015693158,-0.25626108,-0.15127936,0.15974246,-0.584384,0.1369942,0.57898444,0.08130802,0.13197415,-0.05105561,0.77573097,0.8428075,-0.2442957,-0.2303386,0.8353243,0.23710063,0.13898985,0.31461853,0.06760297,-0.01677349,-0.061885983,-0.2400641,-0.051601976,0.04596194,0.013235912,-0.43674418,0.20211303,0.0707171,0.005717352,0.060657624,-0.13527118,0.10386401,0.014847938,0.09352574,-0.21805313,-0.04934442,0.6159892,-0.27195176,-0.09034753,0.1510711,0.033379704,0.117804304,-0.14084229,-0.268294,0.10435011,0.45904768,-0.009018257,0.15406768,-0.0015604943,0.21905342,-0.2584846,-0.23161456,0.05553335,-0.12741701,-0.18461794,0.3979868,0.09282549,-0.114950575,0.23323973,0.28433454,-0.69361866,0.10924361,-0.33015534,0.49016908,-0.18405837,-0.148611,0.0496684,0.25894666,0.2104624,0.023076773,-0.040908437,0.075911775,0.034459926,0.026989847,-0.09143077,0.14875674,-0.4244927,0.12832332,-0.046025172,-0.13390307,-0.020027593,0.39347434,0.08324847,-0.008829027,-0.1071641,0.04165624,-0.29895297,0.0042716465,0.17546469,-0.0059334636,0.46873572,0.7177452,-0.44404006,0.31148797,0.046026826,-0.04138096,-0.053670987,0.030275457,-0.14737281,-0.6305684,-0.120624155,-1.237851,0.33045262,-0.65943897,-0.5197828,-0.10604502,0.33858937,0.08838089,-0.027726352,0.32485256,-0.07838948,-0.036387198,0.16378428,0.2237435,-0.19485402,0.26447892,0.00883336,-0.29801422,0.060485333,-0.07474954,0.020458728,0.08869872,-0.23473766,-0.05319895,-0.11047582,-0.11021302,-0.01745094,-0.08560481,-0.07753966,-0.52639055,0.04363139,-0.08223617,0.0024597459,-0.0699678,0.24783234,-0.012797967,-0.07603022,-0.014926836,0.113968566,-0.71646225,-0.08322483,0.13505115,-0.27948862,0.15053326,0.084924035,0.40691724,-0.45675433,-0.35168114,0.142771,0.39068124,-0.15335739,-0.4631105,-0.29361314,0.5197109,0.47765726,0.34271738,0.113794215,0.010371352,-0.21352184,0.057466228,-0.05683662,0.22735745,0.1443412,0.28820398,0.25792846,0.06882205,0.24350256,0.19625081,-0.07843919,0.13087653,0.009735085,0.09908185,0.0017445236,-0.123649254,0.1255681,0.33233532,0.017457359,-0.30242628,-0.07605432,-0.038137,0.35682374,-0.22381365,0.07425773,-0.4305711,0.026041828,-0.036729064,0.01169215,0.26223037,-0.02614582,-0.28688908,0.120428085,-0.30883676,-0.0011687428,0.06888998,0.377682,0.36157227,0.0021319017,0.23825374,0.056849122,0.2375502,-0.07221531,-0.28065228,0.0002284944,-0.028155088,0.05981958,0.26388818,0.0252548,-0.21734902,-0.18160482,-0.014383348,0.08427844,0.22829771,0.01491572,-0.04482934,-0.12144792,0.28718436,0.1209504,-0.012497939,0.04164911,0.12547527,-0.42242828,0.05519204,-0.071124226,-0.07323477,0.021325469,0.16399285,0.069546,0.020318199,-0.035024412,0.102198854,-0.15142375,0.045594826,0.10915546,0.0038121268,0.52729356,0.18170345,-0.11497845,-0.09416926,-0.068530805,-0.03973338,-0.02024699,-0.05840183,-0.010405045,-0.26519027,0.01806181,-0.00899148,-0.115296744,0.14896165,-0.34713817,0.06220416,-0.03480494,0.29303125,0.20153674,0.4500811,-0.06720975,0.2902994,-0.06852142,0.08251913,-0.19695464,0.10762724,0.025182245,-0.056708027,-0.45922613,0.1599087,0.4340121,0.028347045,-0.13528126,0.17188585,-0.50962186,0.0013561025,-0.1636076,-0.15908009,0.19364674,0.21660478,0.10594012,-0.054261357,-0.097305864,0.14800619,-0.2398351,0.021590047,0.1405172,-0.035648167,0.47246945,-0.33710617,-0.3841772,-0.15409486,0.0056707673,-0.04932648,0.028651804,0.3698345,-0.63788944,0.14252329,-0.31461453,0.22397153,0.20255189,0.24803811,0.072365746,0.35952362,-0.15590475,-0.083357185,0.34154212,0.3817736,0.123812504,0.09442512,0.039108187,0.26764646,-0.057893828,0.38920265,-0.10870893,-0.40529183,0.023708023,-0.09126961,-0.0063352585,-0.17357093,-0.84798235,-0.21017879,0.15878537,-0.02847721,-0.39221898,-0.2459982,-0.5160287,-0.5433195,0.37414464,0.35548,-0.16691607,-0.05930789,0.4664527,0.06694931,-0.062599786,0.02590271,0.44097194,-0.07530691,-0.11535996,0.016126469,-0.09399189,0.045387603,-0.01089561,-0.043362252,0.25004444,-0.11501366,0.13828406,-0.09495936,0.15664703,0.2699151,0.0067575276,0.27508575,-0.022550222,0.16061446,-0.14114441,0.28773838,-0.411696,0.34981108,-0.03281887,-0.0061858073,-0.13271971,-0.38895103,-0.8224405,-0.7792895,-0.14444382,-0.3499911,0.13943337,-0.46148506,-0.21731432,0.25659066,-0.019299544,0.036907185,-0.48634294,0.029503576,-0.15381224,1.253417,0.32130176,0.13495633,0.32400346,-0.22454749,-0.21647352,-0.60594046,0.22914281,0.28430763,-0.27987117,-0.34825903,0.03339197,0.18736702,-0.121422045,0.1934618,-0.103947446,-0.12875272,-0.34212318,-0.11651376,-0.0012013242,-0.077157006,-0.20154877,-0.14895861,0.15591545,0.15132907,-0.09304153,0.0018281341,-0.32317904,-0.3028783,-0.043528482,0.21993501,-0.037447434,0.018510599,0.05387982,-0.28015026,-0.5356898,-0.060806718,-0.5755418,0.22145773,0.56954217,-0.14059214,0.12246156,0.005090609,0.079288214,-0.07238573,-0.15711202,0.010291459,0.20302162,-0.170112,0.062269412,0.11470739,-0.040492974,0.25568828,0.10260506,0.08582057,-0.10315068,0.022511607,-0.02021119,0.17069642,0.057368115,-0.21809821,0.065794386,-0.08627938,-0.0030518621,0.045678936,-0.29434016,0.0012819171,-0.20541483,-0.09206709,-0.11287533,-0.16565311,-0.015757948,-0.53139746,0.007296604,-0.11190957,-0.028039409,-0.17831697,0.3243939,-0.053838506,-0.08090616,-0.052042007,0.17996904,0.5474255,-0.447961,-0.113416456,0.04008183,-0.29274133,0.06294745,-0.25470614,-0.74238753,0.03193213,0.24518579,0.23272032,-0.4736937,0.22803277,-0.3777817,-0.42925167,0.64108205,-0.018001549,0.021766754,-0.3599719,0.39630118,0.19011854,0.12162526,0.14724644,0.28850713,-0.050431143,0.52286774,0.27847555,-0.07848327,-0.07437248,0.030642537,-0.41915634,0.2978511,-0.012756505,0.35409492,0.32254264,0.1950365,-0.50197834,-0.4191528,-0.38693523,0.32219437,0.0017728172,-0.27271357,0.15897503,0.14228132,-0.1953542,0.07880541,0.10614759,0.35332122,-0.0055921953,-0.12995183,-0.16223903,-0.043558035,-0.28249153,0.12832582,-0.10163896,0.064615995,0.22631207,-0.22314689,0.10625718,0.057016212,-0.07495172,-0.050458677,-0.15905364,0.17148238,0.06382882,0.12815353,-0.062313575,-0.012966834,-0.23070979,-0.3363498,-0.78933454,0.0071023554,0.076654255,0.043314457,-0.2470493,-0.024144556,0.07997294,-0.03814154,-0.025851943,-0.11644135,-0.26178667,0.079739034,0.11006301,-0.24302903,0.08003632,-0.17658164,0.05052251,-0.067410454,0.3574795,0.02451427,0.25258568,0.030203715,0.36999753,0.0712086,0.0838875,-0.12771043,-0.33412394,0.064975165,-0.06968143,-0.016063154,0.13908356,0.034748286,0.074671775,-0.23910423,0.31487733,0.5400219,0.97390586,-0.21059115,0.019872008,-0.42495486,-0.018901989,-0.7582505,-0.45964986,-0.36579943,0.8316369,-0.29535803,-0.10410922,-0.468449,-0.116579704,0.44201076,0.0986221,-0.09695125,-0.08913379,0.046786346,-0.13941994,0.05451107,-0.00844544,-0.02471155,-0.080193564,0.16977,0.2583056,0.092202336,-0.39666405,-0.04710971,0.051104438,0.2027203,-0.07097234,0.4571926,-0.020426368,0.08916679,-0.19659969,0.23335224,0.16888638,0.07292008,-0.115998335,0.04863581,-0.52813965,0.035994425,-0.17942795,0.050584733,0.33511186,0.2670191,0.31711465,0.09620002,0.46144712,0.01551982,0.62592536,-0.2649721,0.03665188,-0.11818542,-0.23330691,-0.22220118,0.87960684,0.0113213435,0.092484936,0.11285113,-0.16444066,-0.013917893,-0.18333666,0.15797234,-0.0825592,0.192296,-0.48159647,-0.14928277,0.118420154,-0.2567066,-0.06113246,0.31844923,-0.022405144,-0.059427828,-0.12280894,-0.08358085,0.080283515,-0.032724563,0.025902651,-0.07749812,-0.08758803,0.111095585,-0.06861013,-0.08152684,0.017965496,-0.49179447,-0.07218877,0.08948979,0.007953748,-0.44402564,0.089484595,-0.089549735,0.06272921,0.3965547,0.5673299,0.05797042,-0.22732164,0.18800125,-0.1401583,-1.2664472,0.083658546,-0.501153,0.10921361,-0.32694763,-0.8456916,0.109536335,0.38393575,-0.04430946,0.10727497,0.15598314,0.43661064,0.12430176,-0.3460687,0.31480595,-0.17278686,-0.22670957,-0.007578552,-0.11346167,0.13533852,0.08780414,-0.21682489,0.25521824,-0.10476276,0.020033814,0.95948493,0.09211178,-0.25287262,-0.03839565,-0.05649066,0.818187,-0.16691273,-0.5236639,-0.4381855,0.33843973,0.20931308,-0.0806746,-1.2820493,0.055738717,0.13807987,-0.07446694,0.40479767,-0.3126258,-0.42846197,0.56618065,-0.32559222,0.25321877,-0.36474627,0.049635634,-0.29392344,-0.03550772,0.034045294,-0.35867804,0.14507484,-0.34873384,0.36096504,0.16319756,-0.06641057,0.33122534,0.2806755,-0.7302654,0.6214449,0.0005877018,-0.34598753,0.11903651,0.009787872,0.64184827,0.2596437,0.32890317,0.17584884,-0.084957086,0.4995769,-0.11721121,0.8024641,0.68624645,-0.48058483,-0.018756002,-0.028140854,-0.526743,-0.25079876,0.33420038,-0.11179313,-0.2721985,-0.17639476,-0.123233125,-0.06924041,1.1175933,0.18052351,-1.0871053,-0.052975446,0.074705906,-0.35298488,-0.2881605,0.37756392,0.082963526,0.14249854,-0.42422032,-0.096268065,0.0381475,0.11650486,-0.033063386,-0.2593307,-0.3178711,-0.27139604,0.22817487,-0.07896748,-0.034924544,0.116034225,-0.11066181,-0.1630997,0.3094873,0.17398895,-0.43479583,-0.028019585,0.09095733,-0.18723261,-0.14993663,0.0650157,0.24059519,0.19257733,-0.20779963,0.08857437,-0.05420983,-0.08758963,0.13129063,-0.08068195,0.30187294,-0.39940542,-0.017082222,-0.056060597,0.22988148,-0.17251332,0.4097541,0.17616707,-0.16907921,-0.03179165,-0.03100548,-0.32030445,0.3265089,-0.63440794,0.46045884,0.65030444,0.19933346,-1.2596196,-0.32780617,0.018641267,0.65928954,-0.27019632,0.8103051,0.2973612,-0.026197575,0.28684527,0.046687998,0.02341156,0.25963226,0.09190984,-0.05673206,-0.18077819,-0.035691425,-0.0567398,0.081204,0.072556406,-0.0437115,0.04255099,0.07926713,0.1873854,0.12076903,-0.3444886,0.002683919,-0.0981292,0.23487705,-0.177068,0.45047668,-0.040400557,0.12391902,-0.14652693,0.23375052,0.13658781,0.013836731,-0.438268,0.31090435,0.64071,-0.03559605,0.3960017,-0.08347073,0.6448646,-0.3288737,-0.29778162,0.3030237,-0.21126129,-0.27333802,0.60127336,-0.02540078,0.053725094,0.26518047,0.44412315,-0.22641066,0.14428248,-0.45220885,0.6311132,-0.26473418,0.13785942,0.20555651,-0.24613737,0.033457786,0.009300247,0.04617189,-0.25500262,-0.03275627,0.11343363,-0.16269788,-0.12264516,0.43547657,-0.05873208,0.051585257,-0.082064405,0.03116589,0.0024903268,-0.08157494,-0.037270233,-0.19533357,-0.11435806,0.21345049,-0.14417121,0.027870417,-0.034317628,-0.5016523,0.030951716,-0.024288468,0.014296092,-1.6873528,-0.87543964,-1.3243878,0.014717545,-0.000611268,-1.1038233,-0.07591177,0.04147017,0.07885807,0.54364055,0.5171915,-0.03156498,-0.13200977,-0.14832506,-0.10085475,0.19711377,0.14656644,-0.5626444,0.15247178,-0.014498591,0.48079422,-0.07653564,0.0724009,0.09327777,0.007874749,0.12874167,-0.027551733,-0.29028192,-0.14621453,0.031668812,-0.08545604,0.09981358,-0.022488523,-0.121172264,0.36401397,-0.0064112097,-0.24958375,-0.14359616,0.1658573,-0.4639228,0.17805424,0.02092579,0.10770962,0.40128478,0.001439333,0.14203194,-0.24878043,-0.050994597,0.03395091,0.010050539,-0.035057902,-0.06390466,0.09385847,-0.2138192,0.120507106,-0.090765886,-0.02251783,0.009125132,-0.33276254,0.19593805,-0.010004289,0.22756779,0.13399942,0.5182867,-0.29877105,0.21568784,-0.05167925,0.08754776,-0.19680475,0.26846686,-0.032388836,-0.48190153,0.035088174,-0.05392112,-0.03840655,0.05903003,-0.42151907,-0.2053296,-0.06509074,-0.14947072,-0.16897848,-0.38134277,-0.18189992,-0.3900078,0.13786407,0.14685488,-0.13203351,-0.037721746,0.29372188,-0.023367688,-0.04894425,-0.21603255,0.18945314,-0.1583598,0.28714928,-0.16056289,0.032107778,-0.50417,-0.03450889,0.16666405,-0.3974628,-0.11990476,0.3029113,-0.058280572,-0.07149155,-0.14878705,-0.08526489,0.116813645,-0.0978882,0.14017528,-0.106500275,-0.069326974,0.042702176,-0.04234437,-0.064265095,0.0024675727,-0.5580841,0.3326757,0.8178069,0.08288028,0.010135251,-0.44909537,0.007341653,0.15932012,-0.3969956,0.104732,-0.39756957,0.15768419,-0.016341291,-0.26366442,-0.19882177,0.49302647,-0.061292656,0.02639211,-0.06766542,0.20141211,-0.5750064,0.04381317,-0.029019013,0.13807002,0.011472523,-0.03160788,-0.31759322,-0.12880433,-0.08739101,0.48146182,0.09606798,0.014655158,0.10803023,-0.043590747,-0.16050485,-0.056776077,-0.10258606,-0.0018112473,0.00830476,0.024313755,0.03927227,0.15745611,-0.11470492,0.21241497,0.09176706,-0.0152261555,-0.008037925,-0.030940346,0.3968765,-0.35074323,-0.43621096,0.00077550113,0.041510105,0.15827283,-0.024774365,0.0029342696,0.17479897,-0.12778568,0.30824423,0.0059510497,0.03435563,0.05287281,-0.016189877,-0.011750244,0.08555162,0.06360175,-0.19018254,0.02245918,0.23218285,-0.08766487,-0.019712314,-0.024754204,-0.12685476,-0.18669127,-0.0008279234,0.5067344,-0.14070435,0.17527522,-0.025924847,-0.2287184,-0.16283719,-0.07195532,-0.0858209,0.111686215,-0.26347157,-0.050009683,0.030592639,0.26500633,-0.09980704,-0.058165014,0.11931717,-0.21134152,-0.00905259,0.0752111,-0.021483473,-0.01782957,-0.06755568,0.24947204,0.11276486,0.038285322,-0.11587615,0.27941892,0.11479692,0.040429175,-0.0565205,0.03849467,-0.44074908,0.11649399,-0.03943354,-0.0858295,0.037991077,0.24682137,0.07217746,-0.007724857,-0.14059411,0.0746941,-0.22958389,-0.010238819,0.21550658,-0.04220982,0.5425807,-0.4657936,-0.35026667,0.069555745,0.059842683,-0.028969444,-0.05097246,0.07543191,0.029583618,-0.15792537,0.45998168,-0.052056894,0.037620984,-0.031628408,0.011808798,0.048025303,0.06509223,0.019947313,-0.109391406,-0.052658428,0.19468787,-0.118135534,-0.010182597,-0.036292847,-0.31734335,-0.18552321,0.11122115,0.084239304,0.10292837,0.030339496,0.036781237,0.018364519,-0.024215564,0.28095216,-0.0059349984,-0.014947921,0.10960181,-0.18596415,0.20147967,-0.18265994,0.056197196,-0.18942185,-0.099571064,-0.4155034,0.15728943,-0.3909187,0.061688855,-0.13971202,0.18124446,0.11706796,0.17362529,0.07285798,-0.1982649,0.28476936,0.11153849,0.12154734,-0.17997311,0.066680074,-0.47722518,0.12361169,-0.1111694,-0.048220363,-0.033625737,0.3221076,0.09684415,0.1104349,-0.0814548,0.089647025,-0.31951255,-0.009075157,0.15371063,0.0187383,0.48336774,0.3516588,0.26791888,0.23624426,0.13126093,-0.14851053,-0.049578458,-0.42657876,0.13349131,0.1725464,-0.21045183,0.03026846,0.346983,0.12944557,0.22155595,-0.83575034,-0.15787779,-0.5016734,-0.27285665,0.0057120696,0.20175385,0.053626426,-0.16480435,-0.17863363,0.034378726,-0.2320083,-0.3141736,-0.17545255,-0.07667746,-0.15981331,-0.100321054,-0.23125365,-0.054888777,-0.29462624,-0.034236953,0.114241265,-0.1429615,-0.31717214,-0.046460822,0.43834928,0.14938623,-0.08068241,-1.3867952,0.2152269,-0.09421283,0.40340388,-0.010010026,0.13174085,-0.0738288,-0.21777864,0.31213817,-1.1462531,0.003733784,0.28387564,-0.11586255,0.40798,-0.28844732,-0.58804923,-0.7154364,0.024589539,-0.51974535,-0.89518136,0.16283515,-0.2439145,-0.8447048,0.50068665,0.0860984,0.30120555,0.44743043,-0.026044518,-0.35717553,0.024179935,-0.25280386,-0.41787308,-0.31467918,0.6613486,-0.02251289,-0.22181673,0.07221145,-0.50954103,-0.037338853,0.452282,0.0914128,-0.31887442,0.9419066,0.015272185,0.040864572,0.5853066,0.3657636,-0.044444047,-0.09400042,0.14865983,-0.43118107,-0.6038891,-0.14391409,0.012440763,0.19786175,0.28091252,0.28624347,-0.21067093,0.70078415,-0.24587753,-0.7304486,-0.0057587195,-0.1587489,-0.118381925,-0.22856836,0.26467898,0.1910813,0.09920505,-0.41773152,0.4012911,0.037343726,-0.027191928,0.04888897,-0.19510673,-0.07940625,-0.17463529,-0.13268876,0.04174242,-0.013119152,-0.042137608,-0.044078067,-0.63694763,0.028205678,-0.11833352,0.070356965,0.2876128,0.21804531,0.23490034,-0.0036517382,0.31717134,-0.029509172,0.71241856,-0.11774656,0.055462208,-0.25458133,-0.5071669,0.16741483,0.8073849,-0.06776996,0.119851954,0.03377206,-0.031393938,-0.13935193,0.42210257,0.30193013,0.1284375,-0.24361092,0.50730693,0.16308047,0.11557292,-0.018201195,0.14554122,-0.8145992,0.26097375,-0.1561227,-0.1335651,0.035801876,0.4475106,0.35242155,0.10810218,-0.01449459,0.12489327,-0.4207729,0.147286,0.16949089,0.12701005,1.112504,0.20761064,-0.050232038,-0.26438305,0.09545067,-0.29930097,0.04228457,0.055996742,0.2962527,0.29507875,-0.00056515634,0.16700235,0.06094779,0.24903554,-0.11237959,-0.23725201,-0.012207569,0.06112416,0.035528835,0.27538446,0.00039774552,-0.1896603,-0.19263309,-0.001158461,0.061049297,0.034449153,0.13942999,0.6644512,-0.038451582,-0.14184728,0.022949487,0.10896473,-0.17420606,0.04526697,-0.44367555,0.8750026,-1.2988576,0.13993634,-0.7071536,-0.029414937,0.10298732,-0.07010871,-0.3297116,0.17360102,0.9244671,-0.08750759,0.05966513,0.07206584,-0.19276793,-0.23111497,-0.15845,0.023429153,-0.034616016,-0.10879829,-0.33703962,-0.02394867,0.14333344,0.2682508,-0.1306044,-0.08537117,-0.031049004,-0.21690887,-0.5281355,-0.026277177,-0.016710535,-0.000821501,-0.002314072,-0.26118207,-0.13411304,0.4436951,-0.19956452,0.078906216,0.08678675,0.35880676,-0.13271672,0.66294795,-0.027990438,-0.15090235,0.04022707,-0.074187174,-0.06463866,-0.042170674,-0.41049892,0.38370365,-1.0369332,0.17879383,-0.5200161,-0.05978933,0.2041159,-0.001070261,0.31030416,0.0012340546,0.7260946,0.014954131,0.07597577,-0.071049176,-0.33173832,0.2196254,-0.016445234,-0.28288472,0.06969427,-0.24158977,0.048479203,0.10010679,0.36228126,0.3366216,0.01899525,0.22219376,0.035552163,0.22957155,-0.18188003,-0.17778973,0.04579832,0.05407781,0.028778642,0.26330164,0.0381181,-0.31506026,-0.09125556,0.03198334,0.020891555,0.44360623,0.4095041,-0.029717501,0.35562566,0.1281064,-0.23709095,0.10122278,0.01425584,-0.19242683,0.379338,-0.19074027,0.17128697,0.051992036,0.15927134,0.8242705,0.00828716,-0.44434398,0.014032394,0.16917706,0.6897396,0.3208012,-0.20370063,0.7216906,0.35322577,0.6857628,-0.1357899,-0.431206,0.043112483,-0.10435961,0.05231896,0.44148198,0.76615965,-0.23016852,0.19792101,0.1667544,-0.15043902,0.23373988,0.12135243,-0.1500399,0.084568195,-0.12344171,-0.0933963,0.15489905,-0.34935948,0.0374153,-0.12326382,0.009836789,-0.2927167,0.35137546,0.16933326,-0.13660727,-0.9616332,0.88394,-1.3994485,-0.09036492,-0.33513597,0.78838426,0.10095106,0.163822,0.029699227,-0.2932026,0.470129,-0.050781757,0.6979364,-0.12442646,-0.24760333,0.4749477,-0.025305249,-0.1652258,-0.066118024,-0.017464444,-0.8547594,0.064945035,-0.38168007,-0.6591631,-0.023557115,-0.55343384,0.15942778,0.058742493,0.20466086,0.20605385,-0.35590333,0.3008177,0.346296,-0.75766003,-0.03138168,0.12939386,0.32847303,-0.34603217,-0.16695683,0.047468994,0.31130657,-0.47621545,0.16535711,-0.6344626,-0.09037647,-0.14994638,0.15152636,0.890051,0.0015518516,0.08019534,-0.010953065,0.29401183,0.7515385,-0.14419498,-0.63854975,-0.122601494,-0.09091185,-0.31641614,-0.1580233,0.34505358,-0.48604655,-0.16058284,-0.2779281,0.7619348,0.096786946,-0.42202467,-0.32581568,0.058059677,-0.5538188,0.1392741,-0.12934205,-0.08649232,0.03626528,-0.1274729,-0.011174977,0.04571592,0.3289855,0.109425396,-0.049185663,0.09983495,0.025312692,0.06313948,-0.033786725,0.13152929,-0.10679275,-0.20673135,0.2710783,0.25163832,-0.053441882,-0.07784077,0.15478028,0.38132727,-0.20207107,0.010786422,-0.010434823,-0.18078882,-0.0054157004,-0.25185102,-0.005038185,-0.097768344,-0.12923624,-0.05365456,0.008259296,-0.12311776,0.5320105,0.5521302,-0.850178,-0.01008334,0.15652749,0.3040412,0.2247526,1.6391499,0.058650464,0.35786313,0.15726408,0.28084165,-0.07965076,-0.116462275,0.1335388,0.11989408,0.005394861,-0.0413956,0.077373594,-0.24836633,-0.13826388,0.2470615,0.002519764,0.36320177,-0.21982461,0.031213403,0.4660061,-0.07939841,0.20828897,0.20336844,-0.45640495,-0.81440115,0.14414375,-0.47021317,-0.50419766,0.1649158,0.2737135,-0.15096372,0.05333887,0.18941167,0.023379661,0.1528178,-0.025998667,-0.10826463,-0.1745873,-0.04675916,-0.04097618,0.019473031,-0.110323444,-0.194253,0.34971032,0.011095003,-0.16701017,-0.28017977,0.19367544,-0.52955455,0.067843184,-0.0067590997,0.07340567,0.10757476,0.07532201,-0.646376,0.59294266,-0.21414451,-0.05020133,0.06244749,0.0873457,0.27802348,0.2411298,0.37476745,0.43983737,0.83236605,0.08243325,0.51933616,0.32622463,0.10787018,0.23211285,0.2168394,-0.73457795,-0.22345917,-0.080897205,-0.14520031,-0.1446766,0.26866904,0.39406204,0.31462273,0.11998274,-0.0859784,-0.018933758,0.06892195,0.09731115,0.09651932,0.06140412,0.09081536,-0.058378052,0.045110248,0.25646576,0.17662078,0.0057162903,-0.2878629,0.007698655,-0.20152679,0.3299398,-0.04985953,0.16044757,-0.54117876,0.12732346,0.12103736,-0.07545081,0.044934258,-0.086607955,0.2957945,0.019870006,-0.13902463,0.06285288,-0.00049796514,0.19048382,0.19601887,-0.13904521,-0.16189726,0.33921,-0.05376713,0.060158394,-0.016622804,0.090378016,-0.36477086,-0.012868926,-0.06818229,-0.08811154,-0.39969665,-0.16692302,-0.09390699,-0.013204813,-0.015060708,0.017273545,-0.4040999,0.027799472,0.090541735,-0.09678658,0.10877745,-0.4953999,-0.28217542,0.3195053,-0.07595315,-0.22205296,-0.12414946,-0.21699709,-0.14806692,0.14466602,0.31597978,0.040079035,0.07587884,0.010422081,0.18988574,0.044310123,0.0773986,0.19639932,-0.118376814,-0.047311716,0.48637065,-0.003206199,-0.061243832,0.034692228,0.010197684,0.27998596,0.10631033,-0.14051679,0.052055873,0.056838892,0.0852202,-0.012480866,0.28264046,0.051045448,-0.13136324,0.044668585,0.11808042,-0.08945797,-0.2007244,-0.064440496,0.026844755,-0.10489358,0.16288538,0.4365319,0.014806375,-0.07965534,-0.49605417,0.04228047,0.14433795,-0.364545,0.03942871,-0.15010203,0.120815985,-0.11489739,-0.083192855,-0.17306069,0.4716534,0.044538334,0.1647462,-0.02161941,0.0553471,-0.47193605,0.06461542,-0.01382396,0.11046511,-0.21580115,0.64936393,-0.9270539,0.42587835,0.07958206,-0.22523002,-0.112275645,0.8607166,-0.37701496,0.2718916,0.296857,0.7215613,0.6341046,-0.24478197,0.1508356,0.096732326,-0.51627874,0.23314868,-0.6361106,0.16758318,0.09842543,0.075849585,0.18935238,0.13733251,0.06808883,-0.753154,-0.11226717,0.1814983,0.15977089,-0.3219104,-0.18175948,0.29175654,-0.040013433,-0.43738282,0.99163616,-0.09489549,0.16999142,-0.07610773,0.054942325,-0.08868295,0.1418646,0.060058624,-0.061231866,-0.2937354,0.56540775,0.022694722,-0.35356554,0.12737831,-0.944925,0.13515995,-0.23392807,-0.51675874,-0.13023752,-0.36969575,0.20744514,0.060130447,0.1593625,0.15249643,-0.41594338,0.27278024,0.35986507,-0.32807547,-0.05126567,-0.288762,0.21022043,-0.63132334,0.100783736,-0.081224576,0.29791263,-0.5889802,0.1230289,0.63739556,-0.14960025,0.25965908,-0.112531215,-0.3993414,-0.01106894,-0.3232696,0.018977288,-0.1555068,0.3436652,0.15310058,0.055143364,0.22882251,0.10965059,0.40108442,-0.3428175,-0.02396053,-0.053913526,0.2976637,0.08538125,0.80736756,-0.08698933,0.05729115,-0.2252833,-0.21501818,-0.14202373,0.49276078,0.60715216,-0.010941962,-0.77320695,0.8010105,0.26098976,0.05384898,0.071153246,-0.27403608,0.5116847,0.22132728,0.4253472,0.17595856,-0.53329307,-0.040043324,-0.50350237,0.32462937,0.55496925,-0.4828669,0.18401405,-1.2546204,0.9040045,-0.06399947,-0.3350237,0.1902787,-0.20249456,-0.054426372,0.08893047,0.12923168,0.0596468,0.33142453,-0.53134185,0.32841128,-0.3403989,-0.72567093,-0.19641577,1.2819517,0.24624467,0.04586496,-0.347859,0.16862427,-1.0413439,-0.13018943,0.0048012137,-0.381108,-0.109425925,0.12659076,-0.24174225,-0.6440272,0.011525767,0.22187652,-0.13415676,0.096611544,-0.03274987,0.40404567,-0.3606996,-0.37487167,0.17863342,0.5208789,0.054724813,-0.72736514,-0.17650177,0.5729383,0.33528954,0.17903028,-0.24802934,-0.043565787,-0.0075153783,0.36451903,0.194159,0.114322625,0.18056184,0.20950422,0.26469943,0.059905387,-0.048074827,-0.17106661,0.060204294,0.047269776,-0.17671856,0.13924181,-0.2883927,0.18622679,-0.02804336,-0.13150346,-0.07602032,0.3860488,0.12299681,-0.0058314353,-0.17778628,0.047959268,-0.39229077,-0.014050245,0.15883052,0.018997652,0.17742044,0.29071602,0.18151067,-0.059108242,1.28397,1.05051,1.3836315,-0.13602486,-0.3631042,0.024094392,0.009559963,0.3947,0.31343108,-0.029649068,-0.15968633,0.0772852,0.27355832,-0.016942862,-0.24273181,0.053888872,-0.09469227,-0.12666537,-0.002308026,-0.040906083,-0.7487165,-0.03368762,-0.03314784,0.08753559,0.68378294,-0.63896537,1.5996401,0.015095587,0.043468855,-1.6875775,-0.1370016,0.22525953,0.33456686,0.74482805,-0.23216325,0.08758912,-0.56551147,-0.00055627525,-0.15411991,-0.31114936,0.050585132,-0.40820822,0.21553493,-0.035213366,0.55265045,0.36909705,-0.17734618,-0.9945014,0.045316193,-0.018263407,-0.015263036,-0.11213547,-0.9396082,-0.25086144,0.35790125,-0.25444463,-0.08999887,-0.05118285,-0.114587985,-0.44767934,0.2447027,0.19461034,0.2688037,-0.16803224,0.1280672,0.39380667,0.056646526,0.046695292,0.43446532,0.4735703,-0.4090076,0.24560939,0.05832069,-0.0049603283,-0.09139106,-0.10892625,-0.22434098,-0.47719386,-0.25958732,-0.9904942,0.1775743,-0.46452558,-0.23756291,-0.0819595,0.069523655,-0.1494905,0.26237246,0.18984629,-0.07278718,0.051942572,0.0029122867,-0.11698116,-0.21941374,0.2685859,0.37270844,0.0077024847,0.0015943199,-0.36151573,0.027812244,0.0108473785,-0.23201887,0.12929483,-0.2439683,0.08959937,-0.07810778,-0.10400696,-0.12013385,0.35348412,0.041971654,0.044797618,-0.10759437,0.064049296,-0.32160273,-0.033319358,0.09770302,0.04328294,0.056203205,-0.4234823,0.034947913,0.006342292,0.119562574,-0.23316336,-0.091288626,0.1897551,-0.22845718,-0.22723533,0.48659873,-0.026631264,0.026529476,-0.016861401,-0.05566361,0.08247998,0.0022406294,0.024346478,-0.027035765,-0.1518856,0.2516649,-0.034712613,-0.12942447,0.006481684,-0.51566714,-1.0584903,-0.007344302,0.2836891,0.010411163,0.15435646,-0.06269471,0.112308465,-1.0340233,0.1409608,-0.2776788,0.025327452,0.33488777,-0.44893774,0.010233965,0.3505127,-0.052546304,-0.51205975,0.011653438,0.1182216,0.48768368,0.004495211,0.6636599,-0.29541832,0.32967588,0.057473056,0.08355272,0.08658641,-0.47117114,-0.15168,0.665611,0.1135359,0.04415787,0.17146151,0.15261185,-0.155131,-0.0780343,-0.036912978,0.2873122,-0.2795136,-0.01835709,-0.0067641735,0.3813557,0.12274701,0.035734057,-0.12142229,0.02250918,0.054207504,-0.050486214,-0.10536304,0.151826,0.77268434,-0.01564297,0.43695125,-0.09928538,0.15497087,-0.35751233,-0.51124704,0.09938199,-0.29843098,-0.42544162,-0.8165839,0.49389398,0.073569864,0.2066163,-0.12134661,-0.58460605,-1.3125132,-0.1630585,-0.18408799,-0.18359226,0.14342976,0.24015109,-0.21270502,-0.29955727,-0.21940283,-0.34192187,-0.090686195,0.37686306,-0.31142536,-0.12748505,0.1996562,-0.24098389,0.15890531,-0.11656883,-0.2002117,0.08159441,-0.44362408,-0.1958222,-0.08643657,0.059560113,0.044363096,-0.20464131,-0.5719853,0.48971888,0.25545007,-0.3896199,0.19688408,0.41391504,-0.09728755,0.12581542,-0.5131027,-0.08810677,0.018530522,-0.2693673,0.04778786,0.042387467,0.08069909,-0.0044766366,-0.092050575,-0.17042708,0.26895455,-0.057436977,0.078453965,-0.040185153,-0.06408873,-0.19634004,-0.06252793,0.014232561,0.09994369,-0.25939253,0.29531097,-0.0072106123,-0.5655628,0.10030056,-0.17291868,-0.019077092,0.2675781,0.06816814,0.0055820486,-0.009302608,-0.07839442,0.16615005,0.006257385,-0.044827588,-0.41753563,0.15351667,0.038035195,0.010003377,0.121200554,0.086141385,-0.035304144,-0.08049976,-0.048848674,0.10091714,0.07242156,-0.112101875,0.21611626,0.008372903,-0.20186752,0.07368259,0.083935715,0.26311383,0.15475547,-0.2036423,-0.12922756,0.26918927,-0.006243432,0.034505144,-0.044449747,0.153707,-0.30318183,0.0005969256,0.087785654,-0.057321414,-0.34603316,-0.16273536,-0.09281896,-0.085679114,-0.31068212,-0.46525055,-0.29018575,-0.33986765,-0.22083378,0.3626673,-0.33106142,-0.0610608,0.2523665,-0.40013498,0.2298094,-0.14053321,-0.35500523,0.0017408878,-0.6286559,-0.22065999,-0.013837069,-0.024392897,0.05489356,-0.32998335,-0.7331952,0.6092375,0.2005192,-0.40790257,-0.35061827,-0.16441049,0.18423575,-0.11310984,0.002306901,0.024252258,0.35960582,-0.24448983,-0.2263108,0.29350448,0.12378223,-0.24011193,-0.27396578,-0.48887944,0.43888575,0.36210874,0.6715374,-0.38827306,0.4567287,-0.36986446,-0.035004362,-0.1969342,-0.31017688,0.11673927,-0.29110765,0.1346016,0.28763336,0.03908892,0.1500341,-0.014318414,0.06802562,-0.33949783,0.040224135,-0.12351883,0.0031573921,-0.119277604,-0.24731708,0.4869382,-0.055624787,0.07518472,-0.3070884,-0.20945136,-0.7507389,0.0824832,-0.12492934,0.027095675,-0.38696077,0.16924429,0.5266125,0.14709736,-0.43408182,0.35418963,-0.092014484,-0.19518319,-0.20279762,0.026748076,0.24404915,0.02614139,-0.09237227,0.3037631,-0.014344564,0.12160896,0.5660646,-0.22586276,-0.47714883,0.13438943,-0.03674017,0.8960477,-0.49343222,-0.0610208,0.29871055,0.17707305,-0.3497926,-0.7346163,-0.0013647974,-0.18550655,0.9969215,0.039190974,0.16780248,0.22798108,-0.39382115,0.12894613,-0.19022873,0.004723832,0.34834054,-0.124882475,0.0019876845,0.3443517,0.06606732,0.22873123,0.5578026,0.39703593,0.05594469,-0.31729767,0.21458118,0.74013084,0.067379095,0.036195047,-0.07746847,0.071006775,-0.042953536,-0.04276166,0.019041687,-0.24340093,0.012973696,-0.1487366,-0.10223128,-0.065836616,-0.1417444,0.08679833,-0.3668899,0.015454241,-0.10937076,-0.04473374,-0.29544827,0.24071822,-0.15266223,0.004403049,-0.07323966,0.20004167,-0.23371594,0.07478319,0.14479128,-0.0058811447,-0.11055835,0.113792226,-0.4822476,-0.3626853,0.3379139,-0.2830416,0.32936728,-0.034802675,0.14997299,0.4935432,-0.0703376,0.1491391,0.26478514,-0.13885748,-0.68048346,0.2675192,-0.45761564,-0.647957,0.32017463,0.20600504,-0.059602246,-0.24816187,-0.21520028,-0.05440897,-0.045564894,0.115731284,0.75531626,0.13558531,-0.10669359,0.32213083,-0.018125955,-0.35933658,-0.046018966,-0.40026698,0.39638078,0.27527955,0.4367929,-0.27118018,0.36767313,-0.32542172,-0.2488592,-0.033164695,-0.19860576,0.004040275,-0.22155926,0.40892968,0.14238726,0.07084505,0.09954843,0.0042217355,0.084101826,-0.00801193,-0.07283038,0.084906325,-0.1155077,-0.32823935,0.012944438,0.14642474,0.113380425,0.37584022,0.2411007,-1.5458353,-0.17833942,0.097650394,-0.44117355,0.03336031,0.05080084,0.15317315,-0.5141794,-0.26361403,0.15744369,-0.18126445,0.08096175,0.0014028549,-0.005941823,-0.18307649,-0.24131641,-0.119871646,0.12698731,-0.2917736,-0.10047813,-0.040004782,-0.37167317,0.078882635,0.14388983,-0.063290656,0.23440923,-0.62771356,0.048068717,0.4619023,0.67646414,-0.24158625,-0.16181642,-0.26937634,-0.38062468,0.09671986,-0.23749939,0.09046958,0.1816095,-0.11271006,0.110593095,-0.25993752,0.037761915,-0.007236529,-0.29771143,0.04661888,0.26057073,0.08968982,-0.3303948,0.031192077,0.053901505,0.19370396,-0.34690186,0.30733174,1.1181875,-0.067013726,-0.4780539,0.2193166,0.52042073,-0.035533458,0.15402384,0.020593226,-0.25059232,-0.67218447,0.3966455,-0.39690173,-0.5166884,0.44846627,0.088516675,-0.1534952,-0.36486873,-0.19205625,-0.5087773,0.031685106,-0.13632727,0.36849773,-0.14497833,0.31515384,-0.3084271,0.26408362,-0.08490731,-0.2315462,-0.19919923,-0.7399935,0.39040667,0.012382284,-0.10565027,-0.48185164,-0.7406728,-0.37794158,0.63278514,0.4696959,0.15470791,-0.50346786,0.4220989,0.34276342,-0.1633097,-0.17457703,-0.1273346,-0.19614181,0.385548,-0.64132154,0.0073507875,-0.49198112,0.2177353,0.4019401,-0.0027239025,-0.006400533,-0.44405073,0.042495884,0.026640981,-0.2803016,0.033970647,-0.0641995,0.08738257,0.0007691607,-0.07480145,-0.1291717,0.26072598,-0.016714638,0.09193121,-0.07726696,0.10285325,-0.33520758,0.036063265,0.010053724,0.07976276,-0.18218687,-0.11828373,0.20530961,-0.030579075,0.10067305,-0.06970444,0.005868025,0.04340127,-0.119226724,0.22410396,-0.20709364,0.062627174,0.054762065,-0.20155272,0.20868437,-0.30390376,0.06341533,-0.21041572,-0.17764607,-0.44744286,0.29360965,-0.19681054,0.020770993,-0.2022524,0.17716375,-0.13573575,-0.57448786,-0.11811119,-0.07886995,0.5632816,-0.014402814,0.026558839,0.24589309,-0.12575468,-0.00819654,-0.0030825958,-0.05807639,0.043501064,-0.021024637,0.12215558,0.12374714,0.24087332,-0.07386425,0.19744332,0.1773039,-0.013306797,-0.09246981,0.04240921,0.42761618,-0.050942868,-0.004865933,-0.087481074,0.01088445,0.0048418194,0.014275506,-0.0005656034,0.03359178,-0.062105242,0.07985335,0.35406688,0.025657997,-0.45382506,0.11895319,0.12445279,0.05411006,-0.06457406,0.4301531,-0.09449114,0.06948729,-0.2491904,0.2570755,0.14180705,0.03785222,-0.033323474,0.2537517,-0.045231685,0.10301621,-0.4630881,-0.07939176,0.022378154,-0.22538829,-0.037033528,0.09559472,0.06146126,-0.016078599,-0.08003372,-0.11053697,0.05890448,-0.05528117,0.07741985,-0.032494344,-0.0052505285,-0.15847136,0.08605958,-0.045931622,0.0460473,-0.3456228,-0.46020085,-0.62587523,0.1032217,-0.1227408,0.27430564,0.08519962,0.061962917,0.14818534,-0.08928378,0.24437143,-0.123497546,-0.10741342,0.055503607,-0.06720659,-0.10190853,0.14697061,0.18330383,-0.08266427,0.17023441,0.26298675,-0.19483593,-0.06926297,0.04252799,-0.10902334,0.0816791,-0.05580681,-0.26203397,-0.022047698,-0.07740617,0.0012113452,0.308144,0.39124507,0.010226853,0.57481986,0.6439472,-0.27099162,-0.0065176776,-0.32021198,0.2237186,-0.12805635,0.12738678,-0.5325023,0.6226272,-0.35468253,-0.059969526,-0.14161144,0.07575282,0.059381876,0.014565151,0.16892323,0.17110044,0.25357392,0.031236723,-0.20732532,0.11909562,-0.09188618,-0.20162499,0.26491785,-0.10729878,-0.08138366,-0.028303355,0.06815858,0.61147153,0.08529688,0.062030196,-0.23891127,0.20494422,0.1968102,0.5596537,-0.33695638,-0.11384125,0.30421895,-0.16620405,0.13214093,-0.21910599,0.012507116,0.052700713,-0.01585488,0.7268104,0.27765366,-0.12935306,-0.07389125,-0.0997791,0.0019197632,0.77203023,-0.0042417645,0.17052147,0.33590335,-0.08037169,-0.03356053,0.44253048,-0.08805898,0.6897407,0.52798647,-0.08679577,-0.27863166,0.40321139,-0.34203205,-0.0007214397,-0.042597577,0.15140736,-0.004618332,-0.06512612,-0.23220234,-0.20298673,0.4800541,-0.05322767,-0.6386804,-0.19755737,-0.22299704,-0.07402206,-0.26306397,-0.5608544,-0.4282597,-0.06392527,-0.48629802,-0.62644684,-0.8225428,0.35554123,0.21257375,0.20808722,0.39878437,-0.049164247,0.081957765,-0.5707788,-0.00093510374,0.041350532,-0.24243961,0.086278476,-0.01490131,0.08500677,-0.008653127,-0.059676953,-0.13731547,0.23738815,-0.02798767,0.08723937,-0.06773154,0.08075482,-0.2603929,0.053236686,-0.03954895,0.0704556,-0.21622144,-0.05197811,-0.057415754,0.3807691,0.036660343,-0.067864254,0.047297243,-0.020260755,-0.14346777,0.03714809,-0.09892705,-0.0047007627,0.061047483,-0.31934437,-0.051862657,3.6902726e-05,0.18285732,0.027769595,0.0046893116,-0.22121662,0.05982071,-0.38070768,-0.3104313,-0.26603037,0.18804488,-0.38976106,-0.13512313,-0.105446585,0.37078387,-0.15007749,-0.39279956,0.12641305,-0.13190275,-0.24575068,0.37978292,0.0057799146,0.13688612,0.030836903,-0.08483707,0.120376766,0.0045417324,-0.17821448,-0.08894132,-0.29951525,0.37370136,-0.15752642,-0.036042318,-0.026137501,-0.48404402,0.17449287,-0.017266769,0.07970241,0.6761431,-0.1974795,0.0050026774,-0.0050420165,-0.49350762,-0.71728444,0.05161472,0.27046216,-0.234264,-0.0005915463,1.566429,-0.08996344,0.71326953,-0.13473205,-0.23472835,1.2529123,-0.028360192,-0.630617,0.12366384,-0.020741448,-0.011304544,0.3063519,0.049254596,-0.30510896,0.015368007,-0.13081247,0.0010546744,0.042246737,0.007508981,0.07220885,-0.09621811,0.017516203,-0.0059452206,0.07212634,-0.15538873,-0.41606516,0.00036618114,0.012451783,0.052565604,0.11930038,0.16974527,-0.045844994,-0.08014433,-0.005739711,0.05437399,0.08589956,0.19121763,0.20964701,0.07709079,-0.01853548,0.004302088,0.068950064,-0.0015702099,0.08522508,0.12461299,-0.33137953,-0.018744394,-0.01798223,-0.40854418,-0.25635606,0.04323321,0.053591594,-1.2172384,0.33659735,0.027088571,-0.40134114,-0.013691962,-0.14208591,0.1620753,0.096083105,0.07893729,0.032476097,0.31379598,-0.06943517,-0.08513989,0.032875903,0.1240641,0.27647734,-0.10532586,-0.032016378,0.1303808,0.07663212,0.13358326,-0.11710687,0.020844907,-0.16834576,0.33428496,-0.106747,0.11131461,-0.38821724,0.16221043,0.12310988,-0.0068541393
