1,240,3.6047814,-0.15010278,2.7649796,-0.7917876,1.6250248,1.1473562,2.0294194,-0.6271046,-0.50870186,-0.7123673,2.2831156,2.4884996,-0.5968624,2.933282,0.2600259,3.909443,-0.44627556,-0.80530566,2.1950324,3.2345326,1.1482054,-0.48430678,2.0773644,2.766677,-0.44129163,1.2014158,-0.6726221,0.29566547,2.8215625,1.8307235,0.49779227,0.37494978,-0.78472495,-0.07623556,3.182568,2.8721492,3.3567264,-0.11340764,0.60210675,-1.1611106,3.6428597,3.8661058,1.74411,3.470547,3.1342857,3.2905984,0.30446076,0.58282053,1.0779617,0.9096379,1.2306305,2.8361971,3.0413446,-1.271257,0.34526855,-0.77795386,-0.42717737,2.091323,0.32510415,2.5811393,1.0644844,3.2432978,5.4731,3.1388113,-0.117589496,5.3438206,3.706023,-0.33568767,-0.8247731,2.983847,3.3707798,3.1349733,3.1583352,1.606868,1.0331746,0.7393629,0.38560036,3.6634524,1.1399883,0.24938604,2.9415271,1.6116464,4.879986,-0.6194452,-0.45474142,2.8883164,3.0889378,0.6251704,3.0647886,2.7205315,-0.05973093,1.9679384,3.766828,1.2328442,2.5861018,-0.27139047,3.3828297,1.8498461,2.9977627,3.245084,0.441164,-0.33875614,-1.5759468,3.2550254,3.0625775,-0.7042754,2.44258,2.7377682,0.23845884,2.6427414,1.0401272,-0.05530069,0.31332734,3.3961635,2.7839894,3.0415273,0.8075029,1.06603,-0.5307181,-0.45745882,-0.67658585,0.09707816,2.8684728,0.5595221,1.0681751,3.506296,-0.047782645,3.2135644,2.8047168,1.3319485,3.5138497,1.059278,-0.27282074,3.0363548,2.0225902,-0.56268317,3.5704796,2.106337,-0.57792705,3.188609,4.233088,2.8948717,3.2229688,2.6836858,2.7022324,2.804079,-0.30197626,2.8201256,-1.5093979,0.82550657,2.7128422,2.8346589,-0.46413422,-2.02713,1.5191225,2.201566,3.8094003,1.298009,4.265163,-0.14456423,3.089768,-1.0497155,3.4827821,3.7246244,0.6262611,0.80003774,0.42617738,-1.5505197,1.0184034,0.8279958,0.25828484,-0.5198419,0.23183082,-0.5906166,5.5886035,-0.48768955,-0.0883247,3.0788286,0.5524067,-0.3299761,-0.9018796,3.7774863,3.5044296,0.021975653,0.08126134,3.3584473,1.5367295,1.5107409,1.5025461,-0.6657798,3.1876364,-1.0238286,-0.57281405,3.283179,-0.8475809,3.399159,-0.018605428,1.781468,3.0499065,5.5631857,-0.25334755,3.6166532,2.8901863,0.075603515,1.4253381,2.7410324,-0.8875902,1.3679483,5.265625,-0.49708542,2.8522098,0.55774456,-0.1132494,3.253863,-0.34526634,1.0214711,2.6898944,0.53619653,-0.95951176,-0.75637835,3.0080395,1.4035631,3.27309,4.936036,-0.42711428,4.481333,-0.4299741,3.4587283,3.1090596,6.8205786,2.522001,3.18232,3.381109,-0.41718224,-0.5769058,2.4435432,1.0420524,2.2047994,-0.091866076,1.1325494
