4,144,1,5,5,0.104392394,0.10588835,-0.026658222,-0.09878517,-0.0627929,0.28493986,0.31024528,0.0058344156,-0.28997698,-0.3197328,0.5245356,0.42096245,0.025728822,-0.42453516,-0.5635609,0.34999272,0.31398064,0.0010978878,-0.34787896,-0.30498052,0.13357177,0.07673452,-0.034737796,-0.113538474,-0.12106955,-0.022713467,-0.03559521,-0.0053414702,-0.016440993,-0.026134316,-0.017603993,0.23684439,0.3453928,0.18954465,-0.031884503,0.008003473,0.36528426,0.5061807,0.30534703,-0.030418517,-0.033138126,0.18991739,0.31191155,0.120159686,-0.04167658,-0.033497132,-0.04978311,-0.026171863,-0.0485983,-0.020617262,0.09186803,0.07949674,-0.008797262,-0.08296539,-0.08774954,0.3091704,0.28886276,0.02409777,-0.2740724,-0.30455813,0.584473,0.38622057,0.010319293,-0.4305307,-0.5543552,0.37201145,0.25801978,-0.03611076,-0.31933478,-0.27829432,0.129547,0.0742653,-0.047194958,-0.111382514,-0.110304415,-0.05717685,-0.06068042,0.015091993,0.059912976,0.03293209,-0.06333036,0.06204772,0.29103863,0.22606495,0.04219091,0.021904886,0.31396747,0.5063158,0.22243437,-0.017192017,0.06273457,0.22770703,0.28180674,0.050595105,-0.05404152,0.026939824,0.040891677,0.02605638,-0.030522078,-0.027919143,0.014098279,-0.0023107529,-0.031857967,0.0014536511,0.010548264,-0.032089815,-0.20772618,-0.33212522,-0.17121026,-0.0016546845,-0.07539498,-0.35951656,-0.5216408,-0.3070673,-0.057485484,-0.03445208,-0.16299875,-0.27027833,-0.14502326,-0.028872311,0.018618464,0.024202406,-0.0067581832,-4.091859e-05,0.018870167,-0.026590377,0.118861705,0.38335913,0.20795327,-0.018794201,0.1991017,-0.19163507,-0.63850504,-0.1287508,0.22463413,0.4628221,-0.564752,-1.7723703,-0.51254785,0.49085575,0.24585027,-0.15337083,-0.5676324,-0.10811195,0.2606854,0.0015093386,0.16337387,0.4385094,0.23011705,0.003186196,0.11559743,0.21193711,0.16522765,0.16078132,0.10065158,0.20564337,-0.2042019,-0.5901426,-0.14696933,0.21127665,0.19519961,-0.5820477,-1.1702747,-0.4837249,0.22199965,0.19515705,-0.13960823,-0.51376367,-0.14428252,0.18665643,0.09267541,0.20836198,0.23591274,0.17488664,0.086476624,-0.012570396,-0.019022435,-0.093865484,0.06526795,0.0632969,-0.09017226,-0.362485,-0.38075435,-0.14111593,0.0063562654,-0.14843544,-0.47231406,-0.541433,-0.44245186,-0.084007174,0.008684814,-0.15210097,-0.35954648,-0.2274409,0.0010072589,0.07102528,0.03518807,-0.044788033,0.029263496,0.0077388487,-0.040473215,-0.07107092,0.0050895214,-0.048832297,-0.045067728,-0.060537107,0.2349686,0.5228492,0.21270591,-0.07015075,-0.032290455,0.50104004,0.90665054,0.4241416,-0.07619412,-0.07260832,0.1522717,0.38410792,0.092788145,-0.11346106,-0.04791765,-0.11325207,-0.080871925,-0.124354966,-0.055839047,-0.02739118,-0.013944685,-0.021898687,-0.009498842,-0.0051618367,-0.036241252,-0.18914235,-0.2645659,-0.121445134,0.005905807,-0.06071669,-0.2918406,-0.3690459,-0.20598096,-0.008516669,-0.03456247,-0.15169463,-0.20011872,-0.067463756,-0.0030642152,-0.028675154,-0.021194622,-0.01734382,0.0020054877,-0.019065559,-0.182899,-0.26071796,0.040686473,0.42157394,0.27143493,-0.28163266,-0.5063427,-0.11005413,0.43693444,0.34296829,0.03713972,-0.050517604,-0.16560479,-0.14454925,-0.00376001,0.39993083,0.4569624,-0.13648053,-0.48197582,-0.22547437,0.250512,0.32059684,-0.0010241047,-0.21033832,-0.11443038,-0.031943202,0.05296634,0.15058418,0.054501027,-0.05287885,0.09313597,0.24437119,0.32351655,0.11639583,-0.03568372,0.16513969,0.33045763,0.24294959,-0.039592773,-0.0528913,0.021594018,0.04266888,-0.11648211,-0.28822008,-0.24093841,-0.081728384,-0.10982065,-0.23685579,-0.30189398,-0.20681764,0.025121853,0.12423101,-0.2619636,0.0084889345,0.1103583,0.010870896,0.09429324,-0.43324375,0.23823974,-0.011032306,0.18386556,-0.27328113,-0.24202633,0.25886285,-0.07475134,0.22511446,-0.45273677,0.15683548,0.067474574,-0.034563303,0.011144787,-0.26438546,0.24504033,0.004263103,-0.03543374,-0.0037544966,-0.043584585,-0.14282897,-0.15142225,-0.02938214,-0.044081554,-0.20567375,-0.2826575,-0.22771187,-0.079010636,-0.1429905,-0.25485948,-0.26966342,-0.2299886,-0.10662088,-0.07592214,-0.2182485,-0.2899183,-0.13926852,-0.00049420446,0.0020071268,-0.08542745,-0.10095622,-0.03948967,-0.009706482,-0.018837154,-0.042752415,-0.32406807,0.22380787,-0.019680947,0.020271957,-0.1928289,-0.045300364,0.4273243,-0.14239642,0.028382123,-0.41389155,0.41952938,0.14084145,-0.11216763,-0.16584188,-0.028698683,0.35143298,-0.1729101,0.017346501,-0.10233131,0.13403949,0.07896691,-0.09656948,-0.04124038,-0.05920884,-0.14428079,-0.2521425,-0.18828058,-0.052527875,0.0905752,-0.013159841,-0.2329416,-0.3610146,-0.2205626,0.21743175,0.24946013,0.13490063,-0.0728215,-0.1207881,0.11799475,0.26787537,0.28477368,0.12063007,-0.012527235,0.021158487,0.11661282,0.18355441,0.06485866,-0.023172975,-0.0050191283,0.02946923,0.016292423,-0.022252977,-0.028067205,0.033694685,0.22856092,0.34921527,0.17159115,-0.0022518486,0.080993325,0.3656941,0.5623203,0.31225833,0.036676638,0.031071872,0.1676107,0.2661311,0.14943576,0.00056913495,-0.034100473,-0.024505839,-0.041705072,-0.033721074,-0.0059494004,-0.06741813,-0.14626858,-0.13768175,-0.1482977,-0.19077908,-0.18397078,-0.22702202,-0.13975753,-0.17927909,-0.21603912,-0.21077874,-0.25232846,-0.08598647,-0.24047805,-0.17494851,-0.21811652,-0.22843008,-0.14744088,-0.12982225,-0.10843557,-0.10127655,-0.12882349,-0.14244013,-0.19336537,-0.1748969,-0.04702136,-0.016238898,0.028665915,-0.017689817,-0.04969112,-0.01188159,0.17716818,0.3423052,0.16354527,-0.021015674,0.047633067,0.3649998,0.47656554,0.27447155,0.02481389,-0.019389987,0.16452077,0.27392364,0.1176849,-0.034908563,-0.05916898,-0.04322329,0.0104676485,-0.022219151,-0.043158367,-0.11769399,0.08136302,0.20662934,-0.073750734,-0.015501834,-0.18688329,-0.12451071,0.4469342,0.021379258,-0.13656577,-0.065145746,-0.4418181,0.3755631,0.33569574,-0.092283785,0.03184189,-0.38126498,0.013157457,0.30475423,0.010409191,-0.01189971,-0.120067194,-0.053301618,0.07939982,0.030615509,-0.02440697,-0.04766828,-0.040228385,-0.062238775,-0.02972722,-0.046729647,0.24119756,0.44711637,0.1676181,-0.09327465,0.016032577,0.43194687,0.68613297,0.3225929,-0.093485564,-0.036133707,0.15160708,0.30344972,0.10241097,-0.08593109,-0.040899992,-0.09481259,-0.09522554,-0.067812175,-0.012804145,0.0065037906,-0.1543926,-0.07827167,0.0007645339,-0.043007717,0.11413672,0.061808243,-0.429151,0.03231989,0.0044518113,-0.11850622,0.44296914,0.2801659,-0.4234831,-0.10180619,-0.045270443,-0.13932388,0.46023428,0.19409673,-0.12702233,0.005541019,-0.040895134,-0.08340004,0.07353233,-0.008671671,-0.009575039,-0.040923,-0.06252132,0.012938261,0.025982156,-0.0421082,-0.20746912,-0.3505381,-0.14389692,0.058937304,-0.02608934,-0.3348616,-0.53114706,-0.25763345,-0.0022043139,0.014132347,-0.18215585,-0.29908353,-0.1685344,-0.01920332,0.00993526,0.017952621,-0.019669391,-0.03700149,-0.020446053,0.032239437,0.055020347,-0.03258428,-0.020024478,-0.1099295,0.1919601,0.32222244,-0.024445623,-0.28919977,-0.18238124,0.34809735,0.5385144,-0.08549179,-0.52417135,-0.25098065,0.1781286,0.29867408,-0.02784732,-0.27083558,-0.18581861,0.038057566,0.07171605,-0.052108586,-0.02817139,-0.10252912,-0.09827286,-0.04203558,0.22519185,-0.110593885,-0.08847024,-0.034629885,-0.12838824,0.41316026,-0.17506891,0.013068147,-0.012863293,-0.097504295,0.6123529,-0.21064724,0.028211817,-0.0069196224,-0.11234339,0.400648,-0.17232072,-0.0097375065,-0.0973062,-0.015724717,0.23111343,-0.09674351,-0.09520912,0.0061663836,0.09469406,0.11123942,-0.13137534,-0.021233834,-0.14097038,0.30258298,0.11559051,-0.40493152,0.10142976,-0.12307195,0.49127415,-0.13458157,-0.48642752,0.20471829,0.02804957,0.2763663,-0.21154244,-0.212617,0.12631747,0.047836512,0.014738366,-0.05189489,-0.073664874,-0.011131778,-0.06667661,-0.06922943,-0.026256919,0.07603347,0.14374766,0.20991434,0.28759876,0.32509965,0.16304083,-0.0538276,-0.0233434,-0.23822272,-0.58459514,-0.49465016,-0.22921419,-0.2685238,-0.20260957,0.0073928833,0.15648639,0.112365976,0.12722735,0.18607762,0.07711852,-0.0017080344,0.01644288,0.05204293,0.01292631,-0.0456284,-0.05239618,-0.002473414,-0.15240803,-0.2578757,0.15854867,0.33992273,0.032824934,-0.38284576,-0.54514843,0.32023767,0.6704337,0.15606791,-0.1545103,-0.18471238,0.0633169,0.13171114,0.054006517,0.035427466,0.024217963,-0.10694283,-0.124269135,-0.005323708,-0.02690047,-0.09727502,-0.10954806,-0.04621631,-0.0026382655,-0.032387197,-0.17732003,-0.22251071,-0.14143406,0.0080985725,-0.02161932,-0.16252446,-0.19698313,-0.153274,0.00033438206,-0.02861023,-0.1621559,-0.23295909,-0.11380648,0.006352037,-0.037881903,-0.09904626,-0.08185938,-0.034471005,-0.01852566,-0.033028305,-0.0013519265,-0.022323241,-0.07160027,-0.041539907,0.023110842,0.34578255,0.44780105,0.09675637,-0.11349989,-0.038398802,0.4274522,0.7297311,0.3583898,-0.075208634,-0.08905873,0.02388443,0.26956525,0.22877581,-0.024866221,-0.045056567,-0.06003326,-0.07974774,-0.0732173,-0.028206067,0.11688361,0.04250202,-0.038697824,-0.014668927,-0.005971268,0.055820495,0.3044801,0.3109122,0.08737839,0.013297811,-0.26506054,-0.3515883,0.0019441545,0.31790525,0.27731305,-0.04515131,-0.16916047,-0.47970906,-0.3957849,-0.07773973,0.0469961,0.05430257,0.0854556,0.028107353,-0.101199515,-0.010177597,0.041432694,0.09190342,-0.0066736937,-0.029076904,0.03175424,0.28347406,0.42668048,0.22350682,-0.00097608566,0.0869222,0.38528123,0.51481616,0.34460777,0.041730687,-0.006885303,0.16358727,0.2742831,0.14474148,-0.016048286,-0.03503366,-0.026399747,0.01734984,-0.040938683,-0.026577607,-0.11676411,-0.057352453,0.007360637,0.11083445,0.08102885,-0.18732849,-0.31885514,0.078597374,0.2629362,0.10813689,-0.29114547,-0.40893078,0.1439802,0.36359143,0.122325465,-0.24944499,-0.18207361,0.09966031,0.20884944,0.062235028,-0.115383685,-0.0072095273,0.027053297,0.09091875,0.052955367,0.09844605,-0.1596296,-0.55251664,-0.20259058,0.11192262,0.068220615,-0.14209238,-0.4068075,-0.14985442,0.040276185,-0.14091189,0.161935,0.63447547,0.12819792,-0.24811877,-0.16479969,0.23822568,0.67302954,0.16583434,-0.22642723,0.014676094,0.030122384,0.029389024,0.008146077,-0.0040797293,0.005855739,-0.12074357,-0.180982,-0.00038661808,-0.0195508,0.05321151,0.46125743,0.1744651,-0.27993566,-0.07077756,-0.2394622,-0.2442782,0.56544197,0.4183659,-0.03898376,-0.0048027188,-0.07762976,-0.42124242,0.07667367,0.14567344,-0.040222988,0.012369052,0.034290463,-0.12767872,-0.059309155,-0.071821414,-0.15699166,-0.13487467,-0.027641654,0.018344373,-0.13839993,-0.2366111,-0.3001355,-0.19809885,-0.0042780936,-0.117316395,-0.26506475,-0.31167895,-0.25769734,-0.13396728,0.0028495342,-0.16308865,-0.2606468,-0.1924715,-0.06696918,-0.0012031347,-0.03324175,-0.06680405,-0.04945147,-0.00061424077,-0.005662307,0.035512388,0.0712685,0.030607224,-0.007138334,0.06370754,0.15342204,0.19585381,0.13656983,0.04205575,0.098041624,0.17709231,0.23737606,0.21666197,0.10056348,0.04079166,0.11527111,0.16453719,0.110032395,0.031618893,-0.022045493,0.017022599,0.050500453,0.012470096,-0.04022237,-0.04512483,0.018176466,0.03711094,-0.03930828,-0.04731053,-0.0022277832,0.22231093,0.28419033,0.15999615,-0.056405634,0.074542806,0.26600936,0.3499401,0.27151302,0.034248352,-0.006665796,0.15106067,0.25904858,0.19626004,-0.002595216,-0.032049995,-0.02493038,0.008674711,-0.030222163,-0.03170255,-0.032390684,-0.010158949,-0.248191,-0.17672382,0.000780344,-0.16170649,-0.24729379,0.26249528,0.44738185,0.14002958,0.20667988,0.44627404,0.26582858,-0.25821817,-0.23591226,0.056518093,-0.22934413,-0.31439266,0.0031832233,0.0021283627,-0.10279073,0.027685218,0.0852887,0.010757536,0.024882376,-0.027103983,-0.066128254,-0.08871378,-0.06155789,-0.023366615,-0.021050274,-0.19579972,-0.31507003,-0.1965987,-0.009556413,-0.050385505,-0.28875318,-0.45857388,-0.2651547,0.008412991,-0.05197817,-0.22668193,-0.27810192,-0.14583738,-0.027044564,-0.016315162,-0.07091369,-0.051963627,-0.03376445,-0.011761114,0.032431632,-0.11075893,-0.18995398,0.02394113,0.008481979,-0.12590444,-0.5464601,-0.22254415,0.19702661,0.020155251,-0.2436822,-0.27036408,0.35565382,0.40900683,-0.01907079,-0.049188614,0.20282479,0.444027,0.14537221,-0.0771649,-0.037540816,0.06123717,0.025961146,-0.10541728,-0.06251149,-0.006785363,-0.060873,-0.11281788,-0.051355243,-0.008255988,-0.06754725,-0.26402164,-0.36183527,-0.25174755,-0.056977034,-0.11102889,-0.3339061,-0.36043322,-0.3112512,-0.098899856,-0.0490914,-0.20358813,-0.28505883,-0.16645193,-0.038908426,0.0028322358,-0.033903778,-0.097693235,-0.031279467,0.0026252717,-0.056021094,-0.103564024,0.23528193,0.18346469,-0.05130446,-0.11399278,0.053061634,0.41100538,-0.04736586,-0.13901828,0.053833842,0.41867626,0.3019829,-0.41043547,-0.14645495,0.13456367,0.17926012,-0.25163978,-0.30986235,0.019666784,0.034231365,-0.09901011,-0.3310571,-0.07602483,0.055215508,0.070722364,0.18657449,0.19444047,0.120215274,0.047390535,0.16714297,-0.21490356,-0.5504817,-0.113175794,0.17967406,0.15829398,-0.5941735,-1.1456298,-0.37953773,0.21199454,0.13607147,-0.1479072,-0.43073773,-0.08688834,0.134747,0.06102097,0.2062283,0.22124815,0.14405933,0.04183112,-0.0032102577,0.029479265,0.06689173,0.036854595,-0.015562981,0.02482926,0.22686483,0.35379934,0.21744666,0.011573985,0.021680787,0.32595897,0.46846598,0.31646568,0.025379092,0.011195958,0.19524476,0.29955968,0.16342774,0.0007814914,-0.026963588,0.0009796321,0.03222415,-0.0012362599,-0.030956134,0.0605055,0.10760691,-0.013022482,-0.13208285,-0.0654051,0.089545846,0.48605308,0.35602376,0.021261364,-0.11731422,-0.022553287,0.42323875,0.6542288,0.3479449,0.015081167,-0.12089728,0.0073686168,0.37377512,0.2930013,0.065480284,-0.058036223,-0.13287835,-0.0038286597,0.039079815,-0.014110938,-0.1080291,-0.09907353,0.06919272,0.0019111633,0.012213342,-0.099267125,0.15732345,0.36355495,0.27376884,0.05786456,0.08318764,0.44239193,0.500828,0.38485914,0.0068389773,0.12307869,0.2734883,0.28715387,0.06735863,-0.104775034,0.02095905,-0.007934809,-0.010291725,-0.10219875,-0.06562945,0.087266624,0.09882994,0.12987058,0.08035062,0.07600315,0.106390126,-0.12429244,-0.42029485,-0.0948137,0.13824748,0.16070533,-0.41914836,-1.0758387,-0.42091766,0.15589374,0.068370506,-0.15664065,-0.4000259,-0.18212074,0.046531275,0.13280374,0.1383784,0.13240208,0.12784329,0.14900838,0.008927166,0.10545382,0.17900985,0.09102057,-0.029638782,-0.04099009,0.30743808,0.4739661,0.19044094,-0.08870697,-0.040585384,0.19062993,0.28368348,0.08212706,-0.07064213,-0.020217687,-0.11690748,-0.33457947,-0.15894064,-0.050313473,-0.059643053,-0.15916619,-0.32137963,-0.18292665,-0.060077548,-0.07968979,-0.18476771,-0.19550836,-0.13646504,-0.036980256,-0.23099145,0.2345221,0.7180432,0.16498029,-0.25053087,-0.25363857,0.66024184,1.469536,0.45319656,-0.34306878,-0.16606167,0.16329256,0.4887796,0.08282074,-0.17760321,-0.057700038,-0.22459076,-0.3047899,-0.167348,-0.008253394,-0.11649445,-0.20116505,-0.03220898,0.047062814,0.018426418,-0.18862475,0.066532284,0.44969392,0.26856992,0.030891746,0.053644627,0.44911623,0.35389844,-0.19216518,-0.19716963,0.09752262,0.1398175,-0.26472294,-0.45523158,-0.11949776,-0.025618905,-0.06379083,-0.15752456,-0.08249715,0.019425303,0.00030708313,-0.04429721,-0.07820986,-0.023305595,0.001234889,-0.03199911,-0.22605357,-0.36662334,-0.19455707,-0.0015102029,-0.08067918,-0.3951029,-0.51586497,-0.33259782,-0.03356597,-0.05225789,-0.25285742,-0.349638,-0.19152454,-0.02753672,-0.024699911,-0.030148476,-0.027958632,-0.012204468,-0.008952349,0.00012515485,0.088918746,-0.076523304,-0.196613,0.02051887,0.0946407,0.29972076,-0.35525683,-0.19267319,0.2351244,0.20649917,0.17214671,-0.65259576,0.074087426,0.26262382,0.11580652,-0.112511575,-0.3717368,0.18603396,0.12816364,-0.0024244115,-0.095724925,-0.07618737,0.047187746,0.0408138,-0.02209805,-0.2527369,-0.4535662,-0.24510089,-0.044593364,-0.25901738,0.14295253,0.6310433,0.20194647,-0.22652942,-0.46524742,0.6174431,1.6890625,0.6119958,-0.40010655,-0.26547277,0.18498698,0.6383614,0.1583342,-0.21027598,-0.046349496,-0.21993446,-0.37811032,-0.19938174,-0.029945858,-0.016656928,0.12614347,0.07869488,-0.080977954,-0.06926623,-0.03644231,0.29823333,0.19809765,-0.24647105,-0.07453591,-0.04074285,0.40639007,0.19427456,-0.34807682,-0.06838268,-0.020095944,0.27756715,0.104813576,-0.2366604,-0.060937315,0.0009263158,0.09431413,0.027868986,-0.059460104,-0.043300986,0.016994461,0.16210014,0.17769462,0.15956941,0.069303244,-0.25844833,-0.4808362,-0.62356824,-0.42467853,-0.22238474,0.1145497,0.15068746,0.08382481,0.016594738,0.0041053146,0.1012574,0.12248268,0.17458925,0.14213003,0.14346063,0.0008709505,-0.035586655,-0.03993988,0.00042834878,0.03823799,0.26324168,0.38399032,0.04062143,-0.22797565,-0.11522129,0.39952007,0.40645495,-0.11135304,-0.42542738,-0.21904044,-0.0032210462,-0.14962122,-0.22695829,-0.024726795,0.049577236,-0.2873585,-0.48059452,-0.09377816,0.42691723,0.34646985,-0.120734215,-0.18017557,0.063795105,0.31789103,0.18219462,0.0610977,-0.061531495,-0.22188145,-0.073803894,-0.038345337,-0.17533869,-0.42557746,-0.24471891,0.11790943,0.12184652,-0.33974493,-0.16697592,0.35662967,0.3803995,0.1740751,0.00033795834,0.29397443,0.39655602,0.08807182,-0.057260618,-0.0023612976,0.08636547,0.0763621,-0.097961694,-0.13302258,0.03997474,0.07182267,0.013850331,-0.06076272,-0.043030605,0.04994285,0.2707516,0.32571203,0.030898884,-0.070604175,-0.033465177,0.2596844,0.4644783,0.27018493,0.0065566227,-0.077322155,0.0042758584,0.20071755,0.18929435,0.021538587,-0.03575757,-0.068489105,-0.042818666,-0.008794561,0.0039580613,0.029743128,0.043327987,-0.16750792,-0.17228717,0.01781188,-0.15580961,-0.43766278,-0.13046071,0.31792927,0.2965538,-0.116607055,0.19305012,0.595603,0.1231204,-0.16837583,0.174254,0.19047195,-0.109552205,-0.3208689,-0.06717312,-0.0016308874,-0.05352033,-0.101753145,-0.024897695,0.021858886,0.0921035,0.08565529,-0.051553234,-0.060921818,0.036369693,-0.14741528,0.08022204,0.3755142,0.15644291,0.0052448213,-0.10783036,-0.46543437,-0.4310797,0.1521126,0.20575674,0.15226081,0.27168706,-0.11892306,-0.37147507,-0.17425334,0.0024487376,0.041781127,0.19651717,0.12096476,-0.023345307,-0.029738754,-0.24329078,0.26571813,0.014503181,-0.047291216,0.15723479,-0.46052086,0.18617396,0.11232521,-0.047083795,0.16954519,-0.2883487,-0.27848235,0.31512552,-0.06804666,0.044533513,0.054593682,-0.45350876,0.22604594,0.029477537,0.038765587,0.0838663,-0.24552926,-0.024978258,0.119576946,0.0445752,-0.09823482,-0.17691156,0.08671099,0.02208072,0.25723088,-0.11193426,-0.43054134,0.32666135,0.07382095,0.2809093,-0.1183373,-0.62542623,0.3817956,0.12611374,0.15470275,-0.044903368,-0.37022692,0.11773671,0.08445974,0.0157758,-0.0236791,-0.10355276,-0.019225657,0.030397087,-0.10594193,-0.071133316,0.23030704,0.09592994,0.000908196,-0.059482813,-0.3567201,0.20300116,0.27526605,-0.03007479,0.08070004,-0.34475967,-0.21518195,0.35196954,0.087473735,0.17117673,-0.097522214,-0.44199723,0.050888635,0.14206648,0.08738838,0.016341746,-0.22687082,-0.10571386,0.069256276,0.013385318,-0.019528419,-0.021355093,0.04249712,-0.010081857,-0.03445971,0.024164796,-0.04542038,-0.09185952,-0.14632206,-0.2120589,-0.31816724,-0.3299705,-0.09133403,-0.011680633,0.15054834,0.40992618,0.61581707,0.35289195,0.11302638,0.077294126,-0.06364832,-0.16196135,-0.13637666,-0.047628574,0.057621524,0.038843364,-0.04041809,-0.15781523,-0.121231556,0.19252026,0.20553689,-0.05139762,-0.2743356,-0.25832033,0.26498547,0.33452392,0.0793863,-0.2482553,-0.31322387,0.16173002,0.19842434,0.07203558,-0.13389823,-0.1570093,0.05925192,0.035984218,-0.011241347,-0.07325894,-0.06426336,-0.03494683,0.0064677,0.06401841,-0.019961387,-0.04924746,-0.030511815,0.20550334,0.3546259,0.18583764,-0.04459831,0.07177852,0.35215238,0.44394326,0.34151787,0.02654785,-0.020793542,0.19416946,0.41131225,0.19691306,-0.038095683,-0.040656954,-0.049474627,0.017396525,-0.011761956,-0.013418496,0.07245471,0.27048925,0.47898278,0.27728194,0.02421192,0.38314807,-0.284216,-0.667004,-0.16887705,0.33304685,0.53353304,-0.5819072,-1.3535328,-0.40706548,0.532944,0.30721182,-0.12000108,-0.40923873,-0.0839358,0.26371762,0.038643166,0.27991894,0.5247668,0.26581264,0.025881797,-0.002839014,-0.019511886,-0.053597853,0.04383363,0.08627565,-0.0336729,-0.27057788,-0.45021445,-0.20759763,0.052376617,-0.0731374,-0.43765756,-0.5908295,-0.39509034,-0.04143429,0.017480984,-0.18077487,-0.31638226,-0.17089818,0.0016728938,0.06613985,0.05020647,0.014913604,0.050621267,0.017370641,-0.07934892,-0.11313983,0.035634577,0.13298512,0.032308012,-0.094614565,0.14725474,0.45732734,0.29236856,-0.02682601,0.024140209,0.42503434,0.5967742,0.33211377,-0.017169282,0.08506719,0.3484558,0.3596345,0.039922625,-0.103043824,0.018974349,0.036951818,-0.012683988,-0.10873675,-0.051377952,0.02928108,-0.2566846,-0.5436234,-0.23039605,0.072856225,-0.010812968,-0.10598676,-0.1619594,-0.08112472,0.0047841165,-0.110464655,0.33213675,0.77187544,0.2411379,-0.19374216,-0.077866085,0.21154594,0.56653214,0.19597784,-0.10282576,0.06263721,-0.012921706,-0.07345461,0.013908584,0.080394715,0.0105832815,-0.050631836,-0.10031891,-0.04791507,0.0047017336,-0.10037932,-0.26751584,-0.29637852,-0.25486025,-0.09199451,-0.17870416,-0.33243474,-0.30186278,-0.31999016,-0.15909196,-0.08926353,-0.20290993,-0.22922224,-0.17682919,-0.064836964,0.009696096,-0.027316362,-0.057753533,-0.013647564,0.01973024,-0.045500204,-0.018827796,0.015940798,0.01802184,-0.0068737417,-0.008999422,0.15261559,0.30701625,0.23113476,0.046922874,0.022514239,0.27250782,0.49927577,0.31627333,0.049840435,-0.0021881163,0.15851149,0.2676149,0.14362085,0.0050130486,-0.024046883,0.0036598698,-0.012488484,-0.025547147,-0.012735486,-0.038304567,0.18936361,-0.1738081,-0.06352596,0.023290485,-0.12318726,0.3679987,-0.26082498,0.011610776,0.05725494,-0.16523145,0.60175544,-0.2793338,0.01135651,0.06190662,-0.114890546,0.38663745,-0.20143884,0.0142529905,0.03909239,-0.05945006,0.18681921,-0.15235174,-0.076670185,0.014319092,-0.054813474,-0.05384757,0.06588429,0.029279202,-0.06719349,0.054548968,0.26533073,0.3856662,0.17246898,-0.07641126,0.032748867,0.38790283,0.5421868,0.33661473,0.023066692,-0.05651702,0.16019472,0.29378486,0.13823949,-0.0024507642,-0.04371798,-0.030963153,0.020365909,-0.065800324,-0.052742094,-0.07759419,-0.03558003,0.027262077,-0.029713154,-0.06560401,-0.05006069,0.11994521,0.22953117,0.10244724,-0.045109347,0.024679951,0.2434398,0.32743454,0.1814843,-0.009223342,-0.02516073,0.0952211,0.1938993,0.05745849,-0.039559513,-0.06433778,-0.051945224,0.005777329,-0.031142516,-0.051098384,0.059682976,-0.031904668,-0.08947894,0.007845227,0.032229602,0.028658032,-0.15343727,-0.3302246,-0.21479191,-0.051187187,-0.08029655,-0.32086542,-0.48223087,-0.29770952,-0.038836263,-0.053592533,-0.17028332,-0.268515,-0.19086674,0.030465737,0.045906916,0.03634724,-0.050978437,-0.06779337,0.03290021,0.031600237,-0.21251279,-0.09491438,0.18568093,-0.038029574,0.10447843,-0.23887008,-0.11048955,0.3816232,-0.096262455,0.09572905,-0.30554625,-0.08875185,0.5684308,-0.11802164,0.0869962,-0.22149986,-0.06844956,0.35225555,-0.11872524,0.0042627677,-0.16649234,-0.046469152,0.17121123,-0.026029915,0.024137437,-0.023713097,-0.09922413,-0.04507211,0.019353345,-0.004803002,-0.23320822,-0.4404686,-0.24951047,-0.009430142,-0.10002939,-0.39475796,-0.5309051,-0.33943513,-0.0611587,-0.053949952,-0.22707185,-0.2986548,-0.1781439,-0.028374583,0.020910382,-0.01433745,-0.040143758,-0.011813223,0.013883065,-0.029798344,-0.022087693,-0.01967384,-0.02471152,-0.0017322302,-0.06421569,-0.21545416,-0.277861,-0.19218738,-0.048162878,-0.11761923,-0.34200922,-0.43112162,-0.2844452,-0.074244455,-0.054648414,-0.18871921,-0.23332405,-0.1419034,-0.02798152,-0.016820736,-0.014012992,-0.0019806027,-0.0015271157,-0.004618138,-0.020589076,-0.23313135,-0.41782618,-0.23295745,-0.06148842,-0.23727687,0.114549264,0.55934703,0.18643725,-0.21465942,-0.46530226,0.53072274,1.559074,0.6074629,-0.36008757,-0.25597748,0.16458823,0.6263247,0.21390279,-0.2015534,-0.049508244,-0.19030966,-0.33618346,-0.19545723,-0.06642258,0.017443001,0.008775741,-0.05253294,0.010713361,0.0048609674,-0.015257776,-0.23405012,-0.34698182,-0.1601657,-0.0056887865,-0.07870197,-0.39172062,-0.47832188,-0.3715113,-0.04913789,-0.004602559,-0.17397813,-0.30867815,-0.15885574,0.0079805255,0.015039802,0.01425989,-0.018612444,0.032294303,0.0043852925,-0.07612925,-0.092282325,0.017613381,0.029688492,-0.005929253,-0.07455369,0.13777554,0.4277577,0.32519537,0.0012109876,0.024959572,0.48377472,0.73760307,0.36855358,-0.052044645,0.06367838,0.31574234,0.33655998,0.06522924,-0.07671917,-0.0010743886,-0.025680512,-0.06124805,-0.07386972,-0.040995106,0.056517273,0.11213961,0.077354014,-0.013079852,-0.015320934,0.050903738,0.22419417,0.34454775,0.2394864,0.07988164,-0.19133353,-0.1835097,0.016293064,0.16136248,0.15517478,-0.16298386,-0.34116483,-0.43454832,-0.25262877,-0.062636435,0.0008493662,0.0059013665,-0.047129005,-0.09214991,-0.065246195,-0.07901099,-0.008570939,0.05819245,-0.004052885,-0.05284775,-0.16225931,0.29903594,0.66402733,0.19095805,-0.20351896,-0.1878523,0.50545526,1.0321966,0.33594033,-0.2952795,-0.12986895,0.1754985,0.45756212,0.13494638,-0.16649626,-0.0421986,-0.088115245,-0.105801985,-0.04622069,-0.012904495,-0.0028018951,-0.07196088,-0.11628382,-0.06160829,0.0043441206,-0.06719929,-0.25882366,-0.3247257,-0.2263141,-0.043429986,-0.11590174,-0.32421783,-0.3744365,-0.32910532,-0.0658847,-0.03219068,-0.2262733,-0.2852664,-0.1668744,-0.0075509846,0.005788654,-0.041662514,-0.055787623,-0.012481406,0.012159079,0.040033907,0.104943186,-0.15493286,-0.111895576,0.061392978,0.06487684,0.2985948,-0.32149825,-0.24959834,0.2257568,0.065806866,0.3971321,-0.40258646,-0.4147462,0.22778878,0.04521391,0.30743486,-0.24911433,-0.23657072,0.15914597,0.0062961876,0.06609757,-0.11327168,-0.0567248,0.024874628,0.03666088,0.020789504,0.03923744,0.068423614,0.036492497,-0.044199675,-0.23733173,-0.36937797,-0.13700789,0.0581958,-0.0658012,-0.4535751,-0.6956425,-0.2734421,0.043857742,0.015853368,-0.1285456,-0.2608374,-0.12583786,-0.0029924512,0.04496496,0.09901516,0.11618781,0.07785103,0.039264232,-0.091683805,-0.1252094,-0.18215069,-0.14430034,-0.104683265,-0.12836936,-0.3385172,-0.4783249,-0.27848756,-0.082263544,-0.07187863,-0.008967727,0.085733436,0.118623435,0.047171026,0.07625172,0.30130255,0.47530478,0.29666194,0.05966841,0.070843086,0.09657541,0.060809195,0.026918687,0.048586637,-0.05959652,-0.006782651,-0.05148077,-0.16052127,-0.015761495,-0.011487454,-0.15699022,-0.39698452,0.10811776,0.16372529,-0.27513748,-0.23979056,0.46192652,0.35667127,-0.039334696,0.0685454,0.41553062,0.22113986,-0.22246921,-0.032066554,0.069333375,-0.018696874,-0.14071515,-0.016137093,-0.017575294,-0.23749074,-0.24692094,0.038213998,0.2653358,0.08169639,-0.20963797,-0.31538638,0.10128246,0.4539289,0.2489562,0.09963949,0.08382922,0.07127455,-0.030618727,0.011903286,0.26156184,0.38565513,-0.04875195,-0.43111455,-0.25696662,0.053346664,0.19750202,-0.00027939677,-0.23267859,-0.22200298,0.11072861,0.085392356,0.051910833,0.032493383,0.033169806,0.14263824,0.3089492,0.3492567,0.22168781,0.101917736,-0.027187034,-0.051223986,-0.056645617,-0.032071948,-0.02344349,-0.14694196,-0.3240382,-0.40075505,-0.3172302,-0.13286474,-0.044470828,-0.03561943,-0.0399709,-0.018202633,-0.03389901,-0.09128859,-0.23007424,-0.2846707,-0.22365232,-0.090794936,-0.014559472,-0.06140083,-0.22950263,-0.29893467,-0.16468947,0.118774086,0.2171467,0.17926751,-0.010766923,-0.068127885,0.04609847,0.20776802,0.37557134,0.2430549,0.054407626,-0.027142033,0.06390931,0.23879853,0.16243204,0.036253452,-0.032106847,0.022579297,0.08915509,0.029175498,-0.031843875,0.024795443,0.20952776,0.32664108,0.17707361,-0.0016726106,0.07608911,0.3194148,0.50034463,0.2741348,0.02165398,0.0036831722,0.15843862,0.27433646,0.15295969,-0.0115250945,-0.042662635,-0.02285242,0.0006933063,-0.012781306,-0.039225843,-0.025113404,0.021954037,0.030950055,-0.008624405,-0.023960322,-0.008932374,0.25792646,0.34632617,0.16082194,-0.0012666434,0.046853364,0.37450385,0.5137785,0.2761579,0.031960785,-0.003969401,0.12676668,0.23467651,0.13636866,0.010454863,-0.041700136,-0.05350032,-0.040283337,-0.019900106,-0.0147976875,-0.0211761,-0.04286383,-0.061175704,-0.022544526,-0.01662533,-0.032025903,-0.2691161,-0.3332732,-0.17008936,0.0029891133,-0.058068126,-0.35867354,-0.40416998,-0.29663306,-0.03160374,-2.7880073e-05,-0.17862345,-0.3148563,-0.17751431,-0.00428293,-0.0034909546,0.0023941249,-0.04289294,-0.027761415,-0.017000616,-0.084065124,-0.5143482,-0.74643624,-0.47355503,-0.03828856,0.06243539,0.19472353,0.3279831,0.23385823,0.054813057,0.20044997,0.61540914,0.8318868,0.539485,0.1341793,0.0394769,0.10752772,0.09935087,0.028759032,0.030918092,-0.0750585,-0.47889242,-0.63694155,-0.37390316,-0.026443526,-0.041948155,-0.23832434,-0.35734388,-0.18956706,-0.02742973,-0.21359381,0.17626813,0.60612005,0.15118194,-0.23671198,-0.36340448,0.66619074,1.6657104,0.5974997,-0.37252516,-0.2517735,0.18955813,0.70305747,0.20758925,-0.23497581,-0.07076176,-0.23055023,-0.29753998,-0.16739714,-0.067037076,-0.013522267,-0.14566723,-0.18718505,-0.124623135,-0.018099204,-0.121791415,0.2026725,0.51810193,0.14928582,-0.15486975,-0.14582896,0.50903744,0.98963636,0.38209838,-0.19604681,-0.09705283,0.12672526,0.34308124,0.064582944,-0.121672645,-0.023355022,-0.1840266,-0.22129336,-0.12350064,-0.022864468,-0.027030444,-0.026707664,-0.03704855,-0.041747842,-0.045802176,-0.02328822,0.19030192,0.2935463,0.1185997,-0.064006485,-0.02144368,0.31857705,0.52769685,0.27029318,-0.035962194,-0.025359318,0.11185902,0.2354985,0.14976248,-0.025076121,-0.019682884,-0.08110601,-0.07124208,-0.019496083,-0.04390292,-0.088547856,-0.07766653,0.19029096,0.15218958,0.041073427,-0.047306597,-0.42292064,-0.011474937,0.34927484,0.116484165,0.19373564,-0.13983397,-0.6370871,0.016200755,0.1038146,0.19267744,0.3157831,-0.18867296,-0.2147776,-0.011345819,0.041615028,0.13963732,0.049701452,-0.11025259,-0.019221187,-0.0946759,-0.21018836,-0.33357167,-0.22364634,-0.08955306,-0.22290318,0.14151812,0.5313767,0.16432607,-0.19251028,-0.32220265,0.54863894,1.4078832,0.55756783,-0.276379,-0.20437172,0.16026908,0.55883896,0.19926313,-0.16493815,-0.1109653,-0.20253897,-0.29420847,-0.184038,-0.09949331,-0.040435918,-0.25544512,-0.42428148,-0.23271492,-0.08378754,-0.25248387,0.12348051,0.6166855,0.2081856,-0.22445257,-0.3995153,0.62228274,1.6633928,0.6662606,-0.33172625,-0.26829243,0.2053006,0.6846,0.21594425,-0.2053236,-0.080249555,-0.22576678,-0.36259001,-0.20189486,-0.0790388,0.072182655,0.03397268,-0.10053432,-0.031110018,0.02524221,0.035259925,-0.20271525,-0.42368418,-0.2865938,-0.032246746,-0.11408508,-0.4586274,-0.5903151,-0.37200752,-0.057155013,-0.05802986,-0.23171754,-0.32297736,-0.08856091,0.05582294,0.007933304,0.0062755495,-0.035256367,0.0840328,0.07046692,0.012733936,-0.034301907,-0.11876185,-0.049104944,0.015511423,-0.010477781,-0.14659847,-0.22199059,-0.14242989,-0.04008896,-0.13447303,-0.26201862,-0.24969408,-0.21075127,-0.07798579,-0.05081264,-0.18827945,-0.2490162,-0.12788108,-0.022274524,0.008765399,-0.06586099,-0.09346872,-0.008198693,0.014522344,0.090587646,0.063391834,-0.136324,-0.13201186,-0.031464875,-0.017349273,0.28948388,0.39664447,-0.07240705,-0.10425097,-0.25327775,-0.40094095,0.30719435,0.5279761,0.1972005,-0.012910649,-0.19362316,-0.4849209,-0.13520424,0.028615916,0.022406548,0.09070951,-0.014654727,-0.06436591,-0.023335353,0.100362256,0.11849651,0.015987992,-0.13390261,-0.111401536,0.22800118,0.24774885,0.027043238,-0.23492971,-0.22235355,0.27129203,0.26788026,0.013425171,-0.32073846,-0.2773661,0.18335158,0.17401832,-0.010660768,-0.24534218,-0.18031996,0.053312182,0.04842866,-0.020493552,-0.12630355,-0.10453507,-0.033551782,-0.025749922,-0.012030274,-0.047095463,-0.03913775,0.010371208,0.22706419,0.33985847,0.17100836,-0.025397696,0.07249439,0.3770137,0.5587522,0.32982016,-0.003759995,0.01411766,0.17670122,0.2584913,0.1393489,-0.014512189,-0.040803388,-0.05804552,-0.06934114,-0.06339128,-0.046245836,-0.10845846,-0.109128654,-0.0210974,0.095677674,0.0673601,-0.27469647,-0.30926648,0.006749071,0.2989018,0.24570769,-0.4385062,-0.5120587,-0.0012020469,0.52180207,0.4258811,-0.26866674,-0.27797478,0.0905846,0.33279476,0.15625858,-0.14703864,-0.077442735,0.06508516,0.09162591,0.051595554,-0.05508653,-0.14577724,-0.20065786,-0.12611228,-0.044288576,-0.009465158,0.24556242,0.47392017,0.22324038,-0.019588053,0.071487814,0.6225477,1.0227013,0.46583876,-0.028481632,0.036350675,0.20382053,0.29706192,0.100823894,-0.03624364,-0.05873698,-0.17648871,-0.27031845,-0.15944903,-0.04771024,0.01569822,-0.007814497,-0.049118206,-0.007049311,0.0026181936,-0.013495814,-0.24512373,-0.32943246,-0.1951788,-0.006540574,-0.06332813,-0.34381726,-0.42595503,-0.3014887,-0.009575188,0.018947503,-0.17490786,-0.29698938,-0.12724799,0.034043014,0.044375256,0.02859217,-0.01051455,0.023558006,0.02182892,-0.11418273,-0.25945887,-0.26828924,-0.1993673,-0.07197486,0.07894865,0.18970123,0.30443707,0.21719031,0.14249523,0.1353418,0.29608795,0.3739518,0.23255736,0.098661035,0.0102054905,-0.03464821,-0.13365507,-0.16947442,-0.07306526,-0.05815254,-0.13929646,-0.22505096,-0.12986243,-0.091918916,-0.13030016,0.14097694,0.08015698,-0.10998568,-0.037661865,-0.16510971,-0.14080738,0.44248053,-0.12500021,-0.026611328,0.05952519,-0.48109397,0.4146959,0.27969748,-0.11005996,0.04694514,-0.119176924,-0.16149294,0.42985174,-0.09916846,-0.024938881,-0.056411445,-0.26160222,0.14303768,-0.0064712204,0.0005715331,-0.10067675,-0.04285094,0.1525293,0.03473082,-0.085180946,-0.09795053,0.42044526,0.061974734,-0.14690657,-0.15782121,0.38842896,0.19436353,-0.33419368,-0.04846731,0.17408349,0.20167299,-0.3029707,-0.044385765,-0.044769764,0.08085203,-0.10377741,-0.14450862,-0.053693935,-0.08467215,-0.013758963,-0.05234778,-0.10735524,-0.050648578,-0.008489847,-0.05590655,-0.2599061,-0.35626012,-0.23906709,-0.041989923,-0.100234434,-0.34232187,-0.42297882,-0.3335691,-0.07577686,-0.03698653,-0.21554539,-0.33161673,-0.19075353,-0.02575861,0.00019657612,-0.03122279,-0.08301777,-0.030206168,0.0065119863,0.0005180836,-0.0493287,-0.082693815,-0.058010325,0.0014072591,-0.056083754,-0.21816725,-0.27762827,-0.15495735,-0.026061378,-0.06915247,-0.25081164,-0.30035636,-0.2421062,-0.03758031,-0.03583595,-0.15678212,-0.2216016,-0.13756138,-0.01445353,-0.004319951,-0.05969934,-0.06621206,-0.012005478,0.0040059984,0.082077354,-0.07932032,-0.21037711,-0.04345405,0.07792841,0.48523068,-0.19729568,-0.5743028,-0.10372129,0.47730473,0.72924465,-0.26638544,-0.71125954,-0.12888823,0.6151676,0.42378226,-0.17208794,-0.42275548,-0.061197393,0.3373065,0.019455284,-0.043392777,-0.14992025,-0.052338324,0.00813587,-0.00059626997,-0.05250734,-0.10039425,-0.049063414,0.002970606,-0.059416115,-0.274871,-0.3633165,-0.23730294,-0.036956698,-0.103844225,-0.3768949,-0.4392209,-0.3307507,-0.07610425,-0.030766234,-0.22986528,-0.3393734,-0.19756557,-0.021792442,0.010318741,-0.028511241,-0.06801513,-0.020947292,0.010584768,-0.025460005,-0.03332928,-0.009709507,0.009880006,-0.002987504,0.029206246,0.14252535,0.24964215,0.18818069,0.049548864,0.042226993,0.33241346,0.5538028,0.3161556,0.006945476,0.008044511,0.2332825,0.4143397,0.15947849,-0.046264887,0.0005129576,0.040860604,0.06789872,0.0044680536,-0.01850234,0.10762306,0.13059878,-0.045422554,-0.069590054,0.035271943,-0.30563438,-0.07227091,0.45351645,0.21328354,-0.025666118,-0.0028297976,-0.3052638,-0.5830787,0.119165495,0.15063152,0.013998326,0.30997548,0.14913353,-0.37534082,-0.22749084,0.017644376,-0.033689633,0.066461116,0.15554704,0.016701011,0.0027949512,-0.11793149,-0.1856178,-0.07798082,0.029956967,-0.062274456,-0.26446062,-0.31330132,-0.2149837,-0.040031925,-0.10095228,-0.27165306,-0.30742508,-0.2679571,-0.097726464,-0.026175633,-0.20516151,-0.2961979,-0.17540747,-0.014243543,0.0068379343,-0.100572675,-0.13934842,-0.04751183,0.018802583,-0.012842096,-0.03041996,-0.03664264,0.007207334,0.015075058,-0.036933757,-0.23248634,-0.3115875,-0.1862231,-0.012862794,-0.08874247,-0.33245677,-0.43648952,-0.2768737,-0.07242252,-0.016357586,-0.124165416,-0.19377378,-0.12230182,-0.03417579,0.018632844,0.027027518,-0.015584586,-0.017734066,0.0060359985,0.019644469,-0.1446932,-0.19691974,-0.10335114,0.022607915,-0.010206014,0.20114043,0.32382596,0.1108738,-0.0910058,-0.18910718,0.3383326,0.61535347,0.22441489,-0.12592475,-0.051133633,0.12740482,0.21145535,0.09926447,-0.007680569,-0.010687616,-0.091346025,-0.23755741,-0.092446685,-0.024727449,0.011795178,-0.04692319,-0.08008452,-0.023658514,0.013103336,-0.055179417,-0.20747042,-0.25476232,-0.18410307,-0.041572765,-0.12760717,-0.29539174,-0.26288313,-0.26320973,-0.100055486,-0.053374708,-0.21974424,-0.2601609,-0.16855478,-0.026539177,0.02276923,-0.044911243,-0.07889782,-0.012740075,0.03386873,-0.016575634,0.03864371,0.10700108,0.04256296,-0.007658303,0.035746932,0.2573743,0.34963703,0.2260042,0.019151181,0.094636634,0.36196038,0.45915705,0.28253374,0.025890917,0.033966284,0.24564117,0.34883568,0.20267537,0.009892233,-0.013774484,-0.0022772849,0.04314144,0.017359525,-0.004143715,0.046930365,-0.06167406,-0.16184288,-0.056210577,0.05698575,0.078712046,-0.2289112,-0.47891665,-0.14639941,0.08951074,0.063083045,-0.28800848,-0.5631852,-0.22379965,0.069799215,0.08265889,-0.1422603,-0.3683495,-0.14870518,0.07107743,0.022512138,-0.04072854,-0.068274006,-0.016918227,0.007920802,0.04626617,0.19096388,0.20296353,0.12059595,0.037615508,0.16386527,-0.1615558,-0.5018598,-0.13032296,0.17665753,0.19035734,-0.5513877,-1.0850871,-0.4116801,0.24441326,0.15256588,-0.1572548,-0.46822333,-0.12677601,0.16350006,0.020626664,0.1869621,0.23490943,0.13099025,0.014009297,0.031946816,0.05340886,0.022248477,-0.020643942,0.018864453,-0.04444579,0.10077119,0.33838972,0.252012,0.04010281,-0.1335932,-0.44667542,-0.66017216,-0.3645945,-0.086996555,0.041568607,0.2831524,0.36074665,0.08813977,-0.06802207,0.029777646,0.016024232,0.04044789,0.0608505,0.054746747,-0.16637698,-0.08168507,-0.004697889,0.04534799,-0.021019578,0.02722659,-0.0626082,-0.22458896,-0.222973,-0.1263574,0.22342744,0.4177727,0.5803703,0.37527797,0.17191872,-0.17926645,-0.22778027,-0.16154502,-0.06448494,0.025449893,-0.00970684,0.054923326,-0.013399109,-0.07883671,-0.17747906,-0.12501274,-0.22455712,-0.35310036,-0.20973828,-0.09875113,-0.14429218,-0.317343,-0.3513854,-0.1609151,-0.030179039,-0.0026775822,0.02699826,0.114456095,0.18001647,0.14418495,0.09970183,0.27269527,0.40500906,0.27651763,0.118014276,0.05297497,0.13340266,0.1756304,0.09184942,0.02488935,0.11696533,0.0837792,-0.041801214,-0.11592367,-0.07407774,0.22087172,0.28491867,-0.05343931,-0.38900366,-0.18994413,0.24936904,0.4057803,0.049582362,-0.4698885,-0.30145153,0.14335477,0.28657427,0.05941686,-0.24235636,-0.2126348,0.06536465,0.07937138,0.02501762,-0.069429465,-0.09900576,0.007610142,-0.013716191,-0.13220274,-0.07186159,0.02934149,-0.097792864,-0.19859931,0.1753127,0.3048392,0.083315775,0.10904175,0.43030113,0.25608867,-0.2699848,-0.25310776,0.121748455,-0.23608965,-0.5150244,-0.09402096,0.0827953,-0.10440109,-0.0321849,0.21208401,0.17025146,0.008221634,0.0053440332,0.090064704,0.1363111,0.0009315014,-0.07265973,0.03349656,0.20341878,0.3306473,0.21097302,0.044554904,-0.047968984,0.0529063,0.32321304,0.27626154,0.11763246,-0.23701574,-0.25135767,-0.07776655,0.010657825,0.010220408,-0.20008866,-0.25909415,-0.21272562,-0.13098691,-0.09576389,-0.071210355,-0.019200802,0.0024383068,-0.023811907,-0.060033664,-0.07735046,0.19049361,0.39335585,0.13858171,-0.09339774,-0.07145518,0.29774943,0.5936998,0.225712,-0.1096854,-0.07825714,0.13505757,0.30786014,0.08827305,-0.11171493,-0.049922526,-0.033340923,-0.030401736,-0.032191373,-0.049952365,0.059195742,0.056201443,-0.0029949546,0.039994262,0.06031257,0.052205615,-0.15159053,-0.33956826,-0.1067314,0.069195256,0.014931232,-0.36126363,-0.52561647,-0.25045773,0.037307203,0.052199125,-0.14657444,-0.29288077,-0.09090343,0.07265734,0.06466645,0.07057132,0.013141058,0.055783123,0.056655645,0.0005815327,0.044536114,0.112705395,0.08211243,0.0030497331,-0.028215058,0.13739449,0.31878674,0.19669916,0.006639719,0.030765653,0.24879327,0.38280982,0.21433704,-0.020371057,0.044968992,0.22599661,0.29098025,0.14910418,0.0006098747,0.00564263,0.07508083,0.097739,0.05225718,0.021950401,-0.05317542,-0.030126989,0.0007035732,-0.022063017,-0.047237873,-0.026316762,0.18158934,0.34501147,0.1588724,-0.05462524,-0.013246849,0.36411524,0.587343,0.25560975,-0.056990657,-0.04784546,0.14545125,0.26491338,0.09421454,-0.06535737,-0.046528727,-0.07273893,-0.06654769,-0.046569645,-0.044302106,0.019213319,0.171166,0.21092443,0.123639256,0.01801759,-0.19574374,-0.44135815,-0.61389863,-0.38574398,-0.1350398,0.03864023,0.18026257,0.3401124,0.25830013,0.07953942,0.07300496,0.17847076,0.1725609,0.03711909,0.025897816,-0.00668031,-0.044411972,-0.07692062,-0.0553056,-0.017249057,0.039300367,0.08099842,0.15818574,0.12915796,0.096046545,0.116459385,0.28050283,0.3633922,0.14199448,0.0140074305,0.13524824,0.08448802,-0.07455331,-0.17273644,-0.12032366,-0.08081305,-0.21974376,-0.35609317,-0.25770724,-0.12322217,-0.07798106,-0.09586877,-0.074941896,-0.020550847,0.0040659476,0.00566566,-0.03397338,-0.060966026,-0.04343578,0.020796627,-0.179546,-0.26989016,0.16118395,0.29381344,0.06812245,-0.38405687,-0.46804935,0.35898346,0.6292448,0.12445046,-0.1674602,-0.18116885,0.12977087,0.20633139,0.029312253,0.024933785,0.009592891,-0.0806524,-0.0712944,0.025757633,-0.0729779,-0.28971037,-0.3707668,-0.21761838,-0.060428664,-0.31723642,0.20716037,0.7360112,0.11996192,-0.3029209,-0.3842622,0.7430868,1.7706615,0.49849847,-0.4166487,-0.23347396,0.115650386,0.539117,0.10311158,-0.21437404,-0.063491255,-0.2920335,-0.4203515,-0.21088693,-0.04649335,-0.00226143,-0.22640967,0.11685851,-0.023296626,0.022261888,0.16529356,-0.4369392,-0.025588244,0.27147716,-0.016594738,0.12002328,0.18265557,-0.6282025,0.3164082,0.059953813,-0.040828317,0.30599886,-0.12280902,-0.21208933,0.1473453,0.03741426,-0.030444734,0.052121926,-0.209757,0.054872185,0.04726205,0.21323445,0.29699105,0.1477563,0.03654199,0.23407328,-0.18720594,-0.58032924,-0.106699035,0.23478916,0.28955728,-0.5470845,-1.3026563,-0.3639936,0.33169597,0.13392751,-0.08676916,-0.349058,-0.049686372,0.15963244,-0.011382997,0.19509763,0.35354188,0.14588709,-0.013357788,-0.059949756,0.042312622,0.15372863,0.025609322,-0.06950021,-0.16122034,-0.14918491,0.30005,0.30903825,-0.057563037,-0.085961826,-0.4711468,0.04153061,0.36481112,0.033152092,0.0589588,-0.29941586,-0.2729184,0.16979252,0.07955758,0.027698822,-0.06973568,-0.19810252,-0.028537333,0.033810407
