1,480,0.0247354,-2.2499292,0.14902945,0.09797363,-0.91041374,-0.94355196,-0.35955545,-1.2090287,-0.63703966,0.2766093,1.1929375,-2.1701763,-3.9868188,-0.7321843,0.86257905,-0.31260476,-1.8830279,-1.2482208,1.2708127,-0.19740772,0.43229002,0.121851444,-0.1252921,0.5487341,-1.6138511,0.8113896,-0.035442058,0.2733375,0.8238524,0.25732926,-2.2639036,0.27674827,-0.864851,-0.9498336,-1.6601617,1.5290618,-1.935844,-1.7719392,-3.6901164,0.47800165,-1.5470259,0.06788249,-1.525645,-0.9005756,0.5296136,-1.1458268,0.25362176,1.6849617,-1.665148,-2.5673296,0.34782687,-0.45686725,1.3002009,0.36395618,-2.123691,-2.176674,2.073037,-0.32749775,-0.23267907,0.9853128,-0.2307139,-0.82722807,-0.27193737,1.8033351,0.8718052,-0.015250365,1.2402867,-0.068151146,0.013270904,1.3912157,-0.93182594,-1.2686944,0.709982,0.8488135,1.5202882,-2.2525907,-0.59194976,2.1395736,1.4926658,1.4093993,-2.812002,2.674206,0.20891489,0.6497631,0.6294265,0.11295198,1.1097442,-1.209485,-2.0328155,-1.4689085,1.1173351,-0.32702285,0.98126024,-0.37451524,-0.037698936,0.589703,-1.0544069,1.0943869,-0.31128886,0.75436896,0.9958237,-1.0309644,1.2027702,-0.3865559,1.6718874,0.9794367,0.9087968,-0.48855782,-0.10574017,-0.008541112,0.0032734808,-1.7102796,0.3012819,0.79600334,-0.3600699,-1.6873668,0.71032006,0.0017028641,0.71690655,0.44506815,0.09125476,0.10375038,-1.1893021,-0.3239285,1.1964176,0.101021454,-0.060704894,1.0008193,-0.40136993,-1.9782255,-0.75556093,0.7407747,0.25205022,-0.002386096,-0.035314947,0.39329144,1.5253677,0.27458182,-0.2801808,-1.0891346,0.6154746,-1.5615338,-0.21466857,-0.76126856,0.27009666,0.8615306,-1.2277708,-1.248461,0.44534558,-0.6536316,-0.03361509,-1.153811,0.37447968,-0.9747841,0.39202556,-0.62456757,-0.5504222,0.7834256,1.1505002,-0.61845046,1.5972818,0.018736448,0.14512192,-0.12335287,0.10044152,-2.0926955,-1.2635968,0.06248592,-1.1476889,0.036247063,-2.354469,0.4622991,-2.2344875,-0.9890135,0.1386904,-1.9093109,0.6432505,0.5335945,0.41139978,0.85703903,-0.88582754,0.7406259,0.89052755,-2.065497,0.6727724,0.89393246,-0.91668946,-0.22150692,0.7231972,0.17930976,0.20507652,-0.72168106,1.3558638,-0.25057524,-0.62376887,-1.4720169,0.13132037,-0.45324278,1.1554567,0.3696638,-0.4404258,0.09517274,-0.9832416,0.044975504,0.15035659,-1.1566403,-0.030627312,-0.023761155,0.58064616,-0.71374094,0.13226673,1.4469305,0.14587426,0.062904954,0.10821373,-0.8950466,0.92971176,0.37424433,0.04215941,-1.7541028,-2.0049005,-1.0153565,0.73324203,0.12580626,0.03884573,-1.8583755,1.0987101,0.88806826,0.3351064,-3.1200745,-1.8573562,0.6242131,-2.4157417,-1.9853784,-1.7525425,1.6193627,0.80837023,0.95189655,-0.7485385,-1.3152422,1.0056132,-0.37500578,0.35032967,-2.0936255,1.2978976,0.62831,0.08873627,0.2888488,0.6831319,0.041960943,-0.007510539,-0.2321153,-0.2681118,1.0518569,0.097330675,1.3845646,1.5209097,-0.036771733,-1.6824054,-0.026095806,0.024744887,-1.0259796,0.9231009,1.1397803,-0.5221689,0.47897515,1.0779754,-0.41012365,0.9158614,-0.20681524,-0.6480544,0.3566713,0.061094332,0.93800443,-0.99847287,0.5685158,1.4379507,0.22344272,-0.027340773,0.021604534,1.8794525,-0.38504755,1.6593964,0.37671322,-0.22919574,-1.8197995,-1.0799353,-0.28310814,-0.8980241,0.154993,-1.527985,-2.0695627,-1.6668259,1.3726816,0.36385858,0.13799584,1.2143947,-0.35269997,-0.41458148,-0.22928475,1.3255314,0.30996406,0.56500983,-0.1268186,0.039692946,-0.56904733,0.3840406,-0.04464767,-1.9227684,-0.02148878,-0.54277396,0.17914966,0.7685156,-1.0000991,0.7948849,0.68433464,-0.0060330923,0.9367186,1.3975635,-0.1567312,0.2039784,-1.5805048,-2.0877383,-3.601635,0.9641964,-0.102812104,0.011299992,-0.08376479,1.0716773,1.1550139,0.40064338,0.07416773,0.09590215,-1.8984644,1.5415621,0.1549896,-0.30031565,-1.0086057,-1.0012814,0.7231795,-0.14353311,-0.061996143,1.8316783,1.3271933,0.17840482,0.110804,-1.2634507,-0.59433514,0.14478269,0.915716,-0.03419937,-1.921009,-0.42419648,0.6598274,-0.3282363,-0.1603754,1.7413874,0.1027151,-0.7974874,-0.12838039,1.2317592,-1.7120631,-1.397975,0.6847552,1.3878778,0.025474539,-0.11380502,-0.09684996,0.01550855,0.048812743,0.5166505,-2.0975516,-0.51610935,0.4894442,-1.9800395,-0.5883679,1.4228635,-1.493563,0.9362116,0.16826881,-0.11564586,-1.5175424,-0.78781754,0.18067047,-0.37421647,-1.6258467,-1.7009771,-0.097992845,0.020672033,-0.12536085,1.2467728,-1.9324521,0.76054746,0.3602977,0.73899186,-0.29378927,-1.8139262,-0.12917809,-0.5645346,1.2231398,0.17829114,-2.1024735,-0.1095053,-0.2956316,0.5356511,-0.15993567,-0.0026993614,-0.6934039,-1.7180582,-0.7090787,-2.0201616,-1.6553198,0.5680418,-0.22350028,0.13891652,1.1180862,0.97485447,-2.565764,1.0335718,-0.6704706,-0.03591081,0.29565635,-0.095663875,-1.5618994,1.0364739,-1.6110673,0.28086618,-1.2827693,-0.54364085,-0.48327762,0.08082887,1.0262544,-1.1970942,-0.7304626,-0.94232786,1.4982182,-0.326203,-1.5344312,-1.5039608,0.21470104,-1.5916613,-1.1262642,0.597468,-1.2968189,-0.836841,-0.009713012,-0.94906557,0.9171341,1.4504306,0.71617174,1.3950411,0.17587937,-1.7880319,0.13959074,-0.43194357,0.1593595,0.32557955,-0.41651335,-0.07405914,-1.8457233,-0.59368145,0.0033677546,0.6587087,0.40202555,0.122161224,0.076433554,0.09869146,-0.038516577,0.13186492,-0.3048847,0.03375677,0.09923645,-1.1121123,-1.179303,-0.59306777,-1.3095697,0.24359341,-1.4790788,-0.7924238,0.28897783
