1,480,-2.3074872,0.33453193,-0.46967724,0.2163466,-0.7500264,-0.61816496,-1.4086725,-1.007781,-1.9249264,-0.6129135,0.30177304,-0.77282685,-1.9139249,-3.522347,-1.1444882,0.14593318,0.7584224,-0.38694182,-0.6510491,0.2290146,0.019426158,0.1669236,0.65397066,-1.3793938,-0.63098055,-1.3758398,-0.029849421,-0.80862695,-2.2714293,-1.2467705,0.3673734,0.36914307,-0.43313238,-1.7395103,-1.8686584,-0.3035456,0.29035926,-0.27140385,-1.6051762,0.5777069,-1.375118,-1.2773874,0.76688826,-1.8104914,-0.7462987,-1.4892946,-1.0850345,0.25387317,-1.4522691,-1.3068308,0.53520083,-1.4837279,-0.3415447,-0.6055921,-1.274642,0.43421236,-1.7065487,1.0526003,-0.6104306,0.43134603,-1.1337922,-1.9782124,0.14311592,-1.3448839,-1.1878334,-0.66126066,0.41094592,-0.1945774,-0.6750266,-0.1009002,0.97867864,0.5715596,-1.3739383,-1.2751218,-1.6568899,-0.25437734,-1.1472344,-1.2157772,0.63912463,-0.7217602,0.74033177,-0.8767788,-2.3207517,0.02850711,-0.92365247,0.64605296,-2.1575744,-2.419958,-1.5027684,-0.27078614,-0.6461327,-2.020533,-1.1203108,-0.17197269,0.66245186,0.2709213,0.4592864,-0.86744756,-1.078417,-1.5101846,-0.062319446,-0.84182096,-0.54639024,0.1627928,-0.17039388,0.2556978,-3.1020436,-0.94600093,-2.048463,-0.08865496,-1.4121604,0.36571178,-0.33937111,-0.8823723,-1.2739743,-1.4279585,-1.1818949,-0.77626395,-0.5776705,-2.1040854,-1.9974806,-1.5514344,-1.1933938,-2.0615904,0.05163968,-0.8610766,-1.050906,-1.8841732,-1.432859,-1.5739058,0.8553542,-1.7682152,0.06319438,-0.10208157,-0.06819262,-0.95872337,-1.3684857,0.28338343,-1.6622112,-0.6699174,0.32550132,-2.226774,-1.0191311,0.90197474,-1.6067652,0.4730609,-0.7647391,-0.23998514,0.17772776,0.119408935,-0.91917086,-1.9486026,-1.1058625,-0.81700253,-1.9874749,-1.4461765,-1.084059,-0.06807102,-0.7234737,-1.840116,0.29975566,-3.1507928,-1.7000813,0.63879454,0.8474789,-1.8271425,-1.0669596,0.1644959,1.3409497,-0.48023003,-1.3737901,-0.76811254,0.3933177,-1.1858274,-0.9106019,-1.1087608,-1.0219646,0.5599714,-0.0014370919,0.50738806,-1.2070991,0.21616025,-0.1570473,-1.8267453,-1.0129228,-0.048263542,-0.9557824,-1.3471482,-1.4332173,-2.1952019,-1.5825608,-0.24770303,-1.3114204,0.74453604,-1.5268214,-0.7442289,0.20941553,-1.5280932,-0.1897975,-0.15369827,-2.2768314,-1.5787941,-0.919782,-1.6341116,-0.7793118,1.1291127,0.4862236,-0.69938856,-1.0230018,0.52405775,-0.6636976,-2.865945,-0.65994155,-0.5821876,-1.1635656,0.15065719,0.07193866,-0.89067763,0.76015055,-0.86406326,-1.8551816,0.2904936,0.59079313,-1.7344856,-0.9187458,0.5211901,-0.3918598,0.09262293,-1.1476127,-1.4640166,0.36939794,-1.0302114,-1.3694268,-2.4314015,0.4513484,-0.78078455,0.19064221,-0.73487544,0.36270788,-1.0269206,0.12673026,-0.014910409,-0.3489272,0.4533455,-1.1644068,-1.3300363,-2.2588413,-1.083172,0.6547787,-1.8740485,-0.6755935,-1.7498963,0.8533143,-0.7400723,-2.7213988,0.31024662,-0.706348,-1.1837772,0.717934,-1.5478184,-0.9240559,-1.1806816,-0.77158445,-0.20300218,-2.0589352,-1.0930433,-0.5488879,-1.776677,0.33060753,-1.9134291,-0.35722888,0.7349778,-1.0187033,0.6365634,-3.0649734,-1.920553,-1.5865836,0.7876566,0.7253392,0.7773884,1.0241649,0.13178289,-0.8567486,1.1552209,-0.9247416,0.2308164,-1.1178019,0.71833795,-0.95530474,0.739944,-0.50306845,-0.79651433,0.88690186,-0.38618657,-1.3606771,0.042125758,-0.59678423,-0.8627372,0.18248986,0.045881998,-0.13588463,0.48086432,-1.3359251,0.68658054,0.32031572,-0.41850758,0.97624195,0.7152193,-1.7470866,-1.2903438,0.7679699,0.48742342,-1.5673223,0.85723174,-0.8846552,-1.3238397,0.102903545,0.18379946,-0.59493536,-1.0319064,-0.96126956,0.5832074,0.9601805,-1.1304185,-1.1446183,-0.7937589,-1.1153339,0.11197059,-0.7135651,-0.47907537,-2.7641878,0.0074969335,0.6224374,-1.1710433,-1.8491907,-0.98300964,1.0926875,0.5436113,-1.8715593,-0.6885797,0.64205396,-0.8099652,-1.2878127,-1.0056924,0.047566738,1.1316006,-1.1473047,-0.04165497,-0.11899545,0.011883242,0.4817969,-0.4681967,-1.716224,0.3991261,-0.5710077,-0.92322785,-3.0270908,-1.0120862,0.8349578,0.46187177,-2.1517131,0.21555355,0.3810393,-2.3529725,-0.9833634,0.5780008,1.0460308,-0.85742664,0.83920366,0.57814604,-0.7355847,1.052167,-0.8495194,-0.6048426,-0.056525823,-0.7424297,0.100295454,0.70304793,-2.4647183,0.20629899,-0.07533448,-1.5378062,-0.97557914,-1.8025388,-1.2138237,-1.8728433,-1.3551499,-3.2646303,-0.8543793,-1.7216675,-0.33106333,0.025058612,-2.4959679,-1.2549602,0.8537709,0.020489627,-0.03428946,-1.7226415,-0.8710212,-1.5135902,0.7445668,0.60474014,0.6289313,-0.7727762,-1.0234593,-0.43389845,-0.91486967,-0.17643222,-1.2897794,-0.3568358,0.670275,0.36654946,-1.7766393,1.1921223,-2.6556005,0.19154175,0.5696727,-1.5241929,-1.739217,0.07546276,0.3531007,-1.2069021,0.3009944,-1.5349283,-0.37989327,-3.0908906,-0.6533295,-0.6547395,-1.6852742,-0.851892,1.0338435,-1.0106426,-0.30108547,-2.0291488,-1.7799349,0.37810308,0.7127369,0.07710394,0.18823811,-1.290063,-0.097068064,0.038705543,-0.90599215,-0.19568355,-1.4422742,-1.1091741,-2.2383704,-2.5385497,-1.9471605,0.8160441,0.69460106,-1.0388476,0.09392844,-1.2119358,0.13833922,-2.8318515,-2.0231314,-0.44337457,-0.32751155,-1.0827155,-1.0305694,0.22027777,-1.4357682,0.45798558,-0.07829324,0.47480407,-0.49265528,-0.23789015,-1.5305959,-0.73974866,-0.78407806,-1.8004464,0.5009625,-1.1913978,0.77211523,-1.4848964,-0.97922754,-1.5265307,-1.5411612,-0.9847146
