1,144,0.0024531218,-2.3505824,-0.010268573,-1.427674,2.3933208,-0.08732347,-0.024864174,1.2098585,0.49630818,2.660262,0.31346986,-0.0924679,3.444196,-0.73768324,1.0924968,-0.23112878,0.11549808,6.9560766,-1.8253149,-0.121049084,-0.015466949,1.2571996,0.41806635,2.0138242,1.4995846,-0.013052179,0.9956305,0.16690588,1.0007565,-0.8233409,0.052254267,0.20148045,0.0922516,0.5303121,1.4900142,-0.5994034,-0.16268995,-2.1207433,1.3945546,0.7720501,0.033120334,-1.1712651,0.009514104,0.121784784,-1.2614541,-1.1400665,-0.5604243,5.531444,-0.46309578,1.867074,-0.05558297,0.250553,0.03804391,-0.016166579,-0.05843115,-0.0344068,0.06449986,-0.09010795,-1.6085727,1.6110393,0.00091462745,2.327344,-0.028859612,-0.08186553,2.4071767,-0.30268258,-0.58480686,0.20476352,1.2899938,-0.6646586,-0.4767043,0.3661319,-0.5519452,2.385881,0.77690816,-3.635752,3.1297998,2.1758666,-1.1279641,-1.0260487,0.25201133,-0.38704792,-1.1920006,0.0033721437,0.5514174,-0.96799225,3.514709,0.29825255,-0.113817476,1.0755335,-0.5239718,-0.008563838,-0.22099704,0.9636206,-0.65200585,-0.59413344,0.31248748,4.466596,-0.3644148,-1.0173973,-0.095459566,0.14293447,0.4046161,1.3117688,0.36003798,-0.0032521705,-0.16928455,0.28671366,0.0022353455,0.30791518,-2.6484795,-0.073858,1.0634273,0.8636842,-1.2229139,-1.1860278,0.6925115,-1.0756035,-1.0932496,1.3404868,1.2955861,1.2956495,-4.6299644,-1.3241984,-1.3997877,3.0336964,1.0043175,0.0026431389,1.6850919,-0.09005649,-0.058821686,1.4397922,-0.12984076,-2.2956572,-1.2443558,-1.1050471,-0.04165564,-0.028488807,-0.08201293,-0.036844015,0.39138287,1.4064314,-0.22343966,-0.1376844
