4,672,28,1,1,-0.0024621515,0.06767485,-0.0036502192,-0.003143615,-0.0037186667,-0.0028731273,-0.0030833036,-0.0032288432,-0.00305086,0.07013974,-0.0036172161,-0.0026903003,0.090896696,0.14285062,-0.0035161842,-0.0036840863,-0.0033834726,-0.027282618,-0.0034267309,-0.0033943914,0.06449199,-0.0077612437,-0.09667537,0.015559334,-0.002750546,-0.002794033,-0.003293693,0.08928303,-0.003009146,0.04642289,-0.0119888075,-0.0123772975,-0.0127610145,-0.0124798715,-0.012526371,-0.012635682,-0.012277223,0.123424195,-0.010875944,-0.0067785904,0.17170914,0.15997899,-0.012147494,-0.010154109,-0.011985992,0.066307575,-0.012518778,-0.012554929,0.11352679,-0.00132709,0.032747578,-0.0408271,-0.01229137,-0.012215808,-0.008274946,0.13221836,-0.009905638,0.009330349,-0.015615962,-0.016034208,-0.015410438,-0.016175402,-0.016032372,-0.01589356,-0.016108364,0.0471406,-0.01582972,-0.015547015,0.2529733,0.20229319,-0.015697142,-0.015794914,-0.015906617,0.044376634,-0.015737414,-0.015757766,0.18549779,0.058407303,0.15536554,-0.14436017,-0.016285352,-0.016287073,-0.016505666,0.07560125,-0.003707476,-0.0020977538,-0.0071928315,-0.007235918,-0.007367879,-0.0072481874,-0.007258907,-0.0072782673,-0.007217001,-0.03325243,-0.0069070887,-0.0058569945,0.11179273,0.26637343,-0.007242506,-0.006684806,-0.0071814433,0.123573445,-0.007289827,-0.007299291,0.019357182,0.11602034,-0.02282872,-0.058112014,-0.007221639,-0.0071894266,-0.0063509736,0.10037577,0.00282621,0.059164047,0.004203588,0.004612807,0.0044159647,0.0047815144,0.0046740463,0.004636232,0.004602365,0.04361921,0.003828939,0.003291782,0.09487317,0.046257637,0.004316345,0.003652893,0.004376456,0.030735381,0.00452212,0.00455428,0.062584646,0.066988505,0.0056404374,0.06538551,0.004811857,0.0047242343,0.0032189153,0.11443755,0.00332559,0.07213109,0.003767252,0.004100539,0.0038879067,0.0042786114,0.0041497657,0.004109556,0.004102908,0.07801919,0.0035353974,0.0037005693,0.17463131,0.03687043,0.0038118213,0.0034886673,0.0038618706,0.06875255,0.00395864,0.003974485,0.06414012,0.016605413,-0.0098623885,-0.031422637,0.0042947903,0.0042782277,0.0034395196,0.06935471,-0.004347805,0.053145833,-0.005512327,-0.004852917,-0.0050743073,-0.0045942888,-0.0047295685,-0.004788587,-0.0048947036,0.17485957,-0.006244082,-0.0077170786,-0.00652574,0.013880401,-0.005284412,-0.0066828877,-0.005325418,0.0014176294,-0.0049779005,-0.0049535567,0.07886572,0.15743469,0.02903575,0.07991001,-0.0046049114,-0.0047278404,-0.0074984543,0.16673294,-0.0029511685,0.1027134,-0.008865029,-0.00973811,-0.00957657,-0.0101121925,-0.0099336095,-0.009885021,-0.009733945,0.082296826,-0.0077796327,-0.004247166,0.16624194,0.1283353,-0.009169266,-0.006975122,-0.00914453,0.09335147,-0.009637572,-0.009707946,0.04196094,-0.12759954,0.04348155,-0.093926534,-0.010043535,-0.009904231,-0.0055491254,-0.04730527,-0.0044066785,0.13964574,-0.009007212,-0.009198476,-0.008990352,-0.009261049,-0.009196461,-0.009179864,-0.009222779,0.09301221,-0.008939386,-0.0082619,0.062602386,0.09280635,-0.009044066,-0.008939035,-0.009091297,0.057059158,-0.009077303,-0.009109482,0.016126037,0.03316141,0.005454205,0.015112944,-0.009302835,-0.009278407,-0.008824234,0.16001375,-0.00459031,0.027562061,-0.0069309473,-0.0067035537,-0.006645344,-0.0066222586,-0.0066318326,-0.0065970533,-0.0067354813,0.058917228,-0.007348407,-0.007371774,0.094451174,0.108575165,-0.0068026986,-0.00762742,-0.0068618585,0.1570315,-0.006648522,-0.006644169,0.110587165,0.02659101,-0.0054714456,-0.15794833,-0.006696813,-0.006752521,-0.008043826,0.118268795,-0.010834044,-0.19700927,-0.014618307,-0.014293596,-0.013909575,-0.014154166,-0.014141498,-0.014025107,-0.014371395,-0.012893479,-0.01568016,-0.017200328,0.11617279,0.04947308,-0.014486633,-0.016286481,-0.014639601,0.061691675,-0.014053285,-0.014023656,-0.015787726,-0.05763372,-0.15257978,0.11340129,-0.014299153,-0.014452462,-0.017575672,0.27158573,-0.0053058825,0.10692321,-0.0044292137,-0.0039989054,-0.004012836,-0.0038835406,-0.003895022,-0.0038962015,-0.0040360056,0.01923323,-0.0051504467,-0.0063201264,0.25343412,-0.013246313,-0.0042819437,-0.0056099463,-0.0043433905,-0.08226935,-0.0040029213,-0.003992863,0.08521978,0.026067514,0.0044713262,0.036502898,-0.0039514415,-0.0040143356,-0.0063652545,-0.032346845,-0.0012521036,0.030397624,-0.005791139,-0.006143214,-0.006104037,-0.006273236,-0.006220445,-0.00624156,-0.006109841,-0.017313503,-0.005110381,-0.0026824884,0.025077015,0.11807332,-0.0058806464,-0.004538715,-0.005830005,0.022666711,-0.006128613,-0.0061614625,-0.035553884,-0.027772821,-0.033954415,0.11091325,-0.0061899833,-0.006145118,-0.0036495104,0.10497498,0.0047687665,0.08318665,0.005723551,0.006531246,0.0060173124,0.0068949014,0.006656966,0.0064968523,0.0065486133,0.027400075,0.0051942123,0.0036484674,-0.09311288,0.22196895,0.005904231,0.0046994705,0.006022799,0.012111016,0.00625889,0.006316602,-0.008808519,0.10577906,-0.06071612,-0.009298531,0.006974403,0.006873114,0.004180586,-0.0020417385,-0.0074372217,0.020202845,-0.015237084,-0.015685175,-0.015619543,-0.015881497,-0.015815645,-0.015761979,-0.015699506,0.1101117,-0.014646,-0.0120403655,0.029570704,0.12348643,-0.015411176,-0.014211183,-0.015382661,0.0838342,-0.01564389,-0.015703108,0.04265915,0.08507879,0.0801599,-0.049057476,-0.01582548,-0.01573437,-0.013372216,0.17841214,0.0054095387,0.03227362,0.00091769546,0.001418259,0.00070835836,0.0015817316,0.0013408288,0.0011823662,0.0014376715,0.0026568267,0.0012121703,0.0033747836,0.080977246,0.1388106,0.0009376947,0.0013040006,0.001228556,0.039144464,0.0009738747,0.0010494143,0.058617257,0.13650663,-0.10459185,0.015389366,0.0018628482,0.0018058605,0.002201274,-0.0042973384,-0.0031442046,-0.01000867,-0.0009711832,-0.00021781959,-0.00015555322,6.403029e-05,-2.068933e-06,-5.1409006e-06,-0.0002746433,0.064448595,-0.0022064866,-0.0052171946,0.1395693,0.079213746,-0.00067585334,-0.0030248612,-0.0008010641,0.098392345,-0.00016633421,-0.00015569851,0.15206438,-0.083312854,0.01151067,-0.12326488,-4.3388456e-05,-0.00019041449,-0.0045734495,0.11363732,-0.0059967246,0.09661644,-0.0025975863,-0.0023897751,-0.0014211275,-0.0023525208,-0.0021469053,-0.0019632876,-0.0025671097,0.085772246,-0.004286483,-0.008908562,0.0013716146,0.04063675,-0.0024049785,-0.0051589953,-0.002835013,0.052601043,-0.0019249916,-0.0019324198,0.16431373,0.12062025,0.06341336,0.017272117,-0.002670819,-0.002786275,-0.007763313,0.07751491,-0.0040910393,-0.03786937,-0.009104593,-0.008697644,-0.009332612,-0.008531052,-0.008715725,-0.008828297,-0.008612882,0.03763562,-0.008746326,-0.006593339,0.12614757,0.10643027,-0.00900542,-0.00854414,-0.008791471,0.108254194,-0.008981679,-0.008968562,0.14564298,0.06627988,0.05786164,-0.007973626,-0.008368067,-0.008392621,-0.007590385,-0.0010741204,0.0016962364,0.021923093,0.0055352673,0.0060934722,0.0062884986,0.0063019954,0.0062912107,0.0062960084,0.006027585,0.1758619,0.0043646563,0.001313448,0.057053525,0.08449188,0.0057683326,0.003661111,0.005618291,0.15865819,0.006208542,0.0062103644,-0.09614019,0.047778964,-0.035989188,-0.012612246,0.0061844625,0.006056361,0.00209504,-0.07554508,-0.0034089985,0.08302036,-0.007364001,-0.0074816737,-0.0074133202,-0.0075029507,-0.0074997246,-0.00747317,-0.0074753184,0.068945214,-0.0072702616,-0.006509127,0.07998564,0.16282728,-0.007391855,-0.0072072856,-0.0074071586,0.08292417,-0.007430721,-0.007429749,0.014208724,0.016609436,0.017044764,-0.0376772,-0.0075050313,-0.007483911,-0.0070293956,0.08050561,-0.0037848847,0.07651836,-0.007050954,-0.006395079,-0.0068127178,-0.006133979,-0.0063060075,-0.006397779,-0.0063650534,0.034324117,-0.0073803775,-0.007250963,0.11678132,0.09214637,-0.006843403,-0.0076306164,-0.0067571476,0.12386426,-0.006585913,-0.006542083,0.0065329447,0.15968814,0.06606682,0.16448593,-0.006065212,-0.0061582625,-0.0076774694,0.01689026,-0.0038007647,0.11362107,-0.0052318126,-0.0050166342,-0.0052145794,-0.0049147904,-0.0050037913,-0.005016491,-0.005001935,0.011891961,-0.0053038597,-0.0051896945,0.0068782023,0.13525675,-0.005179947,-0.0053941747,-0.0051601455,0.32204318,-0.005070783,-0.005089011,0.111591645,0.058160182,0.102214605,0.09981255,-0.0049178526,-0.004949352,-0.0053654015,-0.001835756,-0.0057393224,0.01623303,-0.013399333,-0.013737816,-0.0139397895,-0.013824321,-0.013857074,-0.013911247,-0.013674654,0.02697666,-0.012613092,-0.010030627,0.12511294,0.0687534,-0.013535045,-0.012035739,-0.013469741,0.088244066,-0.013839211,-0.013856012,0.12645203,0.11727369,0.057227768,0.031491477,-0.013760578,-0.013621934,-0.011039339,0.05460851,-0.0013375916,0.092373,0.0021669678,0.0028694775,0.0028989725,0.0031045377,0.0030639227,0.0031000972,0.0028323308,0.09651952,0.0009789169,-0.0015594065,0.12505029,0.18292996,0.002429558,0.00022651628,0.002310887,0.13051498,0.0029226113,0.002938658,0.08260698,-0.13450935,0.079570085,0.12111602,0.0030178968,0.0028562322,-0.0012216102,0.012656761,0.006075058,0.09318237,0.009496842,0.009578545,0.009450734,0.009590015,0.00955485,0.009534355,0.009603694,0.0050442517,0.009564776,0.009202033,0.21508773,-0.016043916,0.009528245,0.009534696,0.009556726,0.016634014,0.009512328,0.009523679,0.021998864,-0.0017684996,0.035120223,0.0691111,0.009610666,0.0096093565,0.009568246,0.108651996,-0.0010331552,0.111454055,0.0024387762,0.003700111,0.0031953305,0.0042036474,0.003919374,0.0038297474,0.0036877766,0.03844359,0.0011585876,-0.0017677695,0.07786009,0.033921886,0.002838879,0.00032182783,0.002826251,0.22177377,0.0033904612,0.0035176622,0.011389807,-0.058047127,0.06616445,0.091454506,0.0041934447,0.003993226,-0.0009858739,-0.035509534,-0.007004015,0.1366718,-0.010979421,-0.010825554,-0.010833949,-0.01073318,-0.010792859,-0.010812424,-0.010802568,0.09967088,-0.011128314,-0.010597769,0.067568794,0.15424675,-0.010919339,-0.011194201,-0.010908216,0.104943566,-0.0108316615,-0.010826091,0.08219277,0.06714722,0.053174026,-0.043437425,-0.010739156,-0.010777287,-0.011244666,0.06874048,-0.0043918155,-0.11436713,-0.0055857487,-0.005517564,-0.005229499,-0.005492694,-0.005456209,-0.005387893,-0.005568225,0.06441008,-0.0060489126,-0.006859392,0.044807054,0.11646575,-0.0055130105,-0.006227627,-0.005654581,-0.05627072,-0.005400084,-0.005408767,0.089271985,-0.0053854412,-0.14784653,0.011392842,-0.005595522,-0.0056172963,-0.0069967173,0.19154245,-0.006449243,0.27252424,-0.008413937,-0.008271787,-0.008330569,-0.008220767,-0.008236811,-0.008254742,-0.008271903,0.06926234,-0.008544207,-0.008667909,-0.037312485,0.029026084,-0.008369407,-0.00868782,-0.008369845,-0.009754591,-0.008293286,-0.008299764,0.033772856,0.020230453,0.00283154,-0.013805032,-0.008216938,-0.008246157,-0.008891413,0.100178346,-0.0022365507,0.010175511,-0.0036936924,-0.003306996,-0.0035903866,-0.0031512976,-0.0032654968,-0.0033232258,-0.0032846797,0.01174299,-0.0038729412,-0.00360036,0.1198927,0.005698204,-0.0035772026,-0.004012123,-0.0035252646,0.04504589,-0.0034350231,-0.0034053437,0.04318062,0.09870663,0.046269387,0.024022661,-0.0031044483,-0.0031453446,-0.0039341934,0.064557664,0.0013144352,-0.023896411,-0.0040510385,-0.0032468736,-0.004123736,-0.0029096424,-0.003209114,-0.0033712834,-0.0031603351,0.017805533,-0.0040049786,-0.0017787963,-0.10794206,0.10498299,-0.003864319,-0.004028957,-0.0036017168,0.046646297,-0.0036649192,-0.0036028437,0.0664146,-0.035151415,-0.047620367,0.25622243,-0.0027019493,-0.0027924106,-0.0030044392,0.12785256,-0.0037026927,0.07074126,-0.0037729964,-0.002584964,-0.0029305685,-0.0021304116,-0.0023428723,-0.0024556369,-0.0026012342,0.070149116,-0.0050433436,-0.0072911717,0.19578698,0.15287739,-0.0033087293,-0.005802097,-0.0033908337,0.07160312,-0.0027431734,-0.0027130768,0.111472204,0.075372145,-0.09875609,-0.11506542,-0.0020915754,-0.0022996077,-0.0071124975,0.017202549,-0.0014806073,0.09313138,-0.00041913614,0.00035919994,4.1928142e-05,0.00067448337,0.00051100925,0.00042978674,0.0003690943,0.16516614,-0.0011364208,-0.0025376445,0.029594302,0.1143565,-0.0001407694,-0.0016558412,-9.4046816e-05,0.015903853,0.00021626055,0.0002336856,0.082749456,0.11186752,0.006043775,0.028672624,0.0006944891,0.0005616732,-0.0023670495,0.05424877,-0.0010159463,0.08428671,0.002027366,0.0037987586,0.0032274127,0.0044357367,0.00413746,0.003997431,0.0037779622,0.10398491,0.00020085042,-0.0031378046,-0.032924656,0.21549831,0.0026392527,-0.0011163596,0.0026153354,0.055837538,0.0034876615,0.003623581,-0.018871214,0.09533431,-0.056759838,0.0562696,0.0043728687,0.0041039214,-0.0028736033,0.022773005,0.00018715672,0.0044184476,0.0022950685,0.0025965348,0.0030128118,0.002693628,0.0027571358,0.0028418438,0.0025101975,0.13270926,0.0012027249,-0.0016508866,0.06280976,0.14749482,0.0024597123,0.00065779686,0.0022242032,0.12615395,0.0027772114,0.002790255,0.04090706,0.057052713,0.015061937,-0.022750366,0.0024984777,0.0024040826,-0.0008162558,0.03018279,-0.007052851,0.08730731,-0.008974983,-0.0088301115,-0.008548198,-0.008791201,-0.008764043,-0.008694265,-0.008889332,0.0894644,-0.009656996,-0.010640763,0.22674115,0.123509966,-0.008884437,-0.010019846,-0.009064995,0.020590115,-0.008716732,-0.008737071,0.09424539,0.13561136,0.028626576,0.0958386,-0.00888221,-0.008947786,-0.011065543,0.00031222217,0.0048785303,-0.06049036,0.0036491975,0.0045493683,0.003658861,0.0048932247,0.0045887716,0.004416462,0.004635066,0.11969035,0.0035220906,0.0041865557,-0.19014172,0.110168256,0.0038361773,0.003391495,0.0041200444,0.13991842,0.0041112676,0.0042138584,0.018552296,0.0290194,0.076421775,0.19753312,0.0050554667,0.0049656006,0.0039381464,0.07757734,-0.0010011718,0.071350336,0.004138019,0.004742816,0.004975453,0.004941616,0.0049328124,0.0049709603,0.00464695,0.07757716,0.002885406,-0.0007095188,0.0897405,0.16333614,0.0044156834,0.0019863816,0.004237648,0.05657034,0.0048547015,0.004877217,0.046190202,-0.08978605,-0.03782259,0.083133586,0.0047987625,0.004666848,0.00022405386,0.07257452,-0.004892893,0.12202125,-0.011488229,-0.011651866,-0.011803098,-0.011767928,-0.011741854,-0.011754808,-0.011645943,0.084515326,-0.011015717,-0.008710094,0.08540613,0.05542258,-0.011583293,-0.010703648,-0.011487639,0.12319493,-0.011724459,-0.011736423,-0.02569586,0.11067587,-0.046716914,-0.14844203,-0.0116611235,-0.011629523,-0.009861092,0.12842484,-0.0043171123,0.11142654,-0.006960055,-0.0071566245,-0.007092295,-0.0072432375,-0.0071949754,-0.0071776933,-0.0071541592,0.050027467,-0.006686747,-0.0059012473,0.09051368,0.051566925,-0.007011293,-0.0065219332,-0.007005375,0.008830358,-0.007118173,-0.0071325907,0.079015896,0.017770354,0.017636128,0.009506665,-0.0072552413,-0.0072094444,-0.0062417015,0.026631318,-0.004894389,0.112547934,-0.0041488754,-0.0040171146,-0.003732944,-0.0039790403,-0.003935382,-0.0038829222,-0.004064223,0.027672485,-0.004704755,-0.006134513,0.17355914,0.0815604,-0.004054807,-0.0050655976,-0.0041901637,0.15286104,-0.0038787238,-0.0038908627,0.11767336,0.016606089,0.06570137,-0.027867654,-0.00409819,-0.0041243024,-0.005890636,0.13816297,-0.003270993,0.06736615,-0.0062176753,-0.0066523775,-0.006364753,-0.0068115224,-0.0066973735,-0.0066384263,-0.006655641,0.029720945,-0.00598488,-0.005256802,0.0058908705,0.10624844,-0.0062993467,-0.005829297,-0.006358005,0.14499453,-0.0064902287,-0.0065339096,0.04893048,0.11708435,0.043174982,0.0094108805,-0.0068055354,-0.0067820586,-0.0056859665,0.0638009,-0.0023835301,-0.004167691,-0.002791847,-0.0020282827,-0.002743451,-0.0017084293,-0.0020036642,-0.0021101907,-0.0019651987,0.07092245,-0.0029884968,-0.0026833378,0.19317667,-0.009354524,-0.0025895834,-0.003150642,-0.0024019568,0.005524814,-0.0023378953,-0.0022858838,0.09679476,-0.034993116,0.050622575,0.07313019,-0.0015500523,-0.0016621053,-0.0028895657,0.10490619,-0.001982944,0.045752753,-0.0052178586,-0.0051566064,-0.0052044876,-0.0051252134,-0.0051425276,-0.0051693767,-0.0051455125,0.12505637,-0.00521476,-0.005243093,-0.13758641,0.101850905,-0.0052152677,-0.005231349,-0.005178403,0.17561948,-0.0051745996,-0.005183321,0.13346751,-0.048424028,-0.0033780946,0.005366493,-0.005141899,-0.0051261596,-0.0050878637,0.09096136,-0.0051217373,0.05736758,-0.009473912,-0.008745605,-0.0093162805,-0.008412391,-0.008648723,-0.008785624,-0.008681018,0.025821622,-0.009753838,-0.008648075,0.16995221,0.051199015,-0.009224653,-0.009943739,-0.0090988055,0.18082993,-0.009006519,-0.008968294,-0.02148994,0.055380255,-0.035068553,-0.011567812,-0.008302439,-0.008364733,-0.009736569,0.08860592,-0.006053366,0.018135622,-0.010745361,-0.010939606,-0.010829676,-0.011022255,-0.010965029,-0.010957092,-0.0109461285,0.088393174,-0.010603346,-0.0100035295,0.0015659779,0.15372783,-0.010820545,-0.010486837,-0.010827329,0.0744331,-0.010872026,-0.010899872,0.045657456,0.06834566,-0.10693101,0.0070592593,-0.011035923,-0.011009283,-0.010402966,0.12967835,-0.006369382,-0.043795623,-0.015302062,-0.015317373,-0.016055912,-0.015306409,-0.01546281,-0.015627243,-0.015193954,0.13564932,-0.014237449,-0.009974755,0.06177383,0.08735671,-0.015409139,-0.013599986,-0.015102752,0.06323553,-0.015671015,-0.015696421,0.004690826,0.116963066,0.070013426,-0.041251622,-0.015044011,-0.014997374,-0.011652749,0.09400213,-0.0076109394,0.17331493,-0.011383064,-0.0108578205,-0.011360891,-0.010653902,-0.010839235,-0.010940019,-0.010798544,0.06416293,-0.011489962,-0.010888509,0.038928494,0.08196065,-0.011203527,-0.011571983,-0.011119483,0.03045192,-0.011105023,-0.011072315,0.1659413,-0.020265851,0.017385453,0.029000087,-0.01051111,-0.010551997,-0.011427691,0.050918177,-0.0068929233,0.16035299,-0.011185922,-0.011065591,-0.010848995,-0.010988288,-0.010987722,-0.010951936,-0.011107401,0.066453874,-0.011605934,-0.012075238,0.11663822,0.06531777,-0.011093067,-0.01178702,-0.011219166,0.031384412,-0.010949798,-0.010946296,0.058389086,0.16369495,0.020987904,-0.010338966,-0.0110957995,-0.011118922,-0.012398779,0.1425594,-0.005804586,0.061740205,-0.011130631,-0.0110884085,-0.0112064425,-0.011144649,-0.011110514,-0.011118893,-0.011060853,0.078530945,-0.011122524,-0.009566403,0.027258974,0.12770942,-0.011165964,-0.011027049,-0.011076577,-0.0015218034,-0.011113767,-0.011163473,-0.026051756,0.046131276,-0.091250345,0.011136938,-0.011129215,-0.011102035,-0.010566041,0.22035086,-0.0033961395,0.061963588,-0.011123046,-0.011017967,-0.011499461,-0.01099778,-0.011087071,-0.011184917,-0.010949135,-0.13018826,-0.0105361,-0.0072124787,0.014939709,0.14776944,-0.011119315,-0.010120048,-0.01087867,0.09243294,-0.011228826,-0.011279635,0.090105325,0.0610261,0.046611886,0.11305711,-0.010810221,-0.010792509,-0.008644909,0.11299888,-0.007339306,0.19818686,-0.010116654,-0.0098381415,-0.009839863,-0.009744525,-0.009784123,-0.009793539,-0.00984687,0.1953281,-0.010564409,-0.010950804,0.12634547,0.048389718,-0.010014489,-0.01082161,-0.010067292,-0.015459426,-0.009868737,-0.009847884,0.08095926,0.042032465,-0.02093187,-0.10380633,-0.009783104,-0.009827726,-0.011362694,-5.634874e-05,-0.00992362,-0.041635457,-0.016088067,-0.016485233,-0.016447783,-0.01663306,-0.016570471,-0.016551096,-0.016450077,0.03190147,-0.015548475,-0.013776282,0.17037563,0.13887069,-0.016252778,-0.015256228,-0.016193826,0.0011294968,-0.01644243,-0.016490739,0.11131483,-0.001985507,0.0149469115,0.11133712,-0.016616737,-0.016531423,-0.014706506,0.14935899,-0.0014656223,0.08580505,0.0002687145,0.0007982105,0.0006833747,0.0009709671,0.0009164959,0.0008954536,0.0007920461,0.029481594,-0.0004351698,-0.0021852516,0.24321233,-0.007166367,0.00046659634,-0.0010054968,0.0004450623,-0.0055453293,0.00072946993,0.00076042116,0.04022703,-0.051556274,0.085973226,0.039681256,0.00093376637,0.0008624643,-0.00177514,0.06999435,0.006261766,0.012439715,0.01258675,0.014403623,0.013533436,0.015090192,0.01466918,0.014507391,0.014405422,0.0105513185,0.010923758,0.0073531494,0.11897512,0.07185044,0.013133451,0.009733039,0.013259767,0.00080736727,0.01396253,0.014101055,0.105399705,0.03286702,0.022437641,-0.008302823,0.015146442,0.014856239,0.008222739,0.15975586,-0.0031801881,0.04391605,-0.0035424288,-0.0035478845,-0.0031527523,-0.0035783667,-0.0034557357,-0.003388511,-0.003589455,0.16373308,-0.004089769,-0.005055964,0.06533182,0.15144515,-0.0034757182,-0.004407687,-0.0036507663,0.016352834,-0.0033401903,-0.003362622,0.10050918,0.052000806,0.07131529,0.0032670833,-0.0037130453,-0.0037412439,-0.005139962,0.09076695,-0.0036388114,0.07400624,-0.00807365,-0.008093409,-0.008290738,-0.008088496,-0.00814249,-0.008178963,-0.008070512,0.051936366,-0.0077345427,-0.006224133,0.12031167,0.089813665,-0.008097246,-0.0075095,-0.008023844,0.10364901,-0.008174023,-0.00818035,0.044847548,0.017930344,-0.006133483,0.03776641,-0.008027949,-0.008004218,-0.0069453567,0.11796411,-0.0046066083,0.024372298,-0.007503681,-0.00748075,-0.0075618066,-0.007476844,-0.007496789,-0.007509887,-0.007464247,0.01599159,-0.007434614,-0.0065856893,0.1373364,0.08201616,-0.0074980743,-0.007379204,-0.0074646734,0.06655598,-0.0075104535,-0.007509239,0.05603212,0.045417424,0.012750428,0.012332879,-0.007455658,-0.007448435,-0.007117898,0.05930461,0.0022926591,0.07402447,0.008643031,0.010202415,0.009735711,0.010823687,0.010489282,0.010385841,0.010178298,-0.022023536,0.006908212,0.002826441,0.11131312,0.042231575,0.009142436,0.0057251044,0.009121213,0.020821244,0.009967862,0.010039598,0.06837412,0.043778922,0.037156668,0.052761596,0.010804793,0.01052779,0.0038364716,0.12446086,0.0021333247,0.05454818,0.0044553727,0.0037377384,0.004983872,0.0034355521,0.0038299337,0.0040719956,0.0035975538,0.05883212,0.003745973,0.0016064346,0.16651705,0.056747917,0.0043278337,0.003513671,0.00393562,0.061109092,0.004357796,0.0043011457,0.0084951,-0.13231188,-0.092751175,0.018359791,0.0031411275,0.0031262115,0.00202154,0.1569516,-0.014310863,0.04013844,-0.02490043,-0.02578285,-0.024870552,-0.02606206,-0.02582448,-0.02566358,-0.025859378,-0.064862095,-0.024777666,-0.02348879,0.0578862,0.053227425,-0.025161475,-0.024407154,-0.025392823,0.040621307,-0.025357373,-0.025431644,0.13603193,0.107978486,-0.35756126,0.026712736,-0.02622899,-0.026147783,-0.024434745,0.096188486,-0.0070800465,0.04385238,-0.008184433,-0.0080657285,-0.007903814,-0.008024052,-0.007994864,-0.007965103,-0.008101122,0.08350103,-0.008606413,-0.008924384,0.20475948,0.08512773,-0.008138251,-0.008819066,-0.008209854,0.015571255,-0.007982381,-0.007962752,-0.011466531,0.054978963,-0.03172617,0.09939351,-0.008065909,-0.008133199,-0.009355459,0.037980255,-0.0062792934,0.1266528,-0.0054545924,-0.0052602156,-0.005185139,-0.0052248985,-0.0051929615,-0.005177304,-0.005296916,0.017414585,-0.005867998,-0.0062405546,0.2559021,0.09179786,-0.0053695366,-0.006143594,-0.005437948,0.07211882,-0.0052105524,-0.0051908717,0.06554648,-0.007347621,0.06807421,0.017601922,-0.0052982606,-0.005338941,-0.006605394,-0.03807383,-0.007360153,0.1156102,-0.011510356,-0.011095455,-0.011205403,-0.010959389,-0.011028115,-0.011044481,-0.011094246,0.15938441,-0.011943545,-0.011774134,0.09676871,0.20446692,-0.011358628,-0.012172893,-0.011374481,0.109126665,-0.011154104,-0.011146171,0.11345938,0.1260432,-0.031305917,-0.05865158,-0.01095605,-0.011023201,-0.012418151,0.10062326,0.00019194443,0.06328373,0.00841935,0.009532982,0.0098757595,0.00991457,0.009860595,0.009932034,0.009444695,0.07040092,0.0061338022,0.0012004673,0.13288124,0.13130419,0.008905344,0.0047099106,0.008629005,0.10820029,0.00969737,0.009712413,0.020463765,0.17249349,-0.0018093064,-0.34119034,0.009723838,0.009481743,0.001922112,0.12069664,-0.0054009706,0.015196219,-0.0095741935,-0.009216968,-0.00953678,-0.0090799155,-0.009207748,-0.009263039,-0.009218724,0.14743784,-0.009778049,-0.009190799,-0.005208567,0.12087913,-0.009497359,-0.009878013,-0.009437613,0.103496805,-0.009363946,-0.009342009,-0.063937016,0.18027928,-0.04321812,0.11645163,-0.009017165,-0.009082626,-0.009746801,-0.0025576109,-0.011756286,-0.17318794,-0.0265298,-0.026778052,-0.027379604,-0.026861638,-0.026970342,-0.027080731,-0.026657129,0.09597879,-0.025276612,-0.018929433,0.024269037,0.10732156,-0.026713608,-0.02442213,-0.026412107,0.10003953,-0.027021546,-0.027073719,0.13944656,-0.0050624907,0.06598793,0.09854032,-0.026639454,-0.0264902,-0.02166285,0.17850523,-0.0011464581,-0.012680303,-0.0046817064,-0.0049542338,-0.004395757,-0.005010709,-0.0048838016,-0.004811008,-0.0050162394,0.13060558,-0.0051265596,-0.00559891,0.06515803,0.14087164,-0.004783515,-0.0052181073,-0.0049199164,0.108462475,-0.004703002,-0.004713524,0.097768836,-0.16492891,-0.038451992,0.034623183,-0.0051323622,-0.005127974,-0.0060056597,0.10155158,8.570403e-05,0.09117393,-0.005635716,-0.0054973513,-0.0059176013,-0.0054151453,-0.0055245953,-0.0056251176,-0.0054461993,0.07384704,-0.005282469,-0.0026720427,0.1489738,0.025086131,-0.005635146,-0.0050601866,-0.0055000186,0.071871564,-0.0056788223,-0.005686082,0.06223822,0.023674758,0.15214518,-0.056370914,-0.005324345,-0.0052735284,-0.0040616356,0.06536559,-0.0021303059,0.05625846,-0.0054994226,-0.005300544,-0.0057538114,-0.0052475855,-0.005343332,-0.005413262,-0.0052223206,0.10804676,-0.005226653,-0.0038276594,0.012424968,0.052315436,-0.005462922,-0.0051447973,-0.0053234324,0.11112738,-0.005505249,-0.0055065677,0.114691265,-0.08808459,0.14155214,0.08984421,-0.005130763,-0.005121641,-0.0043880343,0.071873635,0.010463383,-0.09243861,0.013069361,0.013570083,0.013108527,0.013800025,0.013611803,0.01350455,0.013628058,0.14876418,0.013123039,0.012500698,0.07388853,0.083095156,0.013227923,0.013025057,0.013318665,0.1002603,0.013333894,0.013371974,-0.01241092,0.0967729,-0.19104204,0.11687294,0.01391116,0.013877124,0.012932513,-0.03289973,-0.002438387,0.033452235,-0.0063835913,-0.0063589774,-0.0066050766,-0.006338291,-0.0064088926,-0.006447062,-0.0063291118,0.057681575,-0.0060809553,-0.004279533,-0.04923344,0.06383283,-0.006483065,-0.0058319606,-0.006305914,-0.107329816,-0.0065163784,-0.0064921305,0.1607119,0.16272664,0.011277657,0.07282779,-0.0062405895,-0.0062157065,-0.0053214487,0.18798932,-0.009376741,0.018621413,-0.018894136,-0.01967138,-0.019498434,-0.020007161,-0.01986847,-0.019795708,-0.019621065,0.11129874,-0.017891454,-0.014041418,-0.050864942,0.2337197,-0.019163772,-0.017096186,-0.019094314,0.010816777,-0.019593593,-0.019636627,-0.09593715,0.16011867,-0.059587855,0.098939694,-0.019942354,-0.019819636,-0.01579485,0.18809582,-0.002650816,0.07557593,-0.005465474,-0.0060226247,-0.005442206,-0.006223172,-0.006026618,-0.005946301,-0.0060919607,0.09977711,-0.005432357,-0.0048615197,0.21633191,-0.0048956126,-0.0055822283,-0.0053863935,-0.0057539754,0.10886398,-0.0056788027,-0.005757751,0.031102713,-0.02898626,-0.0256265,0.022780834,-0.0063472954,-0.0062782764,-0.005563516,0.16965403,0.004739605,-0.055179786,-0.003443086,-0.003323786,-0.0043660123,-0.0032101423,-0.003415119,-0.0036630866,-0.003132373,0.07019506,-0.0019132197,0.0035663694,-0.039689243,0.054602668,-0.0034774002,-0.0011308715,-0.003098026,0.20216979,-0.0038078278,-0.0038097566,-0.14052702,0.057943363,-0.2018907,0.15438052,-0.0028758906,-0.00274395,0.0015376657,0.060561143,-0.0060451142,0.12511793,-0.010261938,-0.0092357695,-0.009923607,-0.008807801,-0.009130038,-0.00928651,-0.009180721,-0.0200266,-0.010819726,-0.010330588,0.15122738,0.15603419,-0.009934433,-0.0112596145,-0.009803812,0.092032395,-0.009593651,-0.009507135,0.052404344,0.05424556,0.13082518,0.042642612,-0.00873737,-0.008848194,-0.011307165,-0.01594627,-0.005727305,0.05981659,-0.010133944,-0.011025786,-0.010416076,-0.01146616,-0.011173833,-0.011031102,-0.011087734,0.1245058,-0.009636141,-0.008185148,0.07467989,0.17757529,-0.0104048,-0.009329073,-0.010542035,0.078612685,-0.010650698,-0.010757089,0.04836562,-0.033449095,0.09976627,0.14648372,-0.011546889,-0.011438604,-0.009144887,-0.059224788,-0.0012175832,0.010601887,-0.002132053,-0.0025012586,-0.002306316,-0.0026206672,-0.0025474876,-0.0024930183,-0.0025013275,0.0767995,-0.0018795375,-0.0013933778,0.15445064,0.1446909,-0.0022190176,-0.0016505085,-0.0022645593,0.021605799,-0.0023862347,-0.0024262592,0.027503943,-0.0056099743,0.013506174,-0.019301647,-0.0026352834,-0.0025904328,-0.0015328638,0.07516807,-0.005913008,0.08699234,-0.012943938,-0.013137691,-0.013358986,-0.013180301,-0.013233547,-0.013287006,-0.013080034,-0.06854744,-0.012253364,-0.010416371,0.15382415,0.084889084,-0.013043284,-0.011790246,-0.012922068,0.03155049,-0.013251424,-0.013246581,0.041919965,0.09212149,0.014597576,0.0790578,-0.013096892,-0.013007652,-0.010908335,0.049323976,-0.003908327,0.17129421,-0.010936685,-0.010981321,-0.011491165,-0.0109659545,-0.011076797,-0.011198141,-0.010899796,0.025034076,-0.010204498,-0.0069913343,0.1099459,-0.019241555,-0.011014627,-0.009743229,-0.010814354,-0.0032782033,-0.011199288,-0.011215925,0.081721574,0.109914556,0.033585705,-0.0441577,-0.0107863825,-0.010719163,-0.008399972,0.1380465,-0.0015020147,0.08624269,-0.005612162,-0.0055734925,-0.005623987,-0.0055027613,-0.0055646263,-0.0055932514,-0.005577107,-0.12042533,-0.0055070985,-0.005565271,-0.11824319,0.18378264,-0.0056250542,-0.0053603267,-0.005625654,0.042943016,-0.005605828,-0.005614741,0.16231772,0.20741683,0.027366668,0.12027413,-0.00547871,-0.00550355,-0.0052872146,-0.041902803,0.0028773602,0.040626388,0.0029921718,0.0033514984,0.0030476525,0.0034829602,0.0033960864,0.0033038594,0.0033891806,0.014282073,0.0028939378,0.002933568,0.14692405,0.062490784,0.0030943379,0.0028250813,0.0031863973,0.10334268,0.0032218741,0.0032369215,0.089836046,-0.07656843,-0.03151373,-0.017569676,0.0035523465,0.0035043508,0.0028208718,0.14424583,0.0015584528,0.14607885,0.00058827177,-0.0011484968,0.0006819442,-0.0018861977,-0.001217721,-0.00087824464,-0.0013332367,0.10444371,0.00066670775,0.00047855452,0.046900027,0.09683944,0.00017872453,0.00093670003,-0.00033913925,0.07141733,-0.0002142284,-0.00033789547,0.0849009,-0.15289661,-0.030413955,-0.2197448,-0.0022862675,-0.0021026433,4.942203e-05,0.13098012,-0.0027884692,0.055372573,-0.002622692,-0.0020929947,-0.0022843983,-0.0018870458,-0.0019795662,-0.0020221584,-0.002102781,0.107164934,-0.0031949254,-0.003984034,0.09757981,0.09628648,-0.0024324283,-0.0036116242,-0.0024377778,0.01892297,-0.0021479204,-0.0021321215,-0.012205906,0.05213775,0.025964074,0.07976742,-0.0018983483,-0.0019805878,-0.004062012,0.074760295,-0.0022566803,0.12285009,-0.0017978307,-0.00043823943,-0.0014973581,5.7443976e-06,-0.00037099887,-0.00052650226,-0.0003539063,0.08247311,-0.0023541972,-0.0024230555,-0.06967545,0.18772495,-0.0014491491,-0.0027889796,-0.0011982173,0.03566538,-0.0009910613,-0.00089853257,0.09466784,0.2019809,0.09985599,-0.08289375,0.00014675036,3.9361417e-05,-0.002723761,0.08201878,-0.010005337,0.058010887,-0.010951536,-0.0111049935,-0.010153806,-0.011258081,-0.01097224,-0.01079935,-0.011289731,0.26644945,-0.012082323,-0.014791165,0.11387278,0.0071459636,-0.0108954385,-0.012773495,-0.011214707,0.03146074,-0.010661989,-0.010697097,0.0011828914,0.103531,-3.3762306e-05,-0.058285218,-0.011533663,-0.011619054,-0.014550139,0.13840815,0.0027333274,-0.022235982,-0.0010433123,-0.00095021725,-0.0013382249,-0.0008897707,-0.000986781,-0.0010496303,-0.00091264397,0.053636163,-0.0007452443,0.0018710084,-0.011581864,-0.053779136,-0.0011136439,-0.0006110966,-0.00091679394,0.0986315,-0.0010957438,-0.0010744631,0.14754394,0.13456751,-0.40378222,0.12649274,-0.0008433461,-0.00082267914,0.0005313568,0.06258638,-0.007308179,-0.017075427,-0.022760341,-0.023267534,-0.024132036,-0.023382189,-0.023552481,-0.023723952,-0.023099422,0.0757391,-0.020721968,-0.013637826,0.07932161,0.06309138,-0.023091843,-0.019540366,-0.02265547,0.18750674,-0.023673028,-0.023683488,0.054935515,0.15969482,-0.0014009848,0.08373448,-0.023026742,-0.022846928,-0.016279068,0.19869865,-0.0005909465,-0.057523765,0.0012314506,0.0016225502,0.0016549826,0.0017472841,0.0017080344,0.0017284098,0.0015900098,0.012086421,0.000616163,-0.00078210235,0.15347315,0.12013467,0.0013942532,0.00018189847,0.0013228059,0.12814407,0.0016525611,0.0016593225,0.18066764,0.0035804398,-0.023647804,0.053052932,0.0016784668,0.0016011037,-0.0006485488,-0.05298917,-0.0069283247,0.005838111,-0.0021110922,-0.0013861731,-0.0010154173,-0.0011307001,-0.0011455081,-0.0010397285,-0.0014611008,0.09171942,-0.0037995502,-0.008039671,0.07242078,0.082629725,-0.0017634388,-0.004827831,-0.002015248,0.08210147,-0.0011999756,-0.0011758667,0.17722616,-0.09037372,0.040279433,0.05375448,-0.0013305098,-0.0015340075,-0.0071680155,0.1285982,-0.0071388055,0.19996639,-0.011222579,-0.011209995,-0.011062247,-0.0112364385,-0.011193514,-0.011154197,-0.011245893,0.17803013,-0.0114231855,-0.011141295,-0.058600463,0.09934369,-0.01119594,-0.011551641,-0.011265017,0.058274403,-0.011125539,-0.011147767,0.108601615,-0.055604506,0.056168262,-0.00480558,-0.011269621,-0.011306178,-0.011806188,0.01722566,0.0023820587,0.10435074,-0.0017481763,-0.0015456071,-0.0023325384,-0.0014280966,-0.0016875723,-0.0018258318,-0.0014306456,0.03722837,-0.0009444691,0.0023193285,0.16122933,0.10781544,-0.0017851405,-0.00042927545,-0.0014651092,-0.01312862,-0.0019119382,-0.0018981602,0.031082356,0.07850069,0.026578646,0.11704753,-0.0011643842,-0.0011597946,0.0011551119,0.09088871,-0.008130889,0.08537766,-0.015920259,-0.016036037,-0.0161051,-0.016048247,-0.016048145,-0.016071139,-0.016004406,0.10434326,-0.01564556,-0.013366558,0.0069800615,0.23506986,-0.015982024,-0.015378756,-0.015931033,0.05932834,-0.016068272,-0.016073644,0.20257291,0.11803662,0.0017398894,-0.024974857,-0.015970068,-0.015970113,-0.01466706,0.052566037,-0.006117381,0.056753743,-0.011073999,-0.011208937,-0.011426143,-0.011315703,-0.01129023,-0.011313185,-0.011186272,0.041115,-0.010572441,-0.008326832,0.06316051,0.07932216,-0.01117067,-0.010244943,-0.011076999,0.117394336,-0.011286002,-0.011303838,0.048377655,0.041495387,0.12470685,0.07195148,-0.011241512,-0.011200234,-0.009326264,0.072598174,-0.0053745657,0.23704936,-0.00016265176,0.00065348856,0.00093461014,0.000884071,0.0009226054,0.0009768233,0.00056227436,0.10216257,-0.0019524975,-0.0062233275,0.038601115,0.11719434,0.00020020455,-0.0031567626,-8.85427e-05,0.0027817732,0.00080911815,0.00082379766,0.056607157,0.034396205,0.029960258,0.024345372,0.0006912872,0.00053468347,-0.005364301,0.031840663,-0.0064802617,0.1676166,-0.0136367045,-0.013449803,-0.013950672,-0.013366416,-0.013496093,-0.013600171,-0.013359092,0.12668616,-0.013094604,-0.010408336,0.022072963,0.05465491,-0.013603345,-0.012781914,-0.013446517,0.19454549,-0.013704203,-0.013653567,0.09035589,0.062088605,0.047482364,-0.048084475,-0.0132237375,-0.013188012,-0.01177774,-0.047362745,0.0009620562,0.10566571,-0.004263282,-0.004863628,-0.0047089127,-0.005080307,-0.004978806,-0.0049638255,-0.004825406,0.06278631,-0.003482474,-0.00071049854,0.18762775,0.011110492,-0.0044551305,-0.0029026924,-0.0044592842,0.06981629,-0.0047850115,-0.0048499005,0.014829103,0.058195595,0.018068815,0.07236366,-0.0050381795,-0.0049180686,-0.0018718732,0.056159575,-0.0056847855,0.08860998,-0.0121665485,-0.0125989765,-0.012486026,-0.0127328215,-0.012692964,-0.012686174,-0.0125822,0.16430788,-0.011609297,-0.009325251,-0.054064754,0.15994745,-0.012336753,-0.01126153,-0.012283713,0.17274979,-0.012490483,-0.012524985,-0.060475748,0.033730343,0.04580518,0.008903518,-0.012712832,-0.012638435,-0.010523368,0.12321525,-0.014372427,0.07873415,-0.023117129,-0.024067663,-0.02326675,-0.024434574,-0.024141427,-0.023965098,-0.02412922,0.07865848,-0.022784278,-0.021240354,0.0007835403,-0.04973647,-0.023348494,-0.022497496,-0.023546066,0.11424211,-0.02366792,-0.02375109,0.056896664,-0.018183745,0.05504675,0.04621257,-0.024609998,-0.024455413,-0.022459209,0.18451722,0.003935773,-0.02369066,0.0021209605,0.0021952642,0.0018233485,0.0022835806,0.0021816231,0.0021370612,0.0022740923,0.0463457,0.002425503,0.004187152,0.23131484,-0.11100843,0.002112206,0.0025247782,0.0022738352,0.05363307,0.0020684209,0.002028659,0.15299387,0.05730503,0.0153016,-0.077990085,0.0023516342,0.0023589842,0.0034455508,0.10415451,-0.0004299432,0.124206915,0.0007693637,0.0008466765,0.0014843484,0.0008541718,0.0010242313,0.0011108071,0.0007860586,0.051288594,-0.00018590689,-0.002235612,-0.022163542,0.18644752,0.00087688677,-0.00063887984,0.00064886734,-0.016341183,0.0011359435,0.0011588642,0.06808307,0.04204507,0.0011850391,0.013948686,0.0006791204,0.0006195549,-0.0019322038,0.12633774,-0.0014262507,0.17173064,0.0010689944,0.0011108071,0.0013949852,0.0011224274,0.0011955723,0.0012397282,0.0010735914,0.030287776,0.0005489439,-0.0010554902,0.04051393,0.08782802,0.0011380762,0.0002930835,0.0010247715,0.10888778,0.0012441203,0.001241751,0.058329053,-0.007857785,0.020334607,-0.0014759228,0.0010419022,0.0010084063,-0.00055991614,0.046441898,-0.0056121293,0.08799972,-0.0069150785,-0.007472329,-0.0068009095,-0.007713386,-0.007468682,-0.00734606,-0.0075570643,0.019323036,-0.0070310794,-0.007998081,0.11832474,0.15145703,-0.0070057623,-0.00701326,-0.007249884,-0.010056235,-0.0071298257,-0.0071574356,0.10958277,0.09815626,0.09998794,-0.002690237,-0.007873423,-0.0078060627,-0.007574992,0.053398624,-0.0034748237,0.095115505,-0.008069219,-0.007915452,-0.008451447,-0.007925808,-0.008031152,-0.008093953,-0.007867262,0.11487782,-0.0075158067,-0.005068727,0.19279902,0.09061784,-0.008068234,-0.0073724464,-0.007900539,-0.019741125,-0.008185916,-0.008169767,0.008238753,-0.10330114,0.12414086,0.088256076,-0.0077982526,-0.007750906,-0.006298256,-0.004762482,-0.0053165145,0.08482295,-0.010597164,-0.01103314,-0.010895349,-0.011204448,-0.011135675,-0.011105478,-0.011039458,0.08872233,-0.010073341,-0.008074351,0.17806375,0.06702602,-0.010758845,-0.0096235275,-0.010760546,0.10152442,-0.01096677,-0.011007741,0.013188533,0.050166994,-0.010998836,-0.098871425,-0.011146814,-0.011072591,-0.008962214,0.19989696,-0.009017058,0.25092226,-0.012428172,-0.01192487,-0.012214376,-0.011728408,-0.011845432,-0.011901208,-0.011917267,0.09551293,-0.012852207,-0.012819158,0.1103961,0.12072306,-0.01227545,-0.013165906,-0.012219935,0.06911109,-0.012049824,-0.012026969,0.057796255,0.07891517,0.051178046,0.023446342,-0.01169633,-0.011761978,-0.013392359,0.0837221,-0.006296616,0.107631885,-0.015537202,-0.015735855,-0.016087227,-0.015784975,-0.015847368,-0.015941292,-0.01566375,0.06716137,-0.0146507155,-0.011023141,0.039914772,0.09041959,-0.015664697,-0.014021672,-0.015496314,0.16891263,-0.01591225,-0.015893241,0.025674265,0.014343642,0.03509906,0.053502664,-0.01564234,-0.015563088,-0.012588222,0.07501045,-0.01207038,0.053361833,-0.020624518,-0.02133823,-0.020656768,-0.02168329,-0.021368979,-0.021259429,-0.021433346,0.029414952,-0.02042044,-0.018489469,-0.019028382,-0.023315918,-0.020782717,-0.020269036,-0.020967556,0.15838483,-0.020965468,-0.021001665,-0.08795433,0.12592402,-0.08691186,-0.0924876,-0.021824764,-0.021758504,-0.020049732,0.1920844,-0.0039618555,0.08072906,0.0003248416,0.0006870348,0.0012800097,0.0007301662,0.00089436024,0.001028806,0.0005677119,0.06305057,-0.0010642414,-0.0051025273,0.08769453,-0.0010866225,0.00052743405,-0.0020166785,0.00026530493,0.07898653,0.0010082498,0.001029795,0.016881604,-0.015525211,0.03247798,0.008302808,0.00046125194,0.000335393,-0.0042574033,0.23902805,-0.0031034006,0.104796946,-0.007561665,-0.008042976,-0.00799701,-0.008171499,-0.008109421,-0.008139348,-0.008002303,0.025258362,-0.006904535,-0.005185593,0.103140056,0.09548072,-0.0077562183,-0.006478995,-0.007701616,0.06753728,-0.0080073215,-0.008056752,0.06342728,0.21605355,0.015492089,-0.04394048,-0.008108698,-0.008036228,-0.005784533,0.0727815,0.008465344,0.052186154,0.010729596,0.010944348,0.010887966,0.011009794,0.010972276,0.010996811,0.010967765,0.057225868,0.010424204,0.009703271,0.13190582,0.06061987,0.010831127,0.010172274,0.010818824,0.09052506,0.01089818,0.01092568,0.12229185,-0.14931309,0.023169756,0.030074947,0.011025969,0.010998327,0.009830445,0.10407354,0.00020501576,-0.025552541,-0.0095724985,-0.009342212,-0.010870732,-0.0091305375,-0.009606821,-0.009897767,-0.009114362,0.11443031,-0.007656969,-0.00070393085,-0.01518251,0.0680833,-0.00970473,-0.0065901205,-0.009092052,0.053890623,-0.010066982,-0.010044858,0.0358869,-0.0031841658,0.0636872,0.17845385,-0.00872399,-0.008587783,-0.0028960109,0.19229446,-0.0061520375,0.062200774,-0.009513142,-0.009596221,-0.009417869,-0.009622669,-0.009573588,-0.009556761,-0.009601994,0.07167286,-0.00958113,-0.009419411,0.057053708,0.1654118,-0.00953719,-0.009608977,-0.009593327,0.16201645,-0.009512145,-0.009534359,0.068286814,0.004923232,0.0315973,0.010012671,-0.009678792,-0.009672575,-0.009653576,0.12397483,-0.0034635216,0.0476804,-0.007262878,-0.006368772,-0.0072005503,-0.0059889127,-0.006296642,-0.006454617,-0.006281372,0.11423384,-0.007414078,-0.0063783424,0.0096922815,0.11197036,-0.007028209,-0.007574342,-0.006792752,0.2050006,-0.006783344,-0.006739786,0.02622667,0.0241573,0.014657795,0.16852796,-0.0058057643,-0.0058983797,-0.0071402006,0.105126575,-0.007836778,0.07295264,-0.008074855,-0.0070907623,-0.0071035214,-0.0067818686,-0.0068838,-0.006849725,-0.007154733,0.08684342,-0.009496868,-0.011644252,0.038360827,0.06698302,-0.007689018,-0.010454085,-0.0077750497,0.033149894,-0.007114522,-0.0070496835,0.02189967,0.08109843,0.03836252,0.07046139,-0.0068953335,-0.0070464388,-0.012036011,0.20951584,-0.0071594827,0.15033314,-0.011793068,-0.011730591,-0.011640951,-0.01171597,-0.011696901,-0.0116681075,-0.011742419,0.139115,-0.01200437,-0.011641439,-0.07261207,0.14364384,-0.0117591545,-0.012133941,-0.011811689,0.0893217,-0.011695003,-0.011692353,0.0029150508,0.09723015,-0.008371061,0.041110948,-0.0117600765,-0.01177422,-0.012115777,0.0040567466,-0.009412057,0.11906698,-0.015189528,-0.014840947,-0.01507465,-0.014740704,-0.0148196295,-0.014845598,-0.014841223,0.16808575,-0.015411459,-0.014692642,0.13334073,0.066842504,-0.015084736,-0.015591238,-0.015053732,0.1454011,-0.014951251,-0.014935555,-0.055678133,0.087565795,0.027221112,0.016804792,-0.01474468,-0.014761765,-0.015584048,0.08112171,0.0007454604,0.09307574,0.0039115977,0.0049187765,0.004819898,0.005330585,0.005152328,0.0051471805,0.004875347,0.09999166,0.0023911353,-0.00074177235,-0.03129922,0.10504266,0.0042606527,0.0014862418,0.0041677626,0.12204364,0.0048477696,0.004931506,0.0631738,-0.03714495,-0.0189438,-0.07275775,0.0052297916,0.0050395792,-0.0002310276,0.12856695,-0.011322785,0.03158131,-0.01425796,-0.015630111,-0.014286395,-0.016266856,-0.015742188,-0.01545126,-0.015762819,0.03920365,-0.0140384585,-0.013839066,0.15531945,0.11407587,-0.014570486,-0.013819176,-0.01492738,0.06063345,-0.0149308955,-0.015049692,0.03334112,0.1265649,0.081118606,-0.0414242,-0.016520351,-0.016373938,-0.014124699,-0.012651205,-0.005621109,0.00791553,-0.006858945,-0.005992009,-0.006622374,-0.0056944704,-0.0059233396,-0.006069453,-0.0059525073,0.07645118,-0.0072882175,-0.0074994294,0.106163785,0.07779232,-0.0066187456,-0.007578904,-0.0064885896,0.065740995,-0.0062977336,-0.0062590837,0.023082273,0.04908141,0.066351995,-0.06775084,-0.0055559557,-0.005678607,-0.0077204183,0.1342773,-0.0012521297,-0.028204974,-0.0035472754,-0.0023377016,-0.0032682419,-0.0018389821,-0.0022148266,-0.0024179816,-0.002231598,0.13912891,-0.003996186,-0.0036615748,0.064935684,0.018994924,-0.0031669391,-0.004353322,-0.002968305,0.016405934,-0.0028233677,-0.0027139522,0.131414,0.040084213,0.071724206,0.1117691,-0.0016393773,-0.0018233135,-0.0041662343,0.20276144,-0.00127621,0.33266237,0.010958561,0.015716739,0.012816414,0.017293807,0.016192118,0.015758377,0.015809754,0.13312829,0.007408822,-0.0010369159,-0.05034968,0.06864521,0.012583017,0.0044350103,0.012925819,-0.003803257,0.014322914,0.014486406,-0.09469393,0.03711526,0.006366834,0.014517862,0.017831327,0.017180514,0.0012248815,-0.3342915,-0.0008741319,0.045436837,-0.005607769,-0.0058420086,-0.0062213186,-0.0058289655,-0.005930003,-0.006049702,-0.0057282,0.11627695,-0.004638061,-0.0018747598,-0.03965023,0.07759773,-0.0058675017,-0.003960222,-0.0056173634,0.18835066,-0.0060514435,-0.0060405955,0.08310683,-0.053030126,-0.023643637,-0.058628388,-0.0056585222,-0.005564261,-0.0025555752,0.053793028,-0.004683491,0.10974401,-0.0061576096,-0.0065090097,-0.00606589,-0.006605327,-0.00648506,-0.006410267,-0.006549835,0.07648674,-0.006211467,-0.006408196,-0.033377632,0.12192736,-0.006235795,-0.0061735604,-0.006349652,0.049347878,-0.0062973667,-0.0063073114,0.018231,-0.0127062425,0.13108237,0.094064355,-0.0067307353,-0.006676797,-0.0065640174,0.13956319,-0.0016931519,0.026929025,-0.0058591664,-0.0052449033,-0.0055187866,-0.0049684662,-0.005162898,-0.0052573606,-0.0052208602,0.13693567,-0.006282579,-0.00536319,0.022097819,0.095743485,-0.005662539,-0.006404601,-0.00559872,0.12794119,-0.0053983703,-0.005324153,0.09601231,0.04041359,0.057529446,0.0836762,-0.004918471,-0.0050273873,-0.0063268933,0.012312427,0.0024376288,-0.18131022,-0.007474549,-0.007877383,-0.008645011,-0.008022592,-0.008160479,-0.008285649,-0.007751234,-0.014383625,-0.00565695,0.00017706305,0.004840523,0.08638002,-0.0077611655,-0.0044815205,-0.007411779,0.063970074,-0.008250315,-0.008238981,0.09633469,0.056785434,-0.114671245,0.1327109,-0.0077119656,-0.00759184,-0.0016268343,0.13974883,-0.006036535,0.17068674,-0.0063236393,-0.00550469,-0.0055428445,-0.0052066483,-0.0053300485,-0.005324279,-0.005543351,0.08438107,-0.0074494295,-0.009630971,0.13582769,0.043347463,-0.005974509,-0.008218825,-0.0060921293,0.033626262,-0.005547587,-0.0055298544,0.05924606,0.09990883,0.063934706,0.0052608475,-0.0052524246,-0.0054137427,-0.009596842,0.052472126,-0.005020082,0.07523381,-0.0068188943,-0.007248896,-0.006844215,-0.007411763,-0.007282275,-0.007176576,-0.0072937757,0.11804938,-0.0067962334,-0.0069852043,0.015881823,0.13657252,-0.006916428,-0.00671079,-0.0070128115,0.13177,-0.0070228577,-0.0070898193,0.075976424,0.03909502,0.01958426,0.055032585,-0.0075131007,-0.007465531,-0.0069470964,0.022119302,0.0038261116,0.025133712,-0.0045008413,-0.004605916,-0.005133114,-0.0044703037,-0.0047008544,-0.0048457906,-0.004487902,-0.0516195,-0.0036930172,0.0002056174,-0.050131425,0.011593513,-0.0046972707,-0.003125608,-0.0043946467,0.23381504,-0.0048612086,-0.0048820227,0.10425741,0.09696686,-0.11042438,0.039421804,-0.0042287894,-0.004223965,-0.0015299357,0.102550276,0.0011072997,0.05721371,0.0031013899,0.0040970705,0.0039754286,0.0044468157,0.0042963736,0.0043131635,0.004053347,0.06842914,0.0017867535,-0.001004219,0.15678543,0.06611485,0.0035041515,0.0009461045,0.0034060292,0.026296154,0.003987166,0.0040737744,0.14293517,0.051339276,0.13686612,-0.18982527,0.004378331,0.004195664,-0.00046717376,0.04499609,-0.0067139305,0.06612209,-0.0104842,-0.009504452,-0.010223279,-0.009082205,-0.009411817,-0.009540223,-0.009457056,0.07883744,-0.0110003725,-0.010553315,0.11803322,0.04840611,-0.010223739,-0.011402495,-0.010112408,0.0041137785,-0.009905188,-0.009853497,0.03888278,0.12818475,0.036259916,0.02509255,-0.008961298,-0.009095779,-0.011222134,0.12241133,-0.002304878,0.07703856,-0.0040892325,-0.0031757765,-0.0038132463,-0.0028294642,-0.0030760393,-0.0032127136,-0.0031561852,0.11936715,-0.0045038573,-0.0042240135,0.116388015,0.09675327,-0.0038452446,-0.0047871936,-0.0037033278,0.084524,-0.003486753,-0.0034173448,0.06917656,-0.07627292,0.0025837347,-0.11982527,-0.0027478896,-0.002848938,-0.0048059504,0.12927896,-0.008239241,0.082706645,-0.020628095,-0.022073802,-0.02120084,-0.02250366,-0.022188067,-0.022085676,-0.022073306,0.19311431,-0.01966194,-0.015569575,0.07663811,0.0059025735,-0.020987783,-0.01884798,-0.021173807,0.09691662,-0.021563508,-0.021723201,0.0889363,0.12562793,-0.020319149,-0.030354679,-0.022653922,-0.022481255,-0.01767239,-0.09470788,-0.005370487,0.046360806,-0.005478006,-0.0048317723,-0.0054397583,-0.004637569,-0.0048091314,-0.0049037114,-0.004806258,0.08055641,-0.005589124,-0.005473327,0.009435121,0.15824655,-0.0052887164,-0.0057160705,-0.005139284,0.07525321,-0.005160867,-0.0051593,0.12513301,-0.021151058,0.09700175,0.03271211,-0.0045152083,-0.0045545986,-0.005543601,0.068535246,-0.0035507306,0.16317098,-0.0074180737,-0.0068645403,-0.0073449537,-0.0065943357,-0.006799862,-0.006925009,-0.006802748,0.08587806,-0.0076514184,-0.0069468915,0.11125036,0.025526563,-0.0072631557,-0.0078080054,-0.00716199,0.097896524,-0.007084393,-0.007068269,-0.00973738,0.13264702,0.031256102,0.009658389,-0.006479148,-0.0065722005,-0.007691048,0.0469016,-0.0010612458,0.030096523,0.0040526316,0.0038413554,0.0049241036,0.0037269117,0.0040362813,0.0042166337,0.0037157014,0.07676749,0.0028693117,-0.0010078885,0.107698575,0.0996486,0.004150741,0.0023016855,0.0037677214,0.09344448,0.004333748,0.0043274313,0.15790936,-0.16753335,0.1188027,0.04411939,0.003414534,0.0033566765,2.4951994e-05,0.075749844,-0.007930331,0.028605849,-0.008017996,-0.008119624,-0.0075875223,-0.008159645,-0.008055616,-0.007932533,-0.008195743,0.084319755,-0.008569036,-0.010117061,0.20178309,0.12259476,-0.008022511,-0.008832121,-0.008243937,0.07256836,-0.007859122,-0.007873327,0.15976398,0.07446703,0.029141786,-0.18442771,-0.008331336,-0.00836017,-0.009962056,0.12594718,0.012342986,0.4749565,0.06229972,0.0607377,0.066656426,0.06000957,0.061545584,0.06269338,0.059885778,-0.11413707,0.055887546,0.025379613,-0.17447373,-0.043129735,0.06237545,0.052379325,0.06001823,-0.17550352,0.06351703,0.0633581,-0.18793367,-0.18411738,0.0038879684,-0.038453363,0.058331236,0.058013324,0.037507426,-0.18232034,-0.008977384,0.06644069,-0.013530964,-0.013032898,-0.012971159,-0.012875885,-0.012897705,-0.012897192,-0.013078905,0.11410222,-0.014333172,-0.015022447,0.06917988,0.12135819,-0.013318165,-0.014847808,-0.01342676,-0.004037668,-0.013001757,-0.0129697025,0.046805687,0.11550133,-0.036440626,-0.03485409,-0.012951717,-0.013037462,-0.01576031,0.24966899,-0.0047745034,0.124409474,-0.006247379,-0.0062320847,-0.0062243687,-0.0062715486,-0.00625265,-0.006230479,-0.006250806,0.1355757,-0.006288618,-0.0059123654,0.09102704,0.044860646,-0.0062377043,-0.00634149,-0.0062329583,-0.0011767112,-0.006201053,-0.0062215924,0.09909809,0.050295375,-0.008106381,0.04650083,-0.0063176863,-0.00628493,-0.006288692,0.046685457,-0.013465583,0.0013843477,-0.020778539,-0.020133931,-0.020733641,-0.019890167,-0.020131392,-0.020208485,-0.020080477,0.084114686,-0.0209535,-0.019097477,0.0044017583,0.21839526,-0.020547694,-0.021108441,-0.020419233,-0.041334175,-0.020359099,-0.02036278,-0.12228725,0.028339723,-0.10056968,0.08007863,-0.019788928,-0.019903563,-0.02061503,0.1745192,-0.0055946633,0.039045468,-0.013789587,-0.014848898,-0.014397484,-0.0151575245,-0.015002307,-0.014954902,-0.0148168,0.028316522,-0.012719594,-0.009339465,0.23341377,0.06656898,-0.01409509,-0.01191304,-0.014178786,0.0039171875,-0.014615491,-0.014689714,0.025495628,-0.0076899678,-0.04095097,-0.039775692,-0.015138224,-0.015017964,-0.010725238,0.08337955,-0.009831229,0.1425376,-0.016232472,-0.01589291,-0.01618965,-0.015757285,-0.01586498,-0.0159536,-0.015861228,0.12473233,-0.016261563,-0.014585098,0.24103485,0.022465507,-0.016121075,-0.016260259,-0.016034411,0.07943327,-0.01604636,-0.016028441,0.024753846,0.026772255,0.041230753,0.026219804,-0.015686665,-0.015704526,-0.015854225,0.15951258,-0.004910346,0.11495993,-0.0065484513,-0.007128256,-0.006482795,-0.0073792096,-0.0071425736,-0.0070084073,-0.0072141513,0.11220306,-0.0066020116,-0.0074292757,-0.19194923,0.09802944,-0.006679898,-0.006600486,-0.0068686157,0.10539895,-0.0067696646,-0.0068384185,0.1281631,-0.05564434,0.04423117,-0.012625445,-0.007550873,-0.0074857827,-0.0071300194,0.046603017,-0.0016305,0.09687773,-0.00546309,-0.005454812,-0.005819816,-0.0054013664,-0.0055146664,-0.005584633,-0.005381778,0.0978706,-0.004941821,-0.003151141,-0.0425642,0.11878975,-0.0055187047,-0.0045938697,-0.0053555574,0.07369036,-0.005629169,-0.005632002,0.04263867,0.0008739792,0.09958706,0.0072449856,-0.0052648466,-0.005267702,-0.0037598573,0.14856367,-0.008576248,0.12479873,-0.011840023,-0.011604507,-0.011805154,-0.01150487,-0.011577904,-0.011636026,-0.011586979,0.10168299,-0.011923018,-0.011519333,-0.03765764,0.15137485,-0.011789009,-0.01200036,-0.011719067,-0.027902476,-0.011717561,-0.011680514,0.015452139,0.017607678,-0.017111823,0.07875191,-0.0114673935,-0.011490714,-0.011969678,0.043083988,-0.0031293929,0.14563617,-0.0029566912,-0.0027146786,-0.0026121624,-0.0026013516,-0.0026198104,-0.0025975332,-0.002752535,0.043204937,-0.0035825297,-0.005136024,0.08182356,0.160277,-0.0028580036,-0.00406851,-0.0029188767,0.108009905,-0.002646394,-0.0026452327,0.088150695,-0.0115285665,0.014373755,0.061909266,-0.0026935488,-0.0027639717,-0.0049224985,0.053072184,0.00026271492,0.055543546,-0.0050507635,-0.004459439,-0.0052247867,-0.004326567,-0.0045320764,-0.0046135485,-0.004414391,-0.1110522,-0.004877691,-0.0026668832,0.015080367,0.06917601,-0.0049723173,-0.0047859116,-0.0046746843,0.21909243,-0.0048587024,-0.0048106536,0.021109516,0.110088974,0.014226545,0.047082797,-0.004190922,-0.004195515,-0.0038395375,0.08092832,-0.005296695,0.13522618,-0.0048125014,-0.0048202984,-0.004352566,-0.0048245573,-0.0047159777,-0.004639376,-0.004882017,0.032595344,-0.0054657534,-0.0073809847,0.13128887,0.07474646,-0.0047401423,-0.005857095,-0.0049585253,-0.0350987,-0.0045967977,-0.0046048313,0.0042656586,0.08391693,0.002794627,0.06191637,-0.0049870024,-0.005013442,-0.0070239864,0.095088184,-0.0039540958,0.09358805,-0.0063677505,-0.0060664564,-0.006264488,-0.0059636887,-0.0060270466,-0.006050367,-0.0060583726,-0.008057912,-0.0065130666,-0.006195709,0.023620643,0.14215192,-0.0062480085,-0.0066916794,-0.0062413905,0.0884997,-0.0061488952,-0.0061088074,0.09774679,0.15664749,0.14398766,-0.04467844,-0.0059988033,-0.0060029067,-0.0067630038,0.05016866,-0.0061271265,-0.11072839,-0.020973563,-0.021153182,-0.022424527,-0.021147992,-0.021429196,-0.021690946,-0.020920807,0.118739694,-0.018764673,-0.010698081,0.00740318,0.21059681,-0.021170504,-0.017575923,-0.020587474,0.106198885,-0.021708831,-0.021709435,0.025752429,0.038556598,0.012222804,0.009288931,-0.020752613,-0.020579357,-0.01362788,0.16434486,-0.011488408,0.14859766,-0.017186798,-0.016467422,-0.01686035,-0.016160745,-0.016360752,-0.016451618,-0.016446574,0.1853562,-0.017689893,-0.017424127,0.062194843,0.15719068,-0.016962428,-0.017988056,-0.016904496,0.049105585,-0.016684212,-0.016622096,0.0974308,0.17349774,0.015028082,0.048030704,-0.016071826,-0.016197959,-0.018318579,0.15271726,0.0012390651,0.040563643,-0.006296452,-0.0055370815,-0.0067776926,-0.005220838,-0.005604377,-0.0058404356,-0.005398033,-0.065801114,-0.0056850277,-0.0019486607,0.13194656,0.18432035,-0.0061613023,-0.0053671645,-0.005765941,0.020904973,-0.006175831,-0.0061127767,0.04217691,0.11773679,-0.09244334,-0.046957184,-0.0048824474,-0.004894266,-0.0036261678,0.08299779,0.00058072247,0.075002454,0.0029045679,0.0029817447,0.0031062872,0.0029267333,0.0029895306,0.0030539325,0.0029304288,0.054857507,0.0025665686,0.0015007164,0.105010256,0.05957422,0.0029759572,0.0023352355,0.0029142927,0.10277647,0.0030924752,0.0030690655,0.1064474,-0.034836613,0.0066913217,-0.04352022,0.002832409,0.0028143562,0.0017312877,0.047277436,-0.0077638403,0.103227995,-0.0072519165,-0.0062905625,-0.0063466956,-0.005931735,-0.0060550645,-0.006063476,-0.0063016657,-0.02204232,-0.00856185,-0.010693837,0.19262302,0.021207716,-0.0068989936,-0.009346258,-0.0070283636,0.005622063,-0.006329175,-0.006284982,0.062144812,0.08398361,0.057730928,0.042891696,-0.006006835,-0.006148409,-0.010773964,0.102769226,-0.0043967366,0.062252983,-0.004780734,-0.0054400116,-0.004918376,-0.0058023483,-0.005475836,-0.005370108,-0.0054610893,-0.11247855,-0.0045373645,-0.004230788,0.024583744,-0.3675964,-0.0050156154,-0.0043517947,-0.0052039716,0.34689054,-0.00514701,-0.0052610375,0.25354913,-0.0038290247,-0.2709314,-0.03263829,-0.005925902,-0.005865367,-0.0038302094,-0.15925282,0.0010229647,-0.079798095,0.0028958768,0.0038263109,0.0033164471,0.0041903695,0.0039580166,0.0038982332,0.0038642073,0.039113868,0.0021749958,0.0009144079,0.04646033,0.13299114,0.003212044,0.0015508607,0.0032622248,0.099476986,0.003571488,0.0036180168,0.100898996,0.08096385,0.08676961,-0.010073406,0.004203476,0.004085157,0.0011064608,0.110708416,-0.010618374,0.091695614,-0.018913023,-0.018860381,-0.01930733,-0.01880222,-0.018902034,-0.018988822,-0.018778488,0.028639603,-0.018347103,-0.015820041,0.08584938,0.12170049,-0.018952446,-0.018005352,-0.01879558,0.10752444,-0.01903339,-0.019025471,0.10162526,0.19878875,0.01883714,-0.16521789,-0.01866026,-0.018621959,-0.01714651,0.10696366,-0.0034805685,0.07532409,-0.006970722,-0.006772738,-0.006843537,-0.006712459,-0.0067110155,-0.0067319945,-0.006765669,0.0692615,-0.007143909,-0.006653861,-0.082262255,0.2017451,-0.006910447,-0.007227745,-0.00691507,0.13565029,-0.0068046064,-0.006759882,0.022233691,0.081779785,0.10557046,0.032717302,-0.0066741332,-0.006717421,-0.0072050598,0.13643599,0.005442366,-0.034183525,0.01043988,0.011708409,0.010987861,0.0122017935,0.0118934205,0.0117312595,0.011756377,0.12749772,0.009540103,0.0075956597,0.039118007,0.06424923,0.01082661,0.008909676,0.010937467,0.041692324,0.01136338,0.011444166,0.12151808,-0.07603924,0.0022973951,0.12370011,0.012346075,0.012154207,0.008288387,0.116569325,-0.005085923,0.10139978,-0.012326975,-0.0128673315,-0.01290752,-0.01307973,-0.013024438,-0.01302751,-0.012829144,0.13112263,-0.0113611,-0.008058436,0.10370614,0.10978845,-0.0125377625,-0.010704756,-0.012408283,0.13896278,-0.01284149,-0.012900629,0.046334386,0.052559968,0.10942863,0.023834638,-0.012996305,-0.01287955,-0.009352958,-0.07891821,-0.0049886927,0.04732789,-0.015996158,-0.017089568,-0.017114826,-0.017489046,-0.017364226,-0.017397732,-0.017005913,0.17509556,-0.014161127,-0.00894562,-0.0198066,0.06376504,-0.016355284,-0.013013851,-0.016202446,0.1719437,-0.017055895,-0.017123772,0.11418217,0.008442245,0.023588926,-0.07703456,-0.017340861,-0.017110113,-0.010769457,0.13425852,-0.0038762018,0.121405385,-7.747114e-05,0.0012530051,0.00090257823,0.0017018113,0.0015111067,0.0014424138,0.0012157708,0.12256331,-0.0016373098,-0.005242467,0.0128555745,0.078597076,0.00038090907,-0.0027396595,0.00037495792,-0.024427935,0.0010636523,0.0011317432,0.09323822,0.030533144,-0.08821151,0.0999137,0.0017018914,0.001481384,-0.004528798,0.13451123,-6.6949055e-05,-0.028763324,-0.00029855222,-0.0002209628,0.00039756298,-0.00020993501,-9.6362084e-05,2.5722198e-05,-0.00032446533,0.02828268,-0.0012221194,-0.002475446,-0.075136445,-0.03259685,-0.00022448227,-0.001561705,-0.00046742707,0.2861925,5.5810437e-05,3.6577694e-05,0.08850201,0.10774783,-0.30563068,0.08134606,-0.00044501387,-0.00054110587,-0.002641635,0.031328272,-0.0002847165,0.059426036,0.002803836,0.0029733684,0.003058184,0.0029992685,0.0029757842,0.003044188,0.0029152595,0.08718304,0.0023856345,0.00048156083,0.20478979,0.02430246,0.0028800182,0.0020033906,0.0028127804,0.088131554,0.0030304492,0.0030124933,0.057936553,0.05824921,-0.0598256,0.050773695,0.0029195137,0.002885718,0.0012392276,0.10331839,-0.009556875,0.059721798,-0.015369859,-0.015202142,-0.015375286,-0.015136626,-0.015204415,-0.0152494125,-0.015168056,0.08736268,-0.015320711,-0.013932951,0.08513005,-0.0077629304,-0.015329212,-0.015236085,-0.015273273,0.11179845,-0.0152872205,-0.015261777,0.034791417,0.12150612,0.014843239,0.011753421,-0.015091274,-0.015127093,-0.0147987185,0.16556977,-0.0026584708,0.016479522,-0.00048285164,0.00044117868,0.0004698108,0.0007863175,0.00066602975,0.0006718673,0.00037644058,0.0831148,-0.0019697025,-0.005029021,0.013538295,0.10706996,-0.00016330928,-0.0028233007,-0.00030095503,0.14203861,0.00042471662,0.00046677515,0.06953263,-0.07758358,0.042819243,0.039672635,0.00067183375,0.00049126893,-0.004509911,0.124213934,-0.0027480721,0.04246257,-0.0038643833,-0.0034757182,-0.0037992075,-0.0033040494,-0.0034851357,-0.0034865178,-0.0034723654,0.0922452,-0.004029475,-0.0038209092,0.16118523,0.16249277,-0.0037741736,-0.0042066053,-0.0036810078,0.07646799,-0.003641516,-0.0035959166,-0.022034235,-0.0315106,0.046957314,0.041464787,-0.003263235,-0.0033298135,-0.004011996,0.049323052,-0.0028310642,0.03729336,-0.0013278052,-0.0018309457,-0.0009284243,-0.0020950064,-0.001780713,-0.0016108607,-0.0019526662,0.17545648,-0.0018775016,-0.0038136002,0.039617307,-0.0066387355,-0.001421243,-0.002196962,-0.0017529437,0.11139077,-0.001369968,-0.0014078561,0.08254432,0.1224628,0.016430631,0.07954254,-0.0023956746,-0.0023711063,-0.0034707487,0.07226573,-0.008821718,0.103668466,-0.013790259,-0.014180265,-0.013878609,-0.014357172,-0.014210593,-0.014143389,-0.0142191965,0.14416693,-0.013592157,-0.012499861,0.12410096,0.18089087,-0.01389616,-0.013417822,-0.013957062,0.05897659,-0.014002032,-0.014033951,0.039120793,0.08241639,0.04171499,-0.095154785,-0.014408163,-0.014367651,-0.013289046,-0.046872467,-0.0007753596,-0.04838356,-0.0023740977,-0.0017742384,-0.0021709604,-0.001525715,-0.0017188713,-0.001773946,-0.0017664013,0.12496223,-0.0026813485,-0.0029768553,0.098006085,0.13685891,-0.0021623522,-0.0029300079,-0.0021106377,0.120886624,-0.0019276142,-0.0019301604,0.020771623,0.112543315,-0.013109513,0.0068400875,-0.0014480874,-0.0015597865,-0.0031910078,-0.01912152,-0.0030704513,0.0112594515,-0.007234536,-0.0075267404,-0.0073369257,-0.007608451,-0.0075404663,-0.007504644,-0.007532131,0.068857096,-0.0070811734,-0.005661346,0.05099668,0.13236247,-0.0073279534,-0.0068698972,-0.007380843,0.08848709,-0.0074209888,-0.0074590333,0.09901336,0.030542172,0.04024501,0.1247077,-0.0076334327,-0.0075924844,-0.0065465495,0.10963148,-0.007460084,0.16152446,-0.010720536,-0.010773906,-0.010697957,-0.010801323,-0.010775678,-0.010769874,-0.01080979,0.07862682,-0.010819522,-0.010670817,-0.038555745,0.09864462,-0.010699384,-0.010887809,-0.010755658,0.1031256,-0.01073264,-0.010720841,0.12297034,0.09181376,0.017768286,0.046362504,-0.010843318,-0.010858472,-0.01097307,0.019126918,-0.0074607944,0.113685526,-0.012634382,-0.012671083,-0.012583427,-0.012675155,-0.01265499,-0.012646381,-0.012673704,0.059007976,-0.012716789,-0.011925057,0.07215779,0.13185428,-0.012640534,-0.012716528,-0.0126768835,0.11823779,-0.012607924,-0.012639236,0.06296575,0.12182069,0.061273213,0.0050158836,-0.012685621,-0.012704082,-0.012764813,0.17634647,-0.0037620887,0.07650439,-0.012204451,-0.013107371,-0.013192903,-0.013349809,-0.013332483,-0.013364151,-0.0130235255,0.04401528,-0.010668237,-0.0060567213,0.072762,0.10414091,-0.0125285685,-0.009613097,-0.01238402,0.12798633,-0.013172716,-0.01320418,0.071730845,-0.093264215,0.020955868,0.06370295,-0.013218172,-0.013038065,-0.007743437,0.04952215,-0.002985742,0.027186796,-0.005478427,-0.0054442286,-0.0055638626,-0.0054647475,-0.005475955,-0.005493857,-0.005438626,0.117638364,-0.0052978145,-0.0042296723,0.12543938,0.112236865,-0.0054831356,-0.0051819384,-0.005414918,0.008877818,-0.005484581,-0.0054763854,0.022264428,0.11889924,-0.00031185895,0.022229716,-0.0054159276,-0.0054133087,-0.0048304647,0.061869886,0.0024572015,-0.004403278,-0.0022237664,-0.00241976,-0.0028588828,-0.0024822261,-0.0025616884,-0.002647832,-0.002331514,0.0017921589,-0.0012293793,0.0023738034,0.106046066,0.12180917,-0.0023590887,-0.00062132627,-0.0021445255,0.040147077,-0.0026452914,-0.0026538316,0.0681487,-0.025948424,-0.081358306,0.051657867,-0.0022995323,-0.0021985993,0.0009987801,0.08583806,-0.0021806099,0.0043509863,-0.0067072418,-0.0060478486,-0.006989777,-0.005766701,-0.006061308,-0.0062677506,-0.0059327036,0.0810997,-0.0063779242,-0.0037947018,0.117338315,0.09677474,-0.0065671555,-0.006307259,-0.0062487666,-0.0128644705,-0.006529253,-0.006461516,0.10375996,0.033725366,0.08432791,0.10209223,-0.0055364966,-0.005603671,-0.005085876,0.08771647,1.580175e-05,0.09055862,-0.0006530136,-0.00029737502,-0.0006782189,-0.00023025647,-0.0003296882,-0.00040546432,-0.00027490687,0.036568128,-0.00067916885,-0.00088122406,-0.14753233,0.097186044,-0.0005702153,-0.00085087866,-0.00042872876,0.07036708,-0.0004571639,-0.00044345483,0.045611676,-0.053407505,-0.018451616,0.0266788,-0.00015564263,-0.00017241389,-0.0008213669,0.11877509,-0.0060450397,0.010781702,-0.0077387467,-0.0073603895,-0.0068442887,-0.0072159506,-0.0071612867,-0.007091418,-0.007483408,0.17661856,-0.008942716,-0.010663249,0.012905147,0.05499488,-0.0074900854,-0.009550605,-0.0077638812,0.22363803,-0.0070850626,-0.007073365,-0.16878141,0.0006677471,-0.35039634,0.033371013,-0.007410989,-0.0075390153,-0.011233123,0.1746602,0.00035328418,0.17180948,0.0063269213,0.007911339,0.00728599,0.008568753,0.008253876,0.008071337,0.007925719,0.10033039,0.0046946853,0.0015313104,0.022294456,0.110160545,0.006848339,0.0035912925,0.00689194,0.025972907,0.00761424,0.0077244975,0.04828128,-0.005953798,-0.0007786378,-0.068848856,0.008591905,0.008323422,0.0020270422,0.11330959,-0.0005509183,0.08941134,-0.00214874,-0.0025074594,-0.0017555207,-0.002651617,-0.0024441108,-0.0023442134,-0.002605714,-0.026338497,-0.00262885,-0.003425877,0.11634201,0.0838531,-0.0021028444,-0.002847921,-0.0023759156,0.10458986,-0.002142826,-0.0021765195,0.065085955,0.14433104,-0.1080842,0.1295665,-0.0028711744,-0.0028709844,-0.003682591,-0.034657966,-0.0036366135,0.057465553,-0.004854329,-0.0041748807,-0.0046170633,-0.0039280923,-0.004107952,-0.0041846633,-0.0041454993,0.07233521,-0.0052986555,-0.0054076277,0.16689295,0.08006983,-0.004669709,-0.0056122933,-0.004587047,0.03592277,-0.0044121034,-0.004353378,0.02150216,0.021925967,0.073547065,0.007733904,-0.003865406,-0.0039430335,-0.005828129,0.13431323,-0.0028708642,0.08385702,-0.004417382,-0.004667245,-0.0046387203,-0.00474111,-0.0046594255,-0.004678022,-0.004642777,0.11623736,-0.0042582992,-0.0033797696,0.10830197,0.059355494,-0.004500594,-0.004184285,-0.004445605,0.034698226,-0.0045566577,-0.0046203984,0.08287106,-0.108053215,0.0902681,0.010622602,-0.0046877423,-0.0046737045,-0.004019959,0.12499132,-0.008972421,0.060493052,-0.015447684,-0.015590492,-0.01583936,-0.015627332,-0.01566783,-0.0157263,-0.015571978,0.13203417,-0.014894828,-0.012708578,0.10498856,0.14415039,-0.015544429,-0.014482904,-0.015439194,0.10182282,-0.015686408,-0.015701434,0.09800783,-0.09817929,0.050300315,-0.039025933,-0.01551733,-0.015465817,-0.013627574,0.17623056,-0.0054638786,0.15203817,-0.008154988,-0.007127531,-0.0076431655,-0.006717,-0.006958984,-0.007065423,-0.0070934407,0.04798902,-0.00894368,-0.009676855,0.08733646,0.101280466,-0.007824045,-0.009384914,-0.00775297,-0.0070589185,-0.007390365,-0.00732054,0.036862448,0.0456428,0.08726677,-0.0063884184,-0.0066289473,-0.006791763,-0.009961352,0.17889026,0.005281329,0.007892977,0.008759655,0.010332458,0.009363811,0.010978214,0.010513805,0.010326281,0.010379255,0.098294765,0.007817149,0.0064439657,0.034226842,0.042756073,0.009206913,0.007075131,0.009407796,0.10901715,0.009801845,0.009926237,0.094632015,0.002857294,-0.0066433284,0.042404823,0.011115145,0.010869019,0.006468665,0.10197983,-0.008082116,0.11371312,-0.012530753,-0.012261514,-0.01250802,-0.012159708,-0.012253113,-0.012299326,-0.012243727,0.046903405,-0.012596504,-0.012013506,0.067152865,0.20971794,-0.012461282,-0.012634328,-0.012398221,0.10661915,-0.012374614,-0.012373254,0.06693617,0.10439402,0.041407075,0.07601658,-0.012108106,-0.012158513,-0.012596995,0.119133554,-0.0008681775,-0.01354391,0.0037172139,0.00391338,0.0047300905,0.0039889547,0.0041378736,0.004288977,0.003778192,-0.11445298,0.0021682773,-0.0023224745,0.01977612,0.17286862,0.0038404092,0.0013410337,0.0034899488,0.020057444,0.004281096,0.0043029003,0.07447497,0.053038023,-0.12798984,0.15612845,0.0037521296,0.0036294535,-0.0013219023,0.19739985,-0.005342327,0.017227009,-0.016007563,-0.0156189725,-0.016718552,-0.015504718,-0.015760902,-0.015965829,-0.015488457,0.05640351,-0.014927246,-0.00966526,0.117713004,0.105341226,-0.016010504,-0.014349643,-0.015567742,0.117934115,-0.016132442,-0.016092187,0.054165836,0.083134174,0.11229984,0.038602322,-0.015196236,-0.015168184,-0.011795789,0.14206307,0.0017969608,0.05913063,-8.9278445e-05,-0.0011721328,-0.0001908429,-0.0016028443,-0.0012424737,-0.0010562725,-0.0012665056,-0.03215126,0.00017321855,0.00014721975,-0.060972273,0.046718404,-0.00039196014,0.0005215369,-0.0006562895,0.21582814,-0.0006686944,-0.00076314434,0.04808132,0.037930354,0.12684196,-0.029318165,-0.0018053278,-0.001681244,0.00012510456,0.116436645,-0.009046836,0.039542887,-0.013368066,-0.012721956,-0.013044802,-0.012459979,-0.012627821,-0.012691464,-0.012700401,0.030922774,-0.013873681,-0.013628162,0.08874476,0.042009473,-0.01315784,-0.014154846,-0.0131261945,0.036294326,-0.012907565,-0.01283662,0.03571906,0.14219981,0.02154708,0.18379055,-0.012415562,-0.012532755,-0.01448703,0.032229796,-0.011404875,0.106303796,-0.015230281,-0.015197921,-0.014809858,-0.015228322,-0.015137952,-0.0150241405,-0.015245728,0.06517165,-0.015806422,-0.01610135,0.13983497,0.15290044,-0.015141878,-0.016121939,-0.0152892545,0.07312882,-0.014980182,-0.015009716,0.07224127,-0.14254706,0.02884527,-0.047684122,-0.015352346,-0.0153962225,-0.016737498,0.0116794035,-0.0082619265,0.13335687,-0.011846092,-0.011329994,-0.011631738,-0.011136681,-0.011252677,-0.011306748,-0.01131691,0.17403524,-0.012164498,-0.011918909,0.1365217,0.08994398,-0.011675871,-0.0123787075,-0.0116513,0.05455839,-0.011462053,-0.011443774,0.055602655,0.15331085,0.01091766,0.08394984,-0.011079881,-0.011167327,-0.0124913985,0.04306836,0.017972643,0.12054438,0.0140254,0.011409864,0.012412712,0.010335894,0.010906429,0.011146575,0.011336626,-0.4319941,0.016376352,0.01994633,0.057526,0.23437855,0.01321106,0.01776121,0.013097633,0.16478486,0.011906581,0.011677613,-0.01033856,-0.06761676,0.076525,-0.019492548,0.010312587,0.010827042,0.019443363,-0.054693416,-0.010204967,0.2677272,-0.011838678,-0.01173331,-0.011466361,-0.011740732,-0.0116631,-0.011599813,-0.011782337,0.07051797,-0.012334374,-0.013289736,0.031093573,0.0046856105,-0.01176874,-0.012624942,-0.011880916,-0.018435854,-0.011595331,-0.011614081,0.09988016,0.034241013,0.06535866,-0.06386362,-0.011847723,-0.011869222,-0.013298782,-0.044378202,0.0026586056,-0.01918272,0.00894278,0.009979017,0.01026424,0.010330951,0.010320275,0.0103523135,0.009877101,0.09407967,0.007005021,0.0025861133,0.03285966,0.012458136,0.009385601,0.005847323,0.009134058,0.20298839,0.010116752,0.010186676,0.05802976,0.104389995,0.07907476,0.1122776,0.010137906,0.009890702,0.0034535974,0.030656978,-0.008348275,0.050726537,-0.01252149,-0.012609862,-0.012609903,-0.012677542,-0.0126194265,-0.01261647,-0.01260243,0.13859598,-0.012443447,-0.0118398005,0.05389966,0.070256405,-0.012507901,-0.01243069,-0.012541287,-0.04109855,-0.012578666,-0.012593832,0.16521983,0.07260272,-0.00085775554,0.04855887,-0.012690943,-0.012665719,-0.012290863,0.09486533,-0.004890981,0.19018126,-0.0057137646,-0.0046492824,-0.0051336205,-0.0042427517,-0.004492878,-0.0045960173,-0.004598749,-0.019590706,-0.0065805633,-0.0073820483,0.17895213,0.12963316,-0.0053613186,-0.0072562713,-0.005291518,0.038357735,-0.004896354,-0.004835651,0.042671736,0.010594718,-0.037297152,-0.001948908,-0.0042152256,-0.004362397,-0.0077195093,0.10964438,-0.005186916,-0.0023908764,-0.00955525,-0.009119973,-0.009617788,-0.008924719,-0.009114418,-0.00921135,-0.009071536,0.074651144,-0.009531066,-0.008269295,0.13729033,0.10083653,-0.009465488,-0.00948201,-0.009354031,0.023552366,-0.009369798,-0.0093244985,0.05112958,0.066739485,0.054889545,0.006216861,-0.008812182,-0.008875776,-0.009065827,0.121578,-0.01538587,0.062961355,-0.019286983,-0.01789508,-0.018331094,-0.017404573,-0.0176503,-0.017742539,-0.017917294,-0.042544153,-0.020845532,-0.022402063,-0.005122723,0.055329353,-0.018840805,-0.021806583,-0.018847533,-0.008778915,-0.018135693,-0.01803039,0.03909078,0.12275067,0.049713433,0.06052,-0.017412944,-0.017588785,-0.02322045,0.26827863,3.3732504e-05,-0.019038945,-0.001763437,-0.0015453845,-0.0018559527,-0.001418585,-0.0015175343,-0.0016040001,-0.001510784,0.12014825,-0.001698751,-0.0009811018,-0.193452,0.08776221,-0.0017444082,-0.0015535075,-0.0016450994,0.09282217,-0.0016852971,-0.0016258694,0.09912809,0.011768669,-0.018099822,0.041487604,-0.0013471218,-0.0013702661,-0.0011387244,0.09525578,-0.0019705873,0.060514327,-0.0070149675,-0.008000441,-0.007737005,-0.0083498135,-0.008203623,-0.008152157,-0.007989895,0.05682608,-0.0057530375,-0.0025594123,0.26131162,0.09018127,-0.0073365793,-0.004887916,-0.0073200315,0.023833077,-0.007868299,-0.007922375,0.040790543,-0.0519928,0.08933071,-0.055482585,-0.008304975,-0.008123096,-0.003537871,-0.01810804,0.007225789,-0.10451397,0.007974029,0.009972006,0.008450888,0.010759369,0.010157019,0.009852843,0.010080742,0.070222825,0.0071137957,0.007832722,-0.037960883,0.13471128,0.0085579455,0.0064809583,0.008889871,-0.095524184,0.0091927145,0.009352446,-0.025245667,0.24584119,-0.088870734,0.05360498,0.011044295,0.010822784,0.006842047,0.18621205,-0.010368187,0.18425177,-0.017909005,-0.018183671,-0.018453572,-0.0183034,-0.018306646,-0.018345356,-0.018117152,0.11811381,-0.017155915,-0.0146065075,-0.08384463,0.06024491,-0.01805847,-0.016769422,-0.017874494,0.045976035,-0.018272996,-0.018292591,0.029906912,-0.06412592,0.10518059,0.015040258,-0.018219411,-0.018126123,-0.015598066,0.09708685,-0.00082415715,-0.053173605,-0.0017317496,-0.0017803609,-0.0013750084,-0.0018195733,-0.0017296275,-0.0016376972,-0.0018491894,0.10875921,-0.002189327,-0.0028802082,0.10242879,0.09932324,-0.0017226376,-0.0023752972,-0.0018583238,0.050154835,-0.0015914142,-0.0016117916,0.0728021,0.03917836,0.02238413,-0.013431851,-0.0019195531,-0.0019670352,-0.0030603446,0.18875778,-0.027899373,0.06506882,-0.045416888,-0.048806366,-0.045931693,-0.050073527,-0.048993826,-0.048440225,-0.049034126,0.099761926,-0.044606835,-0.041450974,-0.36787578,0.115701474,-0.046298075,-0.044049513,-0.046910558,0.14469723,-0.047167815,-0.047496557,0.15045238,-0.0009293854,0.06214415,-0.10900596,-0.050575487,-0.050237104,-0.04426466,0.06951602,-0.0003619101,0.055046163,-0.001157105,-0.00015797839,-0.0011895522,0.00027257204,-6.618351e-05,-0.000289205,-7.8490004e-05,0.0203537,-0.0013669804,-0.00070454925,0.044350117,0.12948534,-0.00094049424,-0.0016411617,-0.0006315112,0.10039326,-0.00061684655,-0.00057000294,0.08443013,-0.009943921,0.031052781,-0.09988964,0.000449121,0.00039863586,-0.0011626855,0.122774936,-0.004064193,0.10795002,-0.009996214,-0.010224616,-0.010602359,-0.010242247,-0.010330416,-0.010437204,-0.0101239085,0.09008024,-0.009071872,-0.006260406,0.0675118,0.028462587,-0.010150564,-0.008514758,-0.009933729,0.102310486,-0.010397143,-0.010426827,0.10214763,0.03951758,0.09009631,0.047143973,-0.010092129,-0.009993371,-0.0072428696,0.06244627,0.0018055402,0.09013553,0.006743755,0.007724978,0.007667414,0.008059841,0.007955282,0.007932384,0.007649876,0.123729266,0.0052977502,0.0021444038,0.043325424,0.06279658,0.0071114916,0.0043769516,0.0069719777,0.075328976,0.007703278,0.0077584647,0.13656098,-0.1401081,0.0066458676,0.003574919,0.007972039,0.007794638,0.002632659,0.11404837,-0.008507977,0.046407763,-0.01320854,-0.0132381525,-0.013001561,-0.013220228,-0.013186155,-0.013131705,-0.0132756345,0.14926124,-0.013540313,-0.013624296,0.094523795,0.1612003,-0.013173835,-0.013697982,-0.013286769,0.07315947,-0.013083829,-0.013096005,0.04834243,0.16333237,0.04761494,0.06294983,-0.013284922,-0.01332327,-0.0143492,0.07783906,-0.005538145,0.008630575,-0.013010907,-0.012720786,-0.01339148,-0.012568474,-0.01278371,-0.012929969,-0.012627437,0.12918954,-0.012456741,-0.009628786,0.09841376,0.11763558,-0.012980543,-0.012165766,-0.012731833,0.049366724,-0.013045471,-0.013019145,0.074891016,0.020433167,0.0119516095,-0.15300225,-0.012374405,-0.012367297,-0.010845654,0.1430891,-0.0033518702,0.24640915,-0.0057505667,-0.0056209713,-0.005917348,-0.0055486187,-0.0056105107,-0.0056851804,-0.0055776834,-0.04286087,-0.0055521484,-0.0048978496,-0.028994437,0.047229607,-0.005748879,-0.0054130517,-0.005661094,0.005370125,-0.0057626925,-0.005754441,0.06479612,0.0009973361,0.045870516,0.0017986987,-0.005461473,-0.0054816445,-0.0051451437,0.08688981,0.0026403433,-0.013404803,0.008612946,0.009086359,0.009381302,0.0093109105,0.009301603,0.009347193,0.009022124,0.008472993,0.007395208,0.003978815,0.106458716,0.08130004,0.008818679,0.006527772,0.008665044,0.096116126,0.009228893,0.009258274,0.10840571,-0.054668564,-0.060021453,0.0052390117,0.009124249,0.009022247,0.0049503036,0.13807812,0.0018857047,0.07747563,0.0034521315,0.003809005,0.0038329884,0.003906887,0.003906928,0.0039221514,0.00380563,0.030754428,0.0028694086,0.0020273216,0.2640663,0.029148605,0.0035940558,0.0025771018,0.0035321582,-0.0065895603,0.0038299765,0.0038459934,0.0004146695,0.043481365,0.0014688298,0.02431741,0.0038786791,0.0038664415,0.0020131804,0.100524925,0.00038606208,-0.064345494,-0.00045913458,-7.4129086e-05,-0.0003433004,0.00011173915,-4.4653192e-05,-6.659329e-05,-1.7091632e-05,0.060910568,-0.0006214157,-0.00042614527,0.038305078,0.061118916,-0.00039648687,-0.0007633427,-0.00027739862,0.08879862,-0.00021706522,-0.00020120293,0.13063069,-0.011103421,0.010487178,0.08445128,0.00014013797,8.8634435e-05,-0.0006406009,0.16194057,-0.0024121404,-0.006237063,-0.0050316155,-0.004869219,-0.004883056,-0.0048234724,-0.004823979,-0.0048362836,-0.004875651,0.123856366,-0.00524386,-0.005158047,0.011000879,0.091049,-0.004981734,-0.0054367743,-0.00499635,0.17046468,-0.0048677637,-0.0048775543,0.08094109,0.0028186813,0.00191948,-0.0019512754,-0.0048149303,-0.0048594996,-0.005534565,0.043414194,0.00015966222,0.21616647,0.0050913603,0.006571833,0.005966425,0.007123504,0.006822765,0.006745424,0.0065321913,0.020190211,0.0035530045,-3.4101307e-05,0.0913247,0.04761296,0.00555712,0.0025153682,0.00557511,0.119621985,0.0063015223,0.00642436,0.045224085,-0.04309077,0.028331723,-0.0019536018,0.0071112495,0.006878024,0.00092306547,0.021342717,-0.0033454,0.13307983,-0.00035034493,0.00056472886,0.00018431991,0.0008457508,0.0006964151,0.00065170974,0.0005383156,0.046205502,-0.0013042632,-0.003653464,0.20858705,0.060742855,-9.6051954e-05,-0.0019652601,-4.015863e-05,0.049020216,0.0003736019,0.00041617453,-0.0351168,0.04357428,0.061966836,-0.006611675,0.0008826256,0.0007274747,-0.0031685978,0.05715016,-0.007860501,0.0013495386,-0.016137369,-0.016714295,-0.016927365,-0.016923344,-0.016900614,-0.016949717,-0.016627342,0.07316516,-0.014849611,-0.011067204,0.07403649,0.040804945,-0.016364465,-0.014078576,-0.016178807,0.081565775,-0.01680673,-0.016850583,0.17223567,0.039636135,0.04666968,0.02298763,-0.01678354,-0.016641118,-0.012267817,0.123144,-0.0018846542,-0.024376936,-0.006102401,-0.005802378,-0.0062403735,-0.0056361035,-0.0058063567,-0.0058838353,-0.0057214573,-0.006296966,-0.00593064,-0.0044617224,0.2610006,0.060245566,-0.00605046,-0.005879402,-0.0059029907,0.014860222,-0.006018811,-0.0060165334,-0.029680796,0.028212681,0.097475946,-0.03692882,-0.0054994393,-0.0055170804,-0.005217258,0.10363442,-0.004343051,0.117051534,-0.009231549,-0.009321883,-0.009522637,-0.009335879,-0.009379812,-0.009424376,-0.009296197,0.15000232,-0.008717912,-0.0066674314,0.104657136,0.0058689136,-0.0093059195,-0.008465257,-0.009132119,0.038265914,-0.009429067,-0.009390861,0.06543246,-0.030021138,-0.057685003,0.019438375,-0.0092888065,-0.009282728,-0.0075449473,0.13421576,-0.0029961094,0.09196691,-0.0024418868,-0.0022244826,-0.0020691752,-0.0021696575,-0.0021544583,-0.0021148548,-0.0022772774,0.10025081,-0.0029849336,-0.004151887,0.051420905,0.14958043,-0.0023222666,-0.003326334,-0.002414927,0.033828728,-0.0021399776,-0.0021150112,0.09791082,-0.05737565,0.033393152,0.0029058456,-0.0022403859,-0.0022939667,-0.0039753094,0.06701943,0.002608027,-0.052733008,0.011999767,0.013683133,0.013367724,0.014283761,0.014025889,0.013983529,0.013635466,0.07374343,0.009724066,0.0042430907,0.10322438,0.06502612,0.012605976,0.008193202,0.01245155,0.12299558,0.013497791,0.013588138,0.014043698,0.047630094,0.06409639,0.14549975,0.0141615225,0.013877794,0.0056007802,0.048613053,-0.010601543,0.16992263,-0.013480514,-0.014036447,-0.013419453,-0.014294319,-0.014041159,-0.013898924,-0.0140950605,0.0943338,-0.013598509,-0.013809543,0.0801588,0.17517486,-0.01360143,-0.01371593,-0.013822409,0.021019328,-0.013727829,-0.013762601,0.084224924,-0.0032337606,0.047205936,-0.08118174,-0.014452269,-0.014402727,-0.014151141,0.0020133145,-0.006525073,-0.00014555827,-0.012705252,-0.013333466,-0.0131642055,-0.013518393,-0.0134227425,-0.0133958515,-0.013320271,0.13791119,-0.012042052,-0.009887561,0.18342441,0.11693662,-0.012930952,-0.011549074,-0.012922187,0.08520462,-0.013213195,-0.0132657755,0.08135333,0.06783799,-0.046325028,-0.1107931,-0.013500538,-0.013425551,-0.010725081,0.06060162,-0.00632827,0.08731596,-0.00832697,-0.008866776,-0.008254174,-0.00911583,-0.0088927895,-0.00874977,-0.008951969,0.09137682,-0.008381585,-0.008695386,0.05477413,0.17550755,-0.008458927,-0.008307439,-0.00861038,0.12701063,-0.008554348,-0.008594891,-0.031940974,-0.015033061,0.0831492,0.08354934,-0.009236771,-0.009200402,-0.008744009,0.033430852,-0.0009236373,0.10323239,-0.0023169871,-0.0027759038,-0.0023473576,-0.002961941,-0.0028140936,-0.0027317463,-0.0028253049,0.06496688,-0.0022148099,-0.001822494,0.1721435,0.046325587,-0.0024167188,-0.0021205507,-0.0025285184,0.10548082,-0.0025417358,-0.0025778264,0.031310312,0.009340167,0.0334602,-0.11918307,-0.0030310638,-0.0029891357,-0.0022796148,0.09204841,-0.0025682375,-0.019954836,-0.008573911,-0.008691084,-0.009163596,-0.008675062,-0.008822218,-0.0089190565,-0.008601826,-0.0040293317,-0.0077739507,-0.004607506,0.18095587,0.049717557,-0.008691154,-0.0071673132,-0.008487489,0.118239045,-0.008898005,-0.008937579,-0.032041416,0.015681526,-0.036138985,-0.078499936,-0.008488128,-0.00845791,-0.0058768,0.059248015,-0.0016572755,0.056887284,0.00062395073,0.000282716,0.0010540336,0.00012657419,0.00034935586,0.0005192235,0.00018621609,0.052233066,2.8802082e-05,-0.001985982,0.17780985,0.04281515,0.00059725065,-0.00027614762,0.00034507737,0.12334941,0.0006697662,0.0006518364,0.081602834,0.04469689,0.019200835,0.06915526,-0.000106904656,-0.00011257082,-0.0015812372,0.04263112,-0.010745257,0.17252168,-0.008367378,-0.008393273,-0.0074551105,-0.00845002,-0.008214477,-0.008022614,-0.008531928,0.07778147,-0.009651769,-0.013425954,0.22497347,-0.020989977,-0.008232511,-0.010476591,-0.008601388,0.07394356,-0.007915315,-0.007961289,0.005298078,0.09713996,-0.032376852,-0.12869795,-0.008775465,-0.008845478,-0.012596812,0.009663373,-0.017186107,0.20989834,-0.03574326,-0.038118616,-0.03718613,-0.038981553,-0.038475387,-0.038287863,-0.038044766,-0.1544953,-0.033620365,-0.025791928,-0.07542784,-0.19165488,-0.03686676,-0.032211747,-0.036676805,-0.09499711,-0.037629724,-0.03780501,0.073863365,-0.022151152,-0.0006610006,0.11386768,-0.03907164,-0.038700804,-0.029346801,0.3005803,-0.006398191,0.10142252,-0.0103820115,-0.009958621,-0.010147303,-0.009781055,-0.009878229,-0.009929061,-0.009943362,0.104687,-0.010713182,-0.010329284,0.09936108,0.10223141,-0.010240599,-0.010920944,-0.010229938,0.10735559,-0.010052547,-0.01002733,0.121773735,0.09157294,0.047942907,0.058239006,-0.00976276,-0.009842088,-0.011042468,0.10539357,-0.003446173,0.12184602,-0.0005649594,0.00020578876,0.00031845272,0.00047143525,0.0004703235,0.0005075787,0.00013548881,0.043331828,-0.0021322668,-0.005768961,-0.05720625,0.11992798,-0.00031699985,-0.0030305162,-0.00045179576,0.07396182,0.00029138196,0.00031748414,0.047230825,0.033045862,-0.0088971555,-0.036129117,0.00033907592,0.00016111135,-0.0049288995,0.11313464,0.0003244616,0.13250196,-0.00042340998,0.00029087067,-0.000656493,0.0005349666,0.00024574995,7.825717e-05,0.00038187578,0.030605132,-0.00016046688,0.0012561083,0.20780309,0.022565486,-0.00029489584,-0.00013320148,1.951307e-05,-0.01111415,-0.00014417991,-9.032339e-05,0.09306127,-0.039895903,0.016386686,0.0022015981,0.0007431954,0.00067315623,0.0008181259,0.05851626,0.0026497692,-0.0019192484,0.009258248,0.011372015,0.010267836,0.01213897,0.011643603,0.011444749,0.011401076,-0.030975565,0.007620059,0.004653938,0.14552534,0.021829981,0.009923629,0.0065164566,0.010119472,0.038505558,0.010780126,0.0109217875,0.08344536,-0.091891214,0.087030336,0.1328317,0.012267545,0.011977043,0.0053275805,0.15378809,-0.0048964247,0.027400386,-0.007805953,-0.0074350685,-0.007387165,-0.0073072687,-0.0073425993,-0.0073332563,-0.0074695563,0.05162114,-0.008453876,-0.008937772,0.14706956,0.15715936,-0.0076601747,-0.008857362,-0.0077295396,0.0839531,-0.0074281767,-0.0074011497,0.08720726,0.07627102,-0.020679362,0.062462628,-0.0073889554,-0.007444096,-0.009411879,0.17596176,-0.0014412468,0.04629174,0.0010463718,0.0019928347,0.0019337274,0.0023335041,0.0022194088,0.0022075716,0.0019401535,0.15424322,-0.00031723827,-0.0027272813,0.016627371,0.12513325,0.0014068894,-0.0012287702,0.0012699924,0.17559104,0.0019655302,0.002029946,0.13814719,-0.019330725,0.08377626,0.06322935,0.002211621,0.002034371,-0.0026619472,-0.01832063,-0.007497199,0.047708996,-0.010941163,-0.011399334,-0.010689784,-0.011572296,-0.011375964,-0.01121273,-0.011495877,0.091773294,-0.011263767,-0.011652738,0.08786794,0.27232918,-0.011054318,-0.011348264,-0.011297103,0.07357093,-0.01103802,-0.011068344,0.08803691,0.13705572,-0.10904887,-0.098301455,-0.011688359,-0.011698395,-0.012130085,0.12361351,-0.0033099912,0.06964885,-0.0066083223,-0.0070889704,-0.0069557503,-0.0072636325,-0.007150756,-0.00715822,-0.007086331,0.10056556,-0.0060223555,-0.0043442696,0.08902622,0.12239671,-0.006762244,-0.0057019126,-0.006734647,0.058781043,-0.0070027933,-0.007027939,0.032828283,0.028691567,0.13360028,0.033716127,-0.0072690267,-0.007174856,-0.00494314,-0.020224841,-0.0018153153,0.043293826,-0.005132001,-0.0046714004,-0.0048555546,-0.004520425,-0.0046082623,-0.004611179,-0.0046698716,-0.037467927,-0.005573295,-0.00554201,0.16523203,0.10315817,-0.0049872044,-0.0058651716,-0.005012216,0.060183145,-0.0047836984,-0.004757672,0.06261487,-0.02144637,0.058158852,0.067675404,-0.004507864,-0.004615765,-0.006116338,0.16820933,-0.00449384,-0.008468121,-0.007601778,-0.008004936,-0.0079947505,-0.008150943,-0.008110076,-0.008090869,-0.007970659,0.060321618,-0.0069837365,-0.005431529,0.101396315,0.15266636,-0.0077574514,-0.0065866522,-0.007697802,0.17300098,-0.007996663,-0.008037984,0.065950535,0.07838799,0.043835703,0.017415417,-0.008094712,-0.008029163,-0.0059168544,-0.051132362,-0.006076567,0.025634835,-0.012077942,-0.010739119,-0.012089968,-0.010179516,-0.010653362,-0.010939844,-0.010617933,0.118878685,-0.012235034,-0.010883536,-0.059506215,0.061887283,-0.011754513,-0.012396848,-0.011430895,0.11869699,-0.011422137,-0.01129511,0.039054323,0.055578236,0.048241742,0.020126,-0.009896155,-0.010068874,-0.011622377,0.10814698,0.0013555959,0.0288731,-0.0011019036,-0.00095279515,-0.0015039556,-0.0009199475,-0.0010630563,-0.0011692792,-0.0009248657,0.10821371,-0.00055678794,0.0017600004,-0.13268125,0.10246175,-0.0011293581,-0.00023068115,-0.000888573,0.18873654,-0.0011968687,-0.0012093969,0.06240172,-0.028530909,-0.004513778,0.067478664,-0.0007483377,-0.0007469654,0.0009830757,0.12645783,-0.0028260164,0.04694176,-0.0054149665,-0.0056559816,-0.005432129,-0.0057463422,-0.005647406,-0.005620621,-0.005675629,0.11128327,-0.005381115,-0.004968688,0.01167281,0.14215079,-0.0054598264,-0.0053649116,-0.005542418,0.1648915,-0.005540693,-0.0055546537,-0.022622678,0.06598468,0.05750151,0.0033956394,-0.005810908,-0.005766364,-0.0054977722,-0.028474174,-0.011346325,-0.1151279,-0.0172945,-0.0173041,-0.017313406,-0.017313603,-0.017335884,-0.01730912,-0.017306356,0.14426231,-0.017194375,-0.016035972,-0.10588977,0.22751664,-0.01729934,-0.017154198,-0.017300949,0.11271389,-0.01733398,-0.017305143,0.12473903,0.10938903,-0.029893354,-0.029060647,-0.017289694,-0.017296527,-0.017131405,0.09744913,-0.004805729,0.01977655,-0.0070725568,-0.006786447,-0.0068279393,-0.0066424236,-0.006722899,-0.0067482404,-0.0067859516,0.09787209,-0.007389056,-0.0075535513,0.039677046,0.11630286,-0.0069680847,-0.007474333,-0.006986145,0.12501311,-0.0068397373,-0.006796457,0.055748884,0.02461503,0.009655811,0.099752024,-0.00663021,-0.006687384,-0.007834379,0.09480568,-0.0007335469,0.052583463,-0.00407036,-0.0037511513,-0.004215641,-0.0035628453,-0.0037748143,-0.0038836077,-0.0036163405,0.14046735,-0.0036817342,-0.0017657129,0.19651832,0.07019172,-0.004057739,-0.0034558866,-0.003749445,-0.035056807,-0.0039605265,-0.0039482415,0.012571665,0.08483146,0.064430155,0.048171982,-0.0033914102,-0.00342907,-0.0024698079,0.06357261,-0.0012920126,-0.05695967,-0.011412045,-0.010007899,-0.011830243,-0.009449786,-0.01006785,-0.0104088355,-0.009811072,0.052528888,-0.010833085,-0.0051442236,0.003174318,0.028039299,-0.011053208,-0.010638848,-0.010483302,0.10448576,-0.010905404,-0.01076366,-0.0039932244,0.3374191,-0.042834967,0.11660975,-0.009017991,-0.009100432,-0.00794453,-0.012156444,-0.006702684,0.04334953,-0.013276763,-0.013507478,-0.013754053,-0.013564222,-0.0135995485,-0.013682306,-0.0134346485,0.11735787,-0.012490172,-0.00965293,0.06274524,0.103425995,-0.01339376,-0.012020467,-0.013261278,0.06277443,-0.013617618,-0.013646718,0.10892398,0.06371027,0.076043226,-0.114703305,-0.01345854,-0.013378814,-0.010811977,0.015381973,-0.0060622897,0.04824561,-0.011306476,-0.010899309,-0.011241581,-0.01072472,-0.010858677,-0.010945711,-0.010868259,-0.001876466,-0.011386005,-0.01020211,0.08325273,0.17264143,-0.011183908,-0.011396423,-0.011119405,0.14260317,-0.011056269,-0.011046343,0.08880863,0.24110222,-0.0665158,0.013518793,-0.0106376335,-0.010687763,-0.0111436695,0.12979932,-0.0017678738,-0.14844543,-0.004776218,-0.00456769,-0.0049560294,-0.0044221785,-0.0045506507,-0.0046266075,-0.0045234486,0.00324912,-0.004579395,-0.0030944347,0.32599804,-0.013494432,-0.0047367737,-0.0044378005,-0.0046200417,0.101475224,-0.0046972223,-0.004709224,0.07322477,0.16369286,0.044156715,-0.09694242,-0.0043128952,-0.004344493,-0.0038817525,0.07096424,-0.00873556,0.30512837,0.0033275932,0.0052222107,0.0058384836,0.0058740657,0.005848147,0.005978342,0.005003795,0.06353492,-0.0005189879,-0.010278188,-0.013891149,0.069317594,0.0041497126,-0.0029819757,0.0036529973,0.12706375,0.005524474,0.0056468733,0.019622002,0.010238349,-0.007856057,0.16078192,0.0053540063,0.005013434,-0.008089451,-0.0034319162,0.009283267,0.085578375,0.016648509,0.015781302,0.017228164,0.0154419895,0.015763,0.016020078,0.015556645,-0.022852002,0.015789755,0.011252418,-0.009646602,0.05360948,0.016517647,0.015377678,0.016040001,0.07663795,0.016370349,0.01635737,0.029642884,0.1527552,-0.57552445,0.15890466,0.015118491,0.015113122,0.013342177,0.06223768,-0.0051921085,0.047435194,-0.00366674,-0.0041465964,-0.0026065186,-0.0043306933,-0.0039499328,-0.003668949,-0.00435232,-0.0066894935,-0.005196592,-0.008747457,0.028810339,-0.036598116,-0.0036522672,-0.005898699,-0.0042007864,0.27258468,-0.003396276,-0.003457971,0.32509726,0.16598296,-0.5012913,0.05710039,-0.0047805253,-0.0048241555,-0.008353926,-0.069512226,-0.004446255,0.09092643,-0.006952651,-0.0071401,-0.007023597,-0.007165991,-0.0071215704,-0.0071371654,-0.007130017,0.1093835,-0.006846562,-0.0064839944,-0.03872242,0.094738856,-0.0069972277,-0.006799929,-0.0070090964,0.09210688,-0.007035289,-0.0070625823,0.1812316,0.06061467,0.0036269976,0.02177136,-0.0071778693,-0.0071705747,-0.0067765117,0.11154286,-0.007966103,0.13428189,-0.012092691,-0.012544319,-0.012008242,-0.012703685,-0.012541272,-0.012446366,-0.0125825405,0.11651336,-0.012180226,-0.012005566,0.06519765,0.15528299,-0.0121922195,-0.012134687,-0.012356488,0.12288232,-0.012257978,-0.012313313,0.03543593,0.046054035,0.044386007,0.09326319,-0.012820512,-0.0127833225,-0.012456402,0.10652481,0.003505528,0.06641401,0.0017397553,0.0019567334,0.001451835,0.0020300671,0.0018914193,0.0018124059,0.0020080712,-0.12442473,0.001999665,0.002888441,0.068219036,0.12491346,0.0017321324,0.0021831598,0.001915291,0.11191343,0.0017281957,0.0017226636,0.11730303,0.052422054,-0.00783693,0.08291783,0.002177678,0.0021504555,0.002724871,0.15867493,-0.0064927563,0.050351646,-0.00954514,-0.009499311,-0.00951273,-0.009497296,-0.009498477,-0.009460472,-0.009509265,0.048739575,-0.009699762,-0.009619538,0.08710896,0.08495413,-0.0095260255,-0.009840583,-0.009526901,0.013186812,-0.009451196,-0.009496063,0.045775175,0.20577332,0.12729418,-0.029322773,-0.009496253,-0.009527981,-0.009996452,0.11219742,-0.004577905,0.004869543,-0.0085914135,-0.008078642,-0.008590803,-0.00784814,-0.008082941,-0.008130855,-0.00803366,0.016885605,-0.008693472,-0.007513607,0.11921279,0.03980263,-0.008508737,-0.00868649,-0.008343014,0.11071651,-0.008331157,-0.008289933,0.043672323,0.04179881,0.036074944,0.0990478,-0.0077435975,-0.007814309,-0.0082282275,0.07025618,-0.0007409267,0.14111628,-0.0006366186,-0.00070833415,-0.000726372,-0.0007056566,-0.0006993823,-0.0007259473,-0.0007004738,0.055347264,-0.0005573109,-0.00066825,0.1319199,0.059138976,-0.00068989396,-0.0005086204,-0.0006866164,0.0019686893,-0.00072782487,-0.00072352774,0.0706436,0.07136979,-0.07629615,0.07589536,-0.0006638989,-0.0006752233,-0.0004576929,0.09822807,5.0928444e-05,0.17520212,0.0036787465,0.0065431073,0.005020665,0.00768115,0.0069580637,0.0066229925,0.006629437,0.012239311,0.0015275646,-0.0018076645,0.12623264,0.043415435,0.0045637786,2.3256987e-05,0.0048112758,0.0286184,0.0056869574,0.0059346166,-0.03842796,0.05956915,0.0025476478,-0.05778463,0.007892013,0.0074789673,-0.0014949292,0.023649875,-0.0044537354,0.1093847,-0.004225062,-0.0040642396,-0.0037541538,-0.003991142,-0.003984198,-0.0039343014,-0.004068017,0.01955309,-0.004778307,-0.005533114,0.27750942,-0.034513906,-0.0040918663,-0.0051308125,-0.004237339,0.005069446,-0.0039442936,-0.003951676,-0.016630583,0.03505279,0.035819523,0.10468634,-0.0040693013,-0.004120443,-0.005885653,0.05148328,-0.0034626015,-0.03146065,-0.005119959,-0.004082044,-0.005192495,-0.0036738962,-0.00404405,-0.0042879432,-0.0040056445,-0.021419572,-0.0051923394,-0.0040203445,0.021236356,0.09949043,-0.0048826784,-0.005350806,-0.0045894496,1.8022954e-05,-0.0047219545,-0.0045791864,0.04506679,-0.0126717985,-0.030107588,0.12951605,-0.003513623,-0.0035712142,-0.0046197623,0.21078794,-0.010264888,0.09897418,-0.012449846,-0.012305312,-0.012191549,-0.012283526,-0.0122639835,-0.012214577,-0.012347375,0.14108378,-0.012830513,-0.01330461,0.07350612,0.18423377,-0.012378447,-0.01305824,-0.0124655925,0.10426667,-0.012265208,-0.012246089,0.018055521,-0.016314471,0.058891065,0.09497771,-0.012329951,-0.012368694,-0.013538147,-0.003282182,-0.006428968,0.0024185479,-0.00671183,-0.008335251,-0.0060361214,-0.008999161,-0.008297627,-0.007879984,-0.008617103,0.07963,-0.007494443,-0.010936588,0.067455515,0.068209454,-0.007082345,-0.0075755157,-0.007787305,0.19578841,-0.007260129,-0.007352438,-0.20294443,-0.0055537894,-0.17199098,0.036294315,-0.009538775,-0.009436965,-0.010356665,0.14680186,-0.0006280951,0.061757095,-0.0009161383,0.00021544844,-0.0004933309,0.00066595525,0.00034153461,0.00021769106,0.00026660413,0.08762312,-0.0016045012,-0.002125075,0.015374131,0.08608958,-0.00057941675,-0.0021231854,-0.00045232102,0.121540874,-0.00014964864,-0.00010290742,0.09359032,0.1287523,-5.0216913e-05,-0.08382085,0.00074372813,0.00063449703,-0.0025039017,0.1480343,-0.009352197,0.08344294,-0.0155515075,-0.01549045,-0.015660634,-0.015435411,-0.015484724,-0.015538827,-0.015450187,0.13160327,-0.015435036,-0.013598591,-0.014575669,0.06494264,-0.0155466935,-0.015400741,-0.015476451,0.18506202,-0.01553335,-0.015548818,0.05736979,0.12647569,0.07433595,-0.06188445,-0.015387166,-0.015391849,-0.014965185,0.2441036,-8.079782e-05,-0.024381913,0.0077166855,0.008100916,0.008841506,0.008165761,0.008330528,0.008478291,0.0079453075,0.04675692,0.006043799,0.0002727732,0.08545885,0.01631603,0.007976908,0.004937794,0.007576503,0.12313969,0.008449264,0.008454157,0.04479104,0.056485996,0.07637814,0.161576,0.00789093,0.007743083,0.0020024339,0.07038144,-0.005405657,0.04496157,-0.0061685266,-0.0053268895,-0.0056111068,-0.0050017238,-0.005143851,-0.0052267993,-0.0052847373,0.15319267,-0.0069969334,-0.00831826,0.14497939,0.18413912,-0.005881708,-0.0076141544,-0.005864963,0.13220689,-0.005446005,-0.005422329,0.01314269,0.21068802,0.053797267,-0.049770936,-0.0050070137,-0.0051216073,-0.008451708,-0.032305695,-0.016247787,0.03665265,-0.014901309,-0.017699493,-0.014734051,-0.01901234,-0.017844222,-0.01715277,-0.018001439,-0.037817538,-0.014924541,-0.019087054,0.5103188,-0.009787386,-0.015350323,-0.01513242,-0.016277121,-0.16967738,-0.015992641,-0.016303988,-0.04690992,-0.09612383,0.08758905,0.05794205,-0.019726783,-0.019445676,-0.017669193,-0.1853921,0.0037513524,0.10614305,0.00374184,0.0051643215,0.0038841013,0.005758891,0.005298305,0.0050014183,0.005298255,0.08602855,0.0034137964,0.003356697,0.087975256,0.080406725,0.004109852,0.0030166395,0.0044754,0.04150194,0.0044875257,0.0046012476,0.11980941,-0.0088590095,0.023275897,0.09007429,0.006003745,0.0058946908,0.0032498203,0.12902512,-0.0017737169,-0.07658169,-0.0016902089,-0.0021965094,-0.0011460781,-0.0024005398,-0.0021301918,-0.0019163266,-0.002334468,0.02339599,-0.0024466515,-0.0039860513,-0.06069605,0.30156055,-0.0017256364,-0.0027627964,-0.0021443292,-0.098934844,-0.0016859919,-0.0017263871,0.15103638,0.079853974,-0.4099891,0.16685823,-0.00265239,-0.0026665404,-0.004135322,-0.04338906,-0.010853127,0.06855638,-0.02158241,-0.022572102,-0.021773303,-0.022990182,-0.02266936,-0.0224922,-0.022647874,0.17666467,-0.021047162,-0.017877802,0.14567716,0.07373576,-0.021833051,-0.020499883,-0.022038803,-0.022912294,-0.022125274,-0.022237951,0.02052459,0.11615514,0.07464136,0.024410307,-0.023111843,-0.023049466,-0.020060794,0.0777723,0.006666951,0.04064827,0.007733844,0.0093061775,0.007893071,0.009943016,0.009399011,0.0091047585,0.009434029,0.12690361,0.007367015,0.007978009,0.06086964,0.03167656,0.008118162,0.00692553,0.0085184425,0.09087683,0.008617733,0.008722154,0.042920806,0.027371798,0.017065875,0.0854375,0.010195728,0.010006107,0.007488668,0.08136283,0.00019428134,0.036090814,-7.389113e-05,-0.00027704984,-0.00027763657,-0.00036618486,-0.00031340867,-0.00032614917,-0.00027244724,0.118449956,0.00016771257,0.00037926808,-0.051330566,0.09236334,-0.00017789006,0.0002462489,-0.00014144555,0.046158575,-0.00026916526,-0.00028556585,0.16054755,-0.06685521,-0.008200273,0.044909097,-0.00037577003,-0.00031529367,0.0005100742,0.09753686,0.006982834,0.09911808,0.0127187595,0.013613059,0.0131234145,0.013916578,0.013709202,0.013646017,0.013615531,0.12071335,0.011911621,0.01027539,0.16508748,0.0662253,0.012978252,0.011353917,0.0130684115,0.10194177,0.013391845,0.01341975,0.076219626,-0.0892797,-0.047439482,0.03268297,0.01397173,0.013853438,0.01072479,0.10574632,-0.003422048,0.10834101,-0.006338708,-0.0060267486,-0.0061513633,-0.0059174113,-0.005991441,-0.0060073817,-0.0060340352,0.10716381,-0.0066273455,-0.006403312,-0.0023052096,0.04824188,-0.0062396657,-0.0068186186,-0.0062348023,0.10898885,-0.0061069503,-0.0060919523,0.14131866,0.026713269,0.018546283,0.011883812,-0.0059158914,-0.0059445873,-0.007021492,0.10338852,-0.0003491938,0.022676729,-0.0009095669,0.00026923418,-0.0007710159,0.0006753057,0.00030396134,0.000115100294,0.0003523929,0.0659881,-0.001162082,-0.0007603583,0.077311926,-0.00090969726,-0.00060713664,-0.0014647171,-0.00027234852,0.14114615,-0.00024483353,-0.00016404968,0.014500555,0.18002419,-0.029401034,-0.05665363,0.0008764602,0.00075526536,-0.0010968186,0.14500202,-0.004783787,0.10671823,-0.0055502914,-0.0062090643,-0.005335167,-0.006488953,-0.006187238,-0.006014645,-0.0062999055,0.15102983,-0.0058108717,-0.0068094046,0.08436981,0.09453405,-0.0056574084,-0.0058681853,-0.0059473813,-0.021542408,-0.005733477,-0.0058264406,0.051897872,0.060732853,-0.011327997,0.054934066,-0.006707739,-0.006670298,-0.006711404,0.049334448,-0.0011298917,0.08334685,-0.003967464,-0.003528649,-0.004000481,-0.0033533499,-0.0035243183,-0.0036122762,-0.0034932941,0.028447328,-0.003923729,-0.0032144934,0.19961895,0.06870219,-0.003853024,-0.0039769784,-0.0037228465,0.0058468617,-0.0037597832,-0.003736265,0.034639575,-0.057858475,0.06822074,-0.011842385,-0.0032618344,-0.003316082,-0.0036635632,0.066543594,-0.0022139847,0.117117025,-0.004417263,-0.0046160333,-0.004585162,-0.0046674227,-0.004642831,-0.0046472214,-0.004600182,0.06143684,-0.004143283,-0.0032459348,0.099621326,0.12251313,-0.0044846446,-0.003970735,-0.0044665877,0.048967116,-0.004587956,-0.004611671,0.06339954,0.001848571,-0.053095125,0.13555098,-0.004642645,-0.004636146,-0.0035740603,0.121131316,-0.0038059894,0.058821794,-0.007250957,-0.0069502597,-0.0073041525,-0.0068396926,-0.006943397,-0.0070083514,-0.0069112014,