4,240,1,5,5,-0.028980315,-0.052040488,0.00046643615,0.07708138,0.013665497,0.027366221,-0.05814904,-0.6044472,-0.33725217,-0.0027441084,0.0049677715,0.15909861,0.09356907,-0.15313396,-0.032518566,0.018250301,0.12641948,0.5594513,0.1295877,0.005350709,0.035272345,-0.11118764,-0.016726017,0.03293389,-0.00446634,-0.0052570105,0.046039365,-0.1173749,0.04781525,0.013049036,0.050545096,0.0129292905,-0.06899536,0.023036748,0.029183209,0.015999407,-0.5744651,1.0110359,-0.50533193,-0.014969669,0.012127072,0.033087403,-0.058851533,0.019626468,0.025065213,-0.010004275,0.058326066,-0.09686306,0.036355853,0.0036687106,0.012541145,0.049568906,0.061932683,-0.086204626,-0.19365242,-0.20672321,-0.06787944,-0.015962675,-0.10484345,0.16881149,0.13128045,0.29790023,0.2551984,0.34844026,0.13690352,0.17208612,-0.014803529,0.015098906,-0.09366085,-0.16888809,-0.15917468,-0.05459224,0.048210457,0.0162054,-0.013215572,0.013225198,-0.01765769,0.02574107,-0.017454423,0.029269516,0.0101915,0.028823435,0.18308446,0.03973517,-0.016366825,-0.036948487,0.03442523,0.4746318,0.017296717,-0.020213738,-0.020166814,0.028337747,0.13749407,-0.000315696,0.0047988296,0.025620341,-0.0029093027,0.029360294,-0.012178011,0.028273195,0.04071099,0.009795666,-0.0030342937,-0.0035229027,-0.03617972,0.11083482,0.23910439,-0.015920714,-0.21925533,-0.11331394,0.21840757,0.6072564,-0.023316652,-0.62132907,-0.260781,0.11587159,0.20042446,0.011519469,-0.2024539,-0.11349583,0.03662085,0.004447907,-0.022148803,-0.01353699,-0.042203292,0.14303279,0.0656711,-0.061305285,-0.047516346,-0.011724129,-0.28081122,-0.09315163,0.2729547,0.120795734,0.120529234,-0.029791053,-0.2960314,-0.48646492,-0.3641799,-0.06972131,0.08285441,0.05410694,0.20271088,-0.019960798,-0.24165283,-0.03711021,0.007422328,-0.041676015,0.028894514,0.09082675,-0.012969766,0.001722917,0.030560136,0.021095477,0.011105448,-0.013003403,-0.05502528,-0.13354935,-0.043857932,0.0030842004,0.04006114,-0.17691341,-0.35035512,-0.20229727,0.029065639,0.013409972,-0.06689498,-0.12699308,-0.04541117,-0.00024434924,-0.048926175,-0.028144091,0.014582306,0.0030265003,-0.047804892,-0.011107743,-0.0005260408,0.043987364,0.013230436,0.016988724,0.03249097,-0.26637828,0.07486235,0.16082183,-0.052782983,0.20342761,-0.5100646,-0.036587525,0.39447477,-0.05869922,0.09252982,-0.17524093,-0.12215942,0.09690994,0.012986526,-0.024113826,-0.024765678,-0.018341824,-0.002045229,0.04287526,-0.043104723,-0.0020480007,0.015781328,0.018265732,-0.046956778,0.036552586,-0.111211985,-0.23957832,-0.097946644,0.05654815,0.09320456,0.28170162,-1.0871341,0.2229813,0.13424084,0.048412368,-0.06668789,-0.24145094,-0.10215181,0.04945177,-0.013084292,-0.026297763,0.0025220811,-0.038978875,-0.005885273,-0.035819843,-0.040479083,-0.1130718,-0.031931832,-0.026293874,-0.04505807,-0.21034285,-0.15698835,-0.21091074,-0.043815605,-0.12256676,-0.11251569,0.6530414,-0.14038806,-0.10981482,-0.0694651,-0.15076663,-0.108504176,-0.19298728,-0.060596228,-0.03674881,-0.05613962,-0.112573326,-0.049937367,-0.018159263,-0.009511396,0.025252521,-0.029470682,-0.01669544,0.0024545789,0.08796613,0.23939624,-0.09335685,-0.16168225,-0.085293666,-0.061967283,-0.009791493,0.43455327,-0.02913469,-0.051816434,-0.046969324,-0.15893894,-0.12975617,0.19908056,0.100650966,0.016048484,-0.032008648,-0.06326637,0.04578106,0.014565779,-0.036817633,-0.012787357,-0.047829375,-0.030773342,-0.041806728,-0.016816586,0.0189096,0.17872214,0.019113153,-0.040589448,-0.015101628,-0.096050024,0.503731,-0.123609245,-0.006315209,-0.016483933,0.006819546,0.18134886,-0.021085203,-0.028701887,-0.03185749,-0.036954798,-0.02450867,0.002935946,-0.045083478,-0.023125142,-0.09790246,-0.17572308,-0.094989,-0.011032656,-0.029464252,-0.11562848,0.051309794,-0.11169052,-0.073942594,-0.06445661,0.019833148,-0.30875856,0.045015894,-0.06880797,-0.05377756,-0.23657541,-0.05424135,-0.21140091,-0.04901576,0.0015386343,-0.099041015,-0.16700995,-0.07697201,-0.02218593,0.0014064908,0.039911807,-0.00767906,0.025791302,-0.0036530197,0.046812683,0.09059343,-0.44977397,0.07862951,0.02531976,-0.07178733,-0.24479413,0.85738546,-0.16821477,-0.0581284,0.036128893,0.09042525,-0.43297538,0.025096014,0.04131034,-0.004231289,0.05509174,-0.019321188,0.038265288,0.01276882,0.0154444575,0.023675881,-0.02152723,0.0036624074,0.03305322,0.022881806,0.029641276,0.08810143,0.009482548,0.010455459,-0.034450993,0.10267311,0.6506573,0.106764734,-0.01673644,0.00680238,0.021688059,0.09335807,0.011196673,0.01972203,0.024558604,0.016282454,-0.0021556169,0.0035786927,0.007673636,-0.02102438,-0.036954325,-0.019131154,-0.02725333,-0.025974274,-0.024884537,-0.08675039,-0.09884084,-0.085714765,-0.030046329,-0.031563133,-0.086831234,-0.28693914,-0.09379105,-0.033284783,-0.036247283,-0.06440196,-0.082354486,-0.075133055,-0.036983624,-0.02963999,-0.044664264,-0.036432847,-0.033863977,-0.017792657,0.048891194,0.09209021,0.1903024,0.087277226,0.020297527,0.0123974085,0.228519,0.67877597,0.23226371,0.0064170957,-0.03576584,-0.05888045,0.0089665055,0.016619757,-0.01613748,-0.013839126,-0.23198515,-0.7047054,-0.23040432,-0.021614566,-0.022318274,-0.07674664,-0.17137522,-0.074632466,-0.014938563,-0.03291063,-0.03525704,-0.16191071,-0.06270903,-0.025467858,-0.0013853908,-0.17205264,-0.6356463,-0.18540224,-0.02426058,-0.030135527,-0.042563707,-0.08303629,-0.024559975,-0.008802533,0.019861877,0.16910371,0.6661799,0.154579,0.026638106,0.027306616,0.06904326,0.18637463,0.07180668,0.012248188,0.049487878,0.120171964,-0.2463322,0.09816725,0.0256868,-0.04703281,0.05441305,-0.45459035,0.050770387,-0.013320848,0.005218014,0.14945021,-0.51160604,0.10099214,-0.015747435,-0.05718873,0.0932534,-0.35490385,0.048508704,-0.053562447,0.03520286,0.09242078,-0.27276546,0.07478602,0.044250667,0.0035577416,-0.10146299,-0.25175488,-0.05205314,-0.018512487,0.030625015,-0.14267641,-0.07245274,0.3218041,-0.016946763,-0.01639226,0.29307652,-0.38301805,0.36920425,0.009085089,-0.0631623,0.37085342,-0.14352381,-0.12868005,0.007809937,-0.02403976,-0.020417541,-0.22908966,-0.12141208,-0.006385535,-0.0017955899,0.0029101372,0.0097268745,0.0071750283,0.0002555214,-0.022177637,0.016898647,0.43443298,0.05038944,-0.048028797,0.028119817,-0.14159656,-0.81558675,-0.15672728,0.048315417,-0.029321343,0.043206885,0.5888448,0.0748826,-0.024834514,-0.014113128,0.007831946,-0.013644576,-0.019342422,0.0073559284,-0.0055542886,-0.023659162,-0.04606259,-0.011485107,-0.0030951723,0.03306665,0.0018876493,-0.27640945,0.018435821,0.0075345635,0.08588798,0.4710186,-0.39887676,0.53412974,0.06558223,0.005534351,0.008298665,-0.3069278,0.0094744265,0.0045622885,-0.014198512,-0.00075246394,-0.06827955,-0.0013146326,-0.013039365,-0.039301693,-0.019683957,0.01772534,0.020266235,0.03053546,-0.09709117,-0.18203527,0.018671036,0.19768256,0.094939336,-0.28735238,-0.6672263,0.0422647,0.5693827,0.29836762,-0.11212224,-0.19578846,-0.022754725,0.19546841,0.12142946,-0.041610144,-0.007948577,-0.009915844,0.0040025413,0.029114008,0.036486357,-0.053031385,-0.05702269,-0.041097507,-0.017631508,-0.013836578,-0.005443126,-0.2963877,0.040062852,0.06903891,-0.20044297,-0.22000308,-0.31158233,0.027569413,-0.15042615,0.103173256,0.10916078,-0.2187552,-0.0024983287,-0.020295054,0.01852107,-0.036668897,-0.036057964,-0.12255365,0.009890497,0.006112516,0.07611069,0.09536676,0.039146796,0.031741142,0.032282397,0.0769656,0.031969022,0.066010505,0.0064744353,0.055395193,0.07289609,0.3112934,0.058299392,0.07812229,0.013032764,0.081593215,0.02957812,0.064846665,0.02728957,0.022657918,0.030648783,0.08459197,0.043988734,0.010693036,-0.043733157,0.032382652,0.10572654,0.028930735,-0.017944142,-0.05445662,-0.032233335,0.48568016,0.034577638,-0.05327072,0.050062552,0.16381474,0.09778622,0.050396413,0.019481152,0.02945799,-0.05482965,-0.66142625,-0.11414462,0.057718396,-0.01682353,-0.025582882,-0.07891093,-0.032274276,0.015783966,0.009291053,-0.021949247,-0.115446776,-0.008238435,0.00020185858,-0.00817436,0.035513923,0.31625327,0.04762217,-0.024019463,0.032441802,0.047288924,0.55679977,0.04308936,0.014271945,-0.014195144,0.052702606,0.28734252,0.024237648,-0.014505029,0.019064687,0.016647877,-0.076609515,-0.008505948,0.031050384,0.0003759861,0.03386408,0.010193914,-0.08619988,0.027429461,-0.059276,-0.20994551,0.060737282,0.15015651,0.0009072125,0.02681014,0.23459369,0.6627843,0.256856,0.047906935,-0.018336404,0.06265062,0.058466613,-0.1557014,-0.05855318,0.056218266,-0.0716636,0.006596029,0.05444832,0.020538002,-0.035016943,0.037774716,-0.07657629,0.02495012,-0.019183278,-0.031322926,0.070268735,0.04458732,0.042722583,-0.033646807,0.110673174,0.067171305,0.8202324,0.06395519,0.11101076,-0.0074121803,0.07255993,-0.034143448,0.12596442,-0.031359404,-0.007193923,0.041008063,-0.13750139,0.057527855,-0.028539188,0.014202535,-0.029375672,-0.22267306,-0.0178095,0.007117465,-0.0057025626,0.020213187,-0.203218,0.023745716,0.009500295,-0.19693229,0.071419984,0.94978064,0.089391805,-0.17029338,-0.008184046,0.03685207,-0.1556083,-0.010387033,-0.014241973,0.0008011535,-0.0104388,-0.18999557,-0.014540076,0.00028790534,-0.034862384,-0.10211286,-0.11411676,-0.08254248,-0.050694168,-0.06414649,-0.030153543,-0.022817433,0.003607422,-0.08379029,-0.17606705,0.32354638,0.5621915,0.24747893,-0.20090553,-0.078249216,0.025281295,0.04090035,-0.010985166,-0.07750752,-0.06994438,-0.10929854,-0.10831986,-0.08864778,-0.08417764,0.06919424,-0.004158944,-0.2141804,-0.005924523,0.06326495,-0.041456304,0.21012484,-0.07997155,0.21472025,-0.018998176,-0.15713087,-0.09632522,0.4521689,-0.09158494,-0.15867198,-0.008340538,0.24242708,-0.063006386,0.22709206,-0.02934096,0.06714058,-0.005943835,-0.17293946,-0.025173338,0.06300974,-0.049009353,-0.01629299,0.05123841,0.033295944,0.010130107,-0.06610936,0.10185483,-0.15874486,-0.28787938,-0.11600953,0.12031527,0.40913117,0.1403073,-0.49093747,0.0058162957,0.066753246,0.14981037,0.029187232,0.061790735,0.012196975,0.017158873,-0.076929405,-0.0075929165,0.05923092,-0.012380466,0.00081786513,-0.022124901,0.025990918,-0.046239644,0.006948173,0.038882285,0.093407445,-0.26513845,0.10074385,0.03777185,0.04521729,0.26081088,-0.59762055,0.30450502,0.059428692,0.045088753,0.04640007,-0.23717934,0.10977609,0.043939292,-0.0013203621,-0.048584342,-0.01568076,-0.014005525,0.009238847,-0.06110528,-0.06629529,-0.16171825,-0.07886252,-0.06313127,-0.06509441,0.011178255,0.03178361,0.025233537,-0.0811354,-0.15898994,-0.003100425,0.8877331,0.010413229,-0.17474794,-0.0857403,-0.022220612,-0.0070980787,0.007222891,-0.08988796,-0.056332022,-0.089617655,-0.10857314,-0.08057368,-0.07077238,0.023916006,0.056893647,0.051723406,-0.03597468,0.027682498,0.05133272,-0.05953504,0.31972378,-0.03621047,0.06813654,0.03172543,0.320976,0.14255643,-0.44771135,-0.06355262,0.022846313,-0.008076027,-0.46986282,0.02574423,-0.08984558,0.019108593,0.0384126,-0.011349767,-0.09452051,-0.06996894,-0.016174182,-0.001973495,-0.20281774,-0.0047902465,-0.016569525,0.004598826,0.04261297,-0.28062007,0.035031535,-0.016424716,-0.14067014,-0.10084307,1.1158003,-0.09630995,-0.17104298,0.006285399,0.024799198,-0.33633006,0.028620586,-0.009708792,-0.0035384595,-0.00060239434,-0.16486773,-0.017936485,-0.02425011,0.019641273,-0.0084691495,0.013641402,-0.0054279566,0.028544933,0.03630626,0.038552582,-0.27118114,0.03751248,0.052299306,0.09066138,0.23269786,-0.5310269,0.26760677,0.06700121,0.06799057,0.040192544,-0.288109,0.0013356172,0.04162573,-0.0015714616,0.028059214,7.6532364e-05,0.014176134,0.0018982626,0.011348844,-2.2768974e-05,-0.022118703,0.0018452406,0.013646234,0.0011082143,0.020151608,0.07838935,-0.0048177093,0.027320918,-0.025205374,0.075277895,0.69549745,0.05322233,-0.040137917,-0.0017914474,0.05244702,-0.0005617738,0.042293787,-0.010004781,0.000825827,0.008989379,-0.013605386,0.032437377,0.0108964,-0.035040256,0.050537214,-0.051792324,0.032121122,-0.05166532,0.0072104335,-0.024051785,0.14179626,-0.005732,0.0130845755,0.036596596,0.0098360805,0.44363713,0.028206341,0.035916176,0.01544264,-0.01019901,0.12127478,-0.005753413,-0.010847695,-0.06484951,0.024504349,-0.041421518,0.028464738,-0.036302835,-0.0230425,-0.031683214,-0.06721636,0.045238614,0.06070441,0.0070614815,-0.18820593,-0.11328386,0.19974598,0.08238053,-0.05291368,-0.29989824,-0.053014085,0.3298442,0.14096591,-0.05229079,-0.09037265,-0.047190942,0.19866857,0.08472976,-0.05239533,-0.024107814,-0.020578176,0.07742712,0.049222574,-0.015177593,0.0061523765,-0.055932447,-0.041761708,0.0015277117,-0.007694021,-0.055194706,0.034224216,0.06279377,-0.06762868,-0.07893876,0.14506945,0.86923426,0.18349673,-0.07208344,-0.036293447,0.002377808,-0.054050904,-0.05324298,-0.0034312755,0.0103967935,-0.053955495,-0.040222242,0.021000564,-0.0047655404,-0.011555046,-0.06333954,0.10473281,-0.058374196,-0.014723629,-0.033220865,-0.07326751,0.30381817,-0.0971549,-0.050203435,0.11390877,0.4137231,-1.0708835,0.42154065,0.13687731,-0.025167689,-0.12838966,0.27085018,-0.12974003,-0.027496204,-0.042635392,-0.08179602,0.14173684,-0.05235986,-0.029478297,-0.045822576,0.014515519,0.15160242,0.0016740263,-0.011140481,-0.039000943,0.10436937,0.40257227,0.004925739,-0.06430885,-0.028186321,-0.17953685,-1.007969,-0.17703743,-0.037263066,-0.044703692,0.05270505,0.43573907,0.14326975,-0.060406953,-0.02249965,-0.0131111145,0.13483511,0.008839443,-0.012202457,0.025256842,0.011544555,-0.03691849,0.015634712,0.020925866,0.017288543,0.009809516,-0.12454501,-0.045699358,0.02222883,-0.06923655,-0.12978527,0.85610855,-0.07242298,-0.07222161,0.0045826957,-0.042200588,-0.07466915,-0.004589997,0.0014966875,0.011712372,0.013235852,-0.06416273,0.012909338,0.019101735,-0.06282242,-0.051509008,-0.13850623,-0.044271484,-0.04858242,-0.077132724,-0.01167861,-0.18168634,-0.038910866,-0.0706774,-0.07956935,-0.19269176,0.86358553,-0.11844228,-0.08230406,-0.047091704,-0.035322875,-0.09390998,-0.041312665,-0.023510873,-0.056790486,-0.062054425,-0.11781573,-0.06228654,-0.06247583,-0.0052425265,-0.042097002,-0.048898816,-0.019531965,0.0303519,0.008429833,-0.01449721,-0.1004062,-0.027495325,0.00939703,-0.08270428,-0.09947893,-0.3631786,-0.094843194,-0.10190298,0.009005487,-0.084876426,-0.069800764,-0.0488842,-0.0018207729,-0.004710242,-0.003973961,-0.05456367,-0.021266311,-0.0100774765,0.014559656,0.03561236,-0.055925377,0.04827811,0.008829266,0.03750497,-0.027473554,-0.19890425,-0.1893234,0.07601756,-0.057620555,-0.25564444,-0.30125996,-0.15839542,-0.027749375,0.07346076,-0.16866355,-0.17815539,-0.06934756,0.013147593,-0.0112377405,-0.00072813034,-0.042615592,0.06730804,0.0082111955,0.018118024,0.010167167,-0.13234581,0.02456449,0.013741575,0.0030665696,0.02770698,-0.21032074,0.06400289,0.016022354,-0.13752523,-0.23083767,0.8361668,-0.23368935,-0.13074827,0.024064332,0.07299264,-0.22098532,0.0359025,0.0019289702,0.0030657202,0.015222251,-0.12645501,-0.007899672,0.0020561516,-0.028679073,0.0036315918,-0.04876382,0.016816229,-0.025672734,-0.017366473,-0.019186482,0.20109361,-0.039992034,-0.027162254,-0.065700926,-0.3113129,0.45519814,-0.2866767,-0.06403265,-0.05549422,-0.07662034,0.18888885,-0.03587097,-0.020455644,-0.017624684,0.008005977,-0.023553431,0.010082081,-0.023779243,0.01013805,0.024558295,0.09354831,-0.0013103336,0.002123654,0.050952524,-0.08682275,0.09436017,-0.0966016,0.055625927,0.04417856,-0.17750233,-0.72699994,-0.23605064,0.071793266,0.09841276,-0.03757012,0.03585595,-0.057943985,0.066506416,-0.00078754127,-0.0150334425,0.08068275,0.009010404,-0.022354096,-0.008408248,-0.021896489,-0.110519394,0.04736676,0.008760879,0.03255246,-0.2591095,-0.17484145,-0.1235889,-0.050624445,-0.036397193,-0.22874829,-0.08356446,-0.24719378,-0.059961706,-0.03482757,-0.09199993,-0.13359123,-0.22322632,0.04034522,-0.00028285384,0.07478938,-0.1263828,-0.01792097,-0.01204364,-0.009581111,-0.05773008,-0.12512106,-0.03221187,-0.024105996,-0.040372945,-0.11204904,-0.11257155,-0.10261783,-0.037990127,-0.09907904,-0.13038674,0.6833971,-0.10758544,-0.08900404,-0.04883068,-0.116250336,-0.10426713,-0.061583593,-0.043690134,-0.012992814,-0.049359187,-0.117500305,-0.062749684,-0.013450339,-0.07363492,-0.04450631,0.053318046,-0.015469611,-0.06178656,-0.06713732,-0.15112945,0.35289508,-0.11459823,-0.076391734,0.1359956,-0.15470216,0.37832326,-0.12904535,0.10571745,-0.08089016,-0.17540154,0.350547,-0.11985338,-0.089961916,-0.07199633,-0.059622243,0.091224186,-0.0612461,-0.063737035,-0.077242404,-0.051586956,-0.05749129,-0.05753997,-0.071511924,-0.02979599,-0.03433972,-0.03285247,-0.029206932,-0.03834204,-0.051317096,-0.03264228,-0.045303047,-0.03854297,-0.0496497,-0.04928617,-0.014950752,-0.047152452,-0.030169345,-0.05398929,-0.07546842,-0.045956317,-0.051311105,-0.041733563,-0.06201735,-0.021306694,0.020375162,-0.03747639,-0.03033787,-0.018691625,0.03912881,0.24841332,-0.10297167,-0.2736575,-0.048229992,-0.037213437,-0.034710266,0.58916456,-0.105740435,-0.00026065856,-0.04101972,-0.25966293,-0.004053235,0.20897421,0.05346434,-0.019176811,-0.047272004,-0.010303229,0.054136187,-0.02992928,-0.053947978,-0.081422746,-0.12292519,-0.07541971,-0.066720605,-0.08476588,-0.12874945,-0.04104452,-0.09700422,-0.09182506,-0.14039224,-0.09602812,0.5003074,-0.06160578,-0.15273076,-0.109912224,-0.116512276,-0.008978784,-0.10093732,-0.090681255,-0.060185976,-0.096474916,-0.15281042,-0.087833226,-0.076921836,0.04691115,0.037580796,0.04111226,0.006759256,0.053965032,0.055687472,0.121398084,0.0132235885,0.115137875,0.036465853,0.029281475,0.01998645,-0.9283066,-0.031356543,0.037301786,0.013888061,0.16361651,0.07579416,0.16408211,0.033859357,0.06290549,0.021635234,0.0328207,0.017019212,0.047895838,0.01027979,-0.14690648,0.0012583733,0.033418715,0.015437558,0.029863052,0.15077434,0.08846498,-0.09127957,-0.073771425,-0.10924421,0.20328766,0.6344042,0.21892916,-0.09558083,-0.09450275,-0.102294296,0.1464096,0.12687278,0.060377926,0.028133512,0.039535575,0.01377815,-0.16526526,-0.014859438,0.02801317,0.06656227,0.0021140575,-0.007913008,0.013904601,0.00092339516,-0.00035887212,0.41650975,0.09161098,0.025963068,-0.051908255,-0.3693349,-0.21462554,0.2935197,-0.047299758,0.0033324175,0.016707044,-0.33882046,0.022076085,-0.058218576,0.052120835,-0.023793712,-0.0041573495,-0.010694213,-0.061964333,-0.0067874193,0.15034452,-0.04839067,-0.083409354,0.015266478,-0.013775617,0.031950586,0.19467573,-0.15869038,0.04658808,0.0037825108,0.052330002,0.69799453,0.04869674,0.0120229125,0.035699964,-0.12457082,0.12792826,0.02600412,0.013528168,0.046057995,-0.08013104,-0.02693021,0.13234633,-0.023898274,0.008695751,-0.017553031,-0.19127946,-0.06388982,-0.018654525,-0.061917976,-0.019580059,-0.11393377,-0.057622876,-0.05445172,-0.18682003,-0.026845694,0.84092444,0.01947163,-0.2059896,-0.052839242,-0.010355964,0.009596974,0.044531308,-0.043622136,-0.06973496,-0.07840809,-0.19952731,-0.045536935,-0.09509659,0.041571967,-0.062913984,-0.020287622,-0.073519915,0.00419119,-0.06166385,-0.083365664,0.23577772,-0.016678736,-0.045105696,-0.020624876,0.18947594,0.6300766,0.18200672,-0.019539684,-0.07036939,-0.03890775,0.20894215,-0.100250065,-0.024945587,-0.0012999345,-0.01617404,-0.015275061,-0.04022388,0.04583767,-0.025218576,0.12100643,0.1344611,-0.0074451454,-0.017761905,0.10820928,0.35412124,0.15713975,-0.2285906,-0.10494475,-0.062693805,-0.2979825,-0.032032955,-0.2934251,-0.11677262,-0.07500212,-0.25949743,0.1418515,0.3431203,0.119684085,-0.0073364973,-0.04773265,0.1382223,0.13656372,-0.0146841705,0.05734571,0.100336984,0.10875341,0.10576588,0.05614846,0.08926941,-0.036845744,-0.50853026,-0.048861742,0.11420974,0.09686784,-0.34588584,0.031420335,-0.37437844,0.08846536,0.08719611,-0.07114807,-0.48794228,-0.095835954,0.092390776,0.061331205,0.11530048,0.11730336,0.11460146,0.06752808,0.004818584,-0.07882912,0.074489385,0.050737582,0.060583282,0.18026392,0.118684955,0.0915225,-0.021210372,-0.03958009,-0.035841107,0.09690899,0.5722854,0.018459387,-0.018388927,-0.031898037,-0.088164955,0.092367336,0.14433387,0.15126278,0.062814415,0.06779328,0.05838549,-0.08543798,0.02378717,-0.041906476,-0.013308451,-0.012997776,0.021380305,0.020774066,-0.10828153,-0.18640909,0.083698764,0.22521466,0.12593406,-0.24788475,-0.64871264,-0.011420757,0.6186616,0.24331993,-0.12139892,-0.23220497,-0.043529477,0.21312584,0.11619222,-0.03343731,-0.021803953,-0.029173985,0.04676801,0.03792596,0.002933438,-0.14725496,0.06467992,-0.040621907,0.029419638,0.06227666,0.13692002,-0.19249466,-0.03230651,0.025975734,-0.24221972,0.01948706,0.8972069,0.03706929,-0.18777858,0.042703986,-0.0439497,-0.16861948,0.13316053,0.043010205,0.028048135,-0.030168772,0.0631981,-0.1627336,0.01924321,0.03789574,0.094170995,0.14832416,0.097632416,0.050778452,0.015168846,0.19633448,0.6125495,0.18902245,0.0070914775,-0.0077772513,-0.01665029,0.003256917,0.026879165,0.010021478,-0.032116685,-0.21934013,-0.62082434,-0.2371741,-0.019716427,-0.030909106,-0.07214753,-0.16917583,-0.07578847,-0.048948806,-0.011593695,-0.02326832,0.119489394,-0.022238754,-0.02378343,-0.036803983,-0.010624308,0.46439895,-0.063443616,-0.051310033,-0.015707314,-0.42361918,0.4110834,-0.35646698,-0.040415317,-0.058096364,-0.06501782,0.51225215,-0.055699676,-0.034709707,-0.0039238036,-0.030921489,0.09358857,-0.023677945,0.00231985,-0.033065245,-0.0009046793,-0.1472852,-0.019193381,-0.011009067,-0.015456796,-0.0079793185,-0.20691724,-0.07694402,-0.046629567,-0.07577805,-0.13700853,-0.19622174,-0.2119147,-0.11177355,-0.045618065,-0.055997625,-0.08294399,-0.05979938,-0.05592203,0.017213106,-0.035671085,-0.21316142,-0.03134668,0.0124435425,-0.036484525,0.079135165,-0.08325762,0.026158974,-0.053771257,-0.027951717,0.06516439,-0.015274122,0.0836173,0.047695875,0.027379155,-0.0378623,0.6818305,-0.03957051,0.021736443,0.00073337555,0.08210263,-0.018989787,0.09540123,0.015353918,-0.029609263,0.08511103,-0.065080285,0.07285857,-0.0562504,0.006388329,-0.0061733425,0.011700988,0.07200849,0.027791515,0.09378871,-0.070791475,-0.1855256,0.24736679,-0.059277117,0.10877764,0.1726202,-0.77046037,0.156861,0.092828006,-0.035456903,0.23099227,-0.1560805,-0.072568625,0.10833429,0.04504998,0.08555928,-0.008680306,-0.006586626,0.0044880286,0.031661868,-0.068299934,-0.082219556,-0.060807697,0.029973686,-0.040233515,-0.004246846,-0.07809676,-0.011350052,-0.065350965,-0.21372822,-0.14044924,0.9033951,-0.11286494,-0.20778206,-0.079677366,-0.028929815,-0.043337733,-0.04523953,-0.056779444,0.01599066,-0.064204454,-0.087408274,-0.047893524,0.017683811,0.044467002,0.043594003,-0.0008198619,0.025712162,0.014607213,0.0153745795,0.23483154,0.19643587,-0.10094154,0.010666609,-0.04536271,0.30837363,0.037513837,-0.41019723,0.026909746,-0.019207776,0.13734767,-0.22128914,-0.21952352,0.0052921474,0.014337853,0.015518159,-0.06584641,0.014421612,-0.018543703,0.034381382,0.038351312,0.09025809,0.025644898,0.02679354,0.047443584,0.06482941,-0.06537472,0.06345183,0.037135582,0.07983875,0.0022344142,-0.86372757,0.013468653,0.079422936,0.049113322,0.060614686,-0.07886478,0.061342414,0.043774933,0.029151957,0.039481252,0.104557805,0.040577427,0.021346629,-0.03504619,0.06298053,-0.10583419,0.059514865,-0.03226386,0.004228145,-0.10905109,-0.0072484836,-0.09719056,0.0100192875,0.11623335,-0.30837432,-0.57970697,-0.33106285,0.094442815,0.042318143,-0.0957866,-0.036144882,-0.050554663,0.037809685,-0.03959009,0.050167575,-0.07789937,0.04768884,-0.04523644,0.01534196,0.024116933,-0.010829555,-0.012974888,-0.01154539,0.10047606,0.16832802,-0.00676015,-0.1532871,-0.07947122,0.17527446,0.5330761,0.021997884,-0.60018635,-0.23559117,0.081229806,0.19234717,0.03430988,-0.19178173,-0.1050275,0.02198878,0.02022469,-0.005310446,-0.0042045116,-0.028892286,0.016726255,0.015005946,-0.028169855,-0.018295974,-0.00457868,-0.038492948,0.059049554,0.48632875,0.099736616,-0.013608448,0.032656252,-0.24681129,-0.7157159,-0.17863387,0.05005628,-0.018023938,0.1050646,0.4764328,0.040073812,-0.04480141,-0.010877583,-0.012842424,-0.018928066,0.02469951,0.0132787675,0.004734367,-0.033775464,0.003851086,-0.02617389,0.0067782737,0.040701725,0.08460325,-0.2653753,0.072249666,0.03206828,0.047370657,0.25340238,-0.5037256,0.23699163,0.060905762,0.038147043,0.07418352,-0.2758878,0.08725333,0.040820956,0.008101935,-0.011581413,-0.0065912306,-0.00691849,0.013604403,0.01610583,-0.03832978,-0.028954498,-0.034704298,0.007121682,0.031980038,0.06954819,-0.27394295,0.059755296,0.042332023,0.039453924,0.3039988,-0.5569129,0.275665,0.051472425,0.04236673,0.12080304,-0.32171857,0.09806472,0.04737164,0.009658664,-0.023757046,-0.04573767,-0.038139343,0.013408363,-0.0015641749,-0.019692212,0.08769459,-0.0034364313,-0.010472268,0.0007799268,-0.044873107,-0.19968534,-0.016727418,-0.020049587,0.048731048,-0.076207384,-0.44861546,-0.120110616,0.0327677,-0.005475208,-0.041253448,-0.22450158,-0.029286921,-0.006563872,0.011216462,-0.019733965,0.08874446,-0.007608354,0.010084972,-0.12685919,0.08136463,-0.06375918,-0.039301988,0.21442875,-0.12839286,-0.0117340535,0.17345282,0.09357935,0.05583325,0.18941997,0.25223792,0.41065803,0.29233038,0.19007403,0.17672688,0.091405824,0.10821191,-0.044393167,-0.040210977,0.15800028,-0.022784233,-0.061654627,0.07112754,-0.045181282,-0.0077991486,0.119606525,0.074317485,0.09880115,-0.029944807,0.11077552,-0.13920745,-0.42266297,-0.13511932,0.10122763,0.08889121,-0.36859173,0.40946746,-0.38216284,0.08521849,0.11227931,-0.15426248,-0.45655322,-0.14925842,0.12504724,-0.007428512,0.10077928,0.08827484,0.11261677,-0.010123521,-0.0062642694,-0.03623569,0.07757602,-0.050941203,-0.042791992,0.03497164,0.10201295,-0.242515,0.017302215,0.05493129,0.12261245,0.35847706,-0.7869664,0.3071193,0.08551228,0.045791537,-0.0094471425,-0.24872774,0.112624444,0.037799776,-0.02302213,-0.012911618,0.02512943,-0.030866012,-0.031636596,-0.059381366,-0.10425185,-0.21519133,-0.10189096,-0.04655778,-0.0100739,-0.25813702,-0.7890467,-0.24528377,0.0018027127,-0.015630558,0.01202476,0.008203603,-0.035153076,-0.013502307,0.01769936,0.2602874,0.7538585,0.2642758,0.022102904,0.035762675,0.11889263,0.22957858,0.10842526,0.034360588,-0.0136784315,0.04589428,-0.1448866,0.0033854395,-0.03811717,-0.009990558,-0.14557455,-0.18173113,-0.026521355,-0.011114538,0.011474386,-0.22910981,-0.18729036,-0.26745287,0.034579717,0.007917017,-0.007408574,-0.17720495,-0.13527381,-0.016173601,-0.0732712,0.026089057,-0.15212002,0.011222124,0.0028351508,-0.014878899,0.07208683,-0.10536683,0.051524602,-0.008060776,-0.022815317,-0.07213175,0.111144185,-0.072218254,-0.009595749,0.073168755,-0.5442884,0.917572,-0.48040172,0.04543048,-0.01241526,-0.08577129,0.12905505,-0.0602753,-0.014146745,-0.008077621,0.03493136,-0.09057774,0.040548228,-0.014159888,0.0094596,0.014030978,0.06725818,0.0062306076,0.0074748695,0.088408686,0.056924947,-0.29606372,0.056825213,0.08719322,0.24640803,-0.123595476,-0.6267045,-0.12086343,0.2184549,0.0774295,0.04284566,-0.28157905,0.08418262,0.08660573,-0.004158668,0.0031096637,0.047852628,-0.0019250065,0.011169128,-0.041946203,-0.01085335,-0.0038102865,0.004465744,0.03094934,-0.100762874,-0.19641466,0.04690578,0.23254982,0.12666038,-0.22747254,-0.65410554,-0.023244292,0.6150445,0.24029619,-0.1042209,-0.2040999,-0.03882751,0.20100935,0.13607432,-0.03855297,-0.012307763,-0.011404752,0.020143747,0.039669238,-0.13199157,-0.028426468,0.15181048,0.041844532,0.08349991,-0.21060899,-0.1002218,-0.121885896,0.0015417337,0.17531425,-0.10236582,-0.19981788,-0.24204606,-0.16102551,-0.16862082,0.29330164,-0.0069098473,-0.101191044,-0.1347385,-0.12499154,0.18566316,0.056601245,0.11943986,0.02260954,-0.16849594,-0.02418778,-0.06246069,-0.0041576624,0.022112101,-0.0113595575,0.092098475,0.031717062,0.00993662,0.062209934,0.028436214,-0.2867473,0.18382123,0.6800727,0.2041314,-0.2504512,0.004488675,-0.022553273,0.059164047,0.034719996,0.03519713,-0.015623115,0.032227267,0.02917166,-0.0567403,-0.010284305,0.05384183,0.024599344,0.018523492,0.035888635,0.03913866,0.027758494,0.03737235,0.057595134,0.019922063,0.02196902,0.00044828653,0.08982992,0.54099965,0.0427301,4.1127205e-06,0.026003748,0.049238324,0.06473902,0.04529728,0.026440874,0.04930225,0.035959005,0.027822368,0.032734223,0.051543117,0.04349208,0.10079789,0.19576308,0.09488636,0.03332615,0.014450176,0.25274682,0.71199507,0.23706631,0.018308796,-0.007283941,-0.03917992,0.010891825,0.02913732,-0.004059799,-0.02517762,-0.25363865,-0.76144004,-0.2556008,-0.011882305,-0.020494148,-0.10481948,-0.20069894,-0.1126234,-0.033064127,-0.014686905,-0.045596465,-0.11231007,-0.043675065,-0.03184226,-0.022568852,-0.1582243,-0.19872381,-0.13886341,-0.05291748,-0.09184423,-0.19672182,0.51670116,-0.18842335,-0.11435598,-0.046737388,-0.17865826,-0.22730929,-0.17468119,-0.03910774,-0.013265751,-0.049744178,-0.13795441,-0.06010823,-0.023983687,-0.006693326,0.04886481,0.039523125,0.044581547,0.008828506,0.0109644085,-0.07846738,-0.031386063,0.0436579,0.052408338,0.05562087,-0.20151672,-0.865087,-0.24221888,0.08365244,0.030956868,0.02172941,0.088285506,-0.029664755,-0.014082953,-0.002839744,0.017870963,0.021828597,0.043623146,0.00054323673,0.01098793,0.045251906,0.009707723,-0.19904546,0.013800621,-0.11002648,-0.097194105,0.11310211,0.17536658,0.103615,-0.13651729,0.2858723,0.57667047,0.21336538,-0.116421856,0.11927247,0.13697568,0.113808975,-0.07644674,-0.097299606,-0.032511108,-0.1752524,0.029325765,0.04836598,0.010400411,-0.019548994,0.020453127,-0.04089284,-0.00736247,0.0075213164,-0.016600952,-0.0038928092,0.23206326,0.042586852,-0.02369833,-0.0027326941,-0.0016408563,0.5568668,0.018604875,-0.031171083,-0.0012111664,0.010132365,0.22908661,-0.005831614,-0.0054059178,0.025057137,-0.0227288,-0.00046660006,0.0043787956,-0.030119449,-0.025054544,-0.030301124,-0.057732165,-0.02798919,-0.019357983,0.0036077797,-0.16738984,-0.44776434,-0.1458567,0.0053159,-0.056871295,-0.04414648,-0.10149353,-0.06921552,-0.04486429,0.014477521,0.14080945,0.5293827,0.13842562,0.012974724,0.028140262,0.051647544,0.08914372,0.07235726,0.018465735,0.033477813,-0.014687568,0.212419,-0.02425459,0.040312707,0.0354653,0.03320919,0.31461042,0.05001867,0.033230394,0.06306808,0.40798718,0.56708145,0.36771244,0.07589981,0.015835226,-0.006636232,0.3522461,0.020066977,-0.01898563,0.04103349,0.0031606555,0.17867988,-0.025126088,0.08070202,-0.012992062,-0.052983075,-0.15226379,-0.06386006,-0.007304211,-0.009221166,-0.21435459,-0.71612346,-0.24180217,-0.018312871,-0.027452052,0.043459818,-0.04492387,-0.008339312,-0.0039437898,0.026184648,0.16287214,0.6455021,0.17299545,0.02436392,0.02051568,0.068320215,0.21170196,0.081028685,0.030741096,-0.08556047,0.010374427,-0.043029577,-0.05500582,-0.016406938,-0.010423601,-0.026046824,0.29659548,-0.19919959,-0.03033763,-0.025099099,-0.08466905,0.60102206,-0.112529814,-0.026018016,-0.031573564,-0.1423049,0.2029185,-0.043718457,-0.03368169,-0.014300713,-0.010437943,-0.039151847,-0.008933544,-0.12691468,0.019901425,0.008108474,0.014149159,0.015438914,0.012251422,0.0071288347,0.11898026,0.24193153,0.15080008,0.012996703,-0.11019948,-0.311328,-0.37032247,-0.28817105,-0.11189295,0.031118184,0.12327689,0.19313833,0.0994374,-0.025875013,0.025860816,-0.0023339689,0.017106771,0.019587189,0.032798827,-0.0050175786,0.01984781,-0.2434007,0.0026587546,-0.015848152,0.021912247,-0.0021427535,-0.3164761,0.062030286,0.0096591115,-0.13987869,-0.17393325,1.0689609,-0.10835004,-0.13550025,0.009212673,0.092286885,-0.24231593,0.010527402,-0.024493314,-0.017710365,0.0028688312,-0.21695387,-0.006271571,-0.01165661,-0.011576951,0.013047814,0.0941959,0.007094331,-0.0070877373,-0.014606953,-0.0030195508,0.29029357,0.013399914,-0.03845173,0.106998265,0.16310218,-0.8341943,0.20818275,0.12989742,-0.030036613,0.027377678,0.3239834,0.066512585,-0.019747019,-0.0042895377,0.015914842,0.10500836,-0.005045089,-0.017980754,-0.0326408,-0.071539536,-0.35200858,-0.086500436,-0.031248525,-0.046317756,0.09176126,0.13249779,0.054089114,-0.044799194,-0.34293807,0.053307116,0.8601536,0.12955032,-0.30404812,-0.09226165,0.09660745,-0.017156564,0.09334186,-0.06989846,-0.07042816,-0.06585023,-0.30849227,-0.07740641,-0.058380898,0.0044320226,-0.023558274,-0.14234045,-0.02317506,0.0042627603,-0.021654293,-0.11401892,-0.078825116,-0.12540013,-0.021190122,-0.12561983,-0.12438626,0.90394074,-0.1314807,-0.1533503,-0.01610601,-0.12629816,-0.11130619,-0.111041866,-0.024664208,-0.022297084,-0.04018326,-0.11724593,-0.055462353,-0.030515373,0.027542323,0.08417371,-0.06734839,-0.03236734,-0.014187425,-0.011666656,-0.030274957,-0.4367705,0.058837976,-0.04791242,0.02528143,0.27254394,0.20488033,-0.37756076,-0.07906982,0.06541342,-0.004647374,0.28429872,0.0044456124,0.05003284,0.012042031,0.065289676,0.06193909,-0.07220042,0.04147443,-0.033950567,-0.045306176,-0.096741974,0.03939998,-0.018246703,-0.04302266,-0.0712283,0.17734493,-0.01970158,-0.06535599,-0.11968069,-0.01854182,0.5748755,-0.12190448,-0.12889168,-0.07509959,-0.022489637,0.19054322,0.0061466843,-0.05594307,-0.05014009,0.063563496,-0.056806445,-0.067938,-0.0003195107,0.031600386,-0.030088235,-0.024994373,-0.024827719,0.025993198,-0.012437418,0.0035734773,0.021182925,0.023371264,-0.01800108,-0.05399388,0.23259015,0.5873846,0.23826343,-0.06419204,-0.0051805377,-0.031436786,0.014037378,-0.038492195,-0.0071228445,0.025332272,-0.04782951,0.024441835,-0.04666415,0.033513367,0.001123935,-0.025894612,0.016852317,-0.024372429,0.005365506,0.03936352,0.03605394,-0.20648827,0.10550864,0.02912867,0.035497352,0.34021208,-0.68628323,0.37523153,0.03993264,0.024359375,0.09032756,-0.14304644,0.015765607,0.038684607,0.0026324093,-0.032048374,0.0015338622,-0.012312472,0.004578322,-0.018671393,-0.019432276,0.0027536526,0.068496585,-0.025770262,0.055532653,-0.01165995,0.091016926,-0.054852635,-0.025595948,0.16065758,0.4287947,0.14362156,-0.595769,-0.14757548,0.054366495,0.039510638,0.0077694505,-0.13114859,-0.045754343,-0.029724002,-0.040512756,0.026196439,0.06069985,-0.026820809,0.013683349,-0.053199798,-0.04352049,-0.01706706,0.009629011,-0.030720532,0.04201889,0.58554983,0.1368146,0.026030235,-0.0006555319,0.21100238,-0.07577982,-0.15783289,-0.03038524,0.02881062,-0.0154260155,-0.4919378,-0.25415677,0.019924589,-0.011733696,-0.09740065,0.0261743,0.056303527,-0.012248039,-0.029888703,-0.01139598,-0.011438295,-0.0027690604,0.024894014,-0.07386461,-0.16475207,0.013869166,0.15388502,0.06982267,-0.15960807,-0.4003551,-0.034988955,0.43838984,0.11937401,-0.070679635,-0.17142731,-0.03185141,0.12673332,0.08108944,-0.03062649,-0.017044902,-0.017491102,0.003495574,0.039054304,-0.027800772,-0.0038561523,0.06993757,0.0027105808,-0.017580763,0.06145714,0.042471156,0.15160498,0.051572576,0.04528722,0.028638542,0.27954695,-1.1470336,0.20433342,0.043267615,0.055041958,0.024321735,0.1161309,0.05217582,0.054067913,-0.026543498,0.0022539943,0.10168624,0.008390069,-0.0215016,-0.005331196,-0.05435567,0.10990165,-0.03952679,-0.00757451,0.04826414,-0.19172157,-0.073126405,-0.20817825,0.055049963,-0.022899479,0.029956102,0.6481904,0.05246097,-0.025589123,0.056210373,-0.18777496,-0.074662715,-0.1902195,0.04904949,0.021210365,-0.05024667,0.082193464,-0.05754701,0.009683505,-0.050187975,0.038005233,-0.29083937,0.024574246,-0.05476117,-0.010185453,0.07106474,-0.1727476,0.049033005,0.016150262,-0.32822153,-0.028306305,0.55001116,0.04406181,-0.32357815,-0.04202062,0.11865001,0.092807084,0.089017466,-0.027885139,-0.03990072,-0.0067487955,-0.31458113,-5.926937e-05,-0.04508367,-0.010659456,0.024955899,0.052681487,0.03392139,-0.016057134,0.018122822,0.064211056,-0.0796411,0.06410398,0.016077885,0.047137186,-0.04281032,0.7183914,-0.0009891987,0.038962796,0.041757047,0.093412064,0.024548948,0.07507554,0.035116225,-0.01236923,0.021920115,-0.008386686,0.045425043,-0.015603527,0.021990359,-0.016140133,-0.009830117,-0.013802499,0.03134242,-0.0019830964,-0.15768555,-0.24791692,-0.14835459,-0.02738592,-0.04408975,-0.29649854,-0.24222253,-0.31011733,-0.0051410496,-0.017713986,-0.16252305,-0.2620918,-0.09458393,-0.031918377,0.041690506,-0.029476568,-0.014661081,-0.008570209,0.029421657,0.015143931,-0.028350294,0.11183829,-0.04700595,0.0026928782,0.052131746,0.045346513,-0.172416,0.048011675,0.05543378,-0.0085767275,0.3664541,-0.7538703,0.3297472,0.0037896484,0.090999335,0.076769985,-0.25231057,0.0263541,0.06841783,0.03200303,-0.0056936145,0.08592793,-0.042475276,0.020204902,-0.015288532,0.0164348,-0.07181712,-0.02147936,-0.02915831,-0.0005352646,-0.02322936,-0.07212038,0.06782478,-0.0015282929,-0.0033112168,0.18513435,0.47878,0.17764142,0.01687949,0.03197205,0.063921124,-0.10428515,-0.043999076,0.015990587,-0.0013169716,-0.012850881,-0.07151511,0.016331762,-0.017634183,-0.0025831535,0.049386382,-0.08500299,-0.027885139,0.0109552145,0.028792672,0.21968932,-0.083281085,-0.23485273,-0.040480614,-0.073242515,-0.07884629,0.5520135,-0.040873542,-0.05824767,-0.032724366,-0.25442043,-0.040981412,0.2170244,0.056894273,0.014013261,-0.0652625,-0.09137135,0.08162904,-0.003665492,0.05782679,0.058026597,-0.05505109,0.013113916,0.03653487,0.037726343,0.030648142,0.09287382,-0.013973206,0.05507783,6.055832e-05,0.04669738,0.6332425,0.08554299,0.011455111,0.05031902,-0.016568601,0.06052077,0.010602802,0.030924574,0.03064277,0.03559071,-0.037972853,0.06961627,0.059092462,-0.014859573,-0.0072621107,0.03893648,0.065111704,0.001285363,0.027940363,0.14613879,0.5551697,-0.011690557,-0.028469041,-0.023011582,-0.04280377,-0.12505469,-0.037212223,-0.037233934,0.022018552,-0.15032335,-0.47311816,0.0045515895,0.006585084,0.030266374,-0.029320776,-0.024746984,-0.03448642,-0.024000555,-0.004920341,-0.030104086,-0.0088416785,-0.026567752,-0.013217807,0.042535212,-0.12812701,-0.4825989,-0.055734474,0.020303905,-0.076144874,-0.2662043,0.067070246,0.3030956,0.04353095,-0.009597123,0.045928836,0.38980103,0.04731959,-0.011328749,0.029814929,0.0040086135,0.06925762,-0.013565242,-0.04205884,0.013369098,0.004290819,-0.062248733,0.03844689,-0.050981164,0.004103914,-0.06500585,-0.23841368,-0.15584016,0.0056297183,-0.06753379,-0.11878672,-0.14735234,-0.09679812,-0.04362881,0.049870655,-0.114134625,-0.24840672,-0.07852745,0.005970046,-0.06866312,0.023533113,-0.0804705,-0.007941693,0.0101084355,-0.020764299,-0.040996194,-0.064451724,0.09709814,-0.0058469167,0.041957162,-0.11267176,0.18088198,0.24694009,-0.15161371,0.0044010654,0.039410114,0.48088586,0.03250484,0.0009672195,-0.11442453,0.22093669,0.19356881,-0.0710215,0.02865541,-0.022343613,0.10383296,-0.076462984,-0.030657455,0.011632904,-0.01657933,0.009325817,-0.03521967,0.012699723,-0.010986984,0.0066165626,0.0047549307,0.079972506,0.014119044,-0.036220443,-0.0034368038,0.18483864,0.62560695,0.14461616,0.039794028,0.004408244,-0.016595602,0.1120837,-0.018474385,-0.014807686,-0.010389851,0.0091921985,-0.01328975,0.00541842,-0.0032939613,0.0016783178,0.043168202,0.059483826,0.045024723,0.017600313,-0.022081316,0.048244923,0.23579025,0.07544136,-0.0114140585,0.04141164,-0.27622625,-0.54576874,-0.25368252,0.03753811,-0.023304597,0.09834401,0.23191199,0.06431216,-0.01498241,0.005685741,0.051431626,0.04186544,0.039096147,-0.00022989511,0.007874729,-0.004327208,0.032717198,0.030370787,-0.019288763,0.0030314028,0.10586429,0.26169544,0.12576094,-0.000971742,0.072816595,0.2509176,-0.82722145,0.2545141,0.09727643,0.0390473,0.09758205,0.13172778,0.111778535,0.038241506,-0.016040266,0.045933068,0.05797808,0.02836515,-0.0052226856,0.01642251,-0.061956793,-0.048596025,0.15363735,-0.035886347,0.072485834,-0.17215252,0.14080918,0.053196475,-0.0074151754,-0.010443579,0.028225854,0.7079637,-0.010096639,0.019914389,-0.02166456,0.06085695,0.09956144,-0.10636169,0.05133769,-0.013078615,0.14139456,-0.019875854,-0.06904811,0.015562147,-0.1177963,-0.08478093,0.057177164,-0.026047602,-0.0079455525,0.10366605,0.017796606,0.011853598,-0.11781201,-0.14269951,0.0995816,0.3560403,0.31788313,0.30612785,0.15485057,-0.19830798,-0.11072753,0.001822412,-0.048602343,0.044703066,0.0022288319,-0.014041066,0.061319858,-0.045421004,-0.12428142,-0.059359625,0.029775485,-0.08375737,0.023438066,-0.010002226,0.03761992,-0.15520102,-0.23965384,-0.03163758,0.020915307,-0.058011442,-0.12632503,-0.16947427,-0.1369218,-0.08232046,0.024049751,-0.07818823,-0.24402457,-0.1489417,0.056228727,-0.00066176057,0.02145952,-0.070447505,0.010253239,-0.052880667,-0.061313435,-0.039073445,-0.042541042,-0.046530053,-0.052967414,-0.054757893,-0.04122656,-0.023075044,-0.044481218,-0.05748564,-0.06499707,-0.04649642,0.027606152,-0.044024423,-0.06456798,-0.05710502,-0.05020845,-0.004817933,-0.04307063,-0.05106823,-0.066150516,-0.05631873,-0.04215686,-0.05366119,-0.06472099,-0.02420159,-0.03655587,-0.0053658932,-0.04961261,-0.028798163,-0.012263768,-0.054730326,-0.16229466,-0.061211765,-0.002927497,-0.0229636,0.32294506,0.5280158,0.30996603,0.0063902736,-0.0055668466,-0.055670425,-0.19679245,-0.061079815,0.032629497,-0.030023187,-0.04046616,-0.0023213327,-0.072738424,-0.023115546,-0.015491486,-0.03698782,0.057531923,-0.014718562,-0.011673197,0.0310333,0.040271968,-0.12224886,0.04590644,0.004386574,0.03429924,0.40457314,-1.0332689,0.41384622,0.051264703,0.030887455,0.063552864,-0.1272696,0.07758559,0.020680815,-0.0075038373,-0.027002655,0.05091703,0.0054640174,-0.014267728,-0.0008815825,0.03920281,-0.049595594,0.0016614795,0.013034254,0.0042163283,-0.03622447,-0.3590983,-0.018638879,-0.013284504,-0.0519228,-0.27862868,-0.0824368,0.33069628,0.067468405,-0.013646156,-0.010005005,0.26070642,0.12749185,-0.014942497,0.022237957,0.0031665415,0.037084535,-0.012635022,-0.034774955,-0.04044592,0.016925879,0.00092214346,-0.015917063,-0.00035750493,-0.014672317,-0.19739087,-0.0022241771,0.16921768,0.05367337,-0.11529894,-0.5898517,0.0088875,0.45829973,0.13325907,-0.026090115,-0.13719903,-0.04699783,0.12002787,0.06626153,-0.039599806,0.014887251,-0.00679183,-0.018166114,0.0100311935,-0.0433774,-0.06218815,-0.066128805,-0.059198562,-0.05037862,-0.059421644,0.012340117,0.17925867,0.022038192,-0.06401658,-0.051888943,0.15023749,0.46126392,0.13528672,-0.029276133,-0.0474039,0.033625394,0.18569015,0.01758523,-0.058396846,-0.051186964,-0.070331305,-0.041464955,-0.07246119,-0.042514727,-0.015033029,0.121602565,-0.07468423,-0.07217613,0.011357345,-0.17214435,0.26103562,0.17213598,-0.09499484,0.023976102,0.022295237,0.0636176,0.44227043,0.04356899,0.011644099,0.012847796,-0.11590122,0.1606955,0.25291222,-0.12417338,0.033937722,-0.061599016,-0.0901574,0.11946827,-0.03105402,-0.12573025,-0.072441995,-0.29529798,-0.05380592,-0.1189302,-0.037948728,0.07630265,0.13703121,0.08568218,-0.033587348,-0.3029181,0.13794404,0.24717887,0.054878652,-0.29095098,-0.06210494,0.08793442,0.01881884,0.10487366,-0.050046705,-0.15093848,-0.057627033,-0.2533783,-0.08354658,-0.13570246,0.03721735,0.09603947,0.174122,0.09308578,0.029985756,0.028235376,0.25048786,0.67056036,0.24099468,0.017340511,-0.020389363,-0.011218309,0.059143096,0.0490662,-0.008465573,-0.031362165,-0.24900045,-0.68061405,-0.2309852,-0.024338394,-0.041665494,-0.104873195,-0.22590816,-0.10812998,-0.032607995,-0.0042797625,-0.030853212,-0.037366837,-0.03569588,0.034328427,0.050920397,-0.01589495,0.001310125,0.081777185,-0.06959171,-0.024810575,-0.044509385,0.83806324,0.0075271875,-0.03631161,-0.020252788,0.06437399,-0.00013107061,-0.0019590855,0.037629843,0.021535158,-0.04325518,-0.0646857,-0.019036055,-0.0024917424,0.013920955,0.02213481,0.047337145,0.0018700957,0.038502246,-0.0068704486,0.054939926,0.20128745,0.055825472,0.00302428,0.03001064,0.19341129,0.23250985,0.17926882,0.023192823,0.0025462657,0.060795814,0.20150898,0.070818424,0.021872196,0.008206327,-0.0043147504,0.058368683,0.018469729,0.011319645,0.031751186,-0.07085803,0.023587048,-0.01686874,0.04095329,-0.06868927,-0.10435361,0.22918151,-0.0056326985,-0.000878565,0.0036144704,0.28614673,0.6402439,0.30438346,0.033203304,0.010878712,-0.09812865,0.21240696,-0.115722656,-0.11240345,0.048759468,0.0058576483,0.03208348,-0.07462525,0.0045515597,-0.015016556,-0.0031613111,0.029817745,0.13180403,-0.00017659366,-0.020119037,-0.05516105,-0.15939254,0.3837604,0.17562455,-0.009787098,-0.05397299,-0.43281436,0.040635932,0.056480944,0.23280664,0.35966063,-0.24282184,-0.069658935,-0.021591155,-0.020519167,0.13439916,0.021401286,-0.013722122,0.007724587,0.023424327,-0.020312408,0.0639479,0.100042805,0.027894333,0.096484736,0.2542801,0.23851475,-0.07203323,-0.028568916,0.0084355995,-0.21487376,-0.6123931,-0.26977706,0.0050176894,-0.03564942,-0.095514506,0.184455,0.21354939,0.07909873,-0.00077445805,0.12639597,0.063899785,-0.020562172,0.04653345,-0.004045319,-0.07851364,-0.24681742,-0.15989377,-0.01635623,-0.011778817,0.3563145,-0.0018332377,-0.12729236,-0.0039099455,-0.021728173,0.32210225,-0.3615182,0.29511005,-0.040364727,-0.049004465,-0.065588236,-0.108926564,0.4036222,-0.048930287,-0.01004228,-0.1144253,-0.27039784,-0.04458821,0.002002392,-0.008662432,0.024846993,0.0024347901,0.016868502,0.00049829483,-0.025998235,0.11715594,0.31483445,0.113814905,-0.016831651,0.00011099782,-0.23668115,-0.5714615,-0.27880237,0.0042400435,-0.044198632,0.099524915,0.28279787,0.100672156,-0.02491109,0.0022661984,0.03520195,0.017288037,0.04163138,0.027016819,0.01461491,-0.041003644,-0.04096259,-0.01477465,-0.007880658,-0.0051838607,0.037460804,-0.006093962,0.0006472636,0.012875326,-0.008073829,-0.057580255,0.8139936,0.012428403,-0.026031934,0.022132635,-0.00042472035,-0.027716704,-0.0023761988,0.012632297,-0.0038163513,-0.022747666,-0.020611227,-0.031269953,0.01759009,0.046123147,0.078678176,0.20569421,0.0724925,0.038685553,0.022013247,0.23339733,0.6879848,0.20813653,0.009644806,-0.008161828,-0.0059829913,-0.028026283,0.0206355,0.0021691918,-0.0039360076,-0.23129505,-0.7067077,-0.25912467,-0.004273236,-0.03713779,-0.07997343,-0.2111007,-0.1065083,-0.042119436,0.004949838,-0.008169711,0.04743266,0.025251657,-0.0042217374,-0.020024702,0.027607858,0.09735587,0.054031447,-0.0052955523,0.031913653,0.16158164,0.31035635,0.09485614,0.050735492,-0.013749063,0.047634423,0.10750137,0.055416554,-0.0053540617,-0.021660373,-0.011025935,0.10372129,-0.00020116754,-0.020662963,0.03561598,0.01943022,-0.010309346,-0.014557421,-0.031528533,0.09750967,0.22171313,-0.017772108,-0.22196028,-0.10231316,0.21141244,0.6128458,0.005608201,-0.6357954,-0.2352793,0.11902526,0.2122966,0.058937937,-0.21116242,-0.119404264,0.043239295,0.011941969,-0.00985885,-0.0160591,-0.057576597,-0.013856855,-0.05343771,0.061121106,-0.0335269,-0.020799518,-0.060996696,6.058812e-05,-0.02347456,0.025114387,-0.04939705,0.08263299,0.64430946,-0.9468292,0.7115218,0.056410134,-0.038615704,-0.011162352,-0.018775806,-0.03337255,-0.060606547,0.0043815672,-0.058234513,0.07730186,-0.037987217,0.0019063652,-0.026051115,0.030116111,-0.027531985,0.006899528,-0.014510334,0.00089275837,-0.072229326,-0.17569265,-0.06296434,-0.012949377,-0.07991433,-0.13499042,-0.36752447,-0.10584986,-0.05746632,-0.021071374,-0.04108979,-0.15250856,-0.07036774,-0.0003209114,-0.0048772097,0.027515873,-0.035182714,0.0048253536,-0.00019565225,-0.020909742,0.009199768,0.033313222,-0.026113614,-4.5478344e-05,-0.021912389,0.23845159,0.29764998,-0.31562954,-0.014528319,-0.01382833,0.05712971,-0.4591902,0.07944251,-0.015219599,-0.00024357438,-0.29580852,0.30942476,0.22494155,0.010378629,-0.03254883,-0.031413805,0.0126669705,0.007513061,-0.022989213,-0.01454398,0.052320838,0.17058876,-0.26130754,0.051466987,-0.0010415316,0.06818995,-0.26522958,-0.17988348,0.12604924,-0.05086769,0.16460781,-0.6339247,0.11861884,-0.05294019,0.12450259,-0.18715236,-0.27814814,0.084741496,0.004897855,0.03140908,-0.23825546,0.16491905,0.053097107,-0.023598306,-0.0070335343,-0.020628624,-0.021809638,-0.0123555325,-0.0054020286,0.0052496493,-0.08892216,0.03458614,-0.10122377,-0.027156807,-0.052775085,0.08303973,0.6989484,0.11376816,-0.032484964,0.0019166172,-0.08246024,0.027162284,-0.08709582,0.007426558,-0.023800224,-0.005112201,-0.043699995,-0.022425745,-0.032521114,-0.011714935,-0.0011846572,-0.21404764,-0.01729253,-0.0055893958,-0.001745224,0.033473343,-0.1547091,0.02342388,-0.011003122,-0.2211377,-0.15309852,0.8880093,-0.073279284,-0.24672276,-0.027380288,0.038164854,-0.12559898,0.03737384,-0.023044407,-0.020604968,-0.00922849,-0.21314913,-0.02872774,-0.031083241,0.09852296,-0.23546796,0.09261407,0.07735109,0.010856777,0.10456815,-0.14582433,-0.3819648,0.14918748,-0.02003774,-0.042296592,0.14362544,-0.56722784,0.10797698,-0.040624082,0.010834217,0.13588625,-0.27793568,-0.17151555,0.10135898,-0.015263908,0.08556777,0.11959335,-0.3053641,0.08313422,0.061738044,0.034366995,-0.016465504,0.00731197,0.04439956,0.087230444,-0.033240914,-0.35724115,-0.05857591,0.07249515,-0.029354244,-0.08781791,-0.1425363,-0.098217726,-0.0026091933,0.035061166,-0.040649444,-0.38236198,-0.09661029,0.04893607,0.05634713,0.007229209,0.03230965,0.017345399,0.054465562,0.02995494,0.014611438,0.013901174,0.0053875744,0.0021170378,-0.031795353,-0.09262738,0.14737666,-0.04763612,-0.03590348,0.028099552,0.074892014,0.6447183,0.063911796,0.028700555,-0.010126799,-0.063430816,0.15708098,-0.07650763,-0.011553645,0.0020974874,0.013218461,0.010753974,-0.0034904107,0.0049773753,-0.0002862811,0.02229619,0.02884388,-0.043973148,-0.019522965,-0.0030957013,0.0017198736,0.09472108,0.0022232682,0.094635315,-0.14880878,0.087367356,0.7068367,0.16107273,-0.22443172,0.108408466,0.009069696,0.1170967,-0.021697268,-0.0043442473,-0.056705356,-0.0868596,0.03469656,0.046703,0.013003409,-0.057705313,-0.07702742,-0.11758457,-0.10291014,-0.032187264,-0.07731864,-0.05164722,0.15209764,-0.0063801706,-0.08725873,-0.14177534,0.20994689,0.66801834,0.19455035,-0.14087188,-0.10017779,-0.008680135,0.19502077,-0.051902175,-0.10223345,-0.043200236,-0.0938355,-0.10246633,-0.09988928,-0.04820758,0.0023535192,-0.047957018,-0.008767337,-0.052954033,-0.0025993586,-0.03372501,0.046097696,0.31032202,0.06941866,-0.019718125,-0.03621739,0.3175212,0.5703963,0.35112354,-0.033945113,-0.027161747,0.030606814,0.2896783,0.044633895,-0.022954926,0.0025929809,-0.038655132,0.0098762475,-0.014218688,0.0022487864,-0.045104504,-0.046579238,-0.18632366,-0.049956083,-0.0600902,-0.12866376,0.071729906,0.21689054,0.1025494,-0.08784035,-0.23963064,-0.038732648,0.70272744,-0.022318631,-0.24455886,-0.029874295,0.0983572,0.20060724,0.07576257,-0.024406016,-0.06954358,-0.04428945,-0.19825995,-0.06485936,-0.09222981,0.0004233122,0.05130064,0.093862146,0.03955406,0.0071868002,-0.011259962,0.12109181,0.4761373,0.16172203,-0.018351272,0.0388346,0.03438493,0.060895234,0.04183787,0.02081275,-0.0126597285,-0.19417006,-0.5645075,-0.17154017,-0.017722577,-0.015170991,-0.065773144,-0.12518975,-0.077228844,0.005261749,0.019999325,0.011480667,0.038199127,0.032309115,0.04587826,0.02725774,-0.007992629,0.09329265,-0.08794564,0.0070856363,-0.022332966,0.117780015,0.50561285,0.16573691,0.025056124,-0.0334038,-0.066221215,0.089061655,-0.039909795,-0.05513028,0.059713528,0.028504372,0.008693337,0.022714525,0.056910515,0.033334598,0.041261196,0.09152532,0.020819694,0.032647833,0.027563617,0.026729882,0.09330849,0.06316401,0.032014966,0.09094979,0.060911685,-0.91670835,0.061756186,0.08108312,0.033986896,0.05211024,0.09697633,0.028185232,0.022294953,0.02782169,0.036004007,0.08670351,0.029754363,0.024955675,-0.14514585,-0.06687156,-0.13791138,-0.09598118,-0.15825045,-0.13365576,0.116177544,0.240961,0.16697156,-0.16094932,-0.14046979,0.30469692,-0.3139079,0.3576444,-0.12926117,-0.13297395,0.16012369,0.3623594,0.09809071,-0.14903751,-0.16376117,-0.09815082,-0.13526337,-0.08989027,-0.1727581,0.009500831,-0.03134793,0.013241559,0.046025604,-0.022416078,0.062163323,0.10791573,0.0071510673,-0.11811197,-0.04092236,0.1299764,0.4773636,0.054548085,-0.5683778,-0.18745135,0.0666259,0.117997766,-0.0042400956,-0.12128122,-0.07813382,-0.0059471577,-0.030112743,0.041985244,0.02867794,-0.039799884,-0.011999369,0.00956966,-0.14057323,0.011025354,-0.00930509,-0.07570547,-0.1422554,-0.2570053,-0.11333439,-0.053330332,-0.00028297305,-0.00074819475,0.6673908,0.06159863,-0.004589647,-0.04611343,-0.08020979,-0.14917508,-0.09672628,-0.047462873,-0.04265055,-0.004879117,-0.13330957,-0.005642988,-0.030622616,-0.001204107,0.04337716,0.013010368,0.04056385,0.026892558,0.025975194,-0.030949831,0.00070658326,-0.033374846,0.017224878,-0.014965251,-0.04500004,0.80648214,-0.047920093,0.00014072657,0.014684051,-0.034819007,-0.011063723,0.012006149,0.020727813,0.017679468,0.024044633,0.01262033,0.034096066,0.014533199,-0.04893814,-0.015381987,0.007434696,0.024994142,-0.024145752,0.04016701,-0.038864553,0.14704947,-0.026670545,-0.025089502,0.13157485,0.09424171,0.4556327,0.14329499,0.16014914,0.027977824,0.056854054,0.109393656,-0.06633121,-0.035919428,-0.04619391,0.0054832697,0.06726831,-0.018607467,-0.01668322,-0.09004157,-0.06701416,-0.17300336,-0.07223658,-0.087148726,-0.040076196,-0.008211315,0.03001493,0.015288323,-0.047925383,-0.17156264,0.07168335,0.6278012,0.12977934,-0.173937,-0.08480707,-0.009310216,0.10359344,-0.01034978,-0.0949649,-0.08950283,-0.09018129,-0.14919245,-0.050925076,-0.115737244,0.046305925,0.018262222,0.01698646,0.0059697703,0.025730878,0.03478974,0.023928106,0.17037123,0.07010546,0.058282677,-0.016750515,0.14135963,0.5282466,0.17442471,-0.032433666,0.032125723,0.090161055,0.23090753,0.0493452,0.01314193,0.048891917,-0.0031556785,0.012269177,0.012849897,0.029934824,0.008513927,0.016031504,0.08921282,0.011553094,0.007213345,0.0010437369,0.0011240393,0.14126372,-0.0021133274,0.0048398767,0.088817805,0.22737415,-1.0909096,0.23274557,0.092921436,-0.00059372187,0.014401965,0.17331535,0.024529785,0.008065447,0.016028998,0.0031263828,0.0782035,0.010171652,0.0033093095,-0.037528083,-0.02501452,-0.14861645,-0.0202699,-0.052900895,-0.02662164,-0.040496618,-0.23097168,-0.051711887,-0.027308602,-0.18680419,-0.19847633,0.36169603,-0.17490874,-0.1918565,-0.0013215542,-0.042379696,-0.18018192,-0.044501662,-0.0148867965,-0.07717089,-0.036236793,-0.17354093,-0.029761426,-0.09041221,0.045754544,0.012867868,-0.18764594,0.0016661733,0.036227938,-0.07798529,0.13737133,0.017656803,0.004895687,-0.023643302,-0.0586202,-0.08972872,0.6597305,-0.149497,-0.07519236,0.028628066,-0.07723436,0.16212164,0.14238995,-0.10689515,0.029423714,0.001587919,-0.20594166,0.045173258,0.03427522,-0.01964324,-0.04329466,0.22392187,-0.03876337,-0.025232166,0.029749095,-0.1111238,0.15788186,-0.07920465,-0.0021309555,0.020541124,0.27983874,0.36185974,0.33338812,0.019959643,0.049610388,-0.07679345,0.07805967,-0.14380026,0.06485629,-0.031278837,-0.032747597,0.19260442,-0.04871814,-0.034320142,-0.019787848,-0.01460135,-0.06250952,0.006614089,-0.12310317,-0.017583713,-0.24720645,0.29239303,-0.022541061,-0.016760513,-0.06682035,-0.08731915,0.61961734,-0.08603055,-0.06631674,-0.05609205,0.015557654,0.21843505,-0.1868884,-0.011594012,-0.11051361,0.025177479,-0.09961845,-0.0110229105,-0.0059365556,-0.04710429,-0.043950364,-0.08101183,-0.056183137,-0.048388943,-0.040014267,0.060631976,0.17603466,0.122884095,-0.027110215,-0.069214106,0.20350699,0.2835944,0.15981632,-0.061854422,-0.07245636,0.13019794,0.23215863,0.078279085,-0.04774162,0.0051490963,-0.030911222,-0.024616376,-0.0015709102,-0.009644985,0.007891506,0.09215673,0.0773307,-0.016813308,0.033138692,-2.8699636e-05,-0.11206061,0.18361165,0.24288556,0.09615594,-0.01271075,-0.23052192,-0.59683913,-0.21836728,-0.038512886,0.087222196,0.21198088,0.22314444,-0.060878187,-0.025247246,0.022001088,-0.019021079,0.08983068,0.105368756,0.00049066544,0.014640391,0.039585233,-0.004396826,0.0006199628,0.0062381923,0.08224331,0.14355277,-0.06440635,-0.20352894,-0.08526645,0.25144026,0.6468501,-0.03897047,-0.65284854,-0.2759944,0.09040427,0.16779426,0.03383732,-0.16644134,-0.11044899,0.044177443,0.01977706,-0.02906248,-0.0196383,-0.025052205,-0.014266774,0.00071285665,0.021207258,-0.009769559,-0.04225693,-0.013893187,-0.009722551,0.16889517,0.04544899,-0.0073489994,0.06973837,0.17939378,0.4698052,0.21222809,0.07078257,-0.02981764,0.029460981,0.15884967,0.03770975,-0.03150882,-0.045562148,-0.008238226,-0.026703715,-0.014439605,-0.058455735,0.053646803,-0.03773254,0.05227311,-0.054720603,0.06525837,-0.0023934767,0.10465576,0.3342636,0.09825213,0.00089995563,-0.006804228,0.30249268,-0.9682268,0.30226058,0.00042039156,-0.012416564,0.093850434,0.337921,0.11344519,-0.014421403,0.0572443,-0.009652078,0.012694031,-0.02301737,0.048765976,-0.018832251,-0.04984075,-0.14935993,-0.054022357,0.0012441874,-0.04828982,-0.0081522465,-0.06729789,-0.019147903,-0.019549072,-0.12349831,-0.052242056,0.07176048,-0.074973635,-0.11742911,-0.052204918,-0.015520871,-0.08195517,0.014053434,-0.051050782,-0.008497417,-0.037795246,-0.09517082,-0.035735935,-0.016179264,0.01937538,-0.015241742,0.1059365,-0.1444645,-0.031805187,0.022306263,-0.0709494,-0.19174351,0.22721402,0.10593588,-0.24066915,0.09995177,0.7506306,0.16021729,-0.27414662,0.13894425,0.14981255,-0.16647552,-0.10757591,0.030242383,-0.025593221,-0.14375505,0.078689635,-0.028447926,0.02914229,0.007203128,-0.0019830763,0.035511732,-0.0020035505,-0.0019308403,0.037420705,0.12631148,0.418028,-0.04702691,-0.06514785,0.07752115,0.39602852,-0.105989635,-0.41934025,-0.10328101,0.027659148,-0.039405987,-0.32738352,-0.046528995,0.0021228231,-0.005406648,-0.028467774,-0.05512044,0.019312382,0.03123422,0.020678103,0.007802576,0.02747935,0.022434592,0.007282853,-0.0032085478,-0.005880058,0.12278297,0.009941265,0.00080525875,-0.08575221,0.011443958,0.5747589,-0.036025822,-0.06914723,0.015942022,0.07443829,0.14382774,0.03147461,0.009129137,0.011216819,0.03584677,0.037382614,0.025336444,0.008253943,-0.026361257,-0.02229932,0.41823506,-0.008228719,-0.01670871,0.12344569,0.008500986,-0.1936584,0.026734617,0.116992325,0.12702385,-0.22991167,-0.6055954,-0.21496835,0.14849769,0.12416339,0.050687462,-0.117304385,0.06292924,0.089003086,-0.017582163,0.03572774,0.33257866,-0.0063285157,-0.010304472,-0.04742858,-0.03509271,-0.00024493784,-0.011737615,-0.050908946,0.012170196,-0.015913114,-0.12864774,-0.0035465509,0.0033120448,0.00729391,-0.11115916,-0.4478827,-0.08961415,0.013357565,0.012068838,-0.016858876,-0.10379362,-0.02339602,0.00031733513,-0.030423164,-0.035966188,-0.03178618,-0.02985648,-0.042452037,0.029036649,-0.07748906,-0.14603007,-0.04355579,-0.07179183,-0.031028435,-0.10999909,-0.02242355,0.09379307,0.033086777,-0.0797102,-0.03865236,-0.25893524,-0.07524181,-0.076401934,-0.047207594,0.087110475,-0.0651992,-0.13629247,-0.06256813,-0.09588971,-0.02755981,-0.13985403,-0.057407435,-0.0014393926,-0.0122746825,-0.002766136,-0.030337453,-0.0033536553,-0.009220123,0.017382145,-0.03025198,-0.0061132684,-0.023042232,0.014925316,-0.04498449,0.06541249,0.7259726,0.09703986,-0.018791944,0.013311774,-0.021243125,0.00893838,-0.03767462,0.016423762,-0.0029472187,-0.008997381,-0.02139327,0.0035262555,-0.015511602,0.014276529,0.060204122,0.018806987,0.06660113,-0.0049384832,0.08923292,0.0023789033,0.004462436,-0.0059423596,0.09027246,0.1393854,-0.59283555,-0.006117493,-0.65756565,0.16619419,0.08854431,-0.028366871,-0.0039607435,-0.045048214,0.08478218,-0.0029150248,0.0453645,0.016424233,0.04420629,0.016625166,0.019089967,-0.015868753,0.0026057065,-0.039760344,-0.005186349,-0.0282761,0.01864329,0.25689706,-0.006233033,0.010068618,-0.03385827,0.015883952,0.53306985,0.020514175,-0.03048265,-0.012486671,-0.029682577,0.2514059,-0.010342491,-0.0051118173,-0.021302462,0.009275854,0.0118725,-0.026646495,0.018732592,-0.0065691373,-0.031692877,-0.09919741,-0.03338729,0.008945446,-0.0074612796,0.15821779,0.098699674,-0.05747986,-0.0024441704,-0.10133335,0.107692,0.43029565,0.16346553,-0.0804407,-0.021040842,-0.13283469,0.1956115,0.1856005,-0.0029169917,-0.0077308416,-0.018075578,-0.046155147,-0.0101466775,-0.0053949356,0.10274905,-0.01835315,-0.09296906,-0.03142325,0.09364298,-0.021803506,0.03132701,-0.31595093,-0.05556047,-0.076404124,-0.27944,-0.16931957,0.4811204,-0.15878975,-0.28937027,-0.031251952,-0.058294803,-0.30445996,0.011933476,0.015422583,0.08895146,-0.020926356,-0.09385534,-0.014539182,0.094079494,0.033509254,0.019628823,-0.044165254,-0.005292937,-0.0040661395,0.008681774,-0.080855444,-0.3798682,-0.042635072,0.017535321,-0.103015795,-0.36928055,0.0039707795,0.3438582,0.07381049,-0.010015607,-0.061854236,0.3492006,0.12394065,0.00972271,-0.0018568933,-0.00844986,0.07337266,0.004408166,-0.004241258,-0.031043515,-0.034868024,-0.1181383,-0.040227413,-0.019012436,-0.031369373,-0.029810026,-0.08261329,-0.04155004,-0.0019677132,-0.08730975,-0.10283508,0.111239985,-0.09045231,-0.08183454,-0.03500974,-0.046147965,-0.08544774,-0.04520473,-0.054712072,-0.036292717,-0.026893418,-0.07754777,-0.050367594,-0.01947321,0.060434163,0.04847321,0.109100886,-0.092817955,0.006856501,-0.034566134,-0.056417443,0.069444835,0.14986539,0.22097953,0.0053993165,0.08813986,0.46915382,0.096468866,-0.013662438,0.16661927,0.16250807,0.049768984,-0.0374368,-0.01659,0.007252604,-0.074000955,0.1001226,0.045615077,0.069666475,0.029975336,-0.03381759,0.10429549,0.112482026,-0.10146713,-0.040880367,-0.36008716,0.08206778,0.53481525,0.04939288,0.008419126,-0.12445736,-0.22795632,-0.056634113,-0.019141268,0.057640955,0.44452947,0.07539192,-0.31872454,-0.035982758,-0.08444852,0.12030421,0.06558843,-0.03440827,-0.0018295944,0.0062566996,0.051190987,-0.0054314286,0.032537635,0.016446605,-0.004449673,0.041963857,0.34162894,0.13344544,-0.011838034,0.030386701,-0.26938328,-0.65281534,-0.24368611,0.017279625,0.00088988245,0.102365315,0.27064198,0.03955981,-0.0012730956,0.0071204305,0.02190309,0.05746425,0.043935463,-0.012708649,0.026399463,0.010095206,-0.012104895,-0.006572269,-0.034201413,0.11584465,0.2096632,-0.04526776,-0.2158766,-0.09436649,0.22424868,0.5771797,0.016216531,-0.6310753,-0.2591389,0.108603925,0.22709173,0.028510273,-0.17911704,-0.11554178,0.03277982,0.013079643,0.006743729,-0.015897334,-0.048110057,-0.10067242,-0.058960855,-0.14636478,-0.091766044,-0.040759385,-0.04258369,0.106823415,0.021691542,-0.087577894,-0.07356271,-0.05944574,-0.056021154,-0.2353239,-0.0409687,-0.13611312,-0.089461684,-0.09125307,0.02030898,0.12464045,-0.06357829,-0.026845831,-0.10027328,-0.19057566,0.005369693,-0.10918224,0.0046706237,0.0053552613,-0.0447942,-0.0038523674,0.0018000714,0.0109226,0.0010058582,-0.08525607,0.0019767284,0.02430579,-0.015616223,-0.20967597,-0.4824902,-0.22371778,-0.018108577,0.017475985,0.0008211136,-0.13223463,0.044878334,-0.017092332,0.014405161,-0.016142756,-0.05255773,-0.006756991,-0.008335015,0.06798298,0.009942651,-0.0062237717,-0.005824372,0.011425719,0.09997767,-0.0015955418,-0.33239228,0.01287505,0.006219059,0.11132145,0.2710986,-0.2170461,0.34546676,0.12566829,0.011640176,0.019867301,-0.35611188,0.09992546,0.11020365,0.014599577,-0.017971095,-0.013831601,0.037224293,0.040925935,-0.044303987,0.07158694,-0.012690872,0.00836879,0.008431017,0.08159357,0.41713184,-0.16407362,-0.14958574,-0.010938987,0.06283906,0.038763195,-0.65007764,0.12971891,0.073437154,0.0053349733,-0.132531,-0.09416565,0.4479882,0.043548346,0.005038619,-0.012762964,0.0023445487,0.07526338,-0.05244702,-0.027622879,-0.030165747,-0.012670234,-0.0376746,-0.022715911,-0.0024662018,-0.08511527,-0.20698352,-0.09040019,0.013299227,0.022640884,0.2028417,0.5264604,0.2341008,0.043596506,0.031311303,-0.04001744,-0.20536567,-0.066655636,0.0093969405,-0.010441691,-0.04542669,0.0068815947,-0.019002259,-0.014884174,0.026496097,0.049332887,0.080925986,0.048370972,0.014782757,0.004668772,0.16366619,0.5042411,0.16007626,0.01590538,-0.015299737,-0.07724098,0.041530237,0.033951133,-0.00243482,0.019340046,-0.18300454,-0.5671787,-0.19008829,0.0103287995,0.0113093555,-0.055717573,-0.081911266,-0.06755632,0.0013307314,-0.0070593655,-0.014170602,-0.0056537464,0.09058666,-0.02887164,-0.006867498,-0.11971611,-0.12383138,0.38770142,0.03602758,0.07305956,0.100925736,-0.64335173,0.12672663,0.056752205,0.038716123,0.47545972,-0.10335853,-0.116977856,0.03183089,-0.047412723,0.09732106,0.023954302,-0.023337528,0.0076084137,0.01677835,0.05648136,0.12756455,0.073684216,0.01916796,0.003251329,0.03176573,0.36200285,0.022692889,-0.015542746,-0.13063243,-0.37481228,-0.4559007,-0.3836857,-0.120995894,0.026163608,0.007576864,0.37301183,0.058869675,-0.0010953248,-0.0013428926,0.0646912,0.113028854,0.097714625,0.010925144,-0.026168525,0.027093425,-0.010195091,0.0057006106,-0.008461973,0.0067733377,0.09168208,0.05462581,0.110982105,-0.015021555,0.09198014,-0.057848483,-1.073739,-0.084064186,0.11640811,0.027217746,0.06985021,0.007129714,0.07578489,0.0125409365,-0.010712579,0.0062212124,-0.01240851,0.03891213,-0.026347056,-0.016607076,0.03801626,-0.23102778,0.009085923,-0.00085932016,0.024779081,0.1516454,-0.31034398,0.12832959,0.03233318,-0.23557755,-0.22889698,0.9858998,-0.25724396,-0.23063263,0.01638566,0.1133146,-0.22561738,0.11543001,0.03698033,0.0017559454,0.019755647,-0.27472186,0.0050497353,0.0006699562,0.026933908,0.0029788017,0.024922349,0.008967042,0.010369897,0.015238792,-0.03174351,0.04252273,0.012341112,0.0040895045,0.04944119,0.05252379,0.77847815,0.08938703,0.040182173,0.003527671,0.014897171,0.0694336,0.0062717795,0.014013207,0.010818273,0.011616409,0.04550369,0.009962738,0.0068383515,0.032760747,-0.07164407,-0.15628669,-0.08107813,0.026481062,0.010604367,-0.08117403,-0.07270877,-0.12889479,0.0059668534,-0.04475221,0.1488683,0.8277426,0.18998599,-0.050944448,0.008515127,-0.12544961,-0.030040473,-0.06165585,0.0014004856,0.026727654,-0.06475353,-0.17577606,-0.10292879,0.04469812,0.06910577,-0.0473186,-0.18281257,-0.049451657,0.088380836,0.010489903,-0.025669828,-0.23260625,-0.053104073,0.012220063,-0.13729331,-0.085015215,0.7934561,-0.08576682,-0.14151357,0.0313026,-0.15835677,-0.2655514,-0.093118966,0.039157927,0.09310427,-0.06204717,-0.19693768,-0.064240694,0.10201508,-0.0636962,-0.05537201,-0.15903574,-0.073332384,-0.074842066,-0.07488072,-0.083542325,-0.120938,-0.06452644,-0.1094577,-0.17981791,-0.13135524,0.52477276,0.03741753,-0.23707935,-0.08756989,-0.09048845,0.060593948,-0.010316342,-0.095875494,-0.06855383,-0.09536802,-0.23195253,-0.065597564,-0.08018215,-0.023867209,-0.036796853,0.042394772,-0.042795494,-0.013622634,-0.062184095,0.014831997,0.011673514,0.027640067,-0.067118585,0.11753403,0.5973755,-0.95107317,0.6938392,0.083653,-0.045809515,-0.014014915,0.026490986,-0.024371624,-0.074632525,-0.008924045,-0.034796715,0.04076644,-0.030830353,0.00226897,-0.0131886825,0.064368635,0.013916433,0.038753808,-0.008029968,-0.060215622,0.051941514,-0.073025204,0.028928101,-0.027053893,0.01208204,-0.430962,-0.08068305,-0.43525153,-0.009406298,0.011653945,0.011167191,-0.13751382,0.03524542,0.008196518,-0.03242767,0.061193973,9.351969e-05,0.066343494,-0.025330752,0.053561896,0.063927904,-0.015000716,0.045800507,0.10130831,0.055792734,-0.00844869,-0.011564076,0.13053802,0.036750227,0.009808689,0.06601426,0.4764139,-0.023288548,-0.002288252,0.030980468,0.12499419,0.0356759,0.022084236,0.046352506,0.060567826,0.08489912,0.009924412,0.045339614,0.0672809,-0.024729911,-0.002832353,0.03336826,-0.008841142,-0.009230673,0.04729762,0.0036845505,-0.00049197674,0.011766851,0.033278644,-0.0660803,0.19098377,0.40463966,0.19197571,-0.086212575,0.018430352,0.031584483,0.03802246,0.005342543,0.03408572,-0.021432519,0.015890658,0.0044525713,0.008669794,-0.024340868,0.042118356,-0.0690831,-0.0121551305,0.038722612,0.02979815,-0.055371016,0.12235809,0.08816975,-0.1443764,-0.055430923,0.034745634,0.24625146,0.73912567,0.27432463,0.058123022,-0.039882176,-0.082880914,0.015321344,0.12010044,-0.021751277,0.01659137,0.030623019,-0.0073197708,-0.10388884,0.06185115,-0.013424605,-0.025681943,0.06872845,-0.003044337,0.032938987,-0.044360787,0.06420255,0.32365143,-0.03892553,-0.04663858,0.06011033,0.30591983,0.04750946,-0.36276826,-0.071513236,0.0042045563,0.01611507,-0.339664,-0.12260443,-0.0076672137,0.043247893,-0.029775798,-0.043247215,0.019819163,0.039988056,-0.0003401339,-0.042729218,-0.000692904,-0.03495081,-0.018634818,-0.046934992,-0.011307385,0.049003854,-0.06933518,-0.065304816,-0.06908734,0.014273107,0.6983465,-0.009994954,-0.043854646,-0.06060893,-0.022746488,0.047799706,-0.022596814,-0.044911712,-0.00034614652,-0.021372825,-0.0178487,-0.064605385,-0.016006738,-0.0006967485,-0.020823166,0.0014219582,-0.009598345,0.0007621497,-0.029568851,-0.03475931,0.12757325,-0.026618809,-0.027050763,0.09899204,0.07304341,1.0500866,0.08411592,0.12003941,-0.00754416,-0.010522824,0.1471973,-0.002386555,-0.0254004,-0.0013681352,-0.0014850376,0.0027047545,-0.013178781,-0.0040363073,0.036131874,0.11940545,0.02947849,-0.06436154,-0.07531124,-0.019247312,0.08834663,0.08608115,-0.16011971,0.090834975,-0.1500302,-0.6048128,0.06465137,0.51472306,0.2245112,0.02821827,0.11538157,0.06403699,-0.17391586,0.05988738,0.04260344,0.09473128,0.03943652,-0.057048637,-0.077611536,-0.02421854,0.023466796,-0.098563895,-0.084950715,-0.031060949,-0.07692004,-0.049598545,-0.0695617,-0.036702134,0.0023721457,-0.005172942,-0.04601693,-0.347586,-0.03614658,-0.0020783693,0.009717882,-0.04638356,-0.061825722,-0.08749387,-0.08099443,-0.026850164,-0.08096194,-0.07146716,0.013651177,0.03552515,0.012836184,-0.04707952,0.1239465,-0.06459893,0.0062788688,0.039537802,0.049966156,0.13506263,0.053456336,0.033098996,-0.07456534,-0.043601364,0.85639185,-0.04481384,-0.08478547,0.02479726,0.058024205,0.12218392,0.10060493,0.022512585,0.03108257,-0.055074826,0.07837275,-0.034967154,0.020635754,-0.0010878444,0.020503342,-0.24972233,0.007419318,0.0013528466,-0.008729409,0.016442612,-0.02468729,0.011813734,-0.02485001,-0.25177363,-0.14918603,0.8845161,-0.15272045,-0.26037842,-0.0055885185,0.03138809,-0.056940794,0.048434317,-0.026739419,-0.0043035597,-0.0004079044,-0.24736631,-0.018725574,0.0021947473,-0.03366655,-0.010302961,-0.01757437,0.028271917,0.024950862,-0.095666796,-0.22676055,0.001328622,0.22611026,0.0849861,-0.29686624,-0.6497605,-0.010866076,0.63303226,0.28117067,-0.116746485,-0.20870735,-0.006558329,0.20983824,0.112701125,-0.039728,-0.010951191,0.022195995,0.032574505,0.04130867,-0.051241606,-0.058263004,-0.15203491,-0.04965961,-0.051184773,-0.06859946,-0.20531195,-0.053505514,-0.1823661,-0.07172623,-0.115555055,-0.08961454,0.6464503,-0.0794761,-0.1155127,-0.050755575,-0.19069211,-0.08233862,-0.17462355,-0.04514414,-0.030093214,-0.05117035,-0.13497978,-0.050102204,-0.028902888,0.0321628,0.056903772,0.014491284,-0.024312444,0.025888085,-0.04091701,0.25336313,-0.123221345,-0.08889988,0.07897723,0.09965734,0.17831528,-0.7608814,0.17527607,0.090594664,0.08344159,-0.051989555,-0.19423497,0.24782307,-0.020295247,0.040135354,-0.029262602,0.01301001,0.09036219,0.04651054,0.021364167,-0.0005339384,0.085778534,0.00448665,0.014815986,0.0038924217,0.023861974,0.20008153,0.03557548,-0.0013570487,0.09311162,0.13495015,-1.0869408,0.13897663,0.08125243,-0.020901099,0.04561001,0.21119833,0.035647184,-0.0015249401,-0.00080627203,0.009016737,0.07648376,0.0057065487,0.011751682,-0.010620594,-0.024305053,-0.038879365,-0.04072874,0.0029611588,0.009641781,-0.08360967,-0.3026906,-0.08500484,0.015685916,-0.09817338,0.1959064,0.5094857,0.19377592,-0.095415905,0.015945613,-0.013648767,-0.18614954,-0.033166103,0.026314214,-0.0075151026,-0.0491769,-0.05336809,-0.037388526,0.019800268,-0.042428896,-0.050837506,0.0876472,0.023394987,0.0041183173,-0.030075526,-0.010214321,0.32476494,0.0121586025,-0.017062739,0.09439278,0.30092758,0.11022967,-0.3602224,-0.07266444,0.045670167,0.06890428,-0.36688772,-0.08555952,0.007716,0.02116254,-0.032593317,-0.09587762,-0.004610926,0.042286158,0.057293296,-0.005689483,-0.13177615,0.0043337047,0.045547195,0.080383524,0.031698227,-0.5306388,0.042262495,0.08404291,0.0036853664,0.07054937,-0.088593945,0.06382721,0.0068097115,-0.030897826,-0.08075125,0.5464338,-0.029794693,-0.048959043,-0.052659556,0.010051638,0.19138074,0.050630484,-0.056111515,-0.02810534,-0.032853432,-0.08756536,-0.012639761,-0.054788172,-0.014654078,-0.11858612,-0.5958466,-0.1208867,0.0008819699,-0.045605756,0.010785878,-0.014082991,-0.036899894,-0.027565956,-0.026629835,0.17769992,0.4449248,0.16443515,-0.022355072,0.004630588,0.055325076,0.10769352,0.06355271,-0.0015707761,-0.025808632,0.037520587,-0.09841043,-0.06996308,-0.13472936,-0.056732982,0.07637316,-0.28501582,-0.061501414,-0.08858074,0.029500932,0.28196192,-0.33475512,-0.285959,-0.09100124,0.06328232,0.013581075,0.32044476,0.046881005,0.027330786,0.08957357,0.06428986,0.014872812,-0.012930721,-0.02274055,-0.0041456446,0.020367488,-0.09294601,0.015429355,-0.006624609,0.055855036,-0.026617035,-0.1873259,-0.043101743,0.054517925,-0.075904936,-0.18135801,-0.55199814,-0.19361134,-0.06739771,0.05183938,-0.052185535,-0.18095762,-0.049087998,0.038274772,-0.005610004,0.033631235,-0.06964184,0.019918874,0.008868337
