1,480,-0.070688464,-0.011890566,0.06621401,-0.1090376,-0.047555562,-0.01726926,0.011400957,0.029951511,-0.0623202,-0.009840845,-0.0066224704,0.0301614,-0.011971898,-0.043721072,0.021480473,0.00040581392,-0.0001625742,-0.0129462965,-0.025487676,-0.010873311,0.021234464,0.026213566,0.015646491,0.00025255024,0.018931244,-0.048565727,-0.040459,-0.022379568,0.0028574346,-0.028117841,-0.06678407,0.035064973,-0.010251568,0.012115,-0.013798804,0.014380031,0.0025459905,-0.043018334,-0.060436215,-0.068295695,-0.026060687,0.017573934,-0.053345043,0.003833669,-0.020845544,0.047957122,-0.04283604,-0.08522702,-0.035127796,-0.073086485,0.006321986,-0.038763985,-0.012384247,0.02190084,-0.0030491224,-0.08126427,-0.0033283334,0.022592472,-0.0069151083,0.016610289,0.040526595,-0.050295666,0.009671822,0.024248017,-0.00450189,-0.025492446,0.01108051,-0.014703165,-0.0013596402,0.022639707,0.008095852,-0.05526281,-0.095407985,0.036252305,0.009261415,-0.004591502,-0.036202576,0.01758769,0.0039805747,0.019256277,-0.039552335,0.0099030575,-0.06593636,-0.078470446,0.029713381,-0.00016858587,0.052729413,-0.024222536,0.013749734,-0.0023157524,-0.0020885675,-0.02432739,-0.026436323,-0.012722604,-0.013971557,-0.0037099102,-0.12061656,-0.0115547655,0.030211613,-0.012589317,0.052793548,0.015683614,0.0041138018,-0.007300101,0.046586838,0.010605125,-0.012256846,0.028845962,0.010443695,-0.019906068,-0.0014970372,0.020515874,-0.02124569,-0.03315081,-0.07606363,0.021009345,0.025209999,-0.044829067,-0.013918382,-0.06631688,-0.017780177,-0.010579545,-0.04544789,-0.0420604,0.08037442,-0.049286317,0.01641372,-0.010282669,-0.028722279,0.0025349043,-0.047384612,-0.012693621,-0.00972162,0.02532604,-0.013503773,0.0048947637,0.0049510864,-0.027033323,0.0038219406,-0.025854886,-0.03077284,-0.041154798,0.0216273,0.027658386,-0.019754171,0.020624174,-0.027975908,0.012171172,-0.063926704,0.01572904,0.004501148,-0.06472958,-0.010950757,-0.033862714,-0.012487997,0.0028682568,0.026005527,-0.009684921,0.013391543,-0.0843047,0.01320638,0.014871607,-0.06618963,-0.04409128,-0.009854354,0.029666413,-0.025175542,0.0022516134,0.005163009,-0.015569959,-0.05352442,-0.030470632,-0.07042286,0.0012897522,0.013792177,-0.0051918994,0.011888139,-0.0016088266,0.016098948,-0.01733344,-0.032543994,0.01838033,0.020298833,0.017023174,-0.056626376,0.023064613,-0.03972764,-0.07015091,0.017563667,-0.08767639,0.0057436866,0.0024897384,0.0031440854,0.012706231,0.0011422968,-0.054149292,-0.00906889,0.027321445,-0.019539667,0.0261,-0.008257964,-0.009488154,-0.0012881347,0.011381202,-0.053427577,0.011829365,0.013950804,-0.040415708,-0.0028543985,-0.07254046,0.007290258,0.018573325,0.009648169,0.0019040176,-0.035055704,0.040084988,0.0024416763,0.016356017,-0.02802396,-0.024430333,-0.02163282,0.057210106,0.02264491,-0.004017386,-0.029760767,0.009487203,-0.012694187,0.021026822,-0.01963941,-0.061724544,-0.012421011,0.01197828,-0.072331056,0.07036898,0.012687886,0.0129310405,-0.14049786,0.02192923,0.019261232,-0.06778773,0.029809495,-0.08874565,0.016608564,-0.0534483,-0.0038005188,0.015647072,-0.05660574,0.016940134,-0.0102408985,-0.06309374,-0.20779268,0.03767475,0.01618331,-0.04476616,0.0019189296,0.013403913,0.028159592,-0.0775022,-0.046049256,0.0057000928,0.00029414377,0.02838819,0.013341755,0.024674809,-0.03895287,0.00016197677,-0.030462205,0.0037450683,-0.00018807869,-0.0119335195,-0.028349707,0.013092585,-0.026559746,0.024702076,0.00067980186,-0.053359754,-0.055598818,-0.0033684655,-0.01951107,0.008589903,0.02522329,0.015932774,0.013212918,-0.0139276935,0.0263786,-0.028392946,0.02354826,-0.034235578,0.00662485,-0.104665704,0.02638993,-0.03604951,-0.022817122,0.009280962,0.0044481386,0.020208966,0.010299429,-0.080996,-0.0053502363,0.032540753,-0.027235042,0.020889001,0.009677822,-0.06286015,-0.057615034,-0.0598708,-0.0046832464,-0.05105074,-0.026967041,0.014268074,-0.0017205005,-0.00718726,-0.008152364,0.024351394,0.012991226,-0.071668416,-0.0064466284,-0.0016397007,0.0073207724,0.0077027697,0.008275431,-0.080161035,-0.0018411702,-0.011007711,0.0049421513,0.020283198,-0.03245956,-0.12775944,0.015229599,-0.011378686,-0.030035714,0.0071427086,0.014055188,-0.030743834,-0.00917951,0.016972063,-0.044610426,-0.026421785,0.04858594,-0.021941943,0.0027109631,-0.04496992,0.006383345,0.022753479,0.08266231,-0.004374791,-0.05191418,0.021362057,-0.06783894,-0.056580815,-0.057868566,-0.06705614,-0.10116461,0.031554952,0.059057347,-0.030317847,0.025629997,0.019001456,-0.044841457,0.029617555,0.008712482,-0.03532534,0.025439916,0.004034577,-0.024538144,-0.055618275,0.036374,-0.026964763,-0.046300948,-0.030522706,-0.0060093775,0.052820656,0.0385237,-0.03725862,-0.055227675,-0.0053726584,-0.010895262,-0.012496111,-0.03965624,0.016311824,-0.04534657,-0.02128754,-0.036999553,-0.024765566,0.009460617,-0.019111153,-0.0537871,0.018237457,-0.0321869,0.015060718,-0.031724606,0.030932633,-0.01021883,0.037976954,-0.00038036844,-0.017659135,-0.06966037,-0.0038976576,0.003914621,0.0021774797,-0.017116403,0.0029173463,0.024020953,-0.022914972,0.009860388,-0.019159015,-0.07644572,-0.0480861,-0.046724092,0.029014224,-0.041543923,0.010682287,-0.019335572,0.028599458,0.043855466,0.019770244,-0.112792104,-0.028168507,0.013188231,-0.03068579,0.01267353,0.051353972,-0.0038067135,-0.017353993,0.05074187,-0.061927255,-0.042720903,-0.054307543,0.0021044875,-0.020731058,-0.0030493054,0.032658704,0.016082697,-0.018336445,-0.038321972,-0.002428219,-0.050850563,-0.01993682,-0.03527063,-0.03181341,-0.082515374,-0.036729712,0.032570235,0.025165709,-0.02615331,-0.03374839,0.015449281,-0.034982454,0.016821831,0.079831734,0.029925864,0.014283264,-0.01048286,0.019040093,0.013682825,-0.008898093,0.002403329,0.020635916,0.0018333395,-0.03629549,0.016645426,-0.02540182,-0.0019158905,0.018828684,0.050116107,0.015446317,0.01924399,-0.097524814,0.034115084,0.028453229,-0.0055839703,0.004830592,0.013578142,0.017266251,-0.020117076,-0.011975409,-0.16282463,0.003581658,-0.079078294,0.0091899745
