1,1152,-0.43099642,0.04062814,-0.15185542,-0.166124,-1.5331928,1.131398,-1.1275358,0.6705842,-0.06601526,-2.1560764,-0.22133417,-0.01831221,0.15766484,0.010645946,-0.60540414,-0.074258216,-0.7594229,0.013879083,-0.76144207,-0.24939373,-1.0036247,-2.8935661,-0.039330855,-0.40629694,1.5185726,-0.83244914,-1.0681587,-0.2954112,-1.7200036,-0.66284734,-1.8462343,-0.5930431,0.08705239,-1.8499646,-0.8873781,-2.0596068,-1.7411293,-0.04488613,-0.97123104,0.072055936,-0.9652821,-0.5599147,0.15871121,0.2285192,-0.78717536,-0.027282922,0.060846515,-0.2857476,0.18026696,0.693386,0.55337554,-1.7552093,0.052722488,-0.7308188,-0.51835763,-0.660923,-1.1754209,-0.29194567,0.038746525,-0.92243147,-0.04695792,-0.28598794,-1.2345697,-0.43113384,-1.2853308,-0.08776297,-0.579936,0.33523205,0.16115105,1.1192515,-0.2535684,0.17012064,0.43547812,-0.9219229,0.052536003,-0.220227,-0.07634415,-1.593122,-0.40037122,-0.91706616,0.10800608,-0.73785204,-0.110438064,0.4176218,-2.2528605,-0.7578899,0.79173476,-0.28466037,0.03915764,-1.8857812,-0.23603673,-2.2785475,-0.6251963,-0.02254898,-0.7009273,-1.015441,-0.45374948,-0.16065533,-0.026460456,-0.30473623,-0.08050971,-1.4060462,-0.33883768,0.07358958,-0.6952837,-0.779417,-0.9971583,-0.014314852,-0.56388587,-1.526968,-0.5934747,-2.8126972,-1.4606162,0.034755994,-0.9331517,-2.457026,-0.6928253,0.17701505,-0.9203618,-0.75327045,-0.4526023,-0.345879,-2.792727,-1.0817488,0.5579529,-0.91020584,-1.316384,0.06689487,-0.024017332,-0.6630689,-0.091626346,-0.20544882,-0.9235271,0.3980587,0.34762427,-1.4366474,0.19123769,-0.81350213,0.106937915,-1.1507746,-0.48249298,0.7746155,0.18108197,0.15690069,0.034859046,-0.004252844,-1.4708674,-0.077631764,-0.45248938,-2.181132,-0.054114874,-0.48532546,-1.321862,-0.060538456,-0.57466054,-0.07941564,0.4465944,-0.15010585,-0.11746215,0.42327824,0.019299561,0.72565246,-0.48655495,-0.092525564,0.0053420262,0.20997694,-0.20112832,-0.035541177,0.0367392,-1.9785196,-1.4319448,0.06234633,0.13345166,-0.5715974,-1.7047137,-0.65787864,-0.046643306,-0.7204604,0.3977197,-1.2089545,0.07003625,-0.7368021,-0.74565333,-0.6057089,0.6553751,-0.053120032,-0.050659783,-1.2308995,-0.93694896,0.11212278,-0.2886862,0.9223212,-0.12155304,-1.8882728,-0.4121327,-0.654412,-1.8220925,-0.55319965,-0.6094167,-0.007928565,-0.6957586,-1.3495156,-0.22883518,-0.32546374,-1.8521622,0.28362742,-0.42611995,-1.7604512,0.34322208,-2.225802,-0.6909395,0.09511323,-1.8238659,0.15747441,1.8934271,1.9723043,-0.52474153,-0.45753652,-0.56176305,-0.13060528,-0.082646236,-1.0108547,-1.2163421,-0.22863083,-0.47226027,0.02669887,-0.9461216,-1.4710529,-0.31966716,-0.06656995,-0.5310705,-0.337797,-0.08168097,0.06988233,-1.1630025,-0.28948793,0.83122325,0.08725799,-0.5098427,-0.18723457,-0.039344106,0.08053489,-1.4075578,0.05515546,0.19991598,-0.8196124,-1.3938689,-0.040955503,0.012658976,-1.2655818,-1.1106219,-0.85621923,-0.119161695,0.56831133,-1.178141,-2.0520985,-0.02929359,0.17190373,0.40280285,-0.016923694,-0.22450069,-2.828079,-0.03926776,0.021041498,-0.07060197,0.05249198,-0.23294395,-0.3418871,-1.4871643,-1.4187452,-0.03588091,-0.784159,-1.2102574,-0.21434581,0.034796678,0.14053264,0.22027166,-0.12132251,-0.09548366,-0.003794027,-0.023026818,-0.39057234,0.35802826,-0.90401137,-1.1587359,-0.05705174,-1.176414,-0.022810748,-0.021803698,0.01014972,-0.077419326,-1.0288534,-0.50304294,-0.33857977,-2.586717,-0.8819674,-1.3740594,-0.1937474,-0.0010975199,-0.021078845,-0.79319996,-0.20909357,-1.197414,-1.3635277,0.064926,0.15400684,0.32540336,0.14598338,-0.16536088,-1.6080902,-1.7043166,-0.70046026,-0.5284151,-0.110466614,-0.57331556,-0.5303279,0.5513246,0.109499246,-1.7871242,-2.1468904,-0.5419195,-0.0073965155,-0.011457498,-0.094863035,-0.90635943,-1.0654465,0.058834013,-0.7307472,0.02131774,-1.2015957,-0.0006623628,-1.9897798,-0.5727319,-1.6843231,0.07586238,-0.2752247,1.4667534,0.8150847,0.15529796,-0.95541286,-1.5684431,-0.1286652,-0.08012826,-1.0876133,0.15064366,-1.1276606,-0.809689,-1.3351635,-0.6475411,0.078485906,0.0065402496,-1.4748353,-1.6562121,-0.69335234,-0.58246994,-0.34235415,0.10186116,-0.8844665,-0.10044422,-0.14186859,-1.26555,-0.33133635,-0.015942838,0.1488361,-0.19229943,-0.086438276,-1.61694,0.03716049,-0.50571096,0.7341048,-0.0072269756,-0.051894784,-0.03532011,-2.4454284,-0.5450072,-0.10404429,-0.087461576,-0.7120916,-1.1915439,-0.098460644,-1.2476965,0.6183206,0.027757978,-0.07433958,-1.1541308,-0.84799296,0.5047788,0.4416675,0.08124647,-0.826906,0.27390155,-0.30058283,-0.20242111,0.07329348,0.17868026,-2.6222322,0.8688103,-0.75650424,-0.39037475,-0.8027189,-1.5282037,-0.1325733,-0.7539673,-1.4213973,-1.8485357,-0.031705696,0.038865358,0.15607074,-0.106866986,-1.1975698,-0.104228154,-0.032995697,-1.3777498,-0.28651184,-0.8898527,-1.1372286,-1.2728033,-0.21649669,0.89245075,-0.13426487,0.6141707,-1.8383918,-0.08257922,-2.7304657,-1.1992573,-1.6603444,-2.0081108,-1.3198633,-0.680829,-0.97064865,0.012293308,0.12055613,-0.017536849,-0.8943312,0.2453974,-0.101313174,-2.1603527,0.120176315,-1.2846134,-1.7091155,-0.78389066,-0.049052235,-1.928374,-1.142474,-0.5915348,0.25282007,-0.020368712,-0.22702445,-0.03711506,-0.05836954,0.03599325,-0.7282275,-0.12328472,-0.12289893,-1.5363421,0.788966,-0.40215626,-0.019194175,-0.7951321,-0.6701907,0.18576197,-0.20696993,-0.25472698,0.06412789,-1.1115037,-0.087233365,0.100862026,-0.42475244,-1.671017,-1.5422769,0.8008679,-1.5243798,0.1450011,-0.057145465,0.003550637,-0.02121604,-1.5680429,-0.018997656,-0.793839,-0.5866291,-0.40403396,1.3862175,-2.021211,-0.6885566,-0.77200663,-1.4940627,1.4376831,-0.7190983,-1.4696939,0.015849985,-1.2477415,-0.534761,-0.2318008,0.048125952,0.048198674,-0.22822998,-0.5733859,-0.037542783,-0.36592484,-0.60727584,1.9211059,-0.029094316,-0.4659615,-0.039747674,-1.0042832,-0.05937948,0.6904838,-0.44706523,-0.056558732,-0.17775124,0.14742085,-1.3496845,-0.49161983,0.82389116,0.15199338,-0.5074533,0.34085962,-1.1442345,0.21898407,-1.0140641,-0.079956345,-1.594418,-2.2480996,-0.86051905,-2.4305546,-0.11974733,-0.17744389,-0.023545938,-0.3100036,-0.16260558,-0.17254354,-1.4337684,-1.066578,-0.829096,0.1937941,-2.0274954,-1.3819203,0.05614082,-1.6235125,1.3429291,-0.14012538,-0.2818802,-0.16147827,-0.031495918,-2.8841918,0.43471232,-0.179814,-0.39408484,-0.2759719,-0.75726235,-0.393507,0.0090540685,-0.73924315,-0.124564916,-0.13625358,0.14317852,-1.0278728,-0.43228212,0.0093164,1.5059763,-0.1514451,0.05553865,-0.55409616,-0.98982066,-3.1737416,-0.9406628,-0.46901733,0.042612065,-0.19184498,-0.06883294,-1.5372713,-0.40998033,-0.8740391,-0.7341315,-0.75891906,-0.69802076,0.16590858,-0.9809661,-1.8762586,-1.003641,-0.62897885,-0.32191655,-1.6021265,0.21794017,-1.7162527,-2.2422848,0.2100922,0.03632519,-0.18795338,0.1605767,-1.6516517,0.012904189,-0.74382573,-1.9806551,-2.6519437,0.33441424,0.07190054,0.19807379,-0.90611714,-0.6352882,-1.847932,-1.8486844,-0.063540824,0.21434093,0.06404973,-1.2166044,-0.73476374,-0.34606045,0.023320975,-0.019281607,0.1790462,0.44763994,-0.4462776,-0.4267082,-0.091964245,-1.0718613,-0.8529797,-0.94845766,0.121208556,-0.68761575,0.23477396,0.21948534,-0.58180207,-0.11907069,-1.6574147,0.27420464,-0.027162122,-1.0706276,-2.199838,0.026294366,-0.63867825,-1.1736095,-0.051391527,-1.5771376,0.3516654,-0.18243566,-2.4643123,-1.1656083,-0.00975114,-0.59781116,-1.6937485,0.0946634,-1.7210379,0.8071224,0.16576526,-1.5424976,0.059753582,-0.27649608,-1.3812381,0.33026883,-1.6240991,-0.588785,-0.9897269,-1.1974424,-0.27076352,-0.11974237,-1.2334236,-0.089474835,-0.2127464,-0.3262312,-0.16477719,0.15369938,0.73615927,-2.0125892,-1.5438141,-0.5792241,0.020673301,-1.5843347,-0.21391547,-0.5252331,0.4919763,0.055253018,-0.06928835,-1.3230456,-1.9027106,-1.0620341,-1.2334828,-1.5797939,-0.17879646,-1.8620293,-0.6059669,-1.6515896,-1.0967339,-0.3676889,-1.130172,-0.7877316,-1.6338286,-1.5573233,-2.0088992,-1.7888558,-1.0022088,0.04054931,0.089578316,-0.6781371,0.005090921,0.029053668,-1.7409632,-1.1813873,-2.345142,0.196379,-2.536128,-0.8079596,0.40151444,-0.29209748,-0.1476478,-0.6077841,-0.09118393,-0.18064775,0.054956533,-0.17959644,0.104765296,0.9759252,-0.082159296,0.014174797,-0.14122093,0.105676726,-0.9536031,-0.08684302,0.10122144,-0.8129783,-0.72447824,-1.5568254,0.008181067,-0.49253422,0.50806534,-0.4640475,0.095658615,-0.8837628,-0.013866849,-0.30907592,-1.4981083,-0.8054503,-1.4920737,-0.6631541,-0.52282,-0.75793445,-1.1538075,-1.1982421,-1.4759051,0.84666646,-1.5653963,-1.5986713,0.06227463,-0.9490615,-0.44428945,-0.12186968,-0.805305,-1.0408372,-0.97684234,-0.56552404,-0.40985188,0.545879,0.0147777,-1.2748158,-0.54890394,-0.016007958,0.04373205,-0.93932164,0.0620152,-1.2755849,-0.905869,-0.7047184,-0.082585156,-0.48359406,-1.1302778,-1.0626099,-1.9661703,-1.0207497,0.385634,-1.346645,0.45044535,-0.21706077,-0.22445555,-1.024988,-0.42385563,-1.0565284,-0.8844756,-0.5369173,0.20576215,-0.8080416,-0.16068892,-0.740953,-0.025134202,-1.0233964,-0.43533778,-0.13758723,-0.12173021,-0.30038568,-1.7645473,-1.4348563,-0.686598,-0.59915566,0.523801,0.0010366926,-0.17895618,-0.067061305,-1.8668494,-0.6802474,-1.4869919,0.33531082,-0.12839095,-0.35370412,-0.15221635,-0.17616579,-0.74760133,-0.9494018,-1.6282544,-1.9684265,-1.2905736,-0.036542382,-0.11096955,-1.4973667,-0.11657043,-1.5635012,0.5441334,-0.57782596,-0.51030046,-0.073749945,-0.33545044,0.17822501,-0.41034594,-1.1049694,-0.31387487,0.09328402,-1.175765,-0.22019315,0.05350849,0.16073771,-1.7622273,-0.11700703,0.024595322,0.06811664,0.29348534,-0.14423428,-0.74079937,-0.3657561,-0.39938596,-1.0453502,0.16183397,-0.12221415,-1.1217473,0.13297011,-0.02878291,-1.0004219,0.2336597,-1.3525405,-0.58193666,-1.5728668,-2.3029194,0.030015549,0.07242353,-0.33850193,0.07312632,-1.6784865,-0.42983025,0.04057356,-0.16121414,-0.07763184,-0.12874982,1.2573333,0.18700519,-1.5857214,-0.9299889,-1.1523033,-0.062645055,-1.0878049,0.27213916,-0.22143182,0.00061169424,-0.35592923,-2.4367487,-1.9021982,-0.91255355,-0.5628525,-1.3513483,-0.1674775,-0.2619402,-0.2097272,0.37432036,0.24455342,-0.3895168,-1.0878881,0.19677027,-2.2028773,-0.6582015,-0.19474348,-1.1467966,-0.09194488,-1.0799724,-1.0959954,-0.0041213776,-0.019545155,-1.5454566,-0.9516447,1.1434342,-1.5446534,0.0041335104,-0.08893745,-0.5631083,-0.13895154,-0.19100082,-1.9232101,-2.2798932,-1.334385,-0.5115221,-1.2618331,-1.7870015,-2.1944427,-0.06853264,-1.9818547,-2.6006687,0.04508889,-1.2864184,-1.1856052,-0.50095415,-1.0705669,-0.061762147,-0.3043543,-0.15757838,-0.4410062,-2.3267424,0.13592285,0.65275276,-0.22735101,-0.6951935,-0.058551833,-0.45932826,0.08020694,0.22037043,-0.45011172,0.0012892104,-2.008317,0.9530356,-0.3211074,-0.5434886,-0.94761723,-0.45133457,-0.13457136,-1.1455216,-0.08774549,0.11901543,-1.7857835,-1.4915551,0.524208,-0.10138175,-1.4114885,0.76725894,-2.3644142,0.0026109042,-1.243422,0.0070686745,-0.13407865,-1.1222045,-0.27536193,0.039561857,-1.2616912,0.14138548,-0.011551678,-1.2302974,-0.18359156,0.39882895,-0.3892853,-0.32592538,-0.1218779,-3.0263546,0.26094028,-0.08722135,-0.5207064,-0.044630066,0.018725233,-0.6719692,-1.7828112,0.25172386,-0.21523863,-0.13604052,-1.3558747,0.105287775,0.26004693,-0.09892369,-0.25706017,-1.5130862,-0.17120224,-0.14821082,-1.7880374,0.14863269,0.37326536,-1.3207556,-0.5455015,-2.5225284,-0.6709116,-1.1625184,-0.43090874,0.6987311,-2.5018625,-1.2313125,-1.7789758,0.014149397,0.21390897,-0.055170983,-0.3957042,-1.9184823,-0.89495933,0.090856,-1.2612365,-1.705551,-1.1827997,-1.3863252,-0.042179555,0.068173036,-1.1577923,-0.0647076,-0.93479884,0.27122903,-0.85158193,0.087410755,-0.5251785,-0.92416745,-0.39892137,-0.14030197,-1.6195955,-1.5297427,-0.79996556,-1.4720298,-0.83721167,-0.80509865,0.5577435,0.39702323,-0.034513783,-1.5289954,-0.74821556,-0.06628888,-2.3100438,-1.2540836,0.0036843529,1.5544894,-0.6306795,-1.0650231,-0.051559,0.08714719,-0.045301408,-0.044742085,-0.73349756,-1.7144988,-0.22848514,-0.10651824,-0.97672516,-0.1896254,0.105650686,-0.030353261,-0.13405323,-0.4035377,-0.8838747,-0.14200824,0.38822508,0.0030923642,0.43907773,-0.5108268,-1.5076874,0.10995358,-0.29514682,-2.2333412,0.14306313,-0.7048174,-0.14125481,-0.11325742,0.5308163,-0.07584314,0.10064363,0.034517337,-0.7859643,0.035280358,-0.75324893,0.16159034,-0.17723311,0.28123844,0.8439315,-1.9726784,0.022811996,-1.7619915,0.7438457,-0.041380417,0.19229667,-0.39930102,-1.0589752,-0.962644,0.096566156,-0.4121918,-0.20583159,-0.41221714,-0.68189275,0.75076914,0.01380216,-1.5032358,-1.6508446,0.4369472,0.14570016,0.79540616,0.056448296,0.7378098,-0.0076836324,-0.03472865,-2.4787893,-0.040676866,0.15871434,-0.10240702,-0.6922216,0.31541952,-0.052500356,-0.03553456,0.5956787,0.20340708,-0.6496164,-0.00986078,-0.12653346,0.1154771,-0.6523498,-0.96226025,0.021645289,0.2312417,-1.9629132,-1.5317149,-1.9624846,-0.6109531,-0.6068822,-2.2212398,0.4859129,-0.14753048,0.07580551,0.22461855,-1.184843,-2.305169,-0.0012078536,0.0041187573,-0.02949082,-0.17223467,-0.09121757,-0.3665027,-1.3153204,-1.0681279,-0.66433424,0.2511152,0.15970989,-1.1762391,-2.1505399,-0.994622,-0.7997339,-0.60674435,-1.7506404,-0.40393767,-1.3160495,-1.1240226,0.031798486
