1,192,-0.0009664806,0.0036586218,0.00076108956,0.0008353727,0.0021454364,-0.0009284312,0.001144079,-0.0014882521,-0.0035379834,-0.00031196984,-0.0007167934,-0.0003044459,-0.0008909913,0.0018835734,0.0007947964,0.00040672818,-0.0005204471,0.00027079775,0.00030810444,0.0016114673,0.0027109128,0.0016550057,0.0005295895,0.0027489986,0.00040247873,0.00042952094,0.00024677644,-0.0006336112,-0.0005283098,0.0020902592,-0.0007431261,0.0020533353,0.002074551,-0.0001174428,0.0020182342,0.0003240755,0.0011135315,0.000521932,-0.0003783834,0.0008970509,-0.00040230993,0.0018840383,-0.0027343084,-0.00066387013,0.0004908597,-0.00058117084,-0.0027915372,-0.0015142774,-0.00019241693,0.00266921,0.0004406188,0.00125981,-4.4301498e-05,0.001543879,3.678492e-05,-0.0013366198,-0.0013406263,0.0002755537,-0.00048281267,-0.0004507949,0.002937168,-0.001439503,0.0021075404,-0.00080257456,0.0018647945,-0.00054276455,0.001539437,0.0029706745,-0.003923229,-0.00040527107,0.00030842243,-0.0014783842,0.00043681226,0.000688035,0.0028293394,0.0005067631,0.0005933891,0.00071700505,0.0016516147,-0.0046318355,0.0009369756,-0.0017511122,-0.00075570383,0.00029285293,-0.001445216,0.00038523463,-0.00068746717,-0.00033742076,0.0015630841,-0.001154183,-0.000751439,0.0021132838,0.0005230553,0.00020860395,0.002219322,0.0021372805,-0.0007921129,0.0005845406,0.0002701928,-0.0023522694,0.0015764271,0.0005239687,-0.0008662338,0.001236283,0.0043723383,0.00018988385,0.0024885857,-0.003220992,-0.00035595187,-0.0018151196,0.0025189465,-0.0005453382,-0.0012413914,0.00029220118,-0.00020271706,0.00094643445,0.0014491444,0.0007503357,-0.0010059874,-0.0011815199,0.00070086727,-0.0007290016,0.00044467632,0.00058483874,-0.002930478,0.0007171126,-0.00032910547,-0.002799751,-0.00056700443,-0.0007422037,-0.00036611283,0.0009887551,0.00085548626,-0.0018035852,0.0005607141,0.0011931036,-0.002093683,0.001390391,-0.0017004302,-0.00015855159,-0.0019687996,-0.0019666418,-0.00024876546,0.0011379954,-0.0011664032,-0.0015683761,-0.0020632488,0.0018337069,-0.0021170373,0.0013742003,-0.0014009668,0.00029707135,0.0011279829,0.0010595425,0.0034371947,-0.0031049626,-0.0023319654,-0.0013085661,0.0019506004,0.0018523898,-0.00035437863,-0.00045333264,0.0027186617,0.0013237494,-0.0019301041,-0.0013719309,0.0013071229,0.0013823396,0.0017009159,0.0012083921,-0.0003696096,-0.0036955134,-0.0002641131,-0.0011192719,-8.140311e-05,-0.002263977,-2.9489056e-05,-0.00042543752,0.00060445,-0.0015249412,-0.0027325223,-0.002263975,-0.00072991767,-0.0024889978,0.00040654175,0.0014028983,0.0016443046,-0.00013202839,-0.0023942145,6.375399e-05,2.6371059e-05,-0.00079241936
