4,192,672,1,1,0.05047302,-0.011890966,0.15492144,-0.04140676,0.122127004,0.06303868,0.0052406937,0.01934369,-0.16328566,0.07074503,-0.093843706,-0.107994206,-0.034882694,0.12083346,0.008207917,0.17530338,0.034344036,0.051820695,-0.028493155,-0.12247632,0.107219175,-0.17638186,0.015973646,-0.0921898,-0.07511108,-0.048612572,-0.09054686,-0.123068035,-0.06924022,-0.027442053,0.021182716,0.022877097,0.03835649,-0.021737978,0.027458072,-0.036319315,-0.07675199,-0.110460274,0.1479911,0.07037774,0.028768256,0.0034291744,0.23094189,0.09311292,-0.1335958,0.17640597,-0.016605705,-0.13229246,0.16711858,-0.07302751,-0.062203478,-0.037304122,0.21702605,0.02227047,-0.0037908275,-0.18163072,-0.20932795,-0.0846234,-0.042291336,0.012097046,0.21282522,0.0016545597,-0.019181259,0.010572225,0.07524966,0.004635304,-0.14194684,-0.0522709,0.18193482,-0.047000587,0.006172225,-0.14790016,0.048037075,-0.015916176,-0.18767391,0.0670463,0.11260236,0.07733365,0.20317954,0.039339717,0.108775415,-0.04483381,0.07149191,0.2256797,-0.18386263,0.008915173,0.098410636,0.005508676,0.09304203,0.0742503,-0.1360996,-0.0011062846,-0.030806936,-0.14649788,-0.0456875,0.041805685,-0.05101674,0.019071601,-0.020277672,-0.016026706,0.104676224,-0.21910913,-0.03357137,0.05279136,-0.041377783,0.031658635,-0.078450404,-0.038106028,-0.17097868,-0.31455034,0.027567625,-0.050824054,-0.060907755,-0.11365717,-0.106172234,0.0027540736,-0.060225748,0.07238547,-0.088737726,0.017853223,-0.02850084,0.07290778,-0.029961579,-0.2485551,0.13044031,-0.042704534,0.00058184564,0.018587524,0.046636626,-0.073409826,-0.023728192,-0.009874925,-0.016223898,-0.008068048,-0.021022454,0.039521568,0.03634273,0.05590149,-0.17316039,-0.048147503,-0.03062585,0.055142134,0.17672765,0.12928917,-0.0318458,0.10577129,0.0068562813,-0.19073097,-0.09443953,0.07721157,-0.034159016,-0.113758504,0.008977059,0.041469485,-0.0038314462,-0.10152107,-0.11800112,0.10749876,-0.15614676,-0.21055387,-0.0073919594,-0.09834361,0.050982192,0.07744149,-0.013754703,-0.21065572,0.004359342,-0.12375576,-0.13776065,0.12863734,0.004269599,-0.06344998,0.1101335,-0.08501846,0.07100489,0.05603235,0.04370548,0.15356043,-0.13637155,0.16342478,0.085397415,0.07679716,0.04134956,0.0589891,-0.11643361,0.04856427,0.1860284,0.03104881,0.10990284,0.031696558,0.0025141165,0.071554594,-0.029976374,-0.17079729,0.038715526,0.077927686,0.049720287,0.21986605,0.14565295,-0.04870464,-0.03266743,-0.1749335,-0.06446059,0.049582347,0.13417566,-0.14963822,0.15330048,-0.04689077,-0.095357835,0.13555996,0.18390724,0.07383418,-0.013418525,0.16508083,0.093743816,0.06675793,-0.11754878,0.08852868,0.21328138,0.0787068,-0.2118515,-0.011673108,-0.07856743,-0.0666334,0.0114377905,0.1218767,0.08507303,-0.046083212,0.11198358,0.074982904,0.03151821,-0.009436708,-0.07096385,-0.016360749,0.085314855,0.03399371,0.09586432,0.02104181,0.07131838,0.17326725,0.07711207,-0.093081534,0.0963233,-0.18264791,-0.14644094,0.1782951,-0.009317599,-0.01684439,-0.04808809,-0.12033485,-0.114105195,0.05191411,-0.014765037,-0.10811579,-0.05843868,-0.056023393,0.15294297,-0.122823745,0.09766976,0.14688866,-0.12034538,0.07439685,-0.06071751,0.025248252,-0.06863818,0.18700777,0.13096398,0.083386645,-0.36002618,-0.1668385,0.106717974,0.23953824,-0.13014491,-0.16734487,-0.11206805,-0.2821155,-0.12571022,0.04098385,-0.010536794,-0.029974852,-0.09197368,-0.07591519,-0.04208944,-0.0010766685,0.05377891,-0.02099562,0.0018413514,0.07021214,0.13628416,0.030901864,-0.098661214,0.06891344,0.13912497,0.17426503,0.1287859,0.17240947,-0.1786696,0.12737058,-0.019846186,-0.0021092445,-0.11912091,0.14605965,0.006771408,-0.16018113,0.04403413,0.19116566,-0.23465967,-0.18196878,0.03552778,-0.14669055,-0.14121202,-0.07476733,-0.066184476,0.06115768,-0.16754977,0.14333452,-0.025249556,0.09290783,0.11723435,-0.034479134,0.17936501,-0.021777377,-0.044984624,0.00092851,0.0056611933,0.19271052,-0.009305716,0.18704501,0.14427012,-0.0025335476,0.19657665,0.0047186613,0.03455146,-0.06268238,0.14179638,0.13792367,0.26590705,0.019592673,-0.17383961,-0.06751233,-0.19874679,-0.12762137,0.14866245,-0.33886933,0.12188762,0.022102837,0.017180003,-0.052740127,0.05135961,0.0063987076,0.052241243,-0.052044,-0.06943274,-0.06978404,0.107280284,-0.1009466,0.15946853,0.05691348,-0.04687714,-0.034412354,-0.09337863,-0.10531588,-0.018669322,0.024952224,-0.2194331,0.052996937,-0.06127829,0.043208614,-0.10033777,-0.11509831,-0.041843787,0.05301059,0.049764737,0.03501113,0.021634825,0.044442132,-0.080575965,0.05921106,0.035561964,-0.050997425,-0.13752827,0.07869406,-0.02614028,-0.21825787,0.052592956,0.10200122,-0.20329043,0.2083851,-0.20539333,0.11983842,0.0905934,0.032974795,0.11128069,-0.19373412,-0.045346145,0.02652686,-0.04693786,0.19065857,-0.07960885,0.041680813,-0.043372832,0.0073569305,0.13719244,0.21641165,-0.21492079,0.07359255,-0.08824612,0.038445998,0.12660167,0.09894925,-0.058430888,-0.102769464,0.048357006,0.0767516,-0.03156929,0.18760653,0.17970149,-0.1416694,0.21460673,0.13255641,-0.011337265,-0.15355171,0.13732243,0.06890473,0.08093256,0.06867341,0.1453692,-0.123609446,-0.018158548,-0.006134048,-0.13331002,-0.06505066,0.04569723,0.055763826,-0.06149921,-0.027780898,-0.10604529,-0.14961371,0.056072354,-0.0077816546,-0.122824416,0.09231347,-0.17118141,-0.17813191,0.10844309,0.004618719,0.06671033,0.08753684,0.01575847,-0.11673972,-0.08826798,0.007923722,-0.005447356,-0.019099131,-0.18622696,0.03809507,-0.040889777,0.12927586,-0.09808099,0.020585395,0.015788592,0.062066197,0.04277976,0.1096004,0.15992332,-0.04558581,0.25413144,-0.1219193,-0.16154405,-0.061510127,-0.14024639,-0.10489251,0.06860545,-0.11550487,0.07851617,0.088808455,-0.009635724,-0.03894843,-0.16814771,-0.028570369,0.089588016,-0.13210157,0.061008073,0.34449822,-0.02298063,-0.11545824,-0.025501015,-0.06303262,-0.12108959,0.040770203,0.12343728,-0.06518303,0.044994332,-0.22950973,0.0069962293,0.08598508,-0.09950926,-0.0039007813,-0.06020861,0.009417977,-0.15825267,-0.06353357,0.020291016,0.11660536,-0.082495764,-0.10527892,-0.013093412,0.04545108,0.029041335,0.0068361163,-0.10364225,-0.22295856,0.04895563,0.16087113,-0.05851446,-0.20228483,-0.05990477,0.08915318,0.19642493,0.16059096,-0.044846863,0.119395,0.11308261,-0.12774229,-0.10532279,0.120626554,0.004863657,-0.049217395,-0.022699622,0.015733236,0.010009922,-0.17708664,0.12532192,-0.081698924,-0.09517844,-0.001325534,-0.0702642,-0.10912099,-0.06061145,-0.07205492,0.03795676,0.073578864,0.12227738,0.13499412,-0.07698929,-0.35350323,-0.046187248,-0.270972,-0.11453685,0.11177628,-0.016096314,0.15024778,-0.09546009,0.0848684,0.03949125,-0.08987865,0.019485533,0.14576726,-0.09355935,0.04692381,0.043461144,-0.12050252,0.0011628345,-0.013787153,-0.12897389,-0.024337059,-0.028903268,0.091502994,0.091341764,0.20026317,-0.11423808,0.0033851992,0.019323573,0.014559783,0.060728423,-0.031316556,0.012739159,0.15383215,0.017667405,-0.05711083,0.041882105,0.036965072,-0.30712774,-0.018973056,0.10667221,0.047092874,0.07910866,-0.07401326,0.26324296,-0.0072791874,-0.20581812,-0.19842264,-0.019439295,0.04030288,0.037149653,0.17803197,0.12621272,-0.022324085,0.023504443,0.06486876,-0.17269553,-0.009731557,-0.077422105,-0.009608265,0.052621625,0.10028626,-0.1612793,0.02095759,-0.050883792,0.19070366,-0.04054432,0.043368302,-0.041554846,-0.24679422,0.19642615,-0.104957744,0.078388795,-0.019476235,0.10348978,0.050704062,-0.0013280362,-0.09015179,0.017047629,0.15717903,-0.04706515,-0.024664432,0.055428613,0.06717695,0.055996627,-0.09094712,0.24054661,0.21404856,-0.19525059,-0.18138939,-0.041057654,0.13007943,-0.158946,0.19447777,0.032496814,-0.0083289705,0.11933878,0.11631945,-0.14547855,0.18322283,-0.10691211,-0.050007876,0.20036463,0.07040015,-0.25762483,-0.045606233,-0.017632578,0.13991414,0.063990265,0.090205185,-0.06389643,-0.0803052,0.08495479,-0.030002967,0.030222028,-0.15121691,0.012980893,0.1962834,0.10163626,0.060198322,0.031987444,0.14085476,0.072579235,0.017816365,0.03847437,0.07284874,-0.0073307008,0.06776508,0.025814714,0.19867425,-0.15515542,-0.011644289,-0.043735385,0.13650864,-0.01994263,0.07027899,0.14353618,0.07146122,-0.15160052,0.1912157,0.0750607,-0.06909101,0.103560954,-0.15960787,0.17614251,0.017832905,-0.09932083,0.077504,0.015955113,-0.042452473,0.11905225,-0.09033673,0.063145414,-0.14279187,0.1266419,0.08675015,-0.007460922,-0.014949126,0.08953152,0.061480146,-0.087695256,-0.07103294,-0.15391311,-0.03887032,0.02506344,-0.14632748,-0.09258042,-0.056247525,-0.07969526,0.08854815,-0.07084714,0.05209426,-0.14779995,-0.22534163,-0.023498684,0.08238434,0.14401153,0.10979678,-0.0109945005,0.023409812,-0.083924696,0.08682759,0.055955853,0.1624765,0.14236851,0.036936957,0.01413399,0.019726396,-0.011057596,0.061694838,0.18038453,0.18827803,-0.19760615,0.0019080266,0.024511978,-0.026523385,-0.021174654,-0.14424959,-0.19573674,0.002601795,-0.002500631,-0.057853684,-0.18621254,0.02271524,0.16951366,-0.023323156,0.018028893,0.0653721,0.16418487,0.0038325787,0.07163577,0.14449477,0.055046096,0.03803411,-0.14200798,0.07872313,-0.07324149,-0.048083577,-0.05891473,0.036763623,-0.03715273,-0.012952619,0.04689938,-0.004254193,-0.12264918,-0.12116581,-0.021283843,0.08325014,0.06009102,0.13788942,-0.05204716,0.103337154,-0.07797964,-0.03982851,0.21935788,0.14092849,0.16075659,-0.18686739,0.11275129,-0.074845314,0.014910774,-0.1324268,-0.076817915,0.15398316,0.17508598,0.10605058,0.1624043,0.17275861,0.05235742,0.022019342,0.013316238,-0.13559571,-0.077110484,0.037373886,-0.09608122,0.036513306,0.081001766,0.1193736,-0.24315265,-0.025776446,-0.04431474,0.09574951,0.041897275,0.19211935,-0.09862349,-0.14250404,-0.0011803209,0.1910306,0.025856622,-0.12564087,-0.19618075,0.08453679,-0.057029717,0.00039290637,-0.05883851,0.014186464,-0.17421807,-0.026254103,-0.07590271,-0.048858203,-0.10268575,0.05943875,0.032975137,0.009227144,0.096457295,0.078556836,0.025104528,-0.11548084,0.025364839,-0.05643642,-0.083206825,0.022855362,0.06033772,-0.08313745,0.049727265,-0.036540568,-0.047787514,0.04476197,0.09664987,-0.009987256,0.048587523,0.1185005,0.08095968,0.20180687,-0.09858443,0.15232776,-0.05334733,0.1280969,-0.16212966,-0.08701676,-0.07536854,-0.24166636,-0.18099023,-0.07569192,-0.002541151,0.03366515,0.05029859,0.027129307,-0.08294739,-0.13993534,0.116396934,-0.03682668,-0.009867422,-0.002256766,0.012282468,0.17562076,-0.06476693,-0.05049357,-0.017208807,0.007177934,0.044256594,-0.062529266,0.038465165,-0.0448751,0.02318792,0.060869925,0.16448984,0.07152495,-0.039595366,0.14535256,-0.3811632,0.14928347,0.021964733,-0.3222523,-0.06233467,-0.017062016,-0.25880262,0.014190629,0.14205042,0.097332634,0.017108642,0.047078654,0.18287587,-0.0045465007,0.19922209,-0.021922726,0.1298498,-0.02527812,0.1600276,-0.011463702,-0.2012766,-0.053769413,0.061826635,-0.024121048,-0.06608046,-0.052578714,0.08644563,-0.0450231,0.01414521,0.14020525,0.1302541,-0.06849887,-0.1298782,0.19853115,-0.12740283,-0.0129367765,-0.22067428,-0.27040157,-0.060516562,-0.06111896,0.11818118,-0.022556618,-0.15062593,-0.15793289,0.24465641,0.009580534,0.027039394,-0.06881422,-0.022286989,-0.20430908,-0.08603266,-0.02814629,0.08679985,-0.10810548,0.003611125,0.035555713,-0.06929286,0.032483697,-0.00394673,0.18609676,-0.085032485,0.08696981,0.043242365,-0.027310852,-0.14044349,-0.34399107,0.029123917,-0.10847837,0.0012686104,-0.0166634,-0.12032673,-0.011296824,-0.07493608,0.034128934,0.0056704804,0.20828947,-0.16893825,0.046884507,-0.12542717,-0.13520053,-0.18360372,-0.08711758,-0.13944644,-0.05693978,0.08467162,0.13947482,-0.009479694,0.010161817,0.010918382,0.12801339,0.15924123,-0.06802283,0.046254452,0.18142033,-0.07322817,0.0313162,0.14489053,-0.06282534,0.035121776,0.09630349,0.03165686,0.12130372,-0.11725588,0.056049816,-0.17990415,-0.010689884,0.12330686,0.15071027,-0.0886401,0.2213928,0.11460687,0.03707239,0.11320784,0.13767289,-0.13222493,0.03469518,-0.041741118,0.041181147,0.09394184,0.21072692,0.0835121,-0.0037513524,-0.012299672,-0.07845216,0.026276022,-0.101508245,-0.08123802,0.12396083,0.08687718,-0.08617631,-0.18319416,0.017200202,-0.10223584,0.024279796,-0.020685181,-0.10964619,0.110164136,-0.058549866,0.13940321,0.023127556,-0.013729278,-0.17602605,0.03099659,-0.026608665,-0.1064505,-0.15640764,-0.036085494,-0.07015904,0.088090606,0.08946997,0.171161,-0.09577758,-0.0074851513,-0.022955108,0.022351563,-0.08926885,-0.060088646,-0.007840611,0.07905409,-0.025434168,0.009524837,0.041852333,-0.18775403,0.08273129,0.054060414,0.12057191,-0.060588475,-0.05282177,0.032706723,-0.15247676,-0.18501501,0.05305805,0.083120495,-0.09967011,0.018319543,0.0028241873,0.028830327,-0.054681912,0.17530462,0.10020372,0.048787825,0.010639943,-0.07494886,0.07694942,0.003458947,0.067352355,0.06548031,-0.17211,-0.050240047,-0.13067722,-0.036409047,-0.06861517,-0.123448275,0.14024861,-0.04732771,-0.06798597,0.0546734,-0.21917468,-0.025689736,-0.13622904,-0.014146075,-0.010922596,0.08114416,-0.029876374,-0.06426123,0.16554391,-0.0115104765,-0.015243512,0.1397717,-0.24187061,-0.050407942,0.1520798,0.20892832,-0.037351884,0.08106446,-0.06804638,-0.040736772,0.0963074,0.026260376,0.03925378,-0.046548586,0.0043790713,0.022822618,-0.23104605,-0.035932373,0.11112869,-0.05327049,-0.21576768,0.17677751,-0.09939072,-0.024674065,-0.13197786,0.062039666,-0.029307619,0.007364668,0.14439103,-0.045244165,-0.013852671,0.1438446,0.1479091,0.020861372,-0.20729896,0.00053311326,-0.28314704,-0.25970906,0.05643938,-0.0066962987,0.055319156,-0.2082683,0.1888859,-0.0023309737,-0.052386295,-0.244585,-0.0007092282,0.043527756,0.052536115,-0.09615598,-0.07148948,0.02883301,0.013046339,0.056123555,0.1382392,0.11429228,0.06475734,0.0979885,0.001606755,0.1419177,-0.00011603348,0.10567349,-0.019381337,0.12638867,0.059013225,0.07527359,0.36549708,0.030891225,-0.08988115,-0.046665832,0.010730699,-0.11369358,0.00930617,0.14532253,0.26895884,-0.043978095,-0.11928055,-0.13847867,0.05653982,-0.10175912,0.03908366,0.043853987,-0.003151469,0.12822649,-0.038309585,0.09931945,0.10930812,0.10041813,0.14852759,0.028462037,-0.011415277,0.123344205,0.09410313,-0.0043262746,0.04354988,0.2098238,0.054796763,-0.15273526,0.06587213,0.03273215,0.007847235,0.13162348,0.17631765,0.004349537,-0.024620589,-0.043921422,-0.07734482,-0.07417433,0.0859124,-0.023869082,0.09651952,0.020166073,-0.17889869,0.03925,0.009296492,0.16715412,0.06674059,0.03500301,0.11811912,-0.012855515,-0.016233351,-0.029933024,0.108656704,-0.06158501,-0.05653905,0.09785716,0.25451657,0.03422133,0.018328756,-0.08028174,0.060028434,-0.017616898,-0.031296927,-0.09826152,-0.11957528,0.00089220516,0.038269095,0.058252357,0.093396455,-0.1620734,-0.059974577,-0.12960935,0.06650935,-0.03915202,-0.0012976117,0.005104713,0.18315017,-0.022268504,-0.24735257,0.22009341,-0.0063230693,-0.05005528,-0.13864443,-0.01467935,0.101110406,-0.1051288,-0.20962411,-0.013808832,0.089184605,0.08525374,-0.06184102,0.08852552,0.028327573,0.044387862,-0.08742822,0.064518124,-0.24488205,0.044307902,-0.07285408,-0.046933126,-0.09708897,0.17350674,0.06596634,0.06924254,-0.047768645,0.016264834,-0.16196756,-0.09104649,-0.046348974,-0.092872776,0.0756256,-0.026019305,0.07664219,0.12637705,-0.021593735,-0.14616495,-0.020755187,0.08718528,0.100565456,-0.07431494,-0.039581455,-0.038588323,-0.06136426,0.07672422,0.095035166,0.018587489,0.17598698,-0.02742918,0.054264035,-0.0014623255,-0.08818228,-0.04440947,-0.13729562,-0.08127473,0.10715766,-0.13677914,0.1696839,0.023117438,0.04420326,0.029996589,0.11437307,-0.034993365,-0.03337875,-0.20504576,-0.09778409,-0.113993555,-0.07404959,-0.06600925,-0.17295808,0.07316832,0.14669028,0.13960786,-0.050706644,-0.18920869,-0.10108554,-0.22178134,0.09394076,0.1326122,0.20585547,0.023717757,0.04240488,0.03239332,-0.0993397,-0.17062786,-0.049327157,-0.0021986812,0.09991634,-0.22285753,-0.0853157,-0.16895603,-0.03186333,-0.1502637,0.05909175,0.052586336,-0.09090927,-0.049459115,0.06351516,0.02027671,0.023333535,0.052598618,0.085288785,-0.024918392,-0.029873386,0.10082774,0.06107323,-0.04515458,0.04551606,0.10623805,0.045436382,0.07350804,0.14497119,-0.18584485,-0.01322078,0.0046480037,-0.12669487,-0.03397997,-0.12664475,-0.024877239,-0.041039303,0.26926574,-0.000655666,-0.10137492,0.055208802,-0.14275758,0.0044399425,-0.0096808635,0.07025019,0.023878306,-0.104461245,-0.15064815,-0.011008576,-0.05550388,0.037014835,-0.11067962,-0.11042803,-0.05411689,0.16706665,0.031697143,0.03586273,0.038563,-0.0244582,-0.13837942,-0.014714428,0.002954334,0.00058190525,-0.046353787,0.0006055571,0.10461493,0.056420907,0.17746422,0.09909575,0.08420102,-0.0752238,-0.00638666,0.13309562,-0.09283407,0.07981236,0.050321966,0.1213742,0.09920834,0.045726314,0.067902684,-0.08871322,0.118850306,0.08316706,-0.19175896,-0.12461493,0.06122191,-0.018344963,-0.05370793,0.17610729,0.15171602,-0.059593633,0.0031998549,-0.07751961,-0.019668616,-0.1228004,-0.058395606,0.050222646,0.029464941,-0.06376937,0.13932341,0.06951195,-0.12937932,-0.027688324,0.15775684,0.10750012,0.1829623,-0.05084733,0.003535524,-0.06160663,0.04930231,-0.06338837,0.016677156,-0.13724202,0.1118229,-0.046124756,-0.11509974,-0.06361484,-0.0068969205,-0.10868658,-0.16598141,0.011899762,-0.07869111,0.09746492,-0.08557154,-0.1710531,0.07529036,-0.09784712,0.03608355,0.046207882,-0.15502776,0.025871104,0.11462625,-0.106121585,-0.037312336,0.059646424,-0.0048911273,-0.07736702,0.21357691,0.09427391,-0.089830644,0.109171316,0.16642697,0.07069443,-0.15387383,-0.06661816,-0.057771333,-0.07782119,-0.044733994,-0.109876856,0.019803043,0.26765504,0.017976172,-0.012413825,0.23279834,0.12019571,-0.053035244,-0.08192116,-0.0736078,0.13227531,-0.041279167,0.103652425,0.126792,-0.24225354,-0.13508424,-0.031864792,-0.092671245,-0.04132319,0.027581021,-0.1914157,-0.029590525,0.0045300275,0.07570636,0.044706576,-0.11398598,0.17489776,0.116109915,0.08324062,-0.08268261,-0.24648221,-0.18209726,-0.30760887,0.051570132,0.10545257,0.08122738,-0.035137087,-0.032268707,0.09343758,0.0501185,0.0798777,-0.07248443,0.05268328,-0.08593239,-0.11965202,-0.0092768455,0.019076586,-0.06068818,0.045953616,0.057143427,0.06424555,0.070534155,0.0164043,-0.029176459,-0.25091845,-0.13788885,0.12017528,-0.16202508,0.058896944,0.107905336,0.02460298,0.09603652,0.1245526,0.06738832,-0.11834612,0.058714777,-0.098777354,-0.121586666,-0.026867144,-0.096158504,-0.020422608,0.07776496,-0.1405349,-0.17084736,-0.026639223,0.012672603,0.05343139,-0.015154531,0.10837146,0.06447389,0.024506878,-0.009398371,-0.13816297,0.12672478,0.015263666,0.06734521,0.050468262,0.0297242,-0.08165922,-0.0023076087,-0.1262234,0.024548203,-0.016762186,0.053359874,-0.017184196,0.0017239898,-0.16977693,-0.06925307,-0.0693677,0.07644475,-0.110741526,-0.06299916,-0.09735549,0.08308338,-0.10990502,-0.025600519,0.024542823,-0.05436088,-0.07867953,-0.17695612,-0.022013716,0.03491851,-0.028603459,-0.1184348,0.03546016,-0.25276643,-0.004539449,-0.08625209,-0.074908316,-0.06752364,0.06401071,0.06892417,-0.267318,0.039520115,-0.13402115,0.09605558,-0.07581128,-0.040241636,-0.11406265,-0.013240024,0.010889664,0.036714688,-0.04375088,0.06555148,0.20077363,-0.054889064,0.025647841,0.068818465,0.057362553,-0.06598848,-0.2603956,0.07256119,0.01601705,-0.073126964,-0.09233802,0.0073809847,0.13602692,0.03753019,-0.04151883,-0.036928736,0.019006368,-0.0038766414,-0.08670622,-0.031458788,-0.02804601,0.080805644,-0.12750556,-0.07949147,0.002842866,-0.12883183,-0.030835196,-0.06119714,-0.11159486,0.16374946,-0.10330124,-0.35699603,-0.11598642,-0.006584227,0.1405413,0.022513093,0.027052447,-0.13648719,0.058438644,0.0020756423,0.05091604,-0.010468714,0.07312371,0.2096658,-0.04983359,0.07426434,0.027323104,0.05295995,0.058215514,-0.17243844,0.09821007,-0.06575792,0.013033643,-0.020466872,0.13934773,0.1328374,-0.26714617,0.026604543,-0.0358655,0.065339714,-0.027756304,0.045976028,-0.086237565,0.10192883,0.12791944,0.072034046,-0.031029671,0.052821383,-0.04002079,-0.14341666,0.10185939,-0.14466459,0.042353634,-0.02751534,-0.042937264,-0.009460926,0.114605315,0.011761904,-0.00788486,-0.04893119,0.03577915,-0.050211564,0.13459878,-0.037739515,-0.114583336,0.10657893,-0.018714905,0.02424451,-0.023753062,-0.011400763,0.018525302,0.106135786,0.05913555,-0.010424742,0.2688219,-0.071292594,0.1743918,0.043685853,-0.012475684,0.08234078,0.07436569,-0.23227693,-0.028003179,0.15336709,-0.15065126,-0.10838922,-0.10417531,-0.16703051,0.014766749,-0.13344073,0.1254964,-0.2589224,0.024390271,0.08497352,0.014522098,0.09992203,0.060865268,-0.07921967,0.08368495,0.08807195,0.17677812,-0.062238224,-0.0014418773,0.09748259,0.018543102,-0.059562296,0.06979299,0.015085965,-0.036085114,-0.13950743,-0.10168505,-0.025495313,0.15466957,-0.03514567,0.1348425,-0.05524881,0.095017135,0.047679104,0.055344127,-0.17558444,-0.20578161,-0.05256002,-0.08221334,-0.047530353,0.19286388,-0.17876591,0.008646928,-0.16231467,0.052786257,0.04511532,0.16384664,-0.023217337,-0.048095226,-0.120817125,-0.009983908,-0.16722047,0.010890678,0.24094817,0.13141015,-0.012242228,0.17446396,0.10795434,-0.2008431,-0.0006044954,0.020926997,-0.08195427,0.010547079,0.08511525,-0.1430292,0.144429,0.06713272,-0.039896235,0.000820972,-0.16681731,0.11357033,0.13754426,-0.02720704,0.17154852,0.059872434,-0.06991912,-0.014583603,0.0034755133,-0.08705884,-0.1006185,0.023396563,-0.028216958,0.14018624,0.042578086,0.07552898,0.012288675,0.21679181,-0.16246742,0.05527392,-0.122660674,0.036431447,0.050013967,0.23682842,0.06107684,0.2109095,-0.051174015,-0.11083388,0.061441597,-0.024003653,0.15422538,-0.14870772,-0.02534604,0.01780004,-0.06559689,-0.0437473,-0.07947082,0.14602837,-0.090532355,-0.096443556,0.00161618,-0.014956899,-0.02856983,0.10920643,-0.16559383,-0.15679266,0.030587425,0.091648936,-0.025237195,0.012123868,-0.006234966,-0.15439546,0.030646391,-0.1320461,-0.097464785,0.09485243,0.074588954,0.06752386,0.23850064,0.101331085,0.10682237,-0.10398695,0.035111636,0.06363127,-0.026747406,0.072528265,-0.034163766,0.0008163117,0.10483888,0.062958926,0.036738314,-0.020186912,0.10174855,-0.028684199,0.008080658,-0.008805415,0.08458851,-0.17614028,-0.05697038,-0.015443372,0.02051115,-0.07781748,-0.2591286,0.0961878,0.13431314,-0.1309194,0.028800994,0.04471302,-0.07060447,-0.11256723,0.06450512,-0.09460538,-0.053272102,0.015993193,-0.15836185,0.087830216,0.22411515,-0.00063117966,-0.039537698,-0.02147071,0.0044169277,0.008275859,0.12494746,-0.018864922,0.0570294,0.028782055,0.019191008,-0.023506064,0.0037162248,0.011621155,0.16142912,0.059269916,-0.017752806,-0.1036738,0.08860664,0.2661325,-0.093996234,-0.03133014,-0.1330651,-0.06372909,-0.05154787,0.1668253,0.12929481,0.020475402,0.08538316,-0.09045424,0.09810242,-0.20432831,-0.0407451,0.15153375,-0.020262033,0.10130735,0.0017177276,-0.0004491508,0.17912143,0.17954351,-0.08298469,0.026269041,0.14677617,0.04532487,0.03721082,0.010336369,0.0044931676,-0.073169455,0.05452463,0.011529587,0.116418615,-0.026641987,0.01053673,0.005595767,0.023232415,-0.032077324,0.08500151,-0.075394966,0.024945594,0.22156525,0.013948437,0.10088551,0.10601968,-0.060896732,-0.018825836,0.08292255,-0.06254835,-0.105987914,0.066208325,-0.06263384,0.21661158,0.0027897435,0.13231173,0.014244571,0.16344452,-0.03987564,-0.064459905,-0.18013631,-0.08109658,0.2048719,-0.12549286,0.021729669,0.00014561228,-0.056761444,-0.114808746,-0.0830112,-0.043917228,0.020055853,-0.055131637,0.05776362,0.21043724,0.033352777,-0.24495634,0.19796425,-0.056002192,-0.11452429,-0.0018448606,-0.044068597,-0.060456906,0.017144274,0.1375535,0.07056682,-0.10738519,0.2138483,-0.110329986,-0.009711117,0.13392755,-0.18173297,0.04154479,0.121799976,0.06753464,0.084120005,-0.12222342,0.014187153,0.08114655,0.20361422,0.014099002,-0.07925923,0.08790645,-0.111344524,-0.11711667,0.028725103,-0.052566573,0.12920007,-0.15900217,0.056922503,0.23061298,-0.15805072,0.07566741,0.21143024,0.18494675,0.12640083,0.003988337,-0.100592144,0.0704675,-0.06825934,0.046820253,-0.101812854,-0.2066324,0.021029923,-0.057632387,-0.0013930947,0.0829214,0.1575947,-0.1606583,-0.123126805,-0.021740012,-0.018870404,-0.12912801,0.015412355,0.08178381,-0.09174153,-0.0038740858,-0.059481226,-0.039719224,0.088888824,0.08677936,0.057620592,-0.02478645,-0.03755865,0.19280691,-0.0032643527,0.13824251,0.17241257,0.29230443,0.030771084,-0.043154635,0.07773155,-0.012568653,0.1062845,-0.057055406,-0.15279502,0.048051804,0.066933386,-0.1439479,0.17805365,0.078172304,-0.05166311,0.10568169,0.119062394,0.1778401,-0.13308738,0.027627368,-0.015737489,0.09751797,0.08347138,0.0033141687,-0.034155324,0.052144554,-0.099746965,-0.05776493,-0.089895345,-0.30899882,-0.14399959,-0.13956267,-0.019536369,-0.027377274,-0.087194934,-0.10591611,-0.09845109,-0.08599211,0.051661856,-0.01593452,0.14614892,0.060991578,0.013221468,0.118971586,-0.30247673,-0.10270124,-0.14560246,0.047993243,0.28002578,-0.110585526,-0.022113904,-0.12548193,0.01859542,-0.05748703,-0.04233078,0.16507073,0.041298687,0.023110956,-0.16823107,-0.044803813,-0.077294685,0.14029752,0.08179908,0.1785467,-0.07846663,0.011266944,-0.13044503,-0.1072731,0.15499848,-0.06412129,0.08776009,-0.13019696,-0.14904077,-0.09599386,0.08305526,0.028557971,-0.09952672,0.06565122,0.2004903,-0.3197738,-0.127129,-0.17292885,-0.0383156,-0.14347917,-0.0041262805,-0.008102138,0.10080937,-0.11768272,0.09833138,-0.018208653,-0.15375644,0.021730348,0.074303575,-0.0091757625,-0.122360095,-0.008054271,0.22787178,0.15568899,-0.054926172,0.08824645,0.17484507,-0.057835072,0.048350833,0.11277694,-0.1693756,0.0719921,0.054878116,0.14105994,-0.009854166,0.10932606,-0.15249263,0.15976161,0.011179328,0.11181343,-0.20359257,0.043627374,-0.12924963,0.08467742,0.10328245,-0.033863414,0.089657284,0.2516615,0.20469075,0.081706986,0.052747905,-0.08199022,-0.07556668,-0.057148337,0.023712374,0.113417014,0.04256414,0.18168712,0.16238579,-0.08035366,-0.015738927,-0.12525052,-0.18549532,0.017234683,0.07769626,0.052486368,0.0021087117,0.1320329,0.019766923,-0.098092,-0.07355312,-0.08456929,-0.13677137,-0.06699704,-0.12874898,-0.078113556,0.16590524,-0.19375464,0.03236483,0.08034016,0.061727464,0.027179182,0.06472267,-0.02865564,0.11250156,0.008614466,0.18727052,0.063565746,-0.07414954,-0.0925945,-0.14378394,0.08971992,0.087309286,-0.110765204,0.046335336,-0.036473244,-0.08674961,-0.18919039,0.17177564,0.047376364,-0.05397459,0.033317108,-0.14753881,0.0054437453,0.013144717,-0.05483383,-0.029433738,0.11375092,0.10227588,0.111182004,0.16558693,0.1337955,-0.05482986,-0.043866176,0.11499899,0.09529265,0.13365477,0.11398359,-0.19970122,-0.13589405,-0.043717697,0.050935313,-0.13219373,-0.008955747,-0.2685466,0.12543622,-0.17111386,0.18648869,0.13783115,-0.10430807,-0.10794963,-0.1340001,-0.23254876,-0.018919848,-0.048804633,0.028831467,-0.0072897477,-0.0114762,-0.078425944,0.13921802,0.04643305,0.010671511,0.17090571,-0.110979855,-0.10516537,0.063820645,-0.039391566,-0.014157131,0.06754823,0.12966585,0.036698557,-0.048396237,0.08829892,-0.022301197,-0.069703914,0.13937762,-0.005570397,-0.113386445,-0.15526529,0.04735539,-0.07848668,-0.06510132,-0.21356267,-0.06500055,-0.03346373,0.032813434,0.04041034,-0.088599086,0.014953077,0.077131905,0.09218013,0.08482892,-0.0037547387,-0.042211257,0.07567317,-0.029711515,-0.008512773,-0.0100627355,-0.025608428,0.05292571,0.10261212,-0.030632608,0.07892694,0.042578116,-0.09768474,0.041959018,-0.06979557,-0.14170742,0.095343135,-0.060168475,0.09125351,-0.11229887,0.017452136,-0.12854177,0.0105031505,0.051583923,-0.06113027,-0.029083997,0.05619234,-0.013318181,0.026470061,-0.05477195,0.1270502,-0.033847712,0.09628454,0.13388513,0.06658619,0.0059573427,0.117018476,-0.05277413,-0.040057607,-0.019900791,-0.09342381,-0.023115844,-0.005677812,0.016730923,0.06634188,0.08112325,0.04803875,-0.106151685,-0.028803907,-0.12680648,0.08437812,-0.11097407,0.0015612319,-0.12357047,0.08410274,0.084900245,0.1301305,0.022745013,-0.1521155,-0.0019165929,-0.16845953,-0.011304937,0.029392138,0.036261417,0.17897654,-0.004655177,-0.07118979,-0.18320055,-0.06813156,-0.33663848,0.043560464,0.14408748,0.18195051,-0.16940662,0.02608344,-0.08062468,0.015894279,-0.07047522,-0.09097991,0.1371252,0.016543433,-0.07273417,-0.30773893,0.015513329,0.02598979,-0.009324059,-0.02360735,0.064741895,-0.11038922,0.06353677,-0.09178907,0.13400668,0.014417037,0.016218536,-0.08241899,-0.051884443,0.08892675,0.22628237,-0.11286138,-0.09393242,0.042352214,-0.02642522,0.01738711,-0.010493875,0.01146476,0.08847736,-0.02807261,0.022740934,-0.0041296184,0.09643749,0.21863544,0.007818233,-0.00023177266,0.095303744,-0.1601308,0.018583223,-0.02207844,0.051766526,0.054346874,0.21990216,-0.1599452,0.072118714,-0.0845517,0.015951805,0.015106469,-0.19247924,-0.004761845,-0.096944496,0.022096753,0.13104501,-0.087152585,-0.105510294,0.1820492,-0.046805386,-0.09178699,-0.032983307,0.05485221,-0.11210015,0.12127581,-0.0097288005,-0.017819226,0.13286242,0.15987696,-0.029770255,0.11154973,0.12204127,-0.076794736,0.0080316365,0.16338648,0.094155565,-0.09941082,-0.084036715,-0.02150397,-0.18208633,0.18987344,0.16489181,-0.030037845,-0.061610922,-0.0042958558,0.18386759,-0.05705841,0.04393916,-0.25294733,0.08172404,0.06276409,0.13019781,0.1522257,0.061980136,0.074715525,0.089801975,-0.053170756,-0.03592827,0.2806385,0.02516663,0.09203371,-0.097072825,-0.042384252,0.1872593,0.12417692,-0.036656976,-0.16662213,0.022113055,-0.15046942,0.008318469,-0.16668129,0.124629974,0.1557835,0.21962343,-0.2828178,-0.103150785,0.15426715,0.011652485,0.11521068,-0.11329754,0.100705296,0.034125492,0.03577016,0.04829897,-0.13855377,0.09974787,-0.057855226,-0.072270244,0.059201933,-0.09671003,-0.07141256,-0.026158493,-0.21127519,0.05403982,-0.11149345,-0.06216684,0.014713123,-0.044672,-0.05397871,-0.14661705,0.08555562,-0.059513032,-0.06333137,0.048509043,-0.020488972,-0.070346266,-0.0073801912,-0.14810117,0.12902755,-0.13687962,0.017047158,-0.043543614,0.0008042436,0.012126836,0.04430118,-0.023524836,0.022378856,0.019598827,-0.12479305,0.05850204,0.06390295,0.13171855,0.06707424,-0.042422738,0.016443282,0.08489213,-0.09234825,0.17189176,0.03829657,0.04591563,-0.071800955,0.10518697,-0.07594943,0.23185834,0.18978645,0.025886364,0.15890773,-0.027079143,0.019589156,0.029116467,0.15944979,0.015599228,-0.04409221,0.11414543,0.19592094,0.12435305,0.054022267,-0.18581925,0.08976384,0.037944406,-0.23249157,-0.08959247,0.05293882,0.12693018,0.026971668,0.080719575,-0.03417001,0.07718587,0.0398367,0.22168511,-0.110686205,0.07984176,-0.0039917454,0.068559945,-0.058531635,0.15870765,0.07006846,0.081054576,0.08655429,-0.0809236,0.006730236,0.07397516,0.024674498,-0.33713382,-0.022406526,-0.21864411,-0.04455503,-0.06129626,-0.10649006,0.036214083,-0.046946935,0.07637759,-0.13980535,-0.059014186,0.069616504,-0.04224065,0.13145632,-0.22431336,-0.06292805,0.006810697,-0.014304922,-0.17396358,-0.07811345,-0.08229385,0.069667414,0.056418806,-0.39315006,0.11631836,-0.15945867,0.04088627,-0.0799372,0.271933,0.04166305,0.19005975,-0.12157281,0.13446511,0.05519612,-0.1917809,-0.038695313,0.012674114,0.0687444,-0.10941921,0.049748383,0.04654647,0.17095093,0.008898914,-0.023796827,0.028952748,-0.13368192,0.015907552,0.2619533,0.15311699,-0.07243293,0.24358113,-0.0044776886,0.17008153,-0.031656653,0.080611974,0.01947245,0.051378272,0.053418018,0.10211312,-0.15950812,-0.09501587,-0.003779876,-0.08362083,0.017530028,-0.08624916,0.060271814,-0.012882426,-0.105397165,-0.2860653,0.090563774,-0.040515825,-0.13311532,0.062869355,0.13388781,0.013320105,0.10774892,-0.031747937,0.045233756,-0.19912852,-0.19736949,0.01992394,0.0035145767,-0.1649522,0.0030856058,-0.0653287,-0.124411196,-0.16956006,0.1054979,0.11694761,-0.117852315,0.20954892,-0.05266548,-0.04830245,-0.056720577,-0.048028618,-0.19801253,0.02468241,-0.04697311,-0.081174724,-0.00021048076,0.019992523,0.07504687,0.09257967,0.021741677,0.12528831,0.008585393,-0.09814879,-0.12906346,-0.12456126,-0.05062607,-0.17637038,0.11743626,0.035156913,0.0951054,0.062094778,-0.0021520378,0.1276151,0.0074705034,-0.09162835,-0.054242775,0.015836623,0.017323652,-0.09466276,0.010485157,-0.004598759,-0.12438795,-0.029912183,0.078341365,-0.06337349,-0.09846784,-0.082101226,-0.14671603,0.020838425,0.0057152063,0.04558318,-0.052010536,0.047666628,0.03362509,0.15464202,0.023602635,-0.0019256808,-0.030038485,-0.094268404,0.023285389,0.067215346,0.028971747,0.01650314,0.048298307,0.0053989887,-0.24042326,-0.11567924,0.11442822,-0.029200427,0.04766652,-0.23473549,-0.016728088,-0.019308578,-0.13144004,0.14694256,-0.264567,0.057265427,-0.2108082,0.15302868,0.019514844,-0.044558022,-0.056268115,0.07354916,0.085942365,-0.122331664,-0.06294766,-0.09696825,-0.020567998,-0.068534456,-0.046160813,-0.086068906,0.19069356,0.084701926,0.012219489,-0.09561557,-0.00069192983,0.045347184,0.0959167,0.11672138,-0.01997023,-0.1406157,-0.08595148,-0.08414595,-0.1411416,0.066501,-0.045372866,0.1319796,0.15348583,-0.0401735,-0.052460656,0.15175453,-0.24911475,-0.16402571,0.039528325,-0.17591333,0.045236062,0.099848405,-0.09775221,0.20215625,-0.082172215,0.030552309,-0.07114212,0.007546898,0.008097008,-0.023696315,-0.04344183,0.13926837,-0.08674987,-0.07810186,-0.05842146,-0.15531918,0.1317272,-0.095991604,-0.05939243,0.09891171,0.016401332,-0.045409307,-0.0027039398,0.14185065,-0.03373418,-0.10322106,-0.044369772,0.18828216,-0.17733735,0.03879931,0.07901687,0.07427729,0.14849772,-0.011299677,0.10215929,-0.040669784,0.043903943,-0.030393414,0.23148954,0.07355163,0.024725873,-0.10210756,-0.029187068,0.062209934,-0.018073533,0.07972204,-0.09878952,-0.055921674,0.045534916,0.010464795,0.25343078,0.08720002,0.24727842,-0.06337184,-0.23984918,-0.11739695,-0.22916678,-0.111178525,0.0676353,0.075986505,-0.12365459,0.10397042,0.022777388,0.025129162,-0.035286784,-0.1060386,0.08089924,0.022301368,-0.0023892745,-0.10507651,0.20027041,-0.1590161,0.14316109,0.16356598,0.26554224,0.057548,0.15226358,-0.013043694,-0.067294106,-0.0994997,-0.035653897,0.21803135,-0.004877826,0.0035266802,0.059009697,0.044616736,-0.14538048,-0.011923939,0.09091596,0.01560358,0.12626253,-0.2908746,0.05359338,0.03155566,0.13520701,-0.11155287,0.05104402,0.004850477,0.06284401,0.099051185,-0.010510698,0.04436125,-0.07046217,0.14232068,-0.024377191,0.14778562,-0.16245285,0.023828484,0.032863878,0.07023502,-0.04099542,-0.03311855,-0.10031065,-0.2608792,0.054804794,-0.116057254,-0.05722788,0.082209505,0.13537517,0.06369203,0.21891305,-0.061155822,-0.0943895,0.09941185,0.024954446,0.03294511,0.11619858,-0.0054788366,-0.12518556,0.03837064,-0.1835656,-0.020840377,0.13415979,-0.08068654,0.032273777,-0.08661413,0.008332662,0.14750811,-0.026938736,-0.050376825,0.1085206,0.03529123,0.047704753,-0.10023994,-0.14173028,-0.08501473,-0.0040937066,-0.08963151,-0.023234576,0.20233479,-0.19566986,0.093395606,0.056255125,0.17341,0.024496987,0.02458366,0.12352321,0.039247572,0.11480316,0.046944365,-0.114205934,0.049345,0.03975745,-0.008481132,0.18859953,0.07860591,0.096595444,-0.12116708,-0.085158326,-0.09754251,-0.26309994,0.031732783,0.2086687,0.14188841,0.052538358,-0.030191168,-0.03616696,-0.011318399,-0.070811726,0.061020683,0.10306859,0.03610852,0.15838641,0.14428848,0.09874236,0.06088119,0.15201707,0.11310527,-0.040479776,0.05135522,-0.027891591,-0.024287194,0.066585496,-0.02917994,-0.19740665,0.0784045,0.008336874,0.02784615,-0.01182346,0.0515358,0.023153752,0.00069294125,-0.1598843,0.007481441,-0.09827944,-0.07141575,0.028070606,-0.033737153,0.13642965,-0.20384702,-0.07080935,-0.19518481,-0.15692264,0.049888257,-0.019222068,-0.03633032,0.015207618,0.11784329,0.067613006,-0.042644426,-0.09957661,0.06174779,0.081793115,-0.12129352,0.04475727,0.13760437,0.15678236,0.025484256,-0.09370929,-0.049019072,0.115469165,0.10724891,-0.049012218,0.13080473,0.031971887,0.07222034,0.10494257,0.09130269,0.09584817,0.0317753,0.100734875,-0.007285204,-0.1901044,-0.22692926,-0.06191896,-0.067488685,0.10737996,-0.05094461,-0.02963604,0.027279608,0.055726606,0.2650127,-0.15252914,0.090659276,0.12298474,-0.04018442,0.11557605,-0.010571003,0.12778686,-0.114758216,-0.13940127,0.03311321,-0.0914142,0.07196309,-0.04957065,0.0032639946,0.35895193,-0.027957877,0.016091704,0.13113344,0.06263183,-0.092656545,0.045975283,0.09055344,0.05030264,0.04592216,-0.026380438,-0.038791727,0.09274812,0.016667621,-0.14824176,0.149665,-0.0029329583,-0.0478061,-0.027709514,-0.031947337,0.101020925,0.0073737055,-0.012577347,0.003017962,-0.045092914,0.068613276,-0.3962863,-0.0072683096,0.07073613,0.044408835,0.04318811,0.13908507,0.035162024,0.051728312,0.111152135,-0.06676121,-0.011076279,-0.00035734475,-0.0914063,-0.042160563,-0.051591888,0.034191694,-0.111979485,0.048412748,-0.18125245,0.09691119,-0.025948584,0.10291435,-0.07100507,0.05985119,-0.06594478,-0.30240825,-0.076400355,0.0038559884,-0.071916014,0.0120432265,0.07362976,0.044936266,0.00058394484,0.0018267222,-0.009288311,0.04654612,0.028392449,-0.0678742,0.045387227,-0.027684465,-0.039114118,-0.10814583,0.20904139,0.072809316,-0.058163382,0.0006480627,0.060448036,0.23981038,0.14422342,0.014813092,-0.0811438,-0.0647066,0.04523533,-0.08052046,0.0119537115,0.068873525,-0.079107836,-0.06285693,0.17776847,-0.035222165,0.16011445,-0.011881277,-0.17227875,0.03715524,0.044516303,0.05923722,0.10397624,0.040037528,0.03962055,0.13463937,-0.11306293,-0.036896184,0.06405759,-0.027749524,0.01440727,0.058321003,-0.16322312,-0.03964787,-0.23937199,0.10557387,-0.08207376,0.078306496,-0.16752833,0.05572923,0.031153202,0.058269862,-0.16849259,-0.10886801,0.045268126,-0.0016242797,-0.057408333,0.08268114,-0.03021612,-0.01896435,-0.013865516,-0.19649522,-0.051369976,-0.04267581,-0.063992545,-0.045124892,-0.024742216,0.02418473,-0.16100669,-0.10487476,-0.017645895,0.17844363,-0.12226627,-0.035138093,0.005680792,-0.024711803,0.004984699,-0.012883391,-0.11252701,-0.042084843,0.056900825,0.01665236,-0.031458247,-0.027148103,-0.061342984,-0.18544853,-0.085554674,-0.040731058,-0.09126497,-0.0041215867,-0.08858666,-0.027153168,0.043160122,0.0019731224,0.058075704,0.020824447,0.04898811,-0.22454153,-0.09361365,-0.053015642,0.071426205,-0.067355536,0.14100586,0.08201808,-0.022811748,0.09175432,-0.052143656,-0.115053326,0.10989899,-0.110583276,0.09188815,-0.06803812,-0.027898557,-0.033510804,0.059536956,-0.08472562,0.12658289,-0.11974961,0.06839685,0.00033516437,-0.06400546,0.022313654,0.0020597763,0.139686,-0.067823716,-0.076050706,0.1902542,0.06632507,0.009693764,-0.0332111,-0.056279838,0.03358282,-0.0164994,0.06652473,0.16512536,0.000710316,-0.00985679,0.037780102,0.04693663,0.082904726,0.13343395,0.04869531,-0.090248525,0.02590335,-0.045620892,0.112402976,0.073415846,0.011374999,0.030785024,0.029417224,0.07522465,-0.11128827,-0.021813978,-0.059568137,-0.004655227,0.206978,0.08639602,0.10580253,-0.004336871,-0.025680218,-0.019289508,0.044086605,-0.012703326,-0.06857329,0.08035928,0.003891129,-0.06824601,0.057902537,0.17249961,-0.23440251,0.05072985,-0.096046135,0.04180934,0.076989174,0.13598125,-0.032185875,0.026983093,-0.03665705,0.14294699,-0.01949925,0.027324535,0.028016664,-0.012345199,-0.103153035,-0.07579106,-0.13791054,0.04392403,0.047411963,-0.0017883852,-0.02338954,-0.09739061,-0.026374098,0.00078734756,0.10259141,0.110859215,-0.024733458,0.078804985,-0.0462683,0.16619079,0.028203025,-0.29945397,-0.0016501024,-0.03460002,-0.03530458,0.11675416,0.08288814,-0.015875816,0.16752997,-0.19605252,-0.13923268,-0.047946066,-0.04672953,-0.0056898054,-0.11641677,-0.0129092485,0.09400186,0.0275574,-0.1042677,-0.014831394,-0.13993925,0.035135135,-0.09178497,-0.11050245,-0.014197109,-0.06998868,0.089370996,0.04907081,-0.21960631,-0.07785426,-0.09647666,-0.035924736,-0.08481361,-0.013372056,-0.17897856,0.06362386,0.03612507,-0.037219867,0.07622671,0.14833552,-0.06294684,-0.15268403,-0.060707748,0.010715678,0.091076314,-0.08819041,0.054259494,0.22666141,0.07643955,-0.08289893,-0.013353635,0.0061152577,0.027780162,0.13827157,-0.026038758,0.15590075,-0.004280716,-0.18070897,-0.029626027,-0.12685938,-0.14864564,-0.0026398227,0.13292894,0.0075420737,0.029709607,-0.058803953,0.029687166,0.072720945,0.014102489,0.12300114,0.07724389,0.06138109,-0.020172551,0.06700346,0.13639244,-0.09527692,-0.11393319,-0.15700063,0.001781717,-0.059983626,0.12037988,-0.06617203,-0.18960811,-0.016223416,-0.06983277,-0.037827063,0.051582336,-0.19452302,-0.046485808,0.10426033,-0.08498798,-0.0573535,0.03977048,0.029573783,0.12864286,-0.26623568,-0.0908667,-0.046777427,-0.07283851,-0.18455288,0.008714627,-0.08183117,-0.028277755,0.11055241,0.083856225,-0.0063085556,0.04387859,0.034113243,0.026147038,0.12106625,-0.12073147,-0.07904645,-0.013594173,0.110463716,0.17816739,-0.0028153658,0.080590606,0.10910699,-0.06930302,-0.23291326,0.038731065,0.1306301,-0.026387554,0.01793294,0.057145666,-0.0863186,0.040675916,-0.05619836,0.22848041,0.019474402,0.16777991,0.012331609,-0.07353456,0.08322473,0.18481204,0.10092614,-0.1266436,-0.09081772,0.061776474,0.03486033,-0.043042272,0.025486872,0.10867603,0.0030070096,0.06743938,0.11616926,-0.052595794,0.04882877,-0.17421524,0.12147668,0.10876429,-0.11187567,-0.0025493503,0.12026388,-0.023016768,0.08617038,-0.07903525,0.0784587,-0.090357125,-0.08462699,0.09219134,-0.020644948,-0.010772854,-0.06338891,0.08974352,0.08548576,-0.039869808,0.19718724,0.19252722,0.052803796,0.06744939,-0.11881384,-0.08541986,-0.08246709,0.091797076,-0.020194588,-0.21378088,-0.06327335,0.27264065,0.09394884,0.16114093,0.0060608983,-0.026088998,0.042481408,0.06069143,-0.023877088,-0.056769773,0.09664098,-0.13175909,0.043567985,-0.15688881,0.03901554,0.06706424,0.12930904,0.03870135,-0.03182222,-0.074980386,-0.045396734,0.089753985,0.043590784,-0.013236465,0.020632852,-0.22056732,-0.006752506,0.0043250322,0.05482824,0.14992043,-0.05093816,0.07004545,0.03827643,0.010000318,0.13533635,0.10066151,-0.041953754,-0.142066,-0.17662251,0.098978676,-0.019852132,-0.19938776,-0.27193695,-0.025239184,-0.088457584,-0.21345317,0.040322036,-0.1016129,-0.043046348,-0.13353556,-0.041511044,-0.07509517,-0.022691127,-0.054725677,0.2095266,0.1416545,-0.11099282,-0.054268163,0.011398703,-0.114301935,0.07660862,-0.16952716,-0.13245007,-0.04284456,0.093126886,0.2268197,0.07910402,0.02788984,0.104191475,0.15840183,-0.07636973,-0.032920387,0.036270566,-0.03558239,-0.2120632,-0.14573899,0.033300873,-0.039807603,-0.17874362,0.051598355,-0.13016737,-0.033195093,0.1745428,0.07387529,-0.14500631,0.05252604,-0.073149905,0.039968863,-0.106927656,0.009582564,-0.015218794,0.08988991,0.013800554,-0.009628378,-0.018601254,-0.009792623,-0.20514333,0.1648542,0.03940755,-0.052064914,-0.009090073,-0.034733854,0.021884859,-0.0754384,-0.07797256,0.06398356,-0.111567006,-0.13845746,0.15117042,0.06319398,0.12919787,-0.08584505,0.2057805,0.019554928,-0.05025126,-0.16195866,0.047109477,-0.03177819,0.11251496,0.13367936,0.013889413,0.057456464,-0.18691899,-0.10904457,0.10097548,-0.10356036,0.10592605,0.15031673,-0.009865899,0.09796861,-0.006563388,0.08739581,0.05193527,-0.22633196,-0.07610913,-0.052624788,-0.14272238,-0.0057876855,0.18466409,-0.1495616,0.012708407,0.033701964,0.05156049,0.17568378,0.09951376,0.10229244,-0.025468081,-0.14484742,0.23979941,0.05196459,-0.09396401,0.095819056,-0.091038324,0.013688941,0.03745116,-0.057582922,0.013971575,-0.024482563,0.058898974,0.01372651,0.00790894,0.015973136,0.0019363314,0.15806139,0.3180396,0.0083040595,-0.22527935,0.07530244,0.038129102,0.02247877,0.012507461,-0.08242872,-0.036895722,-0.0454102,0.015754147,-0.12679592,0.0075894147,-0.14601707,-0.057337396,-0.027929291,0.0017179996,-0.14498441,0.023513895,-0.15695754,-0.025393521,-0.12164472,0.02293086,0.048888937,0.05592449,0.08759184,-0.010472178,-0.036437467,-0.09640007,-0.12104971,-0.17348096,0.07072631,-0.0065082833,0.12188859,0.18786512,0.054016776,-0.10515921,0.05727026,-0.12479372,0.23415458,0.04573676,0.08661566,-0.13673076,-0.044707447,0.07193662,-0.06132822,-0.038992167,0.06987548,-0.16482005,0.08202056,-0.014088765,-0.07560849,-0.16537565,-0.1192933,-0.07900005,0.064519554,-0.06881648,-0.042066872,0.07511671,-0.0910563,0.022708118,-0.0075902715,0.1043566,0.12916973,-0.014445335,-0.001874648,0.21300696,-0.033167455,-0.10668272,0.14693525,-0.015781604,-0.059023842,-0.07903225,-0.099336185,0.00207185,-0.10360016,-0.040745817,0.08305431,0.04118907,0.012732938,-0.24034058,-0.053326562,0.16498818,-0.019598294,-0.010759875,-0.07313242,-0.027134947,0.012306277,0.07778543,-0.04264623,0.00984782,-0.07155171,0.038219478,-0.18835992,-0.0695975,-0.000646241,0.012105212,-0.0032260045,0.071614,-0.048231684,-0.10896665,0.015540032,0.1526025,0.16283551,0.029211015,-0.008973844,0.15931675,0.06670197,0.047008336,0.032488428,-0.16273707,0.054583512,0.03094101,0.031121776,0.14600864,-0.21405433,0.030833106,-0.008428864,0.037549928,-0.03146214,0.15426457,-0.12630078,0.055668026,0.15960096,0.056638386,-0.041255232,0.013136268,0.18199466,0.1099196,0.07882465,-0.105814286,0.07389003,-0.02255328,-0.087341264,-0.01521486,0.059275564,-0.011450183,0.008598167,0.090159595,-0.064864546,0.08395371,-0.12336452,0.038249493,-0.18629132,0.10445661,-0.3080007,-0.16909079,-0.00667239,0.027761713,0.16213073,0.016589155,-0.24289086,0.036772713,0.17609501,-0.055936646,0.035702847,0.17266658,-0.043100357,0.071506076,-0.06708335,0.3351836,-0.0571012,-0.23506331,0.12862971,0.05548681,0.007189296,-0.21579996,-0.050775032,-0.09266026,0.069807276,-0.045377817,-0.15627468,0.24623898,-0.25730294,0.06594238,-0.04770477,0.008027494,0.024674982,0.07456183,0.179049,0.011367887,0.13732992,-0.047586672,0.05908052,-0.040407706,0.004725594,-0.1489215,-0.089274585,0.033959106,0.03773918,-0.07117891,0.07292112,-0.21673813,0.13473877,-0.07088158,-0.043849573,0.08037259,-0.27344236,-0.08332898,0.16109861,0.10645749,0.014645625,0.03667205,0.08812994,-0.11465278,0.068467736,-0.012882967,-0.042413533,0.041268364,-0.15176347,0.17388123,0.018918823,0.048488513,-0.1887933,-0.025181316,-0.040707156,-0.01514671,0.1921213,0.016294975,-0.16724236,0.08430335,0.037375998,0.13952947,-0.080623515,-0.024059229,0.10150311,-0.117582485,-0.15503238,4.990399e-05,-0.047118902,-0.046562888,-0.06595525,0.02340534,0.15071173,-0.0022239892,-0.021478698,0.09424439,0.0015056655,0.062296413,-0.14159565,-0.05315482,-0.25359064,-0.043397583,-0.0741244,-0.084613815,0.0012273267,-0.15664533,-0.0125153065,-0.00026115775,-0.09008382,-0.038541727,0.025019862,-0.17499173,0.18785828,-0.028941795,0.010855809,0.16627105,0.0033877306,-0.14499108,0.018670324,0.0054053143,-0.19562747,0.05039739,-0.059972607,0.115212604,0.030329421,-0.07676374,-0.09476343,-0.13144688,0.029040001,-0.040780943,-0.0011678422,0.08842253,-0.05934888,0.002188146,0.14275613,0.041699626,-0.10333514,-0.0907922,-0.12383747,-0.0186667,-0.12093273,0.121171325,-0.15432638,0.0335856,-0.042163998,-0.02571289,0.07228537,-0.054721117,-0.10967782,-0.14787072,-0.06782214,-0.053354796,-0.07352471,0.01436195,-0.009938948,0.0007979274,-0.16966453,-0.032148883,-0.013195761,0.02181095,-0.071038894,-0.06586646,-0.053377777,-0.088126734,-0.08104195,0.04851454,-0.040256836,0.06606564,-0.07618801,-0.030471887,-0.0058075488,0.016612582,0.23124832,0.2047056,-0.010699585,-0.051097117,-0.1644625,0.083423495,-0.021610718,0.12352405,-0.13992815,-0.049978547,-0.07232365,0.0705709,0.0057635903,-0.028305693,-0.21609265,-0.080186866,-0.05931331,0.11461887,-0.15594769,0.089043096,0.024474248,-0.0199835,-0.09541556,0.0129027795,-0.03410627,0.114474386,0.06051121,-0.13080586,0.17414273,0.086678036,0.009418372,0.038867258,0.015755596,0.047453023,0.093101196,0.043878444,0.1718471,0.19195281,-0.049118035,0.064002216,0.0054175556,0.017308906,-0.03863887,0.037395988,0.18336934,-0.0716718,-0.20159964,0.011505015,0.14222454,-0.16216451,-0.04698211,-0.03911896,-0.07628294,-0.04883519,0.0190987,-0.05304315,0.052521184,0.004267499,0.06836034,-0.12537193,-0.10074854,0.118690446,-0.015234403,-0.09073039,-0.023186758,0.16733217,0.13286504,0.1465896,-0.06257437,0.05280077,0.07519612,0.1345633,0.17515565,-0.030360535,0.104080886,0.285944,-0.11535072,-0.01472407,-0.19849887,-0.02373834,0.18042587,-0.03889383,-0.110104375,-0.0012281016,0.030272111,-0.015190318,0.14305328,0.14433014,0.09389286,0.03571717,-0.13392995,-0.08650439,0.067718275,0.16476531,0.1663418,0.11004245,0.016851261,-0.21102539,0.17769948,0.3292738,-0.04054941,-0.02465862,-0.014080018,-0.022371762,-0.051438294,-0.061562363,0.034420677,0.20037283,0.14262924,0.15358722,0.09110137,0.10925717,-0.059866592,0.051664464,0.106150284,-0.16509597,-0.05369693,-0.056888357,0.1357892,-0.056523062,-0.008583225,-0.015913974,-0.084150836,-0.0004844442,0.083166994,0.032094102,-0.020043172,0.116428174,-0.20812759,-0.14962552,0.093348965,-0.006003186,-0.19979152,-0.0059553385,-0.35299134,0.0686153,0.041741855,-0.013766997,-0.14634272,0.12504837,0.016063288,-0.05965575,0.008493733,-0.008896014,-0.14549278,0.096384324,0.20939574,-0.023065016,0.09534919,-0.03044293,0.07955835,-0.14366779,-0.10505535,0.028399624,0.10658056,0.066199265,0.019773021,0.24930245,0.015398365,-0.11944884,-0.03146962,-0.12988493,0.011064384,0.019443098,0.038783852,-0.08922207,-0.23961504,-0.074965596,0.047660552,0.25777185,-0.021706488,0.08864355,0.16029103,0.0074542686,0.19276688,0.0015748143,-0.033969514,0.033987414,0.013481572,-0.03268096,0.08743347,0.08159013,-0.16648406,0.19190006,0.07072308,0.10428579,0.09113344,-0.13705447,0.12337457,-0.060603864,-0.06599106,-0.12451381,-0.15581393,0.1203174,-0.16062522,-0.05837796,-0.025390193,0.08004446,0.011009097,0.1281147,-0.07191738,0.03947337,0.21722206,-0.06429182,-0.16911088,0.08596743,-0.07900302,-0.13199462,-0.011536211,-0.19998845,0.049995005,-0.0020117909,-0.13506289,0.070811175,0.06399723,0.020828327,-0.101757795,-0.014088154,0.18034527,-0.05791558,0.026177347,0.04713816,-0.031398907,0.03018912,-0.12516133,-0.03359977,0.26290655,0.057362325,0.05569181,0.02514106,0.07712153,-0.013326414,0.08537936,-0.05856023,0.17168324,-0.06672147,0.06915085,-0.060862675,-0.11712253,-0.036718793,0.062125616,0.016013429,-0.12007936,0.23494737,0.033087052,-0.23110023,-0.11802065,0.034711365,-0.114807375,0.047417067,0.036968857,0.017155483,0.013740048,0.15999627,-0.11796657,-0.073253736,-0.18310797,-0.13734125,0.00806384,0.22105098,-0.18352677,0.010469057,0.04372322,-0.057745807,0.14253813,-0.048346665,0.14134905,-0.0680507,-0.0009893626,-0.013753839,0.057959244,0.018021043,-0.15244743,0.016937524,0.03204474,0.2098741,0.197949,-0.06879316,0.05215164,-0.05770673,0.03319989,0.101193085,0.15393606,-0.022117227,-0.052049335,0.0012068525,-0.018813068,-0.01807256,0.1505457,-0.01904083,0.03022921,-0.07801367,-0.054965798,0.048900753,0.18587662,0.038103625,0.2199585,0.22423773,-0.12365695,0.11176123,-0.04848671,0.049307708,-0.16487347,-0.058445923,0.015439704,0.035600923,0.086221084,-0.056805477,0.08547266,0.05125731,0.042873606,0.10502993,0.08261631,0.007150367,-0.192538,0.039452523,0.022123408,0.032170027,-0.2621922,-0.02928251,-0.00905171,0.05967155,-0.12281299,0.12215587,0.018318102,0.122817695,0.02910061,0.055227496,-0.048329968,-0.03476589,0.041203834,0.119355544,-0.091887675,-0.26050144,0.01808124,0.012839533,0.00570528,-0.0799979,0.020514779,0.06869558,-0.12784913,0.22331148,0.07326919,0.10459284,-0.02026277,-0.12280898,0.06493656,0.017239138,0.009738456,0.029217556,0.002452623,-0.14770402,-0.056969386,-0.16890855,0.090781994,-0.019094586,-0.23970534,0.08460678,0.05079633,-0.06861757,0.071670145,0.07351147,0.14483497,-0.06930137,-0.099995,-0.01541928,-0.2398493,-0.02844546,-0.15263924,-0.067589924,0.18881816,0.027166422,-0.0466791,-0.046196274,0.18356904,-0.19403921,-0.17740345,-0.026448287,-0.013129093,0.028778717,-0.04857695,-0.056128696,0.05205086,0.10443122,-0.07387264,0.17218964,0.01982333,-0.04752935,-0.15813038,0.13632545,0.031241495,0.090311825,-0.013099844,0.0537909,0.021502564,-0.0012181699,-0.010466009,-0.001380953,0.13476369,-0.07324883,0.030671872,-0.003664963,0.124090284,-0.056251336,0.14049976,0.03196343,0.03530187,0.07984213,-0.08903644,0.11388771,-0.027291462,0.03997235,0.06708394,-0.029425368,0.054647524,-0.073951796,-0.020122513,-0.101239145,0.039924216,0.031444475,-0.09198913,-0.11905455,-0.10462408,-0.1160382,-0.093266845,0.020278867,0.1194375,0.1399041,0.016668975,0.022957752,-0.094664805,0.09259449,-0.22045222,0.081890374,0.091104545,-0.18194035,-0.09119206,0.015341196,0.06237457,0.0154470205,0.10847861,-0.06413772,0.021300256,0.16534454,-0.12886555,-0.07257294,0.026598062,-0.20671642,0.16453019,0.1773969,-0.07577969,-0.008781951,0.19712345,0.07280825,0.10860264,-0.020854175,-0.021286696,-0.09750185,0.037271135,-0.13606986,-0.11276527,-0.041376784,-0.05821464,-0.17574391,0.22991517,0.1258079,0.031148344,0.11192356,0.022317663,-0.07699342,-0.016381081,-0.035200864,0.19001848,0.06151311,-0.04536096,0.0629039,0.090323746,0.053352684,0.019699357,0.053284116,-0.104255386,0.10601715,0.06473185,0.1178038,0.07536673,-0.01939319,-0.10061003,0.12814985,-0.026236665,-0.19603947,-0.067641065,0.20719686,0.15019695,0.031005424,-0.06622935,-0.06257616,-0.029855553,-0.012110259,0.053199977,-0.030541942,-0.057007767,0.15502524,-0.04825096,-0.07942744,0.03831107,-0.020981211,-0.08772163,-0.060259804,0.1772303,-0.10395267,-0.06188024,-0.015839387,-0.020132272,-0.010319188,-0.07492283,-0.022851985,0.082689755,-0.062007688,-0.071826115,-0.17192921,0.12009293,-0.067567796,-0.029154226,0.045045033,-0.090956226,0.09307888,0.07884164,-0.06774163,0.029615954,0.1653079,0.043471813,-0.001973994,-0.026491126,-0.10178909,-0.009071954,0.11105991,-0.16005898,0.13413876,0.06297495,0.053425305,0.095776156,0.16665563,0.07627842,0.24252355,0.05096504,-0.1312582,-0.003299974,-0.23297757,-0.26660147,0.040562004,-0.05991189,-0.032370288,0.023318715,-0.023496913,-0.09605967,-0.12970652,0.103688315,0.26251262,0.09911108,0.056984603,-0.018477932,-0.15765984,-0.13252306,-0.12364024,-0.030143166,-0.016835893,-0.107451476,-0.04955194,-0.16791102,0.07425075,-0.058628008,0.15874521,-0.060283512,0.095051065,0.14037876,0.012346804,0.17838702,0.06796868,0.057356782,-0.0517878,0.088605985,0.049748823,-0.05621755,0.03109401,0.07037573,0.071773164,-0.07706372,-0.046892285,0.001935184,0.043399036,0.11543653,0.16370337,-0.30449444,0.07365077,-0.01709386,0.08615068,0.11151559,0.08012407,0.1302793,-0.12097016,-0.1905576,0.16085097,-0.14817353,0.054211624,0.06294303,0.019181013,-0.2083078,-0.06445834,0.021843225,-0.27632347,0.11158832,-0.052685548,-0.028289095,0.008143716,0.00065331906,0.013605301,0.032974735,-0.075435184,-0.07037617,0.051345613,-0.06053832,0.08363032,-0.0013358779,0.015528026,-0.04277132,0.09511827,-0.017877642,0.036753148,-0.26612502,-0.13449043,0.12102198,0.12587625,0.050931357,-0.036556616,-0.061072,0.021899495,-0.09133035,0.0074003115,-0.023667857,0.08522466,0.034686305,-0.040345393,-0.22729819,0.048108093,0.11660409,0.09229396,0.1467019,0.12712698,-0.16011055,0.054502983,-0.012361586,-0.006764075,0.036664255,0.07471268,0.06295195,-0.056264937,-0.0053394213,0.02170153,-0.00042013451,0.12291629,0.046813257,-0.17208362,0.06257083,-0.0980652,0.103499405,-0.17501839,0.095737904,0.062076762,0.22995323,0.052302472,0.19922186,-0.0013903938,0.048442304,-0.1272093,0.041029103,-0.10233651,-0.074922666,0.0054538846,0.09626259,0.16133963,0.13608009,-0.043144275,-0.008762524,0.11533012,-0.12992619,-0.03417522,-0.0074413344,-0.04488026,0.12205699,-0.0058109993,0.09311996,-0.018807404,-0.04623365,-0.026059404,0.061839692,-0.013243832,0.0032272637,0.129524,0.060683746,-0.080510214,0.09977434,-0.16000345,-0.18688148,0.0005283989,0.13351601,-0.25527698,0.12599212,0.20739031,0.06281348,-0.11668901,0.0010040477,-0.020444568,-0.12261292,-0.11823455,0.031226141,0.05928136,0.044624444,0.04448794,0.0125762075,-0.039061904,-0.16307428,0.047332704,-0.10465065,-0.006997928,-0.10806666,0.19234456,0.07723853,0.02596376,-0.13484938,-0.1167935,-0.33441195,0.16594833,0.09574053,0.115120664,0.08282725,-0.028996259,-0.105939195,0.057247963,0.1073804,-0.11166014,-0.1188489,-0.042152584,0.014062617,0.008033603,-0.08778549,0.1359372,0.072292,0.016733348,0.06707773,-0.18610549,0.011436999,-0.017514069,-0.16343202,0.09720061,-0.39155257,0.08079634,-0.13627005,-0.13914159,0.010602191,0.08567896,0.0026689693,0.020419233,-0.07612831,0.0067614256,-0.017229646,-0.27287993,0.0649442,-0.018554226,-0.07467182,-0.06486304,-0.14052391,0.06849263,-0.022881292,0.02960883,-0.098818675,0.025751814,-0.12529331,-0.012037765,0.007703537,0.2701623,0.043615542,0.09749202,-0.13253134,-0.13754155,-0.068344496,-0.09417886,0.090134546,0.08648944,0.037425607,0.03875505,0.10573843,0.026793731,-0.17456916,-0.070432544,0.05363132,-0.22835506,0.08496907,-0.05895938,-0.034429803,0.086326756,-0.012499198,0.08698083,0.016336143,-0.19937687,0.03784363,0.30802983,0.0011971756,-0.2091666,0.03472141,-0.03929072,0.10682753,-0.12089475,0.06363973,-0.16128747,-0.035337135,0.020615954,-0.023703251,0.015937932,0.10414753,0.13462177,0.015597448,0.0197513,-0.05879258,0.20219178,-0.04472768,-0.1294295,-0.15286627,-0.068880215,0.037362814,-0.018171132,0.12634593,0.041950062,0.054048885,-0.01060703,0.028090984,0.094980076,0.1371313,0.15590237,0.1369099,-0.15848307,-0.17411523,0.05063252,0.12758394,0.051987812,0.0009345319,0.025834188,-0.12060526,0.08445734,-0.12217089,-0.040853012,0.15447846,-0.09013152,0.07109701,0.051334888,-0.08394898,-0.11235814,0.030683309,-0.035535276,0.045415066,-0.044665784,-0.13728847,-0.05922546,-0.06324829,0.011743303,-0.018902197,-0.036444124,-0.047179017,0.10398154,0.13687614,0.023248926,0.11278031,0.084671386,-0.042622775,-0.118089125,0.16438393,-0.0071954504,0.08568948,-0.030905366,-0.20945792,-0.067646384,-0.2772293,0.09458669,0.0095293075,-0.02200181,0.03151761,-0.11843674,-0.04587471,-0.078325994,0.032746226,-0.036669463,-0.14261991,-0.226424,0.21608883,0.27861014,0.030159049,0.038806647,0.010801807,-0.13413122,-0.043211304,0.125143,-0.04174778,-0.041831493,0.055220224,0.07357095,0.124873936,-0.098570645,0.237441,-0.0112106,0.01165653,0.021081999,-0.01829116,0.04297381,0.025664715,0.13480544,-0.074188694,-0.014686428,0.21713378,0.10594043,0.15850875,-0.060910508,-0.036832996,0.05795293,0.030929074,-0.03707897,-0.005829796,0.025431246,0.13470013,0.10757286,-0.06117183,-0.0019074678,-0.16917956,-0.01758422,0.044055164,-0.0018505678,-0.013757139,0.20074014,-0.026149593,-0.0027428716,0.12149626,0.09918513,0.0055281,0.008485414,0.025331449,0.1467436,-0.014415277,-0.012433924,-0.08263765,-0.07011635,-0.08607984,-0.1295631,0.15790774,-0.0032681078,0.0019507706,0.18113098,-0.19600518,0.029540025,-0.055468507,0.11992191,-0.046188407,-0.3472815,-0.25592232,-0.10229528,0.16585732,0.10024927,-0.15416232,0.053930584,-0.031993628,0.09316966,-0.038060658,0.048253406,0.12653859,0.14266837,-0.08643562,-0.04552451,-0.16094926,0.070104636,-0.0035469793,-0.0905462,-0.0056235157,-0.051781952,0.013213888,0.07317337,0.043726474,-0.050994553,0.049979456,-0.0016374625,0.024175137,0.086948134,-0.07364766,0.12713926,-0.025642343,-0.14121602,-0.043707706,0.059672818,0.030120634,-0.02608712,-0.0902474,0.10770865,-0.1296159,-0.01255184,-0.120256394,-0.095558606,-0.14959037,-0.25533548,-0.036103442,0.07946336,-0.20510963,-0.082652606,-0.022137836,-0.005878791,0.024046682,0.08115201,0.15590996,-0.30762488,-0.0041575357,-0.028851055,0.06827911,0.25389865,0.06677821,0.02739928,-0.0027788877,-0.12362631,-0.06541074,-0.010987315,-0.09542793,0.03460978,0.123369835,-0.05520255,0.019071952,0.12871507,0.055555362,0.025272518,-0.14147487,-0.012569547,-0.06014228,-0.038246974,-0.024616912,-0.17888355,0.03345359,0.09168508,-0.08542863,0.14334938,-0.02586788,0.006211847,-0.0539572,0.18974018,-0.020328298,-0.0369343,0.0046919137,0.13840264,-0.06892789,-0.025478892,-0.070571795,0.009343614,-0.15165925,0.024509905,-0.019461177,0.1863648,0.042687938,-0.03049592,0.010614555,0.06317283,0.26016662,0.085155874,-0.075341865,0.06364976,0.16840856,-0.12330788,-0.21140115,0.07338073,0.008361153,-0.070551395,-0.1359508,0.033958994,0.07657009,-0.03779836,-0.10048498,-0.08852076,-0.008704707,0.101769455,0.15563756,0.06715235,-0.17161179,0.18417205,0.040532798,-0.03455381,0.013064295,-0.047369063,-0.034956597,-0.16437906,0.134137,-0.019494262,0.06545478,0.015663797,0.1422606,-0.055339582,0.18226032,-0.029565062,0.034184575,0.0011319164,0.004158938,-0.101782344,-0.07716204,-0.12745096,-0.066975206,0.14560392,-0.121230915,0.1137089,0.01743722,0.005927164,-0.061583105,-0.06973894,-0.15181097,-0.1639163,0.04458721,-0.062287495,0.04669888,0.00568977,0.12780325,0.02739209,-0.00846258,-0.04713865,-0.06981937,-0.04706414,-0.06863134,0.043534346,0.057679772,0.013832957,-0.25020185,0.12737346,-0.15336093,0.15686353,0.06312355,-0.020789223,0.121675506,0.060088735,0.053885758,0.12182699,-0.019082502,-0.047444317,-0.06878401,-0.09166264,-0.04280667,0.015802247,0.060543153,0.039765567,0.020362899,-0.025800139,0.10201526,-0.03402561,0.13757414,-0.055306613,-0.08849401,-0.101622544,0.035767168,-0.021943538,-0.255102,0.1348168,0.014392778,-0.13752325,-0.10451159,-0.13001049,0.030158872,0.079077944,0.06500118,-0.025359664,0.08497058,0.29167342,0.030766845,-0.006542463,0.05632682,0.29963824,-0.11085005,-0.10196075,-0.054235715,-0.0036262944,-0.06432943,-0.03675995,-0.14911428,0.11302677,-0.17675918,-0.01503586,-0.058920085,0.06898102,-0.0055114925,0.024563037,0.03813441,-0.04716712,-0.033103112,0.21476093,-0.11394592,-0.1655695,0.08649717,-0.08565447,0.013362691,0.080521666,-0.09470195,0.20545436,0.049987864,0.024649084,-0.009229273,-0.018193781,-0.09944858,-0.13423392,-0.06348242,-0.06936564,-0.05689037,0.15756005,-0.10494883,-0.23119165,0.08395638,0.111169696,0.14822008,0.1350021,0.030938141,0.09070517,-0.04379915,0.04079123,-0.028656676,0.103424534,-0.035113774,0.026994549,0.010475665,-0.035030358,-0.070283346,-0.08984629,-0.028439716,-0.08678715,-0.046350177,0.043016046,0.14287984,-0.17311159,-0.12279236,-0.00536792,0.09577359,-0.07958847,-0.08209676,-0.019431153,-0.112852395,0.01249136,-0.023510113,0.12928987,0.055869147,-0.1862778,0.051077228,0.16540755,0.18448547,-0.042073995,-0.037224486,0.14870554,-0.13175026,0.094276,0.06277461,0.041440517,0.06354345,-0.07649317,0.13723505,0.12278899,-0.029481739,-0.13928524,0.1180553,0.008987069,-0.05808413,-0.048971206,-0.07560676,-0.28955075,0.0073859114,0.16989207,0.03902965,-0.06548016,-0.040946275,-0.060244545,0.07470645,-0.025114957,-0.0235601,0.027041301,-0.048996434,0.009792227,-0.0018512122,0.13798319,0.14795664,0.01394441,-0.17706339,0.019888375,-0.018084534,0.032556884,0.042569265,-0.19072938,-0.00029964,0.11330691,-0.028320825,-0.016943336,0.045052383,0.08130651,0.029369816,-0.1449377,0.0043842345,-0.044908404,-0.119804025,0.011674628,0.1402103,0.028069332,0.036179654,0.021970257,-0.047035918,-0.089298815,-0.14642784,0.055535987,-0.121910736,0.109698355,-0.026704764,0.02185177,0.0030204803,-0.10467182,-0.0034713969,-0.15578105,0.14843777,0.040851675,-0.18311197,0.08903979,-0.04776887,0.028152822,-0.008720616,-0.14595208,-0.019635282,0.13528724,-0.011700794,-0.016136479,0.08291788,-0.03051161,-0.07691376,0.047028996,0.15498702,0.12808289,0.04255089,-0.04466474,-0.07875797,0.04946746,-0.015061785,-0.06803483,-0.33493638,0.0012345668,0.016300187,-0.016540647,0.1271162,-0.0042845495,-0.06431174,-0.020423964,0.12394494,-0.03192802,0.055461153,-0.095821224,-0.08521644,-0.08284409,0.05281971,-0.0070282593,-0.06619376,0.108317904,-0.042274147,-0.007880431,-0.030241579,-0.045628637,0.041403666,0.14554793,-0.023853082,0.078566454,-0.16297476,0.15063079,-0.010946348,-0.12353613,0.076471,-0.0949345,-0.07931912,-0.009035664,-0.023751184,0.16818309,-0.077914156,-0.056031454,0.06518406,-0.066629,-0.07025373,-0.041468322,0.011323102,0.010553427,0.056885064,-0.06517409,0.12540509,-0.022133727,-0.07726301,-0.0015064888,-0.13659498,0.03900592,-0.07768233,0.017228002,0.008547723,0.21677984,-0.16761523,0.10696341,-0.028030708,0.0075851306,0.012422711,-0.1467517,0.0993266,-0.012830973,-0.04944656,-0.025960557,-0.04514302,0.101614624,-0.08511087,-0.04116084,0.104652695,0.031057928,0.181299,-0.137476,-0.29387164,0.00989509,-0.1446285,-0.2047358,-0.045876093,-0.10880105,-0.11888379,-0.2144166,0.0117676,0.0592165,0.12979896,-0.08818938,-0.026197165,0.029978462,-0.058424573,0.030643985,0.04931559,-0.040646926,0.035695422,-0.04108586,-0.039693803,0.051071998,-0.098416366,0.04696103,-0.02156168,0.016364038,-0.004119396,-0.03959428,0.01676766,0.106408104,0.07186591,-0.025397718,0.038987685,-0.07185505,0.2603458,-0.014171116,0.15523165,0.11911424,-0.025265759,-0.29345623,0.052702017,0.11227421,-0.011089975,0.101279505,0.060501598,0.26802203,0.22863305,0.13289224,0.29802775,-0.08667222,-0.070100226,0.0068357363,-0.06057644,-0.092125274,0.0496208,-0.009595545,-0.22331701,-0.1369528,0.08121672,0.07031026,-0.052691955,0.06585259,0.16407837,-0.023105256,-0.087446146,0.12749845,-0.019074649,-0.030288205,-0.10031682,-0.0026896968,-0.15270635,-0.033207893,0.033580706,-0.117842734,-0.030142516,-0.03312231,-0.3241799,-0.18707405,-0.06468015,0.1922209,0.060211442,0.0038562529,-0.05529127,0.15576063,0.016235366,0.13485757,0.12782525,0.007656865,0.11128546,-0.024158135,-0.05197969,0.16939467,0.05048731,0.07843889,0.11017501,0.07228424,0.016727567,-0.15586382,-0.113765344,0.064238004,-0.041551992,0.16364738,0.057956293,-0.07359354,0.026727274,0.024462849,-0.1199121,-0.15469955,-0.009924833,0.16663882,-0.17141502,-0.1503166,0.059691444,-0.15044193,-0.034536935,0.049501806,0.16719252,-0.02933826,0.1302555,0.057079718,-0.018575206,-0.09251635,-0.008468058,0.13685405,0.08375748,-0.05155938,0.0047883317,0.156267,0.15294321,-0.22486535,0.05187149,-0.020930149,-0.2173521,-0.033670083,-0.05843105,-0.044323847,0.13237458,0.14873898,0.037367217,-0.08146552,-0.10829261,-0.011972003,0.05215112,-0.095356874,-0.19960277,-0.113977864,-0.17628846,-0.03783095,-0.10824033,-0.1206705,0.10387096,0.17189595,0.019918522,0.056309395,0.07981414,-0.120699845,0.095374815,0.17069243,0.11401337,0.010127641,-0.060885392,-0.01182577,-0.027674342,0.19172327,-0.17290807,0.16705517,-0.08355045,0.08082241,0.038535442,-0.03841912,0.049893886,-0.03390316,0.06394691,0.1487192,-0.08231284,-0.015237927,0.14045078,-0.1028541,-0.35981804,-0.06268968,0.0078368,0.20009857,-0.076140344,0.15019539,0.015628338,-0.06397412,-0.032409254,-0.0724134,-0.13411544,-0.06707305,0.16772376,0.27385333,0.014999568,0.02892239,-0.1790803,-0.22220783,-0.114689685,-0.07166039,0.06047535,-0.040615365,0.124261834,-0.0067797005,-0.004540952,-0.013161927,0.06979404,0.00673493,0.12965871,-0.02547317,-0.12942007,-0.12239886,0.102596596,-0.11813319,-0.116515726,-0.035036683,0.048873223,-0.042299554,0.06822818,0.018349208,0.0005653277,0.11551818,-0.19156295,-0.12998588,0.036378305,0.048056673,0.15695152,0.039060682,-0.031956017,0.02833058,-0.07183489,-0.009801954,0.091585875,0.0008472502,-0.037128583,-0.07066192,-0.072838835,-0.06776115,-0.007456608,0.16953175,0.070475824,-0.21982269,0.19778726,0.092397295,-0.12800115,-0.078642406,-0.05072578,0.16391608,-0.11030046,0.11490847,-0.04530274,-0.03526053,-0.0039657876,0.09649097,0.010673143,-0.16860028,-0.17650618,0.07766993,0.18777534,0.093376964,-0.0024503917,0.0121425465,-0.09351228,-0.16433275,0.2939005,-0.20992048,-0.06252135,0.12612724,0.061016496,0.024321329,-0.16151749,-0.03627009,0.14379087,0.0313413,0.04206288,0.0102951415,-0.004597824,0.023467638,-0.14315464,-0.07909684,-0.058023505,0.139892,-0.03554454,0.010419523,0.14531235,0.063123085,-0.042991802,0.026012406,0.023066854,0.04825683,0.045831077,-0.22705305,-0.07274326,-0.0061731213,0.03503699,-0.09173857,0.1530042,-0.102129206,-0.06260176,0.099065945,-0.1038928,-0.04543796,-0.017317615,-0.057068527,-0.08494885,0.0025752634,-0.2626593,0.11725034,-0.111535914,-0.042008612,0.09853507,0.05941634,-0.075522594,0.09391737,-0.080893956,-0.08070044,-0.07108496,0.08769289,-0.030838639,-0.14127983,0.011457384,-0.17401929,0.03454096,-0.028926006,0.12967116,-0.13192986,-0.1101636,0.011210978,-0.05006729,-0.09910935,-0.033912696,-0.08161968,-0.0395568,-0.11420792,-0.020462275,-0.014433637,0.12261068,-0.073798865,-0.015195824,-0.029986896,-0.068229705,0.1487563,-0.0053334124,0.022753552,0.24948916,0.06799027,0.03050981,0.17393929,-0.024344968,0.10486909,-0.14887162,0.026101597,-0.10514549,0.020570457,0.09979741,0.045978967,0.10012084,-0.15777317,-0.0120287165,0.03936264,0.17564301,-0.020051628,-0.08330161,-0.032839343,0.17494719,-0.07413995,0.041320827,0.06695166,-0.21912998,-0.02520325,0.057933085,0.11386216,0.00259047,-0.110358745,-0.07612252,-0.040506862,-0.048469134,0.011373743,-0.108386666,0.060248286,-0.14336397,-0.051530197,-0.005129151,-0.15333109,-0.20006213,0.1441533,-0.03396134,-0.17886207,0.01700461,0.024047077,0.01842555,0.17077325,0.103162706,-0.28382385,-0.05102712,0.10115355,0.025343671,0.0141329765,-0.0728766,0.035532344,-0.009357825,-0.05687894,-0.013203315,-0.023580857,0.09198307,-0.006886782,0.06831053,-0.17644933,0.0586716,-0.005715318,-0.115204774,0.083364785,-0.020940153,-0.013603613,-0.14758179,-0.052597582,0.08186621,0.07488344,0.11252583,-0.011968128,-0.03634707,0.0048122928,-0.18854557,-0.08320743,-0.07446906,0.31795275,-0.16982862,0.006691858,-0.014190439,-0.002103418,-0.055517368,-0.03694214,-0.17554094,0.07887946,-0.11515809,0.101385124,-0.08834014,-0.33947662,-0.18960932,-0.1631701,-0.016978398,0.10053872,0.07077998,0.02438362,-0.056507427,0.049118295,-0.0073105246,0.08652015,-0.1294164,0.054067463,0.04425095,0.0010281652,0.0025432184,-0.1339334,-0.11699428,0.07911438,-0.15273358,-0.050368458,0.142464,-0.08204765,0.06732363,-0.11211248,0.14977986,-0.024874687,0.002963692,-0.029671926,-0.008688189,-0.023513824,-0.06887823,-0.014045997,0.102932945,0.037994433,-0.114281885,0.09560516,0.11886779,-0.09293626,-0.024336822,0.08025819,-0.09620991,0.21127182,-0.023847856,-0.11555102,-0.16096377,-0.001632154,0.0041563874,-0.059836283,-0.087009124,-0.044465527,0.102207094,-0.052137148,0.19169132,0.038886983,-0.06403605,0.027643591,-0.10009225,0.012251154,0.022881042,0.19938551,0.013400301,0.15953018,-0.016146079,-0.021422118,-0.11914495,0.28913432,-0.11020439,-0.14487523,-0.023972126,0.04346025,0.1531555,-0.13505235,-0.048452422,0.20901358,0.0021267533,-0.074871644,-0.034911294,0.05306806,-0.120250545,-0.021621212,-0.109066986,0.0280699,0.05332735,0.1863249,-0.020350635,-0.06265945,-0.016036198,-0.060555555,-0.029809207,-0.07354898,0.116839916,-0.21604665,0.048701514,-0.04320424,-0.17531322,-0.15828317,0.011827759,-0.073328204,0.08494066,0.050616093,-0.027911194,0.092930645,0.19541124,-0.21263033,0.23493755,0.23411326,0.039318744,0.15796651,0.12775786,-0.2180105,0.17967412,0.0137220435,0.14330891,-0.016948126,0.058566492,0.11439489,-0.09597549,-0.20205922,-0.10827831,0.04916948,0.12174859,-0.02750571,0.21920899,-0.04867892,-0.0733076,0.0016623065,-0.081158414,0.10645856,0.062866725,-0.03228084,-0.035151277,0.100781515,-0.13484447,-0.010789797,-0.16126455,-0.14432022,0.11386043,-0.04547364,-0.00054848194,-0.023323253,0.099875055,-0.13114034,-0.06885373,0.1284426,-0.034473214,-0.21375084,-0.040563278,0.073827304,0.05893457,0.027146868,-0.041435532,-0.102237254,0.08665522,-0.23774531,0.11378107,0.006255921,0.108530335,0.08627228,-0.0935149,-0.13377415,0.18044814,0.010615195,-0.012227476,0.13646382,0.0650421,-0.13259456,-0.019872084,-0.1695385,0.17585547,0.014966071,-0.00190291,0.09554796,0.024882525,-0.11912338,0.08378634,-0.04500367,0.039369892,0.07971352,0.14357914,-0.15568967,0.0617691,-0.067841664,-0.18720292,0.01822801,0.046285775,0.20072336,0.00032815337,0.057132456,-0.018830284,-0.05813478,0.21685678,0.113138825,-0.0629037,0.02031178,-0.20278573,0.0973288,-0.107215025,0.020332577,-0.040623255,-0.014889747,0.04893177,0.0024457462,0.027257785,0.0197213,-0.013519261,0.26126555,-0.031453818,0.10406358,0.0536587,0.23058474,-0.06185677,-0.1449203,0.16375306,0.09384129,0.02835925,0.09406756,0.01872173,0.008550525,-0.011580708,-0.10687101,-0.20975389,-0.0862655,-0.0151088685,0.03351003,-0.22681148,-0.11276007,-0.08893592,-0.018620372,-0.015194621,0.19039774,0.0033610277,-0.1010717,0.0039379895,-0.20269457,0.07845533,0.010097265,-0.029526211,0.14285739,-0.13784719,-0.032681175,0.03116589,0.13441393,-0.025184117,-0.052197978,0.089308284,-0.03633504,-0.42361838,-0.024265781,-0.10940856,0.030501269,0.051058043,-0.015845962,-0.014099658,0.13284008,0.058873415,0.0111397505,-0.06416387,0.21276613,-0.114873335,-0.07751119,0.05869319,-0.022445142,0.047725584,0.041880276,-0.2922222,-0.18778151,-0.08979105,0.072133385,0.07483671,-0.04513797,-0.047836248,0.054016303,0.13182522,-0.15158999,0.083744064,-0.06477087,-0.090306,0.12965074,0.024855487,0.1745381,0.022356644,-0.00889064,0.0051857904,0.11825906,0.2255818,-0.106208734,-0.040481813,0.18964523,-0.06859918,-0.08258827,0.0022057518,-0.10626281,-0.0600667,0.015408471,0.061566494,0.059826624,0.08933817,-0.13118277,0.24927096,-0.08276732,0.2514573,0.029669225,-0.05810173,0.08209529,-0.049938433,0.014019033,-0.053883173,0.14756179,-0.05699726,0.08044641,-0.07518276,-0.12783466,-0.08622363,-0.002709113,-0.14734487,0.07535525,0.0744283,0.11228986,-0.1094278,-0.10381161,-0.021234624,-0.046580907,-0.09402324,0.07889409,0.01699996,-0.017750144,-0.083773404,0.012062326,0.121756956,0.006220281,-0.16416557,-0.088583976,-0.22334023,-0.057848774,0.08430183,0.102824435,0.12688035,0.06895218,-0.016243495,0.022779077,-0.011904439,-0.07893274,0.06190882,-0.16153657,-0.012526097,0.09532994,-0.1977607,0.085792385,0.011430159,0.01094576,-0.026294835,-0.20942892,-0.034151904,0.041790374,-0.06910292,0.1577154,-0.1167668,0.16919856,0.02229236,0.14198959,-0.032671716,-0.066316545,-0.14009495,-0.120207235,0.10348377,0.15041351,-0.10407613,-0.19345054,0.00064718723,-0.04325335,0.022562638,0.24885069,-0.05980937,-0.06051261,-0.07174962,0.22370917,0.1699084,0.044381194,-0.06817442,0.011816375,0.0720575,-0.0322646,0.20615071,-0.28434557,-0.2642957,-0.12183893,-0.021863736,0.06131943,-0.076553024,0.06558093,-0.06618449,-0.23425023,0.018460054,-0.13694468,0.06150779,0.022901664,0.04361475,0.07785367,0.12072626,-0.061976947,-0.110506475,-0.10150687,0.121164665,-0.09801713,-0.06519285,-0.043142542,-0.00044898503,0.16188446,-0.32407838,0.13857265,-0.03603147,0.06422828,0.017129056,0.039937295,0.0183822,-0.030646548,-0.010000785,0.22368737,0.051783133,0.03721237,-0.07158941,0.036519483,0.066367485,0.07387224,0.11392581,0.012616929,-0.012963793,-0.06140483,-0.05213095,0.12955245,-0.09432218,0.058859304,-0.031704754,-0.058428623,-0.09155995,-7.792562e-05,-0.12128889,0.10120264,-0.08400905,0.08991637,-0.080908105,-0.09617841,0.017510302,-0.08878134,-0.034391843,-0.0059779584,-0.12230814,-0.0031992495,0.14433484,0.11189111,-0.1766732,0.15348491,0.06106807,-0.08980056,0.079759516,0.27866334,-0.022766292,-0.017808966,-0.076034516,0.123955525,-0.052919805,-0.07744857,0.01804484,0.108945735,-0.04068847,-0.13997553,-0.10675004,0.08218184,0.096480355,-0.058518544,-0.20680547,-0.04375547,-0.051384043,0.14032467,0.15306689,-0.17108713,-0.11155252,0.0067270845,-0.058554705,0.061405998,-0.06387953,-0.16838108,-0.114220984,-0.018514715,-0.07894607,-0.21144281,0.12061511,0.08904743,-0.20496438,-0.12423047,-0.14650455,-0.12291256,-0.023301229,-0.050036855,-0.033922087,0.09511236,0.08965222,0.13984407,0.064903714,0.005028829,-0.014268726,-0.24896806,0.17252329,0.030696938,0.038225368,0.03471476,-0.051489532,-0.0027915686,0.06393044,-0.08903196,-0.01400562,0.076287456,0.047462493,0.24090222,0.2251842,0.08119151,0.022785772,0.016988412,0.010911563,-0.057432182,0.13815649,0.010835394,-0.074636325,0.10631128,-0.02446602,0.14339155,0.10391302,0.026945788,-0.07037462,0.08372277,-0.18351485,0.0801388,0.0477047,0.14696747,0.11717289,-0.0041382834,-0.007999685,0.015483266,0.04115934,-0.26333392,0.030102685,-0.035787404,0.022876179,0.02364158,0.06382573,-0.02388173,-0.06936806,-0.079205856,-0.006738916,0.23372751,0.060687568,-0.002068162,0.039557423,0.11850884,-0.045667954,-0.11033317,-0.0053417385,0.09977829,-0.025537275,0.016494855,0.014662638,-0.022209812,0.01967945,-0.08912436,-0.12101129,0.11111252,0.14225678,-0.11678018,0.0015146527,0.014685176,0.111797825,0.039901197,-0.08288652,-0.050044984,-0.15524071,-0.24292777,0.041181356,0.034904137,0.03826394,0.12958652,0.23683271,-0.12072068,-0.08060913,0.016530918,0.10494642,-0.11218606,-0.07426462,0.038313836,-0.05344002,-0.18487561,0.024060637,0.016407564,0.122010395,-0.14294747,0.13002571,-0.006279748,0.17491788,-0.011922762,-0.061805975,-0.049466416,-0.0459418,0.09974705,-0.2349565,0.0748715,0.0712961,-0.14397798,0.2830347,0.004540194,0.028915554,-0.07929998,-0.13058904,0.15499945,-0.12401769,-0.2029088,-0.035675727,-0.1860321,0.11776834,-0.05694551,0.027572693,-0.074534796,0.102858335,0.006255679,0.046023242,-0.0023270696,-0.02198942,0.24210382,0.213602,0.03968059,0.024366781,-0.039538343,-0.03816832,-0.121937335,-0.026600555,0.08948702,0.05048079,-0.019798018,-0.15907764,0.1482706,0.05247964,0.037740495,0.10184175,0.30281222,-0.046212167,0.19919145,0.02243878,-0.23760405,0.0037377626,0.17232361,0.047313325,0.009177409,0.0458721,0.012200505,-0.036540195,0.03668282,0.034991913,-0.11870777,0.0790669,-0.13431554,0.087250866,-0.09548253,-0.076990984,0.031589665,0.14370957,0.0643531,-0.10303046,0.10694155,0.14638738,-0.15138099,-0.035353564,0.008719925,-0.0026080199,-0.07369001,0.1252005,-0.02014185,0.065166414,0.0049039423,0.08148575,0.25409383,0.044552546,0.1858711,0.13897432,0.12071351,0.0028340295,-0.2709822,0.18136737,0.0744962,-0.17714846,0.15235524,-0.17184503,-0.05079466,0.0333506,-0.12595384,-0.0400265,-0.1274071,0.024257809,0.14627707,0.08446001,-0.13088094,0.077307574,-0.088551804,-0.37528712,0.101497985,-0.12131765,-0.18442872,0.1182997,-0.032978047,-0.0952799,-0.029336758,0.1308286,0.25287876,0.022625536,0.013053205,0.14988852,-0.08287115,-0.08055338,0.27590162,-0.17176953,0.09552194,-0.063756235,0.11068858,-0.011193177,0.1306733,-0.0066117495,0.02238679,0.031189889,0.023740783,0.08774146,-0.11445349,-0.053946998,-0.047099806,-0.25362504,0.037075102,-0.026611313,0.044005647,0.037803315,0.061217494,-0.19454274,-0.16661671,-0.18020436,0.17651315,-0.07278151,-0.011292666,-0.30274656,-0.036313932,-0.076498136,0.090035394,0.04771307,0.10741037,0.033904042,-0.08640554,-0.016619503,0.25243977,-0.03253971,-0.040999614,-0.113079354,0.23300505,-0.11056622,0.027497336,0.0062441602,0.04002317,0.031358615,-0.06898646,0.12567708,0.12776162,0.106379874,0.26910353,-0.1960454,-0.09030539,-0.05563604,0.13228874,-0.099223346,-0.020159129,-0.0755122,-0.018203713,0.05985467,-0.12553681,-0.0807271,0.11454663,0.12925798,0.068894744,-0.062571906,-0.15728828,0.076452166,-0.10163816,-0.053786688,0.120141014,0.033958815,0.09877145,0.12722847,0.1233896,0.025122546,-0.14877082,-0.06680793,-0.13325691,-0.03599923,-0.001299426,0.01990261,-0.16153735,-0.012358317,0.13988814,0.12272293,-0.12932143,0.041339513,-0.25851545,0.01889655,-0.0538309,-0.08443523,-0.18374199,0.014249473,-0.109609745,-0.0024745837,-0.06707435,0.04813771,0.064696826,-0.07528544,-0.13370737,-0.05942201,-0.01751396,-0.02031646,0.19308236,-0.07321126,0.017570227,-0.034203045,0.004987094,-0.19624116,0.08509357,0.09314194,0.04028151,-0.109617226,-0.2792934,-0.004433289,-0.044629827,-0.051795416,0.00775066,-0.3570892,-0.08325713,0.063725196,-0.05685608,-0.051777013,-0.1917106,-0.009701923,-0.07447742,-0.050512,-0.12982526,-0.02508697,-0.13987163,-0.07064037,-0.017516501,0.0051620007,0.047962707,0.12854907,0.12276094,-0.07070525,-0.12060534,-0.105681516,0.054150328,-0.09108815,-0.032014865,-0.15215717,0.11321998,-0.16359288,0.045994394,0.12204221,0.29211947,0.10360937,-0.096589796,-0.010062243,0.13437727,-0.1484406,-0.06502105,-0.10051711,-0.096980356,0.3538341,0.0016673803,0.23301627,-0.094765715,0.058234684,0.0076047704,0.12760301,-0.032479376,0.089463435,0.127852,-0.09522573,-0.18760464,-0.05100842,0.077558085,0.05350528,-0.20387466,0.010347486,-0.06381087,-0.03769389,-0.086276054,-0.019629337,-0.022021689,-0.20182472,0.056482393,0.14200553,-0.096256696,0.09343254,0.07415786,0.03250727,0.03782238,-0.027023993,0.09672141,-0.059541456,-0.094071865,-0.017170884,-0.00428994,-0.037567228,-0.11828628,0.04118103,-0.0236652,0.18061057,-0.014433473,0.01536864,-0.011379868,-0.058374923,-0.009214632,0.002534885,-0.04353261,0.15781027,-0.15760261,-0.086443804,-0.057557948,-0.04318186,-0.019061632,0.13424158,0.12686194,0.15388589,0.23566596,0.023761611,-0.19632567,-0.027883403,0.11936172,0.0042726174,-0.0032615792,0.014521401,0.028837532,0.101326756,0.0861048,0.0065616015,0.06970711,0.24526064,-0.09224418,-0.021667324,0.049625218,-0.09366542,0.15805112,-0.20218024,0.010101974,-0.021910593,-0.008652613,-0.011583683,-0.044861104,0.20833997,0.23093101,0.0023891032,0.041794088,-0.08330633,-0.029529944,-0.056173984,-0.1438246,-0.11339779,-0.016121231,-0.046413064,0.027173936,-0.055564754,0.12617667,-0.07831055,0.0036348104,-0.04937794,-0.007208146,-0.066112675,-0.018728964,0.17919666,-0.07178011,-0.108307,-0.03160119,-0.0014220327,0.02558336,0.010235108,-0.13453655,0.1128463,0.10943461,0.043440513,0.0055527836,0.04801219,0.011617705,0.034377787,-0.03441538,-0.03262283,0.06961175,-0.045543,0.14458817,-0.002630718,0.0551645,0.07319166,0.032488063,-0.12014217,-0.06441367,0.062038533,0.006155938,0.08355188,0.02747757,-0.048472352,-0.02077215,-0.06075622,0.056971,0.049798146,-0.0027550608,-0.059077382,-0.010039464,0.07949413,0.11230491,0.3043563,0.02227737,-0.026629195,-0.15783823,-0.031556778,-0.02059441,-0.02981428,0.12027323,0.097263545,0.08946961,0.06227158,-0.006215155,-0.058279373,0.026477724,0.20777299,0.05296378,-0.11080793,-0.057914652,0.06857991,0.022558369,0.07994577,-0.011457488,0.06795337,-0.026772097,-0.07151325,-0.055652205,0.055003848,-0.05232781,0.0049952306,0.024641408,-0.18332604,-0.06682363,0.09121017,0.046113048,0.08823085,-0.3073441,-0.03370677,-0.034565654,0.069096684,-0.089432344,0.01305946,-0.08511159,0.19361895,-0.074846715,-0.08026871,0.06338346,-0.05073231,-0.114465185,-0.1404645,-0.121203125,-0.09860591,0.033491217,0.08688635,0.04330518,-0.09403663,-0.07477003,0.05170417,-0.049663227,0.04122241,-0.02358308,0.4199056,0.06908924,-0.057933297,-0.12526321,-0.032838136,-0.18660998,-0.0872128,0.011584372,-0.09235245,-0.085950345,0.15104544,0.151441,0.052604012,-0.03289649,-0.09845719,-0.073478684,-0.09896785,0.12589446,-0.09552875,-0.0058530346,-0.069103874,-0.014206111,0.005404746,-0.195129,-0.07646553,-0.1281262,-0.024501517,-0.035412043,0.07739951,0.0062135905,0.08079375,0.036117278,0.0014986694,0.11084698,-0.037998922,0.14486487,-0.038851857,-0.025546584,0.07348958,-0.050070163,0.24029022,0.017118618,-0.35965148,-0.06885196,-0.026384443,0.007630065,-0.17476638,-0.17120329,-0.043733135,-0.021182615,-0.093057275,0.007085126,0.063136384,0.036931567,0.0071723983,-0.027583048,-0.1113162,-0.049611244,0.031588808,0.081892654,-0.06458545,0.13313387,0.1001448,0.025202282,-0.033178378,-0.0088707805,0.0065084174,0.02631074,0.003023252,0.027963765,-0.13463639,0.10258374,0.21350352,0.14189635,-0.1078542,0.03646602,0.12929899,0.006374337,0.13863915,0.16781226,0.04595305,-0.033556923,0.051441602,-0.034966495,0.10107363,0.020366296,-0.040031314,-0.023680829,-0.09550021,0.03840508,0.059753366,-0.026270106,-0.011758253,-0.031950735,0.08234388,-0.09899204,0.104023956,0.045723833,-0.00072462484,-0.052018236,-0.06070505,-0.03680522,-0.059492417,0.05017817,-0.09511158,-0.0185249,0.088632025,-0.16541567,0.01289618,-0.098213494,0.030305203,-0.1312691,0.0716974,0.074788466,-0.06690121,-0.15320519,0.13758674,0.07171012,-0.09863541,-0.22509733,-0.026257202,0.055084318,-0.05349429,-0.13100456,0.042697977,-0.119854964,0.08040219,0.0148558095,0.2314136,-0.014531326,0.03162743,-0.070175804,-0.025809698,0.026234165,-0.05706826,-0.4050941,0.116475746,0.01333037,0.08530788,-0.13109326,0.0573823,-0.045300834,0.14568438,-0.050985448,0.21343628,-0.11907835,-0.1454983,0.002332747,-0.007866107,0.009281799,0.006107014,-0.06744015,-0.038706213,0.044164874,0.06333341,0.15437105,0.008533657,-0.013394695,0.22783366,-0.099707626,-0.0023835152,-0.15944414,-0.032778718,0.09205641,-0.031189844,-0.020611629,0.17328739,-0.18980874,-0.13507186,0.093899906,0.1453552,0.07254208,0.052058868,0.014883265,-0.19863653,0.108789876,0.047246795,0.015855968,-0.04245478,-0.038441584,-0.019438248,0.02893198,0.16917782,0.02288305,-0.07066065,0.018666076,-0.04894735,0.1730455,0.043608725,0.14019457,0.0824036,-0.026378207,-0.36304727,-0.009510592,0.06989953,0.18622191,0.05516608,0.03235471,0.10670893,0.08955818,0.085886955,0.033273842,0.09246969,-0.11930673,0.007986717,0.0014915504,-0.09237483,-0.03248535,0.06619301,0.2835263,0.115633085,0.023054928,0.1735451,-0.074318804,0.068441056,0.12531167,0.0062149838,0.10257251,0.020795634,-0.04349786,0.060516533,-0.15215693,0.25138977,-0.091567524,0.066348396,-0.023072235,-0.0054291897,-0.07592711,0.2518567,0.16194105,0.039576788,-0.14825803,-0.020589143,-0.16876544,-0.045582235,0.13264912,-0.02050978,0.07490976,0.043009527,0.047910705,-0.086424634,-0.010188803,-0.017946497,0.13104682,0.033907466,0.0031789616,0.09055035,0.10419443,-0.19571283,0.15580335,0.13904825,-0.05903641,0.04965546,-0.010986954,-0.15106706,0.122942336,0.050498746,0.034758374,-0.04628683,-0.02732506,-0.021227367,0.056722034,0.16507709,0.03615418,0.16428196,0.04008895,-0.03811024,-0.06379935,-0.22657096,-0.08338834,0.07504976,0.023631126,0.11434626,-0.029158339,-0.22250341,-0.024690071,0.029796842,0.11279524,0.17388296,0.056090184,0.09441388,-0.037719894,0.07618706,-0.06174413,-0.084896296,0.07914765,-0.008996494,0.0023039207,0.06868455,0.1495099,0.04058478,-0.012225956,-0.021610826,-0.044048585,-0.06724414,0.0034824535,-0.04924652,0.23817015,0.036957197,-0.0514362,-0.11028387,0.20611985,-0.121194795,0.19066614,-0.13004266,-0.040033154,0.020420045,-0.14404711,-0.06388036,-0.02932784,0.047522,-0.007604923,0.12795189,0.0009952933,-0.0051056333,-0.008801609,0.07462433,0.007520982,0.08336499,0.0125849955,0.05555137,0.049847484,0.046508312,0.12359397,-0.12531501,-0.061317597,0.1150507,-0.0012950338,0.03581822,0.013521381,0.006389618,0.013740268,-0.088282816,0.08363744,0.051722705,0.07247324,-0.104213044,-0.027351305,0.16060221,-0.03857784,0.0524007,-0.050537966,-0.11301771,0.018845588,-0.0024923282,-0.00749618,0.24739943,-0.070326686,-0.02501441,-0.027041517,0.009288751,0.04009077,0.07020522,-0.067804545,0.070604905,0.10734401,0.13378389,0.12240757,0.019774348,0.056626715,0.1064407,0.14689589,0.14970917,-0.019828126,-0.045956407,-0.12617055,0.09523868,-0.051664647,-0.15534483,0.0126361735,0.01693102,-0.104072444,-0.015481993,-0.011684492,-0.015115395,0.014541864,-0.023480386,-0.006923437,-0.11239213,0.028584033,-0.17641938,0.074273705,0.12672721,0.05243483,0.05199067,0.011755854,-0.03414741,-0.20744485,0.13369028,0.0028844588,-0.029762603,-0.11324498,0.10773766,0.18769865,0.10413817,0.066411965,-0.0549743,-0.02313983,0.012360442,0.03564197,-0.0049687773,-0.027480677,-0.06275813,-0.004940463,0.091926225,0.026244134,-0.07722325,0.15421759,-0.15337595,0.013546027,0.05090072,0.09153852,-0.042234223,-0.11588425,-0.03767556,0.16415371,0.17061472,-0.044015743,-0.30322844,0.09593627,0.18861768,0.044275973,0.068501554,-0.09865317,-0.061364546,-0.05009336,-0.18871878,-0.024218678,-0.041383334,0.168297,-0.0158426,-0.16931075,0.114930294,-0.05063123,0.07060478,0.19613579,0.03272625,-0.14720133,0.04203877,-0.016265765,-0.10608454,0.20645726,0.10529189,-0.14836383,-0.0362509,0.24882269,0.13772333,0.03280327,-0.15411374,0.063106336,-0.09064026,0.087222084,-0.01564455,0.03921385,-0.027697928,-0.04471185,-0.14825758,-0.050127923,-0.092764646,0.050249152,0.02495066,-0.025365444,-0.0703059,-0.066358894,0.14111677,0.061529636,-0.014496207,-0.013966896,0.092922255,0.11064976,0.0003677057,0.09669991,0.0358236,0.26001132,0.13470419,0.014848527,-0.13666184,0.016991392,-0.005235806,-0.054696266,0.012610517,-0.052021485,0.0037340447,-0.07607875,0.09194675,0.086033896,-0.0057575703,-0.14187475,0.0268064,0.17968889,-0.056999505,0.1593486,-0.0070836917,-0.057303354,0.0028372332,0.03669256,-0.014252372,0.023292378,-0.11909354,0.0954755,-0.1398682,0.029093117,0.1681388,-0.046329312,-0.07856986,0.09156482,0.14127475,-0.084418945,0.019545235,-0.21154751,0.07097982,0.0011900701,-0.07224833,0.19118789,-0.04609154,0.10686281,-0.03074338,-0.124942265,-0.053980507,0.26835558,0.031370237,0.11428545,0.15438995,0.031684153,0.07322163,-0.13213278,-0.10143107,-0.0141053945,0.02376815,-0.043128707,-0.035333276,0.021884074,-0.040385805,0.12664133,-0.24057722,-0.2114975,0.05571424,0.09607056,0.18254048,-0.050578836,0.02719453,-0.06346084,-0.020067967,0.03155893,-0.17188326,0.13479257,-0.007179331,0.062784,-0.045600653,0.08157672,0.018379215,0.10409966,-0.05365584,0.054691516,-0.054816637,-0.12041666,-0.021215787,-0.1294196,0.09029055,-0.02753935,-0.028759178,-0.07987501,0.06456562,0.03370436,0.077104144,-0.1153403,0.01903161,-0.02959529,0.026652664,-0.05779691,-0.04720103,-0.076460235,-0.01783988,-0.03483871,0.049667053,-0.067682534,-0.0115933865,0.056694746,-0.022626989,-0.062100522,0.13449979,0.08506389,-0.0012269169,-0.14524397,-0.18244204,0.0966027,-0.036386564,-0.039130658,-0.2477256,-0.15736827,0.04814049,-0.0848073,0.13627341,0.06846614,0.1618555,-0.20479846,0.2948915,-0.004396051,0.043257445,0.12818508,-0.01413504,0.06264509,0.013908222,0.057352167,-0.17666894,0.04945922,0.0885953,0.022528261,-0.0069864243,0.15934482,-0.007839873,0.0068258047,-0.21235472,-0.15421657,-0.09110339,-0.045284424,0.004147567,0.062307477,0.074242264,-0.05895464,-0.053296193,0.055399306,0.027733482,0.015182868,-0.0075471494,0.1750187,0.08371961,0.038730286,0.10215929,0.06882183,0.0085985735,-0.028335735,0.034212954,-0.075602666,0.19380982,0.1666524,0.055768333,-0.059602052,-0.18199666,-0.02340924,0.11551953,-0.028106682,0.05596803,0.09762208,-0.17287928,0.094611354,0.03702356,-0.049306758,-0.08231594,-0.031845413,-0.019696703,0.32242152,-0.08021939,0.12822835,-0.07887545,0.09098718,-0.09136948,0.05707641,-0.08251412,-0.17680965,-0.13958232,0.027705781,0.056117848,-0.026420206,0.17425749,0.0923373,-0.069329694,-0.032558087,0.07911411,0.03109494,0.16354065,-0.018502802,0.18378368,-0.15154026,0.18806447,0.11797188,0.13495798,0.012956709,-0.005984094,-0.13716075,-0.004259728,0.09140218,0.03869179,-0.13325752,-0.11670153,-0.15423419,-0.040007778,0.16933878,0.22262114,-0.17287844,-0.10258594,-0.04375072,-0.1426969,-0.028881319,-0.017237552,0.07541911,0.09375412,-0.010376566,-0.16843228,-0.085473485,0.09468577,0.0015422609,-0.00044181943,0.43092746,0.008573994,-0.023799017,-0.13254127,-0.016123682,-0.016507542,-0.13413543,-0.18563496,0.08376801,-0.15910499,-0.055613924,-0.016096756,-0.07357089,0.0033631735,-0.002693323,0.013745405,0.09325659,0.114250466,-0.10565902,0.123628706,-0.25533175,0.014717646,0.04913061,0.0074186325,-0.05397033,0.09381792,-0.10174619,0.071592696,0.05809243,0.04377533,0.14460394,-0.100992076,0.001115039,0.0012296475,0.0047111586,0.102831334,0.110812984,0.13585758,0.1621822,0.02949175,0.06641598,-0.21234213,-0.04255417,0.009053841,0.01062578,0.13507353,0.07556305,0.110837564,0.050463974,-0.070041716,0.0023368597,-0.12706019,0.03840965,-0.030542685,-0.025255553,-0.092389755,-0.17513372,0.08847568,-0.00054014847,0.1347901,-0.045833915,0.022587486,-0.091857195,0.005600352,0.124270394,-0.0012518195,0.08539051,-0.26852822,0.02361232,0.23541972,0.11602302,-0.013141163,-0.13452025,0.24729782,0.14380693,0.18623233,-0.11438581,0.099452056,-0.046553608,0.051278055,0.20694558,-0.12911108,-0.11945333,0.08779307,-0.17820898,0.0183279,-0.13177152,-0.01272795,0.113951445,-0.09959975,0.010127637,-0.06834847,0.033744395,0.0128159225,0.02393213,-0.14415558,-0.02553715,0.11877289,0.19790216,0.2178708,-0.047706768,0.039137058,-0.056498565,-0.009359069,-0.07630559,-0.1263067,0.010210358,0.21137263,0.061746113,-0.040030424,0.07102038,-0.053220965,0.040220693,0.10659209,0.13382006,0.08516155,-0.054515526,0.032028012,0.029344851,-0.10167537,-0.11044477,-0.19822156,0.047683824,-0.2645861,-0.1028759,-0.0011741221,-0.025434155,-0.044523757,0.021017695,0.1360544,-0.09633802,0.15450843,-0.033326373,0.08467722,-0.093665965,0.058655895,-0.0962061,-0.14241272,0.009327762,0.10332349,-0.115086384,0.102730274,0.06557196,0.06992802,0.20232092,-0.04763488,0.10666736,-0.0111745,0.016879797,0.14228943,0.02285809,0.092144296,-0.11903635,-0.04078132,0.12787442,0.14198178,-0.035835695,0.06638959,0.048885603,0.011421271,0.022847032,-0.009405151,0.07386809,0.0040822774,0.020197315,0.020092316,-0.08832813,0.05253294,0.16217728,0.07448524,-0.1484998,0.004586246,-0.09117333,0.10423732,-0.04010445,-0.2832765,-0.053508595,-0.1405652,-0.08950935,0.07980527,-0.084818415,0.25501245,-0.11440896,-0.23537035,-0.051156312,-0.031520203,-0.06322713,-0.049210563,-0.09034868,0.19492729,-0.0027382895,0.08052751,-0.037049852,0.08136282,-0.09809774,-0.12530386,-0.03787622,0.23094822,-0.10392058,0.091570966,0.02732217,0.074720085,0.14959648,0.06501092,0.080016226,0.01848329,-0.11276813,0.05198773,-0.04720921,-0.009702962,0.08898935,0.013738375,-0.09557081,0.11020543,-0.1074023,-0.10850889,0.07588818,-0.18482247,-0.084262006,-0.08594038,0.016829915,0.0021473318,0.13027126,0.016600013,-0.06672583,0.031992227,-0.036165923,0.20500542,-0.023998195,0.27849185,-0.07169334,-0.1596207,-0.06894213,-0.15696214,-0.1527883,0.21040384,0.06993901,-0.018857323,0.027996212,0.053775072,-0.09171265,-0.074518904,0.052979395,0.08869484,-0.17572376,0.08368331,0.068017915,0.0019993186,0.011122275,-0.04485762,-0.01227523,-0.21224648,0.07285015,-0.06601769,0.068122,0.09792906,-0.08433787,-0.016144862,0.14599086,-0.15897433,0.06173129,-0.016077727,0.08798592,0.052364912,0.15727125,-0.044845924,-0.0020642355,-0.019405223,-0.18228514,0.007574143,0.1265822,-0.05987023,0.2294765,0.049842626,0.055224463,-0.13279541,0.17052573,-0.05934179,0.1394879,0.049371466,-0.060685925,-0.064865634,0.022611365,0.103740424,-0.16122456,-0.12992188,0.16239926,-5.435571e-05,-0.052145682,-0.11699984,0.012272492,0.19743672,0.14385855,-0.016971067,-0.091595024,0.035868593,0.09400956,0.20767003,0.04528989,-0.08987764,0.020845443,-0.04722025,0.08393291,0.009646378,0.1042391,-0.082986146,0.06296027,0.0043762177,-0.060032655,-0.012224168,-0.18343827,0.11783469,-0.13372089,-0.0567877,-0.045087803,0.07321632,0.044609603,0.15631396,0.036476385,0.10845922,0.14780027,0.04360167,0.15274884,0.1129239,-0.17813793,-0.00851538,0.04813739,-0.037064612,-0.1406631,0.09615551,-0.05700787,0.034293476,0.05731556,-0.0028878152,0.07456539,0.039855838,-0.09217615,-0.0826342,0.010777872,0.13784194,-0.07493771,-0.033949643,0.016766401,0.16427332,0.11478723,-0.050107595,0.08020733,0.03757546,0.027337909,-0.01940186,-0.081987955,0.057414215,0.028926801,0.004793044,0.017098717,0.18254606,-0.24780682,-0.057058945,-0.043389425,-0.05999735,0.08391244,0.016149685,-0.06331508,-0.027568737,-0.26441664,0.04724866,-0.061605826,0.056705277,0.06430007,-0.08772656,0.043680772,-0.20206685,-0.068123296,-0.08025117,0.027121656,-0.023741225,0.078349896,-0.13126262,0.039645612,0.09039717,0.06913197,-0.016140383,-0.10518292,-0.049550503,-0.0768839,0.091207996,-0.05335073,0.04395322,-0.015039485,-0.06123559,0.05989707,-0.13930264,0.03687174,-0.06800309,-0.22694042,0.24448273,-0.100838155,-0.06600776,-0.16038436,0.059925288,0.035557285,0.09650944,-0.23132187,0.041801766,-0.025105558,0.07724391,0.05989273,-0.01683912,-0.078887545,-0.09959888,-0.024489615,0.07273102,0.18762453,-0.05477927,0.055738986,0.12334734,-0.13073558,0.01570795,-0.1444701,-0.15689695,0.12604132,-0.1518205,0.072176084,0.0071049035,-0.10531878,0.008228574,-0.04310751,0.23509315,-0.06550285,-0.19982381,0.08297193,0.017136551,0.14705747,-0.13904384,0.10088624,0.17964213,-0.002536377,0.10691465,-0.34570518,-0.04290311,-0.012615349,-0.25099167,0.022624474,-0.1012584,0.040063977,-0.0032964796,-0.16224988,-0.15715198,0.071525134,-0.07000884,-0.0008206144,0.09137154,0.053871732,-0.11272888,0.058122393,0.08682175,0.025895983,0.053232666,-0.042587712,0.0027296524,-0.06327161,0.06668635,0.07877784,-0.018851936,0.13937081,0.25623292,0.10107381,0.09094232,0.09277779,-0.16522169,0.040887326,-0.009092981,-0.038172536,-0.07336684,-0.16136216,-0.05262362,0.0024674535,-0.046640046,-0.070558555,-0.075514525,-0.061056606,-0.015216015,-0.10137839,0.06723896,-0.13518745,0.15246367,-0.07049684,0.07738735,-0.12458001,0.026554748,0.2198173,-0.091947794,0.011619799,0.14244676,-0.06201271,0.166307,0.15690525,-0.016441628,-0.008566905,0.041101065,0.080102675,0.073336504,0.15866615,-0.076807156,-0.03780816,0.0001610145,0.03955288,-0.108757764,0.034657955,-0.06739944,0.0072952895,-0.10363514,0.0869527,0.057198197,0.1938629,0.06627588,0.091610044,-0.13151045,0.12278132,0.10782194,0.09980848,0.13988538,-0.20930947,-0.19693346,-0.0872193,0.08098506,0.09259766,-0.12597495,-0.1439279,0.06766698,-0.1666917,0.039206386,0.089164004,-0.022358999,0.07937088,0.15588544,0.015659567,0.10447489,0.08285431,0.09506714,-0.15866002,0.12800728,0.06517291,0.055816486,-0.054196183,-0.2550323,0.09308788,0.0271288,-0.011398412,-0.04205477,-0.18228881,-0.035321184,0.11523166,0.28371704,0.0071069747,0.0001058951,-0.11658384,-0.20005082,0.017091192,-0.11873517,-0.017502775,-0.16081662,-0.18643709,-0.030602388,-0.06268732,-0.045706503,0.0055351183,-0.086807646,-0.012714572,-0.12692052,-0.06363526,-0.083710276,0.17569731,-0.116530806,-0.0025478452,0.12446074,0.15896998,-0.062701106,-0.023668498,-0.0073683206,0.029465023,-0.033525765,-0.1969907,-0.041245192,0.029806709,-0.19199371,-0.012956008,0.05325514,0.12998605,0.08188976,-0.124397695,-0.023795485,-0.023741826,-0.0689414,0.014919624,-0.006645754,0.13735041,0.0691876,0.033418342,0.043382123,0.023247093,-0.13556959,0.12215701,0.10777527,-0.1450699,0.048545282,0.040226873,0.0077417456,-0.16165057,-0.00072956085,0.13889031,0.32091588,0.030856319,0.08521617,0.10952267,-0.024150912,0.0587915,0.07621239,-0.066935286,0.048941594,0.02267906,0.026710242,-0.029634677,0.0056186095,0.043542415,-0.09530668,0.037806846,0.12615933,0.08910522,0.11056961,0.0976074,-0.10663815,-0.20900011,-0.09733195,0.18177053,0.015277326,0.06297769,0.09740999,0.07818227,0.26917145,-0.22996272,-0.18321298,0.15366474,-0.069737546,0.10190917,0.08005598,-0.0037877485,-0.31096995,-0.0114558935,0.062587924,-0.13397914,-0.13340527,-0.05104325,0.119281,-0.10644296,0.19849598,0.01432962,-0.072072156,0.051921926,-0.06913884,-0.16594319,0.07635381,0.17338549,0.03224778,0.13377705,-0.053551182,-0.0066593364,-0.16657606,-0.07983891,-0.03727837,0.05083389,0.097623646,0.13411832,-0.26622903,-0.08524672,0.09102644,-0.054263063,0.089541346,-0.016692702,-0.12607941,0.018177276,0.09529218,-0.0025792718,0.034462355,-0.006344566,-0.025041588,-0.038616255,-0.12857305,0.053068884,0.049721263,-0.08273956,-0.015012473,0.08175175,-0.0228979,0.027968626,-0.042065926,-0.031063255,0.12522441,0.05607139,-0.005131863,0.09301593,-0.18025078,0.09192736,-0.08430175,0.106102556,-0.06419258,0.050942317,-0.00081710704,0.13177434,-0.067406185,0.026676608,0.06891855,0.027015544,0.008357439,0.0049752444,0.07249509,0.021246381,-0.09765725,-0.07592851,0.04319502,0.034069546,-0.09608509,-0.0318203,-0.0018086955,0.04961932,0.037090182,0.0132571235,-0.03696181,-0.062465414,-0.1107715,0.06573186,-0.1174809,0.037900254,-0.008229628,0.0714573,0.16288657,-0.098085284,0.11197779,-0.081707895,0.14029488,-0.19144455,0.081562005,0.0873532,0.0592361,-0.08591409,-0.29045638,0.14473431,0.28097627,0.07238248,0.006654054,0.07253985,-0.017114285,-0.3192402,0.0045253336,0.010754734,-0.084131345,-0.20272657,-0.1740636,-0.07398243,0.0104016885,0.07290658,-0.05398791,-0.24210478,-0.19896838,-0.027422361,0.07821184,0.02168421,-0.024918243,-0.4028387,0.068840146,0.017401623,-0.1479987,0.005221367,0.033657257,0.0465426,0.07655004,0.0043534813,0.008844487,0.23345774,-0.24121365,0.10027328,0.21904051,-0.056472965,0.22845727,-0.082277216,0.081948124,-0.1022308,0.12009372,-0.07101862,-0.084945515,0.1031288,-0.00597018,-0.006203253,0.044247244,-0.051576324,0.28475627,-0.09814497,-0.26407292,0.15413477,-0.062116005,-0.08744487,0.029843904,-0.035783358,0.04423286,-0.116486125,0.026984006,-0.17797323,0.15667948,0.106630415,-0.026878059,0.13100383,-0.020219848,0.085265845,0.0023681,0.10535968,-0.030036464,0.17626646,0.008002296,0.049318187,-0.010228067,-0.033615246,0.024494298,0.023519292,0.12029424,0.022082604,0.06297122,0.13088368,0.009510145,-0.075768396,0.14209205,-0.056074236,-0.019364048,-0.08782601,0.0049122255,0.15236327,0.21459366,-0.057787884,0.058732137,