1,1152,-0.028204804,0.011749144,-0.024890741,-0.0042325603,-0.027174665,-0.053745463,0.0060446057,-0.014310746,0.011825759,-0.067136034,-0.023664005,0.003014078,0.0064102723,-0.049341258,-0.06676936,-0.0059747696,-0.026865726,0.000931648,-0.0043508927,0.006023986,-0.08349851,-0.013227517,-0.0104245795,0.00068923243,-0.051301315,-0.06937982,-0.03420911,0.005980297,-0.017222434,-0.042210672,-0.01442608,-0.032452404,-0.048928037,-0.038630024,0.01740018,0.020123987,-0.036067557,0.009233776,-0.043060478,-0.01442274,-0.069582544,-0.039485678,-0.00811751,-0.060079325,-0.01887126,0.010399021,-0.0035675315,-0.0012723228,0.0074459785,-0.0061970227,-0.006380705,-0.00752608,-0.064597905,0.017358258,-0.06295882,-0.008448964,-0.061101634,-0.009436731,-0.033510823,-0.011480572,0.012473058,-0.052300178,0.003928132,-0.0076479884,-0.0138116935,0.020562228,-0.052063636,-0.044925597,-0.047783483,0.010031739,-0.019307662,0.0016204874,0.002180517,-0.00074845646,0.002623352,0.009312553,-0.013543473,-0.052837055,-0.009653717,0.016315484,0.0024191812,0.009520258,-0.0029989756,-0.008143582,-0.03313279,-0.030945914,-0.008092515,0.004222587,0.004256426,-0.049485303,-0.034867905,-0.021211423,-0.03925963,-0.0038948888,-0.040665273,-0.035630785,-0.025752706,-0.041039295,-0.022083946,0.008728267,0.028644243,-0.026882201,-0.012428863,-0.022457069,-0.014377937,-0.0046901703,-0.032174014,0.015422753,-0.007883047,-0.045383677,-0.02474052,0.0062084,-0.016473362,-0.04172913,0.028150782,-0.03427218,-0.01134301,-0.019592084,-0.02005102,-0.02705831,-0.043695685,-0.022718744,-0.024312416,0.01683656,0.0033554316,-0.028500322,-0.016006662,-0.00067545916,-0.001859729,-0.032994375,0.013920281,0.009892758,0.037911657,-0.0050482396,0.0022854905,0.009873623,-0.015195992,0.014810246,-0.069142886,-0.042311788,0.015607639,0.021954333,-0.009967714,-0.006756164,-0.0476997,-0.022485834,-0.03378018,-0.0021099173,-0.017696666,-0.06008553,-0.029597366,0.025175376,0.032492753,-1.3318777e-05,-0.043028858,-0.02641004,-0.04041645,-0.0076859877,0.008235735,0.00081403274,-0.017293481,0.048331924,-0.009821402,0.023282764,0.01659549,-0.028416282,-0.03400094,0.03602545,0.0019389627,-0.0015646482,0.0025346002,0.0009999743,0.0016685749,-0.0036070158,-0.004729616,-0.01811335,0.02633026,-0.0374296,-0.025254827,0.0036012798,-0.026226921,-0.047683954,-0.02311134,0.019240582,-0.025281895,-0.018705279,-0.0054406347,-0.032960773,-0.0409528,-0.06816365,0.006707698,-0.044643205,0.0062145055,-0.016258748,-0.007936737,-0.06374536,-0.033021033,-0.016112229,0.011248321,-0.0061793053,-0.008202448,-0.014115781,-0.04432754,-0.01650584,-0.04419011,-0.020431824,-0.031934302,-0.036116216,-0.013786294,0.03517597,-0.030012062,-0.018486984,0.019293834,-0.010506554,-0.009197838,-0.08262821,-0.059729286,-0.01647602,-0.005052055,-0.026081987,-0.03381063,-0.017381243,-0.019816715,-0.025915269,-0.02868329,-0.006062607,-0.017293314,-0.05461005,0.010784476,-0.0612925,-0.010710761,-0.032824688,-0.03755963,0.0063807173,-0.0190588,-0.07475439,-0.028789045,-0.026389925,0.0075711748,-0.021726921,0.001865309,-0.10448938,-0.060760062,0.0001447665,-0.0014056691,-0.052181605,-0.028080346,-0.01120932,0.008803076,-0.02688563,-0.08748814,-0.009307267,0.0016416708,0.012722731,-0.032130457,-0.03786519,-0.06451424,0.0008289287,-0.03572232,-0.0053244676,0.0331347,-0.00822981,-0.008652801,0.013733823,-0.031456463,0.013504909,0.0060334555,-0.032939374,-0.0345174,0.0005616932,0.011833378,-0.016980039,-0.038327854,-0.02738526,-0.02599955,-0.02976495,-0.0359915,0.0065065045,0.0019598457,0.021113921,-0.043590423,-0.011599751,0.004205656,-0.02425836,-0.013488659,-0.013277057,-0.038237378,-0.0019294155,0.00042074884,-0.04153323,0.021250792,-0.07376486,-0.019458022,-0.009637171,-0.008912398,0.008607527,0.039392322,-0.08906523,0.014324963,-0.012770091,-0.034088608,-0.022502223,-0.06345232,-0.029113505,-0.042064957,-0.0349743,-0.01711955,-0.03159755,-0.01938068,-0.019545015,-0.022255836,-0.018691123,-0.043802753,-0.02713931,-0.025873806,-0.047934428,-0.0051710797,-0.08833401,-0.006553305,-0.0009206374,-0.023811223,0.014284656,0.0066681127,-0.003765705,-0.03938188,-0.005515322,0.0007574063,-0.089200206,-0.023874387,-0.061961062,-0.005416337,-0.07007518,0.025322106,0.014483213,-0.018421037,0.019047,0.01134829,0.030402275,0.016166458,0.009845861,-0.020859135,0.021460459,-0.014242718,-0.028348247,0.0005429926,-0.042219356,-0.07966005,0.00026820763,-0.041179877,-0.019918445,-0.024949234,0.027983189,-0.021392576,-0.046413776,-0.018674249,0.0008216335,0.0140363425,0.015259165,-0.009334295,-0.015487995,-0.07694403,-0.020899596,-0.021149093,-0.028616404,0.009633277,0.035404146,-0.035124205,0.020986425,-0.06292903,-0.0710648,0.030820576,-0.032952093,-0.015097933,-0.009267828,-0.024468292,-0.029771836,-0.0017790844,0.004288665,0.0056076744,-0.03418484,-0.03974822,-0.059020583,-0.005282751,-0.004973269,-0.01938951,0.04573608,-0.003949917,-0.010851273,0.042391483,0.021722786,-0.06582347,0.00032036676,-0.024937203,0.018922113,0.00061245734,-0.021786762,-0.029869942,-0.022466717,-0.018698774,-0.024076648,-0.0117132235,-0.0013274313,0.009724597,-0.034578837,-0.018524496,0.0017260204,0.01721568,-0.02784959,-0.06366787,0.00907057,0.0036528124,0.0051520504,0.002033616,-0.015911225,0.026211305,-0.014239331,-0.035753235,-0.0035231647,0.020517092,-0.014754243,-0.052995976,-0.034439404,-0.017410874,0.020488547,-0.024856018,0.0039253286,0.03169723,-0.02845885,-0.02473561,-0.005106414,-0.04372178,0.0005033411,-0.004078327,-0.034058258,0.020715473,0.011130153,-0.019127121,-0.030052446,0.033164397,-0.060964443,-0.0026072399,-0.028049922,-0.022233952,-0.045792907,-0.045316346,0.010397794,-8.122956e-06,0.06267052,0.014588447,0.0055761016,-0.0025738145,-0.05260012,0.018815525,-0.010140098,-0.047254562,-0.014326589,-0.053253766,0.009377654,-0.021613652,-0.02336658,0.0006522887,0.029152626,-0.0016519468,-0.01615929,-0.09680398,-0.026662169,0.0015784395,-0.07192854,-0.031367723,0.00094747107,-0.00832655,-0.07162511,-0.009334977,-0.023347562,0.0039828815,0.011271874,-0.040809255,-0.0052123987,-0.042595297,-0.05823345,-0.0100145405,-0.069361314,0.00013948817,0.0029643187,0.01144887,-0.008498873,-0.024080984,-0.03815779,-0.04145041,-0.01833878,-0.08810109,-0.02301284,-0.021693153,0.0008783099,-0.023558062,-0.009364034,-0.004327122,0.0010544864,-0.012748874,0.022414654,-0.020478338,-0.039328773,0.02150817,-0.007483375,-0.017117573,-0.009530303,-0.020755721,0.004152163,-0.009114454,-0.022639727,-0.05758678,-0.041713282,0.013113914,-0.046265677,-0.013047295,-0.016033307,-0.010377269,-0.0007928875,-0.024328347,-0.047848877,-0.007158431,-0.01683776,0.008492972,-0.067729756,0.016691066,-0.02337388,-0.020606356,-0.006107269,-0.00083532225,0.007942746,-0.01687967,-0.012087123,-0.008874614,-0.08716729,-0.058331303,-0.0074509643,-0.0487663,-0.030793354,-0.022257209,-0.048532527,-0.0431512,0.014826221,-0.06041391,-0.028273784,-0.0018810509,-0.008264873,0.050177258,-0.02140297,0.030198231,-0.006149361,-0.012676894,-0.018703274,-0.017032223,0.037198313,-0.008378705,-0.0006890383,0.0063300356,-0.055136442,-0.036285605,0.006028836,-0.00872829,-0.0038751927,-0.06469331,-0.033795882,-0.011352125,-0.01476139,0.0033393418,-0.007271991,-0.018013582,-0.060447127,-0.040943418,0.04988993,0.012088244,-0.06982431,-0.002984838,0.0560885,-0.1058565,0.023832802,-0.015084338,0.006560191,0.0074505406,0.011314056,0.004622147,-0.022121761,-0.060537353,-0.0035598497,-0.023477256,-0.028867573,-0.03270775,0.011025302,-0.02256456,-0.017455831,-0.038731903,0.037912942,-0.016558755,-0.019057464,0.026681688,-0.006889245,-0.0024608357,-0.02012295,-0.0156331,-0.0058793453,-0.020066818,-0.008826701,-0.004860646,-0.060185734,-0.046665613,-0.022203622,-0.025564333,-0.03546683,-0.012343384,0.00049620634,-0.025822125,0.025837643,-0.011107969,0.008641867,-0.079187594,-0.020958818,-0.004825589,-0.05254914,-0.004283207,0.009641145,-0.0045650643,-0.0021228972,-0.020702617,-0.012209744,-0.029136147,-0.02765461,-0.012876953,0.02875541,-0.036210004,-0.03550829,-0.027141439,-0.03243965,-0.046264973,-0.019891175,-0.020336831,-0.057954717,-0.0041468074,0.016983047,-0.007355322,0.0015385753,-0.03938903,0.009855912,-0.0046049054,-0.04759663,-0.044649646,-0.00996935,-0.052238587,-0.004317967,-0.044058926,-0.0054161884,-0.0097783515,0.019706123,-0.057939846,-0.006395691,-0.062548794,-0.0029747575,-0.020838473,-0.03709928,-0.016837712,0.013233333,0.0064069857,-0.013422782,-0.028466878,0.008464377,-0.03906741,-0.054513846,-0.006761236,-0.03368738,-0.006051071,-0.008875381,-0.0106876455,-0.017122643,-0.032540254,-0.0059838756,-0.03211858,-0.004461253,-0.028590443,-0.034737915,0.002071845,-0.10272912,-0.0016905869,0.00059100013,-0.010532544,0.016227309,0.010366778,-0.014948411,-0.023680497,-0.029440133,0.024564281,0.00518207,0.0094794715,-0.034241814,0.01100091,-0.05004655,-0.013921897,-0.028658533,-0.012778384,0.004128334,-0.0071456316,-0.055555236,0.006222421,-0.03324628,-0.079489015,-0.0074302293,-0.022382684,-0.013953431,-0.020983014,-0.073459364,0.002563308,-0.01432815,0.019752815,0.00020429719,4.165459e-05,0.02833456,-0.022640172,0.005235501,-0.032337315,-0.028498972,-0.04755571,0.032305706,-0.059896007,-0.027105201,-0.04084017,-0.019477023,0.010312936,0.00480507,-0.0076619904,0.0013289615,-0.0018977962,-0.026800014,-0.031262822,0.022218436,0.056656044,-0.02923563,-0.04905335,-0.058917385,0.009709098,-0.060290802,-0.060291067,0.008787452,-0.024124937,-0.055448722,-0.006364722,0.00015930863,-0.030010471,0.03729364,-0.003029452,-0.033653863,0.0025341257,-0.007705011,0.0009906222,-0.0096464325,0.012901359,-0.0082258005,-0.035731547,-0.02500669,0.027798094,-0.03642692,-0.025784519,0.013160502,-0.012200291,-0.025492288,-0.023651762,-0.014075545,0.0033799182,-0.036744744,-0.03227495,0.07368645,-0.017025817,-0.020308305,-0.029978277,0.010513865,-0.027394144,-0.052692432,-0.0022994804,-0.017532751,-0.013485286,-0.0567926,-0.06074838,-0.061141614,0.0061199176,-0.09284726,0.028951002,-0.01656914,0.003966226,-0.097590156,0.00658164,-0.009594471,-0.043441895,-0.059482817,-0.020034084,-0.019112896,-0.029046271,0.0048949905,-0.024645973,-0.039293732,-0.051962662,-0.062341295,0.013314176,-0.025188765,-0.024205523,-0.022381775,-0.050860204,-0.04108029,-0.029450536,0.008549591,-0.020612739,-0.010375571,0.026725383,-0.01120243,-0.006104738,0.045444224,-0.026734145,-0.01965404,-0.037826147,-0.06777594,-0.06246086,-0.021082535,-0.008864378,-0.03330388,-0.015700165,0.0046977308,-0.021672906,-0.04417751,0.01742373,-0.011009606,-0.047534548,-0.020348808,-0.004514088,0.009688701,-0.021872468,-0.011276769,-0.02737155,-0.041457444,-0.035128277,0.0109033715,0.03196525,0.004205134,-0.026456617,-0.070058666,0.030735897,-0.06694544,-0.04107351,-0.03971122,-0.037065957,-0.055296548,0.0073359045,-0.04481912,-0.009801581,-0.030474316,-0.017914142,-0.056739897,0.046201885,-0.00046577925,0.028902598,0.007755771,-0.10048887,-0.04673161,-0.0056824256,0.0055447663,-0.016531406,-0.05342168,-0.021512972,-0.018544868,-0.0100367535,-0.008763888,0.0040016146,-0.016496466,-0.06268423,-0.02292578,-0.02620407,-0.019399274,-0.038297012,-0.037105363,-0.02526366,0.020252565,0.008932951,0.039664183,-0.016326495,-0.07776658,-0.013968884,-0.0064057163,-0.028498534,0.006006617,0.032946635,0.019028675,0.015155956,0.025959877,-0.007027036,-0.018205859,-0.006929164,-0.02618984,-0.044827167,0.0055086887,0.009694957,-0.008842409,-0.015090774,0.009214834,-0.028707,0.0005779791,-0.054064892,-0.010369814,0.030248823,-0.001906754,-0.010943251,-0.014573057,0.0036544146,-0.016992657,0.020148119,0.005647062,0.010539239,-0.033442706,0.023782313,-0.018671893,-0.030164946,-0.0027669051,-0.013688088,-0.035106324,-0.014492613,0.008262883,-0.09725489,-0.0016875147,0.03922801,-0.0040079807,-0.060050003,-0.0114853475,-0.011300981,-0.0141534265,-0.0037390774,-0.042867165,0.0088246735,-0.018393403,-0.037337516,-0.004384849,0.008065102,-0.02216029,-0.04839567,0.0062539303,0.04044034,-0.016454926,-0.040822357,-0.037865214,-0.018980883,-0.03097486,-0.007974798,-0.009688561,-0.0688173,-0.0042637545,-0.015228632,-0.030279683,-0.033767186,-0.04505756,-0.007858419,-0.030311843,-0.02756516,-0.009506796,-0.030275382,-0.030754307,-0.0015225877,-0.017897345,-0.0023786547,-0.005570887,-0.015170113,-0.022470513,0.016760774,-0.024579773,-0.019457757,-0.0022744152,-0.01907186,0.0084747765,-0.036725692,-0.022781191,-0.030278202,-0.060280435,-0.014127032,-0.013336438,-0.019030154,-0.037407376,0.04664522,-0.0040925117,-0.072745085,-0.04472759,-0.022517826,-0.036065493,0.008861075,-0.0104889,-0.0168353,-0.017621385,-0.022287313,-0.05297443,-0.0029338552,0.019912947,-0.023831554,-0.008226665,-0.008151664,-0.02148906,0.009709899,-0.011521106,0.01697991,-0.03645408,-0.06465911,-0.050324056,-0.011143863,0.006666791,-0.0025422995,-0.010327651,0.0017982816,-0.09005606,-0.073036335,-0.027190879,0.0030965656,0.00569677,0.03385634,0.03321656,-0.0017269494,0.0063482565,0.06673675,-0.051495735,-0.0013457523,-0.033609465,0.014733086,-0.02026514,-0.11575184,-0.02978762,-0.004632049,-0.09035562,0.009230074,-0.04537502,-0.010180355,-0.04560915,0.08188571,-0.0008257083,-0.002709373,-0.017629059,-0.035177797,-0.035535894,0.0009938662,-0.026033316,0.032112602,-0.03149978,0.0011153895,-0.018938873,-0.016630098,-0.06694191,-0.03356141,-0.008779808,-0.042773396,0.055843003,0.027799664,-0.05625365,-0.037569333,0.022153009,0.014080211,-0.051374678,-0.033374377,-0.03694269,-0.014724807,-0.025135541,0.024022777,-0.030527683,-0.04672452,-0.057799302,-0.027173085,0.012792007,-0.007703888,-0.008245335,0.013088688,-0.047284104,-0.006196526,0.0013672992,-0.008448122,-0.0033858416,0.014858102,-0.010585682,-0.013722057,-0.0036488387,-0.02973027,0.020179413,0.0033447489,-0.03138063,-0.020323776,-0.03700445,-0.0015796219,0.010473775,-0.016517613,-0.015619097,-0.00078193727,-0.053633273,-0.04868261,-0.0001242583,-0.0014185124,-0.043006826,-0.021371925,0.014921224,-0.057727747,-0.004727261,-0.040509872,0.016927889,0.015717369,0.032926094,-0.0001211754,0.0055729575,-0.019957254,-0.004496201,-0.011009473,-0.01986056,0.009314887,-0.0035040663,-0.0006082851,-0.025982372,0.0077582225,-0.016704157,-0.07113066,-0.02437483,0.019691318,-0.026978696,-0.018122625,-0.009731821,-0.04830954,-0.003120806,-0.028615687,-0.04076708,0.008862944,-0.048411958,0.03364021,-0.028364178,-0.0075549153,-0.04470838,-0.037363492,-0.0844835,-0.026809093,0.011355432,-0.009197837,0.01925065,0.0026773815,0.0040817484,-0.04130942,-0.008886067,-0.005310682,0.11356785,-0.017651329,-0.0046093864,-0.03175793,-0.023590455,-0.026992355,-0.034121595,-0.033440858,-0.011948037,0.0342384,-0.02518044
