4,80,480,1,1,-0.0338255,-0.075456336,-0.028985001,0.0040552095,0.095947236,0.10905103,-0.07868992,0.043684125,-0.00031728297,-0.09651202,0.06545308,0.13502403,0.062410325,-0.09475479,-0.07924183,0.014401726,0.013852775,-0.17427997,-0.024976805,-0.12553635,-0.042401552,-0.11645236,0.007916361,-0.004914686,0.049826693,0.007210508,0.01138933,0.13969386,0.08061129,0.047849894,-0.023249045,-0.056632858,-0.028101852,-0.019005358,-0.07201265,-0.002743885,0.072785616,0.05327443,0.047108285,-0.11682061,-0.029763758,-0.053587843,0.08569412,-0.02271013,0.2881047,-0.25821736,0.021347016,0.22305247,0.07629744,0.14833635,-0.025589861,-0.15197249,-0.07864091,0.049368516,-0.17523366,-0.013788003,-0.15056962,-0.13456692,-0.042108506,-0.03741844,-0.024622712,0.023888558,0.10248983,0.09470169,-0.1676079,-0.009627551,-0.025490109,-0.101230904,0.03712617,0.042352945,0.071318194,0.05393949,-0.10534628,-0.051463045,0.005120367,-0.08703938,0.013752364,0.009265184,-0.027636677,-0.07136982,0.13911393,0.47356457,-0.026999861,-0.11768761,-0.12060572,-0.016638342,0.12910628,0.07185951,-0.051479556,0.23881431,-0.011217609,0.054941118,0.18133211,0.028839529,-0.06850236,0.028858095,0.07938798,-0.011031613,0.055044815,0.06246701,-0.03714426,-0.20697775,0.0022023115,-0.06523079,0.14152643,-0.0988088,0.03382376,0.05940573,-0.032805953,0.051170968,0.061622024,-0.18119663,-0.0743763,0.15945633,0.21340935,-0.05837413,0.001186654,0.042138234,0.025652252,-0.20945267,-0.041593507,0.060863078,0.005044341,-0.006238848,0.12381074,0.10006623,-0.112255156,0.09716185,0.1893946,-0.068048015,0.012038991,-0.06530374,0.20402187,-0.086806595,-0.045131937,-0.0032073036,-0.03438884,-0.08896785,-0.03941831,0.00015713274,0.0040066317,0.11878629,-0.032729268,0.06271937,0.028727949,0.14423116,-0.042158946,-0.08935782,0.04337609,-0.04757057,0.02263458,-0.06414745,0.009343624,0.01598684,0.0073681325,-0.026930898,0.08386147,-0.0383323,-0.05970297,-0.032210916,0.16722035,-0.0800947,-0.09374721,-0.064276844,0.068307936,-0.11212203,0.024530128,-0.064956084,-0.32544345,0.0039124936,0.015103392,-0.08610121,0.09202463,-0.036271513,-0.040539563,-0.09254429,0.06749952,-0.038650867,-0.055502325,0.008097798,0.20378037,-0.11908676,-0.0057921708,0.010929316,0.08845237,0.11250399,-0.07970564,0.018177778,-0.029221721,-0.043251842,0.038421154,0.16092347,0.16664523,0.1059044,0.010720491,-0.08507605,0.08794288,-0.009438179,-0.019011673,0.024656378,0.047319323,-0.105433315,-0.021518439,-0.008713488,-0.073096916,0.07276357,-0.021306567,0.0027417876,-0.070201926,-0.0036368445,0.0889832,0.00044882298,-0.009952366,-0.010225229,0.018214196,-0.057843678,0.041022472,-0.07864675,0.051804133,0.027916402,-0.10963878,0.06302704,0.14219144,0.028145045,-0.13080812,0.052418917,-0.094609685,-0.09825672,0.06632246,0.0014711767,-0.006220989,-0.22560762,0.075329125,-0.16066512,0.06256519,0.08153081,-0.086290866,0.032434203,-0.20893845,-0.03958641,-0.056655847,-0.045953453,-0.1650131,0.034916192,0.028256357,0.17931376,-0.10024601,0.052720413,-0.031901613,0.05446008,-0.0996995,0.07399936,-0.0149368495,-0.12761648,-0.0405197,0.018628243,0.21668935,0.008925095,0.08682481,-0.03408798,-0.05064833,0.079664275,-0.048473775,0.08829939,-0.1260363,0.024130829,0.09602458,0.041113675,0.045498088,-0.035317503,0.037922595,0.12737563,0.026888175,0.013149679,0.09184761,-0.07808211,0.02079989,0.013513751,-0.0768726,-0.037060797,0.11076605,0.07497379,-0.039351434,0.0004946701,-0.033345032,0.2099626,-0.10127229,0.030878663,0.061666846,0.16480906,0.039411597,-0.009344306,-0.018311545,-0.021372505,0.09512094,-0.06461199,0.012748387,0.026113778,0.12714714,-0.053674415,0.009233542,0.23426664,0.110388875,0.2744005,-0.068034515,-0.005728215,0.021400616,-0.06974551,-0.028811708,0.04471106,0.025115874,-0.033350162,-0.043214694,0.08449216,0.15038145,-0.054251403,0.060465775,0.012102634,0.13743559,0.062632434,-0.027086183,-0.034712322,0.089013696,-0.009920061,-0.14676324,0.15148503,0.11868803,0.09849617,0.056519106,-0.03582689,0.027529363,0.022791743,-0.025066517,0.022397168,0.0882709,0.09910938,-0.023822188,0.08117558,-0.01154131,0.038101435,0.019345362,0.028840475,-0.11752631,-0.11068177,0.007029772,-0.11130026,0.013819188,-0.005965546,-0.22289476,-0.17860541,-0.14544557,-0.015071265,-0.017228052,0.012024164,-0.19778357,0.12560785,0.066547215,0.112240106,-0.070012644,-0.026247367,-0.12452549,0.094411604,0.016198799,0.15852067,0.008741736,0.026625007,0.21641856,0.040661544,0.04436207,0.08751722,-0.09525921,0.062072806,-0.10723979,-0.0060542673,0.15630825,-0.18926707,0.0033816695,0.09520477,0.16306102,-0.018750118,0.028772809,-0.04805384,0.08435391,0.026725592,0.040352702,0.05244662,-0.009092465,-0.015947118,0.0026880056,0.17657146,-0.14773656,-0.12721995,0.07641199,-0.060766853,0.001581341,0.07739279,0.026518539,-0.00486964,0.08281848,-0.050319463,-0.06491412,-0.214276,0.004538566,0.058174387,0.00014287233,0.17538673,0.01193773,0.06401266,0.14402267,0.004352331,-0.024447665,-0.028892547,0.29508469,0.058355883,-0.047266595,0.03616269,-0.1103292,-0.04804966,0.003677681,0.0021201996,0.0050715506,-0.017455906,0.12661232,0.07394817,-0.009507693,-0.022829033,0.09492797,-0.0855989,0.0018334091,-0.14349668,0.03868389,0.11618389,-0.10545331,-0.009203881,-0.06277641,0.04641342,0.0094468,0.1046526,-0.009692788,-0.10245466,0.033571124,0.07459718,-0.1535706,0.007189596,0.052174777,-0.1495263,0.1028239,0.32657823,0.16242172,0.13027936,0.08177472,-0.07897621,0.08610974,-0.012433719,0.020144835,-0.004117906,-0.03437841,0.009060264,-0.109077,-0.024478944,0.03535162,-0.041883096,-0.08073561,0.056368336,-0.19583945,-0.15179542,-0.05667898,-0.00026263297,0.12896234,0.051807694,-0.0059183314,-0.06671741,-0.16090612,0.26862538,-0.10397753,0.03716956,0.06251544,-0.07402757,-0.08940397,0.046122596,-0.16606833,-0.07046159,0.27704167,0.1602919,0.08875018,0.07322472,-0.056498826,-0.03406348,-0.08908314,0.0034280717,0.004468806,-0.09785209,0.021298282,0.055220492,0.068736,0.14203987,0.064778715,0.11000821,-0.07107182,0.013358742,-0.031733975,0.07584395,0.027212739,-0.09073949,-0.005400002,-0.052036777,-0.16919693,0.029938914,0.040099338,-0.1438384,0.022871003,0.2420791,-0.07574095,-0.009231193,0.18707336,0.033018827,0.0024112612,-0.04632318,-0.0069272965,-0.019492447,-0.09040373,0.1451101,0.077579424,0.042913646,-0.081242085,-0.0065268967,-0.1642542,-0.108745575,0.022728257,0.07494101,-0.09515885,0.004220277,0.09979984,-0.036027282,0.10232343,-0.123774484,0.060723852,0.07984352,0.13322298,-0.41949925,-0.033603936,0.07762403,-0.029682636,-0.05609776,0.06438459,-0.005021423,-0.045585465,-0.01162684,-0.209481,0.211026,0.10622939,0.035982564,-0.1230817,0.099871464,0.102065295,0.018116057,0.038261626,0.08758573,0.094505236,0.061947234,0.060594708,-0.1193273,-0.042647243,-0.0005259067,0.019543659,-0.061535463,0.11526139,-0.14519937,0.12382147,0.0053013964,-0.03688492,0.07536353,0.14359587,-0.016379789,0.01797632,0.0647924,0.28894976,-0.18020953,-0.04868272,0.0027187914,0.081256725,0.04030487,0.075154066,0.0344228,0.073818326,0.06827229,-0.041173153,0.11825538,0.17856246,0.07040803,0.0067940354,-0.014134152,0.01250311,0.014316151,-0.061266847,0.04868595,-0.007214099,-0.004961461,0.060362373,0.08499625,-0.063863456,0.048083276,-0.014643788,0.09630526,0.017774634,0.013844341,0.15199134,0.03753291,-0.09725896,0.0829592,0.05614427,0.0161518,-0.060981542,0.0080697015,0.09484222,-0.08837417,-0.031683613,-0.021075629,0.050139762,0.16555505,0.13660307,-0.14999369,-0.1677226,-0.06854278,-0.04497537,0.04174614,0.11187558,0.011601813,0.028826468,-0.021614168,0.021980748,0.034365326,0.1599392,-0.1507736,-0.036931068,0.026802719,0.13926816,-0.058589667,0.092910804,0.087889925,0.09281568,0.081340276,0.10326264,-0.026038483,-0.086397916,-0.006764576,0.017857503,-0.03345406,-0.016289324,-0.0027794018,0.0040781125,-0.075301886,-0.041591413,0.05272451,-0.09989205,-0.11104906,0.16437401,-0.079806864,-0.015228286,0.1699245,0.023580864,0.034833208,-0.04663149,0.089866474,-0.06943203,-0.034914568,0.011400589,-0.118403345,-0.15138231,0.09091672,0.10493183,0.10443492,-0.0125256255,-0.011547506,0.088286884,-0.12801838,0.066633224,0.047374412,0.025278986,-0.06384852,0.18236038,0.009581186,0.0081993975,0.01876007,0.093343966,0.022172956,-0.07894167,-0.01347689,0.0552211,-0.014381751,0.05152991,-0.020184815,-0.015821435,0.16109845,-0.08411567,-0.0080443695,0.09867391,-0.1277795,-0.19554006,0.003641231,-0.01894372,-0.12637378,-0.011679381,0.08990082,0.05382497,0.1265651,-0.012665145,0.0089530945,0.022258751,0.07729423,0.12927885,0.13409425,-0.013971612,-0.09164734,0.014998868,0.077466495,0.15974684,0.021745011,-0.0009781662,0.10026239,0.03815964,-0.055118427,-0.019536614,0.0126382485,-0.17472553,-0.001349479,-0.03588715,-0.057751223,0.014628485,-0.09145865,-0.020855593,-0.108635284,0.06428039,0.048866056,-0.018650495,-0.108613126,0.0036715418,0.22096506,0.057435084,-0.06483112,0.012172386,0.10651668,-0.08349574,0.10507128,0.11968342,0.038129553,0.022627417,-0.013737872,-0.048721097,-0.041721433,-0.058975264,0.16264386,-0.065116584,-0.06470312,-0.08823173,-0.037263274,-0.024583131,-0.04400612,-0.009918004,0.0001244694,-0.038319647,0.022185393,-0.13037303,-0.0008343344,0.111675546,-0.05531782,0.026552025,-0.027943388,0.23195527,-0.09586518,0.06384466,-0.075902045,-0.117229745,7.016584e-05,0.016809754,0.08913799,-0.13298443,-0.048637524,-0.026176658,0.019576423,-0.30702388,-0.045589924,0.03506922,-0.047098666,-0.099623546,-0.040176623,0.07721915,0.08006427,0.0026684552,-0.09898864,-0.015212625,0.048414767,-0.1216559,0.0043537803,0.12291993,-0.05168836,0.031734064,-0.051632866,0.15610264,-0.14430952,0.00831781,0.0523808,0.023248076,-0.0007365048,0.013894878,0.053067334,0.028951138,-0.024450738,0.011743717,-0.010518163,0.038710892,-0.015022054,-0.15062332,0.057468653,-0.12832035,0.022320807,0.17430373,0.03200622,0.015480567,0.025738508,-0.048674464,-0.16134816,0.2011612,-0.121320136,-0.028261721,0.032625034,0.02489005,-0.047259483,0.03458862,0.063845195,0.00087491143,0.066272914,0.07491478,0.11978209,0.017778248,-0.01700306,0.09077419,0.11008329,-0.08176048,0.070591666,0.13716596,-0.107430354,-0.011985093,-0.0472739,-0.025627866,-0.21260515,-0.13494977,0.13605429,0.08267228,-0.16973685,-0.077513814,0.06523488,-0.18698053,0.0050007403,-0.06646885,0.026436053,-0.06753413,0.0488133,-0.00873775,-0.06481247,0.13880064,0.042945653,0.009443983,-0.07583511,0.09687082,0.03382541,0.06788428,0.03750862,-0.23713276,-0.123388,-0.08226068,0.052047133,-0.04059214,0.17176273,-0.07124477,-0.01855255,0.049688928,-0.124412715,0.10107871,-0.1968491,-0.12137491,0.07285381,0.039427474,-0.04804705,0.015292719,0.026636537,-0.033904873,-0.15519491,-0.12530342,0.1382044,0.070471324,0.06578541,-0.050182313,-0.032822326,0.3219155,-0.011231273,0.09641632,-0.09922725,-0.028886631,-0.048521996,0.17073122,0.150879,0.02932789,0.038470186,0.024922818,-0.004929497,-0.004248455,0.20702794,-0.071722776,0.038306426,-0.1815978,0.11163823,-0.045902416,-0.12634012,-0.016387813,0.1851995,-0.090474874,0.019003838,0.11900246,-0.025570724,0.038297653,-0.018619364,0.12186433,-0.15493236,-0.039359607,0.09612282,0.021556318,0.04985373,0.07064313,-0.034009203,-0.059044182,-0.10911386,-0.02468659,0.081524394,0.08253238,-0.031479616,0.14041485,0.0013270825,0.03912255,0.01681229,0.052002884,0.04626026,-0.005247265,0.07775505,-0.0017983392,-0.02019696,-0.22895992,-0.21170023,-0.029056698,0.08064608,-0.10515106,0.068969235,0.03707975,-0.038221084,0.024322482,0.08668129,0.028480083,0.07331116,-0.04142137,-0.113328695,0.08381689,-0.12016839,0.16222918,-0.21041572,-0.021155663,-0.032919493,0.26872596,0.062639095,-0.054630563,-0.060694575,0.11040717,0.12051995,-0.009399221,0.07827802,0.16570407,0.14407286,0.10553144,0.01695785,-0.041082613,-0.021237165,0.061369203,0.10944141,-0.1661807,-0.044703543,0.090093546,0.019434433,0.09476124,0.08589906,-0.053228777,-0.034264974,-0.09391183,0.10769725,-0.027553156,0.04833815,0.08009629,0.05452448,-0.12540269,-0.048810914,-0.07480206,-0.0008725524,-0.10659221,0.0114032775,0.09411557,-0.09849597,0.09413165,0.11119092,0.0064787045,0.008316457,0.020732522,0.062054,0.09402025,0.036766812,0.04740822,-0.14392535,0.082593665,0.03806214,0.17589128,0.11060257,0.21669716,0.05939036,-0.10386732,-0.14036842,-0.07975699,0.08710865,0.04483813,-0.25800103,-0.020826265,-0.1008123,0.060687132,-0.07671082,0.0611801,-0.019663371,-0.019395187,0.0942004,-0.05844961,-0.005373031,-0.06811415,-0.110389054,0.16154107,-0.0520076,0.09302977,0.0048220027,0.061385408,0.12371679,0.077621475,0.08511509,0.2282509,-0.0050923973,0.11386216,0.042652488,-0.1700978,0.059740763,-0.12560335,-0.079564415,-0.02131918,-0.001544416,0.15684694,0.0065136775,0.21960789,-0.016636215,0.16010904,0.104236126,-0.09417932,0.0132264905,0.13406025,0.09413454,0.16031416,0.073848866,-0.038788714,-0.13825618,-0.21260792,0.065468386,-0.089754,0.037622303,0.016340002,0.041815527,0.1836438,-0.17881307,0.08478573,0.077252105,0.050388493,0.052357264,0.09021026,0.09295029,-0.100217775,-0.18954316,0.02104333,-0.09115252,0.019038081,0.07163414,-0.01386119,-0.06857924,0.10969046,0.10649611,0.03321923,-0.12573417,-0.11886657,0.03709863,-0.0958129,0.09216922,0.095075406,-0.053814337,0.04359298,0.06740505,0.0037747845,-0.22801423,-0.006379053,-0.010541081,0.0053880513,-0.020252153,0.1276712,0.10341926,0.13582465,-0.09229761,0.04269516,-0.073239826,0.12359857,0.043548048,0.06789354,0.038698666,0.100254506,-0.08369735,-0.00063049793,-0.020635545,-0.027872488,0.26949137,0.02652651,-0.102910995,0.003363669,-0.21418127,0.13769856,0.036883235,0.07581809,-0.10580483,0.21368548,0.017441198,0.11428969,0.06114344,-0.11543527,0.13276443,0.047324345,-0.06062703,0.12987784,0.062612504,0.07894702,0.038523003,0.10358626,-0.07952982,0.03638789,-0.028446466,0.11068604,-0.021462515,0.043841198,0.10110684,-0.009364843,-0.06246107,-0.1527869,-0.037899345,0.08146775,-0.024393618,0.13047534,0.086162254,0.099764705,0.06037456,0.00447613,-0.058776125,-0.06540904,-0.23732835,-0.010132238,0.09014641,-0.07756285,-0.08028494,-0.11331793,0.01887849,-0.044123903,0.025351033,-0.11089563,-0.10378824,0.056392238,-0.0075971745,-0.03328994,0.023389988,0.073233515,0.17196691,0.11310732,0.0965268,-0.28503323,0.045771085,-0.07210707,0.012967357,0.10466131,0.08903169,0.048280332,0.08291132,0.041941766,-0.04676333,0.16817923,-0.12682413,-0.07930735,0.016542748,0.1063067,0.008159518,0.0074062496,-0.0008062422,0.12012601,-0.0013404898,-0.13286974,-0.043752506,-0.019309849,0.12133429,0.03965459,0.0773934,-0.033133388,0.048747033,0.020383365,-0.096081346,-0.062032454,-0.021825805,0.036643654,0.04177165,-0.10014193,0.095534205,-0.0719154,-0.09735197,0.12668984,-0.0911628,0.1672296,0.028080154,-0.025492057,-0.0092282,-0.06422812,0.016402125,-0.21137902,-0.03539541,-0.077923805,-0.0062063555,0.035582438,-0.020258471,-0.14510195,0.12983543,-0.011571258,-0.04097317,-0.029767739,-0.17160533,-0.024935156,0.0590149,-0.021401852,-0.0844342,0.04211027,0.02178809,-0.030369528,0.012311727,-0.08966839,-0.10574874,0.094700426,0.07455595,-0.0024917424,0.061597064,-0.038923103,-0.04620287,-0.058883265,0.08969459,-0.036095593,0.10447426,-0.19794735,0.0856687,0.051753312,-0.008201227,0.016098246,-0.09466149,-0.02590993,-0.15552568,0.20673476,-0.012976248,-0.076519564,0.10801299,-0.1292882,-0.019500934,0.070517555,-0.02929692,0.10705452,-0.24616943,-0.046656586,0.0014788061,-0.0152220875,0.053161398,0.048317775,-0.01622718,-0.06263365,0.016305968,0.0053444505,0.28541717,0.059683263,-0.06914673,0.009921074,-0.021875335,0.119302996,-0.038892314,0.0044614836,-0.16538492,-0.14624377,0.0088044405,0.0408395,-0.12797156,0.015485615,-0.12300637,0.10879607,0.0550877,0.006336771,0.02429609,0.06829507,0.023401178,-0.12282343,0.028976113,0.102299035,0.19840959,-0.05810411,0.10594802,0.06102024,0.015600912,-0.0123378895,0.07429743,-0.018494565,0.01499721,-0.065560915,0.12223391,-0.048340976,0.03339501,-0.058938246,0.11743015,0.0017318055,-0.05663371,0.09679099,-0.031666756,0.056184776,-0.16685268,0.07020143,-0.021001827,-0.13487008,-0.1368323,0.115731396,0.06515156,-0.008306205,-0.1984545,0.039696205,0.01744914,-0.029854983,-0.011809975,0.103441045,0.03577204,0.03588006,0.02184236,0.027364885,-0.10029465,-0.0008197278,0.038894616,-0.041044258,-0.038782287,0.051199615,-0.20600426,0.063194215,-0.0907994,0.047597747,-0.052253395,-0.03474921,0.01799316,-0.0062365383,-0.013226725,-0.09721215,0.09880084,0.03518685,0.08297038,0.15191692,0.017664611,-0.09912821,-0.10124241,0.08494167,0.032527268,-0.0059481487,-0.08948611,0.11038005,0.01916118,-0.11605048,0.15854776,0.12376769,-0.06937936,0.11001435,0.02276063,-0.083999425,0.07684672,0.044262856,-0.15808603,-0.0021186536,-0.13664898,0.057183355,-0.09345296,0.16410711,-0.09880611,-0.06761374,-0.010740448,-0.010114238,-0.2049894,-0.010124028,-0.15707466,0.037892684,0.14313987,0.10153192,0.09556246,-0.03888713,0.04308875,0.10281131,-0.09905663,-0.007400397,-0.042790227,0.0074594915,-0.1562169,0.09473389,0.003059104,0.06195107,0.00013533235,-0.045888554,0.048992015,-0.1507212,0.091733426,-0.039839454,0.010441825,-0.19866928,-0.037129946,0.00029328465,-0.11475633,0.048569053,0.028837197,-0.023909306,0.076536655,-0.10074821,-0.02586098,-0.08713466,-0.05595612,-0.04117362,-0.08121517,0.015201375,-0.07365364,0.05234167,-0.0763849,0.066393435,-0.12926616,-0.05094099,-0.015186783,-0.03113088,0.0043084174,0.111323744,0.19402501,0.0035963058,0.069616765,-0.07240275,-0.033521578,0.033150163,0.137835,0.0451822,0.13809082,-0.07713724,0.13833548,-0.030919656,0.0746699,-0.01215373,0.04006213,0.049216196,-0.12517896,-0.117654264,0.13087998,-0.028509118,-0.014977202,0.08569503,0.102343775,-0.017644718,-0.07743111,-0.069677085,-0.039812136,-0.09772502,0.08161716,-0.108618304,-0.05815819,0.004658485,0.07657085,-0.064835176,0.07342674,0.05205187,-0.048904896,0.054798357,-0.26243532,0.05313908,-0.10013887,0.034800947,0.041671768,-0.024232656,0.08701312,0.0288603,0.08495331,0.012259215,-0.008855127,0.053266015,-0.112826824,0.16442369,-0.07205539,-0.1305439,-0.029903635,0.12969945,-0.01224342,0.087805,0.08634095,0.008508202,0.06400039,-0.026138112,-0.031392425,-0.15173127,-0.06511527,0.009956606,-0.009304179,-0.08129853,-0.04383738,-0.14435065,0.50898945,0.13899818,0.04746796,-0.10107974,-0.08917874,-0.067156374,0.18868294,0.03771715,-0.05310095,0.02518523,0.045765135,-0.10567327,0.06392272,0.060137298,0.005568319,-0.056691572,0.022127472,0.011915922,-0.22853883,0.042646214,0.07380774,0.07234739,0.16439898,0.11444771,0.02740372,0.054049347,0.00043445826,0.12563048,0.06813811,0.05255416,-0.039119758,0.0063588917,0.21927088,-0.04762402,-0.23105218,-0.0969191,-0.026605476,0.17010665,0.06711984,0.20508082,-0.19397682,0.018923115,0.0057189167,-0.051655143,0.025005475,-0.002737254,0.1527039,0.5175906,-0.067316316,0.0031365752,0.18023619,-0.27638918,0.13932653,-0.077967875,0.08188923,-0.035090253,-0.008906662,0.08123374,0.08969678,0.089599565,0.030791253,-0.038015142,-0.23898947,-0.062384292,-0.0091961585,-0.0072934777,-0.020744503,0.022018062,0.011353452,-0.0012492221,-0.07270299,-0.012713302,0.05306592,0.03295505,0.042571366,-0.16202378,-0.054330345,-0.03408318,0.010685414,-0.05224286,0.08860564,0.26616418,-0.036303163,0.1879638,-0.03936418,0.010594144,-0.016641993,-0.08581201,0.062290993,0.01163549,0.04311774,-0.016541243,5.7801604e-05,-0.037655924,-0.0025148466,-0.01390399,-0.016138643,0.07583943,0.007865455,0.030375931,-0.053819593,-0.04812962,-0.09729236,0.2858466,-0.12740538,0.17574775,-0.0006168783,0.019849952,-0.040887058,0.010795638,0.075005025,-0.1315494,0.0054842457,-0.067836,0.036320806,-0.18889704,-0.03344283,0.18494083,0.029520277,-0.017663926,0.007720627,0.0732255,0.0021315813,-0.071498185,-0.06509504,-0.0126331765,0.03382668,-0.02916228,0.1904393,0.08896342,0.07444709,-0.042173147,-0.019831896,0.08200107,0.14544187,0.072717905,-0.1486637,0.040664773,-0.034224663,0.12134832,0.10366964,0.09561024,0.029483333,-0.21561512,-0.09456572,-0.16825311,0.016716272,-0.092460945,-0.00655289,0.03127092,-0.10025416,-0.018057901,0.15157717,0.025399506,-0.034520928,0.18816267,-0.1253522,0.059575684,0.061452903,-0.0900654,-0.009645209,0.044483036,-0.0002751425,0.025164813,-0.14170459,-0.0833685,0.027471155,0.09481897,0.022976875,0.1241471,0.07744963,0.009211436,0.10171306,0.13095367,0.063228294,0.07422505,-0.058330327,-0.15197115,0.038476005,-0.07891152,-0.0760579,0.03882514,-0.10789551,-0.069070816,-0.09846453,-0.089634605,0.0062411986,0.059169315,0.08785678,0.1682603,-0.2413456,0.01580999,-0.13821557,-0.08051091,0.09794897,0.054281723,0.113346756,-0.15086268,0.06093869,-0.10950048,-0.14279172,-0.09223735,0.035190605,-0.025150865,0.051955245,-0.0049536973,0.03107372,-0.20654486,0.13375625,-0.06809275,0.040133454,-0.05524783,0.06965146,-0.01674831,-0.030615479,0.016359646,-0.06506118,-0.15166603,0.1070955,0.0777961,0.03835788,0.03144704,-0.060100764,-0.029734643,0.14391153,0.050090633,-0.011338407,-0.047470547,0.04692866,-0.02062565,0.004208632,0.0043489337,-0.035263002,-0.13739921,0.11174075,0.010433286,-0.08278689,-0.21935385,0.08595967,-0.04121877,-0.13556209,-0.113329604,-0.08015299,0.10024607,-0.09770526,-0.17517185,0.20575501,-0.14003718,0.046808105,0.020068513,0.08049309,-0.08800632,-0.019267937,0.18371987,-0.011654995,0.023703322,0.12496461,0.18673015,0.09891634,0.053702503,0.05873648,-0.11449924,0.226825,-0.0597168,0.08945754,-0.011677027,-0.03994356,0.14609718,-0.006876126,0.23006341,-0.030802464,0.067204714,0.10319767,-0.01725547,0.030315021,0.09466101,-0.004117705,-0.10499424,-0.019650191,0.04661104,0.11031089,0.05676487,0.08521591,0.072461456,-0.03209162,0.20673057,-0.16890877,0.011768132,0.04138343,-0.015679702,0.08186254,-0.11627062,0.067762315,-0.0954546,-0.38059017,0.15598378,0.20228153,0.022696868,-0.017534725,0.023984,0.01887157,-0.10349954,0.04652378,0.10138878,-0.0806095,-0.20698652,0.077944815,0.040668305,0.03687331,-0.032128826,0.04286374,0.041402683,-0.06587706,0.15678021,0.06838831,0.031925157,0.021962509,0.013773598,-0.038976952,0.030972842,0.17860903,-0.0018539131,-0.014764309,-0.008687519,-0.046515398,0.089305885,0.018021002,0.1228725,-0.18966413,0.07528752,0.010254428,0.14004046,0.060324475,-0.03799402,0.002962321,0.0859587,0.04119932,-0.022558287,-0.1699797,0.0032374957,0.03756071,0.00273142,0.05479047,-0.090338126,-0.011815738,0.03774993,-0.04297497,0.083729304,0.008261029,-0.0019513369,0.01628355,0.1484041,0.0054640025,0.13286972,-0.018037647,0.011450775,-0.04942794,-0.030065764,0.06618564,0.077650934,-0.037568744,-0.041747674,-0.019180257,-0.10133551,0.055518694,0.023603683,-0.042137504,0.00032596104,0.107768744,-0.14373256,-0.009818509,-0.13411261,0.084148526,0.03200936,-0.0034598783,0.0886235,0.015157722,0.05071567,0.030628484,0.10027573,0.102810085,0.0017147362,-0.023591613,0.14308512,-0.28002203,0.12975317,-0.029039094,0.020390645,0.008786604,0.107814014,-0.005336076,-0.09025273,0.29582387,0.023172155,0.15673485,-0.02516985,0.034266856,0.0237138,0.07903088,-0.01903227,0.05772931,-0.02563115,0.0059630945,-0.012362942,0.024564773,-0.019314107,0.10777606,-0.020063702,0.034654513,-0.064968534,-0.17619456,0.0683497,0.042490244,-0.11626589,-0.0155174285,-0.0036257096,0.075181276,-0.13359623,0.016412795,0.094144955,-0.17431574,-0.18250707,-0.09579867,0.19621192,-0.06390986,0.06903353,0.19546324,-0.03189926,-0.011619134,-0.008339811,0.120275766,-0.086640686,-0.202168,-0.024137694,0.07751998,-0.07560701,-0.01923415,0.0056830235,-0.15231887,0.028945327,0.06972629,0.007844619,-0.23800781,-0.060395107,0.16145243,0.0077911317,0.046905734,0.12978151,0.010160103,-0.058585364,-0.024202615,-0.037421018,0.10977384,0.048710637,-0.049334608,-0.06619337,-0.04232043,-0.09577407,0.1171363,0.022118673,-0.0146544725,-0.055512592,0.0061788037,0.019721083,0.12265524,0.00129354,-0.16945864,-0.036158234,0.07517481,-0.04478503,-0.061002538,0.010108225,0.1092215,-0.05973472,0.0030024648,0.021479214,0.0633954,-0.014756709,-7.8991055e-05,0.010099918,0.08197359,-0.09191273,-0.08015918,0.11428482,0.03611785,-0.046476983,0.038995564,-0.04107379,0.058049686,-0.03733206,0.0633316,0.053407088,-0.0011397898,-0.0879583,-0.093755506,-0.039980896,0.20562172,0.116554946,0.15389055,-0.11289591,0.046718992,0.11244083,0.022105664,-0.01531136,0.050587893,0.05830852,0.082049236,-0.09550662,0.11206284,-0.02589944,-0.05695539,0.07988105,-0.0002740994,-0.17861378,-0.09913901,0.01986935,0.10753508,0.0024589896,-0.12465316,-0.0153717995,-0.08383108,0.028234847,-0.03119342,0.08221265,0.040195297,-0.018412262,0.036894098,0.03895615,0.049201295,-0.029046545,0.040105596,0.0031807423,-0.04793644,-0.022857286,-0.18901613,0.028712824,0.027229384,-0.09033848,-0.067683,-0.020744056,-0.1489612,-0.09008412,0.026928708,-0.0018150806,0.13287985,-0.0112813115,0.11806311,-0.14871868,-0.09758469,0.0683601,-0.1600907,0.080405876,-0.04058852,-0.13946213,0.014412637,-0.0057626516,0.117317945,0.035861373,0.05858932,0.013598256,0.007129766,-0.067102894,0.012607664,0.051983275,-0.10645062,0.0684547,-0.004568208,-0.021357324,0.08733472,-0.026419595,-0.22691846,-0.10736877,-0.015149504,0.15082479,-0.06101443,-0.006791353,-0.014783129,-0.004053533,-0.00033342838,0.031583562,-0.11487515,-0.012850061,0.056752585,0.04598923,0.06735213,-0.07935467,0.07105718,-0.08632818,0.0050842315,-0.002948407,0.058175463,0.034961365,0.10676786,-0.014097989,-0.06666499,0.07213104,-0.031015038,-0.025594342,0.011528909,-0.013184756,0.0034734905,-0.011061331,0.12786587,-0.1129826,-0.008771943,-0.030243427,0.02583307,-0.07255739,0.023455478,-0.031728715,-0.011133432,-0.014403939,0.08921036,-0.02308552,-0.10432708,0.06928904,-0.12252557,0.052221432,-0.0135579705,0.110636435,-0.05813679,-0.015369177,-0.07288715,-0.021869898,-0.05235062,0.08975417,0.003561357,0.039545856,0.025331942,-0.02484914,0.004402861,0.18228824,-0.0052711517,0.09241123,-0.0305648,-0.07165703,-0.059049636,-0.04945078,0.011160091,-0.07107349,0.009101797,0.03430617,-0.026309974,0.004978195,0.12625839,0.031010475,-0.09321547,0.13084944,0.09382814,-0.04602018,-0.009491026,0.028625056,-0.05325728,0.053145334,-0.10287255,-0.07670832,-0.114304096,0.084062666,-0.0410336,-0.016642502,0.09869845,-0.12494324,0.10788979,-0.06286664,0.01822704,0.01635614,-0.14937818,-0.036877856,0.031321205,-0.018637754,0.00825606,0.059055567,-0.035133153,0.13238385,0.19631724,0.07660925,-0.06472762,0.059851766,-0.027465519,0.08163604,-0.005104631,-0.012736663,0.03809851,-0.005629547,-0.036767133,-0.018438108,-0.06263732,-0.06456698,0.042526577,-0.13444883,-0.044240087,0.01602289,-0.04497756,0.02070485,-0.17038567,-0.015891306,0.0777494,0.0040756166,-0.14055988,-0.07620455,0.04484945,0.009881556,0.08257851,-0.008359879,-0.0019798726,-0.1497534,-0.00893788,0.009087577,-0.11468375,0.11540377,0.0055530593,-0.047761083,0.05657725,-0.034286514,-0.055071548,0.031421535,-0.07589706,0.07847431,-0.021150403,-0.0064915717,0.10481718,-0.10661239,0.055133216,-0.034630835,0.053546846,-0.033301428,-0.00015863776,-0.036378723,-0.08660856,0.008415848,-0.07745743,0.022370528,0.062547676,-0.016024888,-0.009369582,-0.102487884,-0.05642502,0.05313869,0.10323484,-0.094553284,0.060186133,-0.08838508,-0.0023161247,0.17068599,-0.019372178,-0.0416127,0.0058520436,-0.0014559925,-0.008342825,-0.043507844,0.026163965,0.087426536,-0.0044036508,-0.006257251,0.01187716,0.018864363,0.022437438,-0.0095416345,0.05248642,-0.045340866,0.076828495,-0.07582241,0.028145134,-0.03129962,0.068252094,0.032685906,0.061416373,0.04835945,0.01832597,0.09127351,0.07744162,-0.017792419,0.033593744,0.10818129,0.082768835,0.12587759,0.03370364,-0.017807543,-0.0482899,-0.017356023,-0.022147238,0.1158702,-0.04779446,0.056222364,0.07392299,0.05402538,-0.010181695,0.05423156,-0.004209522,-0.056947812,-0.043066517,-0.13651718,0.12886961,0.008659601,0.024038693,-0.1154875,0.015007645,0.008406311,0.16777967,0.004292843,0.008361775,0.024101883,-0.09557748,0.06696227,0.06464969,0.05445552,0.014812857,0.04894357,0.029847838,-0.008843079,0.056874197,-0.039996613,-0.02733165,-0.052254096,0.01534642,0.058770835,0.0010700002,-0.06435796,0.11550915,0.041538354,0.03675434,0.020620733,0.01586388,0.057965815,-0.048976667,-0.023215568,-0.086108975,0.03543046,-0.03539386,-0.0044770837,0.15727982,0.026337057,0.10170794,-0.07745444,-0.014890745,0.008149087,0.0036420608,0.1526199,0.07417759,-0.013438461,0.015642077,0.021624222,-0.16348274,0.10364032,0.104656845,0.11869191,0.13675895,0.04303132,-0.023827896,-0.025542699,-0.044737052,-0.04130709,0.061360322,-0.046847135,0.020213038,-0.06382421,-0.111511245,-0.05846621,-0.03202986,0.03727446,-0.20446593,0.011105791,-0.023928791,0.013380207,0.030209973,-0.11597213,0.11136839,0.0919617,-0.02869764,0.10086447,0.06801353,0.036525846,-0.023080487,-0.0060015433,-0.06949347,0.03778307,-0.109444186,-0.080982566,0.06430315,0.0111212805,0.04550477,-0.098507285,-0.081024915,0.07457338,-0.07088048,0.13042408,-0.058115575,-0.052583992,-0.015871912,-0.056636408,0.0059489906,0.0087531805,-0.019843098,-0.049932465,-0.11540277,0.055195346,0.007058136,-0.04153043,0.081558004,0.121720046,-0.045361057,-0.116049245,0.004511334,0.0857515,-0.065953046,0.019780457,0.053304285,-0.044665072,0.042968117,0.0074097663,0.007987872,-0.07378851,-0.044183645,-0.025172286,-0.14997831,-0.095415816,0.08062513,0.04266745,0.0785481,-0.020762827,0.096851856,0.02300214,-0.12460638,-0.017587796,0.05695501,0.005014196,0.15827373,-0.07805165,0.066119775,-0.15054826,-0.09913561,0.025177037,0.012146115,0.07487667,0.061286405,0.11172077,0.06546241,0.016468093,-0.0022149384,0.039486364,-0.106704235,0.15269157,0.063531145,-0.022372246,-0.051516272,-0.013338506,-0.028374694,-0.030848369,0.019182235,-0.036898233,-0.0041293614,-0.028527766,0.008642837,0.010507435,-0.2020171,0.13417786,0.09444653,0.022115678,-0.035544813,0.038258728,-0.061985258,0.04137895,0.009233527,0.07117164,0.021720342,-0.191751,0.046660185,0.03867444,-0.06595486,-0.007407844,-0.05341524,-0.04045953,-0.011915848,-0.0062797014,0.07776253,-0.23691775,0.14720425,-0.07398257,-0.07140513,0.04595553,0.20145914,0.12017119,0.03154835,0.15314089,0.07398095,-0.011514075,-0.1354117,-0.064645,-0.04201015,-0.09040737,0.05931349,-0.02242884,0.015039891,0.08277186,-0.0029561818,0.086035,-0.09748824,-0.008235455,-0.0107167065,-0.037397444,-0.07752289,-0.098896034,0.019428104,-0.062414184,-0.08637093,0.036972724,0.025190458,-0.036909692,0.11631142,0.15563008,0.013801198,-0.108027264,-0.018391222,-0.049858615,-0.11695919,-0.06653362,-0.05586899,-0.037580818,0.037264332,0.11922224,0.17567393,0.16333191,-0.10546752,0.033940382,-0.03698367,0.014750496,-0.0017760247,0.05019287,0.11568088,-0.041220855,0.08214681,-0.113606766,0.0859341,-0.07618509,0.02572766,0.013654903,-0.020437367,0.07382366,-0.15483233,-0.07562193,0.013622329,0.21815303,-0.05586924,-0.062561736,0.07348159,-0.20064554,-0.06668458,-0.03493677,-0.02625537,0.047517702,0.029230684,0.070382,-0.02195682,0.16496828,0.12536749,0.04702896,-0.099720806,0.01742352,-0.24414887,-0.1595803,0.012658164,-0.058549717,0.11224353,0.13218293,-0.072300605,0.04753479,-0.06443125,-0.06352167,0.0062167495,0.09976241,-0.012434736,-0.03283772,-0.061462194,-0.01576066,0.047955796,0.021286711,0.010731302,0.05092685,0.049206197,-0.03362622,0.09001179,0.024863245,-0.20833209,-0.10286514,-0.031330608,-0.04032752,-0.08330484,0.08543339,0.037232023,-0.014014512,-0.08765718,0.1513547,0.043026183,-0.10202426,-0.018926375,0.028237084,-0.116887674,-0.020178586,0.025183558,0.033073545,0.017835185,-0.00021238625,0.024548046,0.040848598,0.10787436,-0.077147156,-0.016821874,0.08315692,-0.030579925,0.030506792,0.102632895,0.08325709,-0.03918724,0.20906967,0.05970724,0.2497841,0.097512886,0.087895304,-0.09023582,0.075767614,-0.08296355,0.021994328,-0.006351188,-0.024122193,-0.12678352,-0.021266043,-0.061136022,-0.007269484,-0.07761465,0.12497714,-0.04554949,0.0068995953,0.1403155,0.038925424,-0.09369109,-0.03604697,0.008987017,-0.11667865,-0.14817154,-0.041270494,0.03999999,-0.11317807,-0.046105802,-0.15968466,-0.01174064,-0.1308304,0.010172188,-0.003598448,0.09960082,-0.008141845,0.06578916,-0.041215435,-0.032094248,-0.008301005,-0.011736006,-0.09043706,0.058103338,-0.10080567,0.08743697,0.051710665,0.005973026,-0.06528644,-0.07086881,0.034506544,0.015593976,-0.05709228,-0.0010980852,0.07253115,0.10345449,0.044181265,-0.03438431,-0.010231823,-0.105932,0.14809316,0.029637143,-0.047856882,-0.040929288,-0.032890886,0.14114602,0.24848963,0.06407452,-0.055057608,-0.13428217,0.06626833,-0.049124885,-0.015495539,-0.10086648,-0.014696706,0.030323878,-0.1178308,-0.10772065,-0.029368833,0.034824457,-0.051624306,0.078023,-0.015638813,-0.0426426,0.052684397,0.0638206,0.091598704,-0.11432081,0.08996923,-0.01662609,0.0015011337,-0.032078557,-0.16604821,0.055673562,0.024901073,-0.05248105,-0.023263112,-0.008936703,0.0798067,-0.1483365,-0.0060558915,0.061176047,-0.026480187,-0.11963302,-0.182228,-0.0417006,-0.049356703,-0.028876565,-0.06255807,-0.015945636,-0.31824154,-0.09003084,-0.06518937,0.02805002,-0.09508288,-0.09185253,0.1585062,-0.0079276,-0.16649671,-0.13587312,0.06110531,0.043442823,-0.11106024,-0.015055851,0.17250332,0.06156504,-0.03826186,0.09351653,0.04940468,0.03676705,0.11271145,-0.08824829,0.0347095,-0.06439832,-0.19293407,-0.015216827,-0.06027037,-0.016677141,0.030279078,-0.051410675,-0.08825219,0.027631968,0.06831545,-0.020213783,-0.03225862,0.053594735,-0.09652542,-0.014958829,-9.9629164e-05,-0.115990505,0.062137783,0.018202856,0.09178367,0.16707441,-0.021462917,-0.030549824,0.0403326,-0.11152539,-0.07109271,-0.06610871,0.07654167,0.012513384,0.07220552,0.23076679,0.051196665,-0.043474294,-0.027800627,-0.034205824,0.046168953,-0.038074646,0.0064837113,-0.00042449683,0.10845637,0.10224555,-0.023155361,0.15566453,0.13136177,0.12127667,0.033104837,0.039608594,-0.048100807,-0.0040964335,0.080960825,0.026698604,0.049257487,-0.07337856,-0.002720356,-0.0069087893,-0.11023298,0.20429944,-0.31408846,-0.015581181,0.053471446,-0.12330368,-0.05082275,0.0981701,0.008937126,0.08920838,0.050697908,0.03146504,0.011856228,-0.092697285,0.1520243,0.026279524,-0.16125666,-0.048179567,-0.03783243,-0.008745745,0.03133048,-0.042290896,-0.08181359,-0.095138974,0.103407025,-0.07439974,0.03187841,-0.05205144,-0.014152655,0.01618503,0.020637432,-0.02610457,-0.011932418,0.0693983,0.0006278604,-0.06856096,-0.0013963096,-0.0068882555,-0.005997792,0.010382753,-0.09647312,0.026548475,-0.02866058,0.067090325,-0.037342217,0.038419668,0.039182633,0.06270498,0.026370808,0.07012732,0.07300888,0.028093368,0.037126597,0.18176198,0.10049117,0.088235036,0.015770078,0.01664546,-0.072592184,-0.074064836,-0.047863215,0.119261615,0.09857215,-0.051288158,0.018866688,0.07106157,6.309152e-05,0.007932991,0.18981212,0.15545839,-0.007590443,-0.012166478,0.16298275,-0.070811525,-0.08752554,-0.021020977,0.014536649,0.08594148,-0.082175836,0.12126045,0.22416686,0.07129818,-0.046357337,0.052491322,-0.05662274,-0.13536759,-0.045200646,0.09140549,-0.0007250123,-0.13403696,-0.050308257,-0.19361405,0.09459694,-0.047110066,-0.0023735464,0.0006145686,0.0012194663,0.03923031,-0.025288641,-0.027841423,0.0031817593,-0.14245974,-0.065533385,0.039493848,-0.07326031,0.029538453,-0.07756147,-0.06182164,-0.03458307,0.10214801,-0.0071455315,-0.05656381,0.0019567013,0.10905838,-0.0112602115,0.0678204,-0.110835195,-0.1503481,0.04506649,-0.073964946,-0.061775297,-0.0023270845,0.0491103,-0.036149453,0.11326335,-0.0034784079,-0.11958337,-0.0035936236,0.041436836,-0.30104873,-0.08511913,-0.02304684,0.004911337,0.09825196,0.009617068,-0.012917876,0.0009532422,-0.19380096,-0.026821822,0.064048275,0.015185356,0.017485566,0.12233217,-0.07170954,-0.07943184,0.061266027,0.0901954,-0.023952313,0.018746682,-0.13808763,-0.05856751,-0.04640712,0.018156208,-0.024012744,-0.051377073,0.007169202,0.20883934,-0.087647125,0.07763709,0.08567065,-0.11496355,-0.01251258,0.12782897,-0.07602599,-0.07058403,0.14493328,0.067166805,-0.09934789,-0.00931821,0.031735938,0.038862627,-0.06592688,-0.049150556,0.0394433,0.15958224,0.037180852,-0.042360798,-0.00018881261,0.13893785,0.07673347,-0.017295659,0.014796123,0.016123176,0.013051182,-0.008630479,-0.067582764,0.09273036,-0.0041167736,0.06496009,-0.039690405,-0.04436047,-0.119442984,-0.06799699,-0.016515682,0.0092356205,0.110638395,0.070834614,-0.05458211,0.027176097,0.0866799,-0.10272676,0.02526012,0.05623065,-0.047171324,-0.13028978,-0.018432274,-0.04101803,-0.034436017,0.10147155,-0.068577826,0.085099295,0.023336895,0.09741706,-0.054856703,0.01028344,0.038228735,0.09537732,-0.054107565,-0.0019740462,0.05044017,0.047835648,-0.03333974,-0.14579484,-0.0711174,-0.10065231,0.08121434,0.031436756,0.015257835,0.03000404,0.052927338,-0.018565442,-0.027137488,-0.13547666,0.0119924545,-0.019886866,-0.118187465,-0.025467515,-0.09648199,0.05426033,-0.047899373,0.057925224,0.11901071,0.15093668,-0.085583866,0.13522834,-0.005231634,0.059886124,-0.124727845,-0.00096982415,-0.007742569,0.09175032,0.0124660935,-0.029650643,0.056046527,-0.009706266,0.0024099946,-0.07247405,0.019797072,0.027429063,-0.037142944,0.039874703,-0.08156202,-0.030818775,0.03190521,-0.08781378,-0.0073147863,-0.08415949,0.029021055,-0.043445885,0.041804656,0.10236152,-0.06545478,-0.13706008,-0.064012155,0.08404223,-0.052435428,-0.10865966,0.036123965,0.053103793,0.05377477,-0.04342589,-0.015270315,0.026814781,-0.04636191,-0.034953304,0.10011767,0.16975322,0.06424786,0.046083003,0.15194282,0.03184436,0.07282443,0.09441697,0.07378127,0.0993058,0.15565994,0.057277173,0.06648774,0.0040020924,-0.026422575,0.14126061,-0.05349593,-0.06471523,0.027372658,-0.08016153,-0.041096,-0.08610019,-0.023492396,0.098488376,0.07970786,0.052404165,0.054129437,0.017964914,-0.10652548,0.12368155,0.14228201,-0.03478221,0.10816005,-0.024085693,0.16528796,-0.008358195,-0.04928381,0.012326017,-0.041529447,-0.011770055,0.07943231,0.005825922,-0.08966819,-0.046865985,-0.008748248,0.019396614,0.10803856,-0.10520876,-0.023741037,-0.060460273,-0.1411148,0.056514725,0.0352917,-0.055028453,0.03605791,-0.04344894,-0.013446324,-0.00045111775,0.020222854,-0.038083054,-0.04170221,0.07272752,0.10423717,0.05306918,-0.041371025,-0.0584628,0.072410405,-0.022251263,-0.018611059,0.00038038194,-0.048001975,-0.054245375,-0.19728833,0.084287725,-0.08111915,-0.064814605,0.046367537,0.098194025,-0.05158084,0.014086008,-0.12839545,-0.082820736,-0.040714145,0.0125008,0.0063682646,-0.087290384,0.02954197,-0.11211373,-0.006986767,-0.11172375,0.04009384,0.021736622,-0.042744905,0.14482911,-0.09373099,-0.021723568,-0.045485098,0.032909825,-0.21928206,-0.07579328,-0.05437042,-0.11698733,0.029597227,0.013384402,-0.013473038,-0.005891122,-0.0056485445,0.032979637,-0.0973573,0.04606463,-0.09277205,0.030042984,-0.09295909,0.06010574,-0.04985347,0.009540314,0.028127253,-0.10613496,-0.11801852,0.038496777,0.09624672,-0.16944331,0.08168557,0.0010510981,-0.0693727,-0.025918154,-0.0015192702,0.021606803,-0.057302207,-0.25989935,0.038508177,0.062139615,-0.07585164,0.10762611,0.08825256,-0.11354646,0.07989876,0.09891195,-0.1255349,0.074783266,-0.029917195,-0.0058547277,-0.09421204,-0.05169505,-0.01963526,-0.08324624,-0.09931663,-0.046777055,-0.009316839,0.021717459,-0.023654252,0.0425379,0.035662815,-0.060244456,0.029499851,-0.13486044,0.029331386,0.053286605,0.034536496,0.018804565,-0.10422314,-0.028176889,0.07257435,-0.006007582,-0.02023092,0.03125252,-0.116330534,0.004537463,0.021763384,0.071290314,0.020080507,0.060016423,-0.054528486,-0.022026598,0.085240036,0.025051638,0.04823922,-0.10757315,0.12614435,0.06326122,-0.05483914,0.08749667,-0.055902354,0.032360584,0.032177888,0.0046761483,-0.00041383505,0.05693877,0.055351317,0.08105639,0.035372376,0.053264186,0.046209663,0.13687378,-0.1484448,0.078372225,0.020624906,-0.062076904,-0.029681325,-0.017552882,-0.13172008,-0.041678563,0.018616468,-0.028329603,0.09829631,0.023115411,-0.060560375,-0.002549097,-0.032527108,-0.037157983,0.036988765,0.021416042,-0.007448137,0.0599515,-0.05613853,0.077172145,-0.086306415,-0.07996719,-0.11533527,-0.036748443,-0.016863033,-0.087619506,0.018529478,0.034358755,-0.07260447,-0.027036743,-0.058646373,0.083743244,-0.03864624,0.13388315,-0.13862596,0.11517101,-0.06217235,-0.04231052,0.06213028,0.034455106,0.13408335,0.047369152,-0.048861727,-0.14727727,0.01727049,0.10392294,-0.06340019,-0.14383693,-0.004879296,0.07392098,0.038766947,0.05189109,0.032630563,0.002271682,0.021114893,-0.038430825,0.059841692,0.024105549,-0.01863207,0.06224665,0.06716319,-0.030272357,0.11958546,-0.09398857,0.059520043,0.01265727,-0.079033986,0.05984054,0.18134868,0.04116217,-0.0029502958,0.016500909,0.018832594,-0.017591923,-0.019934587,-0.1331366,0.0030893404,-0.069455415,0.055193506,5.006045e-05,-0.03631376,0.09487797,0.05287773,-0.00511083,0.018882036,0.0408777,-0.011781879,0.04756973,0.091269724,0.018759385,-0.029368341,0.18172537,-0.004098259,-0.012944704,-0.002125606,0.00695955,-0.03334035,-0.014431965,0.06579192,-0.057555012,-0.12582612,0.16941011,-0.07820061,0.016308933,-0.039663166,0.013436027,-0.09364446,-0.11999872,-0.0504373,0.0006018579,0.08715414,0.1478048,0.019291297,-0.17388892,0.08712446,-0.020435393,-0.034185976,-0.046655327,-0.060994297,0.04113625,-0.3199279,-0.12989879,-0.00901374,0.023284301,-0.09917162,-0.09901163,0.17376801,0.03954845,-0.0063324273,0.028073624,0.022741012,0.06190986,-0.05968763,0.039706275,-0.018728912,-0.058970302,0.0013624504,-0.030763805,-0.06179097,0.008706875,-0.12338361,0.07227212,0.04115814,0.03183233,0.00051682815,-0.068844706,-0.11611913,0.098567694,0.021006986,0.1253063,0.17554641,-0.03205894,-0.025554612,-0.006874725,0.0034019873,0.123908624,0.102009885,0.02578026,-0.0526433,0.06708625,-0.052049313,0.035762224,-0.09184107,0.014776476,0.018651195,0.15833503,-0.0028730184,-0.013429664,0.095601484,0.007777363,0.2698873,0.18318747,-0.14895867,-0.024833394,0.055103384,-0.011822671,0.17829446,0.051402997,-0.052441657,-0.047755994,0.081993714,-0.0047960626,-0.0036397874,0.1412231,-0.022206575,-0.10267168,0.073637396,0.026693337,0.07139842,0.16506627,-0.063509434,0.027523344,-0.0049138814,0.18539333,-0.04010524,-0.09288785,-0.017923705,0.009853803,0.021789357,0.081457995,-0.03226506,-0.06706531,0.07757341,-0.05853619,-0.009099629,-0.01879953,0.005849883,0.042382207,0.056177586,0.0013842136,0.03699608,0.09585798,0.021937832,-0.048111834,0.11369631,-0.046387583,0.0077272207,-0.17442206,-0.053941928,-0.12525055,0.024156183,-0.15627818,-0.060557574,-0.04966052,0.06440064,0.4167666,-0.018886358,0.02477178,-0.040760264,-0.02515965,-0.03012687,-0.011139451,0.09054774,0.036343146,0.044785947,-0.041003183,0.027373865,-0.14071323,0.049118966,0.00822784,-0.003196925,-0.12257005,-0.025055647,-0.22473514,0.019615427,-0.0740457,0.03108421,0.057644814,0.13929321,-0.10919757,-0.00385046,-0.00018966198,-0.035980508,-0.02910684,0.012429088,-0.02284389,-8.741021e-05,-0.077444315,-0.012654901,0.018462371,-0.0874944,-0.08446647,0.036103494,0.10696398,0.013691321,-0.08790493,-0.051164858,0.12110206,-0.034019284,0.06716217,0.000446558,0.0081138015,-0.04191005,0.25193706,0.10344507,-0.003406562,-0.029650755,-0.08423644,0.049145944,0.12298553,-0.055588692,0.07258566,-0.19348253,0.044847608,0.003543675,0.05214429,-0.074592456,-0.041161448,0.011072027,0.038205117,-0.15985808,0.029854193,-0.10423993,-0.040940218,0.0034329817,-0.109553054,0.008125921,0.05767248,-0.072701246,-0.02749221,-0.030630939,-0.0033985674,0.014436662,-0.044112217,-0.079224244,-0.07998772,0.014157191,0.0053725243,-0.042170316,-0.11909042,-0.0829851,0.21611688,-0.13063726,0.22195902,0.05179841,0.002430059,0.057717502,-0.030659843,0.021594808,-0.029016651,0.08559537,0.093173735,0.04777716,-0.042259946,0.06594041,0.00906983,0.020917848,0.067886546,-0.045044154,0.042246725,0.0372643,0.025264032,-0.04601416,-0.06948268,-0.07464613,0.030753657,-0.04086615,-0.03136394,0.15630747,-0.16568428,-0.0504833,0.02185757,0.14411995,0.049016684,0.07281381,0.028452888,-0.05819396,-0.002773609,-0.07376875,0.011984229,-0.008449957,0.073393285,0.05384481,0.084469594,0.0037087016,0.18888368,0.057604358,-0.056812197,-0.060455065,0.11847869,0.10668115,-0.035933763,-0.064700864,0.009976119,0.042476725,0.08697009,0.017276056,0.06794659,0.012647577,-0.09113869,0.11745865,0.23111784,-0.040058613,0.021200068,-0.037364163,0.059712693,-0.053663224,0.07279189,0.0516904,0.08813111,-0.061691567,-0.075829506,-0.0014870502,0.086959586,0.17220692,-0.053742744,-0.0024756193,0.046264254,0.072201654,-0.009235114,-0.044782944,-0.10558932,-0.011742026,-0.021685824,-0.038148344,-0.026514769,-0.023444913,0.07991764,-0.013250839,0.07730542,0.10934397,-0.13222066,-0.0040770853,0.0018162951,-0.016449377,-0.1537241,0.0528175,-0.094671026,-0.03707234,-0.067508236,-0.05515431,0.20596713,-0.044698596,0.11328482,-0.08216367,-0.057826966,-0.03129319,-0.06726184,-0.11130486,0.025630772,-0.115224555,-0.009231418,0.04622875,-0.056926593,0.09810254,0.008029886,0.04083714,0.009411573,-0.06151378,-0.14552103,-0.072065234,-0.012417257,-0.039927334,-0.046923608,0.0062406138,-0.058795407,-0.058203608,-0.02271396,-0.027471244,-0.02706863,-0.12265226,-0.050813552,-0.05801019,-0.042191193,0.02563405,0.027598511,-0.047724247,-0.025201008,0.069340624,0.024453212,0.09108956,0.08777054,-0.05979903,-0.0027449988,-0.049450085,-0.026975647,0.065438345,-0.1038557,0.21230033,0.049350794,-0.020495966,-0.037253167,-0.030232072,-0.032647908,0.040901653,0.051203936,-0.05345103,0.029600915,-0.0045501366,-0.018478721,0.21385214,0.11340849,0.00536453,-0.035911158,0.022490047,-0.038995903,0.039394505,0.013972178,0.04035414,0.008311294,-0.06958259,-0.024510756,-0.037648737,0.025010392,-0.056357447,-0.07460101,0.027254432,0.0039760806,0.17566288,0.16404864,-0.02249403,-0.071112916,-0.038543195,-0.025491662,0.038868655,0.0046352744,-0.07528925,-0.050385464,-0.03614503,0.11165184,0.047096904,-0.009909522,-0.060705155,-0.019822508,0.1106702,0.24288993,-0.03578199,0.09655309,0.028695133,-0.07386451,0.12160468,0.07020922,-0.01009947,0.06258058,-0.076944314,0.07158777,0.004663877,0.05291642,0.053014666,0.009088382,-0.020138532,-0.2097693,0.055336855,-0.10409675,0.09791204,0.011681825,0.052485228,-0.050739914,0.05346535,-0.1170371,-0.13324606,-0.03318572,0.0053028762,0.023023352,0.040323928,-0.2096102,0.13739344,-0.10192661,0.09894815,-0.0789918,-0.023967143,0.015197314,0.038304135,0.0011080466,-0.14702073,0.07609494,0.008277923,-0.020217083,0.02156213,0.031888798,-0.025181372,0.050698638,-0.0053272173,-0.08265573,-0.022459723,0.002877161,0.124731645,-0.031326443,-0.031151295,0.025035173,-0.029037192,-0.07296709,-0.10552648,-0.10246989,0.09710761,0.027406514,0.11049217,0.05597146,-0.120073065,0.076847605,0.05298984,0.09981352,0.051633693,0.038489155,0.030443117,0.017039523,0.05202701,0.13922532,0.013723127,-0.068659425,0.105022706,-0.06140988,0.22747265,-0.060120016,-0.55138844,0.051424056,-0.006818101,0.0755035,0.055245936,-0.047606885,0.01764872,0.0062239915,0.01387155,-0.003955394,0.09825088,-0.033694744,-0.0048861355,0.03754817,-0.05083304,0.033293262,-0.061314374,0.06744801,0.037044622,-0.014748946,0.037250314,-0.10042448,0.04246056,-0.0064523295,-0.004948817,0.08118719,-0.06164539,0.018397212,0.12987623,0.062854454,-0.018664781,-0.08217931,-0.034373894,-0.0841735,0.11598202,0.08857156,-0.028751418,0.04489295,-0.005471915,-0.075773925,0.026632119,-0.07184359,0.08534704,0.14067136,0.04827685,-0.036146548,-0.044403046,-0.04324446,-0.03519929,-0.0034698844,0.11700185,-0.02341659,0.039152637,-0.07381683,-0.035900816,0.05708875,0.120860614,-0.13796648,-0.06681338,-0.19049579,-0.115036875,-0.033316866,0.06900634,0.077599734,-0.02205165,-0.017416123,0.112546206,0.034110494,-0.0040946677,0.06491439,0.042009115,0.02736383,0.16183025,0.010899447,0.05127397,0.117613226,0.016178355,0.1296247,0.052461695,0.023560569,-0.0113325715,0.06817664,-0.007875863,-0.073537484,-0.028868489,0.06559885,0.023575515,0.07393797,0.13426962,0.099825546,-0.11227241,-0.07788348,-0.17191216,-0.037701875,0.00869894,0.04812416,-0.09135464,-0.124863826,-0.018833771,-0.06385115,-0.0209044,0.08805079,0.03236748,0.027758654,0.024411023,0.036214486,0.0629886,0.1308688,-0.06290491,-0.1369642,0.09962543,0.039494745,0.058355227,0.076727465,-0.15220143,0.00011124462,-0.08457366,0.03233251,-0.08918138,0.06030956,0.09310256,-0.03242986,0.033899933,0.021193897,-0.05424883,-0.04621751,0.01059334,-0.03515776,0.18997361,0.027525589,0.054093435,0.066076264,-0.065093264,0.034003735,0.025916576,0.016732402,-0.051960975,-0.062131763,-0.170863,0.048672017,0.137167,0.022213906,-0.0060927942,-0.14121877,-0.0056945533,-0.044314414,0.07933454,-0.065299235,0.15404922,0.040321626,0.045912646,0.11951946,0.051041245,-0.027461693,-0.09548525,-0.1315125,0.012665853,0.05589565,0.034286592,0.044920497,0.073162556,0.02853176,0.09695557,0.11347365,0.052952826,-0.17313479,-0.0762853,-0.07516238,0.026471362,0.1910611,0.058362424,-0.118314415,0.020471409,0.078004986,0.064316496,-0.06705882,-0.02865878,0.04789053,0.009061351,0.0063318163,-0.043052435,0.018545903,-0.010413472,-0.056886774,0.055602223,0.080969185,0.052358374,0.0521795,0.0072716475,-0.19918689,0.042779848,-0.08394274,0.03571731,0.008124737,0.096074075,-0.01351692,-0.010070555,-0.028124213,0.20577383,0.19734329,0.009886235,0.04360901,-0.062731,-0.07146899,-0.034252875,-0.06705564,0.06467356,0.014226988,0.10603646,-0.004921794,-0.16243997,-0.01474227,-0.07003523,0.004732728,0.08186224,0.13359356,-0.08384666,-0.007950701,0.017970473,0.0044940114,0.009537309,-0.0658828,-0.04035318,0.008921258,0.024803236,0.044243515,0.12471798,0.027316228,-0.026120812,0.018359944,0.033334434,0.056236967,0.07201764,-0.12801409,0.103243105,0.08187324,0.036761016,0.09355291,0.021146897,-0.018433597,-0.028981857,-0.06975682,-0.018773913,-0.054902315,0.0294462,0.18290605,-0.090077646,0.1345822,-0.039154865,-0.0064522307,-0.12665275,-0.003026031,0.01864618,0.019144386,-0.01866822,0.11251171,0.11580296,0.15466337,0.0413078,-0.024865448,0.33207947,-0.025522396,0.085167766,0.012911682,0.1283633,-0.05686146,0.03307335,-0.02986805,-0.052067235,0.04010111,-0.024826743,0.12997979,-0.031952865,0.0019924603,0.05273348,-0.05385378,-0.036005028,-0.053510517,0.026002496,-0.045641586,0.030137159,-0.020322949,-0.041173976,-0.06516967,-0.043158956,-0.0926096,-0.1023259,0.014788146,-0.124927945,-0.07444999,-0.018369809,0.024740487,0.055835575,0.136519,-0.059776187,0.045385092,0.07602824,0.20434679,-0.057118237,-0.051743545,-0.17740117,0.04571546,-0.053511363,0.03141527,-0.024882734,-0.11387034,0.059799124,-0.026829183,0.026753768,0.3136754,-0.11739217,0.025545187,0.05336854,0.0031404346,0.05280474,-0.020585857,0.0758878,0.026490226,-0.09773959,0.037031285,-0.105552875,-0.02491668,-0.12997442,-0.005927503,-0.05601491,-0.116595194,0.061716404,0.079072595,0.022819143,0.15763204,0.15319209,0.09545217,0.07924422,-0.031623706,-0.005916089,-0.054993838,-0.017060496,0.00914377,0.0036333725,-0.09543139,0.13146733,0.016275212,0.023701653,-0.017150737,0.10577548,0.026720941,0.032993883,0.019081399,-0.012240158,-0.08804274,0.06322013,-0.096387245,0.12921385,-0.09221449,-0.0480848,0.0844976,-0.04214424,-0.010634579,-0.049773946,-0.119160786,-0.2315465,-0.024918199,0.005990252,0.06473908,-0.016474292,0.031307094,-0.01530464,0.08589542,0.08808084,-0.1262344,0.015630186,-0.024005584,-0.00871665,-0.114783764,-0.031450525,-0.038710028,-0.06432237,0.14861214,0.050325118,0.06325938,0.2925701,0.11619869,0.0151201505,-0.034505397,0.038430396,0.03011003,0.17156473,0.10753832,0.08726752,0.066871375,-0.0055875033,0.05830816,0.02451554,0.015011385,0.04340093,-0.03235255,-0.0475827,0.024061136,-0.05356483,0.08027839,-0.045686387,-0.06642172,0.09512118,-0.006623268,-0.07079053,-0.07540816,-0.07754421,-0.09106176,0.07270973,0.031329304,-0.050087728,0.09292075,0.11894478,0.07089777,0.026152909,0.036269832,0.13623802,-0.02722703,-0.029573299,0.020986572,0.11390711,0.11942254,0.06806767,-0.014927134,-0.070999846,6.645918e-05,-0.0011176988,0.09629425,-0.118240885,0.03168946,0.036869973,-0.08164215,0.109191775,0.03483228,0.038280442,-0.016791508,0.0060896724,0.044098765,-0.026992053,0.08640862,0.042846616,0.088870004,-0.06115076,-0.055388093,-0.052962743,-0.11925964,-0.19655849,-0.006048605,-0.15746562,-0.06026429,0.10415867,0.048779406,0.0010214001,-0.078916274,-0.13779217,-0.029156584,0.10408048,0.002871645,-0.11817659,0.04046426,0.2394503,0.06499072,-0.019855767,0.12649848,0.008802637,0.15624453,0.03701801,-0.036624566,-0.012160495,-0.014980951,-0.08760798,-0.03564416,-0.1301035,0.15216583,-0.052733496,-0.045627713,0.0047987252,-0.074388556,0.09940012,-0.021236375,0.14626983,0.09933078,0.004249096,0.063910455,0.00079116225,-0.03124541,-0.092530265,0.07714115,-0.006799232,0.0073823854,-0.009469226,-0.038304403,-0.018942192,-0.08106835,0.06157837,-0.032982245,0.04552293,0.14821139,0.03274656,-0.049053527,-0.025048181,0.093525186,-0.03385605,0.053651117,-0.041726716,0.063128345,-0.14765973,-0.0031152815,-0.058343425,0.02291672,-0.100843914,0.09064521,-0.0008017421,-0.011110768,-0.06123617,-0.04697202,-0.024993144,-0.056527346,0.03435214,0.0025223717,-0.037427194,-0.008397952,-0.06169477,0.08792234,0.11070798,0.01237154,-0.03962999,0.0399305,-0.02722346,-0.08646669,0.037845075,0.18359861,0.09967272,-0.021550272,0.05977215,0.032931827,-0.1359008,0.25518203,-0.0004464835,-0.030759506,0.03748522,0.10495792,-0.080642596,-0.036744177,-0.1650127,0.0138190985,0.03811899,-0.09338756,-0.064857036,-0.0023260042,-0.09123962,0.066715896,0.11859602,0.116162226,0.0002463758,0.042793915,-0.049149327,-0.14629768,-0.003696818,-0.025481284,-0.07069795,-0.041997716,-0.061448094,0.05306232,0.061315745,-0.18962896,0.01433596,-0.16645792,-0.04447319,-0.1376606,0.026815847,-0.0026554135,-0.1491699,-0.041234493,-0.13764633,-0.093259886,0.018004835,-0.015933473,-0.03378152,-0.032002583,-0.0056767017,0.10031578,-0.074598014,-0.028609902,-0.03845612,-0.12703267,-0.049884383,-0.0050417706,-0.07719618,-0.017759651,0.054506585,-0.018401317,0.1698311,-0.16910012,0.04702991,0.036515087,0.15965766,0.027651668,-0.026473716,0.098498136,-0.03448546,-0.06868018,-0.10873015,-0.046688095,-0.071150094,-0.033985592,-0.08260134,-0.031116229,0.00991036,-0.13734281,0.092475,-0.09185116,-0.19531868,-0.12777786,-0.015557617,0.036434926,-0.10169009,-0.07209146,-0.046425916,-0.069077484,0.11833371,0.1025925,-0.0146948695,0.043904245,0.04375264,0.11325052,0.042831164,-0.0021238625,0.06853639,-0.029800242,0.07178351,-0.027405113,-3.1739473e-05,-0.05070877,0.06811893,0.055820912,0.13969022,0.02092193,-0.032820337,0.09278972,-0.029681258,-0.02773355,0.18362215,-0.0290007,-0.10068613,-0.33862075,0.06009233,0.049904957,0.089381166,0.042515337,0.009523056,0.042079426,-0.05590129,0.14243767,-0.09086381,0.08942051,0.0831474,0.017586589,0.009578697,0.12818049,-0.013143107,-0.04837212,-0.028392114,-0.09341567,0.02287069,-0.16751787,0.08665901,0.046582654,-0.008564733,0.12861906,-0.090837985,-0.110860325,0.010000128,0.056065485,0.07715855,-0.0017414093,-0.0029986128,0.029077984,0.040364817,0.025306515,-0.03330162,0.025161833,0.0399208,0.15204942,-0.12614065,0.03616245,-0.03598932,0.15259808,-0.017824665,0.07840196,-0.012025103,-0.06676611,0.11444175,-0.07943246,0.045696795,0.0042830557,0.079618834,-0.061587922,0.017053694,-0.09207004,-0.009563686,0.10898326,-0.017475843,0.05830741,0.032788713,0.08137251,0.024046384,0.0010720044,0.023953063,0.081981294,0.019636897,0.11290021,-0.24143139,0.20294575,0.0139017105,-0.010916144,-0.102742866,-0.124878496,-0.0656749,-0.099717736,0.03667192,0.08127633,-0.19277368,-0.1046193,0.020119965,0.014600135,0.03238949,-0.07113132,-0.16814975,0.025500208,-0.039331086,0.022344828,-0.08349371,0.07766705,0.059783578,0.0074742734,-0.08781463,-0.056937337,-0.08333267,0.035315424,-0.17244135,-0.019315496,0.0005483255,-0.106639095,-0.057133943,0.08008656,-0.011352301,0.1019399,-0.052274406,-0.030484237,0.004133685,0.11797575,-0.115063146,0.05146253,0.116210505,0.011250332,-0.07828526,-0.049860463,-0.13414675,-0.07512528,0.00918974,0.16225402,-0.021774203,0.08320161,0.106230244,0.021581542,-4.839897e-05,-0.002780158,0.07337869,-0.068618625,-0.116672635,-0.03128229,-0.012800209,-0.015626416,-0.007534489,-0.0528879,-0.028615952,0.3049225,-0.066235155,-0.008725904,0.03871894,0.041511167,0.20271963,0.11656689,-0.018181324,-0.1867267,0.044171862,-0.05509904,-0.07064002,-0.06057574,0.0673147,-0.03767662,0.013914764,0.020549268,0.029656395,-0.036848925,-0.060072884,0.092913106,0.10839495,0.011547551,0.046194516,0.015920788,-0.036455303,-0.016380906,0.07178197,0.10083891,0.14573544,0.07865706,-0.0033005476,0.056326292,0.15066004,0.008768022,-0.08731593,-0.040690124,-0.032786403,-0.057251006,0.21379513,-0.0070792437,0.12056042,0.12533161,-0.00027674437,0.07546903,-0.09924401,-0.08952299,-0.033204608,-0.051375736,-0.019807108,0.036726676,-0.075860575,-0.09305436,0.1540001,-0.18524033,-0.12594819,0.015267517,0.07653877,0.1077967,0.02143186,0.00027236342,0.009820268,0.046857327,0.072247565,-0.01893584,-0.023387834,0.041354734,0.0030552596,-0.11387613,0.029131874,-0.10693937,0.009006441,0.13269159,-0.046376117,-0.10399002,-0.06284422,-0.018518878,0.16038811,0.01759091,-0.16758081,0.1045205,0.02709985,-0.043656826,-0.087412186,-0.030509735,0.07753712,0.042102575,-0.059534535,0.06753279,0.17658053,-0.11462504,-0.0053970963,0.08442587,-0.006326139,0.0143339485,-0.12851828,0.04919181,-0.046467125,-0.02944868,-0.09415963,0.050166607,-0.02955573,-0.06310084,0.03870935,0.022450276,0.038161844,0.0470784,0.006156981,-0.01671022,-0.042295508,-0.17474765,0.0040020756,-0.03514389,0.012411833,0.0015669689,-0.011533931,-0.04703012,0.024538592,-0.07046716,0.10468429,0.009884089,0.12865776,0.06622639,0.07596533,0.09695553,0.018999383,-0.01801391,0.08449064,-0.04489272,-0.04189559,0.045478776,-0.11534163,0.08496262,0.080258235,0.046817467,-0.08618997,-0.10068527,-0.088452235,-0.08518409,-0.056611337,0.005268872,0.0990724,0.060975716,-0.078203976,-0.05260521,0.06460567,-0.07151201,-0.09854491,-0.0011949539,-0.13277477,0.11965447,0.03840892,0.01496708,-0.085890815,0.058410224,0.02171857,-0.045560867,0.05198345,-0.13995227,0.048875827,0.00108549,0.10088114,-0.056901604,0.1574259,-0.009955272,0.07233194,0.055098623,-0.023593724,0.011416189,-0.058116615,-0.021961182,-0.17445633,-0.12673585,0.010735624,-0.12160267,0.12193712,-0.14216152,-0.082840055,-0.04446893,-0.0046573877,-0.03930594,-0.08020393,-0.029313385,-0.09132217,0.06865206,0.06895124,0.11541688,0.05258306,-0.065769196,-0.09639018,-0.017190523,-0.07611385,-0.030073524,-0.032150775,0.056537587,-0.10575244,-0.15582693,-0.09126934,-0.08585779,0.04957569,0.067852914,-0.015085146,-0.026083708,-0.042060986,-0.063593715,-0.013999764,0.039105393,0.07423445,-0.07997011,0.062690236,0.10507082,-0.042885512,0.08007282,-0.22359434,0.0012127906,-0.2096067,-0.042339083,0.02857089,0.065568544,-0.080066465,-0.053809136,0.009132154,-0.004993856,0.0017320439,0.019681454,0.008172903,-0.055125326,0.0046743713,0.03313062,0.11681866,0.08065641,-0.008705837,-0.09984995,0.072550856,0.0056797266,0.042478472,-0.10214225,-0.024646759,-0.22404592,-0.041400008,0.10154544,-0.03570552,-0.065064505,-0.07316489,0.03414449,0.07397167,0.048436657,-0.04102397,-0.10780802,-0.0048813,0.06869723,0.06525373,-0.027983122,-0.0051247627,0.037356947,-0.17834425,0.0785137,0.01217635,-0.14900957,-0.061451226,-0.12287283,0.046625666,-0.03414105,-0.0033074394,0.124329776,0.09944175,-0.02798558,0.0024641976,-0.10092586,-0.0060866848,-0.05588492,0.031709343,0.04919231,-0.02836889,0.010813877,-0.13456775,0.10316363,0.03072054,-0.08431165,0.0937459,0.06286131,0.04470128,-0.024805654,-0.13477577,0.09585998,-0.07214976,-0.08185534,0.0013278723,0.025938824,0.056010045,0.17217645,-0.1544399,0.11634506,0.03459715,0.09377968,-0.052073993,0.11488646,0.008983948,-0.04944125,0.035853643,-0.10672966,-0.18682656,-0.009814113,0.046137925,-0.047262415,0.04148241,0.018430702,0.0075233504,0.037041903,-0.116622955,-0.083709046,-0.07896299,0.03719136,0.20619272,-0.12158764,-0.087493666,-0.044922426,-0.1153887,0.05942857,-0.07479687,-0.044645905,0.058796644,-0.026258115,0.07378159,0.06432545,0.0058392137,-0.062115207,0.111998916,-0.017110458,0.010684997,0.060509384,-0.060418945,-0.060539357,-0.13666628,0.017413236,0.05503176,0.09719724,-0.020984948,0.052370146,-0.13677391,-0.043258473,-0.058779374,-0.0084827095,0.056182742,0.08534159,-0.042833194,0.04098677,-0.06307086,0.03944382,-0.11193851,0.11632052,-0.16321301,-0.108631395,-0.04436867,-0.08473234,0.006939307,0.044668995,-0.014103867,0.14187825,-0.0115913,0.028564855,-0.11746311,0.23035713,-0.17413968,-0.106496125,-0.012845051,0.04890476,0.12223203,0.030574838,-0.0954379,0.019895526,-0.08366593,0.09047197,-0.13440032,0.019397264,0.0471718,0.0059507713,-0.060372204,-0.1305781,0.019437533,-0.077734366,-0.07769738,0.15295827,-0.08771795,0.000595212,-0.107645184,-0.028368361,-0.10176861,-0.08687729,-0.15283604,0.12649229,0.06956983,0.03585975,-0.104002506,0.00626038,-0.16693576,0.0430085,0.04168378,0.0045521706,-0.03680983,-0.103888325,0.03476873,0.063923106,0.051980734,0.1340026,0.029026484,0.06687501,0.13412803,0.015348148,0.05321923,-0.08337727,-0.044148516,-0.016034737,0.10604665,-0.062068764,-0.049007107,-0.016367495,0.07649658,0.019298963,0.032584038,-0.0058326796,0.05285953,-0.016236452,0.087334916,0.013087589,0.0059014857,-0.079503134,-0.028149284,0.02175586,-0.032754213,0.106140345,0.0069272816,0.07793508,-0.049699813,0.064629346,-0.035375297,-0.07977312,0.022541232,0.028880768,-0.09646014,-0.06864037,0.0135335475,0.025106743,0.03218726,-0.0009441376,-0.06988547,-0.06335675,-0.016054038,-0.16298035,-0.021109171,-0.089022905,-0.035819523,0.07750267,0.1201271,0.12215379,0.043574765,-0.10107083,0.12793534,0.107675254,-0.06525757,-0.11779153,0.076502584,-0.04715932,-0.030452453,-0.07537195,0.06927481,0.15395775,-0.029790632,-0.062295735,-0.106973976,0.09544495,-0.020177484,-0.042028017,0.12994364,-0.007891282,0.08414297,0.08189264,-0.06585321,-0.19751328,0.01828672,-0.0698169,0.052467804,-0.023923434,-0.07454844,-0.07858054,-0.24611261,0.085142754,0.006964937,0.012730174,-0.045070548,0.01591815,0.0510583,-0.18139069,-0.16372402,0.009842381,-0.0564492,-0.008420646,-0.018802285,-0.025202408,-0.067955285,0.10014713,-0.13981351,0.019067612,-0.03872007,-0.017217338,-0.06968122,-0.0741744,0.036787793,-0.013321288,-0.1512779,-0.008951098,-0.009124428,0.045520723,-0.059815377,0.007022053,-0.13799195,0.005831696,-0.040804267,-0.045144185,0.07076855,0.04481989,0.060362343,-0.032794073,-0.121562004,-0.13062961,0.12871976,-0.026523322,0.011293602,0.1059124,-0.0072763935,-0.009524036,0.017852157,-0.011413023,0.021939903,0.010132693,0.02459048,-0.07904986,0.057126578,-0.025874095,0.1256358,0.026809871,-0.016062602,0.018854309,-0.030256696,-0.11572714,0.05064875,0.11358417,0.031229436,-0.017417267,0.02734106,0.051224858,-0.09499086,0.073693216,0.01312156,-0.1212609,-0.12240562,0.056187928,-0.0644758,-0.003848292,0.015874458,-0.041244984,0.027540356,0.119053915,-0.07783709,0.068203956,0.111704856,-0.14121291,-0.13929297,0.056274757,-0.09077523,-0.059909597,0.06710592,0.04014624,-0.014377244,0.012848482,-0.095227644,0.0104604885,-0.0256875,-0.23304781,-0.066503406,-0.1516888,-0.051882237,0.00945013,0.10558435,-0.017656364,0.0090608355,0.13379069,0.075668514,-0.06967621,-0.018110879,-0.16161159,0.06368619,0.13449901,0.052887883,-0.03498994,0.08942953,-0.17025554,-0.08024782,-0.012900025,0.022053674,-0.018812744,-0.002930291,-0.12782073,-0.023382498,0.13365449,-0.006488921,-0.041051824,0.13255355,-0.04329627,0.03808938,0.0073560923,-0.08707589,0.08977318,-0.06124614,0.013047516,-0.06464606,0.036903784,0.019417353,-0.05118481,-0.062446788,0.08498024,-0.03291633,0.03755311,-0.07971162,0.06731011,-0.016376734,0.14350389,-0.100488946,0.014278838,-0.061888393,0.033447858,-0.124872446,0.007936068,0.048968956,-0.092046976,0.054575097,-0.031626523,-0.14510767,0.13504808,-0.17881683,-0.11268663,-0.124563135,0.029572904,-0.05952998,-0.027134247,-0.0010128319,0.11519087,0.052855894,0.09317913,0.011096448,-0.011384092,0.11017076,-0.083891094,-0.01577422,0.027619258,-0.17231303,0.04735898,0.05910182,-0.0010202229,-0.053081885,-0.01537469,-0.01938369,0.11621993,-0.1030685,-0.043491498,-0.023947254,-0.011187464,-0.1627781,0.1451887,0.048689853,0.06943844,0.012239695,0.03894849,0.003333339,-0.07526493,0.07330517,-0.078924,0.041193318,0.02586791,-0.046175927,0.028087042,-0.040443704,-0.08375637,-0.04115659,0.03141065,0.03246361,-0.070176385,0.05212935,0.048995376,-0.02715303,0.07930781,0.10327836,0.12612964,0.085458934,-0.0794942,-0.13228518,0.016517783,-0.054591835,-0.21041271,-0.14884998,0.0023619086,0.04113616,0.024000965,-0.14420144,-0.0898135,0.051764667,0.032809377,0.062475942,0.037758976,0.06467824,0.13648802,-0.03908035,-0.16833228,-0.09212464,-0.13462548,0.00013985671,0.2298043,-0.08165805,-0.03891191,0.02642963,-0.0018785074,0.10958654,0.059230596,-0.0925329,0.04539463,-0.118654415,-0.12672879,0.00424549,-0.07550628,-0.018163396,-0.06271862,0.050331894,0.084647045,-0.14871757,0.10944937,-0.065774396,-0.11659694,0.090562575,-0.1318974,-0.009895645,-0.20382941,-0.15368748,0.0003402382,0.11313028,0.030466106,0.014480323,0.041376695,0.050009876,0.03713184,-0.01363479,0.12184584,0.10051517,0.043394398,0.2235784,-0.05555114,-0.107473165,-0.022590883,-0.06298724,0.24767709,0.06933048,0.015038669,-0.02580889,0.051989302,-0.07847555,-0.031211123,0.2334222,-0.05693057,-0.055507377,0.039467677,-0.07790383,0.030746847,-0.028366819,0.14558107,-0.0024505397,0.009574741,0.15261145,0.13782582,0.15054727,-0.02083239,0.18031871,-0.11232817,0.22042191,0.0080638155,-0.055475533,-0.11786596,-0.10866028,-0.08920492,-0.016807973,-0.040078685,-0.045573905,-0.096496165,-0.09227328,0.15111901,0.040670276,-0.057225317,-0.10502721,0.011473179,0.045476377,0.043940693,0.036649533,-0.14002994,0.084111504,-0.0068881363,0.026457684,-0.08145357,0.04407686,-0.030148387,0.027227283,-0.009337916,-0.123247184,0.04011008,0.0052961707,-0.09035152,0.22909191,0.059558503,-0.04880333,0.027748078,-0.24423417,-0.11654788,0.058777124,0.13865823,0.14010903,0.08097643,-0.13263173,-0.047378883,-0.059547644,-0.058697887,0.06863165,-0.11469484,0.050922714,0.081847444,0.18578023,-0.030197777,0.16070622,0.013947435,-0.0746706,-0.055566423,0.04331197,-0.04455308,-0.13587312,0.03472225,-0.02226957,0.1304762,0.0518466,-0.12705944,0.05320102,-0.07632702,0.031655118,-0.003954768,0.04570231,0.0752781,0.14038941,-0.0722197,0.14995714,0.12568994,0.06684798,-0.12396427,0.010463029,-0.042132255,0.044069707,0.07549535,-0.12879616,0.007482752,-0.036728542,0.05085923,-0.0012844205,-0.22830585,-0.20158365,0.08850089,0.018556707,0.008308232,0.07688685,-0.13074556,0.1876865,-0.047483407,-0.071361326,-0.1608298,0.024799682,0.035277467,-0.20854126,-0.08004273,0.016119987,0.17498979,0.078189135,-0.11123625,-0.11829114,0.0144480765,0.022256896,-0.093516566,0.07660462,0.041901834,-0.0037213266,-0.05684693,-0.0017810166,0.14706156,-0.25590196,-0.08518359,0.03136769,0.044968005,-0.1126356,-0.12110296,-0.06964235,-0.030227914,0.01185815,0.11698064,-0.10586859,-0.016288683,-0.0026414022,-0.07040244,-0.08588454,-0.057082072,-0.016655207,-0.1631908,-0.04983011,-0.10453323,0.08900505,0.14813054,-0.06378433,-0.022050694,-0.23758899,-0.13924658,-0.103069216,-0.028183743,0.122055255,-0.13771302,0.26038417,-0.10798459,-0.16541205,0.116610125,0.057855334,-0.06723203,-0.12752494,0.15692912,0.02822794,0.091992974,0.046704307,-0.0621012,0.07377968,-0.040798277,-0.04372658,-0.07843616,0.076502934,0.078833826,0.0010549128,0.009052139,0.06588784,-0.0009071175,-0.085824385,0.10043538,0.09826418,-0.028683148,-0.033335924,-0.19112055,-0.111995555,0.07156224,-0.07306497,0.0626463,0.029411688,0.15767376,-0.0005030632,-0.010169923,-0.048425984,0.07845933,0.109958544,-0.16725476,0.1787532,0.03693071,-0.12634958,0.051034182,0.26422256,0.025299866,-0.029009126,0.050966635,0.06551163,-0.11061129,-0.0019673165,-0.009593159,-0.17323627,-0.02964928,0.019704178,0.07532457,0.09983705,0.032092333,-0.015526533,-0.07087053,0.076419234,0.065443695,-0.1499523,0.10557403,0.13005662,-0.14749257,0.07865988,-0.06544961,-0.032531127,0.24418098,0.08476798,0.02202712,-0.02780044,0.11304115,0.04870012,0.045153603,-0.08643732,0.022598289,0.10394794,0.0634588,-0.053059727,0.19427761,0.066793576,0.07435474,0.18358535,0.00014179945,-0.119686574,0.026558504,0.13217038,-0.10163377,-0.13665938,-0.0095005445,-0.013685644,0.16573508,0.026099555,0.11481642,0.17600721,0.13634852,-0.09666765,0.043767825,0.19348456,0.033118635,0.007798463,-0.123415455,-0.090478964,-0.106447175,-0.16211793,-0.18831213,-0.021848984,-0.05711977,-0.042414665,0.07310037,-0.004418345,0.047612388,-0.08234045,0.009580426,-0.10457459,-0.11880427,0.08794147,-0.024659703,0.00069143623,0.022159845,-0.051907957,0.048594862,0.18208359,-0.11144104,-0.05036913,-0.17209843,0.052621633,0.013402529,0.013251692,-0.028423727,-0.16611439,-0.045431927,0.0969437,0.009430677,-0.10917036,-0.06063506,0.07161996,-0.08410025,-0.15936744,0.096329354,0.027327895,-0.07434595,0.072669,0.14401232,0.13088319,0.1325124,0.017416134,0.11501964,-0.039227992,0.03013666,0.106582075,-0.041045316,-0.033455763,0.1676253,-0.021769788,-0.3369965,0.04165927,0.07002902,0.058839515,0.0034706965,-0.012111358,0.02224221,-0.030192228,0.034015283,-0.05351405,0.16268522,0.029713184,-0.12899473,0.13001923,0.018756136,0.025092069,0.017628014,0.09278315,0.2216141,0.039288435,-0.10051011,0.043258622,-0.014820948,-0.10154232,-0.089792125,0.0041242205,0.0028696656,-0.03552625,-0.2176186,0.06435818,0.0051770955,-0.01385729,0.0652598,-0.017736515,-0.0031508207,-0.1021717,0.19644113,-0.0325395,-0.0029058903,0.08848038,-0.022224158,0.13794315,0.0032978803,0.1785205,-0.06399982,0.014779836,0.02759011,-0.10998571,-0.008815572,-0.08099905,0.09830966,0.043523863,-0.034177527,-0.24234997,0.004203543,0.031765178,0.07217297,-0.043374367,0.21244863,-0.1296289,0.03001952,-0.1132507,-0.036336437,-0.02404131,-0.027426988,-0.10143728,-0.24790324,0.11690742,0.113247655,0.15335321,-0.033146184,-0.1885519,-0.16019876,0.1376985,0.011568531,-0.106887214,-0.027252011,0.023777707,-0.29684198,0.050866574,-0.09469933,0.0075130165,0.0060512275,-0.052768975,0.108657375,0.19486408,-0.2506511,-0.38479584,-0.023863256,-0.028574053,-0.097296566,0.12748721,-0.068601474,0.06985213,-0.028602235,0.07502579,-0.06041348,-0.16987155,0.11414672,0.00446216,0.16561483,-0.055422686,0.06251097,0.025732543,-0.031531222,0.12972507,0.13713086,-0.0075831283,-0.023615763,-0.044109926,-0.034700245,0.31265306,0.08589885,0.1306088,-0.09593491,0.11282612,-0.07055864,-0.042461168,0.032207616,-0.042718124,-0.023506325,0.019414421,-0.0051777465,0.033322543,0.003064096,-0.030726612,0.011168511,-0.06450203,0.2888448,0.09868859,0.08775367,-0.030465364,-0.02426977,0.0055627227,-0.037337683,-0.042337514,-0.0885729,0.009514861,0.22269377,0.013323799,-0.060385004,0.111020684,-0.11261728,-0.045719862,-0.1131928,-0.05219733,0.04040496,0.014105609,-0.0024058968,0.0062225685,0.0054107606,0.0134078935,0.007566195,0.122225285,0.17386338,0.015417263,0.0066068172,0.008482005,0.023422524,0.09835939,0.03792505,0.08500588,-0.07067913,0.028071746,0.06843242,-0.007184945,-0.000477463,0.049391013,-0.056661934,0.010157675,0.0007903278,-0.038459256,0.09906477,0.0073322468,0.0042182505,-0.030210182,0.030360132,-0.0653047,-0.0045241266,0.051548492,0.037370026,-0.08881634,0.078994885,-0.03790188,0.10211113,0.20387301,0.02947465,0.06380099,-0.09344664,-0.0074239597,-0.20626968,0.008093562,0.10574067,0.1093996,-0.06983216,-0.020554416,-0.10040162,-0.034020185,0.14053324,-0.028943714,0.22888707,0.061241813,-0.004650891,-0.0063614547,-0.04263729,-0.05137306,-0.018061936,0.12138416,0.040791966,-0.02359569,0.05788736,0.02083458,0.0040143803,0.07074633,0.07202969,-0.18310258,-0.03336548,0.38157383,-0.23705208,0.047437347,-0.031874496,-0.019223273,0.030695487,-0.049063127,-0.059187233,0.1337066,-0.05995664,-0.0656053,0.059642814,-0.04872695,-0.13601181,-0.20199184,0.0036314093,-0.024792,-0.031166762,0.07093331,0.0265446,-0.05472035,-0.013606742,0.015480757,-0.08406252,0.03362313,-0.067468196,0.0018691123,-0.036658484,-0.0096061975,0.08691387,-0.2416028,-0.03174883,-0.07005199,0.046490565,0.037809134,-0.21293673,-0.022720516,-0.023743168,0.13765098,0.027457014,0.006574032,-0.04787156,-0.018615529,-0.09750632,0.08471521,-0.041604027,-0.013205804,0.020041414,-0.023231251,0.14916287,-0.056425318,0.15213782,-0.024044186,-0.061711233,-0.03249398,-0.009028986,-0.004745948,0.04406455,-0.06694803,-0.019767053,0.048829228,-0.2413487,-0.07314224,0.06747872,-0.05478003,0.055046465,-0.14604285,-0.040000334,0.095375046,-0.0473772,0.05320458,0.023178183,-0.0803909,0.18017846,0.033070445,-0.0016555013,0.123890005,0.06040208,-0.07127513,-0.041306973,0.0006981045,-0.029796354,0.18275052,-0.088318065,0.05190548,0.053923756,-0.14702514,-0.19339167,0.019571647,-0.12103601,-0.03324966,0.12686959,-0.43044853,-0.044092625,-0.023250103,-0.19871207,-0.008781403,0.05986467,-0.060968272,0.14320536,-0.09400121,0.018622398,0.024062935,-0.03636122,0.01686512,0.064216025,0.06652405,-0.033506732,-0.041431934,-0.05565979,0.06050983,-0.005518496,-0.09089707,0.00602486,0.0053302944,0.0044928044,0.010508242,-0.068473,-0.039514855,-0.0017233249,0.0820868,0.096684486,0.064583555,0.076208115,-0.012754314,-0.019585038,0.020614177,-0.06935889,-0.16390064,0.057920158,-0.05005929,-0.05485922,0.0366548,-0.020280682,0.14010085,0.1789717,-0.03789723,0.021414563,0.0006126985,-0.13555168,0.09964259,0.2750431,0.012385752,-0.0126006305,0.19968146,-0.4955115,-0.2821792,0.18421438,-0.025066212,0.066499166,-0.063462876,-0.10621708,0.051903516,-0.043056957,0.023202479,0.15481645,-0.010417104,0.022792585,0.15506887,-0.07254665,-0.121406145,-0.13056988,-0.02538687,-0.13249007,-0.32347527,-0.07094108,0.06743158,0.015065372,-0.011493668,0.0648998,-0.061834678,0.030385822,-0.06660873,-0.029276434,0.11434066,0.12264651,0.06448916,0.047810152,-0.03949271,0.04192546,0.031207073,-0.05939451,-0.05064052,0.024232544,-0.037525058,0.047831062,-0.005899694,-0.028379321,-0.01962655,-0.03835228,0.06339971,0.0071299747,0.10552887,-0.06969291,-0.16690059,0.1262614,0.050271243,-0.051946744,0.019294135,0.02100759,-0.04262054,0.08743061,0.12754524,-0.036823362,-0.035072833,0.109015204,-0.04036054,0.09702194,0.028479706,-0.0056769773,0.020876594,0.020501256,-0.033001427,-0.0044201612,0.008501679,0.054832265,-0.06343393,0.038937032,-0.07900418,0.056872427,0.019105889,-0.039108172,-0.10396146,0.09388799,0.006182853,-0.19688824,0.0897536,-0.05074115,0.028200902,-0.08217564,-0.09703576,0.13463804,-0.04833823,-0.0058458447,-0.05903522,0.01820306,0.04949251,-0.06433843,0.10263054,-0.024254262,0.055126384,-0.052380487,-0.16296576,-0.07346935,0.4577188,-0.07509686,0.1441181,-0.07258737,0.0266199,0.01936751,0.0427541,-0.13156521,-0.012697969,-0.1386281,-0.08257388,-0.10459708,0.04847601,0.061750032,0.009816089,-0.016473323,0.05060327,-0.22983497,-0.020874934,0.095083944,0.025325865,-0.04547972,-0.049268834,-0.022874907,-0.01995799,-0.018176526,-0.003935829,-0.0016513616,0.07751861,0.07113467,0.079758644,-0.077756345,0.016658872,0.085899144,0.036604226,-0.030326217,0.08898596,0.08796804,0.018645406,0.056526035,-0.024664283,-0.054114446,0.031777546,-0.017023161,0.07594846,0.0781987,-0.02388078,-0.0078036934,-0.021663222,-0.0049381815,0.000259161,0.015548602,-0.055782616,0.16046564,-0.022996232,-0.05347824,0.002736047,0.07068479,0.09772852,0.10538326,-0.10621522,-0.15180899,0.031609304,-0.066398636,-0.0365313,-0.06137258,-0.015639532,-0.0411323,0.02035784,0.006098345,-0.16425563,-0.019829407,-0.14264636,0.0032213703,0.0540429,-0.04449919,-0.058747225,-0.07787436,-0.06938086,0.02895522,-0.10499004,0.013414394,-0.0064249523,-0.03396681,0.010370374,-0.0046217833,0.009513825,0.11585664,0.08726218,-0.06461848,-0.023972757,0.09535916,0.0640275,0.003964156,-0.05889979,0.15778124,0.07366161,-0.06849654,-0.045281827,-0.0475602,0.11645831,0.04854384,0.080289006,-0.014370628,0.21446505,-0.06212102,-0.0077376217,-0.07866182,-0.052799664,-0.1016604,0.004329607,0.027647972,-0.014792234,-0.12864806,0.05899623,-0.036055353,-0.14936519,0.18073095,0.07631165,0.11903855,0.10046403,-0.024413005,0.10031812,0.03509253,0.046317674,-0.044436805,-0.14565444,0.018731236,0.009883992,0.16319779,-0.18246302,-0.009855539,-0.064348474,0.16018331,-0.005427249,-0.007069677,0.042047694,-0.0042394847,0.07355416,0.07040276,0.038851,-0.11675806,0.108611465,-0.03548853,-0.06470276,-0.013049483,-0.0065916628,-0.05425249,0.07486963,-0.06517382,-0.023221165,-0.047321737,0.03232764,0.06593843,-0.019255586,-0.03738583,0.11659812,0.05424995,-0.027401276,0.087394595,-0.046157062,0.04887011,-0.15181997,-0.09138204,-0.08338037,-0.025370046,-0.14756379,0.06214635,0.08762854,0.013055235,-0.019570485,-0.14315811,0.043998823,0.028538637,-0.12933254,-0.0291664,-0.14320825,0.06790821,-0.02279932,-0.05027937,0.004540574,-0.04230872,-0.048377022,-0.111298546,0.022454383,0.021131724,0.021861903,0.25099775,0.14602032,0.05344409,0.030970462,-0.17128235,-0.0064177485,0.120273665,0.2570363,0.07713345,-0.15743287,-0.13540569,0.074860774,0.023350477,0.007835686,-0.01919873,-0.017488085,0.15900894,-0.07215911,0.01611349,0.08689072,0.18783359,-0.083171666,0.0046995636,-0.08347132,0.038098942,0.0021460466,0.007385507,-0.033763368,-0.0552357,0.114576,0.105116874,-0.058501452,0.102000654,-0.039633468,0.027367398,-0.08538419,-0.0050295247,0.038219973,-0.1418194,-0.04966551,0.06672822,-0.0017698407,0.1764383,-0.042265404,-0.124240026,-0.018967628,0.09734688,-0.0022759438,0.09222301,-0.021284565,0.03175716,-0.02883524,0.06991981,0.009592637,0.090900965,0.061029926,0.029388875,0.034163296,-0.27003273,0.030885475,0.027972251,0.027410887,-0.027018785,-0.11534346,0.08701233,-0.019877356,0.011383235,0.017991424,-0.03129443,-0.033524185,-0.02291559,-0.0043132827,-0.108732365,-0.037562996,-0.008852116,0.06281708,0.07879093,0.060307756,-0.022979885,0.0077127367,0.095763355,-0.044279058,-0.05657365,-0.0058787167,0.055718377,0.0538788,0.014533654,0.050936818,0.13628975,0.010198653,0.03473186,0.003615722,0.020480722,0.093023986,-0.0314956,0.04262723,-0.080933064,0.13331592,0.048051298,-0.031564664,0.06085804,0.06530724,-0.003158033,-0.05386825,0.03287877,-0.09612919,0.051128,0.03752075,0.12881458,-0.027770266,-0.026060626,-0.071726345,-0.03292875,-0.15239389,2.6270747e-05,0.054340005,-0.0052543283,0.045134462,-0.04390826,-0.032234207,0.08230731,0.04636097,0.06208714,0.08306903,0.0004768446,0.09873921,0.023220688,0.0881965,0.031033188,0.04639027,0.059001654,-0.03339371,0.08657332,0.008154973,-0.024022937,0.116299674,0.004892796,-0.023165897,0.028106064,-0.09381432,0.10026215,-0.06199892,-0.03474559,0.044810325,-0.16046575,0.18515955,-0.20259103,0.08240898,0.038630407,-0.022552412,0.20076495,-0.01925993,0.024819326,-0.081572324,0.028125733,-0.017044157,0.003531754,0.02992703,0.07026263,-0.057872277,0.045411512,-0.15520707,-0.024915047,0.02854219,0.10145621,0.032270163,-0.05931046,-0.1640813,0.10032085,0.07378573,0.07547626,0.045632023,0.03473661,0.114019535,0.035870396,-0.01118809,-0.049801484,-0.010692481,0.14264025,0.0137836635,0.012154046,0.06659628,0.056262445,0.09731278,0.18497589,0.078275904,-0.05792871,0.081864834,-0.024550423,-0.037198365,0.118497185,0.032752067,0.069318205,-0.11921424,-0.03161426,-0.04377174,0.0033124255,-0.028093636,-0.12863794,0.08199577,-0.031580288,0.06905735,-0.06829402,0.01416257,-0.15851131,-0.03657738,0.062603965,0.028821839,0.1183329,-0.07994595,-0.019369416,0.011688009,-0.08276698,-0.15751977,-0.0013138056,0.07289058,0.07481647,0.13086082,0.12907714,0.1031442,0.014001831,-0.05689188,-0.03260511,0.02416814,-0.016695976,0.054597802,-0.07778381,0.004835218,0.04567194,0.027577337,0.13332985,-0.057862327,-0.1699825,0.056192502,0.12213823,0.11776221,0.032312416,0.0024057627,0.056537926,0.063710704,-0.08635381,0.036584944,-0.022502467,-0.1355958,0.033433408,0.054656684,0.117985204,0.08306211,-0.020983845,0.18176603,0.0035614967,0.072119996,0.055411737,-0.0024866462,-0.086049266,-0.02005132,0.078807056,0.014418671,-0.018403023,0.11054368,-0.04536528,-0.040464975,-0.099942364,0.049190454,0.09722413,-0.010202721,0.11762825,-0.070731975,0.0664191,-0.059644613,0.18124235,-0.016201273,-0.05825875,0.0475495,0.017870761,-0.018370531,-0.009204362,0.050032247,0.13168731,-0.043712527,0.035637043,0.0010201596,-0.022823919,0.04453981,-0.007718412,-0.059581354,-0.013608322,0.23086897,-0.17476709,0.027059997,-0.049283147,0.057159703,-0.023458853,0.024508335,0.024751663,0.06741604,-0.09670255,-0.011469532,0.019555897,0.07680588,-0.011407718,-0.08989193,0.0045662,0.045338392,0.1591938,-0.07000983,0.21974166,0.064964704,-0.030398466,0.009874925,0.19716872,-0.054047853,0.029233426,-0.12870093,0.039953697,0.07550928,0.14067777,-0.09718542,0.037477255,-0.03941956,-0.03325566,0.06732188,-0.06785324,-0.021714628,-0.080592275,0.029984877,-0.078452095,0.029077593,-0.1141189,-0.046210527,0.017514035,-0.002125442,0.018837992,-0.043046534,-0.02194655,0.13413033,0.09550284,0.02848826,-0.031047508,0.08253178,-0.088637695,-0.059417516,-0.055452123,0.08370601,-0.10123442,-0.14559935,-0.048268232,-0.08037203,-0.15925953,-0.11119997,0.16276464,-0.027693838,-0.110977516,0.021964442,0.081308305,0.03296155,-0.044256046,0.030122504,0.028090924,-0.012793481,-0.0113055855,-0.027703956,0.072576605,-0.028600035,-0.109479845,-0.062789895,0.026775163,-0.13838619,0.07883071,-0.027457595,-0.10712829,0.038139585,-0.11742155,-0.05329123,-0.0550388,0.035322085,0.02652356,-0.037147164,0.11301786,0.012194978,-0.017225727,0.031016171,-0.121142164,0.05610063,0.05388313,-0.1364828,-0.052419174,-0.018802494,0.07296248,0.08174931,0.18094717,0.035293758,0.11059974,0.041072115,-0.16120766,0.075892806,-0.14010015,-0.19913703,0.1018826,0.016538896,-0.054299757,0.0029776543,-0.14338908,-0.060571317,0.023319185,-0.1912592,-0.08105974,-0.05272147,-0.14849207,0.04788348,0.008439422,-0.013153076,0.028767526,0.07223265,0.019697174,-0.07397218,-0.043201372,-0.06178516,-0.037826806,0.021488082,0.09279402,0.10388672,0.027693927,-0.11743387,-0.014706135,-0.0358695,0.0075614154,0.07168111,-0.0994925,-0.01375173,0.044347942,-0.08467184,-0.08798839,-0.031831898,-0.063931264,0.08054115,0.020751834,-0.08325556,0.11714763,-0.09595373,-0.2420547,-0.08522224,0.028425414,0.038131103,0.011421546,-0.21843992,-0.023110827,0.16822977,0.054730862,0.0027823448,-0.049989365,-0.013223842,-0.1261881,-0.097551726,-0.058728855,-0.1716415,-0.056993913,-0.02466804,-0.114208974,0.04751829,0.001102983,-0.016779482,4.4604763e-05,0.10227954,-0.10815793,-0.03183829,-0.06338659,0.089775786,-0.11496961,-0.029264577,0.048509583,0.16702494,-0.010357872,-0.13010028,-0.013405167,-0.10260598,0.05706516,-0.005506322,-0.15274085,-0.053037856,-0.13422763,-0.022015214,0.08262849,0.10985227,-0.03934571,-0.07357813,0.08987352,-0.019407317,0.06669213,0.02546987,-0.009006154,-0.15962462,0.08294509,0.043731555,0.020233333,0.036872372,-0.025291577,0.08414462,0.0215684,0.027003102,0.15449883,0.075006805,-0.11984795,0.02083206,-0.004673809,0.022122756,-0.05597146,-0.16126098,0.10837857,0.0088814795,0.0787079,0.043688,0.08135062,0.0956836,-0.08098183,0.028292794,-0.07852544,-0.15633397,-0.057018083,0.0011585951,-0.1472364,0.0019805282,0.07593056,0.018287636,-0.02548419,0.032801904,-0.0567938,-0.060382873,0.03164564,-0.01954022,0.2072887,-0.10916428,-0.044098943,0.0106523335,0.03694683,-0.025297735,0.11950407,0.009772118,0.01620026,-0.04340014,0.071020804,0.033914633,0.0203543,-0.06970055,-0.053493977,0.061099518,0.045197234,-0.018170573,0.054544214,-0.0107931085,0.093595594,0.036104985,0.04509908,-0.11912122,0.073873006,-0.028514653,-0.10286172,0.09142524,-0.283157,0.1191591,0.04315238,0.026962563,0.045422435,-0.0867001,0.027194772,-0.048451927,0.022303805,0.10152924,-0.0025988705,0.022616833,-0.11496608,-0.118521824,0.032956533,0.11580757,0.04952289,-0.041983813,0.1383842,0.0025607646,0.03570556,-0.118728615,0.11127188,-0.077790186,0.10992996,0.037444144,-0.06256063,-0.12746647,0.07827851,0.0014851931,-0.04615289,-0.08580983,0.048985623,0.035826817,0.04602921,-0.093911186,0.1506898,0.11835869,0.0012357384,-0.027186986,0.042890556,-0.024359886,-0.008378319,-0.05954504,-0.0038725957,0.008521609,0.038731392,0.00094003975,-0.032734416,0.105373114,-0.11559433,0.038540278,-0.09188654,-0.058298476,0.061218563,-0.04525615,-0.07120587,0.0398937,0.13426405,0.009616822,0.0014467984,-0.02801326,0.12848294,0.12588355,0.039828002,0.08932161,-0.064032614,0.007002397,0.07898566,0.12993924,-0.070885,-0.104763255,-0.03697297,-0.0336563,-0.06451414,0.08012346,-0.08301765,-0.14850785,0.045420308,0.14579046,-0.040858775,-0.031606272,-0.08302981,-0.032031596,0.051539503,-0.023010008,-0.09271607,-0.07953453,-0.075184554,0.014342576,0.014272518,-0.04809258,-0.070750766,0.11080234,0.025936332,0.039048463,-0.12130514,-0.022457346,0.018963888,0.006544858,-0.022513092,0.063509285,0.035575848,0.061244287,0.11324631,-0.08368246,0.0543741,0.063384324,-0.000704892,0.015697777,-0.16304877,0.115962476,-0.10917128,0.03585449,0.043455258,-0.120897844,0.024361284,0.18429102,0.107700795,0.03470839,0.053641796,-0.09988894,-0.0711033,-0.011802867,-0.11144472,-0.12417455,0.06027563,-0.13689479,-0.041855216,0.019151822,0.15138182,0.004772067,0.071854874,-0.042443767,-0.0058300495,-0.03970563,0.058319844,-0.036247745,0.009703487,-0.030615881,-0.19793977,0.06899344,-0.032723278,0.0020387918,-0.06781717,0.037707396,-0.00072413683,-0.035797283,0.08570544,-0.0121350065,-0.036793992,-0.0014005788,-0.025700932,0.046975255,-0.04277528,-0.045159012,-0.08681746,-0.05595927,0.07673184,-0.13508585,0.27460566,0.025608256,-0.025978424,-0.030860975,-0.001780028,-0.01809758,-0.022640824,0.086850934,-0.0129754245,-0.022226304,0.0034016725,0.17376922,-0.12213717,-0.004439652,-0.080465734,0.113583356,-0.039429814,-0.065482095,-0.09462219,-0.06113395,-0.07760307,0.110099725,0.07128847,0.054078892,0.046632927,0.019480467,0.02230406,-0.005619526,-0.07959308,-0.0752067,0.04433416,-0.05137957,0.08688098,0.03721088,-0.13959873,0.042432636,0.05064468,-0.0076033026,-0.12306184,0.15973525,-0.039747536,0.0025067665,-0.093142964,0.0659731,-0.0075445343,0.03769739,-0.014493361,0.09729171,0.018966943,-0.038549453,-0.22333823,0.024910983,0.036973905,0.059958793,-0.031899855,-0.21954234,0.075235486,-0.012042,0.034380205,-0.0049314518,0.083787166,0.0043233857,-0.016680136,0.045082513,-0.090815924,-0.1611871,0.002896607,-0.022436261,0.016664177,0.038210735,-0.017605245,0.017324165,0.22820261,0.053291216,0.050906684,0.04835023,0.0303808,0.07864929,0.032922864,0.07310248,0.012272686,0.028343718,-0.02129595,-0.06970833,-0.0069158673,-0.06589048,0.070702545,0.16932137,-0.045954335,-0.12142862,-0.22946692,-0.059180275,0.06984266,-0.061981812,-0.100382276,0.017784722,-0.12361561,0.06339675,0.014757156,0.060973167,-0.043339424,-0.061103597,-0.09119925,0.023401156,0.005910553,-0.06565414,-0.027707506,-0.0027920231,0.0120295435,0.0018938929,-0.16235368,0.027770348,-0.10578105,0.10544936,-0.034397393,-0.018835515,0.033172533,0.062270325,-0.06785939,-0.21995708,-0.008836448,-0.05694294,-0.16201887,-0.10096996,0.05549425,-0.01533033,0.02817402,-0.08179877,-0.0016433895,-0.12157378,0.07728639,-0.00087832287,-0.03165545,-0.05681675,-0.060942873,-0.116924785,0.09664373,-0.12615213,-0.056656502,-0.089727834,0.0049542785,0.0014683865,-0.009989165,0.055058885,-0.09067845,-0.12634242,0.034682363,0.043411016,-0.15333237,0.035061613,-0.0931708,-0.060308665,-0.08965422,-0.05145517,-0.03374009,0.029912382,-0.008398637,-0.21962145,-0.0622647,-0.06942257,-0.09561598,0.007644424,-0.14508331,-0.013917744,-0.012521841,-0.013114393,-0.15777102,-0.052212536,-0.26373214,0.0024129152,-0.10087478,-0.018155439,-0.1448213,-0.094888076,0.059947778,-0.027667433,-0.04436338,-0.017112345,-0.0732033,-0.0692017,-0.13343981,0.008779012,-0.042179894,-0.20378208,0.08178571,-0.020350575,-0.11685778,-0.16180426,0.036421187,0.13455121,0.014209904,0.08268966,0.007923631,-0.043316588,-0.012907162,-0.13549587,-0.0738889,0.042428665,0.03913059,-0.06955098,0.08215809,0.041467533,0.10896647,-0.0036414266,-0.011731716,-0.020917103,0.01700861,0.21113414,-0.06720434,0.08101199,-0.025595747,0.021656342,-0.06657273,0.034574866,-0.05560617,-0.11962757,0.025516346,0.012548223,-0.041666057,0.033181604,-0.058254935,-0.06612858,-0.20566735,0.040216748,0.019465584,-0.06915328,0.113306426,0.080400646,-0.06935612,-0.12005291,-0.0133500695,0.16007045,0.044231474,0.038454548,0.06514077,-0.02032283,-0.07773746,-0.19867006,-0.13913146,0.025910437,0.013797902,-0.08059081,0.11097268,0.06560384,-0.10743523,0.011235333,-0.1529961,-0.0035185218,-0.078438066,0.1548704,0.04708404,-0.036215067,-0.0010309517,-0.051303178,-0.044271052,0.04127893,-0.043589562,0.044931695,0.019792795,-0.046760656,0.060091555,-0.04494159,0.14422819,-0.08299658,0.014308922,-0.10536167,-0.003351625,0.046396237,-0.04951261,0.016671956,0.13573547,-0.039943054,0.0036546662,0.03211882,0.025228411,0.032690927,0.0017764866,-0.04439038,-0.03569572,0.033889994,-0.07423285,-0.21132965,0.04777877,-0.008368216,-0.08598305,-0.10699212,0.07935212,-0.000488285,-0.01006256,0.18278791,-0.014490694,0.060056213,0.020030525,-0.028737068,-0.07203992,0.012191892,-0.14065665,-0.051226914,-0.024013102,-0.051759966,-0.08369003,-0.21526137,-0.019594073,0.08375728,-0.097936824,-0.17446506,-0.048240945,0.05239024,0.050060093,-0.03953404,-0.045402907,-0.11636632,0.083844006,-0.0065147504,0.079704165,-0.11980955,-0.03938301,-0.058330566,0.05475092,0.0015559122,0.008967914,0.08730878,-0.04743353,-0.10441537,0.24211158,-0.020516083,0.20229495,0.105286896,-0.085479654,-0.085073754,-0.05322954,0.032060415,-0.11105431,-0.2268939,-0.31560212,-0.12395933,0.111302316,-0.0009704232,0.20291573,0.1518037,-0.07122053,0.032612316,0.078968585,0.05983497,-0.004838869,0.16002673,-0.035979055,-0.04111108,0.09382088,-0.011082571,0.009478286,-0.040145166,0.0155671835,-0.15212844,-0.23262264,-0.058184575,-0.0051635206,-0.016012058,-0.063259274,-0.21022432,-0.023368817,-0.0699741,0.16452087,-0.019195497,0.08826928,-0.004224643,-0.017850846,-0.09967125,0.04838299,-0.059647307,0.037547864,-0.016943917,-0.13156632,0.07642783,0.013243794,-0.104759544,-0.10629901,-0.08254948,-0.051307984,-0.08641387,-0.10314288,-0.10956659,-0.12188117,-0.013445802,0.1476745,0.045047637,-0.039359793,-0.013183571,-0.1054234,0.059604138,-0.090705015,-0.1467692,-0.2731493,0.011598483,0.034997337,0.0037819296,-0.029050082,-0.08440117,0.02251643,0.015469983,-0.08964039,-0.057947636,-0.13404879,-0.0014323294,0.033589132,-0.04393378,-0.07454252,0.045087993,-0.012322277,0.05943802,-0.09212911,0.08262303,-0.039269716,-0.07424836,-0.031295896,-0.0037961751,-0.05394798,0.005082503,-0.0477809,-0.12906854,-0.014620498,0.06252714,0.09255086,-0.15599431,0.019300535,0.036348816,0.026873112,0.021098077,0.016887724,-0.017535862,-0.17677286,0.06168102,-0.024058193,-0.012518074,0.00794448,-0.18834002,0.06904626,0.009880096,0.019812016,0.044769004,-0.3336065,0.047138035,-0.065903544,0.059497435,0.085956395,-0.14816105,-0.08004418,0.017645486,-0.16383386,-0.0420179,0.0051439963,-0.019121617,-9.869784e-05,-0.06528866,0.09977529,0.067714736,0.05299511,-0.06256613,-0.10434503,-0.35546088,-0.113579735,-0.010637276,-0.052212685,0.105811305,-0.045057207,-0.13911627,-0.08487519,0.03542404,0.0054862425,-0.010338172,0.09275207,0.120522216,-0.17601062,-0.0024845004,-0.03579337,-0.068165846,-0.17041929,0.05382836,0.12505409,-0.08371774,-0.038394712,-0.113323554,0.166042,-0.016428076,-0.011139542,-0.06960921,0.0802412,0.058612406,-0.040725186,-0.14790949,-0.11907089,0.066649064,0.075400166,0.010931209,0.08228886,-0.0402454,-0.029797502,-0.1944945,0.007031679,0.027993392,-0.056054205,0.02220115,0.070196815,0.054757856,0.22417265,0.021461442,-0.061711565,-0.066023916,-0.052939564,-0.18173593,0.0060305893,0.056030914,-0.051349647,0.029243879,-0.009761825,0.02071309,-0.063440695,0.11830781,-0.028484873,0.03948064,0.06191478,-0.05325649,-0.15309319,0.035881296,0.023373403,-0.04572311,0.0375095,-0.11053626,0.029397398,-0.14987548,-0.05926852,0.09395506,0.04266502,0.17725159,-0.07181812,-0.01665977,0.030827701,-0.20250112,0.028831206,-0.015450031,-0.038831443,0.031028487,-0.018416539,-0.11908484,-0.052328423,0.0042299666,0.042641923,-0.04620461,-0.17631626,-0.09708524,0.02491688,-0.094528794,-0.09710055,0.101043485,0.19285575,-0.008578644,0.008949674,-0.1451255,-0.073711336,0.0826858,-0.11604265,0.055227414,-0.04635868,-0.03382165,0.049029864,0.046450708,0.054086704,0.029305799,-0.10483994,0.19291118,0.09433821,-0.10515684,-0.11161968,0.14103785,0.0064823925,0.077386886,0.18093659,-0.0020728335,0.02650071,-0.021037228,0.06030032,-0.2760706,-0.024087608,0.008298799,-0.21947531,-0.10734451,-0.06624237,-0.048893243,0.07427466,0.17177889,-0.055645324,-0.07565973,-0.060230244,0.18095818,-0.20263986,0.07366593,-0.010531887,0.007656716,0.27866423,0.026223272,0.27292472,-0.07870689,0.100559,0.06991947,0.05433239,0.060275517,0.04305601,-0.029173478,0.003959812,-0.049198635,-0.015225236,-0.01885745,0.048647597,-0.015492089,-0.0029269317,0.17126834,0.110676646,-0.022394575,-0.095408075,0.04335533,-0.05130671,0.033188105,0.025440373,0.028918013,0.06381403,-0.02441483,-0.2327457,0.04752525,-0.0402492,0.09497838,0.0498143,-0.02467832,-0.0972321,0.10482712,0.0093250275,-0.017646357,-0.089955404,-0.06034136,0.13417342,-0.07449436,-0.17566043,0.058874663,-0.016925007,0.08760211,0.14530195,0.0025748312,-0.06731233,-0.07932001,0.1121435,0.05702121,0.1311772,0.0729948,0.078524336,-0.016242303,-0.009900689,0.030735582,0.0017075092,0.04836452,0.08967253,-0.025624799,0.022463232,0.057277575,-0.07442179,0.010833807,-0.059174515,-0.01119514,-0.24425668,0.06569668,-0.013008751,-0.044344187,-0.0030303225,-0.14792785,-0.13775606,0.06193798,-0.111765176,-0.014716066,-0.041016072,-0.09724447,0.02784717,0.2416417,0.041815802,0.008470704,-0.063821286,0.02398102,0.011258051,0.017045945,-0.021399103,0.059704103,-0.046851598,0.057275966,-0.07532335,0.06607664,0.2937758,0.011706859,-0.055512138,0.1043746,-0.030284673,0.019383281,-0.102475956,-0.034583554,-0.035883687,0.041875318,0.150293,-0.03906441,0.036429837,-0.09217229,-0.043710902,-0.38784575,0.13864475,0.115271606,0.17822185,0.030069783,-0.087706126,-0.03471312,-0.083611354,0.023576073,0.10505869,0.027824104,-0.15183884,-0.052283097,0.043018907,0.05594734,-0.007969122,0.02474244,-0.028494127,0.06826675,-0.052277714,0.046295583,0.26162314,-0.031243116,0.052696496,0.15613931,-0.019237444,-0.060767293,0.06925341,0.01779443,-0.07702327,0.016148128,-0.09439045,0.040186584,-0.05863242,0.008593507,0.16557735,0.1104698,-0.025279522,0.019232199,-0.0079230815,0.032565027,0.121274725,0.090957016,0.008948341,-0.010627776,0.06180916,0.02783627,0.037501007,0.36397153,-0.14371106,-0.01015595,0.09368354,0.014465734,0.014715083,0.13382576,0.016876653,0.053985372,0.05721461,0.20989943,0.01835265,0.20165193,-0.13208723,0.2891633,-0.14018503,-0.032626282,-0.14428434,0.04418069,-0.016349137,0.0025942363,-0.02924205,0.07165872,0.0064660087,0.00086759776,0.04880804,-0.0023612306,0.044187576,0.060685202,0.050009802,0.13977522,-0.0873626,-0.12139013,0.016227439,0.087170035,0.05345773,-0.0007653758,-0.20727539,-0.091124445,-0.027331427,0.07393319,0.060111538,0.0806393,-0.23310262,-0.042894688,-0.18167129,-0.008865468,-0.00860025,-0.051914528,-0.03523296,-0.14883225,0.1151047,-0.10041659,-0.039639603,0.047017332,0.008181334,0.0609985,-0.034631673,0.10772433,-0.1367233,-0.017428637,-0.018101215,-0.13277797,0.036256686,-0.030940678,-0.0018702056,0.10892138,-0.11071405,0.0794431,-0.08359696,-0.009538539,0.09639597,0.056882214,-0.0065855607,-0.05010946,-0.025877714,-0.022710197,-0.16147843,-0.098784804,-0.190752,0.1165154,-0.072504744,0.004305303,0.027686626,-0.03991893,0.044061676,-0.25612277,-0.042698137,-0.039558113,0.08284084,0.014256097,0.025789998,0.1677424,-0.045527488,0.023298502,-0.047303125,0.03803171,0.08878872,-0.19478874,-0.043847963,-0.06256289,-0.057533782,0.012216911,0.0016375184,0.086167,0.09702349,-0.00079021975,0.030778095,-0.06975938,0.059021384,-0.016100943,-0.020519763,0.31220913,-0.09778918,-0.030007549,-0.0024776645,0.14325106,0.14596952,0.104893476,0.031361695,-0.1461278,0.00023639947,0.09027386,-0.07214989,-0.010353897,-0.1276179,0.14299731,-0.025800347,0.2984611,0.07717802,0.05003999,0.031309694,0.059764266,0.08705936,0.0043185055,0.019195117,-0.11627906,0.0076316595,-0.038849354,0.050787374,-0.06280257,-0.03801498,-0.078513846,0.019115567,0.051792353,-0.08248303,0.0737184,-0.01910229,-0.11029519,0.029796988,0.22738943,0.026791215,-0.011907265,0.023132183,-0.1492763,0.009372523,-0.04494226,0.06652615,-0.045369502,-0.14107911,-0.09979193,0.24663366,-0.12967627,0.029408693,-0.073554814,0.020314544,-0.08236273,-0.01781909,0.0074702417,-0.16499946,-0.049994916,-0.17863165,-0.0475522,-0.11218102,0.08666543,0.165755,0.021670468,0.12061684,-0.08925228,0.16207841,0.15553626,0.028934956,-0.120688856,-0.0013297945,0.01959565,-0.14405861,0.013686549,0.048213154,-0.061599985,0.06710648,-0.047023207,0.022432625,0.078471094,0.06400037,-0.17130792,0.05381076,-0.10302,0.120279156,0.10149413,-0.04014837,0.0988107,-0.06627706,0.12754877,0.077231176,-0.019837886,0.013424331,0.060949527,0.028917879,0.1614812,-0.027706437,-0.0123607665,-0.16991824,0.13459583,-0.09133977,0.001151856,0.06709123,-0.003944792,0.08596554,-0.3013483,-0.16998386,0.070373565,0.11961738,0.032072067,-0.08700607,-0.13147683,0.16901857,-0.086814106,0.11526692,0.07902281,-0.018247977,-0.026410617,-0.032500863,-0.047200345,-0.020161733,-0.052726522,-0.03801041,-0.16571517,0.12986761,0.05360836,0.06151271,-0.09757904,-0.1648289,-0.18879539,-0.033064704,0.034608886,0.013267446,0.1462842,0.12478093,0.092052266,-0.0511429,-0.028195662,0.3019703,-0.26041153,-0.16397645,0.06836638,0.05565176,0.20253168,-0.07314323,0.032856524,0.06062837,-0.07158628,0.08140293,-0.084903,0.013573885,0.08470329,0.033264548,0.09257819,-0.08741897,0.042629883,-0.028223604,0.049473993,-0.13810492,0.10784193,0.06313777,0.06746842,0.067786664,0.04755128,-0.08897723,-0.14926647,-0.03651187,-0.12787797,-0.023057386,0.16904962,-0.1840746,-0.030723397,-0.006582223,0.0020598397,-0.05181413,-0.45204198,0.19258541,0.022112608,-0.049941063,0.0004363209,0.03508516,-0.055617243,-0.062322386,-0.16076194,0.14586186,-0.13125211,-0.00049281865,-0.016426533,0.037309684,0.13126422,0.015475363,0.044481352,-0.057585314,-0.09942285,0.1409213,-0.07640953,0.12634917,0.0009395592,-0.0626071,-0.05891613,0.007138014,0.044643447,0.11822081,-0.027495265,0.1393001,-0.075999886,-0.04467255,-0.17068186,-0.06597937,0.020618796,-0.03333455,0.08547904,-0.09819771,-0.101857446,-0.08044161,-0.16068411,0.0011871755,-0.014314003,0.08065519,0.21316473,-0.0806837,0.1326251,-0.04247035,-0.0963812,-0.21885672,0.0054391176,-0.054454595,-0.07623276,0.13696362,-0.12267561,-0.120421015,0.039498657,-0.1475392,0.12330165,0.17368117,-0.0065390673,-0.029290318,0.0688589,0.21431272,-0.09467557,0.03502398,0.070430055,-0.0019967072,0.054949194,0.1366291,-0.049491465,-0.06069669,-0.018340625,-0.0011211857,0.008287447,0.016493056,0.09216682,0.06792013,-0.11070955,0.0011501424,0.08586398,0.05974081,0.06750569,-0.003296271,0.11062183,0.014669932,0.024664015,0.14008513,-0.008477002,0.014039472,-0.07787314,0.0035582632,-0.075161554,-0.16430365,0.040592372,-0.0038555562,-0.10222692,-0.12965806,0.014538899,0.008712813,0.049647786,-0.117316335,0.22192223,0.09378777,-0.2828382,0.09800326,0.08561643,-0.058252648,0.10423365,-0.039504185,-0.011841215,-0.03573425,0.05359155,-0.05245246,-0.06934545,0.009706505,0.074168995,0.015031815,0.046305798,0.04625499,0.032068178,0.20238197,-0.027542174,-0.0020164847,0.068638675,-0.0067552626,-0.08536358,-0.043586705,0.08411468,-0.11492209,-0.020137899,-0.19557583,-0.07308308,0.11591332,0.13718809,0.03342119,-0.05369287,0.01444286,-0.008368269,0.05440803,-0.049516197,0.014030457,0.08044692,-0.062383674,0.19396397,-0.094786905,-0.17450379,0.046179064,0.06466824,0.06275421,0.16049905,0.06303648,0.06334725,0.13664553,0.11414205,0.055716176,-0.09051063,-0.026609829,0.17119998,0.14793685,-0.012745768,-0.021229118,0.034032747,-0.030654537,0.0032472834,0.11492491,0.014440924,0.2153732,-0.08562209,-0.13362253,0.064517245,0.028477252,-0.044541717,-0.18649146,0.04084833,-0.10850112,0.006249642,0.005795367,0.04655081,-0.0038071051,0.047589686,-0.025360761,-0.016984746,0.04092557,