1,480,-0.92378086,-0.013534954,1.1305723,1.0020187,-0.11012438,-1.6016445,-0.88692296,0.38559496,-0.51111203,-1.2527173,-0.9289508,0.4978418,-0.5093098,-0.48635826,-1.3965242,-0.4283159,-0.1355203,-1.258589,-0.9424922,-0.77090406,-2.0040326,0.3098735,0.61099714,-0.2750003,0.3385033,0.9544126,-0.6939048,-0.061204668,-1.0621333,-0.274055,0.5084357,-2.113284,0.681725,0.08463032,-2.9381435,-1.2364784,0.557478,0.2186938,-1.3051429,-1.3076525,0.2968983,-1.611398,0.48052078,0.10043744,0.37899986,0.8445736,-1.147018,0.7558431,-2.0063207,-2.2279348,-1.0147592,-1.0083867,0.75863,-1.9578648,0.58453834,-0.95517534,-0.8300425,0.34582365,-2.7066672,-0.06531863,1.1197366,-0.62899184,-1.8060137,-2.2675712,0.23958838,-1.0179455,-0.98181885,-0.19517826,-0.96634007,-1.7406775,0.8106233,-0.09068126,0.7547565,0.5093164,-1.6761615,-0.012186826,-0.33120817,-2.5165045,-2.2032163,-1.428298,-3.9352107,-1.5766525,-0.67051417,-0.55506974,-1.2374666,-1.73997,0.35755727,-0.28088114,-0.3934338,0.33191738,-1.0265445,-0.09666969,0.5812459,-1.2083877,-0.43093207,-0.019300569,-1.6657284,0.73269796,-0.11835602,-0.08711135,0.7323203,-1.4723247,-1.4811951,-0.45070663,-1.3939493,-1.089826,-1.1369798,-0.17245764,-1.8730687,-1.0919181,-0.8158857,0.59669876,-0.22402339,0.6195158,0.7710328,0.054292627,-1.7419667,-0.8008887,-1.3687336,-0.024623292,-1.7507006,-0.45666713,-1.8946339,-0.9869988,-0.08711503,-1.0873196,-1.9939783,-1.4663758,-1.1191685,0.043871064,-1.5566622,-0.60272026,-0.18080953,-1.8374013,0.35760617,-0.6473933,-0.6137161,-0.8028002,-2.5906518,0.5304716,-1.1001271,-0.8579032,-0.62796676,0.3324497,-1.5061024,-2.5409455,-1.6363095,0.34866408,-0.3583845,-0.019996256,-0.37602776,-1.2700089,-1.2595565,0.20474751,-0.4278407,0.62656224,-1.3639393,-1.7272426,-2.622226,-2.2112114,-2.14797,1.1952168,0.18992396,-0.046808075,-1.2673057,0.069594204,0.075688876,-1.2378066,0.599209,-1.0428652,0.43922165,-0.39306003,-0.41183475,0.5795111,0.110905536,0.14213496,-0.9923034,-0.9969574,-2.3860834,-0.16392657,-1.5952892,-1.1873858,-0.51083905,0.28833446,0.25633708,-2.6763763,-0.71695393,-0.87566435,-0.8527579,0.47739476,-1.566346,0.3047994,-2.1841667,-0.53749543,-0.76423115,0.13574556,-2.5156822,0.98684484,-1.2810113,0.32711357,-2.101332,0.6903799,0.4446517,-0.033722725,-1.3101215,-0.057309043,-1.5403018,-0.94943845,-2.289198,-0.65820783,-1.0475581,-1.5550666,0.86980265,-2.8773322,-1.0015321,0.9604614,-1.6594741,-0.022856966,-0.9379847,0.043381277,0.0862491,0.24204941,-3.106614,-1.1794517,-1.0760225,0.49085763,0.6605307,-1.0855454,-0.061749317,-0.06208883,-0.27067944,-1.2686706,-0.4485154,1.1965432,0.25987256,-2.2545528,0.5596456,-1.473663,0.7463803,0.22160314,-2.3470592,-0.047584906,-1.9604175,0.75383735,-1.174618,-0.9425035,0.28381732,-2.8617582,-0.7728453,-1.1166506,-0.11125939,0.32509917,-0.11825234,-0.65699995,-1.8162366,-1.698803,-1.3683939,-0.13169587,0.28553107,-1.0506734,-0.987427,0.7301129,-1.4296118,-2.1446614,-2.1956692,0.014880281,0.22550625,-0.9464093,-0.5950229,-1.0254459,-0.2757812,-1.9204464,-0.93238425,-0.7570286,0.48252797,-0.2755196,-1.566502,-0.5769038,-0.03098858,0.117180295,-2.3194897,-0.9789612,-0.6265809,-1.161869,-3.257577,0.84256744,0.6254338,-0.36761388,-0.7970657,0.9172572,0.7830815,-0.16919073,0.32593283,-0.39764357,-1.9386207,0.5945335,-0.78045815,0.1950435,0.20606744,-0.16566445,0.7552696,-1.5003101,-1.634734,0.48400548,-0.5787476,-1.3919814,-0.53717875,-0.14880906,-1.2749183,-1.1944032,-3.5387533,-1.2097301,-0.7791849,0.35433733,-1.5366353,-0.046133935,-0.6661247,-1.1623095,-1.0124156,-1.4555838,-1.2895281,-0.66260725,-0.053167928,0.099403456,-2.239734,-2.0806603,-0.2358841,0.5498164,-1.8199828,-1.026448,-1.1154696,-1.5301495,-1.9748602,0.41907033,-1.1725423,-2.724416,-2.1287956,0.1614397,-0.7983555,-1.1212783,-0.7286782,-1.2227666,-1.8440585,-1.6839414,1.0784104,0.05958091,0.5249021,-0.20304003,1.2034322,-1.0489972,-0.2269264,0.019483877,-0.21327554,-0.7617186,0.78448796,-2.3615162,-1.7213519,-1.5731311,-2.18088,-2.0491145,-1.5977933,-0.41824847,0.15664333,-1.491235,-0.085595496,-0.811364,0.5127811,-1.3611393,-0.96618724,-0.9161753,-1.1838409,-0.4565585,0.64465094,-0.3161641,-2.1626794,0.19066924,-1.4252887,0.5310563,-0.41140446,-1.1653004,-0.8374289,-1.996869,-1.6567571,-0.5693748,-2.3757143,-1.8481175,0.91940105,-1.0676503,-0.90997654,-2.572663,-0.7273377,0.49646613,-1.0656463,-2.3647296,-2.2343233,-0.29083613,0.30876344,-1.3019903,0.07672086,-0.19009687,-1.1259834,-0.24848211,0.11543381,-0.35498515,-1.7395675,0.53702366,-0.33879718,0.43088663,0.88277006,-1.2359271,0.32280084,0.27825338,-0.7073656,-1.4597973,-1.6752747,-1.2514459,0.43196613,-0.7712705,-1.9769878,-0.6128888,-2.2424085,0.42717698,0.20929039,0.18086362,0.99196446,0.5981607,-1.3723657,0.07583882,-0.7106765,0.14774409,-0.9554459,-2.0182688,0.6039606,-1.6736606,-1.7740176,-0.6169662,-1.2900606,0.44216028,-1.3417778,0.16194011,0.52367765,0.053799912,-2.6142004,0.06510486,-0.3489205,0.82373667,-2.878752,1.298898,-1.4952711,0.5593155,-0.35743862,-1.568498,0.71669847,-1.686945,-2.5088365,-0.92642903,-1.2337945,0.042783547,-0.15712889,0.8204391,-1.3606799,-1.2952493,-1.1473634,-1.6255012,1.3002682,-1.2473339,-0.25176305,0.2589428,-1.7458335,-2.5055623,-1.3359584,0.53660005,-0.6302967,0.6597829,-0.40352523,0.78019315,-1.3479768,-0.47418064,-1.8330886,-1.5731924
