4,40,144,1,1,-0.08056089,0.015680492,-0.08750146,-0.27525932,0.2283192,-0.12843697,0.510746,-0.1413142,0.6198983,-0.16847129,-0.14857903,0.0015450418,0.0645229,-0.11712611,0.0067864656,-0.30688286,-0.19484222,0.05216244,0.27191088,-0.13998254,-0.01141575,-0.0771687,0.08303711,-0.055593543,0.018144995,-0.109748594,0.07506819,-0.5021636,-0.06544167,0.18653823,0.0012213737,0.13513027,0.14715892,-0.3047328,-0.06502123,-0.12611914,-0.16199933,-0.03648813,0.0016020499,0.13527821,0.116482794,-0.2716019,-0.19625494,0.23729475,-0.05019968,0.32833028,0.14810054,-0.3183465,0.114068985,0.055748843,0.043890923,-0.036052093,-0.064018264,-2.0531344,0.062345162,0.040233687,-0.110384166,0.022786021,-0.38772586,-0.09299196,-0.049819976,0.09271722,-0.06713316,-0.05913672,0.036902018,-0.015606229,-0.11109862,0.28265333,-0.008347258,-0.00033833086,0.23010737,-0.18375106,-0.3836012,-0.024008065,0.006680034,0.28078678,0.06396361,0.044521764,-0.07054645,-0.21374226,-0.48528087,0.071003735,0.29589206,0.027481392,0.040652886,-0.36167967,0.07155688,-0.012775302,0.00032866,-0.092808194,0.17962274,-0.03148359,0.055342674,-0.252284,-0.46206445,-0.27299705,0.1323186,0.48476738,0.14785191,0.04322536,-0.06648508,1.663727,0.27022126,-0.12501489,0.019112831,-0.09818968,-0.19700071,0.08114425,-0.019093856,0.41353327,0.20241654,-0.09003405,0.042651523,-0.10202241,0.38042903,-0.33284482,-0.12122804,-0.061178103,-0.7395599,-0.02292122,-0.23442078,-0.122891486,0.09583929,-0.01961261,0.20520158,-0.023541525,0.23701254,0.05365802,0.031192988,-0.31184575,0.020881832,-0.017416522,-0.07488112,0.16663924,0.17432028,0.39215654,0.053306412,0.06294953,-0.010449208,0.25784093,0.30047143,0.015555054,0.30094022,-0.023352854,-0.42403442,-0.23048747,-0.41119203,-0.28224742,0.37334916,-0.05157148,-0.3440656,-0.15386657,-0.41521084,0.13206157,0.054760262,-0.19717303,-0.22976938,-0.19813114,-0.22756347,0.1804758,0.034882426,-0.26366487,0.5123328,0.20098568,-0.40675077,0.16036627,0.60179585,-0.4913965,-0.249632,0.14524087,-0.07148016,0.08856606,0.11604704,0.08317137,0.19026285,0.25258896,-0.39117047,0.006756097,0.2482925,0.12618566,0.00013967417,0.054710656,0.04560864,-0.13759921,-0.15877564,0.03589669,0.045995057,0.12790364,0.06457688,-0.2436445,0.013739318,-0.027329238,-0.056587696,0.1639922,-0.1887142,-0.2952285,0.06010048,0.11747193,-0.04210867,-0.124982566,-0.15197638,-0.05737167,-0.013724588,0.012813389,0.18650982,-0.19106704,0.16321668,0.20523533,-0.033037305,0.036411837,-0.3189664,0.32706746,-0.9143381,0.19716479,-0.02057986,0.15434466,0.057285264,-0.21787435,-0.070386305,-0.06080895,-0.057326645,-0.25725114,-0.023579288,-0.05446352,0.12946947,-0.109769866,0.11266885,0.09573046,-0.22695665,0.076062754,-0.056143157,-0.0037511426,-0.14718461,0.08227372,-0.28793505,-0.117240466,0.028941393,-0.23290347,0.11441078,-0.6978206,0.047412466,0.29178128,-0.15867168,-0.55161357,0.23093481,0.20585167,0.2070435,0.23083656,0.16253033,0.25186053,-0.04822308,0.28139973,-0.5357379,-0.452474,0.3898208,0.029284403,-0.075327456,0.03843981,0.42486155,-0.2480342,0.051158994,0.26551497,-0.23948008,0.16254005,0.041773245,-0.13954525,0.0031108744,-0.09166865,0.4614399,-0.0892331,0.026763707,0.10398446,-0.06653302,0.005791501,-0.24129781,0.06404935,0.16824007,0.21982321,-0.1810588,0.28308284,-0.024245754,0.059986476,-0.11325422,0.017755538,0.37788042,-0.046096116,0.2943518,0.022423506,0.02160662,-0.2664362,-0.00977999,0.14280035,-0.109031215,-0.10646496,-0.049542278,0.3499422,0.35348782,0.27067682,0.14733225,0.052198555,-0.098853104,0.7465439,-0.08918828,0.048237205,0.14697468,-0.20211965,-0.031115338,-0.10788399,-0.10298856,-0.15701854,0.10341131,0.0036952049,-0.2740172,0.086412564,-0.37330195,0.22428852,-0.4056691,-0.13275203,0.077476084,-0.23780642,-0.021960057,0.07006415,-0.14663249,0.19340658,0.0007519722,0.025053881,-0.38742608,0.09578648,0.011566594,0.35197103,0.11453822,-0.80299044,0.7272185,-0.5409885,-0.041949853,0.20895413,0.060600713,-0.13381737,0.0742705,-0.114509344,0.11459193,-0.63186866,-0.08634253,-0.1447123,-0.040038854,-0.020668373,0.034600884,-0.05983466,0.016758446,-0.22371396,0.0023697168,-0.078536145,-0.20566267,0.039047845,0.060563654,-0.1806163,0.21453494,-0.37094367,0.08895171,-0.041938663,0.028983489,-0.27353606,0.21990988,-0.07568963,-0.23289254,-0.23007883,0.97300285,0.48721397,0.2876306,0.14261763,-0.63535875,0.04117194,0.4221932,0.5085524,-0.17393658,0.2013628,0.18320802,-0.30035546,-0.27714425,-0.1568292,-0.0359094,0.07601477,-0.02363944,-0.21332495,-0.04840678,0.18538414,0.049898922,-0.13645428,-0.009081438,0.57761323,0.08020931,-0.19664143,-0.015586689,0.092571884,0.104035296,-0.04980625,-0.027465552,-0.9357004,-0.32997265,-0.0060633197,-0.22226876,-0.17903513,-0.18631424,0.2080056,0.041858464,0.30932218,0.14430894,-0.03617336,0.15981187,0.013156518,0.04508604,-0.66181976,0.3686425,-0.3914616,-0.429299,0.07961704,-0.11531867,0.10707346,-0.043935925,-0.075907014,0.03113927,-0.47085133,-0.08311011,-0.06441103,-0.22561097,0.05137974,-0.119318396,0.03705822,-0.7207872,-0.18742147,-0.012153521,-0.03418787,0.010915697,0.18415634,0.018000454,0.23197702,0.29112694,-0.032938674,-0.13946635,0.040218085,0.08648126,-0.03556424,-0.19624756,-0.2459558,0.08582938,0.062160805,-0.012204871,0.011786941,0.6087203,-0.5433892,-0.013403118,0.023213804,-0.40987858,-0.17817436,-0.05567946,0.11609617,-0.002857834,-0.024936125,-0.39042443,-0.116493076,0.32091177,-0.012540668,-0.2491661,0.006635368,0.033303082,0.038777143,-0.30197817,0.3043613,-0.33182853,-0.26047182,-0.44019726,0.6222741,-0.18285795,0.30310678,-0.19241294,0.1295948,-0.078278154,0.00070890784,0.10755706,0.14815053,-0.042190224,-0.067021854,-0.14025696,-0.34264407,-0.060801744,0.24385692,0.07905445,-0.22736837,-0.07734352,-0.26899537,0.30511522,-0.24021086,-0.092603125,0.09707251,-0.02791864,0.0019406527,-0.20485468,0.08062287,0.042215154,-0.3142423,-0.41573748,-0.10137981,0.023029044,-0.15721051,0.33661038,0.06119737,0.10676047,0.031903505,-0.099236906,-0.0002163127,0.19866845,-0.2353706,0.25984937,0.064157516,0.13209791,-0.15061583,-0.023084253,-0.38709664,0.095023155,-0.24868846,-0.20013554,-0.452155,0.21855769,0.22432639,-0.07320619,-0.33354238,0.34842473,-0.09550293,0.48615506,-0.109303236,-0.17397062,0.14438438,-0.047291756,0.17986327,0.18701878,0.3232513,0.14343628,-0.08204785,0.022736281,-0.4104172,0.042983815,-0.055053234,-0.21350878,-0.35524765,0.031689465,-0.25456062,-0.22830966,-0.021351576,-0.12300957,-0.14426981,0.14611706,-0.120573774,-0.26257807,-0.33829743,-0.36792752,0.24259491,0.21277721,0.65936875,0.06950116,-0.1298231,-0.22476801,-0.39251885,0.1442493,-0.113923304,-0.07529351,-0.5210769,-0.031288907,-0.018951774,-0.52608263,-0.18993467,-0.42499223,0.0489406,-0.011796787,0.05963388,0.2549512,0.21489233,0.15036167,-0.35358906,0.12240632,-0.03962922,-0.76321536,0.06269218,-0.14504874,0.1308261,0.12410463,-0.30735415,-0.039552674,0.07988401,0.009940863,-0.2388026,0.054837525,-0.043965563,-0.41967866,0.15749638,0.09809178,-0.0880054,0.26698142,0.22320744,0.032743424,0.11797492,0.40778616,-0.08091232,0.17443082,-0.10180422,-0.16331424,0.4640898,0.22581713,-0.20027451,0.21644987,-0.14011869,0.29529732,-0.68017274,-0.23954281,0.16107643,0.2760347,0.32570392,0.0719512,0.03375292,-0.12327767,0.33127195,-0.068974316,0.036572218,-0.14973746,-0.18581384,-0.06314647,-0.2725506,0.13500494,-0.69760233,-0.070181824,0.11744138,0.030707644,0.11941868,0.18102622,-0.042428613,-0.19910717,-0.07591901,-0.08292088,0.07347055,-0.051584482,-0.13317062,0.14026488,-0.006581776,-0.15076032,0.06416079,0.43956846,0.08239812,-0.112011656,0.053401772,0.22148101,0.31807205,-0.0024141297,0.028540254,0.069970876,0.2583268,0.5346707,-0.03939569,0.31398934,-0.5574473,0.2008152,-0.047830448,0.067219034,0.29786727,0.039790034,0.09998508,0.041941956,0.27511844,0.13161066,0.07757902,0.038863335,0.35553026,0.1700492,-0.5373599,0.29721084,0.022065401,0.24903211,-0.0071949363,-0.18220007,0.18744583,0.33873647,-0.5949454,0.011737794,-0.12764473,0.105810195,-0.18568602,0.16122136,0.23679683,-0.32427633,-0.023582816,0.034565583,0.16892497,-0.700598,-0.05342898,0.16835904,0.42702737,-0.07564251,0.20772247,0.22853354,-0.20444313,0.18456514,-0.04154344,0.42550382,0.36134386,-0.3412314,-0.037935406,0.1593994,0.09406783,0.08914202,-0.053487547,-0.06254493,0.26676935,-0.3521578,-0.1524121,-0.036087245,-0.032998443,-0.040521458,-0.029886438,0.2876742,0.06503381,-0.007866234,0.001218766,-0.38635936,-0.050685942,-0.39325976,0.110913694,-0.24531035,0.08186563,0.18251677,0.060429603,0.16152915,0.11487794,-0.14952898,-0.038275663,-0.0836669,0.3947373,-0.04636456,-0.06336105,-0.046195798,-0.1089655,0.28263924,0.06509752,-0.037484113,-0.011093631,0.104820095,-0.3317932,-0.058142565,0.10350827,-0.08907294,-0.07631074,0.1619702,0.14533821,-0.035717994,0.22218202,-0.28172937,-0.030156061,-0.026813298,0.3253602,0.40751374,0.29110384,-0.008838952,0.0810351,-0.040155828,0.2331288,0.056767017,-0.4184842,0.043549757,0.04040304,0.29038337,-0.19014415,-0.21496294,-0.10372639,-0.10124552,-0.26482898,0.108937815,0.09805096,-0.13144723,-0.10298825,-0.16006678,0.012436077,0.014792711,0.08198553,0.041809008,-0.07088856,0.13275912,0.08940396,-0.09467015,-0.12665275,0.56610286,-0.9301537,-0.32072762,0.18759432,-0.06396323,-0.07099968,0.04346211,-0.038487714,0.12873945,0.01970919,0.24302445,-0.060378067,-0.22004046,-0.17731613,0.14861009,-0.3858201,-0.024844095,-0.17190817,-0.12243567,0.36666352,-0.052062683,-0.25770265,-0.2610269,-0.043239474,-0.06628993,-0.062598586,-0.06845443,0.1979865,0.0461915,0.3143645,0.39628947,-0.11423525,0.08261481,-0.010690585,0.07109268,0.10204416,0.10501488,-0.030222297,0.059149623,0.03209825,-0.1233764,0.40403086,-0.3413984,0.2241229,0.0034819245,-0.023019463,-0.042027306,-0.0031864233,0.24462865,0.16629137,-0.368706,0.36478752,0.17957404,-0.027542058,0.30324635,0.12278178,0.2775634,-0.12954009,-0.2578851,0.56310344,0.06489197,0.08184765,-0.04212898,-0.08066569,-0.28507596,0.05080521,-0.015181035,0.03624004,-0.06330645,0.2234324,-0.095039785,0.04820402,-0.10745558,-0.08730087,0.0007651448,-0.01733318,-0.49031717,-0.05916931,-0.060255766,0.3330238,-0.03686735,-0.06474823,-0.31463644,0.9735549,0.17692,0.03799394,0.7736601,-0.028965235,0.040777452,0.034485765,0.052071303,0.11221221,-0.023575969,-0.31007802,-0.168504,-0.060874462,0.25763854,-0.16076517,-0.1922829,-0.07569429,0.1310536,-0.019403726,-0.08072227,-0.039574742,-0.05120237,-0.022905141,-0.1967863,0.16115418,-0.041369446,0.3180827,0.0017797742,0.16910183,-0.06963983,-0.19379134,-0.50137544,-0.09579936,-0.07266528,0.19617532,-0.06716731,-0.09238875,-0.053845882,-0.021707289,0.55385226,0.11357905,0.07251912,0.6479221,-0.07457701,-1.0292248,-0.06178336,0.03743112,-0.009860396,0.79404175,-0.08843197,-0.012365967,-0.009774774,0.060667977,-0.1476607,-0.06242752,0.016324028,0.012955632,-0.065689996,-0.014480755,-0.08134356,0.06673067,0.07792111,0.05839342,0.065313414,-0.20358327,-0.2253813,-0.14213333,-0.17297328,-0.07238215,0.09215197,0.316637,-0.0040310323,-0.07369111,0.4458906,-0.20116957,0.17925476,0.2682446,0.10894117,-0.15569527,0.06608701,-0.25088874,-0.09472403,0.16894028,-0.06487684,-0.14527412,-0.03225286,-0.0043027103,0.035023086,-0.21944296,-0.19817103,0.015160173,-0.015223265,-0.27806458,1.1397262,-0.27232584,0.006535277,-0.45874858,0.2790666,-0.22853625,0.059368283,0.02607657,-0.23441806,0.056467842,0.022986203,0.3598371,0.5797707,-0.1530013,-0.02058965,-0.11185949,0.8130581,-0.22750738,0.025815457,-0.4296458,-0.47416463,-0.03978178,-0.17558601,-0.0012037158,0.12751949,-0.47535905,0.08902684,0.016636193,-0.4900888,0.06844815,-0.057085022,-0.2340657,-0.046991944,-0.0036776662,-0.035748884,-0.14713149,0.5875734,0.36018044,0.081086524,-0.007176362,-0.18852782,-0.096991435,0.09876898,-0.0130891055,0.3913762,-0.116796784,0.15803583,-0.37313473,0.13888028,-0.35974342,0.3054958,-0.6702823,0.0041654594,0.40359247,-0.5961065,-0.20027657,-0.13719499,-0.05791828,0.37232345,0.57983756,0.29691684,-0.12695588,0.080338344,-0.14662108,-0.006489642,0.11183667,-0.40682417,-0.011651143,-0.16544789,0.09214267,0.2925937,0.27622485,0.13333003,0.22315192,0.0359039,-0.15602493,0.22448403,0.3529556,0.10085571,0.18633613,0.035801202,-0.36355102,-0.08904814,0.0046178102,-0.101548254,0.09227136,-0.061121523,-0.08066921,0.10692878,0.08615026,0.07531105,0.16796379,0.3215804,-0.011061309,0.0026067197,-0.28555208,-0.17774002,0.22854319,0.30421615,0.31287146,0.17399411,0.41148406,-0.12147969,-0.12825301,-0.6050199,-0.11952123,0.033717424,0.25401303,0.28235874,-0.0011592507,0.266352,0.052820735,-0.07606415,-0.41154638,0.43256393,-0.6873344,0.39647487,-0.2283084,-0.17336708,0.2203919,0.37435976,-0.3241924,-0.35348415,0.18796104,-0.29656905,-0.49399891,0.3115996,0.13843481,-0.5100398,0.0019839145,-0.29884213,-0.5036107,0.16086191,-0.37124017,-0.38297653,-0.18329838,0.05773813,-0.33010003,-0.27829063,-0.0923792,-0.30910033,0.043416023,0.14121726,0.67277175,-0.14741945,-0.052414924,-0.114225425,-0.11988704,-0.48298734,-0.74832743,-0.012305323,0.004087746,0.34259456,-0.09265347,0.06644243,-0.2624113,0.35409692,-0.025194675,0.17017135,-0.033881634,0.48494732,-0.09247528,-0.05649859,0.4738685,-0.3278053,0.14153464,-0.41577303,-0.24206695,0.090990834,-0.18436019,-0.16366026,0.20860368,0.28364262,0.12696704,0.44595152,-0.05351886,0.060195766,-0.094248146,-0.2113594,-0.022655666,-0.07620302,0.030871615,0.18843043,0.070843786,-0.15621792,0.19414833,0.25392184,0.04705438,-0.030299686,-0.28023654,-0.021742657,-0.2142341,0.016877145,0.040752523,-0.016912118,1.2088373,0.43122518,-0.11660443,0.3617115,0.010441482,-0.015010197,-0.0061160624,-0.04659778,0.23125547,-0.028603569,-0.14505242,-0.21876024,0.036734473,-0.09567419,0.002807647,0.13076292,-0.02434209,0.074025154,-0.08552316,-0.096671775,0.058105946,-0.18777508,-0.119181044,-0.2491212,-0.12928464,-0.120474726,0.38227987,0.048122317,0.020644277,-0.0777781,0.12059572,0.17421544,-0.0086127,-0.15693244,-0.04967016,0.10625094,0.11625731,-0.07805672,0.71150315,-0.1817235,0.058847904,0.21703348,0.41025907,-0.19971015,0.8312551,0.010026619,0.36904556,0.050881412,-0.1665741,0.035536632,-0.13242431,-0.000590479,0.019910097,-0.14335655,-0.16164263,-0.11990723,-0.038786083,0.032662988,0.020297535,-0.04976891,0.20949292,0.1151422,0.038078338,-0.31409168,-0.08509338,-0.37118238,-0.091045715,-0.03822165,-0.07174651,-0.08155654,-0.052863635,-0.059955813,-0.036054924,-0.1576656,0.076171964,1.130088,0.23938185,-0.007532656,0.036797054,0.23555534,0.5124519,-0.008258354,0.37263426,-0.10486202,-0.10472038,0.058734335,-0.09858006,0.08339372,0.06439735,-0.03941986,0.05492606,0.19688757,-0.56016207,-0.31084785,-0.030556858,-0.102562994,-0.16883032,-1.7125696,-0.084366575,-0.11652464,-0.14548396,-0.0338099,-0.0048873946,0.10433599,-0.73315346,-0.074243195,-0.17582972,-0.02980508,-0.043456376,-0.044104554,-0.09195096,0.0775008,0.45662704,-0.3695951,-0.045415618,0.44470653,-0.18793344,-0.18687013,0.10015611,0.24271186,0.18602243,0.30590394,-0.13672057,-0.07073937,-0.1888565,0.084980056,-0.14427789,-0.065732144,-0.040354755,-0.09716357,-0.055957913,0.17794222,-0.14679085,-0.12749201,-0.12152596,0.706006,-0.041116297,0.27653325,-0.055073828,-0.030468121,0.016052261,-0.03218098,0.07870029,0.043468624,-0.012334049,0.52768695,0.38702404,0.035175443,-0.23344034,-0.22844166,0.047239766,0.112688035,-0.21678382,0.0010704398,-3.3453107e-06,-0.18801935,-0.13793789,0.12523633,-0.12993294,0.1509921,0.17213826,0.20222624,0.0059560463,0.01317583,-0.21811673,0.030245401,0.031767413,0.019861966,0.08057903,0.24543923,0.017001648,0.05235496,0.10311267,0.22842316,-0.23322049,-0.06788176,-0.43745798,0.09833874,-0.42439258,-0.13803372,-0.15742972,-0.029987646,-0.03789523,-0.05768758,-0.2170404,-0.057253003,0.21276607,0.014459699,-0.35627142,-0.1592063,-0.21387456,-0.15319316,0.12571123,-0.32109115,0.06685689,-0.3729859,0.034287952,0.08942382,0.0072679743,0.08447191,0.111970544,-0.25168303,-0.12131426,0.028546683,0.102975175,0.3177797,-0.8669437,-0.16290368,-0.015320012,0.07958013,0.43418717,-0.09881838,0.08858222,0.28809035,-0.0445006,0.26018685,0.07028782,-0.018879734,0.385414,0.079174414,-0.12887788,-0.010587186,-0.23963057,-0.26797676,0.20293517,-0.1044138,0.09157859,-0.18057105,0.13539085,-0.06804861,-0.33525547,0.083074324,-0.2671798,-0.100427866,0.007881224,-0.22502278,-0.25554955,-0.06807779,-0.2972386,0.0126621425,0.1444762,0.024725854,0.47467598,0.3628416,0.09882751,0.07779733,0.01697898,0.02494222,-0.3981122,0.048322447,-0.010558814,-0.014775872,0.054289967,0.030603841,-0.21568286,-0.000607308,-0.019079559,-0.114456266,0.20379356,-0.06054777,-0.3251264,-0.47543865,0.18893126,-0.16676223,-0.168042,-0.04121883,0.008012982,-0.22175002,0.044628642,-0.08452654,0.03148962,0.09512663,0.10125526,-0.17286554,-0.2611326,0.30428514,-0.006879896,-0.30787393,0.17054953,-0.09194773,0.02274209,0.1942426,-0.059321024,0.08003202,-0.24997193,0.07771507,0.076602235,0.81823194,1.0258288,-0.64961416,-0.21343422,-0.8151504,0.5429706,-0.11713311,0.12507977,0.1989873,-0.1794588,0.10343634,-0.10005762,-0.27213004,0.05323419,0.4080323,0.20664825,0.22690246,-0.078460425,0.3426875,0.004168451,0.17459536,0.23337425,0.23166287,-0.09426847,0.18146297,0.09964753,0.010438949,-0.65633285,0.36875176,0.13353767,-0.10687545,0.23948693,0.12625253,-0.14957544,0.05538343,-0.36091974,0.19789326,-0.64905334,-0.026817232,-0.7241191,0.029003665,0.46806005,0.13540071,0.5624691,0.09996258,-0.047445316,0.1030557,-0.44375464,0.1765285,0.1729968,0.24369326,0.1023943,-0.1026818,0.13799179,0.053389627,-0.062823296,-0.06468323,0.26376113,0.24812235,0.24131526,0.2079714,0.3124489,-0.21322311,-0.034111604,0.1343106,0.078860894,-0.1751876,-0.59941685,-0.073989496,0.0561018,0.024514802,-0.242275,0.21178085,0.18571159,0.3013921,-0.22009207,-0.20406425,-0.18644823,0.42617235,0.030714732,0.8488495,-0.17774798,0.24692687,-0.28268185,0.1201977,-0.055430356,0.114479326,0.047905333,0.1764668,-0.4283321,-0.0393423,-0.2992866,0.22057775,0.20418194,-0.10430974,-0.26087195,0.0006634593,0.0042714626,0.2627618,0.08540222,0.11468093,-0.09978083,0.07375412,-0.13963333,0.13919851,0.13445845,-0.24797943,0.04875727,0.17008793,-0.02175957,-0.39088652,0.049120277,0.23891361,0.40859595,-0.4335683,-0.042371135,0.21556038,-0.23947105,0.28098646,-0.16660967,-0.1523275,0.28310207,-0.005579233,0.00956656,0.11884914,-0.023168296,0.18109754,-0.011308074,0.046199545,0.26595825,-0.43042395,0.5056448,0.23295492,0.081090115,0.123497374,0.041746587,-0.42735684,0.05245495,-0.44594467,-0.016397148,-0.052324343,0.27323928,-0.038224734,-0.22437236,-0.49816784,0.24224102,0.3144694,0.09598019,0.6341742,-0.08998947,-0.028833747,-0.14761978,-0.013587508,-0.15776461,-0.045035727,0.096181005,-0.045741275,-0.12969531,-0.4386558,0.3438185,-0.68997985,0.034965586,-0.102819026,-0.0067682266,0.16361487,0.3028487,0.1428223,0.1913316,-0.40363786,-0.004084058,-0.05309923,0.074762136,-0.08186015,0.07205212,0.014182001,0.11146521,-0.11856882,0.26295123,0.14770244,-0.8693528,-0.15699156,-0.62611246,0.021663144,-0.5703145,-0.48801228,-0.06502935,-0.49522182,-0.34817386,-0.18741715,0.08585852,-0.08613645,0.07795569,0.19853085,-0.3585335,0.10150203,0.0096367225,-0.11741645,-0.10474402,-0.15944853,0.047177657,-0.03212306,-0.0017881095,0.3369014,0.19079645,0.15109116,0.011552393,0.16200739,0.010685593,0.18045568,0.08167884,-0.3646767,-0.836591,0.034261703,0.17166692,-0.124757506,0.2754373,0.0015855432,0.07497409,-0.5473077,-0.0045769513,-0.12147671,-0.036030166,-0.007831514,-0.060590252,0.43449417,-0.08077729,0.07425895,-0.29108173,-0.069999814,0.062094316,-0.12987275,-0.09999952,-0.26087254,0.32859102,0.13420558,0.032327387,0.22124815,-0.3738535,0.06404894,-0.20349593,0.03055975,-0.04550834,0.19722593,0.0053759813,0.12912048,-0.054497093,0.19984338,-0.43084437,-0.10175401,-0.55617476,0.026943207,-0.03407254,0.058674276,0.052065853,-0.14163934,-0.067557275,0.12777773,-0.40391037,0.19163947,0.0858085,-0.224237,-0.20936854,-0.08388285,0.4894028,0.048898846,0.092394024,-0.6903705,-0.07021269,0.08174479,0.0033243448,-0.031164601,0.021952271,-0.14822298,0.2546304,0.13914925,-0.09316352,0.13275683,-0.075845964,0.058852646,-0.2278704,-0.9215271,0.042561304,0.45868486,0.05651085,-0.092248075,-0.49290124,-0.04546398,0.038807824,-0.21374333,0.11723405,0.20247452,-0.44667515,-0.49485338,0.4704391,0.025714986,-0.118351415,0.36860394,0.11501112,0.3549514,0.08863221,0.4315005,0.2962015,-0.27305505,-0.37408695,0.06055171,0.21269962,-0.17086726,-0.21533476,-0.17900065,-0.3330955,-0.14396194,-0.1598389,0.047207247,0.48283756,0.13986923,-0.11333917,-0.14987202,-0.19497414,0.27704734,-0.42455697,0.016789246,0.002312243,-0.101160705,0.21582523,-0.21336679,-0.29763538,0.120653145,-0.30239046,0.301689,0.33774164,0.5835619,-0.2793747,-0.04433672,-0.18214679,-0.22149143,0.4448849,-0.3171393,-0.30849788,-0.124745905,-0.007955909,0.063275546,-0.049131036,0.05955009,0.05807653,0.28689364,-0.090352416,-0.4939845,-0.2195339,-0.16737846,-0.30714846,0.3501784,0.089731656,-0.16595878,-0.30848074,-0.096906565,-0.1579237,-0.0025447607,-0.17576823,0.40939867,-0.1965575,-0.15529346,-0.284692,-0.23669669,-0.31911117,-0.69999284,-0.0135516375,0.56079733,0.024794329,0.5331505,-0.20439464,-0.09675055,0.15653908,-0.089602135,0.12402747,0.011904091,0.24326444,0.048173487,-0.007235175,-0.057148397,-0.14651734,-0.039839134,-0.33919954,-0.17208163,0.034052283,0.17062302,-0.4533796,-0.43955952,-0.1199685,0.023306817,0.28551972,-0.4633052,0.1095677,-0.10778472,-0.17339958,0.14425755,-0.053642,0.04683879,0.21339317,0.0057774633,-0.28448197,0.34417602,0.5201479,0.112509035,0.30751142,0.15408418,-0.030826688,-0.19804633,-0.20648475,-0.4408079,-0.020121,0.3612456,0.108441174,-0.017182142,-0.037673354,-0.21369398,-0.010648698,0.107070886,0.16158241,-0.19373941,0.08119312,-0.5164316,0.024115726,-0.2258757,-0.0595773,-0.2546543,0.087840624,0.15723705,-0.23875195,0.39960304,-0.17686716,0.39278847,-0.2334891,-0.04695414,-0.1941423,-0.042656854,0.3194069,-0.055656254,-0.041337423,-0.18132448,-0.6023028,-0.4317363,-0.19328803,-0.3980114,0.3801718,-0.3207603,0.10607579,-0.05746807,0.07388008,0.039827656,0.19011426,0.119066365,0.3735916,-0.33118322,-0.12316252,-0.30706668,0.11625022,0.014499709,0.44087642,0.35704285,-0.37849787,0.026811987,0.018167362,0.34186596,-0.049168117,-0.030792505,0.08565733,-0.18273294,-0.45150378,-0.21174282,-0.25630713,-0.17844816,-0.0044205785,0.14463842,0.07010433,-0.25736263,-0.14892083,-0.16010357,-0.16262737,-0.17035586,0.3875395,-0.16168909,0.20475703,-0.055195928,-0.06913152,-0.28317994,-0.4514184,0.10211002,-0.25606936,0.08611532,-0.085650906,-0.07592828,0.10900915,-0.20936325,0.077980444,0.081315964,0.18133509,-0.9774709,-0.1652193,-0.04525104,-0.061953343,0.34096897,-0.2898662,-0.08681283,-0.04640149,-0.24219802,-0.2988048,0.23524196,-0.19907957,0.12532744,0.40379843,0.11219999,0.46694914,-0.39164194,-0.11408016,-0.1107319,0.33530396,-0.045644537,-0.15939009,0.2594366,-0.0046863407,-0.21856119,0.0380857,0.34181112,0.15190236,-0.27365595,0.20380042,0.21523349,-0.009202555,0.14588924,-0.038599707,0.03165108,-0.27790174,-0.33202127,0.020378023,0.050572455,0.19209118,0.31821933,0.461867,-0.15002376,-0.31066403,0.055255458,-0.19900414,-0.10623182,-0.10953042,-0.21445002,0.23875518,0.052371487,0.28257325,-0.18339126,-0.3065669,0.26731375,0.07573071,0.10039609,-0.22890995,0.07992767,-0.3231409,0.15521623,-0.47473577,0.44590646,-0.2955842,0.10527405,0.31731775,-0.16452044,0.36574906,0.2109257,-0.38134736,0.02019301,-0.09610375,0.059284642,0.10999384,-0.15077893,0.36132038,-0.093081206,0.30195925,-0.068855785,0.02587217,0.15490724,0.052263528,-0.21946645,-0.7037821,-0.12813999,0.018395305,-0.15373817,-0.02719906,0.21422824,-0.06739843,0.27151918,-0.16191335,-0.49374473,0.0018700585,-0.2077708,-0.13583562,0.24194726,0.056411967,-0.517951,0.013228655,-0.50701684,0.04637921,0.31135207,0.060377896,-0.27227435,0.13386999,0.3907547,0.074831806,-0.25644013,0.08492875,0.121096864,-0.24766636,-0.0039931983,0.35427433,0.1013782,-0.02242904,-0.07942721,0.04865377,0.019217156,0.11282391,-0.10737736,0.25944775,-0.06511398,0.37520313,0.13061933,-0.047612216,0.00073337555,-0.420064,0.012150604,-0.011957929,-0.30179915,0.48924685,-0.08812894,-0.004430026,-0.11049548,-0.09918642,-0.019356728,-0.26110777,-0.08755262,-0.072611436,0.43240505,0.17918518,-0.41217628,-0.09431641,0.39954776,-0.56190383,0.15670167,0.009482771,0.44396168,-0.42795658,0.43166846,0.15239115,-0.2720188,-0.45363235,0.09512079,0.65980756,0.050504208,-0.41488612,0.74447125,0.123375446,0.32665017,-0.63726574,-0.32944033,-0.19741261,-0.045384288,0.16105649,0.026260167,-0.027540699,-0.03714323,-0.090150975,0.4160084,0.17378756,0.078347534,-0.0898259,-0.13849443,0.22740561,-0.06218213,0.035295427,0.06269467,0.03257498,-0.20493653,-0.01691401,0.019230992,-0.21755308,-0.027545258,-0.13716644,-0.23044042,-0.20207125,-0.081454754,0.29187834,-0.3963331,0.38604963,-0.29977477,-0.4317617,-0.20486456,0.26413217,-0.3552898,-0.007814493,-0.026709685,0.02260375,-0.09637549,-0.5824916,-0.05746174,0.037616882,0.5131941,-0.33138183,-0.18072678,-0.05111651,-0.15485413,0.004448913,0.111769885,0.2655218,-0.028490067,-0.047239304,0.26336902,0.2990981,-0.021427214,-0.103762075,-0.1961545,-0.08006815,0.45552573,-0.19581872,0.48359033,0.04821243,0.21319105,0.022969365,0.022604704,0.17276716,-0.36166632,-0.15076858,0.64410275,0.11712476,-0.19618063,-0.0021755993,0.02519458,0.021674782,-0.07358056,-0.17005923,0.2380647,-0.1489764,-0.6419891,0.14160092,0.008473873,0.41025406,-0.214876,-0.34118247,0.17912655,0.029996037,-0.13868636,-0.03487642,-0.15711193,0.20422676,0.13887638,-0.007403806,0.03976021,0.24919555,-0.14083898,-0.046857923,0.22194156,-0.1814565,0.13841213,-0.21089879,-0.07537615,0.08842694,0.009777568,0.4301299,0.16251838,-0.076555565,-0.0044035167,-0.13603969,0.12489233,-0.38592634,-0.3207816,0.12904909,-0.34018946,-0.09331986,0.74382114,0.10222009,0.021077564,0.078421965,-0.0827731,0.10805604,-0.37279692,-0.05779271,0.034137174,0.11715445,-0.28777814,-0.39678672,-0.13482481,0.4070508,-0.08499807,-0.29354355,0.0671891,-0.18298054,-0.12887956,-0.10319066,0.11420764,-0.14520028,0.1679281,-0.08502978,0.14865926,-0.30066672,-0.08595896,0.0012164265,0.042476594,0.05116471,-0.34953645,-0.5641333,-0.06878908,0.24939531,0.08406121,0.5704495,0.11521202,-0.33927342,0.06608593,-0.0090054795,-0.2807873,-0.012453198,-0.097794525,-0.16865867,-0.00888823,0.16780724,0.11325194,0.092808895,-0.16788079,-0.036011882,0.107064426,0.4362836,0.43162274,-0.28415036,0.20382698,0.0577555,0.17785957,0.16172239,0.18061939,0.07904662,0.09668182,0.2445938,0.02318906,-0.035247885,-0.08953574,0.2847733,0.24572581,0.16290587,0.15007898,-0.32276824,-0.114197925,-0.014878683,-0.07294759,0.031733766,0.28941607,0.0995681,-0.083843306,0.0070280544,0.09849956,-0.22826281,-0.14768882,0.026153967,0.108535975,0.05523905,0.23198795,0.17702147,-0.013800204,-0.10324913,-0.2665523,-0.14042655,-0.29159167,-0.1519903,0.63928664,-0.27431533,-0.4148578,0.26760876,0.2993697,0.19376312,-0.07208282,-0.13586529,0.07240316,-0.11426618,-0.0113658905,0.08120355,-0.22775485,-0.10709509,-0.4086798,-0.107626796,0.037799634,-0.12524787,-0.16856489,-0.24595487,-0.18470791,-0.35836634,0.14478965,0.15151465,-0.1605025,-0.12863412,-0.30664903,0.33817887,-0.14011726,0.07122037,-0.24672788,0.25363317,-0.00013017654,-0.059036836,-0.012000812,0.008309305,0.001681827,-0.38439775,0.05590667,0.38459367,0.3313678,0.5666394,-0.4047109,-0.0910198,-0.15537262,0.18666899,0.08048713,0.04311554,-0.37007096,0.0661906,0.24783368,-0.073917374,-0.24081738,-0.09288418,0.037705064,0.20562865,0.011697866,0.48621413,-0.31739515,0.005059354,-0.004622573,-0.43923235,-0.13267186,-0.26885742,0.22242641,-0.17073826,-0.15724464,-0.31172666,-0.3749316,-0.05026011,-0.35815674,0.23460513,0.24191806,-0.121833585,0.12885183,0.38672972,0.040991932,-0.4296831,0.28326786,-0.062207684,0.5602877,-0.43761367,0.33346772,-0.24492377,0.023666501,-0.16176525,-5.665049e-05,-0.09247035,-0.23216265,-0.31244248,-0.36216673,0.18492426,0.07458615,-0.6653048,0.2219553,-0.084313035,0.15283187,0.053550042,0.27223173,-0.15194361,0.016851692,0.06253406,-0.3478004,-0.3956064,-0.31649536,0.3469265,-0.37798026,-0.01295089,0.30430996,-0.12794448,-0.29887098,0.3722005,0.13774389,0.24594207,0.356074,-0.22490394,-0.029648311,-0.001689434,-0.12306383,-0.30593407,0.17815223,-0.0072151944,-0.2754257,-0.090210624,-0.32371545,0.1403588,-0.23363936,0.13614914,-0.1494288,-0.13515216,-0.029949382,0.30687425,0.2866492,-0.07203687,0.07078838,-0.46086723,0.3977035,0.13100952,0.18414024,0.11395389,-0.061213017,-0.23686227,-0.05886221,-0.07298979,-0.25983173,0.018392205,-0.08355833,-0.6037772,-0.44560105,-0.03206618,-0.13641417,-0.13459569,-0.124266535,-0.79618156,-0.056874655,-0.10479301,0.0776646,-0.2662374,-0.048127174,0.30872938,0.30883092,0.230976,-0.16359392,-0.01707074,0.057279736,0.09599489,0.12794265,-0.03175157,-0.079922594,-0.034221053,-0.40685916,0.026332483,-0.084858984,0.11592144,-0.050961778,0.180215,-0.05480382,0.3326975,0.25554162,0.3129874,-0.25102913,0.25478947,-0.24401848,-0.2833431,0.26714432,0.5557743,-0.7552345,0.30484235,-0.025564423,-0.25414768,-0.2627262,-0.007203427,-0.024943963,-0.16232574,0.11826222,-0.19728604,-0.38598675,-0.12520632,0.23518823,-0.027173147,-0.28478765,0.5471921,0.23358575,0.33855653,0.09458155,0.1334464,0.017237622,-0.3522282,-0.10995519,0.40488198,0.3903141,0.22983152,-0.118553996,0.1369462,-1.0351235,-0.1814195,0.16644043,0.00895182,0.09086947,0.026791781,-0.20452428,0.11718305,0.521004,-0.20071797,-0.00930579,-0.03830603,0.120337516,-0.12304909,-0.2827471,0.100878194,-0.1255878,-0.41673666,-0.19798765,0.1833777,0.040612757,-0.056303218,-0.05712436,0.03740196,-0.12575096,0.09636113,0.015665255,-0.08731054,-0.30928886,-0.6527967,-0.20064321,-0.26980373,-0.00046741962,-0.25091296,-0.022954911,-0.06130879,0.31276023,-0.16686794,0.5683459,0.068743154,0.30004027,-0.04479535,-0.04442343,0.21063563,0.012340486,-0.23287517,0.014554039,-0.19282137,0.06798509,-0.34574124,0.07013544,-0.19521362,0.20961589,-0.076203674,-0.11157858,-0.25112173,-0.0016199201,0.017108783,-0.059071146,-0.40357348,0.13711655,-0.26152575,-0.3813979,0.0033795983,0.081608504,0.15251616,-0.21068585,0.45458952,-0.15503535,0.02988866,-0.16654551,-0.15242238,-0.18944845,0.11582447,-0.05228859,0.06174138,0.17926422,0.4409124,0.47139442,0.058011174,0.30896565,-0.090895414,0.09080337,0.15089601,0.1387091,0.19557142,0.3495506,0.43857786,-0.123456985,0.22783214,0.02818691,0.042741552,0.22019963,-0.116846204,0.13222837,0.08090426,0.244192,-0.20845655,-0.05011365,0.2513083,0.26463085,-0.07429623,0.11718291,-0.09724656,-0.05610326,0.14323205,0.13198747,0.13309869,-0.18082474,0.116516426,-0.22774443,0.36342803,-0.35301057,0.1601779,-0.05834336,0.54241943,-0.27527356,-0.1051264,-0.0919254,-0.041474953,-0.3295569,0.12160364,0.04220691,-0.16137122,0.10282975,0.5511967,0.1702237,-0.28288555,0.22929925,-0.28085947,-0.16847357,0.51421887,0.2336244,0.12811671,0.28328025,0.13953437,-0.29410002,0.55316544,-0.34507883,-0.256761,-0.14381565,0.27381694,0.10488865,0.029469103,0.5034421,0.25707677,0.6066712,-0.0099751055,-0.0053150654,0.31168664,-0.14853035,-0.09606379,0.5353393,0.2797929,0.54551125,-0.11182851,0.10061079,-0.6707051,0.016437836,-0.24983591,0.08395991,-0.14968319,0.15733592,0.030455254,0.1542565,0.009779215,-0.0024757087,0.07088557,0.38624185,0.17305502,-0.102385886,-0.11107461,-0.038471866,0.119865365,0.5439493,-0.13386196,0.08883652,0.12676257,-0.13326941,-0.20340231,0.0484911,0.10794736,0.3992204,-0.037352853,-0.07355103,0.26916507,-0.15790118,0.103243954,0.14439291,-0.12340291,0.021108206,0.7330743,-0.15023589,0.00027126074,0.008433431,0.3130601,-0.09343828,0.08578587,0.53279537,-0.021018751,0.024916656,-0.19025962,0.29371446,-0.17838494,0.09992158,-0.48276415,-0.036465086,0.144876,0.06388879,-0.037807673,-0.09408912,0.106685,-0.10863292,0.12810692,-0.1792624,-0.48791227,-0.15798695,-0.023189247,-0.29224437,-0.434178,0.32340723,-0.20301639,0.3027416,-0.04339213,-0.017863572,0.09162956,-0.0012985766,-0.28429964,-0.1219964,-0.072766855,0.26697457,0.037673935,-0.13049625,-0.14425044,-0.24913585,-0.20785943,0.113179475,-0.15486722,0.015319906,-0.22482258,0.29700315,-0.33687064,-0.05374381,-0.40767244,-0.0757456,0.04426089,-0.12955874,-0.3674529,-0.17039111,0.37783852,-0.15393183,0.015646875,0.14839941,-0.13026038,-0.085551284,-0.33697495,-0.17768066,-0.4611897,-0.34550866,-0.1862491,-0.4541029,0.32913962,0.30596665,-0.49412492,-0.017676309,0.17282926,-0.26631036,0.3154869,-0.0026153773,0.06290984,-0.10105302,0.083931565,0.10155778,0.05780065,-0.037467718,-0.03319485,-0.24600682,-0.05351004,0.11009711,-0.035184957,-0.14778745,0.1311537,0.107763946,-0.031354934,0.5454927,-0.19182514,-0.23170795,-0.006341912,-0.08467534,-0.13989389,0.15013324,-0.034498155,-0.29913238,0.082901135,1.2140367,0.019793693,-0.008892328,-0.019477561,-0.14547926,-0.51283765,0.063919485,-0.30640224,0.06887922,-0.074561045,-0.08408621,-0.0074261203,0.19902554,0.14534047,-0.21334234,0.036625117,-0.18213467,0.7966063,0.4542475,-0.12807792,-0.03783977,-0.14335711,-0.73184353,0.4926984,0.027765587,-0.07700738,-0.26530552,0.29028165,-0.050216928,0.5013511,-0.5510086,0.03515339,-0.13232028,-0.1608306,-0.72641087,0.22745973,-0.06155011,0.7944337,-0.22765985,-0.11402601,-0.5074117,0.15741211,0.10029423,0.19766891,-0.03948313,-0.2366316,-0.4324748,0.10660139,-0.044508137,-0.07061244,-0.16540435,0.071256936,0.08726238,0.098989874,-0.335645,0.35460478,-0.15355963,0.17387822,0.16694792,0.46249014,-0.43598002,-0.1156818,0.14962535,-0.120060846,0.24654606,-0.03894253,0.27412695,-0.28337032,0.2686625,0.09151488,-0.085090496,0.2326855,0.16358966,-0.0002847761,-0.60079813,-0.06553069,-0.3095231,-0.12379911,-0.24071783,0.14347798,-0.03587663,0.8505841,0.1162341,0.060687665,0.23198064,0.33196467,-0.3245694,0.25294778,0.26603776,-0.1260899,-0.0699798,-0.12154232,-0.059485212,-0.12925552,0.17501986,-0.048483223,-0.05130607,-0.071715966,0.41085988,0.17566755,-0.08363539,-0.049871586,0.34681743,0.26686957,-0.31017962,-0.2100958,0.032094166,0.030628167,-0.0027926192,-0.7120026,-0.5566062,0.011285812,0.13880101,-0.046733588,-0.20702672,-0.14143729,-0.08102225,-0.119798526,-0.48625106,-0.22106674,-0.20974591,0.13145107,-0.16761953,0.14768781,0.19850153,0.063235,-0.11381592,0.13065988,-0.1475617,0.121008076,-0.25939623,0.25697488,-0.2801801,0.33766353,0.02488907,-0.26811498,-0.17398605,0.3007465,0.042409863,0.0044148564,0.06970614,0.21267813,-0.071658514,0.017263558,-0.1538325,-0.25354543,-0.66599685,-0.25638765,0.16312365,0.18386644,-0.42491877,-0.17556365,-0.1280335,0.32883066,0.4479931,0.04350099,0.18221802,-0.2678105,-0.2194048,0.16692884,0.74959743,-0.0017001033,-0.25799614,0.18882634,0.30154997,-0.09798752,-0.10318899,-0.3478325,-0.24644189,0.27351606,0.016462624,-0.07565782,0.31451717,-0.48702246,0.06248837,-0.018844545,0.053804412,0.08031428,-0.093271,0.28839538,-0.43041733,-0.035900004,-0.4576524,0.2810794,0.06390175,0.08521321,-0.17608334,-0.12398647,-0.36750215,-0.22944978,0.039654393,0.050740674,-0.16211809,-0.07764909,0.08991265,0.18006691,0.14424966,0.1880365,-0.021933645,0.069936566,-0.20136529,-0.0022946,-0.28677386,0.14786626,-0.050632216,0.12911822,0.37332404,0.021607965,0.023387194,0.032291397,0.038056538,-0.18598565,0.17610073,-0.014345929,-0.055435628,0.40709263,-0.05073293,0.20176274,0.017620474,-0.13480563,-0.40609238,0.045249313,-0.40269262,-0.23722452,-0.1410096,-0.2690266,-0.039220277,-0.011705756,0.17351705,-0.27202022,-0.024754345,-0.026606247,-0.02729413,0.09314236,0.40698156,0.17569417,0.1406524,0.27253217,-0.024486601,0.31829277,-0.22373152,-0.03158948,-0.2445564,-0.09555963,-0.071725786,-0.35517454,0.21820736,0.07442248,-0.40079877,0.24673055,-0.2567351,0.20339102,0.05006008,0.17111278,0.04249905,-0.2704159,-0.025770605,-0.23029496,-0.1929346,-0.100134104,-0.011860475,0.007788241,-0.61369437,0.31769663,0.065573126,-0.20768413,-0.23932365,-0.12327701,-0.26350862,-0.17794052,0.121268794,-0.09773767,0.3659552,-0.050344653,0.08727157,-0.023422258,0.20880118,0.6095121,-0.16059396,0.36299276,0.047478557,-0.086740874,-0.24669886,-0.098329425,0.42707792,-0.12524122,0.12154229,-0.2776637,-0.053778023,0.35059628,-0.0733453,-0.40293533,0.32182902,0.113363504,-0.56191176,0.44906366,-0.024157554,-0.18203172,0.0031699538,0.020250365,-0.36557755,-0.41963068,0.063262105,-0.21222004,-0.18498595,0.13602406,0.08133699,-0.18305255,-0.31951076,-0.033283085,-0.012418613,-0.18071966,0.42733583,-0.38015231,0.17946619,0.6469092,-0.056688666,-0.35347903,-0.16691047,-0.08756388,-0.1992332,-0.3149769,-0.3226646,-0.28288966,-0.13736108,-0.07360448,-0.014698893,-0.18436444,0.16001578,-0.40287927,-0.4834125,0.094983816,-0.52422523,-0.020918846,0.08150211,-0.11785254,0.28497663,-0.082335524,-0.36016217,-0.109323114,-0.39902854,-0.06704788,-0.3288564,0.24617867,-0.1798474,-0.061284225,0.017998755,-0.019864716,0.16152275,-0.09453272,0.33908045,-0.18119168,0.035031796,0.04660605,0.036709726,0.028719649,0.20733728,-0.5486796,-0.34139904,-0.0043159425,-0.0896316,-0.17653863,0.057344534,0.08096656,0.07910235,-0.3191948,0.11267334,-0.080679566,-0.22863999,-0.0010957122,0.18611112,0.08833128,0.30804282,0.120947294,-0.18949765,0.027575076,0.06799933,0.16771893,0.21275948,-0.33247608,0.3465347,0.24107763,0.16653404,-0.13368703,0.0851154,-0.40226984,0.0941349,-0.41935655,0.31124175,-0.34070566,0.09805611,-0.06926888,-0.016911626,0.14347684,0.007322237,-0.5023616,0.6848327,0.3737621,0.13165021,-0.4478036,-0.00999701,1.0544518,-0.028661996,-0.24731427,0.113893926,0.1531567,-0.095243275,0.18604454,0.13918297,0.098747924,-0.006842613,0.004006617,0.023192823,0.14116418,0.1226365,0.14474139,0.12194796,0.04387921,0.21209154,-0.011500776,0.018156648,0.04368119,-0.161125,0.22248839,0.08681872,0.034429893,0.09896392,-0.0017365366,0.13400167,0.045112804,0.4720903,-0.22869313,1.0191629,0.039594054,0.37362203,-0.13393535,-0.3232693,-0.29539788,-0.0878329,-0.11919209,-0.113189,0.14788821,0.14813893,0.16490257,0.11433986,0.11335234,0.08305046,-0.020802021,-0.16913326,-0.42310327,-0.7665658,0.19704555,0.09477481,0.030494213,-0.28415528,-0.034892432,0.091944695,0.03203866,-0.051349424,-0.0102292,-0.066852406,0.686675,0.33743078,-0.080459,0.17175923,0.1265036,0.49295455,0.19648358,-0.060075086,-0.15977034,-0.07650462,0.065017626,-0.1005868,0.083358504,-0.22277893,-0.5933885,-0.33475542,0.36342216,-0.9220478,0.026501596,0.14341287,-0.08173993,0.031289607,0.043182783,0.012783855,0.22026585,0.40467203,0.05200547,0.16138338,0.0024528503,0.0027626455,-0.06350878,-0.83958673,0.11067326,0.2837123,0.00050252676,0.08777544,0.34110063,0.118163936,0.32437238,0.06517742,0.03826806,-0.18877126,0.85683286,-0.028824449,0.30342704,0.10557486,0.12805983,-0.24006806,0.42663148,-0.13637537,-0.0091272,-0.20138553,-0.26849988,-0.049519718,-0.020393044,0.056975648,0.06330159,-0.054936655,0.14084338,-0.41155577,-0.24994846,-0.1917401,0.061507966,0.085537,0.4975438,-0.34834808,-0.07196282,-0.25748408,0.036162257,-0.005934328,-0.19619842,0.17550349,0.3189437,-0.11447056,0.35008657,-0.1051642,0.3299007,0.19802286,-0.25515592,-0.6098289,0.5487287,0.24424149,0.45603877,0.05910629,0.20320708,0.039832428,0.09448542,-0.18830374,0.05212851,-0.015985325,-0.31662127,-0.23912641,0.20905204,0.110055,0.22044596,0.12344279,0.1515007,-0.28083032,0.099225596,-0.27019522,-0.002316974,0.1998785,0.11514805,0.12350796,0.16182742,0.3057689,0.22536936,0.16242746,-0.41220692,-0.20767832,0.08908419,0.3502684,-0.47711846,-0.7202703,0.0107647255,0.6265844,-0.2952022,-0.0041372776,-0.06640303,0.39004856,0.13431099,-0.02594552,0.2526808,0.13507295,-0.092567965,-0.3364414,0.0056685805,0.07653776,0.08708597,0.16442746,-0.11584392,-0.08783993,0.8102865,-0.00045065582,0.09699543,0.3105028,0.2071585,0.09419223,-0.50940126,0.17402288,0.17535026,-0.0821605,-0.340902,0.115094766,-0.13423103,0.20958121,-0.04633525,0.16939816,-0.033656757,0.079029046,-0.26212132,0.16938144,-0.5837823,0.22067176,-0.09873539,0.33217353,-0.0128591955,0.026491351,0.37665874,0.13137126,-0.0813178,-0.49986935,-0.11628291,-0.30663684,0.08738816,0.019202802,0.0815393,0.043510884,-0.014679909,0.038607806,0.13411821,0.028619677,-0.15153262,-0.09582546,0.1570233,-0.29985514,0.13422465,-0.4789554,0.06281715,-0.27888975,-0.1446746,-0.26870984,0.001872018,0.052807726,-0.13151102,0.48425028,-0.07860242,0.01751469,-0.37200004,0.28072444,0.062244475,-0.15080178,-0.2115708,-0.12378909,0.07226059,-0.32591805,1.0970418,-0.10976793,0.08043689,-0.32078126,-0.11148876,-0.09690418,-0.33307683,-0.1846966,0.11098421,-0.14790386,-0.07236114,-0.29387534,-0.10731225,-0.17992842,-0.81752974,-0.16291335,-0.037125528,-0.025689304,-0.2572013,-0.3373438,0.021600634,-0.041335538,0.14992353,0.02442348,-0.23239861,0.11693071,0.07855684,-0.08882986,-0.023401886,0.12820466,0.038870722,-0.21325687,-0.20446758,0.08502877,-0.030449925,0.03753814,-0.11469945,-0.07767439,-0.20928271,0.12381358,0.05238584,0.04420398,-0.032087162,-0.16731584,-0.20033753,0.08311339,0.04121855,-0.19044812,-0.10532818,-0.03792851,-0.35873774,0.07535797,-0.03714333,-0.10776689,-0.1991963,0.15273428,-0.2193303,-0.12509553,0.01810117,-0.011346329,-0.26995337,-0.1437527,-0.19219643,-0.060371578,-0.30952144,-0.29554936,0.13672867,-0.03845799,-0.26208076,-0.057017446,0.32511795,0.06377968,-0.15446462,-0.1867287,-0.005572036,0.0136142075,-0.10484408,0.17440131,-0.3229034,-0.2715137,0.076886,-0.12340113,-0.21278457,-0.038806796,-0.1252754,-0.08540216,-0.13724254,-0.12487443,-0.20846364,-0.14805871,-0.12089488,-0.3036808,-0.12289721,0.15449886,-0.08791724,-0.1100575,-0.1147106,0.05257801,-0.031469226,0.33302897,-0.015143685,0.10834853,-0.08615696,-0.28764856,0.1844332,-0.3940314,-0.103226334,0.05456738,-0.18414237,-0.05126822,-0.34477362,-0.008932382,0.063059516,-0.28735453,-0.22186138,0.10888326,0.004569091,0.06306526,0.17232436,0.19327609,-0.32191816,0.16770358,-0.2093018,-0.1181176,-0.05315121,-0.08988051,-0.094797775,-0.4259703,0.23025483,-0.43272558,-0.17437398,0.22218306,0.23131351,-0.19098152,0.09373146,-0.10497696,-0.2363824,0.681773,-0.15036172,0.21677774,-0.14200243,0.15275663,-0.1302244,-0.16802067,-0.15684684,-0.24150169,0.11656645,0.06474501,0.26544827,-0.6284506,-0.20579891,0.23529337,0.20740542,-0.4277335,-0.14879018,0.033259094,0.40598145,0.16161332,-0.24443172,0.0006606281,-0.004887104,0.27030995,-0.5531845,-0.08492166,-0.07517139,-0.12089402,-0.1680154,-0.19106987,-0.39035445,0.072356194,0.008304218,-0.20350477,-0.13539611,-0.0959906,0.06551564,0.2578978,-0.15372193,-0.15737201,-0.32830876,0.16821426,-0.034934435,-0.086964704,-0.30479306,0.7421654,-0.037228256,-0.20570657,-0.016981326,0.1719269,0.20635138,0.13919255,0.2041196,-0.364192,-0.014465154,-0.14344573,-0.22308905,-0.046508987,-0.05033195,0.22743726,-0.09613407,-0.63560665,0.27672684,0.25285965,0.0045146793,-0.21353537,0.24126843,0.040463977,0.19309717,-0.07358928,-0.32903582,-0.15769123,-0.14676586,-0.16939989,-0.10421092,0.03147666,-0.12249498,-0.017119244,0.050688654,0.084185615,0.061690778,0.03111431,-0.24478255,-0.6027327,0.1666972,-0.5754994,0.0027359724,-0.019821316,0.33373934,0.18769455,-0.02730453,-0.05477886,-0.42193377,-0.12766942,0.1577532,-0.23857498,-0.4511013,-0.2611124,0.50258374,-0.5056758,-0.23871197,0.22944987,0.12512681,-0.7446414,0.0785249,0.45227125,-0.4012874,-0.19319615,0.16546874,0.10080826,-0.29327917,0.1047385,0.13579538,-0.45577413,-0.12796672,-0.1732209,0.04401365,-0.26167497,-0.3158617,-0.25060803,-0.0005387962,-0.002705291,0.061161846,-0.11467251,-0.027891845,-0.18988405,-0.041023973,-0.23636028,0.1885629,0.009287521,0.11314426,-0.21773556,0.17311941,-0.062213063,0.45796254,-0.024775743,0.23342526,-0.41304213,-0.33013374,-0.15507078,-0.11863062,-0.3832987,0.15157013,-0.082942605,-0.004998058,0.12928951,-0.20719114,-0.008221022,0.08838034,0.2784498,0.0793774,-0.020001583,-0.17565987,-0.24115948,-0.007633865,-0.27559268,0.059721544,0.38027158,-0.18617329,0.05211942,0.14467062,-0.06789705,-0.16074556,0.019170254,-0.3310962,-0.02687034,0.1906791,0.059275433,0.24721831,0.26861542,-0.04852733,0.13686018,-0.53357875,-0.21066003,-0.6984643,-0.13191171,0.75530845,0.52043056,-0.16609661,-0.21404289,0.288668,0.18977088,-0.019943632,-0.10123022,-0.04100108,-0.18224484,-0.062161118,-0.1914382,-0.0058377343,0.04994994,-0.13824785,0.44138503,-0.08552629,-0.08843976,0.04877162,-0.1729569,-0.11917609,-0.042364314,-0.1344869,0.22529307,0.28169087,-0.032066777,0.031994805,0.30819058,-0.55220264,0.14337888,0.24908601,0.020900816,0.11087405,0.0034795105,0.12115191,0.65936095,-0.12487236,0.74469906,-0.12508342,-0.065522775,-0.16039698,0.5522736,0.031176224,-0.0506474,-0.17399882,0.23003146,0.03450711,0.085410304,0.055812836,-0.056369275,0.42637074,0.24445426,0.23464775,0.12104154,0.40661603,-0.13935687,0.22336668,-0.08175516,0.557964,-0.2582887,0.2750386,-0.075835764,-0.13365492,-0.15234749,0.11085572,-0.09493399,-0.20300592,0.22478622,0.00044614077,0.019745588,-0.0028466582,0.25146157,-0.05266337,0.2692749,-0.8748045,0.52287996,0.046198934,0.100150734,-0.1139802,-0.10942668,-0.28928617,-0.43835092,0.21257186,0.42756942,-0.14195551,0.04914537,0.043045614,-0.1282609,-0.13283369,0.16156149,0.4011311,0.3557372,-0.120025426,-0.22966987,-0.111242644,-0.13867097,0.078826874,0.5716186,0.010252491,-0.52264196,0.10418593,0.14717284,0.11332747,0.16465166,-0.3622185,0.40293974,0.06704286,-0.11198515,-0.25331935,0.24299358,-0.04981801,0.62901896,-0.2590715,-0.22251686,-0.1749679,-0.42378005,0.014157489,0.15413481,0.030967504,-0.33434397,-0.044615857,-0.0047299936,-0.3667441,-0.08684349,0.19602954,0.27356544,0.04027903,0.22769153,0.012477092,-0.10082893,-0.12440006,0.18686163,-0.3358506,0.002196908,0.059201673,-0.1259053,-0.0471751,0.010908157,-0.057631977,-0.09649229,0.099882245,-0.22737211,0.2822233,-0.25961483,-0.019430906,-0.030765787,-0.56598574,-0.6844555,0.118659526,-0.2028392,0.15110737,-0.19147815,0.22894338,-0.04145521,-0.14393443,0.21036994,0.3048406,0.44593048,-0.20684266,-0.1350219,0.036427192,0.25596863,-0.23569854,0.053518698,-0.034037482,0.16795282,0.10568467,0.12211838,-0.54020935,-0.14917672,-0.1972441,0.084056854,0.08795804,0.12775564,0.21375014,-0.17247301,0.048817504,-0.09261736,0.13485743,-0.21457763,-0.22972223,-0.07697742,0.11505822,0.19770962,0.14475168,0.27575123,0.34676245,0.19274856,0.7327264,-0.19820651,-0.33839124,-0.26470917,-0.01216206,-0.017555214,-0.15181729,0.1572949,0.053289503,-0.20570105,-0.13562459,-0.052410543,-0.055129573,-0.04153916,-0.09960145,-0.08434464,0.29690132,0.29807058,0.2678253,0.040392403,-0.23774207,0.1884643,0.09576823,-0.080886655,0.06788981,-0.38649836,-0.45012036,-0.08122125,-0.0497085,0.4444456,-0.251576,-0.15334684,0.016658127,0.28096202,0.021440476,0.029548667,-0.32966438,0.34103858,0.028486617,-0.34738034,0.5246283,0.21097384,-0.24255934,0.07137572,0.24920744,0.063509315,0.07704884,0.25863767,-0.054947816,0.011252165,0.45873183,0.07653563,0.17269377,-0.013023317,-0.2988537,-0.64495,0.13421178,0.11259178,-0.28015593,0.05951619,-0.15089588,0.60170746,0.03576322,-0.30084282,-0.38838804,0.66562814,-0.16091482,-0.14098366,-0.039539337,0.06096185,0.23354732,0.08235563,-0.12970945,-0.366105,0.15857936,-0.35345477,-0.02063264,-0.7936648,0.059419196,-0.3788245,0.20691115,-0.09710817,0.019899867,-0.23687363,-0.17483632,0.33521536,-0.32878166,-0.47067282,-0.22270301,-0.32555223,-0.27843267,0.0026495159,0.56346565,-0.28260916,0.46215484,0.14311342,-0.020130754,-0.08572937,0.26927918,0.13321325,0.013560399,0.12916672,0.090567514,0.34216338,-0.33621144,-0.0449138,-0.5937284,-0.1274341,0.34936044,0.042141497,-0.19427319,-0.18837543,-0.37367806,-0.11605322,0.15274364,0.014058754,0.10081969,-0.029039644,-0.16177225,-0.017724156,0.025665116,-0.26059845,-0.12145585,0.34423152,0.39527065,0.28207898,0.057417385,-0.0016404688,0.020677477,0.18115939,-0.19048199,-0.026597895,0.031351324,-0.020701706,-0.33608773,0.21795386,-0.48207703,-0.08663483,-0.0201464,-0.16423965,-0.34587353,-0.85810167,0.046721727,-0.20872739,-0.12722582,-0.13063073,0.16504097,-0.07978958,-0.17191121,-0.25573176,-0.45203105,0.13872366,-0.3110865,-0.07566358,0.08925108,0.09534008,0.30116495,0.024946064,-0.14294884,-0.10487926,0.18448731,0.010226607,-0.06467132,-0.08012852,-0.6524498,0.08089715,-0.1789901,-0.123953566,-0.24518554,0.0009418726,0.21073483,-0.43154955,-0.49926198,-0.046197467,-0.1520588,0.05885019,-0.06519398,-0.23206964,-0.37922752,0.08086654,-0.41592392,-0.15312086,-0.058288053,0.11912921,-0.14618312,-0.21847433,-0.24693775,-0.0064427853,0.0082332045,-0.17165206,0.26802588,-0.2642345,-0.3730648,0.20041269,-0.17536315,-0.34593904,-0.069249004,0.012929536,0.03507863,-0.30734092,0.0329701,0.03652988,-0.036452834,0.032986194,-0.00421682,0.3222643,1.0968878,0.61787754,-0.059963655,0.18472612,-0.12387828,-0.008569032,-0.1331003,0.1282407,-0.23873502,0.17714693,0.37199622,0.21323246,-0.13419238,-0.2549089,0.20939912,-0.053276554,0.20887133,0.019548029,0.00041615963,0.10512089,0.17072901,0.21072295,0.8719456,0.23871441,0.08653845,0.22694662,-0.15569453,0.0053771734,0.8789947,0.23900786,-0.26151484,-0.19767484,-0.05031627,0.20237581,0.19690447,-0.09181082,0.17373514,0.39058587,0.1681535,0.31592402,0.055818107,0.06390184,0.75374854,-0.14955077,-0.015055835,0.036797173,-0.11335185,0.16524157,-0.668643,-0.034608245,0.19413501,0.07078761,0.0013162792,0.22656837,0.31839252,0.29640642,0.06574695,0.19092596,0.13354586,0.09980221,-0.16746838,-0.021588147,0.23824137,0.068329155,0.12100065,-0.46144268,0.34402907,0.110465586,0.05511163,0.0036039352,0.028626189,-0.08789262,0.07591519,0.048019707,-0.25124833,0.39242864,-0.14411019,0.011745308,0.02291438,-0.3438974,-0.31830058,-0.03810115,-0.12347627,0.09244185,0.25857043,0.06458217,0.11592324,-0.16056755,-0.30829418,0.13991842,0.053535752,-0.14425257,0.6985618,-0.040129762,-0.1264806,0.23841996,0.38375664,-0.55903405,-0.0969952,0.017070875,0.34599715,0.17343913,0.019972585,0.041197628,0.56399137,-0.13432536,0.29395407,0.1938539,0.2509091,-0.32725188,0.29522282,-0.1613291,-0.07016979,0.6907633,0.14578483,-0.27700952,0.34884194,-0.15522976,-0.16152751,-0.3413867,-0.14946808,0.44517243,0.19406812,0.159038,0.46914282,-0.05354747,0.25118372,0.079713516,-0.08698433,-0.2870739,-0.23579833,-0.020198189,0.12857199,0.12802327,-0.65935606,-0.02117762,0.21367863,0.17820719,0.10301584,-0.11977512,-0.30198234,-0.08672558,0.5218066,0.2510499,-0.01657404,-0.17505114,0.68833977,-0.26640564,0.20706303,-0.17913768,0.09086518,-0.18640926,-0.25701886,-0.27363408,-0.3163414,0.27157795,-0.38489655,-0.319216,-0.1679757,-0.18859951,-0.13391446,0.16680253,-0.15013698,0.12717342,0.035748888,-0.29958034,-0.09776917,0.26970097,1.0788425,-0.1747104,0.46958345,-0.1469261,-0.023702204,0.0069217794,-0.9470282,0.22470543,0.24157533,0.040944517,-0.35847938,0.11648645,-0.4498046,-0.06313325,0.017095149,0.27472413,-0.44101417,-0.14113726,0.24906218,-0.14330052,0.052565083,0.087719835,0.4047782,-0.022468477,-0.026224494,0.39012074,-0.52059954,-0.053785816,0.022972066,0.22046305,-0.031546637,-0.061682552,-0.36069107,-0.03403102,-0.17911394,-0.34860146,-0.006501153,-0.228282,-0.006474629,0.24814136,0.9043254,0.1329493,-0.21965179,0.33929002,0.13261257,0.09014827,0.053823292,-0.022068888,0.15518242,-0.017325133,0.16421658,-0.09693572,0.26535308,0.158848,0.13965006,0.18467522,-0.0042264424,0.27932543,-0.008441329,-0.11083986,0.026689276,-0.053126633,0.109427266,-0.12273005,-0.043267354,0.37822428,0.040085137,0.2292978,0.11344215,0.25654057,0.05903002,-0.192854,-0.09485223,-0.07417678,0.14046556,0.23218845,-0.15285209,-0.05961883,-0.097731955,-0.065978855,0.29841238,0.15856753,-0.20000935,-0.35295564,-0.13534817,0.12691507,0.08132234,-0.15874967,0.33794534,0.31570444,0.044101104,0.14654866,-0.022087216,-0.2053339,-0.26866448,0.33673695,-0.11032834,0.19618255,-0.074804366,-0.3356075,-0.15554301,-0.05868929,0.034412235,-0.21123359,0.4046092,0.13106215,-0.26335755,0.16177396,-0.11922269,0.14437902,0.014351606,-0.060255125,-0.25689772,0.001443088,-0.20667355,0.16645299,0.020963073,0.19047117,0.3892597,-0.076159775,-0.55281496,-0.7284784,0.14881703,-0.153579,0.32653537,0.12100489,0.23357931,-0.02286017,0.057912067,0.06308064,0.1830339,0.016322538,-0.15311883,-0.15701948,0.2998321,0.1556397,0.13590787,0.34368834,0.1811161,-0.097078085,0.33602735,-0.004129678,-0.20348787,0.067769684,0.099701226,0.002808094,0.006945431,0.026500612,-0.29098356,0.07958804,-0.09393428,-0.31091234,-0.05224192,-0.0133944675,-0.062285006,0.029354658,0.20066021,0.21454687,0.042158842,-0.23254,0.037262022,0.12631047,-0.345566,-0.016644128,-1.0859113,-0.009298205,0.16307962,0.24791165,-0.86381674,0.05494243,-0.008195162,0.039918065,0.28291848,0.30480874,0.13882509,0.15508902,-0.029956669,0.2504382,0.27848527,-0.023763381,0.28575057,0.3655444,-0.18327542,-0.12668869,0.10518578,0.08214168,0.15332024,0.43770722,-0.04387161,-4.2937696e-05,0.18791303,0.008074142,-0.0019219518,-0.53334665,-0.03500843,0.50115514,0.25529113,-0.0034597516,-0.02884689,0.19291797,0.08576992,-0.046367317,0.20641275,-0.13059475,0.13002113,-0.20442313,0.17090794,0.24400689,-0.16349375,0.49403775,0.60282975,-0.05304939,-1.4104842,0.9393055,-0.5114411,0.25216457,0.75838006,-0.7027038,-0.07134834,0.025587738,0.19110742,0.241256,-0.24604544,0.098392874,0.036507968,-0.09480989,0.10102892,0.093840435,0.14709294,-0.07899168,0.3629362,0.16880877,0.13860057,0.19978054,0.016213112,0.23312984,0.13426389,-0.04713984,0.14864151,-0.28432444,0.072102726,0.068518996,0.07911433,-0.05525087,0.11533627,0.14920095,0.11358142,0.20394094,-0.2881192,0.08440512,0.00015591178,0.37533206,0.07945275,0.0059302673,0.22383143,0.44706962,0.07717157,-0.064062595,0.015729934,0.0537613,-0.009017229,0.11560702,0.6092264,0.06833971,0.65727127,-0.31734854,0.71136105,0.2779771,-0.20950952,-0.038489223,0.27001658,-0.22683518,0.32653722,-0.2214013,-0.15208927,0.20384556,-1.7136335e-07,-0.05606246,0.029154927,-0.54609,-0.02392532,0.056031823,0.01624898,-0.02830322,0.054177463,0.19734009,-0.37465215,0.09500829,-0.23531374,0.070807576,-0.22967763,-0.22288853,-0.24699411,-0.0033738017,0.05280962,0.21683285,0.16779284,0.051944252,-0.1836177,-0.082672924,0.003973171,-0.15864463,0.4059432,-0.19187358,-0.10391051,-0.15360042,0.38174292,0.03666477,0.5745786,-0.031386346,-0.0008802563,-0.04120353,-0.09417589,-0.121825814,0.173702,-0.28882843,0.19252613,0.3490154,-0.025252074,-0.024771996,0.014174253,-0.012867972,0.14388007,0.20527306,0.22400177,0.3317026,0.034894913,0.2292982,-0.1602761,-0.06665619,-0.02001366,0.314798,-0.11244685,-0.36813024,0.09475077,-0.17828734,-0.20224309,0.13341245,-0.3203115,-0.46688375,-0.1431991,-0.89572304,-0.059926473,-0.42285356,-0.32647005,-0.11719885,-0.11598584,0.09977348,-0.16465087,-0.26899618,-0.24155426,0.34187302,0.17697376,0.3615154,-0.19282262,-0.35206237,-0.84411764,-0.59040403,-0.078590654,-0.001091212,0.10191387,0.501434,-0.5856394,-0.13123871,-0.056148827,-0.13135856,0.3785556,0.18572825,0.13260664,-0.06888902,0.0245336,0.05905821,-0.1794143,-0.20937355,0.03413915,-0.16597494,0.055811256,0.17995787,0.033064235,-0.684524,0.09093886,0.07278445,-0.113836996,0.046647303,-0.10885492,0.26959074,0.13595386,0.17695634,-0.034678012,-0.012486603,-0.010114342,0.23632362,0.18765186,0.08346731,0.23059095,-0.22058474,0.14493124,-0.019093473,0.20114377,0.43536642,0.0314236,0.0080424845,-0.06635547,0.004849173,0.5565444,-0.001135461,-0.14373665,0.008417532,-0.25408813,0.2212787,0.48175564,-0.051859744,-0.022270538,0.05562477,0.040963255,-0.2189239,0.15610692,-0.18483135,-0.031362724,-0.21459237,0.18754843,0.33210865,0.034430385,-0.2570494,-0.08586268,0.18163425,0.07923058,-0.21411888,-0.019621998,-0.033397943,-0.058737025,-0.050658017,0.37319276,0.03499236,-0.46459797,0.031389683,-0.17098008,-0.11597349,0.05425158,-0.06376922,0.21415998,-0.06824654,0.0963008,0.11502332,0.009144254,0.015106417,-0.30939823,-0.05737582,0.04297684,-0.22517961,-0.8673453,0.03876944,-0.27672765,0.20757231,-0.6638184,0.0004217252,-0.265987,0.07687217,-0.04283166,-0.07556555,0.051323593,-0.15640332,0.078824304,0.009176135,0.02213349,0.003852412,0.04330325,-0.009789437,-0.021259576,-0.30001318,0.068223685,0.3184058,0.14578171,-0.025784925,-0.13674726,-0.103100926,-0.19992507,-0.0514026,-0.13345967,0.25791365,-0.116200194,0.51597327,0.24863887,-0.23828833,-0.5099951,0.03491633,0.059047893,0.1576772,-0.107714064,0.06423721,-0.35385346,0.27100617,-0.09737644,-0.085710555,0.029031917,0.012060106,0.034276016,-0.16916507,-0.7305865,-0.027901918,-0.26386428,0.24700233,0.077544585,0.0786509,-0.85636073,-1.5377054,-0.059653774,0.26220724,0.084939435,0.06938983,-0.21786083,-0.024406582,0.34368744,-0.0790249,0.033090293,-0.0113640055,-0.1469487,-0.15428525,-0.30447853,-0.14091666,-0.86691,-0.1786499,-0.05760964,-0.26275396,-0.023064405,0.39434475,0.08387025,0.5602716,-0.25284964,0.79272354,0.11032808,-0.07763213,0.07805994,0.08618387,0.11889911,-0.0015511513,0.06132506,0.02404064,0.36117876,-0.08607465,0.11147029,0.19319183,0.10385433,-0.071460694,-0.027995914,0.029149037,0.28097826,-0.1518885,0.02259463,-0.14546762,0.26212466,-0.26519617,-0.10597929,-0.03786221,-0.1697455,-0.3177036,-0.30865437,-0.23391145,-0.04427302,0.08312333,0.26429817,-0.04761421,0.022988603,-0.22418445,0.076247215,-0.016260266,-0.13413288,-0.2560478,-0.23179488,-0.090523556,-0.12096296,0.083216555,-0.06256802,-0.1977603,-0.08698085,0.11153932,0.07360679,-0.2010667,-0.27901828,0.0005925596,0.022621766,-0.17771956,0.025242217,-0.025144503,0.15583429,-0.2744932,-0.3049644,-0.2570471,-0.073278464,-0.17542632,0.25953385,0.025423057,0.37358272,0.03328906,0.43345457,-0.01529938,-0.079107404,-0.16578892,-0.1935077,-0.0818418,-0.05228822,-0.10307398,-0.08505845,-0.35718104,-0.20161147,0.27126783,-0.07234092,0.048920378,-0.086867064,-0.077126965,-0.13834813,-0.047016792,-0.14154063,-0.13334958,0.2518864,0.09239178,-0.31763604,0.12943944,-0.29952306,-0.26414678,0.18193322,0.12331998,0.025605723,-0.0697786,0.13682799,-0.15241347,-0.42466187,0.01768709,0.083394684,0.41397753,0.10471241,-0.52117413,0.20691176,0.008830264,0.391645,0.0228808,-0.34269848,-0.09570705,0.17536883,0.16375273,0.16021162,-0.22502857,-0.46953887,0.32091618,0.13196568,-0.20379983,-0.23100203,-0.07175696,-0.017553672,-0.012124628,-0.21163028,0.35539564,0.05172944,-0.10492951,0.2099615,-0.067584336,0.2037563,-0.064628616,0.25160372,-0.10687706,-0.23479727,-0.23940165,-0.15206784,-0.53129023,-0.165636,0.3725595,-0.13990813,-0.023824796,-0.05988601,-0.579112,-0.019095816,0.11330116,-0.16687615,0.058342025,0.27021325,0.015166841,0.0349864,-0.1421048,-0.0018707812,0.17170414,-0.28010136,-0.080846645,-0.4483075,0.3261774,0.33608016,-0.1195392,0.05983469,-0.16651814,0.0061216056,0.46632987,0.020426068,-0.52491736,-0.03820263,-0.56263655,0.102020286,0.01619353,-0.048462123,0.239533,0.53004014,0.045753576,0.09823552,0.06785013,-0.0154923275,-0.43556434,-0.22128543,-0.3811517,-0.10835799,-0.24472287,-0.20126677,-0.04159052,-0.047910407,-0.15414292,0.03132093,-0.06533503,-0.4548048,-0.025283068,-0.23541087,0.39594468,-0.028925538,0.01508975,-0.4110667,-0.055970788,-0.16203079,-0.27893665,-0.024941996,-0.01472728,0.14545965,-0.10804847,-0.091178596,0.1900714,-0.45145035,-0.02961424,-0.015049845,-0.23203385,-0.30178043,0.24258296,0.5813502,-0.08502515,0.15198906,0.16093226,-0.2238521,0.036090706,0.22144595,-0.32620826,-0.004503846,-0.08474044,0.3261464,0.3189032,-0.11919059,-0.0031439364,0.035846725,-0.03621602,0.17979883,-0.14681849,-0.04174091,0.32938313,-0.22810632,0.11481224,0.0004915148,0.039816402,-0.10630562,0.101899005,-0.1381392,0.23641202,-0.03444892,-0.5604012,-0.09752988,-0.09111884,-0.060896754,0.01346305,0.087728366,-0.12571181,0.45964587,-0.34237286,0.13425046,-0.21182224,0.11944976,-0.03237441,0.10084366,0.19200388,0.07976964,0.48780107,0.40058893,0.1407,-0.094306484,0.2030254,0.29676342,0.44030377,0.23855707,-0.053034697,0.06559152,-0.045981884,-0.02107767,-0.12392855,-0.49133655,-0.35332656,-0.009988117,-0.36331135,-0.2593642,-0.5007489,-0.45805764,-0.11192511,0.3060459,0.07097994,-0.14786825,0.012720153,-0.05596593,0.20256925,-0.033713996,-0.23713662,0.048416913,-0.018457115,-0.04325853,0.007829242,-0.08542016,-0.22070116,-0.08027551,0.31534225,0.19712129,0.12863037,0.17881837,-0.33207873,0.12733692,0.015083304,0.29195303,0.0004926026,-0.53879184,0.41843253,0.31182432,0.067879744,-0.025906958,-0.34485498,0.019355532,-0.11935989,-0.019331258,0.068669155,-0.12063065,0.062256828,0.401724,0.23094006,-1.1776109,1.2869548,-0.1377908,1.0496432,0.120258614,0.14919016,0.28542924,0.075931415,0.013035633,0.07240482,0.021909684,-0.13914785,-0.1815823,-0.11968002,0.22895303,0.08317895,0.07241439,0.42001942,0.096397094,-0.07499029,0.35290772,-0.025489263,-0.46094897,-0.21825874,0.0044241995,0.006612286,-0.14097978,0.19654977,-0.56305724,0.04241822,0.03749025,-0.05463896,0.031292215,-0.02491726,-0.07767323,0.03941968,0.051149428,0.12802547,0.5894553,0.24877292,0.075924754,0.08762282,-0.33962515,0.3038574,0.57812536,0.093376264,-0.06310853,0.3239106,0.7858474,-0.026713073,-0.074928954,-0.0075870752,0.31504843,0.30429092,0.16160423,0.1507082,0.031407118,0.30726478,0.30273277,-0.025666907,0.25891268,0.31123933,0.31039456,-0.102725565,0.07013927,0.61726165,-0.12359321,0.12050355,-0.11973629,-0.13469113,0.22133644,-0.0534513,-0.061947867,0.10873881,0.01346704,-0.25892067,0.05834931,0.11697379,-0.062965736,0.63589126,0.26740834,-0.06973004,0.3265083,0.14225492,0.037831016,-0.16839911,0.026267422,0.2510388,-0.19606225,0.18259674,0.07751436,0.134277,0.6668163,0.03786002,-0.49513358,0.2513424,-0.661601,0.27278134,-0.15390167,-0.05903424,0.14370021,0.056214035,-0.25665736,0.091077656,-0.36772308,-0.35045263,0.09830569,0.12942342,0.11763011,-0.49586535,0.26151305,0.15852436,-0.10210748,0.0010992289,-0.015957952,0.3992143,0.18316725,-0.34664148,-0.3868416,0.010225913,0.009050757,0.3004387,0.17798261,-0.050006103,-0.048499614,0.059503734,0.11261675,0.21314132,-0.23308674,0.087610304,-0.06909534,0.1926481,0.1949105,-0.023584455,0.52994305,0.45000967,0.114546895,0.32237223,0.08791329,0.10659556,-0.25410533,0.08428728,-0.37231782,-0.5144027,0.12960301,-0.023296222,0.34658623,-0.20364574,-0.3021102,-0.0060878918,0.13258125,-0.1355117,0.16289967,-0.017798021,0.07997182,0.27821344,0.37480834,-0.5209837,0.2790282,-0.33535305,0.07096593,-0.77760285,0.07215985,-0.28218442,0.24532995,0.078748584,0.099984065,-0.17596374,0.12995854,-0.10193397,-0.35496646,-0.0857109,-0.052499317,-0.020159066,0.21583873,0.24632165,-0.24775824,0.038860694,-0.21724008,0.07133478,0.3950303,0.37495762,0.41337407,0.29004493,0.28100798,0.3676139,0.31221884,0.15803444,0.18834384,0.12054172,0.8009611,0.26607424,0.10036491,0.19021873,0.06524998,-0.0033413991,0.34807372,-0.41808423,0.3073067,0.21722923,-0.080594905,0.21620032,0.3350795,0.0151596945,0.15026312,0.7722184,-0.31236202,-0.18941934,0.444101,0.09521039,0.15346244,-0.37415534,-0.28468212,-0.046720326,-0.025865585,0.2151941,-0.25908965,-0.03670183,-0.31202245,-0.06554851,0.7780597,0.099808976,0.23192254,0.032790422,0.12505049,0.06432797,-0.27841958,0.1466083,0.10369201,0.07657385,0.21591435,0.14147873,0.70869434,-0.46383095,0.19691409,-0.007112123,-0.11633027,0.0069020092,0.49131528,0.35131127,0.06948927,0.20012248,0.38530588,0.38277957,0.32144156,0.14240842,0.037511233,0.104926065,0.03395747,-0.10155352,0.19905879,0.07019882,0.051747233,-0.059989348,-0.37763807,-0.11697169,0.25284496,-0.67692107,-0.003732413,-0.035078466,-0.06995849,-0.24816905,-0.3060162,0.15988897,-0.22198859,-0.046825785,0.19254155,0.038435914,0.252091,0.15458812,0.28301382,0.05052206,0.24270733,-0.1685975,-0.14273235,-0.109051526,0.1913335,0.25236768,0.07938896,0.3199907,0.13864806,-0.1008513,0.090552755,-0.2233026,0.039221287,-0.25908357,-0.19329026,0.71046793,-0.11707907,-0.6420485,-0.4749378,0.5599107,0.2468861,-0.4231192,-0.021626428,0.116377264,-0.047735464,0.16212288,-0.021427065,0.4035235,0.043435946,0.032449752,-0.07578246,-0.14353263,0.21159449,-0.51476717,-0.23766285,0.18552545,0.03401518,0.11232172,-0.30965632,0.027902111,0.47114018,0.10388558,-0.6410569,-0.14883511,-0.20270503,0.29288802,-0.17720348,-0.22106782,0.25256673,0.23947659,0.15936282,0.17436802,-0.2957909,-0.08093635,0.05865261,-0.34146473,0.14962016,0.20221344,-0.44562373,-0.0005046129,-0.40765822,0.1286872,0.16088983,0.046344742,0.50848174,0.15736386,0.24974757,-0.23784393,-0.05731921,-0.22969157,-0.011735763,0.09121873,-0.029898375,0.052299693,-0.11344777,0.1351777,-0.21688807,0.27329776,0.063120455,0.2151975,0.3385343,-0.24869905,-0.1948325,-0.39897949,0.14252803,-0.22250262,-0.022901133,-0.43981647,0.051550332,-0.25528714,-0.40075228,0.6886937,0.45174944,0.12186882,0.39815655,0.32236087,0.076215796,0.09320435,0.20736095,0.26618546,0.19232076,0.23818916,-0.1516404,0.022516638,-0.79596853,-0.41188878,-0.22919627,0.27463645,-0.25346082,0.15050484,0.27908593,-0.13241208,0.105853766,0.044637203,-0.6307239,-0.3106088,0.032418102,-0.17966759,0.3475756,-0.23320791,-0.2547732,0.14945975,0.23862457,0.07918283,0.15442547,0.15750442,-0.48665202,-0.34847742,-0.20075665,0.004719057,0.22260398,-0.19879928,-0.15283301,0.0991067,0.10607669,0.08921987,-0.73680735,-0.30070102,0.2179306,0.30219552,0.124787755,-0.16577514,0.036923975,0.03857752,0.25596213,-0.0489275,-0.2179046,-0.63360476,0.23935723,0.0485674,-0.23483694,0.068044186,0.10784412,-0.38027775,-0.023628056,-0.06330526,-0.1199272,-0.044627056,0.10318953,0.12814978,0.26238906,-0.077388644,-0.16718155,0.003452152,-0.07734893,-0.06896183,0.14408574,0.08292912,0.10598813,0.03336361,0.24560153,-0.38099575,-0.7154652,-0.018447481,-0.11636565,-0.17420284,0.01768002,-0.020688117,-0.12042296,0.29109195,-0.059585214,-0.03793004,0.10084167,0.024344232,-0.110604785,0.15559311,0.25690076,-0.21609822,0.10429173,0.051448673,0.25970054,0.13561738,0.041978218,-0.038838446,-0.068665266,-0.25019562,0.194622,-0.22079793,-0.22182724,-0.109153874,0.037466854,-0.03626426,-0.2705319,0.30430368,-0.087421834,-0.23706129,-0.07500656,-0.09743124,-0.044324882,-0.16693555,0.018939167,0.111928344,-0.19513895,0.14687389,-0.3199667,-0.16231246,0.024833769,-0.09023437,-0.11463783,0.05161193,-0.10173381,0.44592917,-0.58181334,-0.4360775,-0.3057941,0.062422127,-0.064362645,-0.25474596,0.20329553,0.18823786,-0.06325236,0.07156439,0.115675,0.11552608,0.054837395,-0.07213326,0.070854686,0.3148334,0.2237964,-0.4205256,0.5220555,-0.1360203,0.1375097,0.2960591,-0.098979354,0.09629168,0.07840234,0.41445056,-0.1125339,-0.24646544,0.21302733,0.33409947,-0.06349488,0.11877515,0.015575774,-0.099711455,-0.011685062,-0.07352005,0.23752344,0.2237894,-0.16715948,-0.16884792,0.07321351,-0.13757057,0.251369,0.13837057,0.104574546,-0.053933382,-0.101605006,-0.007044032,-0.06747718,-0.23360655,0.115593016,-0.030112397,0.09146933,0.27575615,-0.095071666,0.41179425,0.047226563,0.30379042,-0.07352992,-0.06641327,-0.16388538,0.19840994,0.42594513,-0.20371658,-0.32906443,0.43436277,0.4188047,0.10619874,-0.16652656,0.2783434,-0.106595576,0.016852602,0.005757034,0.14815167,-0.07184309,-0.20012203,-0.15539986
