1,80,-0.00023900004,0.0006074019,0.00046427487,0.0032497759,0.0006280034,-0.0008024444,0.001362726,0.0030042438,-0.0010560029,-0.0016743563,0.0017893971,0.0013416483,0.0015259548,-0.0010381173,-0.0024629228,0.0023961833,0.0061830925,-0.0019052413,-0.0050705816,0.002489066,-0.0005782235,-0.004038531,-0.00012386843,-0.0024986968,-0.0016736528,0.002098299,0.003693088,-0.0010369546,-0.002088779,-0.0030981915,0.0010681901,-0.001189286,0.0047626933,0.0010851951,-0.0008443788,0.00040081367,0.003428679,0.0036558427,-0.003887855,-0.0009736096,-0.0015722925,0.0034763985,0.0018578483,0.0020113473,0.0036815829,0.0063707163,-0.0012805421,0.0036559522,-0.003571799,-0.000861252,0.0013132849,0.006836325,0.00032261724,0.00095779967,-0.001307086,-0.0067903576,-0.0019899402,-0.0035977894,-0.0015324419,0.0008624404,-0.0010907536,-0.00608897,0.0015036842,-0.0017883594,0.0020007412,0.001174417,0.0031744528,0.003109397,-5.691344e-05,-0.0026320212,0.0013682311,0.0035962234,-0.0049810233,0.00028198957,-0.0019480884,0.00225677,-4.743029e-05,-0.00010928425,0.00017871597,0.0017947314
