4,240,10,1,1,0.07670288,0.053768385,0.07660014,0.015142169,0.08086769,-0.0045880526,-0.135345,0.07652662,0.13571517,0.022842223,-0.06618877,0.15975839,-0.06597754,0.123179905,-0.11078978,-0.124785885,0.1061354,-0.06589396,0.09626477,0.21273144,-0.01327106,0.25944966,-0.013261899,0.06797269,-0.06383619,-0.105004795,-0.12421282,-0.013254046,0.12180236,0.056891225,0.031202517,-0.2510303,0.031372927,-0.07812995,0.09227853,0.30014756,-0.07332658,0.031453907,-0.080465525,-0.38430178,0.120867,-0.10931685,0.12097202,0.052631684,0.031660795,0.021650553,0.010338541,0.121099845,0.058195613,0.1091062,0.05177644,0.36925837,0.051870212,0.0936017,-0.13983841,0.080133006,0.17829758,0.05189485,-0.13644639,0.1648607,0.021138862,0.39036357,0.02110336,0.05344685,-0.035255987,-0.34793013,0.011807788,0.021061972,-0.019868165,-0.016796038,-0.017174054,0.061392665,-0.0172313,0.032700684,0.07778662,0.07689184,0.15536238,-0.017247822,-0.023862299,0.034054123,-0.0045705973,0.03189985,-0.00440111,-0.013173088,-0.32638812,-0.059838183,-0.026502095,-0.0043473835,0.070494495,0.45843375,0.022426017,0.17640671,0.022291586,0.049079046,0.11193405,-0.0108389,0.031781074,0.022316108,0.06554076,0.096859455,-0.0042974157,0.031431958,-0.004251085,0.074661486,0.1712425,-0.106209636,-0.08902771,-0.0042095184,-0.0046997517,0.19052969,0.02550235,-0.027537046,0.025671028,-0.32712772,0.24096112,0.25069493,-0.21180157,0.025732346,-0.18357235,0.0110492185,-0.10627328,-0.06677198,-0.10668081,0.09786105,0.18248065,-0.015623778,0.070621945,-0.10682887,0.10322168,0.12169258,-0.027395599,0.23239847,-0.027319394,0.026745666,0.16774681,-0.07408895,0.017280677,-0.027266055,-0.06390168,-0.08500945,-0.049939036,0.13036937,-0.04955795,-0.1794834,0.13464734,-0.285885,-0.123011425,-0.04939782,-0.13722096,0.25689536,0.061505053,-0.2099981,0.061439555,-0.06481615,-0.058698356,0.043852672,-0.035959914,0.061365068,0.010233857,-0.04136668,-0.023745254,-0.121414855,-0.02406852,0.048942134,0.07881668,-0.050100088,0.030918397,-0.024086505,0.0211271,0.012810059,0.047793306,0.08429676,0.047472242,0.018411245,0.12624007,-0.11195186,-0.0035128444,0.047402423,0.009232633,0.0066273436,-0.07983144,0.26768947,-0.079588994,0.067956865,0.24142778,0.03188531,0.06730739,-0.07939938,0.0042289607,0.04256232,-0.0018249974,0.07259238,-0.0017111748,-0.03694491,0.18496236,-0.0884489,-0.008106798,-0.0016380809,0.15506156,0.23347038,0.0012272745,0.013919212,0.0011235811,0.14151788,0.111376405,0.030133039,0.119145885,0.0010994412,-0.043133955,-0.0046820045,0.011381994,0.24676514,0.011455931,0.036883224,0.14122929,0.29148743,-0.0020096004,0.0114210695,-0.0053879432,0.12174281,0.16323307,0.09893744,0.16339774,-0.03491882,0.014453739,-0.051263414,0.06646952,0.16346689,0.046621263,0.11665836,0.064993866,-0.14537178,0.06496834,-0.050715733,0.15134609,0.08654828,-0.17345157,0.064944714,-0.026883967,0.0461372,0.010210674,-0.19519979,0.010172547,0.055480212,-0.010219582,-0.1114101,0.053950414,0.010179609,0.06996828,-0.03833271,0.013187692,-0.10352931,0.013253719,0.041304663,0.08238551,-0.012322869,0.049734287,0.013240742,0.046695903,0.16327432,-0.009841636,0.0072115324,-0.009982407,-0.046344012,-0.10140045,0.19449347,-0.05413623,-0.010056242,-0.012200385,0.17869113,0.0839332,-0.06737152,0.08395617,-0.39003074,0.009234041,-0.271043,0.7317809,0.08393729,0.194528,-0.37093574,0.0107598435,0.14916985,0.010737935,-0.07329471,0.25160816,0.010015771,-0.040714085,0.010675825,-0.029241165,0.04770778,-0.013998747,-0.013570301,-0.013925862,0.024458721,0.28211588,-0.18505289,0.010985777,-0.013853223,0.051779862,0.30436465,-0.16565041,0.09833492,-0.16527218,0.114828356,0.07193382,-0.0995256,0.0769333,-0.16507767,0.06280791,-0.1451907,-0.03066207,0.16769758,-0.030687705,0.15298624,-0.039351583,-0.00047831237,0.084426925,-0.030673742,0.07941272,-0.06988031,-0.064858794,-0.09710502,-0.06485178,0.12648563,0.06445147,-0.0003682673,0.14544779,-0.06483883,0.026502773,0.07714148,-0.02300062,-0.008635334,-0.02281069,0.07244976,-0.012613479,-0.07944971,0.08267796,-0.02271604,0.052142974,0.08847782,0.022546168,0.10431744,0.022725677,0.021346748,0.29362422,-0.164584,0.03308485,0.022719784,0.021175653,0.24337329,-0.0243994,0.014927449,-0.024369553,-0.029487489,0.13746326,0.33556443,-0.07148199,-0.024374653,0.12847674,0.10765016,0.005383,-0.23361652,0.005366234,0.12919618,0.24991637,0.09225662,0.09910263,0.0055462644,0.09937386,0.19404712,-0.014153752,0.024602517,-0.013955779,0.08748992,0.1428449,-0.061193533,0.07744688,-0.013875417,0.08176759,-0.0027788803,0.008791458,-0.10340707,0.008775301,0.0027957857,0.1469955,0.19924998,0.0071061924,0.008709148,-0.027999308,0.17605594,-0.058650695,-0.2336819,-0.058771685,-0.10400429,-0.050488867,0.16870357,-0.02771692,-0.05877303,-0.10007277,-0.22471082,0.08324865,0.16933346,0.083357655,0.11295384,0.025915667,-0.11147469,-0.0711321,0.083463855,0.026837595,0.15099429,0.22112697,-0.07897839,0.22125843,0.5245918,-0.1054929,-0.19376332,-0.73013717,0.22131583,0.14010477,-0.13392416,0.09111988,-0.29899365,0.091233365,0.05919277,0.26997203,0.0017200112,0.060030416,0.091264345,0.045149073,0.26207542,-0.2023413,0.04026629,-0.20260386,-0.017764002,0.17752089,-0.28325233,-0.0005018674,-0.20275845,-0.06396371,-0.060770858,-0.018682122,0.048615098,-0.01854577,0.021102771,0.23202235,-0.064983815,-0.0007356927,-0.018560182,0.05295595,0.121514514,-0.012127131,-0.06445836,-0.01239346,0.00812413,0.007963858,0.602365,0.02746591,-0.012473792,-0.027697114,0.022816569,0.02416427,0.15127443,0.02424588,0.049199358,0.21638705,-0.2813145,0.013090014,0.024349641,-0.013544269,-0.27039707,-0.021486305,0.047294755,-0.021504767,0.028027743,-0.014579907,0.056592137,0.058986142,-0.02157975,-0.102470845,-0.054482665,0.044734485,-0.21670505,0.044798397,0.09094844,0.14465636,-0.048017234,0.05717343,0.04487618,0.06954588,0.13664031,-0.008097984,0.06762147,-0.007937955,0.02951675,0.017721225,-0.01895733,0.050165072,-0.007885173,0.01106669,0.081631675,0.0021341816,0.04573095,0.0020639077,0.07106647,-0.80815387,-0.18818742,0.07061116,0.0020389333,0.17073704,0.74820244,0.09712036,0.28285587,0.097170584,0.15770626,-0.13846749,-0.0064855423,0.11067945,0.097173646,-0.15080588,0.06906378,0.005673101,0.011645077,0.0055766255,0.10611721,0.13982013,-0.12845461,0.07942732,0.0055265576,0.05174584,0.09449413,-0.025321998,-0.06687972,-0.025267806,0.03402107,-0.067812935,0.0833121,0.013971433,-0.025188256,0.042940274,0.086113006,0.043086067,0.20751874,0.04322291,-0.10359852,-0.4079744,-0.092002146,-0.16252136,0.043253914,-0.0128914025,-0.1419164,-0.005785741,0.020812348,-0.0057745725,0.061842,0.13663898,0.058313146,0.02893091,-0.0057576895,0.09031977,-4.592724e-05,0.00076425076,-0.104056224,0.00075564533,0.099716514,0.10254734,0.06215582,0.07309374,0.00076040626,0.08308698,0.11454033,0.18505305,0.5693732,0.18520856,0.020103697,-0.15803914,-0.6981413,-0.025040224,0.18527389,-0.04354837,-0.10707182,0.0034535974,0.22957525,0.0034179986,0.10571961,0.065367326,-0.11076908,-0.21011688,0.003376089,0.07221192,0.19147432,-0.048732042,-0.01350602,-0.04880605,0.055829205,-0.0043837465,-0.07428948,0.0669226,-0.048842296,-0.016637191,0.050590664,-0.13806958,-0.09280087,-0.137154,0.14719099,-0.38548434,-0.16913046,0.56273377,-0.13652939,-0.48509425,0.10266528,0.04145597,-0.19309478,0.041653812,0.03995332,0.24857882,-0.21062624,0.065297365,0.04175508,0.120985486,0.26797435,-0.102724865,-0.15914287,-0.10245589,0.13711607,-0.06626194,0.11877298,0.11909743,-0.10225012,-0.15533961,0.13027073,-0.0069799125,0.12886287,-0.0069463653,0.18910721,-0.031120718,0.0011913255,-0.09013468,-0.006922707,0.13843593,0.10570171,-0.038426887,0.044614643,-0.038242623,0.086579494,0.14909804,0.034835074,0.062632665,-0.038157217,0.11442581,0.14138786,-0.28652316,-0.0978558,-0.28657416,-0.085880265,0.061318964,-0.10899873,-0.097725704,-0.28655797,0.036753543,-0.16604649,0.07465881,-0.13560057,0.074721895,0.019617803,0.033708315,0.005612321,0.04331778,0.07486358,0.06818382,0.111523874,0.24331844,0.0948387,0.24350019,-0.25238746,-0.0438874,0.07627851,0.23404367,0.24361287,0.10160838,0.19785863,-0.016269531,-0.024731115,-0.016404785,0.031196669,0.081814006,-0.06558257,0.005876109,-0.01646626,0.014507723,0.025862701,-0.041351695,0.19929351,-0.041577887,0.23426433,-0.10605364,0.030009799,0.14825056,-0.04169425,0.12844789,0.06765421,0.0017126352,-0.109742865,0.0013365224,-0.21719946,0.0024245763,-0.09793417,-0.103133015,0.0011282694,-0.15676528,0.29237247,-0.04945224,0.17062764,-0.0495007,0.12413804,0.07386724,-0.039648935,0.11797576,-0.049505502,0.13745064,0.16731697,-0.026200186,0.2014263,-0.02608423,0.09478276,0.06424123,-0.094532184,-0.10009731,-0.026006397,0.15863433,0.08548629,-0.1234684,-0.34796205,-0.12330933,0.22761586,0.25563866,0.12092985,0.15661432,-0.12319751,0.103373945,0.02117534,-0.030758843,-0.07363542,-0.030840714,0.016639672,0.061281264,-0.033752613,-0.055512622,-0.030884117,0.08871585,0.03934075,-0.025082104,-0.16848335,-0.025197987,0.038700692,0.08703333,0.034275446,0.039632883,-0.025217166,0.057267696,0.07527362,0.01756125,0.04560756,0.017501,-0.031914912,0.4854524,0.009549167,-0.027743407,0.01746589,-0.118024476,-0.34462556,0.0025475174,-0.13126531,0.002597317,0.018527642,0.04417584,0.088620916,0.021937178,0.0026170649,0.059811667,0.11093603,0.0012203082,0.02675964,0.0011817552,0.08468904,0.10329641,0.05322902,-0.023008544,0.0011613742,0.17511763,-0.0075560734,-0.023361657,-0.18328662,-0.023234457,0.056539506,0.094364665,-0.039212942,0.04300329,-0.02317439,0.025215939,0.15252931,-0.0020189863,-0.05430583,-0.0017080456,0.12461552,0.0335928,-0.07941693,0.10261335,-0.0015394762,0.07660975,0.07219206,0.15180263,0.28580672,0.1521729,-0.22341006,0.25413865,-0.5048194,-0.14917558,0.15209745,-0.15064016,0.20374309,0.06576573,-0.2642545,0.06566041,0.6593242,-0.026270337,-0.37251627,0.71932065,0.06553474,0.5056354,-0.4022468,-0.044581883,-0.18952976,-0.04451415,-0.0020259544,0.31915897,-0.14123377,0.05149313,-0.044446334,0.056684896,0.22334224,0.009304749,0.14019647,0.009595208,0.0741718,0.1457353,-0.2532266,0.030875765,0.009656405,0.025497599,0.057544895,-0.012633383,-0.11030278,-0.013080031,0.06712171,0.1251982,-0.09435109,0.030382078,-0.013150051,0.005471401,0.04175648,0.08211559,0.2641611,0.0820184,-0.08604664,-0.110812604,-0.021920234,-0.109543145,0.08190465,0.27577916,0.07945128,0.03450788,0.17604697,0.034516364,0.14727364,0.019175496,0.033339396,-0.119709246,0.034507025,0.08689652,0.250771,0.024216488,-0.22940399,0.024259273,0.018916436,0.179826,0.050235048,-0.0039855884,0.024289072,0.028660681,0.03866054,0.067775205,-0.15074213,0.06791985,0.039647944,0.03473137,0.009789549,0.032799866,0.068092756,0.053969383,0.10896926,0.03850684,-0.2526515,0.038477957,0.49813664,0.08847681,-0.29393235,-0.29603264,0.03844307,0.10012294,-0.14457202,-0.15925135,-0.017275184,-0.15940493,0.0151952915,0.4160127,-0.09771654,-0.3416208,-0.1594598,0.04584679,-0.45809937,0.017535273,0.5451351,0.017467797,-0.14130276,-0.15546933,-0.17927825,-0.11533456,0.017415524,-0.13363689,-0.16104276,-0.010859972,-0.14566055,-0.011344185,0.03625787,0.10210338,-0.06653735,0.038810305,-0.011465311,0.034762375,0.03868951,-0.006229788,-0.16645491,-0.006191179,0.1592316,0.25045887,-0.039622705,0.10325874,-0.0061452836,0.15858525,0.18983944,0.28230733,-0.026890561,0.2823979,-0.3494938,-0.033345245,-0.25113222,0.7761776,0.28247833,0.039472595,-0.23494382,-0.00028719008,0.25925454,-0.0003876984,-0.14860654,0.051013105,-0.1526134,0.19278939,-0.00047738105,0.07380738,0.11606475,-0.020772383,-0.42347154,-0.021227859,0.027606465,-0.24605039,-0.6013674,-0.5007493,-0.021272672,0.84293526,-0.15629332,-0.00554231,0.07760374,-0.0056323367,-0.01976379,0.039434858,-0.12519981,-0.021550141,-0.0056584924,-0.006205559,-0.031097516,0.09097236,-0.4505982,0.090964824,0.78347766,-0.26399243,-0.4163158,0.5490481,0.09096991,0.6169547,-0.17012274,0.03191796,-0.09579341,0.03189289,0.019689769,0.08397704,-0.07294112,0.038283233,0.031922065,0.026538558,0.053233553,0.050433718,0.003530765,0.05001189,-0.110311955,-0.09681406,-0.10876242,-0.29803708,0.049830113,0.44685984,0.06160198,-0.037924074,0.03331756,-0.037966654,0.05254316,0.24578631,-0.20457724,0.015225273,-0.037959404,0.026617981,-0.019452125,0.020680435,-0.25390077,0.02051054,0.06793868,0.25722983,0.10181528,0.053393573,0.02051077,0.06959265,0.163772,-0.0248231,0.24639773,-0.0249139,-0.051991366,0.19126892,-0.21478473,-0.029571667,-0.024905954,-0.010846677,0.13088253,-0.048537403,-0.16619655,-0.048479736,0.16354568,0.05529612,0.27960733,0.12257043,-0.0484742,0.15861759,0.13524652,-0.14653516,-0.47940162,-0.1464478,0.06508303,0.0053367205,0.37936616,0.051738225,-0.14654858,0.048946932,-0.005880356,-0.015209444,0.07077688,-0.015148696,-0.080586456,0.13764827,0.2088238,0.07973752,-0.015137035,-0.027748229,0.1294023,0.052431375,0.21448867,0.052319292,-0.08995895,-0.0025797226,0.030404221,0.118673995,0.052290663,0.1809923,-0.0717677,0.0003085509,0.34122765,0.00021099299,0.00955312,-0.23914894,-0.39210567,-0.007537922,0.000116184354,0.089169525,0.2813556,0.0019235164,-0.022585936,0.0019655153,0.024533832,0.05061171,0.035064496,0.071819186,0.0019690692,0.046035558,0.10068156,0.0124274455,0.027303457,0.012467474,0.09193815,0.110427074,0.047468316,0.033381507,0.012464888,-0.015934065,0.03647457,0.060909,0.07729842,0.060827266,-0.0045600086,0.014976144,0.072765164,0.14702143,0.060768373,-0.11960688,0.035955645,0.023611464,-0.14123991,0.023692816,0.035395104,-0.0077538304,-0.05923761,0.019883446,0.023759147,0.057270505,0.07862779,0.021393389,0.010359608,0.021200024,0.05290146,0.16999227,0.15642548,0.018507257,0.021086842,-0.021814626,0.046805713,-0.049826175,0.20681399,-0.049666673,-0.05102634,0.14402017,-0.1809654,-0.04115772,-0.049572922,-0.02552823,-0.19249952,-0.0025029927,-0.08984177,-0.002523031,0.049031608,0.0058726594,0.28104356,0.029511988,-0.0025957632,0.046517935,0.10352303,-0.11586336,-0.016310625,-0.11568612,-0.033687834,0.034281284,-0.04430649,-0.044412866,-0.11557575,-0.056872904,0.058204085,0.064888835,0.22757435,0.06517959,-0.05750698,-0.05082212,0.2544799,0.007310033,0.06525873,0.01443417,-0.10734834,-0.0953098,0.1518607,-0.09502812,0.03458587,-0.20623098,-0.24558887,0.045707434,-0.094789594,0.1158673,0.25681645,-0.00012177229,-0.38086635,-0.00035369955,-0.051559664,-0.22310029,0.26140425,-0.059682954,-0.00048333872,0.0050713522,0.025174856,-0.005828418,0.10966941,-0.0057858303,0.0032402873,0.14877489,-0.08621301,0.043340623,-0.0057370663,0.09778696,0.08718946,-0.024301447,-0.1184485,-0.024385061,-0.061207745,-0.08128974,-0.14842121,-0.014742374,-0.024388388,-0.02936238,0.05199227,0.065322444,0.094407246,0.065191455,-0.012555152,0.10334771,0.025783593,0.10653671,0.06512312,-0.09627309,0.0018252432,-0.0066075474,-0.044398315,-0.006628394,0.10300784,0.10025094,0.07592183,-0.03588182,-0.00666035,-0.027524676,0.06965728,0.010354355,0.17038323,0.010162706,-0.25636077,0.097062215,0.17085099,-0.059476197,0.010054037,0.039055012,-0.123629384,0.022031456,0.21864185,0.02198267,-0.044414014,0.111689694,-0.16902664,-0.080922484,0.021952115,0.09784888,0.10559615,0.07301863,0.34839445,0.07293646,0.016142037,-0.045319907,-0.16883329,0.0020441152,0.07293158,0.075019136,0.23225988,-0.028336786,-0.276592,-0.028216906,0.030579235,0.19151714,-0.03149113,0.032639854,-0.028160721,0.039791655,0.09813579,-0.064078346,0.38665625,-0.06408694,-0.030120207,0.052473646,0.07085554,-0.03324555,-0.06400222,-0.016702421,0.0136437565,-0.18158886,-0.18813024,-0.18098818,-0.006663583,-0.42008427,-0.26287162,-0.5885623,-0.18043876,0.6285202,0.06125459,-0.0010938197,0.13489732,-0.0011352077,-0.028849743,0.052646995,-0.13903847,0.115802325,-0.0011667162,-0.05101291,0.046827294,0.005193822,0.15269904,0.0050202683,0.07131146,0.20354296,0.17166844,-0.21153745,0.0049480535,-0.18451162,-0.13931279,-0.054737348,-0.046931937,-0.054855846,0.0067770258,-0.24373055,-0.23567156,-0.023591153,-0.054903954,-0.031659737,-0.15369081,-0.078805834,-0.040877823,-0.07883664,0.0378332,0.102354065,-0.010334432,0.045242757,-0.078826755,0.016673267,-0.054109707,-0.056653015,-0.11201279,-0.056606892,0.14458619,0.07019081,0.26428312,0.14222224,-0.05653225,0.086707965,0.17801774,0.00722982,-0.0965768,0.007220231,0.13260807,0.06533421,0.010524631,-0.06889779,0.007216068,-0.02832855,0.060527764,0.046640154,0.016867861,0.046626616,0.008367414,-0.012003865,0.024807733,0.012921463,0.04662664,0.034068003,0.069552585,0.022095159,-0.4547367,0.022082081,0.06489502,0.16855541,-0.03916823,0.063311204,0.022084331,0.043367684,0.123787664,0.032369263,0.26452377,0.03234992,0.009347834,0.1074194,-0.16441828,0.108724475,0.032367468,-0.14933684,0.09528609,-0.006970264,-0.14089295,-0.007040888,0.034345124,0.05867258,0.32808992,0.06206189,-0.0070037544,0.07749384,0.11353332,-0.025953857,-0.1573514,-0.026045306,0.036491316,0.10559923,-0.051413566,0.029246561,-0.025957825,0.04505183,0.035235412,0.09595451,0.055518515,0.095773555,0.100197315,0.12416994,-0.23829962,0.68166536,0.09581484,-0.586781,-0.28446755,-0.1464874,0.66281146,-0.14645575,-0.013109103,-0.31096232,-0.1755998,0.015539408,-0.14648132,-0.1007337,-0.34886768,-0.10404998,-0.115453824,-0.10387083,-0.033343453,0.058616973,0.030528057,0.00011180341,-0.10378234,0.18250002,0.14823797,-0.011169277,0.25370747,-0.011296906,0.106229246,0.08062788,-0.026412636,0.054469824,-0.011257529,0.13478956,0.10000663,-0.059480906,0.21163455,-0.05940996,0.15788288,0.100617446,-0.19579352,-0.05808409,-0.05929178,0.08550753,0.012253299,-0.006478548,0.007758498,-0.0063076764,0.14977737,0.1540466,0.010656469,0.040191717,-0.006237736,-0.09886654,0.2058174,-0.10659719,-0.0367179,-0.10661809,0.0471983,0.07697682,-0.16177836,0.0043323897,-0.10656834,0.036964267,-0.054305866,-0.007381387,-0.041122198,-0.00748083,0.0063311458,-0.008695029,-0.32074407,-0.71886003,-0.0073941574,0.5648525,-0.27010626,0.014795486,0.011839077,0.014444776,0.026772797,0.15708375,-0.09470424,0.017522559,0.014412239,0.019931592,0.043154467,0.0044506565,-0.06938421,0.0044890046,-0.124224715,0.00017252937,-0.026395991,-0.06492799,0.00450754,-0.027081057,0.17031406,0.07882842,-0.15458094,0.078993574,0.045575045,0.056498036,-0.021167576,0.047631405,0.0791035,0.04742353,0.113107786,0.015577972,-0.32738838,0.015829336,0.1392247,0.17525011,0.21978694,0.12690847,0.015961394,0.11555062,0.15685154,-0.09956938,-0.3837328,-0.09963157,-0.22601938,-0.39250088,0.7790564,-0.12442116,-0.09964224,-0.1201898,-0.31679034,0.05267431,-0.05014247,0.052662894,0.08106936,0.16077551,-0.051020145,-0.016839772,0.052671324,0.076313265,0.021383226,-0.044447407,0.21939243,-0.044713788,0.19498011,0.12871367,-0.08808282,-0.06472381,-0.044896383,-0.0348865,0.004719317,0.026497185,-0.095413886,0.026007451,0.37358806,-0.13769163,-0.08067627,0.2155905,0.025702454,0.28693646,-0.21412694,0.02519761,-0.49344456,0.025112644,0.15351978,0.20116961,0.20574288,0.114494264,0.025130989,0.07712438,0.14720204,-0.048531972,0.17056838,-0.04883729,-0.015603761,0.049691565,-0.122941986,0.15760173,-0.049049318,0.029230423,0.0063947234,-0.047859434,-0.12517577,-0.047562998,0.06681125,0.32260537,-0.106525816,-0.017502964,-0.047552876,-0.06383158,-0.41427815,0.08045261,0.39764953,0.08071075,0.07702088,0.31470263,-0.4548329,0.023062319,0.080841936,-0.01460574,-0.23293895,-0.17210923,0.0059035197,-0.17219704,-0.10752307,0.43494558,-0.12915888,0.11062169,-0.17220888,-0.10591417,-0.48072723,-0.06769248,-0.25041094,-0.06766464,0.10060305,-0.06782137,0.27467236,0.096701264,-0.06759719,0.11890575,-0.099998206,-0.018323235,-0.04183813,-0.018081188,0.12875533,0.023057533,0.024898201,0.07396759,-0.018013895,0.077900894,-0.004367359,-0.10374018,0.3300626,-0.104033984,0.09427776,-0.11210185,-0.3291381,0.061766773,-0.10419232,0.075097,0.22391516,-0.00994046,0.054057088,-0.009938046,-0.019368745,0.16993015,0.07031939,-0.006198544,-0.00995124,-0.019147644,-0.014994107,0.0315755,0.27377802,0.03164397,0.0012813769,0.12858492,-0.33145067,-0.03565967,0.031645652,-0.033904336,0.23341443,-0.0347089,0.21992767,-0.034663714,-0.027782232,0.07901107,0.10713339,-0.026711365,-0.034589287,-0.0417438,0.11031819,-0.06615854,0.115304604,-0.06625619,0.07747577,0.05034516,0.24923342,0.086087584,-0.06605963,0.09659075,0.04018263,0.036632773,-0.025774118,0.036721222,0.019141309,0.019192405,0.035228416,-0.048129022,0.036765825,0.06545718,0.11616011,0.013062514,-0.12714984,0.013006493,0.1972991,0.25704178,0.018740825,0.11574921,0.012964632,0.13297874,0.27443194,-0.00080738217,-0.20754352,-0.00035177544,-0.055139065,0.09357241,-0.11075581,-0.0413879,-0.00023124367,0.014936581,0.12647538,0.22816259,-0.026114719,0.22770005,0.05167538,0.09352037,-0.13514985,0.03430409,0.22736074,0.011713035,-0.1281459,-0.18794985,-0.1798235,-0.1888566,-0.012701754,-0.05242404,0.052113265,-0.009634286,-0.18929198,-0.01163887,0.24248467,-0.08517324,-0.08002501,-0.08523999,-0.04563063,0.09504916,-0.01350528,-0.019644372,-0.08526659,0.010470867,0.1077541,-0.006341886,-0.20314601,-0.0063031316,0.03836578,0.13258785,0.315783,0.035196237,-0.0063033104,0.060685366,0.06179452,-0.051573664,0.27330664,-0.051475924,0.026321322,0.027532332,-0.010259256,0.021373356,-0.05149039,0.032167055,-0.02421097,0.06529282,0.019730901,0.06504315,-0.23419413,0.2981628,-0.09602905,-0.27743345,0.06500183,0.44855517,-0.1317824,0.10683759,-0.0067861453,0.10584232,0.018770754,-0.05250845,-0.04853549,0.004245214,0.105224386,0.022801265,0.051732317,0.07624079,0.059769034,0.07579187,0.15883839,-0.02239938,-0.04490853,0.28978616,0.07556156,-0.35437772,0.07268871,0.00410565,0.27158663,0.0040582623,-0.0057821907,-0.100935996,-0.27520743,-0.06189032,0.004172154,-0.0587824,-0.07990189,-0.05042679,0.2400427,-0.0503043,-0.00012669899,0.1084533,-0.21103907,0.17423469,-0.050225317,0.084567994,0.0016580205,0.057416663,-0.060266137,0.057472304,0.020389298,0.063882254,-0.052017085,-0.012786455,0.05749678,0.017787617,0.1260134,0.09324781,-0.39310732,0.09374068,-0.05610288,0.098010615,0.26878887,-0.036020402,0.09396633,-0.08459653,-0.5443791,0.07551369,-0.17418662,0.07559706,0.29983893,-0.024329036,-0.27442843,0.22150816,0.07562449,0.20690903,-0.17123179,-0.00763727,0.3550642,-0.0075630695,-0.14645445,-0.022336684,-0.15275478,-0.074471995,-0.007463157,-0.10495968,0.0038519297,0.22438647,0.14953935,0.22467083,0.16695431,-0.025544658,0.08787313,-0.17093684,0.22482607,-0.031198375,0.20812207,-0.026481807,-0.029383063,-0.026361406,0.09707365,0.09883216,-0.09322777,-0.009851471,-0.026321635,-0.083447896,0.0996038,0.10659373,0.0025055557,0.10688809,-0.09345834,0.048844513,0.39646992,-0.046486143,0.10706931,-0.023656473,-0.07330999,-0.07611182,-0.10814905,-0.07587974,0.244649,0.122806065,0.1439761,0.1215139,-0.07571932,0.13828616,0.13317454,-0.041786514,0.5791053,-0.041737057,0.027743112,-0.27782735,-0.21905336,-0.015481442,-0.04158518,-0.011440858,-0.14871801,-0.13997562,-0.25009125,-0.13957319,-0.5481304,-0.15613584,-0.1702319,0.14310463,-0.1393044,0.5412812,-0.2242729,0.26075286,0.03423917,0.26083696,0.7357229,-0.39673167,-0.36197084,0.4744399,0.26075402,0.40109536,-0.6119007,0.04210216,-0.03982883,0.042466857,0.17082143,0.0739011,0.2385194,0.11517602,0.042655297,0.16709992,0.08000019,0.00447271,-0.3323039,0.004173834,0.46783048,-0.31241766,-0.55501026,0.7163586,0.0042561144,-0.61650836,-0.11808625,-0.043845147,-0.20716132,-0.043812618,0.18090636,-0.28579897,0.27221495,0.0039508576,-0.043807715,-0.124004945,-0.14970998,0.004970692,0.19064768,0.0049146265,0.03325607,-0.010161012,-0.01477126,0.061321966,0.004897371,0.03951931,0.22219537,0.013745099,0.015844136,0.013780355,0.12877685,0.090716906,0.017406685,-0.011707954,0.013785258,-0.054739304,0.11838214,-0.06874113,0.32265642,-0.06884198,-0.051519737,0.022504603,-0.06319745,-0.077534266,-0.06877259,-0.067589864,0.007833824,-0.21024413,-0.069514014,-0.21037076,0.05279188,0.040578634,-0.049080335,-0.0054323375,-0.21037269,-0.16452993,-0.15641454,-0.021682464,0.26290846,-0.021480955,0.08380657,0.10331585,0.14643712,0.02526707,-0.021384418,0.047621775,0.13159263,-0.01026544,-0.054618053,-0.010344803,0.11135653,0.16974123,0.15590505,0.06789237,-0.010399826,0.088303484,0.02842573,0.13494757,0.059829134,0.1351081,-0.024856634,0.012894906,-0.05026333,0.07801661,0.13524449,0.07140186,0.11149964,-0.09507795,-0.25208074,-0.094669,0.5530221,-0.10755712,-0.0890639,-0.118462026,-0.09458716,-0.5664851,-0.08018799,-0.0012091845,-0.38740763,-0.0013559461,-0.0697743,-0.63539034,0.2316406,-0.048183866,-0.0014578998,0.029802501,0.06494561,-0.03714623,0.03687339,-0.037166346,-0.053250566,-0.024790838,-0.09103887,0.17769672,-0.03715411,0.05703288,0.12470383,0.025652451,0.06073538,0.025720695,0.15516233,0.07294966,0.025543388,-0.042104047,0.025737299,0.13636479,0.024951756,-0.09942048,-0.005473338,-0.09939753,0.087712675,0.052323118,-0.08939177,0.003410846,-0.09936017,0.06389499,-0.036572497,-0.039658524,0.024201065,-0.039628226,0.04683796,0.12819383,-0.008865098,0.017618679,-0.039580517,0.013811201,-0.032110624,0.015896305,0.06255156,0.016010843,0.07263269,0.06676009,0.09857467,0.18238786,0.01610858,0.046700224,0.028108925,-0.029517442,0.17186722,-0.02952493,0.13064955,0.28932995,0.0064289197,0.06538835,-0.029437711,0.02791732,0.010347404,-0.14301495,0.011144936,-0.14299408,0.11570512,0.5917374,0.023058467,0.10213907,-0.14296716,0.07595964,0.10513386,-0.022460356,-0.07595983,-0.022463672,0.0735869,0.20898506,0.17870228,0.06683497,-0.022416055,0.06741387,0.18103544,0.044461712,0.1962277,0.044514462,-0.09612643,0.13412008,-0.077077016,-0.057443526,0.04460322,-0.020940498,0.19136362,-0.021953598,0.22320488,-0.021990255,-0.06312016,-0.08513154,-0.12277037,-0.014719974,-0.021994099,-0.017188467,0.10378641,0.0033637062,0.09392714,0.0033553913,0.05111952,0.2551516,0.09780605,0.04184065,0.0033730865,0.01894331,0.07115487,0.044189043,-0.31707376,0.044384785,0.07974149,0.14359407,-0.09832725,0.05734216,0.04453383,0.08718233,0.17150623,-0.029753499,-0.33860707,-0.029626437,0.11090381,0.1948562,0.20659266,0.11473453,-0.029616356,0.12819894,0.20016551,-0.023272432,0.25673494,-0.023031905,0.048942022,-0.28944993,-0.39417148,0.043904625,-0.022878613,0.13308261,0.45001778,-0.03683161,-0.00087007927,-0.036726803,0.016749697,0.03836973,-0.026375126,-0.11202888,-0.036621414,-0.14091094,0.10141324,-0.023028068,-0.064113915,-0.023005098,-0.15500724,-0.21757188,0.2330645,-0.08637263,-0.02297569,-0.095332116,-0.011913285,-0.017371804,-0.11939501,-0.017273687,0.63012487,-0.027571708,-0.24289411,-0.6913204,-0.017317094,0.10797332,-0.24312505,0.031767502,-0.0020776037,0.03172586,0.012856722,0.035354637,-0.0069736987,0.029473267,0.031752847,-0.018244565,0.04468395,-0.0011004843,-0.15767394,-0.0009523481,0.05566567,0.101665325,-0.091611244,0.0593504,-0.0009150207,0.053393155,0.10182221,-0.03179528,-0.15214878,-0.032069642,0.033545252,0.12946215,0.26511258,0.09749575,-0.032202814,0.14056224,0.32551387,0.041069668,-0.063921496,0.04100435,-0.054392822,0.004846975,0.11215953,0.07961697,0.040961254,0.011211744,0.26579094,0.014253043,-0.014076494,0.014257686,-0.23276499,0.13500956,0.076318465,0.314983,0.014239907,-0.27857494,0.027977921,0.039163038,0.02349711,0.03905106,0.042376965,0.007643096,0.011675314,0.027134046,0.038970504,0.017692693,0.25003892,0.040600155,-0.4398626,0.040678214,0.07271204,0.15981153,0.13419837,0.063724846,0.040793233,0.066338494,0.15223303,0.17424692,0.13269395,0.17421289,0.048074566,0.011307605,-0.019460483,0.011566044,0.1743855,0.0135249235,0.14172557,0.030007193,0.20205802,0.030099243,0.06740221,0.08895797,-0.036191072,0.039212182,0.030114602,0.047187094,0.0653625,-0.030992784,0.18558206,-0.030933216,0.035400778,0.09601769,-0.114491016,0.16925517,-0.03087017,0.007788591,0.065592915,-0.049092684,-0.044377737,-0.049154438,0.2072991,0.07292029,0.057207532,0.12000345,-0.049143158,0.15306829,-0.01402922,-0.061016023,-0.28805578,-0.061040103,0.027343426,0.07200293,-0.09991658,-0.003659606,-0.061006006,0.036963977,0.04093805,-0.01480785,0.029151639,-0.0148182735,0.084819585,0.12419194,-0.007871412,-0.016770791,-0.014819376,0.1214821,0.088204645,0.028660499,-0.16994165,0.028664982,0.043170713,0.30531132,0.122451305,0.057075746,0.028651163,0.03955245,-0.021849504,-0.004240658,-0.03584814,-0.004353836,-0.027610805,0.07505919,-0.061973102,0.0061905757,-0.004322145,0.004493922,-0.024031892,0.052965775,-0.12107657,0.05307362,-0.03200192,0.025994033,0.28960356,0.014119223,0.05314321,0.021089032,0.007855132,-0.039421476,-0.0858228,-0.039259814,0.011989782,0.11215117,-0.024044171,0.002829574,-0.039226092,0.020993657,0.026076548
