1,192,-0.49666244,-0.21249455,-0.78408974,0.09735323,-0.07707196,0.0068443236,-0.060831536,-0.37877178,0.49066687,0.00964245,1.4278163,0.42356068,0.25398496,-0.35012716,0.6447665,-0.14120951,-0.003659431,0.25321707,0.46932417,1.0044783,-1.2889314,-0.16487563,0.5851111,-0.15656264,0.1991229,0.54506916,-0.12084785,0.052526645,-0.5235978,-0.2130873,-0.26543266,-0.48991546,0.381938,-1.5025607,-0.6544678,-0.101562485,-0.04817533,0.18397346,0.15422527,-0.107232876,0.2941094,0.12889965,-0.97311074,-1.0874968,-0.34774384,-0.5865306,0.9652456,0.46217826,-0.43849778,-0.38224596,0.2970078,-0.11117699,0.07672962,0.25892836,-0.10985211,0.05628456,-0.9692249,0.34881374,-0.69019353,0.5066894,-0.28751576,0.3599129,-0.70550996,0.7177619,-0.5394703,-0.43999803,-0.07482272,-0.039520223,0.68647534,0.86456794,-0.41910657,0.34625617,-0.058661927,0.28327093,-0.40720716,-0.46167195,-0.49305817,0.23043667,0.30066425,0.21995392,0.10898129,0.2741456,0.840668,-0.4751411,-0.23884493,0.26283124,-0.0002626806,-0.11088153,-0.4116043,0.0046354053,0.4559135,0.7225377,0.13432169,-0.4427932,-0.708066,-0.5763473,-0.07035529,0.49884087,0.4054932,0.0635312,0.521682,-0.16003133,-0.39522016,-0.0129640605,0.48561412,-0.20939282,0.2790066,0.12268044,1.8645244,0.16107501,-0.022600334,0.4678837,0.25096962,0.32610434,0.67584944,-0.17678717,-0.13127281,-0.3942343,-0.039652098,-0.42823392,0.2420646,-0.15627705,-0.0027295009,0.36926633,-0.17371221,-0.15414013,-0.9767048,-0.14491296,0.015985595,0.023490187,0.11090244,-0.17561278,0.15481916,1.5563833,-1.0768368,0.85700625,0.5391244,0.90664554,-0.5246791,0.24336198,-0.10295964,0.13644819,-0.13906822,0.29349822,-0.38614383,1.0032166,0.34644705,-0.19512357,-0.30038542,-0.12977931,-0.45889434,0.90882826,0.09362519,-0.2530676,0.048692025,0.09125414,-0.6706445,0.049221836,0.8439218,0.49556234,-1.7929173,-0.08594572,0.04863901,0.13818146,-0.7500727,0.52292335,-0.23930551,-0.5924888,-0.39837587,-0.9583187,-0.024211725,0.4226646,0.2620432,0.21737851,-0.42303523,-0.5069927,-0.72302556,-0.28065154,-0.5607917,-0.20952398,0.14875886,0.1300292,-0.76626164,0.31547537,0.16958873,-0.20602565,-0.3701999,0.41957945,0.40056023,0.88798076,0.1116572,-0.28237295
