1,96,-1.6829576,-3.0327706,4.134048,1.5488136,10.398288,0.7297263,-0.08652772,-0.29069233,-0.26730043,-0.12009196,0.24589862,1.788203,-0.87236685,0.33036366,-0.71574545,5.208446,-0.108066164,0.45701742,4.785076,10.9295635,4.8107615,0.015512765,4.581943,-0.22369373,-0.2482413,-0.2407502,-0.22623225,0.99908346,-3.8404841,4.704488,-0.29861417,-0.46776408,-0.2714532,2.2570865,7.4485908,-0.09565213,-1.19666,-0.3119555,5.1944313,0.57325673,5.287354,-0.109088436,-0.14984733,-0.06408789,1.6882733,0.2673613,-0.43177533,3.3028133,-0.65246105,-0.5395926,-0.55531204,0.61590743,12.772084,-0.38510996,0.005619628,9.783175,-0.17792277,-0.0050323927,-0.38824698,4.786998,-0.52329713,-0.435667,-0.43862057,-0.24049623,-0.67037207,-0.113190435,0.10918748,-0.19515665,-0.056935247,-0.34151217,3.6694431,-0.12373009,-0.063087784,-0.33261225,10.430512,1.94981,-0.3757909,-0.28267786,-0.37616417,-0.47825092,-0.4503636,4.2032766,-0.25659084,10.002169,4.651643,-0.13703035,14.131496,3.0927877,4.4894357,-0.26229477,-1.0043514,-0.85570407,-0.2507137,8.2255335,-0.26910564,2.5867107
