4,672,112,1,1,-0.047986604,0.0039057843,0.103721954,-0.014301465,0.01832018,-0.048601434,0.049380444,0.08389651,0.03571522,-0.04177478,-0.08452918,0.013424534,-0.031924717,-0.063393295,-0.0073567294,0.11521502,-0.1067878,-0.04737436,-0.002712164,0.04245793,-0.1352818,-0.053712502,-0.032872804,0.03663799,-0.1009864,0.032594327,0.08340888,0.06947029,0.13750629,-0.04157232,-0.028566431,-0.010474526,0.06664491,0.025641605,-0.13740948,0.026755668,-0.06068489,0.018729003,0.10244324,0.029657023,0.049721632,-0.024971195,0.014533771,0.07176025,-0.061690375,-0.03522019,0.04409396,-0.0046534836,0.03763003,-0.05903137,-0.09164717,0.101061106,-0.05516563,-0.00029177964,-0.016253244,-0.000766878,0.052680403,0.1195471,-0.14438309,-0.012713554,0.00016565621,0.084698975,-0.04032613,-0.010677829,0.10768201,0.059834376,-0.029591016,-0.025052756,0.02353312,-0.00024177227,-0.0002443418,-0.0040635495,0.07907364,0.16271491,-0.09040221,0.1045979,-0.11457854,-0.08010629,-0.103945434,-0.05645149,0.10255359,-0.09924623,-0.09584306,-0.03590495,0.018326571,0.028158277,-0.06486354,-0.037657652,-0.0057588294,-0.055638276,0.08940935,-0.026205324,0.030720297,-0.022614792,-0.03728243,0.008189518,0.08440765,-0.044173338,0.11749558,-0.008321136,-0.032169353,-0.05794995,0.01882608,0.03274066,0.1257029,0.0373535,-0.0667663,0.054114968,-0.0995201,0.015344083,0.11484445,0.016249511,0.06759412,-0.057957117,0.06397128,-0.07605465,0.04752802,-0.020271584,-0.022368722,0.12439578,-0.14774334,-0.015619107,-0.010782197,0.05151071,-0.0070772986,-0.029372983,0.1278217,-0.18086614,0.023903318,-0.01850937,-0.0046458375,0.0072632395,0.0384252,-0.08991412,0.03895286,0.00027535483,-0.038856875,0.07185077,0.04007637,0.017952077,0.048503213,0.26106873,0.025080048,-0.0025633154,0.011375773,-0.0122986585,-0.0002390109,0.028106045,-0.11905921,0.033430368,0.022480076,0.023248529,0.011592253,0.020178132,-0.058479525,-0.07743809,-0.05080205,0.0030840412,-0.024793074,0.042841073,0.010574866,0.07415106,-0.01577864,-0.064219646,-0.017183134,-0.02399954,0.060969993,-0.09674553,-0.11033031,0.031174548,0.06155635,-0.0103217885,0.0027680798,0.090341866,0.014231172,0.0025720112,-0.062951975,0.07845264,-0.13978308,-0.038094524,-0.039200746,0.023481723,0.003417883,-0.106248796,0.055915464,0.038967997,0.0796135,0.05258421,-0.07880039,-0.12564468,0.028219081,-0.0563684,0.14402579,-0.17428021,0.16424607,0.031675763,0.021498121,0.112273104,-0.04702497,0.06837118,-0.07622096,0.010197767,-0.14670663,0.0061132275,0.115557835,-0.05857675,-0.050511695,-0.043496292,-0.19315673,-0.012087558,0.10777269,0.07013855,-0.050166428,-0.06965229,0.02462042,0.17763649,-0.0051208027,-0.02489258,-0.048323184,-0.04496427,0.03660333,0.0014681853,-0.04392127,0.0154347755,-0.046782907,0.037346527,-0.005450692,-0.08765455,-0.09522531,0.038773507,0.008318126,-0.02827889,0.1191938,0.08307099,-0.021625206,0.05545912,-0.12599447,0.09346166,0.1253239,0.08829883,-0.064377695,0.13903691,-0.08816359,-0.10524046,-0.05511202,0.17102407,-0.0023449212,0.11237302,-0.07789454,-0.065620124,0.025302377,0.036042172,0.09340204,0.0196224,-0.0908192,0.00526499,-0.017606676,0.022697333,0.030670907,-0.05437781,-0.13598059,-0.22055556,0.04248428,0.06729264,0.049952503,-0.11081952,-0.044151697,-0.064062886,0.1665957,-0.15835243,-0.106664635,0.10528892,-0.044235244,-0.050975982,0.019701708,0.15439305,-0.009234849,0.023037773,-0.09333744,0.0034186617,-0.08465953,0.17966273,-0.12419819,-0.06900672,-0.07611482,0.017001728,0.06429475,0.013749737,-0.07147945,0.12340023,0.014928557,-0.03811255,-0.0454654,-0.094380476,-0.03360813,0.043105725,0.006782081,-0.040446825,0.011901673,-0.018557385,0.05369442,-0.0037974194,-0.0868772,-0.012442917,0.080027774,0.03368929,-0.06819149,-0.04021708,0.09047315,-0.028625563,0.016406856,0.11724595,-0.032563742,-0.07498962,0.016254518,-0.04092324,-0.04292368,-0.018493915,0.07791503,-0.025051497,-0.06948157,0.036565337,-0.010361161,0.052394427,-0.04569114,-0.2657268,-0.02344439,0.108238876,0.012670218,0.04004853,-0.18430668,-0.017618224,0.016731404,0.075356975,0.2176566,0.023044761,0.0851207,-0.039489236,-0.08664697,0.08184218,-0.07626393,-0.037102178,-0.035290193,0.09248231,0.09430079,0.071175024,-0.23773366,0.10471592,0.05464041,-0.06776543,0.005646011,-0.0039534615,0.016899519,-0.013420163,0.005657252,-0.18018654,-0.014547689,-0.10256855,-0.006487377,-0.03915949,-0.06999704,0.029332563,0.074146606,0.060749244,-0.015086235,-0.09140238,0.04194615,-0.08966305,0.10813588,-0.22988743,0.014800005,-0.055364452,-0.08209325,-0.011890908,-0.049139094,-0.14862213,0.090411924,0.005305637,-0.08300983,0.102293365,-0.12933987,-0.011015816,-0.040478036,0.012249578,-0.08940373,0.10724754,-0.058910616,-0.008767009,-0.022208042,0.01147126,-0.009084202,0.012942135,0.09557529,0.08257447,-0.053653423,0.020483445,0.07685727,0.025058536,0.017919045,0.002671145,0.03318955,-0.047892593,0.13069996,-0.17591843,-0.045396496,-0.030786604,-0.12727678,-0.08938196,0.0540798,0.08247979,-0.050766453,0.07186988,-0.13504878,0.02232866,-0.02126947,0.052710567,0.17279536,-0.086197436,-0.030552607,0.0817552,0.0025249384,0.007841673,-0.02043627,-0.07660667,0.009810656,0.060208686,-0.01933513,-0.0669419,-0.065796696,-0.03611775,-0.027704567,0.044593535,-0.008792445,-0.038104374,0.009907655,0.05734617,-0.1370061,-0.025461257,-0.08327787,0.021538105,0.0970295,0.009039471,0.052886788,-0.10506495,0.08566053,0.12716241,0.096312426,-0.06091113,0.003043672,0.0064093657,-0.02028247,0.085673,-0.00807669,0.0036091562,-0.0588722,0.01941149,0.042803198,0.08438128,0.06572262,0.09785098,-0.015564047,-0.06927946,0.05814803,0.1289521,0.06104561,-0.075697646,-0.019527428,-0.1350397,0.03245958,-0.122910224,-0.09095875,0.033767257,0.006845195,0.08340318,-0.021365993,-0.012243282,0.10868962,0.04752186,-0.03923827,-0.023009002,-0.018640433,-0.052153327,-0.2144937,0.0820982,0.03904183,0.11485425,0.043523867,0.010080526,0.04240219,-0.062304482,0.15914188,-0.050382417,-0.033763416,-0.013705256,-0.019078992,-0.11412572,-0.069075584,-0.0032322705,0.011953995,0.064155325,-0.036671158,-0.026148379,-0.018151619,-0.04742236,0.063918315,-0.005747795,0.000704892,0.018299762,0.050086558,-0.0094134025,-0.118349746,-0.021095773,-0.17609863,0.026999816,0.077716924,-0.08512239,0.068096794,0.057896648,-0.065370604,0.10551169,-0.15839557,-0.06356011,-0.091992244,-0.023759382,0.057476897,0.05643174,0.10894856,-0.049867604,0.12994602,0.07178351,-0.021080524,0.012620825,-0.013508163,0.054059763,-0.0013250437,0.14108396,0.044291034,-0.037209954,-0.013179235,0.10008366,-0.112547524,0.10955057,0.011262486,-0.031948242,0.080803394,0.0036082119,0.0032268167,-0.034482088,-0.09889051,0.034031387,-0.06317652,0.008769294,0.0007956065,0.011520268,0.14750859,-0.059966363,-0.025773987,0.04319594,-0.046220254,0.0077034542,0.07723076,-0.027984101,0.08321409,-0.061695877,0.1428156,0.10650339,0.049529728,-0.026104107,0.038073935,0.0355417,-0.0413964,0.058446046,0.03190285,0.05336311,0.0081773475,-0.056219317,-0.04549866,-0.022752983,-0.14143994,0.04526987,0.09562986,-0.05942245,0.026431479,-0.037681807,-0.030147,0.02658806,0.042310327,-0.06336798,0.027259553,-0.045999765,-0.081548855,-0.0046509523,0.076227546,0.01212936,-0.013208851,-0.0795073,-0.013914363,-0.112983584,-0.045459535,0.018488538,0.09047068,0.043584112,0.11166515,-0.0990567,-0.15565763,0.0680232,-0.142677,0.031544596,0.055584777,0.071201175,0.03293684,-0.09153106,-0.009717613,-0.014988918,0.09003197,-0.0045437254,-0.0038531162,-0.008031893,-0.09773877,0.0067355596,-0.096879676,-0.14901483,-0.10794159,0.10068036,0.026684681,-0.061046924,-0.0209549,-0.09030089,0.09701784,-0.10834327,0.029672332,0.09434527,0.07954721,0.036512353,-0.05717776,-0.021623822,0.04082403,0.056194663,-0.02162761,-0.18508676,-0.09730761,-0.031763427,0.014030579,-0.05983783,0.022781946,-0.05222388,-0.04107152,0.03182766,0.047829315,-0.0035901777,-0.035913087,0.11386853,0.039548557,0.038576394,-0.061923362,0.04925343,0.08454768,-0.0041496754,0.10559291,0.024699926,-0.087365195,0.08815375,-0.17387973,-0.0034630578,-0.010753922,-0.026132446,0.06925456,-0.08163995,-0.059797235,-0.02308996,0.12940691,0.068609625,0.0031994209,0.14380284,-0.008985586,0.05472364,0.023737438,0.009108112,-0.02723907,-0.050167535,0.06541779,-0.039040986,-0.01464333,-0.038121313,-0.052874733,-0.049474306,-0.020616673,0.078819364,0.015369976,-0.037134536,-0.033246137,0.08185522,0.051531594,0.05052079,0.052595235,-0.022233292,0.025329914,0.016065955,0.06211373,0.055455767,-0.0067269057,0.11117427,-0.10405214,-0.107860856,0.09005409,0.15847848,0.16894037,0.012364842,-0.053488158,0.14307824,0.036377728,-0.016830886,-0.028922446,-0.051082037,-0.08491205,0.04506582,0.12228756,-0.0435886,0.016800663,-0.11512004,-0.047838006,-0.030477745,0.015292884,0.06264652,-0.04193116,-0.19010659,0.0234169,-0.043202624,0.002024645,0.09633718,-0.032321133,0.075448394,0.069051035,0.01207985,0.039543312,-0.104208134,-0.02002094,0.044005465,-0.040718988,0.04495553,0.09292859,-8.414686e-05,0.0034705196,0.018431451,0.06598077,0.060252227,-0.13580842,0.19927216,-0.015933769,0.05228283,0.056859784,-0.020371586,-0.0025525466,0.0016853064,0.07904257,-0.06260299,0.03172891,-0.011414679,-0.06242719,-0.016728891,0.030855343,0.024808193,-0.1756797,0.09378813,-0.10814038,0.055016425,-0.0525519,-0.08796769,-0.010129131,0.026387773,-0.027651353,0.003209129,-0.0069192853,-0.03745645,0.065172486,0.06695973,-0.013892047,-0.035660453,0.044651084,-0.026722908,-0.10661092,-0.018678572,0.030767787,0.040279455,0.111500025,-0.015943687,0.037716143,-0.054430537,0.10067136,-0.08409099,0.01859872,-0.009482164,-0.045132503,0.0704481,0.11148846,0.10264962,-0.08141746,-0.024248194,-0.061152026,0.0048800875,0.07562488,-0.098944634,-0.13206978,0.022291042,-0.103521645,0.033281814,-0.09548182,0.15718508,-0.1688071,-0.020872839,0.03774915,0.031016462,0.15474656,-0.12012322,-0.31549227,0.054134935,0.08630589,-0.13438605,0.14794584,-0.032197606,0.077473685,0.15548582,0.09297371,-0.17904839,0.12713234,0.08776624,-0.19752389,-0.09316625,0.011677876,0.15590794,0.0481948,0.11287881,0.042483374,-0.14134394,-0.042673033,-0.10361621,0.07957918,0.13791858,-0.044046853,-0.06612985,-0.16472588,0.11893867,-0.020501368,-0.08091881,-0.04325032,0.23805384,0.042912412,0.0355849,0.083826944,0.03445179,0.10352653,-0.046885327,0.093155555,-0.24582295,-0.1478234,0.07043048,0.11371838,-0.08268587,-0.044122048,-0.10782405,-0.017857559,0.045182765,-0.057288744,-0.16392273,-0.11004569,-0.011968074,-0.056198135,-0.14450994,0.13271779,0.09644334,0.22793421,-0.09940342,0.08419911,-0.04457771,0.050725043,-0.069481455,-0.040869866,0.15992704,-0.11949388,0.036023453,0.035800785,0.23087591,0.2518671,0.24786308,-0.17161676,-0.1509847,0.022302525,-0.11752444,0.09993811,0.05537134,0.016300606,-0.019607294,0.026503175,-0.0032436699,0.31938908,0.22350265,-0.121813186,0.003929195,0.07156054,0.07870343,-0.025235571,0.012314692,-0.023506824,0.14598402,-0.06673954,-0.034898832,-0.04195705,0.03719075,-0.08363986,0.041406173,0.06481536,-0.1216058,0.05920138,-0.09341434,0.06004487,0.16146164,0.04635184,0.08321882,-0.018262196,-0.020953767,-0.119724356,0.043296535,0.045513332,0.019476794,0.012516124,-0.07974453,0.010945117,0.05476802,0.044171948,-0.006182475,0.011950018,-0.0486454,-0.0010891138,0.0172624,0.027227296,-0.025155798,0.0771651,-0.08011804,-0.10338063,-0.07918966,0.004057696,0.023760974,-0.11061708,0.034770254,0.026865494,-0.11132514,0.000103017315,-0.022032943,-0.05783534,0.077390164,-0.05886464,0.004896476,-0.013481125,0.07558951,-0.1331349,-0.01172895,-0.04696177,0.006814763,-0.12311906,0.036358494,0.030423354,-0.14203595,0.057145286,0.027343586,-0.083789416,-0.13217421,-0.04011643,0.10111309,0.012321264,0.0045021325,0.11134204,-0.06270366,-0.0748808,-0.030562568,0.05192758,-0.043967824,-0.003221117,0.16284704,-0.0048368797,-0.08390015,0.018090948,0.0746404,-0.034926035,0.10687348,-0.01038265,0.03939758,-0.0349103,-0.010944232,-0.07204993,0.016400494,-0.09942483,-0.0362763,0.049641132,-0.10991931,0.05400415,0.0039685583,-0.09746066,-0.03443636,-0.06771005,-0.05040646,-0.07852417,0.0019071996,-0.08006273,-0.1714208,-0.018106736,-0.13575102,0.08025835,0.16028965,-0.09611924,-0.064583264,0.012410812,-0.01437594,-0.010997941,0.005793765,0.02538176,-0.04951605,-0.045756806,0.0034014005,-0.09888359,-0.03336912,0.01598464,-0.025308367,-0.010442318,-0.12331807,0.06306787,-0.04789473,0.010281292,-0.00917311,-0.049593672,0.032792594,-0.02388396,0.055509772,-0.027373511,0.06533063,-0.055740163,-0.039014325,0.024135973,-0.21248221,-0.03507469,-0.051503442,-0.018482037,-0.039066847,0.22187996,0.027125008,-0.0139414165,-0.03671287,0.0028827805,0.029250376,0.018998483,-0.09613842,0.052829154,0.09821801,0.13147102,0.13070838,-0.05672273,0.14549766,0.049551725,-0.042316675,0.045271337,0.11967549,0.00092709437,0.11590089,-0.10150908,0.026910491,-0.0228004,0.0027081557,-0.054484572,-0.058303885,0.023747534,-0.06716564,-0.006593136,0.032986313,-0.028688658,0.045524143,0.050255716,-0.029314063,0.011729315,-0.11942349,0.039290767,-0.024215989,0.01203116,0.16531894,-0.06728733,-0.011848301,0.036304053,0.01234662,0.0572989,0.005691914,0.051208246,-0.08192389,-0.08330801,0.009009346,0.037351623,0.015234329,0.02050541,0.06419789,-0.059045628,0.0006299019,0.06900917,-0.050196968,0.21887094,0.008276498,0.033902045,0.04958617,0.14519116,0.071977645,-0.06958088,-0.10088907,-0.048118524,0.021441836,0.0017927028,0.121579885,0.034343183,-0.02287887,-0.09955494,-0.079398766,-0.0019015223,-0.03150025,-0.06959916,-0.00069746934,-0.021210624,0.00071978197,0.0058357455,-0.109629095,0.026806628,0.017200269,-0.08073389,0.15411669,0.098733,0.020264452,-0.0045485715,0.015724627,-0.021642968,0.040358994,0.020576537,-0.09240243,0.057587136,-0.04438112,-0.074667275,0.05942133,0.060322303,0.009878695,0.20230389,0.080651216,-0.060105447,-0.03821639,0.020207802,0.11385781,-0.039322086,0.0155398995,-0.0025398284,0.080431156,-0.016452452,0.024517,0.057894573,0.066768155,-0.008571167,-0.19560574,0.0031170212,0.022450158,-0.09739368,0.018336797,0.0905944,0.07106237,-0.021147696,0.015096813,-0.15583192,0.15666756,0.080677316,-0.07421194,-0.031596757,-0.025594272,0.029903503,0.13884857,0.11583052,0.03000804,-0.035622813,0.13931777,-0.0148099065,-0.009659313,-0.124771304,-0.06464845,0.011744153,0.044872575,-0.0053929687,-0.018486738,-0.08204673,-0.003942834,0.016412772,0.004197158,0.023650575,0.087461665,-0.0045959167,0.0091086365,0.08081496,-0.011170551,-0.07928176,0.0007509962,-0.05057446,-0.016424708,0.077590756,-0.06268421,-0.059163004,0.0010451637,0.05934278,-0.07188866,-0.009006113,-0.06800691,0.08155452,0.044957023,0.07582499,0.014168806,-0.02890522,0.26375273,-0.030775683,0.0057925163,-0.09718217,0.025580695,0.14661303,0.0076695606,-0.018815681,0.04815736,0.009645972,-0.02504059,0.10675578,0.026645482,-0.09739098,0.007156547,0.022263985,-0.033310786,0.07282753,0.04184237,0.16707043,0.12689173,0.0022254623,-0.15108208,0.0795761,0.0019965544,-0.023153529,-0.0009559281,-0.038068533,0.13449597,-0.013879659,0.009048402,-0.04248684,-0.07463605,0.23220754,0.07239318,-0.021245748,-0.001205124,0.17377374,0.111196145,-0.10072939,0.033905566,0.021603161,0.15092053,-0.039472498,-0.04793979,0.034425072,0.04803031,-0.051614273,-0.028822245,0.06560831,-0.12834893,-0.12014599,-0.036998957,0.050151017,-0.033318236,0.029349219,-0.072790325,-0.08005873,0.021495838,0.01747758,-0.097909555,-0.074777596,0.014238583,0.0633122,-0.042168833,-0.084680334,0.02571343,0.10698748,0.023260772,-0.067706995,-0.089150175,-0.20039187,0.0875736,0.14121026,0.014203452,-0.080887765,0.011570357,0.006930791,0.03510646,-0.036874097,0.05210001,0.03552695,0.016097806,-0.02296326,0.05408107,0.037197534,-0.20957154,0.012259357,-0.026285889,-0.031626076,0.10568188,-0.031545177,-0.05243015,0.078003995,-0.019496068,0.03739338,0.0069526136,0.04290455,0.12744126,-0.050170764,-0.049321666,-0.016851922,-0.025813177,0.061977483,0.037396908,0.0117728105,0.09092144,0.09655877,0.10959357,0.07049699,-0.043179955,0.040461726,0.013204029,-0.021853015,-0.20759705,-0.039816186,0.021380559,-0.041945472,0.0053331554,0.1541837,-0.023527965,-0.02671823,0.022611592,0.0444023,0.03224462,0.102389656,-0.03447883,-0.14924362,-0.09447223,0.012594763,-0.0009731762,-0.015643783,-0.03514395,-0.118533954,-0.09510304,0.054264817,0.12851392,0.06621616,0.04088922,0.0267495,-0.14109333,0.030166954,0.07771293,0.17128429,0.03712128,-0.20304103,0.032195088,0.14028084,0.018583857,-0.08997062,0.15941416,0.111929566,-0.113155425,0.10931366,0.0060879737,0.009192921,-0.035948254,0.01020128,0.15198691,0.062154584,-0.04781501,0.114423946,-0.018759746,-0.18133375,0.09222581,-0.041341472,0.014948881,0.073592484,0.05149134,-0.15917617,-0.15201466,0.027769137,-0.13838218,0.061060026,-0.16587192,0.12102659,-0.05195379,-0.19892885,0.08908633,-0.08932045,-0.03845882,-0.12263716,-0.18980978,-0.008432634,0.049215376,0.01823836,0.08500265,-0.17903253,-0.022536073,0.01914511,0.2014872,-0.15935022,-0.01933644,-0.06048213,-0.0752615,-0.09124382,0.0011098981,-0.036542922,-0.092083424,-0.016246647,0.03351117,-0.034217075,-0.048139025,-0.1023636,-0.050463453,0.1287323,0.047734465,0.13895726,0.074820004,0.076691225,-0.14857163,-0.07828515,-0.06615563,0.077392,0.04760982,0.067147166,0.10613474,-0.27337858,0.068333834,0.08322719,0.17018014,0.022360325,-0.04964637,-0.062746465,-0.036637574,0.12737873,0.030940726,-0.061167445,-0.16105999,-0.08612865,0.14451493,0.005779702,-0.049281195,0.033467192,0.15744887,0.01056322,-0.08841283,0.032765854,-0.08324144,-0.12781918,0.19948949,0.227871,-0.072174,-0.018340707,-0.06873426,0.09095719,0.02429305,0.003564991,-0.021674301,-0.20291847,0.045280747,-0.026659157,-0.071912326,-0.110367216,0.055837993,0.17472082,-0.12215227,-0.07368584,-0.07581174,-0.040861115,0.015382551,0.10647824,-0.019811593,-0.009521782,0.027737685,-0.034361973,0.011742756,0.020415911,-0.08651993,-0.08972913,0.07591189,0.019151611,-0.13929728,0.028175397,-0.019565506,-0.04957775,-0.0064480305,0.096872054,-0.09452122,0.16282482,0.08157302,0.002051577,-0.00024968968,0.011950191,-0.049383827,0.19216523,0.03931828,0.10672726,-0.010295905,-0.020027123,0.030863218,0.028460009,-0.08316825,-0.038950615,0.10851935,0.062232397,0.08299952,0.078661874,0.04950334,0.07007657,0.03066244,0.20812152,0.022696817,0.03329902,0.047462545,0.06581617,0.06907327,0.021053476,0.0075696297,0.0031771958,0.037154663,0.016279781,-0.06582439,-0.12133482,0.06852839,-0.09854355,-0.030861922,-0.023010602,-0.0097804535,-0.043938622,0.05700299,0.15087615,-0.037530936,-0.024950892,-0.0054930747,-0.0014594067,-0.033999313,0.014546147,0.097614564,0.07681486,-0.004871659,-0.089141406,-0.06018079,-0.015962284,-0.040284738,0.041390996,-0.053687803,0.069233365,-0.039138407,0.034426194,0.019758554,0.010565735,-0.029262118,0.01397717,-0.07692643,0.023862094,-0.010863971,-0.0065059955,0.08761682,-0.08125929,-0.05450748,0.07312578,-0.17929362,-0.018751822,-0.012422431,-0.1779355,0.053167067,0.019842086,-0.072394304,0.02048587,0.046977192,0.07774375,-0.06723616,-0.16566502,0.12101117,-0.0866811,0.048404355,-0.008488052,-0.025001742,-0.05736778,0.083787784,0.023296138,-0.09561868,0.04046859,0.016937654,-0.106043056,-0.028701767,-0.1104831,0.054937273,-0.09287839,-0.0026791785,0.016936716,-0.038250826,0.10565242,-0.07551834,0.008602083,0.08972299,0.12604912,-0.0046244944,-0.047971364,-0.012525603,0.050956752,0.08649835,0.03106546,-0.07278087,-0.14980988,-0.038487047,-0.20698144,0.055718698,0.10198228,0.11180437,-0.0061738975,-0.038730178,0.080140725,-0.04662543,-0.12271429,0.05764679,-0.10886696,0.14482804,0.0758739,-0.09281415,0.005494695,0.03712728,0.09275888,0.12175919,0.054010212,0.080419965,0.04372421,0.010052212,0.029706277,0.05854267,0.06431617,0.05333534,0.08392915,-0.055865332,-0.010354251,-0.012178816,0.10093557,-0.012671977,-0.014907958,-0.057378583,0.013862476,0.03734597,0.08546592,-0.056026164,-0.03855182,-0.07905145,-0.09136453,-0.055560872,0.12043293,0.044284236,0.029600497,-0.07570883,-0.05807596,0.033657406,-0.06733761,0.050745867,-0.12265954,-1.2867153e-05,0.009212402,-0.014451671,-0.0011985302,0.08473284,-0.00063857064,-0.0010187626,-0.1062831,0.12191045,-0.082700364,0.11843403,-0.016431134,-0.047239278,0.15124835,-0.06420666,-0.07414287,-0.048736077,0.0023305193,-0.23065348,-0.0073704906,0.12077977,0.009833932,0.070364185,-0.004884254,0.1469798,-0.0004719328,-0.17315692,-0.04903061,0.16223486,-0.008438877,0.041474964,-0.024258595,-0.1118191,0.108040966,-0.013954561,0.0498185,-0.025160354,0.111563236,0.053464387,0.10914669,0.06729179,-0.082603194,0.04154609,0.052672356,-0.13174257,0.017195683,-0.17474355,0.028465798,-0.022160314,-0.088312775,0.026452357,0.0618312,-0.07345145,0.08264409,-0.15046917,0.017642234,0.020315723,-0.009100968,0.17415848,0.04448672,0.10730211,0.0065016374,-0.007417105,-0.17801434,-0.16302702,-0.0430466,-0.0011931285,-0.07537949,0.040460452,-0.017172873,-0.08949332,0.0880865,0.07720374,-0.030091302,0.046055064,0.082117446,0.013501324,0.047741886,-0.15925805,0.09104275,-0.13575526,-0.028392017,0.027773157,-0.007977091,0.052551012,-0.12254196,-0.057041794,0.040130902,0.12592828,0.13452512,-0.03174047,0.24240184,-0.054177526,-0.109266885,-0.041711416,0.0017074319,0.10757694,0.05499494,-0.023987971,0.2105522,0.031904075,-0.038180754,-0.027735721,-0.049993396,-0.047833156,0.103927284,-0.13169508,0.011265457,-0.04002046,0.020185195,-0.037756816,-0.075578764,0.021640696,0.07131089,0.0024745744,0.021852607,0.008009773,-0.0311327,0.06795677,-0.15656038,0.034892377,-0.009701803,0.09590421,0.021072801,0.08078146,-0.039694756,-0.03927406,0.09048932,0.011044992,-0.1823566,-0.007906787,-0.029066226,-0.08767193,0.13743947,-0.12044517,-0.03423895,0.1851391,-0.041010387,0.051066086,-0.15359823,-0.095029496,-0.17712577,-0.020977758,0.074115075,-0.043899186,0.05311689,-0.01229959,0.04906752,0.148207,0.12158067,-0.078548804,0.052406996,0.091593444,-0.033793435,-0.105120495,-0.049101837,0.024396803,0.13718936,0.1231406,-0.047311116,-0.065865226,-0.0027326588,0.023578633,0.018668078,-0.004963763,-0.08540106,0.03873679,-0.046497155,-0.00969499,-0.100647375,0.2914014,-0.23068905,-0.1600444,-0.046138287,0.005841389,0.07464033,-0.020808952,-0.0038858862,0.06794296,0.13351579,0.09976639,0.03654018,0.05516191,0.01728853,-0.021717045,-0.072750226,0.23726106,0.010895526,0.021276787,-0.03861277,0.029167138,-0.011818506,-0.19484754,0.035555985,-0.01223769,0.097174115,-0.09651157,-0.17227808,-0.061606966,-0.1436018,0.1347571,-0.0044708773,-0.010808989,0.045422304,0.01727996,-0.02425109,0.032182373,-0.06010376,-0.08283764,-0.06376385,0.09782571,-0.071253434,0.09382641,0.022353433,0.023275528,0.010281682,0.039091833,0.01438595,-0.030328628,0.013232738,0.067731045,0.020691263,-0.026741251,-0.052283566,0.061246574,-0.13882226,0.08185546,0.07741974,0.044418454,0.28131726,-0.0068327673,-0.22648953,-0.07965787,0.031596567,0.0029605767,0.069928624,0.16509774,-0.0086838715,0.0255825,-0.10839809,0.047794867,0.040647015,-0.04285316,0.017087951,0.0049980544,0.01985579,-0.012514674,-0.06936935,0.005510092,-0.03531051,-0.06407364,-0.057812348,0.005461596,0.040641867,0.034485023,-0.028991122,-0.019388404,-0.06937999,-0.012341186,-0.06161845,0.005937131,0.004666552,-0.023886217,0.14332265,-0.15899305,0.17172596,0.05017755,0.035711132,-0.04965216,-0.00852482,-0.048834074,-0.036984786,-0.015565339,-0.026206255,0.094106235,0.06971762,0.020464392,-0.011394046,0.017277198,0.09630527,-0.006973669,-0.039134778,-0.044265006,0.032150526,-0.03778044,0.09339027,0.06725074,-0.04543802,-0.016417865,-0.008237097,-0.15210362,0.09454126,0.0991659,0.050855182,-0.048130512,0.031112853,-0.11551806,-0.014984958,0.14225683,0.025372084,0.0057195053,0.10900493,-0.109561116,-0.052241005,-0.057613358,0.07996663,-0.030367576,0.04488278,0.05665313,0.07640796,0.10045929,0.08116715,0.04935989,-0.06480315,-0.085201934,-0.0029824749,0.011286616,0.008714236,-0.09166917,0.10081925,0.03612977,0.09075935,-0.11582061,0.024795601,-0.006101072,-0.08081665,-0.11711104,0.018388622,0.0699455,-0.018204495,-0.09264648,0.12719852,-0.018343747,0.033512924,0.053337432,-0.048719957,-0.07857716,-0.034574516,-0.09611912,-0.04076049,-0.05486443,-0.05496413,0.028060418,-0.047701042,0.17305748,-0.007990308,0.021939967,0.05226411,-0.11028974,0.2275992,-0.09270114,-0.032700405,0.01593437,0.021378823,0.018803634,-0.024006534,0.12487699,-0.06764303,-0.10047565,0.060849108,0.0117482245,-0.10698228,-0.12104664,0.010933511,-0.035950273,0.033647247,0.0061696693,-0.016021278,0.094300866,-0.005574893,-0.118842706,0.08849094,-0.16235551,0.16548418,0.04891613,-0.01471863,0.0656486,0.08879014,0.1567969,-0.12760413,0.10682638,0.052153528,0.067217626,0.015671551,0.011626968,0.024288082,-0.03463225,-0.08489177,-0.019735985,-0.09367049,0.047819175,-0.018187447,-0.07877164,0.0623753,-0.028103612,0.09578298,-0.13375472,-0.07265447,-0.034852512,-0.112375736,-0.045423135,-0.13749434,-0.02602648,-0.0020040297,0.00088902935,0.009361371,0.11981906,0.02822197,-0.052057583,-0.072564736,-0.10274405,-0.08213496,-0.046033956,0.11518357,-0.12101433,-0.13752826,-0.016642831,0.032049663,0.23290041,-0.025001682,-0.018596195,0.1231363,-0.057776533,-0.03374012,0.08364677,-0.16749233,0.07367652,0.13145444,0.1400868,0.008478887,0.0696413,0.14346744,-0.080675855,-0.12884063,0.12029134,0.091100425,-0.22560032,0.081523225,0.09555979,0.069657266,-0.01769127,-0.060623266,0.06928561,-0.05493661,0.014894392,0.19890425,0.12648095,-0.054710686,0.04179429,-0.15553886,0.12111929,0.0036972612,-0.10283955,0.0072270073,-0.0774662,-0.07396916,0.12404345,0.05234707,0.02724664,0.009694777,0.046195485,-0.041259035,0.018902238,0.0014390647,0.00158545,0.049750682,0.11271031,-0.051907852,-0.025738783,-0.026128262,-0.01323235,-0.02795333,-0.034436405,0.01284495,0.033792324,-0.034776047,0.0021379888,-0.09695921,0.06159886,-0.025582412,0.12771115,-0.024672072,-0.17772965,-0.0019179508,0.06172844,-0.02372694,-0.047115106,0.026997212,0.017417561,0.110463694,-0.023530252,0.08077292,0.010533195,0.0326238,0.04188598,0.058341257,-0.020458672,-0.124628484,-0.11280245,-0.027544402,0.04958693,-0.03263435,0.092614874,-0.016827185,0.14485429,-0.025550202,-0.11180004,0.021202479,-0.014942735,0.11501633,-0.045466483,-0.11959316,0.03638494,-0.08107665,-0.12423609,-0.057664923,-0.0025744066,-0.05821193,0.06728332,-0.03894472,-0.17757225,-0.077383414,0.0014021359,0.14803126,0.10042264,0.10042681,-0.04590425,-0.122503206,0.03533155,-0.049387097,0.045034356,0.023429587,0.039169326,0.07679064,0.040094703,0.10997683,-0.08300127,-0.13028581,0.009990379,0.062042844,-0.046452623,0.07466325,-0.051702417,-0.04679726,0.0066803917,0.019368827,0.05658219,-0.022508169,0.03313371,-0.04268252,0.012146406,-0.04265678,0.1465193,0.11416308,0.021735448,-0.079127714,0.033913963,0.09419007,0.011647426,-0.08067449,-0.041318223,0.07669141,-0.012551211,-0.09720679,-0.016772052,0.019242704,0.014179373,-0.0060602333,0.11109647,0.011329848,0.13584517,-0.026443826,0.021322131,0.027122471,-0.027235894,-0.00875181,-0.05805758,-0.028988563,0.108710356,0.09985603,-0.123470426,-0.01614853,-0.047580823,-0.013674824,0.012389646,-0.012744222,0.12001939,0.02327888,-0.058848165,-0.015476495,-0.0043738205,0.11765669,-0.13496178,0.07312066,0.12648667,-0.16739616,-0.040524863,-0.06547644,-0.075090446,-0.022717603,-0.15728557,0.013216369,0.13843998,0.1628864,0.022735082,-0.046763107,-0.114145994,0.060839392,-0.0023674835,-0.016608877,-0.002650857,0.020162694,-0.0883513,-0.09567746,-0.035876058,-0.044214737,-0.03556661,-0.01298482,-0.10280031,-0.07067242,0.07903325,0.06930846,0.103225864,-0.060797237,0.06609167,0.012465756,-0.12968847,-0.0420392,-0.06659079,0.059129372,-0.034886416,0.04927991,-0.042992227,0.10799341,-0.0632832,0.06543962,-0.11146538,0.3005213,0.01711139,0.00047127903,-0.12550242,-0.019148864,0.0141213685,-0.070078805,0.08004272,0.06293597,-0.034757085,0.101813495,0.12893024,-0.115800135,0.030676592,0.0062857345,-0.07390447,-0.21559149,0.03517882,0.13657367,0.024723891,0.14404303,0.11062534,-0.029763006,0.068162635,0.056396242,-0.08643201,-0.019728793,-0.012064129,0.06362915,-0.0056672394,-0.051690686,-0.071220815,0.14980647,0.013696291,-0.32120404,-0.1047194,-0.011120565,0.07285734,0.006147827,-0.0045291632,-0.0026135482,-0.03974197,-0.07705426,0.215512,-0.022050649,0.042197973,0.07463722,0.04641939,0.022452243,0.053955957,-0.096918374,0.037353065,-0.08841231,-0.019792423,0.07275086,0.12252013,0.09521877,-0.004184679,0.12329166,0.013112389,0.046194408,0.041019615,0.011897037,0.07308768,-0.05652998,-0.016711239,-0.057892818,0.09732577,0.019746456,-0.19153379,-0.08703237,0.009520058,-0.25047567,-0.00048133917,-0.072078414,0.029389929,-0.063398644,0.044268392,-0.009810444,-0.021720136,0.04128947,-0.008122303,-0.078199826,0.021784782,-0.017320191,0.06981763,0.033170015,-0.073147655,-0.076686144,0.06391547,0.06359345,-0.02951996,-0.111072704,-0.048833504,0.0876727,-0.011540573,0.020899422,-0.021746911,-0.057300135,0.031435225,-0.066791266,-0.03642689,0.07982011,0.036161352,0.03011746,-0.01962023,0.015166499,-0.016961813,-0.027789198,0.0918837,0.044437855,-0.029426832,0.0036576465,-0.075636454,0.056950964,0.035972264,-0.036944676,-0.037050173,-0.02457209,0.060580388,0.008953355,-0.017840944,0.109421015,-0.12170938,-0.02926858,0.0355825,0.025412738,0.111239344,-0.024419501,-0.020013431,-0.059886407,0.06788195,-0.077160746,0.039635792,-0.05806765,-0.17348087,0.053666897,-0.1425612,-0.077549554,0.0042033847,0.055545267,0.06939561,-0.022226762,-0.067147106,0.0301198,0.05408783,-0.04792957,0.0007439522,-0.02799269,0.021598063,0.06985396,0.02736057,0.10559757,0.07179725,-0.101322964,0.19777496,-0.022346633,-0.123130985,-0.058376264,0.003626626,0.15421918,-0.078178614,-0.079720914,0.0654198,0.011772487,-0.078190416,0.02546062,-0.017330563,0.07635483,0.07675231,0.06824048,0.04591473,-0.055296227,-0.0046082996,-0.068845816,-0.15470532,-0.099354014,0.0029907022,-0.0065683136,0.1148074,-0.086634494,0.024629511,0.015167832,-0.010992163,0.16164628,0.08390514,-0.12906328,-0.093033545,-0.022850746,-0.021315217,-0.0037027597,-0.062160924,-0.082373165,0.09159031,-0.014057767,0.026659807,0.087413535,0.058890298,0.069513194,0.13575272,0.039360873,-0.18365416,0.0973241,0.03973584,-0.15784305,-0.23566124,0.01734177,-0.08811864,0.017535971,-0.056081027,0.034244493,-0.013553921,-0.008072443,0.13946123,0.11593032,-0.13830043,0.0077822655,0.030234504,-0.11114623,-0.019633444,0.14217795,0.0016409624,-0.015520323,0.099124596,-0.024668768,0.04229345,0.10154727,-0.060993873,0.15535505,-0.07398861,-0.040006045,-0.026890136,0.032888267,-0.02536989,-0.123061694,-0.097039066,0.0765073,-0.04712373,-0.015756005,-0.014521316,0.026403867,0.016663367,0.011675848,-0.040433556,-0.04803341,-0.0038238354,0.040957235,0.09730281,-0.09938673,0.05187021,-0.088530004,-0.0054149227,-0.018095165,-0.13956045,0.032367185,0.08144316,0.0012791716,0.07533216,0.022694245,-0.10143931,0.0060247406,0.0060246214,0.031446077,0.13054672,0.113239035,0.009194966,0.22476463,-0.11817645,0.059304368,0.029275643,-0.043273553,0.21718574,-0.13811576,-0.17995854,0.037314735,-0.024488434,0.049927615,0.214226,0.062742,0.10612741,0.0052787475,0.07967824,-0.14152494,-0.002452463,-0.010095125,0.09289861,0.05115985,-0.053704493,-0.0030072778,0.17174567,0.017248936,-0.025812007,0.0015651733,-0.042787444,-0.007692229,-0.13959733,0.1513711,-0.24277072,-0.078403436,-0.17584425,-0.13709883,-0.039115954,-0.094283834,0.016971346,0.017663673,-0.026052652,0.12859821,0.1489886,0.061473705,0.060033094,0.1770818,-0.036365457,-0.093857996,-0.08376131,-0.032480355,0.006990164,-0.06321141,-0.10144286,-0.03376977,-0.1145208,-0.29620224,-0.053856537,0.075757,-0.09625435,-0.015039663,0.087283224,0.035765987,0.035864692,0.075024806,0.0015543625,-0.05277119,0.041351207,0.17718269,-0.06285712,-0.15280211,-0.056700643,-0.015822917,-0.2685155,0.04303679,0.07160358,-0.078452535,0.07161253,0.005208742,0.047352612,0.0463356,-0.13324156,0.0023934096,0.077813596,-0.006230466,-0.068178505,-0.02140873,0.010675341,-0.010162547,-0.15035112,0.10717026,-0.0044868514,0.002650939,0.088587224,0.19780488,0.16130377,0.07467951,0.06498699,-0.010918851,-0.049426787,0.01566907,0.054856762,-0.021568438,-0.002778381,0.022475816,-0.052047323,-0.14304021,-0.11485563,0.102173164,0.1674946,-0.005596675,0.09439344,-0.11092405,0.10170599,-0.1575717,-0.14863874,-0.08995726,0.07141272,-0.10227457,0.0561215,0.013703562,0.013576938,-0.15165654,0.061657682,0.04266945,0.105584085,-0.14202827,-0.089390144,-0.037935924,0.054656927,-0.20704949,0.04283699,-0.1866862,0.0595067,0.04143441,0.090797566,-0.08285372,0.024443902,0.021730267,-0.04908122,0.007176213,0.01579675,-0.077513486,-0.014877629,-0.037338115,0.04559066,-0.049673826,0.08736997,-0.12420467,-0.015463792,0.0822704,-0.06641969,0.039204918,-0.04035733,-0.15857701,0.13326013,-0.019112267,-0.067099534,-0.023320157,0.10738721,-0.10433952,-0.008498287,0.051006608,0.002296227,0.014307436,0.08186494,-0.17369285,0.0049552857,-0.038018256,-0.0026262067,0.07775394,0.08080385,0.0273446,0.00947115,-0.11053374,-0.06620597,-0.012573892,-0.05114671,-0.13432992,0.04733044,-0.031960446,0.09268546,0.12784402,-0.12872918,0.06454539,0.025388524,0.046990603,0.08929018,0.07128954,0.14517486,-0.019722259,-0.03466278,0.10599821,-0.05652096,-0.02138746,-0.03619635,0.061544027,-0.031408586,0.06467448,-0.007878769,-0.049677864,0.09439848,-0.09405309,-0.07358064,0.15114819,-0.10001917,-0.005739702,0.046631217,-0.06845605,-0.11886184,-0.03224443,-0.21453631,-0.043435235,0.031662732,0.05110699,0.048801262,-0.05845649,-0.021905988,-0.019650266,0.13418366,0.12698627,-0.12248411,-0.1684373,0.08146686,-0.014547549,0.080999404,-0.04353057,-0.052069973,0.047753684,-0.06500352,-0.001749076,-0.11097397,0.13836722,-0.11137773,0.1521939,-0.04504848,0.12464777,-0.050285723,0.03605503,0.003962431,0.21194217,-0.0027993969,-0.0007870272,-0.09247467,-0.008692138,-0.061080493,0.0016370527,0.228187,-0.11476892,0.10351682,-0.024979297,-0.035543945,-0.066992894,-0.034741078,0.051123917,-0.09246128,-0.03184621,0.13613011,0.06901871,-0.04981199,0.054746818,0.062316123,0.0016373503,0.009933232,0.045546133,-0.076689035,-0.020849802,0.009955155,-0.092616804,-0.08710587,0.12798369,0.041999035,0.019907542,0.017717604,0.11191083,0.012383318,-0.061005596,-0.08372841,-0.013247425,0.019956253,-0.09265053,0.013186902,-0.014105149,-0.041963037,0.013629836,-0.04418088,-0.045739904,-0.031809166,0.0859621,0.0039160326,-0.12842336,-0.05850949,-0.109371826,0.08911533,0.07784155,-0.073431425,0.035660338,-0.05722736,-0.0074002687,-0.075773,-0.06504134,0.091978006,0.09959122,0.038928792,-0.043588556,-0.06992392,0.012393843,0.015599598,-0.05338037,0.0756316,-0.022309508,0.1053075,0.07140838,-0.07991957,-0.035824988,-0.07431531,0.0006709192,-0.07751788,-0.03985565,-0.0037422478,-0.020908512,-0.037487116,0.048229627,0.0052761473,0.00607053,0.0034953766,-0.07390487,-0.019211307,-0.060140315,-0.011016518,0.028406672,-0.09145473,0.07143428,0.0280183,0.0672233,0.06846562,0.12105502,-0.0843581,-0.029216312,0.04714434,0.01617989,0.038915057,-0.068686634,-0.12341826,0.10726447,0.0712678,-0.0044533284,-0.05825479,-0.071511656,-0.015657917,0.039421044,-0.042807143,0.04442303,-0.030409826,0.1518548,0.0591178,0.054084286,-0.004336953,-0.05432118,0.09392251,-0.06669955,0.007893622,-0.076119155,-0.018090323,-0.08998296,0.08890957,0.05404889,0.054014094,-0.017586514,-0.02468172,0.08168679,-0.024978856,0.012488082,0.04477258,-0.005104933,0.12935963,0.03905285,-0.093699515,-0.13838404,-0.13220994,0.005215116,0.04384862,-0.078963995,-0.046788696,0.057260707,-0.18184212,0.18812905,-0.10687342,9.4059855e-05,-0.119270295,-0.12768607,-0.10459368,-0.006024001,-0.059614107,-0.04024745,-0.050354145,-0.061992303,-0.047482245,0.061962962,-0.006368071,-0.008210406,-0.0068373512,-0.030584197,-0.110195205,-0.005526498,-0.019746218,0.027614746,0.16822995,-0.05449956,-0.021804564,-0.04124262,-0.012104847,0.044173878,-0.002567917,-0.12493278,0.10393807,0.17950052,0.058205716,-0.07908028,-0.04036963,-0.045129165,0.021304892,0.051882755,0.026356652,-0.19867031,-0.02787619,-0.20871109,0.051199745,0.04527068,-0.03302076,0.07619686,-0.03378057,0.0108872615,0.039537743,-0.114905715,-0.14436759,0.03353759,-0.029289706,-0.09476873,0.13356936,0.054886624,0.0013073627,0.16073433,-0.1932243,-0.015903935,0.1769908,0.04764451,0.037309386,-0.067158066,-0.035875347,0.05118862,-0.02186296,0.0716535,0.019861963,0.04255645,0.009593964,0.02601936,-0.23321337,0.12515335,-0.004387878,-0.11799806,-0.0028034747,-0.082451135,0.040960267,0.0363079,-0.029264227,-0.042799044,0.1329664,0.0156171005,0.019809457,0.049817264,0.053008594,-0.061576445,-0.0063238936,0.09919387,-0.0738821,0.05897805,-0.025278943,0.040773913,-0.08571816,0.0038928129,0.04191178,0.21923208,0.065763846,0.025298834,0.03230121,-0.07857961,-0.10465056,0.08268181,-0.042263158,0.011021586,-0.13328837,-0.06868511,0.07437676,-0.08812543,0.012501463,-0.074416846,0.02438363,0.09070384,0.0490906,0.04419604,0.08516276,-0.069569565,-0.08022705,-0.13126005,-0.0113488175,-0.025023162,-0.012888549,-0.034653082,0.1364642,-0.07395612,-0.018210232,-0.02192172,-0.062344637,-0.026299536,0.040797494,-0.045002095,-0.016222768,0.021617927,0.02102803,0.001136445,-0.022722628,-0.10915515,0.03035985,-0.025766283,-0.044346184,0.09805298,-0.055650346,-0.03129659,-0.08487709,-0.02089632,-0.115578756,-0.011445247,0.14263195,0.026733957,0.025495604,-0.08508214,-0.16254129,-0.12273647,-0.058108002,-0.04124762,-0.06286076,0.05788628,0.05334699,0.1311361,-0.1855171,0.08800648,0.020261094,-0.09636132,0.05762239,0.0636221,-0.02685031,0.005265965,-0.035398833,-0.10080537,0.11453342,-0.048079394,-0.02524598,0.27891657,0.08597111,0.14211491,0.054208588,-0.13064559,-0.08735151,0.042885117,0.019413684,0.12901495,0.03449701,0.07409174,0.015624918,-0.035502873,0.04150218,0.0075921826,0.10028813,-0.06499959,0.10466871,0.020490417,0.07211339,0.09121471,-0.053477462,0.038962975,-0.025122188,-0.013714949,0.00064113736,-0.059794202,0.22697675,-0.054739345,-0.005053684,0.15361401,0.003773173,-0.08542827,-0.04377434,0.04461168,0.09925586,-0.038993426,0.012661569,-0.039507195,-0.018096922,-0.015666999,-0.10798484,0.021636702,0.09688873,-0.041059054,-0.09038745,0.025292546,-0.10107648,0.16969009,0.033857852,0.20176941,-0.07291216,-0.03806814,0.020998921,0.07528217,-0.018797893,-0.074519694,-0.060364097,-0.14246836,-0.018849434,0.06033753,0.0412904,0.06436679,-0.009382144,-0.08683565,0.042995583,0.060410053,-0.082074456,-0.02728183,0.14120932,0.035970807,-0.057269517,0.021462612,-0.016958607,0.015457727,0.01637135,0.0065642744,0.058174286,0.13613795,-0.016956117,-0.05438239,0.0010638982,-0.091056846,-0.021692708,0.05717486,-0.008039847,-0.05978237,-0.080649,0.07492326,-0.037124757,-0.096939184,-0.024654299,-0.07848237,0.017177032,-0.09015474,-0.029947532,-0.048342153,-0.15025708,0.03905715,-0.0012488663,0.046284564,0.03426361,0.033990245,-0.08000873,0.09965575,-0.008391325,0.033624467,-0.036582705,-0.14336264,0.030309694,-0.03437376,-0.02378031,-0.17026433,0.055015393,0.016312607,-0.113387376,-0.08117592,-0.03516627,0.0018180422,0.05496858,0.00238954,0.056293264,-0.062940806,-0.060103137,-0.040241666,-0.035028156,-0.084631026,0.0057163537,-0.027393077,-0.05811454,-0.07401191,-0.09000757,0.033114847,-0.04572973,0.027791139,0.0047481284,-0.075504184,0.028410561,-0.073114604,-0.046545822,0.0801838,-0.058615662,-0.029694896,-0.042923868,0.045412943,-0.051119428,-0.052753314,0.0020259935,-0.017022729,-0.11315,0.0399802,0.04055658,0.0117286965,0.04211966,-0.015334733,0.16069137,0.1392686,-0.062273294,0.01590458,0.13736616,0.02288846,0.05640354,-0.11152053,-0.096516944,0.04228188,-0.028189644,0.060830258,0.029891275,0.05001397,0.041369006,-0.10773657,-0.12933211,0.080009684,-0.14543778,0.13306127,-0.04456027,-0.12200955,-0.052033924,0.07535828,-0.026443174,-0.02758724,-0.0053330697,0.020810153,-0.058954783,-0.15272066,-0.058143612,-0.043466646,0.065252475,0.1581538,0.042301923,-0.004124689,-0.02421663,0.0052263327,0.0648127,0.07214971,-0.17089033,0.078183234,0.04360286,0.13317701,-0.005668506,-0.081970885,-0.009851217,0.089632146,0.112317115,-0.013646059,0.15691802,-0.053940408,-0.08492445,0.0041128173,-0.14075875,-0.12809697,-0.038234755,0.040485937,0.017500669,0.001346305,0.036647364,0.10777573,-0.15323156,-0.018600281,-0.027391583,0.017215058,-0.025716417,0.006870635,-0.005943086,-0.0030115023,0.13502818,0.0025114715,-0.023903677,-0.02717845,-0.04690899,-0.032048535,-0.06891208,-0.041323736,-0.06142885,-0.070172004,-0.115718365,0.02164096,-0.08142364,0.13275264,-0.025118524,-0.112620786,0.0034861956,-0.020775316,-0.05154413,-0.04592611,0.018157646,-0.011961039,-0.034096833,-0.09962489,0.117398925,-0.012957022,0.14207661,-0.10090197,0.14330885,0.10376825,0.008919001,0.09789305,0.033470444,0.023730606,0.047055937,-0.013686918,0.115322426,0.0573665,-0.05646736,-0.004163444,0.024092935,-0.0728643,0.078406915,0.011814438,0.034081392,0.08189897,-0.048810016,-0.00076784194,-0.036515106,-0.0047486927,0.10246451,-0.115100145,-0.017784405,-0.07835461,-0.04128677,0.013997331,-0.13022923,0.0273352,-0.015513156,-0.059723172,-0.122015506,0.058824085,-0.018448576,0.12273447,0.0058220997,-0.08587411,0.100298256,0.043248117,-0.10638381,0.041264698,-0.18875116,0.036562383,0.07657693,-0.0044582337,0.005522579,-0.048575446,0.04678295,-0.07235877,0.07324475,-0.23754358,0.08373135,0.0231912,-0.12250955,0.02880326,0.038821302,0.04508256,-0.085732155,-0.00066455454,-0.024455404,-0.023798058,-0.06953049,-0.0059391707,0.07890773,0.017808795,-0.032304417,0.15659718,0.20279886,0.044138137,-0.009631652,-0.08866119,0.038521048,-0.01941408,0.06948805,0.07623213,0.047933333,0.0019101799,-0.06691612,0.021954399,0.011292844,0.1542676,-0.028781377,0.10185286,-0.055628713,0.058652133,0.021557108,0.017158382,-0.00042120367,0.105549864,-0.112082295,0.086208954,-0.055461623,0.15601763,-0.1383655,0.08348324,-0.02793054,0.04637009,-0.047094114,-0.074449115,-0.11584455,0.08389906,-0.04726667,-0.11835155,-0.014099356,-0.070428014,0.010733843,-0.14956762,0.007322954,-0.045348525,-0.07471206,-0.061405808,0.027470931,-0.045852117,0.13093907,-0.039126165,0.039142236,-0.007097235,-0.123506784,-0.022590417,0.00399217,-0.04470484,-0.005870536,0.059004493,0.084152095,-0.118387796,0.13900274,-0.09052268,0.11607592,0.054176494,-0.090740144,-0.07388825,0.06729143,-0.18591772,0.04409653,-0.018024761,-0.0208961,0.02170794,-0.007534303,-0.122794025,-0.15786855,0.049959786,-0.06951249,0.010402828,0.0049334588,0.0761403,-0.077303186,-0.003337562,0.095007405,0.08614361,0.10881376,0.05561252,-0.09481892,0.085032254,0.006675586,0.044916175,-0.033342462,-0.07537735,0.10035879,-0.062338307,-0.1347125,-0.11908259,0.0049330965,-0.15573215,-0.012549986,0.0070564263,-0.021096755,-0.11998316,-0.09276597,0.10303056,0.03959755,0.037855607,0.009307429,-0.030534104,-0.036585648,-0.049603313,0.06538939,-0.015198896,0.07935298,-0.0018528472,0.09033288,-0.060028892,0.21493816,-0.024154663,-0.038555916,-0.13175572,0.092314795,-0.059110545,0.033342563,-0.05518447,0.02094201,0.10960008,0.04336019,0.1373815,-0.0327943,0.16722964,-0.008908728,0.09950644,-0.005032584,0.110110685,-0.010558672,-0.0015453771,0.10011104,-0.029141972,-0.010618802,-0.005903989,-0.0784074,-0.12101421,0.094933026,-0.0052025244,-0.011330383,0.014866952,0.044950947,-0.07160404,-0.03647873,-0.017046344,-0.003935881,-0.018264702,0.036661595,0.07155753,-0.044100933,-0.08779545,-0.014844414,-0.04607708,-0.084858395,0.0068748742,0.019090088,0.037744224,0.0022285618,-0.094707206,0.12837599,0.11177787,0.02825436,0.017549042,-0.024428956,0.24934027,-0.087773785,0.056317303,-0.11597793,-0.015421033,-0.1357977,-0.031074,-0.05530241,-0.02486946,0.06890988,0.031037752,0.20009284,-0.04438078,-0.048384678,0.0024640597,0.022136156,0.1670453,0.024519049,0.052757777,-0.029903963,-0.091797575,0.09999079,-0.13422887,-0.04140521,0.14186245,0.069548346,0.109584026,-0.00024975836,-0.09525417,-0.032476828,0.045235183,-0.026295103,-0.006726593,-0.15655412,0.07846338,-0.0103877485,-0.004231846,-0.20363069,0.05737556,-0.045684196,0.01762576,-0.14769685,-0.03343198,-0.024431463,0.037806824,-0.008701764,-0.03351882,0.1443683,0.043761663,0.1833092,-0.059602708,0.0047433716,0.02316682,0.057819635,-0.17827673,-0.08212892,0.021091277,-0.0422656,0.11804285,-0.067564845,-0.023095043,0.038170308,0.095216826,0.07060535,-0.07694584,-0.08809771,-0.0818439,0.16055009,-0.077157214,0.037040815,-0.042455107,-0.011459617,0.05232088,-0.06280213,0.025397867,0.040140722,-0.03445211,0.08106698,-0.06063156,-0.029250108,0.0081490725,-0.062480368,0.1211697,0.033293344,-0.024524357,0.079066396,-0.029451106,0.05430968,-0.057175815,-0.061149057,0.02624933,0.042878322,-0.045329608,0.05713335,0.10706976,0.10168033,-0.21145453,-0.07247863,-0.17333567,-0.1132686,-0.0014080834,0.024279013,-0.004182555,-0.008541547,0.07698585,0.036864568,0.068863615,-0.019057037,0.053601924,-0.013975766,0.04856932,0.012160681,0.020096961,0.06360769,0.04618411,0.076663956,-0.04755897,-0.116029814,-0.05800098,0.037264295,0.112506874,0.090557516,0.117176704,-0.0434487,0.046991866,-0.107660316,0.03411059,-0.07540634,0.06921985,-0.0106265135,0.06634253,0.079526454,0.097419515,0.14372253,-0.06516653,0.0585778,0.006470863,-0.17710346,0.015005372,0.12592323,-0.103995346,0.11839974,0.21478134,0.029152483,-0.062299393,0.07876591,-0.091684096,-0.015303178,-0.057024576,-0.085315734,-0.015330948,-0.054280337,0.0014377981,0.030782083,0.00040371716,-0.10690067,-0.02223207,-0.019942537,-0.06871757,-0.10093074,0.0028005615,0.108207166,-0.0060896203,-0.105165094,-0.060849354,-0.10439148,-0.06052159,0.017093455,0.11743987,0.17429565,-0.07854515,0.042693797,-0.04398603,-0.036648557,0.16975568,-0.036531482,0.056448996,0.15657681,-0.15354617,-0.07323225,0.09907891,0.09882516,0.043890145,0.05061934,-0.13870023,0.04002617,0.03442058,-0.104428254,0.16645035,-0.18163557,0.07170773,0.100734346,0.020849302,0.07686895,-0.122867316,-0.1899807,0.0063857436,-0.0031831637,-0.033118434,0.08386791,-0.095541954,-0.029280491,0.028946854,-0.03407122,0.030276693,-0.10983343,-0.042555206,-0.0030438155,-0.022352893,0.038278706,-0.08977343,-0.0654632,-0.07251823,-0.08563089,0.015631378,0.039993882,0.08556606,-0.010087585,0.04934261,-0.019868525,-0.01195655,0.03314636,0.029960796,0.043334115,-0.056950033,0.08499437,-0.06745912,0.042410936,0.07665363,0.07165919,-0.007972639,-0.009552612,-0.06221662,-0.02016931,0.11005685,-0.0047414135,0.031304955,-0.030442506,0.03522092,0.05786776,0.02379483,-0.040175587,-0.12813002,-0.019811422,-0.13080429,-0.029028676,0.18932259,0.005168506,0.118474625,0.04018759,0.14676812,-0.11202979,0.0020194044,-0.10608443,-0.010902684,-0.10401237,-0.03840666,-0.026120739,-0.08132093,-0.03292795,-0.013806507,-0.09969078,0.049039386,0.021775808,-0.030574504,-0.0012318604,0.021340199,0.04665225,0.124707505,0.027777566,-0.0038258582,0.01178119,-0.032540325,-0.040363863,0.20967978,-0.11765406,-0.120527,0.044948384,0.10085732,0.08805592,0.02256855,0.061909854,0.09704818,0.060410377,-0.013919097,-0.01299855,-0.022734445,0.06467642,0.040064443,0.05803898,-0.14438209,0.019600444,0.11118805,-0.024465047,0.019650457,-0.09625479,0.058561917,0.118407354,0.020654818,0.047859486,-0.0029366612,0.11559836,-0.0880586,0.006649132,-0.0788222,-0.010879144,0.12211308,-0.008371048,0.08667634,-0.03271907,-0.11432256,0.040227592,-0.083749115,0.00957118,0.009873897,0.08319648,0.015882831,-0.0044026747,0.17766732,-0.05542691,0.012768574,-0.09356581,-0.0737711,0.03586136,0.11661581,-0.059176404,0.09687717,0.10113431,-0.012781762,-0.07846001,0.0202717,0.006590441,0.17493628,-0.014833953,0.14500405,-0.05578327,-0.00864546,-0.03442345,0.08373182,-0.06777918,-0.021619698,0.025755089,0.031190557,0.0062343394,0.06517644,-0.00076788664,0.108753204,-0.06537065,-0.052591015,-0.051025234,-0.15073769,0.07992062,0.09622524,-0.13336785,-0.00018584728,-0.015193072,0.04986808,-0.12398364,-0.025640214,-0.048374966,-0.18625826,0.022300657,0.017742768,-0.0031944625,-0.15835966,0.04552846,-0.03574878,-0.018942637,0.010033621,-0.033551738,-0.025348477,0.046798907,-0.039074857,-0.09703427,-0.088946834,-0.023759663,0.062565796,0.06765438,0.019918092,-0.057294276,0.07952214,-0.06207009,0.031379346,0.0063635707,0.08017781,-0.004067626,-0.0813676,-0.14007191,0.045530643,-0.008265665,0.019887876,0.046389308,0.12520283,0.051099658,0.054326054,-0.03723415,0.104091436,-0.00636502,-0.1036971,0.06883759,-0.056681417,-0.016479474,0.0035769027,0.05729279,-0.033221647,0.03409846,-0.095138736,-0.044898354,0.018944206,-0.041787744,-0.15270047,-0.039935682,0.031569313,0.010333512,0.059920974,0.0060943067,0.06602537,-0.10485645,-0.003778655,-0.024337765,0.04627233,0.061386053,-0.048782244,0.02257283,0.08441455,0.07955109,0.08206971,0.011500038,-0.008155197,0.1343635,-0.056923643,0.02477448,0.010123648,-0.008804467,-0.058886684,0.052697554,0.00053277984,0.006413216,-0.05792162,0.008724887,-0.028148137,-0.038950726,-0.11283562,0.021432282,0.025858182,-0.016185265,0.18855289,0.04807329,0.02463532,0.013354979,0.077681884,-0.043353394,0.09520539,-0.12284911,0.027979862,-0.03759996,0.10882783,0.021495992,0.021644503,0.01617916,-0.111501016,-0.09557077,0.025407607,-0.054588437,-0.017023021,-0.022331893,0.066927224,0.055329915,0.07894683,0.060027167,-0.07332145,0.09875975,-0.043890357,0.017240338,0.0019795075,-0.029019803,-0.053448506,-0.013006698,0.03370998,-0.03283424,-0.013156631,0.11472685,-0.106663376,0.07196617,0.17372358,-0.15049212,-0.116122834,-0.08894874,-0.03293197,-0.0467204,0.0055253357,-0.061504327,-0.025762772,-0.10480138,0.11287711,-0.062274136,-0.01266579,-0.009887808,0.009038594,-0.05895518,0.008185521,0.058472544,-0.017637603,-0.072211824,0.054459292,0.09196836,0.11851069,-0.067189105,0.061795868,-0.09039606,0.05796653,-0.01859947,-0.09785722,-0.020646207,-0.10647779,0.08417391,-0.08555626,0.13250908,-0.12587325,-0.10944667,-0.01728412,-0.019024272,0.19442004,-0.09460146,-0.02403194,0.020122357,-0.072692886,-0.010965008,0.12868,0.028426398,0.11007457,-0.16099693,-0.08225137,0.056348804,0.010142264,0.08070273,-0.02688232,0.11241345,0.058988247,0.32473883,0.0041969083,0.052425325,-0.009372108,-0.11443553,0.24288508,0.021975674,0.1273171,0.07029153,0.05825787,-0.028276823,-0.16994703,0.038543362,0.010538816,0.009624282,0.016860051,-0.04783341,0.07441515,0.0075419173,-0.065032594,0.051872116,-0.09883722,-0.01823932,-0.16782123,0.12533106,0.086599946,-0.06576784,-0.0081669465,0.0686207,-1.744181e-05,-0.19032907,0.120280534,0.12427482,-0.10701804,-0.1313031,0.047830813,-0.11686601,-0.026462866,0.09946781,0.02254305,-0.2306508,0.03246256,0.03151002,0.011546342,0.037238907,0.0074246423,-0.08956708,0.049868867,-0.063402355,-0.06496997,0.030671444,0.094009586,-0.15437566,-0.16448627,-0.05097732,0.01071237,0.10014906,-0.06044755,0.008988798,0.0094733015,0.01187682,0.037666228,-0.017651588,0.0064082816,-0.22645587,-0.06801611,-0.020410769,-0.012505658,0.20582336,0.006051991,-0.14086825,-0.10687793,-0.07181715,-0.07647498,-0.23159608,0.032855675,0.03261646,-0.06674876,0.023163907,0.0732905,-0.19563574,-0.27446055,0.09222679,-0.13602722,0.002630692,-0.003477119,-0.015768118,0.119797625,0.03570743,0.016737401,0.025946349,0.06446671,-0.1103327,-0.15256198,0.03937508,0.053173244,-0.14948148,-0.053821255,-0.14124984,0.029258477,0.12530787,0.007020753,-0.034958225,-0.10592899,-0.18325871,0.052564517,-0.20844437,0.24032974,-0.10331881,-0.027322907,-0.038739786,0.0011825264,-0.08114729,0.007623612,-0.042505454,0.017757129,-0.0019371212,-0.09179096,0.06479516,0.0073455237,-0.022843383,-0.11196995,0.0061336644,0.1316627,0.03950682,0.014169116,0.13679293,0.09428998,0.087753914,-0.010474488,0.02187879,0.08408359,0.062882826,-0.036001973,-0.03817884,-0.0025398778,0.06630504,0.14340225,0.11981946,0.083537586,0.05263002,0.07004368,0.058322184,0.09389962,-0.113384396,-0.11979935,-0.045447685,0.03279021,-0.032306448,0.105400264,-0.0813389,-0.27169663,0.07686462,0.13519335,-0.0022446057,-0.015927702,-0.02232264,-0.09385355,-0.03144452,0.003995266,-0.12339768,0.1056803,0.1421314,0.033087835,-0.094812244,-0.051530134,0.05009652,0.043201387,-0.10669784,-0.12520161,0.023144275,0.033613868,0.031407606,-0.049266633,0.07526502,0.09263554,0.016346801,-0.023967177,-0.024338983,0.12577003,0.12403516,0.0564496,-0.026439803,0.43259683,0.0414954,-0.059066035,0.022474801,0.04620659,-0.02786667,-0.0062718196,0.13149115,0.18551704,0.0056725666,-0.024540909,0.025627768,-0.014856368,0.06076884,0.017352104,-0.022592358,-0.02382724,-0.0071698986,0.068417534,-0.12062461,-0.08285917,-0.0746846,0.109259896,0.10492548,0.026700024,-0.18341047,-0.13009636,0.07954263,-0.0037118187,-0.07244365,0.13528055,-0.0147893075,-0.11149373,0.06443686,0.055748977,0.004846547,0.018182106,-0.13195762,-0.042399585,0.09585463,0.0010796711,0.036212653,0.012072848,0.0075648427,0.1031951,-0.067239285,0.0049899793,0.05066765,-0.096761286,0.03809848,-0.057368096,-0.006014414,-0.07878069,0.20396689,0.012117598,0.036639404,-0.017194867,-0.076449685,0.05379878,0.033318125,0.051316414,-0.027386993,0.0012392383,-0.021583384,-0.04866949,-0.015086176,0.0052054985,-0.008251115,-0.06332281,0.013913054,-0.062014796,0.027269877,0.039572287,-0.16214478,-0.036060214,0.067831255,-0.10954641,0.1682391,-0.020264566,-0.15865369,0.014039259,0.0022034282,-0.0002417434,-0.03393418,-0.1150671,0.009671092,-0.04263948,-0.011585407,0.10919505,0.016823124,-0.06616855,0.023224888,-0.04775235,0.06321244,0.07065982,0.033341482,-0.090795316,-0.14864275,0.009455908,0.008258555,-0.06410492,0.009675011,0.01638621,-0.04036381,0.0069513433,0.005938392,-0.04472786,-0.072799854,0.07440519,0.025455449,0.06181425,-0.015086874,-0.2044673,0.05556247,0.004096575,-0.020721737,0.019259332,-0.069112316,0.17842875,0.2748096,0.038215883,0.025782466,0.024007514,-0.028227255,0.030642472,0.026078962,0.01641474,-0.08950077,-0.25785214,0.12047746,0.11873855,0.02119967,0.08513215,0.007379017,0.0072590546,0.09000108,-0.04431193,-0.038297065,-0.026509577,-0.27985495,0.059274405,0.103971235,0.041244622,0.014844478,-0.054484274,0.014277822,-0.0068542846,-0.08192029,0.003940657,0.08066779,-0.03761757,-0.16134378,0.0053177043,0.0027595125,0.08058288,0.05156608,0.024375074,-0.13891192,-0.02917498,0.017602598,-0.10077056,0.051409543,0.12674369,-0.04131742,0.09934163,0.101154685,0.060050026,-0.03981414,-0.07458067,-0.07879476,-0.065382466,-0.049735203,-0.091269724,-0.10082439,0.05578878,-0.031912837,-0.022070497,0.0066000894,-0.17263733,-0.06802796,-0.008209974,-0.06319345,-0.045218777,0.07218457,0.09924674,0.0412907,0.0056709573,-0.16140112,0.046489913,0.009485985,0.016569503,0.08962593,0.06621152,0.065060884,-0.13082819,0.029875418,0.0045063905,-0.041517675,0.03141147,-0.04743466,-0.016220368,-0.0713216,0.04664959,0.017121078,-0.05443107,0.0075409235,-0.015640654,-0.12257527,0.13984178,0.030177543,-0.11558589,-0.054943427,-0.04030125,-0.13406354,0.009154879,0.04262245,-0.012869477,-0.0018551499,0.043140355,-0.011277215,0.14590153,-0.03441187,-0.07847981,-0.07392522,0.024997672,0.067211635,0.000575386,0.038113646,0.08077599,-0.040964898,0.04148298,-0.119527176,-0.12295954,-0.016658522,-0.024013815,0.0129295625,0.045273166,-0.03977475,0.07558496,-0.044748038,-0.06405455,0.10089342,0.15602322,0.0085181715,-0.03586819,-0.052581277,0.19714913,-0.026164457,0.08461456,-0.02645962,-0.021575844,0.17901896,0.15476573,0.04645125,0.21226889,0.009005263,-0.052454103,0.030285614,0.08379109,-0.033198602,-0.009782776,-0.029345427,-0.021667302,0.033589516,-0.03777133,-0.004812807,0.0118926065,-0.052899968,0.08804096,-0.006978996,-0.013163051,-0.006651588,-0.17796886,0.10568118,-0.11521006,-0.053291224,0.064105764,0.042747594,-0.07472984,-0.00035105646,-0.061687298,0.057588834,-0.1144296,-0.06765675,-0.06638449,0.08509791,0.11297167,-0.1422271,-0.08201922,0.035815265,0.077337645,-0.060266614,-0.09213625,0.027131323,0.033219427,-0.10576952,0.013536379,0.019694632,-0.049894836,-0.06863396,0.032857373,0.060028788,0.07966046,0.022926468,-0.06548929,0.019533329,0.012945574,0.032277703,0.015581707,0.019273052,0.044385333,0.036190398,-0.036435563,-0.14423828,-0.044008765,-0.0047136694,0.11935103,-0.12364289,-0.06733586,-0.0750104,0.003540907,0.041141126,-0.036197014,0.072135076,-0.015030932,-0.07260586,-0.23893413,0.1766981,0.12223918,-0.012920694,0.018475931,-0.05762235,0.020142531,0.09601599,0.011303283,-0.055255443,-0.0088164285,-0.01809703,0.05814527,0.011207824,0.010147469,0.078173265,-0.025243945,0.049786203,-0.03337509,0.0061317235,0.038291402,-0.009973347,0.025685722,0.06362338,-0.017571798,0.022352885,-0.018739492,-0.08202498,-0.04056544,-0.02195166,-0.051842485,-0.03760515,-0.058719166,0.08338805,0.028935716,-0.056317057,0.05344352,0.006659732,-0.078721724,0.1232544,0.024542771,0.088185936,0.021476671,0.022089029,-0.0038494514,-0.07125455,0.06498475,-0.06302662,-0.040869396,0.14307846,0.016177557,0.015423179,0.11485687,0.0015385598,0.118631974,-0.18170276,0.11226956,0.07358718,-0.013324691,0.05498892,0.0083236545,-0.034418736,-0.037796635,-0.062362373,0.044617765,-0.06135914,-0.005878508,0.07784572,-0.028520152,-0.12475827,-0.023150785,-0.06989777,-0.011614839,-0.20389524,-0.02300471,-0.03997171,0.08662903,-0.0118930265,-0.0999129,0.06979782,0.10712136,-0.13812733,0.21415749,-0.051134225,0.058328167,0.015748713,0.000731878,-0.022992622,0.056011662,0.10113919,-0.12937064,-0.04560288,-0.121526614,0.11870469,0.031089038,0.0032676905,-0.02680079,-0.12071903,0.08829552,-0.19507016,0.08485409,0.0413676,0.080702156,-0.22044384,-0.107663035,0.052784476,0.1444398,-0.05460293,0.02525993,0.119497634,0.030843966,0.048594836,0.01743472,0.019968726,0.11502904,0.102421224,0.021658909,-0.14067566,-0.14569654,0.112214305,0.004289873,0.033221334,-0.11952597,-0.11410532,-0.06016979,-0.015822943,0.12460126,0.00939139,-0.02731786,-0.0027299821,-2.953969e-05,-0.080598496,-0.13094279,0.13552709,0.031696048,-0.048059426,0.06546521,0.127433,0.0839676,0.06303005,-0.08192334,0.067246504,-0.14332432,0.019732026,-0.19135441,0.18047714,0.094081536,-0.053737305,-0.058081135,-0.03708784,0.064743906,0.0076392647,-0.061577268,-0.0033407984,-0.005132789,-0.10191018,0.14128211,-0.16687866,0.03517039,0.10449165,-0.09362111,-0.07190097,-0.06851815,-0.04294284,0.021509286,-0.071366675,-0.0041302852,-0.07186116,-0.20663461,0.008091189,-0.16655077,-0.0120457,0.045089588,-0.031117143,-0.07548203,-0.15501285,-0.016264923,-0.03676194,0.061936326,0.041676268,-0.0045515597,-0.01367804,0.013976328,-0.0047908705,-0.036486033,-0.04486265,0.05298112,0.08524465,-0.13014224,-0.033389717,-0.06959496,-0.00412747,0.08146715,-0.041635994,0.023122266,0.06824793,-0.033699483,-0.16924033,-0.024346873,-0.10936672,-0.015410602,-0.045408007,0.12725672,0.07569265,-0.009470213,0.018885285,-0.014100426,0.086115226,0.04593579,-0.14753924,-0.05961078,0.042665772,-0.035089925,0.028739795,0.14235508,0.019508159,-0.15396006,0.015662888,0.082889564,-0.02313121,-0.1032263,-0.1560192,0.05625091,0.0298239,-0.1033815,-0.091775425,0.0061312243,-0.013931064,0.016332604,-0.0754778,0.118416995,-0.008987829,0.08161568,0.0658957,0.07044275,-0.23280174,0.027344013,0.040084083,-0.038622238,-0.0341523,-0.044419553,-0.11075337,-0.28982946,0.034619242,-0.022851013,-0.06778713,0.05978032,-0.17356977,0.059891075,-0.0076882467,0.09859139,-0.0753313,0.054801255,0.064939834,0.003363952,-0.13403858,0.21179426,0.1086642,0.0048012584,-0.12706442,0.20467973,0.050121836,0.051551566,0.049177,0.056968108,-0.112513065,-0.22415003,-0.23093297,-0.06393327,0.07601364,-0.0029039457,-0.06839816,0.019674426,0.046138644,-0.08510183,-0.09258454,0.12269328,0.04884409,0.14248225,-0.028357401,-0.072513156,0.00790744,-0.14526397,0.011313736,-0.08356789,0.031366527,-0.056203827,-0.16411932,0.013135999,0.0035911016,0.06643282,0.026718637,-0.060424406,0.08728544,-0.05321019,-0.006021604,0.08511583,0.0655321,0.11956817,0.09391982,-0.07953886,-0.04400548,0.0049515907,0.14961553,0.09994352,-0.047133196,0.031143852,0.06394838,-0.06739359,-0.016209673,-0.012625396,-0.13755487,0.03656221,-0.13089038,0.1048625,0.07264386,-0.010190859,0.075568974,-0.05035369,-0.20845406,0.16129021,-0.15017232,-0.08258962,-0.1233663,-0.088108286,-0.120217845,-0.023689512,-0.019968502,0.001768142,-0.011404739,-0.07961109,-0.01904198,0.04920086,-0.063453056,0.016696692,-0.06751892,0.01795036,0.15317678,-0.09638531,0.08120437,0.026627459,-0.033800535,-0.029152595,0.0512452,0.15123352,0.0021042265,0.09597573,-0.18792468,-0.027195424,-0.05031434,-0.1585633,0.04641359,0.03776873,0.05479976,-0.18543124,-0.09495864,0.0100288335,-0.029205427,0.04562005,0.06354594,0.11375449,0.027007006,0.009183496,-0.036462292,0.042954218,0.00083930045,0.0345457,0.016536796,0.11746985,0.15463676,-0.14335269,-0.16400361,-0.0771187,-0.21405831,0.011640046,0.019931886,0.10762485,-0.1393024,-0.34839064,-0.050478254,-0.09784037,0.13379623,-0.0357306,0.027299719,0.009058125,-0.027336389,0.10203601,-0.09127696,-0.039332666,0.041539207,0.08936153,-0.026979528,-0.0045072734,-0.022901833,-0.1442421,-0.05000842,-0.08804325,0.028825067,-0.040153835,0.018422574,-0.13310175,0.06513292,-0.021469077,-0.062406342,-0.027132511,-0.003272947,0.059561767,-0.017011251,-0.024062185,0.04799683,-0.14587781,-0.06414938,0.084077284,0.08708221,-0.041885797,0.058880635,-0.037194233,0.02780921,-0.041494586,0.0043541873,-0.022541642,0.010961726,0.021695776,-0.008612003,-0.0630017,-0.15834111,0.018363422,0.03605482,0.16338374,0.0150765395,-0.13832517,0.0723252,0.05284133,-0.07166193,0.07484583,0.19343098,0.04707058,0.019687245,0.12361263,0.10867531,-0.09606408,0.035471745,-0.15905711,-0.045356948,-0.033102892,0.015099339,-0.06542095,0.028856458,0.030082762,0.012863494,0.023419067,-0.019384816,-0.03259767,-0.090574294,0.14226522,0.1615,0.05864329,0.0008219816,0.022012787,-0.10368249,-0.02585318,-0.07315644,0.017781839,-0.03522728,0.07712254,0.26057604,-0.070390776,0.02259374,-0.009873441,-0.016755158,-0.019311368,0.03616693,-0.015663091,0.040439468,0.023502234,0.01162456,0.006669253,-0.035516333,-0.025173021,-0.009781506,0.05860864,0.05865376,0.109189555,0.076595515,0.10379332,-0.17457959,-0.06017809,0.034953132,-0.004217092,0.05103554,-0.18932378,0.028864747,0.044645343,0.03884432,0.06318664,0.045677498,0.12106089,0.0027990937,-0.08677018,-0.05642745,0.050088182,0.13826805,0.0014709979,0.008597173,0.06612949,-0.1090513,-0.12986219,-0.11522153,-0.011049904,-0.026332214,0.15497677,0.00815035,-0.030514017,0.026791262,-0.14480115,-0.012901749,-0.033837833,0.06255542,0.13727374,0.061867453,0.01437155,-0.048815336,0.049540434,0.03505948,-0.027161837,0.05155818,0.1278624,0.048396666,0.0025282502,0.08126605,-0.07766685,0.073419094,-0.16284262,-0.24035685,-0.014522105,-0.06700314,0.042302515,0.03397222,-0.074805334,0.12719469,-0.06879428,0.05445304,0.06374858,-0.042919427,0.01496714,-0.1963182,-0.07944509,-0.023611795,0.06049285,-0.056395434,0.16447349,-0.045388393,0.04906502,0.013778527,-0.014671465,-0.010876179,0.006063301,-0.13123393,0.011234313,0.064634345,-0.10920145,0.117689684,0.1452986,0.08126557,-0.003423769,-0.07155356,-0.03920923,0.13447692,0.08214751,0.05085875,0.027826373,-0.004732974,0.030676417,0.0253287,0.0029585287,-0.10467216,-0.06743268,-0.15167673,-0.017756253,-0.013686329,-0.009207867,0.059654362,0.05268996,-0.021540612,0.088726975,0.035492674,0.14626877,0.026518986,0.05783538,0.06725925,0.14851514,-0.045704763,0.17828704,-0.09139812,0.15642224,-0.0903985,-0.0060825963,0.065857545,-0.09425903,0.015868813,-0.02389216,-0.031858258,-0.07438966,-0.17096688,-0.19368574,-0.046118554,0.060973972,-0.07147067,-0.09846374,0.058830485,0.06860675,0.06576876,0.018520752,-0.025408901,0.120325,0.0029253885,0.04441369,0.045151815,0.089095786,0.036526754,0.005833987,0.0048778914,-0.056506712,0.08668745,-0.02499006,-0.05687849,-0.06253389,0.06296675,0.02225057,-0.030150615,0.026097246,0.08440058,0.010127515,-0.01988209,-0.0086627975,0.045567375,0.035657454,-0.07705897,-0.12382247,0.059139393,-0.026215909,-0.13853222,0.09150497,0.014276572,-0.021004463,0.036855485,-0.014372662,-0.035580084,0.06495375,0.11498184,-0.058467776,0.012676541,-0.036775917,0.06304043,0.034285624,0.040858887,0.05543273,0.006557091,0.010359198,-0.06690192,0.0888118,-0.022126652,0.0073956028,-0.027950436,-0.08454487,0.1249586,0.04893081,0.049442887,-0.08927929,0.08015043,0.016689599,-0.014860205,0.033121694,0.008597456,0.062532924,0.0074721836,0.030377995,-0.16701591,-0.063541956,0.08282208,-0.01785944,0.036015194,-0.031075453,-0.07979889,-0.05846352,-0.08606785,0.001149171,-0.10747674,-0.02943955,-0.01262521,-0.001172537,-0.19447723,-0.02130223,0.06352855,-0.015776947,0.0007617399,0.008140971,0.102519654,-0.010111269,0.062401935,-0.12367611,0.11303517,-0.05661208,0.041041087,0.035476886,0.10370122,0.08154002,0.13673687,-0.1119737,-0.039199714,0.08086574,0.038154468,0.04799522,0.022966098,0.047031537,0.025885422,0.07517511,-0.0062930286,0.1827834,0.05048071,0.06478752,0.056864645,0.035456054,0.05336461,0.046708256,-0.014463643,0.090631194,-0.10710248,0.045533255,0.047080554,-0.039464593,0.06512101,-0.057445846,-0.0282637,0.023548711,0.091340296,0.09062771,0.059382103,-0.0021565706,-0.028977424,0.0037310505,-0.0021673567,0.05863261,0.095937945,-0.043984607,-0.12050934,0.048952006,0.013861608,0.09375219,-0.03711008,-0.08045503,0.077831194,0.05198002,0.0974457,0.19657451,-0.06402896,-0.06699067,-0.06328159,-0.014675295,0.12373455,0.071684256,-0.10539104,0.01825951,0.0037908852,0.12595093,-0.035452656,-0.046971917,0.10087412,0.011099426,-0.016518056,0.0062685087,0.053944077,-0.067149565,0.07545839,-0.011672184,-0.017296232,-0.13374837,0.08137338,-0.03705753,-0.05522436,-0.11053261,-0.049132414,0.022173509,-0.06673067,-0.011928336,0.086723655,0.022620907,-0.020156134,0.099830434,-0.034258485,0.115719914,0.080179095,0.028335921,-0.047369435,-0.00712616,0.0062831007,-0.08615071,0.0642002,-0.044968277,-0.022901911,0.014043756,0.065408505,-0.104676016,-0.08647574,0.026913695,-0.13951766,0.007720694,0.15696028,0.07968949,-0.025193578,-0.036384102,-0.025126126,-0.1296497,0.06841758,-0.047555313,-0.020785794,-0.028673662,-0.011311461,0.015227884,-0.1005311,-0.06470193,-0.08712599,0.07367079,0.03588921,0.08408272,-0.13682334,-0.17746148,-0.017351381,0.0866957,0.02981339,0.111102514,-0.039140828,-0.21536323,-0.21806154,-0.038136143,-0.000888668,-0.014736064,0.058425523,-0.04693343,0.025838502,-0.03258053,-0.0965969,-0.10925862,0.0064989245,0.006390974,0.004310336,-0.04520851,-0.07496378,-0.055247635,-0.08757786,-0.06473102,0.037967928,0.08604077,0.010563817,-0.04273173,0.08827155,0.04181133,0.058163866,-0.05091999,-0.016881302,0.03723532,-0.025256239,-0.090558425,0.08905677,0.06338863,-0.008229345,-0.08023368,-0.09167797,-0.08854473,0.039462194,0.0069129765,0.06391867,-0.042138472,-0.029701248,-0.027134348,-0.055841736,0.02662437,-0.09382549,-0.08254209,0.023757651,-0.02846703,0.059332956,0.11775642,0.042048242,0.017650466,-0.13352865,-0.019846145,-0.022745535,-0.024223246,0.06785843,-0.030678263,-0.058508586,0.08964223,0.00011902116,-0.034854606,-0.10397633,0.045698904,0.048378482,-0.07450242,-0.028866101,-0.048336133,0.034953725,0.030661648,0.020266805,-0.044205505,0.0030128546,-0.099064246,0.050934434,-0.040853478,0.0075784754,-0.01775201,0.08101906,0.005105665,-0.017915057,-0.007141009,0.06101181,-0.10988441,-0.048847716,0.12213314,0.015145481,-0.038225748,0.074316695,-0.06656655,0.04744383,-0.027057659,0.042676777,0.015856976,0.071960635,0.08601919,0.0064947978,0.1290309,0.013329029,-0.05752132,-0.0014032945,-0.037430014,-0.090830415,-0.0123226475,0.018557422,-0.1581757,0.10492655,0.07958734,-0.091078125,0.007368099,-0.08729873,0.14041448,-0.05736162,-0.07267693,-0.13972522,-0.0038300306,0.110589564,-0.189279,-0.02868548,0.18501957,-0.073952146,-0.056222245,-0.01994494,-0.03660105,-0.012259455,0.15009345,-0.186986,0.18925078,-0.2599845,0.028785259,0.0045452467,-0.049268734,0.016914982,0.00816882,0.043627642,0.02116517,-0.029290156,-0.13727555,0.080042616,-0.075151175,0.09765008,0.05676293,0.009728158,-0.029002547,0.10324522,-0.04401519,0.14298472,0.044844195,-0.24827375,0.087612286,0.005522743,0.03291189,-0.018640911,-0.043682884,0.01890775,0.02389098,-0.026300885,-0.037209745,-0.0036307666,0.028831417,-0.039467137,-0.0061026886,0.0985505,-0.08901573,0.006953655,0.06059421,-0.003936436,0.07448302,0.013776513,-0.07407543,-0.1011867,-0.008455538,0.060349446,0.00048663467,0.1301962,-0.005440374,0.035974216,0.0065683844,-0.000791654,-0.06227686,0.043361828,-0.079681985,0.06527846,0.026921026,-0.04702259,0.17797305,-0.024534568,0.06340273,-0.00741465,-0.18395324,0.16147582,-0.056460068,-0.1595376,-0.11097824,0.006159425,0.0162838,-0.06520564,0.022676907,-0.093868576,0.13556218,0.060398396,0.11447437,0.08845766,-0.06458378,0.0652221,-0.08513244,0.11273944,-0.05096095,0.0055649867,0.051135954,0.06411323,-0.01907352,0.16109438,-0.015860923,0.014158242,0.05313272,0.02702982,-0.030422296,0.039482497,0.09766779,-0.064485595,0.061699793,0.0118932715,0.079872355,0.040047187,0.01230241,0.04170628,0.010679264,0.0021463027,0.07354657,0.015879404,-0.029725874,0.0661238,-0.22014794,-0.0068163425,-0.050459936,0.013023242,0.06886327,0.035945177,0.08519325,0.0039829854,-0.092646584,0.018195897,-0.007615611,-0.015630707,0.053627186,0.13926582,0.09791382,-0.0025665462,-0.06375567,-0.02952189,-0.006611213,-0.03292126,-0.059967604,-0.13438028,0.13037115,0.106978424,-0.035467766,0.035197575,-0.01284231,0.043412037,-0.16202927,-0.15029205,0.011765182,0.016812464,-0.0047826227,0.06541897,-0.06751832,-0.072882995,0.11455928,-0.059465297,-0.0807002,-0.23129985,-0.066932715,-0.07339744,0.12051464,-0.006563328,-0.013968945,-0.07130155,0.0021999907,-0.05353307,-0.06282362,0.023912147,0.016698746,-0.17736647,-0.03328881,0.050616935,-0.090930596,0.062054727,0.0014406014,-0.0032911152,-0.013972939,-0.005174365,-0.028588116,0.14353158,-0.10530982,-0.063550904,-0.057082053,0.009255528,0.028792761,-0.055885516,-0.018221486,0.072483346,0.05120209,0.027054217,-0.024974227,0.060272954,0.06801762,-0.03766299,0.13665253,0.06812187,0.083312675,0.054270983,0.008836204,-0.07573568,4.6916306e-05,-0.03821793,-0.10637277,0.04259772,0.05893731,0.034151036,0.14032747,-0.040749893,0.1439347,0.009743774,-0.025756046,0.008893989,-0.033660416,-0.10571574,-0.1124872,-0.054174054,-0.04705775,-0.07798253,0.022768207,-0.17943569,0.038946748,0.024701402,0.14709827,0.06847149,-0.025928814,0.0812965,-0.0023113526,-0.07171291,-0.019600593,-0.0071138255,-0.09832699,0.034890443,0.055482853,-0.033159688,0.046504434,0.022572443,0.040625356,0.09256885,0.038988553,-0.0362743,0.05752267,0.041963864,-0.062262177,-0.06528558,-0.057452727,-0.0919776,0.0071425363,0.0433419,-0.027236454,-0.0524767,-0.114822134,0.106425695,0.03848677,-0.010301784,0.0011621285,0.06983743,-0.0074775163,0.023213549,-0.1052708,0.24648988,-0.066639975,-0.06291662,-0.035492655,-0.08297504,-0.00027971715,-0.028987879,-0.0114863515,0.054306827,-0.017134815,0.026041482,0.005618218,-0.0037305914,-0.0029081702,0.017903537,0.038680274,0.088466056,0.009389537,0.04945152,-0.028783364,-0.105402365,-0.05405993,-0.046754733,-0.0017767809,0.013462603,-0.029118031,-0.02382049,-0.04111553,0.03442601,-0.020231362,0.040300358,-0.032876387,-0.024935119,0.1528736,-0.009571232,-0.11151926,-0.05672759,-0.04716546,0.022774093,-0.041065253,-0.05559075,0.03287968,0.06843544,0.029600725,-0.06528654,0.04084461,-0.0065554865,0.021174094,-0.09162635,0.10418095,-0.048783172,0.040405598,-0.08138244,-0.0323099,0.074670404,-0.04348541,0.016882602,0.08693941,0.059287883,0.17307472,-0.0027059573,-0.120959945,-0.034558553,0.06068454,-0.011846565,0.055201255,0.116819374,-0.059533015,0.006180064,-0.033849105,0.033138197,0.13234857,-0.05060988,-0.040184245,0.11043659,0.05578652,-0.0061210208,-0.0033359006,0.1232406,0.095576726,-0.06667411,-0.02169141,-0.1770999,-0.21740939,-0.11601547,0.02658645,-0.016579267,0.0559249,0.15451868,0.027696718,0.11553342,0.054433905,0.062389042,-0.016816556,-0.1102741,0.11421569,-0.019336708,0.049218595,0.066594884,-0.037064012,0.11382962,0.09048538,0.22945611,0.06100474,-0.00058501214,0.002990175,0.071649335,0.1466005,0.021706384,-0.066395566,-0.003135128,-0.032325193,-0.22186668,-0.039007463,-0.020475239,0.028239228,0.0982413,0.2740472,-0.08326661,0.09567368,-0.021040931,0.0004702937,-0.17378464,0.06238943,0.11073746,0.038143627,-0.15591772,0.1089264,0.050733462,0.01981661,0.08269685,-0.102232955,0.03121592,0.0917056,-0.18133655,0.10138491,-0.027603734,-0.07820883,0.13987963,0.123149596,0.081124246,0.15823352,-0.079407945,-0.022318676,0.012450095,-0.0037818365,-0.050301336,0.000885386,0.14375168,0.049593452,0.040405244,0.12745391,0.0013808459,0.06996102,-0.058098614,0.038833432,0.042694263,-0.06319933,0.043252364,-0.021112641,-0.040841334,-0.1080444,-0.096781045,0.03450458,-0.052497994,-0.15823157,-0.068172574,0.015233062,-0.045274653,-0.14874142,0.102486685,0.030911466,-0.03139107,-0.031670958,-0.019400058,0.007160779,0.074191466,0.13618478,0.01249353,-0.055928428,-0.054075718,-0.011228871,-0.005337395,-0.027612507,0.08222303,0.102245666,-0.025649507,0.03498977,-0.15810499,-0.036744222,-0.04953209,-0.065547645,-0.07397569,-0.0021371841,-0.032426745,-0.011346668,0.021539968,0.07336798,0.05154698,-0.023143064,0.04886526,0.08099128,-0.0626479,0.05781154,0.014956392,-0.1492326,-0.022375481,0.07642167,0.09224348,-0.11025848,0.07022996,-0.00720392,0.06212769,0.05558768,0.034467474,0.007976025,0.0024579912,-0.017441954,0.10826156,-0.009312782,-0.0038205013,-0.07540457,-0.02499762,0.017559424,-0.024428712,0.08821184,0.009046845,-0.072244465,0.102592155,-0.0014585182,0.010689948,-0.009139206,-0.056723706,-0.1478076,0.0010974593,-0.0069824457,0.14025325,-0.04176651,-0.031903036,0.11876791,-0.028058784,-0.08701522,-0.06312888,0.11685933,-0.17733787,-0.21263884,-0.109922886,0.089383066,0.09741283,-0.12265078,-0.06283968,-0.028725887,-0.01933,0.17126796,-0.02115594,-0.16557707,0.08887015,0.16407245,0.059223298,0.07618302,-0.03453585,0.04919073,0.08054845,-0.22463617,0.15581542,0.072989,-0.12509333,-0.054793734,-0.0035243048,-0.010598086,-0.2147428,-0.06679177,0.09665019,0.08074533,-0.06900809,0.21207078,0.08678742,-0.06815607,-0.056116536,0.0699711,0.0714368,0.035620943,-0.040259983,0.06325933,-0.03330627,0.10584068,0.15549494,-0.04038417,-0.02272023,-0.0046274588,0.037029646,0.031143198,-0.03226027,-0.04931624,-0.01939888,0.01446604,0.008066535,-0.020386763,0.0817098,-0.08992671,-0.007972851,-0.0036651632,0.037594177,0.040127758,-0.005882811,-0.010001309,0.073173374,-0.057197135,-0.116056874,-0.037926972,-0.038256384,0.062204715,0.07750523,-0.03924205,-0.021091297,0.039625634,0.074696146,0.038003623,0.09023443,0.07581027,-0.049784362,-0.082361504,-0.04262598,0.09409304,0.13944104,-0.021226164,0.14009582,-0.002400037,0.029138096,0.020480335,-0.07020877,0.025717013,-0.0117360875,0.02641274,-0.06562043,0.015922278,-0.12880145,0.06520748,-0.14925349,0.031499807,-0.040493555,-0.01674159,-0.008448005,0.01843118,0.022924155,-0.10977009,-0.013503043,-0.12040244,0.06324386,0.09916602,0.023754051,0.038821787,0.09308037,0.050863687,0.033528488,-0.021611474,0.017213896,-0.09223695,-0.032186534,-0.14978574,-0.032844715,-0.106771655,-0.009275898,-0.007682913,0.04058928,0.022017062,-0.0028511211,0.10361218,-0.06655054,-0.008514041,0.036319096,-0.0077688247,-0.022202933,0.14791998,-0.005389834,0.007570794,-0.12163827,-0.019717684,0.055927604,0.022104647,0.0027629323,0.050132804,-0.056020096,-0.0033567473,0.03845699,-0.012325145,-0.081188574,0.045936644,-0.046729133,0.091564804,-0.03183715,-0.041590128,0.0058539174,-0.039148483,-0.011318311,0.052840322,-0.05084935,0.08436708,-0.04570557,0.063689075,-0.010998078,0.11293644,-0.026462205,0.0834167,-0.08217558,-0.034732968,0.12129028,0.02722302,0.109584376,-0.09468618,0.11744131,-0.06667775,-0.040886372,0.0042054355,0.07661858,-0.11785004,-0.0482034,-0.030225838,-0.09956114,-0.028160637,0.062453587,-0.047815263,-0.103423074,0.016435597,0.09876196,-0.058807336,0.007242994,-0.11925337,-0.039033223,0.031311154,0.017143153,0.08159084,0.06347756,0.004561644,0.15276948,-0.058315855,0.031463943,0.07846029,-0.23637712,-0.101604715,-0.006198434,-0.1004067,0.19852597,0.061375257,0.08765675,0.1052058,0.14191991,-0.1641027,0.070460066,-0.038685568,0.023577223,0.12678504,0.012783401,-0.046239056,0.086780295,-0.050162453,-0.007500045,0.1147176,-0.075338036,0.07402019,0.06154338,-0.034837566,-0.04994294,0.04698382,-0.030382328,-0.052291818,-0.0171961,0.21492665,-0.050697055,-0.051109884,-0.073810905,0.047942057,0.040556926,-0.11189292,-0.22832558,0.07195739,-0.088798165,-0.004313802,-0.030335646,-0.01979407,-0.01633111,0.036169294,-0.032383867,0.07628496,0.17459215,0.04200188,-0.03499004,-0.021864772,-0.0541317,-0.000113819726,0.10621926,-0.05593009,-0.03200249,0.05905082,-0.20947435,-0.1182663,-0.07829085,-0.1314285,0.081925124,0.05215815,0.10062665,-0.007479688,-0.018276438,-0.017138276,0.0255625,-0.14421555,-0.022557478,0.06537948,0.040671516,0.14668788,0.0010528341,-0.020576997,0.05572713,-0.13339114,-0.0317857,0.19441962,-0.19956258,-0.032419063,-0.07677024,-0.037818115,0.049170587,-0.0076084137,-0.08947102,0.05825484,0.001923522,0.108681686,0.064164504,-0.044469334,-0.10081445,0.19442086,0.094038665,0.14384705,0.041239947,0.09694064,-0.10858357,0.020830628,-0.07851275,0.009498937,0.0068265013,-0.05084895,-0.03349284,0.11430116,0.03540604,-0.13083787,0.019656599,0.071266145,-0.016648028,0.097643234,0.03173411,0.02636797,-0.06634165,-0.11761482,0.009347689,-0.057393868,-0.075780354,-0.004654277,-0.08386995,0.110148475,-0.034039915,0.021499084,-0.032635923,0.07744882,0.013536327,-0.02000308,-0.021885194,0.08904461,0.016462088,-0.07368816,-0.030361107,0.011592973,-0.18933098,0.012341488,-0.078002185,-0.0037886188,0.000895828,-0.015703466,-0.051772427,-0.06443743,-0.08578346,-0.015787534,0.16189241,0.05823686,-0.094513744,-0.14167736,0.08309022,0.008590343,-0.08509493,0.04690068,0.0491442,0.116785556,0.063134834,-0.030869871,0.0015203153,0.06222529,-0.075184554,0.065944165,-0.0035007019,-0.04737643,0.04028707,0.037906207,0.036749337,0.0018718652,0.043840554,-0.097370714,0.020344276,0.0053706844,-0.007911406,0.055664957,0.13379467,0.034715768,-0.013445338,-0.0126601495,0.026518807,-0.08724985,-0.0015467629,-0.039082687,-0.0136236325,0.002110865,-0.030356988,0.043534707,0.1014403,-0.048052914,0.025562149,0.20767751,0.01903215,-0.038882088,0.015153408,0.08130505,-0.07516281,-0.010521061,-0.0056015076,-0.033890203,0.093103305,-0.068738095,0.046576917,-0.05632344,-0.04481419,-0.0099926805,-0.116911,0.049238235,-0.11075479,-0.06793315,0.030841373,-0.093836986,-0.018003926,-0.025845725,-0.016425967,0.08261109,0.0410501,0.15426454,-0.03628952,0.06004941,-0.04822037,-0.15790474,-0.016338512,-0.10811958,-0.00091371685,0.11741735,-0.006822109,0.021595914,0.09347233,0.03389593,0.028943792,-0.04220291,-0.011709787,-0.15093476,-0.039870463,-0.07963469,-0.046226926,0.10059018,0.0179613,0.10951856,0.04625562,-0.04098901,-0.06579511,-0.044754475,0.013836652,0.011843905,-0.038530342,0.13214469,-0.06273111,-0.011348852,-0.020560298,-0.026071973,-0.04460614,-0.018948201,-0.1224082,0.09096889,-0.018770475,0.047503587,-0.09218639,0.1121088,-0.098349586,-0.09603002,-0.063253656,-0.026887864,0.041371796,-0.11304085,0.022834204,0.09560928,-0.0037331902,-0.0712918,0.051224336,-0.06375356,0.1274939,0.01813779,0.04886128,0.05082023,0.07410306,0.13287514,-0.0077593885,0.035247125,0.078093044,0.036242142,-0.14912367,-0.07119164,0.039689787,-0.0290302,-0.0025398955,-0.02416218,-0.09287324,0.1251182,0.0006417502,0.031655792,-0.06468348,0.023819178,0.090197146,-0.045199055,0.06717658,0.011585247,0.009214222,-0.013137467,-0.039712053,0.13176453,0.095687196,-0.0773817,0.042573847,-0.012824841,-0.09245852,0.09593669,-0.05948487,-0.056157507,-0.08770101,-0.106384516,0.021095999,0.010221031,0.043874793,0.005989313,0.024412524,0.016848663,0.013279118,0.025374535,-0.031706627,0.05133638,-0.032918654,-0.039244823,0.082150534,-0.028504098,0.021678464,0.04502237,0.053645853,0.012111299,0.03275931,-0.023397202,0.04047531,0.027477339,-0.041128848,0.038535237,0.057522,0.06431632,0.10747436,0.03300627,-0.058206856,0.048148222,-0.05054895,-0.049053263,-0.08261976,0.012381614,-0.0032499703,0.14224334,-0.044301406,-0.16204728,0.09557652,0.019674191,-0.06235764,0.0039589778,0.018934898,-0.088302866,-0.021809937,-0.051837903,-0.016543012,-0.045873493,-0.057367455,0.011856189,-0.0024858434,-0.03723417,0.016610842,-0.030172694,0.005097216,0.015508352,-0.054999106,0.010002208,-0.008417464,0.053854223,-0.040601004,0.0007619038,0.050245717,-0.084233165,-0.048236463,0.019688755,-0.024498068,0.0016792193,0.045323703,-0.04046592,-0.0727687,0.0076066,-0.058409136,-0.023110343,-0.05178134,-0.116967365,0.045917183,-0.065759316,0.019522816,0.06588875,-0.04847835,-0.016979199,0.0084364265,0.022107698,-0.024548674,-0.019531973,0.04407361,-0.04352043,0.059837338,0.06453233,0.009877682,-0.15344393,0.1125126,0.03943884,-0.068983644,0.09584284,-0.06619094,0.077949435,0.09522013,0.07832694,-0.006134134,0.013378208,-0.036462978,0.00034722686,0.06647064,-0.034745906,-0.042573106,0.05705652,-0.046317108,0.021818373,0.01610775,0.015913703,0.05639027,-0.22153881,0.068902776,0.05282443,-0.04973125,0.15001519,-0.018448278,0.039411876,0.050138608,0.09467801,0.16844071,-0.03897088,-0.07280632,0.005205326,-0.003430285,-0.12716863,0.057726946,-0.04507743,-0.04420823,-0.047379654,0.029875645,0.02887054,-0.030996881,0.18459737,-0.012101807,-0.10404693,-0.046969026,0.09406586,0.012046579,0.13831237,0.023507368,0.13770416,-0.031486787,-0.16809647,-0.021446794,-0.15448621,-0.11002179,-0.121477254,0.0497509,-0.063099526,0.019696597,-0.02099906,-0.0799001,-0.022684941,-0.087359294,-0.11199729,-0.12529212,0.05725446,-0.1716727,0.10064019,-0.017392267,0.0912485,0.014948575,0.0335818,-0.012051735,-0.06242538,0.08249666,0.05218474,0.019006485,-0.070028976,0.02787843,-0.07622215,0.008886825,0.023790592,-0.034847558,0.026256418,0.09612754,0.11840358,-0.037255835,0.02028662,-0.020610277,-0.077646494,-0.14525917,0.045665585,-0.12756565,-0.035865124,0.24825335,-0.028606994,0.12573761,-0.20100048,0.0029207226,-0.021553295,0.0049374397,0.072298676,0.082139224,0.014293926,-0.045534726,0.004884485,-0.048560202,-0.08910408,-0.09333615,0.25285226,0.018972695,-0.18482181,-0.057143472,-0.18342979,-0.054586835,-0.3323017,0.18549094,0.065195054,-0.038336556,-0.13403285,0.116029546,-0.039237376,0.035812333,0.007665932,-0.023835294,0.2913459,-0.10201707,-0.20095366,0.03701719,-0.010717653,-0.01853578,-0.08679556,-0.033353496,0.12737323,-0.06840208,-0.035021,0.06685644,0.06531847,-0.03495505,-0.0733597,-0.026135355,-0.055017296,-0.17395383,0.03533592,0.019347027,-0.0436051,0.021082524,-0.11490892,0.048985638,-0.010842003,0.034227863,0.05267004,0.012470752,0.035622865,0.034605216,0.011397754,0.027121443,-0.003962189,0.08732657,-0.004244063,-0.13054965,-0.021590594,0.07286428,0.08143719,-0.079608075,0.017903319,-0.038356353,-0.0072034746,0.045063246,-0.09073564,-0.016021091,-0.072983935,-0.12315391,0.04625019,0.0082994215,-0.005172861,0.03742722,-0.016918555,0.04317631,0.07022389,-0.08351461,-0.07814032,0.039374106,0.001164496,-0.061401244,0.08133398,0.08642684,-0.045918588,0.0852282,-0.10074813,0.022571553,-0.046112336,-0.042385887,-0.027326979,-0.017230082,0.008024555,-0.032690886,-0.050058898,0.066568926,-0.03866491,0.0054470384,0.0072323307,0.03854481,-0.025800645,0.006085418,-0.09340821,-0.120911434,0.0012437897,-0.022163473,0.033138696,-0.037815943,0.0729934,0.21283992,0.041480564,-0.008926125,0.007227417,-0.05863051,0.011613477,-0.06525661,-0.014158931,0.118807726,0.037158106,-0.013509862,0.0065478347,-0.033873197,0.030852042,0.018388053,0.13429321,0.073129326,0.10993243,0.026134748,0.0040209554,-0.1028215,0.031482022,0.023434393,0.024260923,0.10774317,-0.07727987,0.0038459934,-0.012019095,0.063691214,0.06037912,0.08253395,-0.019649744,0.23963892,-0.16988657,-0.017656658,-0.020430041,-0.11089666,-0.015308881,-0.0084805,0.02617339,-0.124366954,-0.10187647,-0.0052547324,-0.044005603,-0.056260865,0.021179397,0.08508694,0.14281426,0.080158636,-0.16879034,-0.001348786,0.12496482,0.005276395,-0.044530064,0.09176247,0.07532107,0.047256615,0.002534911,-0.10275647,0.054929964,-0.060862213,-0.10402113,-0.06399756,0.052675374,-0.059478447,-0.13043979,0.15866609,0.04044616,-0.06697036,-0.09252453,-0.102493145,-0.015214987,0.028844735,0.0028054565,0.0009519756,-0.02280809,-0.03628096,0.023624346,-0.095538914,-0.026763426,0.0433998,0.09896408,0.14744996,-0.04824552,-0.102883756,0.03186978,-0.0068518743,-0.027014242,-0.03658677,-0.047794055,-0.13345665,-0.055010486,0.041899886,0.00956741,-0.20530626,0.014598042,-0.10775987,0.061803747,-0.16498688,0.017271586,-0.023327209,-0.002121523,-0.0015185103,0.040669575,0.04560696,-0.13132101,-0.099295214,-0.15536104,-0.0633912,0.052268647,-0.08938119,-0.044316016,-0.18396452,-0.031712614,-0.02604296,0.06297657,0.24249028,0.07746105,0.07673046,0.09229329,0.069991075,0.069596976,-0.089474656,-0.06645016,0.006944159,-0.030783987,0.017290216,-0.0057397448,0.01620853,-0.053420275,0.068846606,-0.06644988,-0.03945372,0.079083,-0.10511885,0.09258481,-0.07832194,-0.070293434,-0.001639042,-0.06616062,0.101422705,-0.05475743,-0.030260451,0.086700514,0.038065538,-0.06287581,-0.113169126,0.059146967,0.07522133,-0.062439196,-0.10623864,-0.14022975,-0.14699575,-0.1743775,-0.039651938,0.096422434,-0.020404888,0.20909041,0.083804734,-0.07634422,0.07455324,-0.11151874,-0.06414159,0.026449805,-0.07293985,0.17919937,-0.07608119,0.08968038,-0.022514857,-0.050210416,-0.06804628,0.028657772,-0.13668486,0.10854455,-0.031634238,0.084573835,0.18944947,0.072202906,0.009130381,-0.044199176,-0.043550827,-0.07766013,-0.10333926,0.111505195,0.18165383,0.25772658,0.15934783,-0.0203242,0.08254822,-0.0062530115,-0.041424528,-0.05616267,-0.3183433,-0.014053345,-0.0014512315,0.12220526,-0.038247645,0.0022808798,-0.07738286,0.06471367,-0.04958487,0.10486934,0.10076168,-0.09794076,-0.19897647,0.045100138,-0.107433476,-0.060742944,0.06555116,0.04342705,0.029313482,0.09594825,-0.08944962,0.03338763,0.10647968,-0.16870788,-0.010185093,-0.105488,0.024069145,-0.02490864,0.21481465,0.077710845,0.015810601,0.0039321193,-0.08116182,-0.048580375,-0.007973298,-0.09502881,-0.0894908,0.0046928376,-0.09336285,0.06642948,-0.046371378,-0.05603216,0.008911602,0.06714525,-0.1280405,0.035284292,-0.19406869,0.09698801,-0.06662061,0.16837971,-0.012973667,-0.019986596,-0.030146979,0.018994289,0.12917297,0.017377045,0.0693454,0.025395513,-0.15456899,0.010922693,-0.032055013,0.07570944,-0.045055375,-0.09118532,0.017593503,0.014692329,-0.04014651,0.03841655,0.002440855,-0.059292085,0.023063852,-0.13660413,-0.08275576,-0.17946391,-0.02011081,-0.104225546,0.13654642,0.110973455,0.010343447,-0.03881353,0.026856009,0.054841567,-0.043880697,0.13262054,0.031070612,0.04220133,-0.04525314,-0.12300217,-0.030854702,-0.042666603,0.018857941,0.1406592,-0.07650292,0.010261852,0.015018277,0.14147681,-0.024240943,0.09251293,-0.112470135,0.014074713,0.08307748,-4.823506e-05,-0.13936307,-0.016812764,0.11065759,-0.20064285,-0.03110549,0.13133755,0.011678349,-0.03965403,-0.1402577,-0.06445751,-0.1933029,-0.09744102,0.10674038,-0.029831372,0.035698254,0.010490253,-0.0033092876,0.038676698,0.040413704,-0.058366172,0.017713409,0.07513496,0.0019100287,-0.027844489,-0.11705881,0.08149351,0.029061165,-0.065108575,-0.061609797,0.009357667,0.0039006919,-0.09856798,-0.031852946,-0.035818838,-0.048126627,-0.0075809103,0.011384791,0.0195909,-0.011554245,0.015114326,-0.07765101,-0.057973314,-0.062333446,-0.055590097,-0.08187441,0.019246165,0.045951664,-0.16599461,-0.034437753,-0.0341514,0.012472507,0.18936232,0.0498093,0.2724532,-0.070968844,0.041295182,-0.13777794,0.3120953,0.01958022,0.11540805,-0.06531877,-0.10068848,0.2170804,-0.039779134,0.061035432,0.057224736,0.024428008,0.0873256,-0.115566485,-0.061775867,0.1392332,0.0065850466,-0.08424943,0.07358216,-0.023024032,-0.010722584,0.01664844,0.17144409,-0.021069683,0.08243288,0.030010229,0.054945476,0.016030759,-0.026126266,0.028060887,0.038948394,-0.003928978,0.13729727,-0.09345626,-0.044328928,0.051620312,0.069213465,0.10335425,0.117497735,0.042959306,-0.11441738,-0.029381283,-0.012151627,0.026556551,-0.017467303,0.109515324,0.05771302,-0.061015703,0.026931852,0.026689798,-0.01803992,0.066820845,0.051846102,-0.027788527,-0.004150808,-0.029517956,0.028212108,0.046374395,0.082253814,-0.030876864,-0.025407437,0.0041540787,0.14266615,0.058256567,0.059623417,0.11929783,-0.013762616,-0.09868629,-0.017267175,-0.07360446,-0.012924302,0.11739321,-0.089781076,-0.031874593,-0.19132759,0.020393219,-0.08970394,0.15631154,0.10229325,0.0171737,-0.019241016,0.11743682,-0.021619897,-0.09349507,-0.028106216,-0.08722818,-0.0356905,-0.14570831,0.04868443,0.0024975166,0.055721857,-0.118441924,-0.015189543,0.02333173,-0.25226203,0.038711894,0.030311964,-0.027523555,0.106940165,0.10123139,-0.043613315,0.1884095,0.07913493,-0.06605243,0.052297752,0.19422087,0.062385008,-0.08045956,-0.12620962,0.04454407,-0.039175984,0.067398615,0.0015150681,-0.08169017,0.08219477,-0.0061809644,-0.047213715,0.031923816,-0.06287789,-0.054527692,0.01082512,-0.016892439,-0.050615493,0.023997206,-0.067629814,-0.045301985,0.042866442,0.012514085,0.041250523,0.12014502,0.12916982,0.17704475,0.038381204,0.12510547,-0.10317418,0.09721506,0.031141877,0.0380381,0.027809352,-0.0782134,-0.13058685,-0.042971417,-0.051264472,0.04997881,-0.026172906,0.03375536,0.03886804,-0.0423421,-0.049853526,-0.029081136,0.03984997,-0.045474492,-0.061690286,0.062786676,-0.09429287,-0.0117989015,-0.026401088,0.006811209,0.012658488,-0.1206339,-0.073304355,-0.16710688,0.0100688785,0.11549992,0.09348449,0.06402888,-0.051450446,0.0012674034,0.07721768,-0.01303912,0.105453804,0.002884646,-0.06971567,0.04467504,0.1000327,-0.0753045,-0.04972537,-0.1132339,-0.09314903,0.0078558475,0.05662504,0.075637855,-0.017099746,-0.21361578,0.049683627,0.13743256,-0.07097006,0.07420918,0.037810072,0.07329207,0.11121438,-0.03956172,0.017967459,-0.070235446,-0.011893865,-0.006414756,-0.013079908,0.07037403,-0.01614853,-0.091589674,0.08820225,-0.074757464,-0.028250394,-0.00046620658,-0.2229862,0.18055351,0.09599891,0.09453506,0.17888892,0.044051956,-0.0318708,-0.0111454725,0.18786147,-0.057190552,0.033375304,-0.031665944,-0.008123502,-0.07583309,-0.038656786,0.0726526,-0.2075202,0.047857914,0.08453165,0.05382113,-0.05095411,-0.0601996,0.049129233,-0.0055868737,0.03680706,-0.045784097,-0.025963735,-0.026077203,-0.017473359,0.10433899,0.08411455,0.009942131,0.21368854,-0.059606753,0.033872508,-0.15147741,-0.05173858,0.15766303,0.03840112,0.036917638,-0.11146316,0.08089172,-0.019396706,-0.0418752,0.014711525,0.017257538,0.0027470198,-0.06253008,-0.02639346,-0.014597453,-0.0421171,0.004366804,-0.05627061,0.009075772,-0.08855085,-0.100602984,-0.11095465,-0.030430585,-0.043593056,0.008441916,-0.01638309,0.09854179,0.056633808,0.07749364,-0.036004066,-0.15552585,0.026194911,0.057803713,0.07121069,-0.083321095,0.037518475,0.014026418,-0.008762352,0.0086239055,0.0078281425,0.031644993,0.041376837,-0.2701719,0.10798414,0.05797427,0.049848363,0.057996348,-0.058656454,0.08636488,-0.09512568,-0.10004722,-0.10959072,0.02515177,0.022688558,0.014708644,0.042894088,0.03492637,-0.0699525,-0.18106134,0.10377776,-0.07871243,-0.00726847,0.07804904,-0.035054903,0.14765732,0.029224029,0.033834323,-0.010294907,0.062002502,0.11026053,0.061536133,-0.03126381,-0.06802854,0.07327245,0.10328714,-0.049940348,0.02755491,0.07941032,0.057984598,0.028796785,-0.06811279,0.081208706,-0.0012183171,0.11491807,0.006919794,-0.07704377,0.074153595,-0.10515107,-0.0630572,-0.010282748,0.009191342,-0.02682805,-0.05407507,-0.06649278,0.047367644,0.05715511,-0.053491622,0.011841208,0.024624636,-0.023632005,-0.07576639,-0.087516785,0.0006895941,0.0942041,0.08130997,-0.05822158,0.02138208,-0.035392053,-0.08165538,0.011195816,0.019450402,-0.01499626,-0.023796648,-0.05769823,0.10614659,-0.028580671,0.15146577,0.009865459,0.009928188,-0.060833156,-0.023355164,-0.06452316,0.062129274,-0.047315765,-0.06423385,-0.04930342,0.022086412,-0.07534128,-0.019532396,0.043569356,-0.11048603,-0.097646676,0.09774878,-0.027306616,0.11373421,0.010662191,-0.09785284,0.061582975,0.12039133,-0.021233974,0.13995421,0.05298465,-0.0076697394,0.2014532,0.073816046,0.047764413,-0.015773637,0.062442612,0.06880441,-0.07169704,-0.08913474,-0.11521759,-0.05308581,0.09524557,-0.11752484,0.030295514,-0.007967863,-0.19150871,-0.07834425,-0.19527057,0.008639591,-0.092653066,-0.07249323,0.092554964,-0.18226601,0.037599914,0.08306248,-0.005636912,-0.017010547,-0.032750644,-0.015505929,-0.056111675,0.013503587,-0.1539962,0.00098457,0.081915006,-0.013235617,-0.04725486,0.13715108,-0.033839136,0.04481452,0.028409984,0.01506166,0.117473416,0.122922815,-0.033297416,0.0036735125,0.12885326,0.0013589149,-0.15130647,-0.062183842,0.013671836,0.023120765,-0.07707522,0.04421266,0.03980725,0.15342188,0.048887566,0.059656337,-0.12265812,-0.09842544,-0.0076153837,0.017723441,-0.06531238,0.07600064,0.14347002,-0.11888915,-0.27930668,0.050758786,0.010204509,0.07567032,-0.14694205,-0.03125662,0.036977224,-0.124213845,0.0005146265,-0.11111826,-0.044919074,-0.02609644,-0.108068384,0.02956142,-0.031608254,-0.11775719,-0.3627217,0.026303126,-0.0057384595,0.037018612,0.05323753,-0.13794456,0.114357255,-0.089247674,-0.037760373,0.07921988,0.06422484,0.024650443,-0.09966452,-0.03532692,-0.060499724,0.019107029,-0.08066305,0.03167009,0.12407152,-0.12094453,-0.009465069,0.06271741,0.11117237,-0.019983577,0.027925432,0.03925955,0.005061757,-0.018399082,-0.06522716,-0.000531096,0.024022799,-0.04000333,0.30283964,0.18880591,-0.11114675,0.16233182,0.10226315,0.074905366,-0.049083814,0.14861727,-0.03231399,0.033731867,-0.10476048,-0.14923112,-0.0045623034,-0.002392795,-0.057627093,0.0733839,-0.16041802,0.09953205,-0.11267608,0.006823674,-0.1915019,-0.114404425,0.05998186,-0.019377835,-0.1501695,0.045547504,0.08213447,0.0046386756,-0.14080407,-0.06250789,-0.06430072,-0.005111281,-0.028701032,-0.022742756,-0.0076116994,-0.008412778,0.08776827,0.06325682,-0.17518544,-0.0029972233,-0.11035119,-0.02889697,0.18602756,0.14797875,0.13827546,-0.16082138,0.004598595,0.008730028,0.012515437,-0.085651405,-0.027798742,-0.013223921,0.099977516,0.13584584,-0.18719572,-0.08273704,-0.082640685,-0.07899189,0.10295339,0.19039664,0.09991923,0.050715894,0.073821545,-0.12860541,0.033397347,0.085793264,-0.14628968,-0.07421242,-0.29038772,-0.13092747,0.09075275,0.05521085,-0.026033426,-0.04376087,-0.0075061023,0.12043621,0.020466082,0.078977086,0.048401512,-0.032663472,0.058527693,0.16063702,0.031561855,0.0720179,-0.075809166,-0.058418877,0.12085567,0.0060627405,-0.09480391,0.020965623,-0.11201989,0.07472629,-0.14605191,0.029985866,-0.027195107,-0.056897555,0.01793028,-0.002664687,0.056293212,0.062683046,-0.108034834,0.088769004,0.019240826,-0.08864546,-0.035206757,0.08345653,-0.042990178,0.052207407,0.15728715,-0.0005243011,-0.030810572,-0.006230939,-0.12711783,-0.021183651,-0.037065867,0.022776037,-0.21270482,-0.11959219,-0.031381667,0.019787535,0.013304405,0.048255965,-0.08286357,-0.020556018,-0.11713449,-0.12887777,0.009712927,0.12541611,-0.12490001,-0.14294147,0.058910605,-0.019783523,-0.10391916,0.16902187,0.105868354,-0.0016204901,0.011894485,-0.090917066,-0.060363185,-0.010097064,-0.05151782,-0.07872145,-0.0711625,-0.09590559,-0.017479572,-0.17978597,-0.11108638,0.038641892,0.007327566,-0.048117027,-0.13429467,0.0437409,0.09865451,-0.078275435,-0.023306862,0.03490687,0.01304806,0.08093157,0.11075519,0.08477579,-0.09260156,0.16335042,-0.058305793,-0.03521867,-0.12834856,-0.004304212,-0.020778341,0.12807141,0.009437536,-0.024064127,-0.08175275,0.07119829,-0.04204467,0.18420875,-0.0071436316,-0.0773059,-0.034176666,-0.015913151,-0.07428358,0.046405368,0.0437433,0.029289547,-0.06973214,0.044354323,0.022718623,0.073583804,0.03947222,-0.0011739545,0.071192436,0.04080962,-0.00075688586,0.06018816,-0.09884383,0.1571086,0.022101976,-0.00253691,-0.036337838,-0.05695485,0.1810587,0.116775304,-0.02913565,0.14082554,-0.0249187,0.046162877,-0.008670077,0.030222489,0.054628044,0.07547937,0.08368899,0.13423,0.023370607,0.02418293,-0.014311515,-0.051883988,-0.069704294,0.1464917,0.0836848,-0.09956796,-0.035439964,0.11751318,-0.044570304,-0.06499086,-0.0091441125,-0.017016947,-0.10713675,0.1083474,-0.10359292,-0.06037621,-0.021492071,0.019805346,0.16254587,-0.069711156,-0.0038066655,-0.030843219,-0.072968684,-0.061057206,-0.06347698,-0.078394234,0.01057346,-0.054585803,0.12857006,0.021328207,-0.04213747,-0.031259153,0.12196585,0.076965824,0.018241007,0.139658,-0.095476255,0.111047,0.10189611,-0.032843523,0.071606204,-0.106874324,0.049774848,-0.14318153,-0.045222383,0.026532512,-0.0328182,-0.17310104,0.10727708,0.12082271,-0.054110903,-0.010191934,-0.0015781708,-0.09240977,-0.01599609,0.08003573,-0.15315019,-0.024334319,0.04572963,-0.16863582,0.043671213,0.19558431,0.014688175,0.09116885,0.1357337,0.08141658,0.1058061,-0.08137901,-0.00023417897,-0.06829962,-0.047734953,-0.0014910027,0.026957572,-0.01508835,0.03224863,0.015846163,0.099164315,0.056232117,-0.004850447,-0.061237574,0.039581478,0.0077700596,-0.020979308,0.22711083,-0.049801238,-0.04878826,0.057471313,0.03026678,0.0845438,0.025249535,0.013008952,0.031782605,-0.041409552,0.031947803,0.049284644,0.14485657,0.09942198,0.018926252,0.02630509,-0.039858323,0.11642702,0.09385673,-0.06916788,-0.03638929,0.024030223,0.13310888,-0.039257403,0.07155353,0.06708355,-0.01142779,0.012578204,-0.08851609,-0.016720325,-0.060496856,-0.10603018,0.057840418,0.22324415,0.0139811,0.07098043,-0.04604247,-0.08913713,-0.060572464,-0.07901466,-0.08233928,0.06756159,0.08267169,-0.06317805,-0.081363924,0.01856863,-0.006092705,0.04767671,-0.10431139,-0.056289006,-0.17806803,-0.0021789558,0.0066480637,0.12549281,-0.09336048,-0.05488616,-0.04485935,-0.081480026,-0.0052116215,0.0013235044,0.040427133,0.013203312,-0.02106499,-0.028512008,0.0033938363,-0.018489936,0.010117753,-0.00690187,0.086288676,0.00027868152,-0.032397788,0.09834606,0.08477494,-0.07790238,0.009341513,-0.0021617813,0.038563363,0.12143419,0.0655559,0.069659166,-0.047970623,0.17177701,0.043097526,0.05137489,-0.043039545,-0.00368765,0.0033620412,-0.028405823,-0.15100278,-0.0067606224,0.1559602,0.083457135,0.047722917,-0.038972475,0.11656512,-0.02816242,-0.121731415,0.084329285,0.074453734,-0.06246033,-0.010734018,0.10306306,-0.05805097,0.04710993,0.05009934,-0.058646366,0.08473524,0.008371301,0.12207336,0.10031082,0.07171927,-0.02830848,0.054172736,0.021496512,-0.04079358,-0.041914426,0.15275544,-0.07087304,-0.106757045,0.06575468,-0.15259308,0.019155256,-0.044378944,0.033275455,0.13177219,0.06533856,0.022329077,-0.029217467,-0.15027818,-0.060477555,-0.06427234,0.0133432,-0.035444025,0.06668579,-0.12087868,0.003917888,0.102402344,-0.061217636,-0.0036128946,0.026041873,0.021302711,0.15425046,-0.0774269,0.017348224,-0.016214948,0.07128743,-0.069144554,0.19058236,0.06958495,-0.029065333,0.008250602,-0.026838666,-0.010386586,0.0069278907,-0.09310803,0.013328977,-0.07477356,-0.040984076,0.068422034,0.09232,0.033178147,-0.009749977,0.013271347,0.12008344,-0.21694113,0.018167853,-0.12682316,-0.08551067,-0.08076668,0.03036433,0.03413333,0.057564065,-0.061364476,0.10436216,0.07386306,-0.043595903,-0.014568876,-0.06896463,-0.0693144,-0.010811418,0.033009134,0.055354644,-0.051904403,-0.0014944896,-0.104597956,-0.047600813,-0.08248343,-0.060616665,0.013724193,-0.007395787,-0.11693969,0.0016716624,0.055561926,0.006866485,0.12109098,-0.13371216,-0.049528275,0.008340143,-0.103568286,0.00019078702,-0.09386588,-0.021794226,0.10958869,-0.05198384,-0.124626406,-0.09719371,-0.05799737,-0.037277024,0.038385075,-0.13281521,-0.026339283,0.23559164,0.06830157,0.07715496,0.031219019,0.05570682,-0.078713186,0.09903861,-0.054073364,-0.04319997,-0.018525504,0.020261876,-0.057901517,0.08632042,-0.0389226,0.013376876,0.027819004,-0.088669136,-0.03761176,0.101625055,-0.055119187,0.085159995,-0.09759621,-0.035133738,-0.049858578,-0.0050097425,-0.093757525,-0.06703602,0.08207686,-0.04477114,0.05380276,-0.014433224,0.041686215,0.054101,0.20771836,0.023552634,-0.105457395,0.030643288,0.047099687,0.060391963,-0.009114414,-0.0040411483,0.023819584,-0.030202568,0.0062315688,-0.05192544,0.042904608,