1,1152,-0.0056916024,0.00897715,-0.018763654,0.025228292,-0.0036788622,0.0025236178,-0.027480388,-0.013943474,0.023001345,-0.010273559,0.012455629,-0.009877687,-0.007070637,-0.0002569007,-0.011348034,-0.049055595,-0.051113926,-0.019035004,-0.040875725,-0.032979656,-0.01364196,-0.029800126,-0.00132211,-0.03770685,-0.043024357,-0.08018168,-0.071759626,-0.022343298,-0.07151557,0.014147388,-0.039734233,-0.0502455,-0.1128118,0.007904575,-0.057255812,-0.02950981,-0.03778346,-0.085208334,-0.015454939,-0.027333692,0.0036267838,-0.01728957,0.007868598,-0.016060274,-0.034554753,-0.05734633,-0.030261118,-0.08270738,-0.04873987,-0.040278677,-0.014622727,-0.0072991126,-0.012185418,-0.011904642,0.0016013286,-0.010714207,-0.01647473,-0.022286257,-0.03062339,-0.015411282,-0.0005150449,0.03820675,-0.049097408,0.0021936863,-0.008740064,-0.01745382,-0.03853614,-0.032181263,0.0091407215,0.00075309176,-0.051347047,-0.01043426,-0.0008080872,0.020786038,-0.051775053,-0.029902102,-0.0022056543,0.008586424,-0.025782637,-0.023807002,-0.01595392,-0.0086565465,-0.031242318,0.24633938,0.010273967,-0.028187105,-0.027153866,-0.044872135,-0.0011566625,-0.0037420294,-0.0040439093,-0.027782021,0.00886616,-0.018942531,-0.011933911,0.008538612,-0.06345345,-0.028943937,-0.04640796,-0.038535554,-0.07657472,-0.018708006,0.01193569,-0.058288425,0.0028699345,-0.015727652,0.0011129756,-0.002670349,-0.07103898,-0.022533154,-0.0021002477,-0.06801252,-0.06448109,-0.032972094,-0.0059321886,0.006188777,-0.02568497,-0.0037335241,-0.0013274255,-0.056947693,0.0014100682,0.012596,-0.09581761,-0.02198934,-0.035299864,-0.024845945,-0.026139807,0.018653594,-0.041054,0.016709095,-0.062348124,-0.020681672,-0.036289424,-0.00917189,-0.0042572063,0.008875264,-0.0006560993,-0.022931952,-0.019078573,0.10932593,-0.054162722,-0.057224933,-0.017696625,0.0013065173,-0.04393733,-0.029322458,-0.0009545462,-0.018429605,-0.012057469,-0.009121886,-0.014808609,0.031128932,-0.03298294,-0.00076464826,-0.045762077,-0.019680932,0.003908708,-0.0044086054,-0.022938496,-0.023546746,0.025832715,0.0134592485,-0.0052639237,-0.023574658,-0.05873897,-0.08882478,0.022590326,-0.04382655,-0.011207256,-0.012390614,-0.05257659,0.012813133,-0.036692746,0.018871063,0.029535038,0.032281294,-0.057280734,-0.032348286,-0.013796574,0.042302497,-0.0018793129,-0.015126356,-0.040652465,-0.008889995,0.033245124,0.0050800946,0.0061479304,-0.024017485,-0.031835195,-0.14186573,-0.016733844,-0.04479816,-0.0023861236,0.0055187326,-0.025160775,0.018870138,-0.061456077,-0.02426802,-0.023099443,0.0013887144,-0.009394732,-0.04623146,-0.0053018155,-0.0016087831,-0.022710104,-0.011326339,-0.026972493,0.017347937,0.00055479805,-0.021778293,0.010516777,-0.0243806,0.03972949,-0.117588796,0.010928983,-0.01165028,0.023379901,-0.033713773,-0.0160777,0.015371897,-0.0007526891,-0.018141665,-0.04546368,0.020926204,-0.010397795,0.0008162145,-0.02116715,-0.016378593,0.010837517,-0.026250716,-0.0440041,-0.0001417955,-0.026955485,-0.06464565,-0.011074674,-0.034623396,-0.021375282,0.0016303785,-0.06115034,-0.03953285,-0.037339054,0.009746256,0.005795485,-0.03664503,-0.030336594,-0.026347227,0.014527791,-0.029033793,-0.015282672,-0.093413375,-0.01224052,-0.04614904,-0.041045915,0.012157775,-0.051204804,0.014196863,-0.014232008,-0.0037387062,-0.011350036,0.0010990218,-0.08323775,-0.00024956753,0.03415981,0.0036563072,0.01275247,0.0138069,-0.0569784,0.031828154,-0.00846884,-0.06439871,0.059301812,-0.039636634,-0.029782455,-0.019360485,0.0148271965,-0.028588405,-0.041536562,-0.06731495,-0.016802203,0.0023264324,-0.044221375,-0.032813217,-0.044229954,-0.029659953,-0.09498581,0.02341313,0.022447625,-0.047254052,-0.06313404,-0.020285629,-0.031120675,-0.005577918,-0.037086215,0.010041489,-0.0055408697,-0.007552975,-0.016216341,-0.037316903,-0.016574595,-0.005682669,-0.038708985,-0.03561569,-0.0006439993,0.016728187,-0.05005805,-0.0041154586,0.010411637,-0.04357201,-0.05727349,-0.059527963,0.0096665155,-0.06700065,0.005008736,-0.03002506,0.0061490987,0.007921039,-0.0055639963,-0.13225865,-0.015677774,0.017202975,-0.038540438,-0.025614958,-0.016531514,0.017729994,-0.0070407377,-0.00056906964,0.011308975,-0.004922244,-0.052795075,-0.0038490635,-0.05435921,5.114045e-05,-0.032100465,-0.053878613,-0.03422676,-0.009207102,0.006875803,-0.049339905,-0.035391804,-0.008586254,-0.011744688,-0.080048226,-0.022384647,-0.033700675,-0.013426399,0.0035747616,-0.015637152,-0.07984085,-0.0019306435,-0.0064675,0.00012674615,-0.029592877,-0.01624037,-0.031211503,-0.0467324,0.032898154,0.005487055,0.040260073,0.004266483,-0.022998432,-0.025440823,-0.04071567,0.009522627,-0.104229845,-0.039191816,-0.036630906,-0.026527159,-0.03728649,-0.002503106,-0.046863228,-0.09095817,-0.008848709,-0.007075848,0.0054608886,-0.011542996,-0.06044286,-0.044197906,-0.0665621,-0.018206645,-0.055345908,0.0031128447,-0.043962844,-0.03372206,-0.010951162,0.00860359,-0.05214716,-0.013812034,-0.01612281,-0.025783462,0.014829801,-0.045828864,-0.02914632,-0.004372007,-0.05215312,-0.032479264,-0.033255763,-0.032660708,-0.03052948,-0.0037702417,-0.009007092,-0.05647324,-0.015386842,-0.0202767,0.0044865045,-0.031548996,-0.020951033,-0.014930421,0.006541718,0.0038795539,-0.026347304,-0.049516696,-0.013917356,-0.042014875,-0.03422571,0.015905226,-0.012473607,-0.06595025,-0.07824767,-0.030712351,0.0021841403,-0.018488556,-0.052519567,-0.01612324,-0.04607346,0.010934098,0.015548901,-0.051941484,-0.017558085,-0.010940134,-0.014638886,0.03175566,0.0197432,-0.031711575,-0.027892014,0.011865217,0.01811489,-0.012370131,0.012574668,-0.054436658,-0.06536216,-0.06763804,0.0064312066,-0.0039284755,-0.0036308332,-0.067819044,-0.016813822,-0.017057143,0.00294508,-0.013010404,-0.09118634,-0.0012547864,-0.016388923,0.018930785,-0.006746189,-0.030660894,-0.035920653,-0.045089457,-0.03784323,-0.025396964,-0.050689247,-0.016245767,-0.042479236,-0.022307204,-0.045347407,-0.004995515,-0.005836534,-0.06348553,-0.08489902,0.012088509,-0.052685767,0.0042190924,-0.047938183,0.005066855,-0.007841774,-0.022635551,0.0018673288,-0.07225028,-0.0036740305,-0.03998293,0.013098217,0.1062986,-0.0058515673,-0.016426254,-0.048292525,0.020890126,-0.0147269415,0.009941742,-0.017862014,-0.02967696,-0.06122123,-0.01657537,-0.00977801,-0.011865251,-0.012394845,-0.0054229423,0.029637162,-0.015914371,-0.026977552,-0.013629866,-0.064352654,-0.032030687,-0.035013992,-0.050518963,-0.019861398,-0.058719147,-0.045844,-0.0017972353,0.017320912,0.016251404,-0.04426409,-0.013467959,-0.011018657,-0.03575828,-0.022877695,-0.010957912,0.015184954,-0.022553084,-0.10455578,-0.020766882,-0.05814107,-0.024830362,-0.012824472,-0.01764268,-0.03119315,-0.017635409,-0.03690254,-0.040907584,-0.02919716,-0.04696441,0.007803215,-0.06323056,-0.014081511,-0.027809784,-0.06152853,-0.02011055,-0.034623418,-0.035694353,-0.022601834,0.0053673713,-0.02132046,0.018454585,-0.13625515,-0.019599427,-0.00800889,-0.016869096,-0.017970245,-0.07403104,-0.043217927,-0.030882195,-0.03559523,0.19538438,-0.027218876,-0.04531379,-0.009380414,0.004165026,-0.070373505,0.0008266313,-0.024129933,-0.05242777,-0.035303477,-0.05257514,-0.03953243,0.0065218215,-0.00993184,-0.07243376,-0.011878097,-0.0009041124,-0.04419159,-0.017311491,-0.033770207,0.01930119,-0.0147874085,0.014205835,-0.0016631263,-0.012501364,-0.024277998,-0.021106254,0.044459797,0.0002684131,-0.09184265,-0.008137435,-0.07501103,-0.0066290735,-0.031847857,-0.02250008,-0.034713745,-0.022659406,0.004716015,-0.0032238725,-0.08938192,-0.05055318,-0.03784033,-0.033824563,0.009883803,-0.09130879,-0.035098698,0.046825886,0.010593627,-0.014888769,-0.022185687,-0.0638411,-0.07940735,-0.052010473,-0.01909028,0.0017709852,-0.0701962,-0.028169982,-0.034516003,-0.028324805,-0.06115492,-0.026003698,-0.009550844,-0.023498457,-0.032034792,-0.051351786,-0.018748146,-0.022637898,0.026932199,-0.022306342,-0.00544438,-0.06507867,-0.028700424,-0.049465977,-0.018106595,-0.0037741684,-0.013068301,-0.020630246,-0.00851128,-0.026928447,-0.0137266265,-0.0050668176,0.014296385,-0.03759141,-0.008468708,-0.05751739,0.0017253939,-0.007253016,-0.00086930714,-0.035027314,-0.03562763,-0.022463063,0.053891424,-0.014043724,0.0059521617,-0.012351447,-0.007867863,-0.0266909,-0.0010222738,0.0033732334,-0.06794421,-0.00194833,-0.011738847,-0.0145426495,-0.014749406,-0.009883905,-0.044440407,-0.0100823,0.008057862,-0.03939693,-0.021443373,-0.008311994,-0.0078032506,-0.044519782,-0.05391813,0.010441533,-0.044200473,0.014548866,-0.06968517,-0.0041179927,-0.0020428158,-0.010163284,0.007853794,-0.11727108,-0.016898673,-0.05215452,-0.040852495,-0.05626518,-0.036017433,-0.02013497,0.009977349,-0.047729786,0.015518009,-0.055086285,0.0348651,0.0032735493,-0.05597067,0.038546264,-0.022942916,-0.044891596,-0.053729333,-0.04709849,0.03233651,0.042160604,0.029427277,-0.014516799,0.0009640956,0.018067949,-0.027635371,-0.028244486,0.030436266,-0.009711926,-0.033261646,0.02558432,-0.03471676,-0.061436977,-0.010142458,-0.019567538,-0.0046143243,-0.024821902,0.0044982224,-0.02673362,-0.027547944,-0.009557863,-0.07270207,-0.023716496,-0.03749717,0.03364164,-0.019010045,-0.007835975,-0.046540137,-0.026908295,0.0021675222,-0.01124267,-0.03267225,-0.025773037,-0.06307199,0.03474487,-0.0032765225,-0.014408004,-0.019291108,-0.028514547,-0.023592941,-0.054328818,-0.006565398,-0.011079962,-0.026965715,-0.046083048,0.010331143,0.020215243,-0.039388612,-0.029234052,0.0037757275,-0.014546545,-0.04408036,-0.11010513,-0.0019503195,0.0125255985,-0.022947023,-0.01967769,-0.0084161945,-0.0011936162,0.007859117,0.029481966,0.008153984,-0.013828534,0.007013287,0.0011142057,-0.03625556,-0.008343696,-0.048978366,-0.017923305,-0.021923348,-0.0007069789,6.6396635e-05,-0.04748166,-0.049117632,-0.0025735218,-0.032243073,-0.048866715,-0.052457906,0.005597132,-0.022622801,-0.05601163,-0.0055025136,-0.011815766,-0.030164346,-0.024731623,-0.06384758,-0.0078748325,0.0015267893,-0.018567033,-0.018566085,-0.048903294,0.0041670953,-0.02397437,0.0073999274,-0.027768113,-0.0625731,-0.034046125,0.03257563,-0.028957954,0.00022633735,-0.023660338,-0.049963664,-0.02504507,-0.020190163,0.028902112,-0.022340346,-0.041448757,0.010815135,-0.030387426,-0.024351206,-0.004091502,-0.048053455,-0.002498618,-0.004068541,-0.08609013,-0.00754676,-0.03160957,-0.028763687,-0.018389577,-0.02471975,-0.023096107,0.0020755837,-0.005096796,0.014393926,-0.025540391,-0.042091638,0.052006565,-0.04177891,-0.011699512,-0.020879393,-0.023933219,-0.025206737,-0.031093484,-0.08096327,0.012480447,-0.010630405,0.01763656,-0.027807299,-0.038180888,-0.016481416,-0.024138397,0.016256288,-0.039241258,-0.057954844,-0.042655542,-0.03210827,-0.059385646,-0.07930081,0.0019419118,-0.10195799,-0.0022481314,0.004939437,0.030658882,-0.0003032835,0.0067234775,-0.036749285,-0.03736673,-0.056347676,-0.0626563,-0.067527965,0.00031514897,0.018924164,-0.039318323,-0.02634298,-0.016964449,-0.013094994,-0.04878537,-0.041090194,-0.03381242,-0.0010158422,-0.035155933,-0.012217662,0.00051206746,-0.022121858,-0.010943477,-0.0138105005,-0.0375495,-0.011422032,-0.023561481,0.016235339,-0.025713138,-0.0056376415,-0.019239781,-0.07111788,0.009679467,0.02789215,-0.0024540538,-0.0044299415,-0.045822002,-0.012917462,0.010468745,-0.04008333,-0.001682267,-0.0025980806,0.017361578,-0.0064208256,-0.05516174,0.009751696,-0.0077259135,-0.026996668,-0.15229757,-0.05036902,0.10903962,-0.014118366,-0.021881342,-0.033701923,0.002515779,-0.00079633814,0.02936173,-0.052791204,-0.006401658,-0.041221578,0.0108467,0.005625237,-0.01722092,-0.04096762,-0.0041363584,-0.010982519,-0.018002855,-0.017191298,0.008390001,-0.055616975,0.012442768,-0.01835079,0.020194175,-0.02591608,0.022525696,-0.05179334,-0.056921374,-0.022573678,-0.09308433,-0.035413228,0.00217672,-0.06302495,-0.024785398,-0.0091108,-0.062318172,-0.03008604,0.01345705,-0.013631117,-0.042723723,-0.045011118,-0.046168495,-0.037093166,-0.07902342,-0.015888635,-0.031019365,-0.03492923,-0.03113503,-0.008214498,-0.04250017,0.012769773,0.028552182,-0.035302017,-0.05765087,-0.036423117,-0.018441081,-0.040660962,-0.030709455,-0.08663385,-0.062135767,-0.07544655,-0.031828344,-0.013913362,-0.031786907,0.028002197,-0.054223873,-0.016330801,-0.0013283477,0.009338402,-0.027044343,-0.008749696,-0.01284962,0.008214573,0.014913926,0.0053410297,-0.04242844,-0.016606858,-0.055853173,-6.633064e-05,0.004233369,0.0038198119,-0.042047698,-0.025378881,-0.038687047,-0.0057896236,-0.025452634,0.012484172,-0.029531881,0.00041423846,0.009808553,-0.0426221,-0.046388272,0.0057562827,0.06580494,0.012843281,-0.016826758,-0.0067352043,-0.0068852133,-0.057838835,0.006824344,0.009967631,0.018654011,-0.0554999,-0.010393471,-0.04281631,-0.01922916,0.0044093207,-0.034194324,-0.024802871,-0.018433953,-0.019239228,-0.035315596,0.010484797,-0.031409204,-0.014460586,-0.008747887,-0.039384264,-0.05053778,-0.012214253,-0.014357295,-0.052967425,-0.02408767,-0.04864748,-0.021633394,-0.029290846,-0.007755927,-0.023404589,-0.009338265,-0.014881568,-0.063932404,0.00053507986,-0.023823021,-0.09201654,-0.03312703,-0.022879055,0.0030250975,-0.015870752,-0.010010649,0.030389594,0.0013831175,-0.008906319,-0.028934486,-0.013814477,-0.017773889,-0.031829022,-0.03158083,-0.031834077,0.02231019,-0.0032283254,-0.02413559,0.0017675678,-0.05869036,-0.06194155,-0.001098559,-0.02980989,-0.027334176,-0.04755219,-0.018338833,-0.018433247,0.03119769,-0.013666875,-0.017650548,-0.050079517,-0.024717335,-0.055206038,-0.060215216,0.025542593,-0.009981259,-0.01340379,0.010649962,0.002100284,-0.011386122,-0.09555549,-0.013117456,-0.019116035,-0.057846006,-0.013885745,-0.0003918037,-0.0035957096,-0.013444616,0.0020274394,-0.0982277,-0.02023028,-0.003991605,-0.012042552,-0.033729803,-0.047721885,-0.0072287233,-0.023226963,-0.03563655,-0.05023924,-0.04321222,-0.012811124,-0.05545362,-0.00827586,-0.011083157,0.016692357,-0.011328652,-0.02973195,-0.014305187,0.06202169,-0.008816904,-0.005641138,-0.029102033,-0.025516964,-0.012677265,-0.044100706,-0.033151634,-0.032880876,-0.034586176,-0.13884258,0.012296653,-0.038485654,-0.0014215555,-0.02762287,-0.014262703,-0.011069789,0.0004704374,-0.028455712,-0.003721636,-0.03249438,-0.029566994,-0.014813566,0.0048157563,-0.0053067585,-0.0013166193,-0.03586174,0.037782893,-0.012978453,-0.0186159,0.022800684,-0.015011547,-0.062927596,-0.04829158,-0.039121147,-0.023187611,0.0031288988,-0.036292385,-0.019571124,0.005458274,-0.03933225,-0.01846647,-0.04167992,-0.030004393,-0.043947376,0.013311761,-0.0025897583,0.014698407,-0.04378538,-0.029743964,-0.011657739,-0.015720252,-0.018363627,-0.012820749,0.01868822,-0.013453911,-0.042542923,-0.023843965,0.013567593
