1,144,0.019636739,-0.025459632,-0.13421893,0.24248956,-0.36289984,-0.03325843,0.09407013,0.07024911,-0.05705778,0.08056012,0.008910089,0.105011605,-0.09018577,0.16292514,0.0022978925,0.16727707,0.17850612,0.08579912,0.107678324,0.026662854,0.06539658,-0.06156291,-0.003916959,0.07910637,-0.26837617,0.123755775,-0.025620911,0.0006626076,0.14617921,0.064300165,0.15823343,0.09875674,-0.1301053,0.12148789,-0.176177,0.013483815,0.12188039,0.011771974,0.035536002,0.16751836,0.24913651,0.2917732,-0.12806882,-0.08235546,0.036778886,0.13583916,0.14116412,0.12452715,0.06593865,-0.065074064,0.07341802,-0.003014893,-0.13632993,-0.032952357,0.17784968,-0.2408226,0.108769946,0.008462923,0.06730122,-0.060231645,-0.3622513,0.03136735,0.091137044,-0.20242357,-0.09969349,0.11319568,0.03498879,-1.2270815e-05,0.40352586,-0.037247267,-0.054069716,-0.023663444,-0.0823529,-0.0004851443,-0.044982515,0.0036732082,-0.2471564,-0.10190285,-0.048609838,0.13775018,0.084769316,0.08839204,0.23072073,0.01887026,0.029157639,-0.28490084,0.06596587,0.06053653,0.52768594,0.16486825,-0.008519108,0.04880499,-0.007849879,0.029989213,-0.0023003358,-0.012128176,0.104145035,0.13060732,0.14065242,0.040593233,0.050259568,-0.04889032,0.04292966,0.1003202,-0.049497046,-0.059045244,0.10729667,0.032719,0.1137453,0.06673841,0.04680724,-0.030337,0.041576482,-0.028585235,-0.0056660348,-0.063322075,-0.041599005,0.21767375,-0.14071444,0.044278745,-0.0055398815,0.11652089,0.12385413,-0.14201434,0.046606816,-0.092411764,0.06533122,-0.22871661,0.037979554,-0.048703253,0.14545584,0.063047625,0.058656342,0.06484258,0.05509678,0.05743474,0.10893933,0.14449714,-0.15800984,0.27926064,0.14822678,-0.04188379,0.036893234,-0.040221773
