4,96,16,1,1,-0.107050955,-0.099294595,0.43656358,-0.30964738,-0.28171578,0.28548756,0.2165594,-0.059600413,-0.005306241,-0.6844709,-0.4398402,0.24313273,0.12031278,-0.67839617,0.21957827,0.68081707,-0.0006888211,0.012764394,0.027771458,-0.43589827,-0.095066585,0.13321748,0.0030671805,0.85788834,-0.33207774,-0.42555648,0.27170056,0.0017849803,0.34576494,-0.39505208,-0.15378357,-0.53431666,-0.15779309,0.16204977,0.5811645,0.99857664,-0.4673093,0.17990626,-0.0062508658,0.43069533,0.2385989,0.16024831,-0.9149376,0.34809753,-0.19143431,-0.15234518,-0.1714203,-0.41818246,-0.35479832,0.29592672,-1.0702455,-0.26023346,-0.2297506,-0.24203858,-0.30360276,0.39082953,0.21737489,-0.16863453,-0.71653384,-0.4467601,-0.20510046,-0.2544309,0.13346039,0.16753891,0.0845801,-0.22870864,0.36799082,-0.9753918,0.064006515,-0.65400004,0.29308453,0.12058562,0.14511874,-0.08533857,-0.3882769,0.23548543,-0.5362698,0.6875258,0.049088217,-0.8005993,-0.1041169,0.87452966,-0.08887932,-0.20681983,0.29293287,0.2443094,-0.8289688,0.0066281706,-0.22694704,-0.049840465,0.06009993,1.3804256,-0.08403993,0.02017268,0.17039132,0.089239374,0.21025845,-0.023177706,-0.0076610744,-0.12269842,-0.16888344,-0.11414018,0.15348467,-0.006509468,0.40537912,-0.49144387,-0.3275537,0.19917823,-0.12058389,-0.53682405,-0.13407038,0.5771866,-0.2586797,0.111677125,0.432477,0.28249893,-0.5341383,0.18650821,-0.086241275,-0.1368718,-0.16054937,-0.01905191,-0.3655211,0.18054864,0.3291729,0.054202188,-0.07949524,-0.3369412,-0.118754886,-0.032046616,-0.2819637,-0.07677433,0.12601526,-0.1691538,0.10346308,-0.22359034,0.2691524,0.099371985,0.11004158,0.052175943,-0.17679389,-0.45214275,-0.34901425,-0.16830532,0.19665052,-0.14199525,0.5136692,0.002524063,0.28109458,-0.13752322,0.22259168,-0.13400038,-0.024089135,0.18822467,0.55554515,0.1618342,0.030266356,-0.045881525,-0.20942631,-0.017875984,-0.22744277,0.566526,-0.328533,-0.17290664,0.34381115,-0.44284818,-0.48780015,0.17982729,-0.16683467,-0.042729963,-0.59176815,-1.0416731,0.05916044,-0.15040007,1.6603901,-0.0028579384,-0.091559835,0.0048639476,0.71681523,-0.0584414,-0.06538029,-0.0023887902,0.004280341,0.15093946,0.07618838,0.08446178,0.567819,-0.07461694,-0.0766554,0.064014316,0.36747962,0.0627334,0.05665204,1.5657874,-0.19449013,-0.18386897,-0.081285685,0.1000056,0.55218416,-0.10560964,-0.05149863,-0.052002024,0.24483068,0.6021656,0.10415205,0.122493595,0.058911517,0.026416466,-0.14003254,-0.4690922,-0.083708175,0.52987874,-0.349537,-0.08208907,0.24321479,-0.16365163,-0.038745645,-0.28279412,0.11035213,0.17709279,0.10521421,0.2582019,0.08517133,-0.12850727,0.55223364,0.08203776,0.0963895,-0.2133955,-0.09058872,0.11586128,-0.1284871,-0.10004529,0.3273153,0.32938856,-0.08421209,-0.009575307,0.1925981,-0.34879223,0.24908972,-0.19739933,0.3676539,-0.16560419,0.6050507,-0.4877563,-0.20951228,-0.22169013,0.22889425,-0.43890068,-0.3207035,-0.84495497,-0.43455243,0.08650492,-0.19504678,-1.140048,0.41227546,0.8656225,0.052752346,0.20113353,-0.6267475,0.025514374,-0.13255195,-0.29710197,-0.2878999,0.3402576,0.12714902,-0.05076143,-0.7247268,-0.30556458,0.067395076,-0.010786885,0.1339701,0.24112588,-0.05709912,0.1605169,-0.47473317,-0.4405869,0.10119438,-0.034264505,0.03017068,0.2038581,-0.15802647,0.17969267,-0.43930873,-0.12974784,0.06992889,-0.19624384,0.1625201,0.14743266,-0.47458297,0.13510935,-0.35746768,0.044678718,0.82367605,0.07101138,-0.17801839,0.47857794,0.88344365,0.27987552,0.2900256,-0.22192495,0.9277465,0.51617676,-0.06959052,-0.45494026,-0.04621719,0.2519458,-0.5271902,0.80377674,-0.073751,0.3779131,-0.3764664,0.7395821,-0.68613786,-0.3552105,0.752908,-0.38031453,0.54137987,-0.49531218,-0.3765271,0.4774445,-0.3656655,-0.16883448,0.2874238,-0.37556988,-0.1531933,-0.18534672,0.23256585,-0.8022686,0.28334528,0.06476553,-0.805791,0.27076072,-0.40686965,1.0268325,0.28422198,0.5918156,0.27291465,0.11737346,0.21893881,0.08358723,7.298589e-05,-0.21498862,-0.10616571,0.4112783,-0.14301638,0.034144938,0.004982561,-0.33304727,0.09300464,0.39452696,0.8087539,0.22814734,0.39435259,-0.22509262,-0.9519813,0.08947164,0.18824191,-0.05839768,0.24770139,-0.2547239,-0.27950668,0.036131755,-0.65198326,0.449964,0.3120584,0.018228173,-1.1153712,-0.010440446,-0.42019847,-0.085433066,-0.17287013,0.026619732,0.31469044,-0.26648995,0.1371501,-0.10869205,0.11865446,0.08772608,-0.06336521,0.06221354,0.028350525,-0.2829644,-0.2704004,0.24556321,-0.3153848,-0.045597166,-0.18831384,-0.3503492,-0.24389714,-0.043364707,0.14659314,0.20553866,0.32115382,-0.08108614,-0.20978338,0.11232339,-0.18300617,-0.51639295,-0.2098356,0.2530912,-0.077998914,0.20077951,0.41395,-0.091907844,-0.023367053,-0.014176067,-0.10532886,0.20347369,-0.10125731,0.027258925,0.06798059,-0.29339322,0.04835178,0.11819125,0.7489274,0.06675817,-0.13569878,0.1477353,-0.2669754,-0.08148273,-0.40021113,0.06275198,0.059241354,0.2847628,-0.033465717,-0.16435441,-0.44906774,-0.0053538666,-0.05165931,-0.123515725,0.3600658,0.3051338,-0.50365895,0.049813837,1.1224577,-0.34062305,-0.31082708,-0.0035106605,-0.042044453,0.44478709,0.39692858,0.22953612,1.0891786,-0.1885044,-0.42902347,-0.29730362,0.524513,0.32888597,0.043332465,-0.7191442,0.015115984,-0.03385458,0.09469579,0.37049866,0.84673434,0.06867397,0.027144015,0.056578755,-0.15406737,-1.2557137,-0.13048096,0.017791927,-0.05908668,-0.013851583,0.20203738,0.40862626,0.047441214,-0.38119808,0.08735441,-0.3417692,-0.31998628,0.5401632,-0.058452826,0.3067818,-0.5040785,-0.7082431,0.21169223,-0.03722529,1.4469931,0.18340757,0.057391323,0.038736105,-0.30646735,0.08370913,-0.22611591,0.21454945,-0.041235946,-0.5319885,0.37310472,-0.015204817,0.062269375,0.031997398,-0.19577095,-0.22948876,-0.08440068,-0.29942185,-0.3234798,-0.93661416,0.1719051,-0.28436396,-0.07312615,0.3166267,-0.85244083,0.040943228,-0.2612974,0.18843728,-0.26690763,0.14498065,0.21923861,-0.13344872,0.21979773,-0.13752772,-0.20511886,-0.07958274,0.38276717,0.0071569905,0.32967648,-0.14677384,0.102851726,-0.34720996,-0.34768274,-0.3601365,0.13034935,0.071574405,-0.24415696,0.09834096,0.09250575,-0.15957941,0.43537343,0.089980155,0.7118583,-0.07705501,0.3438235,-0.21227232,-0.11754666,0.43692556,-0.3273958,0.17003629,0.10682264,-0.27311215,0.21944906,0.33630523,1.0471289,0.29013786,0.092376284,0.78340304,0.7679974,-0.08821212,0.32569706,0.2999881,-0.61939126,-0.051315308,-0.22063293,0.030306295,-0.5336162,-0.56444496,-0.054567233,0.035188124,-0.92388946,0.085259676,-0.03284374,0.075831905,0.6634277,-0.07956389,-0.0684012,-0.010030333,-0.17692627,0.26870286,-0.16878185,0.0032821745,0.084911704,-0.1625825,0.08898427,0.1405101,0.8735941,0.068157256,0.09926554,-0.091946065,0.2808003,-0.2919927,0.013185665,-0.1155005,0.1448335,-0.15515843,0.0055344636,-0.37773588,-0.32299507,0.17583264,-0.050728127,-0.19001876,0.0679145,0.20836046,-0.107230455,0.044424884,-0.23762539,0.049965918,-0.119492695,-0.093569145,-0.009015352,0.14712612,-0.17688967,-0.693671,-0.15758558,-0.03884609,-0.27838725,-0.19523585,0.19143015,-0.027040575,-0.28814185,-1.4584293,0.3630655,0.47581038,-0.63402086,-0.27864075,-0.47205195,-0.1805017,-0.22955963,-0.23431087,-0.27800167,-0.11503765,0.6141763,0.09217553,0.23413546,-0.26099116,-0.32031316,0.07696861,-0.29754853,0.087436885,-0.12224679,-0.24111828,-0.19578373,0.10245046,-0.2243329,-0.13642517,-0.4300624,-0.24379247,0.043926477,0.02326794,0.46055537,-0.04130642,-0.34392303,0.24786212,0.44058657,0.8520373,-0.52596474,-0.6952777,1.3264397,0.089367405,-0.030550435,-0.1283728,-0.34226134,0.637748,0.43815926,-0.10767463,0.46206388,-0.28889483,-0.0030564666,0.11521937,-0.85681343,0.1275122,-0.07386242,-0.28663042,-0.27217364,0.22501196,0.13646685,-0.15611826,-0.63532126,-0.2598731,-0.024585873,-0.08351238,0.2782911,0.05077939,0.19859684,0.020424291,0.3606879,0.12788038,0.02220115,-0.11197981,-0.04509887,0.26500672,-0.13683708,-0.15004764,0.016878776,-0.09181246,0.16135484,0.3980863,0.4167694,0.21047473,-0.08727501,0.2593087,-1.2872574,-0.09689397,0.14693008,-0.18880004,-0.20335156,-0.000838412,-0.15200897,0.0015384108,-1.0986699,-0.31992772,0.24605957,-0.15402639,0.10447651,-0.13443513,-0.011617228,-0.677924,-0.15274994,-0.3717792,-0.17482238,0.10829608,-1.546426,-0.078315705,-0.10718185,0.05473631,0.13626613,0.6000637,0.17627925,0.09039286,0.114662915,0.027249543,0.6669936,-0.18713231,-1.2061336,-0.03069902,0.6779203,-0.4770484,0.18744743,-0.14308375,-0.3980322,0.16709472,-1.0500541,0.24454032,0.4138527,-0.10990697,-0.8304133,-0.00018984824,0.33523026,0.09188193,0.03874713,0.052759983,-0.26127887,0.27193087,-0.034371063,-0.26666567,0.2931344,-0.043361247,-0.01653497,0.056360587,0.032805145,-0.21759732,0.2167657,-0.40730458,0.107270345,-0.45926148,-0.04781728,-0.1453675,0.45977068,0.78521264,0.53699493,0.22217667,-0.0525034,0.032857336,-0.24285412,-0.7681174,-0.42523822,0.08760735,-0.06609964,0.10701753,0.13406023,1.0292934,-0.0858335,0.12157663,0.006443565,-0.16353068,0.91127604,-0.025392754,0.09078275,-0.07451314,0.13031003,0.0064492524,-0.042890847,0.060844872,-0.117180705,0.047873065,0.4946897,0.5922962,-0.27063945,0.4252352,0.12435165,-0.52276397,0.3395421,-0.11363869,0.39708042,-0.28113687,0.3894584,-0.15232384,-0.28334242,0.18336962,-0.35562685,0.19385026,-0.07810031,0.058576196,-0.2542038,0.1589008,-0.013908854,0.012323383,-0.09174399,0.20213927,-0.097787105,0.5390793,0.2135566,-0.10015942,-0.021625362,0.21081246,-0.0557219,-0.28993347,-0.09836173,-0.513474,0.18912885,-0.25908014,-0.20886822,0.22988647,0.54520273,0.051199522,-0.05134681,0.313296,0.35955948,0.91563165,-0.006197229,-0.031603158,-1.4979317,0.191363,0.38347402,-0.2291059,1.2824844,-0.016137138,0.6713336,-0.14567736,0.28513664,0.04981369,-0.33810788,0.37404138,0.65856016,0.2152005,0.36299574,0.27337986,0.3433549,0.110866055,-0.21835077,-0.12670112,0.13265374,-0.11023678,-0.15058921,-0.2302021,-0.9767168,-0.044694766,-0.12234497,0.09354906,-0.045924768,0.78074604,0.2617898,-0.123280704,0.1704808,-0.08492837,0.53959996,0.117492795,0.13914302,0.310301,0.038928743,-0.16236326,-0.22987401,0.18364327,0.07857393,-0.20000584,0.26852435,-0.35974398,-0.06773308,0.52454984,0.7319341,0.25025964,1.0788406,-0.054090016,0.027193904,-0.48258573,-0.210719,0.03048908,0.016543001,0.6924449,0.36367235,-0.22071402,0.18810293,0.016701601,0.26735455,-0.64975744,-0.09308734,-0.8918063,-0.061668396,0.19069877,-0.8830292,0.26647162,-0.17152333,-0.17357732,-0.25252503,0.05882895,0.11685421,-0.3626625,-0.48999804,-0.2859968,-0.16877155,0.15642262,0.14508787,0.05110311,0.1898739,0.15065712,0.52155906,0.16599338,0.04843468,-0.26219192,-0.21838394,0.32550737,-0.07239364,-0.23332672,0.20187655,-0.30777866,-0.09099676,0.4831412,0.7562856,0.30035177,0.30405092,0.04045664,-0.04742785,-0.2389466,-0.019492418,-0.03065519,0.07919908,0.28396228,0.26739085,0.6515823,-0.30069008,0.05421941,0.37377012,-0.19638978,0.11628537,0.25907692,-0.041540354,0.9742639,-0.023547726,-0.0035170913,-0.4115944,-0.5377072,-1.1262888,-0.19771959,-0.0865404,-0.11917067,0.25088122,1.6038151,0.37468475,0.078961514,0.09952262,-0.010885765,-0.055835858,-0.13139565,0.5514815,-0.18203536,0.03824669,0.0749627,0.31484228,-0.054373,-0.08470097,0.16234575,0.50457686,0.26203707,-0.06333206,-0.12142621,-0.10220176,0.053319722,-0.31859934,-0.095328845,0.10239959,0.088630535,0.3179689,-0.17571929,0.116822205,-0.5469935,0.0565022,0.32094938,-0.07361673,0.08551362,-0.12239271,-0.0044261813,-0.05021613,0.29036534,-0.333935,0.772296,0.18137527,-0.2512359,-0.1442782,0.22332974,1.0748194,0.057113577,-0.26665208,0.19900705,-0.21960029,0.040082574,0.29213595,-0.13436966,0.24197097,-0.14148736,0.20859286,0.21870248,-0.1294916,-0.046463713,-0.4429986,0.081837796,-0.12468039,0.079335034,0.009946838,0.19038077,0.06197557,-0.16584742,-0.28739342,0.118641764,0.11364244,-0.3838296,0.56257397,0.1029891,0.105514266,0.2672424,0.3897444,-0.14301762,0.17213793,-0.3122763,-0.18790658,-0.11489463,-0.013805866,-0.008364409,0.26740146,0.21375027,0.11907135,-0.06294155,-0.14523092,-0.071916044,0.08838714,0.19645065,0.3599257,-0.15422826,0.091120616,-0.74537826,0.2597826,0.4982476,-0.007528968,0.04288821,-0.17082828,0.0064736456,0.119408995,0.3534122,-0.57059675,0.13880709,-0.55534154,-0.1715481,-0.17376219,-0.19983262,-0.11876619,0.52817386,0.100918114,0.73974043,0.1935684,-0.22203757,-0.2509115,0.1550239,-0.27059832,-0.31124648,-0.14349803,0.035216346,-0.04100482,-0.14838634,-0.22473124,0.08944541,-0.02213855,0.7658587,-0.33348274,-0.46601632,0.03799344,-0.00029595196,0.043469008,0.02917099,-0.20502964,-0.08067652,-0.3974043,-0.06819468,-0.09797541,-0.1612113,0.1616544,-0.13457587,0.056299314,-0.25833946,0.4907937,-0.02291596,-0.047321603,0.07154696,-0.031289637,-0.5542844,-0.0070453137,-0.038757265,0.14895317,-0.09313241,0.33207697,-0.06487822,0.10592228,-0.06981941,0.099488035,-0.41063625,0.17133534,0.516032,-0.057745416,0.11712723,0.07992821,0.059157096,0.09898077,0.1896748,-0.09424117,-0.7749653,0.04901937,0.11918379,-0.38584822,0.25923675,0.8533994,-0.08066584,-0.031095386,-0.11716642,-0.09533337,-1.2433015,0.17074612,0.14311323,-0.020047553,-0.15366417,-0.044131488,0.17263123,-0.5950644,-0.06692496,-0.096624225,-0.087233044,-0.14905964,0.18019241,0.0031635165,-0.015781153,-0.67614955,-0.20606849,0.13562424,-0.13124081,0.17630234,-0.005381562,-0.07984385,0.28922614,-0.5322639,0.03212739,-0.33081526,-0.044474483,-0.3190917,0.29957718,0.1508584,-0.1490466,-0.64863694,-0.28114265,-0.0076064095,0.035331763,0.33214533,0.24793091,-0.20198703,1.1648662,0.0964664,-0.05531886,-0.09620542,0.006714888,0.8674514,0.019468829,-0.13009141,0.073762506,-0.044878885,0.2978117,0.15471476,-0.078323,0.0978056,-0.0744403,-0.33766875,-0.17755389,-0.17669845,-0.30775377,0.73256606,-0.81100065,0.14156163,0.7293622,-0.45190278,0.1205657,0.07094127,-0.02005905,0.12813099,0.09677749,-0.4534071,0.7531027,0.06417403,-0.23314995,0.19611624,-0.27474755,0.1347111,-0.11710729,0.27458665,0.06568986,-0.046908077,0.3471333,0.23326382,0.34770077,0.06253406,-0.32877353,-0.45663816,-0.012553811,0.55297834,-0.32183272,0.47684366,0.11061611,0.18784745,0.030849993,0.058455914,-0.33346575,0.027851623,-0.42471474,-0.039692525,0.2601313,0.18913013,-0.19773926,0.38714078,0.25381607,-0.2993728,-0.98845303,0.124900214,-0.3977478,-0.07812745,0.39164862,-0.38883236,0.031814232,-0.28738984,0.20897801,-0.2232686,-0.32084543,0.23301102,-0.1045466,0.21828032,-0.09841677,-0.12840271,0.09078863,-0.40933746,-0.07663494,-0.113177374,0.0207285,-0.2646938,0.23299876,0.17283715,0.35810524,-0.085368395,-0.17070007,0.04760091,0.110149786,-0.17951557,-0.10392637,-0.06464351,0.8165422,-0.038168773,-0.12925312,-0.17463563,-0.47286588,-0.46118262,-0.13233092,-0.06747007,0.016362458,0.22312708,0.93215144,0.28537625,-0.036097944,0.068424605,0.0062170327,-0.11874346,-0.88597965,0.07206579,-0.06382332,-0.0183831,0.21435699,-1.0791478,0.14896172,-0.086321115,0.08066778,-0.21713106,0.43492523,-0.06425229,-0.043439418,0.104823254,0.017251015,-0.5940745,-0.18223567,-0.16973571,-0.4950549,0.20139606,-0.20959705,0.27700374,-0.21967685,0.4230259,0.36965975,0.019878373,0.18593532,-0.20696065,-0.7883342,-0.4460737,-0.054525174,-0.031100499,-0.07943684,0.48028868,-0.040051788,0.3621924,-0.019661838,0.14570114,-0.500882,-0.16500744,0.145161,0.28792685,0.10476156,-0.036390938,0.29333302,0.068564385,-0.27036077,-0.40005538,0.0515336,-0.028174996,0.37661368,0.383375,0.10886808,0.012952618,-0.6597307,0.25083506,1.0445144,0.11700192,-0.11604912,0.287758,-0.4151811,0.22889216,0.8096487,0.15753885,0.13404977,-0.5620878,0.44796237,-0.3441738,-0.24316117,-0.2010045,0.027353128,-1.0990566,1.1389935,0.36819798,-0.28746963,-0.52001476,-0.09493807,-0.12490545,0.056390166,-0.14132036,0.03234594,-0.18769225,-0.22161303,-0.18195006,0.032687783,-0.011465684,-0.2421354,0.31775612,0.15236096,0.080693185,0.06090653,-0.34935674,-0.39726698,-0.1782984,-0.40924564,-0.116440296,-0.109806985,0.4715895,-0.15674467,0.564958,0.24984471,0.1397958,0.052672267,0.6839723,-0.80001926,-0.1798335,0.18048659,0.99154437,-0.26627564,0.08927875,0.83706266,0.1804259,0.94962096,-0.17888206,0.020050079,0.507107,0.9778783,0.7536644,0.24342212,-0.04101956,-0.067069076,-0.19944547,0.23469006,-0.60131335,0.13581653,0.09705442,0.08710264,0.2530417,-0.55892557,0.43336266,-0.24763244,0.065015,0.07523998,0.54383564,0.06792158,-0.014537945,0.35792306,0.62457436,0.89954764,0.06297427,-0.1533612,-1.3764844,0.09950051,0.6725668,0.14075506,0.0014058203,-0.13271815,-0.097855374,0.081690386,-0.18915583,-0.12718874,0.4194747,0.2187324,0.040897906,-0.31525433,0.17688064,-0.34690648,0.17491376,-0.23893008,0.012952527,-1.0158675,0.008308947,0.0045188963,-0.00057685375,0.018370435,-0.8465512,0.00233984,0.023729451,0.0052089356,-0.056753546,-0.09473224,-0.043783434,-0.011332735,-0.008058615,0.018068535,0.30862015,-0.84033996,-0.12588185,0.29104528,0.060463667,-0.3257282,-0.80694187,-0.06918345,0.2716866,-0.16052014,0.18744949,-0.21713436,-0.19903913,0.09523136,-0.2278041,0.10722999,-0.35126984,0.118856415,1.047991,-0.11857551,-0.21282975,0.16450083,-0.07303577,0.16183487,-0.014832573,0.011773124,0.6932542,-0.20243907,-0.12825367,-0.05322649,0.8495331,0.15966162,-0.56088233,-0.05958308,-0.12322115,-0.07980272,0.28330818,-0.4326962,0.015976287,0.13394678,-0.54496384,-0.9040657,0.30241013,-0.11820943,-0.45604372,0.091098264,-0.38251486,-0.363743,0.13908228,0.158615,0.43766028,0.114718154,0.09665221,-0.36626223,-0.06507602,0.31122112,-0.091286115,-0.14446412,0.19842815,-0.24200773,-0.052693635,0.32326022,0.5915581,0.2551474,-0.0666644,0.7433552,-0.077895164,-0.7027317,-0.7298677,-0.23551285,0.33002168,-0.4594058,-0.3029323,-0.06278083,0.445452,-0.72694016,0.7904989,0.30239496,-0.5465102,0.08228584
