1,672,-0.0094704125,0.005772957,0.034793593,-0.03011322,-0.04944208,0.014579815,-0.0055869482,0.033757385,-0.030970078,-0.0064326236,-0.01157637,0.0041993274,-0.12164205,-0.04384397,-0.026886128,-0.0074069495,0.01143938,0.000997359,-0.024618324,-0.018276863,-0.061610833,-0.031821445,-0.040231027,0.006108115,-0.060161516,0.04433689,-0.05153043,-0.0070685446,0.029589863,0.013151122,-0.0177596,0.008731091,-0.047306985,-0.04971506,-0.0048664506,0.0005811494,0.0014224227,-0.044893663,-0.010717568,-0.014125991,0.006440985,-0.026861785,-0.012340663,-0.03738188,-0.008058281,-0.03243471,-0.02893424,0.01906919,-0.00828545,0.0022711651,-0.0069095506,0.053392965,-0.0199093,-0.044317026,-0.034298074,-0.031008529,-0.05214103,0.010501376,-0.0052625383,-0.01805573,-0.008946257,-0.034129303,-0.034106486,-0.07912338,-0.06115429,0.031158324,-0.0031633521,0.01706702,-0.0036221328,-0.024719516,-0.0034022823,-0.024930678,-0.0024337766,-0.0006018358,-0.0034675107,0.0042633545,0.026767725,0.0021825393,0.001214852,0.009262323,-0.012921781,0.002197709,-0.09035184,-0.018415028,-0.00814533,0.046099473,0.0061778766,-0.001247814,0.014020129,-0.026112966,-0.013891145,0.004579449,-0.080741495,-0.0093841255,0.01676759,0.008719314,0.0139232725,-0.056592688,-0.021301351,-0.02705362,0.004048474,0.0068412195,0.034689788,0.01231263,-0.007076678,-0.04716854,0.034674585,0.018625604,0.03274992,-0.0062808674,-0.043546893,-0.027605696,-0.029641606,-0.006377228,0.031144125,0.014259673,0.009382971,-0.011071962,-0.0352359,-0.002370759,0.0004416871,0.0038506875,0.02121629,-0.01922855,-0.03838248,0.016916689,0.008662432,0.0008056684,0.002657004,-0.03987744,0.012279873,0.028137164,-0.021639481,-0.011660915,-0.011859072,-0.025327412,-0.02460208,0.00201785,-0.042968813,-0.009660907,0.024103198,-0.04952538,0.026024437,0.014459942,-0.0034190214,-0.028135287,-0.020764535,0.019643018,-0.014002834,0.012944171,-0.0052529746,-0.018865472,0.021531656,-0.03158088,-0.04890552,-0.0660319,-0.006517827,-0.017955052,-0.0046154317,-0.014205111,0.006876454,-0.0143017145,-0.018909652,-0.02927322,0.0028772566,-0.014200553,0.026678829,-0.006001695,-0.006379128,0.028099548,-0.02505943,-0.030108385,-0.003950556,0.003729328,-0.029485922,-0.0011646138,-0.055706587,-0.023104778,0.007937592,0.048908632,-0.061037693,-0.02261218,0.0049827127,-0.007930049,0.046545424,0.0045651416,-0.007670408,-0.004536893,0.004464227,-0.024146857,0.002799156,-0.0073039564,-0.020974455,0.020027677,-0.01940994,0.00330743,-0.07909743,-0.04089675,-0.096739836,0.016482333,-0.04427385,-0.025317963,0.011019671,-0.014669337,0.0063276687,-0.015687887,-0.07314725,0.05626549,-0.024076756,0.035814002,0.016898056,-0.027061397,0.005498512,-0.04416612,-0.023222769,-0.010349349,0.026351765,0.022407398,-0.024029661,-0.00021632118,0.028977852,-0.07532719,-0.032356374,-0.0182299,0.019366197,-0.020463299,-0.043662053,0.0071619027,0.0010453801,0.017280394,0.0050514415,-0.033851955,-0.013180816,0.020374449,0.0020428589,0.0063274987,0.01741187,-0.003306733,0.017125165,0.013408772,-0.0010258838,0.012339437,-4.8695496e-05,0.032734178,0.016320666,0.0025163416,-0.04416765,0.024582561,-0.09841053,-0.07776221,0.011321628,-0.0054637794,-0.03485923,-0.024869105,-0.01712978,-0.0830049,0.043038983,-0.013471713,-0.010210872,0.013464997,0.021975594,0.031174991,-0.008896429,8.9092675e-05,-0.035308827,-0.06771917,-0.03677173,-0.03942175,-0.047292773,-0.030441973,-0.007415493,-0.039454497,0.013801113,-0.08182521,-0.00093188713,0.0047863843,-0.014613635,0.01903119,-0.01337052,-0.0036892258,0.0066872383,-0.006293773,0.049948502,-0.0026509394,-0.108631864,-0.018767588,-0.014908054,0.028386604,-0.016865727,-0.047488783,-0.002849928,-0.055419788,-0.04238691,-0.030671464,0.019119352,-0.01917414,-0.0049906233,0.05382571,0.0042336085,0.0045130006,-0.012811785,-0.0113733215,-0.003447553,-0.044387363,-0.0035051042,0.019180018,-0.012553876,-0.025425136,-0.04756084,-0.037437934,0.007250441,-0.012757322,0.031706784,-0.042594206,-0.009637671,0.006831277,-0.0013012333,-0.0708713,-0.019412348,-0.030817525,-0.051983338,-0.017037913,-0.017143643,0.0038527392,-0.007008701,-0.032520536,0.023974702,-0.084390394,0.012592827,-0.006192848,-0.03689124,0.001483915,0.020137988,-0.01619008,0.013011336,-0.05804949,-0.03371617,-0.0022919523,0.013880858,-0.09273947,-0.118608765,-0.0076240855,-0.016137902,-0.0147910435,-0.011084959,0.01532689,-0.017389147,0.014601211,0.020982804,-0.0065178303,-0.08088999,-0.027222577,-0.03330675,-0.032040056,0.035174564,-0.041984133,-0.025813684,0.01490886,-0.021742715,0.0479042,-0.017711619,0.0076095187,0.0070771733,-0.059875466,-0.03453601,-0.011301189,0.00963086,-0.02479266,-0.020109288,-0.027483461,0.0025329809,-0.008076812,-0.029884854,0.028856948,-0.0024118994,0.008498332,-0.056203727,-0.006286724,-0.058980815,0.025912423,0.00023714188,0.00086790277,-0.027387727,0.0096235685,-0.00822875,-0.019256795,-0.0068166587,-0.07036934,-0.022526808,0.028178645,-0.0010425852,0.027913967,-0.02765307,0.044702277,-0.0012536356,-0.029071284,-0.011707468,-0.027286151,-0.027655195,0.056780316,-0.007960594,-0.036867786,-0.025666883,-0.043993827,-0.05853142,0.011716237,0.041437127,0.01052973,-0.029921165,-0.028620573,0.0078097805,-0.0043646884,-0.057064824,-0.04364725,-0.03198376,-0.018226625,0.0012612696,-0.005447332,-0.011528398,-0.045605954,0.0036970188,-0.038525566,-0.055749863,-0.0026273727,-0.0009966438,0.03188313,-0.021595586,-0.019578861,-0.013057364,-0.06693541,0.0049542408,-0.045195714,-0.028696021,-0.015271237,0.008229717,-0.031318527,-0.034096796,-0.023203356,-0.018481225,-0.08388736,0.025720108,0.0026895653,-0.017454442,-0.05815239,0.011038445,-0.008372523,0.0026124124,-0.10493709,-0.055366438,-0.00888319,-0.022805497,-0.017968897,-0.00930706,-0.0052873003,-0.037748363,0.013263077,0.0108941775,0.011904232,0.004294009,-0.036242347,0.009902996,0.027139941,0.025023298,0.005350183,-0.061137106,-0.061815325,0.012202991,-0.0053935223,-0.0544029,-0.027126424,0.009713936,-0.12053935,0.015502932,-0.001194533,-0.018427048,-0.015227018,-0.00049316697,0.04766963,-0.006513399,-0.0044939015,-0.0139502855,0.0070806146,-0.038140696,0.016756114,-0.01168991,-0.06920676,-0.028914908,0.014424304,-0.024005309,-0.00953391,-0.06912666,-0.026951686,-0.010235904,-0.0026678094,-0.01143067,-0.02988019,-0.020734403,-0.030447528,-0.04622599,-0.043740246,0.010487206,-0.00046483998,0.012445145,-0.058929358,-0.0043165237,0.011724897,-0.023201965,-0.07194796,-0.021702753,0.018952783,-0.010490931,-0.00952533,0.0038698018,0.023747591,-0.01344457,0.037700795,0.0033640927,0.01019342,-0.023776535,0.0021600793,0.033460677,0.022497151,0.0024864394,-0.015209867,-0.024245556,-0.0017628263,-0.033137992,0.012761475,0.018083781,-0.018705241,0.03567034,-0.07364134,-0.07979641,-0.014803053,0.027728252,0.021249387,-0.018297931,-0.012853854,0.007167438,-0.041280687,-0.014129477,-0.0077520283,-0.027628418,-0.02728501,-0.014658478,-0.0005240007,-0.02684148,-0.12874182,0.03190222,0.0023592326,-0.009181269,-0.0039423117,-0.013794834,-0.038097363,-0.055760104,-0.034491353,0.014319272,4.0017618e-05,0.0033780315,0.010015505,-0.028079366,-0.012297673,0.0050389925,-0.0668318,0.0322873,0.023724,-0.06035761,-0.04345161,-0.030594872,-0.010020106,-0.022342706,-0.0002838401,-0.004090104,-0.054611642,0.011633334,-0.077209264,-0.009169522,-0.031971008,-0.0050267,0.012823659,0.065418184,-0.01904026,0.0067808526,-0.0013164227,-0.029858246,-0.027982809,-0.040228408,-0.020846972,-0.012639255,-0.036241885,-0.013106451,0.023574559,-0.0019843974,0.0010748865,-0.053458538,-0.068555206,0.013654159,0.03562075,-0.011780527,-0.07117533,-0.024131116,0.011442,-0.027201403,-0.051890116,0.011797093,-0.00096051645,0.014819367,0.0031825516,0.0005565455,-0.053578127,0.060889374,-0.084604494,-0.0004591861,0.05770371,-0.0054020523,-0.063903295,-0.0035453523,0.013185493,-0.043962277,-0.002118547,-0.016961213,0.0024726368,-0.05766791,-0.017284255,-0.019457933,-0.035892934,0.017742606,-0.0153095685,-0.025756469,-0.026344074,-0.017350733,-0.07116207,0.01411503,-0.053439584,-0.03087105,-0.06472724,-0.023792306,-0.063489765,-0.027299454,-0.026694892,-0.054131,-0.06081449,-0.015925938,-0.028054537,-0.07829727,0.019413384,-0.06933698,-0.050118368,0.00021295575,-0.018961795,-0.0089971665,-0.028293168,-0.024400735,-0.029517282,0.038635023,-0.005893021,0.039101914,-0.07527425,-0.039607525,-0.030003794,-0.020668313,-0.010203356,0.0047043315,-0.00016177769,0.010313084,-0.005340413,0.016698608,-0.0025040242,0.002191561,-0.040288806,-0.0029190627,0.0047857645
