4,32,1,3,3,1.1953688,-0.58323765,-0.45359394,0.43381315,-0.12693256,-0.1041446,-0.043732107,-0.09322575,0.05137217,-0.06496617,-0.10493914,-0.039696395,0.10885221,1.382108,-0.23485124,-0.023202255,-0.14565936,-0.054167032,-0.059707165,0.089176565,-0.026029885,-0.13233429,-1.3912251,0.13186681,-0.053000286,-0.021272346,0.08487114,0.27478486,-0.6753672,0.24339283,-1.3283691,-2.7435856,-0.34127814,0.94883955,3.5512996,0.044575393,-0.035691142,-0.32994103,0.24126679,-0.14872037,-1.219384,0.27042392,0.10925549,0.27548245,0.045419395,1.0654666,-1.0123975,-0.08489257,3.6138587,-0.4495659,-3.1490502,0.00921312,-0.18626553,0.22120589,-0.36853802,-0.55951107,-0.03449796,0.0074869394,1.2372497,-0.1308893,0.10935527,0.13988593,0.008693233,-0.0031778514,0.34368485,-0.13118124,0.2888019,0.3417949,0.09941512,-0.25396287,0.21044396,-0.27559406,-0.10629398,0.1729331,-0.19938046,0.14571571,2.278955,-0.7615539,-0.2106939,-0.82940966,0.1452873,0.30758274,-0.13697404,0.09904958,-0.52885294,-1.8414575,0.3160501,0.42653897,0.15261957,0.17000043,0.10879587,-0.35699692,0.22893804,-0.14155807,-0.9165476,0.08266972,0.1157669,0.37703162,0.010593206,-0.16266222,-0.03596027,-0.011401147,1.4854323,0.12879908,-0.017136574,-0.115425736,-0.075753674,0.006676078,-0.00582999,0.009321064,0.07058737,0.001647342,-2.1604776,0.63032866,0.06714547,0.7238278,-0.049713343,-0.02552168,-0.3079454,0.080851406,-0.2022152,-0.98192513,0.12701926,0.11777064,0.098282784,0.069634646,1.1170646,-0.72697943,-0.3882979,-0.8316453,0.39504483,0.4121042,-0.31912106,0.37875843,-0.007632613,-0.19988577,-0.36928076,0.4949184,3.6271384,-2.0502276,-1.3162701,0.63185877,-0.96811104,0.11091743,-0.065626815,1.6100998,-0.28077698,0.015698485,0.17765263,-0.1590071,-0.018998623,-0.012484372,0.00674507,-0.07065503,0.21994458,-0.20969628,0.13656256,2.390659,-0.8032773,-0.17939954,-0.9155538,0.14721382,-0.08571974,0.22928718,-0.1568205,-0.0016512871,1.2672176,-0.2043589,0.06881365,-0.21957007,-0.08483875,-0.015591621,0.018616922,0.008021039,-2.0960336,0.012093395,0.013087839,0.052051734,0.046715498,-0.0013943911,0.023391247,-0.16261676,-0.0680657,0.13343394,-1.2137444,0.018085852,0.17318779,0.29506668,0.24277467,-0.03839761,0.22751279,-0.23539281,0.11195791,2.5103328,-0.76125854,-0.22840947,-0.85688734,0.08027643,-0.6701437,0.48888916,0.09814358,-2.0749989,-2.474312,-0.14564142,2.4073632,2.3162153,0.015788615,-0.012271643,-0.09877509,-0.13270408,-0.17876822,1.3107868,-0.05277902,0.013900816,-0.11037907,-0.096455365,-0.14767557,0.2593548,-0.12843083,0.21368006,0.62168354,-0.72500217,-0.104742676,-0.69239634,-0.048740976,0.040703,0.021931529,-0.0011582971,0.07068181,-2.0680804,0.16061682,0.057371005,-0.027837813,0.056675434,0.41636273,3.4867196,-0.17370602,-1.1098858,-2.2734752,0.03886074,0.33121285,-0.7308782,-0.0683426,-0.0054153204,-0.13643622,0.053755403,-0.062159166,-1.6578262,0.09076011,0.008785367,0.05367309,0.00875026,-3.2782555e-07,-7.1525574e-07,-6.854534e-07,3.2782555e-07,0.0,2.9802322e-08,2.3841858e-07,-8.940697e-08,2.9802322e-08,-1.2047453,0.9554409,0.14356661,0.9387599,-0.7109833,-0.14717852,0.22373788,-0.20339537,0.0129738,-0.078026354,1.2164147,-0.21063459,-0.07930851,-0.0063483715,-0.082165584,-0.092567414,-0.097524196,-0.03581673,0.08391917,-0.15438664,0.07102278,0.08248268,-1.6747038,0.11871964,0.013293356,0.06488834,0.034233093
