4,480,1,5,5,-0.028811112,0.09762853,-0.05522573,-0.07073145,0.018416379,-0.12593235,-0.042338602,-0.10993111,0.0967077,0.12294037,0.14241256,0.62440205,-0.17245807,-0.4035302,-0.11174852,0.15539035,0.33614433,-0.11950296,-0.2601363,-0.13458894,0.041803032,-0.058205504,-0.03896299,0.09907006,-0.03385446,0.07975754,0.099502325,0.1943691,0.05104962,0.045900047,0.017698929,0.2123797,0.4628017,0.06550723,0.019486703,-0.028302416,-0.042872727,0.038097173,-0.00921756,0.007396877,0.020892456,-0.19382846,-0.527704,-0.096590795,-0.056835372,-0.08188358,-0.11759417,-0.20574068,-0.06699097,-0.058363587,-0.011609495,-0.03958115,-0.25557646,-0.04049927,-0.014291227,-0.007248059,-0.14139868,-0.3571129,-0.14761217,-0.011914834,-0.062546365,-0.08288354,-0.15159145,-0.09177004,-0.03525904,0.043580286,0.1379065,0.43554306,0.12425683,0.036515195,0.012710109,0.054288283,0.27339685,0.051661223,0.02322279,-2.1204352e-05,0.062374245,0.08226223,0.052381102,0.0063704923,-0.013808362,0.070093036,0.21905492,0.066457495,-0.0065276325,0.0153185725,-0.26448175,-0.570257,-0.2790417,-0.0067384243,-0.012763932,0.057772376,0.21648435,0.057912856,-0.019869775,0.016569734,0.058425725,0.07618017,0.06844255,0.015636533,0.050127342,0.12876663,0.10125044,-0.011483319,-0.007116601,-0.028400889,0.29805356,0.5132725,-0.04137832,0.013178775,-0.016319722,0.08377698,-0.18659037,-0.08753526,-0.0069116056,0.04357426,0.006159395,-0.31072506,-0.20432751,0.0036115348,-0.005586289,0.0029710084,-0.07681749,-0.10998863,-0.08692382,-0.0025638044,0.005055312,0.0074870065,0.0006419569,-0.0043283403,0.016306758,-0.043327093,-0.11675488,-0.024386287,0.009951085,0.029733852,-0.1427054,-0.680222,-0.13545626,0.020436227,0.0053781867,-0.019021451,-0.10297853,-0.031190839,0.0126526505,0.0036958754,-0.0076515377,0.0313043,-0.007021159,0.003939569,0.04094229,0.02897263,0.04310757,0.035461307,0.047046594,0.04457022,-0.057937928,-0.2808005,-0.06554493,0.025430545,0.045223564,-0.2759918,-0.505453,-0.27317423,0.04136139,0.032197803,-0.045306683,-0.24631241,-0.056739755,0.037848502,0.05428067,0.031267464,0.009042291,0.030220063,0.06378597,-0.01587677,-0.001324594,-0.0164655,0.003300609,-0.02668026,0.003348574,0.0078030825,0.0039310455,0.0061539114,0.013768634,-0.0059435964,0.033122048,0.8458147,0.010069527,-0.014889154,-0.001606226,-0.016034339,0.037691236,-0.0015953034,-0.0051636696,-0.025764972,0.019954577,-0.014349818,0.011156004,-0.02539879,0.0007775873,-0.0038369745,-0.03093373,0.014141856,-0.0058968663,0.018730521,0.012061775,0.05486905,-0.0036664158,0.0057494044,-0.015457988,0.043284357,0.65106416,0.04216349,-0.032330006,0.0020419955,0.0098311305,0.019326478,0.007531935,0.0056762695,-0.00578396,0.016516924,-0.021061532,0.018092096,0.004521385,-0.012143016,-0.005832851,-0.01394698,0.011409402,0.012591511,0.0065289736,0.012379352,0.15464622,-0.023236692,0.03648886,0.01843214,-0.0099698305,0.9597816,0.18079937,0.07806578,0.009685218,-0.009441421,0.045407712,0.011418343,0.012135223,-0.0058884323,0.019508243,0.008084476,0.020149171,-0.008834183,0.006974399,0.008860264,0.025830612,0.00776577,0.0089684725,0.012774989,-0.0047172904,-0.011588439,0.001625061,0.002626285,0.040760696,0.006214291,-0.8768268,0.001480618,0.03901522,0.0062544197,-0.010353625,-0.021862864,0.009003222,0.0009079203,0.01025486,0.006533332,0.026935216,0.003315866,0.017490327,-0.0010424964,-0.042266786,-0.053841658,-0.043016016,-0.0057967305,-0.041905165,-0.025076538,-0.07680709,-0.01994299,-0.053848922,-0.07331647,-0.28511316,-0.24461833,-0.28809297,-0.08055669,-0.07060954,0.008303888,0.88105243,0.016980296,-0.06396607,0.00057289004,0.10333504,0.045698885,0.11353657,0.0014224648,0.02643457,0.062140197,0.20034876,0.067264944,0.026124448,0.026289582,0.11362001,0.3541036,0.11536058,0.018469378,-0.008171775,-0.0045517087,0.0037195925,-0.007126093,0.0013178587,-0.024405003,-0.14184482,-0.38354012,-0.1432603,-0.022584215,-0.03048399,-0.0917833,-0.2645467,-0.08617009,-0.034637623,0.038346455,0.019648524,-0.29747814,0.014467061,0.044738233,-0.037988752,0.22544086,-0.06057752,0.23460777,-0.035631724,-0.22951977,-0.09275113,0.5734509,-0.0927884,-0.22499993,0.010333657,0.2283439,-0.16921362,0.22833572,0.03152702,0.046831965,-0.0065708756,-0.20312664,0.002726294,0.037583396,-0.020679772,-0.030399416,-0.06075827,-0.02129212,-0.012501061,-0.013593435,-0.018586818,-0.000404343,-0.0048575103,-0.0290251,-0.05662933,0.021990791,0.8852663,0.0017670542,-0.04774012,-0.011868194,-0.020835772,0.01696372,-0.024493039,-0.019431647,-0.0029459,-0.014800489,-0.066453725,-0.026234478,-0.0016401932,0.027662769,0.022240773,-0.009420812,-0.021868482,-0.016591787,0.08130175,0.11488435,-0.0057775974,-0.1289729,-0.09365106,0.3475734,0.46706158,-0.025598764,-0.4787325,-0.3646777,0.09352866,0.123411715,-0.0060544014,-0.1280873,-0.109881505,0.034356978,0.026014775,-0.00927642,-0.036131985,-0.018196732,0.031758837,0.013041981,0.030778464,0.028827257,0.024175465,0.029034734,0.016204596,-0.006987475,0.025767118,0.014027387,0.024564562,-0.05672428,-1.2561346,-0.054693133,0.030153543,0.026213467,0.03255281,-0.017663196,0.02833417,0.024202839,0.026207937,0.014428273,0.025192678,0.028860688,0.012542725,-0.02646841,-0.003578186,-0.021209676,-0.0075005535,-0.028577626,-0.027838083,-0.0017850995,0.09011003,-0.005917698,-0.016076371,-0.03505546,0.083386734,0.6888363,0.038041115,-0.03814347,-0.009168595,-0.010730475,0.07826701,-0.016953573,-0.006302461,-0.03007698,-0.010220289,-0.038695097,-0.0036087856,-0.028713763,0.040273637,0.06193286,0.03697838,0.05317149,0.04198642,0.010695726,0.13908672,0.56248015,0.14517382,-0.003035903,-0.033808768,-0.072813556,-0.002207145,-0.066721335,-0.030050114,-0.051901177,-0.15020765,-0.31600973,-0.1473595,-0.03434691,-0.0447193,-0.052022934,-0.037417144,-0.033307433,-0.046474993,-0.008038659,-0.010450795,-0.027796477,-0.02037105,-0.006799549,-0.0050753057,-0.021687955,-0.10283448,-0.011289433,0.00492844,-0.044932365,0.07847172,1.0525788,0.04949844,-0.0353176,-0.0120802075,-0.015043229,-0.12961206,-0.02649302,-0.004858479,-0.005695075,-0.016161263,-0.032132022,-0.0101386905,-0.01728169,-0.0107315555,0.0019135531,0.01051563,0.0019848347,-0.004283577,-0.012770057,-0.011856198,0.17572778,-0.014279306,-0.012981193,-0.028400563,0.13430697,0.6747237,0.12494969,-0.029583007,-0.0031222552,0.0059492737,0.14550143,-0.0021488555,0.004491195,-0.004372999,-0.017007634,0.031453237,-0.016878068,-0.01692101,-0.018541187,-0.020285688,-0.065342695,-0.02601336,-0.016243815,-0.013741523,-0.060348175,-0.13395771,-0.06348117,-0.01399748,-0.053035706,-0.13002372,1.3876582,-0.14171958,-0.058830872,-0.0062975734,-0.03827273,-0.18049955,-0.044311807,-0.0025014877,-0.010367721,-0.013373464,-0.0319328,-0.011376642,-0.010455407,0.012281159,0.06819017,-0.037439793,-0.013582278,-0.016209722,-0.0673424,-0.07686028,-0.014557481,0.06442011,0.092722006,-0.38031006,-0.59430057,0.13844347,0.45441854,0.29220784,-0.083696365,-0.04795131,0.0089210905,0.056227818,0.079357,0.006390631,0.052151904,-0.07081124,0.024169616,-0.0085052475,0.008568145,-0.016227439,0.015391886,-0.014616311,0.0022038221,-0.013201669,-0.05483836,-0.106656045,-0.045283034,-0.00493142,-0.0017800182,-0.11221303,-0.4575237,-0.095240146,-0.015237927,-0.009408236,-0.032894325,-0.20038746,-0.034486264,-0.016929641,0.004771322,-0.010081977,-0.0042291284,-0.017154068,0.011094242,-0.020872474,-0.005585268,-0.053263098,-0.01647984,-0.01671037,0.005203396,-0.027372375,0.036574725,-0.014879592,-0.008161753,-0.04064758,0.0060711354,0.98262644,0.0038116872,-0.030461647,-0.012789387,-0.02115786,-0.039475664,-0.021309534,-0.008755699,-0.023291498,-0.016991364,-0.02015391,-0.011355966,-0.029194266,-0.0056302026,-0.016215205,-0.010261916,-0.013001531,-0.0022164285,0.004986614,-0.013259023,0.043142945,-0.009167656,0.0042150915,-0.018290274,0.033836856,0.6623806,0.045733586,-0.008649029,-0.0096274875,0.025056891,0.07099344,0.029151127,-0.016352117,-0.0033932328,-0.0143325925,-0.015051797,-0.0222013,-0.011901185,0.0016735643,-0.022931814,-0.064173594,-0.017110156,-0.008221403,0.0022961944,-0.019658886,-0.08644977,-0.016832702,0.00017693266,-0.04428944,-0.05447671,1.1201944,-0.08196998,-0.028297812,-0.029330552,-0.04020381,-0.054106414,-0.044549853,-0.024944767,0.0061487155,-0.029773489,-0.04634232,-0.025538906,-0.00065004826,-0.015166715,0.00033633597,0.004201028,-0.011792809,-0.023451567,0.023665875,-0.027468592,0.20940147,0.08766219,0.018953212,0.020672917,0.21525162,0.647703,0.20393212,0.0067735314,0.003145367,0.093619235,0.18598476,-0.021742553,0.002605468,-0.018038988,-0.0041123256,-0.0013029873,0.014703333,-0.0253513,0.0099181235,0.098771065,-0.076101035,0.10077686,0.011320889,-0.029097915,0.019109875,0.30093452,0.0084281415,-0.02559352,0.037251204,0.075256854,0.6686301,0.052949965,0.043050826,-0.02352237,0.04599303,0.26217386,0.05350797,-0.015605122,0.0054059625,0.10284864,-0.049313515,0.093650565,-0.0034654737,0.010917202,0.033593193,0.06247495,0.031005844,0.010083288,0.049892776,-0.019049615,-0.35368085,0.0054668896,0.041960686,0.066622734,-0.3130203,-0.8347783,-0.339596,0.083128266,0.03414452,-0.0127675235,-0.272828,0.0406622,0.03757742,0.05138746,0.013962984,-0.014913648,0.02135931,0.033236414,0.019481331,0.05845025,0.04450899,0.041123927,0.024519451,-0.025728852,0.024267673,0.5801243,0.021626621,-0.021299079,-0.07492027,-0.048804265,-0.5459382,-0.060652085,-0.075636186,-0.019897355,-0.06397711,-0.08556023,-0.06697736,-0.017502591,-0.035484962,-0.03887777,-0.048255064,-0.047027677,-0.03794934,-0.038829684,-0.034071635,-0.055975866,-0.03063044,-0.036291122,-0.01551564,0.037417293,0.09228973,0.036912203,-0.02294454,-0.058405906,0.0776112,0.8528514,0.082475364,-0.042924598,-0.02524225,0.05079986,0.07611748,0.017002255,-0.025205076,-0.035678234,-0.025756992,-0.03147737,-0.033325076,-0.03249526,0.045313776,-0.044442587,-0.0028823232,-0.041962624,0.046193816,0.049854577,0.054982424,-0.10212982,0.03687562,0.059450015,0.19573702,0.25842774,-1.0252383,0.32528585,0.15970796,0.057998896,0.07247174,-0.19013424,0.062161237,0.081780925,0.02823779,-0.034452274,-0.0007424578,-0.008985809,0.01777722,0.0144566,0.008598506,-0.06739789,0.00048032403,0.011908442,0.017851263,0.004694462,-0.17226355,0.013888344,0.02561859,-0.015635252,-0.21459651,-0.5819665,-0.21507286,-0.0254239,-0.0009456277,-0.0368632,-0.21489346,-0.018360376,0.002601482,-0.007999241,0.007026151,-0.09502592,-0.0031328201,0.0026033893,-0.02768142,0.023807473,0.09172526,0.017078876,-0.031566173,-0.041129768,-0.043989748,0.31909883,-0.07382584,-0.050705206,-0.0669111,-0.270513,0.50482535,-0.28120542,-0.07833722,-0.033678472,-0.041230977,0.17913835,-0.04399497,-0.04035636,-0.023204433,0.0057074726,0.10745107,0.0003693998,-0.029883437,-0.012685657,-0.004488319,-0.030282598,0.004731655,-0.011437222,-0.018718064,0.018116526,0.009029806,0.004440844,-0.01301948,-0.043962188,0.014582217,0.9009632,-0.010685489,-0.03788578,-0.025010623,0.012667522,0.017059192,0.031218305,-0.010730326,-0.000120311975,-0.0215078,-0.06202039,-0.019822717,-0.003863182,-0.02629282,0.005826436,-0.024836559,0.008732583,-0.029541016,-0.0060569793,0.005177006,-0.055389225,-0.0024074316,-0.0011409223,-0.026176542,-0.035951048,1.0030223,-0.0038457662,-0.023726273,-0.024278536,-0.0011427812,-0.018707171,-0.0041431487,-0.022692688,-0.014726594,-0.008696318,-0.03131171,-0.01542747,-0.010961026,-0.00039708614,0.0031849518,0.02593545,0.0010716319,0.0024729818,-0.007034694,0.0064003766,0.042744517,0.009687841,0.0044479296,0.0046410263,0.03151247,-1.0891562,0.049853384,0.012684256,0.004066944,0.021004744,0.053660866,0.026546478,-0.0037330762,0.001682587,0.0032906532,0.016208827,0.005445242,0.0061278343,-0.06345624,-0.07946125,0.00059995055,-0.03304162,0.035107914,-0.057949707,-0.18245143,0.0040949583,0.046929404,0.04982418,-0.060726315,-0.543909,0.16287513,0.7730423,0.044715486,-0.03114362,-0.10886845,-0.021360278,0.06333316,0.041306265,-0.04365778,-0.071051255,-0.05286771,0.011320196,0.010231812,0.00318861,-0.011868529,-0.045406073,-0.013782382,-0.00022388995,-0.010481879,-0.0049414635,0.05098194,-0.020959672,-0.0074831992,-0.046231806,0.0499627,0.75362235,0.03409159,-0.03360653,-0.015838422,-0.013045207,0.080239326,-0.017546684,-0.024236366,-0.008590341,0.00020106137,-0.03462608,-0.014027134,-0.0062227137,0.03661088,-0.0442335,0.0016528964,-0.016474709,-0.0014842898,0.17398572,0.2751366,0.19584651,-0.103318036,0.024847686,0.20307888,0.7090454,0.12150626,-0.6292857,-0.264039,-0.037070118,-0.070900515,-0.17143667,-0.27492166,-0.1394122,0.019034043,0.022479177,-0.0058442056,-0.09329584,-0.13677175,0.016401716,-0.0044414103,0.013597697,0.0036606193,0.010023147,0.0048931167,0.034795612,0.06773667,0.028796777,0.0136039555,0.022358596,0.09616652,0.4836634,0.10137823,0.008630395,0.0062532127,0.008278415,0.09227085,0.02449253,0.0030434467,-0.00017762184,0.018427514,0.009890676,0.014283761,0.010460734,-0.018810362,-0.033699185,-0.050748125,-0.032715857,-0.017040431,-0.002376371,0.05353546,0.00317356,0.050598443,0.00386478,-0.038468584,0.054803252,0.87737477,0.07757732,-0.036548734,-0.023031473,0.055907726,0.03690955,0.039887447,-0.014924109,-0.022328604,-0.009593755,-0.03621283,-0.010350764,-0.034436822,-0.018883899,-0.013769567,-0.03805834,-0.009742102,-0.015998289,-0.011963606,-0.015497625,0.026327118,-0.032979663,-0.0011268258,-0.038855195,-0.017368585,1.0233276,-0.0065469556,-0.043087944,-0.007906847,-0.043733396,0.026413172,-0.044110328,-0.01331494,-8.0272555e-05,-0.00071549043,-0.0048781335,-0.0033871531,-0.010903761,0.26196373,-0.02242288,-0.16349378,-0.10808483,-0.10586241,-0.0077169538,-0.031882476,0.06960741,0.033804446,0.09607497,-0.23828791,0.19481406,0.49795347,0.13406107,0.047718644,-0.0878618,0.007368818,0.12956354,0.004641488,0.056726664,-0.06980448,0.06287208,0.0380868,0.07501227,-0.20232098,0.017824426,0.07868177,0.2392264,0.07943368,0.02275765,0.019631993,0.1524345,0.46070385,0.16206753,0.0193685,-0.0047478676,-0.01794684,-0.010707021,-0.02680358,-0.012062393,-0.021226555,-0.14439142,-0.51846457,-0.14092377,-0.022974964,-0.011734001,-0.06468594,-0.24383093,-0.07711011,-0.008142186,-0.049086355,-0.02741225,-0.022936707,-0.03342215,-0.034390673,-0.0013935566,-0.039705426,-0.31391546,-0.03418959,0.0056642406,-0.024566427,-0.105136484,0.08842932,-0.08774471,-0.027570829,-0.023571279,-0.1103981,0.5944794,-0.096391566,-0.021865644,-0.035238832,0.016243475,0.18346024,0.01988782,-0.029963255,-0.017498821,-0.02159267,-0.086554736,-0.028668666,-0.016669445,-0.025957301,-0.002170939,0.039403796,-0.0077388883,-0.022636548,-0.061269477,0.062634476,0.8341038,0.05482859,-0.06815837,-0.012958184,-0.0060394146,0.0028131157,-0.0027947128,-0.008485779,-0.041198015,-0.033762217,-0.031774312,-0.031859636,-0.04534164,-0.011494804,-0.0027415752,-0.021954596,-0.010901809,-0.0038969815,0.0015721172,-0.027069792,0.027475536,-0.025821075,0.0080360435,-0.019093856,0.037477344,0.88380164,0.022847861,-0.030982763,-0.013206363,-0.008653056,0.036415935,0.0031221882,-0.021076858,-0.011871725,-0.016321734,-0.0139386505,-0.009412482,-0.016762111,-0.017532207,-0.007246632,-0.027852401,-0.0011690557,-0.016359039,0.0002511032,0.018030584,0.01393,0.010360301,-0.0013510436,-0.019348301,0.011499405,0.9967733,0.00031987205,-0.023043513,-0.009804815,-0.015542269,-0.013259202,-0.022332639,0.0018593222,-0.0119894855,-0.005115509,-0.026401788,0.0004715398,-0.01943045,-0.0042990483,-0.015868664,-0.016333744,-0.0136346035,-0.012349099,-0.010985151,0.01425755,0.065328896,-0.006002456,-0.0043390356,0.018814474,0.08334728,0.5757602,0.05963915,0.015368909,-0.0032921806,0.013507541,0.050140895,0.010502942,-0.006336838,-0.017365992,-0.0061895438,-0.0015645921,-0.010028675,-0.01295346,0.015520453,-0.024384897,-0.03199908,-0.009810507,0.023747057,-0.01246722,-0.067837805,-0.14943582,-0.08522642,0.007121384,-0.029755998,-0.1617856,-0.5939721,-0.14299859,-0.027915597,-0.026482116,-0.071149826,-0.1443821,-0.050544232,-0.0043105483,0.02070883,-0.0067454204,-0.042410582,-0.0020655692,0.007492505,-0.0100123435,0.013403237,0.009909868,-0.030698724,-0.11731067,-0.066073716,0.006445855,-0.17782453,-0.31608775,-0.10232666,0.14757885,0.5911912,0.13066667,-0.54416263,-0.17618877,0.13211685,0.22736993,0.24190773,-0.066597246,-0.017662838,0.057698444,-0.007453665,-0.00069256127,0.0043569803,-0.010452867,-0.004324466,-0.012576699,-0.08883682,-0.021255821,-0.0048439205,-0.01787926,-0.0074019134,-0.13106878,-0.012268931,-0.020617545,-0.098729566,-0.0843814,1.4846632,-0.10234706,-0.09052324,-0.023244202,-0.027228326,-0.14724244,-0.042307705,-0.012176275,-0.009195127,-0.012244642,-0.08226098,-0.023519292,-0.0078089237,-0.014994264,0.014379941,-0.036938615,0.014845603,-0.014136225,-0.0017884374,-0.026527107,-0.11377017,-0.022830069,-0.0015711114,-0.020280749,-0.1431024,1.1018023,-0.147295,-0.023739636,0.003519632,-0.032740545,-0.10260588,-0.027432011,-0.0007775165,-0.016919333,0.01208619,-0.021214262,0.012614548,-0.010711126,0.011326298,0.02355598,-0.023166522,0.019555084,0.01750344,0.01434188,-0.038493127,-0.24596071,-0.036177337,0.011587024,-0.029010773,-0.24203992,-0.48550928,-0.26243785,-0.043557584,0.0035054944,-0.0029550195,-0.2009568,-0.012810402,0.030686848,0.019197464,-0.014309868,-0.018161476,0.007139489,0.014383435,0.0155745,-0.036005422,-0.047498822,-0.042839676,0.017361611,0.02002962,0.0070164017,-0.28265998,0.030083746,0.00482291,-0.026783556,0.18335767,-0.67669415,0.19725704,-0.022831887,0.009079248,0.054689422,-0.29465374,0.039620996,0.0031043254,0.025721882,-0.049325943,-0.073505506,-0.043371987,0.023862317,0.016857896,0.031072572,-0.0495058,0.017181933,0.029537886,-0.013433754,0.21699813,0.5828655,0.22812614,0.006314814,-0.069073886,-0.23401672,-0.037303463,-0.19467033,-0.07275626,-0.080997884,-0.07889557,0.0880349,-0.07417719,-0.07518676,-0.038474746,-0.0059363134,0.04045487,0.008200273,-0.015480168,-0.013107568,-0.049524963,-0.059639692,-0.023756266,-0.010228559,-0.035667405,-0.067442685,0.014372498,-0.057451066,-0.03033787,-0.07381576,0.025811011,1.0768303,0.03534682,-0.065567866,-0.0507238,-0.048567504,0.030093133,-0.055412415,-0.05366446,-0.00570474,-0.045298338,-0.06622788,-0.03891874,6.948039e-05,0.011377409,-0.03620169,-0.02739948,-0.026111633,0.010887504,0.06451959,0.06407989,-0.29118744,0.0546571,0.06543636,0.08742702,0.24034496,-0.6432341,0.23723389,0.07297164,0.04169184,0.015750162,-0.19231324,0.020359084,0.0518627,0.000101756305,0.00701572,-0.03932634,0.0049609523,0.0012698323,-0.03486593,-0.028335406,-0.067014195,-0.03778906,-0.019765079,-0.049394343,-0.018835567,0.041422013,-0.023965213,-0.046048567,-0.049262874,-0.0011371076,0.9432756,0.025389925,-0.04570074,-0.03525049,-0.0008341372,-0.004595816,-0.008813307,-0.029863805,-0.010712653,-0.040072635,-0.027648598,-0.027128654,-0.010490235,0.04247091,-0.015371934,-0.054373175,0.06354809,-0.017380714,0.098444745,0.24076277,-0.091288805,-0.16307135,-0.09347154,0.12110643,0.565834,-0.15607639,-0.44395837,-0.10726344,-0.0032536313,0.06892353,-0.0753476,-0.019935451,0.003510639,0.00498873,0.059896767,-0.06821119,-0.027139336,-0.00837402,-0.025878638,-0.030561388,-0.023917943,0.0312829,0.03291163,-0.109628715,-0.19202548,0.0020811036,0.1549699,0.08987972,-0.39297804,-0.5190066,0.007033728,0.49710196,0.3408963,-0.12729302,-0.16034016,0.0075895637,0.15819111,0.11087078,-0.036899894,-0.057632394,-0.022733286,0.051778518,0.04670492,0.0035478324,-0.002426438,-0.036448333,-0.005161926,-0.0075763166,-0.020178184,-0.00533309,-0.025291365,-0.017288059,-0.0072656833,-0.045135885,-0.02050332,0.90523505,0.0034046993,-0.057496563,-0.013457239,-0.0107320845,-0.015651971,0.0030703545,-0.030614614,-0.019280046,-0.002700448,-0.05342353,-0.023955975,-0.014630467,-0.039560527,0.014676228,0.0037462562,0.003152594,0.025978789,-0.08432374,-0.060283452,-0.0035696998,-0.03236389,0.04359798,-0.13796975,-0.2935322,-0.03953302,0.49910194,0.2003063,-0.074459344,-0.09165636,-0.010733902,-0.022369117,0.05850017,-0.036203265,-0.008362472,0.0056286827,0.048096746,0.058635026,0.0060085654,0.036568075,0.00958854,0.026532322,0.007414518,-0.0160985,-0.015648901,0.11103986,0.007834826,-0.010493107,-0.016214043,0.09607461,0.75003827,0.077878505,-0.015160024,-0.006207984,0.026664613,0.08152496,0.042731315,-0.008670479,0.009174556,0.024166673,0.00020173192,0.029442132,-0.0061128885,0.007605523,0.06383649,0.2342233,0.059645593,0.021605656,0.029312849,0.12581944,0.3988739,0.12521267,0.031680733,-0.03710389,-0.032456577,-0.027584016,-0.015242025,-0.030978471,-0.015918825,-0.13082588,-0.4196416,-0.13509278,-0.021941595,-0.024472892,-0.08443896,-0.29218632,-0.09344286,-0.018967763,-0.01492402,0.007982656,-0.018029228,0.00049713254,-0.007286921,-0.0009804592,0.0026826262,-0.023274086,0.0071143806,-0.00020211935,-0.040256232,-0.011206955,0.77775025,-0.012767307,-0.042448074,-0.025551915,-0.024613813,-0.035795428,-0.02529046,-0.017925259,-0.012436315,-0.0035824478,-0.048884884,-0.011710662,-0.017770588,-0.03981732,-0.039336532,-0.043908894,-0.03182656,-0.042913582,-0.04036988,-0.029753149,-0.043840498,-0.016263418,-0.04187566,-0.12792718,-0.10068259,-0.1301083,-0.11343038,-0.12606391,-0.058411032,-0.0592921,-0.07439798,-0.04359275,-0.050484374,-0.045907587,-0.020312965,-0.060801208,-0.020700008,-0.03603095,-0.014767066,-0.022109374,-0.036873043,-0.015655622,-0.02008675,-0.012057841,-0.0035840794,0.029407859,-0.009758621,-0.005538404,-0.034160376,0.07558486,0.87662005,0.044576555,-0.019542232,-0.018284425,-0.0023431182,0.055394985,-0.018050328,-0.0033346266,-0.012971339,0.003078878,-0.0145150125,0.0042898506,-0.02499263,-0.0044546872,0.0005784035,-0.07399574,-0.0074986666,-0.012042046,-0.0048706383,-0.023271427,-0.04876353,-0.01554881,-0.0053163767,-0.057593457,-0.030555002,1.1007887,-0.066613436,-0.043017343,-0.02431941,-0.020780258,-0.08101706,-0.028583527,-0.026706532,-0.011705905,0.0027625859,-0.074031055,-0.009341873,0.0029299855,0.016614214,-0.03630054,-0.027450144,-0.022001088,0.010720924,0.0049982667,-0.006703973,0.16558108,-0.013194392,0.013838023,-0.0011556447,0.0868079,0.6270748,0.068176016,0.012152135,0.016911022,-0.026845925,-0.03995359,-0.024544686,-0.01991342,-0.011322945,0.0033777356,0.024073467,-0.0025093127,-0.007993661,-0.016889684,-0.13954313,-0.32871214,-0.11107148,-0.03798805,-0.085124195,0.015050814,0.18163669,0.004060358,-0.09150278,-0.083969295,0.18607461,0.34885257,0.18040459,-0.08912769,-0.020914316,-0.04354939,0.044684447,-0.046522282,-0.020870104,-0.043398976,-0.00011071563,-0.043358564,-0.016187012,-0.046849847,-0.0135995895,-0.026430838,-0.061750636,-0.027440816,-0.025298141,-0.012833834,-0.043148622,-0.035151012,-0.03897079,-0.015528232,-0.050843176,-0.018283814,1.0116953,0.0013783574,-0.06059532,-0.029001996,-0.031143695,-0.00088351965,-0.040492,-0.03267636,-0.019294389,-0.029971302,-0.027157322,-0.027838266,-0.021875363,-0.016401827,-0.08470541,-0.2717973,-0.08702242,-0.013138175,-0.023551539,-0.16513696,-0.4428236,-0.14730589,-0.025053054,-0.0140937865,-0.03467709,-0.030893937,-0.036653854,-0.025721665,0.028024796,0.13311382,0.4316783,0.13199386,0.019781336,0.010921419,0.07098157,0.24957208,0.082515836,0.017822478,-0.023367137,-0.04669273,-0.07301268,-0.004241377,-0.019989904,-0.031280182,0.101894006,-0.074275136,0.029295564,-0.067080066,-0.100186095,-0.027225912,0.75151837,-0.02036322,-0.032156408,0.0400894,-0.0088882,0.0749577,-0.07317771,-0.007098913,-0.031934865,-0.041946307,-0.021294378,-0.015466452,0.0068918765,-0.04341572,0.0045443634,-0.04184655,0.0034402907,-0.03489586,-0.009874441,-0.014492288,0.021048427,-0.008892387,-0.019067287,-0.040429413,0.035210706,0.87410325,0.047645725,-0.03419897,0.0019824505,0.0008021891,0.014298618,-0.015407279,-0.0073154867,-0.047926143,-0.0077720284,-0.040766716,-0.0094097415,-0.03248161,-0.08027171,-0.0038273185,0.03659678,-0.026792474,-0.07110301,0.0019839704,0.04642465,0.07579604,0.052171335,-0.00299789,-0.03621848,0.12532009,0.6233601,0.080290556,-0.039769158,-0.010300338,0.016067721,0.092420846,0.010336176,-0.003166534,-0.05311382,0.026203275,0.032758623,0.030703314,-0.031422555,0.0012616515,0.006446004,-0.02843234,0.002688244,-0.0016209402,0.0070867985,-0.06602307,-0.15730312,-0.043815345,-0.0013851225,-0.042101145,-0.2373032,-0.2251719,-0.22502199,-0.06686699,-0.016756535,-0.06430198,-0.19796108,-0.07655251,-0.004263703,0.004947692,-0.0005862415,-0.037001014,-0.009170949,0.007302046,0.008843929,0.001774028,-0.03306362,-0.0031508803,-0.009954333,0.013477087,0.04475614,0.111565575,-0.029076114,-0.013743751,0.04663682,0.08178856,1.1394219,0.013032764,0.053084295,0.013727009,-0.028657436,0.040608943,-0.0225745,-0.008623779,0.018151134,0.0115464,0.0031605363,-0.01564318,-0.024330243,-0.05495073,-0.0023605411,-0.08071214,-0.002753742,-0.05162853,-0.03878367,-0.015065566,0.1548124,-0.029536605,-0.034659564,-0.057449505,-0.061112054,0.8576146,-0.06207478,-0.052468613,-0.010011524,0.005804468,0.11100608,0.021604072,-0.008358985,-0.05865988,0.0014007986,-0.0521051,-0.0037634075,-0.06575212,0.03864412,0.06828743,0.22611906,0.0714653,0.029225262,0.010274179,0.08146848,0.6537568,0.085835725,0.016472124,-0.06558605,-0.0814787,-0.66174436,-0.07309036,-0.08468881,-0.04988797,-0.05470924,0.009741366,-0.05340424,-0.04973886,-0.02614943,-0.016355924,-0.020119637,-0.04007362,-0.017499052,0.0059838593,-0.030951992,0.11001521,0.11195333,0.03661929,0.003818214,-0.028019011,0.5135027,0.2782323,-0.03285578,0.00092968345,-0.081904866,-0.14735581,0.09074226,-0.02800101,0.009123652,-0.23849267,-0.3224773,0.0071988106,0.041727163,-0.09455906,-0.099105805,-0.0943911,-0.008606166,0.013904549,-0.016802873,-0.01818305,-0.040079888,-0.025927186,-0.019536674,-0.005519841,-0.007080406,0.022137411,0.003717348,-0.008991495,-0.035637558,0.0012453578,1.1400752,-0.0010074666,-0.026754804,-0.012953233,-0.017005488,-0.011051863,-0.022247091,-0.030505538,-0.027947336,-0.017002225,0.0021659583,-0.0073004365,-0.030825105,0.03893608,0.058287352,0.18157782,0.08943188,0.08579588,0.018905878,0.077677995,0.46873513,0.21467628,0.010302603,0.0034849346,-0.0029109418,0.037053466,-0.018130839,-0.026585132,-0.05034493,-0.11675439,-0.5394592,-0.19940118,0.024593294,-0.055953756,-0.06731116,-0.20997354,-0.11397806,-0.06545648,-0.010238744,0.014313728,0.004413464,0.011816442,0.008398086,0.0026224405,-0.00029746443,0.006926149,-0.014313698,-0.0069203675,0.021786734,-0.040433988,-0.9314018,-0.043558955,0.008861594,0.013859674,0.02240406,-0.017426014,0.0036033392,0.01862041,-0.02141115,-0.0038329046,0.026849404,-0.0020459518,-0.011274815,-0.03066343,-0.009690344,-0.026800936,-0.012817794,-0.03495902,-0.018898651,0.035843924,0.120422184,0.030047633,-0.016594082,0.007132508,0.12062912,0.59381187,0.13105166,0.008400749,-0.0038374364,0.04859972,0.11187591,0.048132062,-0.00010743737,-0.019476041,-0.003318999,0.04151465,-0.013486445,-0.018101752,-0.011487566,0.0013424009,-0.06091726,0.0065914467,-0.012068868,0.0027317405,-0.0034279227,0.04572141,-0.005080357,-0.013610482,-0.047996446,0.04353884,0.97877675,0.031105394,-0.03167954,0.013642088,-0.011795491,0.015904278,-0.020675987,0.005740881,-0.022465557,-0.012625659,-0.037765145,-0.0029009162,-0.021653712,-0.0050144196,-0.0114120245,0.005267173,-0.025962949,-0.0023666918,-0.009350568,0.0048249364,0.07918483,0.0010084361,0.0034961551,-0.021737278,-0.03237933,0.3466204,-0.031750202,-0.029569373,-0.0027482808,-0.13622235,-0.8283753,-0.13481972,-0.007140994,0.0006528348,0.025367483,0.059584886,0.03286399,-0.0072537065,0.07366128,0.05756414,-0.018715054,-0.06153065,-0.08390334,0.09227283,0.29216957,-0.1028022,-0.19178936,-0.057243377,0.1117326,0.6832103,0.025620744,-0.54418737,-0.11400381,0.11229397,0.13071206,-0.031891376,-0.15117978,-0.05898115,0.06791371,0.016883902,-0.006910458,-0.06047207,-0.040130273,-0.00027251244,-0.021894068,-0.0039412715,-0.01893866,6.394088e-05,0.017264783,0.009455889,0.00020935386,0.00097452104,0.015905246,-0.034493297,0.08499539,0.87740135,0.07751688,-0.029680192,-0.009529658,-0.004726894,0.041225065,0.016162246,-0.022151195,0.002466023,-0.0014367998,-0.023438364,-0.008732138,0.0006623864,-0.005267255,-0.0010376871,-0.052108303,-0.002546953,-0.009801544,-0.00020356476,-0.018871266,0.052348156,-0.02110207,-0.0075357556,-0.06999282,0.079550564,0.74912405,0.08198121,-0.05524703,-0.012060761,-0.01127556,0.081401706,0.0051012635,-0.019882709,0.004482083,0.0014659464,-0.052872866,5.8083795e-05,0.0063837464,-0.048648134,-0.039647892,-0.030266888,-0.039349854,-0.06003143,-0.0337556,0.033974767,0.1401414,0.031274095,-0.03289691,-0.04588087,0.10311708,0.86435467,0.08832784,-0.041359708,-0.025266498,0.018859556,0.10646905,0.021407738,-0.043817792,-0.0421239,-0.026359737,-0.003783673,-0.027777761,-0.04613602,-0.029908568,-0.011609226,-0.044488758,-0.018564006,-0.024877667,-0.0017376542,-0.026719496,-0.22346213,-0.016614005,-0.021807522,-0.062306017,-0.2277621,-0.29147658,-0.21434471,-0.058175057,-0.0032734498,-0.047936335,-0.15383907,-0.055149063,0.0006509945,-0.045963854,-0.03591328,-0.07078183,-0.027844787,-0.033300124,-0.01648961,-0.019075483,-0.0009728521,-0.022734977,-0.010711804,-0.02063474,-0.016941786,-0.072244525,-0.035049856,-0.014236629,-0.0018987954,-0.14348786,-0.6467143,-0.119669974,0.0019501187,-0.013949808,-0.018918552,-0.11177688,-0.013894975,-0.024697721,-0.00551714,0.0061226226,-0.017680332,0.017768264,-0.01807779,-0.016170643,0.002201736,-0.03797418,0.0008301735,-0.025067896,-7.1525574e-07,-0.002470404,-0.024174958,-0.0063211187,0.0021710992,-0.042140186,-0.00025941432,0.8150012,0.0016517639,-0.03986886,-0.020901069,-0.0006481856,0.017574608,-0.00032280385,-0.006513549,-0.013177559,-0.0034825504,-0.05383785,-0.0071446,-0.016624868,-0.0015733838,-0.020742744,0.011374515,0.014483869,0.029727131,0.061424106,0.111336365,-0.0067905486,-0.11323103,-0.07865226,0.20990115,0.29098248,-0.041175608,-0.33104387,-0.24474919,0.08515127,0.091597706,-0.00108248,-0.09869896,-0.093071714,0.023283467,0.0057858825,0.023205638,-0.012112603,0.0069639385,-0.189217,-0.11773616,-0.15677421,-0.11880681,-0.21272807,-0.037214816,0.0042444468,-0.016809464,0.016948342,-0.026843674,-0.09245005,0.031874806,-0.0466481,0.016077429,-0.06305219,-0.025316834,0.039649144,0.012301721,0.054771747,-0.03462255,-0.19355163,-0.105668336,-0.14595038,-0.08943419,-0.19486423,0.046214968,-0.0027422905,-0.015185602,-0.0033113249,0.02618073,0.031641483,0.041300297,0.20883112,0.024256468,0.026901096,0.025233017,0.21863271,0.3926075,0.18431708,0.070851326,0.049272433,-0.017752836,0.24998492,-0.013569802,-0.013179727,0.097897455,0.003767684,-0.036308832,-0.036054075,0.06700651,-0.0016491655,0.014065832,-0.0046683103,-0.0030321777,0.010348275,-0.004357964,-0.027981617,0.041843235,-0.013209961,-0.020805389,-0.065317675,0.061951227,0.57591885,0.07539532,-0.041892454,0.011938944,-0.038499862,0.05240634,-0.037034065,0.013374783,-0.030558944,0.045662433,-0.025625616,0.035640374,-0.03403105,-0.0035450757,-0.024611086,-0.021250725,-0.013039831,0.00025737286,-0.02046451,-0.0047548413,0.051405005,-0.009864673,-0.022566795,-0.039506823,0.024327993,0.9874237,0.045490623,-0.037445545,-0.013080806,-0.018298328,-0.0035324395,-0.0041973144,-0.019819349,-0.022336572,-0.031153612,-0.02625674,-0.044559143,-0.01135397,0.08616111,-0.011327624,-0.0024952441,0.010593146,-0.082113214,0.0739966,0.6140052,-0.011103392,-0.62006,-0.0917508,-0.009878397,-0.013828367,-0.0036185682,0.009664103,0.023377508,-0.0757103,-0.52546895,-0.00067538023,0.5093921,0.06935185,-0.07195813,0.03750267,0.003996335,-0.036391795,0.070047885,-0.013338521,-0.03122057,-0.000618875,0.03846901,0.014967978,-0.063709855,-0.12409231,0.008562669,0.111662224,0.069087446,-0.100066856,-0.84793806,0.014529347,0.77983785,0.09630811,-0.027217805,-0.18076,0.022506773,0.14166498,0.042522073,-0.05453813,-0.054003224,-0.0057936907,0.066880465,0.052762106,-0.031490862,-0.026386738,-0.01553449,-0.03476368,-0.032250255,-0.016653683,0.026984945,0.087877154,0.032087833,-0.010653734,-0.046948552,0.077095866,1.1025305,0.09668369,-0.042202234,-0.024383232,0.028905094,-0.041763455,0.022885919,-0.029528862,-0.02915541,-0.009630099,0.03967558,-0.0056128856,-0.029449597,-0.057731092,-0.0293829,-0.07979807,-0.023901217,-0.05568172,-0.014972277,-0.0131525695,-0.07264378,-0.012580454,-0.019359827,-0.06913683,-0.054959,-0.072716944,-0.058247127,-0.054528315,-0.026279867,-0.0053735226,-0.04185622,-0.015811905,-0.021796048,-0.05114509,-0.018296309,-0.04524204,-0.021506991,-0.057442635,-0.028305203,-0.058126748,-0.20569031,-0.07477463,-0.032269,-0.021148443,-0.12536475,-0.45425257,-0.10796046,-0.012812883,-0.016011626,-0.005615622,-0.015433881,0.0131672025,0.004819423,0.0033726245,0.121813565,0.38507324,0.10589644,0.017619595,0.02326373,0.076195605,0.2012322,0.08292562,0.019133255,-0.016763657,-0.0032441914,-0.03785633,-0.011040896,-0.010605216,-0.005247019,-0.001859799,0.043391794,0.007009402,-0.0074411407,-0.016673177,0.07572454,0.5643238,0.07422814,-0.0041781515,-0.0039115287,0.018629551,0.049572855,0.016917497,0.009107985,-0.015726581,-0.0064587593,-0.012256071,-0.016475007,-0.010281213,-0.015213132,-0.022502076,-0.047848374,-0.017493125,-0.016754627,-0.018033028,-0.0055077653,-0.009971976,-0.0034502149,-0.024332851,-0.06805462,0.017044172,0.974613,0.035944372,-0.06496814,-0.02687044,-0.014126092,0.032927364,-0.015640963,-0.025100783,-0.03723799,-0.030519202,-0.05557607,-0.028970763,-0.030260608,0.028082013,0.02148249,-0.09590232,0.019022942,0.011061892,0.015534271,0.014622405,-0.26612782,0.027664125,0.016105145,0.0071332455,-0.13472177,-0.72278476,-0.14721957,0.020117491,0.017155401,0.0066865683,-0.30655453,0.029252231,0.01130794,0.03633392,0.021010648,-0.1327416,0.045564182,0.033756766,-0.0036811845,-0.029328585,0.008168653,-0.026958168,0.0023449399,-0.007855405,-0.025266021,-0.02420856,-0.013755128,-0.0180787,-0.030936882,0.00090842694,0.9758646,0.010478972,-0.028850883,-0.015954867,-0.014306097,0.024326473,-0.017183078,-0.016281813,-0.0069013834,-0.007868767,-0.047485113,-0.0054125115,-0.015556119,-0.08101037,0.083369195,0.1234642,-0.09424803,-0.044832826,-0.06078905,-0.08462481,0.17237881,0.08229931,-0.023793943,0.032356173,0.22692007,0.23620689,0.21966662,-0.08417863,-0.09852092,0.03301376,0.08126654,-0.048784107,0.06303495,0.0033528209,0.022435814,-0.092157036,-0.0077557713,-0.04710965,-0.028806977,-0.038392097,-0.06304017,-0.04133113,-0.013706014,-0.050022118,-0.062597826,-0.061656255,-0.05486104,-0.032965563,-0.11036086,-0.10215539,-0.1563204,-0.103486,-0.12770036,-0.052067548,-0.039665624,-0.05572453,-0.052758507,-0.06449878,-0.054433085,-0.026812613,-0.09150958,-0.020858467,-0.046834722,0.009316593,0.059493788,0.20510057,0.05870048,0.013598852,0.0041891336,0.103868514,0.40364826,0.10026538,-0.0015274286,-0.030770652,-0.042122602,-0.090703964,-0.023563117,-0.020419538,-0.007385373,-0.11390719,-0.37504277,-0.10836521,-0.0056228936,-0.014525399,-0.0465464,-0.24629176,-0.05915755,-0.003991492,-0.0443898,-0.0023909062,-0.008949049,-0.0061614066,-0.036720157,-0.048765033,0.057693362,0.17919335,0.061959814,-0.060162365,-0.036580667,0.23159266,0.6441008,0.22739342,-0.044495463,-0.012443006,0.08037252,0.11316013,0.07465954,-0.02508016,-0.035293207,-0.024711013,0.0038218796,-0.011324644,-0.028146625,-0.011239614,0.011573896,0.10700248,-0.00063842535,-0.0005093515,0.017901901,-0.1022349,-0.18100193,-0.0822393,0.019090027,-0.018269852,-0.1523279,1.058222,-0.15017274,-0.03128487,-0.010786384,-0.047887113,-0.18859008,-0.06067557,-0.01109156,-0.0036540926,-0.0148676485,0.066415906,-0.0129773915,-0.0073491037,-0.0036568493,-0.012053862,0.00027535483,0.030374944,0.022979932,-0.09574947,-0.14523098,-0.012256175,0.13226357,0.092679635,-0.4094857,-0.54291284,-0.0004871115,0.48030007,0.36268058,-0.09520121,-0.13865323,-0.018212035,0.12729567,0.10647563,-0.021342777,-0.037769675,-0.0025028586,0.024599284,0.019758776,0.02587378,0.015172362,0.0106626,-0.036102295,-0.07188465,0.08003376,-0.08150909,-0.09035692,-0.1271874,-0.070322454,0.24907023,0.4864483,-0.0682295,-0.3432779,-0.12646133,0.04349391,0.023478478,0.020945027,-0.057023555,-0.048097163,0.01204133,0.012460887,0.013233632,-0.034284353,-0.017167516,0.038399413,0.04209386,-0.078995615,0.025279492,-0.07232258,0.018596523,-0.05386341,0.0635775,-0.009606332,0.015623473,-0.07616751,0.054681383,0.57034636,0.05663701,-0.055036515,-0.031532504,-0.011294365,0.045225035,-0.057801634,0.065288216,-0.01693619,0.020885453,-0.054562867,0.07193064,-0.06887616,-0.035618007,-0.1175111,-0.2223826,0.0028833747,-0.04578641,0.018851288,-0.21693471,-0.566405,-0.07270352,-0.045668393,0.010066867,0.07772973,-0.01738745,-0.014420517,0.0040006116,0.010939151,0.09507294,0.51186526,0.056466922,0.0031490922,0.032658026,0.04409805,0.22636762,0.054662473,0.03876555,-0.013021976,0.08346701,-0.018201612,-0.0808585,-0.1058414,-0.106176786,0.18490678,-0.2725341,-0.2488708,-0.08831364,-0.07015017,0.42065018,-0.4343527,-0.37404343,-0.097911775,0.0007560104,-0.09190905,0.40233463,0.22360021,0.15037183,0.009560108,0.016718,0.010204971,-0.016475629,0.034147665,-0.024821699,-0.010697529,0.022345126,-0.014634877,-0.02667296,-0.036700666,0.05460792,0.1390894,0.05308652,-0.010928288,0.019819021,0.15345949,0.5160456,0.15459377,0.026663572,-0.029862344,0.051792443,0.15921177,0.053440243,-0.035095453,-0.028853213,-0.021080047,0.03390205,-0.025740504,-0.032131,-0.01772207,-0.022802778,-0.06994802,-0.032164358,-0.013665557,-0.01684624,-0.027904212,0.039207757,-0.017100453,-0.012737572,-0.032980733,0.055075467,1.0367417,0.054191485,-0.044703975,-0.018259346,-0.018039927,0.012550473,-0.029228177,-0.017207474,-0.025203794,-0.021341031,-0.024111733,-0.008981951,-0.038632557,-0.016541004,-0.020628825,-0.06806688,-0.009731516,-0.014961999,-0.014767587,-0.013634093,-0.028082192,-0.019772321,-0.017518014,-0.061878726,-0.027808368,1.167382,-0.042622805,-0.056069016,-0.025520373,-0.0194943,-0.038355455,-0.028420597,-0.026918262,-0.034857154,-0.017739713,-0.03757009,-0.010757491,-0.027768087,-0.010343015,-0.0010151118,-0.038345125,0.0142105445,-0.016604606,-0.0013162047,0.0065912157,0.11118849,0.0073898584,-0.0074943528,0.0033326447,0.074104846,0.6982731,0.05421309,-0.00022122264,-0.007512778,0.02197367,0.00641831,0.006054869,0.009708554,-0.021358117,-0.024087004,0.010026231,-0.014122881,-0.024782032,0.0018033087,-0.02306072,-0.01470837,-0.021681607,-0.020584375,-0.006408453,0.013537884,0.08294195,0.013780028,-0.005762577,-0.02485016,0.08215605,0.93716544,0.07028401,-0.026317358,0.010886945,-0.03221505,0.07168363,-0.035277233,0.021675788,-0.008182734,0.0210585,0.013681442,0.012555152,-0.007576883,-0.023524046,-0.049992263,-0.10572172,-0.04048896,-0.0357832,-0.04785172,-0.048005044,-0.051819414,-0.040670495,-0.02812466,-0.14797959,-0.03864289,0.708002,-0.039940067,-0.10924203,-0.06419171,-0.049290016,0.021975465,-0.061732076,-0.04811424,-0.033536408,-0.03366074,-0.09631175,-0.01599826,-0.036511183,-0.019684628,0.05736866,0.08749467,0.06691828,-0.009369858,-0.024311304,-0.0040273443,0.23925467,-0.026964515,-0.03947285,-0.007212132,-0.24635383,0.42589265,-0.20745026,-0.0060040057,-0.01252386,-0.042671323,0.2729066,-0.017399095,-0.015724584,-0.02902139,0.060827315,0.101272404,0.048148602,-0.029761374,0.016519502,0.03853032,0.0575995,0.041012287,0.008434609,-0.0338777,0.039428353,0.29488298,0.023768008,-0.024701715,-0.15607889,-0.3649487,-0.63914686,-0.3463191,-0.16694626,-0.03508088,0.015582114,0.27000803,0.008711219,-0.026829205,-0.004532531,0.049753666,0.006005794,0.05426517,0.008229954,0.05847764,0.0076554716,-0.08315322,-0.035067663,-0.07683128,0.07958143,0.09124006,-0.121988475,-0.074568145,-0.07857925,0.13124809,0.4805816,-0.22991414,-0.3157218,-0.19927867,0.06423125,0.048068523,-0.061655328,-0.06972925,-0.030650437,0.045014467,0.011057988,-0.048405558,-0.014580354,-0.039415225,0.0666728,0.025644004,-0.06717558,0.014194712,0.06547247,0.06475362,0.16037442,0.5260204,0.17699565,0.07861,-0.006247945,-0.10157159,-0.4296038,-0.11732488,-0.008099072,-0.025905907,-0.04192581,-0.07797131,-0.034379408,-0.035499603,-0.025925808,-0.007822122,-0.05124414,-0.0023341477,-0.028012961,-0.009118825,0.0001821965,0.018093139,0.008744806,-0.0090331435,-0.01202964,-0.018287756,-0.1424336,-0.0036579818,-0.018399298,0.014919624,-0.17835435,-0.5772735,-0.15400563,0.007722348,0.011637762,-0.011212349,-0.14392659,-0.016058829,0.008756697,-0.01751548,0.0058672726,0.004211366,0.01708141,-0.017219901,-0.024061128,0.012201816,0.013327748,-0.003831476,-0.009320855,-0.0121831,0.021963537,0.117779724,0.02192396,6.4406544e-05,0.0064351447,0.076842114,0.606105,0.09520461,-0.0042199343,-0.0047090203,0.035663724,0.15665914,0.036080368,0.0028429478,-0.00267905,0.011225551,0.009178579,0.013446018,-0.004628271,-0.026554316,-0.0026412308,-0.0014221966,-0.017107964,-0.015662253,-0.004186921,0.010241091,0.0003271103,0.03728652,0.0050834417,-0.024386734,0.017335102,0.69335675,0.02642098,-0.015611403,-0.019600794,0.006890245,0.071730256,0.013813734,0.0040023625,-0.014290422,0.010778047,-0.043924846,0.0065666437,-0.011831105,-0.023869038,-0.020190924,-0.06533151,-0.015919209,-0.0319314,-0.016586974,-0.021530628,0.028477192,-0.022960588,-0.0011550188,-0.053051442,0.044986755,0.7486295,0.0327462,-0.054503586,-0.018388331,-0.04576923,0.034420602,-0.05118601,-0.012399554,-0.028062306,-0.022577107,-0.041779988,-0.028859884,-0.024372548,-0.025087833,-0.00863874,0.022631198,-0.020871222,-0.0133955255,-0.020747006,-0.06860511,0.008178726,-0.063541666,-0.024497688,0.01744619,-0.2673716,0.81830835,-0.27369544,0.023291618,-0.00090393424,-0.01870507,0.17715967,-0.02946508,-0.0026458688,0.009648472,-0.0029491186,0.0017899685,-0.014198273,0.006114438,-0.037673853,-0.059299357,-0.17078671,-0.060517818,-0.04622545,-0.015782416,-0.194813,-0.6687023,-0.15299344,0.014813244,0.031949222,0.025513262,0.069134414,0.028953344,0.008719817,0.01691237,0.1290484,0.4538083,0.15661019,0.01643917,0.031843416,0.07557444,0.16389565,0.061127633,0.048092917,-0.019621849,-0.007927284,-0.036061704,-0.017443001,-0.016817093,-0.026107818,0.07918823,0.13335618,0.05237046,-0.037384957,0.03804642,0.40189794,-1.0068623,0.40262082,0.05215144,-0.022211507,0.028329,0.12080062,0.03656429,-0.0252322,0.008470431,0.0012835525,-0.040009335,0.0054107904,0.0067240074,-0.018414691,-0.0035875365,-0.024421187,-0.0015981328,-0.030539423,-0.0036562681,0.003716886,0.054563686,-0.009788334,0.0042633824,-0.04001253,0.04233238,0.9747547,0.036761027,-0.049779654,-0.009646237,0.023014754,0.030408807,0.02773261,0.0040488094,-0.017027684,-0.020542227,-0.03739004,-0.005778946,-0.02166786,-0.038146317,-0.022025593,-0.048404828,-0.017983794,-0.050086707,-0.042224728,-0.056639224,-0.12356064,-0.072841495,-0.022578359,-0.05890429,-0.10147071,-0.17481391,-0.08544698,-0.060842693,-0.04768738,-0.062662244,-0.07803768,-0.050445855,-0.04412543,-0.034771007,-0.053863496,-0.06394037,-0.04451272,-0.034279227,-0.009848237,-0.017888257,-0.016289279,-0.0051141977,-0.005047798,-0.025380582,-0.020873353,-0.011129022,-0.012592329,-0.010978341,-0.04727533,0.024720028,1.0174224,0.028048057,-0.03915581,-0.01882115,-0.012307078,0.034429662,-0.0068237185,-0.017405234,-0.006535694,-0.03536825,-0.023622934,-0.03491658,-0.011539504,0.046828598,0.037385046,-0.0036690831,0.049620792,0.025934014,0.056925878,-0.032188535,-0.28831747,-0.032536,0.061638176,0.055769205,-0.32773763,-0.60769224,-0.30834332,0.06492245,0.04315196,-0.0023465827,-0.22281355,0.009389162,0.046640277,0.039742112,0.03609401,0.007447727,0.035676755,0.045639336,-0.08590305,-0.026733296,0.01781308,0.02320534,-0.038088873,-0.12242939,-0.36932114,-0.17218769,0.013935795,-0.048004344,-0.16175003,-0.58282644,0.14393464,0.6646722,0.15931748,-0.032711312,-0.030761212,0.21610749,0.18269221,0.12646931,-0.019489348,0.01739572,-0.015673101,-0.0033205152,0.055837564,-0.0795635,-0.17150912,-0.10736762,-0.09401544,-0.0029941201,0.113803804,-0.015161186,0.15323299,-0.05965105,-0.099007405,-0.2858504,0.14456949,0.49939117,0.14039561,0.0211626,0.05559829,0.19348592,0.041521326,0.14550771,-0.24857506,-0.124397516,0.043616325,-0.15123014,0.1425899,0.034612864,0.008128315,-0.0039828867,-0.0076487213,-0.0074120387,0.015888274,-0.08494875,-0.10050983,-0.007681288,0.08774057,0.083243325,-0.29571944,-0.42423788,0.028183222,0.3753774,0.2282185,-0.07266097,-0.092983484,0.0186207,0.050991807,0.0669038,-0.017206877,0.01025559,-0.008632243,-0.007775842,0.023812577,-0.01992184,-0.017468408,-0.079766005,-0.020742059,-0.02011383,-0.01135698,-0.021875456,-0.010545716,-0.008710951,-0.015708953,-0.043603703,-0.06283149,1.0682817,-0.08469564,-0.056940153,0.0053758696,0.0033783466,-0.12260462,0.0030084997,0.001283485,-0.019132718,-0.0019232631,-0.024679244,-0.0018177927,-0.009791553,-0.008520395,-0.013084054,-0.0776294,-0.012742542,-0.007366717,-0.033665262,-0.060668677,-0.16436997,-0.05341482,-0.041146353,-0.05035299,-0.17625055,1.1290746,-0.18136783,-0.050068468,-0.03544745,-0.065001644,-0.16003558,-0.07447911,-0.021546602,-0.0074070394,-0.016722962,-0.036603853,-0.018748194,-0.015865922,-0.04522848,-0.096879214,-0.09888661,-0.06566787,-0.0054614004,-0.0024235602,0.008185457,0.111910336,-0.0016078651,-0.014466241,-0.04756408,0.05459556,0.4828701,0.06549149,-0.044572804,0.043197036,0.051431656,0.07941514,0.013377771,-0.06225434,-0.07937688,0.03852038,-0.07410021,0.05035065,0.026413485,-0.057264745,-0.060399674,-0.040216494,-0.052563027,-0.060795583,-0.034922794,0.112297855,0.021701902,0.019058764,-0.036581814,-0.09010858,0.010894716,0.44899333,0.07797921,-0.066936105,-0.040075734,0.10923976,0.06878191,0.08625582,-0.07076717,-0.06118217,-0.03205332,-0.058681205,-0.021665663,-0.039776713,0.016317807,0.06999186,0.1995641,0.0712032,0.019210882,0.02494727,0.14451638,0.38988316,0.13293484,0.016122445,-0.0073461942,-0.0012439787,0.0028685927,0.0056807175,-0.004176259,-0.018864393,-0.15777971,-0.41536075,-0.14898987,-0.023839464,-0.028534338,-0.08975804,-0.24753524,-0.0966343,-0.02532664,0.010523319,-0.016443752,-0.05626747,-0.008328766,0.003587326,0.0036590695,0.017604142,0.02118434,0.012133002,0.0071974173,-0.104178526,-0.108974546,0.87493414,-0.13460091,-0.09280198,-0.0008895919,-0.010982782,0.014396459,-0.020627454,-0.0067908615,-0.0053755734,-0.021421492,-0.07272652,-0.0071127415,-0.00067865103,-0.012103975,-0.006143093,-0.06881869,-0.013507009,-0.010576099,-0.019459337,-0.018920109,-0.008479089,-0.021380752,-0.01795882,-0.037540883,-0.025966398,1.1476359,-0.03182315,-0.03481394,-0.005889684,-0.019267209,-0.054623216,-0.007244557,-0.010851026,-0.032383263,-0.0016685324,-0.012103647,-0.019222423,-0.024283588,-0.016186502,-0.025095135,-0.030283254,-0.013871968,-0.00538218,-0.015974104,-0.0102136955,-0.03778816,-0.019137144,-0.016641468,-0.04343605,0.010574818,0.79350936,0.014823258,-0.052123554,-0.032113902,-0.018288717,0.058204442,-0.014678553,-0.037825882,-0.012628879,-0.045160398,-0.0476702,-0.03268069,-0.012921826,-0.005464092,-0.004674688,-0.062039394,-0.0057412833,0.0004028976,0.0012807399,-0.0060613453,0.041924387,-0.011282444,0.010830194,-0.04853157,0.071045265,0.85392976,0.058338,-0.048596352,0.022367805,0.009688824,-0.065193,0.009952657,0.01698026,-0.006643921,-0.019023314,-0.0501737,-0.014876455,-0.0018650629,-0.0047083497,0.010739893,0.0034398204,0.002312988,-0.0024794713,0.009479269,0.0099116415,-0.098597534,0.013436571,-0.0070890933,0.0089485645,-0.09231195,-0.81723523,-0.0728765,0.015008695,0.009538263,0.015491754,-0.0678823,0.014459252,0.0064778924,-0.0011373311,0.0044445917,-0.0016929805,0.0022914074,-0.0076001287,-0.027847253,0.019914985,0.023405194,0.016484678,-0.032179177,0.014298484,0.039650414,-0.07226618,0.032565463,0.018821284,0.02108863,-0.055463344,-1.2546148,-0.030859888,0.025902517,0.013245672,0.03322886,-0.030420631,0.031055022,0.004069604,-0.011170626,0.007361427,0.015134558,0.011473745,-0.0062966496,-0.05862288,-0.056608766,-0.08858019,-0.059291363,-0.04455796,-0.034813464,-0.06804435,-0.09186228,-0.06929586,-0.038863137,-0.031968683,-0.089390025,-0.14846908,-0.09278991,-0.03804952,-0.03187255,-0.086590946,-0.09900705,-0.07890364,-0.037327677,-0.04582709,-0.05269505,-0.058787644,-0.051747523,-0.04946412,-0.052352324,-0.09759259,-0.08350997,-0.09928948,-0.068978995,-0.09914453,0.04828626,0.1558053,0.028003424,-0.07525283,-0.09976852,0.37224096,0.30680785,0.3319546,-0.09678872,-0.04666217,0.039227128,0.07219845,0.036867738,-0.024859745,-0.01581338,-0.04594268,-0.04402677,-0.04951799,-0.033537302,-0.014533699,-0.028348647,-0.056192156,-0.015171409,-0.01707749,-0.011536032,-0.06406666,-0.35559675,-0.036542967,-0.035155013,-0.041209843,-0.1317496,-0.19555387,-0.17026913,-0.015749685,-0.019241005,0.10334641,0.82027715,0.07540212,-0.012631044,0.049052954,0.09678282,0.036025852,0.10384759,0.03550759,0.0132045895,-0.063090146,-0.043458536,-0.054348186,0.00042052194,0.053642094,0.023687325,-0.29476103,-0.031043975,0.01682216,0.16960001,0.42167273,-0.5373789,0.3837455,0.11373584,0.023606941,-0.026527813,-0.24949864,-0.027726918,0.020794138,-0.015408367,-0.0813154,0.021550313,-0.075098366,-0.029222503,0.0060517993,-0.002457399,-0.019228205,0.015493296,-0.0019587502,-0.026529044,0.052813664,0.22223407,0.03401293,-0.022185624,-0.030262962,0.17861232,0.4529181,0.14821222,0.004242599,0.0031850934,0.031008735,0.10189813,0.03322208,-0.0116529465,-0.022789657,-0.020453542,0.002570182,-0.007077068,-0.013910353,-0.00049704313,-0.02042967,-0.00920099,-0.017678052,-0.0023671538,-0.035695344,0.07127415,0.07828955,0.052397266,-0.023859575,-0.038446963,0.13491632,1.1075959,0.118038036,-0.041834056,-0.023253977,0.038425416,0.14343655,0.05519647,-0.028035715,-0.025668025,-0.0127903335,-0.013417542,0.009474304,-0.021147214,-0.015110254,0.0014073551,-0.024407402,-0.007938303,-0.014551237,-0.0061065257,-0.01849413,0.054682285,-0.0013452172,-0.018080398,-0.031876385,0.0571756,0.7558973,0.035937853,-0.021092683,-0.013122171,-0.011913173,0.0402043,-0.001793623,-0.009122424,-0.015988529,0.01568824,-0.032031815,-0.0008700602,-0.008916259,-0.015246153,-0.039237797,-0.06073138,-0.037370984,-0.016249716,-0.011839092,-0.06377444,-0.18706065,-0.037583977,-0.012405038,-0.04372228,0.14763163,0.9719279,0.14243595,-0.049972408,-0.007436931,-0.040262252,-0.004477173,-0.03974682,-0.0047654817,-0.0048823953,0.008507945,-0.03576404,0.004266739,-0.0104393065,0.009712897,-0.012035653,0.023488104,-0.017332137,0.0049663484,0.001404509,-0.021120995,-0.06911432,-0.025153894,0.00969106,0.003549859,-0.058932826,-0.90981925,-0.06325868,-0.005641073,-0.0036689043,-0.020635262,-0.06840043,-0.02075465,-1.7374754e-05,-0.0030646827,-0.0022132695,0.0031226575,-0.0008417964,-0.004965484,-0.033834577,-0.01671087,-0.071275115,-0.014108796,-0.042807877,-0.016134694,-0.011484571,-0.03001687,-0.023925692,-0.013272256,-0.06371465,-0.0111858845,1.0118275,0.016655982,-0.07678443,-0.04121846,0.008083452,0.04593561,0.023850422,-0.043658704,-0.02636657,-0.018902004,-0.069908455,-0.02600725,-0.032958686,0.023312539,0.13680878,0.0444088,-0.056822523,-0.0833358,0.15102959,0.45590562,-0.089099884,-0.41634753,-0.06479329,-0.009107787,-0.2912049,0.18755732,0.028181031,0.072726786,-0.097533,-0.28599444,-0.17408808,0.31384942,0.09932552,-0.0642578,-0.07673054,0.08744222,0.13307196,0.0040425807,0.012967497,0.009751558,0.008710921,0.008760452,0.010990255,0.035784304,0.022926196,-0.24830562,0.042862236,0.014170706,-0.059788913,-0.31166545,-0.5670256,-0.31903785,-0.044406533,0.01756581,-0.015666604,-0.23577267,-0.02798982,0.022588044,0.023236781,-0.0075808167,0.01362467,0.004149914,0.016980521,-0.03358446,-0.009584792,-0.007505864,0.006319225,-0.044993684,0.026492372,-0.020109583,-0.14718246,-0.011741508,0.021326661,-0.022124007,-0.139239,-0.25709102,-0.13991362,-0.030767739,0.02296783,-0.053178728,-0.18029332,-0.04110761,0.02984649,-0.008947462,0.024560511,-0.03619671,0.026575387,-0.012181923,-0.007131152,-0.008747578,-0.051328808,-0.0030621141,-0.013622224,0.0028710663,-0.011336118,-0.024711832,-0.021583669,0.010286413,-0.04682897,-0.018049002,1.0161071,-0.028028995,-0.041538246,0.014927745,-0.019814849,-0.031920582,-0.027517825,0.0075447895,-0.016829163,-0.01211977,-0.04772415,-0.009438157,-0.017074198,0.054737404,0.002118975,-0.29827118,-0.0029518157,0.05713949,0.022505946,-0.025707722,-0.4769718,0.006464988,0.03256184,-0.039733335,-0.07338473,-0.19604124,-0.06106311,-0.04030174,0.020869225,0.07335992,0.5133158,0.071978666,0.027871847,-0.013934016,0.061043426,0.3215147,0.057961002,-0.02004446,0.007891074,0.005466573,0.065093964,0.0005897479,0.00997217,-0.010911733,0.055720758,0.16179629,0.0521107,-0.0043030977,0.040542528,0.13730426,-1.159004,0.14863014,0.042722404,0.0063613206,0.06123078,0.15432279,0.06067249,-0.0012814701,0.004338473,-0.0022823513,0.04426506,-0.00763765,0.009732239,-0.0036610216,-0.017066821,-0.06500566,-0.026063278,0.010820784,-0.008777458,-0.0333078,-0.10718864,-0.029983908,-0.01642415,-0.055095494,-0.06021273,1.318889,-0.07012094,-0.052521914,-0.023146525,-0.024794795,-0.10025054,-0.016464852,-0.024632722,-0.004828647,-0.009022072,-0.070174925,-0.019261748,-0.0036523342,-0.013061881,-0.0012041978,0.051334217,0.0032040775,-0.017526645,0.011922352,-0.012094326,-0.028194055,-0.009581387,-0.0046365857,0.043527305,-0.055275753,-0.98407423,-0.071172714,0.052533686,0.0021485537,0.005492687,-0.009541375,0.0064371377,0.0047043413,0.0005065203,0.013763905,0.052517593,0.0042271614,0.0052275956,-0.08655369,-0.06443286,-0.016056873,0.03953761,0.07185608,-0.06494544,-0.19627684,-0.08732578,0.2956034,0.09760446,-0.11307919,-0.5645372,0.043675583,0.6772492,0.10151036,-0.05151421,-0.13503478,-0.03899482,0.13602895,0.09511399,-0.035132825,-0.0726571,0.005092323,0.014604181,0.07810146,-0.005244747,0.03969431,0.06466975,0.018623538,-0.02057609,-0.050157443,-0.03586507,0.14535594,-0.09057885,-0.07197605,-0.110171735,-0.17857695,0.59637916,-0.28817138,-0.14595248,-0.061781958,-0.024463847,0.23707482,-0.06633286,-0.0914862,-0.02399113,0.06206821,0.08294286,0.039046712,-0.050145313,0.0055378675,0.006895125,0.06610062,0.00856927,0.011041164,0.03415611,0.023425065,-0.042431407,0.02641359,0.027883902,0.034577228,0.08605381,0.5905246,0.077809446,0.040552378,0.0107880235,-0.06100899,-0.34692547,-0.06462667,-0.0035824776,-0.015757516,-0.041831195,-0.01742351,-0.03583032,-0.015461057,0.0047658235,-0.023444045,0.006938085,0.030412406,-0.016160697,0.09010046,0.07645792,0.07035798,-0.1696171,-0.047641825,0.12981309,0.57790136,-0.04531257,-0.53151655,-0.1781746,0.08931112,0.049138203,0.044529438,-0.11411491,-0.039159417,0.0018203706,-0.011448458,-0.009796649,0.027923927,-0.011312664,0.01573667,0.062180012,0.2348676,0.06112206,0.014214203,0.018783465,0.14765614,0.46686757,0.13288745,0.020913243,-0.011825532,-0.031253695,0.010680765,-0.022701576,-0.016985893,-0.020371439,-0.15421784,-0.4498442,-0.15916142,-0.01654765,-0.020954013,-0.053024743,-0.25153938,-0.051845703,-0.013766333,-0.0207953,-0.03317249,-0.053778082,-0.030819237,-0.017885223,-0.028243527,-0.058943976,-0.1408816,-0.0614264,-0.030476838,-0.077817544,-0.16023839,-0.17871238,-0.16718526,-0.058286667,-0.042278767,-0.06243722,-0.15386263,-0.075109124,-0.024659365,0.003244087,-0.03422162,-0.092316575,-0.03046,-0.015183628,-0.022887424,-0.010915965,-0.0302849,-0.027473569,-0.018334448,-0.028607346,-0.0297845,-0.056350604,-0.017342359,-0.02200289,-0.047661692,-0.06343377,1.2150357,-0.06409465,-0.03453824,-0.035129525,-0.027929813,-0.02930206,-0.044608206,-0.03460164,-0.014965251,-0.012994885,-0.038335197,-0.008067129,-0.01562351,-0.031921446,-0.05393949,-0.121112645,-0.038626432,-0.037531912,-0.033654436,-0.047286846,-0.13160665,-0.03870797,-0.014907956,-0.084209636,-0.08398527,-0.15815254,-0.09947885,-0.06822862,-0.054900333,-0.07015219,-0.04247558,-0.053434223,-0.044097975,-0.0413184,-0.069628626,-0.10810876,-0.06177759,-0.040099062,0.024187401,0.052121192,0.05016762,0.051852047,0.023442954,0.013971254,0.02767513,0.21547525,0.01143378,0.014996193,0.021743238,-0.30698618,-0.7354932,-0.26694557,-0.0091753155,-0.01941552,0.05024667,0.093215525,0.04209912,-0.00753361,0.04691577,0.057514757,0.08748509,0.05546447,0.03689808,-0.009689674,0.027113438,0.02088081,0.036836993,0.004402019,-0.032289714,-0.067225605,0.8659248,-0.07603383,-0.049889144,0.002375126,-0.0038170815,-0.14425716,0.024562165,0.005516395,0.017573252,0.03340766,-0.06546968,0.042825162,0.014728129,-0.0004030764,-0.039630502,0.029320002,-0.025115669,0.0015858561,0.021756299,0.004174553,-0.019536704,0.033584684,0.0022744536,0.09900066,0.09082254,-0.010003626,-0.07893616,-0.078302756,0.2872996,0.3465572,0.09727946,-0.48243433,-0.2628907,0.0786289,0.07728535,0.009185761,-0.065998524,-0.10892123,0.018665344,0.01871632,-0.034074977,0.018620804,-0.012337893,-0.024835989,-0.062411472,-0.17196402,-0.06794898,-0.032707512,-0.0017170608,-0.15838124,-0.59842795,-0.13040799,0.006926924,0.015796125,-0.020706296,0.06394726,-0.032982826,0.009363413,0.009733211,0.14088544,0.5578581,0.11839577,0.005073186,0.026517257,0.04317002,0.17742848,0.047717236,0.024698544,-0.020079868,0.0005443953,-0.0010583997,-0.00020751357,-0.019601166,-0.0030066818,0.04388216,0.16470405,0.05823259,0.0052185655,0.038715184,0.12666601,0.6775498,0.11781469,0.03460279,0.026364908,0.011872083,0.11198309,0.030475557,0.019344151,-0.041790873,0.007919557,0.0010897778,0.0035346746,-0.04800287,-0.052440852,-0.11619803,-0.1943718,-0.10452056,-0.047677517,-0.08217188,0.022512535,0.07139031,0.013142563,-0.042408645,-0.07625252,0.02424638,0.67974794,0.079473674,-0.10000852,0.011893868,0.12317479,-0.027661607,0.110901125,0.016844153,-0.1497803,0.16166875,0.0064106286,0.16764748,-0.09724915,-0.020929746,-0.018637136,0.019272164,-0.020990908,-0.017200649,-0.005050078,-0.060648397,-0.28835306,-0.05259067,-0.010494113,-0.018705204,0.09216322,0.79209983,0.08309127,-0.01191929,0.022082925,-0.038694024,-0.14233933,-0.016503416,0.009853363,-0.0069521517,-0.021171689,0.05302735,-0.012759782,0.0070560724,0.012770176,-0.0023429692,0.051222276,-0.006001711,0.009313285,-0.0075706095,0.0411205,0.19201328,0.051686272,0.0015424304,0.06527454,0.27984408,-1.4004271,0.3176114,0.05165519,-0.004356891,0.040326804,0.27039474,0.018727154,-0.009136856,0.016088165,0.0009798408,0.04411924,0.00085505843,0.017896801,0.010636076,0.029629841,-0.025204692,0.032138824,0.024227783,0.008006696,-0.024770029,0.032207012,-0.013460901,0.013469402,-0.038172245,0.109681755,0.84218824,0.09272356,-0.038636565,0.02227036,0.017804459,-0.05687643,0.009126388,0.034877807,0.0066912696,-0.02926132,0.011953966,-0.025418371,0.004647702,-0.028687358,-0.04257834,0.00731197,-0.00097465515,-0.0033644438,0.007188469,-0.089633346,-0.304701,0.04993403,-0.020179152,0.09487729,0.5410289,0.4477143,-0.4332508,0.00649035,0.045487076,0.14697905,0.09249878,-0.266545,0.03688115,0.04370761,0.053022757,0.0062291324,-0.09103054,-0.0432219,-0.022760361,-0.0065356568,-0.0012328327,0.010782838,0.007100016,-0.09429242,-0.12346816,-0.0024751462,0.09966311,0.08353182,-0.28242046,-0.37933666,-0.026530832,0.36002925,0.27372405,-0.09519313,-0.084703796,-0.02067183,0.09497767,0.08693917,-0.04048243,-0.020206422,-0.016235113,0.020450622,0.02357801,-0.03713569,-0.026148558,-0.08092269,-0.016947389,-0.03557372,-0.004421748,-0.06497872,-0.08678455,-0.057749152,-0.010573387,-0.013124585,-0.00027114153,-0.46421587,-0.006423652,-0.013671637,0.019744322,0.101772696,0.57547086,0.08961052,0.025954187,0.027002394,0.0682561,0.119675405,0.063186884,0.03290887,-0.082836054,-0.057790667,-0.0040400624,-0.054324254,-0.093141556,-0.08224382,-0.070213094,0.016832322,-0.05669409,-0.07762568,-0.027103093,-0.065820634,0.048842072,-0.062141296,-0.029378414,-0.042517498,-0.046416312,-0.029577583,-0.0675737,-0.048705965,-0.09586519,-0.058015853,0.013203263,-0.050557204,-0.1018715,-0.019002408,-0.0061785057,-0.036255866,-0.008290686,-0.019062215,-0.017350614,-0.01542154,-0.0033619702,-0.014915787,-0.017951548,-0.042775676,-0.030289471,1.0525936,-0.032275148,-0.033932775,0.00013931096,0.02151072,-0.08552094,0.0057316124,-0.0062154382,-0.032097995,-0.028942045,-0.034157664,-0.01340279,-0.034225397,0.05866608,-0.08850494,-0.10960215,-0.044689924,-0.021943063,-0.09982279,0.07485567,0.048677534,-0.02158457,-0.042865388,-0.1462433,0.07626742,0.51646346,0.14733297,-0.10435522,-0.05167383,-0.020370156,0.16620621,0.014046431,-0.047078058,-0.011262633,-0.03757497,-0.08174273,-0.0307259,-0.032553017,-0.0063896924,-0.008230649,-0.04492563,0.0070820153,-0.018720224,-0.02250731,0.0025821328,0.008213572,-0.0058395565,-0.020471275,-0.05379803,-0.01855442,1.0564405,-0.0253672,-0.05086574,-0.021935716,-0.0032036006,-0.07458551,-0.012523924,-0.029277524,-0.015098624,-0.016711565,-0.009952486,-0.019773666,-0.00998193,0.017158955,0.035776444,-0.02372986,-0.01803574,-0.018335998,0.06866728,0.12625004,-0.031362295,-0.14296108,-0.100452706,0.28409868,0.4169278,-0.06690633,-0.39746696,-0.3319361,0.09014535,0.12740545,-0.006406039,-0.15289265,-0.12851025,0.031314835,0.046254322,-0.019817293,-0.03717236,-0.03402403,-0.016725913,-0.027371377,-0.07540781,-0.032036602,0.0018030703,-0.031233698,-0.009338491,0.06779063,-0.010068774,-0.025370412,-0.061924398,0.03373207,0.99060154,0.020913184,-0.06679553,-0.029353328,-0.018194519,0.006356785,-0.025180358,-0.028658688,-0.02749218,-0.025710702,-0.042271316,-0.021922208,-0.026703,-0.014313802,-0.016808152,-0.08173095,-0.02752079,0.0034969896,-0.010716826,-0.030407697,0.03598588,-0.039758734,-0.00671521,-0.07606265,0.048008382,0.6823944,0.041582257,-0.08211064,-0.04310128,-0.016560629,0.049080342,-0.02082023,-0.040510982,-0.04050563,-0.03912831,-0.07147133,-0.014522463,-0.053286225,-0.021449763,0.023616046,0.0032899976,0.02688995,-0.02701652,-0.010191023,0.105374694,0.5773841,0.112424225,0.00039634854,0.0022897422,0.13354552,-0.460756,0.13133621,0.016261071,-0.008535087,0.008770704,-0.024907291,0.016013905,0.0013519377,-0.019118577,-0.0050910413,-0.042428464,-0.014340592,-0.013545752,-0.03229866,-0.041190594,-0.11171758,-0.031850398,-0.032804042,-0.051702738,-0.07531635,-0.24025439,-0.07032198,-0.038200643,-0.11635381,-0.30253917,0.67971313,-0.3077357,-0.117167264,-0.031881765,-0.056077763,-0.23566152,-0.07848337,-0.017433206,-0.05765426,-0.03504914,-0.0901113,-0.035673052,-0.05794774,0.010505661,0.027445793,0.052790135,0.018571032,0.0042529255,0.022441328,0.024030566,0.13857318,0.025175631,0.031084836,0.042388394,0.12704432,0.5652729,0.122551024,0.039128862,0.031858623,0.038809806,0.16354331,0.056291252,0.018928036,0.013002127,0.036119696,0.086287476,0.02904591,0.0055026114,-0.0814172,-0.058493137,0.06534501,0.11853272,0.0190558,-0.06736454,-0.42110243,-0.048733093,0.44737664,0.1712879,0.08888221,0.02138003,0.18507107,-0.27953878,0.0036951005,0.10453592,0.3339889,-0.20483813,-0.29276782,-0.084591575,0.020590253,0.1317768,0.064303875,-0.09861797,-0.06754553,0.004283786,-0.0008120537,-0.019423157,-0.0024989843,0.0025069863,-0.01983565,0.024492554,0.24200693,0.022155315,-0.019816354,-0.009412646,0.17313562,0.700108,0.17409801,0.014783099,-0.022676766,0.006182544,0.2302131,0.0030285418,-0.032833695,-0.0043205693,0.0011963099,-0.018139899,0.0028944016,-0.013273969,-0.027129218,-0.018219128,-0.11505873,-0.0021513104,-0.024809897,-0.03490439,-0.05493693,-0.15533903,-0.057175666,-0.034435026,-0.024273545,-0.08873969,-0.41432592,-0.06548175,-0.037383586,-0.01698102,-0.026008442,-0.17883414,-0.021682799,-0.018279731,-0.044177953,-0.024087861,-0.10445737,-0.012592047,-0.044775695,0.03035152,-0.04532428,-0.000831902,-0.07518307,-0.05346022,0.07129103,0.056681376,0.013274122,-0.19326247,-0.08409506,0.04412264,0.7536248,0.19271085,-0.55620295,-0.08643615,0.0503408,0.07082096,-0.020998817,-0.12760063,-0.05118002,0.0076847374,-1.4428049e-05,-0.04846151,-0.05694674,-0.048941135,-0.027953029,-0.009221286,0.016313888,-0.019596145,-0.021919668,-0.029384911,-0.039047018,-0.03729926,-0.023735771,-0.017318636,-0.011502713,0.061912954,1.0064,0.026039794,-0.021748573,-0.022115648,-0.0015829802,0.04905831,-0.007039726,-0.017523635,-0.02246426,-0.011045004,-0.020573303,-0.012732804,-0.010960773,-0.06896226,-0.052094705,-0.065555595,-0.03644631,-0.08034656,-0.045320034,-0.032766134,-0.07951899,-0.029471094,-0.03527777,-0.039251655,-0.04734516,-0.10155308,-0.06449723,-0.051422738,-0.047543705,-0.023244426,-0.111691386,-0.051607337,-0.03257136,-0.06972533,-0.06451586,-0.057509135,-0.045369923,-0.07186161,-0.04687459,0.0022467822,0.011451848,-0.0065264106,-0.027059302,-0.0060886294,-0.16843463,-0.099855214,-0.017579228,-0.04469771,0.074639484,0.4280733,0.52059835,-0.24783896,-0.021897048,0.05315472,-0.069978565,-0.1324777,-0.0577195,-0.033855055,0.019035153,-0.012018373,0.011438742,0.016342387,-0.0074746907,-0.0063212216,-0.010879904,-0.031018745,-0.014705554,-0.012807921,-0.0038790852,-0.0007932633,-0.049132273,-0.003917575,0.0026348531,-0.033075318,0.0019607283,1.2063938,-0.010779291,-0.028147697,-0.008930385,0.0009032488,-0.00014469773,-0.0059664696,-0.010344125,-0.015530065,-0.009622693,-0.018207788,-0.015353501,-0.014468763,0.049299777,0.065003514,0.1645019,0.086635694,0.04530832,-0.009194821,0.07910547,0.54928154,0.0678729,0.0004067421,-0.034792975,-0.117753804,-0.03386136,-0.13360193,-0.030010179,-0.02583903,-0.053115517,-0.3640876,-0.05978009,-0.02785474,-0.018929094,-0.044457257,-0.17865206,-0.044921935,-0.018754607,0.001989469,-0.018354133,0.0043235198,-0.061747573,0.04434651,-0.0126565695,-0.07114127,0.2193113,0.24200553,0.19753215,-0.25958106,-0.6482626,0.16425315,0.7081125,0.21194871,-0.16193552,-0.29252952,-0.19372146,-0.039676577,-0.0368993,-0.1319426,-0.050157547,-0.021265328,0.019687295,-0.007071987,-0.014608622,-0.056741327,-0.20035861,-0.062164277,-0.0111555755,0.044974774,-0.13530031,-0.40258682,-0.12931406,0.045383956,-0.035975154,-0.12731445,-0.20279416,-0.1342006,-0.03403191,-0.033515267,0.1667411,0.6575427,0.16390699,-0.039978065,0.015335768,0.11317423,0.21445632,0.110933945,0.019674256,-0.015603751,-0.007598132,-0.03073543,0.0020896196,-0.012324873,-0.0063191056,0.020368293,0.014073506,0.0016379394,-0.005639732,-0.014225125,0.0050791204,0.9433885,0.001413554,-0.018847048,-0.011018338,0.0015071332,-0.034931824,-0.0048790276,-0.00076268613,-0.0036697388,-0.0057291985,-0.011512369,-0.008061796,-0.0034316182,-0.014392912,-0.025244594,-0.02346687,-0.017382175,-0.016815424,0.0074367523,-0.09181639,-0.3247457,-0.084783636,0.0028406829,-0.047650054,-0.16612887,-0.20645119,-0.14926526,-0.054929823,-0.020238638,0.1357505,0.767276,0.107793,-0.012248359,0.0016753674,0.069247365,0.10526332,0.05716984,0.011694223,-0.030827612,0.018801183,-0.034851134,0.008838803,-0.031099975,0.024797276,-0.058160245,-0.25752157,-0.03680095,0.014122456,-0.018056542,-0.30549964,-0.29408392,-0.29509404,-0.020065047,-0.021158546,-0.06466925,-0.1732633,-0.055097044,0.009036668,-0.009661961,-0.0060415864,-0.06636524,0.001296401,-0.010304362,-0.02421438,-0.025160715,-0.049100608,-0.027581215,-0.03204681,-0.031303883,-0.004071936,-0.012735248,-0.009780109,-0.027071893,-0.053290293,-0.047254026,1.1936926,-0.04971525,-0.04122877,-0.013035119,-0.03859049,0.0051290393,-0.035998866,-0.020497238,-0.016245753,-0.03660041,-0.03425778,-0.029729739,-0.0212055,-0.02360718,-0.008769456,0.008867145,0.004722595,-0.01892066,-0.0023980588,0.023571234,-0.06373516,0.010291666,0.006832212,0.014664829,-0.10037935,-0.81622213,-0.081205904,0.029776603,0.01039809,0.02113995,-0.06566766,0.02076152,-0.001018703,-0.00057427585,0.0019801669,0.010860965,0.008674219,-0.04026452,0.07206479,0.058700442,0.03642279,0.06937471,-0.117366254,-0.20322043,0.027943611,0.22804417,0.04968091,-0.04122401,0.044647604,0.11650704,0.3519541,0.12575114,0.14060809,0.08081572,0.024131484,0.06874461,-0.0026884228,-0.005583167,-0.04782644,-0.072028875,0.12350717,-0.018345103,-0.05625193,-0.040989608,-0.014928758,-0.09493542,-0.08962205,-0.0740098,-0.09730874,0.05926685,-0.16979109,-0.16546021,-0.026194751,-0.057576645,0.042572185,0.5918775,0.12072688,-0.06621167,-0.0049714893,-0.1477415,-0.20628676,0.030604884,-0.066879064,-0.041835718,-0.05719299,-0.09322226,-0.018358087,-0.026808798,-0.029813796,-0.015099198,-0.054516554,-0.013494194,-0.03620433,0.0020486787,-0.005135566,0.064068854,-0.016363233,0.00041030347,-0.038083345,0.079342514,0.7552356,0.06544011,-0.005659014,-0.025496393,-0.039732054,0.05953288,-0.03171949,-0.027546465,-0.024066254,-0.0093340725,-0.04831226,-0.007990349,-0.020713419,0.0006662011,-0.0048250556,-0.054670006,0.006918639,-0.0025681853,-0.011926457,-0.005195439,0.08425084,0.0027578324,-0.022440076,-0.033792734,0.0613786,0.6999932,0.040129393,-0.0355006,-0.00043728948,-0.0024069846,0.07033688,0.018300932,-0.017891034,-0.011867821,0.002385825,-0.027844965,-0.0046957135,-0.008108705,-0.02626659,-0.0025387406,-0.047885537,0.005394578,-0.031423777,-0.010422021,0.0026736893,-0.046772957,-0.0084629655,0.0005520135,-0.036855534,-0.019667953,1.0763074,-0.038393825,-0.04085216,-0.014366135,0.006331265,-0.0039435923,0.009994775,-0.0011087768,-0.022369623,-0.021625966,-0.040490776,-0.0154938325,-0.025234222,-0.032799542,-0.024401173,-0.060658514,-0.033264995,-0.026301146,0.021486804,0.012524128,-0.077568084,0.04564985,0.008468568,-0.007001281,0.05379288,0.93766826,0.01820866,-0.0072119534,-0.013661504,0.00926201,-0.026510894,0.0028909594,-0.0025020242,-0.030188963,-0.011361301,-0.058429956,-0.0102164,-0.0403578,0.006421894,-0.045898616,0.03852296,-0.038283423,0.0040849,-0.0065953806,0.0051827505,0.14745104,-0.0037291646,-0.01545772,0.014526147,0.2040973,0.67632884,0.19510321,0.0146816345,-0.010494053,0.026444942,0.20958291,0.014305264,-0.012293324,0.013900772,-0.048126433,0.047400206,-0.054894328,0.007716298,-0.00029742718,-0.026213378,-0.009859818,-0.02303727,-0.0014043748,-0.0051117986,0.041178823,0.14862353,0.019523367,0.005000446,-0.023121692,0.22143129,0.8417821,0.20446718,-0.009140104,0.011219248,0.059777647,0.15094075,0.039821237,0.025257975,0.010502558,-0.033108115,0.01230967,-0.019786164,0.0014604466,-0.02204287,0.0032494068,0.057480514,-0.0046165287,-0.016764015,0.018752005,0.0045493543,-0.11142242,0.010263056,0.016015917,0.036461025,-0.0997076,-0.71192163,-0.11367199,0.043127865,0.014011785,0.007982577,-0.10770324,0.002959907,-0.00018478185,-0.024962112,0.007485181,0.03687691,0.0052536726,-0.01725319,-0.01787581,0.062480576,0.020580381,0.062219977,-0.016901985,-0.083886534,-0.03564459,0.48426682,-0.009315968,-0.07439458,-0.16829067,-0.44294685,0.2291573,-0.39493147,-0.14453079,-0.092797965,0.027678505,0.42316532,0.038683623,-0.07381894,-0.01608418,0.062363967,0.042767514,0.050906926,-0.019800961,-0.023503602,-0.057752788,-0.11952281,-0.05008386,-0.040529013,-0.01998341,-0.15022208,-0.42949206,-0.16108447,-0.010101341,0.012277544,0.06340778,0.007005602,0.040170133,0.011365622,0.029163927,0.103937894,0.27367997,0.101875186,0.022596464,0.03363657,0.069892704,0.15564476,0.057706337,0.02986306,-0.004714979,0.045275137,0.102224015,0.020589873,0.019937843,0.046854973,-0.04953763,0.08610284,-0.075147375,0.047490224,0.10896015,0.08204213,0.63145465,0.078166015,0.099074915,0.02087158,-0.058149308,0.052758843,-0.037570864,0.042052925,-0.012060113,-0.020626843,0.12074304,-0.008465622,0.022415772,0.033422098,0.08925126,0.086171746,0.08142653,0.04299909,-0.042723447,0.13664657,0.8101939,0.13434902,-0.050651923,-0.117222965,-0.200351,-0.3381334,-0.18498184,-0.105077974,-0.06400213,-0.050818667,-0.036656026,-0.062508345,-0.085178435,-0.058492526,-0.010149002,-0.007659495,-0.011794664,-0.05129093,-0.00815931,-0.055730425,-0.079668894,-0.035576463,-0.014197946,-0.029459804,-0.033687532,-0.03470463,-0.050041474,-0.026393726,-0.054635346,-0.08648646,1.2630876,-0.10159266,-0.06346139,-0.041365787,-0.025737219,-0.022179268,-0.019513965,-0.032683387,-0.011031818,-0.021264367,-0.06494284,-0.020600222,-0.011570275,-0.015411681,-0.013878435,-0.05958911,-0.00036358833,-0.025785562,-0.013821483,-0.014092475,0.015796512,-0.018834114,-0.00043052435,-0.07890983,0.04798256,0.98561066,0.019688264,-0.086334944,-0.020347893,-0.029387612,0.030995175,-0.010575362,-0.02076742,-0.032933652,-0.0115137845,-0.059921082,-0.014802158,-0.036014296,-0.013484269,-0.006703198,-0.031232,-0.0077090263,-0.016769448,-0.0026183352,0.005277518,-0.026761055,-0.0035299212,0.009402361,-0.040257126,0.00318712,0.825971,-0.010568783,-0.0546045,0.0066634417,-0.020849034,-0.04292363,-0.005482413,0.0064860433,-0.014845222,-0.0053381138,-0.017278284,-0.008550763,-0.013434708,0.0051416717,0.022899017,-0.054493695,0.01656188,0.00064668804,0.019202359,-0.037608698,-0.12506652,-0.036019564,0.027524412,0.0015623439,-0.13173473,-0.7917033,-0.1347062,-0.0063561797,0.028552055,-0.060022518,-0.14819586,-0.04427273,0.021395449,-0.003971301,-0.00016996264,0.014706254,-0.007840514,0.01202932,-0.014333825,-0.0072062016,0.0025125914,-0.020091452,-0.010472238,-0.024749354,-0.013514698,-0.075745136,-0.0121175945,-0.021084145,0.017847374,-0.026848257,0.74263704,-0.028754711,0.0043028146,0.010403454,-0.0007218644,0.32620955,-0.004140578,-0.0018328279,0.000397712,-0.012658447,0.015409872,-0.0012021959,-0.005247593,-0.03633392,-0.015862823,-0.07419999,-0.012608752,-0.028097302,-0.006494373,-0.044733495,-0.015258912,-0.031882495,-0.014724582,-0.059754517,-0.0049853623,1.0219766,-0.029718824,-0.06237717,-0.009455048,-0.021227151,-0.051283825,-0.024777696,-0.0050097704,-0.024994062,-0.0035264157,-0.038735583,-0.002101304,-0.03492129,-0.014360532,-0.021063522,-0.07505706,-0.020828158,-0.021826208,-0.028040648,-0.011948202,-0.03677,-0.014211759,-0.014508963,-0.076437145,-0.011025876,1.1691593,0.0109009445,-0.08867926,-0.0213494,-0.0029149652,-0.009192303,-0.023539437,-0.013653815,-0.034787845,-0.030543014,-0.110746756,-0.023315638,-0.028148716,-0.02790983,-0.019625962,-0.031113207,-0.021143543,-0.03233537,0.0024144612,-0.014385893,0.044677675,-0.016856888,-0.0075033046,-0.015326947,0.074058175,0.82222676,0.053387318,-0.031469643,-0.025649287,0.011886907,0.1031448,-0.0076311827,-0.016272843,-0.050092995,-0.022986114,-0.069190055,-0.021981277,-0.06662899,-0.0049693584,-0.0033240318,-0.012696801,0.005530447,-0.02278784,0.022222877,-0.03589777,-0.19108856,-0.029649556,0.021767229,-0.021936268,-0.22583005,-0.5532775,-0.2081365,0.0038707405,0.023068376,-0.033788323,-0.2151764,-0.021369278,0.02007994,-0.003025651,0.02051732,-0.025621042,0.02662383,-0.009364903,-0.070507415,-0.024089366,0.00086565316,0.013719946,0.01614885,-0.08515676,-0.121463954,-0.0793142,-0.0919404,0.06275227,-0.114161074,-0.34010184,-0.06505582,0.472548,0.23836093,-0.038521066,-0.07699592,0.02527234,0.03367263,0.05140087,-0.045637608,-0.028019965,0.033593595,0.0038828254,-0.010002345,-0.029687047,-0.0020084083,0.024857655,0.008697301,-0.020522252,0.02216801,-0.015125461,-0.16362011,-0.016908303,0.01178515,-0.010635346,-0.13545074,-0.5255139,-0.14582703,-0.019014776,0.022439152,0.016058028,-0.27446002,-0.012577638,0.041994095,0.0081474185,0.016947567,0.039936963,0.013832882,0.003032148,-0.037433982,-0.01217448,0.015995815,-0.009047478,-0.02917803,0.01607953,0.011394292,0.0053281784,0.015649095,0.014559008,0.014822826,0.06639071,0.70086455,0.01608862,0.029971857,-0.012193937,0.030923396,0.036412954,0.04759103,-0.019427046,-0.0044655204,-0.0037181675,-0.011773977,-0.01154381,-0.013569061,-0.05919063,-0.1397502,-0.29167104,-0.12222658,-0.07910426,-0.13793129,-0.1991516,-0.22521889,-0.1762163,-0.117842555,-0.36868423,-0.47622928,-0.015409142,-0.39419866,-0.28645945,-0.033408612,-0.14738888,-0.26949486,-0.22470117,-0.08370591,-0.02898696,-0.1472882,-0.24535471,-0.18055502,-0.03521762,-0.11787792,-0.0846262,-0.018214196,0.08329873,0.01331836,-0.10400647,-0.24384187,-0.24682921,0.18492216,-0.08191514,-0.11025062,-0.36766058,-0.44772798,0.4306378,-0.09318403,0.1496276,0.2050026,0.41731462,-0.0975111,-0.0044668615,0.031112252,-0.0113139,-0.0054847,0.052182406,-0.0070258975,-0.04645173,-0.023233533,-0.005065717,0.023812681,0.027570188,-0.040746402,-0.12116444,0.023451284,0.12353591,0.04534771,-0.09748447,-0.30560818,-0.21061079,0.2765764,0.09646201,-0.044334438,-0.13609272,0.021778435,0.13066049,0.06622584,-0.063533396,-0.05625032,0.01875788,0.05634159,0.060518056,-0.04966384,0.0002148184,-0.018031135,0.014115244,-0.050298885,0.012516484,-0.012211949,-0.11865154,-0.010204226,-0.004611589,-0.019513503,-0.11210907,-0.65739214,-0.09697783,-0.027024202,0.0096075535,-0.01827681,-0.11898494,-0.020904146,0.01327011,-0.040362284,-0.0116866175,-0.02905704,0.011020049,-0.052322432,0.02809234,0.019438863,-0.00031927228,-0.025910154,-0.01656873,0.08775364,0.14901938,-0.015116513,-0.1533496,-0.0820888,0.33375424,0.43999583,-0.022335134,-0.50788647,-0.3707231,0.10154404,0.13981432,-0.0138717145,-0.14334527,-0.107932776,0.029342785,0.031656623,0.0037085935,-0.0387249,-0.024931222,0.007807046,0.0038722157,-0.037123993,-0.003162682,0.013416439,0.013320953,-0.012777746,-0.014513195,-0.008503377,0.004437685,-0.024014011,-0.026006103,-1.2122356,-0.04124053,-0.02790481,0.019431025,-0.033513427,0.020278156,-0.046726,0.023033023,0.009067699,0.012305096,-0.056452747,0.009798378,0.019841678,-0.075188436,-0.00465852,0.043612584,-0.0316813,-0.052209124,0.02952525,0.13996062,0.101068884,0.14996862,0.027400672,0.057827055,0.2195426,-0.051027216,0.22164734,0.066563815,-0.02521728,0.11371508,0.34061894,0.13049354,-0.028710827,-0.06743144,-0.008389413,0.045336902,0.017769229,-0.0837473,0.028553024,0.0166139,0.007972151,0.013270259,0.026483499,0.00066810846,-0.030300424,-0.035444915,-0.03224398,0.014419317,-0.008878529,-0.07267831,-0.92735314,-0.084592745,-0.011310339,0.009542309,-0.009199843,-0.087370574,-0.009730071,0.0049785525,0.017117947,-0.009550273,-0.0064771175,0.008281078,0.006553814,-0.0053560734,-0.0007564351,-0.07333118,-0.0015296414,-0.011837438,0.008390069,-0.07528347,-0.21802032,-0.07112521,0.002069801,-0.077416524,-0.14661235,1.2804377,-0.14455205,-0.07258427,-0.024011314,-0.090424985,-0.21296638,-0.08088903,-0.028144568,-0.0076577067,-0.017855734,-0.056927495,-0.01600473,-0.0075623393,0.014303535,-0.003321886,-0.06233982,-0.0022415668,-0.00064885616,0.01476559,-0.080446035,-0.18921116,-0.09081319,0.02093874,-0.037306547,-0.19937691,-0.36026713,-0.19743247,-0.0357171,-0.007753134,-0.098479345,-0.14851838,-0.0863942,-0.003922835,0.009386957,-0.0029659271,-0.049429864,-0.0025684834,0.0055283904,-0.0103733465,-0.005695045,-7.63759e-05,0.0069208294,-0.0008791089,0.01620704,-0.018596545,-0.2527433,-0.04994054,0.0274674,0.01165843,-0.13819003,0.94218886,-0.14842018,0.020297498,0.010571867,-0.0506199,-0.2573693,-0.04190226,0.0047239363,-0.005379945,-0.005327329,0.01813501,-0.00871703,0.00014272332,0.004366517,-0.048267856,-0.07339603,-0.07714662,0.06492799,-0.07218242,0.021106526,0.17372292,0.027176976,-0.05560866,0.070527926,0.15062784,0.42746094,0.15718406,0.0077272058,-0.0082316995,0.062450513,0.20138091,0.047643885,-0.118900836,-0.056058213,-0.06125635,0.06950265,-0.022427041,0.0647742,-0.042247463,0.003347382,-0.07046282,-0.00523293,-0.038658515,-0.02751644,-0.03179101,-0.12376022,-0.03553316,-0.034264892,-0.072499275,-0.15382445,-0.45561633,-0.12645867,-0.07882255,-0.022296555,0.018034473,-0.099624574,0.0018697605,-0.019272849,-0.027053371,-0.021330014,-0.042594388,-0.014135927,-0.01767057,-0.021389842,-0.016452849,-0.07249002,-0.0032207668,0.063895054,-0.010460645,0.00444182,0.1209539,-0.0063290596,-0.054242432,-0.052231252,0.07577135,0.4447614,0.05885543,-0.041430093,-0.006911993,0.055497676,0.05680649,-0.0012105033,-0.03937182,-0.049044937,-0.03771147,-0.05003992,0.011510998,-0.03421551,-0.0048113167,-0.02863799,-0.023119926,-0.01830858,0.005128324,-0.017651156,-0.049454093,-0.00675638,-0.04183446,-0.027301617,-0.049699556,0.020457137,0.8894166,0.012314677,-0.03667268,-0.011077583,-0.012190873,0.042141154,-0.026261091,-0.019894859,0.005523145,-0.021968693,-0.010073945,-0.010566115,0.00013254583,-5.055964e-05,0.101821095,0.29526496,0.10730544,-0.0047717094,0.0048947185,0.11675,0.5200394,0.09864272,0.012919247,-0.021197729,-0.04809101,-0.07796267,-0.033142596,-0.022849135,0.008119583,-0.058371678,-0.5784633,-0.01895237,-0.0075065494,0.0065309852,-0.08681219,-0.26484925,-0.095226206,0.015220419,-0.023496002,-0.012126684,-0.07063347,-0.028382123,-0.009552956,-0.009694174,0.0009315908,0.011521578,0.016228154,-0.020718992,-0.076430365,0.013704367,0.9541967,0.018418401,-0.06715525,-0.02150274,0.00620237,0.001752913,-0.0022994876,-0.032056183,-0.020559281,-0.034842,-0.06856948,-0.030102938,-0.025273561,-0.052551076,-0.058445364,-0.049408108,-0.055952042,-0.059289284,0.019785255,-0.011266235,-0.06858295,-0.024304494,0.017056823,-0.029173343,0.119233884,0.75894636,0.09265191,-0.044995982,0.02726458,-0.03229171,-0.029707015,-0.012606813,0.0063967705,-0.05807565,-0.044310912,-0.02259396,-0.03432171,-0.050115824,-0.028288618,-0.024811387,-0.05577866,-0.029548585,-0.02779138,-0.014674321,0.0029068291,-0.0049838424,-0.019671433,-0.009668842,-0.04674363,0.023552924,0.9489569,0.036080398,-0.063014686,-0.03942123,0.0051409006,0.037430912,-0.014865078,-0.042429388,-0.02625309,-0.030137103,-0.060491517,-0.024627022,-0.026296318,0.026334703,-0.098436594,-0.1821162,-0.09596881,0.028444242,0.05058898,-0.031843252,-0.2551765,-0.0233984,0.018508077,0.12431986,0.55135834,-0.14922942,0.5367505,0.12923904,0.009209827,0.07828814,-0.14838064,0.069568746,0.0032184124,0.023539275,-0.09269661,-0.17753297,-0.09648442,0.013838712,-0.007421881,0.0058063883,0.007347107,0.0142648965,-0.008472472,-0.034719888,0.03143683,0.8412042,0.02054137,-0.027011335,-0.0037822723,0.08413748,-0.6266954,0.11540973,0.015628338,-0.0011222959,-0.036658958,-0.05875714,-0.03881537,-0.010150343,-0.020540053,-0.003902968,-0.02621612,0.01066044,-0.026789397,0.022142649,0.0005338527,0.0034121275,0.028777674,-0.027741535,0.04542893,-0.016593382,0.0018480867,-0.043110628,-0.08233922,0.21656108,0.47772717,0.06878719,-0.37521088,-0.12458941,0.05485779,-0.04229125,0.016273543,-0.065992,-0.079802364,0.04936847,0.046419054,-0.0005711317,-0.0047994778,-0.017091155,0.0070515648,0.012852557,-0.01974181,-0.010384411,0.014786378,-0.014676422,0.03465091,-0.09396365,0.06278592,7.075071e-05,-0.05244404,0.13732293,-0.90098524,0.16797625,-0.017496258,-0.01692303,0.06518252,-0.14829053,0.010443062,-0.00083112717,0.014455387,-0.0048737526,-0.015768483,-0.0021748245,-0.006484151,-0.014113044,-0.016082019,-0.010733455,-0.014590144,-0.007458411,-0.0047579785,0.03368801,0.13748136,0.0577283,-0.019063503,-0.0224922,0.17918923,0.6100835,0.14059576,-0.0064387843,-0.01578115,0.033167273,0.12626228,0.047079757,-0.013969392,-0.02150952,-0.020394579,-0.001649946,-0.028500885,-0.030964807,0.0019049048,-0.012421891,-0.018991366,-0.0071848407,-0.003379777,-0.012574911,-0.014967501,-0.012670487,-0.022123188,-0.008852899,-0.010428548,-0.0098321885,-0.927951,-0.029741555,0.00035482645,-0.004472181,-0.025934145,-0.0024093539,-0.04662706,-0.007517997,-0.008793309,0.0043983534,-0.015356101,0.010837495,-0.012903646,0.020972311,0.003850162,0.015165806,0.02715312,0.013311997,0.02789785,0.01657486,0.087849885,0.007003367,0.020970955,0.048108518,0.074483044,0.39736548,0.09272085,0.053762898,0.014471948,0.021218644,0.111402035,0.023575809,0.0042327046,0.0069169104,0.003578961,0.041773856,0.013579413,0.018989244,0.029669657,-0.040079772,0.04821171,-0.036854565,0.022895694,0.08697228,0.042899102,0.0048268526,0.039255306,0.08629213,-0.086025834,0.24232791,0.6455248,0.20313443,-0.07980292,0.094030075,0.074931994,0.004824102,0.06060344,0.08871606,0.025092691,-0.042912304,0.044017747,-0.041466087,0.036977217,0.0142453015,-0.04094627,-0.14772804,-0.028611377,0.01386416,-0.019912705,-0.076868325,-0.2163803,-0.06335435,-0.021017712,-0.046413604,-0.06335035,1.0995357,-0.09985182,-0.06834133,-0.013255328,-0.09257674,-0.17869502,-0.0768961,-0.003906913,-0.0021716058,-0.0726967,-0.1088385,-0.06274372,-0.0015637744,0.055582523,-0.0021666288,-0.051445857,0.00953114,0.05962313,-0.014800638,-0.065137476,-0.12429403,-0.06126169,-0.035565197,-0.051825434,-0.32938066,-0.40542355,-0.32743195,-0.04887584,-0.0040487424,-0.05174604,-0.1423421,-0.038304478,-0.02548477,0.040460624,-0.019552037,-0.06543809,-0.015238278,0.055717602,-0.0038814694,-0.015081002,-0.08016155,-0.028551966,-0.0085501745,-0.002781652,-0.024862051,-0.094159015,0.004858777,-0.0029190928,-0.057109296,-0.06768552,1.1752236,-0.06703979,-0.05631993,-0.018917218,-0.025248399,-0.04335618,-0.028809696,-0.022752903,-0.01301761,-0.0012372434,-0.07957327,-0.016810419,-0.013055071,0.03058061,0.05362369,0.1302403,0.05861187,0.03884396,0.069383144,0.029839687,-0.07784259,0.044947654,0.057487518,0.12779868,-0.05080989,-1.0172303,-0.03484425,0.12356279,0.061456896,0.0031885207,-0.109414384,0.021946892,0.055764377,0.033908248,0.06102805,0.12013206,0.04633413,0.038109757,-0.009599894,0.008092314,-0.012424696,-0.0006195307,-0.004880786,0.00851509,0.0396173,0.09628233,0.04502427,0.00405477,-0.04020658,0.08558422,0.5831421,0.09326154,-0.02833961,0.0063540153,0.024556473,0.11283304,0.029855147,0.0026725233,-0.0063435733,-0.0024344325,-0.039351895,0.013190921,-0.02110815,-0.004932791,0.005308211,0.028409556,0.010417897,0.003012836,-0.026431322,0.0028769672,-0.1290599,0.00735721,-0.02196598,-0.008306026,0.031925425,0.74589974,0.031385213,-0.00092720985,-0.012046069,-0.039702907,-0.37746933,-0.038989335,0.0019236803,-0.018514052,-0.008109808,0.028368175,0.0052428544,-0.027044103,-0.014659002,-0.0040842295,-0.0874777,-0.016762912,-0.007093504,-0.033993125,-0.077275276,-0.16102594,-0.07077357,-0.02913636,-0.09610649,-0.13335937,1.3792264,-0.14802928,-0.084756896,-0.021343336,-0.08190361,-0.1007515,-0.07101785,-0.030520141,-0.008232107,-0.027807951,-0.071132876,-0.030377924,-0.016122341,-0.015104502,-0.027288336,-0.08609307,-0.023000732,-0.01923126,-0.021969825,-0.017779648,-0.025156975,-0.01686237,-0.030125849,-0.096691415,-0.010972708,1.0236168,-0.045944005,-0.10353643,-0.024913963,-0.05891899,-0.043328702,-0.035697177,-0.022959352,-0.01710847,-0.03446382,-0.08277292,-0.040302277,-0.03183636,-0.018671796,-0.013173655,-0.012089618,0.019359156,0.035515815,-0.09859098,-0.17880543,-0.016146608,0.15631492,0.07727134,-0.3520409,-0.47072673,0.02423057,0.4507128,0.29400176,-0.1107268,-0.16282047,0.0038739108,0.14277138,0.083022416,-0.03682126,-0.039338287,-0.006074503,0.03483592,0.055137753,-0.035511494,0.011400584,-0.051842928,0.023621123,-0.05446802,-0.026615217,-0.022680432,0.059771836,-0.034193695,-0.000254035,0.025961071,0.065086395,0.7343724,0.06342924,0.01750958,-0.0022408292,0.027145818,-0.024840593,0.010481104,-0.023045868,-0.07105784,-0.022163838,-0.00045145676,-0.025330365,-0.05829491,-0.005692899,-0.031652905,0.010704219,-0.037979603,-0.016436175,-0.0071492195,0.028592646,0.047504332,0.015311539,0.005177021,0.020908026,0.11007617,0.6916389,0.11057941,-0.0053931475,-0.003622204,0.0023509488,0.08042604,0.0017518997,0.0129084885,-0.0100787245,0.0023877472,-0.024819836,0.0059447438,-0.027100801,-0.008566916,0.0141152525,-0.009799778,0.014176607,-0.010254443,-0.02468896,-0.006585855,0.12505174,-0.010083735,-0.025340438,-0.044819362,-0.05000688,0.6435406,-0.027859047,-0.036869884,-0.03233418,0.015166283,0.19656768,0.0056338757,-0.028587818,-0.028526306,0.0047115386,0.018542469,0.013068765,-0.025939927,-0.010181412,0.024438083,0.0073159486,0.02234536,0.006015837,0.019549891,-0.026290398,-0.15735757,-0.054979518,0.010668069,0.020214194,-0.109206915,-0.83114755,-0.12442106,0.013109967,0.013517231,-0.014383614,-0.110237956,-0.022791624,0.016333908,0.01604847,0.015180945,0.017674357,0.022470772,0.02234304,0.03405562,0.07005042,0.073980846,0.076102376,0.027660072,-0.0049410015,-0.013896357,0.6197879,-0.0335775,0.0031681359,-0.0060595423,-0.34581226,0.22179532,-0.3516474,0.00015769899,-0.035446953,0.02181685,-0.20042299,0.00628908,-0.02861762,-0.00073471665,-0.013777763,0.00916326,-0.017406464,-0.005558975,-0.017850034,-0.027566507,-0.041306853,-0.01760439,-0.038142562,-0.038633987,-0.010106146,-0.027904212,-0.015015283,-0.03466189,-0.0503759,-0.028111666,0.9293591,-0.03844222,-0.033790037,-0.029153526,-0.023049235,0.005107373,-0.022120915,-0.01733324,-0.034512818,-0.017744035,-0.019473791,-0.021923006,-0.027447673,0.0077430755,-0.009489,-0.041602597,-0.02545977,0.028720498,0.020582795,-0.062733635,-0.36566073,-0.06889224,0.025807172,-0.0036601126,-0.1634922,-0.5470973,-0.17777148,0.009832941,0.002796352,-0.0059859306,-0.24428706,-0.0140196085,-0.0031315982,0.020346273,-0.022379545,-0.08518548,-0.031278633,0.022885919,-0.017219052,-0.009007618,0.0071101785,-0.011871673,-0.015019447,-0.023722008,0.036143146,0.060604125,0.027516782,-0.012575889,-0.023526553,0.085894056,0.907237,0.06632496,-0.03978859,-0.023121893,0.0062517524,0.047732815,0.02305609,-0.01125586,-0.034911186,-0.010857463,-0.0222705,-0.013109893,-0.03640926,-0.007757485,0.019517213,0.2138331,0.030289108,-0.014794707,-0.026304096,0.008077264,0.53981644,-0.0002687946,-0.032372117,0.07505128,-0.041220337,-1.0813773,-0.025749803,0.08983973,-0.016989619,0.030645981,0.52045244,0.029264048,-0.006372413,0.015609952,0.019417286,0.16678777,0.02539843,0.004222505,-0.0008946061,-0.012107164,-0.06569926,-0.0039015636,-0.0091442615,0.025886029,-0.017717123,0.05776924,-0.0061783046,0.017215446,-0.033513427,0.073291585,0.87514514,0.060518663,-0.026960582,-0.023528486,-0.0016523537,0.0076078027,-0.0007236302,-0.019906878,0.0017409921,-0.0049560517,-0.030183064,-4.3809414e-05,0.012032181,-0.016958863,0.013158113,-0.0048923045,0.010065772,-0.013110906,-7.301569e-05,0.02151762,0.018078893,0.017047778,0.0057921023,0.006238565,0.035615698,0.81498176,0.018367022,0.0032983571,0.006109044,-0.010671437,0.066173434,0.02138415,0.00017670542,-0.028441846,0.015737712,-0.012834892,0.013794348,-0.032225616,-0.010899156,-0.017562747,-0.13540186,-0.01939945,-0.0077034533,-0.044402566,-0.05090089,-0.057015866,-0.04720237,-0.038052917,-0.14605886,-0.06588386,-0.13697071,-0.04703048,-0.12682337,-0.02413087,-0.04378453,-0.046586655,-0.024055459,-0.03785807,-0.03534937,-0.056908578,-0.108917594,-0.058693826,-0.04557967,0.031790093,0.04303336,0.08429465,0.050744534,0.023833036,0.01971379,0.11036692,0.5731513,0.10114763,0.022300173,-0.056938887,-0.07089341,-0.21101034,-0.07069558,-0.03070286,0.012796558,-0.08130723,-0.39372733,-0.08913052,0.00020542368,-0.023709446,-0.059876636,-0.0910822,-0.054968,-0.032336265,0.12358524,0.019138966,-0.059103787,-0.042998426,-0.05837527,-0.06411098,0.08234894,0.10666606,0.100335695,-0.055734366,-0.11182815,0.07459599,0.5186912,0.13149759,-0.10661815,-0.057962164,0.09462948,0.12041731,-0.015466154,-0.09288126,-0.08699932,-0.118277974,-0.12574089,-0.09137654,-0.11338656,-0.06583041,-0.024833322,-0.09146176,-0.005019635,0.05601245,-0.058362603,-0.07705293,-0.12964688,0.09369707,0.07234721,-0.17656231,-0.3111891,-0.21408828,0.5270042,0.13441998,-0.020416837,-0.06935954,-0.091272265,0.049361594,0.051674426,-0.043008387,-0.007645309,-0.071130015,0.013736799,0.05189383,0.027440727,-0.051512726,-0.05458513,-0.05423498,0.004535459,0.018696338,-0.012416251,-0.28090492,-0.015040681,0.026999354,0.104210675,0.0050187856,-0.1455524,0.001176089,0.07798337,-0.06884208,-0.10348794,0.73638856,-0.11016099,-0.06032194,-0.034505308,0.077233106,0.08969186,0.075352855,-0.03060234,-0.038702667,-0.011788964,-0.032484353,-0.014678121,-0.027726308,-0.009351358,0.013931006,0.047413982,0.010790974,-0.0029391646,-0.017914668,0.011226743,0.69577307,0.0017242879,-0.013446771,-0.008950695,0.010440737,-0.009953707,0.024308138,-0.0079191625,-0.0043134093,0.004339345,0.0014942791,0.007011682,-0.0051268935,-0.030684412,-0.008018881,-0.06910442,-0.01864168,-0.039889753,-0.057260577,0.03364861,0.22154452,0.027609795,-0.04044309,0.058128566,0.09193706,0.5273032,0.086705275,0.06653466,-0.030731991,0.019954443,0.15118907,0.008682661,-0.029995084,-0.029585585,0.006750405,-0.023735836,-0.0055163205,-0.024670634,0.022799551,0.0048692077,0.057206824,-0.00038090348,0.022727288,0.01164718,0.030771047,0.099168785,0.055519134,-0.00609383,0.047603488,0.07207951,0.44400346,0.08332479,0.042485893,0.0028099418,0.024945095,0.13601446,0.018939316,0.013577491,-0.006093204,0.009840563,0.04724562,0.03911309,-0.017862141,-0.009994581,-0.012599826,-0.03357111,-0.0116347,-0.01624614,-0.021656774,0.0023946464,0.014789373,0.013938963,-0.013238311,-0.019613564,0.05138868,0.6123315,0.052680146,-0.045194387,-0.009791493,0.014063481,0.019879818,-0.011371642,-0.0056802705,-0.033271328,-0.010969255,-0.01997952,-0.004701942,-0.022304505,-0.014023587,-0.00546062,-0.027728915,-0.0010776967,-0.018728063,-0.0030861208,-0.044670284,-0.25868523,-0.062118635,-0.017043248,-0.033563104,-0.24163264,-0.97032905,-0.24645972,-0.020983607,-0.014443882,-0.07775119,-0.20643191,-0.028454483,0.005968906,-0.029886842,-0.0052077863,-0.018741608,-0.0027185716,-0.028540552,0.012837499,0.035200387,-0.05636901,0.024016153,0.012245007,-0.016986936,0.069385365,0.08102551,0.090960294,-0.02562283,-0.03330508,0.07050693,0.8319468,0.057949424,-0.04043789,-0.015724614,-0.0083951205,0.064836204,-0.012120068,-0.009412758,-0.022111118,0.027630076,0.05584751,0.03095384,-0.032795057,0.09595484,-0.0040381104,0.012645803,-0.057561245,-0.057239365,0.10311112,0.19229095,-0.039607957,-0.24093701,-0.056422785,0.12478231,0.63560486,-0.054250956,-0.4925207,-0.0764321,0.10129683,0.24158886,-0.042942896,-0.16407579,-0.053984016,0.08794579,0.035754457,0.009905264,-0.09544733,-0.11190051,0.019827649,0.002606023,0.047366172,-0.004866123,0.025391221,0.013900096,0.05377823,-0.1662864,0.047523946,0.021879852,0.041644692,-0.1638,-0.9391148,-0.16992514,0.04902695,0.009985298,0.06548866,-0.12796351,0.05309613,0.004905626,0.0068594813,0.021764517,0.037243783,0.00757055,0.018673062,-0.03057772,-0.010333225,0.019739151,0.0055317134,-0.036284804,-0.04192993,-0.0029100478,-0.14072825,-0.12882094,-0.018154074,-0.014480144,-0.21864177,0.59407455,0.3194187,0.07276498,-0.023944736,-0.092092246,-0.12271035,-0.0087071955,0.057146862,-0.0035302937,0.010155201,0.007495582,-0.019799173,0.013610452,-0.027922217,-0.04543829,-0.11061579,-0.045189023,-0.026120633,-0.016390592,-0.124557674,-0.4186204,-0.114213765,-0.011613533,-0.0038725436,-0.035104588,-0.04445927,-0.029513955,-0.012235776,-0.06397048,0.12753808,0.65637434,0.114715025,-0.07658276,0.027763136,0.063028514,0.12589887,0.06779532,0.03464338,-0.032509238,-0.005477324,-0.15216964,-0.017065607,-0.02528292,-0.019210458,-0.05458705,-0.1429435,-0.056729943,-0.020019226,-0.13021544,-0.095506996,1.4042696,-0.11760488,-0.12562555,-0.0123986155,-0.042145938,-0.17922506,-0.031496495,-0.012847424,-0.0083553195,-0.0045595914,-0.11220461,0.0007982552,-0.016538292,-0.015407167,-0.016407713,-0.035371587,0.0052369237,-0.020977452,-0.0040421784,-0.06219192,-0.43023396,-0.04832129,-0.011931598,0.04749058,0.05062179,0.6423068,0.030169629,0.04307085,0.015460074,-0.028768279,-0.109148264,-0.025781631,0.026301041,0.006141681,-0.023609892,0.007925808,-0.014789596,0.017679185,-0.011555731,-0.077455685,-0.30176955,-0.06888701,0.0057005286,-0.009130329,-0.13868266,-0.43025184,-0.12724465,-0.017741144,-0.04553197,-0.0724321,-0.054904163,-0.075342864,-0.044472724,0.040312666,0.14945346,0.47669956,0.14274159,0.03365294,0.014532082,0.07295433,0.2855864,0.07233423,0.011523187,-0.037001826,-0.034359753,-0.031777598,-0.031919472,-0.031389207,-0.022178352,-0.012817029,-0.06314969,0.002846852,-0.0142068565,-0.074040055,0.070086166,1.0874361,0.068813935,-0.05990669,-0.03439962,-0.019280218,-0.027720794,-0.011386901,-0.020308748,-0.020227462,-0.010983862,-0.0041655004,-0.014289454,-0.019725382,-0.028027982,-0.0128451735,-0.021248087,-0.019252986,-0.018005803,-0.007268373,0.016217008,0.07595408,0.009585813,-0.004644513,-0.012075929,0.07954825,0.73396754,0.10312459,-0.006489396,0.00079643726,-0.016731486,0.056191884,-0.01068522,-0.0025727684,-0.02517172,-0.025316387,0.025545806,-0.0155118555,-0.030837804,-0.026230775,-0.081265196,-0.27704334,-0.08866202,-0.018121421,-0.014800519,-0.15367055,-0.4420553,-0.15628059,-0.014390256,-0.031226238,-0.04785803,-0.01659803,-0.03235942,-0.013062391,0.013107479,0.14431584,0.44498217,0.14642024,0.023117065,0.025066227,0.06755423,0.2439839,0.05570732,0.024942458,0.021565273,0.1045648,0.16370115,0.0966582,0.026451409,-0.0328781,0.16817498,0.62987506,0.14372253,-0.028781053,-0.038211986,0.0038646162,-0.19035596,0.019656152,-0.05061625,0.028780986,-0.1188147,-0.4539523,-0.11338323,0.03058247,0.000148274,-0.09058503,-0.22322017,-0.076719224,-0.0004312098,0.08851777,-0.038208485,-0.21316029,0.022249714,0.09089136,-0.12989083,0.014710963,0.17266989,0.054983586,0.07857655,0.09114954,0.18199857,0.51680636,0.12310332,-0.29866934,0.067839146,0.08631647,0.21821448,0.0965153,0.014672965,-0.13720328,0.03251687,0.11062927,0.069660746,0.06969914,0.012764454,0.008279204,0.0031130314,0.007881418,0.004927546,0.01639139,-0.025722861,-0.26132065,-0.034251988,0.014277294,-0.0585213,-0.19938585,-0.5834114,-0.1694916,-0.0572643,0.0014862418,-0.027800292,-0.21017621,-0.019067168,-0.004547775,-0.004720822,0.005628526,-0.018025355,-0.00080510974,0.0062629674,-0.049342155,0.042426303,0.06881571,0.040019915,-0.035743713,-0.04394979,-0.0040620193,1.1284946,-0.020501018,-0.0468809,0.0092564225,-0.024459809,-0.61991256,-0.047012445,0.011029005,0.015402988,-4.671514e-05,-0.09946511,-0.001477614,-0.0027567148,-0.0016311109,-0.0055476576,-0.021391273,0.0048624873,0.0002386272,-0.044184156,-0.05744672,-0.033552513,-0.044172883,-0.017744116,0.027171224,0.006773144,0.11431758,-0.0106419325,-0.0042090192,-0.15412052,0.14612323,0.42071414,0.13323459,-0.034305148,0.016997308,0.048306048,0.15263845,0.05047849,-0.09513586,-0.004360087,0.0708737,-0.22131544,0.029583186,0.07273209,-0.027117819,-0.009205446,0.039096206,-0.013468683,-0.025030635,-0.011174619,-0.018464029,0.010098532,-0.0300387,-0.029476017,0.015131623,-0.0059704855,-0.76340365,-0.010751039,0.0043257326,0.0036545098,-0.028300326,-0.024040008,-0.027440727,0.00070792437,-0.03939742,-0.0049457923,0.0048820972,0.004153937,-0.04478442,-0.024211176,0.00036346912,-0.02809786,-0.02059728,-0.012364984,-0.016729295,-0.07329562,-0.2507272,-0.039578408,-0.015166283,-0.018385053,-0.2341491,-0.976133,-0.23124155,-0.026573583,-0.013366565,-0.034731567,-0.20885313,-0.072776824,-0.016028047,-0.016627267,-0.01249741,-0.028128192,-0.009346098,-0.02121745,0.023402356,0.0320438,0.036149263,0.034668416,0.025712013,-0.021700919,-0.08334792,-0.27728575,-0.10574535,-0.01774434,-0.013556406,-0.22249827,-0.33213887,-0.20346813,-0.011015631,-0.02408868,-0.048029482,-0.16940871,-0.05685979,-0.02292297,0.016428411,0.01646886,0.018012792,0.03330122,0.017952077,-0.0426552,-0.034987077,-0.003873825,0.042145528,0.012224885,-0.06439392,-0.17697936,-0.013234884,0.13860407,0.03478249,-0.21160169,-0.4938025,0.023038894,0.45685047,0.18195933,-0.09016067,-0.14707293,0.034609318,0.13365045,0.0696845,-0.07589528,-0.06640126,0.0030941218,0.06851381,0.050729215,-0.012648419,0.00070320815,-0.04177183,0.016315073,-0.0008062199,-0.010372078,-0.026913323,0.13793309,-0.010205895,0.014964476,0.057694077,0.011183172,1.153993,0.08268702,0.063336074,-0.009925157,-0.008436069,0.05023527,-0.02668006,0.009406358,-0.025188476,-0.004727304,0.008737326,0.007879406,0.015879292,-0.034865655,-0.018460944,-0.0024197102,-0.00081306696,-0.047200203,0.004594058,0.013523787,-0.09604096,0.016671658,0.00028386712,-0.024770796,-0.06679015,0.98583186,-0.07064077,-0.028371692,-0.0054590106,0.012970433,-0.05057627,0.010829076,0.0011695921,-0.016193092,-0.004127592,-0.021506548,-0.010446742,-0.018768102,-0.011399642,-0.0063381195,0.019134946,-0.00737717,-0.019545943,-0.008673146,0.0021401644,0.005854562,0.0038369596,-0.0074725887,0.013688669,-0.0120872995,-0.8332026,-0.016174182,0.0050676465,-0.0003668368,0.0015048645,-0.028057307,-0.0048007667,-0.0053766575,-0.016538799,-0.0060895085,0.008628227,-0.008985586,-0.009642348,-0.0075286403,-0.036282286,-0.100789815,-0.027764328,-0.009217709,-0.03979425,-0.013754092,-0.06551462,-0.01654078,-0.040659666,-0.081625074,-0.07779604,1.2576162,-0.074519336,-0.09155768,-0.052042693,-0.051298022,-0.076395735,-0.072876215,-0.03345886,-0.03335011,-0.019070268,-0.06673229,-0.029153325,-0.03364504,-0.0010637641,0.012791276,-0.011839569,-0.0066247582,0.0008188486,0.01498729,-0.026693359,-0.13071886,-0.03230205,0.003473714,-0.028120786,-0.13577792,-0.6319111,-0.10816494,-0.023628712,0.011374623,