1,240,-0.77526176,0.060898498,-0.9278718,-0.0458384,-0.5160901,0.2862324,-0.7986345,0.81065565,0.44963622,-0.49547973,-0.63272494,-1.3782282,0.91401154,-0.32337043,0.43579936,0.065255396,-0.0129373735,-0.331432,-1.0655283,-1.1061999,0.037019007,0.02621412,-1.4465083,-1.0412786,0.0015672194,-0.15886079,-0.30519605,-0.28842965,-1.4863478,0.56110257,0.5949478,-0.5665932,0.44444528,-1.0984333,-0.55977154,-1.2386079,-0.0691807,0.089199565,0.49707258,3.2877333,-0.88381654,-0.18031237,-1.5506124,-0.6970012,-1.2910115,-0.8668923,1.5835027,-0.18628787,-0.11213712,1.8549942,-1.7440002,-1.3757412,-0.6303225,-0.22537021,0.26556242,1.0011134,-0.13158226,-1.2077159,0.16882837,-1.9166316,-0.014828134,-0.86431235,3.6301332,-1.682236,-1.40354,-0.23591131,1.7245278,-0.5030469,-0.088632025,-0.6639485,-0.0069212685,-1.1485295,-0.96645314,-1.20976,-0.058002222,-0.0634505,-0.23981465,0.10749486,-0.9344535,1.1110823,0.51212114,-1.152732,-1.3957393,-0.35413006,-0.34880036,-0.8077311,-1.2116653,0.4077298,-1.2845604,-1.5558567,-0.5983179,-1.0336331,-0.6269338,-1.0851728,-1.3103954,0.63208544,-0.5678506,-0.94954133,-0.5426839,-0.4673579,-1.4243537,0.039397817,1.3164855,-1.4868137,-0.88681567,-0.11136803,-0.89718866,-1.2348267,-0.70713264,0.57882303,-1.1083777,-0.90787977,-0.024351383,-0.11759412,-1.6452575,-0.17595877,0.116021425,0.46624878,-0.11678652,-0.022450354,0.2900133,-0.41816518,-1.151915,-0.048274297,0.65941876,-0.66198355,-0.23895745,-0.7546485,-1.0867285,-1.5695131,-0.25130016,0.39903122,1.3778243,2.3520362,-1.4486549,1.2233078,-0.35370266,-0.5419696,-0.1536839,-0.62459236,0.34175566,-1.4333441,-0.46553805,-1.2856969,-0.4519186,2.4888794,-0.28315896,-1.2831231,-0.13192452,0.009208411,-1.5030822,-0.56658506,0.19670306,2.978827,0.65102094,-1.3025659,-0.15051994,-1.4509233,-0.31070915,1.3670473,-0.2736494,-0.03794187,-1.0700853,-0.21974467,0.4924406,-1.2789029,0.082430795,0.2605756,-1.062395,-0.77108526,-0.8784351,-0.045048118,-0.52328455,0.0077647436,-0.16936447,0.13354556,0.07250183,-0.8851414,-0.3249677,0.5009653,1.766161,-0.42355582,-0.36983287,0.18649815,-0.4091916,-0.64337987,-0.52871263,-3.8244162,-0.6991496,-0.32858437,-0.6638943,0.7263819,0.76003885,-0.8366842,-0.41874295,-0.86231977,2.0070534,1.1771137,-0.4115948,-0.057364307,-0.073971815,-0.6847422,-0.7016908,1.6560858,-0.3141946,-1.7125407,0.28998312,-1.0267291,-0.06874315,-0.021503154,-1.7865592,0.4817381,0.47089916,-0.52850777,0.049581785,-0.9723171,-1.0746437,0.13127756,0.31604737,-0.45337805,-0.03581964,-1.8439254,-0.5291062,-0.20188396,-0.21011595,0.14057928,0.5267271,0.4780621,-1.1576637,-0.79917586,-0.8711766,-0.68971556,-0.08803864,-0.05536775,-0.16357368,2.7057903,-0.0782864,-1.4885534,2.0236404,0.6373979
