1,320,0.00027274643,-0.0046420083,0.001813635,-0.0013579286,-0.00018362173,0.000723875,-0.0007062778,-0.00032881834,-0.0010032285,0.00057737203,-0.003321897,-0.00086479203,0.0017918112,-0.0008184542,-0.0016908742,0.0025150871,-0.0012688253,-3.694763e-05,-0.002750147,-0.003243493,0.002123832,-0.00091165124,-0.0023452863,-0.0016830507,-0.00071735156,0.00020333806,-0.001062903,-0.001052572,0.0007569973,0.0008667416,0.004243147,0.0005802017,-0.0014263024,0.0036462527,0.001123417,0.0016993631,0.0010888098,0.00040624425,0.0016796602,-0.0003073049,0.00025644893,-0.0027488954,-0.0002606931,0.000629616,0.0005186844,0.0005064988,-0.0017574542,-0.0025084533,0.003295801,0.0023411468,0.0017886288,-0.0019667593,-0.00028530086,0.00029551488,0.0017655108,0.00021429599,-0.00027470253,-4.9856037e-05,-2.3349647e-05,6.4967375e-05,0.00036234048,-0.00096572837,-0.002403658,-0.00032842255,0.0017225989,-0.0009602753,-0.0012494817,-0.001236296,-0.0004829995,0.0016627838,-0.0014289132,-0.0008512704,0.0025048666,0.0010373985,0.00044497772,-0.0004012805,-0.00065112265,0.00074702234,-0.0014865729,0.0005638217,-0.0022760057,0.0010213484,0.00150884,-0.00047856197,-0.0002133809,0.00031232374,0.0016934427,0.00076816464,-0.0014230593,-0.0010651154,8.576895e-05,-0.0010363063,-0.00052899006,-0.00065676105,-0.0010545067,0.0011951037,-0.0003830464,-2.3999315e-05,-0.00069970253,-0.0011131326,0.001154265,-0.003165692,1.5625124e-05,-0.00053055456,-0.0013511749,-0.00019987543,-0.001272308,0.00034569684,-0.0017376548,0.0008106893,-0.0007091207,0.0011946338,-0.0012950419,-0.0014276976,-0.0020549085,3.339591e-05,-0.00096756045,0.0021815249,2.3851571e-05,4.4680834e-05,-0.0020429688,-0.0012091541,-9.562422e-05,0.00045967576,0.0034006122,0.0021340342,-0.00057998684,0.0012977014,-0.0010917961,0.0009547445,-0.00085035467,-0.0010006203,0.00014255375,0.00034338774,-0.00057495554,-0.0002387899,-0.001633148,0.000101994854,0.0026336825,0.001798694,-0.0012559013,-0.002926261,0.00093838,-0.00031183622,-0.0004310539,-0.0015904398,0.0018482695,0.0014881216,-0.0027769322,-0.00088659674,-0.00023675805,-0.00075858773,0.0013937192,-0.00044990514,0.00050558714,-0.0009975426,0.0010300053,0.0028618474,-0.0017931381,-0.0006551761,-0.002657276,0.0007208658,0.0013072445,-4.2356533e-05,0.00066216924,-0.00046612803,0.0028101294,0.0018255251,0.00058747706,-0.00040379007,0.00087407575,7.785812e-05,0.0019038622,-0.0015489783,0.00022550169,0.00051099557,0.0025512392,0.00081368827,-0.0007143373,-0.0005069024,0.0028541642,0.000783873,-0.00011065686,0.000932447,0.002409519,-0.0006867183,-0.002522557,2.1812479e-05,1.0548721e-05,0.0008271862,-0.001751724,-0.0012542411,0.0008821972,-0.0005655367,-0.0010064011,-0.00037532474,0.0015151849,-0.00012292893,0.00080480624,0.00046999217,-0.00058527687,-0.000116747025,-0.0035193465,0.0013223817,0.0017275028,0.00029442314,0.00029870143,0.00040911458,-0.00051878416,-0.0027305023,0.0015979286,0.00020502692,0.0007293324,-0.0008443249,0.0017336849,-0.0013148116,-0.0013836842,0.0031632555,0.0015180924,0.00083964627,6.187216e-05,-0.0022506786,-0.00015473807,0.0007563361,-0.0017140026,0.00060314534,-0.0005997835,0.0009780352,-0.002158016,0.0009264078,0.0006173324,0.0020083925,0.003082942,-0.0007050759,0.003080184,-0.0020768668,-0.0034248498,0.0008074451,-0.0012928206,-0.0012468129,0.000663551,0.0013872294,-0.0010046427,0.00024591718,-0.0014742605,-0.00024081842,0.0029950943,0.0010994535,0.0008591487,1.506275e-06,-0.0011758457,0.00046870435,8.431203e-05,0.0015811782,0.0014486922,-0.0010857708,-0.0009881856,0.0020909554,0.0013248465,-0.0010844591,-0.00081877166,-0.0017333234,-0.00066645106,-0.0015953523,0.0032147039,0.0019035687,0.0007546044,-0.00025329998,0.0013487866,-0.0018730828,0.0011537086,-0.0010540423,-0.0011978857,0.0011459093,0.000114154675,-0.0005622388,0.001962908,0.00081920024,-0.0011392386,-0.0013036135,0.0015086936,-0.001184038,-0.0023225646,0.00018921531,-4.5448043e-05,-0.0019835988,0.0018549267,-0.00022336406,-0.00083436666,0.0020365596,0.0016756136,0.0016200471,-0.0003213543,0.0036189412,-0.0005574348,-0.0016747976,0.0010345962,0.0004824356,-0.002243231,-0.0011661858,0.0013977449,-0.0003936943,0.0013192339,-0.000833242,-1.6892725e-05,-0.0022225466,-0.0004096757,0.0029261636,-0.00017841048,-0.0012183004,0.0038824172,0.0007662229,-0.00014328425,-0.0018855452,0.00085205026,0.0014004214,0.0023732923,0.000715037,-0.00023049538,0.003502291
