4,144,24,1,1,-0.1554218,-0.48348933,-0.013020128,-0.045195952,0.35141683,-0.036517236,-0.036911234,0.27718547,-0.06375047,0.12981187,0.004625976,-0.20340756,0.055314645,-0.09475709,0.07594757,0.002451226,0.2983827,0.09498471,0.0747036,-0.040495552,0.15296234,-0.04312964,0.09178384,0.09390721,0.00024105236,-0.17840862,-0.39061525,-0.084505975,-0.07547101,0.037234366,0.042911194,0.33651507,0.22238153,-0.10977901,-0.095100015,0.016422734,-0.23822036,-0.068069465,0.08194573,-0.09244731,-0.12793054,-0.90516645,-0.3216523,0.07197166,0.08694784,0.41874933,-0.26966783,-0.2602129,-0.03851168,-0.025878742,0.040899154,-0.61742556,-0.21026428,0.55373424,0.1035291,0.036880605,0.32637274,0.14322457,-0.29413012,-0.23801035,-0.15850924,0.38892722,-0.016596362,0.016594436,0.039787225,-0.12094702,0.21567796,0.03190303,0.31169704,-0.049915835,-0.19915701,-0.009838533,-0.4991444,0.86351156,0.16753298,-0.05418475,0.20640902,-0.02729172,0.041284155,0.1414061,-0.09923049,0.29201722,-0.74852306,-0.44294158,0.43682072,-0.9599159,-0.006831385,0.48307467,-0.048027165,-1.1402404,0.55963427,-0.23609433,-0.28290185,-0.1470465,0.59949285,0.30462214,0.18776657,0.121471524,-0.013610259,0.08675867,0.28074387,-0.39059138,-0.059441194,-0.092520766,-0.49416327,-0.022787469,0.3648726,0.3664213,0.23419225,-0.32932276,0.15804905,0.037524015,-0.09383437,0.28629643,-0.18729368,0.057465658,-0.53384805,0.037328765,0.0983381,-0.04035528,0.0008692965,0.03512452,0.27329677,0.03392899,-0.049698174,-0.035295673,0.10792666,0.45250115,-0.050625477,-0.38718346,0.04741499,-0.030648775,-0.13874313,-0.10396515,0.085851096,-0.3051838,0.0035993755,-0.53645045,0.57288843,0.046915382,-0.10483812,-0.1278692,-0.07783967,-0.34519768,0.13827099,-0.04836014,-0.257041,-0.06608994,-0.096152075,0.013289328,0.049615227,0.2920592,-0.010817915,0.0912283,0.3935383,0.114069164,0.15921849,-0.059362873,-0.031615842,-0.120300084,-0.084299535,0.08246297,0.52777547,-0.019193234,0.40072778,0.25224507,-0.1513265,-0.12218167,0.09069256,-0.11694366,-0.2275517,-0.013093688,-0.03916687,0.007249268,-0.03845133,0.1134852,0.28615803,-0.32465363,0.12665926,0.02741912,-0.24094497,-0.1601484,0.1286016,0.022489764,0.0009267628,0.11142976,0.1336447,-0.07328836,0.033866674,0.20660077,0.116243556,0.28010964,0.08437015,0.429271,0.35399842,-0.05478692,0.230197,-0.032424808,0.16721998,0.12752002,0.03493371,-0.1847896,-0.08935169,0.095821455,-0.06914285,0.03910018,0.059216607,0.08614995,0.2718473,-0.19943114,-0.13903266,-0.29713693,0.0696798,0.08895382,0.24064806,0.35633808,0.08163602,0.12863941,0.052298293,0.06032044,0.51795983,-0.32936528,-0.07673092,-0.09982191,0.47410896,0.028024882,0.024340535,-0.024408694,-0.16669166,0.07597534,-0.059439354,0.21257034,0.05802907,0.41330495,0.068363115,-0.094821505,0.21978344,-0.15461984,-0.073120534,-0.32368037,0.1272698,-0.3039075,-0.044699065,-0.10490772,0.65512586,0.09003172,-0.06062697,0.1891211,-0.101050064,-0.17713465,-0.071999155,-0.07534353,0.061110057,0.09299557,0.066822186,0.039291333,0.16550802,-0.0943553,0.21064389,0.13352767,0.02850985,0.011613227,-0.03384631,0.5982074,-0.18482819,-0.6594332,-0.13818474,0.19223198,0.41708085,-0.24550545,0.3090771,0.40133286,-0.3307529,0.33029342,0.11556478,-0.13000587,0.023029052,-0.20278177,0.456477,0.15253103,0.11704951,-0.15574683,0.15967114,0.087486535,-0.22354202,0.13621964,0.021821592,0.026282504,0.3849654,0.26586986,0.025917001,0.13643001,-0.07669094,-0.11436047,-0.056229085,0.16193968,-0.12607224,0.30965438,-0.012057051,0.01358762,0.21771398,0.0020357147,0.25873724,-0.04699686,-0.034760565,-0.29531807,0.281668,0.04353115,0.31973517,-0.04314126,0.49638644,-0.026387375,0.06510669,0.03695347,0.044781025,0.85468394,0.31606415,-0.86251986,-0.4493974,0.09364476,-0.32934517,-0.19896466,0.3336403,0.20908225,0.3101844,-0.31755757,0.061833646,-0.11895746,-0.016683877,0.23449308,-0.2869281,-0.11491671,0.22912613,-0.14289871,-0.14956616,0.050614923,0.06277749,0.05285252,-0.07864631,1.1005561,0.42596728,0.7927257,0.019961283,0.061214864,0.41612846,0.02730634,0.026909105,0.02367257,-0.31336215,-0.22836193,-0.011408582,0.06414074,0.013471566,-0.031481296,-0.083807,0.021666043,0.11939192,-0.011626869,0.0663766,-0.25036737,-0.06272042,-0.15941042,-0.04580725,-0.1357804,-0.055910677,0.3229715,0.026107157,0.086301625,0.19680466,-0.17977363,0.014517255,-0.055157088,-0.036420375,0.03828942,-0.37642398,0.10099526,0.002159007,0.014093377,0.056633994,-0.16832,-0.09092291,0.012473665,0.081953146,-0.06637304,0.18250652,0.26604763,0.7625564,-0.003131941,0.14018841,-0.0846209,0.3794062,-0.25429627,-0.33292705,0.31168357,0.066311136,-0.20490474,-0.31323537,-0.19379984,-0.03412804,0.7147688,0.76155555,-0.7179929,-0.4127115,0.1913703,0.055196404,-0.041442752,0.46509823,0.44639838,-0.056036778,-0.31845665,0.38042986,-0.09900759,-0.3266256,0.14031808,-0.38351804,-0.061838053,0.4910221,-0.27167198,0.065375306,0.11508705,0.1833968,-0.1895822,0.06479595,0.3128309,-0.31563482,-0.45263875,-0.20121932,0.21779473,-0.48260045,0.079067856,-0.26004001,-0.034869723,0.26579875,-0.1140624,0.1569059,-0.025034726,0.1587509,-0.06622183,0.3458716,-0.26177958,-0.1339627,0.032268554,-0.70544636,-0.5723301,0.095939435,-0.093643926,0.114609174,-0.061930377,0.31722957,-0.73962563,-0.5405341,-0.29296118,-0.5443624,-0.5175621,0.59629756,-0.025342725,0.041423716,0.12755576,0.08706038,0.033177312,0.17043333,0.16413291,0.5621725,-0.07315265,0.11927445,0.20603557,0.057182048,0.011865482,0.114269815,0.037542224,0.00725934,0.1334571,0.1956909,0.81812894,-0.053665325,0.041592404,-0.54289037,0.11409021,0.2673458,0.12290629,0.080975905,-0.03969343,0.15722208,0.033923533,0.13151424,-0.00044028927,-0.14236887,-0.29831597,-0.017750502,-0.16530107,-0.040524423,-0.065958664,0.019878611,0.62401986,0.06232524,-0.18827684,-0.17368811,-0.23976542,-0.5993016,0.18865432,0.110862784,-0.091325685,-0.2467847,0.0043999553,-0.017294511,0.11771545,0.07352151,0.04061536,0.23185413,-0.16482826,0.50205314,-0.52377045,-0.16369314,0.6755981,-0.4578147,-0.004483521,0.09136248,-0.9064259,-0.009332165,0.05548069,0.014109656,-0.4246556,0.7711958,-0.171352,0.22802535,0.28320834,0.22413106,0.4960118,0.14084971,0.282687,0.10844256,0.0265344,0.14067237,0.050948203,0.07294984,0.04206512,0.0537913,0.109926835,-0.052762076,0.065257244,0.12830175,0.050149336,-0.23450074,-0.10624807,0.13714525,0.9648396,-0.07083694,0.08094799,-0.40597543,0.1495579,-0.25029895,0.02864945,-0.07329494,-0.0216908,-0.09988916,0.08256692,-0.03495334,0.03641387,-0.083324574,0.05431828,-0.15500201,0.35457268,0.16673121,-0.14972071,-0.6346908,0.014642566,0.32725152,0.0715491,0.08715714,0.5278818,0.13368833,0.01082851,-0.19328381,0.37582782,0.21786352,0.05327841,0.17410184,-0.18472691,0.1587912,0.06944872,-0.100663505,-0.068969876,0.19989027,-0.062100984,-0.03408792,-0.3774698,-0.4445388,0.37950432,0.40219066,0.25997734,0.13604952,0.31165832,0.7257615,0.03756571,-0.11724706,0.21856073,0.2818992,0.18354724,0.1185643,-0.2077585,0.1223568,0.057510234,0.25573257,0.26458564,0.00696167,-0.09337285,-0.38692623,-0.18260087,-0.026669316,-0.07156664,-0.20935622,-0.16708428,0.5607926,0.33998266,-0.16392384,-0.16284594,0.21937779,0.0043002293,0.23318094,-0.0792573,0.11256811,-0.35143185,-0.20975271,0.07665232,-0.3483503,-0.12450368,-0.018143483,-0.0009920076,0.010949135,-0.11426302,0.16364306,-0.23136584,-0.06333447,-0.03844803,0.09676324,0.009842031,-0.3620357,-0.22394395,0.4273766,0.26637125,0.016753115,-0.33523357,-0.016924307,0.048695162,0.115900695,-0.036590576,-0.15441158,0.09800515,-0.36504728,-0.6208741,0.18695736,-0.34770095,0.24013378,0.24303877,0.33970302,0.25160572,-0.06794297,0.3680199,-0.095373794,-0.19087522,-0.0829984,-0.13017903,0.22826353,0.050150976,0.14934783,-0.004411146,0.41224766,0.07080445,-0.11490354,-0.06435457,0.019754604,-0.082749255,-0.028635632,0.12712535,-0.16954458,0.0025647655,-0.012824357,-0.0032741316,0.029346436,-0.24055958,0.08938769,-0.30404508,-0.31579408,0.23185627,-0.15797637,0.25432673,-0.44941416,-0.059970293,-0.21483053,-0.2672122,-0.43594,0.24951869,-0.12734415,0.0706566,-0.234498,0.047317397,-0.024369858,-0.05402215,-0.031056002,0.7386779,0.22033158,0.83204055,-0.0025766268,-0.036193483,0.052623272,0.006915167,0.09728652,0.07673719,-0.14685524,-0.10881153,0.1366855,0.08298881,-0.019336667,-0.0769264,-0.0070117605,0.021899626,0.0072799474,-0.014189318,0.10637045,-0.1156102,0.2351662,-0.0036070645,-0.37751248,0.009011969,-0.0027224198,0.006343255,-0.050098255,-0.40948284,-0.10956347,0.13791716,0.015157457,-0.20377721,-0.05822694,-0.1103304,-0.31346285,0.11593085,0.052586265,-0.026503116,-0.1558128,0.174565,0.12554511,0.09615181,-0.09958243,0.28300923,-0.1513273,-0.16694726,-0.020017207,-0.34603953,-0.6422006,-0.6640163,0.019894566,0.13708675,-0.075420044,0.0071820617,-0.18819864,-0.22865608,-0.06392498,0.2109728,-0.010730855,-0.13500856,0.026429385,-0.033415318,0.07924247,0.04399431,-0.10481733,0.13848905,0.025386617,0.41029057,0.15050726,0.23863906,0.06994387,0.1601551,-0.3221396,-0.16173455,0.1855328,-0.44630057,-0.1860711,0.535263,-0.09213047,0.012960449,-0.0328943,-0.2737636,-0.29857472,0.20387766,0.22648296,-0.36469242,-0.0826358,-0.057376646,0.12560064,0.09290002,0.073608376,-0.13601446,-0.05444528,-0.06258472,-0.2352296,0.08442593,0.01172062,0.019239541,0.35755068,0.021512054,-0.09790659,0.028555442,-0.05526467,-0.22328989,-0.111147344,0.06774129,0.40535188,0.16595757,0.05374012,-0.3696181,-0.020788029,0.033353843,-0.14865193,0.18755984,0.08444076,-0.10275312,0.21012151,0.16646518,-0.008652143,0.8178179,0.82721055,0.6240992,0.09951512,-0.33457482,0.4358853,0.11052751,0.13215634,0.10277362,-0.12124054,0.04090247,0.06312162,0.38390344,-0.028166905,-0.18773408,0.20445706,-0.014964193,-0.08623274,-0.056129824,0.0831721,-0.54957,-0.1271851,0.3014369,-0.02215995,0.10231018,-0.34297106,-0.12937224,0.2527489,-0.4204587,-0.18575363,0.38450652,-0.12207895,-0.08324015,-0.10297763,-0.22440127,0.020745203,0.007430412,0.15069345,-0.054480758,-0.056794673,0.0018107072,0.06695597,-0.00233531,0.118567094,-0.42337024,-0.26703227,0.059480384,0.36607188,0.075034685,0.21057564,-0.13199155,0.087938614,-0.29567134,-0.30095693,0.009693462,-0.081879355,-0.10915135,-0.16270682,0.21799624,0.077305615,-0.010190178,-0.13862818,-0.4949677,-0.49164373,-0.11889916,-0.0060631167,0.15701412,0.49647683,0.11538385,-0.38497806,-0.3775468,0.25327712,0.032566305,0.29245827,-0.066944115,0.023543809,0.14208302,-0.20515065,0.4959423,-0.22178756,0.06563256,0.21947193,0.09323685,-0.17431718,-0.0164596,0.057873935,0.15423849,0.0073525906,0.39211944,0.060428217,-0.10529318,0.04230773,-0.1707092,0.0073057413,-0.011701122,0.108160034,-0.4478402,-0.59299475,-0.334766,0.0056024473,-0.011787832,-0.41708514,-0.10779415,-0.009276837,0.109649435,0.21683034,0.15196037,-0.1532854,0.008989632,-0.13203284,0.19331218,0.109334305,0.10392022,-0.112281725,-0.22398314,-0.006466031,0.34425294,-0.103994854,-0.028787516,0.05511318,-0.32084414,-0.4852304,0.057620436,-0.026740938,0.08055249,-0.72542924,-0.16025457,0.042028658,0.1177015,0.34672752,-0.09432657,0.0006752163,-0.2875447,-0.0044044703,0.20119427,-0.17449267,-0.003243342,0.009644814,-0.046147957,-0.11363973,0.36895257,-0.10414511,-0.20499739,-0.3607338,-0.35766512,-0.3471548,0.1405077,1.1275431,0.4743538,0.68901736,-0.4343392,-0.13613679,0.4956153,-0.29867297,-1.1503793,-0.378132,0.17041832,-0.8021804,0.4381001,-0.88434863,0.18389279,-0.09260766,-0.32943958,0.89433485,0.20503455,-0.1241899,-0.45607442,-0.21181187,0.02384902,0.16118744,-0.052038528,0.20335066,-0.5900259,0.16430508,-0.14719358,-0.24678832,-0.42808002,0.38182485,0.07025143,0.30820572,-0.6271874,-0.29786074,-0.121411376,-0.050603483,-0.15489613,-0.10879856,-0.07384289,0.15553993,-0.12972939,-0.08430139,-0.0122835785,0.10609536,-0.10798378,-0.08113839,0.07975081,0.6576381,-0.036563598,-0.038195588,0.07569361,0.09705539,-0.15402502,0.040424578,-0.36487654,-0.20700067,0.24357092,0.3882549,0.13408251,0.23139183,-0.56057954,-0.19065458,-0.060959518,-0.5865415,-0.07458694,-0.06996374,-0.00050666556,0.1324276,-0.60735047,-0.12215333,0.76245266,0.06449575,-0.04443391,0.34458277,0.10200627,-0.2671473,-0.18470794,-0.09434375,0.2979259,-0.040066786,0.003546141,0.031793967,-0.030272663,0.13117713,-0.0445942,0.5782396,-0.22552018,-0.15407525,-0.07594968,0.28193754,0.059214532,-0.09659442,0.0032029077,0.14841332,0.014812244,0.12678613,-0.034098297,0.04637789,-0.2640051,0.06627751,0.004398033,-0.020722926,-0.099992245,0.33881202,0.12463039,0.10708835,0.015961666,0.05023476,-0.018652365,-0.23259647,-0.10356718,-0.43901905,0.3768984,-0.22375683,0.5152874,0.39215094,0.045866117,0.115501925,-0.040699214,0.11033646,0.047504038,-0.036141217,0.38734567,-0.26226172,-0.19960707,-0.050935775,-0.5550311,0.0012571923,0.26748598,0.2518042,-0.38633877,0.25918046,-0.08784693,-0.018171776,-0.08942084,0.18635972,0.3397969,-0.46178883,0.1559818,0.44585088,0.0141335055,0.15165167,-0.059368957,-0.0050569177,-0.11256892,-0.015753746,0.39063674,-0.47569862,0.9011532,-0.43244725,0.25948268,0.2998412,0.049369037,0.3915991,-0.7423172,0.0146934735,-0.5428396,-0.45161322,-0.36785227,0.3456048,0.3661119,0.23306012,-0.10954999,-0.17357828,-0.08102849,-0.19105396,0.06421768,0.13415916,0.08487243,-0.11669357,0.08832463,0.023137521,0.12840416,0.38842532,-0.26298416,0.051143408,0.08859624,0.16277812,-0.25904217,0.6429409,0.054013982,0.1863155,0.054495085,0.36894035,-0.07591421,0.0902488,0.08859524,-0.023637608,-0.4664214,0.40415376,0.17431098,-0.12916043,-0.0361166,-0.28604093,-0.038801767,0.21365583,0.2976594,0.23183936,-0.43604589,0.09714595,-0.18844779,-0.0016889889,0.050952747,-0.38556513,-0.03944347,0.09858723,-0.0033700839,-0.12006725,-0.2578014,0.17605469,0.15118213,0.13658318,0.2519482,0.071491264,0.11255255,-0.08609746,-0.25535652,-0.37877035,0.06049248,0.09772401,-0.004272189,0.24831703,0.7076223,-0.13786069,0.22344035,-0.006523257,-0.06910995,0.55533224,0.03307219,-0.32547823,0.01674295,-0.15929979,-0.018121116,-0.18366735,-0.00085360836,-0.09124777,0.31711438,-0.14356762,-0.1910063,0.21765956,-0.11298223,-0.03292526,0.2724927,-0.12596212,0.07201463,-0.046666548,-0.101634555,0.093354076,0.08606671,-0.022522215,0.015082225,-0.11385906,0.40447897,-0.16166042,-0.24589056,-0.5987928,-0.1340261,0.12595831,-0.11730945,0.058771662,-0.27138826,0.2654556,0.15356153,0.075898856,-0.074594215,-0.090368934,0.0045612697,0.021724515,-0.12476671,-0.14823246,0.047392026,-0.15083641,0.16168901,0.14389175,-0.25645947,0.029011823,-0.15787761,0.060564056,0.3988742,0.44990295,0.30325803,-0.29190192,-0.24251705,-0.0016613007,0.39022714,-0.39432475,-0.07640751,0.07737407,0.04188828,0.24532223,0.00069879834,-0.23685966,-0.37335244,-0.32257006,0.24882576,0.086121514,0.08557029,0.03127287,-0.17811354,0.15950185,-0.05249435,0.3201249,-0.011339933,0.089033395,0.28624701,3.7252903e-09,0.0,-3.7252903e-09,0.0,-3.7252903e-09,0.0,5.5879354e-09,3.7252903e-09,0.0,0.0,7.450581e-09,0.0,6.519258e-09,0.0,0.0,-9.313226e-10,0.0,0.0,1.8626451e-09,0.0,0.0,0.0,0.0,0.0,0.030849814,0.039164208,0.011205872,-0.5537965,-0.10139376,-0.75907993,0.0013632439,0.06346077,0.21955371,-0.0077590346,-0.09616078,-0.025726834,0.04657565,0.116301656,-0.112016685,-0.037592366,-0.003145218,0.178479,0.0057982653,0.047457263,-0.059857458,-0.0138697475,-0.08324016,0.048133094,0.26773468,0.112864934,-0.16356897,0.13791284,0.25185674,-0.3475452,0.17223503,-0.0601445,-0.3929187,0.0020950474,0.31243402,0.32581824,0.10942383,-0.35792756,0.19193849,0.04933414,0.01055407,-0.09961398,-0.21510513,0.090148225,-0.5879597,0.15993679,0.07839687,-0.115229085,0.076281905,0.026289273,-0.05708253,0.3613725,0.37196356,-0.17197374,0.08534716,-0.038945913,0.75837874,0.033971056,-0.080136426,-0.08294309,-0.32632536,0.16315132,-0.09949372,0.3161068,-0.09419218,-0.06615961,0.19394436,0.014443084,0.12376545,-0.08159303,0.12086505,-0.28421992,0.010381609,0.41238472,0.20554282,0.12841117,-0.41270673,-0.080059506,0.08426942,-0.22812505,-0.057504356,0.25767732,-0.037189536,0.03970673,0.100395195,-0.032739677,-0.09197439,-0.06163065,0.066379145,0.17459762,-0.117912486,-0.16692567,0.040663276,-0.096714124,-0.10175999,-0.4288508,0.24562337,0.06086184,-0.10808642,-0.016325595,0.1851234,-0.061763816,-0.046569716,-0.4448971,-0.20854658,0.33195144,-0.1693034,-0.25098908,-0.12122829,-0.28957677,-0.24907763,0.004084915,0.27427924,-0.24006142,-0.009255234,0.12182005,0.16243704,0.055717908,-0.004461348,0.3005284,-0.25742882,-0.040792376,0.27044886,-0.083187565,0.10565786,-0.020323142,-0.39997545,-0.16080368,-0.14008015,-0.007656805,0.11355321,-0.037779503,-0.07846351,0.16146877,-0.236016,-0.24606214,-0.006635541,-0.17987987,-0.037955023,-0.19009152,0.28731155,0.3832101,0.9750855,-0.19745351,0.08751288,0.113642484,-0.070087016,-0.09794047,0.06778751,0.019699141,0.33415306,-0.008789703,0.1307697,0.20279667,-0.029468507,-0.072422415,-0.03253345,0.10284568,0.1325853,-0.008332387,0.07520444,-0.39344445,0.054604392,0.062573254,-0.32994923,0.38362896,0.17203388,-0.065532476,-0.19977602,-0.43944982,-0.06319096,-0.11028174,0.18654087,0.1321488,0.28709128,0.13564458,0.032403767,-0.0047287345,0.0034862608,-0.08504206,-0.08459269,-0.19460201,-0.08025077,0.17145687,0.21805319,0.22464466,-0.052511502,-0.1352003,-0.24591094,-0.08121014,-0.37539113,0.13194923,0.18495089,-0.11492512,0.0006076619,0.057389088,0.12883,-0.03473844,0.046758335,-0.49135968,0.11793643,0.82613367,-0.4757586,0.2291309,0.54043204,-0.21481705,-0.015511766,0.43795782,-0.0625345,-0.12063916,-0.08785054,-0.43500757,0.10061886,0.30853927,0.37110084,0.592175,-0.1389277,-0.044402648,0.05616036,-0.46570086,-0.07036747,0.11928723,-0.23367399,0.05866775,0.2952556,0.034319803,-0.15506819,-0.1386962,-0.16085377,-0.11652583,-0.0027262121,-0.19823618,0.14671065,0.16066249,-0.083799064,-0.08218059,0.3790106,-0.11628712,-0.13750449,0.00082311034,-0.16125096,-0.24085782,-0.22380412,-0.021048963,-0.03219074,-0.022014737,0.052007876,-0.03445895,-0.16326766,0.06420539,0.19400062,-0.049912572,-0.4348079,-0.22901398,0.4126289,0.16062993,-0.03286072,-0.3343826,0.030059248,-0.008584641,0.028789893,-0.0035731047,0.18069084,-0.01080782,-0.04344359,0.11610304,-0.060685772,-0.0091137625,-0.23078856,-0.011928931,0.11176489,0.22042692,0.14217094,-0.059709407,0.6946079,0.5737438,0.11985768,0.14112476,0.04965639,0.18950881,0.5076949,0.071782336,0.40062022,0.30462694,0.4179164,0.16731739,0.13890329,0.03241662,-0.050185174,0.005535662,0.082028635,0.5431515,-0.25208247,-0.0944201,-0.009706788,0.119889945,0.32899886,0.085151255,-0.17898938,-0.2337733,-0.32900837,0.27831694,-0.17649509,0.01521188,0.044950765,0.6643514,0.1439724,0.047084566,-0.100850575,0.1070175,0.09225391,0.23684469,0.26896468,0.3155083,-0.15620317,0.17635289,-0.5276242,-0.027794197,0.031878185,-0.12696157,0.13921836,0.030281201,0.054793146,-0.06916014,-0.14466608,-0.14178137,0.45601073,-0.030317694,0.1975056,-0.19177344,0.07864705,-0.16385713,0.079248294,-0.11074537,0.08117612,-0.15451926,0.24197286,0.2818953,0.039176404,-0.65936387,0.33577523,0.43162486,-0.15923256,-0.04422614,-0.34682244,0.17490697,0.2012867,0.2604956,0.17263722,-0.07907914,-0.04943484,-0.23130515,-0.020646796,0.13318795,-0.12124417,0.01650796,-0.15177266,0.18464507,-0.23415369,-0.29941997,-0.015632205,-0.243606,0.11530198,-0.1557385,-0.072424196,0.13847648,0.8051151,-0.043171976,-0.040507484,0.07767902,0.23812872,-0.20042084,-0.12317465,-0.32995614,0.007759854,0.14706174,0.3024275,-0.050342772,0.2199156,-0.45466816,-0.2670405,0.037457768,-0.3984649,-0.12020125,0.03483885,-0.2617689,-0.08493453,-0.08659637,0.4337163,-0.019061387,-0.030084088,0.037560426,-0.16145433,-0.09204168,-0.19899575,-0.13580066,-0.08769,-0.013716802,0.17611927,-0.010541186,0.12264915,-0.34062934,0.1864583,0.03971833,-0.0626396,0.2406481,0.33838755,0.28520584,3.7252903e-09,0.0,3.7252903e-09,1.8626451e-09,0.0,0.0,0.0,0.0,-9.313226e-10,0.0,0.0,-7.450581e-09,0.0,3.7252903e-09,0.0,-3.7252903e-09,0.0,-3.7252903e-09,-1.4901161e-08,6.5629138e-09,-3.7252903e-09,0.0,-5.5879354e-09,7.450581e-09,-0.27600983,-0.25586274,-0.02729103,0.11647491,-0.2656986,0.03361506,0.12112352,-0.01199442,0.082630225,-0.068306655,-0.13458256,-0.22636193,-0.2034788,0.043610036,0.21762903,0.13509524,0.03575983,-0.5015801,0.18639186,-0.11312882,0.40071088,-0.10939184,0.033188418,0.10751762,-0.2480016,-0.116971895,0.04466432,-0.108471885,-0.036600128,0.029905967,-0.15868217,-0.053338006,-0.08034609,0.23368129,-0.009618515,-0.11593254,0.02463699,0.04137156,-0.20206583,-0.20350532,0.05016486,0.22577214,-0.03639614,-0.090458035,0.07357111,0.15149693,0.484028,-0.34768513,-0.33316475,-0.15785111,0.1624917,-0.13484524,0.15440468,0.12700215,0.10313901,-0.15710135,-0.13727629,-0.03440903,0.12974377,-0.11884058,-0.06443934,-0.10366353,-0.10925308,0.03946255,0.17141098,-0.10564363,0.050344814,-0.38777763,0.013777852,0.26254043,0.3009761,-0.1442233,-0.26605234,0.17276405,0.44705015,-0.070545286,0.16185418,-0.08537686,0.044293217,-0.3289281,-0.18990643,0.0694654,0.11189173,-0.24663502,-0.048103437,0.032363363,-0.138394,0.03619352,0.23440719,-0.3111335,-0.033628434,-0.13824339,0.15449321,0.04644845,0.52474254,0.08591007,-0.16086234,-0.09248072,0.10881603,0.52652407,-0.6424404,0.74841595,0.008701965,0.1218428,-0.68549836,-0.05549377,-0.07291165,-0.036420237,0.27512175,0.003274627,0.012207538,-0.36330935,0.03506995,0.10260483,-0.089115456,0.02298037,-0.042835027,0.07589748,0.01050709,0.5484719,0.10038373,0.047202874,-0.09085956,0.12660263,0.41531467,0.028698912,0.15145975,-0.18263319,0.4074508,0.12500945,0.049905814,-0.10743497,-0.24400166,0.21146971,0.08618167,0.39551827,0.06657923,-0.15763873,0.2987863,-0.011367351,-0.23464958,0.046264544,0.116969466,-0.3343166,-0.27033862,-0.43518618,0.05410791,0.016829818,0.16116548,-0.08708102,-0.030733243,-0.15793456,-0.2257324,0.29152954,-0.15927652,-0.1802848,-0.06373268,-0.17630503,0.14703897,0.04763627,0.08302955,-0.2687693,0.16133536,0.37090087,-0.13626161,-0.00721357,0.14453281,-0.109553985,0.23896687,0.17227665,-0.53750986,-0.012813821,0.09647137,-0.041988723,0.5224952,0.056955826,-0.2012449,-0.17673165,0.06614956,-0.45530334,0.05450593,-0.17334014,-0.40754253,-0.17697202,0.036920592,-0.09275062,0.041246623,0.25601497,0.1866412,-0.117535576,0.1702279,-0.10525641,0.18398374,0.076730564,-0.041250654,-0.1368631,0.2214764,0.124767825,-0.005741045,-0.047475707,0.006589463,-0.3394569,0.035372496,-0.12964119,-0.00441245,0.035998,0.26115316,0.11050786,-0.027892575,-0.22548923,-0.0030769855,-0.20548971,0.09214214,0.11247643,0.051350076,0.27730232,0.32152262,-0.01135242,-0.2932431,0.08752868,0.16014795,-0.06717649,0.14177373,-0.32350278,-0.42213035,0.3488111,-0.31476027,0.05639783,-0.098048076,-0.03617649,-0.24245186,0.12884218,0.11291973,-0.04636924,0.10862699,-0.06399495,0.2090923,0.20947431,0.23540299,0.12043925,-0.07430346,-0.0007611215,-0.018802866,0.118355006,-0.100568265,0.027293533,-0.20690179,-0.030038573,-0.30820367,0.1963016,0.2176159,-0.1782627,-0.4865851,0.39188495,0.15895605,0.17524372,0.013344942,0.57373005,0.30119565,-0.003833741,0.10676539,0.1477082,-0.071912885,0.046880078,-0.3684473,-0.27412564,0.21381058,0.047064167,0.17805976,-0.04633491,0.08733513,0.14593996,-0.1432743,0.34592557,-0.12432751,0.0015841573,0.0665607,0.039635114,0.012163088,0.0008855015,0.071079805,-0.036585845,-0.014044344,0.14918183,-0.07696322,-0.008471295,0.17388093,-0.18641654,0.35111046,0.19124252,-0.08684996,-0.17652671,0.29517356,0.15485057,0.053424656,-0.010243095,0.23439242,-0.60751104,0.03375659,-0.01488921,-0.056696642,-0.05292616,0.064882725,-0.021179065,-0.26820695,-0.1479095,0.30228746,-0.22497605,0.0034838282,0.18891928,0.09415982,0.7196583,0.10860698,0.047199693,-0.0886408,-0.37189052,0.47642794,-0.843205,0.065267585,-0.07092808,0.84748507,0.022909606,-0.026618421,-0.076996505,-0.3390196,0.1487967,-0.11167777,0.43462127,-0.06931143,0.022428118,0.19071321,-0.037151087,0.1017009,-0.1475246,0.033935934,-0.42918807,-0.3558764,-0.44718036,-0.0124522075,-0.15474711,0.21299785,0.20024508,0.24331442,-0.01992166,-0.03024508,-0.06056591,-0.044568777,-0.07444504,0.022945277,-0.17181805,-0.16774854,0.24645697,0.2719196,0.29034784,0.04139616,-0.05486481,-0.3236413,-0.10696057,-0.31867146,0.101088084,-0.12524596,-0.07571735,0.012735795,-0.47781715,0.050253898,-0.82064074,-0.22802319,0.06798911,0.061759032,-0.025347568,0.018491678,-0.10059872,-0.015901636,-0.13202496,0.06619048,-0.14210457,0.15986586,0.21606275,-0.13744736,-0.120539375,0.21286045,0.045918584,-0.1354124,0.003468439,-0.110378966,-0.32603207,0.12511426,0.013998553,-0.25959113,-0.033390507,0.39725536,-0.4116146,0.30089936,-0.42399067,-0.043165095,0.52770144,0.20646343,0.00037322938,0.23841812,0.1492768,0.624225,0.102070905,-0.005318053,0.25135848,0.17852303,0.18416731,0.28913492,-0.06991681,-0.5031413,0.7514153,0.004974872,0.00010833889,0.2323751,0.037481666,0.26180175,-0.005842792,0.3253695,0.34966475,0.19837126,-0.36692345,0.7423519,-0.24328578,0.036934275,0.10593371,0.20951894,-0.64254284,0.12376205,-0.029316457,-0.25802174,-0.4329961,0.3181759,0.4866646,-0.029280916,-0.12149933,-0.12396786,-0.41743684,0.16278219,0.1037367,-0.032683685,-0.13726658,-0.33537328,-0.18742011,0.1812292,0.19533293,0.16572845,-0.2334192,0.21231057,0.13514191,-0.16658932,-0.7546339,-0.12684217,-0.05268149,0.31893325,-0.23212387,-0.102598235,-0.24268842,-0.36932984,0.124583915,0.21204965,0.0330281,0.077701256,-0.0071585625,0.034510344,0.070615076,0.011478471,-0.14603817,-0.3108652,0.3797136,-0.19485006,0.4007384,0.09400742,-0.19562665,-0.15936062,-0.2520202,-0.014040001,-0.24304447,-0.06504376,-0.19925366,0.04023043,-0.013154803,-0.22053128,0.17188002,0.37658918,0.0713484,0.04190199,-0.07150382,0.20952395,0.004697636,-0.028019331,0.43697393,-0.22394629,0.22414578,0.030166075,-0.04452427,-0.08438943,0.064747505,0.1804455,-0.15764914,-0.19407012,0.21727356,-0.15906157,-0.15722108,0.051988885,-0.078063786,0.07106192,-0.07788429,-0.35260418,-0.0030913763,-0.1778415,0.010311365,-0.09792206,0.1821001,-0.0345719,0.014202713,0.22405967,0.059038848,0.17522238,-0.15615885,0.04669653,0.12756938,0.3446129,0.016367964,0.4839589,-0.11499718,0.24892287,-0.19631974,0.16130888,-0.09830767,-0.007806346,-0.039321117,0.67644346,-0.042015634,0.13261123,-0.0039259195,-0.10039386,0.30297938,-0.0894389,0.080894426,-0.11436665,0.035517763,-0.09110746,-0.157925,0.37120733,-0.022715375,0.065836534,-0.31085134,0.24130996,-0.2330541,-0.12954171,0.0077127963,-0.032291066,-0.1243615,-0.19749758,0.18997723,-0.16925658,-0.002348803,0.13536271,-0.06449062,0.085963726,-0.54495126,-0.14765362,-0.09222786,-0.12280715,0.058181714,-0.37560964,0.074664675,-0.29415488,0.02000111,0.098116234,-0.114175126,-0.2805585,0.26366568,0.015930817,-0.06407833,0.042449936,0.33698812,0.03799338,0.03028143,-0.33629426,-0.014042743,-0.114910476,-0.0035206452,0.17589174,0.25243032,0.031444333,0.20594513,0.22891165,-0.042994216,0.329207,-0.33541468,0.0596326,-0.062135234,0.16656741,-0.08462951,0.7122621,-0.114601076,0.10623388,0.18155561,0.19768378,-0.07530456,-0.02774483,-0.038705036,0.023593836,-0.7066221,-0.35460812,-0.70783365,-0.04693792,0.06901875,-0.43179208,-0.06469838,0.04033269,0.030237492,0.2481738,0.0370336,-0.025408769,-0.13358971,-0.03513946,0.16811025,-0.081348635,0.0116313845,-0.031109182,-0.0342289,-0.10205906,0.24053472,-0.1395575,-0.025965422,0.0010996461,0.102696516,-0.104915254,0.058330625,-0.122442335,0.18702921,-0.026024692,0.1158217,0.15463313,-0.005412653,-0.5494336,-0.12022949,0.15347235,0.013049237,-0.001618538,0.52756923,0.043897014,0.00075825304,-0.05893311,0.13587037,0.062374074,0.1039669,0.18517374,0.108983204,-0.044633567,0.16818413,0.67852455,-0.20750335,-0.020903744,-0.11547637,0.5645164,0.009547993,0.118575215,0.061481252,-0.18746722,-0.02088358,-0.0980436,0.33306462,-0.094819255,0.17929046,0.06555438,-0.06438496,0.2030609,-0.20897637,-0.072598785,-0.47005895,0.0023595467,0.19233164,-0.0434164,0.13600163,-0.4024471,-0.12431982,0.18943158,-0.08750924,-0.112027206,0.33470058,0.041867375,-0.007357314,0.004647918,-0.046670675,-0.012287989,0.04073578,0.06427373,0.0060436428,-0.14255753,-0.0628578,-0.046267852,-0.12753227,-0.06643649,-0.4491225,-0.10440789,-0.070072785,0.008533359,0.06490145,0.122568205,-0.03629772,0.20922078,-0.17703953,-0.17936686,0.1498512,-0.0045956224,-0.1919897,-0.033730462,0.057393506,0.37932178,0.10369844,0.1921005,-0.44240594,0.17859945,-0.070688285,-0.042646516,0.23283494,0.22626302,-0.048009798,-0.0060956553,-0.038734145,0.028735127,0.44555458,-0.22655681,0.8284489,0.01339189,0.055518184,-0.54668987,-0.07519161,0.07919487,0.113534905,0.23101892,-0.1560123,-0.024153706,-0.21705016,-0.03780788,0.098815754,-0.15914936,0.020119026,0.01397964,-0.06349137,-0.018206224,0.20569704,0.10470201,0.025141753,0.5700492,0.044859096,0.118721865,-0.025985077,0.19625244,0.32080406,-0.2015824,-0.095277414,-0.18613413,-0.051337473,-0.049824864,-0.07882632,0.22006595,-0.04225108,-0.10710953,-0.03857257,0.3721876,-0.070869565,-0.1604715,0.117018886,0.15106954,-0.25631556,-0.10578949,-0.17699951,-0.103461914,-0.18474919,0.04768546,0.046379693,0.012885328,-0.117724895,-0.2093006,-0.14129728,0.12160067,0.09011343,0.019141413,-0.2312295,0.28256822,0.17132989,-0.078927204,-0.64621496,0.013660282,-0.03884341,0.2484371,-0.1993957,0.019524325,-0.104234695,0.14339775,0.19084507,0.07014233,-0.058484927,-0.10910742,0.013247281,0.08953812,-0.32040465,-0.040862992,-0.15060513,-0.025434203,-0.2867141,-0.088455,-0.22335722,0.41966286,0.14545894,0.06709892,-0.1534386,0.059961304,-0.38313767,-0.003344953,0.27103674,0.3249907,0.019136801,-0.33883244,-0.026857583,0.21864149,0.11399622,-0.06132291,-0.06929813,-0.06387166,-0.2814907,0.06489295,0.42217082,-0.119951144,-0.07434645,0.021542631,-0.119437024,0.101257846,-0.18053155,0.34644157,0.28532097,-0.055220023,0.11028504,-0.08556042,-0.031328633,-0.1853023,-0.28151882,-0.0030564144,0.31692833,0.96884733,0.093521595,0.19195165,-0.20278242,0.5282926,0.20097248,-0.28615803,0.120146774,-0.3068901,-0.14756645,-0.06801299,-0.62748384,0.3810927,-0.20661496,0.051995367,-0.5426845,0.96624917,-0.09066839,0.014772147,0.07079981,0.35940287,-0.06311537,0.1171056,-0.21765113,0.15875348,-0.031234473,-0.12535554,0.0654007,0.24070264,0.44583955,0.37456384,0.23998615,-0.17483892,0.33081064,0.5689138,-0.03816452,0.17736836,0.25858188,-0.29312283,-0.06360756,-0.19490975,-0.43403557,-0.25487918,-0.13558188,0.025923863,-0.064382195,0.3126078,-0.09509137,-0.11684791,-0.019340083,-0.2653277,-0.006086543,-0.1602898,0.1499768,0.088416144,0.05433075,-0.03814644,0.12674956,0.2592809,-0.40110928,-0.01786429,0.009645492,0.45500794,-0.061987318,0.6365923,-0.06127216,-0.030227602,-0.17586361,0.16339216,-0.08822444,-0.118244305,-0.2808693,-0.022732481,-0.16453142,0.26246622,0.10130104,-0.12189755,0.12525064,-0.018602084,0.03887776,-0.14562447,-0.015058391,0.10302362,0.14053932,0.09529077,-0.015721872,-0.023365993,-0.15034895,0.120513394,0.29566884,0.30560356,-0.17644082,-0.18983488,0.15866306,-0.458068,0.27743468,-0.41400588,0.010781769,0.14728865,-0.03154715,0.44338435,-0.14855295,0.26584193,-0.35880983,-0.88937175,-0.19827805,0.8956283,-0.20943537,0.38475728,-0.06315499,0.11520952,-0.4806459,0.06450799,0.18630144,-0.13775611,0.6745597,0.2926631,-0.25301844,-0.19560081,-0.19212583,0.022438467,-0.2004687,-0.835015,-0.23888168,-0.003966988,0.18657637,-0.5748317,-0.074473225,-0.05568258,-0.10304244,0.12940629,0.107126966,0.084676296,-0.24898878,0.02130261,-0.021551028,-0.0023366213,0.04442473,-0.16069017,0.1328431,0.025419645,0.5657585,-0.15770835,-0.26611152,-0.09852031,0.25893128,-0.15437047,-0.11335778,0.37471616,-0.26610076,-0.14214246,-0.27519235,-0.13222775,-0.05432736,0.11300698,0.06853209,0.23660429,0.36383688,-0.11841932,-1.0997638,0.21510474,-0.060771644,0.36020297,-0.26709437,0.29144862,0.02754287,-0.17886396,-0.087935984,0.20771728,-0.097581886,0.10709352,-0.042746536,-0.352013,-0.078937955,-0.08891219,-0.14917131,0.16688389,-0.09860529,-0.017931258,0.1896687,-0.21068047,-0.22373731,-0.0413109,-0.30477557,0.03545999,-0.3076796,0.21956493,0.4373289,1.1707603,-0.10783244,-0.25425583,-0.040498227,0.067294165,-0.08149767,0.004382007,0.09245787,0.53182995,-0.095388986,0.0228194,-0.09400947,-0.10006577,-0.07189822,0.11106882,-0.3472856,-0.19202103,0.25570366,0.24518771,-0.14965259,0.15398772,-0.2920968,-0.20422922,-0.039064363,-0.51741,-0.015723437,0.3077377,-0.29487038,-0.5323973,0.06587094,-0.24098788,9.5665455e-06,-0.30911943,-0.4404453,0.029307827,0.39391613,-0.16422904,0.18247563,0.09105302,-0.226344,-0.2590265,0.21259102,0.10367181,-0.3098228,0.19828689,-0.13839598,0.17636737,0.0062713474,0.0026254356,0.21782103,0.15350075,0.16029067,-0.06938651,-0.012707621,0.7576116,0.12686783,-0.1705895,-0.17293823,0.11495429,0.0114769265,0.24255718,0.2409209,0.0710824,-0.34839258,0.1573896,0.10520385,0.0029601604,-0.013653278,-0.19759077,-0.048671156,0.0852298,-0.108373925,-0.070221245,-0.52684784,-0.23299429,0.20234913,-0.27883402,-0.040826872,0.0597751,0.0012513339,0.4009598,0.07012065,-0.16709785,0.056469038,-0.26688364,0.1583631,0.011064388,-0.3967111,0.27991307,0.31447378,0.16554195,0.08116442,0.52016443,0.027949408,0.09778202,0.30422014,0.23004776,0.010308616,0.023959778,-0.01710628,-0.067419864,-0.23216817,0.25052017,-0.8771154,0.0077132285,-0.055277705,0.58183527,0.06998676,-0.0016012602,-0.11697804,-0.34862372,0.16947298,0.08000836,0.32344398,-0.015026867,-0.032803684,0.21692193,0.0096838325,-0.055284336,0.0021050423,0.036089674,-0.22149636,-0.05905591,0.37524477,-0.11559938,0.14860334,-0.6896091,-0.099090315,-0.04298628,-0.36894432,-0.016083043,0.14944012,0.0698829,-0.025316175,-0.20077758,-0.145272,0.120873794,-0.064628735,-0.010489858,-0.07542616,-0.104408,-0.23401779,0.22048125,-0.06791146,-0.02855096,-0.556136,-0.09616117,-0.34444332,-0.12061794,-0.109794825,0.31491774,0.04159183,-0.11200218,0.043919913,-0.13353948,0.0128953755,-0.13871443,0.03363803,0.18253955,0.03226515,0.049871966,-0.010372274,-0.00799844,-0.42774191,0.1068103,0.30424947,-0.014074569,0.010552779,0.10391542,0.1428296,-0.27705303,0.21214004,0.24339426,-0.001477439,0.2909679,-0.06302786,0.16103692,-0.28090984,-0.18548521,0.0484496,0.12180509,-0.23093237,-0.14152122,0.29741377,0.025563322,0.02561228,-0.08136895,-0.3909629,-0.44973296,0.15386873,-0.05697887,0.26264876,0.11261832,0.1647717,0.30160132,-0.013860308,-0.10858506,0.08652151,-0.049624756,0.029076785,-0.19600457,0.2737162,0.14005229,-0.1252703,-0.12636387,0.20920707,-0.14681251,0.003962569,-0.3420006,-0.13028924,-0.23808843,0.5673894,-0.22872931,0.15462002,-0.28696445,0.08057742,-0.08579016,-0.13659064,-0.45094985,0.215817,0.39294642,0.013544753,0.32195386,-0.062791035,0.057626273,-0.4428243,-0.069340594,0.024170354,0.006511241,-0.13466223,-0.14524534,0.39925283,0.12501435,-0.06427073,-0.20666614,-0.2922979,-0.44305623,0.058838695,0.095711224,0.21667498,-0.25924486,0.20266475,0.17243417,0.15199265,0.062079575,-0.5941052,0.1443003,0.6144028,0.056682132,-0.16309069,-0.09878054,0.08903196,0.010875702,0.1749277,-0.014371105,-0.0105538,0.03366518,0.07506545,-0.072531626,0.13633397,0.09455041,0.09837688,-0.015415885,-0.2350362,0.06466716,-0.086661406,0.18638323,-0.13184404,-0.3891248,0.042453807,-0.10958095,-0.030076355,-0.07329716,0.16733612,0.028466266,0.10150392,0.1403638,-0.052161314,-0.0049492866,-0.21836947,0.021308038,-0.05209566,0.19850618,0.4027704,0.25014773,-0.07413852,0.11568893,-0.124733984,-0.011030778,-0.07772961,-0.13313277,-0.06917121,-0.032925215,0.051356904,-0.2396577,-0.022016447,-0.22494628,0.04486066,-0.005163111,-0.046616305,0.3020748,0.26626837,-0.107048266,0.017610492,-0.06417781,0.25182912,-0.39330527,0.018688247,0.25760776,0.07050572,0.29459667,0.28678033,-0.442579,-0.03265159,-0.2906086,-0.18459705,0.09868469,0.04662007,-0.2501678,-0.06622121,-0.15492275,0.16589178,-0.21958642,0.520054,0.0036683343,0.0688893,0.05651602,0.055475798,-0.42998147,-0.052582428,0.07774186,-0.05555468,-0.036840346,0.17756797,0.042681843,-0.069296435,0.4333567,-0.65989166,0.09683211,0.012835771,-0.09155183,0.33830708,0.06913761,-0.0016516447,0.71455497,-0.06416662,0.52362055,0.007809527,-0.09606419,0.019065797,-0.31452855,0.18166189,-0.18203864,0.4980188,-0.25676584,-0.09755757,0.24649459,0.12810428,-0.41971746,-0.011867743,0.5196941,-0.03022474,0.174959,0.10710585,-0.07596314,-0.4494693,-0.05382041,0.19311665,-0.0133446455,-0.033519343,-0.30224183,0.00018119812,0.039508,0.25052595,0.15992305,-0.15354554,0.25109303,-0.040173247,-0.19187659,-0.22429861,-0.1758162,0.22492148,0.05780696,-0.23105103,-0.017766327,-0.0118515305,0.001124233,-0.057331473,-0.2907854,-0.06751509,0.05961153,-0.10140838,-0.16362041,0.13709275,-0.0842259,-0.13294545,0.24741867,0.02070421,-0.27859044,-0.2639234,0.07094104,-0.060137436,0.05296075,0.06362403,-0.18932776,-0.05567397,0.20244902,0.001475662,0.04922305,-0.19214782,-0.061555013,0.035052523,-0.01376592,-0.13565151,-0.24614136,-0.047567707,-0.05962366,-0.18355784,-0.23015532,0.0015541464,-0.04754106,0.007823955,0.29444045,0.008089315,0.054012492,-0.02528286,-0.0719558,-0.41177228,-0.17376985,-0.027929757,0.26815066,-0.045171995,-0.11067903,-0.2078098,-0.0732298,-0.09744875,-0.14965567,0.31337225,-0.36095268,0.05951733,0.637913,0.24922362,0.45256126,-0.0699902,-0.19416377,-0.009993365,-0.30638033,-0.094003364,-0.10226708,0.1687518,-0.34405184,0.023579381,-0.11276102,0.17937593,-0.04783959,-0.0790753,0.4889093,0.29380658,-0.14998381,-0.1368998,0.025639463,0.69366086,-0.18676504,0.7344283,-0.07401307,0.09166299,-0.17491588,-0.03257389,-0.05503139,-0.041434363,-0.037409488,-0.13030545,0.028285291,-0.19644405,0.049402997,0.04097721,-0.10623835,-0.02892366,0.15386999,0.03922206,0.06019771,0.20909894,-0.05510412,-0.17543647,-0.03907025,0.12250967,-0.23621999,0.028605878,-0.01231306,0.20022786,0.19750272,0.06647977,0.069123566,-0.09877575,-0.26332366,0.085509025,0.1727942,0.055279166,0.10052031,0.41609633,0.35643739,-0.058876872,-0.33503,0.14566554,0.06897694,-0.015550494,0.22414014,0.1022434,0.04929541,-0.11594484,0.36476412,0.07556796,-0.056576535,-0.116263255,-0.0435147,-0.27618024,-0.021335721,-0.10053862,0.07252011,0.12317295,0.20546359,-0.007024169,-0.050464787,-0.396021,-0.04407692,-0.17596471,-0.046716012,0.11088771,-0.0459969,0.37905258,-0.30775547,-0.06982529,0.18403688,-0.07665938,0.12026039,0.03178169,0.52950567,-0.38313484,-0.36877355,0.13126415,-0.028557697,-0.10628773,-0.0142175015,-0.16756465,0.38873696,0.52846587,0.36667532,-0.51355106,0.3384757,-0.20903826,-0.0042948127,-0.20264867,0.13318954,0.18377389,-0.06622481,-0.17774051,0.20315433,0.0068404153,0.42793068,-0.09087818,0.08552809,0.25313267,-0.14694913,0.38762093,-0.06938046,0.038627174,0.050174028,-0.17776324,-0.12076532,-0.05831673,0.034075886,-0.30352074,0.3531248,0.19087371,0.03659852,0.096727796,0.28791773,0.2756945,0.028167114,-0.13975686,0.2342701,-0.06513145,-0.0321704,0.094027705,-0.16364673,0.051866286,-0.025592417,0.10992356,0.38463163,-0.13689649,-0.45016718,0.3144232,0.03623241,0.06129747,0.07791871,-0.039314866,-0.33965552,-0.026766717,-0.0894199,-0.088279724,-0.13749586,0.094923064,0.022246525,0.05823177,0.022934921,-0.6207151,0.08277266,-0.2774247,-0.25238654,-0.1112545,-0.37155837,-0.09487504,0.21247375,0.11128226,0.2547503,-0.07381169,0.07967605,-0.02566534,0.0050745867,0.053458527,-0.089605965,-0.094502926,0.14186195,-0.1499967,-0.2283836,-0.13810179,0.3655493,0.4223848,0.14518832,-0.022884563,-0.18182606,0.024878472,0.005103171,-0.21064596,0.129176,-0.34723657,0.07233816,-0.07667932,-0.069788486,-0.08660116,0.20108153,0.0024565607,0.049870163,-0.050515696,0.072860725,-0.46077722,0.074678466,0.1147317,-0.20369366,0.1745373,0.11696531,0.015039414,-0.005733192,0.30985343,-0.18774989,-0.0230354,-0.1527507,0.27789167,0.16742308,-0.011627274,-0.04283589,0.008232154,-0.16120945,0.09571033,-0.23374034,-0.10778643,0.003592819,0.6114028,-0.022128502,0.07719216,0.02089147,-0.024800137,-0.3548509,0.12628032,-0.13423121,-0.32361606,-0.033783525,-0.17317887,0.30304217,0.15731344,-0.09537721,0.105337195,-0.07916758,0.14149897,-0.20446342,0.054673016,0.25157714,0.002623953,-0.0014346391,0.09979635,0.1785405,-0.29508212,0.2658377,0.32493246,-0.08623663,-0.044478733,0.055843443,0.059987076
