1,480,0.042304084,0.03652753,-0.0407013,0.040725194,0.037546307,-0.026468396,0.09644201,0.05060599,-0.18355235,0.06854072,0.06068325,0.110205546,-0.011236434,0.048750166,-0.16984946,-0.06968331,0.086403914,0.023907831,0.033644535,0.031192206,0.05659227,0.16306743,-0.02449803,0.08296008,-0.010041108,0.024445172,0.13244349,0.040509477,0.035740018,0.13429718,0.036654923,-0.14463802,0.06765147,0.08155331,0.09687673,0.06272853,0.038705476,0.07419867,0.0673016,0.060409583,0.07610753,0.02057385,0.039392438,0.0879264,-0.11516787,-0.018572185,0.06573331,-0.097549915,-0.10065519,2.6853906e-05,-0.008253595,0.10085419,0.08233378,0.1801159,0.111799166,0.038148325,0.056338493,0.066664316,0.104857035,0.035219118,0.11223024,0.023537928,-0.037265744,0.010240498,0.087585315,0.059330855,-0.0044618337,-0.06495468,0.036033344,0.05817603,-0.06901545,0.043956086,0.0033479915,0.036457635,-0.052565765,-0.10325893,0.05038046,-0.085779935,0.050263733,0.074446194,0.002228059,0.062478375,0.043414425,0.12023735,0.029997675,0.13828237,0.010750036,0.07744898,0.066410296,0.06551063,0.08379834,0.088527165,0.16751587,0.04928673,0.12754941,0.103168376,-0.056979634,-0.16543195,0.00041014896,0.059989892,0.07563486,0.12416758,0.014205723,0.0038199432,-0.2077655,0.0043474813,-0.036921885,-0.11935187,0.08446024,0.061903317,-0.09853175,0.059153967,-0.07489817,0.007847392,0.07089343,-0.032986782,0.075467326,-0.12154802,0.015386972,0.06142007,0.02274965,0.07698518,-0.10561234,0.05837294,0.07348504,0.013894673,0.04068132,0.08417402,0.01055454,0.017284095,0.051030893,0.032035027,-0.006169711,0.040686034,0.01074322,0.01658505,0.05067588,0.08758705,0.078102335,0.09594385,0.048211195,0.07597215,-0.07298077,-0.025541386,0.06583365,0.09442109,-0.08215022,-0.13632977,-0.0649402,0.038893517,0.021048062,0.07505807,0.079268254,0.093996346,-0.11901484,0.06026167,0.06952937,0.038262635,0.06609255,0.046351507,0.110671215,0.0971541,0.09789239,0.020240728,0.103628814,0.023836784,0.06325343,-0.015330189,0.05130359,0.011625241,0.10247963,0.10739208,0.017564585,0.07098631,0.019459186,0.00915932,0.026083753,-0.07683386,0.057159886,0.07688561,0.033453982,0.0109584145,0.06674306,-0.017643582,-0.022479417,0.022737028,-0.13061526,0.049265277,0.12926297,0.061992057,0.092424996,-0.03307896,0.015860934,-0.17779607,0.019373188,-0.13905197,0.086893074,-0.057331894,-0.21216941,0.044283018,0.029711029,0.0814412,0.020286432,0.031436108,0.05834799,0.07504283,0.061728366,0.09731954,-0.066707335,0.05407643,0.12456658,0.003293234,0.07621994,0.06291644,0.07976317,0.07730751,0.09685986,0.038468946,-0.15293363,-0.09887299,0.012938789,0.010706785,0.01387781,0.03624205,-0.0061669904,0.007401323,0.06348581,-0.21862283,0.11116793,-0.007130561,0.10534371,0.0819574,0.14292581,0.1210867,0.094229385,0.16595954,0.07989685,0.090648405,-0.010715805,0.017302036,0.09907881,0.06420999,-0.091840774,0.04113851,0.1372519,0.06813148,-0.006090382,0.0113814995,-0.004896473,0.13912483,0.024389293,0.092423834,0.055339474,0.075771265,0.11699122,-0.13035801,0.068948574,-0.13859387,0.04271251,-0.006159668,-0.09406474,-0.017302888,-0.21904781,0.1076612,0.028467149,0.07808072,0.061505727,0.038275246,0.041709006,-0.06552541,0.00903832,0.05023425,0.039773688,0.0059822067,0.106791645,0.019663826,0.027480401,0.107792825,0.014509194,-0.01756126,0.04764109,0.00011888222,0.082492925,0.10842092,0.05018069,0.13864373,0.05345055,0.13820377,0.06756331,0.055511493,0.005923652,0.08781703,-0.01333572,-0.087279536,0.038062014,0.04905234,-0.017648917,0.011975226,0.053357214,-0.10498213,0.09258902,0.06133591,0.06296242,0.048353013,0.05839626,0.017998107,0.10559214,0.036255874,-0.029747834,0.033347838,0.037775125,-0.051593088,0.016667688,-0.14036141,0.02186121,0.06084401,-0.095216416,0.10443034,0.07785431,0.07478021,-0.047948733,0.063210756,0.13952851,0.08594215,0.09570014,-0.009928774,0.0038648897,0.050157752,-0.03944303,0.01612766,0.0009335565,-0.04053248,0.09119133,-0.17027551,-0.020065267,-0.01751125,0.0077629485,-0.054331645,-0.11180662,0.024556832,0.035121407,0.10489705,0.030329172,0.04004288,0.010822067,0.0059153344,0.040786892,-0.11037744,0.036507875,0.051691562,0.069484204,-0.17325306,0.09377949,-0.017718552,0.073900715,0.08689666,0.06557508,0.18110718,0.15224907,0.030616183,0.0054401704,0.06583214,0.05556967,0.013308052,0.08399741,0.034315262,0.095292166,0.024280464,0.038742557,0.07214632,-0.11090862,0.059053615,0.06929025,0.07388802,0.101268396,0.07429233,-0.087457374,-0.03350351,0.06923912,-0.05020362,0.06557054,-0.043569166,0.073196694,0.009473539,-0.020485224,0.0094061615,-0.05351495,0.014125913,-0.04630702,0.06326654,0.05066193,0.044930454,0.114408046,0.07626789,0.020262267,0.014641742,0.04123825,0.06532464,-0.0338163,0.09598969,0.08371713,-0.035300996,-0.19340208,0.050191343,0.031144552,0.050992385,0.07188682,0.023745118,-0.08043619,0.06205546,0.00554963,-0.043001458,0.030218132,0.026743876,0.0370705,0.07233071,0.014863341,0.12270855,0.07606291,-0.039945427,0.044664737,0.09558132,0.06386667,0.026696105,0.064252965,-0.003940976,0.123755485,0.012351405,-0.050984446,-0.14560236,-0.00030075884,0.057207905,-0.23579009,0.020382,0.06733672,0.0966881,0.047876086,0.05566327,0.06201765,0.061395217,0.036699716,0.044449944,0.06686919,0.06464284,-0.09573006,0.098072514,-0.05501291,-0.019070791,0.008604041,0.121281005,-0.047450185,-0.09167598,-0.016849274,0.050869055,0.00798384,-0.077964775,0.11030675,-0.10209586,0.0010415626,0.007988902,0.07977066,-0.04245429,0.013485294,-0.116124354,0.11266235,0.0008046237,-0.04685264,-0.124611475,-0.065810286,0.042430095,0.0048316517,0.032627836,0.05609566,0.08476191,0.0017475699,-0.035409275,-0.013156844,0.07157504,0.035243176,0.004919191
