4,32,3,3,3,0.020766824,0.034696784,0.02831339,-0.11555285,-0.046783205,0.027856776,-0.30762154,-0.4121165,-0.023784677,0.0128902495,0.018301686,-0.01876828,-0.0869329,-0.056739423,0.029130802,-0.44796786,-0.6010398,-0.052956868,0.035616685,0.028724637,0.016517237,-0.061425075,-0.04680762,0.043988902,-0.16061696,-0.20056906,-0.02777274,0.8536248,-1.2306958,-0.06653575,0.6726798,-0.16972092,0.04538782,0.23406953,-0.28381535,-0.01104302,1.5657563,-2.44012,-0.15965857,1.2954601,-0.5841129,0.15872405,0.40883994,-0.43851653,0.12807249,0.520819,-0.71209496,-0.05967322,0.45449936,-0.1725174,0.053128157,0.10785002,-0.17719288,0.0007175952,-0.972171,1.4635029,0.28131986,-0.67587036,0.071729794,-0.15488862,-0.19444092,0.3039394,-0.109966785,-1.8046703,2.8193793,0.2588295,-1.2890117,0.11216132,-0.22692254,-0.37322024,0.48669052,-0.07452112,-0.6856714,0.91019744,0.22030787,-0.28342587,0.051227912,-0.07774535,-0.14302975,0.13561863,-0.08127797,0.58000547,0.3913545,-0.10111787,0.09706577,0.03599093,0.003994353,0.12222558,0.02784054,-0.049319457,0.7777301,0.9986322,-0.05723533,0.18636669,0.1601374,0.01436051,0.1384334,0.051459394,-0.07132065,0.19050975,0.19111678,0.0184852,0.010077432,0.024944268,0.009966124,0.01940868,0.015845321,-0.019747734,0.03133355,0.052776784,0.01518257,0.020528086,0.114919364,0.07988613,0.040928017,0.11223517,0.07332143,0.06529529,0.08754096,-0.083429694,-0.16456585,1.5085474,-0.067176685,0.086064264,-0.12870175,0.107555844,-0.041422226,-0.110376045,0.060353354,-0.043443598,0.18940124,-0.0021416172,0.092763945,-0.072080456,0.022600427,-0.018104315,-0.06231569,-0.06488175,0.50099,0.19648942,0.05376132,0.33373672,0.07556138,-0.0065726694,0.20879032,-0.07367932,-0.031840548,0.98972654,0.37053025,0.011248477,0.5043403,0.1586611,-0.00125245,0.022040911,0.0008776225,-0.08225607,0.21880198,0.10731809,0.020543162,0.096255094,0.05545868,0.05426043,-0.012863517,-0.078851014,0.0032092966,0.03808842,-0.63324404,0.0011564456,0.031687275,-0.0061149434,-0.0005562771,-0.08811904,-0.0793049,0.038501628,0.0041026697,-1.3571261,0.07252616,-0.0015162304,0.086351104,-0.015193678,-0.0029528365,0.045514084,-0.019157983,0.010476321,-0.28308868,0.018805085,-0.0013372079,0.03270867,-0.016006457,0.059406064,0.18949252,0.05682394,0.31910992,0.39995676,0.13136864,0.089973755,0.12701823,-0.09484619,-0.37827614,-0.4492179,-0.23389353,-0.492808,-0.50760597,-0.25136355,-0.33515576,-0.34775752,-0.1357297,0.31173077,0.24606459,0.15946369,0.23828375,0.14564522,0.107889906,0.22422034,0.20386758,0.1415079,-0.74189675,-1.1372232,-0.4564233,-1.3602337,-1.6437705,-0.57602954,-0.7319493,-0.8129906,-0.14903612,0.58009094,1.076373,0.50705,1.2772446,1.6071787,0.5785329,0.75064075,0.7929435,0.15449613,0.18718436,0.038407564,-0.016096858,0.018141797,-0.07988298,-0.034041688,-0.0065291673,0.0033135386,0.010668103,-0.22789735,-0.36771363,0.018076308,-0.1965758,-0.22211799,0.00032081455,-0.06517449,-0.13193768,0.021585675,-0.34404793,-0.5347257,0.08234103,-0.4363767,-0.5855051,-0.024169512,-0.08390039,-0.3348917,-0.063594416,-0.32695693,-0.25501522,0.15912431,-0.24880764,-0.30221498,0.04834538,0.051597513,-0.19894871,-0.08613321,0.20076692,0.07204062,0.046629544,-0.18320513,-0.27362725,0.07360267,0.07938504,-0.025529765,0.16175786,0.069146365,0.06647305,0.21274675,-0.34256756,0.011880547,-0.003719367,0.038051743,-0.058088444,-0.024320146,-0.5313144,-0.5039564,-0.29706714,-0.5176931,-0.22017387,-0.24080582,-0.21038797,-0.15653688,-0.137862,-0.023301966,0.61824507,-0.87541854,-0.12063858,0.65502214,-0.21991083,0.050916623,0.28517675,-0.26431155,-0.08792676,0.7167653,-1.0036955,-0.15485583,1.2682445,-1.0031862,-0.026470348,0.5418781,-0.4401072,-0.08379416,0.49895597,-0.67525774,-0.049489707,0.782211,-0.37776363,-0.008309446,0.17677234,-0.117204875,-0.38231444,0.15242118,0.26953462,0.15811567,0.17638427,-0.055147797,0.20035145,-0.05891234,-0.23304427,-0.47901866,-1.205774,-0.6212471,-1.2955099,-1.7755146,-0.4005309,-0.6064172,-0.39782146,0.2325463,0.7783864,1.0657781,0.36107773,1.2645359,1.5269948,0.43763682,0.36562604,0.43500802,0.0056513324,-1.1336671,-1.2525785,-0.5848148,-1.3328352,-1.5230148,-0.61397606,-0.67128253,-0.66508675,-0.21316864,0.012341056,0.021018028,0.05975472,0.052938014,0.1329515,0.12465721,0.042579193,0.019476995,0.07462736,1.1224806,1.2296046,0.4729655,1.2828096,1.3743931,0.4739526,0.60012037,0.5915601,0.18648332,-0.049735606,-0.19442534,-0.24818258,-0.26388636,-0.37761635,-0.3199554,-0.32236958,-0.40140036,-0.38838634,-0.017377794,0.06317376,0.053893663,0.07991862,0.13288552,0.021441933,0.06611341,0.037271187,0.025894348,0.023748606,0.15017208,0.19305743,0.09926455,0.35066158,0.34522855,0.19267008,0.35624757,0.38597453,-0.5285755,-0.47450125,-0.07253574,-0.14172922,-0.14935587,0.14938511,0.15485863,0.0029575657,0.11377032,-0.7291547,-0.8340884,-0.16307656,-0.27240017,-0.23147488,0.16384678,0.22909492,-0.005518265,0.1383282,-0.24748242,-0.21472603,-0.08172351,-0.07225494,-0.09399277,0.039260842,0.03415408,0.032134634,0.0863291,0.060168665,-0.13345413,-0.016484326,0.9658193,0.9779324,0.2195441,-1.0142565,-0.7543353,-0.28497887,0.012068925,-0.13276654,0.016547564,1.7658814,1.3796998,0.35887453,-1.5277461,-1.541208,-0.45490903,-0.035882413,-0.0912202,-0.0298689,0.65471876,0.62373495,0.17732632,-0.6251505,-0.44667107,-0.16272363,0.32841387,0.015304692,-0.20828836,-0.049659528,-0.12451258,0.010026953,-0.20221262,-0.005710721,0.029506773,0.48402554,1.1829686,0.70733637,1.3537264,1.8346527,0.70205903,0.801391,0.833992,0.10226975,-0.79520375,-1.1741562,-0.50769967,-1.3262103,-1.7604318,-0.7253894,-0.5995145,-0.8211479,-0.11805021,0.72640365,0.81729513,0.13741711,-0.22392607,-1.1957176,-0.19810396,-0.0438293,-0.006964691,0.03306166,0.6036618,1.3483379,0.11992788,0.006821368,-1.8737222,-0.254906,-0.06648691,-0.12005237,0.14126936,0.5227482,0.46055162,0.091251895,-0.109839536,-0.7293314,-0.15638699,-0.026021242,-0.014599979,0.0014859699,0.09560932,-0.27772546,0.2248283,-0.06941588,-0.74913204,0.85313255,0.06384128,-0.10552047,-0.007183075,0.054659918,-2.8143091,2.827891,-0.007303998,-3.117164,3.0231004,0.058448788,-0.07451977,8.117035e-05,-0.0105932355,-0.16889222,0.14566037,-0.041521516,-0.12644337,0.24303976,0.061115623,-0.09940047,0.025235683,0.0025300384,0.019698037,-0.018676262,-0.45219976,0.07606361,0.031892575,0.013132036,-0.026263325,-0.0038228333,0.13348256,-0.14229679,-0.02163709,-1.7733303,0.11836691,0.030056302,-0.029753784,-0.120806664,0.005559301,0.108310685,0.034279592,-0.06198612,-0.2755785,0.12875454,0.0321721,-0.02481751,0.041741636,-0.019339647,0.79942864,1.393714,0.5546943,1.646411,2.1129186,0.64612734,0.65466285,0.67287266,0.16487038,-0.7941959,-1.4008414,-0.6572557,-1.4784535,-2.013172,-0.6574715,-0.6803237,-0.7055377,-0.093843356,0.011735454,0.056611523,0.1353371,-0.15556476,-0.1214724,0.008806888,0.04200531,0.028870845,-0.052799612,0.16046718,-0.32786053,-0.3981396,-0.10965371,-0.32826138,-0.015103856,0.048387356,0.053145364,-0.07784618,0.10289065,-0.6941247,-0.8002,-0.2012728,-0.55289066,-0.15067825,0.03497044,0.1633688,-0.121547446,0.08049062,-0.13769399,-0.279826,-0.055094406,-0.12681128,0.0035712905,0.01855689,0.026504062,-0.06247075,0.015199292,0.22399023,0.0325169,-0.005642444,0.06194739,0.0145946145,-0.013255227,-0.025270216,-0.00027753413,0.071813434,2.5318463,0.012574799,0.028583735,-0.013555214,0.009046432,0.02200808,0.014845446,-0.002656281,0.0052706674,0.68860143,-0.0134623125,-0.019099945,0.014107741,-0.0034717321,-0.012083322,-0.0051257573,0.009952113,0.21556473,-0.020317726,-0.12460919,-0.14155883,-0.031889234,-0.014658801,-0.024500005,0.050738223,0.008549273,-0.013088802,-0.025852531,0.0038362164,-0.05481971,0.037238013,0.043589037,0.04221805,0.03875361,0.011713888,0.0461201,0.0918501,0.13030772,0.0009371727,0.17196526,0.068107985,0.13682622,0.101689644,0.118259564,-0.6154067,-0.09984088,-0.0023893118,0.6339277,0.053017087,0.024639647,0.0477605,0.030612096,-0.047565024,-4.109093,-0.18679635,-0.16394925,4.153637,0.09249262,0.20932531,0.100300275,-0.012392208,-0.1061355,-0.38142028,-0.057158567,0.018235901,0.40745425,0.018169716,-0.026076727,-0.028391689,0.065122,-0.023770986,0.07564463,-0.09626229,-0.08769478,-0.5859108,-0.3968461,0.15004516,0.031989686,0.11628402,0.053100258,-0.052154496,-0.08416824,-0.09190279,-1.0460709,-1.0169961,0.13122816,0.038359165,0.18547146,0.16643727,-0.005387742,-0.047278017,-0.02559045,-0.2754009,-0.20222543,0.061187275,0.026709482,0.041672632,0.055582147,0.034769297,0.24100415,0.15072012,0.7500801,-1.0883957,-0.1931316,0.06308579,0.06984223,-0.01723127,0.29691458,0.16580041,0.20926607,3.4886987,-4.200738,-0.1467414,0.0051101744,0.09487972,0.043023653,-0.022465447,0.11846273,0.12189162,0.37164295,-0.52203715,-0.12505138,0.010869123,0.04362643,0.035857446,0.0,3.7252903e-09,0.0,1.8626451e-09,3.7252903e-09,0.0,0.0,-9.313226e-10,-3.7252903e-09,4.1909516e-09,7.450581e-09,3.7252903e-09,3.7252903e-09,7.450581e-09,0.0,0.0,0.0,0.0,4.656613e-09,5.5879354e-09,0.0,1.8626451e-09,7.450581e-09,2.3283064e-10,0.0,0.0,0.0,-0.062799476,0.12757154,-0.073294796,-0.31871998,0.56670034,-0.24231216,-0.3072443,0.57140094,-0.26262173,-0.072454356,0.12698168,-0.037415925,-0.4099753,0.7988731,-0.3008204,-0.3229208,0.7859832,-0.29434687,-0.045724932,0.055532787,-0.031172343,-0.18339123,0.29365578,-0.10086029,-0.16177097,0.29883406,-0.10433208,0.022319742,-0.0026264042,0.038049404,0.022915639,-0.081544474,0.026019454,-0.10937181,-1.4124653,-0.06220191,0.0037847422,-0.039950192,-0.032720476,-0.006139025,-0.094261006,-0.006860422,-0.14682694,-1.202539,-0.057786703,-0.012517622,0.05665115,0.013862446,0.039401762,0.0011672303,0.025449635,0.048271824,-0.9136994,0.048659712,-0.1421379,0.0159958,0.25401655,-0.5491378,-0.15275607,-0.17853571,0.7564305,0.12907739,-0.12028144,-0.25051793,-0.08785031,0.3385894,-3.1384861,-0.27913025,-0.26845893,3.4968693,0.1399976,-0.03628065,-0.041199446,-0.027005717,0.18422043,-0.24498488,-0.035344027,-0.0547885,0.31100118,0.105749965,-0.16244996
