1,1000,0.0047896923,-0.04395492,0.01655131,0.004759469,0.036533635,-0.027138041,-0.037811834,-0.038961872,-0.047348768,-0.042319097,-0.03544941,-0.08220315,-0.10335414,-0.06333559,-0.07080057,-0.091049016,-0.06151529,-0.09107906,-0.041945472,-0.02492846,-0.044170912,-0.08543373,-0.07196372,-0.07250795,-0.07652901,-0.05307307,-0.033927936,-0.044424802,0.010608276,-0.07747725,-0.060446434,-0.082697816,-0.042447194,-0.06267708,0.018845584,-0.07439232,0.004049873,-0.03405454,-0.020356955,-0.025741009,-0.014232867,0.029647516,-0.06081291,-0.12967919,-0.006569384,-0.054327138,0.021837007,-0.09640927,-0.068323195,-0.058584686,-0.062329996,-0.06724702,0.046667337,0.027932873,-0.003873883,0.012131723,0.0051209833,0.031149765,-0.025358805,0.06767476,0.08146876,0.040663082,-0.054659504,-0.044267695,0.024146887,0.028281858,0.002175072,-0.05069611,0.03979527,-0.016183333,-0.0238823,-0.03141237,0.0015614938,0.049183976,-0.018916784,0.034326863,-0.0028757309,0.018010389,-0.040376414,0.013209673,-0.045092992,-0.12769794,-0.021578752,-0.06437065,-0.13313499,-0.024176918,-0.0199892,-0.04463045,-0.05628573,-0.050911948,-0.0823442,-0.10368966,-0.043517385,-0.10977339,-0.18935224,-0.04978839,-0.041910335,-0.12584281,-0.068164855,-0.065981224,-0.05098937,0.015807427,0.014946215,-0.019976282,-0.0907393,-0.07912229,-0.044867195,-0.018183444,-0.034941763,-0.059217215,-0.04731436,-0.04394394,-0.04386124,-0.10673768,-0.08021851,-0.13641901,-0.0716299,-0.062249344,0.04423888,-0.056154072,-0.04578273,0.02397329,-0.014610534,-0.017595613,0.0039638802,-0.08726735,-0.049149726,-0.057519738,-0.051216856,-0.10052325,-0.034502413,-0.03707458,0.007060473,-0.034828424,-0.039960895,-0.0635596,-0.094137214,-0.039559174,-0.084394984,-0.062128946,-0.08969516,-0.03605778,-0.004097901,-0.057334762,-0.03802541,-0.04221188,-0.08889628,-0.025585257,-0.059745517,-0.02973451,-0.057833735,0.06775616,-0.05916445,0.044847943,0.02280279,0.07729204,0.045068726,0.025885975,-0.034127057,0.005475117,-0.06927884,0.062797606,0.04585249,0.07355889,-0.03808939,-0.0984562,-0.005876136,-0.0900757,0.042162772,-0.04327053,0.03020393,0.04193866,0.009514805,0.039771687,0.015803296,-0.11702917,-0.054543234,-0.0052773696,0.003886053,-0.027788809,-0.006983422,0.005900258,0.05174868,0.04864446,0.12769493,0.04398128,-0.010676463,0.06424811,-0.0017781309,0.072524816,-0.044858817,0.06791787,0.014439778,0.0022569988,-0.05412844,0.117540985,0.02709003,0.072583176,-0.008025785,0.064076,0.09046731,0.03936287,0.00010582022,0.045229834,0.02433559,-0.022619816,0.015000164,-0.0066063195,0.04729738,0.0133463135,-0.0025585413,0.020201968,-0.009909786,-0.03565207,0.0249112,0.043543253,0.0005452358,0.051751643,-0.0072855917,-0.0059929895,0.10810586,-0.054651357,0.00015005097,0.008372175,-0.070954174,-0.012255899,-0.002047208,0.05126667,0.04682959,-0.016046269,-0.022106264,0.0019270759,0.039889924,-0.001144377,0.049265195,0.0069010262,0.0873975,0.026006503,0.111180864,0.052358054,0.08011263,0.085897446,0.001674871,0.04015466,-0.016516758,0.073480904,-0.0067612682,0.0027461238,0.094903775,-0.006885905,0.060180116,0.047936413,-0.017546684,-0.00037644958,-0.003146946,-0.074300095,0.03223527,-0.029607465,0.020492949,-0.0029282724,-0.041417867,-0.011567066,-0.07115654,-0.024238497,-0.033194404,0.010122334,0.04855052,0.05143697,-0.21087417,-0.0010641976,-0.010993041,-0.057443995,-0.01887072,0.024097875,-0.00933081,-0.07401111,-0.05604423,-0.0038834307,-0.040157598,-0.022840753,0.020949177,0.033812825,0.043800354,-0.021011386,0.01333256,0.04538305,-0.049289323,-0.055928335,0.051301554,-0.00445055,-0.03900765,-0.1339325,-0.029396202,-0.04141252,-0.061742384,-0.078637764,-0.06952821,-0.00776023,-0.025150005,-0.023255339,-0.053583957,0.013076474,-0.015155277,-0.07086275,-0.049363058,0.0012964815,0.002078374,-0.034381982,-0.033566404,-0.02472574,0.0205442,-0.005736126,-0.0010134934,0.06043671,0.034682836,0.009328009,-0.043884832,-0.05804691,-0.039162498,-0.06598072,-0.030913575,-0.042680826,-0.031334244,-0.013912763,0.0066467333,-0.01918447,-0.028664943,-0.00094511086,-0.07915979,-0.07809463,0.0115795415,-0.016164307,0.019996712,-0.009579639,0.03972781,-0.09193604,-0.07250929,-0.040602915,-0.08447927,-0.041345038,0.037899207,-0.12643555,-0.055659685,-0.026268877,-0.115120515,-0.018864116,-0.05545811,-0.014550077,-0.0839478,-0.05501046,-0.057611287,0.015593678,0.019869693,0.0036550923,-0.051769733,-0.021811308,0.094479255,0.043215632,0.08420981,0.07339437,-0.00249364,0.041881002,-0.046636876,-0.042703107,-0.0819705,0.020372266,-0.038771436,0.0069244616,0.03189827,0.058393873,0.026116041,0.04978984,-0.03783274,0.0147009725,0.00897147,0.039809126,-0.078828834,-0.053075768,0.022366535,-0.01853901,0.04499026,0.039739016,-0.054319583,-0.038715817,-0.043829147,0.060654875,0.01799742,-0.049795773,-0.04698496,0.0005809973,-0.13361649,-0.017791571,-0.096039765,-0.031502936,0.03004913,-0.012776106,-0.050307855,-0.116827555,0.01676194,0.025970135,0.027804328,0.08212822,0.081144944,-0.070143506,-0.0710558,-0.017415006,-0.016747916,-0.054728426,-0.019730538,0.09671626,-0.06154574,-0.0539418,0.083304904,0.055445,0.00802011,0.026753306,0.008458203,-0.0407378,0.027256064,0.078365825,0.013338126,0.03170169,-0.00090935896,0.11141487,0.024106663,0.010677093,-0.01905895,0.07489381,0.037357163,0.03749587,0.0011184034,0.05852353,0.062987275,-0.081925176,-0.060605314,0.08014365,-0.030436603,0.022541782,0.005591247,-0.055165295,0.0885146,0.0340187,-0.032409072,0.01602936,0.0027919142,0.08317647,-0.008011449,-0.028295849,-0.02406066,-0.018610667,-0.07781835,-0.055756982,-0.017823098,0.087987594,0.06973078,0.06393599,-0.029114932,0.12426121,0.04334247,-0.008375534,0.038373075,0.046984464,0.059120614,0.116248675,0.0013519468,-0.052530166,-0.09689609,0.041756928,-0.0028649496,0.067694195,0.06268486,-0.04136613,-0.0716238,0.0041678846,-0.019824507,0.037273206,-0.06471353,-0.0025731819,0.036519885,0.020149238,0.05999914,0.026449427,0.023914836,0.0095870625,-0.026803996,-0.07686883,0.071549006,0.041970164,0.109577425,0.090381324,0.06734353,-0.02876135,-0.018777011,0.071326114,0.037794143,-0.000747755,-0.0638608,-0.011717182,-0.040849265,0.053898737,0.029901998,0.021689976,-0.028752258,-0.057726685,0.029838448,0.043316323,0.020730413,0.018294588,0.10614665,0.023696931,0.0023030455,-0.018738475,-0.011975749,0.11023108,0.043104626,0.09958161,0.04532208,-0.04328435,-0.046802185,0.012473528,0.031670794,-0.014575326,-0.027128197,0.12522773,0.01860913,-0.06551086,0.033248797,0.026685657,-0.015984265,0.029128574,0.08499862,-0.10558644,0.01751355,0.02409561,0.04152251,0.030878808,0.037521843,0.040340085,-0.0023888675,0.036376577,-0.051339716,0.002425847,0.043041777,0.024053425,-0.005481217,0.02298367,0.03407242,-0.038612146,0.0038886343,-0.058262937,-0.03441098,0.010016371,0.16806056,0.06629974,-0.03487372,-0.12104884,0.0029817706,0.0278626,0.06470012,0.09093749,-0.041965336,-0.014940848,-0.055769235,-0.023579016,0.027622525,-0.08138865,0.04948346,0.0038470838,-0.010854561,-0.10877477,0.025400538,-0.08538083,0.04053881,0.00029189547,0.054373194,-0.071956314,-0.07954056,0.03654019,0.023231184,-0.034452137,-0.0133161405,-0.029445011,0.13997644,0.03514705,-0.052338336,-0.005418339,-0.04318546,0.14474356,-0.020017793,0.021427061,-0.07291999,-0.0043913457,-0.06763539,0.06643983,0.057778914,-0.09042216,-0.061456215,-0.033600185,0.028667476,0.01864337,0.23477764,0.076006874,0.0065558814,-0.008172985,0.10295683,0.041804947,0.009034134,-0.046393815,0.039321348,-0.04137398,0.04755492,-0.031009257,-0.06672093,0.03910536,-0.06474869,0.044923782,-0.0013644757,0.10632954,0.07095115,0.035037205,0.0928042,0.01874653,0.12104726,-0.02156004,0.008290346,-0.08568735,0.08712949,-0.017609067,0.0022561024,0.03003536,-0.052587006,0.046889693,0.09266967,-0.01144743,-0.05411138,-0.10740019,0.064950086,-0.03445167,0.08906918,0.016336,0.038605575,0.06878245,0.03266473,0.052213755,0.013706222,-0.02630037,0.052754853,0.009472962,0.09292093,0.06293621,0.09580761,0.05412403,-0.009879079,-0.009128634,-0.025265925,0.043969132,0.024267547,-0.010985066,-0.05628534,0.08289973,-0.020752002,-0.054431874,-0.05103191,0.007103328,0.058932327,0.037547424,0.015977344,-0.03573433,-0.030094655,-0.013032398,-0.013133829,0.020734489,0.036015324,0.053731732,-0.0144569175,-0.039336767,0.080534905,0.03949241,0.080525964,-0.04189781,0.062090408,0.0941189,0.05175772,0.09284502,-0.07693678,-0.0620118,-0.098226465,-0.07925558,-0.01141849,-0.0017754118,-0.061807342,-0.0065299515,0.047869124,-0.07350926,-0.13774654,0.00437874,0.03584825,-0.0035730135,0.030784689,0.058550246,0.14631438,-0.020589562,0.025671868,-0.036952227,-0.056259796,-0.00995995,-0.035085425,0.077146344,0.045616932,-0.031627253,-0.03808832,-0.027152905,-0.13190429,0.025703814,0.025225142,-0.07914379,0.09402515,-0.056678172,0.016859218,0.05015936,0.032849316,-0.020402255,0.021301614,-0.08344628,-0.030082691,-0.0029917294,0.018101308,-0.065685056,0.0090322,-0.11894298,-0.048423283,0.1942652,-0.012031537,0.16899078,-0.0438681,-0.020447407,0.04588107,0.07876025,0.058379136,-0.019938359,-0.040451623,0.03950534,0.028261201,-0.006054676,-0.019803848,-0.00031666787,-0.033551943,0.042060625,-0.0651697,0.057857554,0.050742213,-0.06166839,-0.033763327,0.0991684,0.060891517,-0.023997236,-0.018905824,-0.06670767,-0.12128653,-0.010509466,0.012808981,0.11200599,0.042248677,0.0980563,0.08363799,0.037219115,-0.06948179,-0.007248601,-0.016884815,0.082977,-0.0016370941,-0.10497314,0.062798664,-0.0056002564,0.022519303,0.00021358917,0.081750885,-0.025808105,-0.05865588,-0.02235899,0.023036946,-0.052206457,0.10923106,0.06985478,0.11320249,0.018743932,-0.013529813,-0.09015054,0.059843604,0.09771029,-0.042154234,0.06437439,-0.0051626056,0.08685267,-0.025354434,-0.033332475,0.13618451,0.115749836,-0.006283436,0.122791566,-0.010627516,-0.06307491,-0.043932226,-0.051801372,0.0037638599,0.07316134,0.024408743,-0.09371641,0.064259686,0.013226383,0.0010642988,-0.013610455,-0.12666044,0.13812256,-0.019041514,-0.026763137,-0.10339457,-0.010786158,0.098003745,-0.0106931515,-0.03951488,-0.031308565,0.04581829,0.011231265,-0.035557248,0.052142333,-0.074222215,0.01055618,0.031038474,-0.09317572,-0.016650254,0.059705626,-0.0369007,-0.06679819,0.13705309,-0.08389919,0.13826744,0.19602905,0.022255661,-0.03620111,0.034728758,-0.08538817,-0.0262152,-0.04015036,0.005299045,0.12515455,0.07334692,-0.01522971,0.06605973,0.043388944,-0.01774268,0.13199016,0.081503056,-0.031977315,0.022040062,-0.005974791,-0.068581186,-0.06495761,-0.03270172,0.008333118,0.02811594,0.03244422,-0.0006466113,0.02712176,-0.044902965,-0.0090358285,0.010797305,-0.082223944,0.017854776,-0.024869109,0.009455174,0.038130827,0.051079396,0.016616924,-0.066071555,0.12468503,0.14114341,-0.021987634,0.029759504,0.090140246,0.12500086,0.035036266,0.016359726,-0.01142657,0.06012078,0.079482816,-0.0147937015,-0.08114902,0.018528195,0.048648994,-0.043781087,-0.11420493,0.08396733,-0.06119414,0.013287206,-0.065942116,0.121552885,-0.0058085485,0.14183043,0.16245061,0.032555413,-0.076544404,0.110674515,0.06556727,0.0757611,0.037386406,-0.06366129,0.0790591,-0.025326176,0.043088574,0.100735225,0.07420402,0.07219602,-0.01600147,0.010025886,-0.05364839,0.06280257,-0.0073508173,0.07344628,0.040474787,0.016208505,0.036765993,0.010279768,0.056708723,-0.011117327,0.019154815,-0.048508238,0.03619202,0.08373443,0.06304997,-0.0008829481,0.07343574,0.07310606,-0.06388163,-0.054329667,0.030318365,-0.0067642257,0.033476032,0.04323499,0.025062772,-0.013207908,-0.040447764,-0.020590924,-0.0313669,-0.039044756,-0.068309925,0.014214015,0.005537811,0.032795668,0.035514984,0.0540674,0.017082071,-0.06450273,-0.07149353,-0.061658956,-0.029492315,-0.07699485,-0.045541223,-0.0013422023,0.04064956,-0.015481207,0.05534114,-0.033953834,-0.027560227,-0.0037396064,-0.070694365,0.046119142,0.055741634,0.14786331,0.012010861,0.06596506,0.10050691,0.036955167,0.041107517,0.020698478,0.0853712,0.09183057,0.17236632,0.05193627,0.05256591,0.0063373116,-0.008317657,-0.041135795,-0.02237995,0.07436309,0.01245015,-0.038325764,0.044667494,-0.048306808,-0.066955544,-0.07681764,-0.00710818,-0.075926945,-0.09328339,-0.08485388,0.027467854,0.06024853,-0.05398389,0.0071998998,0.06922498
